encog,BasicNetwork,java,3.3.0,1,1469379375792
[BASIC]
[BASIC:PARAMS]
[BASIC:NETWORK]
beginTraining=0
connectionLimit=0
contextTargetOffset=0,0,0
contextTargetSize=0,0,0
endTraining=2
hasContext=f
inputCount=28
layerCounts=2,46,29
layerFeedCounts=2,45,28
layerContextCount=0,0,0
layerIndex=0,2,48
output=0,0,0,0,0,0,0,0,0,0,0,0,0,0,0,0,0,0,0,0,0,0,0,0,0,0,0,0,0,0,0,0,0,0,0,0,0,0,0,0,0,0,0,0,0,0,0,1,0,0,0,0,0,0,0,0,0,0,0,0,0,0,0,0,0,0,0,0,0,0,0,0,0,0,0,0,1
outputCount=2
weightIndex=0,92,1397
weights=-0.8600948024,0.1451027624,0.2158114563,-0.1141686612,0.1954149261,-0.1338880386,-0.6366702133,-0.077936402,-0.115765412,0.55926166,-0.6250247818,-0.425973305,0.4663647217,0.1437304681,-0.3779253886,-0.5025113504,0.188536644,-0.0432639925,0.3098185315,0.2650748446,0.7412498324,0.8454007513,-0.0097569473,-0.0077840179,0.7017831897,-0.8487279854,0.7635018892,0.1397401568,-0.199657344,0.3890646976,0.6401645804,-0.0538629034,-0.0371572505,0.1973417614,0.3112631556,-0.5133007972,0.2681832939,-0.449717725,0.2176994187,-1.1022221774,0.7466905286,-0.2394051518,0.2898082772,-0.6223364806,-0.3918061477,0.0861090212,1.0641582979,-0.3014616679,-0.1437116804,0.1565495105,0.0178436313,0.1182658484,0.1576964985,0.9827006767,-0.1136120538,-0.5554298501,0.685970121,-0.5785461899,-0.9540050765,-0.2287485307,0.5780708423,0.4351731303,-0.2459025711,-0.5477966224,1.1680602426,-0.5876706513,-0.5306247684,0.7584364332,0.0729406624,-0.1028172109,0.1763571485,-0.5381668701,-0.1673988095,-0.0201216113,-0.0419139141,0.9416474814,-0.2815113108,-0.557702679,0.0944217985,-0.0711155862,1.0214282852,-0.2810885072,-0.2074452329,-0.4733256895,0.5375514643,0.0620203916,0.0641988463,0.3144155742,0.49425813,0.3496407306,0.3047084987,0.8105489256,0.9431110512,0.2318745844,0.089270215,1.2637120014,0.0723830772,-3.5354231128,0.1326350954,0.0945077966,0.3398951072,-2.8522799915,-0.2108162324,0.2282203412,0.4320290551,-0.8287262695,0.0109985968,0.007080828,0.4059163475,0.0616809462,-0.0712425704,0.0460165863,0.3479371895,-6.6734803247,3.49560714,-1.2095317427,3.5044339548,12.2870776236,-30.2076608613,-2.0106320021,-0.285006268,9.3821676956,0.2092810239,-0.4612980219,-1.9057757555,0.7299604294,1.8704215796,0.5166249686,-0.3634025973,-0.1570116125,1.0441185876,0.8860363315,-0.9560400403,0.0572848885,0.7042961448,0.8134329836,0.0075459442,-0.2426735457,1.1204862472,0.0090775975,0.6786727738,0.2200933758,-0.4137067295,-1.3724493724,2.3422275305,1.2308243443,2.3275193922,0.1986741789,-1.8248262107,-0.4897121356,-0.8473483469,0.0745529401,-0.0163844611,-0.8129989933,0.0680278954,2.8869832755,0.5883483429,-0.1209108669,-0.4902663655,0.6400257612,0.1322308095,-0.5468543337,-0.3200479845,0.4274943955,-0.1690127942,-0.1704474378,-0.2310777425,0.3138150975,-0.2187392271,0.5567551052,-0.601771086,-1.228447044,0.4858081496,0.3353625421,0.8898312484,-0.6785158589,-0.0607056736,-1.6374501373,-0.1261990669,1.0080819446,-0.5212298509,0.4329099087,-0.8807136902,-0.2067850435,-0.4756584877,0.2934254114,-0.9057029849,0.846358734,-0.1650643527,-0.7496853081,0.0924179332,-0.2291389497,-0.8878216747,-0.0613740356,0.1829808788,0.6565459113,-0.3289942427,0.0482809543,-0.1580296603,0.7822674502,-0.1283428885,-0.363216456,-0.2834763865,0.6222576361,-0.0288812164,-0.6578500847,1.8292130189,-0.3307211417,-0.5722530446,-0.3715878889,0.4562976142,-1.0541644439,0.9526078131,-0.4747724183,0.8280777504,0.2613264816,-0.2466953662,-0.3484263508,-0.5869760374,-0.375057212,0.054421352,-0.0833422623,0.8209033833,0.5115939047,-0.0520751601,0.4945116307,0.0226019097,-0.361724081,-0.2379830646,0.5288151421,2.0401740658,-0.3879636081,0.6020147852,0.2950830904,0.2214263238,0.0707213798,-0.5829769517,-0.4759531422,-0.9309400232,0.8539324054,0.3485718678,0.5911744194,0.1164925408,0.5527490585,-0.182238218,0.0238881993,-0.9167492567,0.44457208,-0.7969862395,0.3310373911,0.6333815294,-0.1753488345,0.5038218625,-0.52549866,0.7001390974,-0.465485609,0.9386081937,-0.4087387367,0.4954107351,-0.768159142,0.127123862,0.1511119529,2.3955634565,1.0181773076,-0.5769971818,0.0670979409,1.1780881624,-0.4346358938,0.3042570416,1.0100765823,0.3100723397,-1.2084305124,0.6106645807,0.2422619942,-0.1373647557,-0.9226295938,-1.0121273643,0.7444017445,0.1422375854,-1.536961126,0.3215250251,0.2006318868,-0.0950709909,-0.5988605707,0.5151755784,-0.0658268493,-0.3907350331,-0.5897047218,-0.0611378941,-0.0989364152,-1.5557502924,0.8513990463,-0.2687845238,4.9330293125,0.0649818384,-0.4985003078,-0.3702507132,-0.6012903037,3.2190525153,-0.1874312582,-0.7726970271,-0.1224622792,0.0017195658,-0.4869953334,-0.9192919975,0.495316927,-0.2929245903,-0.3221828824,-1.4695213412,0.3831481313,-0.03800131,0.0601174587,-1.4566723126,-0.6080693047,0.1254805469,0.4246598978,-1.6717135893,0.6715410076,-3.2698832292,0.9273717375,0.8837510938,0.4120907955,1.5313525739,-0.8342618481,-0.021253376,-0.4954412028,-0.598664312,0.0774936777,0.0559339218,-0.7053197822,-0.4251418947,-0.9357594886,-0.0308406603,0.4869737187,0.4426012926,-0.392532241,0.4848392927,-0.6233130618,0.4217655752,0.3489932554,0.8178611471,-0.5566606963,-0.6375795706,0.0287556056,0.4444753113,-1.5061446348,-1.7527891645,-0.6964792856,0.1464958707,0.5402988439,0.0464538467,-0.9106271601,0.2911276673,-0.9943113645,-0.1488568686,0.009563582,-0.0660033298,-0.1219788006,0.1626730394,0.1715356453,-0.0349773437,-0.4726982036,-0.4349655724,-0.1439720836,0.0891825633,-0.451883641,-0.5705267143,0.2143692277,-0.1439007659,-0.43656288,-0.4585622915,0.0433595754,-0.069628187,-0.4671840562,6.0834510452,-3.7806435239,-0.5274232773,-2.6479123002,61.4338116135,-3.0687191754,-0.0120693282,-0.9702471416,1.0888262578,0.1160728302,0.0761893842,0.8539628308,0.042457017,-0.8209409411,0.4597517115,0.3588586935,0.138927471,1.2437767367,-0.1256566445,0.2494088381,0.0198650193,0.4633779272,0.3042179221,0.1471636597,-0.2479964233,0.8731876835,0.1256985867,0.1168310619,-0.2937497105,5.3173689081,-0.6832781706,-0.6518692843,2.0810078239,3.6799655547,1.135215614,-8.3746793183,0.4545068373,0.2544922405,0.4122526172,-0.2309475763,0.2937014246,0.1259489646,-2.1560525913,-0.5955798559,-0.4049777057,0.0334110487,-0.0856484711,0.031870545,-0.603485812,-0.1375537597,-1.1368296574,0.2952759985,-0.4546430987,0.1380544414,-0.0832131155,-0.7060656909,-0.1099336066,0.6365814831,-2.2544791882,-1.4366174652,-0.0409115985,-0.4134621944,0.3375368953,-1.6133467943,-0.9519182791,-0.6192615355,-0.870933664,-0.1441032146,0.2105353188,-0.2074425602,-0.0130059426,1.7590679675,0.4500803415,0.3973152728,-0.2854471468,0.3437578993,0.2248264339,0.2609190539,-0.1229924883,0.221964849,0.0631632803,0.1329330364,-0.2330674985,0.1736695,-0.1182391228,0.1636004565,-0.200954721,2.2757483586,10.2697300956,-0.4863338837,9.3658672428,-15.5135250183,-0.2755085805,-4.0401983465,0.2772535059,-1.003578168,-0.5312191575,0.6408398143,-0.982010361,-0.8483126357,1.0603601377,-0.8023818212,0.8049715252,-0.0809383367,0.0542092392,-0.4298084047,0.2745625809,-0.1189015447,0.51426136,-0.1211383777,-0.651633821,0.4633465274,0.0993865426,-0.0128293897,-0.3163193162,-0.5024819115,-0.1351597164,0.4891502009,-0.7565022066,-0.3396000422,-0.2096874465,-0.7036727102,0.2803740026,0.0996952071,-0.8462855249,0.6424966744,0.8497951053,-0.389376999,0.6185332207,0.7601468761,0.0071754294,0.3107165571,-0.3303951238,-0.5194723304,0.8130052264,0.3316305694,-0.393709592,0.2111659307,-0.5909468061,0.1902604841,-0.0050422029,-0.2573805588,0.5029796196,-0.5022411829,-0.0678971217,-0.3705270883,1.8663732447,0.2341309173,0.7477953623,-0.4356919936,-0.6889548775,9.2450505854,-0.5396457396,-2.1253678905,-0.0590374194,-0.2978642667,-2.0014129742,-0.3070127948,4.2660500553,0.0427747068,0.0231745962,0.2695290872,-0.5900680282,0.0723352971,-0.0867305278,-0.0700210697,-0.4722187277,0.1943581649,0.1273191715,-0.1819001332,-0.7802047829,-0.0580666102,0.0537080641,-0.336227137,5.2117062825,1.3726951355,0.1210391455,0.3986398073,-0.44282201,-15.6736325141,24.8016970504,-0.0908545023,-0.2124249135,0.9830289811,-0.1966856972,2.7789338759,0.6432423352,-0.3180902209,0.1399968985,-0.2362662648,0.1508506726,0.8200344312,-0.6923151248,-0.2510438688,0.3335603115,-0.241563354,-0.4058679838,0.6291780048,-0.351300722,0.3236231888,-0.2700506097,0.2265470174,0.2947347574,0.6266926933,1.0726559916,1.8877666927,2.5219947927,-0.2157027632,-0.4451666292,0.5822326908,-0.1059991877,4.0873767049,0.5078757353,0.3328323905,4.1126660255,0.194835746,-9.428130464,0.0926967627,0.1216362641,-34.9730361326,0.2865150634,0.033302561,0.1297754861,0.4322913286,-0.6874196943,0.14448352,0.1728042977,0.5941492016,1.6027836728,0.0761869104,0.0504471723,-36.8646705902,43.2034417733,-56.4314644507,-1.6392333302,-0.8217919686,-8.742128997,-7.1003712631,-7.0136100927,-0.7039863878,0.2651867444,0.6580363488,0.2294338204,0.418119046,0.0127188925,0.9490314837,0.7953749915,0.1840725839,-0.1282936759,0.4537813416,0.5602028385,-0.4891441588,-0.4175791292,-0.7546285242,0.3945407139,-0.1351844652,-0.1277782126,-0.0030314333,0.0316348021,0.1937865993,0.0026774885,3.7242909554,2.9472997014,0.0872030053,1.0814630731,0.1291193731,-0.0346073033,-0.3831847617,0.4926577383,0.5713825932,0.2390928566,0.002395853,-0.0367863107,-0.0365699561,-0.4437349122,-0.337259947,-0.7013400137,0.3823243869,-0.3269565876,-0.3560330801,-0.1339330261,0.0745024833,0.5052303443,0.0866203081,-0.2739852665,0.1800799667,0.5846997018,0.547728493,-0.3556518111,-0.2261024125,-3.848810977,-0.4835032144,-1.0054249128,-5.8330219243,15.9923346111,0.0336807816,-2.1059510362,-0.5759264341,4.7426854277,0.1392523071,0.0953397039,-0.0066971437,-0.0487338393,3.5445027967,0.2736616986,0.1064679392,-0.7367406593,5.4533569563,-0.8835167548,0.2907711306,0.006851724,1.3584842371,-0.3629771667,-0.1288427945,-0.0268912865,2.2136364836,-0.0048619285,0.0222804944,-0.1518411032,-10.568412644,-7.1022780551,-0.2820117897,-3.3897380476,-1.0164392231,6.7312061551,8.8616100559,0.6965757402,0.2702755501,0.2876472832,0.6368360913,-0.2222738107,0.2616250738,-0.2637248463,0.3388870109,0.0394433862,0.0117992193,0.7763333697,-0.5074593973,0.4256010768,0.123421874,-0.3644617533,0.3718417815,0.2247780203,-0.0226628848,0.6817058218,0.1981842875,0.0479715945,-0.3010473956,1.8883529594,0.8126029228,0.6654562586,1.6218076559,-1.5516995868,-0.0007557047,0.6027375418,0.4421788707,3.1480562108,0.7412941596,-1.1825667371,-0.4249167508,-0.2624825903,-3.2290755227,0.062871327,0.2976451568,-0.5721087788,11.8148482568,-0.3781978048,-0.3268248857,4.8863484478,0.4400407499,-0.0408515099,-0.7816699927,-0.8411162941,0.1239431891,-0.6151815156,0.5671007701,-0.8129106144,-1.5998474117,7.5266548389,-1.3186702357,-0.1801502818,0.3631131195,-0.5172133092,0.4062571009,1.0695426826,0.8823804352,0.494664448,1.4277385512,0.866000319,0.8606487016,0.758092546,0.7401383656,0.4487719093,0.2448022927,1.4279014752,0.732820299,0.1475282198,-0.722126491,-0.5968406606,-0.7558007223,-0.5271097364,0.098954656,2.8551005121,0.1716599226,-0.3647745615,-0.1286441949,-0.0407719355,0.4690435469,1.5178516369,1.6981774781,-0.4930738257,0.7314084742,-0.71704044,-0.8411935484,-0.7525753424,-1.233084685,0.3129087244,1.5214777912,-0.1319546144,-0.3967868244,0.8668466765,0.1007609994,-0.1808396655,0.0736618067,0.6562797291,0.4481485357,-0.3014336523,-1.0382396463,0.5693712036,-0.2777809263,-0.2039941899,-0.153990053,0.2681872625,-0.3066902423,-0.3242963832,0.4529163241,0.6514632082,0.4839597556,0.6593640945,-1.766059235,4.3249960391,0.1167502016,1.1387237578,-3.011917294,-0.4197143011,-0.1630625535,-3.1628316453,-0.0958031,10.6135721205,-0.1366255103,0.1106162194,-0.5888438971,4.1417962515,0.0553540972,0.0706177337,-0.7062335887,1.1612165262,-0.1517210064,-0.0668185875,-0.6867046754,-0.005994716,-0.1464943452,-0.0103488162,-0.4205259609,-15.2335971961,24.0092530802,0.7023639333,0.6467175737,9.7022863973,35.1346819159,-8.6062200166,0.2886754421,-0.6646406361,-0.114006465,0.2920968606,-0.3038314464,-0.8580469969,-0.1019228244,-0.0346417745,-0.7211438603,0.3616241851,-0.6993496489,0.2810251377,0.5704962341,-0.4217879835,-0.9658765946,0.1666331957,-0.0874936929,-0.0494850101,-0.984502187,-0.6205018911,-0.6116381731,-0.6409695696,-0.9165187213,0.4829141683,-0.6500519343,-0.5694682399,-1.347965511,0.7737786427,-1.8426543487,-0.1610151464,-1.6856029097,0.8449317452,0.4530730762,-1.5997269822,-0.3466561309,0.840686273,-0.9736564123,0.4587419049,0.1723941352,0.7542937671,-0.11133368,0.4549719079,0.076019723,-0.151095503,-0.8258044378,0.6698213926,-0.3034096999,0.2984256602,-0.0900997073,0.4392104088,0.7804178192,-0.925937047,0.6239206415,0.6713857389,0.9620693775,-0.604801986,-0.4215300445,-0.634321548,-0.9016718903,0.0514845534,-0.4597101841,0.0989108748,0.3104191965,-0.4564221976,0.5277148271,0.4751853532,0.8391118536,-0.2542568073,-2.2831608611,1.0081610632,0.2982515319,-0.4986558344,0.671462696,-0.0751877553,-0.7932352774,-0.5802349877,-0.0285651415,0.7778733298,0.1758102145,-0.2039222943,0.7422398818,-0.7900293115,-0.3643375008,-0.0355353626,2.2091132061,4.4590780269,-0.0925330263,-0.1665924244,-2.6946324583,-0.0046387005,-0.1308583469,-4.7460920789,-0.3588744888,1.330825689,-0.1196598298,-0.2840392856,0.3317416012,1.7098817499,-0.8436895918,-0.2518731183,0.0954330132,0.9294322278,-0.0494565152,-0.2328336058,0.1000890891,0.8062120205,0.28542288,0.1138664211,0.0161468742,0.4184958823,1.1914353006,-0.2501530766,-0.2076064053,-3.1020598279,0.1741746033,-5.0762204811,-0.4409773456,0.2656619648,0.1846707894,-0.0682249372,0.0382117068,0.1413575865,3.9127158906,-0.2463693723,0.2120752476,0.9030603369,-8.2152922077,0.4188310145,-0.024565244,0.0773531123,-2.6421242101,-0.0115533743,0.2751288513,0.1985436507,-4.2401958272,-0.1712716859,-0.016452236,0.4085704981,8.0872404283,0.2036945591,0.4543578072,-2.8396179728,-2.2316278079,-4.9281497197,-5.5450361068,-0.7577071053,-0.4682447529,0.8785495854,0.2727518814,0.2244806795,0.1323106233,-0.6803588575,0.5116677098,-0.1264238379,-0.2585314499,0.8761754473,0.7430178648,-0.3300783762,-0.5244546065,-0.2673215418,0.3677426654,0.1366714437,-0.1556693302,0.0512488379,0.5466216779,-0.319779975,-0.2517024444,2.2554418302,0.9280730184,0.6245950909,-0.9615128526,2.9290090742,-0.9895837966,0.881801167,0.3625252858,0.8955656821,-0.081852947,0.3871841278,0.8929431106,-0.8906562624,-0.0504196515,-0.6107598449,-0.4601620502,-0.0294520979,0.2515666673,0.82655353,-0.3248043215,0.4107771915,1.7038600505,-0.0532901167,-1.1285800858,0.2991605888,-0.2394215026,0.673755652,0.870457493,-0.5736909764,-0.9267640268,-0.8261526671,-1.4969493747,0.2768999151,4.4430490664,0.058327023,2.5950917703,-0.8028988542,-0.2689460784,-0.1230549958,-0.3211369453,-0.8710820685,0.0436976641,0.0728758885,0.438546918,-0.1071291461,-0.3752157172,-0.414079016,0.0834889215,0.381173595,-0.2525595269,0.3041634197,0.0978694465,-0.5510200285,-0.0122022511,0.2024827301,0.651944443,0.0688914487,-0.7320663043,-0.593664051,-0.2319363069,-1.0169826951,0.1318307259,-0.1966637595,-0.2303979893,-1.2579551667,0.5821098633,0.0798578263,-0.1135771166,-0.6023086304,-4.3445122002,-0.1413517426,1.7580455745,-0.569912003,-0.4194355315,0.0390939627,-1.5739488322,0.5471922388,0.1098090326,0.3223125543,0.2655063809,-0.9791839364,0.0491511376,0.2135147819,-0.7344715266,-1.0050998919,-0.0488077433,0.3359578931,-0.7237119675,-0.6481509258,0.0959260464,-1.9161969804,-0.6850861383,-1.36936717,0.3369728616,-0.5949461859,-1.7336579934,0.4431915566,0.2400770201,-1.7778539071,0.1288983294,2.9566649233,0.4181315955,0.2873578677,-0.0586909293,1.815384916,-0.0088957895,-0.1077851032,-0.1766455856,-0.2738239176,0.3298334972,0.1914663344,-0.142807787,-0.3000307246,-0.2119491252,0.1739431101,-0.0268369048,2.2037385499,0.1334943287,-0.1962479808,0.6228828482,-5.8257002912,-0.7926418073,0.1333184215,0.9295413028,1.5997050848,-0.5332356575,-0.4300945857,0.2266307996,-0.1065533358,0.51612644,0.0752806971,-0.3159280128,0.5057687453,0.7793226057,-0.5838022275,0.9969218241,0.232277169,0.6151567161,0.9972424381,0.0911713624,-0.1049448611,0.0360397767,0.8882650939,-0.4393045104,-0.2447752072,-0.863677855,2.0052876052,0.8362281306,0.3652855969,-0.0800018731,-0.666239096,-0.0685704818,0.0805909528,1.5812213317,0.6377493022,0.2152255214,1.0012989826,0.1506300743,-3.0338935895,0.1173168795,-0.0138822371,0.4987043858,-2.4531674045,0.0588085656,0.0583909644,0.3925074428,-0.3584547597,0.0668088967,0.3101091842,0.4053504751,-0.7601534662,0.0370171191,-0.179136509,0.5595189296,5.7070715687,-10.6573655798,0.5795184773,-4.3371555011,-5.1461999752,-9.2353374056,-3.3949281491,-0.9689683121,0.8535829475,0.7460322485,-0.4053431338,1.234301587,0.1318496741,-1.8022612143,-0.1474128749,-0.0680778539,-0.5617934571,1.4568730304,0.7055538143,-0.0950417412,-0.474044582,1.0331516946,0.5794306301,-0.2544533689,-0.1186501758,0.7162719654,0.7551916494,-0.3443885855,-0.5365768586,0.3930297363,0.9887455596,1.1400520244,1.040677068,0.1432810593,1.0973351364,0.1346774455,1.2816214078,0.0840802118,0.1876892833,0.1838121212,0.7682679214,-0.0975694439,-6.3918287034,0.069122845,-0.1289286656,35.2017530227,2.3507831274,0.0163158311,-0.1832372663,-0.197407384,-1.708976753,-0.0660268754,0.0382524673,0.0000766636,-1.4945804876,-0.1293134776,0.1538303698,36.1475255382,5.3712453404,-8.4735251857,0.969336691,-0.868188826,7.6802820854,-11.0409735115,16.4722702653,1.7549333652,0.7709935826,-0.3746856788,-0.0823804656,1.6029301334,0.7784362606,0.6378312744,0.3093204289,0.6797747045,-0.3140327329,0.0994321501,0.4575592593,-0.3502859489,0.278910624,0.5672945379,0.0095280254,0.0103738134,-0.1638994239,1.860313233,0.9992296904,0.5511296414,0.5662113024,0.2527430558,1.1987501938,1.2075820683,2.2184812677,1.8070413846,0.00823376,0.6614480521,-0.5392734917,2.9430652308,0.8096023344,0.1575353994,1.9544542381,0.2553383843,-0.0386580337,-0.7633562023,-0.2415209349,-0.402788252,-0.3702230845,0.229513645,0.2734995695,-0.3939945912,-0.1170121349,-0.370389581,-0.3722482709,0.2989925399,-0.2678394836,0.5407768911,-0.8056345754,0.0143166068,-0.2115323612,-2.3987683402,-1.5777639771,-0.0394616361,-0.4349611252,0.7750969316,3.1528168648,-0.6454928688,-2.6682302857,-0.2296531273,-0.064260475,0.5444466818,-0.1621356186,1.5982984385,-0.1710509278,0.1910159031,-0.660372208,3.1709631772,-0.2532719633,0.2758708373,-0.4845252033,0.4076395164,0.799932158,0.4138342061,-0.5787509705,-1.2345090805,-0.2538066941,-0.1024936998,32.7673628434,-1.5353831437,2.0155790982,0.8109985355,0.9857993496,9.580804793,6.512884318,5.367987703,0.8801810848,-1.0832942367,-0.8821033627,-0.0317779064,1.1962423082,0.3731948098,-0.4120691582,0.4328090359,-0.2582525547,-0.8058465198,-3.6022805185,-0.8851173086,-0.1651015746,0.3202557949,-1.1115363115,0.5280121737,-0.240931003,-0.0236085718,-0.0092844401,0.4615429669,0.1171064573,-0.3944889132,0.6273041362,0.5339210784,-0.3654936136,1.369252262,1.5072700278,-3.5307764877,0.9654099229,-0.7562877158,0.7013109671,-0.0081294713,-0.3067054655,0.0336329221,-0.2409673809,0.3083237915,0.3387163024,-0.007312611,-0.7830144628,-1.4928638898,0.023262277,-0.0058538905,-0.703885414,0.4956912559,0.2565909184,0.0000498823,-0.7066795096,-0.7628562622,-0.3427398063,-0.0232944688,-0.7674319873,0.2145324339,-2.4910675802,-1.9677855115,-1.4114800645,36.5291552323,-0.6184664224,1.3737360187,-0.2237453056
biasActivation=0,1,1
[BASIC:ACTIVATION]
"org.encog.engine.network.activation.ActivationTANH"
"org.encog.engine.network.activation.ActivationTANH"
"org.encog.engine.network.activation.ActivationLinear"
