encog,BasicNetwork,java,3.3.0,1,1469380955178
[BASIC]
[BASIC:PARAMS]
[BASIC:NETWORK]
beginTraining=0
connectionLimit=0
contextTargetOffset=0,0,0
contextTargetSize=0,0,0
endTraining=2
hasContext=f
inputCount=28
layerCounts=2,46,29
layerFeedCounts=2,45,28
layerContextCount=0,0,0
layerIndex=0,2,48
output=0,0,0,0,0,0,0,0,0,0,0,0,0,0,0,0,0,0,0,0,0,0,0,0,0,0,0,0,0,0,0,0,0,0,0,0,0,0,0,0,0,0,0,0,0,0,0,1,0,0,0,0,0,0,0,0,0,0,0,0,0,0,0,0,0,0,0,0,0,0,0,0,0,0,0,0,1
outputCount=2
weightIndex=0,92,1397
weights=-0.8595604023,0.1507581685,0.2178077888,-0.1366110128,0.1612159058,-0.1174404609,-0.6339560258,-0.0796721473,-0.1259797347,0.6775813576,-0.6208659193,-0.4260186128,0.5145887605,0.1438834554,-0.3760351339,-0.5587998952,0.2251986718,-0.0295664963,0.3100623067,0.2506420355,0.7412210147,0.845707728,-0.0628434243,-0.0030511833,0.7027415317,-0.8711233033,0.7630230178,0.119163468,-0.1894867471,0.388615495,0.6350288436,-0.053171371,-0.0624610328,0.2387873971,0.3102931765,-0.5134025352,0.2679266781,-0.448172997,0.2176250725,-1.1017658025,0.7470055008,-0.2754766151,0.1309333302,-0.6219146217,-0.5647138308,0.0864916517,1.065849934,-0.3017261035,-0.1856237373,0.1509598706,-0.0296124616,0.0924289596,0.1504364744,0.9841714719,-0.0567106452,-0.6175451153,0.6773497318,-0.5770064363,-0.9553852306,-0.1679956603,0.5071864243,0.4501527946,-0.2551612486,-0.5462067513,1.1662276146,-0.5854071322,-0.6237398589,0.7567843399,0.0891316845,-0.1036876642,0.1337531409,-0.0734743491,-0.1662289845,-0.0121081282,0.0114323687,0.9433753106,-0.3061688431,-0.5595463755,0.0970823873,-0.1498829355,1.0231536323,-0.2820797044,-0.2085198564,-0.4729889505,0.5359467337,0.0610458506,0.0602622991,0.3140052858,0.4942379813,0.3517735983,0.4660913317,0.8088923386,2.3163625522,0.2314706815,0.0917555239,2.5719913556,0.0754429616,-3.723187581,0.1321066302,0.0953487092,0.3233234794,-2.8494854295,-0.2084089678,0.1746049624,0.392478747,-0.8281367233,0.0112748252,0.0251265614,0.4056472029,0.2709916013,0.0282856174,0.0466550422,0.3576070511,-5.4559277797,-0.235385775,-0.4956979941,3.8646504493,12.2682285661,-33.8441799635,-2.4797844302,-0.1556514302,15.2901890996,-0.0666714296,-0.31670996,-4.4136878806,0.2791850015,1.8735486864,0.6185059353,-0.278376819,0.086891819,1.1102128286,0.8486545978,-0.4914376485,-0.10587742,0.7036416819,0.4824162823,0.0288600882,-0.1762437482,0.9528925027,0.0089798256,0.2700173745,0.1097547181,-2.5116456395,-2.5576702641,6.1023128836,1.3321498317,-4.4646001404,0.2001014465,1.0154394307,-0.4877393885,-1.6987734929,0.0724139021,0.0995072516,-0.836424533,0.0680773433,5.5531028351,0.5888676318,-0.1202358615,-0.5198248182,0.639791494,-0.2201060781,-0.1552397311,-0.3201259829,0.4264456661,-0.171333868,-0.1634387559,-0.3393890567,1.3095478747,-0.2174276321,0.2916821138,-0.3529012982,-1.2228970759,0.5090467643,0.3373603035,1.0614869453,-0.6871199477,-3.8442224367,-1.6399905328,-0.1237313176,1.00819407,-0.5215652726,0.2286954177,-0.8817311544,-0.2138117452,-0.4780471651,0.2950245436,-0.499788805,0.846168708,-1.3977297763,-0.7490447603,0.0920909674,-0.1847743449,-0.883260759,-0.0516894836,0.1766487707,0.6536635604,-0.3284247013,0.0547980283,-0.1579700596,0.6611195491,-0.134680492,-0.3615060653,-0.2833622412,0.6223939199,-0.0242202721,-0.3886591249,1.9123536372,-0.3330039769,-0.5719009893,-0.3732585341,0.4567275307,-1.0840341297,0.9527263879,-0.4756968318,0.8283022555,0.2611481591,-0.2470300523,-0.3315677891,-0.5870921321,-0.3738798476,0.1605927225,-0.0847465894,0.8172957683,0.5109911344,-0.1668322314,0.4952565369,0.0227923816,-0.3592187169,-0.2364353676,0.5324917923,2.0493800431,-0.3870802276,0.6021777855,0.2943874121,0.2207040374,0.069440245,-0.5815678632,-1.0309389763,-0.7851234694,0.851439538,-0.4910731454,0.4084192416,-0.3268298109,0.5527769544,0.1776471897,0.0294686063,-1.1061360832,0.4449308694,-0.7922135753,0.3478471373,0.0637944264,-0.1754471918,0.5034067313,-0.3875788376,0.6980925224,-0.4658777069,0.9409786377,-0.406552131,-1.0088824777,-0.769017795,0.1265721533,0.1523918623,2.3946763795,1.0178987127,-0.5775629304,0.0657685781,1.3263387402,-0.4067619734,0.3035978742,1.009586829,0.3080450774,-1.2087664022,0.6101674766,0.2298096234,-0.0760363318,-0.930808167,-0.8833109153,0.5505874999,0.1392458628,-1.5226570696,0.3213405859,0.1928295389,-0.1175017191,-0.6114050018,0.44378015,-0.0470653552,-0.3789203415,-1.1607280055,-0.0517532962,-0.1021192675,-2.3030343325,0.8504748157,-0.2673113825,4.9337118538,0.0641510082,-0.2514097913,-0.4557947996,-0.5981356452,3.334847724,-0.1775565252,0.4838312812,-0.0142055808,-0.2191883252,-0.2802760062,-0.6881514683,0.7442827183,-0.2927899444,-0.2360689537,-1.0500179398,0.3728031337,-0.066041463,0.0664483118,-1.3135984125,-0.606272902,0.1258740436,0.2272038747,-2.260541927,0.8091876386,-3.315906892,0.9244920856,1.3758950048,-1.7403953565,1.5240965816,-0.8384676132,-0.0085733209,-0.4819336462,-0.5683435217,2.954966034,0.0496377843,-0.0706068453,-0.4269973889,-0.9367409696,0.0355086526,0.5360936761,0.4419756822,-0.39350165,0.2980531165,-0.6230240792,0.4221485223,0.3713585396,0.5789491308,-0.576750655,-0.6412276236,-0.0993602174,0.3888959164,-1.1903613577,-1.761415213,-1.2423046264,0.1563430276,0.5390853924,0.0464917653,-0.6140288336,0.2895754144,-1.5080430506,-0.1313131353,-0.04620073,-0.3294639511,-0.1221795704,-0.4261413439,0.0979789823,-0.0983098378,-0.5216748987,-1.1638785429,-0.1318802762,-0.0264325899,-0.4822199936,-0.8119900566,0.0943038464,-0.0959772462,-0.4204108611,-1.311087377,-0.0338247053,-0.0697666111,-0.3321544578,6.2192356155,-3.3833223938,0.4065959913,-4.6779117824,69.327281914,-3.5110625084,0.0382547642,-1.0625875817,1.0202784876,-0.0318623113,0.0179519674,0.6655264516,0.0434744445,-0.8188222966,0.4489749204,0.3550031552,0.069137189,1.2432241714,-0.1153626666,0.2277423758,0.0193951504,0.4662829332,0.2157681986,0.1418069194,-0.2208749103,0.8698860745,0.1253873419,0.0996815551,-0.1891002323,3.4468016556,0.1551300237,-0.6538751428,2.0812273207,3.6791932551,1.1351740722,-8.3660478624,0.3799864771,0.2363387106,0.2107677419,-0.2297101618,0.5079725897,-0.0222348368,-2.1587028246,-0.593833017,-0.3707994793,0.1266573214,0.7703410697,0.0863552038,-0.3024649688,-0.0703048184,-1.0122083578,0.1152379328,-0.1589448013,0.1713161063,-0.0921452033,-0.6192543439,-0.1072586372,0.5653593066,-0.7234494822,-6.9901524335,-0.2162614877,1.7630715886,0.6323480578,-1.6157947707,-0.8970321178,-0.6187920464,-1.1594112803,-0.1444463998,0.1433745162,-0.2079900403,-0.0122035718,0.9008162267,0.346075486,0.3956825989,-0.274259067,0.3444212356,0.214019699,0.2283739613,-0.1232855187,0.1951356845,0.0069020589,0.1323046103,-0.2323915089,0.1335727348,-0.124903811,0.1631378262,-0.3035343093,3.1089511356,11.2065243665,-0.8083493312,9.439906557,-12.2046353353,-0.2703381295,-4.0765762587,0.278396535,-0.8522330738,-0.5322228863,0.6407659097,-0.9815834981,-0.5174824793,1.6673769419,-0.7998576405,0.798502917,-0.0866623744,0.0556921323,-0.0707395003,0.273041879,0.0110885148,0.516265313,-0.1202903472,-0.5700147063,0.3564792383,0.1090655459,-0.0036900182,-0.3147570602,-0.143725666,-0.1365443022,0.4873313533,-0.7553100059,-0.3338078397,-0.2128382465,-2.0348280722,0.2642747058,0.1038157807,-0.8497341808,0.6341017612,0.5917504905,-0.3938669886,0.5769812378,1.0531024163,-0.000373067,0.2340099746,-0.3210537927,-0.491485713,0.3834346828,0.3297253032,-0.3468025898,0.0574013149,-0.589214272,0.1410888976,-0.072081645,-0.2550044858,0.3417582101,-0.3830284871,-0.0492801455,-0.4348396747,0.3059472201,0.3157944783,0.7489660258,-0.8007266132,-0.6883482582,9.2441540337,-0.5398312756,-2.3122506971,-0.0597538347,-0.2962928691,-2.5265176266,-0.2352247897,5.211004243,0.0314416876,-0.0720366842,0.1329391798,-0.5967178318,-0.0371512035,-0.0934247466,-0.0685543547,-0.5298850632,0.1468104312,-0.0334282763,-0.1830305797,-1.1091555472,-0.0580032661,0.0527143194,-0.232958391,4.0692220198,1.2800067627,0.1210871682,3.2960568396,-1.8798499626,-15.6723580206,25.9196471812,-0.0917581838,-0.6842986093,1.8530295933,-0.2169195158,4.860548325,0.4301104775,0.0460760932,-0.1333953806,-0.2443717254,-0.0213841981,0.8079171439,-0.696583144,-0.2501145342,-0.0825327644,-0.2415463017,-0.5655962771,0.2331695288,-0.2948634996,-0.08264654,-0.3106359082,0.1815414931,0.0362701861,3.0753885853,7.0710660251,-1.0846217282,4.5061180408,-0.2159054176,-0.4492897626,-0.4032486644,-0.1054347434,-0.1712546277,0.0151091336,0.0266233008,-1.6651480563,0.0653046995,-4.1135154479,-0.1688110944,0.1188297293,-34.9730361326,2.0619389638,0.0858705543,0.1095078166,0.1768762534,0.3671128506,0.1425078288,0.0313032417,0.3080288543,-1.1301954787,0.1475264409,0.05959672,-36.8646705902,37.6101479447,-72.698998503,-3.4882915615,4.3321081728,9.8743874873,-14.9078096564,4.8968285107,-0.0305200995,-0.0636153411,0.4071428557,0.2315759115,0.4137930606,0.0250218798,0.9464296745,0.7575807281,0.1678622037,-0.1126483385,0.450981452,0.5580382026,-0.3090629932,-0.3584770199,-0.7556424715,0.3937357608,-0.018812795,-0.1272544668,-0.0022333177,0.031039273,0.112143171,-0.0432929556,3.7186966314,2.9472942115,0.1224921098,1.0551351773,0.090860518,-0.0370399459,-1.4354536971,0.4932268658,1.7223479437,0.2382823097,-0.0036457256,0.1798832365,-0.0354532287,-0.4986455322,-0.3383255996,-0.61254362,0.3597888914,-0.3280014028,-0.355882641,-0.149179383,0.1805136367,-0.0284148014,0.084341895,-0.2727272683,0.316912623,0.2156863064,0.5465924704,-0.353753141,0.2471557665,-4.863578717,-0.4829599306,-1.0053516001,-6.0056800005,16.1312116102,-1.3655811299,-2.1267991328,-0.5748262705,3.0698993809,0.1365479926,0.0357998505,0.0054032866,-0.0527324609,3.6089616309,0.1529624491,0.0693650486,-0.7836145774,5.7886365461,-0.6154544102,0.1356852285,-0.0481433336,1.3631185894,-0.3146639941,-0.1286790915,-0.071075376,1.7965346447,-0.0277765656,0.0100364003,-0.164127442,-11.1234672738,-7.084405279,-0.3428145215,-4.8441152023,-0.1021137476,6.7309226791,13.4988303854,0.4117916142,0.4195104316,0.0168082445,0.3545013828,-0.5619548379,0.257520759,-0.2885345406,0.336976595,0.0805735427,-0.0415377845,0.7714592893,-0.5224521528,0.3141420288,0.1012914142,-0.3627895509,0.2309265069,0.1247152316,-0.0433994309,0.8726289708,0.1958012456,0.0353046534,-0.2259038492,1.8901780959,1.8442168183,0.6692090975,1.6112118785,-1.931644502,0.0003350379,0.6013809392,0.4397979331,6.370279505,0.6011117719,-0.5828387786,4.5562300326,-0.3467832955,-5.5738450629,-0.1785956772,0.0094916932,-0.5040566602,28.3054684067,-0.385952532,-0.3260422504,1.6151453885,-0.5959007184,-0.0419742906,-0.5389580196,-0.4656822028,-2.1146622176,-0.4519826006,0.0563350277,-0.2482229511,-3.4454582274,7.5802019151,-1.6909041126,2.0904399605,-19.5717267281,-0.5149601666,3.5209480956,0.3573434248,1.3700542205,0.5002471871,0.9870149013,0.8680944576,0.3875528149,0.6490797093,0.7132529016,0.459675304,0.1809668936,0.5440607969,0.9542908057,0.1468750725,-0.722868144,-0.0232073581,-0.7564554237,-0.4424640421,-0.179362561,2.1784557549,0.1717540986,-0.36510905,-0.0152200381,-0.1283879326,0.4948111264,1.5097777181,1.8639471878,-0.4888406669,0.731595585,0.2894953392,-0.841142672,-0.7006107166,-1.4941949811,0.261664182,3.1322907229,-0.1085040846,-0.2084391459,0.8660332773,0.1034811397,-0.2097698218,-0.1419389868,0.6543864213,0.1461465557,-0.2778737414,-1.0217469076,0.5647588158,-0.1316122709,-0.1694554845,-0.2019238825,0.3873714507,-0.1528272813,-0.3219267978,-0.0264967063,0.6541564059,-1.1648571864,0.5052602554,-0.0581238348,1.365025642,0.1138203222,1.1379503488,-5.2931918947,-0.3524890408,-0.2404552099,-4.8396179467,-0.1834335182,8.8932203355,-0.1489610219,-0.0567914064,-0.6760291729,2.3313259934,0.0194638858,-0.1030206685,-0.5884566237,0.8951791528,-0.0552736449,-0.0754422553,-0.5929889844,-0.8688611514,-0.1467419825,-0.0187805104,-0.5132834249,-23.7192300999,37.2508370735,0.7067249344,-5.7899429526,11.9464987219,35.1241491093,-3.8725859779,0.2271805719,-0.6160513447,-0.1147300356,0.2232446655,-0.3062968636,-0.6768194298,-0.1031528521,-0.0358730048,-0.6259945323,0.3261863935,-0.6784635203,0.1983224908,0.4232562091,-0.3777585677,-0.9653667201,0.1233739521,-0.0882294371,-0.1290594577,-0.9422680249,-0.4677173213,-0.4897397392,-0.6040533606,-0.369459449,0.6017292632,-0.6498761859,-0.0246618145,-1.5088706704,0.7729423577,-1.83942455,-0.159501139,-1.8197575204,0.6983165349,0.4524361301,-1.6002997783,-0.2885839244,0.8408213496,-0.973539206,0.4578877926,0.1719218306,1.494341348,-0.1112714494,0.4553598155,0.0891903165,-0.1519817738,-0.827086043,0.6695410321,-0.3047027098,0.6026696926,-0.0897632734,0.4376707101,0.6146544862,-0.9260664389,0.6242820187,0.6723413826,0.9658789797,-0.605575145,-0.4218219823,-0.6348407629,-0.900848957,0.0672646183,-0.2985410398,0.1008443212,0.3113437367,-0.4228561061,0.5326857581,0.4662287842,0.7504522421,-0.255373757,-3.1533635223,1.0049378816,0.2934335469,-0.5043230035,0.3944326126,-0.0745902888,-0.6744590744,-0.4814064917,-0.1088725973,0.7762546989,0.1712656949,-0.1947093898,1.7368812834,-4.015722913,-0.363951541,-0.0423418393,0.665787747,4.4604666629,-0.0920888759,-0.1667913693,-2.1365091981,-0.0046928309,-0.2805231056,-2.600208464,-0.33689023,1.8058253724,-0.1239209516,-0.3145651442,0.4034019086,1.3771722192,-0.8414688519,-0.1690940902,0.2394186739,0.8832392546,-0.0373793381,-0.3108726343,0.1325732379,0.8076002225,0.1288820882,0.0295779383,0.0949454582,0.413901693,1.8420080595,-0.2493387825,-0.1951077178,-3.1045281442,0.524047567,-5.8263350146,-0.441533978,0.264199571,0.1842272235,-0.0420321886,-0.1695299431,0.145145587,5.0443025111,-0.2430440496,0.1537867333,0.8931809959,-8.2119404323,0.425446986,0.0252938151,0.0780357171,-2.6394916603,0.0682816777,0.2700457753,0.1347304899,-3.7767038786,-0.1504937725,0.013403035,0.3488152277,8.858590703,0.2962100276,0.455099264,-0.9592157472,-0.9779133332,-9.4727048518,-5.5464552313,-0.756299346,-0.6854387829,0.8803062256,0.2395467607,-0.0936358292,0.1388811056,-0.6768772286,0.5442457817,0.0608886951,-0.3702887312,0.8766219355,0.7513879892,-0.3116047142,-0.5070300997,-0.2649561037,0.368879348,0.0807151783,-0.1494559754,0.1256770415,0.5481225798,-0.229165998,-0.2521867633,4.1450868233,0.9281171153,0.3871470483,-0.9616076174,5.1780748585,-0.9904620893,0.8911732881,0.362675515,0.8939299529,-0.0818758067,0.243272408,0.8891851142,-0.7344983196,-0.0150443116,-0.6085116596,-0.4535749695,-0.030108326,0.248467422,0.8263100776,-0.3235648486,0.2478964016,1.7056323895,-0.051471475,-1.1285399601,0.2991372343,-0.1138963576,0.6682149025,0.8667534952,-0.1557599577,-0.9229730651,-0.8262878987,-1.4967452255,0.2489810706,4.4437017357,0.0584064696,2.5947141335,-0.804647725,-0.2688535777,-0.1235435289,-0.3030389504,-0.7630090217,0.0462775954,0.0733100314,0.4387015662,-0.1067598992,-0.3748272697,-0.2565646074,0.0835449031,0.3807129833,-0.2516748727,0.3046758836,0.0968581632,-0.4481032057,-0.0208474461,0.2018537417,0.6519686462,0.0677137746,-0.7304285502,-0.4619321714,-0.2280172469,-1.0158854142,0.1366242503,-0.1989521553,-0.2317137051,-1.2584661272,0.5856454474,0.5749371386,1.5318505986,-0.3126972174,-4.3424399688,-0.1410500335,0.3461258942,-1.3145673384,-0.2236311466,0.1756975165,-0.8392962063,-0.4719877037,0.1008068726,0.2191174737,0.6004502037,-0.8693411644,0.0428180764,0.219821788,-0.4627040153,-1.0034603612,-0.0500348798,0.2983663615,-2.4538416319,-0.647939496,0.1503100712,-0.6966863665,-0.6951545444,-0.9147980947,1.0761583375,-0.5956439307,-2.3914992648,0.0990668477,0.2390168612,-1.8557666843,0.1223584639,3.1537646205,0.4192897578,0.1812523845,-0.1081976393,1.8287076872,-0.022388849,0.0827343869,-0.1537035128,-0.1199320456,0.2957873878,0.1624886624,-0.1959490838,0.543880758,-0.1619224482,0.1009622957,-0.2468730475,0.2004712969,7.633287916,0.2074850999,2.505229046,-7.6880827921,-0.7949267154,-2.8633004582,0.9283269357,1.5484588804,-0.6428865063,-0.4162042117,0.2294647724,-0.1494351414,0.2055982415,0.0864402087,-0.2030019123,0.5050073528,1.0744029764,-0.6487100204,0.714074519,0.1264488045,0.1436839075,0.9961574934,0.092834045,-0.160100403,0.045389372,0.8851495412,-0.3558965417,-0.2516950242,-0.7541173847,2.0059037492,0.8372881579,1.2623367446,1.1597055277,1.1075018042,0.1302627146,0.0811952286,3.1977071534,0.4917971797,0.2420161033,2.360370718,0.1559772229,-4.6219260304,0.0235571579,0.1311731807,0.4812135068,-2.1542651063,-0.0501615306,0.1252562747,0.4104392802,-0.6342096646,0.0699132245,0.2613314955,0.3859984769,0.1067706157,0.0866246426,-0.1125037915,0.3795815793,7.8252064133,-11.4499725178,0.5796486532,-4.2824660653,-5.0427460236,-13.1013046708,-3.393456049,-0.9572828141,0.8486177438,0.6125702112,-0.1904829513,1.2350095465,0.0710332117,-2.3059346658,-0.1527752697,-0.0999670159,-0.5652626218,1.4784391893,0.6073601181,-0.1519073879,-0.4564356213,1.0364957398,0.2366102016,-0.2517207391,-0.1249161467,0.3302143909,0.443288182,-0.347069452,-0.3634806602,0.3932835048,0.989157121,1.1409188813,1.0408820269,0.1442283568,3.4719859921,0.1348386894,1.2811876287,0.6358252035,0.4928328458,0.1017629188,1.5602262053,-0.094146975,-6.7491808998,0.0469692712,0.0098801305,35.2017530227,2.9658217352,0.0227674527,-0.1828238962,-0.0904446686,-1.2360293248,-0.1240124618,0.1308506015,0.1137263072,-1.0228412839,-0.3254408583,0.2172403036,36.1475255382,5.2035183285,-8.5110274478,0.3488904241,-3.8322218022,5.5374066226,-9.9536824867,14.7446102051,1.9079176711,1.1717277286,-0.5311239881,-0.0881087108,1.612271753,0.6381094063,-0.0775205485,0.309901046,0.6203909078,-0.3142936789,0.1253704233,0.4468450394,-0.3513302444,0.2063934138,0.5299330299,-0.0571707798,0.0882214721,-0.0508759495,1.3167061861,0.9749000097,0.460984808,0.4340009804,0.2491156978,1.2016735435,1.2066258072,2.6016929668,3.4883489558,0.0088877765,0.7848022068,-0.5383938976,1.9468090722,0.8074998355,0.1537458394,1.7137999472,0.2407984779,-0.1109799708,-0.7640353773,-0.2348478442,-0.4031023649,-1.7709218766,0.2295647845,0.2726240756,-0.3276375711,-0.0712165723,-0.3847851806,-0.3720587504,0.3002975813,-0.2652745934,0.5389054595,-0.7955967215,0.0184286275,-0.2159190075,-1.1480357762,-1.5785076043,-0.0926205891,0.6101169257,0.775191608,3.1530807939,-0.6629750949,-4.5705124312,-0.1119543139,-0.1859973555,-3.8409804881,-0.1994554041,4.0667642683,-0.1638384984,-0.0572138588,-0.6419012046,1.7776103977,-0.2135164927,-0.1113883277,-0.3993816747,0.1548430267,0.1212525079,0.0921737137,-0.4909367033,-1.2799442177,-0.2537132131,-0.0586175411,-0.445330673,-28.0810101322,39.00815437,0.8118473862,-8.0629457485,8.7313612625,23.4077845003,3.052951892,0.5000069302,-0.3658720799,-0.8879685951,-0.0527703925,0.9987849817,0.2892278446,-0.4957413881,0.4573588744,-0.2594410577,-0.779525727,-2.1369719141,-0.8842677888,-0.2159486052,0.2993381439,-1.1134559526,0.5259732024,-0.1737307448,0.0048209091,-0.1747815852,0.4655971376,0.1174296459,-0.2389901518,-1.3765739618,0.3389947512,-1.1988325394,0.5653626886,1.5073017513,-3.33702405,0.973631708,-0.7634244022,-0.1760697531,-0.0897720708,-0.1479138201,0.5659686681,-0.1703544039,0.1985775146,0.1155989291,-0.0718346676,-0.7628240907,-1.3718084639,-0.0654333109,-0.013833883,-0.668847677,-0.2167657731,0.0854495529,-0.0432286532,-0.6294783194,-0.7650452656,-0.1930170262,-0.0514273558,-0.6331492891,5.8436935274,-2.6101273528,-1.9669317792,-2.3279835288,43.7972163806,-3.3733442186,1.3666044499,-0.3840746939
biasActivation=0,1,1
[BASIC:ACTIVATION]
"org.encog.engine.network.activation.ActivationTANH"
"org.encog.engine.network.activation.ActivationTANH"
"org.encog.engine.network.activation.ActivationLinear"
