encog,BasicNetwork,java,3.3.0,1,1469381386708
[BASIC]
[BASIC:PARAMS]
[BASIC:NETWORK]
beginTraining=0
connectionLimit=0
contextTargetOffset=0,0,0
contextTargetSize=0,0,0
endTraining=2
hasContext=f
inputCount=28
layerCounts=2,46,29
layerFeedCounts=2,45,28
layerContextCount=0,0,0
layerIndex=0,2,48
output=0,0,0,0,0,0,0,0,0,0,0,0,0,0,0,0,0,0,0,0,0,0,0,0,0,0,0,0,0,0,0,0,0,0,0,0,0,0,0,0,0,0,0,0,0,0,0,1,0,0,0,0,0,0,0,0,0,0,0,0,0,0,0,0,0,0,0,0,0,0,0,0,0,0,0,0,1
outputCount=2
weightIndex=0,92,1397
weights=-0.8598946618,0.1572794268,0.2182104454,-0.1392224528,0.160942434,-0.112743091,-0.630524515,-0.0815529878,-0.1344830798,0.6997592747,-0.5995349086,-0.4262778016,0.5241306182,0.1432136831,-0.3756456002,-0.5588685053,0.2538668705,-0.0290677742,0.3103828863,0.2475941411,0.7418308134,0.8460359736,-0.0819023198,0.0059043661,0.7047967895,-0.8702721112,0.7624057581,0.101618536,-0.1869390946,0.3882665981,0.6268738404,-0.0518460315,-0.0650925977,0.2156519115,0.3084254379,-0.5132660231,0.2680625574,-0.4484020121,0.2178865897,-1.1014169056,0.7473234774,-0.2758635115,-0.018838744,-0.6220946641,-0.5923922575,0.0868366686,1.0660129012,-0.3016270805,-0.1860907576,0.1477233153,-0.0365540018,0.0915136349,0.1493316281,0.9842880876,-0.0564720696,-0.6270609878,0.6757502972,-0.5768954526,-0.9554422129,-0.1602618591,0.5068530971,0.4696019389,-0.2558191229,-0.5460568592,1.1660350615,-0.5845781122,-0.6237709719,0.7566083849,0.0926122855,-0.1038590681,0.1330517865,-0.0723333363,-0.1661737097,-0.0158962402,0.0244010697,0.943557071,-0.3137933957,-0.5597415605,0.0912817332,-0.1537305726,1.0233348763,-0.2821401795,-0.2086726979,-0.4729582095,0.53583335,0.0608800315,0.0599952575,0.3141720368,0.4947101809,0.3520818286,0.4892057521,0.8087194646,2.4507988083,0.2312879167,0.0927756306,2.7175936203,0.0832455637,-3.723356224,0.1320188458,0.0958093356,0.3138540444,-2.7563043058,-0.2004397833,0.1719929365,0.3921112881,-0.7633998234,0.0113859341,0.0263723031,0.4041419889,0.4416307811,0.0311454622,0.046840967,0.3665943567,-5.45237125,-2.460259858,-0.4951707819,3.8665462802,12.2679808909,-33.8469294036,-2.6201049936,-0.0862727984,17.5985488376,-0.0437823366,-0.2605513324,-4.4132083926,0.200985064,1.8737326134,0.5047748682,-0.2320625874,0.1220800901,1.2299718715,0.7559025617,-0.3860921728,-0.0935962661,0.6609089702,0.3358045319,0.0292019039,-0.1276875336,0.9527347688,0.0091531201,0.2067333053,0.112929773,-2.5062496091,-3.5446383489,6.116647907,1.3316722452,-4.6994020321,0.2037118349,1.9647179321,-0.4874912864,-1.7440170596,0.0719269742,0.1188207448,-0.8380456295,0.0678719414,5.5585879554,0.5893015872,-0.1199667145,-0.519917156,0.6400233605,-0.2213302534,-0.1211399993,-0.3188193461,0.425686154,-0.1716568242,-0.1613278778,-0.3357147289,1.3640515345,-0.2149646837,0.2829800807,-0.3427976365,-1.22290043,0.5098327711,0.3430594153,1.0704229268,-0.6873975023,-3.8488057896,-1.6412676437,-0.1231292746,1.0082416887,-0.5214793797,0.2279329706,-0.8816967379,-0.2141657653,-0.4775158584,0.2954418785,-0.4923926659,0.8459416382,-1.5279911885,-0.7489501102,0.0924324631,-0.1456757417,-0.876825574,-0.050913149,0.176209385,0.6530297449,-0.3266286351,0.055287862,-0.1578693163,0.6592214141,-0.1347231969,-0.3610330574,-0.2831898499,0.6228501224,0.0374975875,-0.3877041775,1.9146467809,-0.333310957,-0.5715106047,-0.3734465068,0.4571712053,-1.0841241954,0.9527618611,-0.4756769976,0.8285775927,0.2610683595,-0.2470141792,0.3239089996,-0.5870024261,-0.3736109581,0.2063094415,-0.0851207852,0.8170151822,0.5108600149,-0.1678945602,0.4952540039,0.0231963785,-0.3575035069,-0.2362165697,0.532512486,2.0498992773,-0.3867036026,0.6021833539,0.2943030032,0.2209476519,0.0694530737,-0.5808676782,-1.2222183914,-0.757694322,0.8242591341,-0.4913294844,0.3766671351,-0.3289750367,0.5525844931,0.1797870301,0.0294404556,-1.1067200446,0.4449448926,-0.7662233724,0.3534555544,0.0626393022,-0.1756272659,0.503373513,-0.3874742558,0.6980063422,-0.4660592413,0.9414181684,-0.3392489738,-1.0092213682,-0.7696828308,0.1262996944,0.1551891142,2.3945229897,1.0177010668,-0.5776778976,0.0653977921,1.3267879349,-0.406580364,0.3025395394,1.0091320836,0.3077503154,-1.2095914348,0.6101110076,0.22855126,-0.0520276994,-0.9633379139,-0.8753573768,0.465168741,0.1361461064,-1.5184362591,0.3213602997,0.1920421243,-0.1281935513,-0.6111199069,0.4191069722,-0.0449082505,-0.3654797598,-1.1601028547,0.4166849605,-0.1072144978,-2.4985266475,0.8499223437,-0.2674094358,4.9336508569,0.0638626168,-0.1256757581,-0.4559133458,-0.5702490074,3.2562157028,-0.1781697989,0.5614136648,-0.0128268438,-0.23538878,-0.2466585458,-0.6420525335,0.7461348117,-0.2821390089,-0.232267544,-0.867985594,0.3717311423,-0.0663556038,0.065752961,-1.0809227078,-0.6058374407,0.1245849312,0.200469999,-2.2606486895,0.810985528,-3.3184752388,0.9491604962,1.3760247016,-1.7429633831,1.5239618681,-0.838882137,-0.0095964117,-0.4817513634,-0.5703004996,4.0110902431,0.0475812187,-0.0704281,-0.4272449481,-0.934902733,0.0378605198,0.5360046885,0.4419042421,-0.3935599622,0.2941370331,-0.621263688,0.4223807675,0.3713996905,0.5555070315,-0.5767102709,-0.6413480597,-0.0993338694,0.316374014,-0.5541718732,-1.7671786368,-1.9369591994,0.1567668588,0.5393089302,0.0460818592,-0.6137431146,0.2885460323,-1.5110316468,-0.1308068147,-0.0604884427,-0.3312492683,-0.1223292155,-0.5337096742,0.0828167756,-0.0980812065,-0.5225471291,-1.2558901632,-0.131189661,-0.0300310538,-0.4645480659,-0.8878582584,0.0863017445,-0.0929752372,-0.4187933793,-1.314835817,-0.0512730168,-0.069554228,-0.3315089317,6.2190116586,-3.0483412134,0.4396005624,-4.8561285447,69.3273898061,-3.5157565633,0.0899262208,-1.0659829591,1.0202784283,-0.0439534314,0.0171316651,0.5590942927,0.0434816153,-0.6398491614,0.4323386684,0.3538367531,0.0331821211,1.2432353635,-0.1159134787,0.2270935774,0.0191283392,0.4676887744,0.2073534694,0.1410982833,-0.2197467622,0.8700878187,0.1250893165,0.0913413655,-0.1891035117,3.0397652763,0.1623705367,-0.6543110837,2.0929466265,3.6791845569,1.135263817,-8.3630078997,0.3766457589,-0.1182005929,0.2093197397,-0.2587842722,0.4061042312,-0.0725132906,-2.1646097265,-0.5936516793,-0.3468915728,0.1268563581,0.7722419101,0.0864125036,-0.2718473171,-0.0658142528,-0.9959114863,0.1121730888,-0.1591242997,0.1692645564,-0.0922868588,-0.6197820808,-0.1051461404,0.5651576664,-0.7251078313,-6.9886413409,-0.4592396903,1.7631902079,0.7130163316,-1.6156482391,-0.219296154,-0.6192527462,-1.2769257563,-0.144826029,0.1343776546,-0.2091273819,-0.0122953342,0.8872043368,0.3438373061,0.3952401198,-0.2740248548,0.3455505736,0.2135770324,0.2242255405,-0.1240762578,0.1805714609,0.0040189878,0.1315061147,-0.2324209939,0.1326757046,-0.1257645374,0.1629540023,-0.3043217066,3.1094068651,11.2196612058,-0.8087349803,9.4417798137,-11.9995697132,-0.0546822487,-4.0649224046,0.2786029998,-0.6351929943,-0.5320368702,0.6407597816,-0.982885293,-0.4846323726,1.6681231994,-0.7996311013,0.7933931324,-0.0865466368,0.0576452617,-0.0112120338,0.2715170101,0.0292534147,0.5162746215,-0.1165970938,-0.5343546001,0.3483083882,0.109844033,0.0340252464,-0.3143999812,-0.0863691486,-0.1378665388,0.4870413013,-0.7550145029,-0.3339357731,-0.2187988485,-2.1193449895,0.2299107709,0.104178374,-0.8539487376,0.6341362333,0.5588719332,-0.4291838109,0.5743775239,1.0534797794,-0.0061625425,0.2232536897,-0.3252207195,-0.4913740004,0.3807524519,0.3289227515,-0.3468620795,0.0590940911,-0.5889304984,0.1388155233,-0.0725247664,-0.2542518549,0.3254469129,-0.3822537745,-0.0480558269,-0.4348065142,0.3050817449,0.3157405938,0.7488484357,-0.8007938268,-0.6879751243,9.2439512977,-0.5402240896,-2.3205347988,-0.0598535374,-0.2960547569,-2.5277193409,-0.2349249484,5.5596595912,0.030396493,-0.0932761146,0.0850723855,-0.5966485163,-0.0860720663,-0.1078917146,-0.0694729397,-0.5300352102,0.1268941542,-0.0394036891,-0.1831632417,-1.1099904724,-0.0580819886,0.0518341801,-0.2315744563,4.0693628377,0.0880288483,0.1207121512,3.7778319673,-1.8993183624,-15.6721050095,26.4830336212,-0.092164684,-0.6841279713,1.6514601258,-0.2166906704,4.8590029919,0.3959017826,0.2225975834,-0.1549337154,-0.2445902429,-0.0217091204,0.8082973463,-0.6976431324,-0.249817879,-0.1046442359,-0.2417938971,-0.5675283983,0.2180117893,-0.2940991953,-0.1991151824,-0.3108067385,0.1744460888,-0.0152813365,3.0759325039,8.3355535337,-1.5020720858,5.1343898835,-0.2158473558,-0.4495333263,-0.4032773947,-0.1053218427,-1.9070219129,0.0147061777,0.0240018756,-3.3987253655,0.0375909352,-3.3141620339,-0.1817078507,0.118660738,-34.9730361326,2.0623765572,0.1314297475,0.1099911195,0.1311104807,0.0491229204,0.1427710831,0.0290790009,0.2675253784,-1.445335318,0.1472484339,0.0628241882,-36.8646705902,37.6053910164,-72.699059532,-3.4881962158,3.5689657801,10.3623061373,-13.7898935966,4.8979261057,0.0745107898,-0.0677004347,0.2862464301,0.2324910639,0.4139020959,0.0338083392,0.9414785617,0.7572762204,0.1677115448,-0.1128455894,0.0889920907,0.5579717267,-0.2616598992,-0.3320321918,-0.755558475,0.3925806921,-0.0035873109,-0.1266790689,-0.0018901991,0.0320614993,0.0995356715,-0.04402129,3.7189472524,3.5124809819,0.12478642,1.0530832635,0.0907237421,-0.0382271451,-1.5807280033,0.4934894857,1.9651014082,0.2380890665,-0.0070447254,0.1801086033,-0.0356424887,-0.5914875115,-0.3384969193,-0.6061669109,0.3552316179,-0.3279077066,-0.3558022679,-0.1495765354,0.1806152251,-0.1600053416,0.0838631612,-0.2733387513,0.3368015407,0.2022529893,0.5461386798,-0.353283462,0.2933214398,-5.2581708128,-0.4854671699,-1.0053586501,-6.0058124689,16.1302949677,-1.5978114578,-2.1271023181,-0.5746000658,2.977347737,0.1357199925,0.018855503,0.0069831141,-0.0529236734,3.6606100861,0.1528838699,0.0688086903,-0.7836491693,5.7895735117,-0.5881271301,0.1118047625,-0.0852323195,1.3634652892,-0.2936108849,-0.1284061277,-0.0832004317,1.796621503,-0.0277683836,0.0078017977,-0.1677778017,-11.6985061028,-7.0838535123,-0.3431272692,-4.8594167617,-0.0804588244,6.7306999833,15.2837463228,0.2905712044,0.4274951664,0.0163187049,0.3517149512,-0.5360500469,0.2540720913,-0.2872945179,0.3368006282,0.1128651804,-0.0487280582,0.7711421408,-0.5206206833,0.3105557382,0.1119891955,-0.3626464246,0.192170841,0.1247802597,-0.0435861061,0.8134272579,0.1950965694,0.0347415082,-0.208524228,1.8904769586,1.8480793803,0.6991539778,1.6111232259,-1.9354627298,0.0075482617,0.602161593,0.440783184,7.139005777,0.4861369402,-0.4563939167,5.4208070114,-0.3054102398,-10.0634518868,-0.1783259647,0.0078255901,-0.2109435372,29.847295442,-0.3859781038,-0.2277692938,1.1550485187,-2.4908324403,-0.0418526622,-0.3974468633,-0.3829778629,-3.6279761326,-0.3863701409,0.0558806996,-0.248429316,-3.4440831907,7.5806051917,-3.5743385216,3.5162258493,-14.6265662417,-0.5074969138,4.3669581748,0.1795385158,1.3703868607,0.500404755,0.9478362486,0.868341847,0.3851281047,0.6490300516,0.7118997642,0.4598798811,0.1805420887,0.6640464751,0.9545673318,0.1466144973,-0.7227194207,0.3459344803,-0.7571549618,-0.4420514995,-0.3398193173,2.1769253412,0.1713204956,-0.3645919215,-0.0144324001,-0.2150732616,0.3515364058,1.5091541183,1.8656977372,-0.4887535745,0.7313119258,0.2900962577,-0.8414657962,-0.7010809999,-1.4962486952,0.2540153391,3.1804573221,-0.0655662005,-0.201775379,0.8665893986,0.1032988255,-0.2108290591,-0.1422842707,0.6546959087,0.1334404284,-0.2490341234,-1.0218054115,0.5653768544,-0.0978334681,-0.1700380363,-0.2147985414,0.4361197163,-0.1080737767,-0.3042308661,-0.0265040839,0.6557804114,-1.4970009805,0.1498036123,-0.0582905208,1.1600962911,0.1111902729,1.1378394186,-4.8601619023,-0.2952818487,-0.2402703804,-4.4254270383,-0.1826280936,8.6945085108,-0.1487441444,-0.0770824524,-0.6014295236,2.2991122013,0.0242566989,-0.1055236912,-0.5542560661,0.8275449172,-0.0427530825,-0.0863304383,-0.5462691136,-0.8696553815,-0.1463075728,-0.0199421579,-0.4671727333,-23.7193005993,37.8108531459,0.7072758675,-5.7900346447,9.8867409082,34.466519074,-3.8564322043,0.1574081108,-0.2638898167,-0.1146009239,0.1998131764,-0.3032502902,-0.6487494089,-0.1034244173,-0.0359064821,-0.6143223267,0.3259887554,-0.5237839905,0.1978772069,0.4208220338,-0.3752318817,-0.9659216336,0.1234271895,-0.0884149275,-0.165176245,-0.9422285609,-0.409146973,-0.4766190954,-0.6040093337,-0.369614076,-0.2646342887,-0.6496677162,-0.0128439839,-1.5877061078,0.7729453734,-1.8389078642,-0.1589339658,-1.820750312,0.6857619174,0.4525361857,-1.600401715,-0.2513003882,0.840695992,-0.9735015905,0.4576247852,0.171818655,1.9425834201,-0.1110831587,0.4553187509,0.0924622731,-0.1947089353,-0.8272051587,0.6695156965,-0.3048512658,0.6027029646,-0.0895611652,0.4375946805,0.613946917,-0.925885999,0.6243715171,0.6726624267,0.9663190129,-0.6075433209,-0.4216347642,-0.6348295083,-0.900580715,0.0674815452,-0.2871882432,0.1006754881,0.3112211098,-0.4225795853,0.5329614373,0.4166163548,0.7495368665,-0.2556599556,-3.1542517945,0.9994272473,0.2925874846,-0.5042072451,0.3914615869,-0.0743725946,-0.6741650129,-0.4633613983,-0.1101535351,0.7756458248,0.1710291741,-0.1966288691,1.7370826961,-4.1197470228,-0.3641256801,-0.0422703713,0.6660879324,4.4607387611,-0.0920805918,-0.1669568074,-2.1363793134,-0.0047239496,-0.280764639,-2.5986212527,-0.3358964187,1.8066584714,-0.1243736468,-0.3149656694,0.4021927382,1.1769688355,-0.8054662884,-0.1676916881,0.2391270647,0.8781297401,-0.0167201416,-0.3108546322,0.1315236854,0.8075232379,0.0834102272,0.0260767313,0.105543406,-0.9716081245,2.8098333083,-0.2486307215,-0.191113914,-3.0984941177,1.1111108031,-5.8272684463,-0.4415490848,0.2639058494,0.1838830068,-0.0384922175,-0.2002343094,0.1451689644,5.0457412716,-0.2422256628,0.1537050244,0.8929586271,-7.8881975895,0.4254965496,0.031666957,0.078595058,-2.639484356,0.0732579735,0.2697338837,0.13468675,-3.7742368374,-0.1351905719,0.0163241037,0.3419792993,8.8591276432,0.3078455147,0.4561236481,-0.9414868412,-0.9763651289,-10.0851309022,-5.5469600452,-0.7552836656,-0.6852647047,0.8804622793,0.184542853,-0.4256577703,0.1384403482,-0.6764281314,0.6565284361,0.0610027742,-0.3706290554,0.8768791773,0.7516868686,-0.3111524173,-0.45852451,-0.2670766471,0.370029273,0.0575048021,-0.1484316407,0.2184724122,0.5476488527,-0.1913584085,-0.260260599,4.1449184872,0.9275156417,0.3291087577,-1.0206548322,5.1782556544,-0.9925926837,0.891175638,0.3624651615,0.8939048729,-0.0820165767,0.2412777693,0.8885752392,-0.7017330137,-0.0141829595,-0.6083064615,-0.4526271176,-0.0299681393,0.2420360158,0.8262507992,-0.3232438391,0.2468480904,1.7059385784,-0.0511100089,-1.1269042255,0.2987785886,-0.1128835744,0.6650375667,0.8625207928,-0.1386959079,-0.9230060458,-0.8264060649,-1.4965498019,0.2487671745,4.4442007746,0.0580101797,2.5944645613,-0.8049012027,-0.2690095622,-0.1237289523,-0.3019166463,-0.7582090597,0.0467677897,0.0729923806,0.4387605195,-0.1067536466,-0.3747892728,-0.0264607483,0.083578736,0.3800174116,-0.2513385588,0.3043662268,0.096497266,-0.4473217037,-0.0211054206,0.1985931458,0.6520097245,0.0669827412,-0.7299756451,-0.4618577018,-0.2279825487,-1.0157340304,0.1364083233,-0.2438650064,-0.2321291313,-1.2588436478,0.5859901503,0.7197499908,1.5735093461,-0.3073663524,-3.9871334085,-0.1395195928,0.0893432139,-1.2748935837,-0.2009877785,0.1564642667,-0.8391286646,-0.6022596042,0.0982579252,0.1767129276,0.6014409379,-0.8599882968,0.0423037977,0.1811269574,-0.2740220409,-0.9307270623,-0.0502547025,0.2542748696,-2.4539816918,-0.6476420889,0.1597291335,-0.6960845465,-0.6947460294,-0.9109476701,1.3440134296,-0.595982479,-2.3933400308,0.0731931769,0.235730177,-1.8565276993,0.1211700949,3.2430371016,0.4194636918,0.1814814987,-0.108314878,1.8286742081,-0.0246830414,0.0935229843,-0.1544744562,-0.0523491433,0.2562898899,0.1614039991,-0.2071777787,0.5468910411,-0.1617815244,0.0977412625,-0.2535608598,0.2003837925,8.50056321,0.2079007652,2.7697474881,-7.8327379846,-0.7957171342,-3.37051096,0.9277609241,1.548221244,-0.6434826729,-0.4156284098,0.2300027108,-0.1844818831,0.2038095696,0.087384998,-0.203004907,0.4920025312,1.952411201,-0.6652333798,0.5954003103,0.1214880979,0.0840121778,0.995372483,0.0926985224,-0.1602358559,-0.0541376021,0.8024834555,-0.3534925267,-0.2514507394,-0.6660711291,2.0065171869,0.8375770906,1.2628275796,1.1607356438,1.1198309754,0.1343139015,0.0810795877,3.4441248433,0.458582691,0.2420246486,2.3603923223,0.2201555317,-4.7898520722,0.0232521897,0.1551972993,0.5122671162,-2.1523773723,-0.0474630418,0.1265705068,0.3991099205,-0.6342213618,0.0702767721,0.2600815403,0.3935144432,0.204644581,0.0871306129,-0.0633730456,0.374402899,8.2219932384,-10.8745841197,0.5796637635,-2.881346576,-5.0411086018,-15.5782389806,-3.3939583894,-0.9565957993,0.8466099526,0.6125826263,-0.1727555135,1.2350416643,0.0518694216,-2.3063904263,-0.1533170644,-0.1007192998,-0.5664689015,1.4773198001,0.6039728944,-0.1644571833,-0.3757543016,1.0376656845,0.213318589,-0.2520908398,-0.1279493375,0.3296774144,0.4343315773,-0.3481503267,-0.3812928206,0.3932903616,0.9885550461,1.1407943927,1.0406352777,0.145687341,3.6643124679,0.1342634142,1.2807645318,0.6047875348,0.4077255968,0.1017538688,1.5595954876,-0.0963168193,-6.7501018157,0.0508567693,0.0033928788,35.2017530227,2.8934201694,0.0219549692,-0.1216147927,-0.0899120662,-1.2355559846,-0.1244954199,0.1801790076,0.0982530162,-0.6475199682,-0.3321456454,0.2174373563,36.1475255382,5.2033528707,-7.927877515,0.3435397562,-3.1706165513,5.3234324256,-9.9533494487,13.6218880745,1.9154526609,1.1765173252,-0.5265814977,-0.0889959061,1.7613171932,0.6375088272,-0.1079679075,0.3120009592,0.6200132516,-0.3144076558,0.1263476637,0.447007814,-0.3516917938,0.2098013055,0.2974785312,-0.0568892398,0.0964946066,0.0058903267,1.3145822539,0.972457192,0.4603299519,0.4334368723,0.2489028526,1.2011514464,1.2067556787,2.6017738024,4.1809139306,0.0087296183,0.7859540201,-0.5374318049,1.8160806765,0.8054669957,0.1534845709,1.7134576163,0.2406118168,-0.110884,-0.7642369202,-0.2333975781,-0.4031379739,-1.7716658666,0.2292853732,0.2729013248,-0.3266305697,-0.0694270277,-0.3868078047,-0.3715362645,0.3004247005,-0.2640934026,0.5385729965,-0.7945378835,0.0205408437,-0.2159410327,-0.8873610554,-1.5785895511,-0.0911291611,0.6111141664,0.7750948933,3.1536780376,-0.6635633884,-4.5699624593,-0.1100078432,-0.1882466303,-3.8409029651,-0.1963012513,4.1434600402,-0.1633249791,-0.0575428687,-0.5118008775,1.6899378038,-0.1742519697,-0.1278039436,-0.3994160051,0.1541490369,0.1209680698,0.0795012007,-0.4897893706,-1.2797304278,-0.2533518307,-0.0610412309,-0.473509927,-31.5690532566,53.7809418074,1.3434230319,-8.4021929549,3.1478615058,24.8708505721,1.5076013146,0.1264734029,-0.3643075852,-0.8880358025,-0.0532167176,0.8823462055,0.2547694564,-0.4936746409,0.4573104695,-0.2592826409,-0.7800150382,-2.1201725867,-0.8855135034,-0.2401882126,0.291036068,-1.1118847824,0.5257782416,-0.1731056954,0.0050606072,-0.1747403683,0.4655212937,0.1175354821,-0.2330548425,-1.3758542662,0.3387221114,-1.3688045168,0.5653600986,1.5071509734,-3.3295283539,0.9761319151,-0.7644531005,-0.2853530341,-0.0902201296,-0.1377077254,0.5664140585,-0.1522862677,0.1984058809,0.092272427,-0.0755490698,-0.7154354899,-1.3711938036,-0.0980916998,-0.0157010798,-0.6366496276,-0.2200566752,0.0831981531,-0.0437068141,-0.6038838076,-0.7649831839,-0.1831491996,-0.0529305413,-0.6006119224,6.4711928592,-2.6102126199,-1.9649943544,-2.3854314877,44.052589814,-3.7826441414,1.3646497791,-0.3906514953
biasActivation=0,1,1
[BASIC:ACTIVATION]
"org.encog.engine.network.activation.ActivationTANH"
"org.encog.engine.network.activation.ActivationTANH"
"org.encog.engine.network.activation.ActivationLinear"
