encog,BasicNetwork,java,3.3.0,1,1469381819269
[BASIC]
[BASIC:PARAMS]
[BASIC:NETWORK]
beginTraining=0
connectionLimit=0
contextTargetOffset=0,0,0
contextTargetSize=0,0,0
endTraining=2
hasContext=f
inputCount=28
layerCounts=2,46,29
layerFeedCounts=2,45,28
layerContextCount=0,0,0
layerIndex=0,2,48
output=0,0,0,0,0,0,0,0,0,0,0,0,0,0,0,0,0,0,0,0,0,0,0,0,0,0,0,0,0,0,0,0,0,0,0,0,0,0,0,0,0,0,0,0,0,0,0,1,0,0,0,0,0,0,0,0,0,0,0,0,0,0,0,0,0,0,0,0,0,0,0,0,0,0,0,0,1
outputCount=2
weightIndex=0,92,1397
weights=-0.8765314963,0.1676241205,0.2184889147,-0.141263777,0.1592613567,-0.1101351486,-0.5909187596,-0.0850360695,-0.1395755972,0.7170973511,-0.5966840395,-0.4265515724,0.5276989799,0.1408647159,-0.3753124352,-0.5586695284,0.2655809686,-0.0290215766,0.3106588251,0.2462841626,0.743054806,0.8462888263,-0.0880230817,0.0106724336,0.7149207812,-0.7587041183,0.7614156015,0.0974304469,-0.1831238323,0.3879645353,0.5889233264,-0.0493599207,-0.0637327549,0.2041868161,0.3049713544,-0.5130970344,0.2686450406,-0.4486616646,0.2181258099,-1.1011106748,0.7476070241,-0.2761707895,-0.3389038498,-0.6222759855,-0.6180905181,0.0871288552,1.0674415129,-0.3015320606,-0.1944673799,0.1453281881,-0.0401983698,0.0912074203,0.1490690268,0.9843072416,-0.0564150734,-0.6302682816,0.6599088585,-0.5768170885,-0.9552678036,-0.1549341993,0.5062138736,0.4925252975,-0.2582652075,-0.5459773188,1.1659133737,-0.5841481288,-0.623826049,0.7565069315,0.0927640489,-0.1042622142,0.1327644289,0.0498000256,-0.166231114,-0.0163811794,0.0328034526,0.9436423867,-0.3141481642,-0.559861612,0.0835982103,-0.1530750221,1.023428349,-0.2821343538,-0.2088363439,-0.473243932,0.535774454,0.0607762786,0.0598373153,0.3142760838,0.391169293,0.3522841125,0.5024142191,0.8086255914,2.452064611,0.2311081221,0.0933427115,2.7239031917,0.0947973234,-3.7235272405,0.1321598627,0.0971887369,0.3134426402,-2.0136270027,-0.1957142242,0.1716424295,0.3918828703,-0.6852599226,0.0113877587,0.031070106,0.4040981011,0.5150296693,0.0395389356,0.0471817625,0.3728398037,-3.4362724418,-6.4306649504,-0.49492757,3.9558733215,12.7005603605,-33.8473124349,-2.6235209919,-0.0229097412,17.9435334045,-0.0428266178,-0.2442243536,-4.4144625325,0.1958808451,1.8742425673,0.4738512858,-0.2256164626,0.1384760444,1.2306701594,0.6726335007,-0.3582166101,-0.0938135603,0.6447583744,0.3319180603,0.0295892769,-0.1162666618,0.952356923,0.0092182835,0.1689211887,0.1178540159,-2.4463173919,-3.6851529146,6.1424291946,1.3300055558,-4.7001442163,0.2035541253,2.5642699661,-0.4873834447,-1.7631196404,0.0715709822,0.1308868287,-0.8410915312,0.0673829884,5.5590960274,0.5895689087,-0.1200011948,-0.5207468008,0.6406487013,-0.2218207127,-0.1209333599,-0.2805746819,0.4249048471,-0.1718763489,-0.1607682054,-0.3296849643,1.3665331286,-0.213247014,0.277432488,-0.3395746896,-1.2233259977,0.5228705983,0.3456447202,1.0777800216,-0.6870668352,-3.8491897402,-1.6416924,-0.1228284805,1.0082997697,-0.5213252737,0.2275103304,-0.8814652051,-0.2142269537,-0.4772730687,0.2964406276,-0.4869967248,0.845730128,-1.5282814763,-0.7489086586,0.0928686281,-0.1297984889,-0.8588349425,-0.0499727467,0.1757864634,0.652702012,-0.3260932474,0.0558016357,-0.1576733581,0.6583178686,-0.1346043242,-0.3609821297,-0.2830608527,0.6230881733,0.0376987263,-0.3859583138,1.9152167544,-0.3334641899,-0.5711653756,-0.3738268346,0.4571341652,-1.0844097998,0.9524335738,-0.4755651749,0.8285458796,0.2606525025,-0.2471576732,0.3245469575,-0.5871063645,-0.373581483,0.2063868848,-0.0854054071,0.8166843937,0.5104742445,-0.16846942,0.4989608283,0.0234638861,-0.3571709886,-0.2362313559,0.5323197852,2.2810017168,-0.3865447162,0.6019574022,0.294380568,0.221421164,0.0695752914,-0.5806962946,-1.2475186516,-0.7572309447,0.7705902981,-0.4914393196,0.3764594293,-0.3342405919,0.5526032529,0.1810391019,0.0296046899,-1.1063035263,0.4450023753,-0.7611696652,0.3535704537,0.0623938339,-0.1756909286,0.5039075411,-0.3872396402,0.694117687,-0.4662018428,0.9420382488,-0.3357693829,-1.0094656012,-0.7733129503,0.1261163811,0.1590057224,2.3944565118,1.0176440105,-0.5778398221,0.0652232958,1.3764772437,-0.406497158,0.3000158381,1.0089829063,0.3077614005,-1.2120442238,0.6101854073,0.228028612,-0.042983022,-0.9794846961,-0.8716647925,0.4596407916,0.1305294043,-1.5179094873,0.3212723236,0.1907268788,-0.1314795745,-0.6345332617,0.4149814624,-0.0442288791,-0.3593387346,-1.1595732075,0.416505218,-0.1079714781,-2.7633302692,0.7797942103,-0.2676258715,4.9335513326,0.0636815251,-0.1358826538,-0.4560398978,-0.5518380688,3.2243919459,-0.1789480736,0.5614868035,-0.0100519393,-0.2373198738,-0.2256531839,-0.4737001993,0.7570028044,-0.276876923,-0.2233600381,-0.8625881728,0.3541020288,-0.067270319,0.0634111046,-1.0806639895,-0.6034330904,0.1244611147,0.1807262468,-2.2605952853,0.8111653442,-3.3218703948,0.9518389823,1.3759021987,-1.7814200328,1.5227387588,-0.8392475344,-0.0091728923,-0.4773159314,-0.5701685385,4.0145931459,0.0471602583,-0.0690786049,-0.4265497514,-0.9021847401,0.0382454465,0.5361402568,0.4420804267,-0.3933650638,0.2922740641,-0.6162360349,0.4227327851,0.3709118123,0.5288768821,-0.5767167052,-0.6415465861,-0.0988973836,0.3197484839,-0.5413034262,-2.6008047946,-1.9689758171,0.1614471286,0.5397224169,0.0459941964,-0.6134605859,0.2882825315,-1.5091042591,-0.1267577004,-0.0627980865,-0.3315804465,-0.1228290799,-0.5441368988,0.0635107544,-0.0979736355,-0.5207138353,-1.4130657693,-0.1278297276,-0.0382210385,-0.4620196081,-0.90844079,0.0856435383,-0.0933082548,-0.4027808569,-1.3449515417,-0.054334656,-0.0696027422,-0.3176741664,6.2090745843,-2.6409746162,0.4688904686,-4.8561725612,69.3276798242,-3.5347246832,0.0984231326,-1.0715073598,1.0198815029,-0.0538609154,0.0164267099,0.5251827827,0.0438587457,-0.564997988,0.4155822333,0.3529556591,0.0300366938,1.2433556701,-0.1165210032,0.2268386075,0.0191096218,0.494114,0.2006002838,0.1409119003,-0.2189682407,0.870493298,0.1245990218,0.0895664544,-0.1891514915,3.0378063552,0.1627358015,-0.654538855,2.0933350923,3.6773146762,1.1351343707,-8.3620889988,0.3721259866,-0.1403744614,0.2095232698,-0.264794487,0.2461830006,-0.1220593823,-2.1658830065,-0.5912408122,-0.345630078,0.1233061505,-0.5197717317,0.0879910446,-0.2682375143,-0.0665306514,-0.9926832104,0.1009126184,-0.1644507155,0.1653546949,0.0038711695,-0.6233539096,-0.104456203,0.5637649658,-0.7252193767,-5.1394340974,-0.4599697481,1.7651704158,0.7135391328,-1.6143527991,-0.1997564368,-0.6196671705,-1.3186721217,-0.1455777783,0.1073457272,-0.2183594728,-0.0138957018,0.8820292175,0.3198023133,0.3907286411,-0.2741618142,0.3450553586,0.2124610507,0.2220702151,-0.12737971,0.1425941297,0.0012712134,0.1295288887,-0.2335177964,0.1321925894,-0.1487088866,0.16184383,-0.3096566409,3.1086242599,12.4790095254,-0.8094598089,9.441829376,-11.999028052,0.0033532034,-4.0638281008,0.2786083577,-0.5940133644,-0.5319409339,0.6405671895,-0.9837496292,-0.4842991844,1.6683910706,-0.799679595,0.789422554,-0.0865888809,0.0606260548,0.039823147,0.2707988738,0.0315997761,0.5161350546,-0.1156557104,-0.5338626039,0.33797285,0.1145832241,0.0469512795,-0.3144279445,-0.0848761207,-0.1385435381,0.4870022972,-0.7549377794,-0.33413221,-0.2191976193,-2.2591280664,0.2139983546,0.1043313705,-0.8547314258,0.6341356545,0.5524603218,-0.5611989667,0.5732279626,1.055423392,-0.0069872867,0.2219887777,-0.3267159329,-0.4906881057,0.3801194385,0.3285635041,-0.3470723588,0.0592402495,-0.58863215,0.1389695699,-0.072833473,-0.2537742503,0.3215430135,-0.3815504045,-0.0471555067,-0.4344202428,0.3032454637,0.3155806054,0.7485984987,-0.8010137725,-0.6876663464,9.2437394559,-0.540385472,-2.3221140269,-0.0599982212,-0.2958921956,-2.5772413191,-0.2347450789,5.6091351232,0.0298351681,-0.0976416748,0.0409878782,-0.5963787055,-0.0912754021,-0.1086337909,-0.0705995087,-0.5302532023,0.1191738925,-0.0407256043,-0.1830392024,-1.1116536994,-0.0582224558,0.0515788173,-0.2270908974,4.0742917484,-1.4528477063,0.12014014,4.4912056698,-1.8997406186,-15.6719140167,26.553318078,-0.0923820565,-0.6844533593,1.5640806683,-0.2170314812,4.8473609064,0.3696645643,0.2230319923,-0.1574759274,-0.2464925661,-0.0273493183,0.8093023072,-0.7002281416,-0.2509512783,-0.1087333668,-0.2429249182,-0.5693919602,0.2100985939,-0.2909946432,-0.2012980053,-0.3115395202,0.1496998322,-0.0594976933,3.075075712,10.765563737,-1.5218674289,5.1600401296,-0.2167184202,-0.4499675026,-0.4035382136,-0.1068316355,-7.5035323632,0.0150492287,0.0208985569,-4.8296105383,0.180373058,-1.2430751251,-0.1863645897,0.0233622349,-34.9730361326,-0.3200561615,0.1852483792,0.1102958599,0.0737844613,-0.8296926233,0.1120658022,0.0294325757,0.1909589832,-0.3662617082,0.1439602888,0.0514256602,-36.8646705902,33.0219304959,-57.4430738573,2.419714555,-39.7289984999,12.3654157729,-13.7896480574,10.982409312,1.0518852888,-0.0799094367,0.2810100245,0.2328746458,0.4192854586,0.0440709999,0.9409193107,0.7571285542,0.1689962329,-0.1173295003,0.0814524775,0.5580877894,-0.2447511667,-0.313276186,-0.7544321513,0.3922187693,-0.0000866755,-0.1264472716,0.0038470763,0.0515310406,0.0988997629,-0.0440562635,3.7192278609,3.5129006336,0.126333617,1.0526952001,0.0904237125,-0.0395762483,-1.7483650222,0.4938436371,1.9655595622,0.2380900078,-0.0081689101,0.1802407198,-0.0359624501,-0.5917899056,-0.3385883728,-0.6036653135,0.344533276,-0.3276757785,-0.354896034,-0.1499091859,0.1810405219,-0.1636021157,0.0830785186,-0.2737955888,0.3397099754,0.2018778512,0.5457856105,-0.3531204946,0.3044093825,-5.4214939753,-0.4863038753,-1.0052620713,-6.0059337429,16.1298654374,-1.5988884008,-2.1274477233,-0.5743379177,2.9377249181,0.1353470625,0.006516522,0.0886349926,-0.0536949797,3.6615919371,0.1527079215,0.0459965566,-0.7755510897,5.7906791517,-0.5861261729,0.1027930042,-0.095055343,1.3644327781,-0.2920017001,-0.1284015733,-0.1053238529,1.8014176565,-0.0280725268,0.0034538079,-0.1747183103,-12.068742597,-7.0833337453,-0.3433349193,-4.8601917995,-0.014218948,6.7307528077,15.6611927354,0.2567634403,0.4381299552,0.0153305183,0.3498802858,-0.5222190189,0.2478558338,-0.2860213501,0.3363582779,0.1172945237,-0.0486040784,0.7715419018,-0.5175975889,0.3105774892,0.1122965509,-0.3624252289,0.1903040697,0.1313129342,-0.0460255193,0.8098903548,0.1951386939,0.0369579645,-0.2037837864,1.8906062929,2.035604832,0.7038847518,1.6111965903,-1.9346473605,0.0151740867,0.6037397921,0.441174688,7.3499835638,0.4494215503,-0.375214128,5.4666701013,-0.3023841853,-11.2700128718,-0.1778779134,0.0065290284,-0.1994927494,29.8475792708,-0.3860054509,-0.2234480402,1.0088787335,-3.1131373449,-0.0417255587,-0.3131678195,-0.3477684522,-4.4966453682,-0.3040251801,0.0556112525,-0.2491562203,-0.8039947212,7.580447888,-3.7851467283,3.6930039145,-13.6241623188,-0.5072856427,4.3672818116,0.1790683058,1.3706020538,0.5004391077,0.8117121731,0.8681921243,0.3704151181,0.6495131903,0.7045448842,0.458659808,0.1806113484,1.8966875902,0.9546520039,0.14508414,-0.7225173491,0.34761961,-0.7582685525,-0.4422072922,-0.3582774764,1.2055400788,0.1703126527,-0.365280355,-0.0176720531,-1.5491508305,0.3514247886,1.5082431777,1.9979049512,-0.4880836663,0.7316195527,0.2906929283,-0.8423125632,-0.6996712724,-1.5016284044,0.2532296953,3.1806802916,-0.0648297566,-0.1890453928,0.8666696505,0.103006447,-0.2105867155,-0.1424231852,0.6550121974,0.1327952673,-0.248042324,-1.0217274684,0.5728808118,-0.0878753334,-0.1710460144,-0.2763679578,0.4609208121,-0.1074090163,-0.3037617083,-0.0268565126,0.7666091287,-1.4976318263,0.1263879335,-0.058183165,1.1355127465,0.1095049157,1.1378046601,-4.9571418019,-0.2932915994,-0.2365369423,-4.0890586667,-0.1822557764,9.3767087159,-0.147821997,-0.0884542237,-0.6012336505,3.5044041495,0.0475252451,-0.1052803119,-0.5257493762,1.1788106421,-0.0428103241,-0.1314475866,-0.4879098733,-0.8220404547,-0.101900412,-0.0200958325,-0.4056301046,-23.1586731237,22.2022229523,0.7072169019,-4.147382899,17.3354781879,34.4644935436,-3.8563554999,0.1570224029,-0.2650210402,-0.1145425717,0.1688597585,-0.3026502831,-0.6461306138,-0.1042472314,-0.0363594184,-0.5698949052,0.3251271575,-0.5163778707,0.1971715087,0.3867547646,-0.3663902864,-0.9661316806,0.1236321304,-0.1023833774,-0.2015976924,-0.9451239477,-0.4068523303,-0.4597169755,-0.6039702504,-0.3696454607,-0.2653132251,-0.6496795709,0.134898578,-1.5982330587,0.7772489938,-1.8339640148,-0.1584644628,-1.8236907294,0.6847530224,0.452596183,-1.6005136869,-0.250781566,0.8406988174,-0.9734972988,0.4571322955,0.1716702924,2.0353859851,-0.1108280054,0.4552478703,0.0987238351,-0.3452560294,-0.8271457826,0.6695045612,-0.3050507231,0.6103480124,-0.089187632,0.4375951934,0.6134245406,-0.9252948842,0.6337106203,0.6729297143,0.9667996532,-0.6076675142,-0.4209495673,-0.6346872966,-0.9003864777,0.068002594,-0.2851387502,0.1007222034,0.3111633408,-0.4222166759,0.5333959299,0.4161752897,0.7492406448,-0.2557471995,-3.1542803965,0.9949533649,0.2924434646,-0.5039395526,0.3904467405,-0.0742719595,-0.6740311413,-0.4449357954,-0.1184738415,0.7745638371,0.1710029548,-0.19678511,1.7378848958,-4.7801906289,-0.3641757298,-0.0419986091,0.6667589915,4.4635753876,-0.0919791579,-0.1669744498,-2.1359388252,-0.0050867188,-0.2814164123,-2.5968801829,-0.3175040851,1.8075371902,-0.1248795798,-0.3147505653,0.3900863699,0.7402038463,-0.7224667544,-0.1660482682,0.2245150459,0.8742843165,-0.0131713289,-0.3060342379,0.1240769507,0.798845001,0.0490729005,0.0257792484,0.1050855633,-4.8737805619,7.0149258955,-0.2481524655,-0.1910749247,-3.0964908782,1.1150333378,-5.8274685736,-0.4414675384,0.2642333989,0.1827615459,-0.0384156871,-0.2314334296,0.1434359021,5.0448698329,-0.2422373134,0.1524608858,0.8926585012,-7.7427362644,0.4252990164,0.0315398569,0.0787654732,-2.6399292786,0.0734376098,0.254690892,0.1262293539,-3.7599796099,-0.135164008,0.0163986807,0.3378639861,8.859052557,2.0089965375,0.4563361656,-0.941448065,-0.9764303651,-10.5824586478,-5.5476047152,-0.7552631558,-0.6436899997,0.8804406349,0.182707525,-0.450032908,0.1382923429,-0.6769069029,0.657113462,0.056885968,-0.3722137038,0.8621865862,0.7518689871,-0.3106178135,-0.4454785486,-0.2707062663,0.373917636,0.0258304909,-0.1383914538,0.2685517617,0.5470439185,-0.180676629,-0.2608960816,4.1440328976,0.9266386975,0.326115652,-1.0613650717,5.1765890771,-0.9996741545,0.8901656916,0.3606820153,0.8940573236,-0.082217396,0.240270266,0.8883436456,-0.698215184,-0.0138922673,-0.6082421861,-0.452032945,-0.0298262464,-0.2170593824,0.8261906102,-0.3228566498,0.2423667472,1.7062169353,-0.0509200159,-1.1266499363,0.2977210791,-0.1121330451,0.6523690985,0.8619262973,-0.1377590528,-0.9229294292,-0.8293911252,-1.4964333928,0.2486527661,4.4441881791,0.0575380673,2.5942953482,-0.8051448337,-0.2691079547,-0.1238098339,-0.3005599246,-0.7577175938,0.0469520324,0.0729086322,0.4388159696,-0.1068830376,-0.3747415292,-0.0253186593,0.0836969373,0.3794550431,-0.2510119752,0.3042115984,0.0963858021,-0.4408919184,-0.0213062501,0.1954622343,0.6521400341,0.066607609,-0.72930913,-0.4617427601,-0.2276649913,-1.015507738,0.1363308197,-0.2440259536,-0.2322365811,-1.2589466226,0.5863572288,0.8010839187,1.5834967903,-0.3061933028,-3.8171537001,-0.1241279628,0.0318449267,-1.2640333899,-0.1965435533,0.1527943442,-0.8389504392,-0.6028014865,0.0968213205,0.137264439,0.6312110156,-0.8587558947,0.0417460122,0.1662409095,-0.2737742389,-0.930249537,-0.0499555961,0.2475242081,-2.4541032525,-0.6475483314,0.1607165577,-0.6957948453,-0.6946678811,-0.9108337453,1.3448908241,-0.5964478426,-2.3925879728,0.076454768,0.2357805845,-1.8901137458,0.1266086704,3.346228485,0.4275811913,0.1835100496,-0.1049033711,1.8290709776,-0.0307777481,0.1014721202,-0.1524475934,-0.0386924862,0.2512200337,0.1599571761,-0.2110063786,0.6340243874,-0.158397254,0.0897765373,-0.2514786629,0.2005190448,8.9842647519,0.2111339368,3.3844569882,-8.2399236008,-0.7985853948,-3.7539256028,0.9275997423,1.5481149025,-0.6442248772,-0.4144681057,0.2301731084,-0.1982072163,0.2035891533,0.0873924783,-0.2037646158,0.491870184,1.9966372586,-0.6659660041,0.5794742669,0.0636557326,0.0632723552,0.9950575523,0.0909803695,-0.1614922792,-0.1168224579,0.7921683905,-0.3532189145,-0.2516347035,-0.6660090867,2.0121964123,0.8376144122,1.2629953316,1.1618888002,1.1300640962,0.2041848261,0.0807921541,3.9809700303,0.4582255242,0.25072661,2.5899258051,0.2491136626,-5.0836151978,0.0237560691,0.1555409336,0.5507463787,-2.7303792544,-0.038028127,0.1451410653,0.3974596474,-0.719779124,0.070189978,0.2029603134,0.3979948452,0.2829786528,0.1128435138,-0.0254476097,0.3720124094,14.3733665552,-10.8747571052,0.6018216794,-0.6889382104,-8.5913744751,-18.0353007788,-3.4547860329,-0.9528380218,0.829580941,0.6132999266,-0.1702940256,1.2353105564,0.0411528829,-2.3059300402,-0.1534942361,-0.0993697669,-0.5675514585,1.4777482956,0.6038112341,-0.1671961037,-0.3756787152,1.0420649773,0.211321272,-0.2503389393,-0.1300469641,-0.2118394922,0.4335079032,-0.3438682922,-0.3817237459,0.3935255813,0.9334435248,1.1410690999,1.0406939875,0.1477835359,3.6651550437,0.1340191204,1.2807675568,0.5898783153,0.4075426356,0.1025730722,1.3265515674,-0.0967203955,-6.6344926781,0.0551180938,0.0042783153,35.2017530227,2.0906344514,0.0220446388,-0.1116018264,-0.0614090197,-1.2233338292,-0.1245823735,0.183325399,0.0993471722,-0.5086085324,-0.3317269784,0.2189714058,36.1475255382,5.2134908154,-7.8528778561,0.3436217034,-2.7223602852,5.3166301523,-9.8161534195,13.6166935237,1.9187559507,1.1762306033,-0.5263006411,-0.0936983698,1.7615516047,0.6367077642,-0.1242220522,0.3112729414,0.6174813586,-0.3152539091,0.1274218335,0.447318705,-0.352678956,0.2172105584,0.2974051951,-0.0563229052,0.0989195795,0.0526273958,1.2801458806,0.957479243,0.4595387239,0.4344454057,0.2489303403,1.2008246444,1.2067008594,2.6019961676,4.2298109242,0.0089294935,0.7869354964,-0.5373259179,1.7269818841,0.7937805136,0.153380733,1.7130248272,0.2402161406,-0.1108779743,-0.764245616,-0.2325589696,-0.403140017,-1.7716169678,0.2290801501,0.2731541763,-0.3212138698,-0.0677745138,-0.3995326139,-0.3710199036,0.3006687822,-0.2626677978,0.538186105,-0.7941576072,0.021401835,-0.21570864,-0.8869851077,-1.5786244679,-0.0899421304,0.6113493735,0.7751548472,3.1540357988,-0.6639724285,-3.0414028705,-0.1090282454,-0.1882952554,-2.4148161538,-0.1913644552,3.7199322816,-0.1609205037,-0.0575252125,-0.3800475919,-0.7946500327,-0.1372043089,-0.1288012531,-0.3658326873,-0.1031783947,0.1191346481,-0.008824559,-0.4875094736,-0.8299408712,-0.2511804365,-0.0610591073,-0.4738573255,-31.9879644922,78.141576231,1.745746399,-8.4018482375,-8.9573048615,24.7760327065,-0.3228167171,-0.5219183351,-0.3640140903,-0.8883176107,-0.0539419165,0.8773001004,0.2312548253,-0.4930714875,0.4572662519,-0.2589182397,-0.7813709347,-2.1209783394,-0.8864060133,-0.2451145538,0.2876869768,-1.1124494749,0.5254598681,-0.1731501706,0.0057514576,-0.1747810102,0.4654986469,0.1178565301,-0.2158538843,-1.3524539986,0.3377358322,-1.3877991097,0.5652218083,1.4965179141,-3.3290557002,0.9763620473,-0.765205253,-0.2850043381,-0.0906586851,-0.1343050224,0.5670470348,-0.1376365879,0.1981750395,0.0916231781,-0.075876208,-0.6932658272,-1.3635207224,-0.0990715404,-0.0160635852,-0.6209636183,-0.3225832207,0.0825196903,-0.0441715877,-0.5829355037,-0.7653060125,-0.1755930894,-0.0532916378,-0.5802136884,6.9064977599,-2.683462392,-1.9567054586,-2.4705286278,44.0566136083,-3.8859125893,1.2934603629,-0.4042514854
biasActivation=0,1,1
[BASIC:ACTIVATION]
"org.encog.engine.network.activation.ActivationTANH"
"org.encog.engine.network.activation.ActivationTANH"
"org.encog.engine.network.activation.ActivationLinear"
