encog,BasicNetwork,java,3.3.0,1,1469383118579
[BASIC]
[BASIC:PARAMS]
[BASIC:NETWORK]
beginTraining=0
connectionLimit=0
contextTargetOffset=0,0,0
contextTargetSize=0,0,0
endTraining=2
hasContext=f
inputCount=28
layerCounts=2,46,29
layerFeedCounts=2,45,28
layerContextCount=0,0,0
layerIndex=0,2,48
output=0,0,0,0,0,0,0,0,0,0,0,0,0,0,0,0,0,0,0,0,0,0,0,0,0,0,0,0,0,0,0,0,0,0,0,0,0,0,0,0,0,0,0,0,0,0,0,1,0,0,0,0,0,0,0,0,0,0,0,0,0,0,0,0,0,0,0,0,0,0,0,0,0,0,0,0,1
outputCount=2
weightIndex=0,92,1397
weights=-0.8943418552,0.1686627795,0.2217085385,-0.1420901149,0.1465620451,-0.1101328577,-0.5831519311,-0.0865337966,-0.1472043106,0.7402993923,-0.553903804,-0.427164446,0.5300739461,0.1166477136,-0.3743312474,-0.5755874894,0.3992716692,0.0423963817,0.3112738809,0.2477364046,0.7440284134,0.8470091864,-0.0975312109,0.0562906236,0.71597759,-0.758600444,0.7605403951,0.0972578213,-0.1590711573,0.3870863406,0.5862144983,-0.0478043878,-0.0678211533,0.1823247908,0.3037823289,-0.513847033,0.2693489961,-0.4486363179,0.2185569079,-1.1003712124,0.7482233129,-0.2755422689,-0.3997375482,-0.6225958363,-0.6611556857,0.0877835518,1.0673877084,-0.3008128629,-0.2027449076,0.1458278722,-0.0452310606,0.0913922161,0.1484428786,0.9842159468,-0.0562845627,-0.6504414287,0.6408991931,-0.5767907997,-0.9243251541,-0.1196963064,0.5044353163,0.527873835,-0.3336818891,-0.5457446823,1.1657432451,-0.5840418766,-0.624065532,0.7564120414,0.0951439418,-0.1270160295,0.1322482411,0.1198619519,-0.1668927587,-0.0362915409,0.0539197601,0.9438698276,-0.3165708088,-0.5600578383,0.0728610174,-0.1564557711,1.0235490943,-0.2815871449,-0.2096663417,-0.4756935404,0.5358119864,0.0608656901,0.0593530279,0.3144138219,0.3063148891,0.3530128447,0.5349603838,0.8084835335,2.4529150725,0.1944050307,0.095435749,2.7239861436,0.0977386744,-3.7238816305,0.1311438939,0.0976602227,0.2924547825,-2.0131094201,-0.1933068189,0.1495997795,0.3536549104,-0.6851525312,0.0108597324,0.0436937533,0.3627832776,0.5141297596,0.0401721688,0.047557011,0.3464261354,-3.4354561937,-7.2734501269,-0.4948559044,3.9383103229,12.7006277036,-33.8857104988,-3.5466284348,0.161993705,19.9131654479,-0.1209197306,-0.1292261271,-4.6547953178,0.1028509015,1.7083092204,0.2334126392,-0.0857797008,0.1782842914,1.230673189,0.4197847556,-0.1556193789,-0.0696396513,0.4769750563,0.1998543518,0.0311436859,-0.0022519324,0.9319271227,0.009672799,0.0539999679,0.122882265,-0.8002686336,-3.6956423962,6.1435741019,0.6429025286,-4.8287003368,0.191720801,3.4493762813,-0.4880035159,-1.9798987178,0.0699319125,0.1334994823,-1.2173719719,0.0289705524,5.5625911876,0.5900366991,-0.1198425688,-0.6183405878,0.6430263417,-0.2329471993,-0.1151842141,-0.2059233929,0.4224114137,-0.1719372729,-0.1598123473,-0.2137331449,1.3728368672,-0.2010930949,0.1623117262,-0.2145421457,-2.3327938063,0.7378799315,0.3467476397,1.0784970441,-0.6865195069,-3.8524274801,-1.6460873755,-0.1227203318,1.009132929,-0.5213745054,0.2246796161,-0.8812170464,-0.2156766666,-0.4766143074,0.2989590111,-0.3997956169,0.8452508855,-1.5290280057,-0.748964761,0.0932159217,-0.1213487783,-0.8486350537,-0.048307324,0.163365088,0.6319293852,-0.3242793256,0.0848646552,-0.1569402427,0.6391228517,-0.135072716,-0.3531684548,-0.2820874848,0.6428544703,0.0389575928,-0.3846598637,1.9839771853,-0.3339230188,-0.570592992,-0.3748518708,0.4583212151,-1.0858830339,0.9518664109,-0.4754487012,0.8285654008,0.2581848789,-0.2480390402,0.3256645306,-0.5873544325,-0.3717283293,0.207007957,-0.0856419596,0.8159400281,0.4969472585,-0.1709689522,0.500334086,0.0239270112,-0.3545421065,-0.2360297247,0.5210458028,2.4274045404,-0.3860825981,0.5468861146,0.2944010512,0.2235552102,0.0668327595,-0.5804363589,-2.1908979136,-0.7556858555,0.7551891194,-0.4920483388,0.3747237611,-1.2289217303,0.5527245232,0.1948214669,0.0313166683,-1.1045013295,0.4450213643,-0.6101142982,0.3524027619,-0.2422361528,-0.1753919831,0.5056568624,-0.3868632388,0.4175714469,-0.4658202925,1.0994155073,-0.1933287686,-2.2705247848,-0.7831477012,0.1258487435,2.4189861352,2.394130287,1.0140769944,-0.578417455,0.065127363,1.6028160335,-0.4062238953,0.2967561909,1.0081933157,0.3075644903,-1.2146921955,0.6107985653,0.2248484967,-0.0083386528,-1.0862849335,-0.8429552578,0.385718673,0.1283911512,-1.5047233612,0.3210733079,0.1897597263,-0.171259614,-0.6391243891,0.4133115946,-0.0399259732,-0.3525844298,0.6009000504,0.4196130196,-0.1184783233,-2.7639037998,0.7777403726,-0.2686341391,4.9329388812,0.0638343946,0.0382854822,-0.4058651911,-0.5361922075,3.0600034719,-0.1783568588,0.5609370134,-0.0089234074,-0.282000356,-0.180143206,-0.093496621,0.7584837806,-0.2752121263,-0.1628329329,-0.8419450396,0.3224799614,-0.067732711,0.0615052821,-1.0792973019,-0.5931558664,0.12380866,0.1763243453,-2.2549663907,0.8138981556,-3.3231219306,1.5746703001,1.3767780708,-2.3691333225,1.5211219943,-0.8402651325,-0.0167563311,-0.451534859,-0.5708904484,4.6446021226,-0.0116841324,0.0911251014,-0.4253730427,-0.7627277288,0.0409440868,0.5391269031,0.4425903658,-0.393842561,0.2429945957,-0.5433767099,0.4246861578,0.3676170208,0.3984701704,-0.5693662572,-0.6416688835,-0.0987061003,0.2967422681,0.3790708949,-2.6012239993,-2.6624223287,0.1929679104,0.5448363818,0.0456513103,-0.5705656794,0.2876473848,-1.4944025284,-0.1162413765,-0.0683173547,-0.3317371124,-0.1197645619,-0.5470811648,0.0584005482,-0.0951781795,-0.5080591371,-1.4236875645,-0.1125501452,-0.0392551538,-0.4424885832,-1.0154104357,0.0592486062,-0.0930454376,-0.37998813,-1.3521376657,-0.0565007099,-0.0690329657,-0.2830249991,6.0150030692,-2.6421107821,0.7549174321,-4.855818551,69.3277779999,-3.8846307743,0.1162579904,-1.1277389864,1.0319510126,-0.0670828252,0.0138410306,0.4405714479,0.043774155,-0.5647770281,0.4102321711,0.3517828345,0.0075722062,1.2426532967,-0.1184168706,0.2187408786,0.0195515893,0.4967379999,0.1671541129,0.1403078319,-0.2053164781,0.8812388599,0.1233446484,0.0826515732,-0.1896243185,0.8513770271,2.1672205473,-0.6550141071,2.0935840541,3.6743568108,0.8605922172,-8.3130818343,0.3698347634,0.3807892334,0.2097420875,-0.2652471569,0.2445072597,-0.1251456685,-2.5488264283,-0.5495779461,-0.1379885469,0.0518623407,-0.5203215724,0.1014240389,-0.0959105632,0.1304982547,-0.3071314362,-0.0221060979,-0.1512393022,0.2280305011,0.0586775667,-0.615278555,0.0005113273,0.5568748089,-3.7672158406,-5.1423067412,-0.4608025509,2.5412551266,0.9467996296,-1.6231733657,-0.2059576429,-0.6204382715,-1.3248922468,-0.1453828328,0.1013903608,-0.2277576023,-0.0143281227,0.706689867,0.3049536773,0.3774278693,-0.2744873925,0.340907046,0.2115619322,0.2187114533,-0.1293159418,0.1177848341,-0.0006133721,0.1288447037,-0.2369422952,0.1291573186,-0.1554203461,0.1587847905,-0.3158663862,3.1078020208,13.1311649897,-0.8131425814,9.4407337188,-11.9929235921,0.1314841383,-4.0626384911,0.2790926651,-0.5944392285,-0.2258054757,0.6403235796,-0.9836546281,-0.3372887096,1.6771346908,-0.7997511789,0.7531436389,-0.0750135454,0.8250124937,0.0589831419,0.270291486,0.0488556461,0.5175280549,-0.0415818065,-0.5058637063,0.2801028583,0.1501003064,0.0556888364,-0.3115272483,-0.0365680247,-2.2310406174,-1.5051526248,-0.754329388,-0.3328602902,-0.2359963866,-2.2664817308,-0.0504193357,0.1049939979,-0.85524094,0.6334291403,0.5513774996,-0.7916938925,0.5512710143,1.0569610417,-0.0948865392,0.2212116769,-0.3288058859,-0.2497534429,0.377288789,0.3280324658,-0.3477232961,0.0774157241,-0.5873994467,0.1197537015,-0.0691236474,-0.2492866896,0.3103443928,-0.369985166,-0.0466134723,0.1553344697,0.3036507122,0.315835949,0.7491081205,-0.8003713953,-0.4036257394,9.2438363743,-0.5400378976,-2.478629462,-0.0618458335,-0.2926994322,-2.786514811,-0.2293836293,5.6102339883,-0.0222708122,-0.1097864661,-0.026757962,-0.5573362063,-0.1488434821,-0.1374695715,-0.1077158728,-0.5309387539,0.0212291704,-0.0833833961,-0.1829479947,-1.1166723411,-0.061380109,0.0358608398,-0.224613817,4.8907978782,-0.6151141553,-0.0701413148,4.491341312,-1.933747936,-15.6696072964,28.6003997222,-0.0927392775,-0.6838368559,0.6680832284,-0.2166662381,2.8307222843,0.1062124894,0.1551700555,-0.1850566298,-0.2490460284,-0.119018762,0.0429969571,-0.7033819692,-0.2502119103,-0.2111294291,-0.515087286,-0.5699604549,0.0615655037,-0.2909110121,-0.2479002201,-0.3123589695,0.0288766579,-0.3068546677,3.0742966232,29.9976877586,-1.6440334728,5.3233080238,-0.2167519547,-0.448784299,-0.4033417746,-0.1087161986,-6.6363029978,0.2428280364,-0.0889304666,-4.1495275876,0.1496605465,-0.6901356591,-0.2231752841,-0.0764186585,-34.9730361326,-3.1999205309,-0.0197721511,0.0281171069,0.076459355,-1.4725237733,-0.0053582249,-0.0264713411,0.1792019898,1.1628361833,0.291347212,-0.0552218317,-36.8646705902,3.3098831837,-31.726353882,8.9106724265,-47.8441130424,4.5147863518,-2.1120083017,8.1931338271,0.7386966,-0.5348554354,0.0289500929,0.2339366367,0.4397268026,0.0452775566,0.9388717537,0.7569902909,0.1697577537,-0.1179129275,0.0828766267,0.5576188928,-0.1669561582,-0.2106208511,-0.7522209381,0.3904538439,0.0270193573,-0.1077523475,0.3800585293,0.125092808,0.09875527,-0.0459837754,4.0084945264,3.5145341645,0.192202089,0.9156944218,0.0904818416,-0.4717657636,-2.4218276383,0.4950619403,2.157976801,0.2796550296,-0.0082150503,0.1838812922,-0.035125341,-0.5919267253,-0.3322107342,-0.539711775,0.3369694385,-0.3270456488,-0.3232036093,-0.147568304,0.1985754603,-0.1632758599,0.0846904409,-0.270138015,0.3859158195,0.2037904676,0.545814836,-0.3200068144,0.3933330133,-7.3198294695,-2.5375755332,-1.0029415361,-6.0062940897,16.1295617234,-1.6003578833,-2.1275910386,-0.568895641,2.5804295307,0.1350952147,-0.013967464,0.2450916733,-0.0562042449,4.0807160374,0.1531498869,0.0159488072,-0.7722429638,6.0541796996,-0.5053077976,0.0830169487,-0.1402401399,1.5080513621,-0.2463899844,-0.1259437883,-0.1136074262,1.8106246261,-0.0279085604,0.0021330449,-0.1749190044,-12.0740350726,-7.1103463214,-0.3444231965,-4.6645126137,0.9059976457,6.7302073866,16.643481131,0.0386569487,0.5387560268,-0.0279221878,0.3112575889,-0.4380948363,0.181219134,-0.4809700652,0.2731981113,0.1682658283,-0.066283846,0.7961212673,-0.5036613676,0.3108802292,0.1300796326,-0.302019655,0.1052175906,0.1430834247,-0.0459036791,0.6971141717,0.1741031055,0.0414912736,-0.1743203803,1.8961025421,3.1501147802,0.7279411749,1.519881466,-1.9341110409,0.340011831,0.6073880303,0.4416603251,8.6276501192,0.3137401407,-0.2860701419,6.5048751965,-0.2251589838,-13.72522033,-0.0845186145,-0.0687881453,-0.1826305839,29.8464574698,-0.3853220981,-0.1751482987,0.728889313,-5.0906390514,-0.0416214916,-0.3092923134,-0.302917995,-4.9607020984,-0.1955000751,0.0357735259,-0.2942724146,3.1946922517,7.612848417,-5.4529869723,3.6962849544,-9.8324873211,-0.5062068525,4.3691037983,0.1776826962,1.3699040264,0.500140614,0.6008006776,0.8667458655,0.2172013282,0.6547776161,0.2948011464,0.434519967,0.1810411425,4.8167183396,0.9548958491,0.1344588677,-0.7196160243,0.4430244495,-1.0157607538,-0.4116177198,-0.5272782866,-0.9967905587,0.1653553119,-0.3676130512,-0.0195535849,-1.2803039558,0.351452335,0.8342825592,6.1068772726,-0.4870949118,0.7374789127,0.2942046612,-0.8566486038,-0.7000353667,-1.7321471922,0.2514738259,3.0765721948,-0.0625222301,-0.0483176664,0.8665332749,0.1028378187,-0.1506138088,-0.1438027215,0.7472343156,0.1316832008,-0.1854733862,-0.9667246777,0.6331480481,-0.0773964352,-0.1529301126,-0.2785670381,0.5556469458,-0.0646608549,-0.2601195462,0.310503548,0.7789521405,-1.5005033325,-0.4022032622,-0.058028791,1.0417118834,-0.097677837,1.1374812617,-5.6731910777,-0.2713978527,-0.2363849546,-5.0041402483,-0.1849589884,10.1979599786,-0.1312630599,-0.1127956022,-0.6369091705,3.9870521958,0.0472396267,-0.1277975323,-0.5381840998,1.178350414,-0.0405144461,-0.1133577291,-0.5207732643,-0.8212121473,-0.0839048643,-0.0348263431,-0.4143085297,-15.732271109,16.5787861477,0.5573988173,-4.6284997499,17.5263675053,35.8997953319,-2.9027319176,0.1567283294,-0.3941576887,-0.1035405379,0.1004505099,-0.1706167848,-0.5244806716,-0.5716179145,-0.0377767276,-0.5664386691,0.3244889794,-0.5013444273,0.1408185334,0.369586789,-0.3583320779,-0.9664757898,0.1237942627,-0.0951311624,-0.2654344859,-1.0194569458,-0.2831965473,-0.4218549516,-0.6040411806,-0.3690199897,-2.8219150825,-0.6500739566,0.1362351928,-2.8023915134,2.014537044,-1.1021769629,-0.1576367642,-2.1629467682,0.6829496772,0.4542809232,-1.6015219245,-0.0389735285,0.84004421,-0.9729246992,0.4554238957,0.1699693189,2.4420240198,-0.1006305425,0.4560059657,0.1051324567,-2.2640203353,-0.8242864013,0.669813262,-0.3048295318,0.6130549092,-0.0879756628,0.4383091736,0.6130103973,-0.9229690062,0.6329868747,0.6765992593,0.9672002186,-0.6114351513,-0.4200420989,-0.6347529138,-0.8997446683,0.0704673283,-0.2423613015,0.1006189647,0.3117145859,-0.4191031156,0.6538088325,0.4153793867,0.7157183236,-0.2561068654,-3.1547284546,0.8817918525,0.2881466486,-0.5034834109,-0.4322728687,-0.0738075008,-0.6733700669,-0.4364484846,-0.2049813118,0.772607226,0.1704513857,-0.1966808649,1.746193104,-4.7860702547,-0.3638364182,-0.0346117532,0.8667787196,6.8345013591,-0.0733958783,-0.1664393205,-1.4746358107,-0.0299721837,-0.2445259512,-2.54838274,-0.2697756777,1.8031685382,-0.1345091213,-0.2954120114,0.3045987521,0.5167111824,-0.382932933,-0.1283217887,0.1646368703,0.7333078129,0.0171121115,-0.2758548142,0.1193613826,0.7091539534,0.0411265778,0.0018912694,0.1023929402,-6.4727661386,8.5245130907,-0.2373473495,-0.1913637233,-2.8443113858,1.1158470497,-6.9090416707,-0.4404528945,0.406556386,0.1709648168,-0.0000112145,-0.3495515991,0.1367950699,5.0435701732,-0.2373106752,0.1488245986,0.8910781626,-7.7295652914,0.4253843262,0.0344850479,0.0854416893,-2.6395144582,0.0824241281,0.247715094,0.1258839231,-3.2568485475,-0.130001659,0.0281651655,0.3187917951,8.8606233045,2.5545957813,0.4603594295,-0.9366519686,-0.9757355595,-11.4187532807,-5.9029844049,-0.7547207267,-0.537877003,0.8792946481,0.1683313871,-0.5255064835,0.1381259114,-0.6415604324,0.6590832926,0.0570451789,-0.3774746457,0.7416979332,0.7544996184,-0.2318712206,-0.3918726748,-0.2708021472,0.3751452109,-0.0123054796,-0.1365674929,1.0568535424,0.4869407787,-0.1787870281,-0.2825241893,4.1391545435,0.92628181,0.3054844592,-1.9046926826,5.1755383179,-1.0012575873,0.8904601862,0.3597788705,0.8945527621,-0.3197982259,0.2342625596,0.887190637,-0.6959266976,-0.0128838423,-0.6078034978,-0.4380434387,0.0183262284,-0.2188750853,0.8256671602,-0.3229098823,0.2023360814,1.7064459154,-0.050365032,-1.1246082456,0.1250847046,0.0341246683,0.3537031921,0.6417573207,-0.1218538374,-0.9221589178,-0.8323814847,-1.4955330128,1.3068574604,4.4894022076,0.0567309119,2.5947510501,-0.8056830943,-0.2727791049,-0.1238771862,-0.296269523,-0.754408957,0.0488167483,0.0726039937,0.4393158221,-0.1072754995,-0.3755895755,-0.0234639716,0.0842228325,0.3791538229,-0.2499153879,0.3042190384,0.0962305431,-0.3717054286,-0.0208602903,0.1916697528,0.6524085407,0.0654569071,-0.5980168867,-0.4613586878,-0.2284193555,-1.0151071219,0.0938865398,-0.2460553588,-0.2328522272,-1.2608471447,0.5871503842,1.1425295744,1.624900224,-0.2927372585,-2.5580242054,-0.0651935303,-0.5796809795,-1.1592704005,-0.1781321245,0.1045184682,-0.3534836642,-0.7553761575,0.0577379766,0.1369784884,0.6741358445,-0.7821906765,-0.0013889128,0.132721218,-0.2763694444,-0.8453398649,-0.0480758928,0.2319531179,-2.4503063438,-2.0476261933,0.3764805086,0.461802351,-0.6669281124,-0.9154998431,1.7417038779,-0.5998816121,-2.4772917632,0.0761367194,0.2165660432,-1.8379239654,0.1261373151,3.3932089286,0.4337191679,0.1912264448,-0.0972465623,1.8289597363,-0.0943454816,0.1336513668,-0.1626105601,0.0784863625,0.0672603661,0.1591652891,-0.2478219335,0.7001611199,-0.1332160265,0.0631925022,-0.3122775203,3.0742108855,10.3265924614,0.2546680049,4.3117345791,-8.5673027206,-1.0641694636,-4.4809921265,0.9274747691,1.5479923992,-0.6786480037,-0.4047959777,0.2296373375,-0.213196246,0.1354862733,0.086932815,-0.2042540274,0.4901825272,2.0122722239,-0.6719003978,0.4412785387,0.0468847669,0.0574439607,0.9944248305,0.064468256,-0.1651647796,-0.1165061298,0.6915924253,-0.3456203467,-0.2508145325,-0.6660309995,2.0192020571,0.8374889509,1.2641842333,1.7955758858,1.6039482919,0.2078220365,0.0765655926,4.4946660927,0.3516596089,0.2573847698,3.2198933344,0.2533611529,-5.2035879411,0.0392976869,0.1609491758,0.5686590797,-2.8421567004,0.0169260436,0.1533310982,0.3939637618,-0.6994000524,0.0109058689,0.1771241719,0.4090664631,0.5684061239,0.1588451886,-0.0009562608,0.3633928695,14.8775031303,-15.8559683078,0.4110651267,1.6795255302,-7.4498810667,-21.7965353514,-3.4708475613,-0.8082029278,0.8268364395,0.6149830226,-0.1493155512,1.2303358366,-0.0589482614,-2.3059757883,-0.1657880504,-0.0992117105,-0.5689872513,1.8895137905,0.4755452691,-0.1676906131,-0.381468949,1.0433537913,0.1381343991,-0.2512601825,-0.1934821925,-0.226195702,0.1818649858,-0.3453910202,-0.3839326688,3.1018516942,0.9323314912,1.1403573664,1.0415844106,0.4969472144,5.3493095917,0.1340045178,1.2800341237,0.316659736,0.3117055862,0.0614267393,1.2109634917,-0.0722553285,-6.6261840535,0.2138836489,0.0074846754,35.2017530227,1.6275343012,0.0231310765,-0.0682029578,-0.045966203,-0.9642798201,-0.1928415553,0.1742684374,0.1240723219,-0.3425828076,-0.3285097149,0.2069350328,36.1475255382,3.529385458,-7.7028022585,0.3283078293,-1.7862414909,5.8832299681,-9.4335897852,11.8359881129,2.1097532258,1.0730744957,-0.4019692734,-0.0957264312,1.761198052,0.4803990252,-0.1751697172,0.304166417,0.533642113,-0.322865961,0.2386940665,0.447041633,-0.3500920385,0.146351947,0.2958693083,-0.0544361692,0.0992134951,0.0530620746,1.0116014296,0.7018303904,0.4233439839,0.3309506731,0.8795324866,0.4764946031,1.2059186077,2.6019128883,7.2613819632,0.010057525,0.7923630488,-0.5375796852,1.494306214,0.7229233023,0.1514523561,1.7111914442,0.2390459193,-0.113345106,-0.7647901368,-0.2294868597,-0.4032533486,-1.7737912954,0.2278690413,0.2714808426,-0.3171949694,-0.068272793,-0.4063245748,-0.3692656482,0.2977021779,-0.2342151813,0.5359658568,-0.7921856477,0.0223699357,-0.2165731753,-0.0200395591,-1.5790531617,-0.0850192641,0.6115061804,0.6692367628,3.1567667118,-0.6657342391,-1.8083489253,-0.0276463976,-0.1890169754,-0.1739997612,-0.1419518572,2.2289097611,-0.1122369352,-0.1095791597,-0.2133590256,-0.8309547629,-0.1323505254,-0.1606097145,-0.2372829738,-0.1058096127,-0.0438433003,-0.0459877069,-0.3157952835,-0.2068673707,-0.2211509243,-0.0607463796,-0.4052219833,-43.3808214211,104.6716060413,1.746196381,-5.3573354696,-8.3312784812,20.3465750064,-0.3233415714,-1.9627215263,0.1073065546,-0.942485203,-0.0534544588,0.168559091,0.1242536233,-0.0538426942,0.4591583779,-0.1980530289,-0.835251691,-2.1180355102,-0.9517737294,-0.2450388406,0.2844004553,-1.1096137063,0.5253902471,-0.1724410761,0.0108888689,-0.1764643174,0.4663473579,0.1191880154,-0.2053399499,0.5600196648,0.3547247912,-1.3877101677,0.5699418275,1.1887450909,-3.3233435667,0.9827368909,-0.7649211556,-0.3274993865,-0.0947036609,-0.1303741113,0.5676597682,-0.1367542675,0.1986104194,0.0724734232,-0.0992553982,-0.6789629404,-1.1746257369,-0.1062070121,-0.037265299,-0.6076390074,-0.3414146802,0.0479500047,-0.0537851073,-0.5747696766,-0.7689157313,-0.1407638428,-0.0634553576,-0.5482311123,7.0380782208,-3.0805210955,-1.5526279252,-2.4711595536,44.4196099345,-3.886865885,1.2934733792,-0.4483790207
biasActivation=0,1,1
[BASIC:ACTIVATION]
"org.encog.engine.network.activation.ActivationTANH"
"org.encog.engine.network.activation.ActivationTANH"
"org.encog.engine.network.activation.ActivationLinear"
