encog,BasicNetwork,java,3.3.0,1,1469383982936
[BASIC]
[BASIC:PARAMS]
[BASIC:NETWORK]
beginTraining=0
connectionLimit=0
contextTargetOffset=0,0,0
contextTargetSize=0,0,0
endTraining=2
hasContext=f
inputCount=28
layerCounts=2,46,29
layerFeedCounts=2,45,28
layerContextCount=0,0,0
layerIndex=0,2,48
output=0,0,0,0,0,0,0,0,0,0,0,0,0,0,0,0,0,0,0,0,0,0,0,0,0,0,0,0,0,0,0,0,0,0,0,0,0,0,0,0,0,0,0,0,0,0,0,1,0,0,0,0,0,0,0,0,0,0,0,0,0,0,0,0,0,0,0,0,0,0,0,0,0,0,0,0,1
outputCount=2
weightIndex=0,92,1397
weights=-0.892325882,0.1717552051,0.2235016473,-0.1363202399,0.1455925733,-0.1110302027,-0.5698867154,-0.0875890856,-0.1497324614,0.7534031926,-0.5158924018,-0.4275082915,0.5295823487,0.1119809973,-0.3737373768,-0.5827456235,0.4359209654,0.1476243119,0.3116887214,0.2497939884,0.7445263293,0.8476603208,-0.1048935681,0.0931371275,0.7167798983,-0.7590358831,0.7597808759,0.0896427416,-0.1569457006,0.386201061,0.5857157737,-0.0467824516,-0.1031142866,0.1798760131,0.3029266553,-0.5151119362,0.2696810389,-0.4483893872,0.2187832228,-1.0996595609,0.7487553828,-0.2745040738,-0.4008619293,-0.6228247981,-0.6882549181,0.0883970837,1.0675023276,-0.2995945386,-0.2077417708,0.1426806095,-0.0584957765,0.0937464017,0.1482816987,0.9840573605,-0.0560346561,-0.6596372381,0.5870994051,-0.5769015188,-0.88819929,-0.1181887273,0.5035417202,0.5482362096,-0.3803048428,-0.5452709991,1.1657251639,-0.583697083,-0.6238319143,0.7564478472,0.0972232594,-0.145202888,0.1320396845,0.1473627546,-0.1677427448,-0.062422537,0.0734891368,0.9439897169,-0.3251727711,-0.5601330359,0.1233122836,-0.1600701484,1.0235495277,-0.2808766881,-0.2105374261,-0.4769507847,0.5360405712,0.0610183578,0.0591688778,0.3144474408,0.3062768474,0.353468265,0.5699655477,0.8084431019,2.5454131027,0.173813573,0.0961609206,2.7269372844,0.0997492168,-3.7018296216,0.1305745378,0.097776995,0.282577107,-2.0131191844,-0.1901855529,0.1456303053,0.3418204211,-0.6851634863,0.0108958496,0.0547581066,0.351035757,0.5157902929,0.040391232,0.0502839148,0.3265109577,-3.4354547397,-7.2731713107,-0.4940647072,3.9383008613,12.7065225595,-33.8864749279,-3.9622981214,0.2140775732,19.4932890618,-0.1295849722,-0.0860821627,-5.0404256394,0.0902319382,1.5922342274,0.2077555399,-0.0166484226,0.1773194647,0.9068939938,0.4030476304,-0.0835708639,-0.068692676,0.4727747256,0.1811088644,0.0297670395,0.032978803,0.7391351667,0.01118275,-0.0002083312,0.1551394403,-0.8010087046,-3.6964305025,6.1448104801,0.5057018342,-4.8359022098,0.1924105807,3.4515930116,-0.4876050975,-2.1914871951,0.0677454586,0.1332792765,-1.2246168872,0.0253170123,5.5644944145,0.5905806129,-0.11986702,-0.6186068829,0.6428205571,-0.2683552088,-0.0868540491,-0.2021763882,0.4231607339,-0.1718013331,-0.1586360298,-0.1800373642,1.39835482,-0.2002651499,0.1575133524,-0.2016694924,-2.9016752986,0.7404511966,0.3477058188,1.081583566,-0.6796201425,-3.8537363506,-1.6482089836,-0.123082757,1.0062302211,-0.5214884909,0.2239857146,-0.8816084574,-0.2166407044,-0.4770774957,0.300442461,-0.3802058206,0.8445215949,-1.5293000332,-0.7488004986,0.0932615756,-0.116816499,-0.8474031015,-0.0472950322,0.0833014131,0.5691024337,-0.3250330395,0.1965150622,-0.1541101282,0.6365954623,-0.1370457616,-0.3516980837,-0.2817023485,0.642529147,0.0377307531,-0.3849808382,1.9842337021,-0.3345081869,-0.5641450732,-0.3753942323,0.4581343545,-1.0856078541,0.9517789909,-0.4747434586,0.8287656503,0.2576241833,-0.2478860034,0.3261892595,-0.587902453,-0.3679580367,0.2065500782,-0.079763754,0.8155205318,0.496086514,-0.1722020257,0.5388216005,0.0241710226,-0.3543175161,-0.2351306248,0.5213245647,2.4272397683,-0.3855757122,0.5475563256,0.2964815055,0.226244491,0.0673741265,-0.5800230144,-3.0513308229,-0.7528990054,0.7353476227,-0.4946020255,0.340852422,-3.2980836904,0.5526260197,0.2975751076,0.0414476862,1.2833562003,0.4454476462,-0.406401014,0.3498944553,-0.2463396592,-0.1716032659,0.7063063648,-0.343827412,0.4135152296,-0.4652167266,1.1532851064,-0.1285245846,-3.6062385527,-0.8639408854,0.1258984767,3.3040145031,2.394164613,1.0083878384,-0.5791814144,0.0649439644,1.6124859997,-0.4065716305,0.2951375774,0.7944052886,0.3067372535,-1.2166902094,0.6111732975,0.2211255557,-0.0078534949,-1.1926908204,-0.7728470086,0.3360039038,0.1281125075,-1.5029377315,0.3209119895,0.1887169139,-0.1719091092,-0.6517688986,0.4124903952,-0.0078895559,-0.3510838631,0.7725412956,0.8084215683,-0.1285443221,-2.7945513799,0.63675049,-0.2701387958,4.9325468107,0.0639369135,0.2224854708,-0.3755343376,-0.4887906715,3.1205820081,-0.177837493,0.5520159088,-0.0092718413,-0.3189130341,-0.180062317,0.2412589854,0.7583725142,-0.2755773127,-0.1423631845,-0.8213886552,0.3025772189,-0.0690108042,0.0625211221,-1.0789521999,-0.5891533431,0.1237899159,0.1827014015,-2.1090083675,0.8146696612,-3.3240178008,1.6281557336,1.0136699893,-2.9041817973,1.4892413981,-0.8408774246,-0.1494627796,-0.4045805721,-0.5666312411,5.2636201013,-0.0665898915,0.2496333619,-0.4250030468,-0.6990897136,0.0405612463,0.9449827532,0.4428662776,-0.3939738689,0.1756082385,-0.5395052574,0.4245580365,0.2361444422,0.3195279827,-0.4151382212,-0.6417046965,-0.0979069999,0.2660587549,0.1891476132,-2.6008643025,-3.2762876835,0.196311442,0.5465540168,0.0424879639,-0.5700717725,0.2870527017,-1.5177097164,-0.1005932848,-0.0703555008,-0.3326322646,-0.1144505476,-0.5785321027,0.0246088235,-0.0934719371,-0.4993230491,-1.4251533155,-0.1091438614,-0.0396798162,-0.4299164924,-1.0691975873,0.0538197138,-0.0892615691,-0.364950575,-1.5247209086,-0.0571826412,-0.0690524866,-0.2575102327,6.0144362387,-2.7376832471,0.7619352472,-4.8644405187,69.327632244,-3.9756266861,0.190967632,-1.1621667308,1.0346514149,-0.0677902352,0.01417489,0.3369049269,0.0440734907,-0.5569305266,0.4095156308,0.3488333622,-0.0056859081,1.4631815712,-0.1180863942,0.2130576432,0.019788061,0.5008341356,0.1650238649,0.1242749574,-0.1906995452,0.8810556455,0.1236529454,0.0826805451,-0.1903997231,0.8062190919,2.4858530244,-0.6550511729,2.0771378699,3.3468987483,0.7359983747,-8.3010990535,0.369102283,0.3811299043,0.2109238903,-0.2572933545,0.0912452537,-0.144270737,-2.3239026751,-0.5224378092,-0.1188039628,-0.0066682078,0.3029370846,0.1020922903,-0.0600493942,0.1441687634,0.0752798865,-0.1457643019,-0.1459413006,0.2396558185,-0.3072893175,-0.6034187279,0.0113774616,0.5426097912,-3.9533118567,-5.226770582,-0.4622944435,2.5734938361,0.9501321549,-1.6279865108,-0.2952827239,-0.6208111789,-1.3263629179,-0.1451982297,0.0829714036,-0.2284427949,-0.0140985319,0.696243512,0.3049387876,0.3741943961,-0.2745568447,0.3341687593,0.2112267729,0.2180233109,-0.131161587,0.1164796645,-0.0003051514,0.1298026636,-0.2528010601,0.1298068679,-0.177074055,0.1583309111,-0.3148346916,3.1072340014,13.1315397251,-0.8132812539,9.4410513225,-11.9061666446,0.1336390835,-4.0621352573,0.2795843817,-0.5962353423,-0.2255486974,0.6395130833,-0.9833267674,-0.3168497443,1.6777714758,-0.8003810003,0.7477831433,0.0121007734,1.090674899,0.0593703839,0.2699179224,0.0757129907,0.5512702078,-0.0404821677,-0.446027725,0.2596319937,2.3098314524,0.0561219532,-0.3117689985,-0.0374597801,-6.2133439834,-3.4899076769,-0.7540170283,0.2987019229,-0.0835936433,-2.267474972,-0.0525014479,0.105241959,-0.8556753078,0.6330761791,0.5495174912,-0.8702343367,0.5360969439,1.0568507158,-0.1123396633,0.2206553728,-0.3310782047,-0.2438107188,0.3764888612,0.3278723822,-0.3476838959,0.0804268,-0.5867983117,0.1030550505,-0.0662131481,-0.2485496885,0.3061769954,-0.3446848121,-0.0532859686,0.1556624144,0.3042189649,0.3160586793,0.7499645403,-0.8001149811,-0.2807658823,9.2437988836,-0.5400851909,-2.4790602365,-0.0680663216,-0.291903462,-2.8646245523,-0.229652617,5.6114296246,-0.0377748045,-0.1408767259,-0.0287177621,-0.192104824,-0.1847487045,-0.1793900146,-0.121567215,-0.5309713544,-0.0330866689,-0.099061801,-0.1937296555,-1.1332635592,-0.0821705371,-0.0037428304,-0.231260783,4.8901911933,1.0055927539,-0.3074003334,5.0869866124,-1.9341271034,-15.6414720809,29.0723141221,-0.0934573912,-0.434869039,0.5753763027,-0.2167441237,2.1129738042,0.0795668178,0.1537746124,-0.1852055451,-0.2490667247,-0.1207990143,-0.2407775962,-0.7029428466,-0.248807593,-0.216736857,-0.5501164277,-0.5620577031,0.0019304556,-0.2908537539,-0.2489618773,-0.3123168118,-0.011765728,-0.3281218912,3.0735456769,31.9102748977,-1.6448595245,5.6205999732,-0.2176812647,-0.4446588881,-0.403286222,-0.1097404727,-6.0435235272,0.1996725022,-0.0858752945,-3.4782013946,0.1741849936,-0.6963672154,-0.217350107,-0.0932327794,-34.9730361326,-3.0895945477,-0.0205749024,0.0270445176,0.1029365668,-1.281931209,-0.0059516933,-0.0754749588,0.1806251333,1.207557833,0.2941228601,-0.0571468535,-36.8646705902,0.8296604447,-27.6749055992,10.8172803015,-48.9477090758,4.5096865319,-1.8644337746,8.5386620768,0.3861150934,-0.6675222021,0.024118742,0.2340237255,0.4512258414,0.0471546408,0.9385923374,0.75743652,0.1708508947,-0.1251769352,0.5133855569,0.5556678151,-0.1073202142,-0.1767447958,-0.7221310222,0.3877387896,0.0311713019,-0.0940726454,0.4569040235,0.1806539329,0.0988096956,-0.0473855565,4.0098836194,3.540676338,0.1944614856,0.2385235936,-0.5646144633,-0.8443790999,-2.5372290176,0.4953477992,2.1589093875,0.2804133631,-0.0093665124,0.1875748864,-0.033713964,-0.5924679064,-0.3283313144,-0.5301772904,0.3257827126,-0.3275106716,-0.3220376192,-0.1470490859,0.2016592189,-0.161275391,0.0850386756,-0.2551064603,0.3889491193,0.2291614576,0.5429295868,-0.3182310959,0.3948465688,-7.2934040509,-3.0747182445,-1.0020748016,-5.5710409778,16.1294855757,-1.6003020453,-2.1263834066,-0.5395741435,2.4620464683,0.1352463557,-0.0254813454,0.2452677727,-0.0564213541,4.0827971722,0.153020268,-0.002131797,-0.7687440728,6.0578773268,-0.4882474869,0.0350920799,-0.1675968283,1.6621460406,-0.2456540822,-0.1261655498,-0.1137629622,1.8072453232,-0.0277875852,-0.0097103229,-0.1727529288,-11.8250063603,-7.112937596,-0.3478977593,-4.6652024692,1.0084123585,6.7283342811,16.7421612902,0.0353147866,0.5511458475,-0.0343435899,0.2833692927,-0.2558709638,0.1808022818,-0.5108258555,0.2438664521,0.2172222349,-0.0848262562,0.7767107831,-0.5005595476,0.3016312537,0.1375866465,-0.1700614505,0.0512851536,0.1481439692,-0.0422583338,0.6759093076,0.1380842876,0.0458807497,-0.1477753645,1.9112820196,3.1505932973,0.7448594177,1.3942388579,-1.9413800383,0.6211958132,0.6086762442,0.4417879608,8.8547476904,0.3052044391,-0.2727704089,6.529346849,-0.2143910235,-13.9548524344,-0.0553993197,-0.069541624,-0.1811635492,29.8052751099,-0.3815908119,-0.1698320573,0.664114033,-5.880539674,-0.0417727581,-0.2402387092,-0.2796152217,-4.9666644819,-0.1854911047,0.0345574184,-0.2925673079,3.1942657671,7.6142676675,-5.4806636119,3.7081726726,-9.7797549256,-0.5059903731,4.3702458373,0.1769948962,1.3702696183,0.4990679858,0.4638842402,0.8673577869,0.1021686737,0.6559306983,0.2826306732,0.3597817287,0.1071839647,4.8182402045,0.9545635631,0.1067348873,-0.7158362667,0.455193018,-1.037495925,-0.2702046286,-0.5272211774,-1.8520806351,0.1644139953,-0.3681025659,-0.019664644,0.1056423647,0.3514361931,0.6303788338,6.1733092581,-0.4870979839,0.737981267,0.2945275913,-0.8588099979,-0.7510802807,-1.8149558207,0.2422443657,2.7547601669,-0.0533683108,-0.0503765736,0.867355075,0.1040785395,-0.1056697305,-0.4200633402,0.8231938627,0.125506032,-0.1592586469,-0.9527238605,0.6392006676,-0.0638786579,-0.1510965513,-0.2791273588,0.6105945363,-0.0385125539,-0.2163409913,0.7559697414,0.7771865477,-1.5022608125,-0.4109561755,-0.057178649,1.0406593525,-0.1017875786,1.137561338,-5.6728671993,-0.228567453,-0.2410009231,-5.12196242,-0.2003849727,10.520145638,-0.1050390322,-0.1393592661,-0.6639508638,3.8749902344,0.0426677493,-0.1510572508,-0.5776711359,1.1723383193,-0.0281541422,-0.1032357529,-0.5496807582,-0.8028205076,-0.1142234247,-0.0566387665,-0.4505487286,-15.6235379333,16.5784233958,0.5571480961,-4.6539340997,17.4684616192,37.4592841457,-2.9003430196,0.1559221757,-0.3933197478,-0.1029962475,0.0798370925,0.0968236167,-0.5137723851,-0.572947228,-0.0382499959,-0.5647321451,0.3248689522,-0.5006084016,0.0907514605,0.273029446,-0.3545084709,-0.9664669133,0.1233413818,-0.0992563105,-0.3050722258,-1.0199698598,-0.2541243512,-0.4177553372,-0.604119082,0.0429804679,-2.8222978116,-0.6500820422,0.2099957403,-2.8012168906,2.2470397328,-1.0979517848,-0.1555868268,-4.374021672,0.6658159953,0.4545625786,-1.6024941877,-0.0009048533,0.840541716,-0.9716303467,0.4545875291,0.1693134098,9.9235906032,0.3259745391,0.456351757,0.1531530983,-6.7461831573,-0.8154386933,0.6699925352,-0.3044780274,0.639035267,-0.0852998357,0.4355734112,0.2453138964,-0.922746703,0.4514938309,0.6783979177,1.5906932036,-0.6062598956,-0.4145120129,-0.6345829595,-0.8991174302,0.0710195124,-0.1945917431,0.1008020394,0.3120935966,-0.3609528265,0.6547623381,0.4146816681,0.5939290746,-0.2561894504,-3.1567759309,0.8805832607,0.2858456046,-0.5047147204,-1.3970331728,-0.0735453215,-0.672616604,-0.4354931991,-0.3187662129,0.7715695735,0.170287613,-0.1635318067,1.7461695716,-4.7866174629,-0.363108348,-0.0257616345,0.8674253007,7.286947629,-0.0726552622,-0.1657011174,-1.3180030947,-0.0355880316,-0.1865985585,-2.4563835056,-0.2521652592,1.8019812345,-0.1363511369,-0.2914989365,0.2895374904,0.4866654922,-0.267782002,-0.1243756107,0.1504793882,0.5681616464,0.0195377087,-0.2456440768,0.1084068613,0.5780987507,0.035808098,-0.0113861563,0.1005873617,-7.0288159734,8.5434221134,-0.2344733139,-0.1886725133,-2.4540626981,1.257127097,-6.9265378663,-0.4396586868,0.4077657192,0.1705791945,0.0579057968,-0.3513086769,0.135922667,5.0433988074,-0.1903448342,0.1484054775,0.8908776458,-7.722655766,0.4256690557,0.039760409,0.0994703156,-2.6394394015,0.0838118707,0.2464578031,0.1363023232,-3.2193611412,-0.117360602,0.0663486105,0.3188899203,9.3011993641,2.5559591,0.4616182252,-0.9365032949,-0.9749295232,-12.7831830528,-5.9056021209,-0.7528515319,-0.5385087581,0.8015039906,0.1685533489,-0.5261458721,0.1337660636,-0.5000584681,0.6598525025,0.0577529902,-0.3772138132,0.2175952496,0.756933914,-0.2131067959,-0.376718524,-0.2713290547,0.3752262894,-0.0510757534,-0.1362007066,1.0873910994,0.4069102211,-0.175660454,-0.2813770684,4.1391158304,0.9261251777,0.304575221,-1.9971153915,5.1761334696,-1.0016895938,0.8907598799,0.3594288745,4.4648994914,-0.8737054703,-0.1876443377,1.3617977542,-0.5375568531,-0.0212442431,0.0870600095,-0.4341754964,0.1690262653,-0.8642040081,0.4040802466,-0.4046009965,-0.2210083278,1.2903648523,-0.0486329525,-0.6476122665,-0.5058085479,4.5323283206,0.1385230208,-0.0505326146,-0.9857669523,-0.0777452527,-1.1025825984,-1.4756273968,17.8474182275,24.1872596649,0.0505210666,0.8532000722,-4.3544424427,-0.2733008419,-0.1239949177,-0.2957969776,-0.7524338644,0.0491806001,0.0726384067,0.4398634177,-0.1073873321,-0.3758348871,-0.0234362027,0.0842852945,0.3792217226,-0.2491988194,0.3113817853,0.0962251389,-0.3485604968,-0.0202949263,0.1966727475,0.6521152053,0.0624634738,-0.5271458807,-0.4592832879,-0.2285637817,-1.014767655,0.0066475103,-0.2457888623,-0.2325284704,-1.2608963449,0.587724846,1.1474501641,1.6300755456,-0.2914248427,-2.2938433933,-0.0594501799,-0.602116274,-1.1239540155,-0.1756146966,0.0760977538,-0.1323145285,-0.8248344734,0.039991833,0.1268152346,0.6983199972,-0.7772541035,-0.0058948937,0.1135655151,-0.2754449979,-0.8106496991,-0.0481252429,0.2003473736,-2.4489564486,-2.2638368144,0.3830356276,0.9718465765,-0.5354287218,-0.9154095675,1.7698527771,-0.6021676745,-2.5661724348,0.0761934677,0.2176401683,-1.8414911946,0.1261354758,3.678429521,0.4326387101,0.1916637106,-0.1078747838,1.8283228896,-0.0953001939,0.1317247628,-0.1630856813,0.0548323632,0.0474499389,0.1378292101,-0.2478285614,0.662970733,-0.0915489862,0.0615835882,-0.3206814982,3.7600414924,11.3774193944,0.4347077268,4.5054479701,-9.4276694128,-1.1247091694,-4.721709987,0.9278552338,1.5480693536,-0.6834337006,-0.4049127813,0.229096627,-0.2137545316,-0.2702943952,0.0862401122,-0.204246134,0.358004978,2.0139240567,-0.7163355381,0.3913743193,-0.0149448577,0.0450485446,0.9938977398,0.0636255572,-0.166489068,-0.5260659055,0.6883158353,-0.3459391492,-0.1618063991,-0.6659587322,2.0185389419,0.8370367452,1.2632213892,1.7944993543,1.6064335082,0.2077012117,0.0745811099,4.4933212977,0.2806419451,0.2418202662,3.2109778056,0.2566696004,-5.221227186,0.0402311826,0.1723384554,0.5651937165,-2.8215288062,0.0158503792,0.1568984673,0.3940018296,-0.6136446544,0.0099060587,0.1602902363,0.4113686893,0.5459536782,0.1750073492,0.0140599987,0.374666445,14.9617341622,-15.8845213712,0.349252385,2.5522317942,-7.1788165737,-23.0546018123,-3.8494532047,-0.7761406225,0.8269953983,0.6181956115,-0.1406854738,1.2129868432,-0.0691125778,-2.307254005,-0.1766872584,-0.1058158003,-0.5747565725,1.9029076208,0.4680567222,-0.1672056168,-0.4003530562,1.037839356,0.100870567,-0.2554651082,-0.2418732926,-0.2014357199,0.1225921269,-0.3523278399,-0.3852276653,3.1023824557,0.9322437744,1.1376135796,1.0611124197,0.5155418363,6.1567709054,0.1401104154,1.2789274242,0.3213168854,0.3122368072,0.0240548436,1.1742786742,-0.0938336462,-6.5776173613,0.276893238,0.0023484849,35.2017530227,2.0127924094,0.1056927285,0.0313951175,-0.0527041842,-1.1315683311,-0.2041948422,0.1718656187,0.1274200893,-0.4096057048,-0.2569268894,0.2037740176,36.1475255382,3.5327909826,-7.7131607862,0.31801396,-1.7868597904,5.8746105487,-9.4404305482,11.6008747544,2.1162464185,1.3041899385,-0.2694260244,-0.093836779,1.7609920886,0.4514539031,-0.4175394124,0.2920387633,0.5104191811,-0.3393903503,-0.1408089163,0.4424369906,-0.2537364414,0.1188411123,0.1860066832,-0.0544396808,0.0995726755,0.1067681316,0.8356106931,0.6151394897,0.3980201935,0.3676835249,1.4650968866,-0.2715451873,1.2056305932,2.1173787609,7.3800627533,0.0047265372,0.7927218413,-0.5367145165,1.452904859,0.7203568079,0.1516221129,1.7111234215,0.238048534,-0.1139344175,-0.765007813,-0.2275801477,-0.4100137771,-1.7714305274,0.2278365453,0.2660581807,-0.3059067313,-0.0801085967,-0.4073582537,-0.3687603353,0.2713801883,-0.2395688569,0.5356313597,-0.7575045213,0.0327302863,-0.4543288931,-0.0174729594,-1.5794840299,-0.0845851231,0.6100762272,0.4697404067,3.1596136152,-0.6667681,-1.7726493883,-0.0031985144,-0.1859974204,-0.1736537235,-0.1404136879,1.8122853272,-0.1101548357,-0.1118143948,-0.1758578345,-0.8321127966,-0.1321515034,-0.1616504438,-0.2001534869,-0.2007031927,-0.0623582832,-0.0587742854,-0.2694482809,-0.18824442,-0.2097752853,-0.0602208881,-0.3400202559,-43.3816301968,105.0694821011,1.7471210758,-5.1418931242,-7.5944064307,18.3521434195,-0.3239104706,-1.9723349547,0.2954881916,-1.037414438,-0.0517483899,-0.1447979477,0.0483384615,-0.0509982207,0.4600257438,-0.1781127438,-1.0511736407,-1.5772357934,-0.9539297572,-0.2459771748,0.2837182096,-1.1058056573,0.5244011976,-0.1794460535,0.0114081439,-0.1939155159,0.469587897,0.1385605086,-0.2294604276,0.5603072003,0.3557062334,-1.3870581764,0.5728834996,1.1889758964,-3.3224265028,0.9829265311,-0.7647416922,-0.380144135,-0.1027230088,-0.1187732087,0.5672557284,-0.1364806993,0.1996103548,0.0535069617,-0.1046071242,-0.6535648832,-0.9875737373,-0.1073972822,-0.0615989691,-0.5958155996,-0.4572363742,0.0448111938,-0.0699579432,-0.5630071969,-0.7717389451,-0.1118990414,-0.0637558008,-0.5255569012,7.0392648347,-3.0809798217,-1.4378220681,-2.4720306008,45.9408634131,-3.8874716062,1.293008205,-0.5760386516
biasActivation=0,1,1
[BASIC:ACTIVATION]
"org.encog.engine.network.activation.ActivationTANH"
"org.encog.engine.network.activation.ActivationTANH"
"org.encog.engine.network.activation.ActivationLinear"
