encog,BasicNetwork,java,3.3.0,1,1469384271217
[BASIC]
[BASIC:PARAMS]
[BASIC:NETWORK]
beginTraining=0
connectionLimit=0
contextTargetOffset=0,0,0
contextTargetSize=0,0,0
endTraining=2
hasContext=f
inputCount=28
layerCounts=2,46,29
layerFeedCounts=2,45,28
layerContextCount=0,0,0
layerIndex=0,2,48
output=0,0,0,0,0,0,0,0,0,0,0,0,0,0,0,0,0,0,0,0,0,0,0,0,0,0,0,0,0,0,0,0,0,0,0,0,0,0,0,0,0,0,0,0,0,0,0,1,0,0,0,0,0,0,0,0,0,0,0,0,0,0,0,0,0,0,0,0,0,0,0,0,0,0,0,0,1
outputCount=2
weightIndex=0,92,1397
weights=-0.8906695432,0.1731975357,0.224646956,-0.1353749148,0.1450071037,-0.1154023418,-0.5694119722,-0.0879861426,-0.1605834264,0.7575252929,-0.5085456904,-0.4277005727,0.5295881058,0.1109727749,-0.3735507562,-0.5876852849,0.4460224089,0.1863994196,0.3118474134,0.2501997711,0.7447440559,0.8478896703,-0.1062555248,0.1012763328,0.7170719386,-0.7592275771,0.7595203462,0.0885106609,-0.1559746847,0.3858807163,0.5856030948,-0.0463836666,-0.1080734507,0.1761747723,0.302634615,-0.5154907193,0.2698137511,-0.4483308652,0.2188240927,-1.0994049767,0.7489329041,-0.2734814428,-0.4011512493,-0.6229256489,-0.69383123,0.0886369317,1.067517389,-0.2987713846,-0.2081023847,0.1407375374,-0.0597109963,0.0993642014,0.1483444773,0.9839309478,-0.0559737006,-0.6608871539,0.5768773936,-0.5770052323,-0.8829798009,-0.1176035547,0.5032278787,0.5531550468,-0.3940003544,-0.5448977874,1.1658238613,-0.5835555506,-0.6237627938,0.7565558444,0.1006985273,-0.1479620119,0.1320744904,0.1477971629,-0.1680050325,-0.0780451616,0.081354588,0.9439230955,-0.3255887269,-0.5600666187,0.1291413925,-0.1603061142,1.0234855105,-0.2806106228,-0.2113191355,-0.4772980482,0.5361942349,0.0611453507,0.0591596335,0.3144780278,0.3061916599,0.3535838726,0.5756729498,0.8085095191,2.547333578,0.1724104141,0.096828269,2.7277409401,0.099929605,-3.7013269404,0.1304906305,0.0978663927,0.2801851961,-2.0130209043,-0.1816696805,0.1434393391,0.3398637798,-0.6847988535,0.0110985222,0.0578502073,0.3502761198,0.5164405302,0.0406189615,0.0518274223,0.3266472679,-3.4353154917,-7.2726862309,-0.4936349273,3.9381644875,12.7080804747,-33.8868599423,-4.1858433882,0.2303832272,18.971925768,-0.1300192081,-0.0858685698,-5.0443555556,0.0897070042,1.5919591497,0.1720526143,-0.0128096852,0.1777049241,0.9046921686,0.3868419589,-0.0114311485,-0.0673283298,0.4732475248,0.1642429881,0.0294355138,0.0351682404,0.7386213535,0.0121671248,-0.001087234,0.1453510407,-0.8010061796,-3.6963557911,6.1451966786,0.331424742,-4.8357568621,0.1931565411,3.4536389568,-0.4875143669,-2.312893852,0.0674554374,0.1331776692,-1.2295660365,0.0196385201,5.5647730662,0.5908718972,-0.119923358,-0.6186168977,0.6429113024,-0.2811349926,-0.0832218819,-0.1979506724,0.4239995149,-0.1717953093,-0.1581884536,-0.1566854718,1.407511894,-0.2000012876,0.1570746612,-0.163819826,-2.9029033299,0.9002811167,0.3481396052,1.0817769069,-0.6777082767,-3.8540656657,-1.6488191499,-0.1232245151,0.7936351235,-0.5216978558,0.2238941823,-0.8819465727,-0.2171787273,-0.4773076023,0.3007285766,-0.3786880336,0.8442630093,-1.5293800595,-0.7486734934,0.093248615,-0.1126077287,-0.8474733568,-0.0440060921,0.0792403756,0.5497143661,-0.3251746937,0.2394014774,-0.1539520834,0.6363267647,-0.1417341065,-0.3514462811,-0.2817384455,0.6412929888,0.0336055933,-0.3851336504,1.9842179787,-0.3347423376,-0.5631764902,-0.3754014198,0.4580515295,-1.0852843206,0.9518266949,-0.4744085235,0.8289666694,0.2576206381,-0.2478495856,0.3264486208,-0.5883635358,-0.3533106353,0.2054625756,0.0246313955,0.8154796672,0.4960212358,-0.1723647156,0.539600246,0.0244091951,-0.3541776259,-0.232821531,0.5216606298,2.4273444702,-0.3852621841,0.5507262865,0.3777776424,0.2657083947,0.0680118923,-0.5797937054,-3.7439147545,-0.7518807861,0.6779413294,-0.5642980922,0.3456695927,-3.4209784287,0.5525898484,0.3002493301,0.0420501592,1.8371183547,0.4456707758,-0.3695296248,0.3496531341,-0.2302918855,-0.1054023705,0.7598603505,-0.2421128871,0.4147212435,-0.4651585578,1.1534757182,-0.1280176997,-3.8569557233,-1.7803039483,0.126098414,4.4553646567,2.4175089815,1.0083864449,-0.5797245854,0.0650063864,1.8031937774,-0.4068962582,0.2945909236,0.7917258441,0.3019582271,-1.2172968387,0.6112258154,0.2162575248,-0.0077008092,-1.4580769862,-0.7707534966,0.278047688,0.1280893664,-1.5023523849,0.3206844407,0.1879046923,-0.1736151719,-0.6527329802,0.4097358141,-0.0033686425,-0.3496488753,0.7731907772,1.3787549946,-0.1360371048,-2.8217238438,0.6330408739,-0.2713451987,4.9323692355,0.0639197165,0.2224833507,-0.3730412838,-0.4678952585,3.1209359957,-0.1776411029,0.5519940223,-0.0095763596,-0.3191512474,-0.179888733,0.2770721101,0.7584365265,-0.2755009045,-0.1391300393,-0.8211603498,0.3008595775,-0.0690665707,0.0624445495,-1.0786131066,-0.5876672448,0.1237325827,0.1901249031,-2.0780403171,0.8149146652,-3.3242912697,1.6282768256,1.0136275721,-2.933726084,1.4741051293,-0.8409952002,-0.1771837278,-0.4041825663,-0.560046998,5.2991722048,-0.0815369821,0.2933973857,-0.4248221821,-0.6511873947,0.035252973,1.039491883,0.4430252852,-0.3939970876,0.1730047978,-0.4664822235,0.4242258661,0.1788398751,0.3010054656,-0.4128915438,-0.6418470157,-0.0966231362,0.2628693988,0.0823661908,-2.6007994237,-3.5283461997,0.1971025657,0.5471391534,0.042235945,-0.5699950796,0.2867585001,-1.5179266032,-0.1001666574,-0.0709127645,-0.3338924565,-0.1144540853,-0.6084084534,0.0209456149,-0.0933495705,-0.498908868,-1.4248740898,-0.1087626877,-0.0419685131,-0.4285225628,-1.0698702859,0.0526672763,-0.0901248331,-0.3638222124,-1.5249976067,-0.0576680265,-0.0691034103,-0.2544667337,6.00470761,-2.7431237681,0.7649589382,-4.8704620168,69.3274880497,-3.9797284003,0.2349633464,-1.170060842,1.0351089292,-0.0682187691,0.0146461915,0.2122461919,0.044262729,-0.5435656829,0.4092900217,0.3485171114,-0.0059499705,1.6428262669,-0.1177702418,0.2069002512,0.0201491472,0.5011360531,0.1608262212,0.1241085898,-0.1899623363,0.8812426257,0.1237375038,0.0827180292,-0.1929041961,0.750575548,2.4914759626,-0.6550743733,2.0763051989,3.3463678023,0.6534760739,-8.3006319376,0.3690106163,0.386597985,0.2231907369,-0.2573237229,0.0934931424,-0.1446266721,-2.3171568393,-0.5126367858,-0.1161227319,-0.0148925775,0.5400725413,0.1021314197,-0.0552968571,0.1474499285,0.2768955251,-0.1763759913,-0.1421056174,0.2477914216,-0.3222303873,-0.5995327834,0.0297673459,0.5400525233,-4.5577264545,-6.1852934104,-0.4616949266,2.5935919775,1.4797941176,-1.6279909552,-0.4501415086,-0.620683725,-1.3324277177,-0.1450026176,0.0821784952,-0.2282776001,-0.0138300551,0.6650124365,0.3049977286,0.3735942715,-0.2747055177,0.3315003919,0.2109657197,0.2176849706,-0.1331612903,0.1163044264,-0.0002022852,0.1300762527,-0.2532312077,0.1296648261,-0.1774167365,0.1583766251,-0.3085550149,3.1071908086,13.1316503315,-0.8132330196,9.4414205861,-11.9057866238,0.1340741605,-4.0618817522,0.2797643513,-0.5968850563,-0.2254552818,0.6388623838,-0.9832980739,-0.3014517126,1.6778472453,-0.8004803591,0.7446152502,0.0125815463,1.091360885,0.0593295101,0.269724355,0.0759588662,0.6166285349,-0.0401557585,-0.4009299586,0.2591066123,2.3459260573,0.0562067115,-0.3118007732,-0.0378587811,-6.2139265733,-4.8437546977,-0.7539324419,0.502120932,0.6796062701,-2.2675345296,-0.052927065,0.1051732373,-0.8558592676,0.6331218716,0.5488855792,-0.876204769,0.5270275061,1.0566684273,-0.141332186,0.2202475211,-0.3315851652,-0.1146062871,0.3763057446,0.3279666289,-0.3463138845,0.0828331081,-0.5864229673,0.1021338549,-0.0656560556,-0.2471739639,0.3056817732,-0.3365347923,-0.0581124644,0.155700779,0.3044155576,0.316072059,0.7501205912,-0.8000627825,-0.2652417794,9.2437267561,-0.5401433877,-2.478800511,-0.0683548287,-0.2915356026,-2.866312882,-0.229797986,5.6115803499,-0.0387976572,-0.142257706,-0.0317645069,0.0283789184,-0.185252962,-0.1802656081,-0.1245564149,-0.5308742298,-0.0348833391,-0.0993664977,-0.1962060521,-1.1328713318,-0.0922766323,-0.0065935477,-0.2313305208,4.8900272149,1.0097103533,-0.3594003813,5.0892308458,-1.9340793228,-15.6394179,29.0784051112,-0.0939764292,-0.4309061474,0.5653139202,-0.2168477734,2.072348088,0.0588674075,0.1528000371,-0.1852061911,-0.2491031743,-0.1239325595,-0.2464481379,-0.7028173376,-0.246724607,-0.2214213216,-0.5528797656,-0.538781209,-0.0057202622,-0.2907732069,-0.3095620644,-0.3122385916,-0.0149989211,-0.3366814862,3.0732092578,31.9118598161,-1.6451016122,5.7015016741,-0.2179676881,-0.4435722393,-0.4034345001,-0.1106895416,-5.9456425207,0.1132258898,-0.0713998052,-3.4787746229,0.1325821333,-0.6963857992,-0.2097328392,-0.0936993352,-34.9730361326,-3.0081619179,-0.0203599152,0.0244176405,0.1015283709,-1.2074956558,-0.006345152,-0.0756077807,0.1825428469,1.1235140567,0.299724189,-0.0574555365,-36.8646705902,0.8300014009,-27.6661931206,11.332008152,-48.9486823461,4.0846303095,-1.8635558866,8.5392188046,0.3803386949,-0.7076923876,0.0095746573,0.2343558861,0.4656713508,0.0473740605,0.9385693486,0.7571635561,0.1711351873,-0.1260227223,0.6168763561,0.5546163542,-0.0844803216,-0.1624667604,-0.6127545739,0.3705712652,0.0359438163,-0.0905194078,0.4666892053,0.1810037094,0.0985059698,-0.0472596139,4.0099686024,3.6186413103,0.1981931368,-0.0016548826,-0.6843133625,-0.8447334059,-2.5370855194,0.4953022599,2.1589951843,0.2804985712,-0.0103774845,0.1887377771,-0.0332671192,-0.5927539358,-0.3278205831,-0.5296508945,0.3226398517,-0.327649636,-0.3219476727,-0.1470407943,0.2017532814,-0.1610993545,0.0850925194,-0.2543189608,0.3893777451,0.2292086019,0.5426194918,-0.3171198915,0.3946834906,-7.2448523368,-3.0757791341,-1.0017913622,-5.5675566896,16.1294011494,-1.6002595662,-2.1262900464,-0.5391920711,2.4620835425,0.1350944586,-0.0271213455,0.2452892542,-0.0563733579,4.0983572858,0.1529507247,-0.0114357267,-0.7595043133,6.0579371196,-0.4869032387,0.0305408609,-0.1739632297,1.7441461936,-0.245130855,-0.1268770174,-0.1140073146,1.8069453809,-0.0278698733,-0.0273087548,-0.1727109316,-11.7967830764,-7.1133300816,-0.348729341,-4.6654184464,1.0090047176,6.7280392702,16.7549018418,0.0348051798,0.5508741281,-0.0340161499,0.2759038349,-0.2118189198,0.1808373662,-0.5494857713,0.2303438953,0.2297354331,-0.0881410265,0.780633885,-0.4994643849,0.301219472,0.137586198,-0.1709454852,0.0394791229,0.1493962321,-0.041049668,0.6580002475,0.1347226729,0.0478234049,-0.1474278218,1.9494595334,3.1500521274,0.7449526346,1.3896118032,-1.9419011707,0.6212308962,0.608815632,0.4418036426,8.8814458456,0.3020011239,-0.2678033842,6.5611052045,-0.2082386626,-13.9551165154,-0.0551999692,-0.0719264244,-0.1809797497,29.8053697726,-0.3795504248,-0.1554216139,0.6418537515,-6.1207461038,-0.0417641147,-0.2192482753,-0.2790099841,-4.9666090768,-0.1844553672,0.0270880988,-0.2875122301,3.1883602397,7.6143112669,-5.8681980282,3.7170551428,-8.688015331,-0.5059628603,4.3704565443,0.1765470297,1.3703009847,0.4987846873,0.4629638696,0.8683855769,0.0982779681,0.6559495373,0.2805905754,0.3545541377,0.1051701735,4.8184396053,0.954378388,0.1054565877,-0.7151898805,0.7769050106,-1.0401836742,-0.2700761527,-0.5269203615,-1.8543592948,0.164207677,-0.3676021172,-0.0196990922,0.1179797598,0.3513916987,0.6074658195,6.1814292747,-0.4872268062,0.7380373095,0.2945740592,-0.8591537703,-0.7631454602,-1.8414435835,0.2426997905,2.7500546828,-0.0334183871,-0.0529534723,0.867643229,0.1061801848,-0.1023109974,-0.4310985202,0.8261765008,0.112164645,-0.158280477,-0.9518200758,0.6399399121,-0.0506221465,-0.1487000744,-0.2886745825,0.621937475,-0.0165200239,-0.2116035709,0.8110841836,0.7771730827,-1.5025418151,-0.4112729978,-0.0574033902,1.040064848,-0.1024302934,1.137503706,-5.6728655957,-0.2062180135,-0.2406783856,-5.1210103873,-0.2003906519,10.5921249912,-0.096251119,-0.1480297038,-0.6639356994,3.6898492478,0.0268512826,-0.1586713765,-0.577817769,1.1723215006,-0.0224320103,-0.1026750943,-0.5588659441,-0.8026448995,-0.123362344,-0.0575284311,-0.4582968038,-15.1752357267,16.5783856044,0.5571964506,-4.6540475632,17.46839077,37.4630306069,-2.9003131513,0.1554541413,-0.3934190502,-0.1028275111,0.0771858259,0.1049294965,-0.4779035812,-0.5736593869,-0.0383247651,-0.5642876598,0.3249173127,-0.5010585036,0.0179997579,0.2226774936,-0.3549157344,-0.9664895973,0.1227027316,-0.0994164619,-0.3072915089,-1.0203667879,-0.2533952374,-0.4177366004,-0.6047318824,0.0771025053,-2.8224788185,-0.6501265945,0.443428678,-2.8009325333,2.2578264686,-1.0978477302,-0.1544349096,-4.6200986687,0.6657285381,0.4546062658,-2.3677593789,0.094043082,0.8454452789,-0.9707423749,0.4542875068,0.1692178046,12.1188773848,0.7117529472,0.4560447875,0.2204705755,-8.3198047578,-0.8126014066,0.6663208638,-0.3042125114,0.6387231229,-0.0851389199,0.4354092562,0.1327946884,-0.9227109096,-0.7447356626,0.6805503543,1.5881253572,-0.6025072699,-0.4145969795,-0.6359582479,-0.8989110726,0.0710621852,-0.1580948049,0.1006191435,0.3120928945,-0.2848539233,0.6549199904,0.4144369758,0.5902302486,-0.2559818862,-3.1573527553,0.8803356745,0.2834758376,-0.5509640369,-1.6371100213,-0.0736138213,-0.6693105903,-0.4347529512,-0.4697970999,0.771044814,0.1699140857,-0.1614176024,1.746049362,-4.7868995903,-0.3629969751,-0.0256882285,0.867342338,7.3403774914,-0.0725418301,-0.1655491631,-1.3186803721,-0.0357644563,-0.185601841,-2.4393124702,-0.2420613167,1.8013733942,-0.1365232212,-0.2852318942,0.2887811707,0.4612637559,-0.2188623946,-0.1233628202,0.1346211154,0.5252420393,0.0259626456,-0.2177408743,0.0988514816,0.5777829122,0.0319189698,-0.0122520435,0.0996803908,-7.0292361281,8.543534398,-0.2337716364,0.0386940928,-2.4483752559,1.2570628249,-6.9271858758,-0.4394858867,0.4058535556,0.1631233426,0.0597569585,-0.3518730952,0.1344118818,5.0415721277,-0.1895971338,0.1482777205,0.8909389321,-7.7226641459,0.4256090817,0.040337578,0.109268573,-2.6394072301,0.0838788913,0.2362930458,0.1361962965,-3.2193339828,-0.1172952907,0.0995159136,0.3184885537,9.3013031805,2.5561234823,0.4618198118,-0.9366230813,-0.9746997254,-12.8379434664,-5.9122850507,-0.7510972132,-0.5385684604,0.8004526452,0.1687011094,-0.5265516084,0.1333698225,-0.3104039378,0.660328222,0.0580972481,-0.3770955871,0.2175970907,0.7578010718,-0.1829150623,-0.3643689037,-0.2723045182,0.3754526468,-0.0525864089,-0.1363941263,1.0875681306,0.4057588449,-0.1746472336,-0.2810178467,4.1392750617,0.9263180683,0.3042133596,-2.39403015,5.1763545223,-1.0018163993,0.8907323439,0.3594009753,4.7947781326,-0.8193180271,-0.1881571336,1.6759669955,-0.4573567606,-0.0220748743,0.0880688183,-0.4343066438,0.2086594689,-0.8445827809,0.3142040528,-0.3417891888,-0.1041588878,1.2647093391,0.0654147887,-0.5578700673,-0.4159774842,4.5333492146,0.1384607162,-0.0507373487,-0.9837249833,1.8222309675,-2.677881741,-1.4191663348,18.8182429254,25.5095092375,0.0507768414,0.8481504557,-4.9764510107,-0.2733181368,-0.1240627083,-0.2957791741,-0.7518345829,0.0492897067,0.0727448601,0.4400084059,-0.1074610328,-0.3759913447,-0.02353344,0.0840724735,0.379083115,-0.2489426988,0.3479241109,0.0961053189,-0.3481007196,-0.0201923914,0.1969766716,0.6520382938,0.0621866647,-0.5267840325,-0.4572396052,-0.2286553453,-1.0146647233,0.0067555964,-0.2455473844,-0.232392354,-1.2608936613,0.5878175005,1.1551941954,1.6324332239,-0.2742238259,-2.2523432839,-0.0555249431,-0.6023079614,-1.1214789587,-0.1673758027,0.0693972634,-0.1322407938,-0.8637797759,0.0362867725,0.1199614413,0.69992629,-0.7769883249,-0.0062113379,0.1115953246,-0.274890582,-0.8104215797,-0.0492190312,0.200073476,-2.4484865955,-2.5677175938,0.385793425,0.9721597028,-0.1275137007,-0.9158451285,1.7999183594,-0.6037834206,-2.5662020003,0.075904184,0.217344745,-1.9413110626,0.125915567,3.7051540688,0.4322566512,0.1918528042,-0.1131709533,1.82806132,-0.0953029094,0.1284722699,-0.1631947451,0.0571382383,0.0391477505,0.1286735082,-0.2478243253,0.6628860772,-0.0912297362,0.0615686772,-0.3211385588,3.7777636256,11.6860967277,0.4505002845,4.5070050919,-9.5006306548,-1.1254873232,-4.7294631383,0.92811316,1.548422329,-0.6850562803,-0.4048486764,0.2289106169,-0.2137721134,-0.2715408048,0.0853617338,-0.2042566078,0.356537933,2.0144451268,-0.7179250813,0.2860276345,-0.0160864396,0.0450095671,0.9938908024,0.062542324,-0.1670986442,-0.5269886498,0.6860134582,-0.3452825891,-0.1410985678,-0.6657828497,2.0185621179,0.8369358191,1.2623872102,1.7932992503,1.6063564502,0.2077523857,0.0739408023,4.4926770003,0.2802925293,0.2287527192,3.2737976202,0.2563098651,-5.2337988162,0.0398877156,0.1721318325,0.5603937585,-2.8215625328,0.0157503931,0.1574937298,0.3927238694,-0.6134075008,0.0098529102,0.1569211018,0.4161808046,0.5476580572,0.1748095415,0.014076913,0.3751058558,14.9607925256,-15.9104424275,0.3478226138,2.6088444289,-6.9976830159,-23.0576756618,-3.8524524349,-0.7751659508,0.8268105439,0.6207658032,-0.1355405691,1.2122948525,-0.0694349862,-2.3079003913,-0.1773991775,-0.1068865778,-0.5951179165,1.906678642,0.4666983723,-0.1667156264,-0.4043774713,0.7654390542,0.0997922509,-0.2550187824,-0.2550104055,-0.2014444176,0.0852919356,-0.3571619329,-0.398938412,3.1225414408,0.9322661896,1.1345803966,1.4857654904,0.5319310154,6.5323664979,0.1442057866,1.2782071481,0.321505534,0.3127886399,-0.0389526742,1.2135262343,-0.0934883992,-6.577120222,0.3315454699,0.0021580237,35.2017530227,2.0016058727,0.1067468817,0.0793199898,-0.1193088856,-1.1335083261,-0.2044830998,0.1721318069,0.1222452641,-0.4095472762,-0.2446043315,0.192528041,36.1475255382,3.5397465335,-7.7118482042,0.3177662216,-1.7902910604,5.8741564905,-9.3976717389,11.5748333067,2.1420391279,1.3043197397,-0.230987202,-0.0871749619,1.7609537161,0.4257407886,-0.4515406701,0.2912171171,0.5104034745,-0.3439712076,-0.171416127,0.4421844621,-0.2162236303,0.114025396,-0.1064721116,-0.0544624076,0.0997163054,0.1080922021,0.7674271857,0.6059085289,0.394216276,0.3491835186,2.1040620328,-0.3521623212,1.2055780031,2.1041614522,7.3801822401,-0.0006138363,0.7928088471,-0.5364138532,1.4450900155,0.7193103618,0.152128505,1.7111266458,0.2380521255,-0.1125758799,-0.7650913953,-0.2270375399,-0.4107472651,-1.7680754914,0.2279750744,0.2583599902,-0.2954228339,-0.1613472821,-0.4128121374,-0.3683563597,0.2443965056,-0.2395611556,0.5354741116,-0.7416980986,0.0479187208,-0.5139511332,-0.0089418641,-1.5795963197,-0.0853549974,0.6097929761,0.4656821988,3.1607591765,-0.6669973968,-1.6720280889,-0.0028136597,-0.1855884339,-0.1738995539,-0.1403070281,1.8088408752,-0.1098633723,-0.1137719881,-0.1647920575,-0.8353721704,-0.1320992392,-0.162445263,-0.1929908414,-0.2052381938,-0.0646925191,-0.0678144196,-0.2612004028,-0.1769510676,-0.1972208922,-0.060325667,-0.3311077717,-43.3825146901,105.0708017025,1.7472062676,-4.888720532,-7.4549134769,18.3084616284,-0.3239296282,-2.0284306303,0.2986930006,-1.1252756123,-0.0514664968,-0.4285918214,0.0180231505,0.029150362,0.4696909639,-0.1776426396,-1.0762556318,-1.1761530441,-0.9549352141,-0.2461338741,0.2828670959,-1.1053803245,0.5241958539,-0.147830835,0.0117862922,-0.1943909274,0.4776273463,0.1420721372,-0.2448989804,0.5604710962,0.35668211,-1.3866485334,0.5734141872,1.1889763126,-3.3218219718,0.9827948824,-0.7646876861,-0.3802034167,-0.1029543087,-0.1168310341,0.5671651718,-0.1361929397,0.1997578679,0.0528603223,-0.1081242851,-0.6381413081,-0.9837326276,-0.1075544447,-0.0616596362,-0.5781886501,-0.4578887356,0.0441936892,-0.0700280114,-0.5526995846,-0.7720812648,-0.1027678602,-0.0640394317,-0.5187527308,7.1769465931,-3.0809433083,-1.1790936996,-2.471823159,46.132172315,-3.8878779295,1.2928823539,-0.6632411439
biasActivation=0,1,1
[BASIC:ACTIVATION]
"org.encog.engine.network.activation.ActivationTANH"
"org.encog.engine.network.activation.ActivationTANH"
"org.encog.engine.network.activation.ActivationLinear"
