encog,BasicNetwork,java,3.3.0,1,1469384703293
[BASIC]
[BASIC:PARAMS]
[BASIC:NETWORK]
beginTraining=0
connectionLimit=0
contextTargetOffset=0,0,0
contextTargetSize=0,0,0
endTraining=2
hasContext=f
inputCount=28
layerCounts=2,46,29
layerFeedCounts=2,45,28
layerContextCount=0,0,0
layerIndex=0,2,48
output=0,0,0,0,0,0,0,0,0,0,0,0,0,0,0,0,0,0,0,0,0,0,0,0,0,0,0,0,0,0,0,0,0,0,0,0,0,0,0,0,0,0,0,0,0,0,0,1,0,0,0,0,0,0,0,0,0,0,0,0,0,0,0,0,0,0,0,0,0,0,0,0,0,0,0,0,1
outputCount=2
weightIndex=0,92,1397
weights=-0.8837058514,0.1752034861,0.2270555373,-0.1347364164,0.1435006492,-0.1326954105,-0.5684474297,-0.0885114869,-0.1775208074,0.7641838646,-0.5064419741,-0.427976914,0.5296593001,0.1120867956,-0.3734689717,-0.5952698263,0.4582270107,0.1883277035,0.3119875981,0.250602875,0.7451280414,0.8482503979,-0.1065661363,0.1115255263,0.7175784805,-0.7596003212,0.7591461406,0.0919735023,-0.1553528134,0.3854326453,0.5852951587,-0.0457024982,-0.1138434465,0.1685342985,0.3021380068,-0.5160368682,0.2700397935,-0.4480659201,0.2188466099,-1.0990256913,0.7492152514,-0.2723860048,-0.4051518613,-0.6230241789,-0.7033721904,0.0889978942,1.0676081323,-0.2973492575,-0.2087890409,0.1358452329,-0.0612434329,0.1131973753,0.1485178991,0.9838470049,-0.0557599229,-0.6711498823,0.5652947599,-0.5770640667,-0.8789148631,-0.1170882027,0.5026116478,0.5663988131,-0.4145688002,-0.5443591346,1.1658237892,-0.5827819166,-0.6237742442,0.7565847749,0.0995091492,-0.1538988256,0.1320056736,0.1504970737,-0.1684567144,-0.086393443,0.0882288642,0.9439651901,-0.3260466705,-0.5600942895,0.1429120597,-0.1586565482,1.0235119973,-0.2801736266,-0.2139743318,-0.4781071527,0.5363679684,0.0611958689,0.0590706583,0.3146416172,0.3064476665,0.3539464074,0.592673506,0.8085000193,2.5685082512,0.1511665094,0.0972483284,2.729923485,0.1003567347,-3.6687529149,0.1301267755,0.0978927145,0.2744432568,-2.0131157854,-0.1801506766,0.1376602668,0.3364562649,-0.6844845673,0.0114032636,0.0584361499,0.3462693394,0.5166871073,0.0406448272,0.0552777065,0.3267134914,-3.4349933146,-7.2721613871,-0.4931791976,3.9377648992,12.7087485756,-33.8872105325,-4.611235726,0.2777923745,18.9703297162,-0.1317758909,-0.085259675,-5.0449231092,0.0795476435,1.5907667341,0.1584877366,-0.0103403797,0.181337642,0.9011745859,0.3801715442,-0.0120266523,-0.0584027534,0.4733622383,0.1586504745,0.0280328047,0.0342124423,0.6770822781,0.0168931849,-0.0070157535,0.1450870774,-0.8011575134,-3.6965161722,6.145543433,-0.32015917,-4.8363443604,0.1970055521,4.0282113763,-0.487520832,-2.3900674308,0.0667342039,0.1330010974,-1.2866687737,0.0129936975,5.5649153706,0.5914583476,-0.1200928566,-0.6188442541,0.6429073173,-0.3912886823,-0.0704403451,-0.1821890783,0.4252391874,-0.171900973,-0.1572724212,-0.1382420916,1.4082531232,-0.1993554556,0.1567045779,-0.1596238463,-3.2529458286,1.7911635883,0.3488482886,1.0819874574,-0.6773677985,-3.8555562398,-1.6502082489,-0.1234606302,0.7718724825,-0.5219873462,0.223736136,-0.8823448487,-0.2175369258,-0.47748593,0.3030062363,-0.3735008306,0.8440286331,-1.5295780754,-0.7482369531,0.0933742048,-0.1116870265,-0.8478372749,-0.0315051475,0.0740269225,0.5031161639,-0.3255059142,0.2961746566,-0.1536364038,0.6356145642,-0.1436450957,-0.3509618324,-0.2816088336,0.6406322454,0.0315523649,-0.3852267515,1.9841857538,-0.3350617693,-0.56255136,-0.3754287511,0.4579648473,-1.0843545971,0.9517210604,-0.4741191696,0.8292016461,0.2574828694,-0.2477909698,0.3269188245,-0.5888649771,-0.3488184881,0.2046470413,0.0269522284,0.8152149233,0.4958438773,-0.1725515689,0.5438856468,0.0247868978,-0.353845611,-0.2322429532,0.5219999425,2.4273918034,-0.3849411045,0.5519899163,0.436920448,0.2857537351,0.0694481186,-0.5795454638,-4.6492928377,-0.7348493184,0.6535712741,-0.9825262459,0.3751648162,-4.0405845864,0.5522135423,0.3573864511,0.0421859831,1.8728330249,0.4453835973,-0.0670280659,0.3394288885,-0.1519127815,0.2088405861,0.7761934311,-0.1501584723,0.4164004451,-0.4648019304,1.1529600489,-0.064257402,-4.8281463941,-5.2251328432,0.1265624793,5.7190179625,4.5114310461,1.0090759507,-0.5810275288,0.0648570728,1.8115555074,-0.4072233019,0.2939989737,0.7001345192,0.301491936,-1.2177611681,0.6114716577,0.2152595015,-0.0074284322,-1.6859571814,-0.7697924082,0.2333027617,0.1282523055,-1.5019372807,0.320360784,0.1872946655,-0.1744457131,-0.6530748823,0.3950289701,0.0031166122,-0.3490770409,0.801753915,1.3824076016,-0.1552460092,-2.8236123183,0.6325568538,-0.2715283696,4.9321946844,0.0639848367,0.2225456745,-0.3671553013,-0.4659035754,3.1209833633,-0.1777488598,0.5520502926,-0.0132876329,-0.319340591,-0.1797961742,0.2920182281,0.7578828508,-0.2757696308,-0.1269855546,-0.8211653786,0.2836038912,-0.0706247429,0.0615052012,-1.0788652694,-0.5868688111,0.1232436264,0.1899462899,-2.0779146409,0.8148396236,-3.3261237951,1.6283758206,1.0136310528,-2.9341827261,1.4734224838,-0.8415565596,-0.3780930117,-0.4037995389,-0.5129325504,5.3962618794,-0.1207850952,0.5978984216,-0.4245560178,-0.6002450544,-0.0001522976,1.0416341346,0.443222665,-0.3934970515,0.1378299841,-0.2132007081,0.4082260414,0.1055276845,0.2678486156,-0.2952699072,-0.6422218874,-0.095925198,0.2586987166,0.0346070627,-2.600502484,-3.69825046,0.1975063121,0.5518021854,0.0419321455,-0.5697826299,0.2836974034,-1.5188302417,-0.0995281853,-0.0712262629,-0.3345983234,-0.114324493,-0.6488990121,0.020211098,-0.0933571978,-0.4859204986,-1.4239680517,-0.1031013231,-0.0424028526,-0.4145535974,-1.0701502535,0.0517726579,-0.0901530943,-0.3542989274,-1.5253157413,-0.0578044277,-0.0689273113,-0.2439807495,6.0026221252,-2.7443435585,0.8492313833,-4.8732803348,69.327217127,-3.9897784878,0.3582062818,-1.2250878941,1.036663419,-0.0686660394,0.015296281,0.0179499032,0.0445095261,-0.1818801178,0.408849069,0.3482180346,-0.0064773156,1.7955973315,-0.1173103717,0.1956964388,0.0201369335,0.5011911436,0.1497862334,0.1232976941,-0.1889011136,0.8815629676,0.1237727899,0.082653007,-0.1971457688,0.7272718104,2.5262455095,-0.6550056678,2.0756480617,3.3324268184,0.3931694898,-8.3000480137,0.3687665265,0.3875292674,0.2246625125,-0.2513915796,0.0959175887,-0.1448642625,-2.3167752476,-0.5074799025,-0.0940669038,-0.0429503577,0.8219305544,0.1024590839,-0.042189009,0.1561230387,0.2782490933,-0.1835973961,-0.1295016905,0.252555736,-0.3346538454,-0.5280158747,0.0308663613,0.5382100993,-4.5581680585,-6.8398124224,-0.4614902638,2.5976820489,1.473370297,-1.6285844646,-0.9144854493,-0.6207493994,-1.3397054583,-0.1445275017,0.0805977453,-0.2279529711,-0.0134641231,0.6300641973,0.3053049581,0.3728105987,-0.2747956249,0.3311237881,0.2107067088,0.2172835043,-0.1344052623,0.1163883254,-0.0000811673,0.1308155419,-0.2536146656,0.129749427,-0.1784342823,0.15848325,-0.3017182622,3.1073306475,13.1322217009,-0.8131480867,9.4423052332,-11.9053195992,0.1351113325,-4.0610507831,0.2800145827,-0.6016157793,-0.2251244593,0.6378706403,-0.9830313573,-0.2951371411,1.6776718267,-0.8004947455,0.7400366841,0.0134638688,1.1324820727,0.0594289112,0.269657782,0.0763611387,0.6650073426,-0.0396428146,-0.3009080714,0.2587123428,2.3471240726,0.0565302375,-0.3116046396,-0.0379083827,-6.231423655,-6.8086034164,-0.7537808148,0.5335533461,1.8566337534,-2.2676456204,-0.0533968298,0.105258611,-0.8560569179,0.6334430314,0.547957863,-1.0424298918,0.5220345542,1.0568993289,-0.1883891805,0.220086547,-0.3322573774,0.3345484773,0.3760421944,0.3288266688,-0.3453670177,0.0856378525,-0.5853371186,0.09616752,-0.0655506401,-0.2466049298,0.3049793169,-0.334082117,-0.0582451543,0.1557628951,0.3047523316,0.316350561,0.7503810768,-0.799699816,-0.1261718948,9.2437589617,-0.5401432815,-2.4783390864,-0.0686242335,-0.2907541637,-2.9193951024,-0.2298062525,5.6119522453,-0.0397004753,-0.1463368088,-0.0366423694,0.0363925249,-0.1858583502,-0.1837151056,-0.1253446127,-0.5309201432,-0.0352657854,-0.100091573,-0.1964506256,-1.1327826245,-0.1069697645,-0.01056804,-0.2312717243,4.889858418,1.1097459193,-0.3863057168,5.0915332378,-1.9339032609,-15.5514569358,29.2465856532,-0.0946574526,-0.340751415,0.5164114386,-0.2168771746,1.9187572203,0.0552530463,0.1522726615,-0.1850209109,-0.2492694398,-0.1404099904,-0.2467620437,-0.7023023705,-0.244373692,-0.2253257565,-0.5535331461,-0.5050689068,-0.0235448026,-0.2903270158,-0.3149683051,-0.3117364252,-0.0171500151,-0.3428686981,3.0721362773,32.6140282947,-1.6454613885,5.7454143339,-0.2185830564,-0.4430058417,-0.4037129189,-0.1114375683,-5.6731908025,0.1116732438,-0.0721154554,-3.4885347795,0.1351365162,-0.6959530618,-0.1794736392,-0.1015898338,-34.9730361326,-2.6965468926,-0.0104596252,0.0236926846,0.0836862116,-1.0578457739,-0.0069457545,-0.0761675581,0.1825927075,1.0581454652,0.3313657819,-0.0581965746,-36.8646705902,0.8303309616,-26.2009568104,11.3396157016,-48.9762913687,3.8490314455,-1.8632108559,8.5399988495,0.2823652048,-0.7132562294,-0.0177164181,0.234216602,0.5348585737,0.0477502129,0.9391966797,0.7563594151,0.171827138,-0.1374626269,0.7294434483,0.54189219,-0.0617198572,-0.1558372233,-0.610199739,0.3662015312,0.03620422,-0.0900281327,0.5011793779,0.1819919219,0.0980479703,-0.0477030021,4.0085086952,3.6670561196,0.1990949085,-0.1245526254,-1.0315949049,-0.8448610569,-2.5370187091,0.4953433617,2.1591592366,0.2807398047,-0.0175629584,0.1906324031,-0.0326586273,-0.5938518262,-0.3265298585,-0.527045219,0.3218007878,-0.3280509977,-0.3217201377,-0.1470305098,0.2019801786,-0.1603107229,0.0851848001,-0.250467875,0.3902706911,0.2294906738,0.5380435849,-0.3112894983,0.3937472949,-7.0541012069,-3.097491445,-1.0013747711,-5.485470353,16.129262629,-1.6001250663,-2.1259580777,-0.5387241605,2.4620930995,0.1345901403,-0.0284943677,0.245262429,-0.0568652019,4.2174232129,0.1527973105,-0.0132467121,-0.7592632063,6.0585533064,-0.4851905062,0.0279883539,-0.1777228676,1.862150538,-0.2450063526,-0.1270809615,-0.114993948,1.8066813905,-0.0278473321,-0.0464840643,-0.1725464665,-11.6511227596,-7.1154406171,-0.36445736,-4.6657416623,1.0093256927,6.7267093689,16.7769190737,0.0336653817,0.5534843257,-0.0340816931,0.2596119169,0.0173744063,0.1780616136,-0.5494181757,0.2154431306,0.2319499686,-0.0905885956,0.7810111588,-0.4992765163,0.2855744047,0.1385915265,-0.17093572,0.0237964222,0.1495695681,-0.0327461829,0.5604009995,0.1311581892,0.0501081762,-0.1413972505,1.9494600783,3.0923294866,0.7463242434,1.2050991737,-1.9436707185,0.6212655891,0.6095037789,0.4418672508,8.8871287203,0.2932877473,-0.209921178,6.5629313138,-0.1986207389,-13.9552851714,-0.0541804257,-0.0722473703,-0.1808798802,29.8055094013,-0.3749611733,-0.1498425593,0.6412285293,-6.2798408968,-0.0415227642,-0.218045427,-0.254202485,-4.9664944314,-0.181893977,0.0243221882,-0.2655895133,3.1838900474,7.6143114715,-6.161692375,3.7183201941,-8.4543397004,-0.5058097623,4.3706748271,0.1760462675,1.3705354286,0.4978750806,0.4603347819,0.8689399762,0.081140251,0.6557779224,0.2779549388,0.3522527756,0.1001582389,4.8191618059,0.9539289258,0.0871758836,-0.71461575,0.8949571068,-1.0534939464,-0.2698050927,-0.5259805114,-1.8596687547,0.164006502,-0.36691758,-0.0199809806,0.17302747,0.3514842768,0.5567655163,6.1878729557,-0.4876889256,0.7381289985,0.294788323,-0.8601117966,-0.8488323119,-1.8721100004,0.2417152284,2.4293190835,-0.032265173,-0.1224371432,0.868105539,0.1070818175,-0.0860653846,-0.5560676349,0.8294512826,0.1098350709,-0.147890306,-0.951795897,0.6616709412,-0.0497417093,-0.1367254297,-0.3517887966,0.6662786406,-0.0010676339,-0.1982221573,0.8115874545,0.7770717667,-1.5026378725,-0.4114262671,-0.0573947819,1.0379602582,-0.1046996226,1.1375360417,-5.6662361331,-0.2031151159,-0.2397025971,-5.1202171525,-0.2010453024,10.8900780005,-0.0958439806,-0.1596313888,-0.6640022732,3.6854791647,0.0153652816,-0.1702109907,-0.5804631147,1.172140571,-0.017071749,-0.1028843774,-0.5594008591,-0.8027860881,-0.1270158633,-0.073384057,-0.4723727666,-14.9322637901,16.5784944277,0.5576354058,-4.6572431175,17.4660055772,37.8192922737,-2.9000351785,0.142769341,-0.3936230739,-0.1024449566,0.0731946819,0.1588840894,-0.474286323,-0.7822071222,-0.0383458018,-0.5639424522,0.3252991427,-0.5021614249,0.0150334372,0.1944834013,-0.3551004968,-0.9660090292,0.1150866957,-0.0996645794,-0.3195105162,-1.0234838406,-0.2416265009,-0.4170703382,-0.6049508949,0.3411121704,-2.8228097356,-0.6503409928,0.4482089408,-2.800030018,2.2587331304,-1.0978047957,-0.1399130339,-5.0187298221,0.6657849927,0.4546688326,-3.489213962,0.1422236658,5.1185856734,-0.9676036142,0.4521137873,0.1692506349,12.1267302275,0.7876149452,0.4555428406,0.2403126137,-9.8948310459,-0.6036023105,0.4524949693,-0.3041166221,0.6374351467,-0.0848231421,0.435230259,0.1263208083,-0.9220830451,-2.9026825765,1.0959465025,0.3431883093,-0.5562843859,-0.4146575665,-0.6365907607,-0.8984834179,0.0708848981,-0.1568774437,0.100338658,0.312014495,-0.2814790622,0.6551971968,0.414078434,0.5883642816,-0.2559668215,-3.1587741148,0.8797138678,0.2829591002,-0.6037630297,-1.6438442968,-0.073733953,-0.6682617711,-0.4336292209,-0.6394741709,0.7689717987,0.1692809534,-0.1583438667,1.7459245786,-4.7873229385,-0.3627923439,-0.0255682301,0.867361805,7.759146361,-0.0726298278,-0.1653353196,-1.1393902961,-0.036142257,-0.1782298901,-2.221143461,-0.223703728,1.8006133067,-0.1366419671,-0.2728113814,0.2883387616,0.2963217113,-0.2109638004,-0.1224207242,0.13296304,0.5103343213,0.0300885835,-0.1989691195,0.0908623642,0.5773865518,0.0305644796,-0.013384484,0.099273502,-7.0298185984,8.5443595487,-0.231649846,0.0436301215,-2.4391851813,1.2572904577,-6.9301136741,-0.4389773295,0.3659343402,0.1465353043,0.0760092133,-0.3566253033,0.1326907661,4.9811017084,-0.1883318183,0.1477500281,0.8910423051,-7.7223947204,0.4256040751,0.0424101892,0.1092089501,-2.6390696139,0.0839819291,0.235944895,0.1492268579,-3.2190736659,-0.1167689379,0.1103285832,0.3184309645,9.30146527,2.556311214,0.4622447778,-0.9363586122,-0.974170313,-13.1734979193,-5.9410838206,-0.7503700542,-0.5390432277,0.7966489864,0.1696675499,-0.5341054531,0.1315151481,-0.2954188383,0.6617249555,0.0588553794,-0.3763379601,0.2176893031,0.7631960369,-0.1803293621,-0.3424232606,-0.2761569423,0.3754785647,-0.0531563613,-0.1388731342,1.0900284083,0.4046492115,-0.1352286772,-0.2681835764,4.1618810763,0.927012023,0.3036035704,-2.5161030656,5.1764628771,-1.0021133792,0.8908545826,0.3592620796,4.9675381398,-0.812542114,-0.2124249089,1.736241742,-0.4102548687,-0.3601092573,0.0917283404,-0.4335091721,0.2369930404,-0.4652566796,0.2605698149,-0.2957901044,-0.1032993643,1.2631587207,0.0662872953,-0.5079125405,-0.3533038412,4.5305546107,0.1382126603,-0.0511582759,-0.9077506377,2.2186262213,-2.9319461909,-1.3771761494,18.840076846,25.6181962278,0.0511860696,0.4481070309,-5.050935975,-0.2734111676,-0.1241523046,-0.2956814241,-0.7507057877,0.0493361709,0.0726196599,0.4401321671,-0.1077907673,-0.376315788,-0.0235915852,0.0835687811,0.3789100468,-0.2483226066,0.3596253338,0.095656976,-0.3452328295,-0.0201821259,0.1972396034,0.651967129,0.0618737724,-0.5262639059,-0.4564659692,-0.2288489171,-1.0146819631,0.0069183259,-0.245246797,-0.2323683793,-1.2608319106,0.5879507983,1.2101583812,1.6345119079,-0.2687223645,-2.1284010417,-0.0543951655,-0.6020713932,-1.1032327488,-0.1631764551,0.0653760619,-0.1312390006,-0.8759141151,0.0188806789,0.1197585336,0.7027301452,-0.7757720664,-0.006689469,0.1116824784,-0.2737967557,-0.8095240824,-0.0509762349,0.1961841099,-2.4485928273,-2.882993995,0.3925916779,0.9831512085,0.1010956214,-0.9157957505,1.8407492624,-0.6042176745,-2.5668063052,0.0726862229,0.2173001369,-1.9417520301,0.1257423328,3.9065393057,0.4316878914,0.1933676626,-0.1136074805,1.8275921494,-0.095137012,0.1275955667,-0.1633501088,0.0598801549,0.0302658673,0.1283848958,-0.2482808214,0.6626572427,-0.0908485329,0.0611753008,-0.3219635252,3.8001854422,11.8598901541,0.6272609263,4.5086880329,-9.7233984249,-1.1261729244,-4.878381538,0.9285382704,1.5490704187,-0.68651124,-0.4043993597,0.2290004042,-0.213601884,-0.2720882187,0.08484842,-0.2044216966,0.335671754,2.017752729,-0.7184355719,0.2181633625,-0.0164008948,0.0456790862,0.99382517,0.0600637615,-0.1679124875,-0.5275758478,0.685554181,-0.344059128,-0.1219890911,-0.6656393403,2.0186176636,0.8367420781,1.2596461503,1.7928037718,1.6061853548,0.2080313764,0.0734817138,4.4909839803,0.2833212837,0.2285964839,3.2747984452,0.2530971023,-5.3906534126,0.0389456578,0.1721653415,0.5546304836,-2.7926893826,0.0203181977,0.1618329004,0.3870192695,-0.636918503,0.0097224188,0.1502143815,0.4120114802,0.5481187974,0.1688899695,0.0147152923,0.3797913296,14.9607613236,-16.2338638743,0.2555391527,2.6317865363,-6.9859806136,-23.3801073742,-3.9331257609,-0.708918931,0.8273352796,0.6211737806,-0.1341400695,1.2121958066,-0.0696711039,-2.3086920046,-0.1788686804,-0.1122457762,-0.6280105251,1.9064582617,0.4166632072,-0.1633203241,-0.4200390597,0.6423887315,0.0988329105,-0.255128344,-0.2880434682,-0.2016141504,0.0723996279,-0.3574124113,-0.4114423074,3.5562124324,0.9324666819,1.0852311568,1.4862524798,0.9596769758,7.5771055014,0.1451574436,1.2777893466,0.418878863,0.4033515069,-0.0386059374,1.2184145376,-0.0936001433,-6.5769858324,0.3547767852,0.002423481,35.2017530227,1.9417496163,0.1442783101,0.0796440438,-0.1614415519,-1.196474544,-0.2059676798,0.1720587961,0.0725798537,-0.4012915965,-0.2384130009,0.1305496295,36.1475255382,4.2358352035,-7.709496627,0.3170796645,-1.7910905123,5.829060912,-9.3897479837,11.2341880504,2.2260770416,1.3045989013,-0.1692883057,-0.0758783846,1.7609598998,0.4098472547,-0.4572037829,0.2907584583,0.5098436166,-0.3447222568,-0.1713986688,0.4418742383,-0.1877636992,0.0984054175,-0.1194176332,-0.0545484585,0.1002589441,0.1085092947,0.7665805537,0.5860787102,0.3726094455,0.3179657139,2.1328966957,-0.4258400458,1.2053237342,1.8499978345,7.3809084866,-0.0087154991,0.7935097021,-0.5301978744,1.4446288747,0.6840878024,0.1534350026,1.7111452296,0.2378910788,-0.1074542566,-0.7654190908,-0.2260911087,-0.4277769425,-1.7168938986,0.2279495571,0.1903509692,-0.2841744064,-0.4209837309,-0.4144617461,-0.3677467684,0.2162943475,-0.2398346933,0.5347134331,-0.7300614509,0.0526020181,-0.5144589096,1.1696587999,-1.5797983811,-0.0860611615,0.6085222767,0.4652048564,3.1626566495,-0.667409303,-1.6719382112,-0.0024728561,-0.1836374522,-0.1745613055,-0.1397249755,1.5966294851,-0.1095303422,-0.1143837103,-0.1547912396,-0.8410194609,-0.1320134904,-0.1628930637,-0.1822623864,-0.2058175418,-0.0651361777,-0.0718169092,-0.2438321651,-0.1646162799,-0.1922909243,-0.060220845,-0.320616007,-43.3826319463,105.4120775329,1.747547824,-4.688494804,-7.2432721852,18.1041690582,-0.3238300661,-2.0704830255,0.3022490539,-1.128282215,-0.0505222197,-0.5304670208,0.004688024,0.2764112359,0.4928303958,-0.1770561554,-1.0776577078,-1.1756247803,-1.0002318352,-0.2463599891,0.2782404285,-1.1054589037,0.5238157831,-0.141457267,0.0115482739,-0.194916956,0.4781831466,0.1421955133,-0.2456100423,0.5603017218,0.3567995446,-1.3860943863,0.5739458599,1.1888455414,-3.3215141446,0.9823130676,-0.7646878303,-0.3802704408,-0.1031567696,-0.1111493155,0.5666998852,-0.1353380829,0.2000033612,0.0520325297,-0.1085671283,-0.6241899362,-0.9833567022,-0.1078301769,-0.0618460253,-0.5597315297,-0.4596448709,0.043732345,-0.0702312891,-0.5289874009,-0.7723188577,-0.0997585983,-0.0643963442,-0.496525291,7.2496696017,-3.0810082172,-1.0881892402,-2.4716552697,46.4700154529,-3.8883348989,1.2924694586,-0.7384557551
biasActivation=0,1,1
[BASIC:ACTIVATION]
"org.encog.engine.network.activation.ActivationTANH"
"org.encog.engine.network.activation.ActivationTANH"
"org.encog.engine.network.activation.ActivationLinear"
