encog,BasicNetwork,java,3.3.0,1,1469406656145
[BASIC]
[BASIC:PARAMS]
[BASIC:NETWORK]
beginTraining=0
connectionLimit=0
contextTargetOffset=0,0,0
contextTargetSize=0,0,0
endTraining=2
hasContext=f
inputCount=28
layerCounts=2,46,29
layerFeedCounts=2,45,28
layerContextCount=0,0,0
layerIndex=0,2,48
output=0,0,0,0,0,0,0,0,0,0,0,0,0,0,0,0,0,0,0,0,0,0,0,0,0,0,0,0,0,0,0,0,0,0,0,0,0,0,0,0,0,0,0,0,0,0,0,1,0,0,0,0,0,0,0,0,0,0,0,0,0,0,0,0,0,0,0,0,0,0,0,0,0,0,0,0,1
outputCount=2
weightIndex=0,92,1397
weights=-0.5250796031,0.3992746811,-0.0306145543,0.4402994508,0.1695166842,-0.5694288773,0.1531979748,0.3351664599,0.7000902515,0.6563597213,0.4262281215,0.2261257284,0.1530059541,0.6798113739,-0.0972738336,-0.8173964038,-0.9195404548,-1.1640332291,-0.5704991009,0.7828072737,-0.2787162161,0.7799631772,0.1063195411,1.0209809313,0.2515199201,-0.0367809565,1.1531893027,0.760876451,-0.6549592522,0.7189004493,-0.7270644691,0.239192043,-0.2415382014,0.5391635839,-0.9718381574,-0.8336404108,-0.4353990189,-0.0346388922,-0.257287448,0.4639780838,0.5636930099,0.8941644461,-0.7456367292,0.5887715691,0.8043873961,1.274138038,-0.269015574,0.85831964,-0.2359238013,-0.6393658168,0.9529228059,-0.975423285,0.3170264762,-0.3884053192,0.915089137,0.1270982914,-0.8618310469,1.0371159518,-0.0570251933,0.1943325995,0.6873718251,-0.8610303773,-0.5741705729,-0.6816018135,0.4162256604,0.8155415174,0.2194555039,0.6853599013,-0.5125014714,-0.2426537257,0.7730385729,1.1125628091,-0.7944376693,-0.6233347179,0.0415542289,-0.2200619828,-0.3590056039,0.038965235,-0.5082615397,0.1248699337,-0.8363869063,-0.0059538811,0.2664402232,1.0660492608,-0.6224571342,0.2171505927,0.922611636,0.3059349103,-0.7963443315,0.2410157059,0.060301373,-0.6730762663,-0.8749587661,0.168402002,0.2266315698,0.8158491673,0.2834700391,-0.7669145375,-0.4331440606,0.3573591455,0.0176392893,-0.1622710417,0.0268527048,0.827057971,0.557896746,0.4762124866,0.6610122507,-0.0516235791,-0.334560774,-0.5246020458,-0.356116928,0.5130477961,-0.155975623,-0.6995164284,0.8757868758,-0.6745916437,-0.2364049169,-0.6090610588,-0.5662344119,-0.8069752653,-0.8170492327,0.0313289206,0.1435174431,-0.4394553937,-0.2167815825,-0.8291440493,-0.8256676837,0.5958273239,-0.2031673272,0.6641037789,0.034940988,-0.5700344262,0.9822956288,0.9503855067,-0.8674873397,0.0093202982,-0.1840532747,0.6125209923,0.4578424727,0.9172699499,-0.0725014821,-0.2286795616,-0.1719274704,0.6080011955,-0.5459122073,0.1937855691,-0.1173940929,-0.8566964682,-0.7002869605,0.0693858248,-0.0834886954,-0.1529462322,0.3570931023,0.3384300791,-0.040280832,-0.9676921763,0.7073968287,-0.6474328427,0.8508640955,0.7555967598,0.8470120537,0.637881318,0.1999640752,-0.7000888546,-0.0046450495,0.8684350104,-0.4455257638,-0.2576031918,0.9510535727,0.4286987484,-0.222774173,-0.6718200862,0.2718590434,0.4590813324,0.8114609284,0.8108936936,-0.2744161008,0.7941174825,0.728106044,-0.5117233093,-1.0107695773,-0.1772088087,0.6077050784,-0.4156435608,0.3530181322,-0.0056449528,0.4856865803,0.5674164024,0.4329887474,-0.8402921433,-0.125917217,0.5908855805,-0.7154106715,0.9771801328,0.7761754661,-0.7663666739,-0.5695820444,0.2666031146,0.7731256101,-0.2858374808,-0.4471701332,0.4008929556,0.9404152011,-0.2205208239,0.3690147212,-0.8537182982,0.7429934346,0.6578408483,-0.4612932722,-0.9817571146,0.9241525769,0.5398266481,0.3448956295,0.8355399946,0.5870069573,0.9611912486,0.8911521449,-0.2039107755,0.5710758162,-0.2210307226,0.6332377482,-0.0472291168,-0.2234723471,0.8479296594,-0.4982494361,0.8405210922,0.8085514601,0.0371099721,-0.0937268057,-0.3375514171,0.2241224402,-0.8994720567,-0.5568267551,-0.6905531508,0.5773385026,0.2991814866,0.3184958967,0.239606042,0.4907613507,0.1978942028,0.9012932793,-0.6467900498,-0.4312573091,-0.8243480644,-0.7189040275,0.8511006491,0.3620888984,-0.3568085605,-0.9642624135,-0.6018845403,0.7614384247,-0.6814659473,-0.0283014185,-0.4578023675,0.7847341161,-0.4252115767,0.0574351092,0.2360033571,0.9973319657,0.7875478506,0.9347370945,-0.4880693183,0.0173389802,-0.6878208532,-0.8563537394,0.4132868832,-0.3061702365,-0.7039902276,-0.4050303753,0.9496904761,-0.8552831142,0.6996995476,0.2767027441,0.7021208318,-0.3552599462,0.5451424912,-0.5229024314,0.5497515854,-0.7288603773,0.4505724867,0.8917916707,-0.8622707142,-0.3122684147,0.614359776,-0.4186901769,0.4479901797,0.5652437953,0.3096379579,0.4756541524,0.6355398547,-0.6940804478,-0.1496474921,0.6916437051,-0.5560762715,-0.68532948,-0.3147055794,0.2762048426,-0.5184013547,0.8891663807,0.8246213886,0.8938776559,-0.5473119345,0.0459539554,0.576061109,-0.7167712326,-0.6073229165,-0.4482678257,-0.5021753626,-0.3325006342,0.8538416688,0.878917795,-0.7373306245,0.6039883884,-0.9142108361,-0.9372914906,0.7612458853,-0.3276243156,-0.1897199464,-0.6783295123,-0.0791592795,-0.3189516774,-0.191810227,0.4678692238,0.0082536641,-0.1354106249,0.7061140408,1.0628766235,0.4508792317,0.2319966732,-0.5754280006,0.1197743308,0.4676380983,-0.1506090404,-0.7583549118,-0.3672588549,0.4196928879,-0.2603870335,-0.2224464984,0.7506131144,-0.0651737931,-0.8459721836,-0.1586989469,-0.3665771964,0.5339349482,-0.3542091144,0.2867475488,0.9535461458,0.0529775366,0.1369332803,0.5703594014,0.689709146,0.4650382589,0.1103662757,0.5483364165,-0.9129155596,-0.5346896615,-0.8303483494,0.591756552,-0.0535882484,0.6706384262,-0.3593454124,0.1884665056,-0.0317187956,-0.5357550469,1.0123595324,-0.4959935326,0.9854936917,0.7667644828,0.0616456164,0.7592557594,0.1762421872,-0.265776259,0.3649214533,-0.788356746,-0.7999113402,0.8211194451,0.7270940743,0.5139580747,0.3569470494,-0.1655583424,-0.5776090612,0.3667028359,-0.4601470962,0.6517853977,-0.4750866485,0.7153510193,0.7321317069,0.5100923505,0.7530145978,-0.0014763351,0.1101173038,0.7618562764,0.2211357301,-0.5791771041,-0.4150593686,-0.6641936895,-0.284768276,0.8161075432,-1.0248642139,0.2246453726,-0.5302466353,-0.4201146355,0.2177150655,0.4928894135,-0.9994985737,-0.0638800828,0.3688116456,-0.953801625,-0.694963278,0.3054265597,-0.6714959212,0.3046968709,-0.0399363998,-0.920098663,-0.0695493163,0.0989475386,-0.6864288498,0.1697773983,-0.0921813206,0.4243504474,-0.1287701132,0.6560225743,0.5613171421,0.2347547356,0.4494365013,0.7150918441,0.7103835283,0.1026481469,0.952465064,-0.2233770014,0.5335757354,-0.4129335202,0.0138156989,-0.5133300316,-0.3511534965,0.6839884896,0.1891873952,0.9646095509,0.4772067434,-0.3917847877,0.2649665068,0.1525983746,0.3093199995,0.6821179315,0.773788482,0.2066080197,-0.2623087928,-0.1007602147,0.5670305018,-0.5548919559,0.0853669323,-0.6809696798,-0.6786309319,0.6039561085,-0.5027502998,-0.5247622855,-0.2745087706,-0.2155912132,0.7835981586,0.018249908,0.0638728942,0.272312464,0.1955133829,-0.916595799,0.4975396081,-0.166280109,0.2837800482,-0.441602726,0.3574732551,-0.3723379264,0.5026060708,0.3097189066,-0.1801374026,-0.1342033431,-0.7169092574,0.5788658807,-0.7703359252,0.8787801875,0.4216453656,-0.6828901228,0.4578967108,-0.5400751874,-0.8674001824,0.908419087,0.120674217,0.1635094601,-0.859240889,-0.0548879635,0.8348700796,-0.8124733142,-0.98404759,-0.2273473261,0.6472173821,-0.2160415708,-0.6294931513,-0.7886967608,-0.7066982891,0.3977260392,0.9249075431,0.5519611424,-0.8574597527,-0.5401445104,-0.19672658,-0.8664846208,0.2634345867,0.0946020824,-0.9447915203,-0.6711438168,-0.5619638289,-0.0341202869,0.5374122307,0.2877995876,0.442398302,0.7302158231,0.1999198406,-0.9185659498,-0.3997946508,-0.0016603983,-0.4448989114,-0.4235677458,-0.4212775466,0.5816298753,0.6673330843,0.5857189884,0.9388227973,-0.6542752423,0.2160318407,-0.0654097776,-0.6024250078,-0.2781817741,-0.2137223544,-0.1188546575,-0.1762536331,-0.8764064833,-0.680279265,-0.0907641585,-0.6483376173,-0.6470342371,-0.8194139362,0.6461663497,-0.988155065,-0.7391496795,0.5868400597,-0.6999152861,-0.1656099833,0.33289466,0.4051457844,0.8804684011,0.418735713,0.5510277254,-0.738929425,-0.8246485592,-0.0376378733,0.6029273379,0.1107934611,0.2415240058,-0.001127048,-0.3319266038,-1.0093171103,0.5837392053,0.4436891831,-0.6722468129,-0.0678256359,-1.0440099533,-0.5218982439,-0.1949270281,-0.9508772167,0.4003994634,-0.9388626084,0.3583286331,-0.9476928906,0.3715030002,-0.5452770247,-0.5555762464,-0.0583315883,-0.0494748458,0.1426397186,-0.0497300077,-0.2154908576,0.3308436133,-0.2205891614,0.9410499773,-0.3897182201,-0.0822575752,0.7831253363,-0.1958273668,-0.6450681896,-0.9330053259,0.5109447897,-0.3178860763,0.463108677,-0.4900821122,-0.4758193929,-0.3532920677,0.1507378231,-0.0762425108,0.9021602737,0.1908017233,-0.2785805565,-0.4295094789,0.3433362384,-0.0670019725,0.6310023212,-0.8692650956,-0.1055241282,0.3173536487,-0.9591444705,-0.3205584315,0.5600675905,-0.8043121607,0.2064814131,-0.2904906655,-0.6928268166,-0.6079726711,-0.5222258461,-0.2185382502,-0.9348141148,-0.6832668783,0.7405647815,-0.3704322032,0.4971188805,-0.4474740525,0.9216756798,-0.2285634144,0.6728547215,0.8786901241,-0.1096606119,-0.6706709901,-0.6076888853,-0.6665335872,0.0280333753,-0.4211387709,0.8808805424,-0.3745167811,-1.0546947162,0.4012407346,-0.5132881644,-0.7899825687,-0.7117965549,0.2594898318,0.1887488927,-0.3990383779,-0.5654453481,-0.6922325414,0.2920727454,-0.229688246,0.7139359802,-0.3245883919,0.7759369069,0.5420349961,0.6072895081,0.3796183209,-0.4903077122,-0.930204055,0.3443827113,0.1341749279,-0.2927180835,-0.1675125363,-0.6602601349,-0.8800157218,-0.2809375422,0.9287808184,0.6979743388,0.6501171992,-0.2012950049,-0.2893701107,0.9787913258,-0.2067652147,0.0187811453,-0.5508129269,0.391612746,0.8474610054,0.3556929894,0.2813024522,-0.0041617012,-0.9098330398,-0.2803961757,-0.3630893003,-0.896772237,-0.5221146906,0.7331965513,-0.1027174613,0.0072444843,-0.4830423722,-0.706623524,-0.3905456549,-0.6579359134,-0.0770265113,0.533813641,-0.957896967,-0.9707652453,0.2949749864,0.8249065068,0.0938228718,0.5233980694,0.0955618418,-0.5150709193,-0.0586825787,0.6270597436,0.3081030076,0.8369532621,-0.2082191352,0.085621749,0.5931009614,0.5149905081,0.3325258682,-0.0757306302,0.5154904205,-0.0808664391,-0.6095742993,0.8081819956,1.0635865724,-0.1249325505,0.5084883244,0.918221945,0.2683712903,-0.6230568405,-0.5304820208,0.519658957,0.1182107824,-0.2397756515,-0.1609426045,-0.0689767652,0.2111501739,-0.8753633622,-0.3892649453,-0.8010969428,-0.6374761916,-0.3410967052,0.8051583459,-0.6156019398,0.9470450886,0.962376794,-0.9648575517,-0.2019767297,0.9606031644,-0.8383396,-0.6472293412,0.4957986323,-0.8349025274,0.9089930557,-0.2104689222,0.7135121615,0.0638313674,0.0570520078,-0.7577384207,-0.9280100971,0.2970005357,-0.2776026838,0.5277048164,-0.2589825584,0.3123478735,0.8409593626,-0.1583507619,-0.3391368149,-0.1877449921,0.3539327344,0.3253289412,0.3342604423,0.0588458675,0.3963973989,0.1610885549,0.8711237124,0.0367441993,-0.9350674123,-0.4699391949,-0.112591468,0.3804772559,0.7434617988,-0.1780789414,1.0101544638,0.4287473212,-0.2879672023,-0.6382490943,-0.6368062361,0.8587305622,-0.6127798302,0.7134313481,-0.3453183087,0.9463163704,-0.3272793307,0.9318118097,-0.68315956,-0.3984337784,-0.776491752,0.1948472108,-0.8938348666,1.0427799933,-0.5463539065,-0.3445893964,-0.3132799839,-0.0983320241,0.4947819185,0.7151848957,0.9846438868,-0.2816125718,-0.1778979376,0.9936965311,-0.5748355051,-0.1398445724,-0.2934812051,-0.096422717,-0.6864413013,1.053891819,0.5542234113,0.1112091676,0.6325172402,-0.442164946,0.3400594504,-0.5395981542,-0.3032323582,0.999524984,-0.7830526273,0.8365492031,-0.164060228,0.909015262,-0.1657137388,0.2496658258,-0.6665746302,1.0082994112,-0.5074834391,0.5906364781,-0.3758781396,0.6226920731,0.5591551457,0.6826744768,-0.44076062,-0.8640107735,-0.6763791537,0.2652273589,-0.8618558147,0.4725900028,0.4197354855,-0.8993270878,-0.1890489235,0.8619124344,0.7570591042,0.8557505906,-0.0657486422,-0.7757426042,0.5173235794,-0.5472545494,-0.8156810369,-0.7504888817,0.6547666984,0.2337143572,-0.0142202853,0.9409175623,-0.1652388369,0.3359033173,0.2285008523,0.1079876434,0.7972711898,-0.1392727874,0.3644969576,-0.1787308364,0.5184873654,0.4631287883,0.3079114142,0.2801110865,-0.1451102138,-0.262259502,-0.6765097371,0.8149454399,0.8733655986,0.0333290925,-0.2336176213,0.8179797589,0.8914236487,0.9544880512,-0.1767659734,-0.0656315136,-0.000641079,0.4161000091,-0.0024718452,0.7976161754,-0.2198105032,-0.286082897,-0.2716563063,-0.2739342346,0.990431757,-0.361595897,-0.5578767296,0.6723994605,0.3131366478,0.8667434118,0.7737186502,0.1386899225,-0.2466327109,-0.3082491121,0.6591236282,0.3723887817,-0.5668233362,0.2045949554,-0.7161013331,0.9785309098,-0.7347375122,-0.9270266958,-0.2305934325,-0.8875820336,-0.5768903517,-0.6806419773,-0.1728253941,1.0127189123,-0.3927925578,-0.9461924727,0.0115499911,-0.6485690783,-0.3288898906,-0.9203763445,-0.8934022475,-0.611979775,0.5293684899,-0.85794509,-0.7734399153,0.3389539628,0.4595552404,-0.2779018586,-0.2310293311,-0.1482016101,-0.6404489061,-0.7255537607,0.142160075,0.4236292892,-0.5050870678,0.7930298409,-0.7268741254,-0.3035875382,0.7303268882,-0.9663978534,-0.264358787,0.7981786177,0.0715126978,-0.7951784154,0.9454118047,0.5418672468,-0.6897799207,0.1750974375,0.9290418231,-0.923697536,0.5875045707,0.6896189193,-0.0356842883,0.7456095595,0.5497058281,0.1954574894,0.0694489512,-0.9647239727,-0.9019981237,-0.7518556453,0.4376214497,-0.0250218193,-0.3403250457,0.2868655163,0.8357782229,-0.069208448,0.9274835279,0.983366994,0.3647652923,0.2430332522,0.256600737,0.4863917175,-0.1759077616,0.0237857546,0.818565312,-0.692273575,-0.6069207166,0.1596513352,0.4754985542,-0.0095048175,-0.624356213,0.5986288835,0.022727316,0.6711719456,-0.4321820646,-0.2324212298,0.5613310201,-1.0071543157,0.4872672351,0.46313758,0.790926462,-1.0840273237,0.833247723,0.5837009661,0.2944343706,0.1272606378,-0.7602286817,-0.9184302493,0.0910770988,0.339555688,-0.92871263,0.4923928593,-0.5605047482,-0.7869528227,0.1301118768,-0.0996318077,-0.5291498872,0.0696696155,-0.8464182692,0.1663396638,0.449307993,-0.6310897728,0.2332951054,-0.9297220393,-0.8324087785,0.2072472231,0.6055178719,-0.8122477525,0.9731456791,-0.6619013283,0.6775366344,-0.0283082838,0.7352023588,0.2793503997,0.6417260017,-0.0486154972,-0.3671643968,-0.792994876,-0.8999770468,-0.9707065946,0.2109471581,-0.9064715511,0.1369926953,0.5610340998,0.4310205004,-0.720241008,-0.742470671,0.2264601863,0.6238186626,-0.9848755856,0.7441385407,0.1748731923,0.0422641764,-0.4359292017,0.7127581496,0.9288188437,-0.6985767489,-0.4182660116,0.4837412787,-0.8262295302,-0.0427833399,-0.1312168238,0.7624848565,0.6745756414,0.9642498128,-0.21463315,0.3616598673,-0.4609725271,0.752116704,-0.6741474085,-0.9787718603,0.441844298,0.4955983817,-0.6098918862,-0.7944616094,0.7195372806,0.1260624064,-0.8672705031,0.476606537,-0.1276590471,-0.62602002,-0.2305848111,0.7467902547,-0.0341704686,0.4340048576,0.7469883648,0.7823714732,-0.4962583746,0.9466492805,-0.3339395801,0.4059513225,-0.888265072,-0.302524498,0.448408464,-0.5175648345,0.0056772422,0.7679009243,1.1109447329,-0.968237179,-0.9616278188,-0.5737446966,0.1048741632,0.4936573735,-0.7519922227,-0.9784544083,0.0907968307,0.7851598559,-0.8187128084,-0.7792365313,-0.8574903948,-0.450697385,-0.7306494762,-0.0105936393,-0.146274563,-0.805789106,0.1488450216,0.1223403964,0.6542930018,-0.2719469042,-0.837905442,0.3206302409,-0.109809793,-0.9642977297,0.2150253613,0.4826300393,0.1722272316,0.2045837277,-0.9512320556,-0.8264440201,0.260536427,0.416740258,-0.5706281189,0.7451057099,-0.3905185759,-0.9831695663,0.2988172377,-0.7806813086,-0.0325999454,-0.3662002387,-0.3475906639,0.2277427935,-0.4216335135,-0.1917505908,-0.1605894235,-0.4147862622,0.1457907576,-0.0801114346,0.6200128216,-0.0754470125,0.1882918355,0.060837572,-0.7955421398,-0.977599499,0.8222313625,0.5022373219,-0.7496926618,0.8915459322,-0.7725878822,-0.8336054334,0.7713898395,0.0469290988,-0.133447011,0.7851538722,0.3487146062,-0.0719562432,-0.3980272129,0.3515134466,0.1699215067,-1.003118149,0.4544468721,-0.4385894,0.3697549085,0.6658111959,0.5770820446,-0.4819544755,-0.1984383436,-0.7256184588,-0.2593871132,-0.1326316219,-0.019445269,0.6806600211,-0.5828084031,0.036616672,-0.2886128281,-0.4179524242,0.6777324306,0.0267398309,0.279206894,0.8208952385,-0.2532289781,-0.1565377783,0.8194934958,0.5460122669,0.5014098042,-0.061102332,0.3730636284,-0.4816582824,-0.4372561438,0.655075938,0.3167976841,-0.5083600027,-0.0129050672,-0.2158177262,0.9761092665,0.7299658296,-0.4898255385,-0.020008403,-0.2934309467,0.4173369424,-0.6079104677,-0.3003192216,0.3910919681,0.2952227465,-0.632521944,0.9077393228,0.38606384,0.3564622568,-0.2986101063,-0.8219324711,-0.1205261989,-0.1958132415,0.5535534182,0.86620885,-0.1072550996,-0.5395836884,0.6082635165,0.6461228835,-0.5732551465,-1.0199376318,-0.9082746107,0.3879294432,-0.9146782268,0.8071274461,0.6369063805,-0.4845499819,0.1838654305,-0.5468882871,-0.336741777,0.5942415033,0.2597364805,0.6230186981,0.8322444673,-0.5111164186,0.2465516691,-0.5845435209,0.4558189035,-1.0107834917,-0.995151208,-0.0071298077,0.6468117463,-0.1559109358,0.5034115109,-0.4332949325,0.7376505145,-0.9775028466,-0.0767769723,-0.1036925019,0.5934188827,-0.1097986235,0.5899181471,0.2491006713,0.1413170572,-0.5664185109,0.6500667431,0.2648579598,0.852128868,-0.643049256,-0.7326921436,0.4057990421,0.1151304469,0.447732065,-1.0784594603,0.4982885676,0.6955257278,0.9269684806,0.1996099132,-0.1984818118,0.8442828074,0.8466126074,0.4785832611,0.034983427,-0.9862206762,0.0241444105,0.7512671083,0.9497486994,-0.0190066669,-0.4918631526,0.1805775377,0.6683192415,0.9203619668,-0.2993567979,-0.0737265037,-0.8544936974,0.4906809735,0.0430186753,-0.1851562639,-0.710232867,0.539654855,-0.9620239324,0.8051557698,0.0809791024,-0.4989225517,0.059634579,0.2856125252,0.7009435312,-0.4723616348,-0.0399887663,0.9805095686,0.1944827057,0.0444429603,0.2033329332,0.2243783288,-0.4482484665,0.851640019,0.0367341932,0.8721603034,0.8660079227,-0.2193195392,-0.1153044656,0.49778274,-0.3780702893,0.2214780679,-0.7646400861,0.8746690761,-0.7928592479,-0.2480565937,0.4538659991,-0.5579136145,0.1977774278,0.1500123617,-0.883071733,-0.1806214515,-0.0989626772,-0.4213366309,-0.0811515667,-0.6839684624,-0.5892405922,-0.1446802616,-0.9155231753,-0.9023570606,-0.7848439097,-0.0410902062,0.406878075,0.3474494395,0.8325687563,-0.9191441384,-0.6756798361,-0.4181768474,-0.7256310884,0.9692209298,-0.6510301152,-0.9439034779,-0.7867473294,-0.142351642,0.6801818633,-0.0457224642,0.2232241277,-0.9574482196,-0.3471581202,-0.012100765,0.7414160329,0.6970373794,0.7451750706,-0.5778898597,0.4607528517,-0.7463871333,0.1671040799,-0.0151191977,-0.7294790022,-0.8768942891,-0.0003997838,0.8051553579,-0.0620100059,-0.6581690269,0.1349260981,-0.9610087837,-0.0134049843,0.0069307824,1.0962224731,0.2569140629,0.0710089331,0.1161194398,0.9414164098,0.2280243826,-0.1307678893,-0.3059806004,-0.9323929897,-0.8100401971,-0.7184672752,-0.7125750407,-0.9493992476,-0.525444417,0.1664202525,0.046377136,1.0018767973,-0.6164995327,0.9829712567,-0.4174047346,-0.7222638624,-0.5485581841,0.5543409849,-0.3093452234,0.8194737398,-0.0428974912,0.7572264558,0.5743529956,0.9708784754,0.4247114792,-0.6971760429,-0.2490898887,-0.8887026196,0.79135134,-0.458309137,-0.8232469828,0.8483054699,-0.7689772139,0.8471454886
biasActivation=0,1,1
[BASIC:ACTIVATION]
"org.encog.engine.network.activation.ActivationTANH"
"org.encog.engine.network.activation.ActivationTANH"
"org.encog.engine.network.activation.ActivationLinear"
