encog,BasicNetwork,java,3.3.0,1,1470793625319
[BASIC]
[BASIC:PARAMS]
[BASIC:NETWORK]
beginTraining=0
connectionLimit=0
contextTargetOffset=0,0,0
contextTargetSize=0,0,0
endTraining=2
hasContext=f
inputCount=28
layerCounts=2,1501,29
layerFeedCounts=2,1500,28
layerContextCount=0,0,0
layerIndex=0,2,1503
output=0,0,0,0,0,0,0,0,0,0,0,0,0,0,0,0,0,0,0,0,0,0,0,0,0,0,0,0,0,0,0,0,0,0,0,0,0,0,0,0,0,0,0,0,0,0,0,0,0,0,0,0,0,0,0,0,0,0,0,0,0,0,0,0,0,0,0,0,0,0,0,0,0,0,0,0,0,0,0,0,0,0,0,0,0,0,0,0,0,0,0,0,0,0,0,0,0,0,0,0,0,0,0,0,0,0,0,0,0,0,0,0,0,0,0,0,0,0,0,0,0,0,0,0,0,0,0,0,0,0,0,0,0,0,0,0,0,0,0,0,0,0,0,0,0,0,0,0,0,0,0,0,0,0,0,0,0,0,0,0,0,0,0,0,0,0,0,0,0,0,0,0,0,0,0,0,0,0,0,0,0,0,0,0,0,0,0,0,0,0,0,0,0,0,0,0,0,0,0,0,0,0,0,0,0,0,0,0,0,0,0,0,0,0,0,0,0,0,0,0,0,0,0,0,0,0,0,0,0,0,0,0,0,0,0,0,0,0,0,0,0,0,0,0,0,0,0,0,0,0,0,0,0,0,0,0,0,0,0,0,0,0,0,0,0,0,0,0,0,0,0,0,0,0,0,0,0,0,0,0,0,0,0,0,0,0,0,0,0,0,0,0,0,0,0,0,0,0,0,0,0,0,0,0,0,0,0,0,0,0,0,0,0,0,0,0,0,0,0,0,0,0,0,0,0,0,0,0,0,0,0,0,0,0,0,0,0,0,0,0,0,0,0,0,0,0,0,0,0,0,0,0,0,0,0,0,0,0,0,0,0,0,0,0,0,0,0,0,0,0,0,0,0,0,0,0,0,0,0,0,0,0,0,0,0,0,0,0,0,0,0,0,0,0,0,0,0,0,0,0,0,0,0,0,0,0,0,0,0,0,0,0,0,0,0,0,0,0,0,0,0,0,0,0,0,0,0,0,0,0,0,0,0,0,0,0,0,0,0,0,0,0,0,0,0,0,0,0,0,0,0,0,0,0,0,0,0,0,0,0,0,0,0,0,0,0,0,0,0,0,0,0,0,0,0,0,0,0,0,0,0,0,0,0,0,0,0,0,0,0,0,0,0,0,0,0,0,0,0,0,0,0,0,0,0,0,0,0,0,0,0,0,0,0,0,0,0,0,0,0,0,0,0,0,0,0,0,0,0,0,0,0,0,0,0,0,0,0,0,0,0,0,0,0,0,0,0,0,0,0,0,0,0,0,0,0,0,0,0,0,0,0,0,0,0,0,0,0,0,0,0,0,0,0,0,0,0,0,0,0,0,0,0,0,0,0,0,0,0,0,0,0,0,0,0,0,0,0,0,0,0,0,0,0,0,0,0,0,0,0,0,0,0,0,0,0,0,0,0,0,0,0,0,0,0,0,0,0,0,0,0,0,0,0,0,0,0,0,0,0,0,0,0,0,0,0,0,0,0,0,0,0,0,0,0,0,0,0,0,0,0,0,0,0,0,0,0,0,0,0,0,0,0,0,0,0,0,0,0,0,0,0,0,0,0,0,0,0,0,0,0,0,0,0,0,0,0,0,0,0,0,0,0,0,0,0,0,0,0,0,0,0,0,0,0,0,0,0,0,0,0,0,0,0,0,0,0,0,0,0,0,0,0,0,0,0,0,0,0,0,0,0,0,0,0,0,0,0,0,0,0,0,0,0,0,0,0,0,0,0,0,0,0,0,0,0,0,0,0,0,0,0,0,0,0,0,0,0,0,0,0,0,0,0,0,0,0,0,0,0,0,0,0,0,0,0,0,0,0,0,0,0,0,0,0,0,0,0,0,0,0,0,0,0,0,0,0,0,0,0,0,0,0,0,0,0,0,0,0,0,0,0,0,0,0,0,0,0,0,0,0,0,0,0,0,0,0,0,0,0,0,0,0,0,0,0,0,0,0,0,0,0,0,0,0,0,0,0,0,0,0,0,0,0,0,0,0,0,0,0,0,0,0,0,0,0,0,0,0,0,0,0,0,0,0,0,0,0,0,0,0,0,0,0,0,0,0,0,0,0,0,0,0,0,0,0,0,0,0,0,0,0,0,0,0,0,0,0,0,0,0,0,0,0,0,0,0,0,0,0,0,0,0,0,0,0,0,0,0,0,0,0,0,0,0,0,0,0,0,0,0,0,0,0,0,0,0,0,0,0,0,0,0,0,0,0,0,0,0,0,0,0,0,0,0,0,0,0,0,0,0,0,0,0,0,0,0,0,0,0,0,0,0,0,0,0,0,0,0,0,0,0,0,0,0,0,0,0,0,0,0,0,0,0,0,0,0,0,0,0,0,0,0,0,0,0,0,0,0,0,0,0,0,0,0,0,0,0,0,0,0,0,0,0,0,0,0,0,0,0,0,0,0,0,0,0,0,0,0,0,0,0,0,0,0,0,0,0,0,0,0,0,0,0,0,0,0,0,0,0,0,0,0,0,0,0,0,0,0,0,0,0,0,0,0,0,0,0,0,0,0,0,0,0,0,0,0,0,0,0,0,0,0,0,0,0,0,0,0,0,0,0,0,0,0,0,0,0,0,0,0,0,0,0,0,0,0,0,0,0,0,0,0,0,0,0,0,0,0,0,0,0,0,0,0,0,0,0,0,0,0,0,0,0,0,0,0,0,0,0,0,0,0,0,0,0,0,0,0,0,0,0,0,0,0,0,0,0,0,0,0,0,0,0,0,0,0,0,0,0,0,0,0,0,0,0,0,0,0,0,0,0,0,0,0,0,0,0,0,0,0,0,0,0,0,0,0,0,0,0,0,0,0,0,0,0,0,0,0,0,0,0,0,0,0,0,0,0,0,0,0,0,0,0,0,0,0,0,0,0,0,0,0,0,0,0,0,0,0,0,0,0,0,0,0,0,0,0,0,0,0,0,0,0,0,0,0,0,0,0,0,0,0,0,0,0,0,0,0,0,0,0,0,0,0,0,0,0,0,0,0,0,0,0,0,0,0,0,0,0,0,0,0,0,0,0,0,0,0,0,0,0,0,0,0,0,0,0,0,0,0,0,0,0,0,0,0,0,0,0,0,0,0,0,0,0,0,0,0,0,0,0,0,0,0,0,0,0,0,0,0,0,0,0,0,0,0,0,0,0,0,0,0,0,0,0,0,0,0,0,0,0,0,0,0,0,0,0,0,0,0,0,0,0,0,0,0,0,0,0,0,0,0,0,0,0,0,0,0,0,0,0,0,0,0,0,0,0,0,0,0,0,0,0,0,0,0,0,0,0,0,0,0,0,0,0,0,0,0,0,0,0,0,0,0,0,0,0,0,0,0,0,0,0,0,0,0,0,0,0,0,0,0,0,0,0,0,0,0,0,0,0,0,0,0,0,0,0,0,0,0,0,1,0,0,0,0,0,0,0,0,0,0,0,0,0,0,0,0,0,0,0,0,0,0,0,0,0,0,0,0,1
outputCount=2
weightIndex=0,3002,46502
weights=##0
##double#46502
   0.4585015723,0.2176276491,-0.7673225708,3.0105655131,-0.0817816076,-0.6544856244,0.3987755669,0.851809,0.3312701909,0.18536887,0.2023699185,-0.5364029434,0.2433087872,-0.8044184759,-0.127110099,-0.0006827117,0.2221437372,0.4514046333,-0.2003704917,-0.500055892,0.2955409408,-0.3004276029,0.5846964267,0.6687541039,0.5212620654,-0.3373287324,-0.8983355602,0.5501835254,0.2951345261,-0.9617952114,-0.8824566436,-0.0360150615,0.3294251618,-0.0732619826,1.0935070574,1.2921327357,0.8234349063,-0.6157460479,-0.0331030709,0.2402948118,0.7721912922,-0.2577837045,0.0577125105,-0.170646765,-0.8553224329,-0.0927080422,-0.3453528651,0.4492285859,0.0419715235,-0.5032258413,0.6800261854,0.1617737864,-0.637371108,0.9690161962,0.7130005458,0.616140719,0.0741911375,0.1682235773,-0.4307704519,-0.4764903267,-0.187551762,0.8775869008,1.0247596342,0.3016816438,0.2884636945,-0.2684762006,-0.1528658897,0.4714425479,0.3635643009,0.6784230294,0.1044296829,0.5175033215,-0.6094520418,-0.8838138951,0.3506620752,0.1705592978,0.2404962237,-0.0728991532,-0.8239930291,-0.6166282776,-1.0148236667,0.3841175512,0.0417724448,-0.0515467623,0.7068565013,0.1456405815,-0.1647421406,0.0983238791,-0.090669236,0.7686238151,-0.7934406836,0.0654326537,-0.2085242598,0.4239293765,-0.3287389721,0.2795220067,0.1186447925,-1.0330543471,0.6772905723,0.5351981259,0.8815001214,-0.4201968836,0.518285403,0.0250860586,-0.5622064374,0.0049757679,0.0815772009,0.5663355859,0.4913184854,-0.301010334,0.3883277048,0.3036078853,-0.3092350882,-0.4574661489,-0.8818696558,0.1607096126,-0.2975661844,0.2345804859,-0.3061649232,-0.3984492041,0.8037676631,0.3387625488,-0.8573930524,-0.4026745905,-0.061639546,0.2962339217,0.302486112,0.3357800843,-0.3312549088,-0.5313676578,6.1596752116,0.3778945496,-0.3462011041,0.3163414384,0.4718185812,-0.4270747013,-0.3723124107,0.9966684112,-1.0670593236,0.7076605736,-0.0468293899,-0.3175802854,0.8364989384,0.9368223271,0.195261958,-1.0290787614,0.1961467059,-0.7502121394,1.0254165349,0.0828221975,0.2690972895,-0.7533777626,-0.336119694,0.0034926166,-0.2142033877,0.2222691154,-0.7827843493,0.0228022707,-1.1732086655,0.2813678679,-0.0428121595,-0.0006296345,0.453557649,-0.3139240032,-0.8843568025,0.6001894311,-0.8437257636,-0.8648276705,-0.3989183556,-0.3123210065,0.1946740968,-0.0106825543,-0.6355565126,-0.0982201648,0.2597450507,0.811108171,-0.0633748887,-0.7960752816,-0.4630759358,0.3407079965,-0.916237478,0.9875317963,0.1961715121,-0.6067917755,0.8805748998,0.4894690414,0.4826151407,0.9018986681,-0.2885497748,0.1202392319,-0.3192626913,0.2460974726,-0.4548829841,0.2301003416,0.3726110425,-0.2874587644,1.0245447725,0.2131955787,0.2961649799,0.1971149615,-0.9241920465,0.11612442,0.1446365527,0.611753384,-0.7612342747,-0.5324220512,-0.9359600774,0.8824228979,-1.0040720974,-0.7188752932,0.9079076276,0.06156889,0.7935424428,0.4619899159,0.596991125,-0.1896712998,-0.7157484604,-0.0346938334,0.116156605,-0.2173919731,0.214183194,-0.3159616795,-0.6873359976,0.7106345498,0.8364360399,-0.0038053647,-0.041921869,0.5911556922,0.8635569759,0.3890827131,-0.9815657851,-0.3626684009,-0.6611453971,-0.2925197182,-0.3791146006,0.044459363,0.6456032504,-0.27130553,0.127631445,0.6072692387,0.7418213656,-0.4334556039,-0.0488385981,1.0067902701,-0.2640761587,-0.049354824,-0.4298262722,0.0292722835,0.0555121886,-0.149932718,0.1144997958,0.0906957159,-0.0571374779,0.1546357373,-0.2496597191,0.2872836317,0.4476983453,0.6408781674,-0.2876557636,0.0385424705,0.3425055002,0.0409684949,0.3990343989,-0.2124714852,1.1710455495,-0.946765477,0.0323398515,-0.0918224749,-0.0841902059,-0.3600046835,-0.5401683099,0.5762607576,0.3872977607,0.3428772915,1.0087000043,-0.0845284641,-0.7179670902,0.318704222,-0.3238526224,0.1039612886,0.1512873051,-0.8751630267,0.3377974995,-0.161779482,-0.2252406431,0.5779423746,0.1848367844,-0.8227350862,-1.2952884089,0.3198184902,-0.4754947595,-0.1910609909,-0.5340295077,-0.3893093622,0.6907970278,-1.1731291136,0.2939098771,0.4661862352,0.2543268294,0.3546887759,-0.9284988089,-0.4845282586,-0.4751313923,-0.2780899971,-0.7682655488,0.552743466,-0.1893662717,-0.878242092,0.0370759542,1.0362808549,0.5075138804,0.2491362706,0.190129457,-0.1563457036,-0.981013865,-0.0736870898,0.4233833059,0.8674681784,0.0027265654,-0.34628269,-0.0868770277,-0.2735406142,-0.3638816508,0.8667564113,-0.0280067023,0.8708168995,0.3498383112,0.1295260307,0.3666031944,-0.3670261802,-0.2038594512,0.2920789925,0.0344187431,-0.2365001726,-0.5165047032,0.0294116653,0.5473057276,-0.1704330653,0.364664777,0.0062895685,0.158875963,0.8354065937,-0.5492499441,-0.3373850069,-0.803906116,0.612038293,0.0865603792,0.5162741749,0.344457877,0.3229000758,-0.2539028929,-0.2757633214,-0.3360621907,-0.0141313095,-0.766333284,0.936202697,0.4997481861,-0.6468920481,-0.1405701226,0.7112038515,-0.1922147335,-0.2587376258,0.0733993807,0.1424276109,-0.2543599209,0.4385960129,0.4882209865,-0.3662786401,-0.0380209844,-0.8462206127,-0.008115776,0.6030893373,0.3889915893,-0.1231973354,-0.3172958039,0.7962215252,-0.2802560603,0.1041448945,0.1646156469,-0.5110984327,0.1960713289,-0.1084204811,-0.3795448066,-0.77658856,0.7343867379,0.0576197459,-1.9439498354,0.0647461818,-0.4837461667,0.0683181057,0.2195780796,0.1672018851,-0.812921777,0.0214228908,-1.0043685057,0.7255901642,-0.193215828,1.0281907568,-0.86822967,-0.7234108354,-0.9244940357,-0.1434824194,0.2894737038,0.9174168432,-0.568726834,-0.2422032936,0.0461050203,0.2047564864,-0.3446393742,-0.4887779293,0.134975406,-0.2112317421,-0.0091836643,-0.7396763137,-0.9300977136,0.3068290677,-0.0212482267,0.3987550345,0.3034798085,-0.2122858047,-0.8993615417,-0.5639367699,-0.1265169551,0.107891255,0.2304795208,-0.7854960233,0.7399432888,-0.6647706525,-0.0487780771,0.8948704216,-0.1077633512,0.0191408431,-0.0993191317,0.2157587986,0.4067480517,-0.455756392,-0.6340017187,-0.8291676431,0.5973216083,-0.3957481107,0.3159718416,0.2016245536,-0.4408549009,0.3517053605,0.0129139463,0.1121554069,0.7358280366,0.1541080337,0.2510862093,-0.4110367031,-0.0349586714,-0.7819181152,0.0011963867,-0.0669605142,0.279063463,0.7385014119,-0.5043654444,0.5294783884,-0.0963167396,0.7032649638,0.8779953587,0.2137473896,-0.0533764061,0.1973761385,0.3369978177,0.1041554331,0.5951050195,-0.4025387286,-0.9966818855,-0.1777198781,0.8237920476,0.1852553382,0.8790030961,1.0829623059,0.7805743929,0.7756274733,0.1139030674,0.0200478534,0.2048358315,0.8829026862,-0.5902735059,-1.0364370173,0.704986577,0.2994674239,-0.5783993762,-0.4005343409,-0.916381826,-1.009076403,0.0051849723,-0.1119098146,-0.2232017472,0.1508067006,-0.4319954533,-0.1979176665,0.0093063371,-0.49301588,-0.6423410202,-0.1967146506,0.7166013227,-0.0486453754,0.004856913,-0.6355221313,0.5473162482,0.3616538307,0.3418164121,0.6108724439,-0.1308229907,0.3685871615,0.8596480106,0.4417990572,-0.1134110363,0.92556214,0.1110412683,0.5611672299,0.2513177216,-0.136542016,0.5813699593,-0.2722010421,0.1097388253,0.3681016663,-0.3484464421,0.3331652743,-0.6341790502,0.1598067014,-0.637580613,0.5535906642,-0.3336252118,0.2200330842,-0.7308513496,-0.0284020466,-0.0615353188,-0.163529636,-0.4592316725,-0.9564422118,-0.0751213864,-0.5943513477,-0.4860093374,-0.2398982559,-0.3020199065,-0.0965759695,0.72868715,-0.7186581751,0.4491137281,-0.4387500197,0.3110607997,-0.2091101207,-0.1538463101,0.0813630774,-0.790394668,0.1362478187,-0.3026332296,-0.3372732771,0.1567618162,-0.4824796765,0.0096005157,-0.4426647507,-0.0856266725,-0.5189579834,0.148189894,-0.4547097774,0.125243377,0.3426029403,-0.5073708376,-0.1492734015,0.4448574914,-0.1078782768,-0.1225817403,0.4355833029,0.5429754405,0.1171553469,-0.4049442005,0.0926692439,0.0995480055,0.2995798926,-0.0483305286,0.6093140067,-0.6365294239,0.8594311135,-0.4505283058,0.535722852,-0.5164429599,0.2811919926,0.689659804,0.4211337641,-0.490395553,0.0093407179,0.0592558026,-0.7941359974,0.1285037092,-0.4272229725,0.1374684915,0.0955228863,0.5481812601,-0.435614699,-0.3617180602,0.2182750119,0.27333748,0.5548867987,-0.8484950172,-0.3806640913,0.1389330346,0.0390923801,-0.2405436652,-0.1930490954,0.1286239676,0.3205605379,0.9385797563,0.0767161623,0.0785766931,-0.8670770376,0.2448913704,-1.0277522007,-0.6395232428,-0.1132007129,-0.0790251614,-0.9969637894,-0.9342012183,-0.231632371,-0.113881262,0.759486191,0.8873930821,-0.8504954493,0.0368121258,0.8380996744,0.0996312479,-0.1376128095,0.0765270264,-0.2285580942,0.7263166389,-0.3266675624,-0.4377508545,0.2725031448,-1.1119110955,-0.9070138629,0.3029865699,-1.0426057604,-0.2028866591,0.4108609225,-0.3028119198,-0.4159916551,0.0401457104,-0.5935916181,-0.222081619,-0.4911189581,-0.8633946662,-0.0312821251,0.5694371829,-0.4141074623,0.4736206749,0.1223628211,-0.1229279809,-0.8377331463,-0.6424492514,-0.5552139465,-0.7247004601,0.1186433734,-0.077818997,0.4064632037,-0.6074727756,0.0520913596,-0.2485591166,-0.4019957428,-0.5458783865,0.0178871755,-0.2961052285,-0.5987149562,-0.3932770542,-0.6141246093,-0.4229643381,0.2837645574,0.3677326387,-0.20113311,-0.2431950939,0.8376111951,-0.3972207989,-0.413864882,-0.6298803064,0.3184836084,0.1048954675,-0.117989367,-0.6334657929,0.174842251,0.2114616132,0.8552531935,0.7751758754,0.6720852605,0.1365004637,0.1051361807,0.3627901302,0.0733671974,-0.2470061042,-0.8442710545,-0.1045169169,-0.8634453162,0.4939893485,0.4615923822,-0.2255568179,0.2960567882,0.0610100978,-0.8267012637,-0.4345949957,0.1112491598,-0.4729721418,-0.7992929248,-1.1972494842,0.2939111629,0.4458609998,-0.770705294,-0.5440594571,-0.7745099745,-0.3281837541,-0.9216454017,0.9458675653,-0.0210255287,-0.9564326609,0.9826623729,0.3936797456,-0.1544097968,0.9188460629,-0.9215296452,0.3253330473,0.1240230178,-0.430630949,0.0795372091,0.3176372364,0.133384027,0.3968151132,0.2770880957,-0.9983494883,0.0221042617,0.450811998,0.9128174719,-0.8926922349,-0.523029181,-0.2136184285,-0.938592221,0.165929418,-0.9151231,0.9053689806,-0.2035029929,-0.7024627224,0.3067763205,-0.0236930199,-0.204527551,-0.2633956775,-0.1463542739,0.213653777,0.7336998626,0.0371626005,-0.4856659053,0.6162681599,0.4132349297,-0.2263871349,-0.5402582095,0.1380352808,-0.9178088237,0.7911984131,-0.3104931376,-0.5995798942,0.0567022551,-1.0215606198,0.4004679443,0.1875865128,-0.1270862639,-0.3199413448,0.3538165374,0.4549007079,-0.4965341643,-0.4059132216,0.3923908254,0.6375574588,-0.0828247733,0.1985952554,1.0321919215,0.829042978,0.0917212002,0.1415623507,-0.8663154828,-0.7086481033,-0.1839828089,-0.231110015,-0.679719635,0.7627237689,0.0164721445,0.0256637806,-0.5010421168,0.0159868998,0.6795813518,-1.0154777115,0.18704293,0.3470937299,-0.2135707858,0.2688046346,0.9518599397,-0.6477172599,-1.8936690126,-0.5223198224,0.1191097289,-0.0320097342,0.9917945333,0.6094744689,-0.1601572487,0.6950874492,-0.6782250253,0.2944356808,-0.8362129815,-0.2866586674,-0.3169430436,0.7886296565,0.5028515584,0.8850170896,0.6539424,-0.0512437906,0.0719059245,0.0464482081,0.4178297292,-0.2261719854,-0.3596205982,-1.1801964326,-0.4088144142,-0.0050551881,0.8343073843,-0.2983675935,-0.8347114782,0.4430121955,0.1829503087,0.1262019117,-0.5834277208,0.1134186958,-0.1268397138,1.0015878879,-0.3365032025,0.9573553546,-0.1571262626,0.4987683083,0.8203671779,-0.5248977007,-0.5383669233,0.7681580094,0.7844906786,0.5707881651,0.5260115464,0.0806196667,0.0938390569,0.0937776117,-0.1206870713,0.6483236126,0.9788247656,-0.6299373306,0.2421690452,0.3852832733,0.1040008894,-0.2914583688,-0.5969089426,0.0074451306,0.2636216562,-0.8336737431,0.5659083559,-0.0802324674,-0.6583062241,-1.1379919185,0.0559262593,0.1707602485,0.064555173,0.3658790846,0.8344585892,-0.0829210815,0.0507575057,0.2078318154,-0.4190215886,0.3214119868,0.3317483977,0.0948461238,-0.0864997725,-0.4169409582,0.0086102151,0.5072747656,-0.168817798,0.5251608023,0.0777198129,0.7219589368,0.4620790039,0.3886918967,-0.0437504846,0.2863964942,0.8033441639,0.5329805753,-0.4590836364,0.1398760543,0.2555821385,0.4515744772,0.4223732747,0.4671825127,0.054598848,0.7906794376,-0.2599814148,0.6850478661,-0.1278637791,-0.3146869075,0.2379531795,-0.4734536026,-0.1571833861,-1.0231048219,-0.52056891,-0.4004356103,1.4726038425,0.5111111685,-0.4428181261,-0.3393855736,0.7604958949,0.0430838321,0.2338093492,-0.1305268781,0.1784985962,0.0069390009,0.420222408,-0.1175300507,0.1992409598,0.7627905227,-0.1195873449,0.6912433235,0.2219072385,0.2465033652,-0.5291369737,0.9244154163,0.5428394181,-0.6283999943,0.5653675171,-0.840017716,0.4803546953,-0.790381024,0.1737923927,0.0905586473,-0.705592091,-0.7163451254,-0.1901885866,0.5436796202,-0.032636906,0.0573318272,0.1871843725,-0.4376119796,0.8345315971,0.8139171708,-0.1670988249,0.2402979306,-0.0576256368,-0.6895525682,0.4328771936,-0.367417456,-0.368277921,0.2123212156,0.5369459447,-0.6840291935,-0.905042298,-0.0413812824,0.2880660282,-0.7998830485,-0.6967922747,0.1574515108,-0.246584323,-0.6194783774,0.3324688444,-0.1434693157,0.5649701035,-0.2298022127,-0.0017959498,0.8885639194,-0.2414078422,-0.2255755952,0.0660324057,-0.6742738969,-0.2739366857,-0.2202662353,-0.1532337968,0.1193170753,-0.9115851655,0.59502981,0.8781676211,-0.3831525828,0.2476496389,0.4696737986,0.4940564912,-0.3824086408,0.6936407091,0.6322193564,0.9046943511,-0.6812995769,-0.3246233048,0.8245768043,0.1177315638,-0.0053150691,0.4802798383,0.5471351353,0.4509824963,-0.7318653347,0.4476656391,-0.4023284344,0.5891859937,-0.092295294,0.6091179716,0.275311892,0.6184701153,0.4028612364,0.892126558,0.2956633964,0.057199309,0.2469791325,0.241188498,-0.4576169405,0.8054970856,0.6745364503,0.7641970868,0.3621583012,-0.4804172593,-0.2974096803,0.7315353181,-0.8633661929,-0.8929279372,0.8393277692,0.4573422531,-0.1054652744,-0.1758334652,0.3195486874,0.2144326518,-0.6478494866,0.3079181856,-0.0959530543,-0.3157812776,-0.1792976066,0.3827440917,0.852574162,0.3041335849,0.4672656189,0.3687117191,-0.2317884671,0.3026129183,0.7497857467,-0.3353607261,0.5049376032,0.600344187,0.5301924613,-0.2970464783,-0.0794523532,-0.8475019716,0.6114677987,-0.0688885012,0.5066446466,0.2401473119,-0.3797700646,0.6872695758,0.353485138,-0.2733930191,0.6204313993,-0.6591067848,-0.6392991441,0.2564911899,0.1590707946,1.1291580355,-0.7625419586,0.0705597275,0.2934510889,0.1954723515,0.2801879017,0.5054488104,0.9149304753,0.0217195452,-0.6833833204,-0.3902135611,-0.4241237774,-0.2969511324,0.3859137443,-0.8727726285,-0.2181813378,-0.8226665494,0.0035281959,0.1342171782,0.1046193871,0.152407691,-0.9565062377,0.6625011481,-0.0081010025,0.2324401889,-0.4045535433,0.3487469346,-0.5144637965,-0.1539516554,0.9097105581,-0.5942751794,-0.1642983359,-0.0067750575,-0.4973882477,0.5881688852,-0.3769437776,-0.4506345705,0.8899726938,0.8089180293,-0.8718893033,0.7282276205,-0.1060702896,0.2101104732,-0.411987318,-0.1929985381,-0.5906574087,0.0015899472,0.9482698935,-0.1071424924,-0.4865993947,0.0941559811,-0.7227688109,-0.2522689662,-0.3694724988,-0.2975901187,0.8635901081,-0.2856138652,0.1235154715,-0.7513413981,0.6736314634,-0.2534976165,0.485808806,-0.8830110889,0.8344699528,-0.0632971332,0.1046267068,-0.1397816453,-0.5545426719,0.1495692115,0.0968467621,-0.5202220729,-0.8395207471,-0.2360023462,0.2085106436,-0.0421599003,0.3804724067,0.8776625946,-0.5390760477,0.6596995242,-0.1355729626,0.3436040696,0.8163746302,0.1352123742,0.170853683,-0.7331905328,-0.3676037884,-0.0376796665,-0.1316936518,-0.4776187686,-0.0153264915,0.32251173,-0.1383285009,-0.5620740237,0.404668581,0.545999848,-0.0419526297,0.2570332865,-0.2583590928,0.173800485,0.2211084516,-0.1072861606,-0.2948603221,-0.0818163804,-0.6601014114,0.1686914308,-0.5662961265,-0.158496267,-0.1038272269,-0.7196028934,0.2855495859,1.0145566092,-0.4571947657,-0.0619412735,0.0140744059,-0.4380982123,-0.5727511508,-0.1286593976,0.0614822147,-0.1328391641,0.4150896698,0.6502729921,-0.2278917243,-0.9320981,-0.709065723,-0.6346941573,-0.1491975353,0.4500330981,0.2871816424,0.5517497644,-0.1565269868,-0.461578298,0.0976084062,-0.1258257077,-0.4816841442,-0.4772330498,0.0765227436,0.7585683062,-0.0796841982,0.009900232,-0.9316453385,-0.8300544546,0.8254227343,0.5044235084,0.2453372874,-0.0073785579,0.7291810996,0.0988955052,-0.3477919095,-0.7016319493,0.1986740799,-0.0103027087,0.0297347497,0.3416313832,-0.5488781413,0.0714455698,-0.5081590817,-0.5650445112,-0.3339041915,-0.3080286448,-0.7390656966,0.1387353269,-0.832632012,-0.4276160912,-0.1868723475,0.431322064,0.9981834764,0.2643075586,1.3089249644,0.1084270925,0.3201671879,-0.7089000715,-0.5055050266,-0.8086239673,-0.4793280421,0.0751771076,0.0915762808,-0.0302049399,0.8842632971,0.0134992517,0.6206390442,0.4521604494,0.6571665704,-0.5902062601,0.881330934,0.0520050706,-0.4627969982,0.2163125004,-0.1285367723,-0.9234828256,0.0523924103,0.9716791806,-0.4915181601,-0.1051947788,1.0544705305,-0.1079093654,0.0719821983,0.1651540407,0.9657325362,0.0564729725,-0.1856042421,0.3613045412,-0.4991051328,-0.5817112318,0.2093528929,-0.9216326453,-0.4020579988,-0.2533809724,-0.3652285567,0.5249226454,-0.0675572115,0.7697837159,0.2702303772,-0.0789075875,-0.0350727381,-0.3537735975,0.0076580545,-0.1665213083,0.1443836992,0.0298950597,0.2774536235,0.0350202099,0.368736643,-0.1582800977,-0.3725966091,-0.1453679894,0.2870818453,-0.0265272708,0.3401669077,0.4252304882,-0.3097707197,0.2978179743,0.2294425796,0.4148198594,2.4611307542,-0.130650861,0.3851230559,-0.809922853,-0.3746972049,0.4071819712,0.1657716393,0.0877491986,0.1293876739,0.340229113,-0.6948274788,0.2730648874,0.5053439638,0.2851384149,-0.2848524882,-0.1172916172,0.0924883703,0.780744984,-0.6290078025,0.3259074949,-0.1840205165,-0.4310642224,0.2094689384,0.9424493804,0.0995497864,-0.2054977467,1.035012955,0.5304621584,0.5500846554,-0.16846024,0.0770179263,0.8387027016,0.9177121738,-0.7920076672,-0.2015985063,0.1514998748,-0.667613844,-0.0428420479,-0.1847603304,-0.4554710508,-0.1823571529,-1.433773211,0.5098070712,0.1783582094,-0.1666938753,0.4010466621,-0.1939787337,-0.8372369255,-0.557687546,0.6977553298,0.1449292297,-0.7756226281,0.0807871362,-0.566397705,-0.6247546869,-0.9154674677,0.6421896387,0.0976658307,-0.7342917275,-0.2974475045,0.0213682168,-0.1509343934,0.6554655464,-0.429218739,-0.3991962365,0.8061824204,-0.1265554508,0.0110734233,-0.1962683319,0.4919681689,0.6504924898,-0.2831794371,0.2497663804,0.3632460681,0.0874473272,0.1286216441,-0.6607501384,0.306950408,-0.2376206004,0.328064021,-0.3198413733,0.0964652526,0.9219819521,-0.073584034,0.1131518226,0.0730626891,0.6859220823,-0.0109922678,0.2434022834,-0.1043288339,0.6409690085,0.1297061517,-0.7901708887,0.9393417625,0.1915335482,-0.21445331,0.8938563801,0.410897973,0.0611553161,0.4624419892,0.2810382044,0.6518869446,1.0068672724,0.8760554503,-0.3378932258,0.4402394165,-0.6535664956,-0.5709220277,-0.3407804368,-0.8454342055,0.061724214,-0.3454613872,0.0049866203,0.1281219585,-0.3739255918,-0.3291202251,0.3386596264,-0.0270778135,-0.9465154145,-0.146464511,-0.6854108003,-0.7751248874,0.4809983533,0.6287385896,0.2779168809,0.0743191557,-0.2117537209,0.6720707277,0.2152850961,-0.2136449297,-0.1186446051,-0.3886799583,0.7185425999,-0.0829164766,1.0353996984,-0.4283379955,0.0248969049,-0.1417115554,-0.754488086,-0.2289663563,0.3135728805,-0.3248112162,0.1914017024,-0.8116363397,-0.7878484284,0.4402529124,-0.8325116017,0.8472300957,0.3745978516,0.4681016717,-0.8486505587,0.9519195994,0.6814996504,0.1044569825,0.6687650558,0.1031283646,-1.0049520731,0.1969010603,0.1604258879,0.7282057376,-0.0289752153,-0.1839011524,0.2928358952,-0.8311514719,0.6137984237,0.4714442931,0.2270562443,-0.2245959052,0.4454915132,-0.2084811366,-0.4658250264,-0.0172641893,0.1708905191,0.2307705567,0.0597216307,-0.1398634013,0.8092826132,-0.1202894036,-0.7072210919,0.8346558686,0.0151124099,0.0064704911,-0.5714135638,0.4475166112,0.4379152542,1.0139132738,-0.0163627326,0.2226004416,-0.5392883949,0.1058217437,0.7262920863,0.7766623063,0.3890990286,0.461614885,0.0960746821,-0.1555860328,0.0807234701,-0.4022456706,-0.6419224288,-0.0968243779,0.7891685787,-0.1075063053,0.3651994511,-0.4517384071,0.3217389729,0.2341979101,-0.1368471151,-0.1168201296,-0.2719929746,0.5371078677,-0.8125601918,-0.1045368549,-0.0485768592,-0.7885581693,0.1070246571,0.4765453993,-0.359123676,-0.26199395,0.2387351461,-0.3634130167,-0.077761235,0.8810136736,-0.570030098,0.3649288596,-0.5474387361,0.6632378505,0.8652750544,0.0089287145,-0.4522259445,0.8914433756,0.1493673274,-0.3761764259,-0.668751502,0.750464379,0.0037910114,0.6959581673,-0.1483374433,-0.8515047881,-0.176286225,0.3754761584,0.3823450162,0.4127962547,-0.0728739765,0.2932657927,0.0588602809,-0.1654934308,1.13127986,0.5923801323,0.0884167935,-0.5860721775,0.0544782095,0.6260992096,0.0246929055,0.1577482072,-0.0702248663,0.5783534274,-0.1496364396,-0.7663706997,0.1658111589,0.5162472364,-0.7836810544,-0.1578619341,-0.2742335152,0.2623418216,-0.104734037,-0.8342545871,0.2858148526,0.1755376107,0.2380001701,0.8279665573,0.3839789093,-0.5075109625,0.6664320896,0.4227691793,-0.3528278986,0.3458851102,0.2000999335,-0.1797898703,0.0157694119,0.2733521657,0.7321783491,-0.1359627031,-0.1024857869,0.0245676154,0.0195446534,-0.072994986,0.5565199926,0.5957817786,-0.4063144795,-0.1348730376,0.680594193,-0.8703227192,-0.1466791966,0.1387840927,0.1710100144,0.5052273788,-1.0352240958,-0.1730296663,-0.6976546385,-0.6415383337,0.1713753833,-0.4054684776,-0.135862623,0.2992044428,-0.0035325502,0.6960376819,0.59554537,0.5546335087,-0.0475399762,-0.2709349081,0.433004322,-0.0629882589,-0.2959236812,-0.1435698528,0.6998184036,0.5821542429,0.2545790997,0.4662792254,0.0063925685,0.7526119854,0.2670019273,-0.2410633174,-0.7781038961,-0.1658708583,-0.4016235308,0.5152189571,0.4660705604,-0.3616442869,0.3547058409,-0.8188156423,-0.0706608253,-0.2374707113,0.09981839,0.0931681214,-0.3547433863,-0.0782727362,0.6591859465,0.4371669079,-0.0965688031,-0.3367938458,0.2546890734,0.7495224837,-0.2516838477,-0.0060284474,-0.3579175704,-0.2601344826,-0.1695711662,-0.5821618702,-0.6271149357,1.0690419884,0.7138889409,0.8549700144,-0.4485804993,-0.1534178141,0.7151305726,0.2788787873,0.2406167244,-0.1029593638,0.2416886262,-0.1541913059,-0.0990251564,0.1898650559,-0.6048978512,-0.8158410831,-0.631838069,0.4863340396,0.2313961113,0.2726313922,0.100057857,0.1948331526,-0.4343212359,0.1866189138,0.7500742853,0.0203430493,0.6967844212,0.6256480004,-0.2738293761,-0.0844488899,0.3419817106,0.2279004619,-0.2916071274,-0.5755408676,0.0474297411,-0.6486243537,0.3239919014,-0.0444928945,0.2703441751,0.6938547816,-0.3876604598,0.5704817114,-0.8277365311,0.3431403322,-0.1545383223,-0.4664631185,0.4143115139,-0.1120964231,-0.5762811108,-0.3615326382,-0.178132904,-0.2563690332,0.1691866634,0.0831820113,0.9560044115,-0.5087349114,0.3520696269,-0.152722416,0.4951759431,0.0229666248,-0.0396403966,-0.0356518781,-0.0387999742,-0.6645712137,0.6146207106,0.1038922395,0.7568030389,-0.1382593001,0.0099560693,0.3267804893,0.7083966347,0.3056192631,0.3333105848,0.1785315714,0.4251340764,-0.7987815684,0.4839790809,-0.1110462487,-0.7688611564,0.0080483058,0.7005553965,1.050361814,-0.0003625339,-0.1270628797,-0.1855426884,-0.0398087362,0.6882216282,-0.7278761675,-0.3062556676,0.6893688762,-0.4495859408,-0.0458461083,0.7735286714,0.8268497352,0.1193372615,-0.2863892145,0.2175062243,0.0559445622,-0.2164929915,-0.2069197739,-0.3435154971,-0.2215456224,-1.0605767171,-0.1045307098,-0.1461339481,-0.544989282,-0.7537809181,-0.0954686475,-0.2589641038,-0.4733373975,1.5169842216,-0.4819781171,0.4592197088,-0.2278538955,-0.5977307835,0.5464905997,-0.3909468381,0.1867821525,-1.0753273751,0.2654852859,-0.5930443494,-0.6539130714,0.62220832,-0.0439228798,0.0566399416,0.1445557916,-0.1954918117,-0.0084446453,0.7221534384,-0.2151431736,-0.0846914204,0.7011022844,-0.1076984363,-0.019719276,0.8762561989,0.8722603223,-0.0608700594,0.0780477483,-0.4394753559,-0.532042572,0.6806248585,0.8096461303,0.8305763484,0.4727377212,0.6314615278,0.0969991552,-0.9894336124,0.1454446201,-0.2818662696,0.4292656974,0.5075538784,-1.093998554,-0.6035611661,-0.0692876033,0.23184662,0.6419524665,0.2300682609,-0.0194022167,0.7215855993,0.1478189843,-0.2553678682,0.0288972898,-0.3953447285,0.7867845389,0.2807074914,-0.6918651758,-0.0208185038,0.6496880496,0.3526642138,0.4577964995,-0.057967246,0.4646692029,-0.1696951752,0.0593282049,0.696757526,0.7330560789,0.2117692861,0.7030287249,-0.0937507974,0.0406138202,0.3382516563,0.1303276936,-0.3144977624,-0.2279098179,-0.8667349522,-0.0322832157,-0.4594147014,0.2333507476,-0.2890965035,0.6534548682,-0.2657256416,-0.2716789054,-0.199273631,0.1503610593,0.1580716252,-0.0317263427,-0.0896269294,-0.5107076221,0.877995213,0.0224151204,-0.2491014218,-0.4835343674,0.5819700236,-0.4944793911,-0.5155108934,0.4556322516,-0.3387524219,0.6721171369,0.3788000842,0.7175788837,0.0917555376,0.7232450263,-0.1621238024,-0.1854245853,-0.5114273027,-0.0372428441,0.7889147442,-0.1329658567,-0.8099259878,0.2094588363,0.2716100909,0.0981349295,-0.8988085691,0.0268745194,-0.9023368933,-0.424619355,0.1025736736,-0.0575857568,0.9252821808,-0.0765446931,0.7484844919,1.0377758472,0.8137174113,-0.8275171098,-0.5575803807,0.1839173744,-0.3837603543,-0.5806445889,-0.6632694717,0.2745532802,-0.1249375895,0.3530590778,0.2660545269,0.3894331944,-0.8346155237,-0.2857125491,0.6179302919,-0.1289776925,-0.3587010559,0.4577016177,-0.139269844,-0.6115928322,-0.5463203623,-0.5034580902,0.0429522272,-0.0325470776,0.1057276848,0.7275993024,0.7100371629,-0.020444154,0.8518122006,0.8464013235,0.1461787046,-0.1983521461,0.1162116007,0.5668730147,-0.0380519519,0.2384659618,-0.2615349597,0.5671407928,0.0677004418,-0.1124132595,0.5181298848,-0.6735158579,-0.3355333811,-0.1252000841,0.8203392931,0.0862253772,-0.1792287054,0.2187397394,0.4163737515,-0.0945588023,-0.6198778039,-0.3371549653,0.5932641957,-0.4069786356,-0.4026602901,0.5261634817,0.4253831441,-0.9420001851,0.1366640475,-0.8177688882,0.0233866743,0.0236772744,0.0936187916,0.102685207,-0.4554776431,-0.2591378815,-0.8523209547,-0.1847678598,-0.070964783,-0.1412952599,-0.3524942305,-0.2381228612,0.0167394015,-0.7602494162,0.402202512,-1.0642486761,0.2130596385,0.6411847673,-0.0685554957,0.3388776809,-0.7343108872,0.6255184749,0.0808123391,0.2390350658,0.472708834,-0.1396795067,0.7930172579,0.2557698857,0.6581053342,-0.2910864337,0.2997723348,-0.8880124434,-0.2815864659,0.0403118952,0.2454347003,0.0419297468,-0.0877008313,0.7377361636,-0.6862214636,0.6039476366,-0.3642461458,0.490357568,-0.1088219525,0.0828024057,0.0295539877,0.5558377506,0.6206303447,-0.9821771212,0.0034131558,-0.9866201007,0.6710951894,0.8145166973,0.0700809841,0.4454292349,0.6126259367,0.2559678824,0.264008843,0.8509591738,-0.3575861772,0.4207765371,0.0224635555,-0.2814395456,0.3161516489,-0.3231552503,0.244761318,-0.1676462504,-0.4562722868,-0.7398367402,-0.0657564767,0.5526253537,-0.2421591496,-0.6669647831,-0.5317838681,-0.2992793887,0.1506329844,0.5134717278,-0.8415828566,0.5891067489,-0.0184248147,0.3760186097,-0.1565030277,0.2820807983,0.051617167,1.0944130251,-0.3783890044,-0.3912273157,0.2216678629,0.0298637389,-0.2783068158,-0.4531365382,0.7556868728,0.0099933761,0.0139348205,0.2629818598,-0.0210947137,0.3382063626,-0.6287087974,0.6053417752,0.1339571177,-0.0144172213,-0.4866672492,-0.2829225127,0.5484816502,0.2866011462,-0.5943311936,1.1012216043,-0.0602089549,0.1479626026,0.2529390498,-0.0523933913,1.0286496252,0.7189880039,0.7945737042,-0.4688914165,-0.7184659295,-0.941204531,0.7270056236,1.0179755351
   -0.1243086148,0.0283875881,0.0937202335,0.3338289076,0.1652848201,-0.0244257982,0.4259549865,0.3232435004,-0.1016354223,0.4029578071,-0.5900684603,-0.0173994687,0.296131182,-0.844415761,0.9426729315,0.325474719,-0.064652587,-0.18515987,-0.2104414451,-0.1920488768,0.3268700797,0.2169607759,0.6660483563,-0.0619098012,0.636487722,-0.1669235024,-0.175506924,0.5303586773,0.3145666609,-0.0993193149,0.6963475872,0.0645943213,-0.3517738657,0.9199500168,-0.1361823073,-0.4044004011,-0.1770866574,0.3668269285,-1.0330988044,-0.3083189522,-0.0158907689,0.0224357142,-0.2989203645,0.2318027578,0.8773629827,0.1194110367,0.0116963902,0.0230404615,-0.0189287525,-0.0319563933,0.4925639218,-0.1479733805,-0.1517298677,0.5564659273,0.7839943918,-0.1581599266,-0.1648984807,-0.0615398628,0.1225771801,-0.2151786677,-0.0605609375,-0.9834008404,0.031998167,-0.4228141886,0.5875999328,0.9182650096,-0.0343576259,0.1098465606,0.2953421498,0.6344069857,-0.261196859,0.1339507315,-0.0930980426,-0.8602915205,-0.0018837964,0.2347647959,0.0755615126,-0.8227892713,0.1917450124,-0.0152010352,-0.6866308019,0.7554636897,0.8756549952,-0.7041548709,-0.0043310487,0.1955458805,0.2669592773,0.5666851906,-0.5227187118,0.2294458475,0.4573202614,-0.4076921604,0.0633508881,0.8383414523,0.0790379756,-0.4466181688,-0.4349024191,0.1206744007,0.1296631768,-0.157794702,0.4617152456,0.845044019,-0.1794210648,-0.0879669214,0.2633855647,-0.1920584412,-0.3300135363,-0.3852486643,0.2854936502,0.2469716189,-0.8696997505,-1.0312468378,-0.5588957083,0.2995992364,-0.1033714185,-0.297343738,-0.1454931849,0.1854416559,-0.5624907541,0.2167735707,0.8740563629,-0.1688144548,0.5104451735,-0.2618325933,0.1089241555,-0.9049740774,-0.5172087295,0.2485792676,-0.0074052852,0.7425610947,0.1469032977,-0.2412077303,0.7770758948,0.6986213436,-0.0825994668,-0.4996765024,-0.1366303165,-0.7625262438,0.1761382135,0.2622642191,0.3914267282,-0.3452313649,-0.0319770893,-0.0133269112,-0.0546264086,-0.1608380143,-0.5896885127,-0.4888813826,0.9914597889,-0.9333607804,0.2523605445,0.7196841783,-0.407591225,-0.3070066654,0.0158985998,0.0582027783,0.8246911448,0.4764487013,0.6277221552,-0.2410588329,-0.4342277656,0.6367634309,1.0096921335,0.0887934291,-0.8617046658,-0.6623471207,-0.5002851947,0.1639758037,-0.5922625735,0.608145814,0.1645214328,-0.3244194647,0.6655329077,-0.1185232474,0.2889968726,-0.1141664052,-0.1111439986,0.0349168955,-0.1455321868,-0.0677459744,0.5183473214,0.1967071245,-1.0048511762,0.2654249809,-0.0087138157,-0.5542127427,-0.5427962014,0.0650905525,-0.108064211,0.0591506048,0.3473108286,-0.0467547103,-0.0734156432,0.6602831354,0.3809961414,0.1600722566,-0.1375920827,-0.0017574362,-0.2125008142,-0.0711976971,-0.4061322771,1.1092706611,-0.2229038757,-0.7948559762,-0.3832763659,0.0741014937,0.3638619036,-0.8386321966,-0.6249829774,0.1542672664,-0.2806705307,0.4253358034,0.0742100647,-0.0404921063,0.318708682,0.4038756306,-0.266111293,0.2169802231,0.1088808993,0.0925832647,-0.249532081,-0.8601025589,-0.8314775033,0.5182195288,-0.3475385159,-0.497560586,0.4649418252,0.0273735274,0.5178298803,-0.1301804747,-0.7100655663,-0.033037368,0.0510099056,0.5846936277,-0.5491945697,-0.4166165103,-0.1046611238,0.1492724371,0.2976798485,0.9592518726,-0.2396574778,-0.650310491,-0.1857351432,-0.1384457864,0.1168462016,0.9509577928,0.4792375082,-0.5426104739,-0.3596661273,-0.234967494,-0.309270058,-0.2870431277,-0.7340778858,0.2312022167,0.5707440774,0.2745671288,-0.1039073287,0.0253283648,-0.0833477292,-0.2594498809,0.9900080641,-0.5452657354,0.8215986355,0.621205671,0.6583934353,0.3708689499,0.3672955365,-0.2077564728,-0.688000779,-0.4480621101,0.1741097055,-0.2212528721,0.0137467749,-0.0783752512,-0.377900056,0.2539197416,-0.0527232475,-0.028005175,0.2150726467,-0.3409635931,-0.483145627,0.1874499444,-0.0037098964,-0.4433590351,-0.0879269107,-0.794886116,-0.0072355398,-0.4056071648,-0.4577052926,-0.3856328097,0.3043641212,-0.2630985465,-0.3951948192,-0.6052138905,-0.0359224097,-0.9410623557,-0.6558731657,-0.1799333277,0.7987176501,0.1164000576,0.2294798284,-0.1269594099,0.3257065411,0.4989194873,0.3885214423,-0.1903704057,0.1057677246,-0.2868692107,0.0465393061,0.2596024777,-0.3156544972,0.4409646734,0.7149281355,0.4421272692,0.4494084853,0.3480976247,0.3940793971,0.8361417217,0.7539159297,1.0471177188,-0.373619961,0.3128372199,0.3373499569,-0.2431419395,-0.644921143,-0.5664677616,-0.8316693637,-0.0977457082,0.4648437719,0.150294133,-0.2115432834,-0.2052262341,-0.0461695007,0.1831952955,0.6284414645,-0.0310520255,-1.0136332993,0.5587632824,-0.4916868679,-0.7307650793,-0.3077993327,-1.035226459,0.1083562487,0.1429701552,0.2180663256,0.280010293,-0.961260197,0.492362665,-0.206987923,-0.1548297618,-0.4162746195,-0.2230161522,-0.1039252737,-0.2548373134,0.1423696849,-0.2624674467,0.0582123437,0.1175344878,0.6168605066,0.2064483365,-0.6924106591,-0.1413663093,-0.3666590932,-0.3200533235,0.1792667579,-0.1249088788,-0.0275848194,0.2288085987,0.2553877196,-0.6815578496,-0.8045551538,-1.0651034128,-0.3067546784,-0.3186156401,0.0604153373,1.0255217578,-0.8824109924,-0.9137488108,0.0279869788,0.1114254521,-0.1616293883,0.8636833303,-0.2905778284,0.5746427635,0.3420499344,-0.7570580671,-0.7692397407,-0.1235661886,0.052657443,0.4000262459,-0.9435178443,-0.8163471755,-0.5311094896,-0.1685835692,-0.8543008584,0.4909011154,0.4868028039,0.4450140329,-0.9076129613,0.4708403579,0.134197012,-0.2827098325,0.7186427078,0.2865189961,-0.3758345942,-0.2594693643,-0.1509292119,-0.0208789394,-0.0221090648,-0.5017275387,0.7768611526,0.6245321803,0.1675851878,0.4482343409,-0.5139195357,0.0203501044,0.1807057527,-0.2061254771,-0.3717611097,-0.3849551625,0.1085035982,0.0381701064,-0.4509166626,0.6290379011,-0.3262387034,0.7244570709,-1.05013435,0.443889241,0.0860777941,0.2494955891,0.5083406433,0.2562834534,-0.2527535933,0.1249937824,0.0317777455,0.3185508255,-0.0721375495,-0.0631475129,0.3470509735,0.2798199355,-0.5076853035,0.4763754379,-0.42682621,0.5464288755,-0.2725023622,-0.9367329991,0.7109966986,-0.4372312281,-0.2241432118,0.601253871,-0.7676552484,-0.1623164523,-0.9284881735,-0.1596730713,-0.2749438976,-1.0760091163,-0.6723384652,0.1914567137,-0.0972621006,0.1654620572,0.0594134098,0.3659351824,0.7721840595,0.8031177995,-0.2198950725,0.194663861,-0.8221862256,0.054627603,-0.586035407,0.7668252175,0.3091157148,-0.3038004369,0.4130545858,-0.69884354,-1.0660354184,1.0300388138,0.8475049714,-0.204999496,0.374206262,-0.9237796598,-0.4377888859,0.4021834973,-0.4441167431,0.1616724966,1.0400807635,0.2565611946,-0.8813849905,-0.0618512843,0.2247460274,0.409978393,0.5564678046,-0.3616639037,0.2337873721,-0.1924081755,-0.5406010965,-0.1450029802,0.3622996195,0.496809347,0.3419833566,0.442341982,0.4615315798,-0.4506841726,-0.1582125348,-0.1741542281,-0.7015007522,-0.3588454735,0.566364959,0.104436237,-0.13303628,0.0638428003,-0.3716362545,-0.5695862186,-0.4219581549,0.2714845805,1.0967893273,0.5218772813,-0.4258308184,0.8474263629,-0.7636162558,0.3309654495,-0.6366896224,0.313659102,-0.420247881,0.3298988049,0.0376555073,-0.117758407,0.2744147529,0.5819062753,-0.1195621003,0.2523838116,-0.9619969201,-0.6842358217,-0.7435639193,-0.7392420272,-0.144030927,-0.0304640214,-0.1346576922,-0.2040569577,-0.2739662822,-0.7450413484,0.4469877417,0.0873087772,0.6853821299,0.283171534,-0.5116660768,-0.7100089759,0.3358853628,-0.3641259136,-0.3015000255,0.3723130338,0.283440463,-0.9019920259,-0.6957177632,0.1776900759,0.1628377709,0.2301169131,-0.207030021,-0.6861960407,-0.2277580125,0.3012891005,0.0532909567,-0.8974532646,0.5222923664,0.1781264847,0.1817927434,-0.1244677997,-0.2777226323,0.1215647997,-0.3690676951,0.1770172659,0.6354885003,0.5774326993,0.1433647294,0.08946718,0.1325919638,0.166740046,0.1316641419,0.1079560707,0.3910835351,-0.0930555572,0.2198034964,0.4127019534,0.0198033892,0.3814445294,-0.2846551847,-0.201344672,-0.5281627362,0.5325650973,-0.1723370146,-0.2217868484,0.4799248987,-0.1767383029,0.0624070113,0.9544393371,-0.8551208006,-0.6964596718,0.2020700611,0.0924638716,0.7128836703,0.928677358,-0.8003589193,0.4831323573,0.2528671481,-1.0325530488,0.5313122541,0.71548732,0.8301547393,-0.920394629,0.4889623884,0.349412709,0.1811023786,0.443783677,0.1402310488,0.0224645856,-0.0145250916,-0.4742733595,-0.2270213271,0.0871072028,0.6428223275,1.0972737988,-0.0861758149,-0.0147156091,0.440565973,0.1375857788,-0.2562320471,0.0914396709,0.311569727,0.1539558044,0.0143142552,0.261612505,0.4606189862,0.3474522667,-0.3111709741,-0.3205795732,-0.1594945024,1.1032121008,0.5729681415,0.3321166321,0.2415783905,0.6573666683,-0.5606035513,0.1953011151,-0.4815736603,1.0860618855,0.3100257464,0.0795855701,0.203666718,-0.3342386068,-0.458578604,-0.635150401,0.3999393534,-0.2700859145,-0.0052020433,0.1580594375,-0.1692214033,0.5645181429,-0.5821170028,0.5670658893,0.6657624717,0.8678858626,0.4991444958,0.3999836232,1.1882773615,0.0621402638,-0.0785475349,-0.2367732047,-0.1635287916,-0.4280906763,-0.764853597,0.535874968,0.8809961272,0.9030008915,0.9188059864,0.4144125224,0.005244933,0.4318653944,0.0360844803,0.4904062589,0.2831196967,-0.724732259,-0.3313499049,-0.0544355104,-0.5623359546,-0.5732825042,0.661757469,0.1262545528,0.1000868678,-0.4336680439,-0.1969039226,0.3808817093,0.3578992355,-0.2663865055,-0.1348311614,-0.1233074937,0.0465420096,-0.0396307014,-0.0550618839,0.4922882074,0.3242066266,0.1996354449,0.1903927111,-0.5090665547,0.6981388747,-0.2678052778,-0.0320239948,-0.5071823601,0.8340289439,-0.377605492,-0.2068920422,0.1632746895,-0.0516248803,0.8217569169,-0.0540648915,0.4829280174,0.2244361834,-0.9557133188,-0.0796453448,-0.0145830451,-0.2657133446,0.0646574228,0.0042031205,-0.0714475337,-0.1755363449,-0.3424224731,-0.7942894534,0.4680914293,0.6427665315,-0.9519867283,-0.0020523262,-0.0134861221,-0.2291048512,-0.3548974882,0.9109513158,0.0406497512,-0.2337961823,-0.1031235573,0.7012236313,-0.2853738132,0.5605927091,-0.1974613434,0.2631721263,0.5841925772,0.0581615009,0.4487584952,-0.0759905907,0.4701274012,0.6451669038,0.3650398234,0.2227300201,-0.5421702492,0.4062936207,-0.2035249728,-0.182504696,0.0694868693,0.7639764967,-0.2210956288,0.4177351263,-0.3518063962,0.0813902554,0.1164344418,-0.523133323,-0.378878932,-0.152710324,-0.1594846313,0.5017376116,0.3251659268,-0.3279983968,0.0978357644,-0.2155270711,-1.0515519333,-0.0511092998,-0.4380892378,-0.676490339,0.619364493,-0.3354834809,-0.2985092341,0.2088430233,-0.6697804605,0.2743482762,0.1567817736,0.2360793706,0.2384046045,0.0043926205,-1.0758235197,0.1028688449,0.0825488494,0.0014256227,0.7463715539,0.5337884232,0.118386865,0.7247928744,0.0341993063,-0.4929655489,0.0986437469,0.2788449501,-0.5436777643,0.0934028529,-0.3971840923,-0.1916648099,0.0341896571,0.8156039741,-0.1873622259,0.7459975139,0.1285649121,-0.224225876,0.1176858932,-0.4094732348,0.0428380593,-0.6629388242,0.283502037,0.1427589915,0.3010321829,-0.4585664476,0.4041782624,-1.0491942611,-0.4352243272,0.1483867516,0.0736201842,-0.0121053705,0.602457931,-0.3893943567,-0.810058511,-0.0051196666,-0.151217994,0.7292703941,0.0081652722,-1.4022242982,0.2603049571,0.7790013851,1.4607064357,0.7793026138,-0.1047138106,-0.9757701703,0.4541169252,0.2673490296,0.0889038235,0.5691941233,0.5412514751,0.3320414455,0.5331447245,0.0038365121,-0.1071432317,-0.2022741733,0.1549370801,0.4271247256,0.1289351409,-0.572195648,0.1479271659,0.192735961,0.1243591678,-0.513114794,0.1312796129,0.187786018,-0.5502825462,-0.2248009617,-0.2024480424,-0.0947284081,-0.8386128414,0.013450358,-0.2434499141,0.6238306293,-0.8124158672,-0.6368280047,-0.6469235502,0.2555681281,0.8629034682,-0.2559092627,-0.0082165672,-0.2946868304,1.0955626623,0.0303138679,-0.2540267153,-0.2358880169,1.0231649582,0.0043266824,0.2474799534,-0.0999147219,0.0402556652,0.0248889384,0.415746546,0.1337613041,0.3572161301,0.223460124,-0.0674537159,0.4323207035,-0.3440959601,0.3633447577,0.0209062883,-0.1506187349,-0.4563369446,-0.0598021725,0.0948715093,0.7599511981,0.8590245245,0.8470520135,-0.6630588425,-0.0022251571,-0.7954288995,0.1408060118,0.0428603674,0.2253727181,0.0956423666,-0.1795285721,-0.1064448706,-0.306075978,0.3582760362,0.7877682671,0.6501857953,-0.5048818138,0.7973758971,-0.0661622395,0.2983726914,1.0256685814,-0.0584813531,-0.3711689545,-0.3665313132,0.2415815622,0.3190513894,-0.4040356308,0.6984117981,-0.0583888056,-0.021663992,-0.5646826411,-0.1497609888,-0.9268580575,-0.6107912806,-0.3021286733,0.0818729174,-0.6570169161,0.9864810581,0.0905784192,0.7156845952,-0.2139882335,-0.9512046888,-0.4388084675,-0.1632594254,0.5881450474,0.0213568691,0.8715984907,0.1774297574,-0.0833557301,0.1943721402,-0.4623002863,-0.0125950448,0.1511029283,-0.0788771196,-0.0243328832,-0.2429212181,0.2320204245,-0.052654807,0.1299221806,-0.9034067663,0.3946032018,-0.7207727431,-0.1563495284,-1.1211264638,-0.361712942,-0.1844370314,0.0576771695,0.6349382558,0.1532695239,0.3704125342,-1.4345549796,-0.7625775214,-0.9202627071,-1.0883983935,-0.059715232,0.0366172107,-0.1562333549,0.581609209,-0.7777114708,-0.7090113566,-1.1902986241,-0.2811047149,0.1899095186,-0.0403144445,0.3493124779,-0.7954161399,-0.459997877,-0.0816001912,-0.6981175671,0.0771056917,0.0682610934,0.1185587994,0.3706801342,0.4376810124,0.6271103662,-0.1587011478,0.6118928343,-0.0749173482,0.5578400662,1.0945509603,-0.2689118793,-0.6742438323,0.9812638216,-0.9554649415,0.3639569553,-0.0010279001,-0.6744007812,-0.1688693742,-0.2525940146,0.5863800533,0.0891380457,0.7224609112,0.1485529455,-1.1013351114,0.3545380941,-0.316081066,-3.503361415,-0.3422343146,-0.3258409038,0.8269259105,-0.450253726,-0.7151040365,0.5579781493,-1.0255773511,-1.0261720216,-0.7768682551,-0.9477589769,0.4717817233,0.0005231022,0.7087476554,0.3632496929,0.2755129462,0.1682792918,0.7854777972,-0.0335829452,-0.7344557513,-1.0458562122,0.4192572289,-0.6851659385,-0.1780074233,-0.818833309,-4.2487229166,-1.0898849963,-0.6719607001,0.4895606308,-1.1090971715,-0.6206291947,0.3255469478,-0.1374669718,-0.988505645,0.0669123706,0.1940285219,-1.7474401152,0.1396193541,3.7954680533,-0.0150247551,0.2236399676,0.3634117558,2.6271418993,0.1540695972,0.1835356574,0.2278969665,1.17981195,0.1232941929,0.1563438605,0.2170439474,1.3166248542,0.1473829085,0.1703088064,0.1836717679,-6.1667486404,9.8412394749,1.358994231,4.9646494873,-43.8603964062,5.4697006311,-6.7028233328,0.3625571286,-0.9270560061,-0.3440786819,-0.7266427458,-2.2096131265,0.4970259132,-0.6831444458,-0.2449063719,-1.0989768167,-0.9428665414,-0.4844626048,-0.1394421061,-0.8927849991,0.6829198123,0.0822403461,-0.848960924,-0.5006798888,-0.8460449447,-0.4508085155,-0.2644380364,0.1519317267,-0.5501644624,0.6150799427,0.5089290659,-0.1474168072,-0.0775043539,-0.6757005136,-0.364432654,0.0895106914,-1.0264934687,0.6779923512,0.4067615869,-1.0517666217,0.6888330569,0.2148310285,-0.3741570273,0.3125036611,0.7425050413,-0.8098997723,0.2032125499,0.1989324862,-0.0699998468,-0.9832942857,0.5034622661,0.752453548,-0.7109107975,-1.0074190057,-0.6093822003,-0.7661167656,-0.6025254768,-0.1233948499,0.0192651677,-0.7535866253,-0.0947626214,-1.1469986648,-0.3608274006,-0.2399494336,-1.0599077976,0.5766355826,-0.2522633691,0.2531150198,-0.6594626357,-1.0613673992,0.7517942169,0.6695666284,-0.2961590281,-0.1349485777,-0.9230793069,-0.0210077677,-0.7540413179,0.626854378,1.2408917078,0.8104786516,0.4943954861,-0.4584197464,-0.1889262311,-0.5765079882,-0.8470626177,0.3127342725,0.6593203585,0.427436528,-0.0695150195,0.1048865135,0.3412609857,-0.7140485739,0.0292449337,-0.3765405693,-0.7973143425,-0.0302629343,0.7932747361,1.100335203,0.2066376357,0.974902193,-0.4206715556,-0.0667858651,-0.2763302233,0.4837839918,0.2476313485,-0.1960133326,0.5188186977,0.0267497077,-0.4640821962,0.3584283617,0.3922391093,0.4701189745,0.632400555,1.2301236968,0.6302973583,-0.6807947991,0.1186488728,0.4410420595,0.336456303,-0.0824959011,-0.0620527748,0.2196368024,0.4848778353,1.3083094403,-0.8903221057,-0.8786074261,1.0162803279,-0.0919352573,-0.3908611919,0.6624441204,0.8506176889,0.8969899729,-0.2325198876,0.2700369015,0.1187161486,0.2204196221,-0.110800364,0.0655807828,0.260701492,0.4013334328,0.8296615107,0.4759000418,0.4452529452,0.1581882672,1.0679411419,3.8748892323,0.6506309915,-0.1879139635,0.6231827591,1.9035179343,1.0141395412,-0.4889316436,-0.1302293204,0.5366298433,0.1943431016,-0.1957935135,-0.5834482661,-0.3345917236,-0.3120369648,0.5138230013,-0.9459893858,0.1431946119,-0.8935472247,0.0635818428,-0.4881002741,-0.3075730181,-0.6132604881,0.2104862063,0.3050284388,1.0164667188,0.7170076771,-0.3674794484,-0.8279509956,0.6734483003,-0.5415924685,0.6732290712,-0.1613488183,-0.2029670115,0.5426129532,-0.0990047584,0.1054012195,0.7623869217,0.4127061566,0.1085188309,-0.8936116309,-0.8121826337,-0.4064467768,0.6023918116,0.5672475498,-0.1772827799,-0.3052081454,-0.0906395212,0.0219125301,-0.8897405343,0.4407979135,0.6486093089,-0.3670681565,-0.7749355439,-0.3636399898,0.5343038638,-0.5785128809,-0.1901945075,-1.1227565401,0.1995002236,-0.6805756156,-1.0009853494,0.208852164,-0.6102710459,-0.8654327274,-0.9705088977,-0.5032260173,-0.171613414,0.023030586,-0.2856684052,0.0670661587,0.5725135854,-0.3792771378,-0.305849805,-0.8444988075,-0.3542774474,-0.1121676397,-0.8062892243,-0.6598602004,0.6894753795,0.4803127344,-1.1634751769,-0.251442465,0.1863466519,-0.1933336744,0.4984917378,-0.605432582,0.4744248962,0.6336317352,-0.1041529478,-1.102699303,0.7800959584,-2.0487366004,-0.3507151306,-0.7502738034,-0.7613449552,-0.5484463373,-0.326793541,-0.3847566531,-0.6959314084,0.2442803534,0.6970099209,-0.9907865423,-0.3268257396,-0.2701889324,0.6761589349,0.3926215402,-0.5778227595,0.3013990515,-0.0885821662,-0.1133590373,1.0896847108,-0.713028156,0.1507667781,-0.0397405043,-0.7002868658,0.1672321015,0.3871914441,0.0822247921,-0.091317465,-0.2224628952,1.1137483023,-0.6670113461,-0.4616325495,0.4159009921,-0.9529340752,-0.1764017479,-0.5857901884,0.1794481573,0.2139657251,-0.8353409275,-1.2292975627,1.0335126811,-1.1323288941,0.2409999429,-0.3940153711,0.3807253696,-0.2517590985,-0.7710814909,-0.8601588097,-0.051564134,-0.5381702101,0.2314493529,-0.4280330573,-0.3461246158,0.0366765579,0.289976652,-0.6266661296,-0.5628196403,0.0312549928,-0.44642517,0.8308949994,0.5084809113,0.3453321258,-0.6388496676,0.812123664,-0.6286943068,-0.6433064726,-0.9717406307,-0.4249697072,-0.2382121551,-0.9739392837,0.6705037247,-0.3794418015,-0.5588909047,-0.9634476225,0.6930118209,0.7537123716,0.0139403433,-0.073747844,-0.8204733266,0.1775277897,-0.2229643896,0.3124614653,0.4935679056,0.4080149998,-0.7839230816,0.3586399743,-0.8649257457,-0.2154266735,0.7595208128,-0.9532948578,0.0295231897,-0.5932426888,-0.5165603327,0.2456588863,-0.1328688572,-0.1216820231,-1.3756243911,-1.046608383,0.6636916775,0.1535600133,-0.7816441463,-0.763013943,-0.1671367299,-1.1260946841,-0.6784569802,-0.8588182617,0.4758750256,0.1662068202,-0.3427552867,0.1961714939,0.2205230627,-1.0333341958,0.1387857341,0.8115627209,-1.2423933496,-1.0542327592,0.198648294,-1.8048815461,0.4741199246,0.801361557,-0.9480618178,0.3515674066,-0.1937452934,0.1084775379,-0.3956199756,0.025089794,-0.8822262569,-0.4017052656,0.8541740026,-1.7559569782,-0.7295802877,-0.3491366783,-0.9124044556,0.6557559424,0.5735188146,0.5735643009,-0.0658620832,-0.9089035608,-0.7085486935,0.4965922201,-2.5887580395,0.8977450439,-0.2253549786,0.3660970581,-0.5092285442,0.6694631296,0.5550916562,0.8849136435,0.1968970311,0.6555376692,0.665789062,-0.0746794512,-0.1624464286,0.0793407999,0.7699181455,1.2604617405,0.1024051538,-0.7729683524,-0.8867160972,-0.3314112646,-0.0791899372,-0.2549609463,0.6070987142,-0.2618015507,-0.9018280691,0.2100799597,0.6614474908,-0.8983463961,-0.9131109175,-0.2022349841,-0.9092837691,0.4627855616,0.4368103235,0.5526881572,-0.0316274748,0.7335071348,-0.0820409497,-0.4265250407,-0.1169889071,-0.5658373236,-0.2928112787,-0.5985193645,-0.0185932047,-0.8349225221,0.2467888715,0.3016960865,-0.4825994266,0.1650490698,0.0855596491,-0.6921248856,0.0217975097,-1.0635807083,0.5903402994,-0.266542677,-0.0223147183,-0.5377094136,-0.3974465075,-0.7207428704,-0.0074814406,-1.1674702249,0.1153506982,0.1557341626,-4.8410515357,0.6876603731,-1.3861827518,-0.4246592797,0.0552618485,6.1159655169,-0.2775018978,-0.1730204695,5.6690057719,-0.1597774027,-3.2105702171,-0.4607891852,-0.4514891555,-0.7823981219,21.9742130325,0.1045224897,-0.3611912572,-0.7989090142,16.0522976491,-0.252228476,-0.354105242,-0.898922432,24.7119779257,-0.0110402796,0.1829187174,-1.2163651361,4.0096044521,-2.1777370859,0.1055629649,13.9009915448,-11.1796473082,14.4047429676,-9.4119442231,0.2227320213,-0.2625561297,0.0226829628,-0.3801826441,-0.2422382488,0.440809989,0.8892632432,-0.5777058722,-0.7772683069,-0.9132496669,0.0665682868,0.4223256908,-0.1515798121,0.7535866657,-0.3392151,-0.0471690491,0.5578608475,0.9147238097,-0.4290049868,-0.7797238998,0.7553541012,0.863890836,0.2776070628,0.2541504343,0.9273825923,0.2656927752,-0.0907902138,-0.5427939752,-0.5835761723,-0.7915354813,-0.708960345,-0.3172793314,-0.2939985681,0.1445337549,0.6972712884,-0.121317018,0.2933257416,0.1658947961,-0.0307514416,-0.1125228427,-0.3610272082,0.555917071,0.8674161381,0.0485478554,-0.2157350554,-0.5352447755,0.6918818852,0.0011649537,0.8493324091,0.9622742148,0.2987844617,0.3605110478,1.2153917652,1.5104566737,-0.4388312314,-0.9086588815,0.9321580387,-0.5488260101,0.879931561,-0.574765102,1.0609037423,-0.4812234586,0.9185473641,-0.3812795461,-0.2027542921,-0.0128666701,-0.5701253817,0.3754066802,1.2919508511,1.0307043885,0.7141648802,1.0348391072,0.2597920796,0.3304649794,-0.5578720839,0.4199501479,0.7860708067,-0.5237087863,1.3247258706,-0.8379733764,3.1324701354,-0.0196367917,0.7511547158,0.5420166482,0.1711417042,1.4770617363,-0.4067826472,1.3434600939,1.1629874421,-0.9754730597,1.1186079468,-1.3268901833,0.5919092845,-1.1174081483,-1.0379760688,-1.1001697977,0.4305091512,-3.1307561668,-1.2920745826,0.3802976776,-0.5036849931,-4.0394526699,-2.9940397288,-0.3775333398,-0.4260656025,5.929240777,0.2984406147,-1.2758944341,1.736622237,-3.1072021188,-8.3181675156,-0.5086321692,0.1624419,4.4639495499,-0.0179578183,4.1113623198,-0.6659259075,-0.1813622795,0.5680448687,0.6814174661,-0.7570480612,0.8388871321,0.0849654338,0.0912239122,0.5531836539,-0.4034845684,-0.0586738937,-0.6405701486,0.3283753436,0.1420623672,0.6751327725,0.800895956,-0.3907303903,1.0005451905,0.5268417778,0.3538388174,0.0058011743,-0.3152288636,1.0947607012,0.4047915791,0.3944333049,0.6894760124,0.9324348799,0.8670694289,0.5715238378,0.156966546,1.0802419314,1.0739564748,0.1064917287,0.7215390621,0.9826176118,-0.0901386613,0.3063828879,-0.5895826383,0.5915567077,0.1620833218,-0.864791278,-0.7129640822,0.6558975221,0.8390757432,0.8460403969,0.8032632982,0.4736273644,0.1473605867,-0.645963042,-0.0898895995,0.5169360522,-0.3819180024,0.1949597026,-0.3019506764,0.3237128906,0.1060320427,0.4587473885,0.0292478545,-0.575156952,0.4997997606,-0.7393045814,-0.4264784508,-0.0765262816,-1.0168645119,0.0042839584,0.5520902837,0.1657734417,-0.4842681845,0.3539912649,0.3795903171,-0.034228174,0.6379428188,-0.3258611294,-1.0234354242,-0.313608933,-0.7478188705,-0.0862096149,-0.2625599101,0.8050829756,0.2023074257,0.6808216518,-0.4689063546,-1.0023473656,-0.3960049516,0.1834515191,0.5314869883,-0.9931888395,-1.0304853198,-0.7960470187,-0.1646858577,-0.4743924668,-0.8800579166,0.5795413476,-0.1707842312,-0.9444268482,-0.2654334195,0.7269655218,0.1593637404,-0.6966646842,-0.9829442778,0.311076623,-0.0263250417,-0.6998282321,-1.1612323731,-0.9493564852,-0.6684225502,-0.5030047216,-0.7393734767,0.0848184575,-0.3428235434,0.0243583032,0.1953324093,-0.0675629888,0.0050220535,-0.3178943658,-0.6561284384,0.0601055708,-0.2447485725,1.0503700057,0.5230442261,0.464807233,0.127598083,-0.3205969822,0.7006585125,0.4549803173,-0.2840367599,0.2805286359,0.8579730869,-0.3004225011,-0.1539920539,-0.5847150062,-0.5973132727,0.3547512798,1.1508145266,0.3307974897,0.3937212444,0.1276604146,0.6858297222,-0.136747945,-0.0544405431,1.1051290869,0.8465905702,0.840436578,0.8168596506,0.962933968,-0.68510554,1.1400246005,0.3715545382,-0.7076768279,1.2290783051,-0.4533460656,-0.5855372807,0.1050076378,0.1693193575,-0.3966423539,0.667693964,0.28695019,1.069835141,0.5017043421,0.3391636919,0.0032911506,0.7874027117,0.8848137927,0.0935769131,-0.2194798786,0.4101245951,0.7037755522,0.8592589011,-0.4560936973,1.0304263322,1.0540066594,0.9588378814,-0.4915469819,0.7130053966,1.1326299133,0.0338337265,0.264428585,0.8690711514,0.767320802,0.5460005867,0.1480762964,-0.4083215048,0.3602015853,-0.2551343378,0.0921480283,0.0354392178,-0.769475026,0.8683379052,1.2364795089,-0.4392337848,1.1771078356,0.3023182591,1.0459397205,0.6256852361,-0.5109156733,1.188758761,-0.1736605455,-0.2791560141,0.521106464,-0.1596728369,0.9424940231,-0.2303612141,-0.6039140848,0.8654647344,0.039014376,0.0350973636,-0.8474249284,-0.4680095099,-0.3355286398,-0.4859237124,-0.1685977784,0.3231136097,-0.4774662819,-0.6754127163,-0.0180636057,0.7378850757,-0.4819202476,-0.649758485,0.7116938931,0.6021424349,0.1384047806,-0.9083619336,-0.8649868667,0.1831130017,-0.6564369476,-0.7584694268,0.1990397133,0.606553958,0.0424181791,-0.1347085647,0.0019147617,-0.0143239711,0.5267030296,0.8157712811,-0.3813748666,0.4796769385,0.8856099138,0.4426082871,-0.3862471074,-0.8146788311,-0.305861777,-0.3735803301,0.1271664448,-0.4883046585,-0.7510817248,1.0620000162,-0.1657659519,0.3877576804,-0.5920840731,0.1882778297,0.2426308043,-0.6427284106,0.6835974148,0.8363245879,0.9740256941,-0.5347518853,-0.1789786949,-0.6789772613,0.4011990571,0.9218703059,0.501867353,0.7032680739,1.0903708861,-0.1743661089,-0.2717901551,0.5792065851,-0.4209902907,-0.5666283073,-0.1526369373,0.904967763,-0.3300880018,0.7277901173,-0.4421887172,0.1838399064,-0.9669049295,0.8824046657,0.4207332461,0.949228621,0.5102969447,0.6662787962,-0.5767350775,0.2113239192,-0.1311366243,-0.297631437,0.4910542207,-0.6614535346,0.5046631604,-0.1728984416,0.0807116809,0.3577589384,0.0000917533,-0.1092280367,-0.4672350977,-0.8750463676,-1.1093542546,0.6801865139,0.150840968,0.5631749176,-1.1438578762,0.2613927894,-3.5517102055,-0.189158462,-0.724994146,-3.4062397983,-3.2161381573,-0.0347231443,-0.4666857891,0.7257614574,0.243634566,-0.8233485911,-0.0887932659,-1.0671534973,0.2605062978,0.7483510944,-0.714990594,-0.8465155092,-4.4287456806,-1.4018661317,-1.7304822662,0.2677233694,-0.8436781391,-0.8803672649,0.3848862883,-0.2515349227,-0.0037978517,-0.271480791,0.2111116475,-0.9992626628,-0.1357043688,0.1650466299,0.1628661218,-0.4607479187,0.403724825,-1.0842425345,0.6736059598,-0.3475236038,-0.1873155444,-0.1835580691,-0.3440182817,0.4655043965,0.4699502607,-0.1818278253,-0.1585280599,0.7986389655,0.0640512962,-0.0514299983,-0.3619324396,-0.3649425285,-0.7864222256,0.8456948378,-0.1138032811,-0.6509055373,-0.3700639475,-0.4953053439,0.3813994308,1.0843686285,-0.3453818279,0.2841550772,-0.7218068981,-0.7670110881,-0.7675081086,0.9531208213,0.7425105762,-0.7567787152,0.181999508,-0.372168311,-0.014058609,-0.3542971406,-0.6259619147,-0.7458207766,-0.6073249237,-2.6566858719,-0.4486660347,0.3774302288,0.7464607626,-0.085489963,0.701171177,0.1427311186,-0.3746165928,0.199248451,0.6607405245,-0.3434634865,-0.4863508186,-0.1037669998,0.5003817865,0.4293093519,0.9196983076,0.6762946384,0.4911580406,-0.4621411846,-0.4758510353,0.5062856942,-0.3390492406,-0.2630350607,0.6585249409,-0.4267262552,-0.5424841726,0.088368984,-0.8982524054
   -0.0654170139,-0.4069410723,1.1365277453,1.0143809415,0.0865660199,-0.1851660447,-0.5159677997,0.2144995813,-0.4660304091,-0.2661639112,0.1521581775,0.7390890583,0.029930974,-0.81526154,0.8831051757,0.4667566636,-0.4429079535,-0.3777817686,-0.2934845155,-0.029150253,0.9747410761,0.5039100988,-0.1704772738,0.4670044716,-0.3189313054,0.1733102019,0.8760867582,0.5856308582,0.8615784424,0.7161841544,-0.876252742,0.537473688,-0.6409304937,0.7482180911,0.3897016427,0.4704565719,1.0280147412,0.4725471619,-0.1018566607,-0.3245488885,-0.0362154551,0.2713772935,0.9208410359,0.7903689652,-0.3315074804,0.325937987,-2.6964611369,0.3802849278,0.1368791827,1.0970187147,0.9639345647,0.0030507895,-0.1196187053,-0.3291274738,0.2001321125,-0.3803300283,-0.7154582158,0.1972622983,0.5749077124,-3.7007531292,-0.0531148266,-0.2631495542,-0.6300746244,0.1476185764,0.2330070145,1.1259680966,-0.7004104841,0.6056176256,0.1135577013,0.9989812011,-0.5047906506,0.0996432437,0.9908886967,1.002826528,0.5097313001,-0.1632249419,-0.912753271,0.477267387,0.2861707621,-0.399998994,0.4425375004,0.9524572909,-0.2976109278,-2.0654702049,0.1086794051,-0.6214560563,0.0162612161,0.0028249056,0.3402280184,-3.4934506579,0.8744851522,-0.1000636776,0.54580787,-0.438345785,0.7020214037,-0.5205812624,-0.3641731899,-0.91580248,-0.1022643626,-0.3700752245,1.071970277,-0.8207365441,-0.4065242231,-0.920380537,0.1058610862,-0.3836613708,-0.3835233256,0.8211408,0.5463258723,0.3868114474,-0.410621389,3.4779596241,-0.2916473848,-0.2374368688,-0.2261129138,4.4548082994,-0.6904165169,-0.3844525631,-0.4113670336,-0.794687311,-0.7407425863,0.1045441554,0.5547836618,-0.8883324788,0.6899862194,-0.7510669182,-0.0394288139,0.6453868767,-0.1254107949,0.4472485609,0.8565402894,-1.2105012748,-0.4312786947,0.8128505686,-0.7271730443,-0.4834074579,0.488077297,-0.4631659216,0.8064190303,0.6323038824,-0.5410285534,-0.3689638111,-0.6712626228,1.1613861446,0.3834106384,-0.771610148,0.3987841291,0.5307879744,0.9966333353,1.3011905763,1.1089062204,-0.8074781584,-0.1689578302,0.8769523195,-0.7315093612,-0.2481031676,0.4074784849,-0.5702517045,-0.4360669002,0.3143383164,0.8577596801,0.1817677801,0.3276428062,0.0278592865,-0.7128791326,0.4443700649,-0.2151109757,-0.8110838489,0.4647721178,0.8545361993,0.2727897011,-0.7954086492,0.9874816821,-0.0609807784,-0.583351115,-0.5508699878,-0.0592270421,0.9433520779,-0.1979475652,0.4558859931,-0.6129891092,0.2406986005,0.8156951667,-0.4511657763,0.1102096297,0.9336259207,0.918684876,-0.664355267,0.5934622811,0.6402281088,-0.2312316931,-0.2598129444,0.2358002508,-0.4110068957,-0.0565338616,0.6279973201,-0.1828373829,0.4315977925,0.7643658187,-0.1452036041,0.3825989622,0.7530182023,-1.0776944524,0.3929239898,-0.3479827051,-0.5184808209,0.865533501,-0.2128015147,0.229618079,-0.0139684416,-0.2596631299,-0.6760691942,0.8118557439,0.0516260273,0.7528266831,-0.4460811033,-0.1723834372,-0.881206037,-1.157196839,0.2305663285,0.7228188969,-0.672567798,-0.3789615735,-0.1911181834,-0.6154610276,-0.810392406,0.009812498,-1.0140126359,-0.1907593563,-0.3424602287,0.4118532911,0.3947158155,0.5872433814,0.4157207319,0.6971207016,-1.0853969568,-0.9999114813,0.246509429,0.5227406232,-0.5835854319,0.1797268173,0.6540084908,-0.4268250532,-0.6981051571,0.3110598237,0.0226135521,0.3331143739,0.2922294079,-0.556459647,-0.8354922945,0.3628743503,-0.7148629356,-0.8358916816,-1.1029061162,0.1596776775,-0.3298142666,-0.0283019367,0.0924168524,0.6601854434,-0.5754559615,-0.994186038,0.7799798342,-0.3417497924,0.0279200923,-0.5571528215,-0.4386659696,-0.9999275094,0.1325598956,-0.0745418601,0.5306849365,0.4159979556,-0.0798925105,-0.5922294816,-0.3101835331,-0.2625230061,0.3110537223,1.0264813969,0.0999385211,-1.522888895,0.5479861034,0.9373566873,0.2815009763,1.3476800466,-1.7335103392,0.3317242864,0.3824442807,0.961828132,0.2182250932,-0.142533002,1.1427062267,0.1810923615,0.576256257,0.1333276835,-0.1801744957,0.3603948689,-0.762938428,-0.2352520289,-0.2845262909,-0.92033179,-0.4893347644,0.1024630396,-0.8169152926,-0.1425719002,0.6217873672,-0.9582885632,0.5580724452,0.4426741575,0.7869562974,-0.8987464563,-0.189730706,-0.5845317067,-1.0211634541,-0.9377576044,0.0593943265,0.0703767495,0.518673235,-0.6810527073,0.6119182059,-0.1314072328,-0.6948905364,-0.4980777184,-0.3688989817,-0.8979879874,-0.7614019416,0.7483148806,-0.4596230656,0.2685230642,-0.8656656398,-0.9821269764,0.7939766708,-0.2703247471,-0.1194056977,-0.1591943119,0.1292195264,-0.7615739921,-0.649396471,-0.3634574278,0.131478125,0.1388620859,-0.2020597177,0.3120212558,0.2925352557,-0.645707657,-0.7779323172,-1.2212265288,0.5667362089,-1.173570603,0.4781344179,-4.2815606672,-0.5533213918,0.4912864085,-0.4621556884,-0.4906691039,-0.4134579893,-0.3286116484,-0.8441478857,-0.348622743,-0.4657183095,0.0026807533,1.0751412109,0.3828610487,0.1133470585,0.5463319766,0.2179509989,0.4598165957,-0.4945728565,-0.4963151027,-0.0601502552,0.14439622,0.7310100501,-0.0593647872,0.6339595236,0.3630076368,0.5476300599,-0.8593153079,0.9473721217,-0.7150032417,-0.579944948,-0.3414760178,-0.731991409,0.4817082316,-0.3359312473,0.2973727025,-0.0127496733,1.0304083165,-0.8289298228,0.1538030611,-0.3040365411,-0.0358918146,0.1339106663,-0.0425649848,0.7826481679,0.6697777234,-0.8471710266,-1.0163133963,0.6760423746,0.4214847328,-0.4051232987,0.4001392025,-0.3992577069,-0.9407868655,0.210064876,-0.5232918346,1.0417551428,-0.0928096808,0.2224209637,0.1239386716,1.6989412313,0.4215982156,-0.173877382,-0.6461381723,-1.61630818,-0.1070213345,-0.0763387533,1.0829040997,-0.7553762846,-0.2008896494,0.6368629209,0.0805520792,-0.721789945,-0.316367811,0.0397607714,0.9210737823,-0.2502837226,-0.7033372319,-0.7138682472,0.1443176199,0.5489285689,0.002776453,0.5703566683,1.3173300341,-0.0852976631,0.848475719,-0.5246854217,1.0671976582,2.8846641032,-0.1650517853,-0.7948976927,-0.4292465507,1.2525583904,1.1549713847,-0.0009170475,1.0639574785,-1.5380463057,0.6642438817,-1.0213826225,-1.1350067357,-0.782178577,0.81673265,-0.8550839177,-1.3476024084,-0.0487965804,-1.0162031056,0.2310144917,-0.2568257047,-0.4037028214,0.2735670437,0.244139691,-0.0410427145,-0.4063248321,-2.2693467593,-0.782797414,-0.5076212957,-0.985642859,-0.3707623666,0.2857661747,-0.6497004497,-0.8109348478,-12.1567035655,-0.9657492462,-4.2615368441,-1.5730122228,-1.1992139917,0.7992368695,0.5888308164,-0.8170119342,-0.4130705658,-0.6557483031,-1.0143440925,0.2133288694,0.2161988714,0.6257994873,-0.0312777726,-0.4986085743,-0.1165007048,0.1483486411,0.264878833,0.2502269547,-0.3790910472,0.1886421888,-0.9847290565,-0.4001275373,-0.0598657924,0.4196706495,-0.7536362495,0.5411608481,0.648673632,-1.1312426629,0.5295413482,-0.0082551206,-0.838084188,0.1916150987,1.0321684867,1.3055232283,1.2726770435,-0.6041608439,-0.4324822107,0.515815484,-0.3929933497,-0.1936635553,0.5133530393,1.0330350306,-0.1343334043,0.8378959629,1.1900207095,1.0558187534,0.837098512,-0.4955083957,0.5815539691,-0.584828664,-0.161308284,0.1576580265,0.3252406452,1.4253080962,0.1068852825,-0.1869989911,0.5558208535,-0.3258638406,1.0496287713,0.9501676774,1.1980977887,0.1224759353,0.1064908681,-0.5381077023,-0.7738813421,0.1975119699,-0.63151214,-0.6701129998,0.9186690487,-0.9028771016,-0.1929487729,1.0816750801,0.0119132196,-0.19174526,0.5354606189,0.560570007,-0.3239601014,-0.8669556377,0.1502427205,0.2450007508,0.0008319657,0.4155776437,-0.0771060113,-0.4178889788,-0.404875048,-0.1200177424,0.1317531191,0.7660854812,-0.1526411848,-0.9631607364,1.0764196884,-0.3325851361,-0.223731491,-0.8048644818,0.8362873719,0.163150705,0.1381070897,-0.3559262809,0.6949007474,-0.7323909264,-0.3474152981,0.3643117029,0.5133395762,1.1603180005,0.1224011791,-0.2387647221,1.0698514243,0.4532994705,1.0863869201,0.7827734361,-0.7334887651,-0.2076816199,0.0347505038,-0.5867254512,1.1083829343,-0.4371915436,0.0681625397,0.6779256097,0.8289169082,-0.9399933626,0.0453146975,-0.653119721,0.078247062,-1.2506432473,-0.6832605423,0.0974187264,-0.7901022863,-0.8967197154,0.2586869574,-1.0104917869,0.1445820758,0.1904602622,-0.1450169855,1.027250844,-0.4337715603,-0.7714793337,1.0949904827,0.7380839477,-0.3574637173,-0.515896304,-0.2589437485,0.0023118226,-0.8250631122,-0.5464919044,-0.3454788776,-0.2094149891,-0.8087237612,1.1391608816,-0.7271087691,-0.4801304273,0.4459994283,0.9339443325,0.6618690471,0.0248468404,0.7760698252,-0.7821757047,-0.415805303,0.6977904306,-0.1180951747,0.4454460449,-0.6137350088,0.0542734522,-0.5518402464,-0.2026189917,1.0766443151,-0.4116761903,0.7742400886,-0.0891471615,0.4210755618,1.0054438144,-0.6971921931,-0.1595981984,0.6370590652,0.0264873545,0.0191978941,0.1767224467,-0.2778560041,0.7676648301,-0.6888635631,-0.8575593174,1.0201170645,0.4381708146,-0.9038933416,-0.4992943329,-0.8148341014,-0.840618246,0.5331790165,0.1064993938,0.6610050757,0.1585983283,-0.7201597342,0.4437654717,0.3822683128,0.8387995226,-0.2202823203,1.053451196,1.136960218,-0.5621109847,0.9708549846,-0.4981063914,-0.089186689,-1.3464625969,-0.4843277863,0.3741934812,0.4271163929,0.8573939328,0.222138605,0.1496744675,0.4070010967,-0.5728586398,-0.4222493313,-0.5838378903,-0.7904700117,0.7592232797,-0.3095805919,0.2596059221,-0.5010941529,-0.306693883,-0.7281410517,-0.6327979397,0.9274154504,-0.8579343088,-0.0202327872,0.5803958119,0.2136525796,-0.5273596404,-0.8005835744,0.278146654,0.2098988859,-0.2655769879,0.7113528546,-0.4325748238,1.087789854,-0.8029510998,-0.6310315071,-0.5490433351,0.2122335223,0.8584508991,0.4901613219,-0.5997752495,-0.6277999562,0.2071109221,-0.1622191215,0.2075937343,0.9123602629,0.9837364141,-0.5050245785,0.2413108345,0.3788791505,0.6918352585,-0.5463001858,1.1167407105,0.5516347088,0.2768962873,0.8854386858,0.7967352094,-0.1953605427,0.9524493448,0.8254690347,0.3353126944,-0.7185518217,0.8695261251,0.8388588681,0.2799212729,0.2177181162,-0.4400244847,-0.3902950526,0.3630130791,-0.0592487694,-0.2823449904,0.4667911678,0.5430248371,-0.3370274617,-0.8987263559,-0.1454545719,-0.8201467228,0.5528506959,0.3808152095,0.7797297467,0.9587865916,0.3792349827,-0.1833165337,-0.3593773645,-0.5718369778,-0.208461985,1.0517096805,0.3534889068,0.6986870888,-0.5074014121,-0.2006583061,-0.0512511724,0.6572103492,-0.62115381,1.1352504507,0.1375006277,0.7117644534,0.3392168718,-0.5531369717,0.6555537746,-0.6269576866,0.8230683162,-0.6908212257,-0.7982580311,-0.5093723038,0.385816658,0.6310626169,0.3744995461,1.0508015125,0.98385831,0.9474490945,0.6900790737,1.1522210779,-0.6162818327,0.3109828889,0.243916683,-0.5156799904,1.1150586917,-0.0180527279,0.1895614477,0.8716285367,0.2124726792,-0.7707174708,0.1438091558,1.0293124533,-0.352325126,0.1214783101,0.5899014015,-0.3256668662,-0.8462235755,0.6562284108,0.0965581057,-0.6096573799,0.2993517217,-0.1482312506,1.1551533908,-0.1965199307,0.3977461154,-0.0417091666,-0.5255175645,0.7190213487,-0.4222132762,-0.549999399,-0.5440033003,-0.402631093,0.5634954106,-0.1753132464,0.5978415726,-0.1972603693,0.6870010978,-0.4512282272,0.8887595513,0.6066735142,1.007731964,-0.2701033053,0.729611577,-0.863930808,-0.4494923122,0.2776838243,0.4475666085,0.5438691907,-0.8183288589,0.1087407613,-0.8939453316,-0.2742994695,-0.8126940574,-0.4785896923,-0.4143694793,0.6739321204,0.6656717892,-0.4367128622,-0.3531638855,-0.7903934158,-0.3711093722,-0.3399241301,0.0120710935,-1.9239435901,-0.0317373961,-0.370903818,0.0947750528,-0.1466325679,0.3764582292,-0.4227118061,0.1697113045,-0.2999720381,-0.0161407043,0.289181903,0.9526741206,0.2982187277,0.2672112047,-0.2111668163,0.9308482752,0.0465984025,-0.089759032,1.0877215467,-0.5905984483,0.6216520893,-0.8215405058,-0.5014485994,0.2870669344,-0.2506172715,2.5474529772,0.7821303479,0.5643956996,0.3979154458,-0.3778042615,0.1817221882,0.0355134902,0.5995016009,-0.7435596045,0.0452390417,0.2996364139,-0.1052034988,0.7835045784,-0.415537428,0.6842386182,1.0492578272,0.4297281514,-0.5777428221,0.7906297355,0.9106610791,0.2495224478,-0.8288437813,0.2440572729,0.9759388333,-0.5424264964,0.7870353078,-0.7075603654,0.775951968,0.5911747105,-0.6999293286,0.4108201808,0.1638152196,-0.4927763523,-0.2396802917,-0.851339424,0.1664827273,0.4695415271,1.3133325249,-0.0526314995,-0.1196582215,-0.3097164282,0.9136611841,1.0846019921,1.295101098,-0.4969047302,0.2942269892,-0.3111076401,0.0539396027,1.0841614066,-0.1043346516,1.0121818114,1.0345051074,1.1091120012,0.6767108664,0.1287915667,-0.1669054028,0.134832133,-0.6764862388,0.8697433876,-0.2439193668,0.7190610891,0.3007737945,0.2280699476,0.796234337,0.6422424704,0.2255842463,1.928260529,1.1364128149,-0.1119185259,0.0144694831,0.1388803672,-2.8889633595,-0.3614460093,0.5196526549,0.0082401303,1.3329454175,-0.4636751018,-0.0216593285,0.3963262448,0.6573900449,-0.5041087411,0.9123196705,0.5266460466,1.2645519328,0.7472818216,0.8934649797,-1.1609635873,1.1381383369,-0.5475036153,1.288711006,0.9996941234,0.8993603531,-0.1032942765,1.4132855335,-0.4336528562,-1.4187580278,-0.032995573,-0.4697803296,0.3748475635,0.4964248315,0.0499406498,-0.0409610545,-1.0440878092,-0.5374202813,-0.972692293,0.0991401789,-0.9008971832,-1.2666366518,0.0804433563,-0.5885329476,-0.5456690004,-0.4771870499,-2.4851157314,-0.2264980248,0.3700878994,-0.2448958555,0.5486941311,-0.9485021964,-0.7512501444,-0.6307090987,-0.1092497941,0.7147965274,-1.2361608329,0.8165792612,4.2337861375,-0.7311356108,3.0874319605,3.5070164385,-0.605558016,0.828792444,-0.8764190361,-0.0078433666,1.1620001139,0.4609563441,0.3094552787,0.5915919164,-0.733663901,-0.3233269863,0.1966271185,-0.5132723738,6.6154462336,0.7252639324,0.877741264,0.1139010849,-0.4147499865,-3.4560498665,-0.2857705375,0.4552222675,0.9193812057,0.5301924237,1.1496690954,-0.1747994829,0.4699387528,-1.4174193103,-0.9995174129,-0.1401148231,-0.374422724,-0.6424879703,-0.4521902144,0.2647733437,-0.1604434811,-0.486980012,-0.5790768161,-0.0248979076,-0.2691228471,0.3647748513,-0.8063235233,-0.9149620084,-0.6279427684,2.7347778833,-1.5944890992,-0.0136512324,-0.7965788656,-1.2437851131,-9.5237488648,-3.2645655793,-0.3041318454,-0.9433394778,0.0024969377,-1.2905729476,-0.0546225638,-0.1154847088,0.0780961171,0.872806826,0.7736396937,0.8163048176,-0.1900615453,-0.544201888,-0.3350863445,-0.4823683453,0.6611972509,0.8435810298,0.2163864997,0.0539494588,0.5016391662,0.7143135546,-0.6461355197,0.2297631763,-0.3366669143,-0.0708994982,0.7298309972,-0.2582129205,-0.5108604973,-1.2730678882,0.5709672503,-0.045189287,-0.3832092256,-0.0294391546,0.2761373111,-0.1178445188,-0.0802912891,0.478468053,-0.543356237,0.6811265695,0.4837498561,0.825295259,0.3031130409,0.8163734303,0.4393225614,-0.1605874857,0.7088676804,0.6342479412,-0.0329489847,0.9027127965,-0.800427406,-0.0176075383,-1.0460062968,0.183588677,-0.695279549,0.6109249026,0.033300964,-0.9619116547,-0.0900751931,0.6441704801,0.5164075656,-0.4396517459,0.5397016613,0.0200887522,-0.9503460622,0.8023599638,-0.4835137314,-0.292296292,0.085492119,-0.5208385854,1.1018687509,-0.0447249245,0.433011362,0.3491657552,-0.3413106035,-0.5066611962,0.553944507,0.0205152506,-0.157944025,-0.704248046,-0.5450114899,-0.7754938719,0.9309314133,0.0968046482,0.7531347392,0.3587128996,0.1140994303,0.3066117067,0.448016371,1.1775490767,0.5609872233,-0.4452720103,0.6243071194,0.8794241918,-0.0948638909,-0.1175966455,-0.6669476302,0.394605963,-0.2859999896,-0.1802199871,0.8471311721,-0.4804993317,0.5804133753,-0.8836699688,0.0477985712,0.1378109879,-0.7357164709,0.7177547061,-0.2166669226,-0.6299595997,-0.8041545294,-0.2504645283,0.5885735113,-0.5544262875,0.9924809729,-0.0980693107,0.3652411323,-0.6267222652,0.5345257437,-0.8174302476,-0.6104469045,-0.4214353284,0.1631630592,0.6130756642,-0.3651201201,-0.7002926197,-0.5954006691,-0.5299579558,-0.4330900236,0.2845662875,-0.2535400959,0.4598268537,0.3400379483,0.1909605551,-1.0959939953,-0.8840614796,-0.859713455,-0.3942269478,-0.8284513569,0.0183431883,-1.0913266259,-1.435630103,-0.0210434732,0.6673508586,-0.8123180191,0.2860100899,-0.7341214679,0.2074821483,0.2013479797,-3.183207949,-0.1761143843,0.9307784753,0.7488792822,0.4181066616,0.2631098655,-0.7771393191,-0.9976343352,-0.7523432568,-0.0932268652,-0.4777222953,-0.390063933,0.0210716048,-0.3561381075,0.1615640105,-0.0312488766,0.5379377246,-0.2295479836,0.1133872017,-0.888134869,-0.1656626166,-0.4854184318,0.0749410744,-0.0261513437,-0.1918006927,-1.1133184481,-0.6300008384,-0.0008128504,-0.3372687449,-0.1757621489,1.0051391347,0.6233906183,0.5003575056,-0.2366971297,-0.8169663309,0.3543322434,0.2329633729,-0.6270633417,0.7976754476,-0.8376940025,-0.9342303658,-0.7112997247,-0.7197833128,-0.2197364495,-0.8094262079,-0.9784945202,-1.1583692893,-0.7581546445,0.7693816999,-0.7572213492,0.1721974783,0.5558751961,-0.5236820161,-0.5685285703,-1.1072486585,0.1012798919,-1.1333890615,-0.5404701648,-0.8970096323,-0.5468497212,-0.8257586379,-0.0642369143,-0.3563961702,0.335275084,-0.9746660368,-1.1100845502,-1.1211486499,0.3723758286,0.3099712375,-0.2541830114,0.0106038105,-0.3963788363,-0.7450543078,-2.7243952802,0.1794208311,0.7026515504,-1.1738457857,0.5660724891,0.1309886981,0.608534751,0.6998173934,-0.0459594358,0.0592673768,0.4345085642,-0.4152002988,0.0087317451,1.3155526914,4.463892405,-5.5204482658,-0.3981200817,-0.0135394538,-0.2420923665,-0.1967286577,0.6580939089,-0.1167225931,-0.5719054303,-0.1882147442,0.5445474852,0.0607482405,0.7502649714,-0.0326135958,-0.9341857782,-0.645171718,0.1412320927,0.5399955759,0.9030220008,0.1146527853,0.89187273,0.2403004805,-0.4544820027,0.794181169,-0.2538337244,-0.2803020829,0.7693145684,-0.464510696,0.1891091499,-0.2963285678,1.0319317946,0.0842756234,-1.0735969619,-0.0086378682,-1.1518985749,0.7666049959,-0.4181654446,0.5516625378,-0.5130023485,0.3221264854,-0.3205825737,0.8974509645,0.786614392,-0.2678418976,0.2506903769,-1.113637208,1.5500684273,-0.3022940086,-1.0467780966,0.577640826,-0.9625138262,0.6596573271,-0.7141961349,-0.0825236618,0.9885020665,1.1671901587,0.567578656,-0.4558498752,-0.357586882,-0.0466188578,-0.568783887,0.7956436797,1.7947184844,1.1072609928,-0.2514797699,1.0000921667,-0.3756702888,0.3261030458,-0.663825931,1.2620733343,0.7469230223,0.9771300997,1.0700834147,0.6813098476,-0.9129111953,-0.4009355772,1.0340814206,0.7003793002,-0.5411489424,2.7924061786,-0.8346609174,0.7745713206,2.444629212,0.6775036351,1.0509037117,0.9946931054,0.2752214837,7.7821667184,0.0007480445,-0.0196033923,0.259699725,0.246784641,0.3011240032,-0.5832812708,-0.1959953531,0.3872647185,0.8300307145,1.0884914922,0.11886241,1.0861271963,0.7893972803,0.5637820373,0.3431646202,1.5479481067,0.0106554705,0.4409028426,-0.1439518392,-0.5331833534,0.6321637666,0.8129783514,0.6788560607,-0.3704372601,0.322650283,-0.0491511707,0.742210639,-0.1893914794,1.6434057026,0.6987125324,0.6867378865,0.1727203216,-0.2748528866,0.4491887861,0.0372764692,-1.0622094514,0.6066642787,0.0792685766,0.4113678337,-1.0800248023,0.8702147535,-0.0235217071,-0.192220784,-0.5745076709,0.1216163127,0.2769285491,-0.8467821139,0.4860451554,0.2800804021,0.4118209112,0.4550826111,-0.5350867227,-1.1495474718,-0.1477172938,0.4774461375,-0.5197474224,-0.944774456,0.0138012571,-0.2151875419,0.3268030968,0.0629518809,0.8372733303,-0.7930679944,0.10694279,-0.6366484389,0.6653946929,-0.6199009009,0.2820289993,0.6577671127,0.8676320049,-0.4468126542,0.0730074349,-0.7358462692,-0.4742700931,0.1780258176,-0.855813212,-0.109563289,0.6217020341,0.4710980603,-0.8102220268,-0.2490155452,0.1292271052,0.5511696808,0.3944552123,-0.4783956195,-0.6530742835,0.1789603796,-1.1170239982,0.6569140893,-0.6388298624,-0.0177033659,-0.6939608996,-0.5150729833,-0.2461479469,-0.5250149058,0.8725745252,-0.6825996312,-0.8391098984,0.6267473017,0.533509377,0.5133402185,-0.9244141428,0.4317020944,0.3138572813,-0.2288078371,0.7340923566,0.2460956175,0.0333903782,-0.0101786138,-0.7686275482,1.0187846813,0.2886633186,0.0547976341,-0.558502723,-0.7826016675,-0.5804979668,-0.6215859872,-0.5754360367,0.1337045587,0.0335309608,-0.7506031628,0.99887142,0.6380788266,0.4093083696,1.170664172,0.0913261086,0.3351009434,0.4315197523,-0.6005387278,0.1726767688,-0.1784319299,0.9753973541,-0.7042263715,-0.3714651749,-0.5976687792,-0.1202789857,1.1680343958,-0.4709253566,-0.3673844272,-0.2997304611,0.0814022724,0.573274007,-0.4103265062,0.1085001017,1.4472929809,0.800963485,-0.3918561456,0.7710313171,-0.5905822764,-0.4204076686,-0.981992786,-1.1223456592,-1.3915989591,-1.1375192557,-0.9501151715,0.1587692972,0.332147593,-0.4073316189,-0.4173137728,-0.3510100643,-0.9400173938,-1.1181563991,-0.8637660625,-0.0988676034,-0.5651499406,-0.016074926,-0.6878098962,-1.0928089521,0.4751809522,-0.7718468509,-0.9558050439,0.1203022449,-0.2852315726,0.2645211733,0.5868526603,-0.9855444797,-0.555229453,-0.1117571999,-0.0562265949,-0.1977900927,-0.8760401353,0.4279351249,-0.9460494138,-0.6560519189,0.8330657153,1.1156434192,0.5974269987,0.0191289883,-1.2923874821,-0.2394524657,-0.4385591534,0.8846508582,0.0093889955,-0.2721072328,-0.2706177004,0.4503930687,0.6509526278,0.9092172063,0.4699948206,0.6606171577,-0.0324773124,-0.1934419032,-0.444192039,0.3572812796,-0.0255659065,-0.3745439391,0.5455017564,0.2400549003,0.6223666352,0.8671724176,-0.0979102215,1.0814670645,0.0390949826,0.2525484619,-0.6018292045,-0.5634948811,-0.6554713061,-0.8281325044,0.6569951516,0.4673860618,-0.0349321193,0.0796732636,-0.8807419007,0.499723041,0.1550221504,-0.4991184052,-0.6693958433,-0.7649459322,-0.5128170753,-0.4201844482,-0.141327462,1.1390710678,0.2972036664,0.0481474725,0.3119563372,0.487999936,-0.0579274999,-0.8304398903,-0.7935823346,0.7274298061,0.535068157,0.1093333857,-0.8517227481,-0.5314622264,0.1548868556,-0.0435485973,0.2333537246,-0.4325194511,0.2101231294,0.1282065331,-0.4833082446,-2.5869995599,-0.3055056966,-0.7569178236,0.1952616912,-0.8476956599,-0.0350887906,-0.2470122437,-0.7897040074,-0.5416784623,-0.3517113259,0.5801248959,-0.7415019984,-0.5917159671,0.3859634887,-0.3079683501,0.1159062957,0.101147428,0.6023888473,-0.5793501153,0.5657455229,-0.1596957259,0.0047868937,0.1103534192,-0.1332609352,-1.4338470916,0.3429656018,-0.7176170873,-0.8589345145,-0.2877652992,-0.3931166879,-0.3844248252,-0.1326088158,0.4925115769,-0.0326212062,-1.1077542255,0.4475621251,0.3188659086,-0.1326161027,-0.6869768781,0.55397641,-0.7986521796,-0.0023090526,0.8857510681,-0.2220345375,0.0472286714,0.5060456922,-0.1347848324,-0.3277567434,0.7286638939,0.6498217534,0.0093389651,-0.7481161487,-0.4301406645,-0.4149026816,-0.6604812837,0.8085180298,-0.2713194261,-0.0497178913,-0.8489366669,-0.1173441139,0.4090666242,0.5759499677,0.0752319872,-0.5818385173,0.0077639536,0.1920909615,0.2661596998,-0.4073743608,-0.7234919881,-0.2679982349,-0.7005763782,-0.6783365336,-0.457513198,-0.1398885312,0.4470176762,-0.4228313273,0.4328162777,0.3427115684,0.1819942945,-0.7919546078,-0.2082036092,0.5021304596,0.172971642,-0.0786516968,0.5945278394,0.8559541039,0.9209148252,-0.2173716946,-0.3118631395,-0.8788139341,0.6468394354,0.6251384855,0.0049736971,0.9104492994,0.1946225765,0.3798149589,-0.0288304311,4.1192478674,0.2534298861,0.2702321145,0.7904130308,1.33239758,-0.1862040343,-0.0782186497,1.0221616777,1.1549003892,0.6794014926,0.2530207451,-0.2513638707,-0.2247129129,-0.157938367,-0.3688170494,0.7044024561,0.6717578631,1.2833501376,1.6161036942,1.4824870893,1.0243804961,1.1819123223,-0.7033825547,0.3140253286,-0.1107212854,0.7434088681,0.3243589882,-0.562127109,0.2774945741,0.3850907144,0.6939520598,-0.3219753774,0.7122067954,0.4464917635,-1.163088766,-0.8528296707,0.1525651104,-0.5349525097,0.3232371672,-0.2851167601,-0.5024666425,1.0009082841,-0.7509717247,0.0631471554,0.629610823,-4.9490983866,0.092416404,-1.6527068596,-0.0771577215,0.7473155061,-0.483098299,-0.8029800756,0.1478714834,-1.028534957,-0.773308283,0.6685574555,0.0223875109,0.5160253986,0.0328611984,0.5271588561,0.127448825,-0.1982812702,-0.1066752895,0.5635636819,-0.2357483833,0.6157417591,-1.1356527735,-1.032994486,-0.5407145349,0.213709302,-0.3493869189,0.5515266758,-0.0022788654,-1.0103650278,-0.1390821946,0.6427047453,0.2899143708,-0.950821417,-0.2982670731,-0.825806852,-0.2316856627,-0.0658327989,0.0674083734,-1.0850256798,-0.3921765139,-0.5980634189,2.3807863968,0.3263666991,-0.2946288441,-0.0001088276,0.3926866493,0.3290339792,0.7334531587,0.4785824632,-0.2077994808,-0.5446881901,-0.6547594538,-1.0485313727,0.2384709103,-1.0398357137,-1.2015598213,0.1276060676,-0.9169945689,-0.6296033537,-1.1199481746,-1.3070535866,-4.1347313194,-1.6527872965,-0.2082391059,-0.9582466219,-0.5285711809,-0.2850112512,-0.2546856551,-1.2161056394,-0.7160582277,-1.1444208362,-0.3455532633,0.1348970645,-0.2458598971,0.9329794867,-0.3465484261,0.4851108019,-0.8060621793,-0.0664862854,0.9283428594,-0.4144238489,-0.4107152846,0.5660091211,0.0286681868,0.0329248429,0.9259881499,-0.1831120454,-0.1083900045,-0.9773458591,-0.8004301591,-0.1296584612,-0.0995678346,-0.7435884751,-0.5962732884,0.5291611704,0.832028313,0.1107208462,0.4665388152,-0.6884272222,0.1719461946,0.1524602102,0.3006251573,-0.1203707769,-0.3454912219,-0.8855028646,0.5434985331,0.5128116245,1.015736281,-0.3086242192,-0.5637312845,-1.196582166,-0.7683276064,-0.1774329882,-0.9793116957,-0.3600547902,-0.2718664563,-0.4083522127,-0.7642477499,0.9148338184,0.3004564408,0.363118123,0.4932922311,0.407359226,-1.8629302308,0.2077915385,0.3529589982,-0.106917762,0.0912181292,-0.4604143063,0.2739338577,-1.6984269163,-0.5349826848,-1.4223903773,-1.1550398963,0.0492248628,0.0254229834,-1.0290681547,-3.6214986733,0.4862761223,-0.7187475619,0.231529985,-1.3279393995,-1.0224413011,-0.9247431327,-1.2088915571,-0.8389715997,-0.1212642632,-0.6214925975,-0.1806224955,-8.6673115909,0.635449343,0.8189506357,-1.0882947569,-0.8512147699,-1.0617642284,-0.470520579,-1.1773708342,-0.4083727,-0.6232870432,-1.6313325381,0.6330952763,0.5012214749,-0.5098787635,-0.1007631134,-0.053883822,0.9259707741,0.9701764579,-0.0584330033,0.3720380598,0.301100241,-0.6420141719,0.7147995945,-0.5465344992,0.9343619771,-0.0961685994,0.7150454691,1.1536026367,0.4074296636,0.5732529597,0.0769932459,0.6119592551,-0.1604616563,-0.2326565409,0.3870189549,-0.4056314185,0.4931791424,-0.3637741207,-0.640845519,0.6854027763,-0.0309303464,-0.5688984898,0.7722510306,0.6874499924,-0.027241167,-1.1682103666,0.3090183283,0.465717337,-0.7267881964,0.2794620601,-0.1028208402,0.743603496,0.2965328467,0.5657232835,0.3262288473,0.2513718861,0.320353212,-0.5062009123,0.0645009203,0.3070972494,-0.1381978288,-0.7863772761,0.131662925,-1.0246411776,-0.2014130394,-0.2231226113,2.0967424929,0.562375876,-0.2660806297,-0.7673174583,0.5605281427,0.4671059439,-0.0149402978,-0.51148133,-0.2398964107,-0.3734968377,-0.1710284062,0.3781083573,0.200354414,-0.8436494015,-0.3451106004,-0.2975271402,-0.4244126933,0.2183524517,0.8199017091,0.2096307583,0.5847332818,-0.0217834305,0.6487643033,-0.2833731432,-0.5846107401,-0.0178589291,-0.7394726393,-1.0211155328,-0.4835854596,-0.4977061353,-0.2338777687,0.3916221705,-0.5812820214,0.53529303,-0.6513122937,0.0577059631,0.188461173,0.3616355909,-0.3637297236,-0.4072826742,0.3586637915,-0.6428981626,-0.9331618217,-0.8339641687,-0.9179521516,0.0653270256,-0.6526920321,-0.1415137344,0.2378915818,0.0622673497,-1.3615790889,0.6042743041,0.5840608929,-0.1819861031,1.0408581602,-0.9687254352,-0.7861271106,0.1466404307,-0.4963297083,-0.7539759652,-0.4851282293,-0.1391859109,0.3814174486,1.0919694293,-0.3114864086,-0.3761549312,0.9819355406,0.3099431364,0.2534416648,0.3917322607,-0.0137027013,0.5112827315
