encog,BasicNetwork,java,3.3.0,1,1469376499701
[BASIC]
[BASIC:PARAMS]
[BASIC:NETWORK]
beginTraining=0
connectionLimit=0
contextTargetOffset=0,0,0
contextTargetSize=0,0,0
endTraining=2
hasContext=f
inputCount=28
layerCounts=2,46,29
layerFeedCounts=2,45,28
layerContextCount=0,0,0
layerIndex=0,2,48
output=0,0,0,0,0,0,0,0,0,0,0,0,0,0,0,0,0,0,0,0,0,0,0,0,0,0,0,0,0,0,0,0,0,0,0,0,0,0,0,0,0,0,0,0,0,0,0,1,0,0,0,0,0,0,0,0,0,0,0,0,0,0,0,0,0,0,0,0,0,0,0,0,0,0,0,0,1
outputCount=2
weightIndex=0,92,1397
weights=-0.6584446527,0.798817544,0.893438909,1.0482633676,-0.0209976912,0.6992997124,-0.5833343014,0.6476511832,-0.4864689505,1.0702440788,0.0156884474,-0.2337067882,0.5461133015,-0.6308876414,-0.4636575537,0.0105580189,0.792251157,0.5450146161,0.4579488853,0.2987691961,-0.6066753539,0.2840946054,0.170871657,-0.0670887845,-0.2195896247,-0.022033269,-0.5306651783,-0.3736801083,-0.7802632803,-0.8645937267,0.6360329506,0.4345072594,0.9934981889,-0.6051877805,0.7335474891,0.8309910535,-0.2377476543,0.7363492268,-0.9228409383,0.646029085,0.4943874361,0.158866861,0.549245386,-0.6229595884,-0.377230922,-0.4220935583,0.780515366,-0.3233137536,-0.6130774344,0.8029199538,-0.9960519854,-0.0390231554,-0.0226587655,0.712043539,-0.1416657192,-0.4782706198,-0.4088977562,-0.8444528861,0.110444015,-0.3179568146,-0.2995783978,-0.7540306345,0.5990921285,-0.1410483224,0.0899244484,-0.4864513309,0.9795711994,-0.0792108122,-0.191053622,-0.6243931541,-0.8999627728,0.6534348773,-0.0739370946,0.2533814908,-0.6804565065,0.2773785564,-0.5134709738,0.5758955883,0.8853380382,-0.3959576976,0.7716980941,0.9477649485,-0.0288416545,0.0110844452,-0.1472824289,-0.1468948743,-0.5261965913,0.715507619,-0.2203127358,-0.0171355581,0.7023219859,0.0046029414,0.7186474897,0.047319893,0.3740706635,0.8647154063,-0.3297001415,-0.2804627759,-0.1520247679,-0.7834157149,0.6558353847,0.8873258331,0.4809464967,-0.6722025057,0.119691369,0.2400176644,-0.189376373,0.3189777407,0.1191702526,0.7899478212,-0.6498812727,0.4929394426,0.0569051342,0.8205235227,-0.1326531417,-0.2886017568,-0.5746924607,0.0425903303,0.9452707331,-0.8650998626,-0.693227679,0.0270688635,0.3246026608,-0.3972636229,0.5316994833,0.8080424072,0.1761627648,0.2500886229,-0.9746282706,-0.9210236292,-0.1312286391,-0.9908107613,-0.2801951894,-0.6420528311,0.4386432949,-0.7874394714,0.7573282512,-0.4685514488,-0.6446241098,-0.9395321941,-0.7176984511,0.0731539848,0.4513504198,0.0251097794,-0.4324641312,0.0905061208,-0.7402363215,-0.2580949922,0.9150847796,-0.5789359112,0.6769114764,0.9193736051,-0.7065952697,0.3553636219,-0.3529056095,0.1178928995,-0.0909350755,-0.0146538541,-0.2335878104,0.3092646469,-0.4534436361,-0.532107044,0.3934307656,-0.6160563868,0.5403280149,0.9241937513,-0.0174695574,0.865267094,0.6393006117,0.1078734941,-0.1205936934,-0.2210457835,-0.6168069606,0.5401659061,-0.9097093369,-0.6413509494,0.4553939939,0.946663119,0.9053199882,-0.0910381826,-0.804280103,0.2364054721,-0.9135823202,-0.8725033062,0.4725168377,-0.9854906718,-0.3831891531,-0.9330236009,-0.5696004921,-0.3004919494,0.6725808329,0.7858593427,0.1932752864,-0.5258728179,-0.9622477769,-0.825002183,0.5261717109,-0.0668289355,0.2888075621,-0.6370914885,-0.0928065409,0.0077801526,-0.7991323101,-0.1071548349,0.7790461042,-0.0885003939,-0.6213316913,-0.6178196847,0.4499010973,-0.5230173172,-0.2822838708,0.7250023027,-0.8513977319,0.1689370352,0.8119079305,0.3602238979,-0.52026853,0.3490060799,0.8518986105,-0.8318139103,-0.1112015249,0.2726441033,0.3547744208,0.1469088465,-0.6412407723,-0.6601888788,0.6877549397,0.6615160426,-0.1959320838,-0.6318700589,-0.5253392074,-0.6094890903,0.9515069284,-0.5809913786,0.566089358,-0.1943898533,0.3628849411,-0.9440264577,-1.0008296785,0.6426007938,-0.9426563318,0.7082274084,-0.0174868482,-0.1295009803,-0.3234600663,-0.8017871664,0.2627383402,0.4252243147,-0.4296238514,-0.6750216889,0.1041873124,-0.0461561847,-0.7933495456,-0.0298240284,0.8414994439,-0.1673115852,-0.0640431414,-0.117038715,-0.1792257481,-0.3607542696,-0.5722865037,-0.0122634501,-0.917023184,-0.2303688839,-0.8550045711,0.2391823918,0.9238942049,0.0554868029,-0.4374618853,0.2791595248,-0.7364363682,-0.4072876448,0.6897087129,1.027010034,0.9702749692,0.2235223472,-0.4734928397,-0.3453182469,-0.5756068241,-0.6262324087,0.2493269614,0.4189126316,-0.0251793823,-0.4702141263,0.8773622311,-0.4679686088,-0.5456047019,-0.7453056242,-0.9736554468,0.7747814041,-0.4663570562,-0.5789136351,-0.8911050478,0.5841704003,0.3155400475,0.0437154488,0.6883219805,-0.3194015785,-0.4557781727,-0.6633010104,-0.3766119993,0.3361655629,-0.4437242453,-0.322597276,0.6441758804,0.3750095174,-0.2345935468,-0.3075581484,0.8262227007,0.630367175,0.2231962865,-0.8535670057,0.8908257614,0.9949499181,0.151903743,-0.3856707755,-0.670163076,-0.5335948831,-0.1681931252,0.8605130577,-0.4878618729,0.7047753033,0.8422546406,0.5185601002,0.6387916457,-0.1694284337,0.3367169903,0.4644361537,0.2195304708,0.0886457054,0.1869685233,-0.0621996275,0.3173040104,0.9266602268,0.9091140919,-0.810481837,-0.6760980443,-0.5468580287,0.8990032869,-0.2266421228,0.1699662017,0.8388261031,-0.5528761188,0.1824515684,-0.9144334875,0.9883907415,-0.6319619485,-0.3400232884,0.1772057839,0.1453562086,-0.9149067288,0.5422701366,0.1163464638,0.3033294278,0.8558339752,0.4350088839,-0.7787143832,-0.1120994717,-0.6400333977,-0.6819279055,-0.1084977243,0.8160293148,0.8141260087,-0.2384694977,-0.6841808809,-0.5337848124,-0.1491553371,0.4788310168,0.7618154408,0.0206560612,-0.530088701,-0.2125604618,0.4607045357,-0.5148615842,-0.180407662,-0.5142017531,0.7655125222,0.9620310758,0.433381662,-0.3036968733,-0.9147347742,-0.8719344768,0.9524952295,0.7538223301,0.9447814162,0.0658888866,0.0334452267,0.7277040006,-0.6706068708,0.4272982779,-0.4485605908,-0.1542130281,0.9161999394,0.7677075978,-0.0685734795,0.6494964245,-0.2694345909,0.5569411209,0.2916382692,-0.426882517,-0.8101806641,0.5232893348,-0.2810606544,0.2890043369,0.169940274,0.5923308362,-0.6498915239,-0.8166040795,-0.3765436565,0.8978438691,0.093420764,0.6064375526,-0.9762336054,0.0058792264,0.4532301548,-1.0690113836,0.1456069195,-0.1702767014,0.3138514916,0.9438686311,-0.487034117,0.7917780988,-0.0087114907,0.5129154686,-0.5932955994,0.792725699,0.0790812815,-0.3771126304,-0.5312357961,-0.6040890724,-0.2196239908,-0.929984803,-0.0306016053,0.7812066841,0.3342686124,-0.3512133887,-0.4219778874,0.3923483017,-1.0003784929,-0.7415092119,0.4260183089,0.790352455,0.3813700033,-0.4391259481,0.2984985561,-0.740196413,-0.3316468035,-0.289042263,0.1674445126,0.8410609106,0.2687599537,-0.2487229437,-0.771772276,-0.9289936676,-0.5112309987,0.4986950565,0.1946555498,-0.5234859755,0.7656740566,0.6377409177,-0.7080513724,-0.0503453253,-0.0507343922,0.8334793453,-0.5618834223,0.545776632,-0.6115628887,-0.5320751857,-0.528074833,-0.1603595306,0.8394461548,-0.4471752307,-0.1443006978,-0.3434330133,-0.1266734938,-0.1932154717,-0.7057500039,-0.2365970513,-0.0350455622,0.1567683291,-0.9605734445,-0.4347641748,-0.6614320228,-0.6789355924,0.7313481326,0.3882432805,0.3195711084,0.2820042797,0.8821014633,0.8392059826,-0.5909091284,-0.0187314214,0.7219675324,-0.4403845781,0.1862826473,-0.274583769,-0.3118761974,-0.8008970876,0.1729918201,0.5688214983,0.7167530743,0.1423977144,-0.3098224072,-0.1320453187,0.8002628318,-0.8789126783,-0.3203476233,0.6926778858,0.6854707556,-0.7457405632,-0.4901610721,-0.0727873427,0.2952773557,0.0860238008,-0.906005324,-0.8382087351,0.5202824692,-0.9101755521,0.9231074615,-0.7752773521,-0.136964854,0.640862466,0.4966542395,0.2798957723,-0.1462671429,0.4636393959,-0.571311306,-0.1894601424,0.4859274162,0.5688991818,-0.3279820717,-0.3471092324,-0.2993386851,-0.1523038526,-0.4616332194,0.3274762164,0.2762624406,0.0941921018,0.9381082502,0.7476278669,0.1177160096,-0.2317832349,-0.8122897066,-0.1193362413,-0.2046963896,0.589073004,-0.8046543671,-0.4248769969,0.458915089,0.2755856722,-0.7364303045,-0.5282676663,0.7038665537,-0.1304205029,0.4203968027,0.412001648,0.506426017,0.3082672604,0.8267187832,0.1320463905,-0.4663086246,0.0966274725,-0.5438314838,-0.5048920727,-0.8433802241,0.2090867537,-0.3051866283,0.6185158973,-0.8970408483,0.3086866868,-0.6124990118,-0.587042961,-0.8572135465,0.7302700831,0.2213974939,-0.3392430874,0.2220984709,0.8025862042,0.4294494816,0.933865648,0.4995269425,-0.4537009224,-0.6753713846,0.2131082575,0.5314915917,0.3509511901,0.541269471,-0.1230551878,0.4950983381,-1.0166565823,-0.3143885031,-0.6710600771,-0.0760970612,1.015948326,-0.4798062045,-0.0496965981,0.8303483385,0.8885512809,-0.651597865,-0.9885185227,0.7935650589,0.6504713488,-0.4986922471,0.7769845475,0.2832048698,-0.2743643604,0.4649705845,0.4770206233,0.3292733057,-0.1050454042,0.8178250173,0.7320654923,0.5777381492,0.3542917002,-0.7049720412,0.7609466204,-0.6393910544,0.6377751287,-0.2808897185,-0.0910671467,0.7802065296,0.6477492109,0.0109491526,-0.0786975306,-0.3484733962,0.5335272431,0.379060671,0.2445292659,0.9821482241,-0.2842901993,0.9065959642,0.6509437067,0.9358398665,0.334293848,0.8309060478,-0.5469980345,-0.9912261658,0.1357600475,0.0057478062,0.7448991024,0.5526974919,0.6942542557,-0.4434816631,0.2950688821,0.1969434357,-0.8758727682,0.3045137589,0.328956633,0.3564365069,0.8696587233,-0.4314926761,-0.0419470002,-0.576587556,-0.4187592337,0.2803194126,-0.6532565981,0.6142282802,-0.8443834767,-0.6958748803,0.4959076705,-0.4962742435,0.9722367545,0.9990826032,0.6910398235,-0.3478597872,0.1175764942,-0.9645546934,-0.0921395497,-0.5255752206,0.6616509536,-0.8991335063,0.415729742,-0.5776839128,0.9667722368,-0.5698408249,0.55848482,-0.2333332181,-0.6444324915,0.8123566314,-0.5558553455,0.1561090803,-0.1641957331,0.9582797239,0.909043992,0.2773469051,0.05404131,-0.0326479325,0.8442999018,0.6083164002,0.6052573926,-0.2946519009,0.8324835254,0.6497242148,0.7040099775,0.1436393396,-0.0322672798,-0.2428219523,0.040557851,0.9440598357,0.2456161166,-0.2031285062,0.1146121037,0.5453323196,0.5342472766,-0.35567501,0.7718758445,-0.9210893839,-0.9993959384,-0.6568776227,0.6360025682,0.3546908738,-0.0041649674,0.9108619021,-0.3796730036,-0.3072043238,-0.2554727769,0.593652426,0.2661182459,-0.4842618279,-0.7590960563,-0.0571915315,0.1028700282,0.6290085038,0.0321832831,0.9305580493,0.7508753852,0.2738916637,-0.8617100572,-0.1855008881,-0.8801604772,0.4002486101,0.0991914016,-0.2571918328,-0.0245442552,-0.6244722683,0.0082161324,0.0716460204,0.3355891932,-0.0420173708,-0.2909191727,0.7064166947,0.7410213779,-0.867879147,-0.2331932929,0.8770384955,-0.0426639331,-0.0060138175,0.0680445991,0.1795400387,-0.9171390625,0.7141608181,0.6974170678,-0.2543233312,-0.0610179153,-0.8424329381,0.7028568875,0.5765936199,-0.8494029874,-0.1599187803,-0.7857839899,-0.9113040091,0.5918097,0.2910087286,-0.0706363212,0.8985458384,-0.5390896689,0.6305874243,-0.440356514,-0.238583304,0.9187754489,0.6941285257,0.0228620615,-0.9820312555,0.25042385,-0.8051890917,0.0780259634,0.303818337,-0.4935387837,0.0269656296,0.1427521793,-0.3956610047,0.3925099945,0.4665741122,0.1709683079,0.0447988632,-0.3195413645,0.6159248604,-0.4625347094,-0.5136302178,0.3756702341,0.7375209242,0.4414208808,0.4291128131,0.2571500968,-0.8618729501,-0.9996153463,0.5623925507,0.6718932361,-0.8533648284,0.6325446011,-0.3135368366,0.1695214892,0.1960533255,-0.4710091491,-0.4303491077,0.3919072182,-0.8056941376,-0.8649268345,-0.789717213,-0.9205919005,0.5791360502,0.5663316549,-0.351098493,-0.7829553754,0.8467705969,-0.8101028941,0.207679628,-0.3638730431,-0.9220880607,0.4902258514,-0.0353553512,-0.0849743313,0.2799139045,0.8923383235,-0.829132737,-0.2494478231,0.0731145594,0.425984659,0.4823341605,1.0203318474,-0.6416394417,-0.6513507753,0.2566078979,0.357244021,0.4531825957,0.497567821,-0.8199942847,-0.2895605405,0.1885394132,0.4932094421,-0.9097453799,-0.3937619872,-0.099651347,0.8120593419,-0.0658214388,0.7667779809,-0.9645347294,-0.1047212841,0.8011188659,0.7297355326,-0.8148758996,-1.0069033346,0.7303201744,-0.8880110604,-0.3234218571,0.4051352553,0.7464126999,0.4990446096,-0.2605493296,-0.4502051133,-0.8448308047,0.0117490523,-0.7314469646,0.1852671099,0.8443431316,0.5008135375,-0.7217186717,-0.6719104783,0.4911095458,-0.7867186035,0.7118462288,-0.69664192,0.5590293664,0.9151692061,-1.067890661,-0.7392029561,0.6104408162,-0.7872272438,-0.810159076,-0.1882845506,0.8532328328,0.0016635321,-0.8255738554,-0.5725875754,0.1960185774,-0.151820609,-0.6689191415,0.1110069514,0.2301918025,-0.2692126745,0.134734199,0.8524174717,0.4970733988,-0.6789199564,-0.6363062108,-0.6272009698,0.8039894595,-0.1259965876,0.5683106155,0.7210418345,-0.7413761454,0.9422669258,-0.438063293,-0.6688831652,-0.0142099592,-0.9349014985,0.3433503838,0.2043575755,0.4228105575,-0.8129178277,0.598475458,-0.123890752,0.0438434138,-0.9063474887,-0.3658567238,-0.5782802559,-0.9982172797,-0.3505662368,-0.5653912728,0.7683018301,-0.8195040598,0.6759085569,0.9197414986,-0.1365628367,0.3285493073,0.4644874814,-0.9023193082,0.6104019688,0.9716288868,-0.070257214,-0.1485917292,0.3237647631,-0.3555204066,0.1994842906,-0.7969185572,-0.5397545074,-0.5858002053,-0.2225738052,-0.5197074544,0.7133186125,-0.0312074075,0.5178543825,0.8288471486,0.5030986219,0.5765181546,-0.883199033,0.2308206418,-0.2335579762,-0.3857843624,0.9485836054,0.9425750325,-0.3451947436,-0.760961572,-0.9067319951,0.2719214146,0.4792450532,-0.5127658057,-0.9656157412,-0.0970653594,0.8446634227,0.5136831518,-0.8210620707,0.4282564618,-0.8873257581,-0.8393573055,-0.1665733677,0.7405917994,-0.4750487055,0.5620388061,0.7905943611,-0.8564955205,0.6684619017,-0.1654280645,-0.221041129,-0.3602501999,0.5619331737,-0.4927722952,-0.5425935968,0.8761860581,-0.0048744829,-0.6844195861,-0.7340251338,-0.4676990924,0.0395301637,0.7428108946,0.5263394497,-0.2569770639,-0.1641647326,0.639790771,-0.9456308796,0.7724914732,-0.9526167423,-0.2397847385,-0.0435967681,-0.3613015663,-0.1144911453,0.3510013582,0.794269926,0.8930276639,-0.3275499914,0.2217137416,0.822665418,0.4325219902,0.5526864039,0.7759277075,0.2500796133,-0.8066003213,-0.3885327371,-0.8884110665,-0.148027969,0.778668352,0.1068884796,0.7865964959,0.7282137501,-0.4001852035,0.2026654633,-0.940149225,0.7938096607,0.3878940936,-0.5427526617,-0.7590738321,-0.5494877994,0.2691149146,-0.2429030046,-0.1970428874,-0.8258486171,-0.0286853771,0.7819070374,0.349743312,-0.0891353659,-0.0463579524,-0.6348871684,-0.8574226341,0.4106043604,0.4549031832,0.1796982508,-0.8504790147,0.3927944681,-0.1665673035,-0.079741386,0.5246175591,0.8757732458,-0.3515140672,0.3400837365,-0.8369216613,0.5861152663,0.8997438064,0.114721156,-0.2119142094,-0.0241008344,0.2528463019,-0.8686309401,-0.7395665453,0.0908030202,0.0987205605,0.0898889164,-0.1768149232,0.6961311534,-0.5182529441,-0.7513385188,-0.824533661,-0.4687952328,0.2235897485,-0.6131270843,-0.2147405628,-0.8348679668,-0.010552427,0.5447517141,0.1401286186,-0.0072206727,0.5455434963,0.7646193582,-0.2695413547,0.8925419614,0.6131112454,-0.6723683306,0.5670705042,-0.2229370952,0.9959637777,-0.2319041316,-0.1953948203,0.9201775437,-0.2283578026,-0.3373984165,0.9513836481,-0.3333842969,0.9456682046,0.7307394327,-0.8921449846,-0.427799097,-0.0099186299,0.79761489,-0.0099473002,-0.7238534612,0.2777629669,0.2209232694,-0.4180650735,-0.8316761738,-0.2132968897,-0.3514086246,0.6948381803,0.6175175614,-0.2593562244,0.553181493,0.8479818338,-0.6023062086,-0.0110085725,-0.0945428606,-0.9515696043,0.3112983042,-0.2894436173,0.6010396115,-0.343275833,0.8848539383,-0.1134102067,0.2995667282,-0.159222638,-0.2453611689,0.8359097505,0.5445105145,0.2744598595,-0.1609474217,0.5297027014,0.7844264473,-0.1376738821,0.0457572058,0.0345800184,-0.5060598289,1.000977339,0.7902861901,0.1008298733,-0.7345628452,-0.9895687349,-0.2618386412,-0.5420116621,0.6094469955,-0.7368173151,0.5003929054,0.1885979576,-0.4118886115,-0.8736933881,0.8023426935,0.900829747,-0.723222826,0.1109915498,0.2781243206,-0.5088576405,0.7393270647,0.3259179115,0.053314601,0.9621127997,0.4947996887,0.2645384924,-0.719688362,0.5128017931,-0.4019732271,-0.3576878803,0.7546431905,-0.6125677551,0.008287702,0.5726976956,0.4720418979,-0.2633444566,-0.8196259317,0.3555816896,0.1458468942,0.0924082461,0.6283126681,-0.6759733837,-0.0168844156,0.8808009446,0.1618993332,0.3678398892,0.6501587941,-0.8250140171,-0.7385584747,-0.374056016,-0.7256404923,-0.7549052204,-0.4069518224,0.4640997061,-0.9020669896,0.1693336757,-0.6740531707,0.758278115,0.442614961,-0.346238255,0.5693698631,0.2370741192,0.0801572917,0.2314368658,-0.2290328901,0.5485129352,0.968605582,0.5419340755,0.066603056,-0.437604003,0.1066231868,-0.2811736798,-0.1499971597,-0.9764924693,-0.8704235493,0.2420575639,0.9868645935,0.3941339708,-0.1922406022,-0.130571738,0.5816880733,-0.2771865473,-0.4150549718,-0.890231037,-0.6636330347,-0.6149559445,-0.8210986071,1.014925087,-0.359138141,-0.57092926,0.1682715002,0.6819188166,0.9571400904,0.9232440128,0.250372527,-0.1543165652,-0.3456873728,0.6847194673,-0.2770478322,0.5181257412,-0.563846777,-0.7447143705,0.3159174738,-0.5852154139,0.1810382734,0.7047520258,-0.2111784847,-0.2070243065,-0.2652308019,-0.5675983601,-0.3993967295,0.3256574326,0.0836993968,0.8700836239,0.6047550242,0.3294079547,0.0110164137,-0.0110867906,0.8512999613,0.5041824801,0.9194800943,-0.3482927554,0.5318734707,-0.733644461,0.312532455,-0.1350754547,-0.5490173357,-0.2533115328,0.0049920218,0.8082512425,-0.8914277162,-0.5291358489,-0.1956203235,-0.8790378075,0.106931125,0.6319194107,-0.0954274801,0.6922120726,0.8658740214,0.0659050613,0.3134914239,0.3524842542,0.4016653435,-0.315407908,-0.1931139129,0.9688966462,0.0771800301,-0.6294240683,-0.3311286859,-0.2043762109,-0.4107940591,0.7121860583,-0.1135166228,0.9409907275,-0.4544819882,-0.5262601132,0.0238485809,0.6654822004,-0.6866616253,0.1858090357,-0.1094412562,0.2792487898,-0.5456227591,-0.066635587,0.1395824384,-0.6431444207,-0.4735741452,0.832569773,-0.3404652351,-0.3079320347,0.1106062061,0.9865392035,0.8246768053,-0.7085794063,0.1925760362,-0.9189235941,-0.8290673388,-0.0282055538,0.0366085407,-0.7790331137,-0.0107431305,0.5650465969,0.6812915424,0.9911407466,-0.0721695471,0.0222947224,-0.0856835882,-0.6345443727,0.112155358,0.264062475,-0.8922618202,0.2549374684,-0.1840132496,-0.3233737794,-0.6567456507,0.4854237595,0.0754918061,0.0182102091,-0.1518011799,-0.8908481004,-0.6629949202,-0.6658279006,-0.9130590055,-0.0290762398,-0.1888153828,-0.7541834666,0.7291249554,-0.644310236,0.7159865459,0.3205661192,0.0353725492,0.7353893814,0.7881353267,-0.1000563495,-0.0498663395,-0.5593388423,0.6862317689,-0.1393057037,-0.0062244286,0.5050033815,-0.8261461476,-0.4901269579,-0.0287754272,-0.1508578058,-0.3969776531,0.1421725494,0.4857371293,-0.1715326059,-0.4449280416,0.9851609641,-0.9021000528,0.4938212261,-0.0163551139,0.4456695495,-0.1279833356,-0.4383672701,0.5788693127,0.5221431907,-0.5642329148,0.3127813435,-0.6369316136,1.0127768336,0.2191333521,0.1742768581,-0.3244831973,0.161038582,0.8514019461,0.3267349632,-0.3443607666,0.7266462909,0.2111912826,-0.6275856486,0.166176932,0.7125112533,-0.9287130664,0.9886702286,0.6784532033,0.2577372889,-0.4339567366,0.0371744196,0.6652363852,-0.6266224858,-0.5961771156,-0.5202626529,0.0444421956,0.6779332583,-0.6664881564,-0.5414286461,-0.0065464173,-0.1599382891
biasActivation=0,1,1
[BASIC:ACTIVATION]
"org.encog.engine.network.activation.ActivationElliottSymmetric",1
"org.encog.engine.network.activation.ActivationElliottSymmetric",1
"org.encog.engine.network.activation.ActivationLinear"
