encog,BasicNetwork,java,3.3.0,1,1469378080120
[BASIC]
[BASIC:PARAMS]
[BASIC:NETWORK]
beginTraining=0
connectionLimit=0
contextTargetOffset=0,0,0
contextTargetSize=0,0,0
endTraining=2
hasContext=f
inputCount=28
layerCounts=2,46,29
layerFeedCounts=2,45,28
layerContextCount=0,0,0
layerIndex=0,2,48
output=0,0,0,0,0,0,0,0,0,0,0,0,0,0,0,0,0,0,0,0,0,0,0,0,0,0,0,0,0,0,0,0,0,0,0,0,0,0,0,0,0,0,0,0,0,0,0,1,0,0,0,0,0,0,0,0,0,0,0,0,0,0,0,0,0,0,0,0,0,0,0,0,0,0,0,0,1
outputCount=2
weightIndex=0,92,1397
weights=-0.9726853411,0.7280559421,0.8757577707,0.9950775577,0.4894488353,1.0903593304,-0.9269649927,0.5970720697,-0.3731698997,1.1283049742,0.1854533634,0.2982103362,0.2019459451,-0.4583239704,-0.2618882216,-0.1213146729,0.5693062111,0.3984308154,0.2593271024,0.3213070673,-0.6133880346,0.3393006388,0.2454574133,0.2371277253,0.2421589215,0.0200179737,-0.472469065,-0.1439316661,-0.678926065,-0.678637186,0.8489214692,0.6609533194,0.9184746348,-0.5206689417,0.4784814599,0.8995373723,-0.0090419476,0.6790870992,-1.0314296301,1.3917992405,0.406009137,-0.2062440226,0.366351884,-0.8876586646,-0.1946834749,-0.3416112775,0.9178453968,-0.276746535,-0.5522332392,0.6496758347,-1.1369040666,-0.8106211963,0.7363529655,0.5277585735,0.2553528016,-0.8916695945,-0.4786506091,-0.7609028711,0.1671849352,-0.0321589614,0.0942943468,-0.5095260122,0.4917868991,0.0348856933,0.2218019997,-0.5692522474,1.0724967219,0.026535291,-0.1002689744,-0.4047897505,-0.9632291144,0.5007051364,0.1912234116,-0.1665262508,-0.3170682987,0.1091811615,-0.6845691726,-0.0665481615,0.4128354625,-0.4527305858,0.6943059664,0.8374343612,-0.4052833489,-0.2535365707,0.040761068,-1.1947410157,-0.4362702441,0.6441597404,-0.0843983885,0.3767191627,0.6934254835,0.126700843,0.786879786,0.2160254426,0.383194786,1.3092368471,-0.0598655164,-0.8158217601,-0.174609848,-0.6208114113,0.624871552,0.8191420659,0.4464846701,-0.5523561526,0.1692753602,0.1816220682,-0.0473714793,0.1913912621,0.0433038552,0.600348395,-0.5115816109,0.3605727575,0.0140281863,0.7356833788,-0.3277378842,-0.3733361905,-0.6396794808,0.7646159028,1.0238338824,-0.3671223108,-0.5809652155,0.0010951381,0.2718349291,-0.4372799361,0.4721278176,0.7742850859,0.2389180778,0.2580374539,-0.9878905801,-0.9027164882,-0.1103034745,-0.9805716448,-0.309456651,-0.6390089201,0.456683064,-0.7820550408,0.7750948529,-0.4987407539,-0.6232239015,-0.947990638,-0.7270578673,0.0481113834,0.4594268741,0.0419288448,-0.4305123635,0.0943049672,-0.7835467011,-0.2594839249,0.8684180988,-0.6194719032,0.6560216192,0.9238607968,-0.6691792056,0.2462693962,-0.3480468232,0.2745169212,-0.0485113355,0.0067172166,0.0496593457,0.3510803936,-0.4309659485,-0.4419556717,0.3074345003,-0.5802967875,0.5497816895,0.9841803607,-0.0466627661,0.9158785979,0.6199327701,0.1425882997,-0.1009099394,-0.2028442738,-0.5757021542,0.572069215,-0.8849912636,-0.7627080568,0.4561504402,0.8450917637,0.9826634368,-0.0881247971,-0.8242358272,0.1900474101,-0.9090228463,-0.8792283119,0.4629582986,-0.995153566,-0.3917729533,-0.8960197809,-0.5880550105,-0.2806086826,0.6468130417,0.7494141105,0.1654954299,-0.5131084241,-0.9927635053,-0.8189144461,0.5089020905,-0.1026455762,0.265062631,-0.6699198777,-0.0922968744,0.0089109586,-0.8043425617,-0.097179773,0.7520548572,-0.0938752684,-0.6269884156,-0.646479334,0.3797116113,-0.8132093227,-0.3002969168,0.3791047031,-0.7941347616,0.5945605154,0.8673919903,0.2862457982,-0.2052257658,0.4865113716,0.9054052743,-0.5820562066,-0.239280701,0.4214613573,0.434756136,0.2845128246,-0.3871210268,-0.4690813769,0.7950443031,0.5404709384,-0.1399961763,-0.5728990169,-0.389454872,-0.5591182367,0.9759277549,-0.9230056259,0.5799423266,-0.4816398312,0.2238848746,-0.9144063406,-0.6792193951,0.6215201695,-1.1470042954,0.7097205586,0.5078009729,0.0203159869,-0.1307339518,-0.3821719945,0.4186408084,0.5888309998,-0.3354335148,-0.4080211795,0.2241750734,0.128440617,-0.3478018398,-0.1015200354,1.0046830165,-0.063087012,0.0427382484,-0.0956965321,-0.1057157221,-0.1986363645,-0.4317974771,0.1264273385,-1.2508870032,-0.1424382159,-1.0440837067,0.5555317839,1.0217892595,-0.0214649178,-0.4515419023,0.5504854986,-0.5410613544,-0.8159697797,0.6511470775,0.7616863343,1.0551558802,0.0440616847,-0.5289905111,-0.0847800229,-0.5514275937,-0.8085247042,0.0994207132,0.2191830836,-0.1488437438,-0.6461145688,0.7738499735,-0.3298732647,-0.354307645,-0.7968466446,-1.0937678206,0.711687274,-0.5338648443,-0.3159860201,-0.9303717597,0.7987105759,0.3455855264,0.0790531679,0.6520119572,-0.273382547,-0.399488948,-0.5619235637,-0.4016695894,0.3771743938,-0.3405631042,-0.2558699473,0.6028622455,0.5183576889,-0.1048198497,-0.1655260484,0.7648701598,0.720497949,0.2533143203,-0.6948759899,0.8516669123,0.98169333,0.1737342402,-0.4486735721,-0.6671825272,-0.5297913574,-0.1409021123,0.8928098541,-0.5186863392,0.7004321396,0.8563966789,0.7098056824,0.6298474752,-0.2423071587,0.296560861,0.5323259052,0.1893137721,-0.0695153412,0.1416461431,-0.1565483084,0.2499500356,0.9084632778,0.7885297124,-0.7734185955,-0.7201803922,-0.5645258235,0.8213509044,-0.2743949579,0.1532203336,0.7928891301,-0.5990884609,0.1581647738,-0.9539918318,0.9631321913,-0.6873933844,-0.3827804298,0.1270084055,0.3180949333,-0.9198633802,0.6309313489,0.0070266262,0.2641932011,0.5955653176,0.4431477382,-1.0723562049,0.0019559074,-0.2148111723,-0.4318367108,-0.2220015166,0.7443958004,0.7849756061,-0.0660978452,-0.565232106,-0.6419370987,-0.1763519595,0.3764931467,0.566876722,0.003016822,-0.4075923283,-0.1748787138,0.3770523123,-0.1266137982,-0.13577781,-0.4010457919,0.8499776533,1.0242237402,-0.242758868,-0.4458825802,-1.4165397506,-0.8055113855,0.9503155111,0.7517031379,0.8866702476,0.0064343212,-0.046747982,0.7893712604,-0.7047130595,0.4343570767,-0.4444138498,-0.142499622,0.8681200325,0.7059874175,-0.2019478153,0.67018292,-0.3487700852,0.5161402646,0.2781061876,-0.4033988293,-0.8929563514,0.4784794682,-0.2364034427,0.2941174309,0.1829001389,0.5907629284,-0.6513694761,-0.8864132431,-0.3884216292,0.8359500642,0.007567265,0.6414668908,-0.8381023961,0.0026289141,0.3658990394,-1.0509023237,0.2486170654,-0.1186395961,0.3458902664,0.902590325,-0.4922672924,0.7024446362,-0.1799346865,0.4218150039,-0.568229657,0.6450404458,0.0544904463,-0.3440982019,-0.4760889508,-0.6476397547,-0.2798841245,-0.9033164518,-0.02035823,0.8113201131,0.3548685509,-0.3545487577,-0.6087387399,0.3534986209,-1.1294204535,-0.7761026264,0.402275114,0.6826928512,0.2972712166,-0.4872787998,0.2350290886,-0.7164168672,-0.3537044355,-0.3867136449,0.1243969684,0.812151843,0.3092931394,-0.2874845889,-0.8682814977,-0.9782618727,-0.5205292381,0.4470985002,0.1290513766,-0.5319719747,0.7003879102,0.5289989718,-0.6856833262,-0.0448266879,-0.0389820015,0.8271166099,-0.5473041033,0.4241955231,-0.6476427152,-0.6102657702,-0.5881855775,-0.1402000904,0.8145428057,-0.3928731421,-0.0847702984,-0.3588781012,-0.2155842226,-0.225514046,-0.6267953661,-0.3053807293,-0.0504950993,0.0767345788,-0.8368752531,-0.4479473975,-0.6479716736,-0.7206005389,0.6811986382,0.5283004008,0.3053578371,0.2148131997,0.8965529508,0.7445575585,-0.6055312075,-0.0474386747,0.7028934728,-0.4709389012,0.2651807525,-0.2783880512,-0.2572044025,-0.8311104138,0.1747294744,0.5429510958,0.7470132545,0.1699908899,-0.3431274746,-0.1833110879,0.7919478145,-0.8163470803,-0.3302199306,0.6986998057,0.6233240281,-0.6962024436,-0.4717645412,-0.0567093703,0.2760392016,0.0598219745,-0.8596797978,-0.8417105575,0.5013069542,-0.9152444446,0.9223683672,-0.7836683939,-0.1546727707,0.6286302091,0.4709561213,0.3602709251,-0.1402349781,0.5081340502,-0.578658772,-0.319764003,0.4266486581,0.645450846,-0.5535868024,-0.3039761575,-0.0142397233,-0.0495627268,-0.3506476486,0.5958220201,0.4209458933,0.0922779958,0.8225180935,0.744494217,0.271034601,-0.1882744283,-0.6397366604,-0.2093412734,-0.0753094347,0.6023444856,-0.7189046712,-0.4528032792,0.4859703894,0.335210717,-0.6942216844,-0.5434368867,0.6226188769,-0.1203743804,0.2473190733,0.4767036385,0.5137703582,0.2944301594,0.641226798,0.1492591887,-0.3896903609,0.0552546657,-0.5875403988,-0.6677170975,-0.7227229135,0.1583871647,-0.2711290957,0.4420792786,-0.992469606,0.2235216567,-0.6393287633,-0.5690741585,-0.9503013925,0.6721090649,0.168523071,-0.392443844,0.0012035002,0.7974414513,0.4216272242,0.9149086064,0.5258266823,-0.4960022694,-0.6881724231,0.2159076404,0.4536487311,0.3276548698,0.6020116129,-0.1625820044,0.4471174047,-1.000293925,-0.2353701238,-0.6215475556,-0.0005583014,1.0551356142,-0.4458255542,-0.0115418262,0.8430997914,0.9312586106,-0.620819177,-0.9519836463,0.8711489199,0.6182015782,-0.4708467737,0.8019920437,0.3365570624,-0.2611955187,0.4737746648,0.4935928243,0.3479354008,-0.0922797734,0.7911690862,0.737528578,0.5388574438,0.4318580784,-0.6999215192,0.7736460215,-0.5957302236,0.6418135346,-0.2362006975,-0.0810718331,0.8135373567,0.6601981131,0.0747778821,-0.0802466923,-0.3027410374,0.5725421916,0.3884319003,0.2394758815,1.0124114923,-0.242612681,0.91177995,0.6507449318,0.9626211738,0.3560306395,0.8318520848,-0.5440048777,-0.9858260899,0.1483048187,0.015684213,0.7310742262,0.5540414177,0.6920676186,-0.3653895238,0.2812238494,0.2849726616,-0.7651706595,0.154117402,0.2567789122,0.5536051412,0.9095929041,-0.3110119997,-0.2791242539,-0.5189974364,-0.3440841429,0.2121299519,-0.3556343835,0.6770031059,-0.8271850535,-0.5572310488,0.5104234486,-0.3967294736,1.0292615053,0.9575307018,0.6997583173,-0.3185645227,0.1851708469,-0.9196883404,-0.0730851078,-0.7676277878,0.6333981381,-1.068108512,0.4712726608,-0.5349585519,0.9309033184,-0.4826571678,0.6578898672,-0.0764410388,-0.7804073537,0.7903653301,-0.5842439998,0.1925262236,-0.202855128,0.9250553472,0.9114724901,0.2371582454,0.0108868219,-0.0033040527,0.7941437061,0.619454091,0.548246107,-0.2472249715,0.8136213493,0.6092237849,0.6919814691,0.1139191025,-0.0425418999,-0.245968939,0.1607888103,0.9625932293,0.3608624184,-0.1537718109,0.0977391479,0.4033913038,0.4614449024,-0.408144282,0.7112506205,-0.8853413504,-1.0369903932,-0.7386002905,0.6496927212,0.338216006,-0.023378708,0.8541561126,-0.4372778191,-0.33817842,-0.3011240854,0.5494090176,0.174957598,-0.486001588,-0.7971201834,-0.1364100646,0.0432064518,0.6334898043,0.0441747274,0.9224913802,0.7577774681,0.1740188539,-0.8855254275,-0.2561545685,-0.981998394,0.3666075873,0.0741671291,-0.3153467807,-0.12512256,-0.6929812222,0.1249951699,0.0763685064,0.3250352612,-0.0576290621,-0.2643003612,0.7299824279,0.7222520362,-0.8741067363,-0.2198365192,0.8641092951,-0.0373761174,-0.0274441737,0.1112776438,0.1358703636,-0.9163445482,0.6739370227,0.7127669817,-0.2180376097,-0.0492257792,-0.8281515316,0.5671982084,0.5599956093,-0.954129767,-0.1925763977,-0.8401035932,-0.8372890832,0.663400066,0.1040083488,-0.0432738753,1.1536923927,-0.4194010531,0.6713244307,-0.3042917121,-0.1409636597,0.9190828116,0.7076342829,0.0028944669,-0.8683170796,0.2723226033,-0.6633188229,0.1009380609,0.4172577314,-0.4488194012,0.0283395751,0.1259429745,-0.3659430277,0.4608920275,0.5163057562,0.1810627686,-0.1278666805,-0.3201698391,0.4468273234,-0.3875104342,-0.5042024952,0.3766596331,0.7332115396,0.2500688291,0.3323569523,0.472374584,-0.7339541438,-0.888306187,0.5432048938,0.7158406236,-0.7730336042,0.7061934829,-0.2434324191,0.2425759791,0.1345244304,-0.4033432547,-0.1932195128,0.5023296766,-0.6777487156,-0.744919692,-0.5579454385,-0.8996806734,0.6395303818,0.6060930577,-0.3640042526,-1.0095333242,0.8057875506,-1.0102578547,0.1639430846,-0.2939017194,-0.7180064651,0.5161812606,0.0966141629,-0.0534209554,0.1391495523,0.8208827022,-0.816106043,-0.3541324461,0.0288243493,0.4163750277,0.5994152511,1.0895536869,-0.6944338504,-0.5857151071,0.2770185817,0.470023104,0.4063725742,0.5005576995,-0.7174070421,-0.2984092127,0.1802347874,0.4722693147,-0.9110727212,-0.3654513922,-0.0111831742,0.8403075149,0.0730531941,0.8698162243,-0.9648451257,-0.1425256939,0.7879457592,0.7932394118,-0.7773056879,-1.0878805595,0.698079314,-0.8434675354,-0.4156646959,0.393524533,0.7112306322,0.5655879877,-0.2257530242,-0.4535706179,-0.8327192622,-0.0263072007,-0.6968729704,0.1627646321,0.8465084725,0.516631386,-0.5891970807,-0.6850273987,0.4598224642,-0.8025430322,0.6840609262,-0.591334554,0.558581311,0.9703523276,-1.0637659847,-0.7352691571,0.5805109641,-0.8147340229,-0.7981863297,-0.20734539,0.8195402176,-0.0444296922,-0.8554672507,-0.5731311788,0.1804510405,-0.204014951,-0.6976440429,0.0565674971,0.2173714197,-0.3148153479,0.0849058444,0.7966938805,0.4838534126,-0.7172228346,-0.658390855,-0.6329580064,0.7977312262,-0.1383741084,0.5538820815,0.7127101791,-0.726065709,0.9358055208,-0.4322239439,-0.7470801019,-0.0423295795,-0.9993652789,0.3545258987,0.176373455,0.2476914394,-0.8027463861,0.5887956804,0.1089107942,-0.035203965,-0.856531193,-0.4334688944,-0.5402224074,-0.9858017996,-0.266458289,-0.5218311545,0.6433416713,-0.7850823806,0.7210391851,0.8360269354,-0.1519730449,0.3896619628,0.459072054,-0.9100516275,0.5929666808,0.9125955029,-0.0056872538,-0.1489617042,0.3177594938,-0.451857927,0.2260749341,-0.8349875042,-0.6011157081,-0.5222080203,-0.2358591425,-0.6184877112,0.65480578,-0.0172766922,0.3606603892,0.81420465,0.4446342694,0.4096145319,-0.8794405202,0.2571701666,-0.2721892258,-0.3805152569,0.8278771781,0.910909598,-0.3189092499,-0.7323777164,-0.8684669795,0.2540012568,0.4355128936,-0.5446177214,-0.9902068485,0.0342563598,0.854730343,0.590436191,-0.9661270228,0.2714308206,-0.767230784,-0.8659496253,-0.4984761153,0.4896512893,-0.0023530901,0.5510719213,0.7124405713,-0.6961569885,0.8628033477,-0.1589902372,-0.2633409959,-0.1881153088,0.7092130004,-0.3761235259,-0.3623804414,0.540656773,0.2027019068,-0.6591507331,-0.7672485608,-0.4393554021,0.0986604505,0.8835480861,0.5848809789,-0.2056886027,-0.4677341098,0.6729333524,-1.2127857966,0.7321863062,-0.9320481304,-0.3031309222,-0.0517757668,-0.3735828371,-0.0732593977,0.410762466,0.7621063253,0.7648314373,-0.2407270099,0.1923157833,0.8964397017,0.4455007544,0.4907812637,0.7168001043,0.2605057166,-0.719036973,-0.454489915,-0.8935888225,-0.0972195034,0.7084254096,0.1533679702,0.7974244612,0.7536385061,-0.3767329205,0.247852848,-1.0611784676,0.7868801763,0.3325655166,-0.496773828,-0.7420344071,-0.5195500893,0.0830045272,-0.2627973554,-0.0756208368,-0.8287387236,-0.1148349859,0.4571189197,0.3881104615,-0.1714937202,0.0129569632,-0.6597933476,-1.0094867615,0.2830177049,0.3629293091,0.1293087952,-1.0277611155,0.3296745064,-0.1910665706,-0.0822246124,0.4593730282,0.8782159187,-0.3462001801,0.3384143024,-0.774779241,0.431444154,0.8593998669,0.0507389305,-0.2388015135,-0.0420578967,0.1838565595,-0.8845801433,-0.7607647134,0.0317507044,0.0952200407,0.0585541591,-0.1669287946,0.6108314511,-0.5006031232,-0.823000929,-0.8572326642,-0.4130104933,0.2523798166,-0.6397892191,-0.2723968613,-0.7862017157,-0.0001981356,0.4694450645,0.0705359941,-0.1067235243,0.5411463413,0.7578236433,-0.286769985,0.858535164,0.6411584164,-0.6783463978,0.5531326655,-0.3432142605,1.0100404648,-0.3792345028,-0.2242215029,0.9959916929,-0.2205170948,-0.4115742113,0.803601049,-0.4869107336,0.8112293484,0.6691772429,-0.8445560335,-0.3339436712,0.0173997934,0.698880453,-0.029604003,-0.7808707542,0.1229333609,0.1540983295,-0.5189935673,-0.8882642083,-0.3047377165,-0.3601656735,0.6746130935,0.5881785117,-0.2201240942,0.5516363996,0.8466878773,-0.5548781479,-0.0853871482,-0.0524550316,-0.7884986835,0.2947163352,-0.2340881485,0.7022385596,-0.3475557292,0.9258479135,-0.0744794465,0.3597092188,-0.1780860442,-0.1093861661,0.8687632899,0.5810666029,0.2388566278,-0.0661011022,0.5765229511,0.7870439685,-0.1570155032,0.1270897991,0.1531031143,-0.3640001129,1.0060975742,0.7972689991,0.1262983036,-0.6837910934,-0.9909085288,-0.2360571487,-0.4871533211,0.7874685946,-0.7606227356,0.4286091591,0.1532968867,-0.4612370817,-0.915094466,0.852601309,0.858839558,-0.7343416362,0.1562723875,0.2999735335,-0.5657947679,0.7109094808,0.2792193462,0.0827733267,0.947620367,0.4919722255,0.2234244632,-0.6926605858,0.4806454544,-0.4193887288,-0.3629343926,0.7580666699,-0.6018512829,0.0040296978,0.5637045243,0.4498222454,-0.2627143091,-0.8629679476,0.2614850463,0.1028377393,0.2467060835,0.6264868902,-0.8273316653,-0.121892583,1.1041399881,0.11292887,0.3885654479,0.6114907628,-0.7296718988,-0.6828194387,-0.4277550811,-0.5589661129,-0.6853060008,-0.3213931072,0.5038675627,-0.8347275195,0.2532807377,-0.69219218,0.6426928512,0.246711065,-0.3110985565,0.6501013382,0.273794351,0.1291440274,0.0711636954,-0.1944010447,0.4484758077,0.9812696916,0.5777877473,0.1182811842,-0.3181145583,0.1832824662,-0.2817247775,-0.2382427136,-0.9428629562,-0.8569659097,0.1780359522,0.9864764537,0.3461072188,-0.0856017168,-0.0280168105,0.5975338403,-0.294281244,-0.4163206425,-0.8727976928,-0.6599361108,-0.6089155591,-0.7995067564,0.9326695382,-0.3776910465,-0.6038735501,0.1605318949,0.6416531647,1.0743953351,0.9298806018,0.3251081015,-0.1311729024,-0.4140929134,0.637908163,-0.2776439753,0.0076500121,-0.4231982688,0.0460721343,0.2351887988,-0.4055201603,0.1810964334,0.8875783268,-0.2649174433,-0.249866576,-0.084609277,-0.4051176909,-0.4041815188,0.20846381,-0.102491423,1.1286310707,0.365892311,0.0427522695,-0.0071790104,0.0933246861,1.0867479485,0.6118716475,1.0420421504,-1.0638707868,0.5386684616,-1.244180706,0.1633494172,-0.1183286118,-0.5799657277,-0.2488361036,-0.1348818965,0.7686762918,-0.7627176223,-0.4009747068,-0.2317074713,-0.8664273637,0.04312705,0.7449585423,-0.0584685452,0.5127161894,0.8001816824,-0.0013913184,0.1513634818,0.4886865401,0.4375100247,-0.3281747182,-0.2378730778,0.9745115784,0.09054139,-0.5862142614,-0.2975133274,-0.1998919906,-0.7783273412,0.6019520941,-0.3630538368,0.963678215,-0.3189143414,-0.5742747418,0.006013204,0.9574723349,-0.4128037762,-0.1790471612,-0.110992006,0.1389986758,-0.6107831874,-0.2511994414,0.2214378402,-0.4904952952,-0.4869418562,0.639810848,-0.3049051087,-0.3437273575,0.1614780816,0.8177538068,0.8555825876,-0.6047868491,0.293486803,-0.9601367897,-0.9205426946,-0.0695788249,0.0372318933,-0.6371672954,-0.0340772865,0.7755315952,0.7376431856,0.9583135328,-0.1399583373,-0.0154031212,-0.1547382072,-0.7159053392,0.156329683,0.2474848209,-0.9129558414,0.1814534475,-0.2037006708,-0.3126808111,-0.7414359572,0.3555659854,0.0634175005,-0.0303160954,-0.1821517123,-0.8976641662,-0.6498021393,-0.7046950378,-0.9559837487,-0.0375061,-0.1815861234,-0.7386700678,0.7245838055,-0.6393623772,0.5648619996,0.2727204907,-0.079592824,0.6493102568,0.8992803255,-0.0317224419,0.1609368503,-0.3046761463,0.7112055089,-0.4887815396,0.0801579725,0.5292206994,-0.8324940563,-0.5989995764,-0.0064723805,0.0831433539,-0.4699307197,0.0715600942,0.4480737019,-0.1883501266,-0.1469234714,0.8852064833,-0.7708505245,0.5410051568,0.1273147575,0.3967079689,-0.229923738,-0.4621448732,0.5243829267,0.7725835308,-0.5813339161,0.5275761487,-0.4507068734,1.0758683953,0.2906570554,0.1971461405,-0.1675736333,0.2734847469,0.675222544,0.338341177,-0.3522218448,0.6519388543,0.1309873808,-0.5533571168,0.2503975663,0.7611268455,-1.0245065185,0.9393233731,0.6638143152,0.3626173665,-0.5122598202,0.0705157142,0.7053620486,-0.5963502658,-0.6145433454,-0.5594362596,0.0352223667,0.6799890578,-0.6002436056,-0.5484936041,0.1019381921,-0.0868830665
biasActivation=0,1,1
[BASIC:ACTIVATION]
"org.encog.engine.network.activation.ActivationElliottSymmetric",1
"org.encog.engine.network.activation.ActivationElliottSymmetric",1
"org.encog.engine.network.activation.ActivationLinear"
