encog,BasicNetwork,java,3.3.0,1,1469378574299
[BASIC]
[BASIC:PARAMS]
[BASIC:NETWORK]
beginTraining=0
connectionLimit=0
contextTargetOffset=0,0,0
contextTargetSize=0,0,0
endTraining=2
hasContext=f
inputCount=28
layerCounts=2,46,29
layerFeedCounts=2,45,28
layerContextCount=0,0,0
layerIndex=0,2,48
output=0,0,0,0,0,0,0,0,0,0,0,0,0,0,0,0,0,0,0,0,0,0,0,0,0,0,0,0,0,0,0,0,0,0,0,0,0,0,0,0,0,0,0,0,0,0,0,1,0,0,0,0,0,0,0,0,0,0,0,0,0,0,0,0,0,0,0,0,0,0,0,0,0,0,0,0,1
outputCount=2
weightIndex=0,92,1397
weights=-1.0312795596,0.7281613204,0.886121859,0.97522105,0.6124125432,1.1616161393,-1.017826257,0.5963904151,-0.3723417942,1.1313889454,0.2545567038,0.3735547905,0.1515028609,-0.4496133395,-0.2306971476,-0.1399016081,0.550502262,0.3971471545,0.2422570942,0.3501033943,-0.6066323883,0.3605046937,0.2240215402,0.2840735073,0.3119032859,0.0186559356,-0.4308356332,-0.119032175,-0.6497448405,-0.6615033145,0.8614048396,0.6796227662,0.8888852056,-0.5147047049,0.4793209491,0.9054376784,0.0017302048,0.6860212011,-1.0287911391,1.6163427958,0.4039231207,-0.2505016321,0.3418200764,-0.9374115985,-0.178613982,-0.3352850749,0.9577410009,-0.2617813571,-0.5445499172,0.6379718443,-1.1858690826,-0.9390078169,0.7969466534,0.5340034087,0.3169547453,-0.9476117099,-0.5062666338,-0.7949265435,0.1517989737,0.0033864783,0.1102993351,-0.4760287388,0.4972562384,0.030357186,0.2355489714,-0.5975993476,1.072613333,0.00841289,-0.1090577131,-0.3983041661,-0.9738537106,0.4738749814,0.1967027821,-0.1999979978,-0.3140052711,0.122212454,-0.6664274145,-0.1223844312,0.3868916796,-0.4503222511,0.6703717109,0.8278414825,-0.4108693238,-0.2735456884,0.0705942635,-1.4305578618,-0.4571607363,0.6624879199,-0.0842563196,0.4289196872,0.6838524601,0.151397387,0.7472071777,0.2243185567,0.3983544053,1.3128646662,-0.0210911568,-0.8862088723,-0.1624250802,-0.5955944174,0.5792195148,0.8426867697,0.4473222088,-0.5299764389,0.1626670821,0.1817329929,-0.0404205428,0.1648447221,0.0262906838,0.5800057058,-0.4868894092,0.3050671691,0.0322284666,0.7187910634,-0.3803391964,-0.4101384018,-0.6829528756,0.9029935855,0.9883651094,-0.3183119144,-0.5528765175,0.0008493096,0.2644237034,-0.4391037641,0.4695992339,0.7708698806,0.2444967926,0.2589160956,-0.9897559078,-0.8977235292,-0.1098069043,-0.9811200409,-0.3126398014,-0.6406607549,0.4582456329,-0.7797518673,0.7773369074,-0.4977412102,-0.6215375643,-0.9465533074,-0.7272883301,0.0472913433,0.4607067879,0.0452022043,-0.4291296586,0.0969340274,-0.7889791213,-0.2559801901,0.8670628969,-0.625010993,0.6611015938,0.9219990553,-0.6661279647,0.2429303104,-0.3422029839,0.2893552855,-0.0525375396,0.006564085,0.0745000536,0.3501543642,-0.437112396,-0.4326211216,0.2848103485,-0.5779686397,0.5473615507,0.9822238476,-0.0497972486,0.9197491326,0.6120436347,0.1505940154,-0.0931823535,-0.2005103275,-0.5684822929,0.5774816426,-0.8771802259,-0.7806984318,0.4633979376,0.8379274553,0.9802387897,-0.0876632525,-0.8283123543,0.1819524723,-0.9082567264,-0.8791258109,0.465356348,-0.9988474651,-0.3965748218,-0.8946976121,-0.5871316873,-0.2815124582,0.6412761905,0.7397051463,0.1632321348,-0.5137005527,-0.9950974382,-0.8193190475,0.5068104429,-0.109183755,0.2626093712,-0.6736590613,-0.0914683652,0.0100225054,-0.8056719016,-0.0945397485,0.7475443392,-0.0920430525,-0.6245568278,-0.6522982628,0.4048754619,-0.9078464309,-0.2996225621,0.3617999996,-0.7362979054,0.6376695579,0.8378133052,0.2747294134,-0.1542950268,0.4743950733,0.9125847238,-0.5240659298,-0.2337646305,0.4294432358,0.4747556392,0.2737748083,-0.3315537209,-0.4485031954,0.8131612836,0.4894219375,-0.1403893645,-0.5639487973,-0.3573872823,-0.5389264832,0.9967539229,-0.9970981014,0.60420647,-0.5174548903,0.1671315086,-0.8690105991,-0.6295298944,0.5687744395,-1.1550962677,0.6620281922,0.6029405354,0.0199862553,-0.1415442061,-0.3156312168,0.4079197388,0.5801296707,-0.3668696983,-0.3875911926,0.2292101936,0.1445058653,-0.2885619062,-0.1160704327,1.0251170708,-0.0549383073,-0.0006788744,-0.0974718179,-0.0874087991,-0.1424532269,-0.3873260587,0.1776293261,-1.389402188,-0.0983210999,-1.0894467986,0.5370206664,1.0308131317,-0.0389964003,-0.4420417242,0.5810771484,-0.4695119221,-0.8719830488,0.6529671508,0.6795792611,1.078313455,0.0151130157,-0.5207294362,-0.0493244304,-0.5047499954,-0.8559296136,0.0524728262,0.179519264,-0.1773421409,-0.6852266419,0.728234448,-0.2963263737,-0.313634257,-0.8068131293,-1.1270862392,0.6884985975,-0.5613739551,-0.2669879877,-0.9664152316,0.8253393468,0.3837898868,0.0815815112,0.6440877016,-0.2662953312,-0.3947409058,-0.5578179235,-0.3996263664,0.3786025777,-0.3374725672,-0.2477075688,0.6043481004,0.5211368737,-0.0975788054,-0.167832227,0.7604249236,0.7245023786,0.2606617592,-0.6760397055,0.8473543218,0.9794128802,0.173252572,-0.454068363,-0.6650468736,-0.5278186301,-0.1401524737,0.8974867635,-0.5237486374,0.7036842807,0.8632685183,0.7249771769,0.6179833559,-0.2533138877,0.2907868961,0.5303466852,0.1944597381,-0.0919927141,0.1509204237,-0.1594215031,0.2384070406,0.9151554783,0.7902622504,-0.7567864467,-0.7118837175,-0.5664403526,0.8218103827,-0.2697118187,0.1516660348,0.7870332898,-0.5988737286,0.1532088399,-0.9382502729,0.9586420613,-0.7019441749,-0.3917037819,0.113013829,0.3585294451,-0.931511626,0.6420198987,0.0184480777,0.2975014453,0.5453976351,0.4380197255,-1.0562548124,0.0514953132,-0.1612399042,-0.3918570461,-0.2326392121,0.6819081859,0.74470366,-0.06269821,-0.5517146883,-0.5910138649,-0.1924714545,0.354916262,0.5315347094,0.0095594046,-0.3998309975,-0.1609309578,0.3763257146,-0.0961790303,-0.128326583,-0.3717574385,0.8802069843,1.0564831237,-0.3653871169,-0.4354975869,-1.479479076,-0.802033353,0.959904217,0.756118785,0.8605599325,0.0028889665,-0.0754216643,0.7968165109,-0.7240153051,0.4210298191,-0.4492110738,-0.1501917908,0.8467408896,0.6858244478,-0.2485440763,0.6689953807,-0.3802999874,0.4937674536,0.2681796576,-0.4021736615,-0.9235601594,0.4592134763,-0.2177107776,0.2945431483,0.1867984672,0.5911468773,-0.6471803416,-0.9100853361,-0.3877729079,0.8221566689,-0.0312806918,0.6745093063,-0.7772211291,0.0168487858,0.3794219428,-1.0079732813,0.2637032206,-0.0932237637,0.3558947836,0.920397362,-0.5092992591,0.7084727925,-0.1719048783,0.4422281996,-0.5737166042,0.6444457103,0.0613376536,-0.3308049775,-0.4721639023,-0.6362068154,-0.2793104377,-0.8997161328,-0.0177808535,0.8225325938,0.3709218185,-0.3424577818,-0.6547101853,0.3581387808,-1.1450891119,-0.7484070508,0.402306564,0.6779214926,0.2916994966,-0.4853473801,0.2323723025,-0.7152437686,-0.3569479951,-0.3902389769,0.1273979791,0.8136980521,0.3089182191,-0.2823571379,-0.8786963987,-0.9817273005,-0.5207541959,0.4488506536,0.128654038,-0.5346033378,0.6994687016,0.524236028,-0.6808353496,-0.0435176681,-0.0378260268,0.8260877792,-0.5441004579,0.4197532947,-0.6457195112,-0.6051954056,-0.5845606074,-0.1402707684,0.8182100549,-0.3927296221,-0.0823636331,-0.3553787439,-0.2303831509,-0.2293774798,-0.6161433435,-0.312352991,-0.0545552832,0.075382428,-0.8247190968,-0.4380112535,-0.6508934866,-0.7284385864,0.672003025,0.5220339333,0.3026503517,0.1999298864,0.8978245977,0.7379830807,-0.609222588,-0.0548195421,0.6979765946,-0.4788457221,0.2771989545,-0.2872259783,-0.2572143628,-0.8347521198,0.1732052752,0.5380954051,0.7450767817,0.1711952965,-0.3481910887,-0.1938299311,0.7898910778,-0.8115463111,-0.3260381433,0.6985133194,0.6209705547,-0.6886706911,-0.4721998848,-0.058798918,0.2748400189,0.0545686367,-0.8572147918,-0.8441367503,0.4984130163,-0.9182425743,0.9153043163,-0.7860652896,-0.1607000788,0.6240920181,0.4649164479,0.3741807552,-0.1455724807,0.5126558414,-0.5790473241,-0.3244268631,0.4193656627,0.6537177666,-0.5610015753,-0.2876889623,-0.0029509054,-0.0434406957,-0.33701223,0.6282734893,0.4208781636,0.0950988134,0.8148511128,0.7400769602,0.2814068598,-0.1784930113,-0.6295411208,-0.2113357247,-0.0654653366,0.6085600025,-0.697742811,-0.4531574965,0.4854224425,0.3387952501,-0.6863694032,-0.543924544,0.6213191124,-0.1174856311,0.2317172499,0.4796081189,0.5135165863,0.2961318197,0.6234010248,0.1499125981,-0.3727635538,0.0643745264,-0.5894902793,-0.6800612262,-0.7206961948,0.1652782821,-0.2703803568,0.4242847565,-1.0010842955,0.2214997248,-0.6380498557,-0.5553909846,-0.9419438579,0.6674753704,0.1660868255,-0.3937396555,-0.0081730885,0.8001218683,0.4242860912,0.9127549875,0.5325975073,-0.5020627905,-0.6829425234,0.2272000605,0.4589742784,0.3265783889,0.6049351844,-0.1641463878,0.4447002592,-0.9995141791,-0.2287823138,-0.6199272165,0.0027374828,1.0550346005,-0.4431161646,-0.0131234113,0.8436302317,0.9296910098,-0.6181075867,-0.9523357249,0.8745049139,0.6194346234,-0.469262859,0.8025465493,0.3395011184,-0.2614389723,0.4749480695,0.4957670627,0.3495289824,-0.0896778586,0.7876480259,0.7401750988,0.5374892392,0.4350503929,-0.6995531102,0.7734231212,-0.5945304865,0.6427136144,-0.2330696482,-0.0797413939,0.8146971793,0.6608727156,0.0770211417,-0.0792891379,-0.3011377248,0.5757437249,0.3875731608,0.2390001951,1.0138427529,-0.2399735338,0.9131570659,0.6501577309,0.9640985822,0.3567194474,0.8318067279,-0.5435242341,-0.9852913677,0.1487113013,0.0169793301,0.7300144608,0.5549231667,0.6938907564,-0.3597964979,0.2994714294,0.3022310555,-0.7499798087,0.1568312143,0.2573525274,0.5647429681,0.8934571023,-0.3066488493,-0.3261182468,-0.5306393988,-0.3438535389,0.2022182079,-0.3009169269,0.6726195447,-0.8256553535,-0.5434925782,0.4960806754,-0.3909095076,1.0298141831,0.9382716817,0.7016739663,-0.3148621547,0.1984899537,-0.9096314867,-0.0625502841,-0.8141859201,0.637957299,-1.0854823074,0.4563844994,-0.5364636973,0.9294195123,-0.4682054345,0.660056736,-0.0585523353,-0.7854293821,0.7983629443,-0.5706415692,0.2023816461,-0.1966723813,0.9278440119,0.9136753517,0.240211022,0.0117607835,0.0034566608,0.7958969423,0.6217567531,0.5453585966,-0.2348743348,0.8142009151,0.6047257003,0.6914475601,0.1097555173,-0.0438176865,-0.2484482663,0.1777210732,0.9616201003,0.3738118411,-0.1273391125,0.1023075465,0.3805053139,0.4574059881,-0.4066976878,0.7142991931,-0.878527091,-1.0437420645,-0.7440979047,0.6520545483,0.3343935251,-0.0263561107,0.8507338429,-0.4406104976,-0.3442717803,-0.3042074144,0.5421412478,0.173919429,-0.4885756099,-0.7968784075,-0.1440611879,0.0385349729,0.6352406691,0.0484835715,0.9237719573,0.7633639865,0.1565891115,-0.8821127868,-0.25879577,-0.9904689425,0.3689816298,0.07067361,-0.3263386487,-0.1268250504,-0.700535086,0.13552495,0.072227582,0.3227069745,-0.0602668915,-0.2658556367,0.7291054886,0.7214544807,-0.8796863728,-0.22088001,0.8627582392,-0.0401443385,-0.0248119756,0.1138688455,0.1311750666,-0.9112420565,0.6673497919,0.7150376285,-0.2112191397,-0.0457575211,-0.8220166967,0.5485097857,0.5647615863,-0.9605192294,-0.2010950652,-0.8305801399,-0.8354520715,0.6532551818,0.0971918736,-0.0399516618,1.176570696,-0.4187661434,0.6575983429,-0.2872222644,-0.1485863385,0.90832951,0.7072596816,-0.0052691716,-0.864845154,0.2736646293,-0.6604306376,0.1061390199,0.4251731856,-0.4537472416,0.0149746686,0.1068137945,-0.3628643692,0.4748860424,0.527473523,0.1911308512,-0.1679375313,-0.3117265404,0.4225048943,-0.40887978,-0.4797476232,0.3635533987,0.7229029901,0.2429263443,0.3173674696,0.4794861392,-0.7284784458,-0.8738739168,0.5322304196,0.6842665322,-0.7590345222,0.6908061607,-0.2084285497,0.2308705002,0.1185041072,-0.4025172364,-0.169096317,0.5078594303,-0.6571525869,-0.7321710673,-0.5274014333,-0.8981194168,0.6547392246,0.6190574629,-0.3597759622,-1.0678951373,0.8037769584,-1.0504264072,0.1244431787,-0.2941088203,-0.6861372522,0.5262431657,0.0989907646,-0.0564728632,0.1325378339,0.8166423154,-0.8024314945,-0.3527578221,0.0370521255,0.410680707,0.6072804966,1.087691931,-0.6919912655,-0.5765599122,0.2846893405,0.4800612591,0.4063802918,0.5037664329,-0.7062780722,-0.3076609111,0.1807498374,0.4704013568,-0.9136014861,-0.3637945036,-0.0014792063,0.8417087537,0.0884056857,0.8895792286,-0.9713044996,-0.1533759467,0.7872225005,0.7948517835,-0.7706717693,-1.1009844935,0.6885052311,-0.8418203538,-0.4225405264,0.392129031,0.712940897,0.5828758555,-0.2123636137,-0.456812642,-0.8274132646,-0.0350050554,-0.7031795473,0.1593356088,0.8435271258,0.512546761,-0.5611043068,-0.688386691,0.4505799429,-0.8081796928,0.6743738808,-0.5726827673,0.5483627753,0.9695217331,-1.0607385694,-0.7355073853,0.5809032269,-0.814118214,-0.7988903228,-0.2080704753,0.8193092133,-0.0438042013,-0.8542118603,-0.5724194134,0.1799427106,-0.2044084044,-0.6984444989,0.0582004358,0.2181051099,-0.3145169909,0.0852717358,0.7979407404,0.4845147183,-0.7159926521,-0.6581956061,-0.6343501285,0.7975192476,-0.1383252896,0.5542011547,0.7121755407,-0.7259758325,0.9354311997,-0.4338246248,-0.7479858938,-0.0419764427,-1.0004023227,0.3495411472,0.1769154061,0.2336032881,-0.8140951359,0.5824842986,0.1273951779,-0.0462430572,-0.8594860149,-0.4203233347,-0.5332986974,-0.9806420332,-0.2630809821,-0.5035966265,0.619166821,-0.7978244805,0.7252768649,0.8279293004,-0.157406717,0.3973383325,0.4549446339,-0.9159970638,0.590347023,0.9007858334,0.0081104654,-0.1571464577,0.3101343341,-0.4667451604,0.2233948908,-0.8401875955,-0.6027662656,-0.5257436048,-0.2327901863,-0.627295673,0.6525929313,-0.0159321643,0.3535803899,0.8158898593,0.4463249249,0.3905176996,-0.8739753675,0.2610082095,-0.2742009053,-0.377004149,0.8076461525,0.9097861996,-0.3138970715,-0.7365552306,-0.8666117158,0.2514097425,0.4281048926,-0.5485683142,-0.9967273383,0.0498665527,0.8482571652,0.5885383253,-0.9774134207,0.2654087485,-0.7397916521,-0.8522932003,-0.5171317389,0.4419818747,0.0417940591,0.5319777975,0.6783875252,-0.6763088486,0.8686396028,-0.1740789335,-0.2505287694,-0.2021745844,0.7263769808,-0.342678909,-0.3529053335,0.5092112385,0.2284545141,-0.646623313,-0.744587322,-0.3917788424,0.1068601253,0.9122431447,0.6014616945,-0.1864320567,-0.522925545,0.6966384293,-1.2417050957,0.6983591321,-0.9238998145,-0.3255543263,-0.0520427491,-0.3712307923,-0.0781296866,0.4309725999,0.7572406976,0.7420705177,-0.2262597645,0.187410919,0.8990523364,0.4416614697,0.4844419761,0.7102186759,0.2628390774,-0.6950618421,-0.4346816877,-0.8918735011,-0.0842185607,0.6929802108,0.1491462395,0.8016106889,0.7651657882,-0.3686715823,0.2611331981,-1.0953199319,0.7967395312,0.3231850605,-0.4969051659,-0.7417418891,-0.517201241,0.0684694857,-0.2670915998,-0.0668234538,-0.8140355843,-0.1201827157,0.4444199864,0.3925332083,-0.1696730995,0.0035959342,-0.6641781573,-1.0314075539,0.2763138198,0.3454198867,0.1290633598,-1.0288141461,0.3225229095,-0.1912558423,-0.0757509997,0.457001628,0.8823068339,-0.3397316255,0.3391818368,-0.7619823584,0.4098188045,0.8659902094,0.0551174006,-0.2304555567,-0.0438733588,0.1750366998,-0.8864579908,-0.7640408393,0.0258475938,0.0904826667,0.0547683458,-0.1737892758,0.6005531154,-0.5037053887,-0.8260884012,-0.8626920566,-0.4081864253,0.2530533083,-0.6420297012,-0.2810392313,-0.7848039953,0.0008406503,0.4606741095,0.0605931099,-0.1110888269,0.5395283843,0.7556501382,-0.2881667016,0.8524713403,0.6429439368,-0.6832597081,0.5448043529,-0.3601662728,1.0082587197,-0.3958999148,-0.2305626768,1.0038962698,-0.2203832633,-0.406480531,0.7876859615,-0.4946297866,0.7887107896,0.6770765519,-0.8473674957,-0.3319373265,0.0100991111,0.6959629203,-0.0360343435,-0.7776691046,0.1163311007,0.1492318262,-0.5308285423,-0.8841428042,-0.3140718442,-0.3588302358,0.6745398464,0.5816572588,-0.2122464654,0.5577737276,0.8555662835,-0.5358390702,-0.0921724977,-0.0492901239,-0.7721315151,0.2947588433,-0.2296573887,0.7101084399,-0.3402277787,0.9284234175,-0.0677267849,0.3632443493,-0.1728064782,-0.0989764362,0.8708528375,0.5839984673,0.2389013628,-0.0574363933,0.582252525,0.7914445391,-0.158336985,0.1342675146,0.1648246997,-0.3510976975,1.0082781265,0.7999194583,0.1281570917,-0.6762520217,-0.9914013317,-0.229125507,-0.4752373135,0.8084579343,-0.7636127725,0.4103136336,0.1533991903,-0.4680956238,-0.9084323493,0.8592115774,0.8520072114,-0.7359416169,0.1799794892,0.2974565801,-0.5699432996,0.7124038864,0.273645859,0.0868421455,0.9544117721,0.493188711,0.2116527181,-0.6870696525,0.4758362796,-0.4105681219,-0.3565156256,0.7581813513,-0.5979568707,0.0077422082,0.5637218693,0.442632924,-0.2611245585,-0.8764375156,0.2496402381,0.1095577323,0.2944507466,0.6275540166,-0.8339887028,-0.1377217477,1.132089065,0.0881261865,0.3875490626,0.6052985581,-0.7163521062,-0.6849394519,-0.4220762103,-0.5524528841,-0.6680833776,-0.3018358303,0.5117040006,-0.8021993648,0.2660337655,-0.6842442355,0.6324763565,0.2249785862,-0.3036766448,0.6693107056,0.2854596435,0.1467178288,0.0441645512,-0.1716084715,0.4490120958,0.9795906426,0.5767489539,0.1245279838,-0.3068347788,0.1825510645,-0.2903056317,-0.2530802657,-0.9356824442,-0.8629519461,0.1676429282,0.9846441211,0.3364292184,-0.0777988524,-0.0345307375,0.5992618836,-0.3055322985,-0.4193813289,-0.8779833701,-0.6566853076,-0.6146274915,-0.7954387841,0.9099149974,-0.3827267645,-0.6137808636,0.1556220636,0.6273599189,1.0893850295,0.9169132589,0.3204637292,-0.1385217674,-0.3527869811,0.6121235199,-0.2335492992,-0.0222710282,-0.296179079,0.1950625075,0.1990542275,-0.3116024089,0.1542588863,0.8696433841,-0.3115657663,-0.1952034765,-0.0622617,-0.3789723052,-0.3841903779,0.1259706771,-0.0804154081,1.1719189726,0.2997753963,0.0150654155,0.0111931302,0.1212571654,1.1730477762,0.6732188483,1.1148534719,-1.2771044547,0.6085589528,-1.3298749148,0.1123934083,-0.095472936,-0.57385962,-0.2567712351,-0.1249095886,0.7698368044,-0.7535820805,-0.3814230783,-0.2424131739,-0.8804726318,0.0186371673,0.7536037422,-0.0490794152,0.5129660371,0.7803804714,-0.0071375459,0.1313896552,0.5094119919,0.4329400858,-0.3226930314,-0.2348956588,0.9593929019,0.0918602056,-0.5771103238,-0.2884148941,-0.1911096701,-0.8314196363,0.5996108651,-0.3830078282,0.9634918645,-0.3142390756,-0.5991443448,0.006330999,0.9766002854,-0.3742815144,-0.2159432232,-0.1085282814,0.1167858293,-0.6138340406,-0.2550784054,0.2198386928,-0.4777313031,-0.4788092311,0.6207381026,-0.3049357942,-0.3412168968,0.1506193947,0.7978826532,0.8421326137,-0.5941355829,0.2828259841,-0.9656336234,-0.9410385348,-0.0885567421,0.0266332296,-0.6063558181,-0.0490604216,0.8062079497,0.7431415739,0.9606297409,-0.1426088548,-0.0187239359,-0.1527785117,-0.7169562657,0.1588968279,0.2447619975,-0.9157967335,0.183130517,-0.2065593912,-0.3145318687,-0.7478850187,0.3459387439,0.06053014,-0.0329977646,-0.1831205389,-0.8990127781,-0.6507026623,-0.7051016912,-0.9601768416,-0.0373532908,-0.1805347567,-0.7359104006,0.7252106618,-0.6353444533,0.5529011952,0.2744122553,-0.082777487,0.6413809972,0.8933836389,-0.0272136748,0.1651509724,-0.2827330561,0.6879923007,-0.5478092505,0.0950448699,0.5203554912,-0.8487485876,-0.6092296738,-0.0062346547,0.0897374367,-0.4599159672,0.0587646719,0.4075206535,-0.192587775,-0.1237208137,0.8710300592,-0.7439744786,0.5104775702,0.1413609719,0.3835403207,-0.2638123256,-0.4828961434,0.4965715802,0.8332736013,-0.6131836187,0.5468475585,-0.4334586336,1.0779193591,0.3019213138,0.1971464444,-0.1583313872,0.2827822242,0.6661970825,0.3441646642,-0.3464001555,0.644532455,0.1319119626,-0.5413190646,0.2506113639,0.7673413253,-1.0308791097,0.9303717439,0.6680341924,0.3712600153,-0.5186840327,0.0740833464,0.7039362495,-0.5968131932,-0.6143310711,-0.563138559,0.0320207668,0.6785652045,-0.5931005196,-0.5510368378,0.1139364068,-0.0709132435
biasActivation=0,1,1
[BASIC:ACTIVATION]
"org.encog.engine.network.activation.ActivationElliottSymmetric",1
"org.encog.engine.network.activation.ActivationElliottSymmetric",1
"org.encog.engine.network.activation.ActivationLinear"
