encog,BasicNetwork,java,3.3.0,1,1469378871231
[BASIC]
[BASIC:PARAMS]
[BASIC:NETWORK]
beginTraining=0
connectionLimit=0
contextTargetOffset=0,0,0
contextTargetSize=0,0,0
endTraining=2
hasContext=f
inputCount=28
layerCounts=2,46,29
layerFeedCounts=2,45,28
layerContextCount=0,0,0
layerIndex=0,2,48
output=0,0,0,0,0,0,0,0,0,0,0,0,0,0,0,0,0,0,0,0,0,0,0,0,0,0,0,0,0,0,0,0,0,0,0,0,0,0,0,0,0,0,0,0,0,0,0,1,0,0,0,0,0,0,0,0,0,0,0,0,0,0,0,0,0,0,0,0,0,0,0,0,0,0,0,0,1
outputCount=2
weightIndex=0,92,1397
weights=-1.0557086465,0.7294147919,0.8912801259,0.9655387105,0.672377968,1.1867310423,-1.0610881199,0.5970640145,-0.3722878605,1.1291696195,0.286778654,0.4062364278,0.1292141603,-0.4461797134,-0.2122862136,-0.1447036491,0.5387628344,0.3977026313,0.2348821517,0.3598693554,-0.6030692896,0.3685791744,0.212544975,0.2969683436,0.3398493143,0.0192688122,-0.4070057295,-0.1081220908,-0.6339565587,-0.652351758,0.8636129282,0.686633735,0.8780560437,-0.5108498095,0.4831556511,0.9071143879,0.0040126071,0.6862647122,-1.0246770438,1.7243037252,0.4035287167,-0.2665168394,0.3328752174,-0.9623474882,-0.1733088379,-0.3332671849,0.9709705304,-0.2529925767,-0.5390172996,0.6333477406,-1.2076898589,-0.9846118715,0.8158864204,0.5373363281,0.3431115841,-0.9668069502,-0.5138170496,-0.8135819092,0.1419875964,0.0171258029,0.1123180083,-0.4637825343,0.5003334458,0.0255983014,0.2419290073,-0.609290262,1.0707680175,0.0013283742,-0.1138224681,-0.3845193461,-0.9758677507,0.4578341761,0.1896941118,-0.2111265686,-0.3153834675,0.1301963528,-0.6518801787,-0.141321378,0.3726021701,-0.4483269666,0.6578345226,0.8233182359,-0.4099854407,-0.2750892513,0.0820811754,-1.535421037,-0.4693922663,0.6663436547,-0.0886237501,0.4482976242,0.6812004549,0.1604247441,0.7312224695,0.2270328137,0.4067719486,1.308063528,-0.0000878573,-0.9050985893,-0.159431064,-0.5827356115,0.560656726,0.8597253438,0.4453382572,-0.5156489565,0.1613251607,0.1823040593,-0.0390531311,0.1514833503,0.0178755251,0.5746403678,-0.4737524838,0.277632851,0.0379434091,0.7133862046,-0.4044683003,-0.4282091017,-0.7013906439,0.9628829354,0.9677126653,-0.2979151119,-0.5452508715,0.0005082855,0.2610296339,-0.4398131381,0.4687533195,0.7692935329,0.2461552158,0.2595882113,-0.9908460498,-0.8952092608,-0.1098063028,-0.9813212104,-0.3141809276,-0.6411699046,0.4588695716,-0.7786554514,0.7784458755,-0.49736662,-0.6210585162,-0.9457632606,-0.7274339336,0.0467808782,0.4611278881,0.0465972473,-0.4285357027,0.0979879076,-0.7910359895,-0.2541286149,0.8668564519,-0.6272730265,0.6631549969,0.9213138714,-0.6643829687,0.2422832044,-0.3391938851,0.2941656179,-0.0541423941,0.00651163,0.0846804829,0.349112774,-0.439376511,-0.428363123,0.2749068926,-0.5768910783,0.5464243989,0.9813207384,-0.0514115307,0.9208051591,0.6081495914,0.1550622685,-0.0895658653,-0.1998048518,-0.5653441581,0.5799899101,-0.8738743874,-0.787881718,0.4674396384,0.8353846612,0.9799810137,-0.0874541778,-0.8305585719,0.1777750433,-0.9080024309,-0.8789845806,0.4671678144,-1.0009769353,-0.3989190698,-0.894432589,-0.5860893635,-0.2823804469,0.638036676,0.7349168581,0.1624421588,-0.5143946842,-0.9960135583,-0.819800254,0.5058995689,-0.1122178718,0.2609067217,-0.6755605794,-0.0910432112,0.0105764859,-0.8065122712,-0.0933685846,0.7455437875,-0.0908516835,-0.6229346055,-0.6558951061,0.4160798989,-0.9574540926,-0.2967974275,0.3579454155,-0.7055092498,0.6489423093,0.8230143346,0.2657189131,-0.1340356158,0.4644403924,0.9181882718,-0.4942010819,-0.226462277,0.4323897798,0.4981483295,0.2664989828,-0.3066566736,-0.4416486934,0.8207096606,0.4633682316,-0.1424312453,-0.5613897031,-0.3424132651,-0.5286037835,1.0065803115,-1.0290866626,0.6189461326,-0.5325438473,0.1426919597,-0.8496306913,-0.6055478342,0.5396260453,-1.1525645303,0.6346365866,0.6346868091,0.0203780689,-0.1476393518,-0.2895644623,0.3963234933,0.5762426207,-0.3788571979,-0.3795075355,0.2311485312,0.1521653585,-0.2640651194,-0.1168311374,1.0303297662,-0.0493517489,-0.0201168978,-0.0960659632,-0.0814549824,-0.1160147942,-0.3650998551,0.2003717451,-1.4516563469,-0.0729551643,-1.1093622984,0.5318233057,1.038537944,-0.0459128108,-0.433181285,0.5939071449,-0.4336179478,-0.8857736695,0.6527744917,0.6403288352,1.0879810948,0.003500338,-0.5189868079,-0.0352701386,-0.482462441,-0.8793972534,0.0286554104,0.1590737984,-0.1854710375,-0.7020158757,0.7047747339,-0.2815615289,-0.2964367257,-0.8096580014,-1.1421592657,0.6768908136,-0.5737409808,-0.2491166567,-0.9865867987,0.8364663242,0.400621819,0.0828202287,0.6401903655,-0.2631084124,-0.3928835457,-0.5559599252,-0.3974439261,0.3784907307,-0.3362626814,-0.2440643751,0.6062040456,0.5213313989,-0.0950775307,-0.1701435979,0.7586237733,0.7254917302,0.2642201665,-0.667638527,0.8453589766,0.9785758315,0.1717888486,-0.455821978,-0.6637985342,-0.5267202579,-0.1403075861,0.8995403386,-0.526346907,0.7057435244,0.8673945949,0.7301832884,0.6131830751,-0.2582898373,0.2885910135,0.5276930227,0.1980091023,-0.0982620642,0.1555682091,-0.1589920125,0.2300364493,0.9203176791,0.7911475616,-0.747860065,-0.7061732634,-0.5672567494,0.8220585916,-0.2668217294,0.1516961883,0.7856903806,-0.5980330975,0.1506177828,-0.9276376612,0.9574154819,-0.7085731743,-0.395913263,0.1071554367,0.3758894369,-0.9383070547,0.6467793688,0.0242662304,0.3102124169,0.5217757262,0.4326181978,-1.0427318694,0.069159777,-0.1448317926,-0.3723565792,-0.2384856857,0.6503298656,0.7209136887,-0.0608976846,-0.5483744509,-0.5655681948,-0.20080365,0.3439372747,0.5175400521,0.0101729145,-0.3997588504,-0.1551708161,0.3753200562,-0.0883816192,-0.1265792707,-0.3585079828,0.8944687066,1.0694416944,-0.4171908008,-0.4270389659,-1.5074009778,-0.7969993693,0.965987836,0.7622916222,0.8459970815,0.0031513114,-0.0891631389,0.7994335889,-0.731298307,0.4142806925,-0.4506399542,-0.155017676,0.8366792764,0.6762907294,-0.2699010463,0.6681622322,-0.3954962612,0.4828003073,0.2617977975,-0.4021485578,-0.9374812921,0.4504426773,-0.20425548,0.294572333,0.1891679951,0.5923759249,-0.6441973275,-0.9221123605,-0.3859308299,0.8159317807,-0.0465554262,0.6906019279,-0.7472133422,0.0256761699,0.388727175,-0.9862820884,0.2684738145,-0.0820155886,0.3546820555,0.9267208944,-0.5196397997,0.7093952895,-0.1692282488,0.4467429106,-0.577470305,0.6439861168,0.0656919421,-0.3228155422,-0.4719630624,-0.6306547191,-0.2817172042,-0.8980439836,-0.0170351545,0.8283677272,0.3788039984,-0.33701008,-0.6766161767,0.36195819,-1.1524203855,-0.7354582057,0.402425593,0.6764365201,0.2893905325,-0.4847493128,0.2319293741,-0.7139899558,-0.3584048947,-0.3909174144,0.130005372,0.8153037035,0.308709132,-0.2803135988,-0.882924626,-0.9828590912,-0.5209062634,0.4506644919,0.128665376,-0.5356250227,0.6996324385,0.5224421838,-0.6780806438,-0.0428704006,-0.0373689598,0.82543512,-0.5428409533,0.4183130941,-0.6446150943,-0.6022124611,-0.5830687927,-0.1398760784,0.8209665194,-0.3921964451,-0.0816033377,-0.3530874923,-0.2364698195,-0.2313580195,-0.610784921,-0.3166801221,-0.0563778782,0.0751275386,-0.8190168818,-0.4319070118,-0.6526047522,-0.731962832,0.6676565139,0.5186100424,0.3016850421,0.1923621364,0.8986690422,0.7357856788,-0.6107302824,-0.0581965873,0.6958128202,-0.4822846677,0.2822888381,-0.29206377,-0.2578255725,-0.8359482411,0.1730541024,0.5364105225,0.7446541092,0.1712232762,-0.3502204704,-0.1967687085,0.7887686858,-0.8091510112,-0.3242684322,0.6988983501,0.6200429745,-0.6850539031,-0.4733405664,-0.0596067988,0.2746426532,0.0521938628,-0.8553628433,-0.8447174193,0.497094113,-0.9193291572,0.912607216,-0.7867584585,-0.1631252594,0.6221663142,0.462740533,0.379263652,-0.1482884015,0.5143144079,-0.5793405444,-0.32752895,0.4145589084,0.6564973317,-0.5634209996,-0.2819500716,-0.0023439057,-0.0415201137,-0.3332475444,0.6405161445,0.4184162475,0.0963238146,0.8107021888,0.739829199,0.2850610374,-0.1747710328,-0.6267207306,-0.2129959812,-0.0619709533,0.6095356544,-0.6882766304,-0.4565980269,0.4842630286,0.3394745114,-0.6830596615,-0.5448147172,0.6220922725,-0.1170809079,0.2237334589,0.4803230437,0.5137219995,0.2956833705,0.6140564651,0.1495699475,-0.363955517,0.071106383,-0.5912229434,-0.685104533,-0.7214230257,0.1703757029,-0.271500955,0.4147521038,-1.0051629302,0.2214707373,-0.6382023124,-0.5487340426,-0.9364066031,0.6655961264,0.1650924136,-0.3957566654,-0.0116827289,0.8017340971,0.4257850218,0.9112035199,0.5357404961,-0.5053542768,-0.67989441,0.2336969576,0.4592132236,0.3258930995,0.6059068493,-0.1649121787,0.4436158095,-0.9995101884,-0.2260422258,-0.6192740914,0.0039990438,1.0548483677,-0.4418215557,-0.0142393339,0.843522455,0.9290364985,-0.6168183159,-0.9528797165,0.8758547613,0.6194053288,-0.468708713,0.802703078,0.3405160673,-0.2615435225,0.4754429702,0.4967364975,0.3501189187,-0.0885843924,0.786149523,0.7416153351,0.5371125693,0.4359595791,-0.6994105898,0.7730853658,-0.5944676908,0.642996794,-0.2318726733,-0.078834447,0.8149297185,0.6611216139,0.0778031912,-0.0785518245,-0.3007491003,0.5769755777,0.3870940851,0.2388590644,1.0141735569,-0.2388952896,0.913785716,0.6498963138,0.9647190119,0.3567134724,0.831798785,-0.5432765026,-0.9850545119,0.1487351007,0.0175320917,0.7295271151,0.5553960056,0.6949396772,-0.3578628755,0.3077582596,0.3102764035,-0.7414415351,0.1605326609,0.2598182707,0.56549572,0.8850666957,-0.3064462506,-0.3511181411,-0.5384233627,-0.3439492916,0.197454299,-0.276181712,0.669462713,-0.8247340061,-0.5364104878,0.48938242,-0.3901170775,1.0282619327,0.9278285998,0.7026146437,-0.3137778237,0.2046252628,-0.9048365541,-0.0582474832,-0.8345992423,0.6411465442,-1.0927875452,0.4508790649,-0.5364422694,0.9294402478,-0.461705066,0.6602102048,-0.0507409284,-0.7847617693,0.8022094018,-0.5634873436,0.2063734243,-0.1926157865,0.9292845752,0.9152960741,0.2428273521,0.0127218308,0.0064229181,0.7973159864,0.6235731237,0.5449608206,-0.2288618747,0.814908363,0.6037110875,0.6916226646,0.1081880291,-0.0442377168,-0.2490683733,0.1841971649,0.9610060813,0.3795454205,-0.1155164601,0.1044256924,0.3692864403,0.455504742,-0.4055522756,0.7159716047,-0.8756613536,-1.0476012562,-0.7465222469,0.6522413044,0.3324932066,-0.0279726563,0.8484599864,-0.4418771389,-0.3471940133,-0.3063633534,0.5382835849,0.1741337961,-0.4902923713,-0.7969720518,-0.1481179009,0.0361697487,0.6359226694,0.0505274074,0.9241312592,0.7656634842,0.1486701449,-0.8798164753,-0.2593216506,-0.9951645211,0.369465609,0.0684489414,-0.3321500059,-0.1269581901,-0.7044806122,0.138401992,0.0702097684,0.3209659728,-0.0621628197,-0.2671919688,0.7283965377,0.720356637,-0.8824258468,-0.2214232155,0.861637546,-0.0418616746,-0.0236800273,0.1144101376,0.1289424157,-0.9091379999,0.6640320073,0.7156833256,-0.2083900438,-0.0443728991,-0.8197822236,0.5411972958,0.567328525,-0.9630099596,-0.2053107895,-0.8272329428,-0.8342288995,0.6485176128,0.0963059107,-0.0389772973,1.1821397762,-0.4180819834,0.6495507265,-0.2800881986,-0.1542077153,0.9039697463,0.7078727571,-0.0085235995,-0.8639453232,0.2749961593,-0.6589890979,0.1079268609,0.4270953122,-0.4565187782,0.0100591578,0.0984964381,-0.3622639832,0.4811597893,0.5328986284,0.195306669,-0.1843356484,-0.30635522,0.4123670503,-0.4162382778,-0.4694756331,0.3572574247,0.7167488262,0.242428439,0.3072385145,0.4744484056,-0.7268758947,-0.8687276908,0.5288361448,0.6646048959,-0.7526120362,0.6793098184,-0.194107315,0.222988929,0.1102696691,-0.4041680109,-0.1607717325,0.5072369621,-0.6507043927,-0.7261501718,-0.5164777141,-0.8985962787,0.6612585867,0.6248412051,-0.3591973429,-1.092386294,0.8035352647,-1.0691309516,0.105756407,-0.2934889041,-0.6721475451,0.530806312,0.0989988439,-0.0572566596,0.1318277309,0.8150040705,-0.7950559664,-0.3516579689,0.042143452,0.4080507696,0.6098449713,1.0865143953,-0.6902756169,-0.5727146754,0.2894452669,0.4847197702,0.4070560872,0.5062839414,-0.701219981,-0.3109635229,0.1813707931,0.4698848015,-0.914702605,-0.3626834488,0.0016086999,0.8423108111,0.0952249369,0.897403151,-0.9740238185,-0.1586988774,0.786756533,0.7945826998,-0.7687078483,-1.1051632376,0.6821176718,-0.8418400059,-0.4260738932,0.3915955663,0.7123822693,0.5895920234,-0.2061629931,-0.458476967,-0.8258847343,-0.0400549945,-0.7070694898,0.1583964514,0.8407370975,0.5092333352,-0.5499462412,-0.6896154013,0.4465509632,-0.8109954492,0.6703927895,-0.5660235363,0.5428876326,0.9677760466,-1.0621208259,-0.7356690503,0.581043185,-0.813807132,-0.7991794069,-0.208681853,0.8188188188,-0.0434703333,-0.8537336673,-0.5720748278,0.1794049587,-0.2045221482,-0.6988304475,0.0589663941,0.2183939496,-0.3142323227,0.0854516482,0.7986975812,0.4847834504,-0.7153170162,-0.6580620442,-0.6351402326,0.7973632781,-0.138287505,0.554432674,0.7119279564,-0.7259964963,0.9352123519,-0.4347929757,-0.748385841,-0.0416916343,-1.0000704725,0.3476906154,0.1773609544,0.2271708503,-0.8196727633,0.5790290306,0.1348168583,-0.0508656748,-0.8619599201,-0.413155009,-0.5293111836,-0.9788944197,-0.2619484086,-0.4945031385,0.6071754047,-0.8046343933,0.7276614936,0.8229146566,-0.1595032997,0.4006178812,0.4529433809,-0.9187781856,0.5897355561,0.895732509,0.0142819576,-0.1616769816,0.3049122948,-0.4723520048,0.2223821673,-0.8428971541,-0.6034040771,-0.5280090668,-0.2305982668,-0.6304667189,0.6514744589,-0.0148929376,0.3507113983,0.8168675771,0.4470854354,0.382400781,-0.8716665749,0.2624784181,-0.2748789914,-0.3762186858,0.7983967258,0.9097716269,-0.3121082034,-0.7391280699,-0.8654372138,0.2504653754,0.4248321948,-0.550210435,-0.9994141584,0.0561437648,0.8446867817,0.5867450704,-0.9825247189,0.2599145294,-0.7286120204,-0.8459154006,-0.5230353017,0.419450995,0.0516629815,0.523426665,0.6581186405,-0.6669600956,0.8674556024,-0.1816353139,-0.2458461048,-0.2116832247,0.7336855209,-0.3275013088,-0.350721022,0.4957813062,0.2371580715,-0.6413319357,-0.7338053836,-0.3723060189,0.1087348108,0.9240204664,0.6083512797,-0.1791100922,-0.544612672,0.7083842886,-1.2541860322,0.6822327776,-0.9205638228,-0.3361444711,-0.0521686395,-0.3686365364,-0.0816416244,0.4387598806,0.7551084478,0.7311255101,-0.2187298336,0.1845481116,0.9006670483,0.4386782865,0.4823614965,0.7072826305,0.2642760152,-0.6820266021,-0.4235926852,-0.8920387646,-0.0765618954,0.6846265811,0.1454498265,0.8032620943,0.7707528682,-0.364954227,0.2669038901,-1.1102425634,0.803235292,0.3202810425,-0.4965161996,-0.7416628888,-0.5168655207,0.0619498912,-0.2693073791,-0.0625326328,-0.8060889224,-0.1220041284,0.4402146139,0.3938548187,-0.1674208487,-0.0012881475,-0.6675872642,-1.0398907617,0.2738505828,0.3367977231,0.1305685315,-1.0286251167,0.3187558009,-0.1899876326,-0.0730625373,0.4563023152,0.8843051338,-0.3365386851,0.3391371704,-0.7564623753,0.4001622813,0.8702141582,0.0588956738,-0.2273486887,-0.0448015063,0.1711134993,-0.8872226937,-0.7653475225,0.0229218153,0.0875077735,0.0529771646,-0.177456815,0.5955664938,-0.5059196878,-0.8274174473,-0.8647608856,-0.4064895832,0.2530048073,-0.6430115655,-0.2858832165,-0.7844095306,0.0012630829,0.4562855205,0.0560557014,-0.1131249185,0.5386768716,0.7545397616,-0.2886706993,0.8497307039,0.6436765114,-0.6859274117,0.5403311816,-0.3675651971,1.0081053569,-0.4032453745,-0.2333628851,1.0071720678,-0.2192590031,-0.4015376399,0.7805651295,-0.4979464214,0.7790185804,0.6826969135,-0.8490119494,-0.3315693338,0.007449278,0.6954995164,-0.0394492849,-0.7747509003,0.1142396091,0.1475372909,-0.5353733673,-0.8822605563,-0.3177185883,-0.3578431702,0.674972988,0.5785192607,-0.2083136399,0.5605347734,0.8608605716,-0.5255264826,-0.0960762429,-0.0477449622,-0.7652073241,0.2944372721,-0.2279805156,0.7138645227,-0.3355878906,0.9292666356,-0.0641648673,0.3647147837,-0.1693380013,-0.0948042584,0.8710327586,0.5855892919,0.2393865961,-0.053806947,0.5852856279,0.7937388319,-0.1588466625,0.1377094387,0.1695329485,-0.3456353075,1.0094432943,0.8012968787,0.1287547303,-0.6728574422,-0.9917399181,-0.2254854995,-0.4690718573,0.8169569927,-0.7657295356,0.4017188352,0.1544926849,-0.4704210144,-0.9040996897,0.8596134693,0.8492102686,-0.737263216,0.1905827505,0.2948360912,-0.5706273804,0.713697772,0.2729549409,0.088329849,0.9585541724,0.4933115228,0.2060619038,-0.684975238,0.4734504351,-0.4048794235,-0.3541707718,0.7576845861,-0.5964886526,0.009796396,0.5634422024,0.4402591139,-0.2604751398,-0.8831338448,0.2461708724,0.1125845217,0.3170804484,0.6269601149,-0.8355342068,-0.144041731,1.1406755162,0.0762337569,0.3855088429,0.6031254577,-0.7108310209,-0.6856469227,-0.4187097815,-0.5495754544,-0.6597203888,-0.2925011356,0.5163671014,-0.788331313,0.2706102006,-0.6798271936,0.6286099828,0.2166059059,-0.3009269915,0.6777622948,0.2908182339,0.1545552262,0.0336036474,-0.1597126022,0.4509430841,0.9796248648,0.5769311499,0.1264408576,-0.3024834028,0.1814508068,-0.2953151927,-0.2585703637,-0.9335874213,-0.8665741704,0.1617796462,0.9834215508,0.3306835008,-0.0750053816,-0.0411640872,0.5999535223,-0.311677773,-0.4218982595,-0.8805214165,-0.6546529045,-0.6186899247,-0.7938344275,0.8989333794,-0.3847204801,-0.618217288,0.1532891482,0.621416315,1.0945225059,0.9099419764,0.3169049318,-0.1443789478,-0.3251407831,0.5950496749,-0.2090674515,-0.0271238799,-0.2338917239,0.2446379108,0.1819386678,-0.2667223335,0.1427058944,0.8496989943,-0.334429189,-0.1693952406,-0.059424297,-0.3669936199,-0.3755968898,0.0891063784,-0.0738907977,1.1844489024,0.2645769412,0.0072018039,0.0144717524,0.1313729451,1.2165637278,0.7055348534,1.1508585677,-1.3775407147,0.6539153075,-1.3685195055,0.0949964005,-0.0853511014,-0.5705251783,-0.261519993,-0.1181753774,0.7688025792,-0.7515994506,-0.3714761658,-0.2486341374,-0.8882653286,0.0057844139,0.757074688,-0.044758292,0.5129695466,0.7705531851,-0.0093261301,0.1225885318,0.5193337564,0.4292104579,-0.3200374529,-0.2335700217,0.950553313,0.0919543961,-0.572881277,-0.2842353528,-0.1879994196,-0.8542699889,0.5997674199,-0.3911941202,0.9647599675,-0.3097981282,-0.611077866,0.0064878382,0.9831627525,-0.3541425701,-0.2240505419,-0.1085768454,0.1084611976,-0.6162415485,-0.2525436479,0.2175292133,-0.4726811746,-0.4753180251,0.6128268102,-0.3054701554,-0.3386935349,0.1468827936,0.7907652213,0.8356556059,-0.5903301978,0.2777961271,-0.9667074742,-0.9498452909,-0.0981846114,0.02248349,-0.5947615637,-0.0566209416,0.8210286209,0.741753884,0.9614461872,-0.1433450882,-0.0200418969,-0.1514109035,-0.7167470031,0.1595638053,0.2443247012,-0.9167801531,0.1848871959,-0.2076458029,-0.3149718469,-0.7505254788,0.3424641404,0.0592800194,-0.0336553231,-0.1827431799,-0.8997173598,-0.6513540429,-0.7045669231,-0.9618463253,-0.0367989722,-0.1801527256,-0.7346628987,0.7255318769,-0.6336923169,0.5484234579,0.2757654128,-0.0835044112,0.6390442522,0.8932319672,-0.0240847866,0.1662647656,-0.2746868439,0.676058583,-0.5662329298,0.1016552816,0.5184684509,-0.853572437,-0.6114747217,-0.0062765049,0.0920694303,-0.4528273728,0.0530068387,0.3879362544,-0.1931614536,-0.112617951,0.8672498761,-0.730087237,0.4942480942,0.1478149113,0.3789136145,-0.2791635872,-0.4925400397,0.4850946702,0.8584905532,-0.630635507,0.5539538712,-0.4257974886,1.0792344356,0.3065942371,0.1965221503,-0.1550271261,0.2872276514,0.6653563133,0.346280175,-0.3424452561,0.6403264754,0.1339959915,-0.5368143512,0.2498264762,0.7691570442,-1.0328719737,0.9259263957,0.6698047973,0.3761543502,-0.5207882792,0.0756008977,0.7020502631,-0.596368849,-0.6133969369,-0.564070446,0.0303644288,0.6782292889,-0.5908725639,-0.5517986674,0.1197726495,-0.0651466722
biasActivation=0,1,1
[BASIC:ACTIVATION]
"org.encog.engine.network.activation.ActivationElliottSymmetric",1
"org.encog.engine.network.activation.ActivationElliottSymmetric",1
"org.encog.engine.network.activation.ActivationLinear"
