encog,BasicNetwork,java,3.3.0,1,1469372680907
[BASIC]
[BASIC:PARAMS]
[BASIC:NETWORK]
beginTraining=0
connectionLimit=0
contextTargetOffset=0,0,0
contextTargetSize=0,0,0
endTraining=2
hasContext=f
inputCount=28
layerCounts=2,16,29
layerFeedCounts=2,15,28
layerContextCount=0,0,0
layerIndex=0,2,18
output=0,0,0,0,0,0,0,0,0,0,0,0,0,0,0,0,0,1,0,0,0,0,0,0,0,0,0,0,0,0,0,0,0,0,0,0,0,0,0,0,0,0,0,0,0,0,1
outputCount=2
weightIndex=0,32,467
weights=0.0371264557,-0.1240386788,-0.5488393698,-0.0233439663,0.0668274751,-0.4903269519,0.038443186,0.0041022587,-0.0348755667,-0.0925678602,-0.8465725611,0.0069737424,-0.39438754,-0.462418801,-0.1701604078,-0.5285421812,-0.0435214555,0.0284488274,-0.061517458,-0.0022269768,-0.0018608612,0.1975918276,-0.0041376738,-0.0295880605,-0.5790850558,-0.0022633309,0.2832434417,-0.048236323,-0.4611480883,0.2239661359,0.0423383947,0.658963621,-0.5792646014,0.1227136667,0.7568817866,0.6926110023,0.7830013686,-0.1391354711,0.0716061108,-0.754757846,-0.7037607791,-0.823316698,-0.3918594361,-0.6680322861,-0.3230698827,-0.3252955409,0.2370761545,-0.7839644921,0.1223091878,-0.3788073055,0.6290008171,-0.9712334822,0.6302801761,-0.5483122508,0.1755823994,0.276939392,-0.5342406,-0.4921593192,-0.7619221487,0.9119758438,0.9551153732,-0.9413565588,0.0501569687,-0.0069052542,0.5324680087,-0.6008058905,0.2035392777,-0.658912876,0.7043498648,-0.781790714,-0.3903578884,-0.2291837258,-0.8382059561,-0.0877180176,-0.0929486658,-0.8102159684,-0.3509639834,-0.3962457959,0.4808812555,-0.3801886723,0.5710552251,0.3147228421,-0.3029923921,-0.9451372195,-0.2862254369,-0.5059330886,-0.1328591268,-0.5947187273,0.159552916,0.4667075359,-0.3369142293,-0.9811707441,0.2085233508,0.6297432891,-0.5553160073,-0.2871496428,-1.0641688766,0.1791664929,0.3338212851,0.7471972503,0.8053077315,-0.7085167606,0.3867748297,-0.982735837,-0.7102044236,-0.1690181544,0.0021216538,-0.8213588872,-1.0584499984,-0.4631721981,-0.2770581096,-0.8528123187,0.649458693,0.7114234959,0.6334234296,-0.3144831126,0.4709732317,0.1370864733,-0.0676359044,0.5921406666,-0.1686574637,-0.2122470848,-0.8837067222,0.3550463097,0.4285694477,-0.1840241954,-0.6250837618,-0.6799698078,-0.0123373752,0.8792853068,-0.3373318347,0.6179402527,-0.4943827868,-0.8203148806,-0.020843568,0.5386393487,-0.0072609791,0.7213756588,0.6555901028,-0.1914967381,-0.3083759946,0.4393296965,-0.0443393908,0.4283999103,-0.3111065397,0.9212772832,-0.2581791508,-0.376396579,-0.8657788787,0.0117914504,-0.5054662884,0.5270903895,0.2694900275,-0.8193298174,-0.5878861795,-0.5558898977,0.1013378371,0.4177515063,1.0744719892,-0.6447422604,0.8408777768,0.2280748706,-0.6152812363,0.1698441509,-0.9784621218,-0.0823775768,0.3064021995,0.588152488,0.5071686922,0.2716367998,0.692546839,0.1684370041,-0.8686992653,-0.7700098843,0.0087695759,0.2740286751,-0.0824369659,-0.1351298743,0.2719158749,-0.0849880499,0.34142283,-0.6127386232,-0.3729001401,0.1854429202,0.1464702021,-0.4203170135,-0.7312534737,-0.768682446,-1.0259389875,-0.1540238243,0.8642927341,0.0939188697,0.280583103,0.6855631486,-0.9162479501,-0.8018820431,0.3486155274,0.0845923274,0.5029031613,0.2762096685,-0.5168787649,-0.9217286211,-0.7658062051,0.9159920416,-0.2113948941,-0.5648508123,-0.893953015,0.7302417305,0.785231999,-0.2190735049,0.91053896,-0.1737958846,-0.2187892243,0.1370122994,-0.0342167548,0.3009403865,0.2361561373,-0.9590358898,-0.1444953061,-0.4908482212,-0.371582213,-0.2853644001,0.4878189705,-0.4078954118,-0.0306532276,-0.4931338859,-0.6059185907,0.0659154961,-0.521767805,-0.904085804,0.1370169467,-0.9382638629,-0.5615698245,-0.7306518577,0.2103121705,-0.6646493396,0.8269565462,0.7939105916,0.6543834668,0.6453344907,0.0027249019,0.8933937555,-0.2294398984,-0.4278319385,-0.371747348,0.487895809,-0.5289406192,-0.779528152,-0.3932401101,-0.3398110081,0.7238721484,-1.0353077312,-0.6441278323,0.3742895886,-0.3208435001,-0.1901504435,-0.7195847897,0.3230243292,0.412811396,0.0150944087,0.7976136004,-0.9155064607,0.7039601806,-0.2289226253,0.2468671722,-0.907314956,-0.706404929,0.432805796,-0.676334,0.6603395466,0.8918435799,0.1513369577,0.0093865834,0.1804803088,-0.8046186268,-0.598632348,-0.9891214722,0.1829268988,0.7415569939,-0.3093424845,-0.6929239457,0.4939959711,-0.2802625799,0.4744272023,-0.5973340185,0.4500903315,0.7045612772,-0.2603998146,-0.2957579414,0.619728735,-0.265149857,-0.5188519977,-0.4195858739,-0.6576165709,0.5874585136,0.6142182697,0.902740587,0.6665423487,0.2298664478,-0.2977352251,-0.5127804115,0.4780390624,-0.9591374072,0.8936368215,-0.4319479542,0.7777066276,-0.5257899095,0.3086773734,-0.5203092268,-0.1005779811,0.217244988,0.8276560295,-1.0268925886,0.8391822877,-0.5450162125,0.0097343091,0.1547881333,0.1305950945,-0.9193226229,0.441911906,0.5294506184,-0.433330938,0.7296118379,-0.1768003346,0.5769936303,0.1526381849,-0.943815739,0.0208157681,0.4862542043,-0.6077609607,-0.9422687406,-0.2134082432,0.1301508726,-0.4190986274,-0.1839337957,-0.801197708,-0.922717028,-0.4753253435,-0.1795207849,0.3920246928,-0.7580590786,0.2650033662,0.236454558,0.4287481359,0.3618511511,0.8091907964,-0.5188292663,-0.0932873325,0.5500557751,-0.492380106,-0.8215655642,-0.0925271993,0.2118712444,0.1122684868,-0.6895980096,0.7029833684,-0.3340631281,0.155985253,-0.8168857448,-0.2513530651,-0.5582398742,0.4803198387,0.5300231378,-0.8785496901,-0.893702954,-0.6724162564,-0.7118860697,-0.7741987534,-0.2350534505,0.4137240751,0.7166629476,0.6538837471,0.6988818668,-0.7969988417,0.4566201014,0.291929799,0.9183870231,0.54379106,0.220980823,0.3248341816,-0.8037189169,0.921296151,-0.3518921048,-0.7900930142,0.8686993891,0.1971091595,-0.8319884259,0.4773246952,0.0551236658,0.6966136483,-0.2622499787,0.5151816269,0.0987502674,-0.6033714892,0.457703921,0.9235555597,0.540725885,0.8915738809,-0.0271494836,0.2105474937,-0.0226928029,-0.0798627376,0.9772169129,-0.9803373563,-0.8823959802,-0.0161628064,0.6466518244,0.1283431732,0.3037468078,0.8219184509,0.8072322188,-0.3309550992,1.0248800419,1.0451746621,-0.8719082426,0.6536277523,-0.1733835331,0.2965311156,0.7803702989,-0.3476638333,0.6374858358,-0.2331790266,0.3200186363,0.5325298054,0.0955887149,-0.3296509287,-0.6707739391,0.1660703795,-0.393783609,0.2256833804,-0.1848982254,0.7463119914,-0.6374395699,0.0880456836,-0.4332978864,0.0556119579,-0.5729641117,-0.1404397539,0.6002213635,-0.9680542033,-0.1036759646,-0.787267199,-0.6165232678,0.0760253879,-0.2737856502,-0.6540634064,0.1634442303,0.6211120209,0.819282428,-0.0721294227,0.5307713735,0.8814309988,-0.2792953077,-0.5515009023,-0.1463913598,-0.2900976297,0.7425168857,-0.0082574593,-0.3305701538,-0.3971419425,-0.0802875128,0.8939117716,-0.5382719561,-0.0073513956,0.9816496335,0.9850389517,0.5449279678
biasActivation=0,1,1
[BASIC:ACTIVATION]
"org.encog.engine.network.activation.ActivationTANH"
"org.encog.engine.network.activation.ActivationTANH"
"org.encog.engine.network.activation.ActivationLinear"
