encog,BasicNetwork,java,3.3.0,1,1469372959045
[BASIC]
[BASIC:PARAMS]
[BASIC:NETWORK]
beginTraining=0
connectionLimit=0
contextTargetOffset=0,0,0
contextTargetSize=0,0,0
endTraining=2
hasContext=f
inputCount=28
layerCounts=2,16,29
layerFeedCounts=2,15,28
layerContextCount=0,0,0
layerIndex=0,2,18
output=0,0,0,0,0,0,0,0,0,0,0,0,0,0,0,0,0,1,0,0,0,0,0,0,0,0,0,0,0,0,0,0,0,0,0,0,0,0,0,0,0,0,0,0,0,0,1
outputCount=2
weightIndex=0,32,467
weights=0.0627494329,-0.1369402575,-0.5075508247,-0.0322296812,0.0875578872,-0.4053735315,0.0814289305,-0.0370805317,0.0383464487,-0.1271826486,-0.8862750098,0.0172684599,-0.327488288,-0.4858718355,-0.160718667,-0.4565611225,-0.0585256869,0.0799525362,0.0461610317,0.0103890394,-0.0440994171,0.2934632204,-0.0503365897,0.0116141259,-0.5300207031,0.0687256519,0.2384479056,-0.0326312918,-0.3513824342,0.3238722044,0.1001449688,0.6726429157,-0.5813392451,0.1689939374,0.7865647545,0.6735657586,0.8165296014,-0.1106996603,0.1182521524,-0.7461709829,-0.6901163177,-0.8104732369,-0.3438191464,-0.6219924946,-0.307418581,-0.3136053097,0.277939482,-0.7396917945,0.1151292759,-0.3699149343,0.666421263,-0.9514555499,0.6529506884,-0.5434819609,0.1856702939,0.2934259198,-0.5302307604,-0.5190355086,-0.7657690132,0.8909021047,1.0380960498,-0.9306623989,0.0546959662,0.0052146352,0.5599052052,-0.5865059904,0.1794792611,-0.6706893921,0.7078032247,-0.7746076927,-0.4044861151,-0.2315663316,-0.8186726774,-0.0692136011,-0.1077619874,-0.8200130849,-0.3360608184,-0.3711664089,0.4730085727,-0.376409976,0.5877808558,0.3194842395,-0.3060377234,-0.9507139074,-0.2891506133,-0.505408179,-0.1217471087,-0.5935546843,0.1792313427,0.4654758588,-0.3421647208,-0.9688923801,0.2043082487,0.6468365511,-0.5666340919,-0.2990652793,-1.0844836339,0.1419700511,0.2827700661,0.744043869,0.7804236491,-0.7306271636,0.3657718791,-0.985155468,-0.7293509185,-0.2008684383,0.0069489249,-0.8244651594,-1.0465575993,-0.4339356369,-0.2744223328,-0.8568897976,0.6400749343,0.696000409,0.630850388,-0.2819633339,0.4771260183,0.1577125331,-0.1382089265,0.5977862484,-0.1657734855,-0.1998449945,-0.8701506405,0.3686005126,0.4223031679,-0.1824024508,-0.6127369004,-0.6673237915,-0.0145104927,0.8829573793,-0.3323402127,0.6352803171,-0.4967201723,-0.8144862766,-0.016728618,0.5528420037,-0.0093985546,0.7289825749,0.6675143253,-0.1852130214,-0.3094797383,0.4372057743,-0.0441860407,0.4304831071,-0.2977784928,0.9262390936,-0.2444403629,-0.3673158254,-0.8724260477,0.0392415796,-0.5124501257,0.5012010346,0.2648184476,-0.7967088793,-0.5694659508,-0.5468413816,0.1167530367,0.4263758898,1.0963761914,-0.6073933274,0.8201519962,0.2389322256,-0.5974767743,0.187678052,-0.9989478901,-0.0760331724,0.3168747396,0.5845592388,0.5094640229,0.2756276165,0.7005325918,0.1779430565,-0.8683470789,-0.7964286132,0.0026175409,0.2489138978,-0.0427968743,-0.0913755729,0.2750212587,-0.0131538975,0.434578426,-0.5373535261,-0.4483688123,0.1166631629,0.171790886,-0.3754417568,-0.7734143609,-0.7729922967,-0.9087144255,-0.113575125,0.8198924924,0.0927763913,0.2903473114,0.7247466775,-0.9404903849,-0.7833664998,0.4152057424,0.0930568822,0.4838497972,0.2427941526,-0.5230760133,-0.9195038886,-0.7183716368,0.9080781571,-0.1554184726,-0.5440627709,-0.8998641201,0.7530382018,0.7771528405,-0.2455031423,0.9013826004,-0.1465819603,-0.1897284875,0.141796133,-0.0267692889,0.3124059015,0.2613035242,-0.9254522199,-0.1590669186,-0.4789299839,-0.346488931,-0.2543486601,0.4627375943,-0.398806513,-0.0148134754,-0.4908509221,-0.6047685921,0.0700567324,-0.5129808851,-0.8936960025,0.1382227497,-0.9656948617,-0.5667305638,-0.7560270928,0.2522687649,-0.6651668856,0.8260975131,0.7940773482,0.6532675551,0.6422844231,0.0022756204,0.8924340907,-0.2299337678,-0.4326002364,-0.37208163,0.4867743648,-0.5270427178,-0.7800998211,-0.3935541393,-0.3419066019,0.7216990889,-1.0364731758,-0.6442000121,0.3734622678,-0.3230728649,-0.1910164925,-0.7199513781,0.3224380875,0.4122538247,0.0144480111,0.7969323258,-0.9167333447,0.7023797689,-0.2323290772,0.2323457148,-0.8924750956,-0.6976067552,0.4015617579,-0.6903600414,0.6656695716,0.8758376089,0.1204363433,-0.0277050652,0.1781435565,-0.8010650757,-0.5960589024,-1.0135661124,0.1812822727,0.6923334768,-0.333324865,-0.6987373631,0.4906463463,-0.2932331255,0.4059714277,-0.5871171949,0.4489868887,0.7030118886,-0.2631256457,-0.3066936222,0.5921185867,-0.286480413,-0.556200067,-0.4487852897,-0.6435737713,0.5493469327,0.5913251356,0.9304540643,0.6290351113,0.1947741992,-0.3450399201,-0.5060401395,0.4751993469,-0.976117456,0.8533145197,-0.4480566482,0.7796526637,-0.5397988022,0.2739070438,-0.5482272979,-0.0650413367,0.2050927462,0.802488826,-1.0170288405,0.8275936287,-0.5511045808,-0.0023222627,0.140577873,0.1285864267,-0.8855712036,0.4477500425,0.5598012684,-0.5010489015,0.7416932204,-0.2098817036,0.543077169,0.1664990836,-0.9323452762,-0.0072291551,0.4330112595,-0.6272973132,-0.9466443186,-0.2328569582,0.1088952882,-0.4446138125,-0.2075355158,-0.8193735486,-0.9512600927,-0.501011646,-0.1774188054,0.380033875,-0.7773975412,0.2338059709,0.2104260882,0.4208337067,0.3500497199,0.7955519731,-0.5226410905,-0.0906851715,0.540911463,-0.4858364059,-0.886612245,-0.0996124878,0.2090920646,0.0971691557,-0.7092364791,0.6813756913,-0.326575126,0.1527363915,-0.8326365779,-0.2789383964,-0.5560972747,0.4749410622,0.5270067653,-0.8933864621,-0.8921818051,-0.681069403,-0.7185666542,-0.8039680125,-0.2323876391,0.4055421362,0.6947646217,0.647502092,0.6997081891,-0.7949850068,0.4559629743,0.2882785544,0.898172783,0.534782589,0.1999351753,0.3089182598,-0.7987089541,0.9508707859,-0.2911076416,-0.7900631442,0.8691971002,0.2038895234,-0.790805443,0.4946393391,0.0753828571,0.6997603836,-0.2288033843,0.5526270337,0.1291367966,-0.5981169474,0.4765992167,0.9270391352,0.5291951585,0.8944589224,0.0155156065,0.2308780461,0.0243936377,-0.0787983643,0.9787726384,-0.9691041106,-0.8791754903,-0.0168358755,0.6470081912,0.1264802006,0.3595701748,0.8675043778,0.7034143442,-0.2992528873,1.1328539919,1.0472793314,-1.0012779618,0.5786106518,-0.1298421054,0.4393193075,0.7163159668,-0.3628228178,0.6359522278,-0.1648403624,0.258942236,0.4842646661,0.0881615691,-0.2178770619,-0.7167844764,0.2032532896,-0.2744253024,0.1258953225,-0.207722456,0.7011071202,-0.6652237125,0.0849113126,-0.3154642959,0.0702245859,-0.4710200357,-0.2299099402,0.6210673532,-1.0349350518,-0.1004506752,-0.7145093196,-0.603127778,0.0103290945,-0.3416357677,-0.6508204479,0.1253819781,0.5911863581,0.7623263392,-0.1593254088,0.5675623353,0.8534167663,-0.3351197935,-0.6037198157,-0.0848937551,-0.3097259663,0.6953522977,-0.0050133865,-0.3332936564,-0.408205903,-0.1031626942,0.8666142611,-0.5399176506,0.0628769563,0.9965449713,1.0536343396,0.4344654742
biasActivation=0,1,1
[BASIC:ACTIVATION]
"org.encog.engine.network.activation.ActivationTANH"
"org.encog.engine.network.activation.ActivationTANH"
"org.encog.engine.network.activation.ActivationLinear"
