encog,BasicNetwork,java,3.3.0,1,1472715979726
[BASIC]
[BASIC:PARAMS]
[BASIC:NETWORK]
beginTraining=0
connectionLimit=0
contextTargetOffset=0,0,0
contextTargetSize=0,0,0
endTraining=2
hasContext=f
inputCount=28
layerCounts=2,46,29
layerFeedCounts=2,45,28
layerContextCount=0,0,0
layerIndex=0,2,48
output=0,0,0,0,0,0,0,0,0,0,0,0,0,0,0,0,0,0,0,0,0,0,0,0,0,0,0,0,0,0,0,0,0,0,0,0,0,0,0,0,0,0,0,0,0,0,0,1,0,0,0,0,0,0,0,0,0,0,0,0,0,0,0,0,0,0,0,0,0,0,0,0,0,0,0,0,1
outputCount=2
weightIndex=0,92,1397
weights=0.6104888143,-0.0799378062,0.2162443703,-0.0458726008,-0.3477417125,0.3178490376,0.7055589028,-0.2353952001,0.4169791506,-0.036911778,0.7154797173,-0.3411957301,0.2265621636,0.3090454792,-0.0877855782,-0.1100915773,0.539963392,-0.0343919431,0.2623213127,0.5511571004,0.296186614,0.4446787493,0.0375494755,-0.1449207368,-0.0312151583,-0.2320655471,-0.113113192,-0.2060974247,-0.6223279199,0.5251863172,0.4201411089,-0.3179418001,-0.0761618316,0.0404623937,-0.0474845382,-0.4157581727,-0.4665174374,-0.1635813116,0.7366753879,-0.029202619,-0.1104015333,-0.1558367162,0.3451212342,0.1864103811,0.0943600229,0.9080902816,0.12348489,0.0319675886,0.0801548937,-0.1084882157,0.0729390106,-0.2007143481,-0.8317426358,0.0746825023,-0.2773622574,-0.2123332644,0.2446222271,-0.4426575865,-0.1091276938,0.2666670105,-0.2414019986,-0.1126617439,0.0190016703,0.4365531738,-0.238685856,-0.0207308167,-0.6221037617,-0.3217341545,-0.1629837238,-0.0881366794,-0.4327013943,0.1932323655,-0.1380755955,0.3675888714,-0.0146411705,0.0829392541,-0.1057422856,-0.2306357767,0.0662863467,0.0885854938,0.0221240067,0.5179721708,0.3772400462,-0.096632344,-0.8297233081,-0.1885274845,-0.3665941477,-0.051995549,-0.318653225,-0.6803353795,-0.0758926859,-0.2795840493,-0.9046448453,0.7497519514,0.0861645822,-0.4404092581,0.288450345,-0.5414267785,-0.3533443494,0.0113875655,0.2637257263,0.6129049877,-0.0586195782,-0.2449837346,-0.157723756,-0.6782873425,0.2297659047,0.9062650753,0.4512121694,0.0922841624,-0.6591236805,0.2784114975,0.6081607061,-0.4476554177,0.7172134567,-0.7027258986,-0.578290105,-0.2733473502,-0.1960729143,-0.6912012285,0.8448235625,-0.5729107846,0.4600128229,-0.0738812738,0.977010287,-1.0559216137,0.1054111746,0.7594249518,-0.4844946744,0.3445584215,0.5342763364,0.0356526541,-0.4773260808,-0.3453568554,-0.1956887248,-0.7171306025,0.152903174,0.8274383371,0.0133775788,0.5188956714,0.7717063306,-0.8049123105,0.4650628446,0.6414106313,-0.6009616051,-0.510974358,0.0723773394,-0.4376563741,0.8218620258,-0.3327727098,0.2235689262,0.8944581519,-0.5556462732,0.9590349167,-0.9033150312,-0.4633889381,0.3603106696,-0.2468377085,-0.2424812511,-0.0588234102,-0.2613155582,0.1201881115,0.726983146,0.2721603312,0.190282609,0.5510674425,0.0303254607,0.2316259639,0.8787648379,0.5241707248,-0.5135746806,0.9673245111,-0.6938558682,-0.0962679536,0.5985198693,0.8817254198,0.5519797123,-0.8667066523,0.7003505679,-0.8018716543,0.8674329127,-0.9317479505,-0.9627279224,-0.1315793763,0.6235219388,0.5670071454,0.9772922357,0.6742063481,-0.5783868508,0.1515152059,-0.0619020003,0.2664766508,0.0780119969,-0.1385170982,0.7177586224,-0.2554307907,0.308087998,0.004577138,0.1614619612,-0.2018440819,-0.9300231595,-0.2799255668,0.8972764552,-0.6712141596,0.7270213336,0.4512708475,-0.3008642251,-1.0996587258,0.0799330633,0.3346960434,-0.6458365319,-0.8445983115,0.3738627099,-0.5243562116,0.0820055637,0.0139048937,0.9442842328,-0.1374881571,-0.8151644353,-0.0380081641,0.2644254872,0.0114234493,0.742694138,-0.6630812465,-0.0709192508,0.8936570251,0.8560484661,-0.6011434052,0.0689015649,0.4702927114,0.7191560338,0.261006726,0.7012073972,-0.5705178752,0.8263778921,0.228657126,0.9757154265,0.4159574508,-1.5066808766,0.9459255162,1.0234110713,-2.4646111235,0.0607913919,-0.2646232597,1.2440169903,0.2901816508,-0.1292155781,-0.5745505478,-0.3250217905,-0.3342697487,-0.1005130984,-0.9502797486,-0.4347313571,0.9079180131,-1.1815624574,-1.4662858926,-1.1945751744,0.9871616499,0.4007053786,-0.340813845,-0.1231112696,-0.6134607892,0.2569288844,-0.2419816329,0.3823862729,-0.6743010325,-0.6466743776,0.7468435506,0.7326721246,-0.3049044945,0.2611753223,-0.7229404433,0.3198155735,-0.3906547489,0.4123413299,0.119042005,0.1761214747,0.9302169503,0.5768846823,-0.9103494845,-0.6805272209,0.6009596896,0.5083325629,-0.4449754581,0.7649751461,0.2860060432,0.5764710852,0.0253113554,0.811239997,-0.6717222585,0.0714467325,0.6895550458,-0.8653730851,-0.7742502021,0.4607429631,-0.8901361757,1.0005906171,-0.5262982738,-0.4581932105,0.5314884735,0.1133962543,-0.7493841199,-1.7658540999,-0.6517213433,-0.2516438682,-0.8674401843,-0.0384965582,-0.9846639238,0.2432359924,-0.7409843481,-0.380508655,-2.3583030726,-0.691331829,0.2635128575,1.4167397751,-1.2535341672,-0.4396555513,0.8057135617,-0.2752680201,-0.3891705462,-1.039280922,-0.0653590386,-0.0558320495,-1.1573011719,0.5559115974,-0.6703437731,0.9379645672,-0.3842486986,0.2213619901,0.7146245413,-0.0053841332,0.1730296116,-0.3837177445,-0.2305570617,0.8139596409,-0.8058387383,0.2188892414,0.9129644607,0.5008935164,0.7636128396,-0.8022718877,0.6575855136,0.8228422357,-0.2697078471,-0.7461664465,0.1575063533,-0.0851277211,-0.4614196539,-0.265858313,0.7608000644,0.8975579087,-0.6134245436,0.7012567297,0.9003418489,-0.1536830575,0.7570151688,0.3653382573,-0.5120891547,0.7141761284,-0.4108593463,-0.251618206,0.543811783,0.8158684189,-1.0645858175,0.1769151346,-0.6019936712,0.5815094351,-1.6448764487,-0.9055909204,1.2458320221,0.5680636709,-0.4912904348,-1.1423913276,-0.3404576983,-0.8874489007,-0.4087085526,-0.1303953948,-0.0729035352,-0.3341945476,-0.6601468968,-0.7175287714,-0.2252731097,1.0343964568,0.0575961387,-0.0742984298,-0.3546191135,-2.0079671199,-0.2349844493,-0.3285114447,-0.5646359941,-0.0170419179,-0.8307295747,-1.1856587514,-0.6344137654,-0.6341841202,-0.7577639287,0.9326965087,0.5559129827,-1.155379834,-0.5249472974,0.2733259919,-1.7053118731,-0.3148855876,0.1043804269,-0.8270531896,0.8580520196,0.8822083395,0.3520106869,0.2118509418,0.5217851385,-0.2751949651,-0.3596807097,0.8004272958,-0.9200746212,0.3692535551,0.6598511548,-0.9468430466,0.3703465567,1.1097354918,-0.8687672242,-0.44844695,0.1769975608,-0.6254280246,-0.0769016493,-0.104409942,-0.4931432057,-0.807893241,0.0768370139,-0.1290716574,-1.1617808408,-0.2801839887,-0.6353075434,-0.7601695413,0.340522497,0.524035053,-0.6040639594,-0.7214137906,0.8898021927,-0.5015715315,-1.3166156962,-0.1087697797,0.5129683569,-0.3167106354,-0.6590614267,-0.0717058318,0.16679975,-0.9116005903,0.5743545887,0.4512105355,0.0015624194,0.5958183068,-0.6721519747,-0.6265934702,-0.0429765316,-0.5796983296,0.2229946865,-0.309870913,0.5606024816,-0.013902601,-0.4116918469,0.407534916,0.2907193733,-0.9726620569,-0.4102675224,0.3674381782,0.2728280376,-0.8770147794,1.0028574169,-0.1601137361,-0.0037018771,-0.9061672352,0.436300424,-0.8150337999,-0.031687962,-0.5804060778,-1.3357390501,-1.4368152241,-0.7903068689,-0.8811657473,-1.0406688152,-0.4349061754,-0.3535183356,0.218172215,1.0648717633,-0.2789788847,-0.1714596523,-0.6355557696,-0.4078642732,0.495329375,-0.3798625244,0.9566052647,-0.2550360278,0.5100598789,-0.3651164916,0.0105345143,0.4475236858,0.8133475543,0.0096543975,0.9119344208,-0.1118036427,-0.5088177004,0.7430281888,0.1453516883,0.8692632278,-0.3893261928,-0.7868997027,-0.7856194196,-0.6851718134,-0.7543917014,-1.2101084246,0.0722486145,0.7104731658,-0.0885791568,0.4181373234,0.1371875917,0.4158306489,-0.6270402098,0.7723869715,0.1190699162,-0.5706878901,-0.5474954226,-0.9608542696,0.9308656774,-0.7973673738,0.1198120159,-0.2316876695,-0.1588040293,0.7631616579,0.0293615754,0.5559382049,-0.1121129251,0.1843138358,-0.6477408229,0.7685133276,-0.1326925708,0.3983145848,-0.9514137382,-0.1087986816,-0.6478492521,-1.2121880083,-0.377001775,0.7063909404,-0.0592377338,-0.6002370738,-0.8526904522,-0.2284347345,0.027912217,0.7366123615,-0.8111797131,0.0398370581,0.3395989404,0.8829812305,0.1977430256,-0.1734420683,-0.452943267,0.207756,-0.4425520639,-0.044058983,-0.3564075779,0.4406343912,-1.0042395042,-1.2470220988,-1.0593589004,-0.96943052,-0.2818708964,0.7740275554,-0.938821021,0.0838364832,-0.7951512635,0.6911154954,-0.1748058773,1.6996480612,0.6850102932,-1.0269769754,-0.8842857302,-2.4676809962,-0.3270002227,-0.863271666,0.699139504,-0.163945204,0.2141069364,0.7084040203,0.4202273529,0.0433649933,-0.3933545887,0.4431991697,-0.9024835175,-1.3303654588,0.1725833693,0.3171447059,-0.1697036282,-0.7783229415,-1.237481699,0.0735819905,1.0636135523,-1.0529885823,-1.2774003386,-0.1427176452,0.1252125567,-0.1738828272,0.2113487787,-2.6141902888,-0.0642798424,0.9269783176,0.907920719,-1.2854060239,0.9616760843,0.0265653252,0.0107232507,0.7394649874,0.0100806608,-0.277061783,-1.0639886653,-1.1219341814,-0.5185974448,-0.0561928612,-0.2926083219,-0.3042177622,-0.5595489054,0.6715296937,0.9210659054,0.7132405939,-0.7929595726,0.8830330096,-0.7337730229,-0.6268264039,1.1438811971,-0.1980672614,0.4788627955,-0.5811591895,-0.4189649356,-0.641352223,-0.5419001838,-0.6439563691,-0.0654338146,-0.1892424437,-0.2609461602,-0.8513787069,0.4427599064,0.1378351157,-0.9108941485,-0.5680790252,-0.3765507541,-0.525626686,-0.7785157082,-0.1767307054,1.0677923108,-2.4792336497,-0.460057769,-0.9073526973,0.3131819047,-0.6471336848,-0.2453978329,-0.1820736127,0.3723672847,-0.5703430107,-0.9550744538,0.4083944793,-0.0186113256,-0.046005934,0.2196863576,-0.5666042327,-0.9572490734,0.0352778225,0.7644629857,0.3073868121,0.8769607603,0.7357085449,0.2014679022,0.56956604,-0.3619577859,-0.0093027494,0.6183504823,-1.66825663,-0.4703660761,1.1151782799,-1.5422665716,-0.0155842858,-0.8344361525,1.6692761731,-0.1196996188,-0.9979454442,-0.930556754,-0.1413311129,0.532547862,-0.1826823657,-1.4928560858,0.2331634235,1.7724518947,-0.7662934326,-0.0307661251,-2.2444365693,0.3578360858,-0.4756578981,-0.4860164114,-0.2490968453,-0.5765351029,1.0215666459,-0.4204169878,1.4754094591,-1.1957060779,-0.3082572452,-2.2074405429,0.9179645795,-0.0188429959,-2.3633222503,-0.8711947727,-0.6857686292,1.8530757656,-0.8031529327,0.1954279589,-0.7852389366,0.1356332757,-0.7421096205,-0.3838918503,-1.3706171873,0.9954437734,1.6947988377,-0.559035694,-1.6597328899,-2.2198195281,0.3134707213,0.090867795,0.0355317217,-0.0681138301,-0.7408572921,-0.0489330337,-0.0513555565,-0.0252413694,-0.9171275801,1.0098098908,-0.305924567,0.7372030768,-0.5441273109,-1.1420907877,-1.1266216175,-0.4786006523,-0.1696902566,-0.95476254,-0.0159838673,0.0313704444,-0.6011114758,-0.8837816984,-0.1920824684,0.0401391661,-1.2567279219,1.9355943212,0.0476476546,-1.4527252096,-2.0718890926,-0.9348328792,-0.3373162958,-0.5567033253,0.8670813367,0.8714985952,0.2570455852,-0.7361665362,-0.1683708267,-0.1546613592,0.5900405451,0.6571988446,0.3162040847,0.8326716118,0.243606051,0.6210645371,0.1625259764,-0.3755510282,-1.1733659863,0.6106509666,-0.6925850059,-0.8001489893,-0.8101816153,0.2953668681,-1.5253652396,-1.4469104747,-0.3031813932,-0.5935406338,0.4683710695,0.4502373785,0.5078972838,0.2663137831,-0.5785965042,0.5307823256,-0.8325368319,0.7026056734,0.5185357221,0.45904138,-0.6803833077,0.3294018275,-0.8615680763,-0.9471531663,1.2117060571,-1.6733818869,0.4004783532,-0.6035782644,1.9507096768,-1.0295318976,0.0810340347,-1.6009049495,-0.4109596985,0.4136158343,-0.572582946,-2.1363472618,-0.1701711883,1.8788138604,0.1074859538,-0.2722914225,-3.0013047091,0.8731666553,0.1297765867,0.278694466,-0.6495285327,0.3049205134,0.7095956035,0.673992514,1.1896901586,-0.7062607351,-0.8645732844,-0.3350317139,0.1474879085,0.738578833,0.678035345,0.2754093915,-0.4349783779,0.4829773448,0.53527751,0.5993207499,0.8899219925,-0.5140069732,0.1236575971,0.7054484353,-0.7211409966,-0.6541410422,-1.2349873843,-0.5313544068,-0.2234679946,-0.0174862476,-0.7725380462,0.0780548224,0.8561566027,0.7671266154,-0.962637283,-0.1836859928,0.4728314283,0.5486288964,-1.3555782145,0.4724537562,-0.9998590968,0.1613044626,-0.8050020696,0.7532403132,0.5657973134,-0.4519873053,-0.2633578172,-0.6568963706,-0.9181535021,0.7133711535,-0.7960886215,-0.2542267427,-0.2449983021,0.1565652573,-1.6499751308,1.019930197,-0.7934632628,-0.8433942315,0.4260365965,-0.8096995659,0.2814026367,-0.2339098745,-0.0580147694,0.1441831139,-0.7477673651,-0.8239842378,0.0608146033,-0.7167881232,0.5074639309,-0.902968208,-0.5925372316,-0.9387570828,-0.2344537361,0.5785894577,-0.2904451622,-0.2055707927,-0.840419852,-0.8848826767,0.3692922256,0.1367354159,-0.1486704882,-0.5761905813,-0.474825874,0.4717452897,0.3114468572,0.312642987,-0.036677454,0.3884332696,0.1864992618,0.763251125,-0.2114161451,-0.8474438919,0.624802744,-0.9057934405,0.0207649336,0.6444103398,-0.6620583148,-0.4688740259,-0.2791638307,0.9583103987,0.8916694128,-0.6653650699,0.507856469,-0.5873690008,-0.8962368607,0.3801220436,-0.1366343309,0.8658519054,0.5019157047,0.6492303297,0.8825939539,-0.2438223934,0.8932694594,-0.0924724851,-0.4264714329,0.5829627439,0.3799078391,0.5538704984,-0.884863267,0.9202900817,0.6866196521,0.3363680977,-0.2231271764,0.3674153395,-0.2417340149,0.1803258714,0.6898599924,-0.6962763728,1.2267814287,-0.2498783688,-2.4231322729,-0.2632624559,-0.0455847272,-0.7911721286,0.6353846568,-0.7670165586,-1.0647909578,0.0138115519,-0.3541732203,-0.9363793529,0.1682444827,-0.0132725628,1.0635339033,-1.1469327421,-1.1048116188,-1.0992181561,1.0527321571,0.3453010333,-0.893169751,0.1067756657,-0.6354053773,-0.259445199,0.5270638773,0.3521506601,-1.6053218507,0.5611314323,-0.9881324245,0.054412015,0.3343028061,-1.6572003739,0.0641742138,-0.4280931403,-0.6140375461,0.4175170574,-0.4299054097,-1.6656260114,0.6238312461,-0.1523909094,-0.1325220565,0.5323264307,-0.0921711548,1.2578856906,0.2184357501,-1.4061626289,-2.8200270331,0.5569866181,-0.661331066,-0.0377644857,-0.8807061817,-0.455355107,0.255516246,0.5057987447,-0.4321173961,-0.0484534475,-0.2573164457,-0.4789796831,-1.2370540751,0.1381164986,-0.1207272883,0.8092301098,-0.1292497007,0.9621907556,-1.053595867,-0.7814326133,-0.6400861586,-1.2312551347,-0.8345898352,-0.6406878056,-0.4793013314,-1.3593122929,0.7982605001,-0.1218759203,0.315488301,-1.0607246195,-0.394567535,-0.8225254199,-0.8415140234,0.6243516578,0.3496213625,0.1742968917,0.5478427,0.3187065747,0.0763367593,0.0738830564,0.4228247296,0.9680443367,0.2227380411,0.7400725419,0.2447492391,0.2225997538,0.1718180044,0.3330949878,0.1429838842,0.1082119365,0.7408249566,-0.3784251666,0.613402581,0.6238756571,0.0953528022,0.2718807149,-0.9471685538,0.0790630216,-0.6025302478,0.327975086,-0.9596108531,0.502965556,0.8406365338,-0.7255537861,0.0200467528,0.9557970735,-0.0946162004,-0.5602279823,0.4317213417,0.5326551243,-1.1694268412,-0.5055491113,-1.0138716342,-0.0685223024,-0.4462750238,-0.0926853252,0.7638461051,0.7818913972,0.2291163644,0.7132247962,-0.6759689035,-0.8418131003,0.7136529049,-0.089668168,0.3219055188,-0.539900145,0.4054853555,0.1434486249,-0.1460592553,-0.6007956427,-0.8377978235,0.5325715334,-0.1082677811,-0.7838207661,0.4941957483,0.299015546,0.3994238019,0.4447728004,-0.034535116,-0.451978372,-0.4046852386,-0.9281649887,-0.7879842745,-0.925825549,-0.2929946812,-0.5144450146,-0.2870597345,0.5224339266,0.0564206177,0.7337291832,-0.8795635454,0.398582498,-0.1004869512,0.5159469406,0.7415661292,-0.1360986259,0.7092020405,0.4306883767,-0.4422197878,0.2744853162,-0.5811467389,0.9171646152,-0.2873802523,-0.181885564,-0.9049385129,0.0060497882,-0.5552651342,-0.412334804,-0.8015379028,-0.3910063595,1.226441749,-0.110468548,-0.2871333596,-3.12105615,-0.0746033324,0.1079280803,0.4905646485,-1.2320541336,-0.4262993265,0.3456408166,-0.5915229813,-1.1657206882,-4.2124701512,-0.7967705021,0.8498803596,1.4024307918,-0.9198294592,-0.0359938878,0.5288708854,-0.8712649169,-0.3335533499,-0.6191045779,-0.1905817744,-0.1085056808,-1.6742356263,-0.982698149,0.857444011,-0.0572952023,-0.3828976468,0.789609407,0.5923293076,0.7570660227,0.3039820221,-0.3626638756,-0.2241779313,-0.154785116,-0.1288971369,0.0820261921,0.9806529169,0.9320222662,0.8287985851,0.053531127,-0.7720727071,0.6947770797,-0.9179184634,0.9629937943,-0.7804549842,0.7319822937,-0.1878057128,-0.6098649739,-0.779272747,0.0922090288,0.7686793568,-0.0057080738,0.3391614341,0.5149937981,-0.0267254573,-0.8692577269,0.7397762753,0.1439964122,0.0912055549,-0.407676385,-0.1051008824,0.5263831507,-0.7071451497,0.4475121939,-0.0775161489,0.7041225327,-0.3562487959,-1.4995295283,-0.0690942763,0.678222351,0.0649137362,-0.4601691893,0.4709990681,0.3946007888,0.7439658473,0.5497390651,-0.3944946513,0.4151084665,0.5550472526,0.529525152,-1.5290798581,0.5366012785,-0.1812051096,0.3220965562,0.0933762104,0.5700029147,-0.1170203776,0.9868704939,0.9265026537,-0.7129601818,-0.7701372186,0.5259006235,0.3198142156,0.8306562503,-0.0822827472,-0.052050268,0.7467191518,-0.033107006,0.3091124635,0.34414159,0.1636612838,0.370888712,0.2476139427,-0.9572430204,0.6568662553,0.4142260879,0.182681519,-0.9415857207,-0.7466074016,0.2750031546,-0.7608665747,0.1835500446,-0.8722945872,-0.8171721274,-0.3635869351,0.2521585983,-0.8794553105,0.1553397937,-0.9458967909,-0.4254189775,0.8117902383,0.1825348303,-0.4629075932,0.4183244677,0.147520527,0.5002503873,0.5174102638,0.2520389588,-0.6688946673,0.7569228418,-0.7042730296,0.0486466028,0.9343988134,-0.0101960126,-0.146570821,0.7382181386,0.4789379623,0.728878851,-0.4150121649,0.007246501,0.7111465306,-0.240847985,-0.1289128771,-0.9336735819,0.6430936964,-0.8673056948,0.796318797,-0.2078626617,-0.2035566526,-0.0702351141,0.2534601313,0.1278939655,0.265851287,-0.4070881466,-1.7559686735,0.9615021945,-0.3890597202,-0.6323275962,-0.1998223705,0.4035236481,-0.9240498354,0.6412181119,0.7658592876,0.4959754587,-0.3734067719,-0.7727600411,-0.7425709758,-1.3096266286,-0.9692359327,0.2371866999,-0.9016044205,-0.1156294106,-0.4717647724,-0.0638180698,-0.8767794549,0.1956270558,0.6949401913,-0.5374831373,-0.8372164334,-0.594666617,0.8291916682,-0.2449871976,0.0108649516,0.0763149511,-1.4551044957,0.1812984897,-0.1340494592,0.8899116128,-0.3061074281,-0.4541907091,-0.6106265988,0.9046356946,-0.7260837642,-0.5172306425,-0.7436483011,0.8234255762,-0.7055423921,-0.9345838306,-0.1676812454,-0.7366628368,-0.7908589731,-0.3247457963,0.140633664,0.1210836184,-0.8433806032,0.4471459571,-0.0445110937,-0.0902412629,0.6036041471,-0.9720000119,0.9246989712,0.7305687835,-0.7470504665,0.0775578521,-0.1010372262,0.5535125848,-0.2321797371,0.2661927606,0.1166580292,0.8395329444,0.0234547395,-0.890108629,0.1480923851,0.2952894841,0.5064064217,-0.2988862552,-0.4791944818,-0.9158165006,-0.1370811037,-0.0056401589,0.5600610051,0.1821825311,0.1285374758,0.3832641288,-0.1165508907,0.6272768771,0.906744604,0.8253518338,-0.4713019061,0.7034140579,-0.0859831533,0.8688465119,0.0932199815,0.6164797725,0.436440408,0.472968741,0.2555510064,-0.7208203873,0.4541645717,-0.1904577249,-0.5314567627,-0.9730264426,0.3622310965,-0.1723870212,0.2103403047,-0.4192263766,-0.5046975074,0.6771918042,0.2983423685,0.9298659323,-0.2459489483,0.9305374225,0.3646353585,-0.2125105744,0.1765208409,-0.5645394969,0.1709338488,-0.8614908529,-0.1098409192,0.6376645652,-0.5908662435,-0.7001486178,0.4559112535,0.745256338,-0.6363985033,0.2100631503,0.4471285123,0.4328272286,-0.5871046194,-0.737950468,0.3988389634,0.9667506144,0.7702856981,-0.3482456579
biasActivation=0,1,1
[BASIC:ACTIVATION]
"org.encog.engine.network.activation.ActivationSigmoid"
"org.encog.engine.network.activation.ActivationTANH"
"org.encog.engine.network.activation.ActivationLinear"
