encog,BasicNetwork,java,3.3.0,1,1472721957314
[BASIC]
[BASIC:PARAMS]
[BASIC:NETWORK]
beginTraining=0
connectionLimit=0
contextTargetOffset=0,0,0
contextTargetSize=0,0,0
endTraining=2
hasContext=f
inputCount=28
layerCounts=2,46,29
layerFeedCounts=2,45,28
layerContextCount=0,0,0
layerIndex=0,2,48
output=0,0,0,0,0,0,0,0,0,0,0,0,0,0,0,0,0,0,0,0,0,0,0,0,0,0,0,0,0,0,0,0,0,0,0,0,0,0,0,0,0,0,0,0,0,0,0,1,0,0,0,0,0,0,0,0,0,0,0,0,0,0,0,0,0,0,0,0,0,0,0,0,0,0,0,0,1
outputCount=2
weightIndex=0,92,1397
weights=0.6104874434,-0.0799378453,0.2162395117,-0.0458702329,-0.347740829,0.3178420113,0.7055565216,-0.2353919512,0.4169821324,-0.0369176347,0.7154800828,-0.3411938081,0.2265568268,0.3090477526,-0.087780498,-0.1100868989,0.5399609282,-0.0343894558,0.2623209446,0.551152543,0.2961786189,0.444669908,0.0375445817,-0.1449168516,-0.0312229221,-0.2320594687,-0.1131093014,-0.2060971024,-0.6223293209,0.5251845424,0.4201338694,-0.3179404097,-0.0761708864,0.0404541426,-0.0474861378,-0.4157556294,-0.4665223611,-0.1635772081,0.7366736793,-0.0291970805,-0.1104018528,-0.1558301835,0.3451224749,0.1864129539,0.0943575968,0.9080883197,0.1234853639,0.0319716246,0.08015356,-0.1084867126,0.07294408,-0.2007101128,-0.8317383252,0.074677234,-0.2773762548,-0.2123286903,0.2446166535,-0.4426580861,-0.1091244496,0.2666611647,-0.2414047719,-0.1126620416,0.018999348,0.4365486939,-0.2386848975,-0.0207311304,-0.6220961822,-0.321728254,-0.1629796451,-0.0881350405,-0.4326922216,0.1932288934,-0.1380739357,0.3675874236,-0.0146437386,0.082936978,-0.1057403194,-0.2306350667,0.066292018,0.0885866676,0.0221290048,0.5179676491,0.3772447717,-0.0966334834,-0.8297190136,-0.1885246453,-0.3665889809,-0.0519988242,-0.3186562815,-0.6803340954,-0.0758862511,-0.2795799776,-0.9046451077,0.7497524746,0.0861644131,-0.4404096445,0.2884508853,-0.5414265727,-0.3533444202,0.0113873346,0.2637247975,0.6129050044,-0.0586195708,-0.2449839313,-0.1577240021,-0.6782873037,0.2297652276,0.9062641414,0.4512108342,0.092284287,-0.659123772,0.2784129447,0.6081601993,-0.4476553979,0.7172135107,-0.7027258491,-0.5782902063,-0.2733479457,-0.1960732094,-0.6912018027,0.8448236282,-0.5729112237,0.4600127568,-0.0738816635,0.9770097879,-1.0559208101,0.1054116629,0.7594244515,-0.4844957161,0.3445584308,0.534276627,0.0356524086,-0.4773254726,-0.345357202,-0.195688522,-0.7171315825,0.1529027949,0.8274371005,0.013377691,0.5188954952,0.771707944,-0.804913695,0.465062875,0.641410685,-0.6009615741,-0.5109744241,0.0723769671,-0.4376565555,0.8218614018,-0.3327728614,0.2235688648,0.8944582683,-0.5556463176,0.9590348217,-0.9033146342,-0.4633888199,0.3603107613,-0.2468377158,-0.2424811122,-0.058823361,-0.2613154924,0.120188202,0.7269831016,0.2721603517,0.1902824892,0.551067238,0.0303251129,0.2316259917,0.8787648974,0.5241714198,-0.5135747581,0.9673245203,-0.6938558476,-0.0962679256,0.5985198646,0.8817253323,0.5519796782,-0.8667067692,0.7003507191,-0.8018714508,0.8674333421,-0.9317472017,-0.9627277114,-0.1315782772,0.6235219011,0.5670077686,0.9772927488,0.6742063771,-0.5783869403,0.1515156418,-0.0619023169,0.2664760427,0.0780119779,-0.1385166917,0.7177583962,-0.2554299543,0.3080879901,0.0045775851,0.161461951,-0.2018427309,-0.9300231527,-0.2799255594,0.8972765476,-0.6712140961,0.7270212955,0.4512708597,-0.300864086,-1.0996578966,0.0799333716,0.3346956514,-0.645836858,-0.8445978281,0.3738616326,-0.5243567737,0.0820052482,0.0139058325,0.9442841102,-0.1374885354,-0.8151645854,-0.0380084961,0.264425339,0.0114232781,0.742694097,-0.6630810619,-0.0709175736,0.8936567829,0.8560479768,-0.6011452018,0.0689025984,0.4702926671,0.7191559293,0.2610066303,0.701207406,-0.5705175947,0.8263779675,0.2286575729,0.9757150221,0.4159621009,-1.5066894026,0.9459171527,1.0234196101,-2.4646228623,0.0607844507,-0.2646256487,1.2440313322,0.2901840296,-0.129218385,-0.5745529636,-0.3250290915,-0.3342646215,-0.1005140801,-0.9502773096,-0.4347308005,0.9079441414,-1.1815652051,-1.4662910502,-1.1946036662,0.9871714059,0.4007047754,-0.3408153806,-0.1231130756,-0.6134597903,0.2569390187,-0.2419773297,0.3823970937,-0.6743090916,-0.6466745364,0.7468438112,0.7326722261,-0.3049046741,0.2611755438,-0.7229402709,0.3198156849,-0.3906546469,0.4123413974,0.1190420855,0.1761216206,0.9302169167,0.5768844706,-0.9103494399,-0.6805272315,0.6009596608,0.5083317335,-0.4449753787,0.7649753651,0.2860065457,0.5764707673,0.0253113645,0.8112400215,-0.6717222043,0.0714466787,0.6895548626,-0.8653732073,-0.774250457,0.4607433522,-0.8901394724,1.0005929799,-0.5262985831,-0.4581989216,0.5314948392,0.1133999802,-0.7493854944,-1.7658663877,-0.6517251391,-0.2516426145,-0.8674415315,-0.0384971572,-0.9846683401,0.2432362452,-0.7409896115,-0.3805146504,-2.3583237108,-0.6913305049,0.2635129604,1.4167562331,-1.2535432777,-0.4396553557,0.8057142223,-0.2752678366,-0.3891715555,-1.0392873885,-0.0653620395,-0.0558391557,-1.1573038432,0.5559112603,-0.670343629,0.9379642758,-0.3842493548,0.2213627859,0.7146250288,-0.0053841762,0.1730281772,-0.3837171401,-0.2305568512,0.8139592935,-0.8058383687,0.2188888682,0.9129644297,0.5008931689,0.7636119383,-0.8022741651,0.6575856028,0.8228423934,-0.2697058634,-0.7461666195,0.1575063703,-0.0851276433,-0.4614196051,-0.2658583876,0.7607994844,0.8975576632,-0.6134252442,0.7012565861,0.9003434299,-0.1536861027,0.757010092,0.3653412468,-0.5120896302,0.7141740007,-0.4108588968,-0.2516097745,0.5438110872,0.8158674111,-1.0645853157,0.1769108294,-0.6019923545,0.5815091854,-1.6448767961,-0.9055954742,1.2458430892,0.5680628775,-0.4912917339,-1.1423948525,-0.3404512407,-0.8874490582,-0.4087089777,-0.1303958768,-0.0729031253,-0.3341913429,-0.6601454332,-0.7175250959,-0.2252750953,1.0344007097,0.0575894908,-0.074294763,-0.3546114136,-2.0079892719,-0.2349912294,-0.3285150627,-0.5646295769,-0.0170376724,-0.830731811,-1.1856618537,-0.6344101922,-0.6341775953,-0.7577651458,0.9327045033,0.5559326282,-1.1553567715,-0.5249499033,0.2733220784,-1.7053531776,-0.3148794512,0.1043798744,-0.8270546372,0.8580507426,0.8822091534,0.3520199659,0.211854623,0.5217947203,-0.2751983254,-0.3596796089,0.8004244295,-0.920083158,0.369255655,0.6598588194,-0.9468439138,0.3703483075,1.1097474869,-0.8687680969,-0.448447753,0.1769988355,-0.6254361736,-0.0769044997,-0.1044096576,-0.4931473258,-0.8079092077,0.0768486087,-0.129071962,-1.1617815475,-0.2801750427,-0.6352994966,-0.7601695896,0.3405223325,0.5240347356,-0.604063564,-0.7214117897,0.8898033233,-0.5015689595,-1.3166176633,-0.108768512,0.512962117,-0.3167141055,-0.659058694,-0.0717123204,0.1667968072,-0.9116021686,0.5743603055,0.4512143921,0.001560671,0.5958160291,-0.6721567602,-0.6265967946,-0.0429773758,-0.5796977366,0.2229931238,-0.3098638708,0.5606008024,-0.0139055558,-0.4117031522,0.4075372646,0.2907190236,-0.9726629078,-0.4102684468,0.3674381623,0.2728311444,-0.8770140002,1.0028603319,-0.1601185543,-0.0037017156,-0.9061682037,0.4363042637,-0.8150335095,-0.0316972264,-0.5804070894,-1.3357414965,-1.4368211202,-0.7903052825,-0.8811658988,-1.0406711916,-0.4349024788,-0.3535172101,0.2181717268,1.0648743348,-0.2789679907,-0.1714629635,-0.6355561931,-0.4078653688,0.4953156527,-0.3798654871,0.9566051249,-0.2550363165,0.5100595093,-0.3651166459,0.0105352446,0.4475237227,0.8133479705,0.0096524367,0.9119356889,-0.1118058319,-0.5088214529,0.7430306969,0.1453532176,0.8692619094,-0.3893247135,-0.7868901267,-0.7856186782,-0.6851723105,-0.7543901677,-1.2101107826,0.07224978,0.7104733802,-0.088579275,0.4181318762,0.1371995577,0.4158302434,-0.6270403336,0.7723860707,0.1190752836,-0.5706879401,-0.5474956312,-0.9608544043,0.930866173,-0.7973643819,0.1198135252,-0.2316843991,-0.1588036754,0.7631616454,0.0293613128,0.5559372568,-0.1121129319,0.1843135196,-0.6477408323,0.7685131206,-0.132691857,0.3983146684,-0.9514137818,-0.1087989131,-0.6478499418,-1.2121883235,-0.3770017798,0.7063906093,-0.0592385763,-0.600237278,-0.8526904726,-0.2284350161,0.0279122495,0.7366120312,-0.81117972,0.0398370472,0.3395988892,0.882981212,0.1977430185,-0.1734420756,-0.4529432678,0.2077555446,-0.4425471733,-0.0440668677,-0.3564085944,0.4406431183,-1.0042575955,-1.2470292224,-1.0593610415,-0.9694170833,-0.2818672639,0.7740249963,-0.9388229344,0.0838352289,-0.7951444911,0.6911143755,-0.1747994987,1.6996582419,0.6850362624,-1.0269796652,-0.8842894705,-2.4677168488,-0.326989085,-0.8632722272,0.6991380058,-0.1639466126,0.2141080153,0.7084143358,0.4202316854,0.0433759492,-0.3933589232,0.4431939665,-0.9024796123,-1.3303598676,0.1725742714,0.3171454367,-0.1696983289,-0.7783271137,-1.2375088582,0.0735782,1.0636156894,-1.0529925691,-1.2773953176,-0.1427226425,0.1252125351,-0.173887158,0.2113530998,-2.6142283265,-0.0642779976,0.9269784297,0.907933527,-1.2854245571,0.9616763064,0.026566191,0.0107234308,0.7394632546,0.0100708155,-0.2770666161,-1.0639999148,-1.1219384476,-0.5185936931,-0.0561972577,-0.2926116387,-0.3042111664,-0.5595578078,0.6715258826,0.9210651284,0.713253805,-0.7929615578,0.8830322061,-0.7337722139,-0.6268289413,1.1438816749,-0.1980668603,0.4788645192,-0.5811613941,-0.4189368032,-0.6413532659,-0.5419017397,-0.6439764162,-0.0654235153,-0.1892426687,-0.2609468938,-0.8513794744,0.4427611795,0.1378427582,-0.9108902933,-0.5680703457,-0.3765526679,-0.5256216094,-0.7785247959,-0.1767336767,1.0678013994,-2.4792516996,-0.4600655124,-0.9073561152,0.3131941707,-0.6471289864,-0.2454006634,-0.1820771997,0.3723626337,-0.5703368505,-0.9550756139,0.4083991858,-0.0186029991,-0.0459776993,0.2196833255,-0.5666098172,-0.9572880369,0.0352863298,0.7644623123,0.307385095,0.8769588987,0.7357095458,0.2014791159,0.5695706596,-0.3619461256,-0.0093103745,0.6183585284,-1.6682731708,-0.4703840944,1.1151933793,-1.5422823922,-0.0155967953,-0.8344402973,1.669303545,-0.1196950873,-0.9979509511,-0.9305610329,-0.1413509491,0.5325481775,-0.1826840259,-1.4928561179,0.2331499626,1.7724978515,-0.766298206,-0.0307781353,-2.2444768165,0.3578597644,-0.475659021,-0.486019185,-0.2491004767,-0.576533448,1.0215843903,-0.4204094273,1.4754286263,-1.1957245983,-0.3082503296,-2.2074532614,0.9179519271,-0.0188302955,-2.3633396436,-0.8712051427,-0.6857722797,1.8530963163,-0.8031479235,0.1954237306,-0.7852426844,0.1356211921,-0.7421032064,-0.3838932953,-1.3706142233,0.9954411866,1.6948355853,-0.5590397455,-1.6597408647,-2.2198606045,0.3134858676,0.0908668665,0.0355293937,-0.0681166694,-0.7408558322,-0.0489178943,-0.0513491185,-0.025225203,-0.917140974,1.009811706,-0.3059279683,0.7371986209,-0.5441238385,-1.1420934355,-1.1266241084,-0.4786007109,-0.1696819353,-0.9547618744,-0.0159849306,0.0313702224,-0.6011150998,-0.8837804055,-0.1920826986,0.0401393802,-1.2567303119,1.935606139,0.0476467246,-1.4527265874,-2.0718963168,-0.9348263746,-0.3373164898,-0.5567038486,0.8670807405,0.8714990659,0.2570495259,-0.7361647633,-0.1683664965,-0.1546637529,0.5900399939,0.6571985218,0.3162015192,0.832670687,0.2436091055,0.621065094,0.1625255719,-0.3755515838,-1.1733672281,0.610650953,-0.6925853085,-0.8001514119,-0.8101831281,0.2953669089,-1.5253678131,-1.4469157819,-0.3031839291,-0.5935404761,0.4683704329,0.4502431208,0.5078957906,0.2663137831,-0.5785964306,0.5307822058,-0.8325370295,0.7026044694,0.5185351703,0.4590401755,-0.6803851479,0.3294053252,-0.8615762884,-0.9471638802,1.2117127557,-1.6733846484,0.400473064,-0.603579143,1.9507248736,-1.0295295853,0.0810315194,-1.6009058415,-0.4109715299,0.4136154765,-0.5725834728,-2.1363492319,-0.1701837146,1.8788361923,0.1074838916,-0.2722968756,-3.0013159029,0.8731767701,0.1297760971,0.2786932791,-0.6495301567,0.304921292,0.7096034336,0.6739959328,1.1896986666,-0.7062694326,-0.8645779666,-0.3350288881,0.1474879529,0.738571642,0.6780402006,0.2754145871,-0.434981793,0.4829582349,0.5352741245,0.5993234557,0.8899189066,-0.5140066569,0.1236572092,0.7054487641,-0.7211470993,-0.6541457256,-1.23501621,-0.5313527679,-0.2234688487,-0.0174701148,-0.7725520172,0.0780550411,0.8561574237,0.7671265008,-0.9626385069,-0.1836924053,0.4728284662,0.5486207225,-1.3555838982,0.4724539326,-0.9998601986,0.1613010874,-0.8050016199,0.7532420996,0.5657970268,-0.4519872501,-0.2633548842,-0.6568971114,-0.9181537807,0.7133709255,-0.7960914392,-0.2542275987,-0.2449982735,0.156563347,-1.6499802745,1.0199322501,-0.7934633779,-0.8433949113,0.4260391639,-0.8096975263,0.2814026004,-0.233909952,-0.0580149928,0.1441831486,-0.7477669324,-0.8239840162,0.0608151579,-0.7167898521,0.507459782,-0.9029629633,-0.5925323923,-0.9387658375,-0.234450086,0.5785943492,-0.2904460933,-0.2055904738,-0.8404245833,-0.8848815768,0.369291551,0.1367388716,-0.1486795198,-0.5761909104,-0.4748302744,0.471745982,0.3114128579,0.3126445688,-0.0366751511,0.3884532329,0.1864861724,0.7632513185,-0.2114153146,-0.8474432136,0.624801127,-0.905804643,0.020759472,0.6443988029,-0.6620590298,-0.4688737645,-0.2791640819,0.9583105332,0.8916697579,-0.6653657973,0.5078560168,-0.5873692924,-0.8962366601,0.3801220141,-0.1366345429,0.8658514243,0.5019157566,0.6492306025,0.8825938861,-0.2438221634,0.8932699388,-0.0924707715,-0.4264716139,0.5829623381,0.3799059334,0.5538708769,-0.8848632953,0.9202900044,0.6866195576,0.3363681218,-0.2231267719,0.3674154897,-0.241733551,0.180325417,0.6898641027,-0.6962825899,1.2267809235,-0.2498709597,-2.423148755,-0.2632685676,-0.0455871205,-0.7911625004,0.6353884433,-0.767018669,-1.0647930449,0.0138119009,-0.3541668534,-0.9363803514,0.1682506768,-0.0132601151,1.0635553277,-1.1469350932,-1.1048149318,-1.0992515809,1.0527392719,0.3453005433,-0.8931710466,0.106774471,-0.6354044653,-0.2594363689,0.5270675563,0.3521599486,-1.6053253337,0.5611360756,-0.9881417331,0.0544061218,0.3343114219,-1.6572157268,0.0641668874,-0.4280962363,-0.6140239814,0.4175184978,-0.4299082717,-1.6656284875,0.6238247193,-0.152385258,-0.1325232552,0.5323293045,-0.0921672844,1.2579101115,0.2184329046,-1.4061678387,-2.820058902,0.556996882,-0.6613317084,-0.0377661065,-0.880708086,-0.4553541953,0.2555264066,0.505802947,-0.4321065675,-0.0484620465,-0.257317273,-0.4789796734,-1.2370589945,0.1381151627,-0.1207189717,0.8092312315,-0.1292488586,0.9621924901,-1.0535977674,-0.7814325386,-0.6400855691,-1.2312597384,-0.8345926497,-0.640687529,-0.4793059626,-1.3593241356,0.7982577624,-0.1218755144,0.3154879544,-1.0607107622,-0.3945672425,-0.822525351,-0.8415138044,0.6243516393,0.3496211654,0.1742950881,0.5478419923,0.3187048508,0.0763350705,0.0738830965,0.4228245122,0.968044098,0.222738135,0.7400722266,0.2447491183,0.2225995882,0.1718181369,0.3330949487,0.1429838163,0.1082117689,0.7408247803,-0.3784251961,0.6134025409,0.6238755371,0.0953527795,0.2718809852,-0.9471686209,0.0790627897,-0.6025306834,0.3279751629,-0.9596108675,0.502965524,0.8406364788,-0.7255537939,0.0200468704,0.9557971049,-0.0946160858,-0.5602283395,0.4317212921,0.5326549334,-1.1694270589,-0.5055491875,-1.0138720393,-0.0685222664,-0.4462752554,-0.0926853993,0.7638459925,0.7818914457,0.2291162272,0.7132248537,-0.6759687314,-0.8418130815,0.7136527276,-0.0896681367,0.3219054607,-0.5399001334,0.4054852024,0.1434486092,-0.1460598207,-0.600795645,-0.8377978225,0.5325714994,-0.1082677933,-0.7838207609,0.4941957504,0.2990155069,0.3994234856,0.4447727005,-0.0345350241,-0.4519780956,-0.4046855658,-0.9281646953,-0.7879842464,-0.9258254723,-0.2929949597,-0.5144453041,-0.2870599375,0.5224340577,0.0564208388,0.7337278186,-0.8795636841,0.398582255,-0.1004867177,0.5159453506,0.7415660847,-0.1360986712,0.7092033054,0.4306885484,-0.4422197971,0.2744853056,-0.5811466898,0.9171644878,-0.2873809252,-0.1818859771,-0.9049391161,0.006050023,-0.5552752137,-0.4123269327,-0.8015329234,-0.3910239017,1.2264533529,-0.1104575156,-0.2871389566,-3.1211005293,-0.0746127695,0.1079321615,0.4905592274,-1.2320499065,-0.4263110522,0.3456412831,-0.5915350178,-1.165725988,-4.2125383468,-0.7967665867,0.8498811521,1.4024700179,-0.9198610601,-0.0359933443,0.5288727875,-0.8712643315,-0.3335565249,-0.6191240641,-0.1905910273,-0.1085274679,-1.674242863,-0.9826980763,0.8574433938,-0.0572960778,-0.3828973871,0.7896082387,0.5923291491,0.757065361,0.3039823014,-0.3626642769,-0.2241778874,-0.1547855762,-0.1288975851,0.0820265711,0.9806529736,0.9320218758,0.8287983495,0.053532562,-0.7720728326,0.6947763008,-0.9179200577,0.9629936519,-0.7804550076,0.7319822322,-0.187805902,-0.6098649438,-0.7792721133,0.0922093051,0.7686798513,-0.005709362,0.3391608226,0.5149938084,-0.0267279822,-0.8692587807,0.7397798224,0.1439971601,0.0912054171,-0.4076767628,-0.1051022864,0.5263832378,-0.7071452786,0.447509382,-0.0775177707,0.7041226382,-0.3562513858,-1.4995352409,-0.0690969827,0.6782225967,0.0649133207,-0.4601623075,0.4709974259,0.3946008048,0.743965954,0.5497390025,-0.3944948481,0.4151071642,0.5550466724,0.5295238105,-1.5290813731,0.5366011535,-0.1812050937,0.3220967983,0.0933759249,0.5700030801,-0.1170203656,0.9868706366,0.9265022696,-0.7129602044,-0.7701373091,0.5259007972,0.3198141506,0.8306558738,-0.0822829101,-0.0520503653,0.7467189856,-0.0331088065,0.3091124407,0.3441417341,0.1636620824,0.3708886675,0.2476139322,-0.9572430214,0.6568662789,0.4142259909,0.1826810374,-0.9415860235,-0.7466078693,0.275003223,-0.7608659352,0.1835479365,-0.8722959021,-0.8171705973,-0.3635853769,0.2521579819,-0.8794547882,0.1553429311,-0.9458984469,-0.4254189265,0.8117902666,0.1825326827,-0.4629056313,0.4183245824,0.147520727,0.5002476761,0.5174162366,0.2520388799,-0.6688943526,0.756920118,-0.7042697406,0.0486465754,0.9343987222,-0.0101962583,-0.1465705493,0.7382201727,0.478939014,0.7288810178,-0.4150130453,0.0072486636,0.7111403447,-0.240856431,-0.1289086132,-0.9336732093,0.6430906972,-0.8673055963,0.7963305557,-0.2078621763,-0.2035581008,-0.0702354866,0.2534505753,0.1278941396,0.2658510994,-0.407090504,-1.75597826,0.9615172641,-0.3890608704,-0.6323304041,-0.1998274021,0.4035315041,-0.9240500934,0.6412174516,0.765858305,0.4959760176,-0.3734018846,-0.7727577833,-0.7425655632,-1.3096319641,-0.9692371125,0.2371870302,-0.9016063423,-0.1156311162,-0.4717615406,-0.0638167653,-0.8767799083,0.1956244661,0.6949380807,-0.5374825688,-0.8372169522,-0.5946682215,0.8291898369,-0.2449870468,0.0108620082,0.0763100108,-1.4551097576,0.1812989051,-0.1340501523,0.8899180002,-0.3061095808,-0.4541906502,-0.6106263949,0.904635606,-0.7260840931,-0.5172322125,-0.7436490279,0.8234236549,-0.7055443289,-0.9345795309,-0.1676802134,-0.7366616971,-0.7908518127,-0.3247494491,0.1406293916,0.1210860286,-0.8433602298,0.4471511053,-0.0445129586,-0.0902404833,0.6036019334,-0.9719943578,0.9246979485,0.7305722405,-0.7470466388,0.0775808786,-0.1010396317,0.5535090591,-0.2321945345,0.2662090698,0.1166577726,0.8395320163,0.0234547055,-0.890107392,0.1481002602,0.2952928008,0.5064148384,-0.2988811058,-0.4791948376,-0.9158175857,-0.137081876,-0.0056407566,0.5600595414,0.1821824922,0.1285366882,0.3832619063,-0.1165519019,0.6272766773,0.9067440032,0.8253510711,-0.4713035158,0.7034139064,-0.0859838758,0.8688455972,0.0932170855,0.6164797728,0.4364402553,0.4729687799,0.2555497486,-0.720820423,0.4541645361,-0.1904579275,-0.5314569895,-0.9730273492,0.362230588,-0.1723879163,0.210338293,-0.4192262363,-0.5046966912,0.6771918268,0.2983426243,0.9298654884,-0.2459490576,0.9305372517,0.3646372061,-0.2125098061,0.1765208326,-0.5645392503,0.1709340571,-0.8614906018,-0.1098408937,0.6376641853,-0.5908653389,-0.7001486821,0.4559111404,0.7452553124,-0.6363984701,0.2100632518,0.4471285105,0.4328271687,-0.5871045718,-0.7379504504,0.3988394348,0.9667507403,0.7702860283,-0.3482449168
biasActivation=0,1,1
[BASIC:ACTIVATION]
"org.encog.engine.network.activation.ActivationSigmoid"
"org.encog.engine.network.activation.ActivationTANH"
"org.encog.engine.network.activation.ActivationLinear"
