encog,BasicNetwork,java,3.3.0,1,1472731921250
[BASIC]
[BASIC:PARAMS]
[BASIC:NETWORK]
beginTraining=0
connectionLimit=0
contextTargetOffset=0,0,0
contextTargetSize=0,0,0
endTraining=2
hasContext=f
inputCount=28
layerCounts=2,46,29
layerFeedCounts=2,45,28
layerContextCount=0,0,0
layerIndex=0,2,48
output=0,0,0,0,0,0,0,0,0,0,0,0,0,0,0,0,0,0,0,0,0,0,0,0,0,0,0,0,0,0,0,0,0,0,0,0,0,0,0,0,0,0,0,0,0,0,0,1,0,0,0,0,0,0,0,0,0,0,0,0,0,0,0,0,0,0,0,0,0,0,0,0,0,0,0,0,1
outputCount=2
weightIndex=0,92,1397
weights=0.6104873732,-0.0799378473,0.2162392628,-0.0458701116,-0.3477407838,0.3178416513,0.7055563996,-0.2353917848,0.4169822851,-0.0369179347,0.7154801015,-0.3411937096,0.2265565534,0.3090478691,-0.0877802377,-0.1100866592,0.539960802,-0.0343893284,0.2623209257,0.5511523096,0.2961782093,0.4446694551,0.037544331,-0.1449166526,-0.0312233199,-0.2320591573,-0.1131091021,-0.2060970859,-0.6223293927,0.5251844514,0.4201334985,-0.3179403384,-0.0761713503,0.0404537199,-0.0474862198,-0.4157554991,-0.4665226133,-0.1635769979,0.7366735918,-0.0291967968,-0.1104018692,-0.1558298489,0.3451225384,0.1864130857,0.0943574726,0.9080882192,0.1234853882,0.0319718314,0.0801534917,-0.1084866356,0.0729443397,-0.2007098958,-0.8317381044,0.0746769641,-0.2773769719,-0.212328456,0.244616368,-0.4426581117,-0.1091242833,0.2666608652,-0.241404914,-0.1126620569,0.018999229,0.4365484644,-0.2386848484,-0.0207311464,-0.6220957939,-0.3217279517,-0.1629794361,-0.0881349565,-0.4326917517,0.1932287155,-0.1380738507,0.3675873495,-0.0146438702,0.0829368614,-0.1057402186,-0.2306350303,0.0662923085,0.0885867278,0.0221292609,0.5179674174,0.3772450138,-0.0966335418,-0.8297187936,-0.1885244998,-0.3665887162,-0.051998992,-0.3186564381,-0.6803340296,-0.0758859214,-0.279579769,-0.9046451212,0.7497525014,0.0861644045,-0.4404096643,0.2884509129,-0.5414265621,-0.3533444238,0.0113873227,0.2637247499,0.6129050053,-0.0586195704,-0.2449839413,-0.1577240147,-0.6782873017,0.2297651929,0.9062640936,0.4512107658,0.0922842934,-0.6591237767,0.2784130188,0.6081601733,-0.4476553969,0.7172135135,-0.7027258466,-0.5782902115,-0.2733479763,-0.1960732246,-0.6912018321,0.8448236316,-0.5729112462,0.4600127535,-0.0738816835,0.9770097624,-1.055920769,0.1054116879,0.7594244259,-0.4844957695,0.3445584313,0.5342766419,0.035652396,-0.4773254414,-0.3453572197,-0.1956885116,-0.7171316327,0.1529027754,0.8274370371,0.0133776968,0.5188954862,0.7717080266,-0.8049137659,0.4650628765,0.6414106878,-0.6009615725,-0.5109744275,0.072376948,-0.4376565648,0.8218613698,-0.3327728692,0.2235688616,0.8944582743,-0.5556463198,0.9590348168,-0.9033146139,-0.4633888139,0.360310766,-0.2468377162,-0.2424811051,-0.0588233584,-0.261315489,0.1201882067,0.7269830993,0.2721603528,0.1902824831,0.5510672275,0.0303250951,0.2316259932,0.8787649005,0.5241714554,-0.5135747621,0.9673245208,-0.6938558465,-0.0962679241,0.5985198643,0.8817253278,0.5519796764,-0.8667067752,0.7003507269,-0.8018714404,0.8674333641,-0.9317471633,-0.9627277006,-0.1315782209,0.6235218992,0.5670078005,0.9772927751,0.6742063786,-0.5783869449,0.1515156641,-0.0619023331,0.2664760115,0.0780119769,-0.1385166708,0.7177583847,-0.2554299115,0.3080879897,0.004577608,0.1614619505,-0.2018426616,-0.9300231524,-0.279925559,0.8972765524,-0.6712140928,0.7270212936,0.4512708603,-0.3008640789,-1.0996578541,0.0799333874,0.3346956313,-0.6458368747,-0.8445978034,0.3738615774,-0.5243568025,0.082005232,0.0139058806,0.9442841039,-0.1374885548,-0.815164593,-0.0380085131,0.2644253315,0.0114232694,0.7426940949,-0.6630810524,-0.0709174876,0.8936567705,0.8560479517,-0.6011452938,0.0689026514,0.4702926648,0.7191559239,0.2610066254,0.7012074065,-0.5705175804,0.8263779714,0.2286575958,0.9757150014,0.4159623391,-1.5066898394,0.9459167242,1.0234200476,-2.4646234637,0.0607840951,-0.2646257711,1.244032067,0.2901841515,-0.1292185288,-0.5745530874,-0.3250294656,-0.3342643589,-0.1005141304,-0.9502771846,-0.4347307719,0.9079454799,-1.1815653458,-1.4662913144,-1.1946051258,0.9871719056,0.4007047445,-0.3408154593,-0.1231131681,-0.6134597391,0.2569395379,-0.2419771093,0.382397648,-0.6743095044,-0.6466745445,0.7468438246,0.7326722313,-0.3049046833,0.2611755551,-0.7229402621,0.3198156906,-0.3906546417,0.4123414009,0.1190420896,0.176121628,0.930216915,0.5768844597,-0.9103494376,-0.680527232,0.6009596593,0.5083316911,-0.4449753746,0.7649753763,0.2860065714,0.576470751,0.025311365,0.8112400228,-0.6717222015,0.071446676,0.6895548532,-0.8653732136,-0.77425047,0.4607433722,-0.8901396413,1.0005931009,-0.526298599,-0.4581992142,0.5314951654,0.1134001711,-0.7493855648,-1.7658670173,-0.6517253336,-0.2516425503,-0.8674416005,-0.0384971879,-0.9846685664,0.2432362582,-0.7409898811,-0.3805149575,-2.3583247681,-0.691330437,0.2635129657,1.4167570763,-1.2535437445,-0.4396553457,0.8057142562,-0.2752678272,-0.3891716072,-1.0392877198,-0.0653621933,-0.0558395197,-1.1573039801,0.555911243,-0.6703436216,0.9379642608,-0.3842493884,0.2213628267,0.7146250538,-0.0053841784,0.1730281037,-0.3837171091,-0.2305568404,0.8139592757,-0.8058383498,0.218888849,0.9129644281,0.5008931511,0.7636118921,-0.8022742818,0.6575856074,0.8228424015,-0.2697057617,-0.7461666283,0.1575063712,-0.0851276393,-0.4614196026,-0.2658583914,0.7607994547,0.8975576506,-0.6134252801,0.7012565787,0.9003435109,-0.1536862587,0.7570098319,0.3653414,-0.5120896546,0.7141738917,-0.4108588738,-0.2516093426,0.5438110516,0.8158673594,-1.06458529,0.1769106089,-0.601992287,0.5815091726,-1.6448768139,-0.9055957075,1.2458436562,0.5680628369,-0.4912918004,-1.1423950331,-0.3404509099,-0.8874490663,-0.4087089995,-0.1303959014,-0.0729031044,-0.3341911787,-0.6601453583,-0.7175249076,-0.2252751971,1.0344009276,0.0575891502,-0.0742945751,-0.3546110191,-2.0079904068,-0.2349915767,-0.3285152481,-0.5646292481,-0.0170374549,-0.8307319255,-1.1856620126,-0.6344100091,-0.634177261,-0.7577652081,0.9327049129,0.5559336347,-1.1553555899,-0.5249500368,0.2733218779,-1.7053552937,-0.3148791369,0.1043798461,-0.8270547114,0.8580506771,0.8822091951,0.3520204413,0.2118548116,0.5217952112,-0.2751984975,-0.3596795526,0.8004242826,-0.9200835953,0.3692557626,0.659859212,-0.9468439582,0.3703483972,1.1097481014,-0.8687681416,-0.4484477941,0.1769989008,-0.6254365911,-0.0769046458,-0.104409643,-0.4931475369,-0.8079100256,0.0768492027,-0.1290719776,-1.1617815837,-0.2801745844,-0.6352990843,-0.7601695921,0.3405223241,0.5240347194,-0.6040635437,-0.7214116872,0.8898033812,-0.5015688278,-1.3166177641,-0.1087684471,0.5129617973,-0.3167142832,-0.659058554,-0.0717126528,0.1667966564,-0.9116022495,0.5743605984,0.4512145897,0.0015605815,0.5958159124,-0.6721570054,-0.6265969649,-0.0429774191,-0.5796977062,0.2229930438,-0.30986351,0.5606007164,-0.0139057071,-0.4117037314,0.4075373849,0.2907190057,-0.9726629514,-0.4102684941,0.3674381615,0.2728313036,-0.8770139603,1.0028604812,-0.1601188012,-0.0037017074,-0.9061682534,0.4363044604,-0.8150334946,-0.031697701,-0.5804071413,-1.3357416218,-1.4368214222,-0.7903052012,-0.8811659065,-1.0406713134,-0.4349022894,-0.3535171524,0.2181717018,1.0648744665,-0.2789674326,-0.1714631331,-0.6355562148,-0.4078654249,0.4953149497,-0.3798656389,0.9566051178,-0.2550363313,0.5100594904,-0.3651166538,0.010535282,0.4475237246,0.8133479919,0.0096523363,0.9119357539,-0.1118059441,-0.5088216451,0.7430308254,0.1453532959,0.8692618418,-0.3893246378,-0.7868896361,-0.7856186402,-0.6851723359,-0.7543900892,-1.2101109034,0.0722498398,0.7104733912,-0.0885792811,0.4181315972,0.1372001707,0.4158302226,-0.62704034,0.7723860245,0.1190755585,-0.5706879426,-0.5474956419,-0.9608544112,0.9308661984,-0.7973642286,0.1198136026,-0.2316842315,-0.1588036572,0.7631616447,0.0293612994,0.5559372082,-0.1121129322,0.1843135034,-0.6477408328,0.76851311,-0.1326918204,0.3983146727,-0.9514137841,-0.108798925,-0.6478499771,-1.2121883397,-0.37700178,0.7063905924,-0.0592386195,-0.6002372884,-0.8526904736,-0.2284350305,0.0279122512,0.7366120143,-0.8111797203,0.0398370467,0.3395988866,0.882981211,0.1977430181,-0.173442076,-0.4529432678,0.2077555212,-0.4425469227,-0.0440672717,-0.3564086465,0.4406435654,-1.0042585223,-1.2470295874,-1.0593611512,-0.9694163949,-0.2818670778,0.7740248652,-0.9388230325,0.0838351646,-0.7951441441,0.6911143181,-0.1747991719,1.6996587634,0.6850375928,-1.026979803,-0.8842896621,-2.4677186855,-0.3269885144,-0.8632722559,0.6991379291,-0.1639466848,0.2141080706,0.7084148643,0.4202319074,0.0433765105,-0.3933591452,0.4431936999,-0.9024794122,-1.3303595812,0.1725738053,0.3171454742,-0.1696980574,-0.7783273275,-1.2375102496,0.0735780058,1.0636157989,-1.0529927734,-1.2773950604,-0.1427228985,0.125212534,-0.1738873799,0.2113533211,-2.6142302752,-0.0642779031,0.9269784355,0.9079341831,-1.2854255066,0.9616763178,0.0265662354,0.01072344,0.7394631658,0.0100703112,-0.2770668637,-1.0640004912,-1.1219386662,-0.5185935009,-0.0561974829,-0.2926118087,-0.3042108285,-0.5595582638,0.6715256874,0.9210650886,0.7132544818,-0.7929616595,0.8830321649,-0.7337721725,-0.6268290713,1.1438816993,-0.1980668398,0.4788646075,-0.581161507,-0.4189353619,-0.6413533194,-0.5419018194,-0.6439774432,-0.0654229877,-0.1892426802,-0.2609469313,-0.8513795138,0.4427612447,0.1378431498,-0.9108900958,-0.568069901,-0.376552766,-0.5256213493,-0.7785252615,-0.1767338289,1.067801865,-2.4792526243,-0.4600659091,-0.9073562903,0.3131947991,-0.6471287457,-0.2454008084,-0.1820773835,0.3723623954,-0.570336535,-0.9550756733,0.4083994269,-0.0186025726,-0.0459762528,0.2196831701,-0.5666101033,-0.957290033,0.0352867656,0.7644622778,0.3073850071,0.8769588034,0.735709597,0.2014796904,0.5695708962,-0.3619455282,-0.0093107651,0.6183589407,-1.6682740182,-0.4703850175,1.1151941529,-1.5422832026,-0.0155974362,-0.8344405096,1.6693049473,-0.1196948551,-0.9979512333,-0.9305612521,-0.1413519653,0.5325481937,-0.1826841109,-1.4928561195,0.233149273,1.7725002059,-0.7662984506,-0.0307787506,-2.2444788784,0.3578609775,-0.4756590786,-0.4860193271,-0.2491006627,-0.5765333633,1.0215852994,-0.42040904,1.4754296083,-1.1957255471,-0.3082499753,-2.207453913,0.9179512788,-0.0188296449,-2.3633405347,-0.871205674,-0.6857724667,1.8530973692,-0.8031476669,0.195423514,-0.7852428764,0.135620573,-0.7421028778,-0.3838933693,-1.3706140715,0.9954410541,1.694837468,-0.5590399531,-1.6597412732,-2.2198627088,0.3134866436,0.0908668189,0.0355292744,-0.0681168148,-0.7408557575,-0.0489171187,-0.0513487886,-0.0252243748,-0.9171416601,1.009811799,-0.3059281425,0.7371983927,-0.5441236606,-1.1420935712,-1.1266242361,-0.4786007139,-0.169681509,-0.9547618403,-0.0159849851,0.0313702111,-0.6011152855,-0.8837803393,-0.1920827104,0.0401393912,-1.2567304343,1.9356067444,0.0476466769,-1.452726658,-2.0718966869,-0.9348260414,-0.3373164998,-0.5567038754,0.86708071,0.87149909,0.2570497278,-0.7361646725,-0.1683662746,-0.1546638755,0.5900399656,0.6571985053,0.3162013878,0.8326706397,0.243609262,0.6210651225,0.1625255512,-0.3755516122,-1.1733672917,0.6106509523,-0.692585324,-0.800151536,-0.8101832056,0.295366911,-1.5253679449,-1.4469160538,-0.3031840591,-0.593540468,0.4683704003,0.450243415,0.5078957141,0.2663137831,-0.5785964268,0.5307821997,-0.8325370397,0.7026044078,0.518535142,0.4590401138,-0.6803852422,0.3294055043,-0.8615767091,-0.9471644291,1.2117130989,-1.6733847899,0.400472793,-0.603579188,1.9507256521,-1.0295294668,0.0810313906,-1.6009058872,-0.4109721361,0.4136154582,-0.5725834998,-2.1363493328,-0.1701843563,1.8788373364,0.1074837859,-0.272297155,-3.0013164763,0.8731772882,0.1297760721,0.2786932183,-0.6495302399,0.3049213319,0.7096038348,0.6739961079,1.1896991024,-0.7062698782,-0.8645782065,-0.3350287433,0.1474879552,0.7385712736,0.6780404493,0.2754148533,-0.434981968,0.4829572559,0.535273951,0.5993235943,0.8899187485,-0.5140066407,0.1236571893,0.7054487809,-0.7211474119,-0.6541459655,-1.2350176868,-0.5313526839,-0.2234688925,-0.0174692883,-0.7725527329,0.0780550523,0.8561574658,0.7671264949,-0.9626385696,-0.1836927338,0.4728283144,0.5486203037,-1.3555841894,0.4724539417,-0.9998602551,0.1613009145,-0.8050015969,0.7532421911,0.5657970121,-0.4519872473,-0.263354734,-0.6568971494,-0.918153795,0.7133709138,-0.7960915835,-0.2542276426,-0.244998272,0.1565632491,-1.649980538,1.0199323552,-0.7934633838,-0.8433949461,0.4260392954,-0.8096974218,0.2814025985,-0.233909956,-0.0580150042,0.1441831504,-0.7477669102,-0.8239840048,0.0608151863,-0.7167899407,0.5074595694,-0.9029626946,-0.5925321444,-0.938766286,-0.2344498991,0.5785945998,-0.2904461411,-0.2055914821,-0.8404248257,-0.8848815205,0.3692915164,0.1367390487,-0.1486799825,-0.5761909273,-0.4748304998,0.4717460174,0.3114111161,0.3126446498,-0.0366750331,0.3884542557,0.1864855018,0.7632513284,-0.211415272,-0.8474431789,0.6248010441,-0.9058052169,0.0207591922,0.6443982118,-0.6620590665,-0.4688737511,-0.2791640948,0.95831054,0.8916697756,-0.6653658346,0.5078559936,-0.5873693073,-0.8962366499,0.3801220125,-0.1366345538,0.8658513997,0.5019157593,0.6492306164,0.8825938826,-0.2438221516,0.8932699634,-0.0924706837,-0.4264716232,0.5829623173,0.3799058358,0.5538708963,-0.8848632967,0.9202900005,0.6866195527,0.3363681231,-0.2231267512,0.3674154974,-0.2417335272,0.1803253937,0.6898643132,-0.6962829085,1.2267808976,-0.2498705801,-2.4231495994,-0.2632688807,-0.0455872431,-0.7911620072,0.6353886373,-0.7670187771,-1.0647931519,0.0138119188,-0.3541665273,-0.9363804025,0.1682509941,-0.0132594774,1.0635564254,-1.1469352136,-1.1048151015,-1.0992532933,1.0527396364,0.3453005182,-0.893171113,0.1067744098,-0.6354044186,-0.2594359165,0.5270677448,0.3521604244,-1.6053255122,0.5611363135,-0.98814221,0.0544058199,0.3343118632,-1.6572165133,0.0641665121,-0.4280963949,-0.6140232864,0.4175185715,-0.4299084183,-1.6656286144,0.6238243849,-0.1523849685,-0.1325233166,0.5323294517,-0.0921670861,1.2579113626,0.2184327588,-1.4061681056,-2.8200605346,0.5569974078,-0.6613317413,-0.0377661896,-0.8807081835,-0.4553541486,0.2555269271,0.5058031623,-0.4321060128,-0.0484624871,-0.2573173154,-0.4789796729,-1.2370592465,0.1381150943,-0.1207185457,0.809231289,-0.1292488155,0.962192579,-1.0535978648,-0.7814325347,-0.6400855389,-1.2312599743,-0.8345927939,-0.6406875148,-0.4793061999,-1.3593247423,0.7982576221,-0.1218754936,0.3154879366,-1.0607100523,-0.3945672275,-0.8225253475,-0.8415137932,0.6243516384,0.3496211553,0.1742949957,0.5478419561,0.3187047624,0.076334984,0.0738830986,0.4228245011,0.9680440858,0.2227381398,0.7400722104,0.2447491121,0.2225995798,0.1718181437,0.3330949467,0.1429838128,0.1082117603,0.7408247712,-0.3784251976,0.6134025388,0.6238755309,0.0953527783,0.271880999,-0.9471686244,0.0790627778,-0.6025307057,0.3279751669,-0.9596108682,0.5029655224,0.840636476,-0.7255537943,0.0200468765,0.9557971065,-0.0946160799,-0.5602283578,0.4317212895,0.5326549236,-1.1694270701,-0.5055491914,-1.0138720601,-0.0685222646,-0.4462752673,-0.0926854031,0.7638459867,0.7818914481,0.2291162202,0.7132248566,-0.6759687225,-0.8418130805,0.7136527185,-0.0896681351,0.3219054577,-0.5399001328,0.4054851946,0.1434486084,-0.1460598497,-0.6007956452,-0.8377978225,0.5325714977,-0.1082677939,-0.7838207606,0.4941957505,0.2990155048,0.3994234694,0.4447726954,-0.0345350194,-0.4519780814,-0.4046855826,-0.9281646803,-0.787984245,-0.9258254684,-0.292994974,-0.5144453189,-0.2870599479,0.5224340644,0.0564208501,0.7337277487,-0.8795636912,0.3985822426,-0.1004867058,0.5159452691,0.7415660824,-0.1360986735,0.7092033702,0.4306885572,-0.4422197975,0.2744853051,-0.5811466873,0.9171644813,-0.2873809597,-0.1818859983,-0.904939147,0.006050035,-0.5552757301,-0.4123265294,-0.8015326683,-0.3910248004,1.2264539473,-0.1104569504,-0.2871392433,-3.1211028029,-0.0746132529,0.1079323706,0.4905589497,-1.23204969,-0.426311653,0.345641307,-0.5915356345,-1.1657262595,-4.2125418406,-0.7967663861,0.8498811927,1.4024720275,-0.919862679,-0.0359933165,0.528872885,-0.8712643015,-0.3335566875,-0.6191250624,-0.1905915013,-0.1085285841,-1.6742432337,-0.9826980726,0.8574433622,-0.0572961227,-0.3828973738,0.7896081788,0.592329141,0.7570653271,0.3039823157,-0.3626642975,-0.2241778851,-0.1547855998,-0.128897608,0.0820265905,0.9806529765,0.9320218558,0.8287983375,0.0535326355,-0.772072839,0.6947762609,-0.9179201394,0.9629936446,-0.7804550088,0.731982229,-0.1878059117,-0.6098649422,-0.7792720808,0.0922093192,0.7686798766,-0.005709428,0.3391607913,0.5149938089,-0.0267281116,-0.8692588347,0.7397800041,0.1439971984,0.09120541,-0.4076767822,-0.1051023583,0.5263832422,-0.7071452852,0.4475092379,-0.0775178538,0.7041226436,-0.3562515185,-1.4995355336,-0.0690971214,0.6782226093,0.0649132994,-0.460161955,0.4709973418,0.3946008056,0.7439659595,0.5497389993,-0.3944948582,0.4151070975,0.5550466427,0.5295237417,-1.5290814507,0.5366011471,-0.1812050929,0.3220968107,0.0933759103,0.5700030886,-0.117020365,0.9868706439,0.9265022499,-0.7129602055,-0.7701373138,0.5259008061,0.3198141472,0.8306558545,-0.0822829184,-0.0520503703,0.7467189771,-0.0331088987,0.3091124396,0.3441417414,0.1636621234,0.3708886652,0.2476139316,-0.9572430214,0.6568662801,0.4142259859,0.1826810127,-0.941586039,-0.7466078932,0.2750032265,-0.7608659025,0.1835478285,-0.8722959695,-0.8171705189,-0.363585297,0.2521579503,-0.8794547615,0.1553430918,-0.9458985317,-0.4254189239,0.8117902681,0.1825325727,-0.4629055308,0.4183245883,0.1475207372,0.5002475372,0.5174165426,0.2520388758,-0.6688943365,0.7569199785,-0.7042695721,0.0486465739,0.9343987175,-0.0101962709,-0.1465705354,0.7382202769,0.4789390679,0.7288811288,-0.4150130904,0.0072487744,0.7111400278,-0.2408568637,-0.1289083948,-0.9336731902,0.6430905436,-0.8673055912,0.7963311582,-0.2078621515,-0.203558175,-0.0702355057,0.2534500857,0.1278941485,0.2658510898,-0.4070906247,-1.7559787511,0.9615180361,-0.3890609293,-0.6323305479,-0.1998276598,0.4035319066,-0.9240501067,0.6412174178,0.7658582546,0.4959760462,-0.3734016343,-0.7727576676,-0.7425652859,-1.3096322375,-0.9692371729,0.2371870471,-0.9016064407,-0.1156312036,-0.471761375,-0.0638166984,-0.8767799315,0.1956243334,0.6949379726,-0.5374825397,-0.8372169788,-0.5946683037,0.8291897431,-0.244987039,0.0108618574,0.0763097577,-1.4551100272,0.1812989264,-0.1340501878,0.8899183274,-0.3061096911,-0.4541906472,-0.6106263844,0.9046356015,-0.7260841099,-0.5172322929,-0.7436490651,0.8234235565,-0.7055444281,-0.9345793107,-0.1676801605,-0.7366616387,-0.7908514459,-0.3247496363,0.1406291727,0.1210861521,-0.8433591861,0.4471513691,-0.0445130542,-0.0902404433,0.6036018199,-0.9719940681,0.9246978961,0.7305724175,-0.7470464427,0.0775820583,-0.101039755,0.5535088785,-0.2321952926,0.2662099054,0.1166577595,0.8395319687,0.0234547038,-0.8901073287,0.1481006636,0.2952929707,0.5064152696,-0.298880842,-0.4791948558,-0.9158176413,-0.1370819155,-0.0056407873,0.5600594664,0.1821824902,0.1285366479,0.3832617924,-0.1165519537,0.6272766671,0.9067439724,0.825351032,-0.4713035983,0.7034138986,-0.0859839128,0.8688455503,0.0932169371,0.6164797728,0.4364402475,0.4729687819,0.2555496842,-0.7208204248,0.4541645342,-0.1904579379,-0.5314570011,-0.9730273956,0.3622305619,-0.1723879622,0.21033819,-0.4192262291,-0.5046966494,0.677191828,0.2983426374,0.9298654657,-0.2459490632,0.930537243,0.3646373007,-0.2125097667,0.1765208322,-0.5645392376,0.1709340677,-0.8614905889,-0.1098408924,0.6376641659,-0.5908652925,-0.7001486854,0.4559111346,0.7452552599,-0.6363984684,0.210063257,0.4471285104,0.4328271656,-0.5871045694,-0.7379504495,0.398839459,0.9667507468,0.7702860452,-0.3482448788
biasActivation=0,1,1
[BASIC:ACTIVATION]
"org.encog.engine.network.activation.ActivationSigmoid"
"org.encog.engine.network.activation.ActivationTANH"
"org.encog.engine.network.activation.ActivationLinear"
