encog,BasicNetwork,java,3.3.0,1,1472735908085
[BASIC]
[BASIC:PARAMS]
[BASIC:NETWORK]
beginTraining=0
connectionLimit=0
contextTargetOffset=0,0,0
contextTargetSize=0,0,0
endTraining=2
hasContext=f
inputCount=28
layerCounts=2,46,29
layerFeedCounts=2,45,28
layerContextCount=0,0,0
layerIndex=0,2,48
output=0,0,0,0,0,0,0,0,0,0,0,0,0,0,0,0,0,0,0,0,0,0,0,0,0,0,0,0,0,0,0,0,0,0,0,0,0,0,0,0,0,0,0,0,0,0,0,1,0,0,0,0,0,0,0,0,0,0,0,0,0,0,0,0,0,0,0,0,0,0,0,0,0,0,0,0,1
outputCount=2
weightIndex=0,92,1397
weights=0.6104873728,-0.0799378473,0.2162392614,-0.0458701109,-0.3477407835,0.3178416492,0.7055563989,-0.2353917838,0.416982286,-0.0369179364,0.7154801016,-0.341193709,0.2265565518,0.3090478697,-0.0877802362,-0.1100866578,0.5399608013,-0.0343893277,0.2623209256,0.5511523082,0.2961782069,0.4446694525,0.0375443295,-0.1449166514,-0.0312233221,-0.2320591555,-0.1131091009,-0.2060970858,-0.6223293931,0.5251844509,0.4201334964,-0.317940338,-0.0761713529,0.0404537175,-0.0474862202,-0.4157554983,-0.4665226148,-0.1635769967,0.7366735913,-0.0291967951,-0.1104018693,-0.1558298469,0.3451225388,0.1864130865,0.0943574719,0.9080882186,0.1234853883,0.0319718326,0.0801534913,-0.1084866352,0.0729443412,-0.2007098945,-0.8317381031,0.0746769625,-0.277376976,-0.2123284546,0.2446163663,-0.4426581119,-0.1091242824,0.2666608635,-0.2414049148,-0.1126620569,0.0189992284,0.4365484631,-0.2386848481,-0.0207311465,-0.6220957917,-0.3217279499,-0.1629794349,-0.0881349561,-0.432691749,0.1932287145,-0.1380738502,0.367587349,-0.0146438709,0.0829368608,-0.105740218,-0.2306350301,0.0662923102,0.0885867281,0.0221292623,0.5179674161,0.3772450152,-0.0966335421,-0.8297187924,-0.188524499,-0.3665887146,-0.051998993,-0.318656439,-0.6803340292,-0.0758859195,-0.2795797679,-0.9046451213,0.7497525016,0.0861644044,-0.4404096644,0.2884509131,-0.541426562,-0.3533444238,0.0113873227,0.2637247496,0.6129050053,-0.0586195704,-0.2449839414,-0.1577240148,-0.6782873017,0.2297651927,0.9062640933,0.4512107654,0.0922842934,-0.6591237767,0.2784130193,0.6081601732,-0.4476553968,0.7172135135,-0.7027258466,-0.5782902116,-0.2733479764,-0.1960732247,-0.6912018323,0.8448236316,-0.5729112464,0.4600127534,-0.0738816836,0.9770097622,-1.0559207687,0.1054116881,0.7594244257,-0.4844957698,0.3445584313,0.534276642,0.035652396,-0.4773254412,-0.3453572198,-0.1956885116,-0.717131633,0.1529027753,0.8274370368,0.0133776968,0.5188954862,0.7717080271,-0.8049137663,0.4650628766,0.6414106878,-0.6009615725,-0.5109744275,0.0723769479,-0.4376565649,0.8218613696,-0.3327728692,0.2235688616,0.8944582743,-0.5556463199,0.9590348168,-0.9033146138,-0.4633888138,0.3603107661,-0.2468377162,-0.2424811051,-0.0588233584,-0.261315489,0.1201882067,0.7269830993,0.2721603528,0.190282483,0.5510672274,0.030325095,0.2316259932,0.8787649005,0.5241714556,-0.5135747621,0.9673245208,-0.6938558465,-0.0962679241,0.5985198643,0.8817253278,0.5519796764,-0.8667067752,0.7003507269,-0.8018714403,0.8674333642,-0.9317471631,-0.9627277005,-0.1315782205,0.6235218991,0.5670078007,0.9772927752,0.6742063786,-0.5783869449,0.1515156643,-0.0619023332,0.2664760113,0.0780119769,-0.1385166707,0.7177583846,-0.2554299112,0.3080879896,0.0045776081,0.1614619505,-0.2018426612,-0.9300231524,-0.279925559,0.8972765524,-0.6712140928,0.7270212936,0.4512708603,-0.3008640788,-1.0996578539,0.0799333875,0.3346956312,-0.6458368747,-0.8445978032,0.3738615771,-0.5243568026,0.0820052319,0.0139058808,0.9442841039,-0.1374885549,-0.8151645931,-0.0380085132,0.2644253314,0.0114232693,0.7426940949,-0.6630810524,-0.0709174871,0.8936567704,0.8560479516,-0.6011452943,0.0689026517,0.4702926648,0.7191559239,0.2610066254,0.7012074065,-0.5705175803,0.8263779714,0.2286575959,0.9757150013,0.4159623405,-1.5066898419,0.9459167217,1.0234200501,-2.4646234671,0.060784093,-0.2646257718,1.2440320712,0.2901841522,-0.1292185297,-0.5745530881,-0.3250294677,-0.3342643574,-0.1005141307,-0.9502771839,-0.4347307718,0.9079454876,-1.1815653466,-1.4662913159,-1.1946051342,0.9871719085,0.4007047443,-0.3408154598,-0.1231131687,-0.6134597388,0.2569395408,-0.241977108,0.3823976512,-0.6743095068,-0.6466745446,0.7468438247,0.7326722313,-0.3049046833,0.2611755552,-0.722940262,0.3198156906,-0.3906546416,0.4123414009,0.1190420897,0.1761216281,0.9302169149,0.5768844597,-0.9103494376,-0.6805272321,0.6009596593,0.5083316908,-0.4449753746,0.7649753764,0.2860065716,0.5764707509,0.025311365,0.8112400228,-0.6717222015,0.0714466759,0.6895548532,-0.8653732136,-0.7742504701,0.4607433723,-0.8901396423,1.0005931016,-0.5262985991,-0.4581992159,0.5314951672,0.1134001722,-0.7493855652,-1.7658670209,-0.6517253347,-0.2516425499,-0.8674416009,-0.038497188,-0.9846685677,0.2432362583,-0.7409898827,-0.3805149593,-2.3583247741,-0.6913304366,0.2635129657,1.4167570811,-1.2535437471,-0.4396553457,0.8057142564,-0.2752678272,-0.3891716075,-1.0392877217,-0.0653621941,-0.0558395218,-1.1573039808,0.5559112429,-0.6703436215,0.9379642608,-0.3842493886,0.2213628269,0.7146250539,-0.0053841784,0.1730281033,-0.3837171089,-0.2305568403,0.8139592756,-0.8058383497,0.2188888489,0.9129644281,0.500893151,0.7636118918,-0.8022742825,0.6575856074,0.8228424015,-0.2697057611,-0.7461666284,0.1575063712,-0.0851276393,-0.4614196026,-0.2658583915,0.7607994545,0.8975576506,-0.6134252803,0.7012565787,0.9003435113,-0.1536862596,0.7570098305,0.3653414008,-0.5120896547,0.714173891,-0.4108588737,-0.2516093401,0.5438110514,0.8158673591,-1.0645852899,0.1769106076,-0.6019922866,0.5815091725,-1.644876814,-0.9055957088,1.2458436594,0.5680628367,-0.4912918008,-1.1423950341,-0.340450908,-0.8874490663,-0.4087089996,-0.1303959016,-0.0729031042,-0.3341911778,-0.6601453578,-0.7175249065,-0.2252751976,1.0344009289,0.0575891483,-0.074294574,-0.3546110168,-2.0079904133,-0.2349915787,-0.3285152492,-0.5646292462,-0.0170374537,-0.8307319262,-1.1856620135,-0.6344100081,-0.6341772591,-0.7577652085,0.9327049152,0.5559336404,-1.1553555831,-0.5249500376,0.2733218767,-1.7053553058,-0.3148791351,0.1043798459,-0.8270547118,0.8580506768,0.8822091953,0.352020444,0.2118548127,0.521795214,-0.2751984985,-0.3596795522,0.8004242818,-0.9200835978,0.3692557632,0.6598592143,-0.9468439584,0.3703483977,1.1097481049,-0.8687681418,-0.4484477944,0.1769989012,-0.6254365935,-0.0769046466,-0.1044096429,-0.4931475381,-0.8079100303,0.0768492061,-0.1290719777,-1.1617815839,-0.2801745818,-0.6352990819,-0.7601695921,0.3405223241,0.5240347193,-0.6040635436,-0.7214116866,0.8898033815,-0.501568827,-1.3166177646,-0.1087684467,0.5129617955,-0.3167142842,-0.6590585532,-0.0717126547,0.1667966556,-0.9116022499,0.5743606001,0.4512145908,0.001560581,0.5958159117,-0.6721570068,-0.6265969659,-0.0429774193,-0.579697706,0.2229930433,-0.309863508,0.5606007159,-0.013905708,-0.4117037347,0.4075373856,0.2907190056,-0.9726629516,-0.4102684944,0.3674381615,0.2728313045,-0.87701396,1.0028604821,-0.1601188026,-0.0037017073,-0.9061682537,0.4363044615,-0.8150334946,-0.0316977037,-0.5804071416,-1.3357416225,-1.4368214239,-0.7903052008,-0.8811659066,-1.0406713141,-0.4349022883,-0.3535171521,0.2181717017,1.0648744673,-0.2789674294,-0.171463134,-0.6355562149,-0.4078654252,0.4953149457,-0.3798656398,0.9566051177,-0.2550363314,0.5100594903,-0.3651166538,0.0105352822,0.4475237246,0.813347992,0.0096523357,0.9119357542,-0.1118059447,-0.5088216462,0.7430308261,0.1453532964,0.8692618415,-0.3893246373,-0.7868896333,-0.78561864,-0.6851723361,-0.7543900887,-1.2101109041,0.0722498401,0.7104733912,-0.0885792811,0.4181315956,0.1372001743,0.4158302225,-0.62704034,0.7723860243,0.1190755601,-0.5706879427,-0.547495642,-0.9608544112,0.9308661985,-0.7973642277,0.119813603,-0.2316842306,-0.1588036571,0.7631616447,0.0293612993,0.5559372079,-0.1121129322,0.1843135033,-0.6477408328,0.7685131099,-0.1326918202,0.3983146727,-0.9514137841,-0.1087989251,-0.6478499773,-1.2121883398,-0.37700178,0.7063905923,-0.0592386198,-0.6002372885,-0.8526904736,-0.2284350306,0.0279122512,0.7366120142,-0.8111797203,0.0398370467,0.3395988866,0.882981211,0.1977430181,-0.173442076,-0.4529432678,0.2077555211,-0.4425469213,-0.044067274,-0.3564086468,0.440643568,-1.0042585276,-1.2470295895,-1.0593611518,-0.969416391,-0.2818670767,0.7740248644,-0.938823033,0.0838351642,-0.7951441421,0.6911143178,-0.17479917,1.6996587664,0.6850376004,-1.0269798038,-0.8842896632,-2.4677186961,-0.3269885111,-0.8632722561,0.6991379286,-0.1639466852,0.2141080709,0.7084148673,0.4202319087,0.0433765137,-0.3933591465,0.4431936984,-0.902479411,-1.3303595795,0.1725738027,0.3171454744,-0.1696980559,-0.7783273287,-1.2375102576,0.0735780046,1.0636157995,-1.0529927746,-1.2773950589,-0.1427229,0.125212534,-0.1738873812,0.2113533224,-2.6142302864,-0.0642779025,0.9269784355,0.9079341869,-1.285425512,0.9616763178,0.0265662356,0.0107234401,0.7394631653,0.0100703083,-0.2770668651,-1.0640004945,-1.1219386674,-0.5185934998,-0.0561974842,-0.2926118096,-0.3042108266,-0.5595582665,0.6715256862,0.9210650884,0.7132544857,-0.7929616601,0.8830321647,-0.7337721723,-0.6268290721,1.1438816995,-0.1980668397,0.478864608,-0.5811615077,-0.4189353537,-0.6413533197,-0.5419018198,-0.6439774491,-0.0654229847,-0.1892426803,-0.2609469316,-0.851379514,0.4427612451,0.137843152,-0.9108900947,-0.5680698985,-0.3765527665,-0.5256213478,-0.7785252641,-0.1767338298,1.0678018677,-2.4792526296,-0.4600659114,-0.9073562913,0.3131948027,-0.6471287444,-0.2454008093,-0.1820773845,0.3723623941,-0.5703365331,-0.9550756737,0.4083994283,-0.0186025701,-0.0459762445,0.2196831692,-0.5666101049,-0.9572900445,0.0352867681,0.7644622776,0.3073850066,0.8769588028,0.7357095973,0.2014796937,0.5695708976,-0.3619455248,-0.0093107673,0.618358943,-1.668274023,-0.4703850228,1.1151941573,-1.5422832073,-0.0155974399,-0.8344405108,1.6693049554,-0.1196948538,-0.9979512349,-0.9305612534,-0.1413519711,0.5325481938,-0.1826841114,-1.4928561195,0.2331492691,1.7725002194,-0.766298452,-0.0307787542,-2.2444788902,0.3578609845,-0.4756590789,-0.4860193279,-0.2491006638,-0.5765333628,1.0215853046,-0.4204090378,1.4754296139,-1.1957255525,-0.3082499733,-2.2074539167,0.9179512751,-0.0188296411,-2.3633405398,-0.871205677,-0.6857724677,1.8530973752,-0.8031476654,0.1954235127,-0.7852428775,0.1356205695,-0.7421028759,-0.3838933697,-1.3706140706,0.9954410534,1.6948374787,-0.5590399543,-1.6597412756,-2.2198627209,0.313486648,0.0908668186,0.0355292737,-0.0681168157,-0.740855757,-0.0489171142,-0.0513487868,-0.02522437,-0.9171416641,1.0098117995,-0.3059281435,0.7371983913,-0.5441236596,-1.1420935719,-1.1266242368,-0.4786007139,-0.1696815066,-0.9547618401,-0.0159849854,0.031370211,-0.6011152865,-0.8837803389,-0.1920827104,0.0401393913,-1.256730435,1.9356067479,0.0476466767,-1.4527266584,-2.071896689,-0.9348260395,-0.3373164998,-0.5567038755,0.8670807098,0.8714990901,0.2570497289,-0.7361646719,-0.1683662734,-0.1546638762,0.5900399655,0.6571985052,0.316201387,0.8326706394,0.2436092629,0.6210651227,0.1625255511,-0.3755516124,-1.173367292,0.6106509523,-0.6925853241,-0.8001515367,-0.8101832061,0.295366911,-1.5253679457,-1.4469160553,-0.3031840598,-0.593540468,0.4683704001,0.4502434167,0.5078957137,0.2663137831,-0.5785964268,0.5307821997,-0.8325370397,0.7026044074,0.5185351418,0.4590401135,-0.6803852427,0.3294055054,-0.8615767115,-0.9471644322,1.2117131009,-1.6733847907,0.4004727914,-0.6035791883,1.9507256566,-1.0295294661,0.0810313898,-1.6009058874,-0.4109721395,0.4136154581,-0.5725835,-2.1363493334,-0.17018436,1.878837343,0.1074837853,-0.2722971566,-3.0013164796,0.8731772912,0.1297760719,0.278693218,-0.6495302404,0.3049213322,0.7096038371,0.6739961089,1.1896991049,-0.7062698808,-0.8645782079,-0.3350287425,0.1474879552,0.7385712715,0.6780404507,0.2754148548,-0.434981969,0.4829572503,0.53527395,0.5993235951,0.8899187476,-0.5140066406,0.1236571892,0.705448781,-0.7211474137,-0.6541459669,-1.2350176952,-0.5313526834,-0.2234688927,-0.0174692835,-0.772552737,0.0780550523,0.856157466,0.7671264949,-0.96263857,-0.1836927357,0.4728283135,0.5486203013,-1.355584191,0.4724539417,-0.9998602554,0.1613009135,-0.8050015968,0.7532421916,0.565797012,-0.4519872473,-0.2633547331,-0.6568971496,-0.9181537951,0.7133709138,-0.7960915843,-0.2542276429,-0.244998272,0.1565632486,-1.6499805396,1.0199323558,-0.7934633839,-0.8433949463,0.4260392962,-0.8096974212,0.2814025985,-0.233909956,-0.0580150043,0.1441831504,-0.7477669101,-0.8239840047,0.0608151865,-0.7167899412,0.5074595682,-0.9029626931,-0.592532143,-0.9387662886,-0.234449898,0.5785946012,-0.2904461413,-0.2055914879,-0.8404248271,-0.8848815201,0.3692915162,0.1367390497,-0.1486799851,-0.5761909274,-0.4748305011,0.4717460176,0.3114111061,0.3126446502,-0.0366750324,0.3884542615,0.186485498,0.7632513284,-0.2114152718,-0.8474431787,0.6248010436,-0.9058052202,0.0207591906,0.6443982084,-0.6620590667,-0.4688737511,-0.2791640949,0.9583105401,0.8916697757,-0.6653658348,0.5078559935,-0.5873693074,-0.8962366498,0.3801220125,-0.1366345538,0.8658513996,0.5019157593,0.6492306165,0.8825938826,-0.2438221515,0.8932699635,-0.0924706832,-0.4264716233,0.5829623172,0.3799058353,0.5538708964,-0.8848632967,0.9202900004,0.6866195527,0.3363681231,-0.223126751,0.3674154974,-0.2417335271,0.1803253936,0.6898643144,-0.6962829103,1.2267808975,-0.2498705779,-2.4231496042,-0.2632688825,-0.0455872438,-0.7911620043,0.6353886384,-0.7670187778,-1.0647931525,0.0138119189,-0.3541665254,-0.9363804028,0.1682509959,-0.0132594738,1.0635564316,-1.1469352143,-1.1048151025,-1.0992533031,1.0527396385,0.345300518,-0.8931711133,0.1067744095,-0.6354044183,-0.2594359139,0.5270677459,0.3521604272,-1.6053255132,0.5611363148,-0.9881422128,0.0544058181,0.3343118658,-1.6572165178,0.0641665099,-0.4280963958,-0.6140232824,0.417518572,-0.4299084191,-1.6656286151,0.623824383,-0.1523849669,-0.132523317,0.5323294526,-0.092167085,1.2579113698,0.2184327579,-1.4061681071,-2.820060544,0.5569974108,-0.6613317415,-0.03776619,-0.8807081841,-0.4553541484,0.2555269301,0.5058031635,-0.4321060096,-0.0484624896,-0.2573173156,-0.4789796729,-1.2370592479,0.1381150939,-0.1207185432,0.8092312893,-0.1292488152,0.9621925795,-1.0535978654,-0.7814325347,-0.6400855387,-1.2312599756,-0.8345927947,-0.6406875148,-0.4793062012,-1.3593247458,0.7982576213,-0.1218754935,0.3154879365,-1.0607100482,-0.3945672275,-0.8225253475,-0.8415137931,0.6243516383,0.3496211552,0.1742949952,0.5478419558,0.3187047619,0.0763349835,0.0738830986,0.422824501,0.9680440857,0.2227381398,0.7400722103,0.2447491121,0.2225995797,0.1718181438,0.3330949466,0.1429838128,0.1082117602,0.7408247712,-0.3784251976,0.6134025388,0.6238755309,0.0953527783,0.2718809991,-0.9471686244,0.0790627777,-0.6025307058,0.3279751669,-0.9596108682,0.5029655224,0.840636476,-0.7255537943,0.0200468765,0.9557971065,-0.0946160799,-0.5602283579,0.4317212895,0.5326549235,-1.1694270701,-0.5055491914,-1.0138720602,-0.0685222645,-0.4462752674,-0.0926854031,0.7638459867,0.7818914482,0.2291162201,0.7132248566,-0.6759687225,-0.8418130805,0.7136527184,-0.0896681351,0.3219054577,-0.5399001328,0.4054851945,0.1434486084,-0.1460598498,-0.6007956452,-0.8377978225,0.5325714977,-0.1082677939,-0.7838207606,0.4941957505,0.2990155048,0.3994234693,0.4447726953,-0.0345350194,-0.4519780813,-0.4046855827,-0.9281646802,-0.787984245,-0.9258254683,-0.292994974,-0.514445319,-0.287059948,0.5224340644,0.0564208502,0.7337277483,-0.8795636912,0.3985822425,-0.1004867057,0.5159452686,0.7415660824,-0.1360986735,0.7092033705,0.4306885572,-0.4422197975,0.2744853051,-0.5811466873,0.9171644813,-0.2873809599,-0.1818859984,-0.9049391472,0.0060500351,-0.555275733,-0.4123265271,-0.8015326668,-0.3910248056,1.2264539507,-0.1104569471,-0.2871392449,-3.1211028159,-0.0746132557,0.1079323718,0.4905589481,-1.2320496887,-0.4263116564,0.3456413071,-0.591535638,-1.1657262611,-4.2125418606,-0.796766385,0.8498811929,1.402472039,-0.9198626883,-0.0359933163,0.5288728855,-0.8712643014,-0.3335566885,-0.6191250682,-0.190591504,-0.1085285905,-1.6742432359,-0.9826980726,0.857443362,-0.0572961229,-0.3828973737,0.7896081785,0.592329141,0.7570653269,0.3039823157,-0.3626642976,-0.2241778851,-0.1547855999,-0.1288976082,0.0820265906,0.9806529765,0.9320218557,0.8287983374,0.053532636,-0.7720728391,0.6947762606,-0.9179201398,0.9629936446,-0.7804550088,0.731982229,-0.1878059118,-0.6098649422,-0.7792720806,0.0922093193,0.7686798768,-0.0057094284,0.3391607911,0.5149938089,-0.0267281123,-0.869258835,0.7397800051,0.1439971986,0.09120541,-0.4076767823,-0.1051023587,0.5263832423,-0.7071452852,0.4475092371,-0.0775178543,0.7041226437,-0.3562515192,-1.4995355352,-0.0690971222,0.6782226094,0.0649132993,-0.4601619529,0.4709973413,0.3946008056,0.7439659595,0.5497389992,-0.3944948582,0.4151070971,0.5550466425,0.5295237413,-1.5290814511,0.5366011471,-0.1812050929,0.3220968108,0.0933759102,0.5700030886,-0.117020365,0.986870644,0.9265022498,-0.7129602055,-0.7701373138,0.5259008062,0.3198141472,0.8306558544,-0.0822829185,-0.0520503703,0.746718977,-0.0331088993,0.3091124396,0.3441417415,0.1636621236,0.3708886652,0.2476139316,-0.9572430214,0.6568662801,0.4142259859,0.1826810126,-0.9415860391,-0.7466078934,0.2750032265,-0.7608659023,0.1835478278,-0.8722959699,-0.8171705184,-0.3635852966,0.2521579501,-0.8794547613,0.1553430927,-0.9458985322,-0.4254189239,0.8117902681,0.1825325721,-0.4629055302,0.4183245883,0.1475207373,0.5002475364,0.5174165444,0.2520388758,-0.6688943364,0.7569199777,-0.7042695711,0.0486465739,0.9343987175,-0.0101962709,-0.1465705353,0.7382202775,0.4789390682,0.7288811294,-0.4150130907,0.007248775,0.711140026,-0.2408568662,-0.1289083935,-0.93367319,0.6430905427,-0.8673055912,0.7963311616,-0.2078621513,-0.2035581754,-0.0702355058,0.2534500829,0.1278941486,0.2658510898,-0.4070906254,-1.7559787539,0.9615180406,-0.3890609296,-0.6323305487,-0.1998276613,0.4035319089,-0.9240501067,0.6412174176,0.7658582544,0.4959760464,-0.3734016328,-0.772757667,-0.7425652843,-1.309632239,-0.9692371733,0.2371870472,-0.9016064413,-0.1156312041,-0.4717613741,-0.0638166981,-0.8767799317,0.1956243326,0.694937972,-0.5374825395,-0.837216979,-0.5946683041,0.8291897425,-0.244987039,0.0108618565,0.0763097563,-1.4551100288,0.1812989265,-0.134050188,0.8899183293,-0.3061096917,-0.4541906472,-0.6106263844,0.9046356015,-0.72608411,-0.5172322934,-0.7436490653,0.8234235559,-0.7055444287,-0.9345793094,-0.1676801602,-0.7366616384,-0.7908514438,-0.3247496374,0.1406291715,0.1210861528,-0.8433591801,0.4471513706,-0.0445130547,-0.0902404431,0.6036018193,-0.9719940664,0.9246978958,0.7305724186,-0.7470464416,0.0775820651,-0.1010397557,0.5535088774,-0.232195297,0.2662099101,0.1166577594,0.8395319684,0.0234547038,-0.8901073283,0.1481006659,0.2952929717,0.5064152721,-0.2988808405,-0.4791948559,-0.9158176416,-0.1370819158,-0.0056407874,0.560059466,0.1821824902,0.1285366476,0.3832617918,-0.116551954,0.627276667,0.9067439722,0.8253510318,-0.4713035988,0.7034138986,-0.085983913,0.8688455501,0.0932169363,0.6164797728,0.4364402475,0.4729687819,0.2555496838,-0.7208204248,0.4541645342,-0.190457938,-0.5314570012,-0.9730273959,0.3622305618,-0.1723879624,0.2103381894,-0.419226229,-0.5046966492,0.677191828,0.2983426374,0.9298654655,-0.2459490632,0.9305372429,0.3646373013,-0.2125097665,0.1765208322,-0.5645392376,0.1709340678,-0.8614905889,-0.1098408924,0.6376641658,-0.5908652923,-0.7001486854,0.4559111346,0.7452552596,-0.6363984684,0.210063257,0.4471285104,0.4328271656,-0.5871045694,-0.7379504495,0.3988394591,0.9667507468,0.7702860453,-0.3482448786
biasActivation=0,1,1
[BASIC:ACTIVATION]
"org.encog.engine.network.activation.ActivationSigmoid"
"org.encog.engine.network.activation.ActivationTANH"
"org.encog.engine.network.activation.ActivationLinear"
