encog,BasicNetwork,java,3.3.0,1,1469440397807
[BASIC]
[BASIC:PARAMS]
[BASIC:NETWORK]
beginTraining=0
connectionLimit=0
contextTargetOffset=0,0,0,0
contextTargetSize=0,0,0,0
endTraining=3
hasContext=f
inputCount=28
layerCounts=2,301,301,29
layerFeedCounts=2,300,300,28
layerContextCount=0,0,0,0
layerIndex=0,2,303,604
output=0,0,0,0,0,0,0,0,0,0,0,0,0,0,0,0,0,0,0,0,0,0,0,0,0,0,0,0,0,0,0,0,0,0,0,0,0,0,0,0,0,0,0,0,0,0,0,0,0,0,0,0,0,0,0,0,0,0,0,0,0,0,0,0,0,0,0,0,0,0,0,0,0,0,0,0,0,0,0,0,0,0,0,0,0,0,0,0,0,0,0,0,0,0,0,0,0,0,0,0,0,0,0,0,0,0,0,0,0,0,0,0,0,0,0,0,0,0,0,0,0,0,0,0,0,0,0,0,0,0,0,0,0,0,0,0,0,0,0,0,0,0,0,0,0,0,0,0,0,0,0,0,0,0,0,0,0,0,0,0,0,0,0,0,0,0,0,0,0,0,0,0,0,0,0,0,0,0,0,0,0,0,0,0,0,0,0,0,0,0,0,0,0,0,0,0,0,0,0,0,0,0,0,0,0,0,0,0,0,0,0,0,0,0,0,0,0,0,0,0,0,0,0,0,0,0,0,0,0,0,0,0,0,0,0,0,0,0,0,0,0,0,0,0,0,0,0,0,0,0,0,0,0,0,0,0,0,0,0,0,0,0,0,0,0,0,0,0,0,0,0,0,0,0,0,0,0,0,0,0,0,0,0,0,0,0,0,0,0,0,0,0,0,0,0,0,0,0,0,0,0,0,1,0,0,0,0,0,0,0,0,0,0,0,0,0,0,0,0,0,0,0,0,0,0,0,0,0,0,0,0,0,0,0,0,0,0,0,0,0,0,0,0,0,0,0,0,0,0,0,0,0,0,0,0,0,0,0,0,0,0,0,0,0,0,0,0,0,0,0,0,0,0,0,0,0,0,0,0,0,0,0,0,0,0,0,0,0,0,0,0,0,0,0,0,0,0,0,0,0,0,0,0,0,0,0,0,0,0,0,0,0,0,0,0,0,0,0,0,0,0,0,0,0,0,0,0,0,0,0,0,0,0,0,0,0,0,0,0,0,0,0,0,0,0,0,0,0,0,0,0,0,0,0,0,0,0,0,0,0,0,0,0,0,0,0,0,0,0,0,0,0,0,0,0,0,0,0,0,0,0,0,0,0,0,0,0,0,0,0,0,0,0,0,0,0,0,0,0,0,0,0,0,0,0,0,0,0,0,0,0,0,0,0,0,0,0,0,0,0,0,0,0,0,0,0,0,0,0,0,0,0,0,0,0,0,0,0,0,0,0,0,0,0,0,0,0,0,0,0,0,0,0,0,0,0,0,0,0,0,0,0,0,0,0,0,0,0,0,0,0,0,0,0,0,0,0,0,0,0,0,0,0,0,0,0,0,0,0,0,0,0,0,0,0,0,0,0,0,0,0,0,0,1,0,0,0,0,0,0,0,0,0,0,0,0,0,0,0,0,0,0,0,0,0,0,0,0,0,0,0,0,1
outputCount=2
weightIndex=0,602,90902,99602
weights=##0
##double#99602
   -0.9147218106,0.21413049,0.2687623416,-0.2827917133,0.1337018276,-0.5425079402,0.368096752,0.0504830846,0.0257182786,0.0481761585,0.2077517138,-0.0324645815,0.0415819636,0.4992636312,-0.2370556264,-0.1969982411,0.0344890154,0.4855052405,-0.234539745,0.7346914071,0.6498925005,0.0914193751,0.2284372141,-0.6901595531,0.7990281818,-0.1537997164,0.1555626993,0.2197865319,-0.0709322817,-0.9494651762,0.5644859303,0.0271199657,-0.3442458669,0.344950635,-0.6096898287,-0.1990036805,-0.0365710211,0.0633809947,0.3763586682,-0.8086093056,0.0772515169,-0.0284073715,-0.5494968461,0.0137520921,0.0201244258,0.6813694769,0.2042343879,-0.3391061119,-0.0656301581,-0.6652700278,0.0728827942,0.3171980131,1.0721941981,0.0123913028,0.8396324127,0.1175353073,-0.0887566082,-0.0234587902,0.6326923723,-0.3537088273,-0.0295239412,-0.5957905393,-0.4277734952,-0.0651461915,0.3211904653,-0.1543896811,0.1365303384,0.0922043591,-0.0443200058,-0.172047609,0.8856405557,0.6741451802,0.171984076,-0.0871156906,-0.2154298473,0.5477964307,0.0857392883,-0.6256335394,0.7524134267,1.1883161819,-0.0351431694,0.8067898793,-0.0815790503,-0.6713542215,0.5044259863,0.4002580518,-0.1896721866,-0.8247561564,0.4055321768,0.7132799521,-0.0645056603,0.6641011209,0.225081768,0.1727885105,-0.5321325025,-0.0157503368,-0.6973102723,-0.1685671241,-0.3271916625,0.1028595701,0.252196479,0.0024270602,-0.134455488,-0.4631007206,0.238990336,-0.3813809488,0.6349444321,0.2800028304,0.0524305833,-0.4659654224,-0.4684594208,0.2160350043,-0.0048017712,-0.2714227834,0.6246453127,0.4180814533,-0.5647921115,-0.4970543277,-0.2960068924,0.8127209621,0.0097681729,0.4368658396,0.7383031183,-0.1483137247,0.0089074797,-0.1386585844,0.0373151176,-0.5334111694,-0.550724461,-0.0687076907,-0.2170101181,1.1821437364,-0.8907324224,1.0636671381,-0.1431411227,0.4754944696,-0.013234844,-0.5836065766,0.1720272619,-0.5506405509,0.0658691239,-0.2683838729,-0.2191392314,-0.0204054995,0.3620039635,0.5543361398,-0.3592797171,0.3923205396,-0.3875757684,-0.9849927804,0.1880715426,1.010183428,-0.0609956237,0.0962699016,0.1764677102,-0.0303346051,0.5141785293,0.7514978815,0.0821240255,0.0515318035,-0.0471798999,-0.7457802529,0.70508255,0.2799689476,0.8044213796,-0.2669958135,-0.2770307308,-0.7088461858,0.5608064314,-0.059622025,0.364491241,0.1373581302,0.295774715,0.1223056049,0.4106408716,-0.4264848473,-0.6762052507,0.0146809896,0.6796384307,0.1432746174,0.0314834003,-0.1443256826,0.6133581833,0.0480777558,0.3620575902,-0.0256623756,-0.5800290092,-1.3485730912,0.172508048,0.5737559141,0.3912785728,0.2485518772,-0.1293623232,0.0053651757,-0.168749622,0.2391781334,-0.6702032777,-0.2852310515,-0.0618344883,0.6659264615,-0.5701549296,0.0081174927,-0.5823695202,0.4117986033,-0.4641460902,0.4408663481,0.5566212941,0.8077380187,-0.8126659528,-1.0933945485,-0.4355514795,-0.3356050894,0.3628834113,-0.8164718037,-0.23911458,0.2944325529,0.4091125199,-0.4230195291,0.1266076521,0.2925769463,0.2548563337,0.5977037813,0.2284606404,-0.0003823673,-0.4092303076,-0.0739349779,0.1840316715,1.1705577651,-0.455556882,-0.6353599551,-0.0455918933,-0.7249269669,0.0863149101,0.0345061332,-0.6748031502,-0.0271326469,0.4873252085,-0.7603634582,-0.1187991618,0.1206471327,0.9011621068,-0.4530921847,-0.3558278329,0.0997051588,0.2864326254,-0.1488712176,-0.2211338033,-0.0198683577,0.546460326,0.6923796233,-0.8051708694,-1.0548261744,0.5460784812,0.4559405425,0.3235774976,-0.5430248274,-0.2683887676,0.548460115,0.6636029075,0.8848300565,-0.469049999,-0.1064389183,-0.7699047651,-0.3668054276,-0.2381676971,-1.0827072283,0.3872840088,0.63177313,0.4356903479,-0.3299908728,0.0732361193,-1.3709117723,0.2344454732,-0.5003496593,0.2335321687,-0.2081046218,-0.03811434,0.1777759413,1.0671907057,-0.473954175,-0.2427801673,0.0153999708,0.5509663423,0.1001854005,0.7660209712,-0.0563221628,0.6361212582,0.4056012826,-0.8105845835,-0.1521342282,0.0722959208,0.9907029848,-0.3871020714,0.3636709978,-0.1393610297,-0.2510301799,0.6831575762,-0.2868735683,0.3154074726,0.6268304187,-0.6099993881,-0.4435716618,-0.3775266686,1.0357023287,-0.4783665782,0.8437792695,-1.1117414131,-0.3173559827,-0.3108181463,0.2576824284,-0.3571882904,-0.0812558327,-0.7417953292,-0.2251481687,-0.637569339,1.022250711,0.4084584349,-0.1009413125,-0.9054455902,-0.2634747667,-0.7254392265,-0.1245434376,-0.3758252842,0.3357506682,-0.6711235605,-0.1430854907,-0.0956835129,-0.0360206516,-0.7313310697,0.6200478135,-0.3720135119,0.8222075134,-0.0575805093,-1.053247959,-0.5061402627,0.7596266298,0.3294073346,0.6334609941,-0.3906891777,0.5489796454,-0.0053690798,-0.737770878,-0.1750652834,-0.5030900763,-0.4866255138,-0.2541943116,0.5981767439,0.7061582016,-0.0506753141,-0.0349962021,0.003550849,0.2638314102,1.1228514911,0.0017942195,0.9653899928,0.3560336447,0.045093228,0.0648442616,0.7457917114,0.8754590123,-0.7987140184,0.0416153756,-0.7240587287,-1.1292835494,-0.3062636504,0.7015888673,0.2541393028,0.8094214504,0.7280349219,0.2973365724,-0.9430873564,0.7146563079,0.702123524,0.4743925396,-0.6484804031,0.6016393988,0.8048933691,0.0968740491,-0.600763842,0.2468243338,-0.5573081195,-0.0681253634,-0.8784121315,0.0104871123,-0.5909467091,0.7141311256,0.1020462748,0.4329287426,-0.4379673583,0.8891645106,0.065033065,0.2511471067,-0.6142288194,0.1549408844,0.2593835736,-0.2571316687,0.5123529554,-0.5517155937,-0.6105704432,-0.525502082,0.2378822817,-0.1140321697,-0.2003626223,0.3131358503,-0.2053975313,0.0606234564,-1.007874206,0.7211632043,-0.0016828183,0.7503854652,-0.1041846118,0.3143049868,-0.3157716527,0.1021940013,-0.6579408216,-0.8374487983,-0.4567230875,0.9078993087,-0.0570264154,0.1906532555,-0.4683197349,0.4580961404,0.7534005556,0.5648761632,-0.6275568813,0.2047082601,-1.1078756669,0.6249922475,-0.1058616907,-0.4444666481,-0.025812087,0.2286934468,-0.0257101157,0.1081266789,0.7923654397,0.2853943323,0.638311903,0.9440887748,0.1194327909,-0.1005720675,-0.0976503596,0.0895635162,0.0757919093,0.2350741841,-0.7984237801,-0.6485152556,0.9455339429,0.7806464615,0.3289020478,-1.0471001001,-0.3907038067,-0.7496774277,-0.4695443242,0.5385854809,0.7474008556,0.0990059724,0.3211746295,-0.0302709149,-0.0056292937,0.1599680076,-0.3737280768,0.1372171142,-0.2008612487,-0.6145630342,-0.6740415683,0.0198446884,0.815731765,-0.2759487443,0.8975838049,-0.8301177522,0.3862780495,-0.0572733295,0.8338581926,-0.6042858846,0.198269213,-0.035043071,-0.2408165639,-0.4474264887,1.0518429431,-1.0747089798,-0.8468010275,0.0803711943,0.3274382339,0.2877463594,-0.2330181229,-0.2468821837,-0.0899077808,-0.9980756038,0.568973593,0.9801146771,-0.7272990287,-0.9395068149,0.8063843328,-0.3227901142,-0.2243540053,0.0444088847,-0.3609227009,-0.2531832029,-0.6545797985,0.4397714215,0.3078744902,-0.2934328518,-0.0229718157,-0.9475397553,1.034444344,-0.1500444193,-0.491302792,0.3473518856,0.3921011022,-0.4096669574,0.0333266879,-0.2329845624,-0.7876996625,-0.2620577065,-0.9209720905,0.0923176859,0.5930490732,0.3813490216,-0.485668303,0.1674628256,0.7416006679,-0.1497166038,0.4361496581,0.9168763364,0.0931265727,-0.5390762308,-0.1904710889,0.7109857865,-0.3438951223,-0.9386391282,-0.1493912377,0.2935159234,-0.1658896064,-0.4337828006,0.1170906428,-0.6067238098,-0.5092082243,0.090083545,-0.9486194495,0.0147502673,-0.0013179822,0.0160426246,0.3949011973,-1.0126816905,0.6090094041,-0.0703051116,-0.0317904877,-1.2887994337,-0.554615657,0.2526662243,-0.6290717412,0.4904735954,0.1016612568,0.2646075636,-0.6226602071,-0.1491837236,-0.9447056153,0.4540719591,0.0667849171,0.1105135616,0.0180952818,-0.0934877487,0.0306106235,-0.2148757214,-0.4493069489,0.029535393,0.241001742,0.6059353828,0.1584892391,-0.6482779722,-1.1504671497,-0.9296098651,0.4565082938,-0.8531848737,-1.0201993655,0.3623086307,0.4985367447,-0.6087381098,-0.4801789254,0.0267886216,-0.1387711152,0.0697079369,-0.0455753044,0.2483279525,0.3207598609,0.018282858,-0.1192816326,-0.0672190841,-0.4259415478,-0.9205561304,0.1420989748,-0.185715069,0.3176566753,0.2345823535,0.1951673212,-0.2754178039,-0.3932447743,0.0679606479,0.105137128,0.2840658181,0.6996531692,-0.0566926026,-0.0626292326,0.5701309575,0.1573970644,0.3027420262,0.8289421869,-0.7914933249,0.0750822566,-0.6494237708,0.7562516149,-0.5712240801,-0.4168008269,-0.6007186393,0.1038055605,-0.3977928931,-0.0066944328,-0.6094669249,-0.5394457051,-0.4095274179,-0.9522660338,0.2047127915,0.0479678152,-0.4940565372,-0.0671715852,-0.8793332645,-4.8105017695,0.1284550556,-0.6108995102,0.1346254278,0.8851297622,0.7531233888,-0.8451047993,0.6260365132,0.0005995338,0.9142694174,-0.7599096754,-0.1097939142,-0.6224841348,-0.1845863387,-0.2612398226,0.1876652733,0.079000898,-0.487124818,-0.150796157,1.0040691399,0.0598717016,-0.7179519997,0.2473472536,1.0802590392,-0.751927439,1.0491398643,0.4854426343,2.027365244,0.2398636187,0.113334033,-0.4161639444,1.0975185911,-0.682481203,-0.4982373455,0.1795542525,1.2359847551,1.1974781773,-0.2859614883,1.1721869993,-0.3853598091,0.7503470412,-0.2170177039,0.8390579408,-0.6614844768,0.1406299955,-0.9242979368,-0.9513423253,-0.133325203,0.9575696102,0.3642778376,-0.8794874192,-0.7785237972,0.0226324306,1.1680464691,0.0772590467,-0.9272846748,-0.8918072955,0.1275128305,-0.9802747311,-0.2136039045,0.4962533686,0.8608040598,-0.0746774411,0.0456468569,0.6691119002,-0.0333599688,-0.2180285375,-0.6339792768,0.1649276412,-1.0803541111,-0.4459860151,-0.0527725035,-0.1946435933,-0.0681673907,-0.6006048624,0.1998321616,1.1031068696,0.1307261377,0.8748787222,0.5628123163,0.6237723691,2.0965690435,-1.1369647153,-0.0686960085,-0.8779200889,0.8485249352,0.7362755077,0.1646525125,-0.0056677808,0.5197037513,0.4559513191,-0.7446122029,-0.8680930779,-0.900975074,-0.0747524001,0.1980388422,0.6593444399,-0.473152893,0.2905610717,0.1431943592,0.8829210485,-0.7880768198,-0.0317317397,-0.1892907325,0.0877424698,0.5949424369,0.0617677187,0.8703722968,-0.8230914656,-0.3725962512,0.665817916,0.8138619753,-0.6326053196,-0.1446312128,0.7903796002,-0.1986174479,-0.7249016476,-0.1396264877,-0.5051802705,0.9400976653,-0.8097625699,0.2844052019,0.7216910208,0.0068225871,0.3946868604,-1.0460590608,-0.5401738122,0.6116287202,-0.8979752654,0.7421622602,-0.0444742784,0.4046343648,0.9271635681,0.2111320828,0.1849604489,-0.7340203247,0.4502589803,-0.053484607,0.126507347,0.1195599633,-0.1896474543,0.2491293791,0.64480197,0.6712799756,-0.3677041444,1.0868622206,0.0860739449,-0.324668832,-0.3177443474,0.1867486432,0.2584238526,0.1914132541,-0.4576628309,0.5873897648,0.2002868172,0.2281801984,-0.3201715516,-0.6857951239,0.0741634643,-0.744766634,0.2632778367,1.3060984711,-1.0008056404,0.4446157214,-0.8074277742,-0.1888461371,0.9628672187,0.2472156689,0.5756909668,-0.4050481229,-0.2239810257,-0.0403212566,0.443256872,-0.533162236,-0.8137449829,0.5469894216,-0.5026505651,0.5323742923,0.1108775012,0.3039521889,-0.7470422941,0.787284031,-0.2438150989,-0.6341284845,0.5495155562,0.8317857271,-0.9361807275,0.7336428107,-0.940621976,0.5848056003,0.5185514586,0.2672616446,-0.4820171341,0.6687923651,-0.348406417,0.0163788229,-1.5364677201,-0.4208638759,-0.6190442375,-0.1233103955,0.6077152705,-0.1496607845,-0.4530829179,0.0001421835,-1.0228900385,0.7046947302,0.4053279365,0.3241917104,-0.2121669605,-0.4003555582,-0.5248240933,-0.8041200696,-0.8481150398,-0.3609528105,-0.1939322152,0.6445793809,-0.5397741341,0.5404492642,-0.2812660494,0.2797601095,-0.4775049535,-0.0461449245,-0.5462361017,0.3542512955,0.6600404101,0.9243138931,0.7187986033,-0.1697854299,0.8340689966,-0.3859770045,0.4233236249,-0.3969378204,0.4818227836,-0.0057144739,0.2433596901,0.3479052838,0.1279320892,0.524012609,-0.3762888487,-0.9566312706,1.0368030079,0.8183714562,-0.3149129023,-0.9456073673,0.3973970785,0.1628176503,-0.2438212198,-0.370576717,0.0894569936,-0.8142905403,-0.8211579345,0.0444696141,0.3545477889,-1.0441918918,0.3835566536,0.4324663472,-0.1584988985,-0.1685137446,0.3470700034,-0.352070025,1.0774463782,0.4663551529,0.5731184954,0.4458574737,-0.6949018921,0.7295869726,0.815763288,0.1217285796,-0.2020753579,0.6573609054,-1.2992997893,-0.2408481844,-1.1948450283,1.0349783623,-0.7116370649,-0.747455103,0.2675747987,-1.1609542933,-0.7127148415,-0.6758957023,0.0783021413,-0.1406728744,0.6001626392,1.0076019403,0.2070027792,-0.3373565176,0.1397179752,-0.4163565319,-0.8488929513,0.3911213424,-0.8888443332,-0.5868375786,0.4255254817,-0.0209851851,-0.5313326322,0.7772497254,-0.2220376173,0.5612616382,-0.0094431687,1.0183545371,0.8262287583,-0.0032750643,-0.90267465,0.3915352854,-0.5071365949,0.3807206683,0.8227381287,0.9115781734,4.4059023281,-0.0347769448,0.7277627554,0.8665530399,-0.4113626444,0.5797409568,-0.4756538582,-1.0858101938,5.6263739063,1.0817283151,0.0703586582,-0.3384434076,0.2652114663,0.4273861454,-0.8659433877,-0.6800524245,-0.6570292922,-0.3093171584,1.155947963,0.3050506736,1.4098388948,-0.7144508924,1.1255092582,0.2845089426,1.0226825392,0.3404370199,-0.988809802,0.2432715253,-0.3530076729,-0.3575693457,0.2595658676,0.5376895004,-0.2412689329,-0.3409862561,0.5071677986,-0.8544751946,-0.6734777118,-0.8994168841,0.9639519442,-0.2006890507,0.9008708935,-0.684401723,-0.6146361472,-0.4544549663,0.3755194425,-0.1070165459,0.4487541132,0.7325234911,-0.1955283577,0.6678417186,0.3428796926,0.6616442305,1.105319138,-1.0978251604,-0.7791309203,0.3543225225,-0.1892533018,-0.6028198769,-0.2219403563,-0.5640995492,0.9673221391,1.064728047,-0.8011684427,-0.7982355673,0.9239555662,-0.0641555005,0.5643415617,0.1246105038,-1.1237553205,0.6364646042,0.9847285821,0.7027367791,-0.0539909211,-0.7391600129,-0.0016559618,0.64685186,-0.2589428043,0.3175119065,-0.0999289948,-0.1775757133,-0.3502649782,-0.2807724707,-0.075765908,0.2488360156,-0.5587645315,-1.4710055573,0.5907896086,-0.6424240778,0.6585364365,-0.617048489,-0.8907199565,-0.7925183089,-0.4789775823,-0.7001175708,-0.142771886,0.1482280603,0.4266839899,-0.1130635536,-0.2669453918,-0.0643187512,1.0297512845,0.7367050716,-0.3040707353,-0.0751957565,0.7806939645,0.0845568407,0.9265460973,-0.303179196,1.0669655802,-0.857543135,0.5938055563,0.2193865129,-0.4651211149,0.7958271676,-0.3054385495,-0.0294902227,1.1175913649,0.8363301624,0.8310436569,0.9043513818,0.6741249709,-0.3179658595,0.0482637356,-0.6916135596,-0.6463395455,0.5040049004,0.3991759259,0.0890598307,-0.6656842069,0.676333841,0.814078455,-0.2146132944,0.2504663421,-0.5295432521,0.7975831375,-1.1699293315,0.6094804647,1.0527241956,-0.7801339259,0.7224883728,-0.8053790003,-0.2802249087,-0.0446342839,1.0265042561,0.4460522686,0.9223225205,-0.0555796808,1.2209172619,-0.3007126653,-0.1048927033,-0.9769307418,-1.5722925913,-1.1172990684,-0.7101546559,-0.5784094356,-0.9269922933,-0.2384386814,0.5197549961,0.562205073,1.1141925933,0.1296859881,0.4574788198,-0.0028015782,-0.0928520778,0.5898110352,-0.6098200261,-0.8120184619,0.0428511207,-0.4269114034,-0.1547936129,0.6186235539,1.2209908171,-0.5761111711,-0.7380061822,-1.0918487505,-0.2719617584,-1.0732335093,-0.8608818695,0.1364869904,-1.1479517818,-0.732115237,-0.9455575621,0.2036157394,-0.4821989492,-0.1701268736,0.0956890512,-0.6851542223,0.9655480445,0.2238786619,-0.0422392702,0.2566404817,-0.6939355916,-0.4266115486,0.5235677015,0.2541476595,1.0581850426,0.3093234766,0.2008372282,-0.5747530495,0.4584196631,-0.686667649,0.7402267719,-0.1838119754,1.0793055112,0.1568104492,-0.3829112595,-0.4527777892,-0.1634584128,-0.7483117762,-0.296042809,-0.1141944649,-0.5238436155,0.219740711,-0.2049370691,-0.0945509659,-0.3642372187,-0.8417795405,-0.0433557433,0.5535164735,-0.7492806335,-0.9620743132,0.5468431163,-0.1354263387,0.7384123235,0.1904792505,-0.8888669133,0.5428975857,0.1136490211,-1.0390231998,-0.2486829319,-0.8700323981,-0.4663772899,-0.2777828605,0.0376239975,0.7382311263,-0.998047117,0.4353106986,0.0743765567,0.7453542418,-0.3105895651,-0.291097641,0.6566649636,-0.515847816,0.8840314612,0.3637004782,-0.8478481737,0.1494297887,0.4594138415,-0.4607951675,0.4065038955,0.1718870815,0.5908406631,0.5254398708,-0.5127417981,-0.4779828284,-0.7052910911,0.5556364627,0.5600783135,-0.3316742859,1.2278139787,0.8242412552,-0.5287681288,-0.1171858192,0.0046938675,0.199350667,-1.0858084371,-0.1119414323,-0.7591743893,-0.0814469333,1.1655776098,-0.3613481921,-0.4608474042,-0.2711851549,0.8560102781,-0.0376360145,0.3868465792,-0.0962433414,0.0055103782,-0.6721710506,0.8129345699,-0.7536992275,-0.8123727671,-0.5551841743,0.4581092667,0.8737415692,0.5239827652,0.7706726121,0.9997424249,0.7461027912,-0.8482365095,0.2134385095,-0.0003150874,0.9602341379,0.7964317175,-0.7375920642,0.1077714608,0.5820906135,-0.6678353689,-0.8125513772,0.5638241341,1.0243007981,0.7096513623,-0.3148247984,0.5460283787,-0.3632012389,-0.538452903,-0.7805919058,0.83185204,-0.8168680314,0.795732531,0.051254328,-0.0713677769,-1.0389308163,0.5723256022,0.857800717,0.2233521739,-0.351781334,0.2344109505,-0.2430124552,0.081902021,-0.040022941,0.2899815776,-0.5701741604,-0.1046020413,-0.1135229221,0.1485415159,-0.774143181,-0.7064303256,-0.9051833107,-1.0938864969,0.9809586558,0.9571263623,0.7604017271,-0.5334184779,0.8269413252,1.2544071952,-0.6976241459,0.7304067028,-0.0648738962,1.1468204612,-0.6619004802,1.1541054307,-0.172221162,-0.0579610499,-0.3135443372,0.4051967967,0.636509382,0.6547516537,0.0096821774,0.2697203982,-1.0236792819,0.2584952282,0.6917270928,0.2744434194,-0.6359930821,-0.0161601223,-0.1108519238,-1.2978390916,-0.3833888912,0.102622022,-0.4371123413,0.344627707,-0.3687036242,0.7977216628,-0.5571405627,-0.3860826684,0.8666458747,-0.111172475,-0.2404346866,-0.3177358588,-0.0710463826,-0.2584133889,-0.8043132044,1.0843589744,0.7234952338,0.9081558912,0.4624724752,0.6863945506,-0.1797649797,-0.6100464673,-0.2576983964,-0.9149344305,0.5132388376,-0.6548439112,-0.0724439786,-0.6461215852,0.9288928008,-0.0528842817,-1.0231397019,-0.1297672143,0.9293432365,-0.1746223315,-1.0513235243,0.8918069019,0.0748942532,0.0055202185,0.7101290381,-0.059564484,0.2669985916,0.5546881568,1.1659136986,-0.8138574151,0.0290662657,0.3423229348,0.8560972853,-0.4859303894,0.7105913916,-0.9387696097,1.0136158656,-0.7730080998,0.4153644529,-0.6338981938,-0.5687275764,-0.7474096032,-0.0671674485,0.4327466085,0.8466930832,1.1395288455,0.007009535,0.8028334627,0.6650503374,-0.1227122144,0.4953873121,0.519760308,0.6993986601,0.5460459975,0.6158770604,-0.1982147341,0.0313200642,0.0841264531,0.4399165459,0.8949100563,-0.6910640081,0.7942791295,-0.8406286733,1.1036200839,0.0549429633,0.9857010349,-0.5566039657,0.5641045207,-0.5710386242,0.6806416585,0.1980896134,0.7977124777,0.6923811459,0.442109391,-0.7646901646,0.0545484811,0.0571764418,-0.8188604588,-0.3864771708,1.005687437,0.722461408,-0.2136828382,-0.2745195739,-0.6348230594,0.6469993277,0.1640371769,-0.7366671876,0.2971649899,-0.7551783109,0.0754338886,-0.5154067258,-0.7379647914,0.1468014312,0.5807168857,-0.4432782238,-0.7442310148,0.9704442527,-0.2867427671,0.1949703332,-0.9871816964,-0.7860964506,0.5126520968,0.3791045528,0.4600784907,-0.5664394956,-0.3946476843,0.6591435974,0.8569050649,-0.0494231691,0.5196800964,-0.7546228347,0.2195697705,-0.2883083801,0.7950729575,-0.5054175446,0.5888656316,-0.5567577298,-0.3865168422,-0.6616349751,0.3397290799,-0.1857379749,0.9580119682,0.5216269392,0.5488296857,0.5117652231,-0.2187576831,0.7755286514,-0.357459325,-0.3841509993,-0.8263955658,0.176030833,0.1405401527,-0.5426405253,-0.2029465604,-0.5469935427,-0.2008254297,-0.4874386552,-0.7803584888,-0.3532497548,-0.3282916473,-0.5633277547,-0.5148694592,1.0087000316,0.6253544345,-0.4727646039,0.1768182678,-0.599346813,0.8508488469,0.5528534278,0.0812508989,-0.579556169,0.9379354702,-0.882006754,0.0676883031,-0.2046972574,0.2245684527,0.0581307783,0.1438040537,0.740697086,0.5239566968,-0.1234750667,-0.3688340201,0.2527152492,0.5220555127,0.5488330109,-1.0344946667,0.3562320396,-0.6011213516,-0.0169741782,0.1143071275,1.1643013843,0.3461927099,0.7690615892,-0.2588368606,-0.9883583883,0.2594416124,0.1682921931,-0.1249966149,-0.8545579939,0.1942968179,-0.1766902323,-0.1430316685,-0.3996183247,-0.0286407434,0.0175919831,-0.8394432589,0.2490972146,-0.3435070275,0.8186291878,0.9010674868,-0.1171762408,0.7789902961,0.930873693,-0.3397763182,0.7160137473,0.3846429248,0.5825326211,0.875276748,-0.6392395086,1.1432100639,0.4054080226,-1.165032605,-0.29272347,0.7800130696,0.8480140635,-1.0683937957,0.3485055305,-0.4646949389,-0.1911665479,-0.3619927993,1.0169462658,-0.9775374826,-0.3761019918,-1.0330764557,-0.3410236943,0.7090599861,-0.2418509801,-0.335436988,0.0721323196,0.9527027037,-0.6106709922,-0.0443697059,0.7798163336,-0.0102990342,0.1000977371,0.2619613641,-0.6663271012,-0.1720164918,-0.5706584486,-0.7227536628,-0.3374951254,0.7401057906,-0.4619948561,-1.1726097838,-0.2104849739,-0.1784838799,0.7657358967,-0.3342412997,-0.5351032477,-1.1404988255,0.5159627522,0.8839952641,-0.1009909088,0.9142246474,0.6512232939,0.1443637203,-1.0360910144,-0.9675685628,-0.740700367,-1.1012802624,0.1374000386,1.055037168,-0.7301537885,-0.7565384887,0.628139461,0.4131661377,-0.4342695272,-0.6878946019,0.6062525354,0.3119542537,0.3240167726,0.0029516465,-0.6057821769,-0.99238941,0.0475174098,-1.0273760095,0.2506634134,-0.2489865209,0.2920896123,0.4864288963,0.7059297032,0.0832586544,0.1393611064,0.6491536361,1.0363492092,0.7504121916,0.7173934126,-0.247247963,-0.1029886984,0.4569359656,1.1024996617,0.0610658772,-0.3963989403,-0.1612708804,0.6583049494,-0.6222611847,0.8062065709,0.0889406275,-0.9429823538,0.8011140302,-0.188646305,0.6379232672,-0.5039274791,0.6379087794,-1.3482368752,0.7357237589,-0.0171259666,0.1472628493,0.0531088691,0.7479490239,-0.6728595122,0.588401114,0.5064702105,-0.9080783753,0.9013364842,0.2679892942,-0.6925579296,-0.2010844499,0.2764883586,0.4227507299,-0.1465457397,0.560182362,-0.9555323558,-0.3037166346,0.4417343579,0.198006881,-0.6624391383,-0.2611989825,0.4379842336,0.0261441186,0.3839067103,0.4881276441,-0.9801444635,0.3764362587,0.7025974783,-0.7098026687,0.5096651603,0.3863680867,0.6879200334,-1.1149762879,-0.263303127,-0.032148177,1.1678938895,0.1951968558,-0.4464843609,0.1858805896,-0.94867569,-0.8991568532,-0.777010976,-0.2892046433,0.5583033617,-0.7382670342,0.2987742202,-0.6349554131,0.9736057588,-0.4178383693,-0.2167242344,-0.4803997179,0.3633331032,-0.3977385364,0.4094844877,0.1922646135,-0.7783336713,-0.8014236101,0.3466490066,0.629519034,0.9482101675,-1.1069709922,-0.8082406275,-0.6078846981,-1.0814822428,-0.4575968928,-0.0032936834,-0.7566317763,0.4898561193,1.0658170724,-0.6712649056,-0.1878582696,0.8805409737,-0.317474531,0.6773234519,-1.0059346389,-0.4470889131,0.8223567212,-0.8177024963,-0.3700266091,0.5478842461,-0.7469593997,-0.6006756762,0.8711371783,-0.4168608294,0.3382210791,-0.3944886147,0.5902491643,0.103323856,0.3762958243,0.4648315066,0.2529891761,-1.0589566878,-0.7943190242,-0.1229810776,-0.9272828418,1.023564793,-1.002726926,0.6438322224,1.0717116514,-0.2262144547,0.7197532223,-0.3265692391,0.4255187132,0.6546069391,0.4366916884,-0.192088414,-1.0483628117,0.6777532447,0.9145445001,-0.0932648951,-0.6672879894,0.3526554041,-0.8224936865,-0.076724357,0.825305703,0.039259004,-0.3611059973,-0.2509572037,0.1717656795,-1.0895081659,-1.124593102,0.5288198287,-0.2721426057,-0.2062255444,0.1538350847,0.1939296403,0.2463557238,-0.55498833,-0.9475822544,-1.193900698,-0.0290850198,0.5097546171,0.7545398758,0.9084271103,0.0282557669,0.2853242865,0.54988628,-0.1413692842,-0.9875983693,-0.4510879126,-0.6931413088,0.1945535356,0.7153197646,0.7246386589,0.3187502904,-0.8709218925,0.4047319616,-0.73629919,-0.7935749371,0.8455569963,0.8663583693,-0.7473743068,-0.3763402954,-0.2346582197,0.0392423832,-0.5557473881,0.1046241095,1.1010550687,0.469092494,0.6572536799,0.4136177993,0.7175248922,0.0209488585,-0.0721027853,0.2369157047,0.2435758705,0.4417779098,0.2684281254,-0.8057161291,0.4063633553,1.1309382929,-0.7322318727,0.320293713,1.153041554,-0.4475278843,0.3714150992,0.2308744584,-0.1481211424,-0.0097817119,-0.5550388213,0.0728699368,0.4498947039,-0.7884555675,0.289365482,-0.1138521215,0.4851685407,0.7561451172,0.3241181022,-0.2204717909,-0.3651478493,-0.3308020797,-0.3281968922,0.0592573015,-0.0060017594,-0.4627597877,0.607445944,-0.0804186964,-1.0463821591,-1.034949512,-0.5079645689,0.7443541738,-0.2663616203,-0.5494996883,-0.4451278357,-0.6427592777,0.1039687071,-1.0995765878,-0.5888815589,-0.184536166,0.6208959769,0.1905255705,0.7518345561,0.1835066368,-0.8094804316,-0.2322817872,0.8557796244,0.3655582991,-0.8712754912,0.5898644136,0.2564703221,-0.2043732328,0.0879396638,-0.6517093722,0.5888642614,-0.0326214284,-0.4426123806,0.422764307,0.5252070784,-0.6539651523,0.7913829891,0.1607304946,0.2200208831,0.623579704,0.6884844489,0.6139973183,0.4461462876,1.0886081271,-0.0316590126,-0.7201322161,-0.4571623573,1.0924067187,0.5467703026,-0.345256998,1.1004071333,-0.4569693948,-0.6659367754,0.8714414911,0.1102048561,-0.2112479388,-0.2096930046,0.5169902818,0.8817511989,-0.3032200417,0.3734814211,0.3761232714,0.8351062848,-0.220591596,0.0733249961,-0.6540085431,0.3600824363,-0.0142040131,0.254843217,-0.3183855602,0.1089236311,0.6956839143,-0.3980190339,-0.6774172114,0.1504699778,0.5443129476,-0.2860995126,0.8037878088,0.3785110781,1.1438890771,0.6195136598,0.5615005025,0.8280521771,0.9864543742,0.2173959622,0.7467502745,-1.0325250521,-0.7295880395,-0.0899874396,-0.4981092942,-0.5305920555,-1.0944283796,-0.8180614588,-0.4467354016,-0.8704420196,0.4275538864,-0.1479979866,-1.022850587,0.7673546181,-0.0126986603,0.3247056711,-0.3661343932,0.700300445,-0.8421495975,-1.1256369462,-0.0462530775,0.7229222719,0.3316910751,0.7979963101,0.6926073876,0.6903650435,-0.7482021952,0.2723801811,-0.0945922186,0.536331376,-0.287646966,-0.1046425523,-0.0975236569,0.4638810444,0.6087038972,-0.0946936285,-0.1427805335,0.7323915257,0.9360996052,0.5166963492,0.1359222634,-0.7046490372,-0.5403656862,-0.7821788168,-0.6797895717,0.1173096235,1.1222991957,0.4612369485,0.7074359545,-0.1894461871,1.0252224623,0.4919975771,-0.0117276665,-0.7737087519,-0.1532067191,0.1062819418,0.4688539828,-1.0932355742,-0.0901481069,-0.0837975872,-0.4976690684,0.1222635074,0.2801352853,-0.3476058337,0.678169391,0.4138971381,0.0394414301,-0.7353042135,0.5153955689,0.5710820298,-0.4263020152,0.0908612383,-0.3918289354,0.3695587302,0.5437232402,-0.0032632107,-0.1755720994,0.9145024514,0.7762465529,0.5884531696,0.0155564991,-0.5804437507,-0.1248853542,1.1614441468,-0.5427246936,-0.1265840326,0.1866980263,0.2652139025,-0.2355019268,-0.2061763464,-0.0487846762,0.6663666198,-0.6509392551,0.9224098215,-0.0383550386,-0.3532779465,-0.0334970282,0.2623512932,1.128349946,0.9327976428,-0.566858866,1.0235891953,-0.7104354929,-0.1225336949,-0.302094633,-0.1886733166,-0.1621719225,0.3786972673,0.7281381646,-0.854054781,-0.606648535,0.099634677,-0.2655777309,-0.748862369,0.5510838194,0.8896346911,0.847038212,-0.238817392,-0.8882746386,0.6265866712,0.4348538476,0.3837548311,-0.1779961103,-0.0091628535,0.4136026489,-0.225534737,-0.6906584966,0.110356899,0.0509923038,-0.2753048368,-0.4942067354,-0.7755192453,-0.4301896507,-0.5054701131,-0.7014352609,-0.0562503942,0.2102383923,0.6266547,0.9722955639,-1.0504159496,-0.9590042613,-0.2857064038,0.7367640862,0.8842044487,-0.6337512675,-0.5973039597,-0.3053179504,-0.7967435309,0.9820295321,-0.6383971335,-0.1367894887,0.592973114,0.0276629411,0.0639036226,-0.2102925717,-0.6896760926,0.2390645682,0.080684925,-0.1649211026,-0.8245490395,-0.8534203651,0.7962673752,0.8872217106,0.7170156468,-0.7489177349,-0.0108961922,0.6815044824
   0.0354851341,-0.0143610679,0.3329519809,0.6606316769,-0.8935309528,0.2946762238,-0.7744474364,-0.0369355016,-0.1736142726,-0.3312080206,0.7797401315,0.4633725879,0.0776246082,0.3483379517,0.7789328018,-0.2009715793,0.2433453898,-0.4982100538,0.0118388838,-0.690852243,-0.8816493942,0.6933998536,-0.0883039422,-0.381904587,-0.187993547,0.0477321484,0.3000860125,-0.5302484665,-0.2206442277,-0.7636961942,0.9670814895,-0.047819318,0.9076715359,0.0735058602,-1.0212150412,-0.2643307861,0.2209319436,-0.4419686578,-0.2920402588,-0.236990978,0.8548778421,0.2178203208,-0.766145956,-0.0502906122,-0.561117638,-0.5926969647,0.6414192787,0.3509232486,-0.0125371883,0.4129910547,0.0322525939,0.7293617705,-0.5123092478,-0.1008788087,0.9158567244,1.0414217411,-0.7758616176,-0.1350119607,0.5994622581,0.4342236048,-0.8634649147,0.9199470543,-0.1452154424,0.3539736885,-0.2163414251,0.1221373439,-0.8181839767,0.4064573741,0.0510174702,0.1587297655,0.8089311568,0.2340882043,-0.1382344568,-0.0765520134,-0.5156921451,-0.2958446001,0.2782905239,-0.5810763165,0.6208939382,-0.6639913429,0.4884104909,0.4716140144,0.26835521,0.7160079691,-0.194021414,-0.115812102,-0.0071253634,0.5139191352,-0.375127342,-0.2698471779,0.2225007096,0.9540882292,-0.6769035413,-0.5002057474,0.6766118442,-0.8605041799,-0.5229408069,-0.4117415792,0.2396333758,-0.6120314382,-0.6184547859,-0.3661124134,0.5532542818,-0.266496921,-0.282095936,0.5447349001,-0.385554791,0.5978537062,1.000876884,-0.2264231371,0.2796662338,-0.6018118856,-0.1017722382,-0.530329239,0.0254931428,-1.2892657973,0.7165673084,-0.3509332469,0.5056626368,0.968485605,1.1164092866,-0.5767222181,-0.961171553,0.5819608996,-0.7059299249,-0.5834123718,-0.9937348075,0.8858673156,0.1073455677,0.861343544,-0.5798262773,-0.5664236921,0.3270147656,-0.7493403144,-0.4983736168,-0.4740818592,-0.5671798882,-1.0074506177,-0.1836682777,0.2738696625,-0.2678354233,-0.0140058179,0.1985931739,0.1874102075,0.152461495,0.4919514385,0.6223150417,-0.0232064239,-1.1542613799,0.7806035078,0.909564671,-0.8666284598,0.502164265,-0.1958645043,0.6026914894,-0.3746657267,0.1824776863,0.4393001105,-0.7205480449,0.7271359573,-0.5286083444,0.1925505201,0.0402392604,-0.7800847159,1.9017056868,-0.1722328214,-0.2611245057,0.4073174289,-0.2865570684,0.8914496636,-0.5298200481,0.1855692946,0.2144738295,0.7937317331,0.5796525718,0.2152571425,-0.4372574569,-0.3922849918,-0.164884552,0.5058027829,-0.2707565551,0.3863074338,-0.5392678587,0.2245185632,-0.5458612933,-0.7885158504,-0.011363557,0.8174407783,0.6626001564,-0.1787876323,0.6703244132,0.638340288,-0.4318769747,0.0770244409,-0.5313451009,0.385315073,0.1309103843,-0.4422037503,-0.3074600854,0.7160277795,-0.2994528002,-0.8581303976,0.5502361825,0.0242839498,0.6906847481,-0.8873073172,0.7195513464,0.6216474243,0.5226967625,0.2784285826,0.5874196971,0.8158848516,0.3341937232,-1.0461443417,0.2332086511,0.5813589141,1.0295345586,-0.5833514506,-1.1909477548,0.6882196984,-0.3515615835,-0.0816219109,0.1281542106,-0.6115684617,0.1612394349,-0.7351353241,-0.5771767575,-1.1472165283,-0.7936990829,-1.1690046831,-0.9516689419,0.0259971975,-0.0368077754,0.6545777434,1.2396738375,-0.1930237766,-0.0171649327,0.4463003775,-0.4163449287,-0.5914323323,-0.3466947902,0.2136776373,0.3412733336,0.2254685469,0.6744210046,0.1994631788,-0.635966187,1.0501731959,0.5390129492,0.3335596451,-0.171293396,0.5499674041,-0.5450433656,-0.292945257,0.9810123302,-0.331881098,0.01402199,-0.247446404,-1.1720671603,0.8442651034,0.0628059109,-1.2150950516,-1.0105827023,0.2692395517,-0.2557663947,-0.7292907919,0.8489501171,-0.4181336089,-0.5172353828,-0.1143670721,-0.1661692455,0.0191786755,-0.8632537664,-0.4101305318,-1.1949227052,0.7194690711,-0.2060072108,-0.7300498316,0.2827650182,-0.9053990253,-0.4068599533,-1.1843525779,-0.7660834345,0.9069436055,0.2812006851,0.6374619449,-0.8411636035,-0.9673339147,-1.0751489146,0.5411357248,-0.238644019,0.1611766803,-1.2192299043,0.7522760792,-0.3079325712,0.24756111,-0.1573185453,0.3733098945,-0.2492682737,0.9808645993,0.5685435111,0.0809062337,-0.5617821016,0.9143248528,-1.1736891306,-0.7467249939,-0.5946827294,-0.6857534262,1.015306136,-0.2618773959,-0.1745961258,-0.274691825,-0.4972081933,-1.145155672,-0.6506946656,-1.3733489394,-0.5484359535,-0.4384957051,-0.1244618916,0.615536183,-0.0776096078,-0.1274474314,-0.0341755206,0.9571097049,-0.6213029625,-1.0456620472,-0.5465815407,-0.8930270641,0.5083097519,0.80658733,0.6050444532,-0.0914767268,0.7030605414,0.2419858137,0.4500972989,0.7534761514,-0.6893863959,0.2283599345,0.0025020215,0.7929908159,-0.2224036358,0.7503943826,0.1415445484,-0.6099835062,-0.7019811673,0.5058763497,0.236316299,-0.9049902407,0.6308109506,0.3066431768,0.4094262342,-0.3167139393,-1.0444978014,-0.3814655229,-0.6488504031,-1.7494435226,0.1322534974,-0.4516045007,-0.7941294608,-0.3015802362,-0.6668824754,0.5989048715,-2.08357969,0.1400356223,-0.7930319728,0.9922897936,-0.2457849796,-0.8262881311,-0.3837171359,-0.0223115217,-0.982501039,0.3311580445,0.902829977,-0.6489702426,0.3665953903,0.0156331735,-0.4004992524,-0.9435553141,3.6280498184,0.4218517777,0.1242952499,-0.7741746611,0.4653880446,0.6848573079,-0.7755914748,-0.1150715517,0.7506952803,1.0676436455,-0.0619213678,-0.4113229602,-0.7122551494,3.4243558031,-0.2121921436,-0.3361227607,-0.7291903694,-0.0115788534,-0.1315795133,0.6313772224,-0.5333832518,0.3188178051,0.8024225158,-0.3842941266,0.9174018193,0.6840039371,-0.732983031,1.2613899578,-0.746739392,-0.6257477939,0.114395012,-1.0311416081,0.2972178115,0.1459033675,-0.9122064599,1.4363790516,0.0244537601,-0.1178290983,0.3027595868,-0.4395555224,0.2255988422,-0.0415318968,0.2819327165,3.44427723,0.2526196979,0.2578140846,0.4576118996,-0.573714306,-0.6301615226,-0.1192466207,0.1623659241,-0.7640491012,0.6557626639,-0.4039401718,-0.6683802079,0.6871922117,0.2452819578,-0.0199998407,0.3459701332,-0.3583675581,-0.894344166,-0.2613692056,0.6548486345,1.096147639,1.0274071245,0.5313568448,-0.4824783871,0.0477689871,0.5056905495,-0.2250470007,0.1545745662,-1.399255335,-0.7307482431,0.2253020582,-0.5437608642,0.0723706826,1.0832560239,-0.4856612263,-0.1521665422,-1.5789495088,0.5272848824,-0.5972457528,-1.5760600472,0.241333673,0.1451445395,0.3115872107,-1.2534277626,0.7938999544,-0.2705166739,0.6564005502,-0.2532808982,-0.4634231745,-0.6074583132,-0.3319720597,0.0814335226,-0.284406697,0.0118475401,-0.2978957589,-0.5297192024,-0.5935864082,-0.4756962859,0.2566438317,0.0707229877,-0.2488791876,1.0565416677,-1.086343545,0.5063706143,0.5874053514,-0.7436154836,-0.3853639042,-0.2490411848,0.9822468169,0.4730637976,0.424061446,1.2049228978,-0.1610911722,5.3750556861,0.8034341878,-0.1360972144,-0.4124268998,0.2781254633,-0.7199128381,0.5256223123,0.7525603278,-0.9005685066,0.7920346987,-0.0787993496,0.4715040193,0.7585679215,0.3577511356,-0.5435574635,0.5611826375,0.7367285147,0.3424807335,0.3973836753,-0.5291833512,0.0255705309,-1.0630252537,-0.9646830689,0.0331520522,0.8757017316,-0.8861620941,0.4601183484,0.7920539386,-0.1973379552,-0.2753782805,-0.6474627006,-0.380265331,-0.8339998866,-0.2858683535,0.9014879466,0.7223703217,-0.2906163044,0.9161912025,0.1222636085,0.1719485747,-1.0552085846,0.368199627,0.7056676818,0.3412459711,3.4049597934,-0.6099011695,-0.1112029617,-0.1402491839,0.1878686511,0.4158988669,0.0940043336,0.0459313333,0.1837027244,-0.9957053138,-0.7935505174,-1.406953287,-0.3436463587,0.8475435296,0.8464488081,-0.3624668434,0.5801102679,0.1019547266,0.514925675,0.8237847848,-0.6741228315,-0.703243466,0.305791008,-5.0175158287,1.2295217956,0.3126368999,-0.6438247257,-0.8001657553,-0.4413502369,-0.4121292883,0.3935393844,-0.8202957597,0.993445164,0.5227620847,-1.7857625464,0.5559141237,-0.2441986566,1.0145054192,0.0891295075,-0.6514295625,-0.2688812643,0.7919758357,-0.2976008414,2.2927737248,-0.6530840917,-0.4486679001,-1.0942685881,-0.013248087,-0.9669751677,0.5417320903,-0.6051404761,0.175535189,0.4377946888,-0.7568950158,-0.2207865769,-1.1880860043,0.6841432396,0.8463098868,-0.9605336913,0.2364573306,-0.08495392,0.0271495879,-0.1885385313,-0.2664076796,-0.2795915594,-1.313983412,-0.6893472325,6.1436107226,-0.2975703521,-0.1425565746,0.6051013988,-0.3982440539,-0.5622719123,-0.6055193807,1.1450196178,-0.6019890745,-0.8722260098,0.1324287548,-0.4497469953,0.6269529091,-0.5206997624,0.360772106,0.914191268,0.7348005108,0.1710884127,-0.3363445702,-1.5239780604,-0.535536856,-0.9898510068,-0.0280633808,-0.7335209143,1.0767140088,-0.289625572,0.6080076198,-0.3428368122,0.6924255467,0.0749930237,-0.5940493451,0.6958908451,-0.0151533022,-0.4902593747,-0.8465753331,-0.6810082104,-0.426991708,0.5671046833,-0.4830179654,-0.8688388664,-0.574400916,-0.5137371784,-0.2103796132,0.2758023812,-0.5987801977,0.7363916908,-0.6550622129,0.4043754123,-1.0058558803,0.9192500665,-0.1826263766,0.6840647108,0.7072497933,-0.7646008645,0.3246359219,0.0981791404,0.0344203339,-0.6417581746,-0.3841444039,0.2159449686,-0.6655216926,0.9917551687,0.7666774975,0.3260763529,-0.9958945616,0.7444894521,-1.087050173,0.3183791911,0.3995372762,-1.0220393668,0.1159225105,-0.7198295683,0.624578173,0.4673974185,2.7681010996,0.3223121435,-0.5708473392,-1.0120484282,-0.7917726798,0.4025686835,-0.2640005296,0.9513184613,0.2180758145,0.2584141311,0.7245213273,-0.3517070987,-0.0397002403,0.2692152379,0.8654836683,-0.60634377,0.0394425309,0.4344816626,0.2746793261,-0.0155337627,-0.7694745745,0.6716775031,-0.0438215113,-0.7755493972,0.3739806604,-0.8744274667,-0.2274790335,-0.3604311468,-0.7082576283,-0.3173021456,0.7226665265,-0.5637578699,-0.6987332458,-0.4354942405,-0.243646465,0.0533053086,0.0430938609,-0.2278490757,-0.5090744055,-0.4578978189,-0.9044217524,-0.4355909131,-1.0336365473,-0.332950417,-0.8331589379,-0.6508249238,-0.0105478562,0.1263017849,0.160596728,-1.0291140667,-0.6526128681,0.1058282106,0.5315835822,0.1637645253,-0.1626536321,-1.1476345765,0.063563517,0.9303120074,-0.61013829,-1.0441310622,-0.1955395089,0.6861161377,-0.3678379527,-0.2266949458,0.2950771905,0.3579941442,-0.0475685879,-0.8043534541,0.4853715639,0.7241704034,-0.3612512688,0.0346835035,0.2338125016,0.3701116796,0.36566906,1.0966700318,0.179006306,-0.6490064105,0.6363561612,0.2110022121,-0.5579903411,-0.3895453443,0.5058609844,0.8366525173,0.4118296383,0.5065074767,-0.4201480501,0.7469602297,-0.4862149975,-0.7955702515,0.8756415402,0.3990293698,0.4708233319,-0.2220183494,0.2778284982,-0.7080650318,-0.3750972285,-1.1119216097,-0.6613248083,-0.464697008,-0.5953573493,-0.2276011196,0.4873758623,-1.2173709041,0.1091301244,-0.4914501867,-0.2624361732,0.1080446057,0.2441953042,0.396195186,0.1917091756,-0.2256143741,0.2901155339,0.4747701932,-0.3615877077,0.4436721938,-0.4397303753,-0.9372789851,-0.6821424948,-0.1873537055,0.2126378905,0.4559704613,1.1320384775,-0.6016851603,0.4040054937,0.0641858727,-0.9630368314,-0.2880101082,-0.4858425593,-0.0240201015,-0.6641970138,-0.1768226041,-0.1698595319,-0.9585097967,0.3064826962,-0.8731192322,0.1769439813,0.2839930928,-0.5307655068,0.1346271852,0.5618347734,-0.7513884153,0.9752960071,0.5257677944,0.1570216134,-0.6426278392,-0.454607883,-0.6906211248,0.8983667711,0.2718557687,-0.585544142,0.2354339954,-0.7672604765,0.9230842235,0.4171937244,-0.0189997322,-0.9756518255,0.2669414269,0.2821084935,-0.9564042465,0.7602161666,0.3031497812,0.1019631789,0.5780564636,0.8762481287,1.0402323264,-0.1348419181,-0.9630745569,0.8462814005,-0.9311177319,0.5332173783,-0.9512288365,-0.6313443208,-0.2789756535,0.2122682741,0.7086256296,-0.0876452112,-0.3542084818,0.5955608618,0.2331076685,0.5455200256,-0.7895635207,1.1364517946,-0.5282051083,0.146151837,-0.1942120381,0.8972115701,0.7358748459,-0.2588695929,0.5391941032,-0.0926044784,0.8449290777,-0.0325429289,-0.6029034383,0.3609197422,-0.7628997519,-0.312435918,0.0094929123,-0.3960692291,0.3033723823,-0.8866952651,0.2814113701,0.8465321557,-0.5415060536,1.003163682,-0.8967062389,-0.2364958714,0.0567789437,0.0964176475,-0.7592578028,-1.0112157977,-0.4996665371,-0.790617245,-0.7381936792,0.2909105348,0.3919140132,0.0200572226,-0.0166281192,-0.7087508065,0.5911644914,0.0536123121,-0.3530013168,0.3096328879,0.444899586,-0.6483292051,0.4417436116,0.6664366262,-0.963660375,0.3673149985,0.8087167062,0.0790569459,-0.2779254221,-0.168531667,0.74027145,0.7430569414,-0.6629012244,-0.1442212375,0.6984496353,-0.6095847998,0.4636866524,0.2542374517,0.7946207139,-0.3253336954,0.072879014,0.5123008844,0.291174909,-0.3785563052,0.3758952358,-0.0108474418,0.5573731074,-0.55160407,-0.6209204524,0.5082961389,-0.6351355038,0.3473931487,-0.73730866,-0.8934427407,0.3151291775,1.1379030859,0.1518131688,-0.589760134,0.0678924393,-0.0213364753,-1.0652514817,-0.3946282298,0.1699292131,-0.924114892,0.1138226617,0.1640967863,0.8684609256,0.8122817591,0.4060047831,0.5428677883,-0.3451370762,0.2051393236,-1.0635832701,-0.2274351495,-0.9495158712,-0.1424265751,-1.0375392249,0.0944795601,0.6219159108,-0.5417998048,-0.8726671948,0.4503758279,0.8732652253,-0.0980687824,-0.2129893146,0.5349583248,0.4287709182,0.4482338295,0.0711037633,0.3633071571,0.3004266189,0.1656916181,0.6975109433,-0.0412356598,-0.0433237127,-0.6743871231,0.3360198591,0.0066765836,-1.2648820352,0.8503633538,0.8855906365,0.3570049477,0.9556919249,0.3976242554,0.7167531779,0.3477181124,-0.058164242,-0.9323722141,-0.4424360181,-0.1095104238,-0.5034840466,0.3067858454,1.0369238558,-0.0271447856,0.0114158313,0.7892298557,-0.6804467119,-0.344304142,-0.1291163948,0.7782268568,0.7651823658,0.2105693885,-0.1321835508,0.6894966523,0.8982446187,-0.6972294983,-0.1738066431,-0.2941918242,-0.3129081951,0.9554051825,0.7473449205,-0.7904419256,-0.6706720446,0.0427545256,-0.8491116217,0.1587448357,0.9958115571,-0.7239218283,-0.288584688,-0.2877178123,-0.9434250937,-0.0013461199,1.0373611744,0.8026496383,1.0051213612,0.2264266985,-0.1937150908,0.4261593136,-0.8833935049,-0.7084017767,-0.4232939507,0.5100919932,0.6487792757,-0.046909278,-0.6724959196,0.4871056062,0.6652466407,0.3055098058,0.1696452323,-0.9648204225,0.4556733298,-0.0847203894,-1.1642445738,0.1292000256,-0.6217801102,0.8130923778,-0.6654170788,-0.9702636876,0.1422522827,1.0167119218,-0.1968196321,0.8697497373,0.2052973222,-0.7816331942,-0.3920218425,-0.5431517665,0.4691955187,0.8444875202,-1.1080372639,-0.0424746528,-0.8584018105,-0.3763069341,0.0386859991,1.1101149283,-0.7549736936,-0.0120257804,0.2996138347,0.4158001197,0.0976783841,-1.0329895549,1.0854075913,-1.0698601216,0.3241022476,0.8386904403,0.8640050339,0.1335209541,0.9201333684,-0.1541984262,-0.0862150542,1.089019821,0.1315594675,0.8214492443,-0.4571795922,0.1295365856,0.3421722648,0.5722946677,-0.0053363019,-0.5222902939,-0.755433883,-1.0527650715,0.2154739323,0.7458914032,-0.8145330671,-0.1444404633,-0.3141250241,0.4562415486,0.4820789496,-0.2288160125,-0.1439882008,0.8867109276,0.1311373077,-0.0375480133,0.200753616,-0.6030926488,0.7895688103,0.7408196017,-0.387946173,-0.0746486515,0.1702028322,0.8548509252,0.6540463503,0.9818081864,-0.10615559,0.2578715321,-1.1543493015,-0.6529014661,0.7007666221,-0.063490158,-0.7604361672,0.7773590683,-0.2479792634,-0.6546039918,0.2561928066,-0.0151315957,-0.7823199109,-0.0607455032,0.4025782291,-0.4509635142,-0.3464967695,0.6340031356,-1.0559038657,0.8197036025,-0.5299205444,0.9885931702,-0.6906084369,0.7980630401,0.2577452936,0.6578340574,0.1717676873,0.6971504568,-0.488879386,1.0770048619,-0.582667938,-0.440713023,0.239744128,0.6922420903,-0.5803814611,0.2476145788,0.1449109655,-0.0484842136,-0.6507795957,-0.2332959097,1.2805120258,-0.5193209263,0.3292739049,-0.4057300892,0.2796356316,-0.301792686,1.0232769416,0.6466839192,-0.5564649078,0.9199417567,-0.5362699118,-0.1690508632,0.0982962676,0.1139920163,-0.9534514487,0.005840186,-0.938817277,1.0267610774,-0.9021526691,0.6762273397,0.0964331956,0.6881778904,0.4159934143,1.0114134995,0.7931938475,-0.7185637277,-0.0088456277,0.8159096836,0.8451810857,-1.0814610793,0.2148541151,0.8920376544,0.9517272546,0.6671850649,1.104871764,1.0516535151,-0.0078612006,-0.8152748623,-1.0769785687,-0.502577373,-0.7670766429,0.7216827943,-0.8686779826,-0.0193616911,0.691076063,0.8347160626,0.0820337461,0.720349901,-0.4641233205,-0.744347829,-0.1653088761,0.4739076608,1.0183439853,-0.4990284729,0.3789538089,-0.6820177147,-0.6583598132,1.1288745961,-0.6238370037,-0.4411278022,0.2999355781,0.2875763311,-1.2785963543,-0.66851814,-0.1171858738,0.6909354102,-0.9003936283,-0.9314601996,-0.7531367874,-0.5014442037,0.4217446968,-0.47558247,0.2017391885,-0.3833659757,-0.5228065529,-0.3353539432,0.1652201324,0.4936311293,0.3241938527,-1.1355273541,-0.6547041809,1.122900137,0.9300579806,-0.8526741083,-0.2690990824,0.1642522302,0.6068833705,-0.3167663285,-0.2399050126,0.4024505799,0.645844022,0.9334479084,-0.6662402113,-0.1942170893,-0.3028236502,0.779867594,-0.269282327,0.6920157346,0.8440429949,0.8784597889,-0.3811890664,0.5363064205,-0.8733228951,-0.8110983912,-0.1742873796,-0.5010069272,-0.1714765357,0.6961097158,-0.0418353864,-0.2397545125,-0.9692789358,-0.3825891752,0.7274943987,0.7097149347,-0.6177066177,0.8583450401,-0.5284695362,-0.9422260542,0.0796160345,-0.3158887415,0.0264448665,1.3323348233,-0.076792255,-0.7604597839,0.3865808013,-0.339774497,0.6834719885,2.3959437088,0.4495923175,-0.5438677033,0.4697808879,0.8441010687,0.0569735422,0.3849161556,-0.3833331138,1.2784547417,-1.089470906,0.6527423929,-0.8981379949,-1.4104461001,0.5172781844,-0.081398082,-0.062171873,-0.4918989667,0.5956769018,-0.4324621936,0.1792801121,-1.2357161954,-0.1446028538,-0.0612970134,-0.5968142592,-0.2558134686,0.8813992632,-0.8484088729,0.2558792312,-0.0262046425,0.6325433914,-0.1851290782,0.9299274319,1.334236872,-0.4372309499,-1.6701410852,-0.3019014413,0.8450441702,0.1121936052,-1.2004022603,-0.8064046778,0.2555864355,-0.1473867011,0.5442262086,2.2350953883,-1.0449291914,-0.011473172,0.1632917735,0.1087154945,0.5095285017,-0.2596937031,0.4680498473,3.38623671,0.5137818207,1.7078081324,-0.8810942279,-0.3820083474,0.7905543608,0.1329966056,-0.7577096524,0.1749706924,0.2412446918,-1.1370369555,-0.5546824397,0.4478521326,0.139728303,-0.5046525834,-0.132910085,1.179921427,-1.3080043359,0.4757497686,-0.9974192951,-2.377402486,0.7249718567,0.3603947525,0.6818689688,0.4490190483,-0.5365825367,-0.6161375735,1.0334881586,0.305998516,0.3717899344,-0.2221244374,-0.0701278162,-0.2963321984,-0.6944568285,0.7053184814,-0.354038782,0.2416750598,0.0767911564,-0.0415280211,0.514174194,-1.1067251672,1.3319328784,-0.1582651675,-0.096566832,0.1304402114,0.7855050382,-0.4416841766,-1.0662815266,0.0435678437,-1.0823048003,0.7654063564,-1.0182904976,-2.6332958454,-0.530644457,-0.1716771487,-0.7914782419,-0.1012424961,0.3918075955,-0.8793933406,-0.6178017184,0.382116869,-0.4888096856,1.1455325969,-0.1261866506,0.5730297263,0.2557787632,-0.5395074079,0.91503546,-0.1959202694,-0.2245261901,-0.1499074885,0.8705532158,-0.4845993289,-0.4634447751,0.7243532162,0.6334852043,-0.7664717686,-0.1563887585,1.0588272525,-0.2235946045,-0.8964430024,-0.3369766051,1.3031328154,0.9027255328,0.4913654132,-1.2747572972,0.915175759,0.1640549113,1.4621691012,0.4522812194,0.7881602454,1.1149928595,1.0745737475,-1.4420893827,0.8058371436,0.3438571262,0.5890629175,-0.9440703854,1.4272117747,-1.0430523362,-0.0046555643,-0.156492282,-0.1022631887,0.2374157504,1.2443413016,1.1309258493,-0.1041769253,-0.7159899321,0.7747669233,-0.348374701,1.3772584384,0.1915909357,-0.3151007263,-0.7978883677,-0.2924330907,0.4047004654,0.2173485047,-0.824488837,0.7120213906,-0.5005808757,-0.4961746346,0.4412779885,-0.5470666247,0.6512490983,1.0089055063,0.2658628281,-0.2408872154,-1.1600921067,-0.8518395613,0.1299974286,0.843442359,-1.2655839947,-0.0523228229,-0.9606264157,-1.0822918849,0.9641748033,-1.0273164119,-0.2842347256,0.5197952575,0.8014927923,-0.6230441152,-0.7903216565,0.6770893331,-0.2738227585,0.2316781312,-0.6679459715,-0.1033319293,-0.794197363,0.4436310112,1.0816066899,0.876566695,-1.0776719881,0.0545396629,-0.7572916555,1.3398862397,1.1464421552,0.726316598,0.8435162976,-0.5062821003,-0.6541553107,0.5143486595,0.2842379309,-0.2802126462,0.254600617,0.5906445292,1.0998415039,-0.4891345827,0.4828352971,-0.1354700734,0.5554160776,-0.4318254938,0.4083570881,0.2755624959,0.1467668991,-0.8485966722,0.1003340715,0.1677084532,-0.3617903506,-0.4040977081,0.5981072077,0.8226773704,-0.0103189366,-1.0155473905,0.7822984185,-1.3595714648,-0.3327823474,-1.3168010112,-0.6340702413,-0.2144593622,-0.6160885228,-0.4230159498,-0.5978166568,-0.1518212942,-0.5200784489,0.0828326616,0.2705202157,0.6677764919,-1.5293807118,-0.9260926013,-0.2474162256,1.1513737792,0.8485674098,-0.9975983009,-0.001071726,0.0282545611,0.4653930846,0.925491547,0.5936179554,-1.6030520034,-0.045001735,0.2001929137,0.554775597,-0.4989063165,0.6779615663,-0.0094153978,0.9370640248,-1.0984231555,1.1140526195,-0.2694571571,-0.538530506,-0.0203778127,0.5383046947,0.7117707849,0.5372023084,0.1579549131,0.5657455071,0.4187549982,0.2043304373,0.1055408507,0.5502713616,-0.7885490797,0.0124467593,-0.1043780871,0.6381420388,-0.4817971918,-0.5609199311,-1.0370119988,-0.6901339496,-0.3989908828,-0.937039417,0.0483993135,-0.5243068214,0.3752646335,1.0033962371,-0.7265593513,0.8740839088,0.2475967575,-0.6527553749,0.1638915907,-0.1943866448,-0.2352369032,-1.0170173195,0.9865182691,-0.3783564272,0.5367124387,-0.3877291271,-0.6197095178,0.4149555734,0.3114976943,-0.393192632,-0.8084642257,-0.8744935125,-1.9016163519,4.5642044081,-0.2300939302,0.5698987105,-0.8528391903,-0.2624901627,-0.0381648643,0.4892579154,-0.0658442393,0.3821643735,0.2910876535,0.8303368358,0.5436447412,-0.638208215,-0.9746341674,-0.2880803692,0.4172654397,0.4341442513,0.0742139571,-0.1424924239,-0.4461543748,0.7858670057,0.4069750081,0.2859037523,0.4405101567,0.0921712445,0.275119247,0.5542746159,0.9537229444,-0.6296104096,0.7676178316,1.1269989756,0.2050147922,-0.2181448738,-0.3608075119,0.0478207193,-0.5936806834,-0.5831906498,-0.6535052226,-0.0752519615,-0.8756328159,-0.0596058593,0.0500770709,-0.6007634315,0.8551438136,0.494996904,-0.8727105881,-0.5762257102,0.3024413508,0.385644111,0.628767175,-0.7535452287,0.8720438079,-0.1278333293,0.4899636058,-0.3293728427,0.0493170499,0.9612591424,-0.4747148297,-0.3417353951,0.2140588849,-0.1571018914,0.744454614,0.985899065,-0.8062794496,0.5282413321,0.8761348044,0.4185350455,-0.0953150165,-0.5509631596,0.5752297793,0.69883014,1.1125809076,0.8830118517,0.2967077067,0.7241425692,-0.1139339596,-0.0044669466,-0.6569465847,-0.3677388915,-0.9419801268,-0.5727749031,-0.2477985927,0.3058138414,0.1150803679,-0.7721446089,-0.1808312594,-0.3011753076,-0.8261740825,0.5129490585,0.7059365465,-0.4426671046,0.3637905858,0.2049340341,0.8960058023,-0.085687176,0.6979162796,0.1698578883,0.3310540025,0.1864668658,-0.0612007633,-0.1187108297,0.8660154923,0.0568733002,-0.1062989139,-0.9697034007,-0.9087574205,0.478519882,-0.8230823353,-0.5271242662,0.0804149412,0.152142277,0.6221346047,0.1008119774,-0.2972549369,-0.7595300817,0.4914241536,0.8603754861,-0.9346778975,0.8822211187,0.9489646254,0.3466517705,0.1587005098,0.5247983643,-0.3608626845,0.1957497792,0.029427042,-0.4308305955,-1.0068719592,0.7256699113,0.1976886441,0.2528589122,0.2505743837,-0.1963661174,0.2017896994,-0.4785322531,0.8866174791,0.2085568764,-0.0520801585,1.0306253195,0.6313430355,0.5516921601,-0.206783727,-0.66162591,-0.8868095897,-0.7828113977,-0.947542596,0.1637447474,0.8157885267,-0.2403873777,0.422108756,-0.4871832824,0.3756331085,0.8368841458,0.4985977917,-0.9464596064,0.4663456883,-0.4280760625,-1.0040181765,-1.0304796563,0.5085951796,0.3689354446,0.6897067951,0.0319000455,0.5694220454,-0.8064451885,-0.2551245788,0.3682011606,0.7650633563,0.3693871876,-0.2678901164,1.0131921679,1.0668934966,-0.6956256941,0.7929484036,-0.5632024064,0.1934970362,0.2275889543,-0.6128701144,-0.6906880021,0.3147115826,0.5366947347,0.2431331559,0.848686798,-0.7065821211,0.4878758394,0.3503388982,-0.7804554077,-0.254762294,0.3033050965,0.3267680626,1.3109535353,-0.0238709629,-0.067772263,-0.9838602433,0.1164373365,-0.3965479861,0.281126041,-0.8084788609,0.8778039355,0.0546262196,0.6423582756,0.8200597988,0.5417492355,1.0073922614,-0.2610319823,-0.9221930528,-0.0698169342,0.095710815,-0.1207050265,-0.4028787641,0.3415734017,0.7346562784,-1.6555771507,-0.759143436,0.7820838813,0.8369603339,-0.716513516,0.8962778684,0.0979001326,0.0516043525,-0.3199303869,1.0710035808,0.0595069302,1.3255014546,0.8126329162,0.6684444738,0.0425699187,-0.3802290082,0.1769454531,-0.2176028245,0.9813402703,0.7129262931,-0.4320245379,-0.7624778783,-0.3975274084,-0.0163128325,0.7634573316,-0.5479476136,-0.2481643553,-0.2226744414,1.0712421642,-0.1575215023,0.6227298403,-0.3303571908,-0.1186966607,-0.3394260467,0.6674984222,0.7270404923,0.8088721868,-0.5260349205,-0.9269340833,-0.0280999309,-0.8293227877,0.0029698326,-0.2312585673,-1.0822665188,0.1239333522,-0.6862689357,-0.4237184866,0.5001753161,-0.6429961829,0.236555293,-0.9158472461,-0.0986550252,0.6564364849,-0.0189997391,0.804525894,-0.4708835487,0.3342626878,0.0678122885,0.0689833049,0.3192356239,-0.3092736661,-0.6232082726,-0.4347287626,-0.5382270085,0.7386092589,0.5874020934,-0.1304013718,0.1756190921,-0.5813170242,-0.1484619421,-0.2862494721,0.3622915879,0.738485791,0.9559776201,1.0893284827,-0.9413244015,-4.5031971791,-0.7015738449,0.7294873914,-1.0837310651,0.0531843203,0.0234870112,-0.569246606,0.8054249246,-0.4364044554,-0.0265566622,-0.3857184733,-0.0794739226,-0.3765963042,-0.2605677927,0.6339914134,0.1634161831,0.7861608898,-0.4091070489,-0.8134323586,-0.0647822153,-0.4951160829,0.9627072824,-0.1492545021,-1.1194936577,0.2422143786,0.2119398912,0.1138960765,0.6455584315,0.5269605844,-0.6815265637,-0.446199154,-0.9881698397,-0.6430293867,-0.8012858593,0.678569312,-0.3306317569,0.6593372013,1.0193830409,0.0766973144,0.6519407205,-0.2380241228,-0.7115151802,0.5662235293,0.3525216184,-0.7623058102,-0.5277610772,0.6561469839,-0.7338641678,-1.0345965768,0.2692849681,0.3207081645,0.6032136517,0.7513635604,0.824445795,0.5742541974,0.5155908618,-0.7203453387,-0.2272789695,-0.1053726061,-0.5597258187,-0.1672151473,0.7526217112,-0.3102945632,1.0175633065,-0.6990544837,0.1600738175,1.0891385576,0.4914187421,-0.2956579152,0.5984912605,-0.0177601429,-0.4728970485,0.3712748454,0.0464665123,-0.8953599972,-0.3349546974,-0.7451258892,0.3058318483,-0.5996307209,-0.1747118291,0.8214540912,0.230372882,-0.7342380764,0.2238140052,-0.8076568496,-0.3382203884,0.606022779,-0.0398259286,0.40731142,0.3933379619,0.1116584303,0.4451650935,0.0805690202,0.162500494,0.7654244309,-0.2656999279,-0.1537523041,-0.662519474,-1.0205742953,0.6964556025,0.2090491189,-1.1212862091,-0.2634887623,0.2509761492,-0.761537916,-0.4559070303,-0.560126151,-1.1764813749,0.0562152653,-0.8415707065,-0.148628288,0.0849628585,-0.8388925962,-1.0349060583,0.0177017547,-0.497896208,-0.7823356961,0.4197147737,-0.2503365747,-0.7460598689,0.2617610376,-0.7580214161,0.5163344361,-0.620606069,0.2476876814,0.4567560593,0.3510838193,0.7561379516,-0.0011008772,-0.3255474,-0.8126865369,0.5385997863,-0.6212079397,-0.8372342907,0.178740947,0.0810406263,-0.7899492706,-0.9198423661,-0.5081026032,-0.2040120828,-0.3279406593,-0.3634620672,0.9482993628,-0.9419872145,-1.0699534798,0.2227218362,-0.7790018557,-0.5866909977,0.691759055,-0.5667764914,0.8179704205,-0.4323901197,0.7925560012,-0.035871257,-0.4119091301,-1.1264531281,0.3174986807,-0.3852848771,-0.6551429964,-1.1278053526,0.3031131537,-0.0919546118,-0.2773769486,0.6560711599,-0.7328301492
   0.6287971362,0.1943887351,-0.6398264687,-0.4012223471,-0.9454907169,-0.5406694098,0.439065975,-0.9557569946,-0.0615057195,0.1073323582,-0.6674626454,0.0187342819,0.0514705499,0.2899519713,-0.217044518,-0.5228580623,-0.5636106469,0.3282360114,0.3182230479,-0.1486826084,-0.8947241895,0.6015741136,-0.8328144106,0.0442949572,0.0703063463,0.5834693557,-0.5003890046,-0.1624971505,-0.5609721707,-0.0777410448,0.4151691736,-0.3409875131,1.3001322269,0.3980315815,0.0948254709,-0.0976587873,-0.7112218633,0.8050498365,0.6350187747,-0.8493992724,-0.5512651333,-0.7013239923,0.7083015619,-0.1124064621,-0.1365847406,-0.9489440889,-0.7198795668,0.2406804638,-0.2839975263,-0.7626934846,-0.9132950246,-0.5732250566,-0.1055594986,-1.0599053152,-0.8453093939,0.7983710588,0.6745959321,-0.742259361,-0.0990832091,1.0799458029,-0.1173629984,0.1127469485,0.3743689579,0.7736014038,0.6256298385,0.955583026,0.5144157161,-0.2887009272,-0.3696979216,-0.7511035998,1.3910542106,0.1580554085,-0.3502981455,-0.145027972,-0.3600812648,0.0184694227,0.4032805739,0.7205514523,0.375453696,-0.7621567581,-0.2542412041,0.0593144954,0.2317466229,0.7764465339,0.3792159008,-0.6339061024,-0.8404515809,-0.0207279498,-0.1891709328,-0.0925615099,-0.0599868065,-0.6926715988,-0.4480220269,-0.6518806913,-0.2890961615,0.4237642583,0.2119497376,0.2306075824,0.7025960225,-0.7406196617,-0.3078191065,-0.7424842105,-0.1476073409,0.6925203168,0.4004906981,0.8319497192,0.4988413742,-0.8228694424,0.0029646105,0.7665442449,-0.0087703396,-0.0323012588,-0.051334935,-0.2546159382,0.3708750208,-0.4217065602,-1.1267293464,-0.8534500166,-0.8138833416,-0.0892300632,0.8742398065,2.4550016701,0.7850348677,0.2920175526,0.7009521239,0.1103367568,0.6003839963,2.7219166847,0.8488315854,0.8405873419,-0.5545596718,0.7205744814,-0.109526586,0.7197380194,-0.2288208496,-1.3361384429,-0.92499312,-1.2831959662,2.3695785248,-0.4337930008,0.6663965232,-0.4218750975,0.7159451017,-0.4148556679,0.6770296414,0.7316996812,-0.5345818917,0.1061473583,-0.2552190587,1.1422879541,-0.384519091,0.1918178937,-1.0620066853,0.3812192585,-0.3166113058,-0.3995167251,0.2096782396,-1.6518359314,-0.7178968975,1.866724398,-0.5641142805,-0.8674748164,-0.1073000263,-0.378420504,-0.1211525969,0.1241441271,-0.452055794,-0.8722405142,-0.4004059242,0.1507823336,0.3681748906,-0.6344786778,-0.0426668176,0.1247478343,0.4461517666,0.1952036284,-0.1388639769,-0.9526904526,-0.7842273156,0.987030801,0.6449493395,-1.331063842,-1.0521139919,-0.4535899204,-0.3739797192,-0.7656632892,0.2437976818,-0.8423961184,-0.8574267378,0.660953023,-0.4832818805,0.0890380367,-0.6542360819,-0.6838679974,-0.0365817028,-0.4054802327,0.9540396576,-0.5695115631,0.1312040301,0.2354607654,-0.782541877,-0.9269107279,0.8899371423,0.1356221365,0.5365238221,0.4054590199,0.29973728,-0.0985174032,-0.0955585764,-0.3907891208,0.4256567487,-0.1182938212,0.3339098158,-0.6132561037,0.1422521394,-1.116972,-0.2545138229,-0.1921936448,-0.1347458409,0.2284087928,-0.1030579534,-0.240951298,-0.3819967768,-0.4757827977,3.2132870286,1.0449314684,1.2440697596,0.6114859539,-0.6044400418,0.1988241754,0.5904695793,0.3577663793,-0.570371717,-0.3224363124,-0.6400405998,1.1458473993,-0.4625551797,0.8585649546,0.861847299,-1.4740664138,-0.2963195952,-1.0020208511,0.3959904917,-0.6538795939,1.0960185249,0.618755517,0.8352797595,-0.7916666117,0.7366183025,0.3619463647,0.8300846714,0.9887949744,2.8422518976,0.5908346586,-0.8069476713,1.0954413015,-0.8365598729,0.1761534508,-0.5116229146,-0.6516433268,0.0390680457,-0.9278726058,-0.5607936801,1.0318284614,-0.5179481105,0.2088283733,-0.2318446176,0.1853890036,-0.9192041312,0.379227205,-0.5997097756,-0.2508876961,-0.0241469947,-0.0645554048,-0.7272752283,-0.433292719,0.7757624372,0.5739995813,0.3998305212,0.6381982019,0.4620568538,0.2191756274,1.0578168824,-0.7687177262,0.6547136514,-0.7195759113,0.1758003812,1.0314591264,0.8962412218,-0.0394437045,0.729608514,0.0976093815,-0.5860365487,-0.0643602504,0.6283457657,0.2215710648,0.1919024197,-0.3767054298,0.9489378433,-0.4047940058,0.7985116774,0.3281344245,-0.4100620992,-0.3821279569,-0.066641474,0.0366319564,-0.8864366343,-0.5511435573,0.5049416199,0.3391853021,-0.0188042121,0.8267182574,-0.9652907344,-0.1247609993,0.051062764,0.5381422707,-0.7362304455,0.8651713923,0.0665016635,-0.3865612245,-0.2855600746,0.7188697351,0.3157388421,0.5907665511,0.181159935,-0.3462939261,-0.5520135567,0.5158425512,0.9086695586,0.013187342,1.2578844198,0.8821550673,0.5632663639,1.2527743582,-0.5750363242,0.8341209394,0.792095623,-0.6699413099,-0.3379828633,1.2757577394,0.4026424948,-0.5618655584,-0.8781138343,0.6423030184,-0.0696250595,-0.5163533536,-0.8961115811,1.019204179,-0.5363275773,-0.4084176802,0.131461995,-1.7875905705,0.9310751741,-0.4969252284,-0.7476744237,0.0794449974,0.1846707788,0.799315311,-0.5606275811,0.5454934394,0.8236224713,-0.6892552977,0.4224901497,0.5685331029,-0.2238941315,-0.043541789,0.6600444596,0.5728849893,3.482615544,-0.6212584601,1.1257927986,-0.8636428159,2.5200018524,-0.4225528825,-0.6804813156,0.6713207085,-0.0577120279,0.6747676896,-1.0666623382,-0.6430263892,0.0832193065,-0.2324475638,-0.2318801646,0.0555439604,0.5905715835,1.028429014,-0.6616560297,-0.3337408282,-0.2573765758,0.6529154762,-0.9800504939,-1.7686134413,0.0704034446,-0.635421355,0.1765970789,-0.4879858233,-1.0433169364,-0.7999992187,-0.7455460793,-0.6201199527,0.3400831284,-0.4221443571,-0.4768541312,-1.0534102785,-1.0602384032,0.885559597,0.9644885119,1.2127408189,-0.7042827577,0.8097640328,-0.1896051271,0.0066384859,-0.0941246071,0.0553644465,0.631670275,0.3686826999,0.111212224,-0.3496570332,-0.0195520969,-1.5291748499,-0.0572429698,-2.4506589352,-0.570349912,1.0727147234,0.7400988207,0.1956856935,-0.2270099855,0.3505896218,-0.0575896183,0.47507737,-0.8627827496,0.2567832522,-0.0266388688,1.1364712386,0.3540277195,0.3193199267,0.4103936069,0.3703157752,-0.8265899761,0.2833906872,-0.206729547,-0.7806312261,-0.4016952515,1.1891452956,0.5885906953,0.2911729281,-0.7611709876,-0.1555322415,0.7481470319,-0.6867248335,0.9413172237,0.5260122156,0.299008735,0.8405822048,-0.772789895,0.7087460672,0.318702699,-0.8191086321,2.2952025878,0.3961163207,0.6652521277,-0.999304525,-0.5873888534,0.6392805029,0.7504998032,1.1130692216,0.6921216778,-0.5726250335,0.8931008861,0.4621144464,-0.4100698504,-0.1754664158,0.8662588542,0.2052295882,-0.069503032,0.3236276031,0.7400876283,0.6996276617,1.0683952555,-0.2199908937,1.4725726259,-0.5650258843,0.9205361543,-0.5342578714,-0.3481508178,0.6955371355,-0.1975848898,-0.906680248,-0.006836459,0.5263544628,-0.6022935562,0.923203901,0.788060171,-0.6935706052,-0.9941507819,0.0297637565,-0.8438091676,0.147949172,-0.2678053919,-0.7594130612,-0.5468899397,-0.5111081898,1.0677533631,-0.6326988438,0.665259832,-0.8205441276,-0.7584141659,-0.1930107798,-1.2300423339,0.9099664256,0.5757656821,0.1303195262,-0.8685679305,-1.080174751,0.9110808079,0.1496383989,-0.9296419778,0.3518139365,0.4745073004,-0.3810154148,0.6751129866,0.9112110392,0.7063742177,0.1065714364,-0.3053768946,0.1006860162,-1.4386972945,-0.7632371884,-0.7444230446,0.8661427788,0.6507165938,1.1442747112,1.0389531411,0.6413353338,0.3015292399,-0.5820024452,0.3814826955,-0.445213856,0.3114928512,-0.3318357553,-0.5102999688,0.4225100254,0.8866033708,-0.8483115357,-0.3303111251,0.8480362141,-0.2110894779,0.0189318861,-0.6481212073,0.0481570566,0.3608097154,-0.5749168906,-0.99914963,-0.2858490673,-0.3655152395,0.0782004293,0.6014513555,-0.5192580629,0.9042620471,-0.4217024549,-0.974363494,-0.5542648595,1.1789743991,0.1431630322,-0.861086188,1.0477516035,-0.1872213098,-0.5187746943,-0.3021125932,0.9072514469,0.9476998429,0.2194266308,0.8842581022,-0.3599861958,-0.7430761266,-0.4313407915,-0.1024874874,-0.1059185699,1.490427289,0.1596653094,-0.2183778636,-0.5904710014,-0.2452743043,0.0056361137,1.0434526077,-0.4398977442,0.6777352895,0.6148476361,0.8951034623,-0.3673238622,0.1702355034,0.2616911422,-0.0138501105,0.9812808531,0.9838614057,1.0528673458,0.002802455,0.127869234,-0.3359542263,0.7663941017,0.6774375776,-0.9276879122,-0.5496867004,-0.422935157,0.9317829323,-0.0312625886,0.0193751135,0.0942673494,-0.6783541521,1.0420224824,-0.2021441348,0.8797324602,0.2139376609,-0.6297080339,0.5506902158,0.3739454806,0.321714235,0.7295867595,0.0270429577,0.4927415008,-0.1786555168,1.1967722355,-1.5581617734,0.9715242221,0.822429958,-0.217051397,0.0249335663,0.3315495833,0.4283283801,0.631938991,-0.1403857761,-0.5473203856,0.6357991406,-0.8603351393,-0.6388564626,-0.6811409334,0.2425106441,-0.0144678564,-0.3805995471,0.005100046,0.3006797778,-0.2852751101,0.0698066297,-0.3459196152,-0.2394398204,0.8589437346,1.1284631173,1.1653782066,-0.124783174,0.713767073,0.2239093803,-0.3476147908,0.2442411215,-0.0403485861,0.444577093,-0.5974700984,-0.5984622715,-0.6259859742,-0.2832504878,0.6533984382,0.4904815025,0.4729653212,0.9587744524,0.7666061898,0.4214948038,0.4362628445,0.5814877652,-0.3807355658,-0.3447785528,-0.7688103237,-1.050762044,-0.8791812799,-0.5179349184,0.3976412855,0.4676261691,-0.0924588766,0.203973078,0.6154531781,-0.823462359,-1.146513843,0.4247048124,-0.735701315,0.1960518426,1.1518133348,-0.7282529972,0.2686486392,-0.9674634997,-1.1918671446,0.4421202955,-0.6509697267,0.5960580354,0.418167452,-0.2817507419,-0.0899476825,1.2407386059,0.3885717842,-0.4336620995,0.1998440909,0.8779851813,0.5845996413,0.9731428559,0.8533237772,0.0238269613,0.3274382002,-0.2377044629,-0.1391979742,-1.0398468155,0.0599958255,-0.8427605889,-0.1966159705,0.0109461798,0.3260778617,0.4897124955,-1.1644976584,-0.6523965638,-1.3219146471,0.9332039725,-0.1601210422,0.1702499198,-0.2934324606,-0.6285547961,1.0680931714,-1.1173010244,-0.4130603638,-0.6593154411,-0.4019961507,-0.315607512,0.123188437,0.2657998451,-1.7749267297,-0.3956821592,0.506983643,-0.6531109889,0.037299112,-0.0275825401,0.4230917161,1.0416959224,0.2868722108,-6.0149107108,0.3580046933,-0.7058788184,0.5546384509,-1.3436521512,0.2597705732,0.3186461334,0.8582182156,0.3042271974,0.7511705721,0.5816532605,0.854019745,1.4146025335,-1.4497284431,0.7154761612,0.3979606079,-0.6174830371,0.3684483319,-0.5419320859,-1.0555069974,-0.5032392064,-1.8798988851,-1.1280066139,0.244742527,-0.378880885,-1.3829442714,-0.7204129156,0.2178519268,1.2821378745,0.2392161961,0.1344253851,-0.1395539447,-0.7218375571,-0.3685666631,1.2036109408,0.678803442,-1.1311473228,-1.7079756979,1.1160074663,0.6408975661,0.0870012424,0.3992245683,0.7655511087,-0.8778549568,0.9702445002,-0.2050403838,-0.7304613571,0.7336837796,1.0686438255,-0.2874198587,0.8847422954,-0.1470308555,-0.7652022277,-0.1359991876,-0.317306331,0.4983496718,-0.3515772591,0.1773767953,0.9939011371,1.2377011388,-0.5095767499,-0.1205807969,-0.5062470833,1.1603572773,1.1050766232,-1.1527814255,0.1053845003,-0.1156439684,0.6527061115,-1.0357185581,-0.1342127737,0.4583422776,-0.6730071751,-0.8931826781,0.3117204208,1.2679285113,0.3559027792,0.0141451434,-0.9985317356,-0.9933437597,0.6634476864,-0.7563386018,-0.5844940729,-0.1284656099,0.6845025157,-0.0255931563,0.1186367919,1.0788618792,1.1092222777,1.0806296315,0.7162952517,0.1146303445,0.5227569654,1.0316075798,0.2660463991,-1.2902340175,-0.6673941235,-0.0207251408,1.6656516823,0.5656625231,0.5755118093,0.4880004345,0.345157451,8.47610954,0.3105009807,-0.0087874892,0.0767735651,0.3868834022,0.9988068938,-0.9061462093,-0.9055348689,0.6912618108,0.1060395002,0.0861504352,-1.1674866655,-1.0561340093,0.4798413702,0.1689991923,-1.1809385884,-1.658891438,-0.1673411186,1.1532034206,-0.056934581,-0.4693298676,-0.187670044,0.5356307148,-2.0270121519,-0.5758966807,-0.5892563626,-0.9716087042,-1.5881600269,1.0681587713,0.2858874956,-0.5195538328,0.3278856233,-1.0094775079,1.2386651859,0.043161756,-1.2166243723,-1.7865496633,-0.9637330891,-0.3921910935,-0.0129124824,0.8933097775,-0.828702637,1.0586324194,-0.1436090451,-0.6315821316,-0.2227857045,0.5062201183,0.859257881,-1.1756480535,0.9798229757,-0.0136526379,0.2999447481,0.2117833135,0.5837717774,-0.7110531343,0.2702833115,-0.7904928657,-0.1191853847,-1.6573894566,-0.9411099745,1.1972849226,-0.3999994364,0.1887352649,1.1924303691,0.4483488987,0.5868124099,-0.5034977901,-1.3559400865,0.1105389952,-0.1711649569,-0.6157953856,0.6754109963,-0.9290842296,0.5401857878,-0.5362996778,0.5685979896,0.5880283371,-0.1796735807,-0.6266534505,-0.6057366569,-0.3034849606,0.21102798,1.1381502213,0.8433706988,-0.2978155815,-0.0015449383,-0.2559630666,-0.5133515812,-0.4647865984,-0.5501837632,0.0056121246,-1.3332297,-0.8597350139,-0.177548743,-0.455579801,0.4458547799,0.7421278767,0.5919917701,0.7773353049,0.1626117813,-0.2455752286,0.702715701,-0.1041651306,-0.484590095,-0.5095478596,0.449758309,-0.8292349642,-0.4202498469,-0.3033079894,-1.0845474466,-0.6541394106,-0.5171347497,-0.182291622,-0.6921827307,-0.1030911742,-0.1672652816,0.1301815535,-0.4139160771,1.147024108,0.2330611601,0.3969207415,-0.8175703779,-0.5488057405,0.5631550818,0.3796986823,-0.8466112099,0.3864163791,0.2756929359,-0.6603091303,-0.8856755345,-0.1448748975,-0.6613510415,-0.1988856394,-0.0366171784,0.7293147724,1.2407150845,-0.6283677163,0.2935224831,-0.3353375174,1.089311777,-0.1387443384,-0.2729455802,0.1540757463,0.4347306665,-0.8111271657,1.4466074899,0.5453360468,0.6544126196,-2.0986956475,-0.8408180544,0.8129532557,0.4663012584,-0.4941650855,0.0534614331,0.1681087828,0.9144182965,1.195573008,-0.2474324583,0.4666110374,-1.3736503161,0.8123395667,0.4824463733,0.0485930325,-1.1507011239,1.3559179484,-0.7829545835,0.3748259332,0.4970904947,0.8443390852,0.5882613498,-0.7927180071,-0.3075138619,-0.1890530294,0.7791735961,-0.5476150648,-0.0345883664,-0.7695267058,0.8136280738,-0.1480292045,0.4779291611,-0.1039665767,0.2981028064,5.3222366297,0.5220132117,-0.6859648537,-0.1244773051,-0.545563719,-0.7544651418,-0.7073366615,-2.1463214621,-0.284419305,0.0258770444,0.7162804569,-0.3586250728,-0.9591906935,1.1908112878,0.5266226613,-0.1053096898,-35.4661014569,-1.4064445452,1.0597071412,-0.9586411942,-0.1762775333,0.9272674009,-0.151795016,-0.2105684307,-0.8876507278,0.1207733624,-1.1637600985,0.7205296116,-0.8840211078,4.2387038596,-0.104067814,-1.0753863656,0.6133299737,-0.5313765622,-0.1315834065,-0.7200069418,-0.5459618411,-0.3570393969,-0.851820854,-3.2962673241,1.023859761,-0.0415249603,-0.1875904182,-0.162146499,0.3129016888,0.0579477751,-0.6603287095,0.2668069723,-0.0033815666,-0.8703475307,1.1037585373,-1.0865114735,-0.9377709638,0.0057245526,-0.1450100597,-0.4940780634,-0.6023346151,-0.7194100479,0.6461983913,-0.601068226,3.4079179392,-0.1373545163,-0.915940836,0.2009847288,0.5770578139,-0.8925388086,0.8623204074,-0.4456379146,0.4814866207,-1.1154150214,-1.0016988474,0.5437759975,-0.4955902998,-0.0481513283,-0.5435779728,-0.8974120887,0.2506281883,-0.8773970725,0.4554405892,0.8054285651,0.1133649858,-0.4268079739,-0.1361647233,-0.4909038481,1.000312504,0.3376306251,-0.0742870503,0.4378315031,-0.6660000344,-1.1281875488,-0.2777160306,0.5462503033,-0.5668769945,0.8718839619,0.4952201406,0.6198317312,0.1485270247,0.4833264762,-1.1368805828,-0.7186931595,0.6597772522,-0.0842938088,-0.6579170597,-1.0028685305,0.4795788459,1.0666767706,0.3979984319,0.5519400407,0.1951732474,-0.3631466744,0.4638129304,0.706154968,-0.3890359773,1.0455818116,1.5996394878,-0.3977273488,0.1487320857,-0.2403657117,-0.339167082,0.896058825,1.1321272514,-1.1120194177,0.4179118471,-0.5588691145,0.3173822162,-0.6121971969,0.2023980501,-0.7298027545,0.5770629173,-0.5774780215,-0.8597133496,0.4456543722,-0.4497635121,-0.6275099903,0.2447914725,0.3925083656,0.3405505227,0.3193492698,2.1951881933,-0.4542458475,0.077235198,0.1477816281,-0.5175548086,0.8757246936,-1.0263498508,-0.9387613742,0.2882420972,-0.2256127478,-0.5108737838,-0.7949512625,-0.0161075945,0.295547268,0.5524076733,-0.4449935072,-0.6439404708,-1.6175075616,0.7240824489,-0.614118279,0.0893548265,0.3294455376,0.1661839943,0.3643680538,0.6526095878,-0.5176006472,0.1046211202,0.6076503257,-0.5182177109,-0.2670886022,0.8224504514,-0.4858463968,0.5256713105,0.6615314091,0.6904243306,-0.9376844621,-0.550387809,-0.1023153716,-0.0310809379,-1.1185498873,-0.0373138681,-0.5691350775,0.8147326504,-0.6650322596,0.5863976193,-0.7754478257,-0.1726667495,0.355788887,-0.4307954682,-0.6889462048,-0.1827996533,1.4965087893,-0.0265665891,0.8205418176,0.0486257783,-0.8554929647,0.2570270397,0.5164535001,0.7519895198,0.1852411305,1.0875299434,0.3849317188,-3.7471756977,1.0076504489,0.1736091851,0.1957808688,0.9125931823,0.6083901882,0.3970548747,0.0356020287,-0.4171014123,0.2626178614,-0.3721301916,0.3017184277,0.174498623,-0.0448490794,0.7556641735,0.2852709295,0.650899958,-0.7283894225,-0.035135901,1.0833594775,0.7660999866,-0.2241570911,0.0382810753,-0.648437751,0.5310330278,0.3274393482,0.7984619864,0.162731575,0.0621688701,-2.3724891803,0.7288372015,0.029261547,-1.2462330818,-0.3711184606,-0.771875629,0.1920160449,0.8747669896,-0.7353370157,0.7806483521,-0.1913009784,0.7164208325,-0.4481086437,-0.5145731121,0.0870720612,0.6279840235,0.5804618809,0.5909411055,-0.1292050228,-0.4882451705,1.207179498,-0.0899589446,0.7619415368,0.4144050105,0.4917292808,1.006008238,-0.5001201585,0.8291821538,0.8868808872,-0.6960206807,0.45794565,0.962872035,1.0844400278,-0.4206120858,-0.4165227241,0.3144975546,0.9822009026,-0.6253726667,-0.5324320975,-1.1338871863,0.8928486028,0.5447562762,-0.4417497923,0.307166008,-0.9553122189,-0.1000705621,1.2397932283,0.2170079832,0.4114925825,-1.1652444647,0.6590431543,-0.0067530136,-0.7108936659,-0.0329524205,0.1925429539,-0.0341517014,0.1947512925,-0.2942393511,-0.1715755086,0.184428951,-0.54017453,0.45633191,0.5790057513,-3.0167907983,-1.0128899886,1.0629566056,-0.6311649301,-0.5442042461,-0.2157398024,-0.407904243,-0.2711600111,0.2426639278,-0.1780005622,1.6716650825,0.7684333825,0.9702432831,-0.014707419,-0.9855761304,0.7761220226,-1.2081697924,-0.4364686449,1.0048043611,-0.5526311262,0.479336834,-1.2732957876,0.6607018465,0.3152294849,-0.8482212648,0.9899598408,-0.7488359641,-0.4358593973,0.0928993396,-0.7880771818,3.9735145811,0.2378278884,0.8988591723,-0.9110020442,0.3227181904,-0.0846388841,-0.7167593879,-1.3355406685,0.9241471895,0.5788067596,0.4902370399,-0.5783055914,-0.2657237489,2.5683773166,0.878204971,0.148259728,1.603639463,-0.9924151234,0.1187225965,-0.8266242426,-1.0249827596,0.0245732363,-1.2784258283,-1.1105166669,-0.1130477005,-0.053375161,-0.10266609,-0.2686535434,-0.6875456795,-0.9200987577,-0.6248983066,0.9652351853,0.468603787,0.463928661,0.9102725433,-0.1375801404,0.1395577281,0.0095063808,0.8732723865,-2.0229514767,0.3636653265,-0.9718501354,-2.1421147652,-0.2972686499,0.2968676614,0.4750105212,0.8384528547,-0.5116826175,0.6383975564,0.3410342804,-0.4121871192,-0.6698883593,-0.3055715743,0.7649200124,-1.0018250851,-0.64138685,0.6230173261,0.2017343491,-0.7742733397,-0.1934093724,0.0706507668,0.3965508608,0.2990250182,-0.9045579677,-0.1163533787,0.3672134591,-0.1299778517,-0.6629820389,0.9404291965,-0.6561784252,-0.4766811691,-0.0913989479,0.9516886214,-0.3262555266,0.8910589429,-0.475491146,-0.926463154,-0.1055488337,-0.9645126651,0.639203562,-0.6881232346,-1.0441113501,-0.8020252226,0.6557840077,-0.7394425859,-0.3723683645,0.2587879457,-0.8340028633,-0.0947931266,-0.5231752839,0.7229784952,0.1473814664,0.4177436081,-0.2393657828,-0.642295582,0.0197150125,-1.0505017215,0.4904623727,-1.8229815039,-0.3830252256,0.0807718583,-0.2238396218,-0.7518799409,0.0739519443,-0.708064949,0.8408586096,0.3011637596,-0.5968566009,0.7069252263,-0.6042411634,-0.4753322998,0.8048221461,-0.2859360334,-1.0325559379,0.5887321676,0.3507259662,-0.3855487166,0.1191079366,0.5611527,0.3307250687,-0.6233597479,-0.1044106652,-0.2273882937,0.0655763144,-0.533595029,-0.0132274138,-0.6074518108,0.1249901734,0.8986682292,0.7871168141,-0.168861423,0.5605866811,-0.4985056103,0.5107873395,-0.5182339802,0.8492575733,2.2238217261,0.7064506952,-0.8446366068,-0.6454630635,0.2564540817,-0.6221978161,-1.0647793376,0.3637589745,0.1619357514,0.1792477365,0.3744819037,1.3806698298,-0.4671860746,0.1936915119,-1.0720288255,-0.8816700522,-0.4411511917,0.0291399441,-0.641003259,0.4816810898,-0.2745665468,-0.5124665651,-0.6848273724,0.624177305,-0.8442668214,-0.1825120046,0.3946081338,0.7686778125,-0.0502385003,-0.2960926023,0.3005543582,-0.5829650376,-0.1758055218,-0.0707861165,-0.2744336308,0.0941127777,0.6284233381,1.0638762848,-0.6615161297,-0.8487504362,0.8635094737,-0.6647814935,0.8320158051,-0.4243965657,-1.0275328988,0.7960787707,0.0247310288,0.7265154074,-0.7613069883,1.0612629149,-1.0580833842,0.8857218063,0.1397499012,1.3374778144,-0.9903671781,-0.5397458121,0.1249239975,-0.2828166379,-0.2132299924,-0.3167408679,-0.0948921767,-0.4260769743,-0.9744472101,-0.4794980301,-0.2375060413,-0.3164834181,-0.2538268918,-0.6973376055,-0.0859173631,-1.0681404511,-0.594785955,1.2360342535,0.0504916204,0.9664295819,-0.680783427,1.2070921605,-0.1830574446,0.3175314706,-0.0854854903,-0.4387221479,-0.5236414947,-0.9165230699,0.3533754094,0.4358943553,0.6726181006,0.4184548435,0.2259192821,0.1444214754,-0.2349747225,-0.1493455907,0.5579711879,-0.5163739035,0.7055047014,-0.4471260706,0.060854309,0.9984395416,-0.556497657,-0.3829917505,0.9007790601,1.135291091,-0.0921889178,-0.7818840933,-0.8561076686,0.5978039884,-0.8046973351,0.324267185,0.4166671771,0.4830595385,0.0349600159,0.4739412096,-0.6455969209,-0.416887387,-0.2083797686,-0.1751604395,-1.1376489546,-1.0225885349,-0.0237187653,0.347274549,0.1488729978,0.3961951902,-0.5945288099,0.2576536786,0.182064294,-0.795600134,-3.2928424812,0.6049386175,1.0059839772,0.1545829721,-0.8767174809,0.7261748537,1.1391580514,0.5678083261,-0.2026305366,0.9120630418,-0.1372539618,0.566184539,0.643245662,-0.0765380526,0.0311631043,-0.8140409037,-0.217627369,0.3351664344,-1.4597018534,-0.0498436039,-0.3135837605,0.1717315952,0.1420265363,-0.8021352849,0.7454981948,0.3014582862,0.197605897,2.3356263942,0.2435256473,0.0018858887,0.1143841605,0.5191317007,-0.3583882953,0.6790419831,-0.1532446656,-0.255576569,2.0297772646,-0.5995726355,-0.8590997188,-1.2614030766,-0.2580185073,0.9937720291,-0.5807738745,0.1707726698,0.0894313867,-1.1924449502,0.3046272075,0.9697709499,-1.2347505294,5.7112435017,-0.9049488563,0.5165902634,0.2866545105,1.2390685737,-0.4801692903,1.3318930525,-0.0348331206,0.0861949565,1.0415691796,-1.0541773878,0.4317702058,0.6363803681,0.3605457402,0.0672932818,-0.4337598138,0.3295299423,0.9005283131,0.6024061179,-0.6295209097,1.302618917,-1.4660991263,1.101982422,1.8500400524,0.7924448565,-0.1977011122,0.4701255518,-0.3511007968,-0.1732024542,0.5567847626,2.1672828456,0.6012067001,0.5543527786,0.8858257273,0.3881556491,0.4015075511,-0.179793304,0.2473324152,1.7011830677,-0.6552536043,-0.1340480315,0.4612607051,-0.0898277613,-0.8126952552,-0.3839650147,0.0513421725,0.8453328252,0.0845345232,-0.8208781608,-1.2023603298,-0.7056557793,-0.232195072,0.7344402675,-0.577651624,0.9748271503,-1.287561635,-0.6446901618,-1.2179323335,-0.5664851184,0.9668619308,-0.2107625663,0.2389565488,-0.6125566929,-1.3468149146,0.4888600764,0.8554660304,-0.2166014451,-1.2784891202,0.9229432492,-1.4705620929,0.5593541419,0.4498274422,0.7603641376,-0.4338206853,0.5599846818,-0.9368775351,0.2200437075,0.7355238226,0.5253377782,0.3410550273,0.5844772855,0.0322417278,1.2530575807,0.9533822048,0.4418105342,-1.0471489973,0.0484722691,0.1831966342,-0.3940680433,-0.0911136509,-4.3268318039,-0.4724114568,-0.1251197676,-0.13552661,1.093106831,0.7213036703,-0.2819851175,-0.0373107204,0.3701960609,0.5790208453,0.7165334452,-0.3283050068,-0.4140495421,0.5209458837,0.1392776377,-0.2937245357,0.6480758014,-0.4488665062,-0.4703279902,0.6666378092,-1.23551771,-1.194656211,0.2048938401,0.0155385561,-0.5853226776,0.6302984669,0.249997232,0.4285502858,-0.1988995642,0.2815805229,0.9909678435,-0.4309246625,1.0035633525,0.0238731894,0.8192574973,-0.3525086231,1.3078623719,0.9203077926,-0.62861432,0.9298577645,-0.1233747219,-0.2356765688,0.2477198734,1.1821080838,0.3054753493,-0.4763569561,0.4320357539,0.5808158507,0.2973736104,0.051364008,-0.7615559159,-0.4785161463,-0.1675872562,1.2396227456,2.0230372451,1.2377883382,-0.0325756239,0.4357786038,0.5814532747,-0.0186418226,0.386505958,-0.3943477056,-1.268268725,-0.0433612584,-0.5205471476,0.4834439231,0.1889746382,0.74357014,-0.0191448546,-0.4322469409,-0.102049346,0.6771201586,0.9871050221,1.0773886082,0.4527932212,-0.471247926,-0.144773384,1.1231439126,-0.4932823246,0.3549583061,0.5175063276,0.4787111736,0.0304465556,0.2686376932,0.0289267893,-0.8774776684,-0.1779339094,0.8238565401,0.7355393591,-0.7996044418,-0.4672251959,-0.4652820098,-0.5476008397,-0.7923009128,-0.7677140708,-0.3112395911,-0.8773280635,0.8068161738,-1.0510672569,-0.7082010994,-0.5861930554,-0.141041672,-0.2580594407,0.7452867419,0.9757073757,1.0029676504,-0.1097791574,-0.6812094916,-0.382300709,-0.1390648595,-0.8562207301,-0.6186644845,0.5686418444,1.3182370584,-1.2746923101,0.8641256468,0.4338159659,0.608005794,-1.258248636,-0.3096324974,-0.0132746326,-0.7056015015,-0.3862434523,1.7510504785,-0.4569563312,-0.9906580149,-0.6326896197,-1.2190866752,0.6549692223,-0.7405850014,0.8909479392,0.32879142,2.0031174619,-0.2406595434,-0.2188782997,-0.6431769361,0.3127406212,-0.7776203991,0.329707111,-0.4324899739,-0.8617593458,0.1789156258,0.223809378,0.5263737608,0.8676703159,-0.8504643669,-1.2040352261,0.6258116023,0.6650760932,0.7474251475,-0.650871995,0.7317840982,-0.0673489335,0.7906577502,0.3171059761,-0.6602519069,-1.4601051235,0.0850884369,0.934305392,0.4849715387,0.4872263203,-0.1920434393,-0.9030850191,0.4861931235,-1.3290976787,0.4320753204,0.1683724288,0.6592613895,0.7224128607,1.0193569249,-0.4434703048,0.2733598703,-0.6233390356,-1.1317060975,1.0513929586,0.2549964499,-0.0848275892,-0.1624120406,0.5536893037,0.9948830298,1.020497315,1.1117223413,-0.9238698173,0.7293985837,0.0134415953,-0.0281423699,0.437366704,0.6405714907,0.672113999,-0.2621552591,-1.065875269,0.8182774348,0.7547543845,0.0563518402,-1.0798473893,0.83728299,0.4339981202,0.5666198224,0.4984970601,-0.3025197137,-0.0602128065,-0.5091829233,0.5209236912,0.7680600479,-0.2862943648,0.773399447,-0.1780506293,0.4085031109,0.5574253898,-0.0635658329,-0.0750672742,-0.0548726239,0.1600720056,0.5990114432,0.6372088887,-0.8218280525,-0.5527155688,-0.9507805428,1.0804324723,-0.835477701,-0.5540767249,0.5252136916,0.2836345544,-0.3174853496,0.1924360052,-0.4727046328,-0.3213339158,0.531958904,1.0432344101,0.4951108531,-0.4154264865,-0.172551597,0.6477476314,0.1061366211,0.5122819942,0.173809798,-1.0081620106,-0.4737885314,0.7974092776,-0.9038896085,-0.0734021713,-1.000346371,-0.5496781356,-0.848204717,0.4158566687,0.4718100494,-0.5122423975,0.1353525882,-0.4286798211,-0.862008912,0.471583466,-1.3031579092,0.5676047979,-0.7484628603,-0.1143229774,0.3675384169,-0.807161423,0.4578406478,-0.7667667848,-0.5281538758,-0.5306025264,0.5486552368,-0.0071116876,-0.2710528945,0.5264710514,0.6343757712,-0.2247447922,-0.0156718608,0.3899125151,-0.2362228493,0.4437193144,-0.3332925166,-0.4628955196,0.590985922,-0.1549623328,0.7576697563,0.7714915662,1.0685703001,0.1560721842,0.6028617772,-0.2848616522,-0.6894263947,-0.5480293065,-0.9420691791,-1.035303635,0.7458660436,0.2441551089,0.9665900521,0.7515636455,0.263472113,-0.4017776499,1.1557620432,-0.1186785183,0.5644172825,0.6931853808,0.8389474638,0.7736814664,-0.4485122462,1.1120501645,-0.2666030012,-0.0574818147,0.5017244867,0.4142067052,-0.8241240285
