encog,BasicNetwork,java,3.3.0,1,1469374825385
[BASIC]
[BASIC:PARAMS]
[BASIC:NETWORK]
beginTraining=0
connectionLimit=0
contextTargetOffset=0,0,0
contextTargetSize=0,0,0
endTraining=2
hasContext=f
inputCount=28
layerCounts=2,16,29
layerFeedCounts=2,15,28
layerContextCount=0,0,0
layerIndex=0,2,18
output=0,0,0,0,0,0,0,0,0,0,0,0,0,0,0,0,0,1,0,0,0,0,0,0,0,0,0,0,0,0,0,0,0,0,0,0,0,0,0,0,0,0,0,0,0,0,1
outputCount=2
weightIndex=0,32,467
weights=-0.6012464355,-0.0769212948,-0.0203040212,-0.3697873375,1.0295203699,0.4043683278,1.5620639962,0.6174961306,-1.6000731143,0.0557639319,0.2046352226,-1.6522164952,0.1394981558,0.8148376601,-0.8834039642,0.1736827644,0.5076356758,-0.1687892724,-0.5356219588,0.2876957196,-0.8559118973,0.6054790679,-1.3658489978,-0.0138712913,1.5850274986,-0.5580391757,-0.329895537,1.2610011769,-0.6288263152,-0.1756012983,-0.5641276941,-0.3432681829,0.0843945464,0.5291978285,-0.8120862073,0.2890983912,0.7466505874,0.15483871,-0.1184794601,0.0673857773,0.6611137915,0.4965620477,0.4994098533,0.6140539143,0.9104404089,0.1582112326,-0.2726567754,0.1347070063,-0.0896138972,0.3029595274,-0.1300004139,1.0118187108,0.2537107572,-0.3505852056,0.5453879787,0.5051152037,-0.8335583601,-0.5141557087,-0.1999405166,0.2845155823,0.4352137238,-0.2276179145,0.7382915275,0.6227410001,0.5651664506,-0.288893219,0.8540202111,-0.895797611,0.7456871799,-0.7113723823,0.3504543212,-0.7694315386,-0.0347099148,0.065530604,0.0867641754,0.4761113624,-0.0560445919,-0.4452254722,-0.2856491499,-0.4919397423,-0.7148104849,0.4621037157,0.7453573141,-0.7071293286,-0.7059003956,0.4184798603,-0.2881823441,-0.6489491329,0.1003465652,-0.6828841651,0.1401075031,0.2925853282,-0.5217702782,0.3038542416,-0.0794322583,-0.32701148,0.5039170309,-0.8067511867,-0.5242433413,-0.1656542331,-0.5886182082,-0.6177110888,-0.9183037934,-0.1123246522,0.3700534056,-0.7047413533,0.4156123235,-0.1011110057,-0.9584985889,-0.8275960897,-0.4517927743,-0.4228469932,-0.8072657039,-0.6889307175,-0.4392242553,-0.8772781823,0.086021316,0.7903011208,0.2344630262,0.8170230325,-0.7957569666,0.4500153834,-0.5988887831,-0.763406725,-0.1702353728,-0.1277241027,-0.4599413552,-0.4966119425,-0.6922277982,-0.3613627939,-0.2952961073,-0.9827201833,-0.1730943415,0.5652913014,-0.528824762,0.5248912537,0.4696593624,0.0955653327,-0.865808505,-0.312324451,-0.9464564893,0.5160498629,-0.3762419002,-0.6064134606,0.7048749273,-0.4781684372,-0.4506449679,0.664824673,-0.6931181984,-0.6540727324,0.1401774533,0.2093437559,-0.3106137876,-0.469008825,-0.6306310947,-0.6925207904,0.8604432822,0.5238236751,0.7533538256,-0.422608052,0.700264741,-0.9495649697,0.8759239355,-0.3356992479,-0.3953701933,0.8035781041,0.2113286359,-0.2095135329,-0.1629064769,0.9710345088,0.5250217717,-0.8010015682,1.045419988,-0.9620809046,0.8833537778,-0.5832797872,0.6543058787,0.7054071277,0.7325491332,-0.4186911665,0.5554667522,0.3527443988,0.75681317,0.3985429414,0.9036777043,0.7647425047,0.6817217842,0.9162713016,-0.1584711831,-0.2861333867,0.8468463175,-0.3997995815,0.5339533084,0.6235439995,0.8288440714,0.9518493527,0.17825362,0.0117643409,-0.1946627746,-0.8285461531,-0.1462745813,-0.8843686334,0.4358436136,-0.7588033413,-0.6420540708,1.0247114846,-0.8002748356,0.0333604473,0.2540546853,-0.9754262487,0.1702716669,1.4685004014,0.4358755532,0.0340707726,0.1172649438,0.2819796535,0.0051669647,-0.0975655741,-0.1723738026,-0.2475805881,-0.4756346896,0.0894133582,-0.0333883897,0.7194495886,0.1861337724,0.1266792937,0.0287495933,1.0186893298,0.0200786669,0.2528446791,-0.220614147,-1.8890497195,-0.7296561472,-1.0048475551,-0.1886462203,-0.0155497777,-0.3530248223,0.1373568994,-0.3787482698,-0.4826904148,0.8942175687,-0.4719801927,-0.3883081574,0.1387442976,0.4698867443,-0.6034658534,-0.345924085,-0.353095761,-0.8042666302,-0.436509024,0.2201328747,-0.1652700804,0.4390077118,-0.848071229,0.3411303693,0.5362327184,0.4862027736,0.6315640304,0.50172397,-0.7523898508,-0.0898322384,0.8039367804,0.3771856853,0.0883538132,-0.0520688799,0.2248763833,0.0256212664,1.0986060145,-0.2063221341,-0.8504665751,0.1482862319,-0.2238936181,0.1742199526,-0.6692360012,-0.2762107106,-0.2057247216,-0.0487586851,-0.4691967404,0.3212131091,-0.2246288192,-0.0924745824,-0.8272030192,0.1271012902,-0.0829109368,0.0521201154,0.5376198543,-0.7794138446,-0.8770104601,-0.9371063213,1.6939276251,-0.1237770997,1.4942806211,0.3289469665,0.8858429164,0.9423097512,-0.7808736096,-0.5815882828,-0.3705773366,0.4278646892,0.7171221823,-0.1557010863,0.9290691301,0.2422382781,0.0895552225,-0.7726351345,0.2568674254,-0.7171082616,0.6023024924,0.9097938624,0.7415914873,0.317217756,-0.002290493,-0.2788142948,0.4861363288,-0.7388724087,0.2162919514,-0.7423787861,-0.4749587058,0.6196899623,-0.4302007491,-0.7438050987,0.8030659554,0.2230007397,-0.5614666957,1.0637938909,0.420899288,0.9684231334,0.4490796481,0.8219039368,-0.350191423,0.7078658255,-0.5968694587,0.0183885732,0.2862292923,-0.2462101337,1.036046806,-0.605772943,-0.4000900408,-0.201737713,-0.0666951468,-0.0066919715,0.5290283381,0.3669497818,0.6104505545,0.3630603939,0.5380534431,0.031084064,-0.0687129924,-0.7118488682,-0.8286770994,0.5616939381,0.9350982238,-0.5119689094,0.284223524,1.1141492521,0.3280235953,-1.2722305757,-0.0557501524,-0.0371177134,0.2912793013,-0.603975076,0.6793143303,-0.1199889249,0.3831950759,-0.6631763717,-0.4939110405,0.1791011777,0.0850897883,0.6722644951,0.0489753591,0.1224448538,0.047734264,-0.7777234681,-1.1417260275,-0.9885167484,-0.531809131,1.00067861,-0.6647726957,1.6921785007,-0.4202281527,-0.1671688183,0.3014144379,-0.8983197404,-0.8228376107,-0.3825783907,-0.4366541422,-0.2384374518,0.063907855,-0.4406275476,-0.3487538035,0.2858983033,0.004792206,0.519295298,0.735600682,-0.6264720211,-0.9675096747,0.0439073464,0.454846644,-0.3014320323,0.4172768367,-0.7160243051,0.6910701119,-0.4848630254,-0.7410361227,-0.8513130723,0.1333043073,0.6005379085,-0.7233620376,-0.5765802555,-0.2620528126,-0.2965307422,-0.1444660072,0.8292188902,0.5263848923,-0.2471034787,-0.7572931086,0.0729388978,0.0379175117,-1.0072908567,0.4939769131,-0.0349080514,0.6245455032,-0.0047411019,0.6155315241,-0.3197731119,0.7460616064,-0.2583857126,-0.0485898993,-0.4239598662,-0.2304471446,0.3615470926,-0.7864913583,0.3506782514,-0.7711822893,-0.7302723847,-0.2601638406,-0.905096373,1.2826410387,0.4169012504,-0.9313693823,-0.349393192,0.718486797,-0.5714610625,-0.7268518274,-0.8393827126,-0.5967627883,0.8679308077,-0.2264824309,0.4290483038,-0.1748021729,-0.0244818547,0.5822812271,-0.0676621984,-0.6052282603,0.4547833411,-0.3432766243,0.0005018397,-0.1495204494,0.3454039146,-0.1347832128,-0.5968643617,-0.8051027306,-0.2861379157,-0.5669627205,-0.2339260415,0.2273391477,-1.0440030106
biasActivation=0,1,1
[BASIC:ACTIVATION]
"org.encog.engine.network.activation.ActivationElliottSymmetric",1
"org.encog.engine.network.activation.ActivationElliottSymmetric",1
"org.encog.engine.network.activation.ActivationLinear"
