encog,BasicNetwork,java,3.3.0,1,1469374922399
[BASIC]
[BASIC:PARAMS]
[BASIC:NETWORK]
beginTraining=0
connectionLimit=0
contextTargetOffset=0,0,0
contextTargetSize=0,0,0
endTraining=2
hasContext=f
inputCount=28
layerCounts=2,16,29
layerFeedCounts=2,15,28
layerContextCount=0,0,0
layerIndex=0,2,18
output=0,0,0,0,0,0,0,0,0,0,0,0,0,0,0,0,0,1,0,0,0,0,0,0,0,0,0,0,0,0,0,0,0,0,0,0,0,0,0,0,0,0,0,0,0,0,1
outputCount=2
weightIndex=0,32,467
weights=-0.6054770402,-0.0874893231,-0.006124078,-0.3676342349,1.0449664444,0.3979965206,1.584289596,0.6180947283,-1.679647972,0.0304294198,0.1791139329,-1.7059345412,0.1409105864,0.8017798838,-0.8755038449,0.1761686238,0.515104013,-0.1462174224,-0.5343951285,0.292562599,-0.8410201257,0.626030245,-1.376526367,-0.0139974572,1.6412897628,-0.5396437632,-0.3123547204,1.2938735822,-0.6311734614,-0.2033816175,-0.5803063104,-0.3182263376,0.0847445437,0.5292909268,-0.8079090686,0.2869586383,0.7503442153,0.1547751003,-0.1167936774,0.0687637542,0.6626592638,0.4990436862,0.5011639958,0.6135932062,0.9082641758,0.1574718943,-0.2696049535,0.1375607566,-0.0917136112,0.3035304134,-0.1274803278,1.0134634524,0.2579956432,-0.3503913727,0.5435643358,0.5041571297,-0.8362193666,-0.5109533687,-0.2033818013,0.2849925108,0.4373817771,-0.2289322512,0.7350425363,0.6183799922,0.5643847347,-0.2908780858,0.851235341,-0.8985012892,0.742679107,-0.7095347655,0.347864969,-0.7726921907,-0.0356145994,0.0645499713,0.0857180626,0.4745828554,-0.0574597321,-0.4444078369,-0.2862807353,-0.4931781419,-0.7144992964,0.4623177233,0.7446056727,-0.7076085976,-0.706309696,0.4177670602,-0.2879163458,-0.6499795373,0.0971444166,-0.6887410002,0.1390411598,0.2880805318,-0.5257395354,0.303402667,-0.0846842965,-0.328696759,0.4994023995,-0.808393785,-0.5264063523,-0.1686349232,-0.5931710013,-0.6206049751,-0.9174279035,-0.1131910354,0.3669303964,-0.7065395835,0.4123880615,-0.1023388036,-0.9600603692,-0.8303146789,-0.4516539842,-0.4235434858,-0.8071463599,-0.689412043,-0.4392768397,-0.8783975579,0.0859789974,0.7872086704,0.2259634575,0.8185439247,-0.7946430923,0.4573012116,-0.6012564495,-0.7559112998,-0.1707768466,-0.1223027502,-0.4570989089,-0.493420931,-0.6892292857,-0.3555197545,-0.2943250901,-0.9834414057,-0.174202336,0.5723535797,-0.5215663886,0.5261272983,0.4701976165,0.1024688197,-0.8593738553,-0.3026887288,-0.9461062736,0.5139994234,-0.3766119942,-0.6091335563,0.7089373708,-0.4820967039,-0.4488699336,0.6719602112,-0.694542128,-0.6762967339,0.1016805653,0.2291018388,-0.3000477579,-0.4644388191,-0.6203298164,-0.6603396021,0.8185635942,0.5080508074,0.7403338711,-0.4094551314,0.7063720602,-0.9499069096,0.8635104622,-0.328083039,-0.3560040158,0.7953815681,0.2130441331,-0.2107645812,-0.1495715175,0.9709999507,0.5450352995,-0.791001644,1.0677948467,-0.9921801168,0.914417055,-0.5817477582,0.6393976702,0.7059552931,0.7328404687,-0.4187019747,0.5559599989,0.3520595437,0.7580502238,0.4004287359,0.9041858249,0.7641288071,0.6833136692,0.9180128527,-0.1582195396,-0.2863515669,0.8473511604,-0.3996822278,0.5331041601,0.6238965446,0.8292274994,0.951679445,0.1773628609,0.0089623366,-0.1941636151,-0.8282199668,-0.1463629001,-0.8837675322,0.4356024948,-0.7578741813,-0.639539238,1.0268828079,-0.7730270774,0.0473026323,0.2328411778,-0.9222724699,0.1534429022,1.4779819257,0.4439367425,0.0442248899,0.0926212558,0.2293177349,0.0030637502,-0.089568947,-0.1536588608,-0.2464246538,-0.4494948245,0.0773936728,-0.0193187473,0.7048448006,0.1709595549,0.1123392574,0.011705092,1.0157396534,0.0584343463,0.2866440308,-0.161870992,-1.9876336151,-0.6722281303,-1.0335388035,-0.1782977777,-0.016262992,-0.3590128359,0.1359724219,-0.3747123154,-0.485279835,0.8974584681,-0.4649333312,-0.3875360734,0.1374413418,0.4690570967,-0.5947108124,-0.3445159696,-0.3544705589,-0.8038804612,-0.4356294647,0.214624544,-0.1684752229,0.4379849095,-0.8460095979,0.3372210424,0.5310705195,0.4875932718,0.6361753532,0.5027897658,-0.7471782116,-0.09657532,0.81162089,0.3834529243,0.0897672482,-0.068828641,0.1953823262,-0.0014223424,1.0323506967,-0.1745459996,-0.8539726362,0.1319297278,-0.2023081394,0.1124278635,-0.6124665876,-0.2715972822,-0.1847114576,-0.0279843888,-0.4680559335,0.2925547085,-0.2030122263,-0.05759405,-0.8098144627,0.1049970649,-0.0852028502,0.0356727193,0.5398116836,-0.8254047272,-0.9125798584,-1.0040064026,1.7941410282,-0.1946389634,1.5191360456,0.323679414,0.8853524,0.9422311644,-0.7764869241,-0.5803486095,-0.3655424924,0.4257722808,0.7152318173,-0.1541179624,0.9276626303,0.2391777394,0.0881423236,-0.7667945687,0.2646167081,-0.7170247611,0.6035823771,0.9125921165,0.7468682106,0.3164529327,-0.0011708884,-0.2728280983,0.4893222596,-0.7393814314,0.2175200861,-0.7404781744,-0.4736286549,0.6187395472,-0.4285625161,-0.7462056817,0.8055043806,0.2233685281,-0.5583667133,1.0652617859,0.4234396867,0.9706193479,0.4499879876,0.8225154282,-0.34566925,0.7049071127,-0.5973680578,0.0223619606,0.2871604462,-0.2369331013,1.0378939354,-0.6008970162,-0.397299257,-0.1899207412,-0.0665486031,-0.0007790244,0.5280907169,0.3646654637,0.610936035,0.3657879324,0.5401681553,0.0339985771,-0.0705769833,-0.7076466788,-0.8269066013,0.5679052134,0.9142369041,-0.4797238912,0.2650498095,1.0636058124,0.2831505629,-1.2793494343,-0.024148569,-0.0189808067,0.2878006772,-0.5567327607,0.672699624,-0.1092652331,0.3608745414,-0.6584356665,-0.4609425681,0.1551481235,0.0746526418,0.6864286013,0.052554155,0.1162408326,0.044402071,-0.7780465364,-1.1821745427,-1.0151141361,-0.5892192567,1.0940140448,-0.725378772,1.7018156537,-0.4133690053,-0.1670165369,0.2947964391,-0.8999369742,-0.8211364499,-0.3856538724,-0.4384083179,-0.2432998828,0.0620934334,-0.4514094895,-0.3516801168,0.280673176,-0.0002671893,0.5172960306,0.7350336274,-0.6264746458,-0.968624584,0.0487524333,0.4535545898,-0.3018454434,0.4112884691,-0.713696115,0.6905828893,-0.4835516369,-0.7409253249,-0.8497958115,0.1296022228,0.6020636477,-0.7257425044,-0.5849133743,-0.2642712312,-0.3016930199,-0.1438857701,0.8363225094,0.5280995202,-0.2466155103,-0.7432291493,0.0727824076,0.0224861364,-1.0120273265,0.4996094039,-0.033980799,0.6206121133,-0.006395757,0.6144148281,-0.3216318918,0.7450533041,-0.2614962001,-0.0461548744,-0.4226600421,-0.2184637557,0.362376815,-0.7810896406,0.3521792201,-0.7641972108,-0.7397374694,-0.2516030111,-0.8985623749,1.2858078053,0.4148720982,-0.9316343401,-0.3498248937,0.7151201841,-0.5713106952,-0.7291632683,-0.8430637062,-0.5986546283,0.8628060035,-0.2289985527,0.4212072845,-0.1788006494,-0.0260612801,0.5808982448,-0.0688794824,-0.60314475,0.4489861988,-0.3438587135,-0.0008617595,-0.1489739866,0.3539867974,-0.1359490479,-0.5987136921,-0.8060922102,-0.2893913104,-0.5646707414,-0.2381042613,0.2213685276,-1.0526536111
biasActivation=0,1,1
[BASIC:ACTIVATION]
"org.encog.engine.network.activation.ActivationElliottSymmetric",1
"org.encog.engine.network.activation.ActivationElliottSymmetric",1
"org.encog.engine.network.activation.ActivationLinear"
