encog,BasicNetwork,java,3.3.0,1,1469375084197
[BASIC]
[BASIC:PARAMS]
[BASIC:NETWORK]
beginTraining=0
connectionLimit=0
contextTargetOffset=0,0,0
contextTargetSize=0,0,0
endTraining=2
hasContext=f
inputCount=28
layerCounts=2,16,29
layerFeedCounts=2,15,28
layerContextCount=0,0,0
layerIndex=0,2,18
output=0,0,0,0,0,0,0,0,0,0,0,0,0,0,0,0,0,1,0,0,0,0,0,0,0,0,0,0,0,0,0,0,0,0,0,0,0,0,0,0,0,0,0,0,0,0,1
outputCount=2
weightIndex=0,32,467
weights=-0.6121479573,-0.1046356885,0.0149218591,-0.3628225552,1.0571639176,0.3902587511,1.6002849205,0.6194746611,-1.7791263419,-0.0045380847,0.1396261036,-1.7770224961,0.146234113,0.7787793171,-0.8654146665,0.1797316162,0.5268768632,-0.1148869678,-0.5317256937,0.2956405631,-0.8094293136,0.6555643987,-1.3886785311,-0.0104607917,1.7322120295,-0.5151063502,-0.2870603509,1.3343222943,-0.638453086,-0.2459550947,-0.6022991951,-0.2826140076,0.0857975198,0.5291855814,-0.8026154389,0.2844737214,0.7552069642,0.1553495067,-0.1147884516,0.0698043644,0.6660900653,0.5020789014,0.5036161306,0.6123084339,0.9047594652,0.1560513961,-0.2650486858,0.1409307253,-0.0963804268,0.3039494831,-0.1239971073,1.0155643585,0.2638871416,-0.3497041096,0.5412260634,0.5032848116,-0.8390584162,-0.5080288316,-0.2084920021,0.2855132592,0.4397450672,-0.2306196859,0.7315049259,0.6140153149,0.5630906389,-0.2925035245,0.8473459097,-0.9015453121,0.7396276637,-0.7072863394,0.3445012629,-0.7768568568,-0.0359631267,0.0637623136,0.0840728309,0.472779131,-0.0577125198,-0.4436695092,-0.2869778122,-0.4946602511,-0.713580118,0.46427892,0.7434792453,-0.7085654899,-0.7068304584,0.4164248998,-0.2872024563,-0.6520386624,0.0924711306,-0.694818171,0.137087722,0.2813506393,-0.531127664,0.3023506748,-0.091977015,-0.3316059173,0.4931108494,-0.8106081276,-0.530051461,-0.172771067,-0.599889542,-0.6244998694,-0.9158881211,-0.1143978251,0.3620420551,-0.7085617356,0.4084178826,-0.103922395,-0.9625380112,-0.8342314806,-0.4518527696,-0.4247850288,-0.8071544105,-0.6903827276,-0.4398333032,-0.8793626397,0.0857896162,0.7825438176,0.2140847113,0.8215866498,-0.7936492276,0.4674239767,-0.6040898767,-0.74506101,-0.1709527724,-0.1147914216,-0.4538894077,-0.4876320388,-0.6853765438,-0.3467490749,-0.294086564,-0.9850362189,-0.1765487999,0.5832127355,-0.5118141445,0.5259680627,0.4704575636,0.1127251918,-0.8502997737,-0.2887321947,-0.9451403395,0.51122098,-0.3765084147,-0.6121506774,0.7129259146,-0.4883479662,-0.4465086696,0.6817281728,-0.7006963104,-0.7095513569,0.05441981,0.2535176017,-0.2815763341,-0.4634078033,-0.600764207,-0.6119148604,0.7607516482,0.4887482418,0.7246895548,-0.3836034408,0.7074169254,-0.9478912982,0.8414973978,-0.3120204698,-0.2989098888,0.7863797441,0.2153161553,-0.208978829,-0.1327564154,0.9673803525,0.5711123227,-0.7817348947,1.0925648796,-1.0227069032,0.9610245931,-0.5772803083,0.6224182402,0.7070086837,0.7334190733,-0.4190546476,0.5568546332,0.3507345953,0.7602181746,0.4031958614,0.9047519504,0.7632776812,0.6857995169,0.9205772837,-0.1581322277,-0.2875094077,0.8482268655,-0.3993754998,0.5310997964,0.6244941928,0.8297087507,0.9514619282,0.1758641362,0.0047890678,-0.1932843864,-0.8276631474,-0.1464714212,-0.88277747,0.435161575,-0.756308814,-0.6353880729,1.0296434793,-0.7459997008,0.0608427756,0.2049074422,-0.857476663,0.1384152843,1.476190919,0.4574150262,0.060616314,0.0583232402,0.1628881537,-0.0015966429,-0.0774490473,-0.1257442871,-0.242418398,-0.4237544847,0.0660901334,-0.0016349045,0.6880860613,0.1467296767,0.0937639457,-0.0093521007,1.0038530967,0.1102183629,0.3235221792,-0.0938775766,-2.1025861164,-0.5832738594,-1.0729136915,-0.1611801355,-0.0176782815,-0.3662840586,0.1335709375,-0.3691458142,-0.4890146408,0.9019200466,-0.454223291,-0.3856014748,0.134974437,0.4691307926,-0.5820450223,-0.3424041798,-0.3564956976,-0.8027544118,-0.4342624881,0.2058003232,-0.1716299271,0.4369350167,-0.84274328,0.3314971218,0.5223811827,0.4891330955,0.6424819081,0.5035026854,-0.7408903632,-0.1036484538,0.8236396818,0.3940811587,0.0917618339,-0.0968312716,0.1579323323,-0.0272414382,0.9445796748,-0.1295076827,-0.8476471521,0.1164457252,-0.1638898136,0.0412700528,-0.5327874172,-0.27221766,-0.1543430024,0.0006783019,-0.4613307549,0.2451133609,-0.1681764117,-0.0126561542,-0.7824122486,0.073182564,-0.0833996845,0.0179870544,0.5535702193,-0.8889750576,-0.9547591944,-1.0895349864,1.926272152,-0.3067526778,1.5597961947,0.308821597,0.8838513229,0.9410333618,-0.7712059786,-0.5798134702,-0.3590115403,0.4216354402,0.7116208421,-0.1522893594,0.9241376772,0.2348986337,0.085083121,-0.7594911929,0.2750791055,-0.7174093651,0.6038728996,0.9170997593,0.753489831,0.3155369697,-0.0008450698,-0.2654515352,0.4935060468,-0.7406650785,0.2185030686,-0.7387235103,-0.4730483439,0.6185422122,-0.4273337484,-0.7507206553,0.8072545044,0.2233883983,-0.5548976145,1.0673822882,0.4260502947,0.9736308538,0.4502629248,0.8228268071,-0.3399654089,0.7013281799,-0.5978660918,0.0270674374,0.2887372323,-0.22491681,1.0402241113,-0.5950276712,-0.3934231491,-0.1754903596,-0.0662277797,0.0061952832,0.5270930458,0.3622324733,0.6111590861,0.3688459501,0.5424547168,0.0369050946,-0.0716903788,-0.7025833213,-0.8250656182,0.5756740021,0.8935024876,-0.4325490581,0.2353326908,0.9997267325,0.2247265155,-1.2787680675,0.0208181544,-0.0054843888,0.2822593535,-0.4992356867,0.6646080072,-0.0966210663,0.3297901391,-0.6557042807,-0.4105247939,0.1203719348,0.063403564,0.7010448209,0.0597893958,0.1052001608,0.0424921742,-0.7717945123,-1.2384709111,-1.0424747916,-0.6581085533,1.2007830661,-0.8232988769,1.7100061192,-0.4043963439,-0.1672450466,0.2857767074,-0.9012611883,-0.819146238,-0.3887400842,-0.4415564839,-0.2496098026,0.0604942056,-0.4661947196,-0.3553187706,0.2741088171,-0.0059277414,0.5162027944,0.7344591063,-0.6262509423,-0.9686205806,0.0565440906,0.4520532735,-0.3020246756,0.4039501854,-0.7103195023,0.689535042,-0.4819182373,-0.7409189018,-0.8481893353,0.1259232445,0.6043623102,-0.7291518666,-0.5946832266,-0.2686318433,-0.3080730062,-0.143040995,0.8457887642,0.5313121006,-0.2476382111,-0.723057853,0.073237601,0.0003209689,-1.0182013599,0.5065552249,-0.0329180153,0.6162742877,-0.0090535771,0.6129560206,-0.3244111919,0.7452121786,-0.2657593221,-0.0423488554,-0.4201592843,-0.2019651288,0.3623976517,-0.774258658,0.353167623,-0.7570029888,-0.7490656192,-0.2392590343,-0.8890940663,1.2900340328,0.4117045614,-0.932460811,-0.3499938618,0.710098791,-0.5707742111,-0.7329757671,-0.848561054,-0.6013211452,0.8562807084,-0.2334274011,0.4096364362,-0.18425339,-0.0268857742,0.5783046837,-0.0709265394,-0.5989401591,0.4403709002,-0.3447942247,-0.0032764561,-0.1480076179,0.3659808167,-0.1377752977,-0.6014556495,-0.8073005415,-0.2938615676,-0.5621732896,-0.2448240194,0.2114418653,-1.0645595854
biasActivation=0,1,1
[BASIC:ACTIVATION]
"org.encog.engine.network.activation.ActivationElliottSymmetric",1
"org.encog.engine.network.activation.ActivationElliottSymmetric",1
"org.encog.engine.network.activation.ActivationLinear"
