encog,BasicNetwork,java,3.3.0,1,1469375148782
[BASIC]
[BASIC:PARAMS]
[BASIC:NETWORK]
beginTraining=0
connectionLimit=0
contextTargetOffset=0,0,0
contextTargetSize=0,0,0
endTraining=2
hasContext=f
inputCount=28
layerCounts=2,16,29
layerFeedCounts=2,15,28
layerContextCount=0,0,0
layerIndex=0,2,18
output=0,0,0,0,0,0,0,0,0,0,0,0,0,0,0,0,0,1,0,0,0,0,0,0,0,0,0,0,0,0,0,0,0,0,0,0,0,0,0,0,0,0,0,0,0,0,1
outputCount=2
weightIndex=0,32,467
weights=-0.613915658,-0.1116545095,0.0217828636,-0.3612306928,1.0587209475,0.3886883747,1.6022741932,0.6192538406,-1.8114361311,-0.0159552846,0.1255140476,-1.8002634481,0.1483816591,0.7701866489,-0.8630595605,0.1819408067,0.5305177987,-0.1033990714,-0.5294990856,0.2967220768,-0.7970520166,0.6652761138,-1.3934067898,-0.0083475848,1.7665261019,-0.50814887,-0.2790908126,1.3468443728,-0.6409418842,-0.2613951517,-0.6094930482,-0.2707435498,0.0863319401,0.529019776,-0.800927027,0.2838215894,0.7568800244,0.1557002666,-0.1142122697,0.0698933034,0.6675502383,0.5029944268,0.504480635,0.6116325694,0.9034343008,0.1554461195,-0.2633291047,0.1419071944,-0.0984309101,0.303971249,-0.1227843871,1.0162226852,0.2658441812,-0.3493355388,0.5404758867,0.503119236,-0.8397784103,-0.5074224384,-0.2103284546,0.2857302719,0.4404326873,-0.2311461902,0.7305985249,0.6129725223,0.5626212619,-0.2927938899,0.8460338238,-0.902358653,0.738870489,-0.7064420689,0.3433762021,-0.7782105008,-0.0358245618,0.0636077544,0.0834389758,0.4723109701,-0.0573228638,-0.4435892969,-0.2872002877,-0.4950730732,-0.713070231,0.4654941537,0.7430812376,-0.7089714086,-0.7069772435,0.4158891186,-0.2869130782,-0.6529399168,0.0907779955,-0.6963373516,0.1362589225,0.2788544068,-0.5330081057,0.3018312441,-0.0946129208,-0.3327699303,0.4908843923,-0.8113720482,-0.5313216109,-0.1741988554,-0.6023943058,-0.6258380127,-0.9153609941,-0.1148304944,0.3601482338,-0.7091481936,0.4070387384,-0.1044416353,-0.963507772,-0.8356440199,-0.4520040357,-0.4253038562,-0.8072170928,-0.6908314638,-0.4401825309,-0.8795374403,0.0856694898,0.7807866558,0.2098220549,0.8229290631,-0.7935858764,0.4709110982,-0.604853252,-0.7410973956,-0.1708903378,-0.1122371769,-0.4530306314,-0.4854003657,-0.6841566421,-0.3434487191,-0.2943591163,-0.9856869532,-0.177594706,0.5873647436,-0.5085322013,0.5254037484,0.4703802996,0.1165123026,-0.8471117789,-0.2838082794,-0.944647697,0.510290341,-0.3762744131,-0.6129427718,0.7138371833,-0.4907137208,-0.4456313619,0.6851466445,-0.7042304598,-0.7213953766,0.0399816658,0.2603820659,-0.2749839423,-0.4641765352,-0.5920819942,-0.5943391851,0.7425398473,0.4831026934,0.7202344704,-0.3727911741,0.7048132937,-0.9464179592,0.8327721594,-0.3052639993,-0.2799645397,0.7841637468,0.2166698228,-0.2074500055,-0.1269595342,0.9650733276,0.5795871763,-0.780003411,1.0991676515,-1.0300782915,0.9779105668,-0.5755867898,0.6168585722,0.7074838349,0.7336889383,-0.4192622302,0.5572403887,0.3502275116,0.7611146718,0.4042265981,0.9049228346,0.7628245751,0.6867441604,0.9215567644,-0.1581619,-0.2880446512,0.8485922656,-0.399219256,0.5301670754,0.6248225348,0.829865292,0.9514043044,0.1752641571,0.0032232597,-0.1929119982,-0.8274264926,-0.1464825903,-0.8823694032,0.4349664093,-0.7556708855,-0.6337303133,1.030591231,-0.7395960181,0.0640191814,0.1958968476,-0.8390976643,0.1348309036,1.4715168763,0.4627539466,0.0667550194,0.0501007407,0.1420736291,-0.0030647917,-0.07182605,-0.1166653274,-0.2407807107,-0.4179133919,0.0641970827,0.001681945,0.6834463366,0.1372841759,0.0882519837,-0.0147188278,0.9972213894,0.1274485395,0.3330940212,-0.0747373365,-2.1367698054,-0.5506643096,-1.0880033557,-0.1554464113,-0.0182618974,-0.3685655442,0.1326007103,-0.3673467501,-0.4903097836,0.9035254425,-0.4502224858,-0.3846820874,0.1335995987,0.4695532308,-0.5773879839,-0.3415945752,-0.3569819673,-0.8021895255,-0.4338652524,0.2023816795,-0.1722826933,0.4366970794,-0.8415269765,0.3293293264,0.5187241313,0.4895664896,0.6446497082,0.5035361295,-0.7389916756,-0.1055148227,0.8281437178,0.3982415175,0.0923595184,-0.1066133238,0.1459878234,-0.0331293976,0.9175671924,-0.1144768379,-0.8428755506,0.112799771,-0.149650829,0.0257325792,-0.5072608641,-0.273425292,-0.142687438,0.0072187768,-0.4586623156,0.2264724267,-0.1543700652,-0.0021165366,-0.7731186523,0.0619531582,-0.0807880353,0.0149514874,0.5617263715,-0.9107703002,-0.9666386878,-1.1156887044,1.9687614866,-0.349426236,1.5765609071,0.302635087,0.8830688459,0.9402716244,-0.7696329586,-0.5799916844,-0.3570867324,0.4198349343,0.7100110725,-0.1518900829,0.9228633208,0.2333589587,0.0835540217,-0.7572602715,0.2784079248,-0.7177295997,0.6035295049,0.9187331292,0.7553477493,0.3152266077,-0.0011490503,-0.2631829494,0.4949592513,-0.74128626,0.2186320905,-0.7383897996,-0.4732059245,0.6187243728,-0.4272390608,-0.7527104655,0.8071554068,0.2232439098,-0.5539240619,1.0681247982,0.4266764792,0.9745719944,0.4501215238,0.8227785138,-0.3382234685,0.7003632509,-0.5980095357,0.0284103867,0.2892426943,-0.2211025218,1.0409385232,-0.5932489734,-0.3921381569,-0.1711757598,-0.0660959888,0.0082957764,0.5267529412,0.3616502755,0.61111684,0.369712413,0.5430640691,0.0376106815,-0.0717591471,-0.7010767004,-0.8246763041,0.5779835368,0.8885785921,-0.4162717159,0.2232828506,0.9809641868,0.2054610376,-1.2760693725,0.0360026746,-0.003544073,0.2763435297,-0.482306564,0.6616124869,-0.0934711301,0.3213760935,-0.6556211829,-0.3912001019,0.107019491,0.0619528492,0.7043373645,0.0627031822,0.0998769627,0.0408114793,-0.7675383106,-1.2579566229,-1.0489436211,-0.678372168,1.2315963333,-0.8608339005,1.7124783013,-0.4007603181,-0.1674762058,0.2826034293,-0.9014846061,-0.8186031132,-0.3896628149,-0.4428589563,-0.2517427757,0.0600826606,-0.4710075155,-0.3564735355,0.2719015471,-0.0076559917,0.5160005025,0.7342815414,-0.6261498522,-0.9682564233,0.0592940545,0.4516032202,-0.3020043756,0.4015566253,-0.7090224942,0.6890461154,-0.4814179737,-0.7410039501,-0.8477925851,0.1250138664,0.6051797668,-0.7304426869,-0.597834632,-0.2705373825,-0.3101035541,-0.1426018312,0.8487572823,0.5328398817,-0.2484599387,-0.7157810414,0.07366449,-0.0078164638,-1.0202323853,0.5089002054,-0.0324230289,0.6153460101,-0.010126377,0.6123841414,-0.3251489222,0.745693736,-0.2671995614,-0.0408949283,-0.4189902991,-0.1961899156,0.3620555936,-0.7721064817,0.3532061763,-0.7553016822,-0.7513171151,-0.235019784,-0.8859713013,1.2914818837,0.4104729857,-0.9328328159,-0.3498651685,0.7082864833,-0.5704914893,-0.7344675719,-0.850522503,-0.6021662777,0.8546083344,-0.2352118476,0.4054459262,-0.1860226576,-0.0269504631,0.577229676,-0.0716286659,-0.5969796014,0.4371161202,-0.3451486491,-0.004176186,-0.1474720032,0.3703297144,-0.1384790639,-0.6024631647,-0.8076744601,-0.2954096468,-0.5614440496,-0.2473988017,0.2075539104,-1.0685151229
biasActivation=0,1,1
[BASIC:ACTIVATION]
"org.encog.engine.network.activation.ActivationElliottSymmetric",1
"org.encog.engine.network.activation.ActivationElliottSymmetric",1
"org.encog.engine.network.activation.ActivationLinear"
