encog,BasicNetwork,java,3.3.0,1,1469375375805
[BASIC]
[BASIC:PARAMS]
[BASIC:NETWORK]
beginTraining=0
connectionLimit=0
contextTargetOffset=0,0,0
contextTargetSize=0,0,0
endTraining=2
hasContext=f
inputCount=28
layerCounts=2,16,29
layerFeedCounts=2,15,28
layerContextCount=0,0,0
layerIndex=0,2,18
output=0,0,0,0,0,0,0,0,0,0,0,0,0,0,0,0,0,1,0,0,0,0,0,0,0,0,0,0,0,0,0,0,0,0,0,0,0,0,0,0,0,0,0,0,0,0,1
outputCount=2
weightIndex=0,32,467
weights=-0.6171315601,-0.135479661,0.0409219682,-0.3567971645,1.0566147276,0.3878407741,1.5972572143,0.6149697829,-1.9036052308,-0.0482220207,0.0809381863,-1.8631231232,0.1559776003,0.7441768192,-0.8604876532,0.1921166375,0.5405297255,-0.0677004539,-0.5188215005,0.2995718043,-0.7595119995,0.6931739201,-1.4085701902,-0.0008027164,1.8707862079,-0.4933463189,-0.2576289392,1.3825515064,-0.6475689129,-0.3077109134,-0.6316873687,-0.2355342595,0.0884478124,0.5279209479,-0.7962692293,0.2825508285,0.7621925552,0.1570960623,-0.1128417472,0.0693628998,0.6726400642,0.5052884626,0.5071612876,0.6088666989,0.8991615277,0.1533182451,-0.2577986995,0.1444567528,-0.1057288577,0.3036454035,-0.1191342937,1.0180547413,0.2713636224,-0.3477745118,0.5384384403,0.5030529837,-0.8410687511,-0.5068271823,-0.2159784175,0.2866441176,0.4421684648,-0.2324091846,0.729037789,0.6113376135,0.5613237764,-0.29279096,0.8423151566,-0.9039804778,0.7375203962,-0.7031296146,0.3399914436,-0.7820793993,-0.0345240178,0.0632737644,0.0812761157,0.4715805685,-0.0546235574,-0.444105794,-0.2879519482,-0.4959504905,-0.7107909942,0.4709656072,0.7419327304,-0.7104068354,-0.7072083863,0.4141743706,-0.2861102138,-0.6563051482,0.0854489441,-0.6988793733,0.1332944332,0.2708384745,-0.5387892659,0.2997730694,-0.1031601616,-0.3367197287,0.4839051472,-0.8137060287,-0.5346309965,-0.1784659988,-0.6106062866,-0.6298272412,-0.9140853312,-0.1162297971,0.3539063744,-0.7107092442,0.4024732776,-0.1059449412,-0.9667777912,-0.8400984916,-0.4526359007,-0.4271706531,-0.807630607,-0.6925642839,-0.4417621403,-0.8795584288,0.0850853986,0.7749966903,0.1964073866,0.8278964132,-0.7946884383,0.4813592244,-0.606394998,-0.7281085904,-0.1704877692,-0.1045925338,-0.451154823,-0.4782881985,-0.6808953589,-0.3323833128,-0.2962774739,-0.9878907631,-0.1814539709,0.6012279219,-0.4985928446,0.5223256213,0.4695670837,0.1287959111,-0.8372249906,-0.2686941267,-0.9425774873,0.5076304768,-0.3748867526,-0.6144241412,0.7150711285,-0.4984154355,-0.4425917974,0.6957471064,-0.7196177841,-0.7578088324,0.0021583436,0.275463145,-0.2580008098,-0.4686019566,-0.5604722316,-0.5413586616,0.6912640017,0.4700160761,0.7099187304,-0.3376917667,0.6870145978,-0.9398997148,0.8057073365,-0.2857410326,-0.2281127234,0.7805280969,0.2240913605,-0.201672286,-0.1100805965,0.9547658369,0.6031361325,-0.7799030685,1.1124265951,-1.042627341,1.0303066209,-0.5711011291,0.5981794352,0.7093493567,0.7347836754,-0.4201015277,0.5586935284,0.3487792789,0.764354058,0.407760528,0.9054102684,0.760368654,0.6898922846,0.9250366974,-0.1584067878,-0.2895370012,0.8499511501,-0.3985997778,0.5266728289,0.6264943219,0.8303364752,0.9513440735,0.173224654,-0.0019755126,-0.191513177,-0.8265089902,-0.1463636209,-0.880849336,0.4341852542,-0.7533560498,-0.6278878506,1.0336216621,-0.7287300877,0.0717142971,0.1706981293,-0.7976399201,0.1229913316,1.4460655734,0.4805086618,0.0853013399,0.0382570164,0.0864164929,-0.0065181196,-0.0501002915,-0.0930993684,-0.2374713947,-0.4057611483,0.0610738395,0.0024846728,0.6728572609,0.1069306174,0.0740455923,-0.0252821469,0.9682357069,0.1756835703,0.3511535436,-0.0327719682,-2.2238523719,-0.4502362448,-1.1426974455,-0.1408410996,-0.0201582535,-0.3750548884,0.1289187405,-0.362456301,-0.4944511434,0.9088233316,-0.4373702062,-0.3815314536,0.1261823147,0.4721902913,-0.5622054215,-0.3394285065,-0.3568746358,-0.7999995128,-0.4332302463,0.1903266513,-0.1726841442,0.4363697928,-0.8378421932,0.3216540892,0.5048087426,0.490615931,0.6511406976,0.5029239597,-0.7341473777,-0.1095423104,0.8426351734,0.4122423613,0.093131636,-0.1345427339,0.1142605967,-0.0415394073,0.8496002474,-0.0765299542,-0.8233030739,0.1060966841,-0.1092686649,0.0051168688,-0.4422088933,-0.2744973722,-0.1062845469,0.0167107959,-0.4508144373,0.1688557678,-0.1140658433,0.0164438326,-0.7482605086,0.0307870137,-0.068012085,0.0138495797,0.5985721637,-0.974458472,-0.9924624786,-1.1802549286,2.0814511283,-0.4893606682,1.6380359612,0.2813770579,0.8797838623,0.9367364439,-0.7658251223,-0.5816491766,-0.3529295295,0.4131192332,0.7035728923,-0.151775718,0.9195332968,0.2283300184,0.0768467148,-0.7516318823,0.2869948623,-0.7194701121,0.6011703091,0.9234108864,0.7591540261,0.314161357,-0.003581769,-0.2573592004,0.4993658854,-0.7437820006,0.2183075375,-0.738299676,-0.4748360429,0.6199253878,-0.4281328004,-0.7603561417,0.8040521622,0.2223335078,-0.5516797165,1.0702577089,0.4277634226,0.9769040819,0.4490646164,0.8220852066,-0.3337625833,0.6984524355,-0.5984737697,0.0313926724,0.2903944602,-0.2107910728,1.0427035903,-0.5885542417,-0.3885717014,-0.160349972,-0.0657067672,0.0137569628,0.5255970247,0.3607076782,0.6106380157,0.3717430018,0.544377435,0.0388757265,-0.0712443845,-0.6974161546,-0.8244731439,0.5835674138,0.8789123249,-0.3712477018,0.1810661757,0.9365374682,0.153162837,-1.262970004,0.0781461815,-0.0006708104,0.2468481953,-0.4426297152,0.6526872207,-0.0853625044,0.3045070467,-0.6559381807,-0.3279167757,0.0677924451,0.0620533695,0.7090608591,0.0712192417,0.07966095,0.0318304479,-0.7476482729,-1.3164066106,-1.0579619006,-0.7264867193,1.3066275806,-0.9844606176,1.7208320065,-0.3852111075,-0.1686813032,0.2726671205,-0.9016335031,-0.8174283876,-0.392498023,-0.4474362656,-0.2582806881,0.0590507328,-0.4841685178,-0.3596499246,0.2651168446,-0.0124915678,0.5153314981,0.7336736301,-0.6257276742,-0.966412337,0.0673922632,0.4504033896,-0.3017343741,0.3945239876,-0.7046640186,0.6871098991,-0.480178572,-0.7416328902,-0.8471592789,0.1233494262,0.6076061204,-0.7348622158,-0.6071644785,-0.2776844018,-0.3163298056,-0.1410574457,0.8563666085,0.5381492096,-0.2525273097,-0.6933551908,0.0751543964,-0.0347528005,-1.0262705984,0.5158629347,-0.0310804896,0.6144919114,-0.0143366983,0.6102598503,-0.3270706556,0.7476792665,-0.2716379467,-0.0364566668,-0.4148875259,-0.1785200695,0.3597688322,-0.7664994327,0.3521741463,-0.7529955186,-0.7554765163,-0.2230667203,-0.8779197536,1.2947562844,0.4062141549,-0.933856032,-0.3485332909,0.7025930677,-0.5693336857,-0.7395689456,-0.8564563373,-0.6041221383,0.8529914726,-0.2413802348,0.3921146524,-0.1905521747,-0.0271613514,0.5734616595,-0.0731968701,-0.5891029792,0.42609602,-0.3463172868,-0.0067384973,-0.1447615734,0.3847946189,-0.1408837158,-0.605728994,-0.8086335791,-0.3001580331,-0.5594471396,-0.2559563586,0.1943229461,-1.0793157962
biasActivation=0,1,1
[BASIC:ACTIVATION]
"org.encog.engine.network.activation.ActivationElliottSymmetric",1
"org.encog.engine.network.activation.ActivationElliottSymmetric",1
"org.encog.engine.network.activation.ActivationLinear"
