encog,BasicNetwork,java,3.3.0,1,1469375440359
[BASIC]
[BASIC:PARAMS]
[BASIC:NETWORK]
beginTraining=0
connectionLimit=0
contextTargetOffset=0,0,0
contextTargetSize=0,0,0
endTraining=2
hasContext=f
inputCount=28
layerCounts=2,16,29
layerFeedCounts=2,15,28
layerContextCount=0,0,0
layerIndex=0,2,18
output=0,0,0,0,0,0,0,0,0,0,0,0,0,0,0,0,0,1,0,0,0,0,0,0,0,0,0,0,0,0,0,0,0,0,0,0,0,0,0,0,0,0,0,0,0,0,1
outputCount=2
weightIndex=0,32,467
weights=-0.6175027792,-0.141806012,0.04546989,-0.3557864353,1.0550209989,0.3884814334,1.5932805706,0.6131302676,-1.9253728969,-0.055870133,0.0690997337,-1.8767625435,0.1581644433,0.7377103462,-0.8608767482,0.1954070699,0.5428554867,-0.0587040855,-0.5152374475,0.3000554318,-0.7504924863,0.6998581633,-1.4123536123,0.0013682129,1.8960786591,-0.4910585056,-0.2527851365,1.3912007294,-0.6490427318,-0.3193081709,-0.6375157749,-0.2268406179,0.0890843464,0.5274966318,-0.7952099689,0.2823761762,0.7636120589,0.1574955767,-0.1125713738,0.0690629457,0.6740502477,0.5057506616,0.5078404867,0.6080212983,0.8980108657,0.1527239005,-0.2563598027,0.1450205,-0.1077788274,0.303476193,-0.1182269851,1.0184922102,0.2726719907,-0.3472760947,0.5379857657,0.5031313669,-0.8411853958,-0.5069600435,-0.2174075517,0.286937399,0.4425147341,-0.232622016,0.7289289946,0.6112934215,0.561052772,-0.2925610484,0.841455478,-0.9041895011,0.7373922415,-0.7020823224,0.3391251473,-0.7830040432,-0.0339869715,0.0632274333,0.0806706417,0.4715575797,-0.0535872421,-0.4444201933,-0.2881809861,-0.4960865214,-0.7100222587,0.4727328375,0.7416720992,-0.7108096392,-0.7071983377,0.4137450057,-0.2859604874,-0.657305675,0.0840656604,-0.6990107594,0.1324573861,0.2687193397,-0.5402475637,0.299157562,-0.1054481733,-0.3377932519,0.4820813599,-0.814302128,-0.5352994094,-0.1795187879,-0.6128019592,-0.6308146295,-0.9138345136,-0.1166050447,0.3522394674,-0.7110664317,0.4012210679,-0.1063097661,-0.9676695191,-0.8412510863,-0.4528559342,-0.4277077057,-0.8077890037,-0.6930806128,-0.4422776216,-0.8794444215,0.0848850322,0.7734394271,0.192937787,0.8293440496,-0.7953086814,0.4839272189,-0.6066196747,-0.7245634174,-0.1703782441,-0.1026789956,-0.4508245818,-0.476513161,-0.6801847236,-0.3293559568,-0.2970041437,-0.9885259565,-0.1825799719,0.6049999902,-0.4960889345,0.5212477297,0.4692255377,0.1320779839,-0.8346643925,-0.2647880931,-0.9419135895,0.5070044439,-0.3743839083,-0.614573806,0.7150151813,-0.5004724081,-0.4417315326,0.6984394479,-0.7245609884,-0.7670836283,-0.0058084948,0.2781525419,-0.2544105713,-0.4698394337,-0.5512769999,-0.5283361733,0.678661685,0.4677561063,0.7082537729,-0.328682736,0.680524586,-0.9377962729,0.7993007522,-0.2812113171,-0.2164886687,0.78036322,0.2270236085,-0.2001450637,-0.1059861432,0.9514420547,0.608567836,-0.7810006026,1.1142469262,-1.0435794497,1.0437308989,-0.5700582224,0.5931999861,0.7099234896,0.7351339555,-0.4203756556,0.5591278946,0.3484498478,0.7652948381,0.4087743003,0.9055221714,0.7594561944,0.6907520427,0.9260493924,-0.1585096422,-0.2898562535,0.8503563357,-0.3984113175,0.5256409792,0.6270843565,0.8304565214,0.9513552924,0.1726473782,-0.0033772437,-0.1910906582,-0.8262229931,-0.1462949286,-0.8803917014,0.4339325542,-0.7526733242,-0.6262074226,1.0344210628,-0.7278274658,0.0736404952,0.1649493138,-0.7901623291,0.1193061988,1.4374510708,0.4853426935,0.089696986,0.0375885636,0.0741440979,-0.0069231598,-0.0437829688,-0.0876184777,-0.2373310397,-0.4031095164,0.0605765942,0.0014228588,0.670923844,0.0993596529,0.0710005668,-0.0269513095,0.9588112032,0.1866978311,0.3532359045,-0.0260870561,-2.2421377798,-0.4250928062,-1.1589097017,-0.137430298,-0.0206277001,-0.3765714844,0.1278037483,-0.3613222019,-0.4955380737,0.9103124725,-0.4339362558,-0.3806817792,0.123472095,0.4731807082,-0.5580828944,-0.338999671,-0.3564154073,-0.7993431174,-0.4331665214,0.186904804,-0.172415234,0.4363768408,-0.8369062375,0.3194309319,0.500676802,0.4908366276,0.6527624914,0.5026209456,-0.7331190628,-0.1102119376,0.8464655848,0.4161218336,0.0930984365,-0.1414105074,0.1075215366,-0.0417570333,0.835505856,-0.0692759108,-0.817943175,0.1052947122,-0.1006556358,0.0036104819,-0.429135181,-0.2738691488,-0.0978237698,0.0180219289,-0.4486659271,0.1548332186,-0.1052982189,0.0194987039,-0.7429202248,0.0240583283,-0.0643630622,0.0145639267,0.6108536146,-0.989689108,-0.9966497022,-1.1927997946,2.1056045192,-0.5268055589,1.6561343816,0.2749046342,0.8787415201,0.9355568756,-0.7650324538,-0.5823057915,-0.3522668084,0.4111339949,0.7015463164,-0.151992176,0.9188303175,0.2269614801,0.0746479517,-0.7504334058,0.2888578567,-0.7200980923,0.600306408,0.924520021,0.7596893398,0.3138528706,-0.004530236,-0.2560899967,0.5004605847,-0.744558605,0.2180568506,-0.7384773347,-0.4755114706,0.6203726509,-0.4286456523,-0.7626892975,0.8026628469,0.2219969481,-0.5513020356,1.0707541203,0.4278636399,0.9773589197,0.4486633402,0.8217600004,-0.3328400977,0.6981988384,-0.59862238,0.0318642752,0.2905643123,-0.208476029,1.0430399248,-0.5875341909,-0.3877506351,-0.1581448577,-0.0656241184,0.0149199994,0.5252674244,0.3606369099,0.6104395864,0.3721144651,0.5445935881,0.0390020507,-0.0709843985,-0.6967292949,-0.824680748,0.5846215466,0.8773280998,-0.3615974189,0.1693344316,0.9279507715,0.1415729408,-1.2592081211,0.0874725962,0.0000444601,0.2383500381,-0.4356307978,0.6503831975,-0.0830549646,0.3012624986,-0.6558903907,-0.3115383724,0.0590032912,0.0619456591,0.7091114984,0.0728126419,0.0739922167,0.0290913913,-0.7410189632,-1.3309230279,-1.0577681878,-0.7353532958,1.3213488182,-1.0177468629,1.7230855649,-0.3803225439,-0.1690906411,0.2700788734,-0.9015462156,-0.8172211731,-0.3932370318,-0.4487114343,-0.2599615089,0.0588507213,-0.4871748441,-0.3603691607,0.2633945018,-0.0136248869,0.5151864278,0.7334972654,-0.6255684018,-0.9657950027,0.0694020636,0.4501363337,-0.301597355,0.3928136748,-0.7035000445,0.6865131316,-0.4799362958,-0.7418722639,-0.8471317342,0.1231811687,0.6081963453,-0.7360989369,-0.60944416,-0.2798242963,-0.3180105916,-0.1406654949,0.8579649227,0.5395262736,-0.2539314772,-0.6876957758,0.0754610745,-0.0420910035,-1.0278226264,0.5175548309,-0.0308961789,0.614639216,-0.0157090989,0.6096515698,-0.3275174322,0.7481208073,-0.2728227614,-0.0353873759,-0.4137786784,-0.1739309853,0.3588838462,-0.7653310971,0.3516212685,-0.7531170055,-0.7559704144,-0.2203625872,-0.876311404,1.2951963549,0.405006338,-0.9340591291,-0.3479200553,0.701102877,-0.5689710162,-0.740998926,-0.8579532576,-0.6044333441,0.8534804362,-0.2431089479,0.388583855,-0.1914539926,-0.0272349464,0.5723992105,-0.073422516,-0.5866424677,0.4230590464,-0.3466334162,-0.0073129202,-0.1437610737,0.3887590523,-0.1415623377,-0.6066089083,-0.8088316612,-0.3013819415,-0.5589591186,-0.2582935047,0.1906281992,-1.0816989855
biasActivation=0,1,1
[BASIC:ACTIVATION]
"org.encog.engine.network.activation.ActivationElliottSymmetric",1
"org.encog.engine.network.activation.ActivationElliottSymmetric",1
"org.encog.engine.network.activation.ActivationLinear"
