encog,BasicNetwork,java,3.3.0,1,1469375472612
[BASIC]
[BASIC:PARAMS]
[BASIC:NETWORK]
beginTraining=0
connectionLimit=0
contextTargetOffset=0,0,0
contextTargetSize=0,0,0
endTraining=2
hasContext=f
inputCount=28
layerCounts=2,16,29
layerFeedCounts=2,15,28
layerContextCount=0,0,0
layerIndex=0,2,18
output=0,0,0,0,0,0,0,0,0,0,0,0,0,0,0,0,0,1,0,0,0,0,0,0,0,0,0,0,0,0,0,0,0,0,0,0,0,0,0,0,0,0,0,0,0,0,1
outputCount=2
weightIndex=0,32,467
weights=-0.6176317029,-0.1448633243,0.0476440125,-0.3553222098,1.0541689001,0.3888981898,1.5909720047,0.6121688921,-1.9356561977,-0.0595031496,0.0632841273,-1.883011159,0.159255406,0.7345923851,-0.8611964122,0.1970787637,0.5439674226,-0.0543993188,-0.5133985907,0.3002385903,-0.746234551,0.7030546076,-1.4141710853,0.0024546168,1.9080686243,-0.4901240146,-0.2505053124,1.3953174795,-0.6497529277,-0.3249042758,-0.6403865272,-0.2226518375,0.0894047942,0.5272720837,-0.7947150137,0.282309514,0.7643113416,0.1576918084,-0.1124477722,0.0688983914,0.6747448929,0.5059576935,0.5081688421,0.6075957744,0.8974435557,0.1524301607,-0.255659899,0.145284068,-0.1087905613,0.3033831349,-0.11778938,1.0187023323,0.2732956382,-0.3470209384,0.537776517,0.5031817934,-0.8412127694,-0.5070625601,-0.218096136,0.2870875903,0.4426704462,-0.2327064895,0.728915666,0.6113242315,0.5609324056,-0.2924152998,0.8410527053,-0.9042624514,0.7373572883,-0.7015465031,0.3387027237,-0.7834438696,-0.0336995507,0.0632130389,0.0803695949,0.471566795,-0.0530381069,-0.4445969807,-0.2882996871,-0.4961416006,-0.7096216523,0.4736330368,0.7415523009,-0.7110087954,-0.7071819967,0.413541137,-0.2859001145,-0.6578101968,0.0833929499,-0.6990018556,0.1320431909,0.2676832003,-0.5409485668,0.2988494842,-0.1065704589,-0.3383195685,0.4811909252,-0.814591696,-0.5355981066,-0.1800226947,-0.6138759281,-0.6312891656,-0.9137201311,-0.1167891246,0.3514231598,-0.7112358331,0.4006035345,-0.106484057,-0.9681088117,-0.84181022,-0.4529752379,-0.4279755537,-0.8078729767,-0.6933397435,-0.4425417434,-0.8793729302,0.0847811093,0.7726763688,0.1912538642,0.8300699479,-0.7956574917,0.4851565449,-0.6067070407,-0.7228072198,-0.1703285297,-0.1017535684,-0.4506781972,-0.4756736457,-0.679857743,-0.3278598135,-0.2973835871,-0.9888466089,-0.1831434177,0.6068604955,-0.4948778106,0.5206933853,0.4690421654,0.1336931308,-0.8334117772,-0.26287637,-0.9415726358,0.5067095656,-0.3741197449,-0.6146134905,0.7149361704,-0.5014798775,-0.4413028279,0.6997447037,-0.7270871093,-0.7715754688,-0.0094290789,0.2793250603,-0.2527528728,-0.4704088672,-0.5466659323,-0.5221275083,0.6725758447,0.4668169995,0.7075890401,-0.3243352234,0.6771545474,-0.9367152955,0.7963178544,-0.2790869004,-0.2111167244,0.7803933308,0.2286154901,-0.1993987888,-0.1040418907,0.9497468567,0.6111207639,-0.7816738445,1.1149245125,-1.0437404973,1.0502357331,-0.5695507537,0.5907819058,0.710215119,0.7353147996,-0.4205198056,0.5593469117,0.3482965756,0.7657662035,0.409283945,0.905573944,0.7589741744,0.6911760435,0.9265576735,-0.1585655349,-0.2900038345,0.8505607427,-0.3983151311,0.5251222208,0.6273917817,0.8305147207,0.9513641154,0.1723577247,-0.0040628754,-0.1908763805,-0.8260765843,-0.1462564213,-0.8801597723,0.4338013251,-0.7523290538,-0.6253657024,1.0348108867,-0.7276287333,0.0745871092,0.1622607667,-0.7869135892,0.1173823833,1.4330280876,0.4876884845,0.0917295414,0.0375051015,0.0684545194,-0.0070509722,-0.0406742634,-0.0850041214,-0.2373958464,-0.4018275217,0.0603343758,0.000827041,0.6700771431,0.0957342308,0.0696231508,-0.0276611108,0.9539683218,0.1918293771,0.3539134387,-0.0234114107,-2.2504838203,-0.4130503531,-1.1671021,-0.1357977693,-0.0208486677,-0.3772779926,0.1272414412,-0.3607825179,-0.4960632135,0.9110594548,-0.4322443113,-0.3802613743,0.1220543776,0.473704929,-0.5560461869,-0.338807015,-0.3561335559,-0.7990118505,-0.433139599,0.1852094606,-0.172235468,0.436392686,-0.8364488295,0.318319673,0.4986118986,0.490939762,0.6535442876,0.5024580474,-0.7326459784,-0.1104911295,0.8483377175,0.4180484224,0.0930639632,-0.1447395559,0.1045061009,-0.0416491823,0.8290903054,-0.0660798535,-0.8153925412,0.1050486561,-0.0967475363,0.0031876569,-0.4233140919,-0.273409271,-0.0939131783,0.0186540093,-0.4475704761,0.1482441854,-0.1013136719,0.0208834315,-0.7404687048,0.0210261608,-0.0625848892,0.0149780751,0.6172120246,-0.9968935269,-0.9983510343,-1.1983092964,2.1166485523,-0.5451353699,1.6652367983,0.2716255488,0.8782089162,0.9349476313,-0.7646623164,-0.5826532169,-0.351996307,0.4101354497,0.7005081809,-0.1521269947,0.9185079965,0.2262854262,0.0735160948,-0.7498778134,0.2897266294,-0.7204277863,0.599855604,0.9250473657,0.7598905638,0.3136977844,-0.0050314488,-0.255496643,0.5009840738,-0.7449541928,0.2179122965,-0.7385884613,-0.4758735917,0.620608721,-0.4289344924,-0.7638750694,0.8019174623,0.2218194135,-0.5511513662,1.0709860647,0.427888651,0.9775576591,0.4484508656,0.8215773238,-0.3324266727,0.6981061489,-0.598702319,0.0320474146,0.2906243841,-0.2073994173,1.0431849496,-0.5870684507,-0.3873667656,-0.1571563544,-0.06558819,0.0154482105,0.525101407,0.3606221399,0.6103333599,0.3722734353,0.5446824019,0.0390369598,-0.0708452666,-0.6964346976,-0.8248219606,0.5850740615,0.8766488502,-0.3572278751,0.1636271693,0.9241189939,0.1362111087,-1.257403271,0.091774305,0.0004399505,0.2342825281,-0.4326965641,0.6492588797,-0.0818209465,0.2997467213,-0.6558246574,-0.3036610264,0.0549941823,0.0618261718,0.7089794584,0.0734594908,0.0712951133,0.0277744798,-0.7376004955,-1.3378896107,-1.0573392332,-0.7391641773,1.3278762171,-1.034083896,1.7241706553,-0.3778152936,-0.1693009407,0.2688177697,-0.9014843456,-0.8171303335,-0.3935965158,-0.4493404337,-0.2607781581,0.0587653527,-0.4885894024,-0.3607041431,0.2625652715,-0.0141591028,0.5151299016,0.73340905,-0.6254817236,-0.9654768238,0.0703732543,0.4500124141,-0.3015186787,0.3919998547,-0.7029348033,0.6862100737,-0.4798294428,-0.7419975529,-0.8471361809,0.123134787,0.6084776217,-0.7367124,-0.6105290418,-0.2809079518,-0.3188475491,-0.1404805284,0.8586943658,0.540183596,-0.2546647681,-0.6849732883,0.0755880102,-0.0457007062,-1.0285851207,0.5183560276,-0.030839061,0.6147410968,-0.0164258042,0.609348595,-0.3277271831,0.7483013427,-0.2734103264,-0.0348848825,-0.413236657,-0.171679816,0.3584118089,-0.7648051205,0.3513114045,-0.7532781386,-0.7561392874,-0.2191126394,-0.8756038893,1.2953432031,0.4044039856,-0.9341489777,-0.3475787362,0.7003747709,-0.5687866717,-0.7417102668,-0.8586789178,-0.604555665,0.8538396266,-0.2439672172,0.3868531978,-0.1918538965,-0.0272679758,0.5718714518,-0.0735075605,-0.5853876725,0.4215614505,-0.3467888807,-0.007578428,-0.1432273733,0.3907128595,-0.1419010649,-0.6070423625,-0.8089211008,-0.301977981,-0.5587217253,-0.259447165,0.1887915968,-1.0827987935
biasActivation=0,1,1
[BASIC:ACTIVATION]
"org.encog.engine.network.activation.ActivationElliottSymmetric",1
"org.encog.engine.network.activation.ActivationElliottSymmetric",1
"org.encog.engine.network.activation.ActivationLinear"
