encog,BasicNetwork,java,3.3.0,1,1469375504897
[BASIC]
[BASIC:PARAMS]
[BASIC:NETWORK]
beginTraining=0
connectionLimit=0
contextTargetOffset=0,0,0
contextTargetSize=0,0,0
endTraining=2
hasContext=f
inputCount=28
layerCounts=2,16,29
layerFeedCounts=2,15,28
layerContextCount=0,0,0
layerIndex=0,2,18
output=0,0,0,0,0,0,0,0,0,0,0,0,0,0,0,0,0,1,0,0,0,0,0,0,0,0,0,0,0,0,0,0,0,0,0,0,0,0,0,0,0,0,0,0,0,0,1
outputCount=2
weightIndex=0,32,467
weights=-0.617736756,-0.1478431391,0.0497703527,-0.3548788659,1.053293527,0.3893618025,1.5884732543,0.6111977872,-1.9455818304,-0.0630314025,0.0575215044,-1.8889210139,0.160350318,0.7315343996,-0.8615797335,0.1987517686,0.5450734733,-0.050234763,-0.5115562862,0.300370475,-0.7421280774,0.706192383,-1.4159480761,0.0035271146,1.9196532959,-0.4892872178,-0.248286946,1.3992990288,-0.6504745153,-0.3303657441,-0.6432586633,-0.2185224083,0.0897265574,0.5270415291,-0.7942396227,0.2822548243,0.7650058479,0.1578856743,-0.1123291296,0.068726975,0.6754330116,0.5061507622,0.5084917492,0.6071703511,0.8968815914,0.1521389509,-0.2549704575,0.1455385252,-0.1097918723,0.3032854018,-0.1173597008,1.0189087378,0.2739022448,-0.3467621955,0.5375777523,0.5032391693,-0.8412215536,-0.5071862356,-0.2187685886,0.2872400558,0.4428186041,-0.2327770375,0.7289267519,0.6113866641,0.560821606,-0.2922505683,0.8406662447,-0.9043163933,0.7373390023,-0.7010035079,0.3382861447,-0.783870379,-0.0334012592,0.0632046974,0.0800694572,0.4715877745,-0.0524706349,-0.4447853015,-0.2884214837,-0.4961892421,-0.7092108427,0.4745414915,0.741439229,-0.7112063791,-0.7071584985,0.413344392,-0.2858493992,-0.6583173138,0.0827316312,-0.6989482582,0.1316320094,0.266660472,-0.5416327411,0.2985416834,-0.1076801486,-0.3388393001,0.4803125284,-0.8148769558,-0.5358763111,-0.1805131314,-0.6149354697,-0.6317532722,-0.9136117739,-0.1169711489,0.3506165385,-0.7114009803,0.399990878,-0.1066536462,-0.9685447401,-0.8423594646,-0.4531013215,-0.4282428524,-0.8079598297,-0.6935994061,-0.4428094912,-0.8792929256,0.0846749398,0.7719230719,0.1895994817,0.8307978741,-0.7960264127,0.486356367,-0.6067795572,-0.7210570716,-0.1702820907,-0.1008430995,-0.4505385442,-0.4748662455,-0.6795473,-0.3263700515,-0.2977683372,-0.989168247,-0.1837064134,0.6087098544,-0.493687483,0.5201360098,0.4688517209,0.1352968096,-0.8321722013,-0.2609830448,-0.9412259665,0.5064260485,-0.3738468896,-0.6146315617,0.7148267636,-0.5024741646,-0.4408745607,0.7010324988,-0.7296474141,-0.7759906684,-0.0128420028,0.2803989423,-0.2511807777,-0.4709439834,-0.5420574831,-0.5161217267,0.666611018,0.4659901511,0.7070126043,-0.3201005154,0.6737034265,-0.9356189569,0.7934597714,-0.2770560187,-0.206030987,0.780489413,0.230276113,-0.1986788296,-0.1021711511,0.9480337476,0.6135760224,-0.7824232785,1.1154638027,-1.0437180579,1.0566145341,-0.569048736,0.5883829355,0.7105095002,0.7354997828,-0.4206685626,0.5595670106,0.3481505962,0.7662382945,0.4097962911,0.9056233618,0.7584772358,0.6915966035,0.9270675082,-0.1586235775,-0.2901448395,0.8507663181,-0.3982170757,0.524602252,0.6277066738,0.8305719152,0.9513751085,0.1720673282,-0.0047384266,-0.1906601632,-0.8259279519,-0.146215339,-0.8799258197,0.4336668527,-0.7519828154,-0.6245226319,1.0351954682,-0.7275795878,0.0755089197,0.159664473,-0.7839483162,0.1153855892,1.4285337677,0.4899594983,0.0936338727,0.037539234,0.0630202161,-0.0071546705,-0.0376250195,-0.0824812318,-0.2375549883,-0.4005820983,0.0600658361,0.0001872604,0.6692932527,0.0921782169,0.0683086207,-0.0283142844,0.9490468397,0.1967289088,0.3543724178,-0.0211380319,-2.2583677316,-0.4013451332,-1.1753581213,-0.1342484733,-0.0210607242,-0.3779516698,0.1266766403,-0.3602578916,-0.4965760699,0.9118092105,-0.430565634,-0.3798430683,0.1206019036,0.4742464676,-0.5540232515,-0.3386261839,-0.3558226448,-0.7986787931,-0.4331134074,0.1835253846,-0.1720287453,0.4364158222,-0.8359969303,0.3172090662,0.4965518744,0.4910392786,0.6543090135,0.5022892254,-0.7321966393,-0.110738308,0.8501838361,0.4199685807,0.0930216644,-0.1480079891,0.1017430567,-0.0413979037,0.823047212,-0.0631034525,-0.8129314254,0.1049311559,-0.0930423172,0.0029603295,-0.4179155561,-0.2728223203,-0.090175112,0.0193256454,-0.4464497014,0.1419636712,-0.0975433114,0.0222147929,-0.73814046,0.0182353661,-0.0608125714,0.0154423379,0.6237042418,-1.0038431787,-0.9998096829,-1.2033561307,2.1270802375,-0.5632157997,1.6743769565,0.2683924885,0.8776693963,0.934325842,-0.7643062169,-0.5830116698,-0.3517619584,0.4091329715,0.699453512,-0.1522775697,0.9182019838,0.2256136868,0.0723640633,-0.7493477346,0.2905602894,-0.7207670817,0.5993931778,0.9255580164,0.7600518057,0.3135418928,-0.0055489552,-0.2549268817,0.5014925684,-0.7453542265,0.2177561463,-0.7387126568,-0.4762503006,0.6208522894,-0.429243153,-0.7650732581,0.8011419121,0.2216361043,-0.5510255807,1.0712072976,0.4278985454,0.9777381871,0.4482308545,0.8213808872,-0.3320434755,0.6980330143,-0.5987867382,0.0321969475,0.2906676199,-0.206372233,1.0433154648,-0.5866309954,-0.3870000055,-0.1562375689,-0.0655560294,0.0159429339,0.5249337377,0.360618793,0.6102229597,0.3724160955,0.5447595258,0.0390549865,-0.0707016976,-0.6961704386,-0.8249869946,0.5854786946,0.8760341076,-0.3531122195,0.1580705728,0.9205535759,0.1311390751,-1.2556540604,0.0958749568,0.0008767267,0.2303824762,-0.4300996836,0.6481717214,-0.0804976232,0.2983032364,-0.6557245927,-0.2959637416,0.0512484563,0.0616915399,0.7087565721,0.0740295001,0.0687204633,0.0265059074,-0.7341214615,-1.3446779221,-1.0567089771,-0.7426003603,1.3339100743,-1.0502302622,1.7252258693,-0.3752197255,-0.1695143488,0.267575213,-0.9014119186,-0.8170465728,-0.3939506787,-0.4499640305,-0.2615817372,0.0586883665,-0.4899536919,-0.3610245587,0.2617549586,-0.0146749557,0.5150845034,0.7333206717,-0.6253914415,-0.9651542371,0.0713247274,0.4498940667,-0.3014343659,0.391210222,-0.7023809304,0.6859042192,-0.4797312723,-0.7421261826,-0.8471514903,0.123110799,0.6087503518,-0.7373229803,-0.6115822346,-0.2820013048,-0.3196872273,-0.1403048716,0.8593822531,0.5408180774,-0.2554186772,-0.682319183,0.0756947384,-0.0492746488,-1.0293427685,0.5191263683,-0.0308067209,0.6148521331,-0.0171639824,0.6090442528,-0.3279306053,0.7484516299,-0.2739969676,-0.0344052657,-0.4127044145,-0.1694502329,0.3579215055,-0.7643150433,0.35098042,-0.7535010326,-0.7562638001,-0.2179272443,-0.8749572002,1.2954395039,0.4038024476,-0.9342323809,-0.3472157113,0.6996565447,-0.5686011732,-0.7424197973,-0.8593921596,-0.6046580376,0.8542653476,-0.2448218862,0.3851423149,-0.1922241052,-0.0272965235,0.5713458095,-0.0735769235,-0.5841184749,0.4200765796,-0.3469428327,-0.0078310801,-0.1426727954,0.3926483755,-0.1422397238,-0.607472176,-0.809004947,-0.3025648788,-0.5584873529,-0.260592074,0.1869605501,-1.0838444535
biasActivation=0,1,1
[BASIC:ACTIVATION]
"org.encog.engine.network.activation.ActivationElliottSymmetric",1
"org.encog.engine.network.activation.ActivationElliottSymmetric",1
"org.encog.engine.network.activation.ActivationLinear"
