encog,BasicNetwork,java,3.3.0,1,1469374243480
[BASIC]
[BASIC:PARAMS]
[BASIC:NETWORK]
beginTraining=0
connectionLimit=0
contextTargetOffset=0,0,0
contextTargetSize=0,0,0
endTraining=2
hasContext=f
inputCount=28
layerCounts=2,16,29
layerFeedCounts=2,15,28
layerContextCount=0,0,0
layerIndex=0,2,18
output=0,0,0,0,0,0,0,0,0,0,0,0,0,0,0,0,0,1,0,0,0,0,0,0,0,0,0,0,0,0,0,0,0,0,0,0,0,0,0,0,0,0,0,0,0,0,1
outputCount=2
weightIndex=0,32,467
weights=-0.626796634,-0.0264664435,-0.0350393079,-0.5095773855,0.3149380358,0.437304104,0.5515566461,0.6371685331,-0.284740083,0.1673005281,0.2265510567,-0.5763226572,0.1720529416,0.7515560269,-0.9286023259,0.0805556775,0.5482775016,-0.413447806,-0.616041982,0.2673316889,-0.7122104144,0.4929502416,-0.6531607977,0.1068748662,0.8863063817,-0.6319454843,-0.4811611347,0.5741216606,-0.7004634901,0.207638707,-0.4159699646,-0.5209316188,0.0635094191,0.516262665,-0.8873163941,0.2448209731,0.6610721483,0.1960935652,-0.1763139573,0.0170428158,0.6823176655,0.4841299097,0.477086617,0.6014865972,0.9404386793,0.1654629962,-0.3090952103,0.0764574483,-0.0934367912,0.3009368318,-0.1797749163,0.9743931718,0.1697539804,-0.3485966018,0.5623652773,0.5176200307,-0.8202509698,-0.5927221616,-0.2064169327,0.210422106,0.3831702915,-0.1997799092,0.799250289,0.7080939244,0.6037035946,-0.235282414,0.8186530325,-0.8506257115,0.8012849697,-0.6943616692,0.3556772255,-0.7551512956,0.0294513112,-0.0261912572,0.073606157,0.4847960912,0.0097525618,-0.4942684979,-0.2810724511,-0.4956620159,-0.7401188258,0.5122567973,0.7464699012,-0.7147929569,-0.7065715749,0.418585887,-0.2545275374,-0.6414769045,0.1600666622,-0.5907023743,0.154654731,0.3450170018,-0.4644607104,0.3293602223,0.0010506881,-0.3445530402,0.5668719776,-0.7881619847,-0.5360746512,-0.1506124386,-0.5442704997,-0.5574915474,-0.9234117361,-0.1087559142,0.4053659585,-0.6661494875,0.4308283319,-0.0919879441,-0.9432240052,-0.8030636014,-0.4325805061,-0.4198674301,-0.8111780721,-0.6837420105,-0.4386608993,-0.844976385,0.093926243,0.8357525652,0.3396957874,0.7988708832,-0.7637714105,0.438114159,-0.6268714136,-0.8178139527,-0.1182218948,-0.1452568921,-0.4620770248,-0.4107526597,-0.6979179509,-0.3530113997,-0.256403222,-0.9666868386,-0.1606415068,0.5672475446,-0.5577792656,0.563328611,0.4755356918,0.0775600449,-0.8967693903,-0.4037316805,-0.9423850993,0.5377598937,-0.3487962049,-0.585081143,0.632882332,-0.4751451196,-0.5168502264,0.7082950593,-0.6172960287,-0.5089587733,0.5403205622,0.3743858904,-0.332198748,-0.7791506811,-0.5689320491,-0.924222043,0.8772409317,0.5533591718,0.8226859639,-0.3389846551,0.4970876036,-0.9674915524,0.827782754,-0.3257149903,-0.6280573912,0.8298590775,0.1776220825,-0.1279146381,-0.3579830116,0.9374467962,0.3609034019,-0.9376646902,0.9059982594,-0.5099272375,0.8303758584,-0.2621570702,0.7532219763,0.7025434743,0.7253481635,-0.4249886794,0.5553288499,0.3472821663,0.7596321697,0.3781766599,0.897487409,0.7659053336,0.6762468476,0.898126561,-0.1830305082,-0.2876870202,0.8463388989,-0.4076068198,0.5237596029,0.6331523104,0.8254152202,0.9503220811,0.1880636106,0.0208308402,-0.1969925689,-0.830007641,-0.1490037548,-0.8870506065,0.4365978487,-0.7610467878,-0.6514444749,0.9905152421,-0.9556043658,-0.1817508331,0.4596522857,-0.8798486544,0.4885386055,1.0037324477,0.5564457912,0.1802772794,0.2962480333,0.5590850841,-0.0786245631,-0.277287714,-0.6070344454,-0.2872753736,-0.8951716582,0.2776108042,-0.4764356388,0.7631346213,0.3665294753,0.2423979391,0.2821390138,0.9769577392,-0.2395740486,-0.0796567269,-0.5737641766,-0.7777205146,-0.7680091011,-0.3121824989,-0.3565154489,0.0111427562,-0.2793754604,0.143505216,-0.330381461,-0.4492588044,0.8630181924,-0.5113414871,-0.3481011231,0.1219042248,0.4851157576,-0.6816574209,-0.3989154293,-0.3426271173,-0.7997987282,-0.4583779364,0.2502620472,-0.059373616,0.4441772997,-0.8526019063,0.4128167752,0.5512928976,0.472896732,0.5992228477,0.4794379444,-0.7763660676,0.0226090358,0.8065050207,0.4349923146,0.0615713384,-0.1239114811,0.5744565121,0.4838166281,1.0637379557,-0.6141018701,-0.3661383303,0.2010810538,-0.2329957992,0.8026631667,-0.7915765037,-0.3602335127,-0.6907086626,-0.029402417,-0.3213298322,0.6589413809,-0.6455465952,-0.283396219,-0.8036846227,0.2948652494,-0.1029055892,0.3482814272,0.6042510432,-0.4742576123,-0.59186327,-0.5920628319,0.8548352811,0.0690090343,1.0037614088,0.3783942731,0.8967334885,0.9533076379,-0.8390816513,-0.5490263144,-0.3843994695,0.3781925648,0.7622249935,-0.1438314124,0.925322539,0.2483722911,0.1024982959,-0.8028100482,0.1364369786,-0.7385724438,0.5726804283,0.9265706651,0.7078975312,0.3165319876,-0.0073596434,-0.3546757385,0.4615499623,-0.7433081591,0.1929201581,-0.7716789535,-0.4920531792,0.6826885175,-0.4341406549,-0.6815171214,0.7864789493,0.2363270438,-0.5953540365,1.042188676,0.4520871292,0.9596003193,0.3823398235,0.8216226369,-0.3693607406,0.7365790081,-0.6073544912,-0.0299953029,0.3526119392,-0.3471537645,1.0103768044,-0.6745543881,-0.4027040554,-0.3162094879,-0.0776255568,-0.0869245149,0.5831842605,0.3926272492,0.5986400858,0.3266109092,0.5087216696,0.0049520967,0.0095514835,-0.7268530152,-0.783664956,0.5080352481,0.9993745217,-0.730413306,0.3409494918,0.9699336544,0.7857120345,-0.9115048815,-0.439259202,-0.5431594829,0.6683994287,-0.8725983009,0.8158919103,-0.1953334578,0.7816441431,-0.7065311755,-0.5867148572,0.4192595416,-0.0819831221,0.6119330412,-0.034437031,0.0100678469,0.2711729459,-0.7330034137,-0.8838492194,-0.7093760425,-0.2189054463,-0.051160704,-0.6369073446,1.082047932,-0.4008836572,-0.1567573183,0.4020918642,-0.8911854995,-0.7927818138,-0.3064038523,-0.4772014302,-0.1602871708,0.1203423149,-0.3217684643,-0.3311654552,0.3649627888,0.1576871936,0.6054795984,0.737665604,-0.639784918,-0.9204468385,0.0439080705,0.4584323959,-0.3003364267,0.5351470934,-0.7625456621,0.6908523863,-0.5022587498,-0.7407686569,-0.861674304,0.2394415735,0.6158767922,-0.6457230763,-0.4374750235,-0.2152717116,-0.2371298945,-0.1463992332,0.8777639469,0.5423950597,-0.2707723338,-0.8365871758,0.150563562,0.1688092035,-0.9722860753,0.4358430529,-0.0779348267,0.6953659094,0.0058066664,0.6153000732,-0.3047044107,0.8545640576,-0.2446740285,-0.0349359717,-0.3648462641,-0.3464518948,0.3479176821,-0.8234809563,0.3279375698,-0.8000174633,-0.5720915181,-0.2459379412,-0.8277379935,1.2617884823,0.4254115022,-0.9240588904,-0.3370239214,0.7053446291,-0.5705067163,-0.7253994661,-0.8125812841,-0.6054417119,0.9472400598,-0.2268552866,0.4888988236,-0.1029191328,-0.0102487633,0.5779793159,-0.04822422,-0.6072829657,0.4495555164,-0.3402019115,-0.0012259102,-0.1843158647,0.2975903723,-0.1282248827,-0.5853036021,-0.7872022625,-0.2698225578,-0.6139826806,-0.2343199943,0.2139251082,-0.9545396668
biasActivation=0,1,1
[BASIC:ACTIVATION]
"org.encog.engine.network.activation.ActivationElliottSymmetric",1
"org.encog.engine.network.activation.ActivationElliottSymmetric",1
"org.encog.engine.network.activation.ActivationLinear"
