encog,BasicNetwork,java,3.3.0,1,1469375893683
[BASIC]
[BASIC:PARAMS]
[BASIC:NETWORK]
beginTraining=0
connectionLimit=0
contextTargetOffset=0,0,0
contextTargetSize=0,0,0
endTraining=2
hasContext=f
inputCount=28
layerCounts=2,16,29
layerFeedCounts=2,15,28
layerContextCount=0,0,0
layerIndex=0,2,18
output=0,0,0,0,0,0,0,0,0,0,0,0,0,0,0,0,0,1,0,0,0,0,0,0,0,0,0,0,0,0,0,0,0,0,0,0,0,0,0,0,0,0,0,0,0,0,1
outputCount=2
weightIndex=0,32,467
weights=-0.6176490237,-0.1779362085,0.0726574674,-0.3516918819,1.0444570765,0.3973758451,1.5475652713,0.6005313623,-2.0437297215,-0.0992475932,-0.0077743855,-1.9409703636,0.1729309344,0.6981456256,-0.8692747725,0.2184824033,0.5566874191,-0.0086572194,-0.4881602328,0.3004895786,-0.7032116124,0.7387231802,-1.437586802,0.0169511175,2.0335222063,-0.4854307277,-0.2264453959,1.4379339329,-0.6587570463,-0.3892959314,-0.6763443796,-0.174875211,0.0935788537,0.5239117163,-0.7898090107,0.2821717989,0.7729777545,0.1599564839,-0.111170497,0.0663551143,0.682868273,0.5077001497,0.5120039985,0.6021700029,0.890483638,0.1488256684,-0.2474354668,0.148072205,-0.1208975183,0.301885782,-0.1127181205,1.0211506924,0.280176696,-0.3435180515,0.5358096693,0.5042477156,-0.8403338872,-0.5097977871,-0.2258037447,0.2891256202,0.4440560993,-0.2326965235,0.7304157017,0.6138704826,0.5601149437,-0.28914896,0.8370071286,-0.903832461,0.7379463494,-0.6942018183,0.3335819499,-0.7881870417,-0.0293440773,0.0635171902,0.0765352692,0.4724121074,-0.0447311465,-0.4476084965,-0.2901358165,-0.4963672485,-0.703657254,0.4855032569,0.7405448438,-0.7134207423,-0.7064170332,0.4115155408,-0.2859483277,-0.6644774301,0.0755221936,-0.6957823255,0.12703793,0.2554259517,-0.5486318156,0.295027342,-0.1200076362,-0.3445140113,0.4706945278,-0.8179345201,-0.5380174204,-0.1855343005,-0.6264621476,-0.636669867,-0.9125051411,-0.1189627729,0.3417221421,-0.7131332903,0.3931587381,-0.1083917335,-0.9733964367,-0.8482104794,-0.4550433442,-0.431331211,-0.8091189315,-0.6966236844,-0.4461026846,-0.8778734854,0.0833464703,0.7636830312,0.1719186179,0.8396203707,-0.8013618803,0.4992162817,-0.6068582791,-0.7001094288,-0.1700369829,-0.090301856,-0.4486637822,-0.467934964,-0.6767233692,-0.308536012,-0.3020949252,-0.992984944,-0.1903196995,0.6306035272,-0.4803838648,0.5142787947,0.4662355746,0.1542661994,-0.8177371819,-0.2386394781,-0.9367577166,0.5037391172,-0.3700400224,-0.6135988291,0.7118277716,-0.5135109912,-0.435816537,0.7160777638,-0.7619418456,-0.8239513223,-0.0404506353,0.2888856637,-0.2351477769,-0.4736485953,-0.4858522167,-0.4560811677,0.6030012107,0.4626501241,0.7066993562,-0.2757397458,0.627318626,-0.920989941,0.7684739447,-0.2572962393,-0.1604128672,0.7857337877,0.2557499054,-0.1910285384,-0.0831662868,0.9273941482,0.6376240586,-0.7947777846,1.1149525238,-1.0335942919,1.125470127,-0.5621804632,0.5638005134,0.7141354332,0.7379269992,-0.422858119,0.5622109165,0.3468124737,0.7718674922,0.4160740201,0.9059787409,0.7517926457,0.6963870375,0.9331543466,-0.1594155041,-0.2915952358,0.853251485,-0.3969502605,0.5183322155,0.6317976292,0.8311866871,0.9515385776,0.1684486571,-0.0121341476,-0.187980516,-0.8240304654,-0.1456144736,-0.8770408188,0.4318135064,-0.7477612359,-0.6144000445,1.0393499086,-0.7346330518,0.0883412278,0.1353905372,-0.7622744662,0.089789096,1.3707724841,0.512521805,0.1101022476,0.0431109437,0.0111315663,-0.0052299745,-0.0039936414,-0.0524663822,-0.2461696569,-0.3832103592,0.0573591052,-0.0066530962,0.6622199877,0.0561090953,0.057895152,-0.03218265,0.8869028154,0.2414899398,0.3493277168,-0.0160173782,-2.328759348,-0.2841310804,-1.2776577894,-0.1150227276,-0.0229506689,-0.3836184684,0.1201143074,-0.3546428899,-0.5015371926,0.9211029283,-0.4108861265,-0.3747320524,0.102315491,0.4816608546,-0.5305006588,-0.3366210632,-0.3507212338,-0.7945730872,-0.432363835,0.1646557198,-0.1679755032,0.4371038477,-0.8306421463,0.3043086876,0.4731394398,0.4921598063,0.6625268722,0.5001648555,-0.7280135455,-0.112093736,0.8706607725,0.442751295,0.0929815384,-0.1847169237,0.0823674683,-0.036187179,0.7696214957,-0.0413195563,-0.7922740489,0.1078474824,-0.0621747723,0.0046364424,-0.3775145835,-0.2607478043,-0.0587036337,0.0291087028,-0.4321232537,0.0856215384,-0.0674951713,0.0344958411,-0.7174203394,-0.0028632156,-0.0439683408,0.0212473217,0.7078956682,-1.0717283536,-1.0050197119,-1.2380542955,2.2169091624,-0.762826881,1.7838638601,0.2285044085,0.870902259,0.9262851997,-0.7603797968,-0.5877910277,-0.3507816086,0.396991269,0.6859333443,-0.1546999187,0.9154427358,0.217811446,0.0576137949,-0.7441960395,0.2989578156,-0.7253123704,0.5933847068,0.9308089974,0.7597804796,0.3116364039,-0.0124047186,-0.2490901526,0.506718481,-0.7503437911,0.2152601079,-0.7407969097,-0.4814954585,0.6242242541,-0.4340507254,-0.7801103778,0.7906948356,0.2191035281,-0.5511452176,1.0731664526,0.4271395706,0.9787566191,0.4451207726,0.8181103304,-0.3293500518,0.6982369863,-0.6002225181,0.0318079853,0.2899917644,-0.1971390693,1.0439620688,-0.5832195402,-0.3836613713,-0.1494576718,-0.0654622801,0.0197847504,0.5228263831,0.3611715914,0.6086929281,0.3731493165,0.5450263029,0.0383357241,-0.068898112,-0.6949268896,-0.8285447026,0.5872610322,0.8710983253,-0.3214910874,0.1024364444,0.890727674,0.0851417099,-1.24093087,0.1300970559,0.0058486772,0.1929986902,-0.4186026995,0.6338261511,-0.0611004758,0.2831975865,-0.6527538759,-0.2198120042,0.0213162566,0.0576370207,0.7009916787,0.0733771988,0.0452446158,0.0141126006,-0.6904599249,-1.4155946829,-1.0395285702,-0.7632996515,1.3780314744,-1.231261332,1.7334238635,-0.344167951,-0.1721343041,0.2539672608,-0.8998080642,-0.8163059586,-0.3977398627,-0.456954422,-0.2702719987,0.0584541673,-0.5036025133,-0.3639958675,0.2534177177,-0.0197046488,0.5155963505,0.7323207807,-0.6239581738,-0.961054928,0.0817683505,0.4488157229,-0.2998992434,0.3833453734,-0.6965223113,0.6821496998,-0.4790331555,-0.7437438125,-0.8478733203,0.1240912774,0.6115317895,-0.7443337899,-0.6219657925,-0.2957792043,-0.3300743955,-0.1385624567,0.8652782372,0.5467920752,-0.265847134,-0.6548430644,0.0755863415,-0.0887903183,-1.0386159765,0.52623028,-0.031907232,0.6155506434,-0.0275861549,0.6053533125,-0.3296618934,0.7476449878,-0.2812038199,-0.0300645095,-0.4066768819,-0.1430783481,0.351007433,-0.760649951,0.3458316916,-0.7598417534,-0.755574963,-0.2080202201,-0.8711477302,1.2936271684,0.3967251128,-0.9348262363,-0.3414539408,0.6916688744,-0.5664026005,-0.7507393649,-0.8672437323,-0.6046027094,0.8626459931,-0.2547466803,0.3658963809,-0.1950781337,-0.0270628623,0.5652650401,-0.0735605315,-0.5681665528,0.4032682114,-0.3486658263,-0.0100016203,-0.1346616696,0.4145507301,-0.1462892809,-0.6123916182,-0.8096665671,-0.3090460213,-0.5556902091,-0.2736798533,0.1654081197,-1.0931408264
biasActivation=0,1,1
[BASIC:ACTIVATION]
"org.encog.engine.network.activation.ActivationElliottSymmetric",1
"org.encog.engine.network.activation.ActivationElliottSymmetric",1
"org.encog.engine.network.activation.ActivationLinear"
