encog,BasicNetwork,java,3.3.0,1,1469375925983
[BASIC]
[BASIC:PARAMS]
[BASIC:NETWORK]
beginTraining=0
connectionLimit=0
contextTargetOffset=0,0,0
contextTargetSize=0,0,0
endTraining=2
hasContext=f
inputCount=28
layerCounts=2,16,29
layerFeedCounts=2,15,28
layerContextCount=0,0,0
layerIndex=0,2,18
output=0,0,0,0,0,0,0,0,0,0,0,0,0,0,0,0,0,1,0,0,0,0,0,0,0,0,0,0,0,0,0,0,0,0,0,0,0,0,0,0,0,0,0,0,0,0,1
outputCount=2
weightIndex=0,32,467
weights=-0.6175790596,-0.1799935903,0.0744333834,-0.3516178831,1.0440064986,0.3981535239,1.5435039965,0.5998148201,-2.0506637575,-0.1019126149,-0.0129521755,-1.9442504857,0.1739229452,0.6955429182,-0.8700527639,0.220051157,0.5575884436,-0.0058132017,-0.4861824591,0.3004233364,-0.7006823692,0.7411308721,-1.4396410153,0.0180947419,2.0414168883,-0.4854237184,-0.2248923079,1.4405452092,-0.6594604509,-0.3937651916,-0.6790469687,-0.1715983949,0.0938947546,0.5236295533,-0.7895229831,0.2821942864,0.7736203634,0.1601079142,-0.1110849255,0.066146236,0.6834091176,0.5077862198,0.5122782435,0.601768777,0.8899797996,0.1485618786,-0.2468574871,0.1482560648,-0.1217464655,0.3017584168,-0.1123612011,1.021324848,0.2806399648,-0.3432439974,0.5357005191,0.5043470361,-0.8402044316,-0.5100783199,-0.2263205543,0.2892804352,0.4441271151,-0.2326249766,0.7306163223,0.6141733215,0.5600983338,-0.2888221806,0.8367633757,-0.9037220915,0.738034355,-0.6936235686,0.3332051466,-0.7884967981,-0.0289886633,0.0635657845,0.0762443918,0.472507801,-0.0440389667,-0.4478746898,-0.2902993231,-0.4963614416,-0.7031551866,0.4863896444,0.7405029295,-0.7135918294,-0.7063251791,0.4114031629,-0.2860094141,-0.6649907577,0.0749683228,-0.69537182,0.126686834,0.2545703657,-0.5491290786,0.2947558568,-0.1209605856,-0.3449409067,0.4699636761,-0.8181603524,-0.5381212842,-0.1858942724,-0.627329349,-0.6370379739,-0.9124208186,-0.1191111166,0.3410435915,-0.713264728,0.3926351478,-0.1085166841,-0.97376676,-0.8486442946,-0.4552344077,-0.4315749648,-0.8092187974,-0.6968624206,-0.4463727896,-0.8777290453,0.0832387185,0.7630624049,0.1706052102,0.8403655093,-0.8018326086,0.5002353633,-0.6068145247,-0.6983274833,-0.1700387652,-0.0893912242,-0.4484261179,-0.4675724301,-0.6765357142,-0.306996611,-0.3023780431,-0.993285404,-0.1908536836,0.6324621009,-0.4792954101,0.5139354484,0.4660046851,0.1558826889,-0.8165241139,-0.2367264385,-0.9363658812,0.5035638081,-0.369680498,-0.6134341071,0.7114802932,-0.5143681659,-0.4354013711,0.7173957508,-0.7647174038,-0.8276929957,-0.0418829472,0.2893801724,-0.2339207423,-0.473558918,-0.481074567,-0.4519328461,0.5981651161,0.4627696282,0.7070864672,-0.2725203029,0.6231030882,-0.9196360011,0.7670015196,-0.2559447955,-0.157555094,0.7864262588,0.2582216905,-0.1905194628,-0.0818484097,0.9257346501,0.6393090133,-0.7959664424,1.1145379658,-1.0322060944,1.1306996825,-0.5614972248,0.5620402588,0.7144394546,0.7381422876,-0.4230697504,0.5624275795,0.3467302727,0.772330234,0.4166077783,0.9059897298,0.7511994259,0.6967673597,0.9336554737,-0.1594810252,-0.2917009133,0.8534562512,-0.3968385783,0.5178138883,0.6321538822,0.8312327226,0.951549736,0.1681356404,-0.0126980711,-0.1877539519,-0.8238664742,-0.1455597105,-0.8767985491,0.4316398323,-0.7474090094,-0.6135602424,1.0396646712,-0.7356608275,0.0894886507,0.1338124113,-0.76120724,0.0876223888,1.3656290251,0.5138206605,0.1110479029,0.0436937477,0.0074625455,-0.0049676528,-0.0015258672,-0.0499439557,-0.2474092658,-0.3814758803,0.0571853326,-0.0070398716,0.6616493489,0.0535375788,0.0573740941,-0.0322135328,0.8816286231,0.2443112686,0.3483482032,-0.0168814577,-2.333362653,-0.2760767606,-1.2863895927,-0.1133041213,-0.0230613007,-0.3839120109,0.1196013639,-0.3542076309,-0.501848608,0.9219026714,-0.4092515172,-0.3742869336,0.1007988875,0.4823292466,-0.5285848085,-0.3364289532,-0.3502241084,-0.7942233306,-0.432251466,0.1632030601,-0.167531759,0.4371846577,-0.8301918313,0.3032764133,0.4713176629,0.4922580718,0.663155801,0.4999955992,-0.7277299453,-0.112127211,0.8722540389,0.4446462611,0.0930582573,-0.1876490524,0.0816328326,-0.0357420948,0.7662009508,-0.0402108816,-0.7912768091,0.1082786562,-0.0604181119,0.0049235635,-0.3755912652,-0.2594693013,-0.0569156528,0.0300104682,-0.4309243922,0.0823064964,-0.0658650094,0.0353269335,-0.7161229538,-0.0038222211,-0.0428913554,0.0217517496,0.71519308,-1.0763877493,-1.0047620181,-1.2394306472,2.2222840522,-0.7782106357,1.7928233296,0.2252343708,0.8703259419,0.9255827663,-0.7600506565,-0.5882100702,-0.3508044607,0.3959759982,0.6847491056,-0.1549257677,0.9152674367,0.2171757325,0.0563336726,-0.7438296061,0.2995730693,-0.7257153323,0.592864528,0.9311921509,0.7596224028,0.3114754386,-0.0130021733,-0.2486456261,0.5070978273,-0.7507669154,0.2150165373,-0.7409981939,-0.4819699394,0.6245361606,-0.4345171164,-0.7814031368,0.7897794267,0.2188704266,-0.5512722893,1.0732776606,0.4270191676,0.9787595253,0.4448270646,0.8177692253,-0.3292577032,0.6983184623,-0.6003808199,0.0316178722,0.2898417636,-0.196587674,1.0439531931,-0.5830661346,-0.3834565612,-0.1491744154,-0.0654780863,0.0199611463,0.5226424793,0.3612499381,0.6085547922,0.3731468778,0.5450074685,0.0382196495,-0.0687538164,-0.6949553467,-0.8289560674,0.5871898618,0.8707674723,-0.3199996288,0.0987237583,0.888915284,0.0822122531,-1.2402132076,0.1319283619,0.0062913822,0.1904585694,-0.4188084047,0.6325666686,-0.0593130052,0.282184681,-0.6524090078,-0.2146162549,0.0197815412,0.0572631019,0.7000566686,0.0728445806,0.0439126275,0.0133110595,-0.686817755,-1.4208478803,-1.0375965011,-0.7638283599,1.380034103,-1.2454541609,1.7336371722,-0.3416218829,-0.172349524,0.2529224025,-0.8996292494,-0.8162520402,-0.3980250403,-0.457498153,-0.2709314698,0.0584847405,-0.5045885675,-0.3641891035,0.2528187828,-0.0200524963,0.5157168676,0.7322464586,-0.6238127788,-0.9607065954,0.0825844398,0.4487475216,-0.2997321898,0.3827948412,-0.696092277,0.6818367814,-0.4790028841,-0.7438773794,-0.8479606354,0.1242496607,0.6117342363,-0.7448889273,-0.6226793957,-0.2969814383,-0.3309820157,-0.1384351677,0.8656223293,0.5471562792,-0.2668266403,-0.6528562938,0.075471324,-0.0918006779,-1.0394395638,0.5266524282,-0.0321044455,0.6154800414,-0.0285778337,0.6050328461,-0.3297441084,0.7473552236,-0.2818350306,-0.029809231,-0.4061865327,-0.1408487623,0.3503681249,-0.7604915487,0.3453288143,-0.760607792,-0.7554104946,-0.2075046861,-0.8711091299,1.2932691886,0.3961505754,-0.9348467918,-0.3408808139,0.6910472267,-0.5662312737,-0.7514136643,-0.8678583234,-0.6045106212,0.863513592,-0.2555455306,0.364378036,-0.195229651,-0.0269976642,0.5647798219,-0.0735072879,-0.5667997618,0.4019395764,-0.3487989343,-0.0101198434,-0.1338996472,0.4162840758,-0.1466252462,-0.6127848821,-0.8096986571,-0.3095481155,-0.5554443444,-0.2747196006,0.1636428918,-1.0937094541
biasActivation=0,1,1
[BASIC:ACTIVATION]
"org.encog.engine.network.activation.ActivationElliottSymmetric",1
"org.encog.engine.network.activation.ActivationElliottSymmetric",1
"org.encog.engine.network.activation.ActivationLinear"
