encog,BasicNetwork,java,3.3.0,1,1469374308159
[BASIC]
[BASIC:PARAMS]
[BASIC:NETWORK]
beginTraining=0
connectionLimit=0
contextTargetOffset=0,0,0
contextTargetSize=0,0,0
endTraining=2
hasContext=f
inputCount=28
layerCounts=2,16,29
layerFeedCounts=2,15,28
layerContextCount=0,0,0
layerIndex=0,2,18
output=0,0,0,0,0,0,0,0,0,0,0,0,0,0,0,0,0,1,0,0,0,0,0,0,0,0,0,0,0,0,0,0,0,0,0,0,0,0,0,0,0,0,0,0,0,0,1
outputCount=2
weightIndex=0,32,467
weights=-0.6181820089,-0.0243008016,-0.0490371328,-0.4594616215,0.5052357555,0.4339427055,0.733118291,0.612337059,-0.5028151036,0.1490524584,0.2404741585,-0.7516307089,0.1742981389,0.7755919115,-0.9310471249,0.1011881094,0.5292496682,-0.3680764971,-0.5930474283,0.2490527806,-0.7579024543,0.499632737,-0.7932032496,0.089530711,0.9710168984,-0.6478573273,-0.4483258593,0.7147300864,-0.6815614233,0.1323939478,-0.4348839982,-0.502301772,0.0725729763,0.5194273926,-0.8728518541,0.2636699995,0.6804964165,0.1860000166,-0.1608081427,0.0310965693,0.6764334708,0.4825820353,0.4802919002,0.6037913347,0.9324418672,0.1636986233,-0.3052954239,0.090961592,-0.0890683505,0.2997943889,-0.1722706181,0.9837137143,0.1928649208,-0.3485401971,0.560896143,0.5172493239,-0.8174546705,-0.5779493066,-0.1991900336,0.2319424112,0.3951101064,-0.2084846127,0.787929997,0.6894434631,0.5873041061,-0.2449930974,0.8324413048,-0.8612433008,0.7901261684,-0.7033162029,0.3595055393,-0.7537212664,0.0112322553,0.0065889996,0.078405011,0.4873801826,-0.0051436019,-0.4829882467,-0.2808077496,-0.4908825425,-0.734118179,0.500765272,0.746731689,-0.7130211106,-0.7066030339,0.4165627904,-0.2645090352,-0.6457418495,0.1430814457,-0.6063566588,0.1496609697,0.3352740519,-0.4773477737,0.3191630075,-0.0158309522,-0.3388538582,0.5536530751,-0.7924521483,-0.5303431981,-0.1506022241,-0.5518986964,-0.5723983033,-0.922673393,-0.1089296259,0.3995446124,-0.6754017968,0.4298852659,-0.092645219,-0.9446026093,-0.8078480993,-0.4385086091,-0.4202515659,-0.8107870821,-0.6855914554,-0.4405973557,-0.8521407247,0.0902053147,0.8244770104,0.3194113298,0.8056414551,-0.7785406253,0.4265190198,-0.6131737261,-0.8134150125,-0.132408368,-0.1491985211,-0.4652302588,-0.4411380072,-0.7019477471,-0.3672230713,-0.2766934378,-0.9738880941,-0.1644479469,0.5524782925,-0.5601658473,0.5486665326,0.4715423587,0.0678433213,-0.8970126334,-0.3851595682,-0.9434208143,0.5341570185,-0.3557333561,-0.5860265529,0.6460425041,-0.4713423878,-0.4989567855,0.6794463089,-0.6469982589,-0.5190933517,0.4982841691,0.3103899733,-0.3323445123,-0.7267686614,-0.5990086803,-0.9167569593,0.8971274242,0.5675756467,0.8211895278,-0.3745382088,0.5479582906,-0.9605239336,0.8576474542,-0.3435015464,-0.6166759118,0.8349587959,0.1946577408,-0.1462063013,-0.3384306177,0.9393953978,0.3719407236,-0.9290807537,0.9018016913,-0.5615540427,0.8115910592,-0.3325319482,0.7403099549,0.7030454517,0.7270903364,-0.4223519228,0.555682491,0.3494661019,0.7584520161,0.3816133364,0.8982999592,0.7655810044,0.6763636611,0.9014629774,-0.1755664147,-0.2877362322,0.8464007839,-0.4055754712,0.5265559474,0.6301411623,0.8259715749,0.9511318949,0.1868596101,0.0203159779,-0.1968236765,-0.8298910224,-0.1481591263,-0.8867495267,0.4369008442,-0.7609341573,-0.6508179447,0.9972243853,-0.9778260448,-0.1491867643,0.4518105383,-0.957962677,0.4637113241,1.0600453962,0.5276510531,0.1277605708,0.2725728176,0.5610937753,-0.0594792933,-0.2435070203,-0.5484391063,-0.278265288,-0.8293509479,0.2477206259,-0.4241291618,0.7725415452,0.36826819,0.2374953901,0.2593934048,0.9791748614,-0.228006437,-0.0620454897,-0.5780686914,-0.8719543727,-0.8050313317,-0.4170003645,-0.3321037303,0.0008778206,-0.294896766,0.1408639058,-0.3491798156,-0.4601098765,0.8650466683,-0.5155727157,-0.3683093754,0.1191394454,0.484143352,-0.6757613717,-0.3870290034,-0.3467666653,-0.8011602473,-0.4572476585,0.2383441988,-0.0938092727,0.4447467717,-0.8567929167,0.3894189027,0.5380879211,0.4731181028,0.6004246072,0.4795519308,-0.7797456883,0.005830021,0.7969551993,0.4136522256,0.0547842161,-0.0860223882,0.535736125,0.4272657905,1.131833446,-0.5911101818,-0.4363368471,0.2181414928,-0.2335818456,0.766948877,-0.8130164054,-0.3600283845,-0.6207869761,-0.0870954457,-0.343483069,0.5976382194,-0.5939289288,-0.270787458,-0.8195402965,0.2584146973,-0.1003555412,0.3056035359,0.5996451024,-0.4906349524,-0.6063342021,-0.5912172275,0.9195920785,0.0855716478,1.0834472363,0.3647922532,0.8905090025,0.9475499165,-0.8359205771,-0.5654850061,-0.3900615369,0.3901984729,0.748225119,-0.153551135,0.9210313866,0.2513407599,0.0977994623,-0.8084930057,0.1578808405,-0.7345855927,0.5779450275,0.9174531802,0.70625062,0.3181318507,-0.0082830708,-0.3494598238,0.4620621605,-0.7428598906,0.1952697218,-0.7698270251,-0.4938940613,0.6697334158,-0.4391690148,-0.6991719542,0.7801466565,0.229522404,-0.5867162807,1.0496079557,0.4365615165,0.9629761385,0.3977802485,0.8223314465,-0.3683735793,0.7316462205,-0.6017270791,-0.0191354374,0.3376047064,-0.3257061496,1.0154342721,-0.6566719852,-0.4023507084,-0.3033346977,-0.0736394437,-0.068304689,0.5725369368,0.3908267447,0.6002921834,0.3313843944,0.5131147042,0.0051100693,-0.0052046241,-0.730197182,-0.8000811816,0.5207222857,1.0302021042,-0.7271724663,0.344735188,1.0536053046,0.7584844481,-0.9564222602,-0.3864316448,-0.466614571,0.6137963637,-0.8731857174,0.8009608847,-0.2011901462,0.7005840654,-0.7051594856,-0.6173946662,0.4194355504,-0.0151630882,0.6076017844,-0.0398857621,0.0449145787,0.2640851313,-0.7339651973,-0.8950187876,-0.7233115926,-0.212710598,0.0385911943,-0.5992177041,1.1859765566,-0.4044593033,-0.163704664,0.3832493947,-0.8896331846,-0.808720149,-0.321427943,-0.4646386134,-0.1769138251,0.1051717723,-0.3448339679,-0.3305978756,0.3499523826,0.1190988257,0.5846207644,0.7381362214,-0.6316594169,-0.9310572079,0.0340005859,0.4604395295,-0.2952173596,0.5073603927,-0.7499018996,0.6908134468,-0.5000208221,-0.7422729264,-0.8636687913,0.2159933904,0.6073090327,-0.6677977589,-0.464294511,-0.2250402282,-0.2369319839,-0.1363408785,0.862135508,0.5410318616,-0.2683748006,-0.8298376936,0.1359884689,0.1603028329,-0.9721546965,0.4476870705,-0.0585868367,0.6847921869,0.0063718516,0.6237705282,-0.3045553231,0.8269342037,-0.2425810175,-0.0324760402,-0.3774528251,-0.341236927,0.3485340344,-0.8221102377,0.3304295782,-0.8034178171,-0.587997293,-0.2553084195,-0.8471383825,1.273074996,0.426585147,-0.9244978667,-0.3410889263,0.7123639452,-0.569999005,-0.7246277442,-0.814193772,-0.5976733763,0.9383772247,-0.22594475,0.48205053,-0.1195624889,-0.0087853659,0.5791901276,-0.0515418804,-0.6054508716,0.4601471511,-0.3410787075,-0.0001124768,-0.1744360722,0.3035194732,-0.1285102096,-0.5860363674,-0.7893905029,-0.2693559433,-0.6063029212,-0.2304286315,0.2222832203,-0.9650626901
biasActivation=0,1,1
[BASIC:ACTIVATION]
"org.encog.engine.network.activation.ActivationElliottSymmetric",1
"org.encog.engine.network.activation.ActivationElliottSymmetric",1
"org.encog.engine.network.activation.ActivationLinear"
