encog,BasicNetwork,java,3.3.0,1,1469374340459
[BASIC]
[BASIC:PARAMS]
[BASIC:NETWORK]
beginTraining=0
connectionLimit=0
contextTargetOffset=0,0,0
contextTargetSize=0,0,0
endTraining=2
hasContext=f
inputCount=28
layerCounts=2,16,29
layerFeedCounts=2,15,28
layerContextCount=0,0,0
layerIndex=0,2,18
output=0,0,0,0,0,0,0,0,0,0,0,0,0,0,0,0,0,1,0,0,0,0,0,0,0,0,0,0,0,0,0,0,0,0,0,0,0,0,0,0,0,0,0,0,0,0,1
outputCount=2
weightIndex=0,32,467
weights=-0.6149621349,-0.024428537,-0.0533441218,-0.4384879251,0.5892128828,0.4320314378,0.8271725777,0.6071093017,-0.6070551088,0.1470488182,0.2465987368,-0.8440165335,0.1758608362,0.7895695516,-0.9285370796,0.1090207976,0.5207535113,-0.3518242024,-0.58393936,0.2433806146,-0.7764210719,0.5029865365,-0.8617650708,0.0763937316,1.0234219962,-0.6546813012,-0.4368308656,0.7777811574,-0.6750059004,0.0966441682,-0.44533062,-0.4936220925,0.0761326728,0.5209083697,-0.8662124933,0.2715027913,0.6892385531,0.1816446698,-0.1538604147,0.0366734122,0.6730374009,0.48231218,0.4820238008,0.6053936379,0.9292699627,0.1630209552,-0.3027770533,0.0968923861,-0.0891428659,0.2994853931,-0.1674145138,0.987863922,0.2010667642,-0.3485565011,0.5601172362,0.5168489201,-0.8165771941,-0.5711068611,-0.1962110749,0.2413427834,0.4003046546,-0.2117015639,0.7829838239,0.6822536084,0.5813512141,-0.2493311346,0.8384708027,-0.8656077035,0.7857668504,-0.7065765056,0.3609399498,-0.7530943559,0.0041777356,0.0204527779,0.0805704741,0.4875439532,-0.0110915032,-0.4768427961,-0.280728821,-0.4898828251,-0.7312322267,0.4970163725,0.7468805652,-0.7121306479,-0.7064022357,0.4161699089,-0.2685936801,-0.6470380805,0.1365035354,-0.6126523587,0.1478514181,0.3311972253,-0.4823332683,0.3153814962,-0.0227633987,-0.3362129504,0.5480452669,-0.7939659528,-0.5275063421,-0.150717509,-0.5550314045,-0.5783194363,-0.9222528462,-0.1089165429,0.3967774986,-0.6789145615,0.4311400048,-0.0929962216,-0.9459383774,-0.8096327445,-0.4405038637,-0.4203921111,-0.810517924,-0.686196809,-0.4411318434,-0.8551906103,0.0889147096,0.8199922256,0.3112236445,0.8082141508,-0.7840891265,0.423038849,-0.607705325,-0.8107761764,-0.138129053,-0.150021286,-0.4669773715,-0.4542271491,-0.7031731638,-0.3720717074,-0.2835446583,-0.9763653107,-0.165921977,0.5477110195,-0.5608410061,0.5407539959,0.4701510029,0.0659327447,-0.8966775394,-0.3786551645,-0.9438512144,0.532605797,-0.358658869,-0.5866167806,0.6518363379,-0.4698489562,-0.4913729269,0.6686379348,-0.6607910417,-0.5247565707,0.4756739966,0.2782834496,-0.3314810868,-0.6995925982,-0.6135590666,-0.908497984,0.9137960064,0.5735778107,0.8209524091,-0.3888097444,0.5711361012,-0.9574091708,0.8700949437,-0.3489063583,-0.6031031801,0.8369785455,0.1974833366,-0.1552522364,-0.3230220396,0.9406910378,0.3785750142,-0.9229157538,0.9012073018,-0.5904079124,0.8025287295,-0.3695274434,0.7372981347,0.7032087954,0.7278268804,-0.42154608,0.5556516406,0.3502497012,0.7577681001,0.3831681739,0.8986689337,0.7656069265,0.6763744313,0.9028524994,-0.1727048263,-0.2879174676,0.8463443961,-0.4045974789,0.5277194082,0.6285878265,0.8261934583,0.9515506994,0.1861425682,0.0200227132,-0.196749482,-0.8298631497,-0.1478238837,-0.8866923582,0.4369595512,-0.7609957318,-0.6506736203,1.0000287768,-0.9867602191,-0.1313639124,0.4453359717,-0.9985570953,0.4459618739,1.0918113482,0.5100842629,0.1037580449,0.2659000936,0.5598481412,-0.0496113812,-0.2267686263,-0.512076194,-0.2735015004,-0.7966548103,0.2329716099,-0.3795730875,0.7766542928,0.3591085473,0.2330062206,0.2489036415,0.9806631729,-0.2204894698,-0.0502262137,-0.5776525631,-0.9274507716,-0.8241254725,-0.4754879248,-0.3169903035,-0.0033674796,-0.3008958434,0.1398766645,-0.3575930305,-0.4642831334,0.8660101064,-0.5161808111,-0.3750268974,0.1206781082,0.4834163015,-0.6720795167,-0.3824627039,-0.348018526,-0.8017843299,-0.4556122627,0.2346402123,-0.105886975,0.4448421937,-0.8581066346,0.3808036945,0.5351085275,0.4733839593,0.6012563843,0.48026009,-0.7809380494,-0.0022014084,0.7927620952,0.4038957377,0.0543021944,-0.0670375775,0.5159149527,0.3971449717,1.1672654993,-0.5703209801,-0.4739608328,0.2289427434,-0.2339622471,0.7351322353,-0.822374533,-0.3577083311,-0.5828953597,-0.1089749289,-0.355228118,0.5706445059,-0.5629014228,-0.2668683949,-0.8273405853,0.2502030473,-0.0958135049,0.2787874261,0.5968667782,-0.5005207351,-0.6152751644,-0.5927991757,0.9577425882,0.0934916676,1.1275058523,0.359742942,0.8879375099,0.9442970635,-0.8344458041,-0.5725577451,-0.3933036378,0.395866673,0.7408362611,-0.1579670202,0.9199071411,0.252348583,0.094822578,-0.8112134748,0.1678993916,-0.7327346147,0.5789385561,0.9128109446,0.7071836331,0.3186322484,-0.0109265673,-0.3468448539,0.4632197682,-0.7426303418,0.1965104423,-0.7688325895,-0.494375573,0.6634704713,-0.4411823621,-0.7072134723,0.7763770149,0.2267097455,-0.5841204824,1.0520283917,0.4299095183,0.9635531161,0.4044881996,0.8214925593,-0.3685868538,0.730339216,-0.5996773514,-0.0153157937,0.3298845915,-0.3175861428,1.0175075057,-0.6505783437,-0.403179029,-0.296569155,-0.0721272607,-0.0624099658,0.5669382107,0.3903010685,0.6010379294,0.3336106079,0.514971847,0.0054022168,-0.012203965,-0.7315572574,-0.8074116515,0.5245297001,1.044112017,-0.723386394,0.3462629613,1.0971409059,0.7392724699,-0.981751693,-0.3562802693,-0.4270962931,0.5761497845,-0.8710410077,0.7917215099,-0.2004784867,0.6567621153,-0.7042192518,-0.6286388849,0.4135641735,0.0068712623,0.6059685433,-0.034606013,0.0623505714,0.2501135633,-0.7348485406,-0.9023651601,-0.7331664033,-0.2117925235,0.0914863356,-0.5796176227,1.2435612002,-0.4092305361,-0.1660901341,0.3752370845,-0.8888527062,-0.8147525089,-0.3276923961,-0.4591213241,-0.184032738,0.0996106408,-0.3528473447,-0.3305945799,0.3437723662,0.1036226844,0.5769405529,0.7383810626,-0.6290679188,-0.9351967842,0.0324570555,0.4610837379,-0.2948999517,0.4965136329,-0.7442126844,0.6908557723,-0.4988653632,-0.7425729747,-0.864042118,0.2059366664,0.6041226953,-0.6768155521,-0.474998305,-0.2307308769,-0.2399981117,-0.1356012099,0.8529998782,0.5379399129,-0.2678291516,-0.8294238841,0.1269115129,0.1551577412,-0.9731202713,0.4508406433,-0.0543829315,0.6788646903,0.0058614181,0.6256258464,-0.3074014226,0.8146360597,-0.2423983432,-0.0344748363,-0.3857052446,-0.3386561659,0.3487427121,-0.8215234436,0.3310137184,-0.8056383991,-0.5975934304,-0.2610201271,-0.8586947949,1.2730057121,0.4269733174,-0.9251865311,-0.3425095651,0.7157602135,-0.5698221448,-0.7239801859,-0.8153918715,-0.5951564895,0.9322175182,-0.2253134874,0.4785916972,-0.1263868531,-0.0086734693,0.5799175707,-0.0535601169,-0.6050935622,0.4640908571,-0.3413599702,0.0003055747,-0.1703211583,0.3059105889,-0.1286840957,-0.5864283076,-0.7906356394,-0.2692095097,-0.6024873558,-0.2285277454,0.2263875098,-0.9708179558
biasActivation=0,1,1
[BASIC:ACTIVATION]
"org.encog.engine.network.activation.ActivationElliottSymmetric",1
"org.encog.engine.network.activation.ActivationElliottSymmetric",1
"org.encog.engine.network.activation.ActivationLinear"
