encog,BasicNetwork,java,3.3.0,1,1471505969173
[BASIC]
[BASIC:PARAMS]
[BASIC:NETWORK]
beginTraining=0
connectionLimit=0
contextTargetOffset=0,0,0,0,0
contextTargetSize=0,0,0,0,0
endTraining=4
hasContext=f
inputCount=28
layerCounts=2,301,301,301,29
layerFeedCounts=2,300,300,300,28
layerContextCount=0,0,0,0,0
layerIndex=0,2,303,604,905
output=0,0,0,0,0,0,0,0,0,0,0,0,0,0,0,0,0,0,0,0,0,0,0,0,0,0,0,0,0,0,0,0,0,0,0,0,0,0,0,0,0,0,0,0,0,0,0,0,0,0,0,0,0,0,0,0,0,0,0,0,0,0,0,0,0,0,0,0,0,0,0,0,0,0,0,0,0,0,0,0,0,0,0,0,0,0,0,0,0,0,0,0,0,0,0,0,0,0,0,0,0,0,0,0,0,0,0,0,0,0,0,0,0,0,0,0,0,0,0,0,0,0,0,0,0,0,0,0,0,0,0,0,0,0,0,0,0,0,0,0,0,0,0,0,0,0,0,0,0,0,0,0,0,0,0,0,0,0,0,0,0,0,0,0,0,0,0,0,0,0,0,0,0,0,0,0,0,0,0,0,0,0,0,0,0,0,0,0,0,0,0,0,0,0,0,0,0,0,0,0,0,0,0,0,0,0,0,0,0,0,0,0,0,0,0,0,0,0,0,0,0,0,0,0,0,0,0,0,0,0,0,0,0,0,0,0,0,0,0,0,0,0,0,0,0,0,0,0,0,0,0,0,0,0,0,0,0,0,0,0,0,0,0,0,0,0,0,0,0,0,0,0,0,0,0,0,0,0,0,0,0,0,0,0,0,0,0,0,0,0,0,0,0,0,0,0,0,0,0,0,0,0,1,0,0,0,0,0,0,0,0,0,0,0,0,0,0,0,0,0,0,0,0,0,0,0,0,0,0,0,0,0,0,0,0,0,0,0,0,0,0,0,0,0,0,0,0,0,0,0,0,0,0,0,0,0,0,0,0,0,0,0,0,0,0,0,0,0,0,0,0,0,0,0,0,0,0,0,0,0,0,0,0,0,0,0,0,0,0,0,0,0,0,0,0,0,0,0,0,0,0,0,0,0,0,0,0,0,0,0,0,0,0,0,0,0,0,0,0,0,0,0,0,0,0,0,0,0,0,0,0,0,0,0,0,0,0,0,0,0,0,0,0,0,0,0,0,0,0,0,0,0,0,0,0,0,0,0,0,0,0,0,0,0,0,0,0,0,0,0,0,0,0,0,0,0,0,0,0,0,0,0,0,0,0,0,0,0,0,0,0,0,0,0,0,0,0,0,0,0,0,0,0,0,0,0,0,0,0,0,0,0,0,0,0,0,0,0,0,0,0,0,0,0,0,0,0,0,0,0,0,0,0,0,0,0,0,0,0,0,0,0,0,0,0,0,0,0,0,0,0,0,0,0,0,0,0,0,0,0,0,0,0,0,0,0,0,0,0,0,0,0,0,0,0,0,0,0,0,0,0,0,0,0,0,0,0,0,0,0,0,0,0,0,0,0,0,0,0,0,0,0,0,1,0,0,0,0,0,0,0,0,0,0,0,0,0,0,0,0,0,0,0,0,0,0,0,0,0,0,0,0,0,0,0,0,0,0,0,0,0,0,0,0,0,0,0,0,0,0,0,0,0,0,0,0,0,0,0,0,0,0,0,0,0,0,0,0,0,0,0,0,0,0,0,0,0,0,0,0,0,0,0,0,0,0,0,0,0,0,0,0,0,0,0,0,0,0,0,0,0,0,0,0,0,0,0,0,0,0,0,0,0,0,0,0,0,0,0,0,0,0,0,0,0,0,0,0,0,0,0,0,0,0,0,0,0,0,0,0,0,0,0,0,0,0,0,0,0,0,0,0,0,0,0,0,0,0,0,0,0,0,0,0,0,0,0,0,0,0,0,0,0,0,0,0,0,0,0,0,0,0,0,0,0,0,0,0,0,0,0,0,0,0,0,0,0,0,0,0,0,0,0,0,0,0,0,0,0,0,0,0,0,0,0,0,0,0,0,0,0,0,0,0,0,0,0,0,0,0,0,0,0,0,0,0,0,0,0,0,0,0,0,0,0,0,0,0,0,0,0,0,0,0,0,0,0,0,0,0,0,0,0,0,0,0,0,0,0,0,0,0,0,0,0,0,0,0,0,0,0,0,0,0,0,0,0,0,0,0,0,0,0,0,0,0,0,0,0,0,0,0,0,0,1,0,0,0,0,0,0,0,0,0,0,0,0,0,0,0,0,0,0,0,0,0,0,0,0,0,0,0,0,1
outputCount=2
weightIndex=0,602,90902,181202,189902
weights=##0
##double#189902
   0.0125080962,-0.1559888962,0.2001202172,-0.4353395183,0.8772036617,0.7296341759,0.2214521501,0.2986410145,0.7933513018,0.4095229546,0.2251541751,-0.0244522461,0.2614230821,-0.3087589085,-0.5698681833,-0.1493359994,-0.1423947166,-0.3245102679,0.0157177925,0.0737573835,0.3359942694,-2.1752794981,0.4140342295,-0.2357170324,0.646680573,0.3824284319,0.6385289168,-0.4570001529,0.7708632764,-0.1830805186,-0.0520061744,-0.7687020521,0.1693273376,-0.0429250141,-0.3643274584,-0.1221822638,0.9204007871,-0.0368523333,-0.8101543396,0.3548287288,0.6833910355,-0.9582749821,0.3299666953,-0.1830816475,0.0741383328,-0.9545371388,0.3039425503,0.1233748017,-0.4961356037,0.1112520541,0.2438444082,-0.6769888898,0.0264011239,0.3176808799,-0.1426988796,-0.0328803181,-0.5788469773,-0.6669117614,-0.1100979481,1.8479177541,0.0839611579,0.9455757799,-1.0846665445,-0.1737161924,-0.9003147345,0.7100735664,0.6217720296,-0.3916525962,0.4340876685,0.2243248669,-0.0806998619,0.1010363796,-0.059902163,0.9813690867,-0.8496847585,-0.4552446285,-0.1611227827,-0.0218031795,-0.6638523669,-0.4790187577,0.2110588696,-0.6665246481,-0.0420309855,-0.4796037336,-2.0693476716,0.5355277567,-0.6396571876,0.2858250834,-0.0445023257,0.0730583009,0.9277250068,-0.6092148648,0.3259500476,0.3183364427,-0.3451252263,0.9543661688,0.6185663862,-0.8400562577,-0.2347939341,0.4016268027,0.4914486984,-2.0391354463,-0.3635614467,0.6687550836,-0.3445538448,0.1893962074,0.808389296,-0.0135656606,-0.0081145772,0.177477514,0.058181528,0.138996397,0.3734597476,-0.1777409422,-0.1441265115,-1.8387637971,-0.1735609885,-0.0352503339,0.1912673094,0.0292040504,-0.1429228863,-0.0324668154,-1.839316528,-0.0018850649,0.2178498063,0.014964501,0.9879834624,0.2626515025,-0.6636993831,-0.4979568902,0.6713974253,0.1974358916,0.1633907143,-0.0583934206,-0.480221636,-0.7111301798,-0.2553378107,-0.0250818803,0.4632025758,0.0761818931,-0.8028107267,0.0161469262,-0.062564193,0.3583522205,-0.1578732909,-0.0642721352,-1.8547975922,-0.679214743,0.6686113137,2.3732399297,-0.0792951662,0.101291557,-0.0823174435,-0.9093954883,0.3720112932,-0.8427065581,0.4379581862,-0.9671813705,-0.9622803468,0.1967334907,0.3798490087,0.4632478994,2.0647665617,2.3152188661,0.616873655,-0.1083368336,-0.0558722792,0.1807352004,0.2348858967,-0.0084172307,-0.4027888002,-0.5908919423,0.7039443298,-0.0060677865,0.0677400663,-0.2585709256,-0.0884864425,-0.6771139399,-0.42415733,0.2547177239,0.0404704821,-0.6484161902,0.1444227015,0.0071770681,-0.2576568916,0.043734721,1.912723562,-0.4905143035,-0.0998628738,-0.73791342,-0.3341287895,0.8008257477,-0.0404544613,-0.2993082693,-0.0222970253,0.3655953085,0.4448109669,0.3645547662,0.5212453219,-0.6705460634,0.4998253541,1.9711586596,-0.037053579,-0.3630238958,0.5258291819,0.2814553712,0.6916958228,-0.0081206566,-0.1892880827,-0.4468986227,-0.2577428029,-0.3055925308,0.1076241712,-0.2901332806,0.4130477551,-0.5786448538,-0.306289094,-0.8952189617,0.7750805142,0.7761634427,0.3234315624,0.290156371,0.3006917645,-0.7177275603,-0.3041179295,-0.1678705609,0.2439096313,0.0956052898,0.1351451736,0.0207883781,0.4377627486,0.8155637034,0.3205801946,0.3116415064,-0.2942337305,-0.479580944,0.339278179,-0.0146402544,0.254049336,0.372030433,-0.0113014022,-0.0016654328,1.0251574276,0.1617510357,0.3587253756,0.2698566126,-0.7607201389,-0.1928284302,0.2240723412,-0.3751371282,-1.0762314334,-0.2902303611,-0.2190349208,-0.6684395773,0.1559689947,-0.9492140348,-0.4021361997,1.8472418632,-0.4339393834,0.0619886616,0.1406699566,0.2661273305,-0.0033272903,0.2392206237,0.062422748,0.0579084845,-0.0032350171,-0.0917341606,-0.1070009869,0.0501247006,-0.1729829231,0.037201531,-0.4531439821,-0.0558741728,0.8444424815,-0.1142166513,-0.5812861685,-2.0212605266,0.905467032,0.261910407,0.014774104,0.1185982997,-0.1212333219,0.2970143424,-0.1095702806,0.0741657171,0.5548054425,0.3852017874,-0.2597985927,-0.0900929306,0.7864328673,-0.0029948496,0.3601386208,0.3709534998,0.2427872307,0.5805627434,0.2619526753,-0.71645377,0.1907708945,0.3477817766,0.3907989473,0.326206459,0.6179842524,0.7422306138,0.3395274146,0.2529557595,0.2264746058,0.1359683376,0.1122562654,-0.0265609588,-0.0067823879,0.3824065575,0.4039489503,0.586006974,-0.0489122123,-0.1017652514,-0.3303121478,0.2898098605,0.9768657788,0.075238397,-0.3315800982,0.6372651147,-0.6708697176,0.4437886,-0.5003482245,0.4516359429,0.6758095599,-0.7367731567,-0.6478366756,-0.0531332608,-0.974260988,0.0902377912,-0.2895839767,0.0021250343,0.5378682584,-0.297146943,0.9656615332,0.2032095538,0.0344149539,-0.7352577132,0.780062359,-0.6294103167,0.6745277209,0.3399680571,-0.0538672403,0.4660285747,-0.8928325326,-0.0112043279,-0.6110774014,0.0300544725,-0.412191625,0.3098483069,0.4901536981,-0.3514275918,-0.3864311439,-0.4547923345,0.2644819746,-0.7063057914,-0.8015787449,-0.1996809288,0.8002629083,0.185563488,0.1488673742,-0.0542938879,-0.6724074044,0.0804354407,-0.3567905992,-0.0574026316,-0.286097274,0.7715672801,-0.1317048675,-0.5178128832,0.3787437196,-0.0594626614,0.5081920806,-0.5194820314,-0.4693976442,-0.0585093245,0.7765686394,0.2256433457,-0.5033745776,0.0313943942,-0.5797812749,-0.6350308751,-0.8036725711,-0.8645117891,0.2411888457,-0.4423523818,-0.3348603937,0.0415910948,-0.2457582562,0.8219823413,0.6601301144,-0.90194451,-0.2928881632,-0.431312716,-0.0230112805,0.0496870476,-0.7476570855,-0.6497629108,0.3662587132,0.7279037651,-1.056921359,0.0502048814,0.4629419654,-0.3753878355,-0.8419448152,0.8115526821,-0.3063041433,0.4374595944,0.4931668905,0.0659369596,-0.0373502564,-0.0500492148,-0.423206577,-0.1328298863,-1.0409493152,-0.4192302515,-0.175998371,-0.5520687347,-0.5725550341,0.5706832431,0.8332879705,-0.3299232197,-0.4410766181,0.1081024901,-0.2776674706,0.0194651623,0.7480296704,-0.3577189096,0.1165014399,0.1948266425,-0.074902641,0.7429306662,0.3867438052,-0.3884165733,0.4081578345,1.0119097201,0.1917640855,1.06110664,0.3409199375,-0.5658832078,0.0282693382,0.7486803511,-0.4796796393,-0.080208855,0.1011275297,-0.8799817821,0.6108180667,-0.0885287157,0.3325255423,-0.2296240805,-0.1549723852,0.3613528972,0.0018550341,0.2654443231,-0.0882332673,0.4139197236,-0.5846906015,-0.434929961,0.0098703246,-0.6301353841,-0.2182848404,0.8869268544,0.657221989,0.1566521486,-0.0927850318,0.4766722114,-0.633506439,-0.601409192,0.4523269811,-0.3294436934,0.0948804872,-0.0417853682,-0.3785943185,0.5484393293,-0.1878550212,0.2682113735,0.9455602198,-0.3236766866,-0.5265826262,0.3707751907,-0.1193662558,0.2957337856,-0.7863105377,-0.0102156523,0.1167373455,0.0913218237,-1.1532897112,-0.2343111469,-0.2438070219,-0.1118581677,-0.2386501235,0.3297363252,-0.7033061787,-0.1085647556,0.3296228151,1.1987602943,-0.3240300285,0.0237523852,-0.788861677,-0.4409030344,0.3910140707,-0.2182999184,-0.0816409586,0.0353409152,0.0856426295,0.5044068147,0.4606920852,-0.2683096187,-0.097674151,-0.596056876,-0.2850090122,-0.0250270352,0.6892468351,-0.6007122524,-0.7536631025,0.7933988503,-0.25853656,0.8391139697,0.3950966814,-0.0203286745,-0.0913051394,0.5024018746,-0.2353996152,-0.2839753326,0.0390668467,0.0456769663,0.2762487057,-0.3545889308,-0.0449519387,-0.3154775345,0.5288498791,-0.0791869351,-0.1089880412,-0.3649640141,0.1452147158,0.0552289879,-0.9775890953,0.0733876748,0.8112431982,0.3851488146,0.1183539278,-0.0001884928,0.2318020821,0.4290757975,0.7751030666,-0.6601777754,0.2573263689,0.3144466724,-0.5077121023,0.8015216996,-0.1474751175,-0.3609780208,-0.660469542,0.2846635834,-0.8101659986,-0.7175754549,0.561108222,-0.4458308836,0.4945327102,-0.88078391,-0.5132035794,0.7495279789,0.0980142481,-0.0061503303,0.5612607582,0.03552225,-0.2204143548,0.8251147578,-0.7988357173,0.6005527521,0.5995143165,-0.3990171022,0.0636062008,0.3167771324,0.0224946409,0.0370201832,-0.6966213285,-0.1035711132,-0.0500423112,0.3469640101,-0.0398625659,0.0439568592,0.2201131432,-0.658163779,0.050588875,0.1929925043,-0.5799473846,-0.2820798296,-0.5688075923,-0.0145696908,0.1454645547,-0.5047935537,-0.1039714961,0.3709639795,0.4863766136,-0.1636478984,-0.101415462,0.0146928642,-0.2291401785,0.8886054521,0.0873874592,-0.0282802418,-0.6529484039,0.1069438802,0.4405727197,-0.3689243343,0.8035695289,0.4868301076,0.2980420327,1.0595635857,-0.0229388967,-0.2393936148,0.8277633569,-0.6476027655,0.4291743412,0.0086232783,0.558294742,0.5390874358,0.6760881849,0.9260302149,0.0717835908,2.2534345874,0.8626156864,-0.2421004761,-0.1157648042,-0.2398190626,0.3886996396,0.5285091077,0.3954922595,-0.2531721735,-0.0780300096,0.7915847066,0.795380654,-1.1364628258,-0.313667931,0.5476300533,0.6284160805,0.3435487517,-0.934731043,0.5106087308,-1.0427602833,-1.0272006633,-1.0901371419,0.0947068804,-0.2967911798,-0.9528899206,-0.1481717777,0.1900615129,-0.4223650754,0.9793944061,-0.6884537752,-0.0624476087,0.692207737,-0.5651773329,-2.5551975909,0.3712442052,0.0480497772,-10.3888420144,-1.10257037,-0.7649492867,-0.0688919877,0.0534998156,-0.4212274125,-0.3104905791,-0.4333378413,0.7339074764,0.7010240974,-0.0564170808,-0.2996876013,0.4476634867,0.2323852202,0.0231137028,0.1171431588,0.0369394173,-1.0475947726,0.6626779373,0.6258745912,0.2500286048,0.2017567569,0.5553395421,-0.2468676561,0.8406926392,-0.3473815719,0.8849989801,-0.417293994,0.0189868649,0.133915624,-0.5820966501,-1.906027141,0.2929603879,0.1516099136,0.7116648447,-1.0435670533,-0.4617691748,-0.4428419889,0.1949463738,1.4850924728,-0.2698698062,0.3536284957,-0.8469139557,-0.4458494498,0.1839881817,0.4763064696,0.5230066364,0.0436612354,0.625596766,-0.485064184,-0.289321348,-0.0616739204,-0.1816358599,-0.0861036745,0.2432366371,0.6556306697,0.4305202344,0.6418029705,-0.9627422934,0.5663747748,-0.0679744591,0.1289815803,0.4623242572,0.3251091402,0.66004149,0.5710698038,1.1741444246,-0.3423644979,0.8124651154,-0.5901859852,0.6106277751,0.8113906094,0.2309142451,0.1922529818,-1.0681636322,0.3524928798,-0.1030490812,0.2383215417,-0.6385949778,0.3613796531,-0.5341798493,-0.7459737114,-0.0435207217,-0.2655392463,-1.6992565118,0.7340594032,0.3774810003,0.3078178474,-0.9078593518,2.1630013379,0.2610513309,-0.2140819001,-0.3004688684,0.3599214962,0.5378561737,-0.6929033004,0.4177386842,-0.8289072978,0.7651428055,0.7426614408,-0.5958678698,0.117930772,-0.3096185389,-0.6515398846,0.1637932638,-0.4078150501,0.2887317457,0.4304284268,-0.8343074007,-0.6214734324,1.5706296788,-0.8736043153,-0.2261492803,-0.2012915593,-0.3177022984,-0.7391425377,0.3836835595,0.5467688189,-2.8138500336,0.698472447,-0.212644352,-0.0991204384,-0.8356242204,0.3955757875,-0.166172365,-0.0112996863,-0.83383748,-0.2940145297,0.5229109694,-0.1848760817,0.2179795251,-0.6217267708,1.8270955942,-0.1836486738,0.6230604966,0.1087232397,-1.0908259059,-0.1345729262,0.6934736473,-0.6615906553,0.5707763032,-0.6364939331,-0.4123218377,-0.5451112264,0.3298026268,1.1472261799,0.2364199183,-0.0663138404,-0.4389173203,-0.6958764463,0.7960403,-0.2529249824,0.7430842024,-0.9936520746,0.4448048435,0.1463384479,-0.9258489861,0.2390105875,-0.1381607821,-0.8059177773,0.2909190879,-0.7137511227,1.0696627935,-0.5959544693,0.2315174136,-0.5150173942,0.478500336,0.605137091,-0.4577977484,0.0633234709,0.8701520506,0.6838361945,1.0106731649,0.9660903755,-0.7725100331,0.1832676414,0.2936840597,0.0170344974,0.8321490134,-0.513945923,-0.2075255778,0.2030225446,-0.0000337096,0.6201675332,-0.485160637,0.7871467417,0.4275648856,0.3209348921,0.2811739798,0.9693730804,0.5594766105,-0.016586376,-0.5406118852,0.521665021,-0.7546963579,-0.7399718941,-0.3256055791,0.6679971767,0.6526473889,0.6303329942,0.5216771601,-0.9638056719,0.1421979086,-0.3738871418,0.4310872662,0.3667624632,0.2395561596,0.5143434891,-0.2525125836,0.0012217465,0.1947242474,-0.6167706491,0.3957678794,0.0181291403,0.335610323,-0.4134829818,-0.3493905024,2.3831427683,0.6362918515,0.8006301085,0.767508211,-0.4533958628,1.0569508054,-0.0911041308,0.1546351523,-0.4710285195,0.2776408651,0.2005200219,-0.5399547409,-0.6095026583,-0.0387345114,-0.2601134543,-1.0544142246,-0.5892765477,1.0100963147,-0.0147460758,0.0960755449,0.4020679182,-0.6222372034,0.3901982386,-0.0985038631,-0.3748714025,0.315294565,-0.2426423945,-0.3420985432,-0.3552142899,-0.2236552789,-0.4440671768,-0.745311513,-0.177291389,0.8453686133,0.7870923559,0.4275011921,2.3834276571,-0.3439770356,-0.0304091211,0.1025699341,0.3079925531,-0.1222320665,-0.1577581959,1.0498692133,1.0599672663,0.5789025658,0.1593610664,-0.8006341802,0.9348845708,-0.6288388174,-0.124477263,0.7614664534,0.75344538,-0.6626573754,-0.3852623309,0.5423058266,-0.1840196943,0.9572867872,0.8358993417,-0.2709086026,1.0493915926,0.516596741,-0.638307849,-0.7745008749,0.4981290258,1.0005421327,0.8776034141,-0.0133162412,0.8780345873,0.4423955347,0.0618008252,0.7305030421,-1.2042251795,0.4803196943,0.0019967312,-0.2562314869,-0.6220799026,0.7947235407,-0.2010253,0.5364181668,1.0125453239,-0.3486551313,-0.6634156891,-1.1356169255,1.7136321835,0.4551010981,0.3887746135,0.3964830035,-0.2535133289,-0.9005119496,-0.4605005854,0.0153112869,-1.2093155649,0.7410720077,-0.6202518411,-2.9827571022,-1.0487304032,0.4359746645,0.832839695,0.2486615526,-0.3904226632,-0.1211216387,-0.3472637804,-0.3299175121,-0.66091005,-0.0295670449,1.0201197473,0.3370720092,0.245803187,0.0173273687,0.4247125682,-0.6473987933,0.1224184607,-0.5512918099,-1.1126531007,0.5561399063,0.8625016715,-0.3269754627,0.5410621389,-0.5339312944,0.849268867,0.9850041435,-0.2407437777,0.4137793897,-0.4202407674,0.7979704557,-0.4584493658,-1.0222639481,-0.3757489975,0.532318364,-1.2129703226,0.429230668,0.3206586619,0.3080560465,0.0609029105,-0.8935442073,-0.8157982006,-0.5374817228,0.5505091046,2.1710534706,-1.0157900259,-0.5144568236,0.186364088,0.3072455225,0.6688829801,-0.4367345396,-0.1054121014,0.983395063,-0.8708313307,-0.5737848596,-0.9277554835,0.8957703397,-0.9983042924,-0.5311452896,-0.9072373233,-0.564681084,0.761951938,-0.2567088228,-0.4440514017,0.7656983528,0.354617587,0.0561373749,0.2478081711,0.3290059135,-1.1749356804,0.2738072189,-0.1281470485,0.8339537139,-1.3494175681,0.6774789661,0.439986084,0.8211276544,0.6068703154,-0.7514636494,-0.9324029013,0.4528875019,-0.7541806815,0.308094952,-0.7070577659,0.1871812216,-1.0778197212,-0.9651453305,0.9491849627,0.7686030043,0.3563037689,-0.3588677571,0.3152515284,0.355973649,-0.0877440465,0.5393930142,-0.6156348733,0.5008513233,-0.49716449,-1.0863252914,0.6089403543,-0.5903221824,-1.0056392199,0.0085574367,-0.3574278655,0.6683469291,-0.4337896128,0.0556959732,0.6000404236,1.152333495,0.2804580284,0.9455721661,0.4996924633,0.6136828612,1.0143364408,0.8705003167,0.6492136549,0.5823484152,0.8170204499,-0.0181417446,-0.1414315155,0.5073880925,0.2024068009,-0.9664192973,-0.2675597886,-0.3372041438,0.1918924256,-0.6622372307,0.058663265,0.2053371005,-0.81815217,-1.0623054093,-0.3756970969,0.3177892359,-0.377832916,0.1751944594,0.9093317935,0.3150031381,-0.7649226001,0.1684088373,0.3765842504,-0.5487131833,0.1828122404,-0.1713561896,0.071461199,0.4678801598,-0.4211667109,0.0334075815,-0.669679518,-1.0826996005,-0.749289314,-0.517514054,1.054104937,0.7178202931,-0.5996733861,0.043092312,-0.4975458006,-1.0330121016,-0.1765930835,-0.4201410208,-0.1014826636,-0.6378558137,-0.5590522385,0.1355322803,0.928872483,0.5543180945,0.1840407128,-0.4361434558,-1.0929684817,-0.4247746372,0.9688621161,0.4159948731,0.3661600553,0.7549318922,0.5037232983,0.1482689528,-0.9069594539,0.3999806424,0.4908424445,0.1471772022,0.3447851804,0.9825191852,0.424966535,0.9796017299,-0.612808858,0.5440470064,-0.2073668131,-0.8556643655,1.1448679747,-0.0384805645,1.2548458257,0.2788934564,-2.1810419,0.492295833,0.313526979,0.0623755318,0.7994458757,1.1005906659,-0.5483028517,0.5972474239,0.6489779219,0.2731778742,-0.0846250936,0.8716946261,0.3534231784,-0.7165309967,-0.1606309279,2.7063216079,0.6366095744,1.0131363233,-0.0714042176,-0.4701012602,0.7759183623,0.4457405913,-0.2989945649,-0.7800043525,0.7198518885,-0.0488315015,-0.5041065046,0.7992950854,-1.1077435596,0.8668828159,-0.2169535933,-0.2850725648,-0.3074185108,0.3941824229,-0.1817135913,-0.2340618819,-0.5748447533,0.0420480431,0.8944916576,-0.8337203105,-0.5792667712,-0.6673679701,-0.2419577408,0.9471109279,0.7619440739,0.5548300134,0.2115907669,0.6565920645,0.37459082,0.2904050205,-0.1292280294,0.9338518334,-1.1217663891,-0.3054900815,-0.2224145096,-0.190899704,1.1513570274,0.9567447485,0.4133548447,0.9470984721,0.6302253,0.007427361,-1.3533350281,-5.0483998411,0.3750088176,-0.6133068153,0.1956427183,0.5291981389,-0.1061931821,-0.5791600996,0.7492052423,-0.7998476772,1.0054779382,-0.362369465,0.2850118852,0.1072284075,0.9519797787,0.9042246332,-0.2919793055,-0.1318862253,-0.2564314084,0.9588798968,0.0341118643,0.1327085915,0.496695696,-0.7282946407,1.3635000177,-0.624161162,-0.3795535885,-1.5896352686,-0.8573057304,-0.9672289872,-1.1505502225,0.2819585051,0.4452594466,-0.1467526073,0.2656573375,0.1292112857,-0.2325192239,0.8345552022,-0.1352471209,-1.1465720997,0.3970100614,-0.6705738898,0.470220056,-0.6077436668,0.2069777465,0.0071153114,-0.0707178853,-0.5168498094,1.2204477184,0.3521007676,-0.8078777436,-0.5158822225,0.2365339637,0.4645799624,-0.0815266532,0.3548026887,1.0213344995,0.8520164324,0.0514802889,0.8731716591,0.6020451216,-0.7489780219,-0.0676364511,-0.6633373402,-0.0234148086,-0.3012204925,-0.1111512699,0.5691864373,0.9179084166,0.2587419186,0.0585042708,1.0588852015,-0.584792501,-0.2680487947,0.8523309038,0.7962477619,-0.9001276606,1.2774160476,0.7385072985,-0.2764637957,0.8531663067,0.4632120208,-4.1572840749,-0.6888242906,-0.1697819822,0.3447081602,0.730136235,-0.2615274155,-0.1858068489,-1.0254984551,-0.6271624247,-0.3041773173,0.0708754924,-0.7117999719,0.3444890739,-0.2601061791,0.5407149967,0.8014743621,-0.8114443712,-0.2743460963,0.6765854982,-0.6036472823,0.6852495257,1.8938828496,-0.8408089712,-0.119323284,0.0455660948,0.4212076225,-0.5889908892,-0.3736693302,0.420120877,0.0995655268,-0.9868858554,0.7393058997,0.1815582216,0.1043839477,1.078032544,0.6612180764,-0.1304166181,-0.2071883299,-0.2658310635,-0.0761589288,-0.613421995,-0.8234174822,0.1020208505,0.5738941507,2.9125784148,-0.1726396217,-0.9218544076,-1.2971074017,-1.0534494117,0.2810343094,0.882407854,-0.3783615186,1.3648318696,-0.4061663014,-0.0336596832,0.0611674626,0.9417259576,0.6193010109,0.0039866818,-1.1046231461,-0.2234252652,0.3015317328,-0.6477367589,-0.1798893411,-0.7421678645,0.4087367208,-0.3765265481,0.0956427986,0.1799473176,0.3562563173,0.4526298077,0.6608779771,1.0177069864,0.7625611368,-0.9987903372,0.507590555,-0.2897623625,0.5895136943,-1.1915626776,-0.4543394901,0.7174854716,-0.6974437787,0.2010383799,0.1270209845,0.0838464375,-0.6287938262,-0.7460251283,-0.0557811584,2.5286574037,0.2933857474,0.0015035132,-0.2230694376,-0.9402935636,-0.2033575532,-0.3255349971,-0.3828562346,-0.0644723538,-0.097719608,0.1053220502,0.7582053551,-0.4034209768,1.1150150439,-0.5485489873,-0.0562792846,-0.11443846,-0.2370138464,1.0777242307,0.4619222946,0.4108745539,-0.2483729338,-0.7019748802,-0.9270271295,-0.8849082467,0.6689105436,0.1443352908,-0.0895983761,-0.3355930646,-1.0130881388,-0.1415009947,-0.0012717471,0.3512131191,0.844002496,-0.4865282321,0.0049712694,0.952909767,-0.2867192495,-0.1364342611,-0.4829550525,-0.616195744,0.2871051784,0.9773025711,-0.6889703994,-0.9836149116,0.3860162786,-0.7760538613,0.327226857,-0.6774520553,-0.7549461311,-0.7802662232,0.6593639677,0.1231002512,0.1268681108,1.1749066892,-0.8143242787,-0.2373625791,-0.5160386809,0.8956776888,0.5077030469,-0.2216532152,-0.0818700107,-0.1868055092,0.8170542849,0.8570410225,0.6359666771,0.539053658,-0.4284575193,-0.1871303419,0.7692475319,-0.4409025746,1.3260265716,-0.1328342312,0.4563898653,0.2477644892,1.066240741,0.0649125044,-0.1693588194,0.7515957615,-0.7893090793,1.1785854841,-0.6389445149,0.2393835779,0.5704387675,1.8262341235,0.5889111495,0.8777382401,-0.2244742413,0.4862888078,-0.9246728113,-0.9015871227,-0.5464713127,0.2802040806,-0.2775116527,-0.9575687908,1.5063645183,0.1002356909,-0.1420313109,0.1005101223,0.6394315832,0.9208090851,-0.711530254,1.2467361723,0.0302120704,0.0872988944,0.6119879491,-1.0726602315,-0.5870503638,-0.6701000969,-0.9237977677,-0.4557833463,0.2116778071,0.5827893059,-0.9362693419,-0.1152688878,0.9037202527,-0.1940487834,0.6538399136,-1.0179209121,0.5721764976,-0.4976425818,-0.783566336,-0.1675734905,-1.056990091,-1.1768670507,-0.9838343721,0.6856096248,0.2503808391,-1.052752542,-0.7513153359,0.6313885705,0.0834793927,-0.4549552046,0.1347560008,-0.5178875287,0.308196933,-0.0574835749,-0.7198942742,-0.3365653094,-0.604347737,-0.4925268076,0.3548211391,0.4658719252,0.7379449247,-1.4707372451,-1.1746257712,-1.0246326579,-0.5835867576,0.3205840667,-1.0326998831,0.414893779,-0.5353682975,0.7882088229,0.0756467784,0.7109737098,0.3015171044,-0.5159106971,-0.14647826,0.6675341257,-0.9543099914,-0.6307526539,0.5600155027,-0.1135104998,0.1759835866,0.5385403565,-0.543603447,0.6626499339,0.9465126676,1.3041030223,0.3241559792,0.5816415824,-0.3947485011,-0.1577400268,0.8197511779,0.147681595,-0.1792273378,-1.3501979721,0.5923774855,0.6048812551,0.4856328115,-0.5278023676,0.5918712209,-0.8172511298,-0.8854016151,-0.8930543587,0.6927697955,-0.8720021553,0.0498722812,-0.6219768833,-0.0400132261,0.5281896547,0.5498138844,-0.879114235,-0.0515797339,-0.2954384694,1.0753172213,-0.5368862235,0.5134114959,0.4735603135,-0.4515791547,0.6225566403,0.1336549171,0.4536861288,0.0486037445,-0.2776652514,0.4452067422,0.2405340613,-0.8525415318,-0.0078739431,-0.5831876944,-0.0500897065,-0.6433148447,0.7030703528,1.0093027721,-0.3196154405,1.0122719919,-0.2763520586,0.0813674792,0.4139912049,0.9057330607,-0.7473329401,-0.5910056977,-0.022302688,0.0030104619,0.893921524,-0.3769080849,0.6266201868,-0.0805580003,-0.0823574339,-0.3135049546,0.5794854813,-0.7534928237,0.570742116,0.776935303,0.9861891562,-0.43257971,0.3205376812,-0.0591434863,0.8224266651,0.6169672334,0.7865976359,0.4141614741,0.4139846468,-0.3440796939,-0.7761901938,-0.5929337927,0.9356371866,0.0677950947,-0.0187499175,0.2961474324,-1.1108350643,0.2368437153,0.9487304345,0.1466576653,-0.850207454,-1.0583125739,0.6017738084,-0.2477444623,0.1283628778,0.3562358173,0.7471066946,0.7196946279,0.4595707763,-0.3209647533,0.1949277283,-0.2819840545,0.5484374992,-0.678739169,0.9583007918,-0.2409012918,0.1170216885,0.3563394944,-0.7955601848,-0.610987864,-0.9372105816,0.0025975283,0.7598426243,-0.6968296568,0.2465490998,-0.4842255383,0.9440745623,1.0011696354,0.0581602401,0.1210419144,-0.4355577763,-0.7370200001,0.2985889088,1.1886652799,0.1407779012,0.1084948522,1.5937299965,0.8163258783,-0.1527666395,0.0582392954,-1.2722722895,0.3991718684,0.2251779625,-0.7650272837,-0.2658377441,1.0391338537,0.9469714649,-0.4268744885,-0.9628158838,1.1577356352,0.8393429604,0.9615503978,0.799890135,0.6105590715,0.1637567183,0.4679733011,0.3873543414,-0.2694722172,-0.5505943161,1.4371842288,-0.722765098,-0.5559545537,-0.6967211477,-1.4171202447,0.7589908857,-0.3937654324,0.2760024669,-0.0216946493,-1.0195619042,0.3383936457,0.6294328916,0.2397861567,0.0488133635,0.4873416272,-0.1479125569,0.3469306057,0.7227722342,-0.0548069935,-0.0352681602,-0.1918584562,0.3106976754,-0.3753887588,-0.8283098386,-0.5963879365,0.994663702,0.3591278141,-0.6583406751,0.2219139522,0.2744496824,0.5233541736,-0.1332757806,-1.1183208974,1.3297139497,-0.172541546,0.5684599565,-0.356460786,0.6135668755,-0.2911085897,0.3121039777,-0.7889068604,0.4517882399,0.3674235482,0.3326970275,0.6612507017,0.8609461094,-0.7836775112,0.1960399314,-0.3161764612,0.8112772377,1.0907534795,1.0988369123,0.1127816604,-0.7548618703,0.2633137644,0.5008335749,-0.4837357392,1.0576412923,0.7095879948,-0.5629130086,0.685507614,0.2340757949,-0.845365244,-0.30785355,0.7981377658,-0.4050199686,-0.1854526281,-0.8019611902,0.0282904456,0.0680210207,-0.7536484919,1.0051928564,0.1385846927,-0.8665990521,-0.9108223649,0.0463413212,-0.2274259859,-0.5867960797,0.4124086884,0.9642247976,-0.6933561599,0.4573434679,-0.2969324085,0.1335531446,0.6696483749,-0.41735448,0.2764137965,-0.4385251459,-0.7859393298,1.0009129451,0.4460209275,0.6453700716,-0.7255816484,0.8236381411,0.4984978775,0.2652808393,0.8122212574,-0.1832643682,-0.3120568705,-0.829463675,0.1210129637,-0.6852870219,0.2964801356,-0.9345851327,0.007425489,-0.5429908108,0.1947569565,-2.3732840833,1.0451400563,0.7724375127,0.4747578628,-0.7243703983,-0.0411395584,-0.6584131905,-0.5202228925,0.5633537196,0.0293176184,-0.0423123038,-0.5747235924,0.8646032237,-0.6450788195,-0.9009234816,-0.4347943674,-0.458040189,0.4596362188,-0.9256112533,-0.7322216935,0.8265065659,-0.1660434645,-0.4945104827,-0.5280646816,0.4037142079,-0.4949135036,-0.0737922532,0.3243758469,0.5807150249,-0.2784627341,0.6789681362,0.8866669201,0.1114789077,1.0999828702,-0.1463074453,-0.1707949737,0.5654564199,-0.2885248971,1.1819649676,-0.4783494649,-1.1248998115,0.728305953,0.7363229841,0.5037377507,-0.4093925994,-0.4440469295,1.0379286908,0.3279997093,-0.0097634927,0.5963971971,0.082139451,-0.3348534153,-0.3154003948,-0.0964867489,0.1438769251,-0.5952109872,0.4844469759,-0.7423021636,0.1045668204,1.1031149911,0.6558518906,0.2719052649,0.2586223712,0.8108498714,0.6285204221,0.1459250467,1.1359371075,0.4209321552,-1.0062891057,-0.3586319227,0.1399727992,0.7241098387,0.0509158758,-0.2310912493,-0.5414960158,0.539123752,-0.7350738808,0.9288657479,-0.108986546,0.6249619986,-0.2803967528,-0.4665088323,-0.9584085992,0.2742925074,-0.7817001507,-0.442074465,0.6755217736,-0.7226753576,0.1257971579,0.756384799,-1.1172985534,0.6369940253,-0.5356884328,0.7219809862,0.64043928,-0.6467104501,-0.1835221258,-0.6091811987,-0.8214092516,-0.6362076899,0.0728281768,0.1002832891,-0.3797323376,0.5592451695,-1.4568179954,-0.5349995528,0.5604431403,-0.5071419848,-0.0220681179,-0.4562970281,0.8187886452,0.5096230088,-0.1060957515,-0.5390861142,-0.1455920066,-0.7878638011,-0.2839618236,-0.7733773821,0.2763500025,-0.094881872,0.8549502558,-0.0452427378,-0.2177263743,0.4017083732,-0.5010132398,-0.374537708,0.6751258716,0.4257019277,0.4585153219,-0.1741079291,-0.2507961822,-0.3763674779,-0.801459834,0.2667447931,-0.2206409882,0.2266720743,0.5883806544,-0.6227111596,0.3365750827,-0.1249458278,0.8739818616,1.0054143142,0.4744360785,0.8701318585,0.5269633011,-0.3972751275,-0.5574579734,0.6277394884,0.1000513296,-0.1212763425,0.2275122929,0.3128285501,-0.4649809469,0.7611687381,1.1019211978,0.0320600484,0.6130302511,-0.0417695882,-0.096366727,-0.8583045786,-0.2950068911,-0.2616183197,0.223753008,0.3784681692,0.5045769451,-0.8780870442,0.0693517213,0.2544114828,-0.442098248,-0.552752018,0.6747038225,0.6024836009,-0.3965289288,0.0422960428,-0.0115184644,0.5491745591,-0.3660248093,0.9448190264,0.7034726873,-0.7154003209,0.5290558785,0.730187481,0.1067509999,-0.1266736304,0.6010885822,0.0508287818,0.5370465369,0.2372423554,-0.2915563162,0.4056219276,0.5526846042,0.1806443714,0.8063883874,-0.4628326683,-0.4661319404,-0.6660509723,-0.5481613567,0.0232622636,0.2975163829,-0.6048922094,0.6349228975,0.7647368031,-0.4027414713,-0.828360686,0.4408199876,0.4391148126,0.6454924018,-0.8335197375,-0.4647871328,0.8483562554,0.7237863491,-0.3198997416,0.3024307245,-0.5392437715,-0.3070965199,-0.5230989406,-0.5954560312,0.317607923,-0.9895648816,-0.5350461552,-0.4868018766,-0.1863505339,-0.0165059523,-0.8529506802,-0.7430817449,-0.9061330079,-0.2424698244,-0.0110030284,-0.8609345656,-0.7706676901,0.3603108932,-0.9274254693,-0.6352446929,-0.6615122944
   0.9150119462,-0.408373403,-0.3997989767,0.4230397131,0.1631132011,-0.6403324452,0.6389689232,-0.6958985522,-0.9486121907,0.5226483472,-0.113601231,-0.7844377776,0.0801407353,0.304159844,-0.6279530335,1.1757796,0.7395654898,0.4730252428,0.749195023,-0.4227198162,1.05967961,0.4669808624,1.1197744246,-0.7092464851,-0.5375992857,-0.9379570227,-0.0190940762,1.0701642002,-0.2378116113,0.6750967356,-0.8024477859,0.2014936345,-0.1358649317,-1.1387219964,0.5277561096,-0.4015069395,0.0321903408,-0.7773707149,0.7119413067,-0.2698360758,0.5299494413,0.0977460034,0.0969972353,-0.2166058492,-0.4068669587,0.1514475032,0.2114974731,0.9630489489,-0.3353414607,-0.3695628025,-1.1311695236,-0.34017125,-0.2170278956,-1.0631385523,-0.6787409755,-0.1097849146,-0.1042566017,-0.6677049558,0.8905434215,0.5619137216,0.7086610062,-0.9118248442,0.2537220513,-0.1436824486,0.0372897285,-0.0060450085,-1.1004585831,0.9832047683,-0.3048776889,-0.1709553813,0.696241086,-0.6979275789,-0.3948538735,0.2843153553,0.7135342787,-0.398171078,-0.0156713442,-0.1567582412,0.8930336384,-0.5597528424,0.1751878975,0.2120527224,-0.3161900354,0.2090004762,0.3905445704,0.3458353718,0.3259071338,-0.3655093046,-0.8144466975,-0.1041333224,-1.0332075328,-0.3854815669,0.2952569968,0.1110871207,0.6536014829,0.4742491864,-0.3128814619,0.7924361805,-0.7407225835,-0.2532511978,-0.686488745,0.6094544374,0.5615088338,-0.3673424237,1.0680911853,-0.0983736886,-0.045048257,0.2373295358,-0.4373397654,-0.5311356166,-0.7134075132,-0.3067672297,-0.7702451267,-0.0588553111,0.3396244511,0.3483191123,-0.3548132368,-0.9139946619,-0.1001669031,-0.3915727063,1.3086217796,0.5463209974,-0.4936882125,-0.0756735154,0.8255417191,0.9996176536,0.5871598916,1.5447956793,-0.6182472933,-0.0096184236,0.2990018684,-0.4892115113,0.4621788625,0.611901479,-0.5521329,-0.1864028232,0.2243453968,-0.1414613321,-0.7691764697,0.3142011943,-0.7332918157,0.8033576373,-0.7094039344,-1.4248762899,0.0677180815,0.1065492334,0.2081448862,0.3048430535,-0.7086244325,0.9387300921,-0.7118764584,-0.1415106804,0.74066422,-0.0063300109,0.9610777008,-0.5456968071,0.2759875957,-0.8758799345,-0.9958913839,0.5014895919,-0.2646570397,-0.6123154062,-0.8369342678,0.0603464448,0.4314700612,-0.4325458959,-0.5965793817,-0.2811153842,-0.3487232934,-0.0178745082,-0.7659816771,-1.4250307429,0.4594539386,-0.8701565876,0.1289061564,-0.1289903349,-0.5038228692,0.8842100458,0.3145960484,0.2285259881,0.1922224474,0.7887381594,1.1791031184,0.4029892653,-0.4093893325,-0.5723916052,0.8286670527,0.001452444,1.0252751911,-0.521363659,-0.6080771135,0.715506597,-0.1934933054,-0.9005730067,0.5982420508,0.7289281026,-0.3750730037,-0.8485586074,0.2700886136,0.333021957,0.6933491365,-0.1549011248,0.7832197286,-0.7241611944,-0.3047615441,-0.3420559593,0.1374649783,-0.615886585,0.1523192666,0.0157232776,0.3401413122,-0.2466005058,-0.8536902631,0.6732113218,-0.4391623981,-0.8245535578,0.4917008968,0.1715962646,-0.2703203827,-0.2748368044,-0.4163994458,0.0740566113,0.8603129522,0.6741552379,0.5964263142,-0.640241424,-0.7155420478,-0.9216312328,0.3371339539,0.6266220045,0.162205548,-0.3661030866,-0.4125031703,-0.2476217087,-0.1593886304,0.4321502407,0.9282369524,0.6415403188,-0.3159134635,-0.6876329296,0.062921933,-0.7153691947,-0.4049589218,-0.845366318,0.1909059495,0.7019769441,0.1572521169,-0.9103760115,-0.5584918043,0.513487868,-1.0000577995,0.8668976173,-0.305280062,-0.7164930718,0.807298337,0.9597614399,-0.6290828043,1.4363005757,0.8082543188,-0.1986229838,-0.7462986956,0.1413695337,0.545357781,0.1915716459,0.3072691656,-1.9783025595,-0.6005656093,0.3428926661,0.4886463628,0.8065024971,0.1641067487,0.6055244011,0.4072666825,0.3058533758,-0.2277489152,-0.3084149475,-0.0919370315,0.928421605,-0.178491122,1.002767192,-0.0841648799,0.3870843824,-0.9218684339,0.6542048924,-0.4123925178,-0.4512264117,0.7311832308,-0.1140347887,-0.5859656734,0.025441893,0.2007405915,0.0299617081,0.283287408,0.1480235312,1.1245481248,0.5132960173,0.4708894649,-0.0197552284,0.6885085183,-0.8197165609,0.6069424007,-0.7030750101,-0.93289853,-0.9805094069,-0.3088236934,0.5459029951,0.7922627061,-0.3019019004,0.6314504657,-0.6825456444,-0.2262260214,-0.140225998,-0.3454213141,0.4232607822,0.2027585459,-0.1623504859,-0.2165419342,-0.8684743928,0.0610696104,-0.8444944281,0.0986941762,-0.8148400521,0.0050834567,-0.3529543604,0.4933109142,0.3004269674,-0.7386957845,-0.3763350409,0.2636946456,0.6338145011,0.3298375854,0.3012194974,-0.4237816149,-2.4921084126,0.9446680272,-0.5879001998,-0.1140806579,0.8068534334,-0.840235779,0.1969657649,0.8944055347,0.0563720917,-1.4987987701,0.1530001732,0.2037714967,-0.014044457,0.0462133703,-0.4856246819,0.1470375582,-0.4239291165,-0.2368076831,0.343261822,0.7115598621,-0.7647564958,0.6483837579,0.0311599011,1.1519635086,0.4687727184,-0.3691498685,0.170774332,-0.7119462587,-0.0314195026,-0.1294616583,-0.548217513,0.4906019341,-0.5233041378,-1.0986537815,-0.7510453579,0.053125164,0.7211815555,0.3304351843,0.2279630939,1.099853756,0.7496273893,-0.2850162046,0.3151404968,-1.0156844157,-0.0782314734,-0.3711717119,-1.3782684701,-0.0567851578,0.2397788625,0.6191594165,-0.8666505819,-0.302650432,0.0298613578,0.3117328697,-1.2093639885,-0.7973039185,-0.1219096158,0.1603106796,-0.9332457479,0.7308697355,0.2154586967,0.0400519955,-0.0679950368,-0.4361329504,0.402558564,0.657413304,-0.8308990236,0.4645715052,0.1349373053,-0.9954110858,0.6793507526,0.1590850001,-4.0040368044,0.5939027438,-1.4175174301,0.784898281,-1.1473444976,-0.1121064929,0.5724730546,0.0351730215,0.9151606892,-0.7330388269,-0.7952985868,0.7212514091,-0.6823768222,0.5393555205,-1.213414369,0.9721097246,0.2588915077,-0.5719063357,-0.3588407383,0.2501182449,1.4877850075,0.2522626366,-0.4733784774,-0.4948298606,0.3801686314,0.3934188355,-0.6266094995,-0.5767077051,-0.0937004132,-0.286468427,-0.6612883089,0.1758256627,0.8595071867,-0.8304310284,-0.4578227136,0.1410599212,-0.8754094798,0.9113280446,-0.2722082664,-1.3852690558,-0.8102583059,0.3624179778,1.2892420219,-0.2533176596,-0.0140388125,-0.1726309371,0.7381727033,-0.8601562588,-1.3354133674,0.5947769399,-0.2281557745,0.111701826,0.5452912118,0.3390496799,0.0201121662,0.801605881,0.5382014833,-5.8820591528,-0.6957256133,0.4551401755,-0.7253828295,0.0765446233,0.2117571442,0.3364634849,-3.2244858976,-0.0085544324,-0.9007575938,-1.0772698266,-0.4058968678,1.7290387839,0.3146918309,0.1417655068,1.0665382192,-0.6760502003,-0.3831747281,-0.7017231496,-0.3369131802,0.1184022559,0.6068966563,0.8932443153,-0.8267027389,-0.8768260926,-0.390497845,-0.9045025516,-0.1474686501,-0.8086415913,-0.9630435771,-0.5226486608,-0.5083150623,0.0687501264,-0.6637835231,0.5955038215,0.991092726,0.0314943,-0.4604887746,0.1800496304,2.4952667631,-0.9568199249,-0.5098765448,-0.9015788814,0.8461277515,0.0485086273,-1.4402662547,-0.1213466083,-0.6061734221,-0.6897493086,0.8421843128,0.4192993131,-0.3263237337,-0.1640802616,-0.9118252,0.6969057671,0.7237843128,-0.7512415283,0.6843940244,0.2287227365,0.3864116768,-0.6608766551,-0.5388149622,-0.5350076664,0.0137006705,-0.7900278028,-1.6254530357,0.540050042,1.0237813355,-0.8435607352,-0.500718855,-0.2013363909,0.5182116364,-0.6585354182,0.8255341362,1.1117690199,-0.4851693065,0.2751840129,0.2043048385,-0.8847455053,0.399816436,-0.4496493607,0.8441539993,1.104302733,-1.4064316769,-0.4921228005,1.1284215418,0.0899310835,0.2202712427,0.2141649236,0.077795012,-1.3413787003,0.9366595886,0.0255999667,0.1636919363,-0.007832883,0.0593290203,-1.7288115929,-0.1616275915,0.6829645561,0.9862240854,1.4745000765,0.8558128159,0.0412145928,-0.7995676783,-1.3909633294,-0.7990759975,0.1546728845,0.3507383397,-0.1372739413,-0.13244805,-0.1572068783,-1.2520896727,-1.2022053528,-0.3411289775,-0.5344256376,0.391691935,0.0414036153,-1.5114268871,0.3913010432,-0.706952972,0.1972396082,0.5653666824,0.8388047061,-0.2608400589,0.5538533871,0.4321295549,-1.0773064496,0.9340167229,-0.494614586,0.7456765379,0.141122264,1.0449310522,0.4429020758,-0.2811065666,0.2983258371,-0.4731644811,0.6786772022,-0.0709315114,-0.8875414902,1.0614592026,-0.8384641708,0.1112447994,0.0717422542,0.2848524095,-0.0057374186,-0.0880048249,-0.343981959,1.6312985624,-0.9641089988,0.817578839,1.0046480157,0.0386127695,-0.4440303036,-0.8806410299,-0.1923830458,-0.4906963846,-0.4318803033,0.6920270836,-0.0815739591,0.9451211428,-0.0063370693,1.0514678339,0.6994067842,1.1973224803,-0.0773774367,0.7206115769,-0.1818294372,0.3115597253,-0.1741119502,-1.2572907203,-0.4287386304,1.6759807328,-0.5270416478,0.1206836946,-0.6441019072,0.7691436039,0.2589118785,-0.0304013408,-0.4951765899,-1.3936911784,-0.0397069953,-1.0565422349,0.1507434745,0.8388752719,-1.1026153097,0.6011691425,0.8820351371,0.4361990151,-0.424521917,0.2245220105,-0.5019327225,-0.4942384905,-0.5846493439,-0.0167228626,-0.614479028,-0.3777631302,-1.0614536971,-0.6188255516,-0.1275645833,0.2593672723,0.6793438335,0.6287092011,0.1674953828,0.0813891074,-1.1574383436,-1.057500437,-0.416520778,1.6520040157,1.1707073532,0.6839588715,-0.5641447439,-0.5486885502,0.685127639,-0.9333276201,-0.8225682058,1.2456844634,-0.6561693838,0.1306168601,-0.9218408315,-0.1378723363,-3.4745554164,0.0656390489,-0.6516600415,-0.3278949674,-1.5809047018,-1.0148993686,0.2690112647,-0.6684748561,0.413515508,-0.3673668983,0.7678384496,0.1221352202,-1.086887668,-0.0250252925,0.2573663991,-0.6515310636,0.3994308847,-0.7605911672,0.7988930613,-0.3982624645,-1.1150654556,0.5729074834,0.8655447189,-1.0958118733,-2.3644814524,-0.4901901274,-0.0976348337,0.9236573397,0.4715323907,0.8152864279,0.2983479821,-0.6427419209,-0.2098718345,-0.2987251561,0.3990013714,-0.3576715898,0.7931708224,-0.5859821789,-0.9994703053,-0.3538320504,-0.7419782833,0.7208620301,5.1779737174,-1.1335788547,-0.3777008881,-0.0768610323,-0.3513802415,2.3219667326,-0.3852739083,0.8049170352,0.474131708,-0.9816899629,-0.4856987856,0.5740924755,0.6134725287,0.3763948234,-0.0245648823,-0.1147246016,-0.7465578937,-0.89723451,-0.2808867528,0.0892136931,0.5714136933,1.1320402955,-0.0976179271,-0.4161885608,0.5853975501,-0.4093300685,-0.2452730984,0.371834902,0.3784887566,-1.1771135988,-0.6324988351,-0.1233581847,-0.3389287323,-0.6563884924,0.6655770539,-0.9267090891,0.6105347192,0.3073171756,-1.8544141684,-0.3079786268,0.5506471144,0.3012246149,-0.1746857838,-0.9532151826,-0.7385686135,-0.1411941135,-0.0144874843,-0.7438875683,0.4062753752,-0.4502156383,0.9430071566,2.0684303123,0.9498835441,0.2659667346,0.863526812,0.66368221,-0.0122378021,-1.0028602685,0.7622434469,-0.837733051,1.0368780914,-0.5319062264,1.121132288,-1.1827994997,0.6137326827,0.7540069522,-0.9970068142,-0.0064815439,-0.1048312772,0.1159836234,-1.105102216,-0.334666415,2.3076938691,-0.7966278225,-0.6280985436,0.0133555955,-0.5001419179,-1.0856285116,-1.9598791316,0.713307299,-1.1314996774,-0.658332025,-0.7816701703,-2.1620554671,-2.0343838427,-0.5630089963,0.4746709314,-0.0142413497,-0.0476901516,-0.34342295,-1.1122492097,0.1262594491,0.4919821166,0.1032944444,-0.5773534277,1.0132356435,-0.1385833104,-0.7903906241,-0.8017551014,0.4979983077,0.8193840895,0.5469918876,0.570193753,-0.41697542,-0.6947507958,-0.791370465,-0.1428659989,-0.3297840557,0.4388570595,-0.8295179895,0.6228360668,-0.9473632213,0.5063846335,-1.1291016193,-0.6617492028,-1.1285209331,0.0218070126,0.8907157134,-0.7096901042,-0.2572060469,0.4955893667,-0.1322420101,0.7246254404,0.4905545244,0.6765671354,-0.5027525431,0.2119153569,-0.7186111788,-0.4594554719,0.947904724,-1.7038181059,-0.0899574937,0.0132676156,-0.6543915338,1.1236853249,0.0640271403,-0.2112016425,1.0317450275,-0.2250044352,0.4505395136,-0.6337992319,0.0740159247,-0.3298372767,-1.2170411517,-1.0857550555,-0.2844674269,1.2012941797,-0.5289092335,-1.3972625994,-0.5399858136,0.2074183101,0.839884079,-0.3374098022,0.2538539206,0.7971594796,-0.2294146989,0.8442724603,3.3042839298,0.2755856064,0.1466441582,-0.3991901659,0.8081533906,0.2763358758,-0.5001686712,0.5465329731,0.0734069377,-0.5595798343,-0.5933128355,-0.4519016901,1.1632475703,-0.1461912529,-0.2064479128,1.4643182801,0.9111570384,-0.8938866459,0.8204418523,-0.4147537821,-0.4800470683,0.0164753262,-0.0824253428,-0.9691551056,-0.6439711084,1.2191950634,1.1721151107,0.1693389954,-0.7762817399,0.3901234069,-0.0936049769,0.2669153522,-0.1505573557,-0.1522575804,0.323997641,0.2124900181,0.6946891929,0.7311631845,-0.1566962714,0.5773667071,-1.0044193701,0.3170970102,-0.8722319445,0.2837916847,0.2274745753,-1.0888396701,0.26714925,-0.5632092363,-0.1837519928,0.6738037092,-0.2057015626,-0.5072384411,0.6693319415,-0.171972277,-0.5722898515,-1.0895573607,-1.1099450932,0.7835910674,-0.2041600577,2.9309757479,0.7998313557,1.0977842585,1.4903215307,0.0014709166,-0.6772868962,0.9084362504,-0.4401046443,-0.222525021,0.7002215714,-0.2010924662,-0.6700782516,-0.415914513,0.6755951738,0.6994737264,0.4008510572,-1.1875321006,1.0728171048,-0.7689469652,-0.0599672386,-0.2690618327,0.1406971239,0.465764603,0.9383421692,-0.4690213558,0.7625660304,-0.7794895378,-0.7166764595,0.5196700426,0.993397561,-1.9616481561,0.0707386,-0.278690697,0.7861070867,0.0184185755,0.4203594276,-0.1176509724,-0.9743720618,0.6898513862,-0.7681202181,0.2275426813,0.1003167351,0.9003297213,-0.3010138456,0.5387657952,0.1380403912,0.5270908763,0.7223736613,0.7330055443,-0.7018922253,-0.3290309968,-0.0829005689,-0.5673831809,-0.378524952,0.4533007558,1.1117796508,-0.4488668183,0.4548494422,1.1028430005,0.3631534677,0.9317167307,-0.0265516008,0.1661901284,-0.0806602213,-0.7872287435,-0.4767319432,-0.0706206906,-8.7394044699,0.3487462492,0.6641850996,0.6726072533,0.7458819849,0.0182171012,0.4133693855,0.5413542505,-0.6346330593,-0.8354253574,0.6937271,0.2992824232,1.054390745,0.2037889597,0.5465985441,-0.3244189182,1.3261533567,0.7960650848,-0.8565017964,0.7309153313,-0.2039982312,-0.2644331473,-0.8238254959,-0.1227898934,-0.1901124435,-0.4541467025,0.1644984064,0.4632379998,-0.0772736081,-0.6092107876,-0.8070411305,-0.8728961864,0.3635403727,-0.1842736316,0.2458139814,0.971259209,0.3931448962,-1.0686943539,-0.437559478,-0.0684861307,0.8284721415,0.8921620999,-0.0950019908,0.1869554719,-0.7474145321,-0.7355363653,0.8627107267,0.4619877557,-0.0957942832,-0.5234748028,-0.5173492,0.1127561612,0.2173716554,-0.3192709899,0.1493120016,-1.0232316468,0.0236103617,0.7064327861,0.3567273929,-0.9944052335,-0.1837685123,-0.4586121581,0.2890200642,0.6818150405,0.5707249533,-0.8334653956,0.1199662074,0.3886032275,0.507609174,-0.4841384599,-0.6749924357,0.7843255799,0.5296565375,0.1307384939,-0.456827152,0.891244518,0.0325683468,0.2457452875,-0.5861971926,-0.8035916354,0.1212427958,-0.3760213926,-0.8910521008,0.2103881931,-0.4049042277,-0.6636666265,-0.7144927059,0.9730094502,0.2348205586,-0.0185196357,0.3242341811,-0.2358273875,-0.5688345661,-0.6140034489,-0.4129597846,0.5586072402,-1.9903824733,0.3812544762,-0.3189666445,0.6000423884,0.59410314,-0.1571260649,-0.8253230869,0.869291755,-0.5351199672,0.221147595,-1.0046307264,-0.6359485467,-0.7240696983,0.5566504648,0.396230676,-0.9362488298,0.6312608886,-0.8092170226,-0.5152543836,-0.7143714984,-0.6439537249,0.8953832902,-0.0515668467,-0.8910920516,0.2622592369,0.3388331739,0.042764621,-0.2906157518,-0.4584950319,-1.1948483562,-0.117696115,-0.4925781067,-0.6896229481,-0.632331699,-0.0467113117,0.8515385883,0.0913232072,0.9441084529,-0.3085632897,0.6906221346,-0.1842615939,0.7036611868,-0.942159104,0.369277988,0.5262023892,0.2478944563,0.368200228,1.1243991081,0.333151683,0.0005080575,-0.0799292943,-0.2235924413,0.8350622411,-0.0446936798,0.9095124631,-0.2321970157,0.8359090311,-0.2696944773,-0.07323847,-0.9501727691,0.5380274429,-1.3510035973,0.3461687811,-0.4892369373,-0.8353678849,0.9145520757,0.8517291831,0.0842440274,0.8277624187,0.98597402,0.4801048776,1.1235986964,0.2096532345,-0.0506296955,0.6114903023,0.3152170449,0.8540622769,0.0606130005,-0.0528732218,0.3462896371,-0.3241996545,0.0879279086,-1.5289933862,0.4969327243,0.4599403674,-0.2857504118,-0.317538313,0.9226936432,0.3237868538,-0.1078723187,-0.3178236182,-0.1918527274,-0.3682770994,0.5209200187,-1.5924495077,1.0342816152,-0.4866792485,0.69493605,-0.3289298583,-0.880635858,0.5092207713,0.5769889625,0.2669091045,-0.457129852,-0.3051109168,-0.5512738417,-0.1066131824,0.014304102,-1.0554988192,-0.6069174652,0.7765780845,-0.1181836638,-0.3445045983,0.7267785974,-0.9752435477,-0.159511979,0.6004142897,1.0024705069,-0.802354466,-0.2659976624,0.5942204321,0.2824487497,0.8729193053,-0.8285171111,-1.1736824373,0.9103231936,0.1151934575,-0.6709824463,-0.5779483635,0.7166717493,0.4900110893,0.6687191117,0.0129931304,2.5593329812,0.1104009506,-0.0970512524,-0.0522129761,0.427238578,-0.2695038595,0.0442437645,-0.2935085435,0.2751223553,-0.5755775485,-0.057158509,-1.1935817647,-0.0218009984,-0.3590064119,-0.4895155234,0.6808430316,0.4890341856,0.1494240369,0.5620706825,-0.6788251211,0.253725357,-0.2881502687,0.6498402688,0.3456256002,-0.2048959219,-0.1188801539,0.272834056,-0.8653950684,-0.9033702889,0.5997578453,-0.3646472078,-0.5090809242,-0.0085155719,-0.6153136677,0.4792755998,-0.0066996254,-2.487977022,0.401697596,-0.3314154084,-1.0921841957,-2.4488559378,-0.2805498319,1.206101211,1.1522852854,-0.9297435973,-0.9736975655,0.5955972562,0.1118564251,3.1251411328,0.9546608151,0.649186388,-0.2739280287,0.9995194093,-0.0472236942,0.2994263657,-0.8308113757,0.312772302,-0.5332559342,-5.8847180563,-0.9799549227,-0.4206778128,0.7872901604,0.0415247367,0.113394845,1.3015246001,-0.6475058326,0.2067924987,-0.635176701,0.8321482851,-0.141771267,0.1602422661,-0.028774499,0.3848118782,0.4464851807,-0.9339664432,1.371737054,0.1386000716,0.9829257277,-0.319592059,0.845129486,-0.6208077433,-4.2503272673,-0.1745061858,-1.0932072342,1.1436167491,-0.872147782,0.6827311467,3.0955051195,2.5918320988,0.643634631,1.8573070608,0.0123797046,0.8701981441,-0.1545573359,1.4389669241,-0.552999303,1.0508076552,0.0185252754,0.2865078083,-0.3094618032,-0.2973529132,0.3622030661,0.4074779072,0.2787861014,0.0405579995,1.2478143068,0.926719757,-0.0334896299,-5.050116564,0.1318801691,0.6045973585,1.2198270893,-0.2755128102,-0.1568781603,0.590982499,-3.3589816079,-0.412476943,-0.4862616427,0.9147662786,0.2517108957,0.3121749609,-0.3563331893,-0.2601071405,0.5721610069,-0.1104593941,-1.5897711583,-0.788237934,0.4435823648,-0.7825825971,2.2119191636,-0.4252635922,0.6663838994,-0.4165874642,-0.7489231343,-3.0760441792,-0.0749588769,1.524620454,0.8936161046,1.5584143199,17.1207941917,-0.5875616897,-0.6627796134,0.7460882656,-1.7674259064,0.8501328394,-0.5192703728,-0.0296216425,-0.0341988482,-0.875112458,1.1323579105,0.6805272272,0.8701157832,1.191994641,1.6791364072,-0.9772175164,0.3574733579,1.0381984077,0.2899177506,-0.6910556155,0.1802610746,0.2258945658,1.5213804636,0.0068263897,-0.8358156257,-1.0511573671,1.3411359942,0.1289050947,-1.2806444233,-0.6796698621,0.4466354499,0.0269084007,0.1819398508,0.6583429189,1.3441616546,1.1778714374,0.3742814926,-0.4096090087,1.1655645443,-0.6950840386,-0.0105257834,1.194637121,-0.0028545236,-0.0718694883,0.4498501247,-0.2007552536,1.2347432699,1.6249900118,0.7260348964,0.4465312658,-0.1987309729,0.2850238246,-0.2783953685,-0.5685666012,0.1061410595,3.1728353193,-0.2079473083,0.6949999094,0.7525425816,-0.4172713059,0.2217311084,0.890283041,0.2302892034,0.2739861888,-0.6634949136,-0.1296173771,-0.7397769781,0.1622411286,-0.247538283,0.1641532328,-1.4839307046,-1.0098205877,-0.8852465953,7.1625332349,-0.5567790949,-0.8779038942,-0.5855414439,-0.1003928873,0.4741035267,1.5452623483,0.9917029523,0.8637460643,1.5719573856,-1.1811646288,0.7708915267,-2.6671523594,-6.9080261162,0.1990987179,-0.1082915686,-0.8038022452,-1.4693294119,-0.4174818419,-0.9732045236,0.6156978737,0.8956236999,0.9029736932,-0.8437143387,1.1665677058,1.1880969312,0.1297941549,1.0743399718,1.1588433109,1.1073561161,0.0117264011,0.1011926741,0.4090906441,-0.8760207677,-0.5159496912,-0.6035548078,-0.26317469,0.9502936995,0.0436440752,-0.6667149649,0.2915839898,0.6870371543,1.0035066422,-0.1634827437,0.4377482132,-0.7572668632,-0.6218436045,-0.6693524446,-0.5946106636,-0.2387227066,-0.3547114096,-1.2005877745,0.3430455891,-0.2619939291,-0.7690545936,0.4517338797,0.9098635732,0.8392432665,-0.1178726364,0.8322657549,-0.8448533762,-0.3296067631,0.5857435481,1.0227649994,-1.5787058119,0.7804406723,0.7455911349,-0.020826054,0.4163771755,-0.3425022745,-0.8151362397,-1.5852651142,0.5308522172,0.6834595033,0.8909382702,-0.8135598244,-0.9313444896,1.0929662816,-0.4055731616,0.7900890203,3.7722612167,1.0182021459,-0.0122271332,-0.3222158464,-1.1613537199,-0.4245248115,0.4174407887,1.0464721114,-1.6046321515,4.0694226232,-0.6019181101,-0.9280401596,-0.8077563438,-2.0199264678,-0.4516512445,-0.8743890644,0.0865981234,-0.1178722644,1.450905351,0.7941088503,0.5491229783,-0.0731606261,0.3778615277,-0.1040125115,0.1276276768,0.5858366849,-1.0587843057,-1.0825711445,-0.1731312263,0.7308295432,-1.3690442625,1.1418095411,-0.6565572758,0.705680519,0.6440241425,-0.189152521,-1.1624119122,-0.1703005608,-1.1134094716,0.6708807861,0.7279751572,-0.6806250168,-0.3862013065,-1.0220102796,1.3429331677,-0.2374140423,0.2068202736,-0.8446270961,-0.01796933,0.291275507,-0.4552163997,0.3395357495,0.5149579119,0.5048353906,0.0866202418,-0.0810080615,-0.6479181326,0.2838002521,-0.1032690764,-0.4920371517,0.3337886069,0.3713601906,0.1578946757,-0.425501694,0.2884611273,0.6385099734,-1.1522221097,-0.2386424933,-0.342763902,-0.0585658327,0.3153687485,-0.3104471233,-0.431997435,-0.6231104475,0.2722089968,1.2992733469,0.7092186505,-0.220581018,0.2787615012,0.5166578258,0.7149595826,-0.8237152877,-0.8543594633,0.4072282732,0.7963630078,0.7014807834,0.7004061168,-0.6401319295,0.9533914087,-0.4149313766,-0.0456452265,0.2007840945,0.3538971161,-0.5837994848,0.3432800213,1.344550888,-0.6626277253,-0.1796257359,0.1342576302,0.9745871167,0.0417031557,0.1933401239,-0.6896849305,-0.4239653588,1.0651592303,0.0769181748,0.8309488997,-0.0352925817,0.4182754062,0.1278854133,-0.2148384205,0.5198339758,0.3068500298,-0.1239219645,1.3214973194,-0.7176580937,0.2736512273,-0.7634286839,1.3501407569,0.0257658497,0.0865119909,-1.331865094,0.2560833772,-0.7836716095,0.3231497404,-0.3866446443,0.6959658326,-0.4466227493,-0.7575680445,0.0158943712,-0.4015519288,0.0292512533,-0.635968361,0.3992916844,0.2234281513,-0.8762121251,-0.7147369233,0.0118468779,-0.3930624203,-0.695559791,0.3296343206,0.8728745464,-0.1303301776,0.9486917185,-0.8037175214,0.3131810898,-0.8581549186,0.2593173934,-0.0953240007,-1.0102123393,-0.8891474856,-0.6051431086,0.3214972713,-0.3848360639,0.9815915305,0.6469046816,-1.0486727173,-1.291302115,-0.2441460139,-0.6711743317,0.0302217553,0.4390262168,0.2334697755,-0.6491517213,-1.1226788725,-0.9594473253,-0.8548499673,-0.7109918295,0.0660866255,-0.7222634884,0.6023069604,1.0256963616,-0.3972033014,0.4765599537,0.9116530584,0.7590162742,-0.7694544815,0.1698569422,-0.1712870456,0.494263261,0.2410593951,0.4714572008,-0.8708248321,0.0567980843,-0.494353944,1.1784093184,0.4893662982,-0.4151430004,0.6932836858,-0.3745834665,0.277120204,-0.5548329663,0.3378248933,0.5341136867,0.7139802598,-0.2747440719,-0.9797719978,-0.6169572871,0.0476097811,0.0115130451,-0.2156701107,-1.2534016826,0.7955903727,0.8216616326,-0.6115833381,-0.4456179478,1.6607543513,1.0248532096,1.1735321354,0.5461134743,0.1372907825,0.5438997625,0.827035846,0.5399687636,0.3249322874,-0.5352373301,-0.8013757099,-0.6684314687,-0.1119834312,0.5626526589,-0.5255067532,-0.3573148484,-0.2970067683,-0.4043329793,-0.9017443666,-0.421869398,-0.4151936237,-0.776382364,-0.7860941044,-0.8892497136,0.5352629932,0.7838944576,0.8335088844,0.0900689732,-0.4488681554,0.3608889455,0.1869892481,-1.0126465285,-0.2676041413,0.245636597,-0.243811502,0.236936614,0.2598393547,-0.9167973017,-0.2440126624,0.5023129777,0.4936244989,-0.9380232503,0.1166265477,-0.4960203976,-0.5445352232,-0.4281591683,-0.8797862595,-1.0060947591,1.0781789868,-0.1012559209,0.6243957877,-0.6691904284,-1.2641849683,-0.0645133374,-0.6024930858,0.0031755911,-0.2881652025,0.3344168858,0.6732055929,0.0910209615,0.646130829,-0.2130126457,1.2803083272,1.2672490224,-0.5507725174,1.4253578396,0.8045905343,0.2524909087,0.5965183183,-0.3963420891,0.1252997163,-0.6614108954,-0.7277879004,-0.3268213091,0.0245311277,0.3168450101,-0.1891387414,-0.4707385856,0.0717633673,-1.1364546908,-1.146958025,0.1823358374,0.8168796292,-0.1685210783,-0.4770901878,-1.0253049444,-0.0400205073,-1.1485668385,-1.1829215578,-0.7482325252,0.1551634947,-0.2082592359,0.0109653093,-0.3254061509,-0.9656682358,-0.0323973513,-0.1017284064,-1.2255307686,-0.7396121044,-0.2256141175,-0.3511066616,0.159503583,-0.973125744,-0.3770549551,0.2846860523,-0.8326641092,-0.814162123,-0.3452067329,-0.1584854808,-0.2514651351,-0.0173831655,0.9385143263,-0.5303502504,-0.6072302937,-0.0451388824,-0.2945501641,0.1106907389,0.5676322566,0.5602299404,-1.1351609457,-1.286875843,0.3962605547,-0.504422486,0.8281594751,0.8566202019,-0.9332759209,0.3813517578,0.1188867525,0.4818907362,-1.2886188127,0.4459884403,0.418713905,0.0780342766,0.4109540408,0.3251831538,0.2873842631,-0.1740349434,0.2304248753,0.6195271946,0.6488705217,-1.1768813843,0.4189543669,-0.6488234718,0.2226452364,0.9988452038,-0.4063111871,-1.0783126125,-0.6659893226,0.509235071,-0.548538999,0.4565655242,-0.7088557181,-0.7384168355,-0.2660302105,0.21162851,0.6335113918,-0.1805344364,-0.5973666787,0.574903081,0.8685745585,0.924978679,0.850726888,-0.2285077097,-0.2224022351,-0.5803762447,-0.0695406162,-0.0946379835,0.4813609972,0.736803643,-0.7236409868,0.9195856903,0.5526809026,-0.2970237227,0.1737880357,0.0156024829,0.5904516485,-0.9634516607,-0.3549966321,-0.7355222957,-0.1339155607,0.3136067618,0.5934928468,0.0416212614,-0.4671052696,0.1921482441,-0.6586831927,-0.3298711086,1.6300724702,0.2673098953,-0.8740078077,-0.373666132,0.6906903188,0.6042912531,-0.0580008111,-1.3733675486,0.9301241793,0.8796552883,-0.2757554181,-0.2566821152,0.7427477239,0.1419093311,0.7027066067,0.9904007626,-1.1149250095,-1.416966038,-0.7212064181,0.9919394614,0.4822014091,-0.1108841321,-1.4762695621,0.1731075402,-0.2606930733,0.6418656113,0.1446273336,-0.7518636589,0.535370894,0.8530322963,0.415984808,0.2648322662,0.4691371962,-0.4369088484,0.0662034541,1.3642054647,-0.3510004171,-0.9696200009,0.5468402058,-1.0054807458,-1.3326567328,1.3952753265,-0.5878487887,-0.5555627399,0.4374677047,-0.3101360637,0.1011616399,-0.5329282493,0.6790315735,-0.8827051695,0.3772656951,-0.5061817475,0.4281469966,0.0689396984,0.2108237651,-0.6860643242,-0.4325078804,-0.3596373914,0.7315108963,-0.5417868536,0.2756792577,-0.8156310126,0.5269741671,0.0032903321,-0.3984359677,-0.3221071119,0.9128712731,2.2414608811,0.123426042,-1.2500898182,-0.4628597776,-0.85908854,-0.4459518739,0.5584127838,0.1924820174,-0.6583172819,0.0940019708,-0.5091719076,-0.05112033,-0.8787811407,0.1455611109,0.6772388032,-1.3638430029,0.3608947027,-0.2925035417,1.3694508679,-0.7884928221,-0.6106088327,0.1606973846,-0.7856211634,-0.5730322679,-0.114971364,0.0843506418,-1.1524359126,-0.0202485473,-1.1177136256,-0.0560588253,0.3647273864,0.2368195005,-0.713503538,-0.9070895929,0.0080851243,0.1487717576,0.2818453327,-0.1830483277,-0.0744759519,-0.4338064135,-0.8361122316,0.1532941618,0.7196381389,0.132537222,11.4509989817,-0.0102730167,-1.0540237055,0.1138216835,-0.4685799529,-0.6905616374,0.0154557458,-0.4133792264,0.7535771214,0.7580779824,-0.5186264314,-0.0848169949,0.57125941,-1.1665880483,0.372287905,0.5685412905
   -0.0771867833,0.4478038799,0.3281998352,1.271107004,0.296939874,-0.0293822592,-0.8221050812,-0.2178508228,-0.4962795037,0.665550283,0.7762362469,1.1636961254,-1.929872386,-0.3797732053,0.4019176245,-0.8432235463,0.1609045751,0.0757075433,0.0232666489,0.7044141738,-0.2261679563,-0.4330203595,-0.4017191024,-0.290195013,0.014107754,1.1246475986,-1.2734464743,-0.4273841388,1.2436001369,-0.9594369344,0.5114108643,-0.5686134135,-0.5616656884,0.4349874962,-0.5095266703,-2.2617731295,0.5399105033,0.3464159483,-0.5507682659,0.2289246516,-0.5401606766,1.0415470228,-0.0963654606,-1.2625896425,-0.6527131629,-0.4792736896,1.2431439242,-0.7878624296,-1.0272923913,-0.5651653649,0.1632544014,0.481561574,-0.3605406343,-0.9669175515,1.1000356903,0.0355265856,0.786941836,0.4191987874,1.4545461634,0.5461094409,-0.1593628482,0.4144707765,-0.9190688593,1.0865149317,0.7914130751,-0.326902145,0.0081658261,0.855065439,-0.619990576,-0.5006098017,0.2392287984,-0.1749650544,-0.0016432298,1.2518586579,-0.0854490269,0.0812056625,0.5964298201,0.7898310523,0.2516912917,-0.4736018528,-0.0709893009,0.626729933,0.2513658492,-0.1827897606,0.9113155047,0.1150586456,-1.2359309411,0.0289763412,-1.5829287591,0.1531792765,0.1095953239,-1.0578299977,-0.5785551322,-0.0621076933,0.7409491952,-0.0510573899,-1.4365448268,-1.2880287268,-0.7329387041,0.4265415749,-0.7455982472,0.6431177038,0.5064401245,-0.2376724798,-0.4158108154,0.1758666505,0.3009991488,1.8491899484,-0.8036137204,0.4914831124,-0.9999498792,-1.6328913254,1.6284773865,0.1986937598,-0.2803882226,0.1163073378,0.5031719281,0.4396530308,0.1998328286,0.546534367,0.5900045408,0.3877380302,-0.2313130076,-0.730931794,0.7303749466,-0.8429170566,1.0091068732,-0.0590261789,-0.5023971545,-1.0726984973,0.2111675993,0.3323290003,-0.3040189253,0.5469162582,0.0393073898,-0.5097938897,0.1897390648,0.5934875024,-0.0681094096,0.8870228607,-0.6755582015,0.7381193303,-0.6040878378,-0.2317149346,0.5263267307,-0.3053123524,0.3960669367,0.8655800121,-0.1712317415,-0.3766326212,-0.5716318767,-1.1802051324,-0.899120997,-0.1112534106,0.1877387511,0.2055814225,-1.0527749986,-0.8200865192,-0.1140325489,0.2564480294,-0.466422015,0.4228530907,0.2713872589,0.4986299916,-0.2337980958,0.6549255731,-0.8587922497,-0.9676386922,0.8811471328,0.1817665827,-0.5849853935,-1.1397010164,-0.2362460926,0.2850068965,-0.5037090184,0.314282269,-0.0075302642,0.908740609,-0.4855540135,-0.3280504029,-0.5650289558,-0.5054217953,-0.4418139425,-0.587906259,1.1376700081,-0.5380681065,0.7029241307,0.5545558691,1.0355934694,-0.1486605171,0.2250792155,0.9633270212,0.7586644158,0.3137701957,0.1938985415,-1.0567021217,0.8400565666,0.5696475928,0.5790485245,-0.8004415373,0.2575175172,-0.5310198933,0.3886918805,0.7967377245,0.0553706104,0.8876648136,0.5149399223,-0.9668706156,0.3308991475,-0.986733663,-1.6624146227,0.1535505864,-0.7153327083,-0.5257690021,0.2747022319,-0.2969852163,-0.6922020827,-0.3448569209,-0.7495474135,-0.5578946087,-1.186931451,0.6610871049,-0.6866260091,0.2000170164,-0.4377524137,0.5032657838,-0.0920236377,-0.0773641234,-0.5474574994,0.2278075397,0.3508983989,-0.9311153233,0.5149511006,0.8067504564,-0.9828747696,0.7458305276,-0.0466189618,0.4800411466,-1.1175821886,-0.9922583274,0.0919789359,1.4177222671,-1.0747028669,0.1666374195,-0.2094592033,0.1912577978,-1.0995159474,-0.5641318876,-0.2040856935,0.762518109,-0.5878449023,0.616232731,0.0711175719,0.6794422019,0.2438913011,-0.6133279336,-0.4617793394,-0.9445231218,0.0649037204,0.5372135753,0.2025464092,-0.1401256167,0.295904079,-0.6232660999,-1.1270422204,-0.7605894411,0.2567142703,0.30163136,0.8028259179,0.6061513268,0.0147890181,-0.9339272775,0.3621009054,-1.0572840475,0.4702576746,0.5001112343,-0.7784832944,0.7576262121,-0.3997694846,-0.3205384474,-0.5902652445,-1.0656192693,-0.0767422515,-0.1468431894,-0.6774896414,-0.2239810166,-0.3689831992,-0.1349766211,1.0602767689,-0.8160458304,1.0187550958,-1.0392316625,0.3855291495,0.5204408476,-0.860913879,-0.297413771,-0.7311234336,1.2281921709,-0.3555169238,-0.8108265447,-0.007587893,0.7892134859,-0.2569306166,-0.9598447745,0.7980101314,-0.6742528785,0.0474402881,-0.1682677636,-0.4725938257,-1.1977542879,0.4625481736,0.9896995825,-0.516248895,0.1848039613,-0.2393950252,0.7383406805,-0.1601556592,-0.0448611725,0.1005386442,0.1132310055,0.6368915793,-0.4200457483,-0.2948345713,-0.5970786199,-1.8206367642,-0.8552728522,0.0009153654,0.0679398263,0.2622939434,-0.7936548294,0.1778396853,-1.1287573682,-0.0196808143,0.2861046853,0.109426641,-0.5152475115,0.5290813663,-0.6644528891,0.3390625225,0.4228406089,0.5154522225,-0.0384035644,-0.3166582313,1.0143214525,0.7430436796,0.2445210455,0.3087453663,-0.0119629264,1.1108490274,-0.1028584223,-0.6234526349,0.0860771842,-0.3827966105,-0.4148592158,0.219326668,-0.5468553196,-0.712707328,-0.1358744543,0.0053437207,0.0662418324,-0.6042924179,-0.9216262719,0.8189348108,1.5548671899,-0.8197011983,-0.6972731402,-0.3294135461,-0.805387814,-1.0178914439,0.6018692141,-0.441720242,0.6655219097,-0.5880250605,0.8166277624,0.5487730717,-0.9345275161,-0.9676515159,0.3872607527,0.34425574,0.761906484,-0.8436303072,0.8996307532,-0.7009565529,0.6036276571,-0.7302536117,-0.6908202928,0.7404046309,-0.9433981398,0.2702595674,0.2337468519,-0.9388245081,-0.1093483398,-0.6684109448,0.5497737927,0.8172826281,-0.4953602744,0.3119303069,-0.4832129565,0.9944498987,0.3060859872,0.6406016557,0.200821843,0.8537147392,-0.6545248438,0.7905482148,0.1798603613,-0.4148809358,-1.0227103787,0.7426706761,0.4478244985,0.0485912547,-0.668436143,0.5854805178,-0.0075018941,0.9533570488,1.084602227,-0.9147228447,-0.3121655102,1.1005743922,-0.659443234,0.3411307158,0.6066031097,-0.6864484087,0.5730060267,0.1104912136,0.6261200855,0.3803475274,-1.0107703062,-0.1759453844,-0.7715674709,0.567728812,0.5646914919,-0.8899436021,0.9773328149,0.8762905945,0.7939990332,-0.375181327,0.7758139308,-0.1536904429,0.0644337635,-0.0064482556,-0.1028085366,-0.7317493499,0.713190806,0.4748690942,0.1793110446,-0.7294975374,0.034739787,0.5511141506,-0.9356981844,-0.124376711,-0.487926704,0.3353041417,0.2104429801,-0.0834863126,-0.352267041,0.8156542932,-0.0273141682,0.6185954889,-0.8161384798,-0.2549779148,-0.2690176174,0.4763087064,-0.8487366753,3.2845448601,-0.5869448329,0.2364484011,-2.8434141727,-0.5144140937,-0.8921077546,-0.0212465084,-0.0933436925,-0.439024668,0.5031987414,1.1134517518,-0.8512467349,-1.8116889482,0.3891756368,-0.1855580652,-0.1080481401,-0.3636443235,-0.2930804905,-0.5238953343,-0.167842288,0.0121590978,0.199639583,-0.2358040765,0.0367343704,-0.0779072067,0.6495500944,0.1089639659,-0.324494264,0.6489300964,1.0442388507,-0.4600746906,0.6500799374,-0.6404156835,1.0300549257,0.0209322378,0.0382247536,-0.0975203342,0.7074739866,-0.7891158947,0.4290417318,0.8609758535,1.1792728692,-1.0067907149,-0.6268693069,-1.333895471,-0.3924222114,-0.4325151527,1.2626194822,1.1274513459,-0.0524381338,-0.5956539825,-0.2702927987,1.0208106629,-0.5967858519,-0.2520900973,-0.9941956584,0.8995372951,0.5763963104,-0.866091171,-0.8874268028,0.5800320811,0.588143934,-1.2095533386,-1.2306818638,0.598269645,0.456409213,0.7889670622,3.8692163532,0.7496431517,-0.0447730019,-0.2757309525,-0.8495960842,0.609986031,0.9331690249,0.4220681179,1.0960158184,0.5797122078,-0.4712088651,0.4031346878,-0.2735996297,-0.4764318891,-0.2597655818,0.3336181682,0.5227639841,0.025018413,-0.3611415404,-0.6054910189,-0.2081990091,0.6893279856,0.469922832,-0.1491042892,-0.4332303884,-1.7250086835,0.2409292998,-0.7239541087,-0.2416366364,-1.7039218325,0.0691951102,-0.6654411621,-0.2925036013,-0.4151130874,0.1358453683,0.853677018,-0.385461921,0.3618419926,-0.3054435019,0.4036412695,-0.745273181,0.4514334062,-0.7146717273,-0.8166155848,0.4415479482,-0.0426033918,0.281192886,-0.3662568502,-0.725399333,0.7631844834,0.6244987889,0.111616667,-1.0985796643,-0.4866652379,-0.7778941039,1.0089926732,-0.8649120783,1.0130384659,-0.1256377639,-0.4853473668,0.6522198389,-0.1490882177,-0.5725561082,0.5984641932,1.9944462628,0.016539269,1.1421171922,-0.8368497876,-0.1346295251,-0.5021652273,-1.1224841101,0.4022776203,-0.0480308423,-0.0740313572,0.7953568713,-0.785587145,-0.392184469,0.9928768539,0.4213040508,0.2737555453,-0.5416848701,1.3605482381,-0.8947868098,0.7375258846,0.0584390762,-0.4049827342,-0.419134212,-0.187630435,0.5622835228,-1.1035844613,-0.7328473821,-0.1732887497,-0.7913754507,-0.5363968579,1.0321710926,0.3086574453,0.3626726053,-0.3651448226,0.0471166214,-0.6739146093,0.3906483184,0.9391846639,-0.8046541586,0.0285046442,-0.563241949,0.6905088627,0.7490872851,0.8565912759,-0.5202793657,0.1180423038,-0.7650170843,-0.2146822203,0.2389229392,-0.6487128302,0.4090198764,0.0818459724,1.1593956075,-0.5574721494,-0.1082623648,-0.220245128,0.800974472,-0.6531632253,0.4670760418,-1.5663665106,-0.080496318,-0.70723442,0.1675544972,-0.5185037428,-0.1051621708,-0.8191844299,-0.6369459436,1.0837986382,-0.7779039182,-0.8261810959,0.642390241,0.2032578134,0.6350440846,-0.3433991608,0.0837641414,-0.2576442058,0.7846511799,0.5390424528,-0.3163016616,-0.7137161282,-0.7025442705,0.29050556,-0.5596115141,-0.6761766283,0.5378662158,-0.2257269208,0.0765749118,-0.8001722456,-0.6280786388,1.2056236818,-0.5577688962,0.8455396186,-0.9244952217,-0.2695241318,2.3133411275,-0.5450350956,-0.631904358,1.0524868626,0.6158238611,-0.4425658321,-0.5681092299,0.0005548695,0.8267852516,0.190305499,-0.1360696073,-0.9922306986,-0.168216105,1.3874102331,0.4787220878,-0.2841510802,0.4772658096,-0.1576215641,-1.1290865662,-0.2534796568,0.8740694636,0.164570179,0.6880018872,-0.0120123645,-0.661432614,-0.7914534377,0.0834617913,-0.9977556345,0.6552786651,0.8014904208,-0.1256556451,-0.0194648785,-0.8952623963,0.1489741192,-1.1467128167,0.1348060679,-0.7326109189,-1.1110050093,0.1243845605,0.5056623292,1.3161960931,0.5810664093,-0.0804213523,0.9831691555,0.9263296565,0.4786787128,-0.1372714152,0.5976892096,0.7504148702,-0.3364975777,0.4835478856,-0.8862345941,-0.2018783535,1.2975875142,0.4332520382,-1.2571867567,-0.7495251809,0.6425492553,-0.8307304897,-0.7637810988,-0.0360161666,-0.8503997511,0.5358180459,-0.2715467632,0.6838708006,0.6091271789,-0.7716376481,-0.5094208477,0.2158102289,-0.9579552738,-0.4498867062,-0.6336047997,0.2340022148,-1.2500462408,0.9175176393,0.1529830906,-0.3585083706,-1.4271778173,-0.0305948425,-0.6222769463,-0.3503428775,-1.3524298259,-0.1817100277,1.3864798651,-0.1624526966,0.1204210698,0.4431854095,1.0003389319,0.264701862,0.5023077585,-0.8911537637,-0.1232684544,-0.5237313474,-0.1638678944,1.1901678442,0.56140989,0.7553545668,-0.1382233901,0.3658681723,-0.1179933989,0.190452602,0.4944650081,-0.6402761446,0.6983073944,0.0441386205,0.6560418365,-0.7907384805,0.389567574,-0.5258564633,-0.3030248122,0.1086976876,-0.4710705738,0.4222580034,0.1236035784,0.8579010466,0.0550560327,-0.7408963226,0.8170528694,1.0952371358,0.3101622822,0.293566372,0.2583606993,-0.2162418947,-0.2345438698,0.3668074552,0.2774847753,0.5491981798,0.8170150213,0.711810796,0.7642823208,0.0889089504,0.7109899806,0.6465801198,-0.6180438937,1.2084916164,0.9257579253,0.8270965141,0.4383762379,0.0005877384,0.650242067,0.482616253,-0.2266698436,-0.2268560021,-1.0377473474,0.1770047658,0.2785945213,0.3242048973,-0.998769531,0.5107119054,0.466567024,0.2294105622,-0.6294281265,-0.5130140484,0.4754702482,0.8318179473,-0.6997899642,-0.485754626,-1.0700282849,-0.3549557677,0.625805486,1.1443816686,-1.3420260059,-0.1110708552,-0.6494701396,-0.953228962,-1.021131299,0.2354863636,0.8779792688,0.0677372225,0.0311976417,-0.5546897553,0.0978334078,0.9329303655,0.243979722,0.5207993888,-0.0264813569,-0.8826595692,0.8359109965,-0.6626906474,0.3755680443,-0.4070051142,0.7848417331,0.8052779429,-0.4171418897,0.8694322443,0.7982182896,-2.0038388241,0.1170870871,-1.3445299795,-0.5985930522,0.2915184535,-0.4237161628,0.3679834542,0.2125282389,0.5448812231,0.6870392163,0.8556024672,0.9205246125,-0.2518878244,0.5359779818,-0.157937456,-0.6732400479,-0.5010233626,0.9988595786,0.5332239123,-0.5441362109,-0.2608783859,-0.7339872913,-0.5836497674,-0.7305384858,0.260207959,0.3566492999,0.3189658648,0.8074887082,0.4131522051,0.945280552,0.5154781347,0.1102315166,0.2872775817,0.9838581172,0.0932338344,-0.9747873003,-1.1335237016,-0.5414061716,-0.6924097934,0.3517789988,0.498959398,-0.2089385412,1.0201846701,-0.2960757938,-0.6159306395,-0.8473659001,-0.3914885598,1.0726949896,-0.4464816556,-0.4601866795,0.8297472956,-0.9371491896,-0.4258658809,-0.5611480601,-0.8361837653,0.3369086523,0.1873365138,-0.6323406188,0.260529196,0.0868348727,-0.1071359268,-0.7267257154,0.351101904,0.9668574851,0.000059409,0.8840300205,-0.983866119,0.4439176958,0.2401357767,0.4478402784,-0.7030367495,0.4129882763,-0.7082210598,-0.4666313736,0.8655856129,-0.2904909427,0.5771053094,0.5201166712,-0.6404385124,-0.7209839919,0.9002593136,-0.8542158102,0.930899459,1.0797051076,-0.6419066446,-0.139057276,0.6399352462,-0.989895024,-0.8373407586,-1.2695505595,-0.83800143,-0.1188858345,0.3255069341,-0.6379394189,-0.8155894461,0.3225587513,0.0613999569,0.4160274241,1.1509843491,-0.6243588482,-1.3470608764,0.4683013486,-1.1847204333,-0.3024310064,0.3348479647,-0.824918712,0.9318551082,-0.0548224713,0.1058790906,0.4568489395,0.1209804141,0.3829949158,-1.0632403575,-1.3747863206,-0.0942871076,-1.0235964368,-0.3690537668,-0.876342985,0.1563623056,-0.7680192172,-0.2338623294,0.2860341901,-0.8624815972,-0.1228516,-0.8634982775,-0.269765255,-0.1286506801,-0.6846181744,0.736884169,-0.5984761499,-0.2108206893,-0.7447950745,-0.6216212749,-0.3015771484,-0.0901890773,0.5443108972,-0.1586934479,-0.3473281551,-0.5924950863,0.0320379176,-0.7193550257,-0.8166845571,0.2294418446,-0.3538902202,-0.5310380244,0.1703483995,0.0034850939,-0.2404970452,-1.0797903512,-0.8555730528,0.7284593049,-0.3101357385,0.1573174075,-0.2219049089,0.60724877,1.70879041,0.4699317577,-0.0944378742,-0.0964688424,1.3415739675,-0.019198158,0.0963885319,-0.6392563532,-0.7877221971,-0.3147149724,-0.9268291994,0.2804507952,0.0720982726,-1.1031194554,-0.4380991355,-1.1706947915,0.9392029066,-0.2228803134,-0.8834534502,0.3970841447,0.6626528728,-0.0877913785,0.113454898,0.8111460103,-1.1903052816,-0.5139839164,0.7711442729,-0.8912285821,-0.6821606117,0.7840908494,-0.2468123434,0.5443373949,0.3867044544,0.0585996627,1.013464608,0.9391128021,-0.7627542475,-0.0511325584,0.9838171821,-0.6614400152,-0.5879307881,-1.1672839888,0.9071266632,0.0480853349,-0.1191424823,-0.7665721768,-0.3435274473,-0.3848060695,-1.4391953583,-0.7636217978,-0.4307094297,-1.079706808,0.3373013977,-0.7381710756,-0.4167828444,0.8347662362,0.0859579711,0.1483589544,-0.2176990807,0.9278924022,-0.6058367325,0.9613685731,-0.6642637246,1.0016875603,0.2378151496,-0.4828513335,-1.0671428981,-0.3132104406,0.1421216046,0.5021336425,0.5190086947,-0.6434734033,0.6644328141,0.0132648376,0.6330082547,-2.9767448835,-0.4821754146,-0.4847468825,0.6932872755,-0.8530653266,-0.8256946787,0.6780551371,-0.88980261,-0.0972152078,1.6379630453,-0.7212655253,1.0048097413,-0.747418345,0.5542791912,0.0480872064,0.8595492644,0.9644722226,-1.0416246053,0.3714199629,1.0965218328,0.2659538053,0.7677487042,0.13569547,-2.2064525951,0.09270413,4.5004149723,0.7879824299,-0.8689445368,-0.2655884425,-0.7098765418,0.0437193112,-0.4372387917,-1.0624890274,-0.9537763296,0.0967000197,-0.3994111173,-0.9505284691,-0.8613252917,-0.1783679144,0.4077540564,0.2819618064,0.1037734636,-0.9989435414,0.3050601973,-0.771239212,-0.3346016591,0.334273058,-1.7712871122,0.6157549252,-1.0107720872,-0.5724131559,0.5846263651,-0.7733128028,1.1023941348,-0.2953650985,-0.4101138265,0.3281159548,-0.8594808334,-0.6568649321,-0.6555340352,-0.7756173649,-0.3333699986,-0.1050919594,0.1599880714,-0.9680739321,0.0065140526,0.0865795776,-0.3049766927,1.3356591455,1.3200334927,-0.025907037,-0.9331156764,-0.350398749,0.3048551457,-1.1077028299,-0.1845769991,0.5067574722,0.179533771,0.0836649587,-0.5311597858,0.3820506934,-0.0527057723,-0.1846755062,-2.6203011332,-0.2638984794,-0.5927325066,0.9229620591,0.4822092835,-0.6192795281,0.1483336052,-0.1086851617,0.287136389,0.7817203479,-0.9688939986,0.3851923945,-1.3600975795,0.5161019913,-0.6839753736,0.4135325787,-0.265813783,1.3974564639,-0.6556462002,0.1800431706,-0.2893590965,0.4152549487,-0.1698082479,0.5490330887,-0.7044130534,-0.2642400118,0.2368780239,0.249952897,0.6732146168,0.367387376,0.0312061414,-0.1948090471,-0.4176180217,0.9416818385,0.5586022385,1.3232732592,0.6196478483,0.1482876463,0.2727329816,-0.6801603715,-0.0637200116,0.3552314527,-1.3162717845,0.1637778935,-0.1512107251,-0.0200166572,-0.2056323411,0.2334469169,-0.4304869942,0.825771012,-0.434608989,-0.1368888849,-0.7863365246,0.9432152114,-1.6146678987,-0.4120912987,-0.327648835,0.8388770538,-0.3663638821,0.4978947454,0.4488547783,-0.7578544354,-0.9154906869,0.1742489725,0.8344600441,-0.8586547267,0.2338536048,0.6863263108,-0.8183502052,0.7911285535,0.3954757135,0.9027687908,0.3185968917,0.4013562597,0.3762485333,0.2880639342,-1.0281758073,-0.0986785814,-0.5639284274,0.1942136004,-0.2168279859,-0.5803658354,0.271349272,0.850207795,-0.1694830572,0.2803992428,0.1909843021,1.4432469417,-0.3532764328,2.5544875731,-0.1259543739,0.908763346,-1.1088906012,-0.8325934107,0.9136613236,-0.3080237495,0.9909796779,0.4987087273,-1.145022742,0.5621520962,0.3143828136,0.0239089385,-1.5366215637,0.7887661766,-1.1392763931,-0.0920752239,1.3161940707,0.7938301061,1.0431063427,-0.4041374576,-0.9588873412,-0.552054865,0.0839931628,-0.5243496555,-0.8142760346,0.7816783606,-0.8542879936,-0.1034117634,0.7757495291,-0.1223540894,0.5703113339,0.4326422967,-0.996440116,0.398252044,-0.2829024032,-0.3775228751,-0.1481407323,-0.6395015855,0.775712925,-0.6118852161,-0.1390850105,0.9067093402,0.5283991931,0.2709321116,-0.2878608399,0.3072134459,-0.2298377538,1.090516098,0.4085932041,0.4790956964,-0.3472361871,0.9032086804,0.5650556238,-0.2708273055,0.8639742954,1.1424245064,0.2111588145,-0.6474935981,-1.0754848278,0.8270855137,-0.7822717456,0.4872986228,-0.4407368562,0.2236425809,0.0378867177,-0.9465061014,-1.4627547099,0.050051673,0.8686909599,-0.5250364574,-0.2580867857,0.7612061821,0.5140455658,0.3466813155,-0.1544478284,0.8338011684,-0.0230385748,0.3228926088,-0.3427485939,0.3007589943,-0.1232423368,-1.1550022992,0.1280365857,0.2287821104,-0.085567912,-0.5567157094,1.2800141378,0.36630768,0.6459136972,-1.0690234406,0.3205267868,-0.296770718,-0.2144993569,0.0070110299,-0.8205780608,-1.2047633611,-0.9840242126,1.055836561,0.9226453924,-0.59747932,0.9076781609,0.5965737658,-0.6493663546,-0.0533721426,0.9437376155,0.3560293646,0.6658363329,-1.2736635637,0.6295149688,0.207423789,0.3381825348,-0.0172771683,0.5553053017,0.504331215,-0.0881171072,1.4190314574,-0.7711680813,-1.5414151681,0.3431547669,-0.6188769784,0.4731607951,0.10290692,0.9734284128,0.2534028089,0.2257744429,0.8960942074,-0.6854604095,-0.8112266263,-0.2901930521,0.040486509,0.4644719977,0.3644501904,0.8334534736,1.0412180939,-0.8379967023,0.6026980648,-0.376118214,-0.8464464049,0.1001791729,-0.2634841007,-0.5625058718,0.256095352,0.0091918985,-0.7748888291,-0.5542066203,0.5640494958,0.8248624464,-0.3889998629,0.0130652508,-0.603747192,0.3435691816,0.7964337547,-0.7698246557,-0.7874039906,0.0906554283,-1.1000084935,-0.4997399843,0.2878544133,0.6254327397,-0.3219241246,0.7382463412,0.2610593099,0.5278716755,0.0683220301,-0.8034870459,0.6384592574,0.7896187058,0.967593547,-0.7793700489,0.1223323113,0.1184767485,-0.8510642114,1.0926168693,-0.7396519476,0.393675947,0.4802628338,-0.3197381532,-0.4493981383,-0.3959610209,-0.3587199278,0.5690908908,0.2966036024,-0.8550707806,-0.5847434476,-0.3508285454,-0.4099877527,-0.4997642955,1.122157523,0.524102235,0.5873276142,0.1609193859,0.3991607078,0.614613098,1.1708833713,0.5788039764,0.1573637068,-0.6900462419,0.7292791368,0.5349881197,1.4168446433,0.1334020845,1.2056543776,-0.0299818168,0.6891702413,0.8516676922,-0.6928168498,-0.6729289282,0.5513927984,-0.9850850523,-0.4092300056,-0.3783986053,-0.9535396888,0.0655776215,-0.5113495942,-0.9740667964,-0.0487072584,-0.513492241,-0.3492691572,-0.8774949233,0.5810777986,-0.4934631502,0.9315795615,-0.1484587417,0.6001808722,-0.5342626833,0.160972492,-0.9755362887,-0.3790632397,-0.8359026241,1.0475453801,0.1997744567,-0.1949382127,-0.8990831315,-0.0127531692,-0.401700688,0.5548312285,-0.30127479,0.0336477679,0.3167125259,-1.5063425829,-0.0077598836,-0.743549547,-0.6089369047,1.036934192,-0.9026062157,-0.9108242144,0.2845739584,0.4701233723,-0.9443811869,1.1690541708,0.1214258785,0.4530142523,0.4257168604,-0.1658043862,0.7854095506,0.3648340717,0.971654723,0.3255217081,0.4134450761,0.7090076113,0.0782328835,-0.5898353724,0.4322452109,-0.2451486557,0.5799385782,0.5652955561,-0.1417515024,-0.351028165,0.0954322259,-0.2761816736,-1.3915631835,-0.1479470548,-0.577079312,-0.4533364211,-0.0663832563,-0.8461381714,-1.067091134,-1.1452115226,-0.3092973828,0.7473320705,-0.7399953488,0.5548183581,-0.469684214,0.514973914,0.1655846055,0.4558734135,-0.2640595138,1.4798078753,1.3839158707,0.2919526427,-0.6890354083,0.772658777,1.0504568357,0.3105737733,0.673408347,-0.7724482479,-1.3600154334,0.8829734561,-0.9621982159,0.0479529503,-0.6141690953,0.3118025678,0.0170444171,-0.356334508,1.0012079252,-0.8047422686,0.5239623518,-0.6357886032,1.4871022759,-0.4080364891,0.6394641181,1.1624071485,1.0212330916,0.201637427,1.2478459454,0.4736975314,0.2281127829,-1.6083504726,0.2586590654,0.2701791551,0.1546799539,-0.6802395061,-0.4944555357,-0.7169642854,-0.5903248202,1.195680536,1.6023016445,0.6060584259,-0.6001972917,0.1028959311,0.1809228718,-0.3814532048,0.5750168964,0.6227976499,0.5071343372,-0.2776392151,0.0705955681,0.3100181569,-0.658027932,0.6471939024,0.1560388408,-0.2405671891,1.1639115996,0.4794897973,-1.1343002372,0.863183544,-0.4168733987,-0.661927766,0.9155453062,-0.688211771,0.3079998495,0.0143941237,-0.7359361702,0.3607623681,-0.905393272,0.0107795905,-0.1521218864,-0.9064950194,-0.1620325489,0.6922126974,0.6687269387,0.3191917758,0.6301540375,0.1334621065,-0.9747990552,-0.1746424111,0.2031074657,0.1774253952,-0.9608372728,0.1119910608,0.7739091756,-0.8796274697,-0.6436304243,0.7901019585,0.6290902969,-0.0594614805,0.5293889091,-0.9020614109,-0.9429638149,0.0051897586,-0.7328717809,-0.4513005029,0.6671080576,-0.7247983582,0.3147729536,0.6431544506,-0.6530586995,0.5985717076,0.4145389236,0.0545386609,0.2215648849,0.0116225666,0.7996699867,0.4907925676,-0.8582372474,-0.3755572861,0.1975305072,0.0332253827,-0.1920424372,0.6391909655,0.7701971547,0.2169414596,1.6109982523,0.7319774978,0.594778584,-0.8016918117,0.9108108075,0.3271314576,0.3534637357,0.2172192606,-0.2730061659,0.614736056,0.3562838428,0.7133046686,0.8167604159,0.2345526781,-0.6206171635,0.0327586755,-0.2431092695,0.2269262486,-0.8584253348,-0.7309233953,0.4781315788,0.2747524977,-0.4774989311,0.7715451019,0.5250466423,-0.3978539985,-0.0580315853,-0.340833186,-0.2619419076,-0.6343453945,-0.1980944064,0.9168849404,0.4446939838,-0.5756790773,-0.1030047748,-0.1964946428,0.0958032919,-1.0907823047,-0.2762339984,0.8777385012,-0.6839857254,-0.2244934479,0.0527799332,0.3208541297,-0.9238673151,0.3988870595,-0.9454875069,-0.6915593987,-1.022392271,-0.0270026848,-0.3894256431,-0.974670536,0.0294841603,-0.8920536165,-0.6995199643,0.6436036149,0.5107978476,-0.0605309066,-0.4683819143,-0.0179577256,-0.3767742043,0.0062326282,-0.3015805733,-0.6518518675,0.4553194563,0.0065288925,0.8864226042,-0.7095961109,-0.7897521686,1.134900334,-0.8998545514,-0.1098303329,-0.0996667839,-0.7692977286,0.7129085857,0.2133801609,0.7821729305,0.0068769741,-0.7855228841,0.7753228074,0.4596141373,-0.8120762568,0.1425512643,-0.8450009525,-0.6541130046,-0.1381082865,-1.0343135026,0.5887031098,-0.5662300836,-0.9957269947,0.0038710908,0.8315657109,-0.9771412933,-0.9675987382,0.0760401733,0.1673579229,-0.7681762166,1.0735641603,0.4786281545,0.2079356635,-0.2678103959,-0.3169308861,0.0689533974,-0.7748166821,-0.6078705581,0.5791824638,-0.5589474178,0.0567228398,0.0560329464,0.9504215841,-0.4094172837,0.2237244007,-0.8541984877,0.0081865607,-0.6624055126,0.9370314163,-0.142587635,0.0945412625,0.5112968833,0.7325925127,-0.3939607668,0.9690450486,-0.5948325297,-0.91809033,0.9165403459,-0.0704936666,0.9257020254,-0.7754186988,0.9197404334,0.2030325354,-1.2907802988,-0.7750287218,0.3116039833,-0.3080265126,0.0021363763,0.5613805018,2.1633710833,0.7173480824,-0.9303416582,-0.525976603,0.6477033862,-0.7118123801,-0.0845637551,0.5389644382,-0.7644906612,0.3656915865,-0.3465281689,0.0725620108,0.1784082843,0.3714148592,0.2553252666,1.1300280919,0.8724532064,0.120223194,0.011323515,0.8533343368,0.1559849444,0.3045407062,-0.8195563067,0.290446095,0.1590709212,-1.0255310287,0.0459957164,-0.6130222394,0.1521291139,-0.7187762805,-0.5374422189,-0.3106010976,0.6546552146,0.1914995394,-0.2527874528,-0.5207848684,-0.0759469282,0.413575828,0.6487976356,0.6829799823,0.6581613092,-1.0314783756,0.4492241135,-0.0004629705,-0.9650047602,0.6100357024,-0.9768832266,0.0125852347,-1.0504116619,-0.0706336046,-0.5444093239,-0.6267503795,-0.8142879315,-0.6342069501,0.9636358433,0.8067109343,-0.4799887011,-0.8745112153,0.6158052701,-0.0133340748,0.5887227992,-0.2413322307,-0.5847951794,-0.3962929477,-0.5067881451,-0.0083931764,0.0700642066,0.5847547978,-0.5145424309,-0.7221708355,-0.2872177276,0.9745997392,0.7137357297,0.7333598139,0.8412332989,0.7692748154,-0.2846138887,-0.7617185682,0.7068295599,-0.832693602,-0.9745648246,0.1800226882,0.0651526178,0.8382846326,-0.7337126736,-0.9041447104,-0.56614272,0.7951148888,0.0480627757,0.6643583493,0.1502771618,-0.5663762065,0.1399756511,0.2479450739,-0.0119504241,-0.7653980945,0.0122385924,0.767604244,0.6958396754,1.0300946143,-0.5884436239,0.5894267088,0.3850889165,0.1410238499,0.3149038907,-0.4524111104,-0.1645762521,0.2305121531,0.965301932,-0.2805285133,0.5961758852,-0.362242243,-0.1976671124,0.1141322366,-0.6820041809,-0.5867932175,0.6332448315,0.4505541677,0.2408599551,0.489474211,0.0850152586,0.7893035363,0.5870310607,-0.1048132272,-0.053763491,-0.6889649613,0.209874065,-0.4050147272,-0.8690362425,0.6973610153,-0.5139275978,0.2738756607,0.3732592927,0.8755331339,0.2642212324,0.4244278031,-0.2189743494,-0.6599394658,-0.1732530098,0.7125070862,-0.2236021577,-0.1142792439,-0.0623121227,-0.0113483487,0.2321223581,0.5197955388,-0.1461332899,0.8211546625,0.6120811449,0.3720645506,-0.2762072065,-0.9857598478,0.8705583579,-1.1634425021,-0.4070880874,0.1332763356,-1.5273871341,-0.5943793137,0.551048004,-0.6019364186,0.5367221214,0.8861310278,-1.1012992644,-1.0926147843,0.2674644469,-3.4263045329,1.0953896094,-0.1659008239,0.3857577159,1.4177114307,-0.6942671387,-0.1370612396,0.798972201,0.9290991831,-0.2178700543,0.2992664285,-2.6118095663,-0.2934708687,1.1175443613,-0.1041298638,-0.5873903217,-0.6221292988,0.0895225186,0.2487384811,-0.9047239357,0.4298654628,-0.249686088,0.8228423583,0.2874004175,0.2763322396,-0.5770649814,1.010495965,0.2717733232,0.0564442183,0.6143521183,-0.7683903583,-1.0070861867,7.5079595572,0.4999615277,0.0610286759,0.2794648418,0.5674088037,0.5849320424,-0.8084744496,0.9930964703,-0.2948508403,0.9171076167,0.3320870899,0.880578239,-0.0906755592,-1.600399661,-0.4172587401,-0.7402279016,0.5427331854,-0.6671550124,-0.5836665419,1.9303291392,1.0339450062,-0.0719896525,-1.9739347298,-0.6923187064,0.5514756464,-0.3262541736,-0.0789638248,1.4047806567,-0.95329671,-0.5262173074,-0.6976076332,0.4015233198,-0.0323738537,-0.5602981123,-0.5195381987
