encog,BasicNetwork,java,3.3.0,1,1471908942136
[BASIC]
[BASIC:PARAMS]
[BASIC:NETWORK]
beginTraining=0
connectionLimit=0
contextTargetOffset=0,0,0,0,0
contextTargetSize=0,0,0,0,0
endTraining=4
hasContext=f
inputCount=28
layerCounts=2,301,301,301,29
layerFeedCounts=2,300,300,300,28
layerContextCount=0,0,0,0,0
layerIndex=0,2,303,604,905
output=0,0,0,0,0,0,0,0,0,0,0,0,0,0,0,0,0,0,0,0,0,0,0,0,0,0,0,0,0,0,0,0,0,0,0,0,0,0,0,0,0,0,0,0,0,0,0,0,0,0,0,0,0,0,0,0,0,0,0,0,0,0,0,0,0,0,0,0,0,0,0,0,0,0,0,0,0,0,0,0,0,0,0,0,0,0,0,0,0,0,0,0,0,0,0,0,0,0,0,0,0,0,0,0,0,0,0,0,0,0,0,0,0,0,0,0,0,0,0,0,0,0,0,0,0,0,0,0,0,0,0,0,0,0,0,0,0,0,0,0,0,0,0,0,0,0,0,0,0,0,0,0,0,0,0,0,0,0,0,0,0,0,0,0,0,0,0,0,0,0,0,0,0,0,0,0,0,0,0,0,0,0,0,0,0,0,0,0,0,0,0,0,0,0,0,0,0,0,0,0,0,0,0,0,0,0,0,0,0,0,0,0,0,0,0,0,0,0,0,0,0,0,0,0,0,0,0,0,0,0,0,0,0,0,0,0,0,0,0,0,0,0,0,0,0,0,0,0,0,0,0,0,0,0,0,0,0,0,0,0,0,0,0,0,0,0,0,0,0,0,0,0,0,0,0,0,0,0,0,0,0,0,0,0,0,0,0,0,0,0,0,0,0,0,0,0,0,0,0,0,0,0,1,0,0,0,0,0,0,0,0,0,0,0,0,0,0,0,0,0,0,0,0,0,0,0,0,0,0,0,0,0,0,0,0,0,0,0,0,0,0,0,0,0,0,0,0,0,0,0,0,0,0,0,0,0,0,0,0,0,0,0,0,0,0,0,0,0,0,0,0,0,0,0,0,0,0,0,0,0,0,0,0,0,0,0,0,0,0,0,0,0,0,0,0,0,0,0,0,0,0,0,0,0,0,0,0,0,0,0,0,0,0,0,0,0,0,0,0,0,0,0,0,0,0,0,0,0,0,0,0,0,0,0,0,0,0,0,0,0,0,0,0,0,0,0,0,0,0,0,0,0,0,0,0,0,0,0,0,0,0,0,0,0,0,0,0,0,0,0,0,0,0,0,0,0,0,0,0,0,0,0,0,0,0,0,0,0,0,0,0,0,0,0,0,0,0,0,0,0,0,0,0,0,0,0,0,0,0,0,0,0,0,0,0,0,0,0,0,0,0,0,0,0,0,0,0,0,0,0,0,0,0,0,0,0,0,0,0,0,0,0,0,0,0,0,0,0,0,0,0,0,0,0,0,0,0,0,0,0,0,0,0,0,0,0,0,0,0,0,0,0,0,0,0,0,0,0,0,0,0,0,0,0,0,0,0,0,0,0,0,0,0,0,0,0,0,0,0,0,0,0,0,1,0,0,0,0,0,0,0,0,0,0,0,0,0,0,0,0,0,0,0,0,0,0,0,0,0,0,0,0,0,0,0,0,0,0,0,0,0,0,0,0,0,0,0,0,0,0,0,0,0,0,0,0,0,0,0,0,0,0,0,0,0,0,0,0,0,0,0,0,0,0,0,0,0,0,0,0,0,0,0,0,0,0,0,0,0,0,0,0,0,0,0,0,0,0,0,0,0,0,0,0,0,0,0,0,0,0,0,0,0,0,0,0,0,0,0,0,0,0,0,0,0,0,0,0,0,0,0,0,0,0,0,0,0,0,0,0,0,0,0,0,0,0,0,0,0,0,0,0,0,0,0,0,0,0,0,0,0,0,0,0,0,0,0,0,0,0,0,0,0,0,0,0,0,0,0,0,0,0,0,0,0,0,0,0,0,0,0,0,0,0,0,0,0,0,0,0,0,0,0,0,0,0,0,0,0,0,0,0,0,0,0,0,0,0,0,0,0,0,0,0,0,0,0,0,0,0,0,0,0,0,0,0,0,0,0,0,0,0,0,0,0,0,0,0,0,0,0,0,0,0,0,0,0,0,0,0,0,0,0,0,0,0,0,0,0,0,0,0,0,0,0,0,0,0,0,0,0,0,0,0,0,0,0,0,0,0,0,0,0,0,0,0,0,0,0,0,0,0,0,0,1,0,0,0,0,0,0,0,0,0,0,0,0,0,0,0,0,0,0,0,0,0,0,0,0,0,0,0,0,1
outputCount=2
weightIndex=0,602,90902,181202,189902
weights=##0
##double#189902
   0.0119890548,-0.1555053171,0.1994213116,-0.434693746,0.8765528971,0.7290052079,0.222134564,0.2993234284,0.7927309472,0.4302173947,0.2257745297,-0.0250826618,0.2620434367,-0.3094522808,-0.5692478287,-0.1486698293,-0.1430150712,-0.3238654031,0.0147799193,0.0731330844,0.336614624,-2.1746591435,0.4134014513,-0.236333581,0.6473172957,0.3817754994,0.6391492714,-0.456367786,0.771483631,-0.1824248236,-0.0526428971,-0.7681108929,0.1700010698,-0.0490341449,-0.364947813,-0.1215516577,0.9197900795,-0.0343185775,-0.8107910623,0.3554490834,0.6840113901,-0.9576301917,0.3305973013,-0.1838025737,0.0734155894,-0.9551574934,0.3043714871,0.1231663471,-0.4955617981,0.1118724087,0.2432201091,-0.6776092444,0.0257807693,0.3183012345,-0.1433154281,-0.032395573,-0.5794635258,-0.6675360605,-0.1093851404,1.8472873384,0.0845333235,0.9449179169,-1.0852930157,-0.174336547,-0.9009787141,0.7094752,0.6224540464,-0.3922893189,0.4347516482,0.2249452215,-0.080962037,0.1016150098,-0.0599862883,0.9819933858,-0.8503090576,-0.4558649831,-0.16098567,-0.0184205009,-0.6645347808,-0.4796391123,0.2117651752,-0.6671489472,-0.0413920948,-0.4789508011,-2.0687233725,0.5361481113,-0.6402939102,0.2852327239,-0.0452086099,0.0737452482,0.9283453614,-0.609916126,0.3265637577,0.3176965843,-0.3457478914,0.9549827173,0.6179465594,-0.8406866734,-0.2354142887,0.4010003315,0.4920531464,-2.0385188978,-0.3638049474,0.6694069725,-0.3451781439,0.1900165621,0.8077525733,-0.012945306,-0.0087349318,0.1782841404,0.0587764951,0.1391430511,0.3740801022,-0.1783453902,-0.1434367258,-1.838139498,-0.174168275,-0.0340314901,0.1918876641,0.0298305216,-0.1435432409,-0.03308717,-1.8386961734,-0.0023107535,0.2174009421,0.0143980568,0.9886425115,0.2632718572,-0.6630604924,-0.4986327904,0.6720564744,0.1980601908,0.1640110689,-0.0567647015,-0.4808419907,-0.7118171271,-0.2547640052,-0.0257688276,0.4638229304,0.075386567,-0.8034310813,0.0155265716,-0.0631845476,0.3580730401,-0.1572795519,-0.0554097647,-1.8541749271,-0.6798350976,0.6679807076,2.3725781181,-0.0786053805,0.1017401764,-0.0818535497,-0.9100824356,0.3726316478,-0.8433705377,0.4373003232,-0.9665610158,-0.9629332793,0.2001957304,0.3804733078,0.4627661436,2.0641422626,2.314594567,0.6175184455,-0.1090431392,-0.0556161134,0.1813594995,0.2343776695,-0.0077929316,-0.4033987807,-0.5915488235,0.7037099883,-0.0062868104,0.0670201613,-0.2592013413,-0.088163248,-0.6777443556,-0.4235108995,0.2553380785,0.0410908367,-0.6490365449,0.1437984024,0.0130758934,-0.2570050027,0.0429014258,1.9120931463,-0.4911346581,-0.1003883821,-0.7385582104,-0.3347491441,0.8014500469,-0.0410748159,-0.2999286239,-0.023571715,0.3662156631,0.4441805512,0.3495386783,0.810938945,-0.671166418,0.5005180224,1.9705282438,-0.0364332244,-0.3624533702,0.5251924593,0.2820796703,0.6923325455,-0.007500302,-0.1886677281,-0.4462824637,-0.258326516,-0.3050416852,0.1089317123,-0.2907536352,0.4125076016,-0.5792652084,-0.3056434626,-0.894582239,0.7757008688,0.7768021166,0.3228112078,0.2907767256,0.3013221802,-0.7183518594,-0.3035160343,-0.1671992095,0.2445460211,0.0962295889,0.1357655282,0.0220679739,0.437483831,0.816184058,0.3199747195,0.3110340886,-0.294850279,-0.4802865792,0.3386746439,-0.0152568029,0.2548034081,0.3726507876,-0.0107080751,-0.0020352933,1.0370608108,0.1611267366,0.3593390857,0.2704769672,-0.7600895328,-0.1934527293,0.2234083615,-0.3757574828,-1.1550196027,-0.289629553,-0.2183841562,-0.6690763,0.1552243493,-0.9498383339,-0.4014722201,1.8466114474,-0.4345697991,0.0626090162,0.1412942557,0.2667476851,-0.0040142376,0.2386728627,0.0702824842,0.0572881299,-0.002610718,-0.0911138059,-0.1063800358,0.0507450552,-0.1736032777,0.0374081681,-0.4524970236,-0.0588913084,0.8437846185,-0.1136048087,-0.580663313,-2.0206140962,0.9061037547,0.2626246352,0.0141537494,0.1192186544,-0.1164731985,0.2963319286,-0.1101636077,0.0748555028,0.5554358582,0.3858260865,-0.2591721215,-0.0894623245,0.7862025322,-0.002374495,0.36076292,0.371579971,0.2434075853,0.5811994661,0.2626991251,-0.7170802413,0.1918247657,0.3484060758,0.3914193019,0.3263108634,0.6184970825,0.7417830038,0.3400572604,0.2524314128,0.2259556591,0.1363757072,0.1125287805,-0.0271099878,-0.0089642678,0.3829056699,0.4034564824,0.5865060863,-0.0484057613,-0.101266139,-0.3298534195,0.2893107482,0.9774232113,0.0751666563,-0.3320792105,0.6377779448,-0.6703706053,0.4432894877,-0.5008610546,0.4520918328,0.6753104476,-0.7362740444,-0.6473238454,-0.0527244973,-0.9737956152,0.0897386789,-0.2889748645,0.0025681913,0.5382351275,-0.2976460554,0.9661606456,0.2025185543,0.0319337051,-0.7357568256,0.7805614714,-0.6289112043,0.675040551,0.3403674206,-0.053785182,0.4656134112,-0.893331645,-0.0118143088,-0.6116710502,0.0308305661,-0.4116925127,0.3093491945,0.4896545858,-0.3519267041,-0.3859183137,-0.4552914468,0.2651301921,-0.7068049038,-0.8020778573,-0.1992930001,0.7997500782,0.1862010009,0.1483682618,-0.0547277595,-0.6729202345,0.0799795508,-0.3575081697,-0.0568671118,-0.2865560024,0.7720288468,-0.1312057551,-0.5184352123,0.3792960592,-0.0601598904,0.5086911929,-0.5199811438,-0.4698967565,-0.0669672184,0.946814864,0.2252550316,-0.5038736899,0.0315591978,-0.5802803873,-0.634518045,-0.803159741,-0.8640126768,0.241687958,-0.4428486558,-0.3353597409,0.0411626972,-0.2452482645,0.8224814536,0.659602381,-0.9014453977,-0.293480172,-0.4318118284,-0.0225121681,0.0491879352,-0.7481699156,-0.6502620231,0.3657596009,0.7284165952,-1.0564085289,0.0485104473,0.4633507289,-0.3758869479,-0.8414457029,0.811039852,-0.3058050309,0.4369604821,0.4932600479,0.0666671958,-0.036636753,-0.0495363847,-0.4237293406,-0.1324469215,-1.0404502029,-0.4197357887,-0.1772594483,-0.5515696223,-0.5720559218,0.5701841307,0.8327888582,-0.3294103896,-0.4415757305,0.1072881723,-0.2782639662,0.0197652339,0.7485287828,-0.3571752805,0.116073369,0.1952431661,-0.0744035287,0.7434297786,0.387540957,-0.3889294035,0.4076408973,1.0124704383,0.1914757816,1.0616057523,0.3419366141,-0.5663823202,0.0277702259,0.7481812388,-0.479870078,-0.0796411576,0.1007018016,-0.8794689519,0.6103189544,-0.0890810553,0.3319632426,-0.2292325902,-0.1545925668,0.362156168,0.0016080691,0.2659434354,-0.0884594178,0.4134638337,-0.5841914891,-0.4353858509,0.0091057202,-0.6296362717,-0.2191973352,0.886427742,0.6567228767,0.1571446165,-0.0933107896,0.4776541247,-0.6330073267,-0.6020725362,0.4528260934,-0.3299428058,0.0944957585,-0.0408474265,-0.3792422209,0.5479956778,-0.1883541335,0.2688343198,0.9450473897,-0.3231804127,-0.5260835139,0.3712743031,-0.1198653681,0.2952346732,-0.8601909742,-0.009680416,0.1162577683,0.0908089935,-1.1537888236,-0.2349619167,-0.2442503118,-0.1123572801,-0.2381510111,0.3292372129,-0.7038052911,-0.1430960119,0.3301219274,1.1982611819,-0.3239049328,0.0310504339,-0.7893607893,-0.4405312241,0.3905012406,-0.217800806,-0.0810034457,0.034822685,0.0861417419,0.504905927,0.4611911976,-0.2678105064,-0.0970049878,-0.5965827179,-0.2843542901,-0.0252510568,0.6887477228,-0.6010826691,-0.7541622149,0.7940302448,-0.2579929309,0.8396267998,0.3955957937,-0.0208277869,-0.090806027,0.502900987,-0.2358987275,-0.2834431249,0.0396781268,0.0455911794,0.276747818,-0.3540898184,-0.0407986067,-0.3165391997,0.5293489915,-0.0798623088,-0.1098668723,-0.3654768442,0.1446931537,0.0547161577,-0.9780882077,0.073213686,0.8117423105,0.3857579267,0.1194272774,-0.0091818604,0.2313029698,0.4295886276,0.7756021789,-0.6596649452,0.2568272566,0.3139475601,-0.5082112147,0.8853874775,-0.1470419924,-0.360512648,-0.6609686544,0.2843353104,-0.810665111,-0.7171167266,0.5606091097,-0.4463299959,0.4950318225,-0.8802710799,-0.5127044671,0.7490355111,0.0915931178,-0.0203147238,0.5607616459,0.0360213624,-0.2199152425,0.8256329879,-0.7983366049,0.6000536398,0.6002584753,-0.3985179898,0.0639426286,0.3163174364,0.0231322919,0.0375330134,-0.6961084983,-0.1030720009,-0.0494157788,0.3464648977,-0.0393634536,0.0427626713,0.2196638933,-0.6586628914,0.0511508409,0.1934483943,-0.5794345545,-0.2815807172,-0.56830848,-0.0170735021,0.145963667,-0.5042944413,-0.1034723838,0.3714630918,0.4868894437,-0.1637367388,-0.1019108354,0.0149648577,-0.2286410662,0.8891045645,0.0869793878,-0.0283835678,-0.6522680204,0.1043246551,0.4414736363,-0.3690541219,0.8036587636,0.4868558814,0.2977249039,0.9214261725,-0.0226115361,-0.2394679999,0.8274377177,-0.649030857,0.4293009424,0.0093394495,0.5581743054,0.5391085668,0.180063351,0.9259408081,0.0717449299,2.2533501672,0.8629503373,-0.2419763686,-0.1161629351,-0.2398023894,0.3886805701,0.2854438731,0.3953822092,-0.253153104,-0.0781619652,0.7911840155,0.7954622027,-1.1365256664,-0.3134242613,0.5475568192,0.6283783074,0.2620851654,-1.4469146535,0.5106902794,-1.0429974271,-1.019489919,-1.0901204687,0.094659022,-0.2968465727,-1.0187371511,-0.1482234004,0.1902044319,-0.4222290207,0.9784228759,-0.6884849317,-0.0623402583,0.6935036467,-0.5651867073,-2.6573425882,0.3710945768,0.0479561425,-10.2885626407,-1.1024769634,-0.765054189,-0.0689131667,-0.0478874977,-0.421087338,-0.3090676261,-0.4333545145,0.7331161736,0.7012619845,-0.056008363,-0.0708633434,0.7194879181,0.2324433393,0.0230100162,0.1164962821,0.0369035097,-1.0484219368,0.662575372,0.6259729068,0.2500952516,0.2020291794,0.555189609,-0.2466607195,0.8413050285,-0.4709579344,0.8851032432,-0.3217425095,0.0196267729,0.13391884,-0.5822655895,-2.1710340945,0.2929149072,0.1514832144,0.711620409,-1.0436082347,-0.4658198556,-0.4428533926,0.1937667468,1.4874091227,-0.2697199337,0.3533462654,-0.8471597513,-0.4456947979,0.2543503045,0.4584936154,0.5229922739,0.0436968624,0.6256850886,-0.4850306696,-0.2891841126,-0.0621030776,-0.1799023208,-0.0866615594,0.244119329,0.6550409322,0.4304214275,0.5178309177,-0.9636995492,0.4940165373,-0.0672151359,0.1291186567,0.4622782038,0.3250756258,0.6599849852,0.5719090882,1.1739133553,-0.3572477773,0.8133732658,-0.5899870993,0.6109798456,0.8116173233,0.2310865412,0.1947789938,-1.0677982868,0.3524261291,-0.103183872,0.0815974518,-0.4790685765,0.3615201791,-0.5374911635,-0.7461043879,-0.0431382276,-0.2654122652,-1.5559679605,0.7312959117,0.3773758927,0.3070646128,-0.9077591646,2.2825308816,0.2620440576,-0.2142875071,-0.3005269875,0.1690043002,0.5403238175,-0.6928932355,0.417769358,-0.828229024,0.7651077856,0.7427852568,-0.4034229182,0.1177751453,-0.3097549243,-0.6521671371,0.1630714177,-0.40779825,0.2887674514,0.4298326988,-0.8347534523,-0.6214543629,1.4560071202,-0.8735852458,-0.2260677316,-0.2019670134,-0.3172313219,-0.7391368344,0.3835680485,0.5468843299,-3.18332921,0.7189656383,-0.2116352663,-0.0992711566,-0.8166141498,0.395914413,-0.0866820801,-0.0464768166,-0.833743665,-0.2941390577,0.5228609321,-0.1849539903,0.2170462713,-0.6217396341,1.9139199317,-0.049817841,0.6229260075,0.1086184726,-1.091706255,-0.1339627299,0.6934944401,-0.6616922925,0.5714213442,-0.6372890983,-0.4127248574,-0.5452857631,0.3296409737,1.1471264333,0.2364121848,-0.0663136697,-0.4390519941,-0.6958003814,0.7960584462,-0.2531402617,0.7433458785,-0.9937592496,0.4444996006,0.1462540834,-0.9259426208,0.2389351554,-0.1375957263,-0.806000964,0.2910683122,-0.713866551,1.0715873531,-0.5957416908,0.2301552133,-0.5150285706,0.4784107895,0.6050658876,-0.4573717016,0.0636449574,0.8700843298,0.6840431441,1.0105120271,0.9672599904,-0.7725025829,0.1833582883,0.2937338762,0.0169452627,0.8321263709,-0.5141520952,-0.2078534334,0.2027978493,-0.0008239921,0.6200156692,-0.4668292235,0.7860143915,0.4276735005,0.3206202102,0.2566835117,0.969842572,0.5593950619,-0.0166182504,-0.5409538891,0.5216610549,-0.7545524293,-0.7399584361,-0.3255738609,0.6683299106,0.6524418004,0.500495216,0.5214172677,-0.8750257635,0.0482219737,-0.3740109578,0.431897557,-0.4289442776,0.4905992974,0.6012319379,-0.2522385482,0.0011653859,0.1923989734,-0.6167301997,0.5350275542,0.0189050956,0.3353760837,-0.413552048,-0.3493505757,2.1246101864,0.636242698,0.8005408737,0.7671266443,-0.4530170497,1.0577518645,-0.0907551167,0.1546243635,-0.4707674619,0.2774928489,0.1964524156,-0.539790034,-0.6095361727,-0.038715165,-0.2603146255,-1.0542697307,-0.5892845393,0.9955711814,-0.0287045905,0.096056151,0.4001789858,-0.6228843871,0.3904968233,-0.098478677,-0.3746155017,0.3159052463,-0.242623325,-0.3427261279,-0.3561780113,-0.2984716704,-0.4453696296,-0.7454557817,-0.1783131543,0.8460157943,0.7863905816,0.4277582662,3.4990427944,-0.3447138674,-0.0306950067,0.1015778036,0.3108728697,-0.1230183337,-0.1560931893,1.0472426671,1.0591450752,0.6167636412,0.1589059613,-0.8002705351,0.8938068142,-0.6290186547,-0.1257185031,0.8911125262,0.7528201539,-0.6632106873,-0.3805710132,0.5430143016,-0.1834201183,0.9561490399,0.8375586293,-0.2703860671,1.0479423118,0.5175609758,-0.6390446808,-0.7753810261,0.6445631887,1.0000940308,0.9193128971,-0.012718175,0.8769015932,0.4417189084,0.0580200593,0.7297807054,-1.2437192125,0.4795902473,0.0011833899,-0.2557873526,-0.6228167344,0.7951207533,-0.2003402634,0.5364697645,1.0118738304,-0.2708764995,-0.6642803307,-1.6111761538,1.9079361511,0.4544786681,0.3889224892,0.3977270795,0.436368164,-0.8999423867,-0.4562438138,0.0158665686,-1.2097218776,0.9866382246,-0.6208369175,-2.0637430191,-1.0473814396,0.4366823907,0.8322448152,0.2493754317,-0.389859145,-0.1206810394,-0.3480736744,-0.3290268034,-0.6615576922,-0.0291444941,1.019417973,0.3377570458,0.2348275709,0.0180132337,0.4253872958,-1.1454200193,0.1211422002,-0.5521807571,-1.1132336665,0.556604113,1.2036158028,-0.3266127349,0.5402814499,-0.535184422,0.8483468858,1.2137676409,-0.1935894711,0.4150085084,-0.4841828197,0.5908029309,-0.4591421071,-1.0283494378,-0.408631566,1.3059417764,-1.2124027115,0.4299932245,0.3212585195,0.3085766424,0.0599200955,-0.8906065717,-2.1793147693,-0.5378602074,0.5526877012,2.1776784173,-1.0151152984,-0.514290867,0.1844511146,1.1370640549,0.0393829004,-0.4373843498,-0.1340686062,0.9828277034,-0.8715721038,-0.5733612655,-0.9563676509,0.7776429132,-0.9975697826,-0.5321977422,-0.9057693776,-0.5748760853,0.7615735693,-0.2572472938,-0.44423719,0.7654763026,0.3538350411,0.0586570095,0.2481076542,0.329359512,-1.2634573122,0.2743819786,-0.1274125388,0.8344557139,-0.5548797311,0.6766529177,0.439232084,0.8229131444,0.6053174071,0.3989406457,-1.2317928137,0.4521529922,-0.7549894647,0.3087232698,-0.7061161087,0.1876860245,-1.0770273263,-0.9649845574,0.9485343557,0.7693324513,0.355855207,-0.3593014969,0.3158715059,0.3552330092,-0.0869556828,0.5387548546,-0.6158794575,0.5015202134,-0.4978572314,-1.0857015762,0.6348922703,-0.5897936068,-1.0049097729,-0.0811009169,-0.3574363556,0.6689058491,-0.4349487047,0.0560922722,0.5997717581,1.7317791992,0.2802382235,1.108915485,0.0463764581,0.613548081,1.0137382052,0.8738119424,0.6498711032,0.583533504,0.8182761654,-0.0186525838,-0.2333549463,0.5067090282,0.2027901168,-0.9668640155,-0.2689229505,-0.3378701096,0.4475990083,-0.6583358723,0.0592235054,0.2057893302,-0.8171369641,-1.1705446826,-0.9653027568,0.3173268464,-0.3776070223,0.1759144804,0.9086732124,0.3156174662,-0.7656957571,0.1677797172,0.3758828876,-0.5490534249,0.181840014,-0.1720026318,0.0705924109,0.4673560844,-0.4223471702,0.0329154378,-0.6689617579,-1.083324957,-0.7496424319,-0.5172294556,1.0557008225,0.7172104785,-1.119421565,0.0423560967,-0.4884801363,-1.0336404229,-0.1759546526,-0.4194027901,-0.1022374581,-0.638041995,-0.5584155589,0.1362383765,0.9293389894,1.6226430464,0.1847355018,-0.4368619016,-1.0922757403,-0.4243977571,0.9656650027,0.4157928911,0.3654306083,0.7561042864,0.5030485708,0.4728572064,-0.9100367217,0.3990947451,0.4914117231,0.1475352299,0.3440064406,0.9818075669,0.5783913465,0.9789063778,-0.6186305061,0.5446426326,-0.1909622003,-0.8433342151,1.1441048821,-0.0378356498,1.2541761071,0.2789324968,-2.1800728838,0.4913227331,0.3127023263,0.0566072797,0.7987747318,1.1001108918,-0.5478809987,0.5979417057,0.6482223633,0.2687337206,-0.1660954178,0.8708725171,0.3537265374,-0.7172750593,-0.1601216485,2.5409127,0.6381891927,1.0126581895,-0.0721949972,-0.4704900105,0.7734668884,0.4486160947,-0.2996426971,-0.7810297275,0.7190862363,-0.0485945755,0.2678155193,0.7986878934,-1.1083109193,0.8684014481,-0.2202812038,-0.2864996405,-0.3070065158,0.3947010328,-0.1813252731,-0.2293348894,-0.5748635582,0.0426276133,0.8969549455,-0.8344954901,-0.2887528931,-0.6666829336,-0.2421424752,0.9387725932,0.7615279624,0.5501626718,0.212057367,0.6563610783,0.3743520674,0.2889120471,-0.1277815243,0.9539756748,-1.1220065191,-0.3065306474,-0.2233857574,-0.1912014437,1.1509704077,0.956833964,0.4129367898,0.9476282074,0.6301554087,0.0074686406,-1.3531695913,-5.0641915967,0.5972814752,-0.6140077762,0.1964311118,0.5290751743,-0.1064019007,-0.580285424,0.749593422,-0.7996460622,1.0041523104,-0.3620896162,0.2851415204,0.1066919348,0.9524203682,0.9040893622,-0.2924514718,-0.1306607001,-0.2560501095,0.9591214188,0.0355038743,0.1309021777,0.4966066671,-0.7284745311,1.3627504433,-0.6823341591,-0.3799745396,-1.5909510392,-0.8570912336,-0.9685698916,-1.1503425901,0.282160328,0.764988131,-0.146871287,0.3494293428,0.128826746,-0.2327057335,1.0058962207,-0.1357549136,-1.146769052,0.3972941824,-0.7618233721,0.4707070683,-0.6073253382,0.2072071885,0.007034205,-0.0693715117,-0.5170169091,1.2212416106,0.3523387296,-0.8074709109,-0.5162698742,0.2449138908,0.465107453,-0.0819071648,0.3341415285,1.0214496315,0.8514928767,0.0517926549,0.8719379372,0.6022540565,-0.7747523004,-0.0659395352,-0.662965314,-0.028898176,-0.302736224,-0.1111567071,0.569189278,0.7565981759,0.2589425185,0.0596599394,1.0582450173,-0.585028823,-0.2683829292,0.8524388484,0.7963963048,-0.8998181459,1.2773468248,0.7382709208,-0.2769655317,0.8527913737,0.4163169516,-2.2105117573,-0.6884761523,-0.1695657516,0.3455924289,0.7302493769,-0.2814058962,-0.6870349949,-1.0233401226,-0.6271725845,-0.2860604437,0.0719212135,-0.7116552759,0.3437641887,-0.2617930494,0.4689599693,0.8046590738,-0.8118044229,-0.2727552055,0.676239458,-0.6035293702,0.6846318414,1.8470826212,-0.8659436969,-0.1151209107,0.0450322081,0.4212911387,-0.5893807089,-0.3738955565,0.4195120454,0.09834492,-0.9873579423,0.7390980914,0.1690084969,0.1037434628,1.0776167117,0.65728142,-0.1298879247,-0.2067043751,-0.2649553746,-0.3309021482,-0.6138011614,-0.8247361856,0.1015281776,0.5698073307,2.7595133963,-0.0270884625,-0.9231200143,-1.2981408099,-1.0530026763,0.2810954886,0.8827844657,-0.3776031586,1.3643531074,-0.4064078234,-0.0332736715,0.0614175704,0.9337495686,0.6194370233,0.0027072464,-1.1022543033,-0.2238221543,0.3015073571,-0.6423474499,-0.180317118,-0.7419929901,0.4128225834,-0.376444311,0.096454895,0.179665248,0.3567501,0.4527716383,0.6607619526,1.0177149572,0.7411474047,-0.7576839729,0.5079850537,-0.2896058211,0.589321575,-1.1904410627,-0.4549810713,0.7103590936,-0.6970122249,0.2022770937,0.1271371878,0.0834335715,-0.6364309805,-0.7468516235,-0.0557678021,2.5272414753,0.2926121528,0.0015099585,-0.0879910351,-0.9413776134,-0.203143811,-0.3251711332,-0.3792621239,-0.0646501244,-0.0978088798,0.1124517221,0.7578300672,-0.3577619336,1.114964156,-0.5477516076,-0.0576067594,-0.1146755194,-0.2374412546,1.0771557044,0.4605506679,0.4107030384,-0.2489357569,-0.7022067988,-0.9275373541,-0.8851462087,0.6697590843,0.1441905949,-0.0895621673,-0.3353334119,-1.0128354723,-0.1691914598,-0.0029661304,0.3513600124,0.8439357114,-0.4872813939,0.0056868097,0.9541412694,-0.2915418108,-0.1368012728,-0.4827426939,-0.614942658,0.286995218,0.9774943733,-0.6891747974,-0.9840068993,0.3862526006,-0.7755417594,0.3279195018,-0.6771802525,-0.7554121907,-0.7801140327,0.6593043416,0.1223878404,0.1252894122,1.172460931,-0.8129259785,-0.2373873292,-0.5162532075,0.8952474992,0.7559337448,-0.2218024639,-0.0824444014,-0.1864776527,0.816909376,0.8564315044,0.6343209331,0.5386790965,-0.4285823777,-0.1875915394,0.7688489945,-0.4413013687,1.3246198971,-0.1335664554,0.0650614207,0.2478944032,1.0659166341,0.0650715505,-0.1698993514,0.7488531861,-0.7892305784,1.1786524784,-0.6393451148,0.2389959262,0.5710571003,1.9487244657,0.5891550927,0.8703097737,-0.2246232681,0.4867380188,-1.5988517727,-0.9013270799,-0.546487648,0.2798339848,-0.2777287233,-0.9677948224,1.504963154,0.1000225723,-0.1424189626,0.10178621,0.6393756101,0.920875035,-0.7098130696,1.2474494296,0.0306040561,0.0874161323,0.5875828125,-0.7732842154,-0.586898582,-0.6700525589,-0.9235101845,-0.4555815234,0.2116569719,0.5823783069,-0.9362000858,-0.1155647163,0.9036731496,-0.1944563118,0.6548491175,-1.0182415595,0.5728035123,-0.5023497591,-0.7835392049,-0.1679337318,-1.0568071154,-1.1786725385,-0.9829591111,0.6853496756,0.2440628216,-1.0510972211,-0.7507517369,0.6309982699,0.0839390315,-0.4527535668,0.1358987788,-0.5182842732,0.3075486784,-0.0569628977,-0.7199746616,-0.3359901722,-0.6043039692,-0.4925692367,0.3543023246,0.465867394,0.7379454815,-1.4712252359,-1.1743667903,-1.0247795723,-0.5884193931,0.3188258012,-1.033184152,0.4153877227,-0.5352008427,0.7877168881,0.0755872665,0.7105258848,0.2800401371,-1.4303238005,-0.1464420211,0.6673790844,-0.954098155,-0.6310845118,0.5599565371,-0.1132266815,0.1758794017,0.5384855924,-0.5473302415,0.6616954268,0.9460202747,1.3050231864,0.3237232351,0.5818613187,-0.3947784975,0.0932407788,0.820585699,0.1514794387,-0.1792692974,-1.3506315956,0.5933114054,0.6047423911,0.4852704448,-0.527314112,0.5993133461,-0.8167084062,-0.8853285186,-0.8929768686,0.692578954,-0.8726892955,0.0500115446,-0.62227095,-0.0394423509,0.5272830357,0.5502499932,-0.8794310936,-0.0512893213,-0.2952278648,0.9697213419,-0.55122104,0.5135677602,0.4733124249,-0.4520662469,0.6480202387,0.1337926667,0.453381704,0.0480313505,-0.2777319864,0.444403016,0.2410081047,-0.852213507,-0.0091159102,-0.5846026737,-0.0503858129,-0.6352203256,0.1742325837,0.9608655225,-0.3196307711,1.0133806587,-0.2759260317,0.0813864729,0.4131311041,0.9061897125,-2.3855350975,-0.5909276137,-0.0219087033,0.0366911149,0.894023516,-0.4096271029,0.626045846,0.8424872387,-0.0812314029,-0.3135800487,0.5800352558,-0.7527966923,0.5703177314,0.7772295913,0.4495509383,-0.4550862733,0.3209104309,-0.059687911,0.8226209369,0.6165905351,0.7870318622,0.41165031,0.4140076349,-0.3440899348,-0.7765051085,-0.5920243316,0.9354346389,0.0675446112,-0.0197856819,0.2961788898,-1.1105289873,0.2372100844,1.1811268889,0.1465870197,-0.8504996073,-1.0364016106,0.6018328774,-0.2428388297,0.1284182829,0.3558736355,0.7467306324,0.720214061,0.4596663492,-0.3208962967,0.1961951561,-0.2822184001,0.5483425067,-0.678431452,0.9583128392,-0.2405415605,0.1170851772,0.3559372015,-0.7945602934,-0.6324773365,-0.9363346997,0.0027392576,0.7595782736,-0.6966117512,0.8164728015,-0.4840064949,0.9443813632,1.0014547715,0.0574845974,0.1211360984,-0.4365888827,-0.7371587506,0.2982412813,1.6305134054,0.1406213839,0.1089516234,1.9403236099,0.8163332746,-0.1520694769,0.0582975072,-1.2721798125,0.4001178692,0.2262141853,-0.7648062783,-0.2661514285,1.0387708678,0.9464036327,-0.4270040225,-0.9620403546,1.1577296616,0.8400421294,0.9612929845,0.8001075531,0.6107168176,0.1644774335,0.4664015506,0.3867505746,-0.459415697,-0.550202965,1.4377816354,-0.7230165053,-0.5558644746,-0.6971241117,-1.4173225949,0.7584876929,-0.3946979297,0.2753734688,-0.0215643415,-1.0202603536,0.3384004103,0.6293433018,0.2397546992,0.04921345,0.4871556041,-0.1478223432,0.3467910831,0.7226027133,-0.0581501978,-0.0360876584,-0.1923111473,2.0346888804,-0.3754522089,-0.8281239008,-0.5962714868,0.9944527288,0.3594126674,-0.658558477,0.2222171907,0.2743984321,0.5236202929,-0.1333616009,-1.1186706574,1.3304222573,-0.1720840593,0.5683442875,-0.3556015564,0.6132225203,-0.2906115878,0.3118379437,-0.7832860287,0.4518260221,0.3667872818,0.3542426517,0.6605262873,0.8607277275,-0.7842533809,0.2605481836,-0.3151407252,-0.1109571145,1.0908366771,1.0999120482,0.112848301,-0.7548141937,0.2632709813,0.5006402023,-0.4841674061,1.0572825315,0.7095396178,-0.5629301208,0.6853149464,0.2338633327,-0.8448569452,1.49264701,0.7977127629,-0.4052603977,-0.1856156496,-0.8018315398,0.0281735961,0.0684470476,-0.7539681025,1.00505443,0.1563750073,-0.866339241,-0.4142200171,0.0462865469,-0.2278195546,-0.5866648333,0.412157088,0.9642080707,-0.6935017606,0.4570308548,-0.297120457,0.132993499,0.6700150176,-0.4170668182,0.2768751333,-0.4386964971,-0.78598484,1.0007167002,0.4459625921,0.6451533666,-0.7259190697,0.8215332472,0.4986623029,0.2653010518,0.8122405643,-0.1827726991,-0.311795121,-0.8293001067,0.121170063,-0.6850969968,0.2965573113,-0.9340434622,0.0077963964,-0.54374166,0.1951728917,-2.3749278949,1.0439254377,0.7729491119,0.4751875928,-0.7237218002,-0.0405420632,-0.658074391,-0.5204357338,0.602120379,0.0293464016,-0.0434532191,-0.574337541,0.8642727476,-0.6238109505,-0.9008610025,-0.4345935695,-0.4580788414,0.4594341306,-0.9253747392,-0.7328307321,0.8263554152,-0.1659851314,-0.4941117831,-0.5288335555,0.4034154663,-0.4945240685,-0.0739785882,0.3245395988,0.5808962127,-0.277340993,0.6794321918,0.886273151,0.110947634,1.0998446218,-0.146067385,-0.1702766333,0.5647214748,-0.2901079626,1.1820573188,-0.4780732709,-1.1254072115,0.7286238689,0.7360054206,0.5033218156,-0.4092528214,-0.4440618991,0.9803970919,0.3283820511,-0.0094921968,0.1953486737,0.083382383,-0.3350013409,-0.3153448891,0.0511563611,0.1434856696,-0.5959562246,0.4843420018,-0.7426815764,0.1041508853,1.1025003809,0.6561385537,0.2712176592,0.2582031611,0.8108928656,0.6283020285,0.1460586729,1.1355405,0.4189733224,-1.0066474222,-0.3582152956,0.1395812847,0.7245363612,0.0505203302,-0.2294277,-0.5418613223,0.5387485086,-0.2194652823,0.9290856364,-0.1087166039,0.6250555038,-0.2800235468,-0.4695032527,-0.9581314882,0.2744007646,-0.7812848851,-0.4421250771,0.6752370172,-0.7230851762,0.1254132745,0.7567647982,-1.1163499299,0.6373084745,-0.5353916104,0.7107975332,0.6239784113,-0.6468715376,-0.183860152,-0.6096711483,-0.8215791201,-0.6356388753,0.0733473437,0.1005459211,-0.3792848557,0.5591142711,-1.4590014528,-0.5353255209,0.5536039867,-0.5069145304,0.0782340445,-0.4563468662,0.8191573588,0.5092083512,-0.1059468347,-0.5387326512,-0.1463525413,-0.7868048984,-0.2840243626,-0.7739275431,0.2767714514,-0.0952138799,0.8549713818,-0.0450335008,-0.2175058573,0.4020144609,-0.5007532257,-0.3741217729,0.6754366477,0.425582699,0.4582090673,-0.1734929515,-0.250874809,-0.3767874956,-0.8015775798,0.2680790501,-0.2203780708,0.2270836735,0.5874468198,-0.622357861,0.3372186101,-0.1241808854,0.874354937,1.0056487523,0.474018231,0.8697414106,0.5268143998,-0.3975041214,-0.5572882128,0.6278891842,0.0996321195,-0.1208243674,0.2276590024,0.3124853035,-0.4647974239,0.7608730904,1.1022288884,0.0316736611,0.61250228,-0.041353653,-0.09670815,-0.8539958112,-0.2951305491,-0.2619780783,0.2238277662,0.3788169394,0.5042266649,-0.877350231,0.0688872193,0.2548378178,-0.4418304268,-0.55327626,0.6745084308,0.6007857973,-0.3967687332,0.0424832733,-0.0120899225,0.549292575,-0.3664364085,0.9441642986,0.7033869759,-0.7150809339,0.5297065371,0.7298913224,0.1072541028,-0.126599692,0.6015559097,-0.1243045103,0.537121758,0.2368218106,-0.291695055,0.4051048493,0.554589454,0.181031245,0.8046176015,-0.463260738,-0.4660588597,-0.6656479367,-0.5485261217,0.023635339,0.2977817757,-0.6044762743,0.6359456522,0.7651033346,-0.4024213441,-0.8281325602,0.4408293306,0.4389556237,0.6455516845,-0.83415299,-0.4644118894,0.8480281658,0.7231879079,-0.3199478292,0.302895237,-0.538791694,-0.3065703183,-0.5240421476,-0.5952193632,0.3174927918,-0.98978156,-0.5349675613,-0.4866854355,-0.1865731573,-0.0169151045,-0.8526136261,-0.857170751,-0.9062288922,-0.242085941,-0.0114121807,-0.8610758691,-0.7702598635,0.3595545427,-0.9270095341,-0.6352079989,-0.6609853218
   0.6062348583,-0.4082501445,-0.3993753367,0.4228564352,0.1627935152,-0.6400084376,0.63947718,-0.6959880355,-0.9483453965,0.556430968,-0.1138495658,-0.7844855533,0.0803143674,0.3042656628,-0.62728633,1.1759009214,0.7398464239,0.4728004541,0.7489946768,-0.4223580978,1.0600910295,0.4670036947,1.1195597714,-0.7210513782,-0.5382353122,-0.9374234949,-0.018573941,1.0707507346,-0.2374502082,0.6745577944,-0.8020386336,0.2013672051,0.1033010093,-1.1390454736,0.5282511589,-0.4013101869,0.0328986652,-0.7762082539,0.7117679662,-0.2696358491,0.5300762996,0.0984870505,0.0970376262,-0.2159858717,-0.4066683269,0.1514952711,0.2111681879,0.9639572079,-0.3352077085,-0.3703760555,-1.131418086,-0.3398615936,-0.2173650642,-1.0620533872,-0.6794278361,-0.1101616094,-0.1039925675,-0.6672658046,0.8901413678,0.5620453332,0.7087093258,-0.9117632064,0.2537736071,-0.1435362635,0.0375772561,-0.0072326757,-1.1000451228,0.9830162981,-0.3056383425,-0.1707155392,0.6968096943,-0.6971208635,-0.3951806671,0.2839377167,0.7134504895,-0.3984935844,-0.0156549509,-0.1575870809,0.8931772158,-0.5600153399,0.1861090005,0.211699911,-0.3158422858,0.2080190421,0.3906251098,0.3459098001,0.3248085057,-0.3656151379,-0.8143541005,-0.1035775634,-1.0336479072,-0.3851733071,0.2953992766,0.1109225064,0.6538961848,0.474466263,-0.3127419586,0.7923703711,-0.7410198472,-0.253578181,-0.6863076124,0.6096348788,0.5616254749,-0.3673624027,0.8510330307,-0.0981761288,-0.0449927987,0.2360971899,-0.4372973975,-0.5295241851,-0.7138410365,-0.3067774661,-0.7701780088,0.1483658117,0.3400518578,0.3489467415,-0.3555274466,-0.9135538875,-0.1000473287,-0.4199689308,1.3364343523,0.5458048506,-0.4944636612,-0.0758934712,0.8282226675,0.999372268,0.5873495991,1.5434915114,-0.6191115827,-0.0099631197,0.2992732574,-0.4891847749,0.4622192967,0.6116344745,-0.5517054084,-0.186597983,0.2246329244,-0.142284443,-0.7689473967,0.3139181892,-0.7329890695,0.8031359188,-0.709691462,-1.1997982537,0.0677047983,0.1062386718,0.2083484845,0.3056986253,-0.4445494011,0.9384069773,-0.7117608235,-0.1410906122,0.323103928,-0.0066789337,0.9609068476,-0.5459172401,0.2763789643,-0.8759041296,-0.9957246065,0.5017256275,-0.2139324042,-0.6999561284,-0.8369064233,0.0598260475,0.4312374836,-0.4326631372,-0.5680913841,-0.2806040272,-0.3478126747,-0.0175754975,-0.7669523326,-1.3408174566,0.4592318873,-0.8692088401,0.1289619713,-0.1180611551,-0.5038429652,0.8843909592,0.3142603084,0.2286689895,0.1927219467,0.7884022703,1.2074376749,0.4031060107,-0.4099849972,-0.5721068653,0.8282408537,0.0014711572,1.0250646297,-0.5211869887,-0.6078140412,0.7157726597,-0.1932057778,-0.8993973141,0.5986072724,0.7291487525,-0.3745068475,-0.8486215151,0.269801086,0.3331061517,0.6826933076,-0.1543862606,0.7835718828,-0.7246535853,-0.3042756528,-0.3427517172,0.1373635176,-0.6156287008,0.1525578924,0.0163265743,0.3399510257,-0.2465584453,-0.8535116515,0.6733857669,-0.4390727619,-0.8248626544,0.4919044951,0.1714105272,-0.2710046726,-0.274676499,-0.4168373765,0.0742414072,0.8596886258,0.6736624413,0.5967660798,-0.6403006503,-0.7148476683,-0.9217964806,0.3368629947,0.6265391986,0.1621740628,-0.3663339915,-0.4119632367,-0.2468298242,-0.159405223,0.4364766619,0.928075528,0.6413472319,-0.2625904822,-0.6880152207,0.0617140744,-0.7052978537,-0.4047733848,-0.8455785563,0.1899172479,0.7017466412,0.1571917443,-0.9098903997,-0.5579460168,0.5146620544,-0.999810652,0.8671463156,-0.3042797306,-0.7161573858,0.8071414973,0.959701418,-0.6300238922,1.2382365025,0.8084346097,-0.1992722974,-0.746399612,0.1411833313,0.5456236897,0.1913276775,0.3074877909,-1.978038188,-0.6002629217,0.3440207834,0.4885360659,0.8067097225,0.1643502391,0.6045734574,0.407684543,0.3055887823,-0.227783731,-0.3080015352,-0.0919637929,0.9286497944,-0.178148747,0.7677111503,-0.0841431252,0.3877295585,-0.9190082298,0.6541063765,-0.4124879949,-0.4512599935,0.7312805455,-0.1142386165,-0.5861156514,0.0251327963,0.2011469974,0.0295672463,0.2831004561,0.1483110587,1.1242605972,0.513337829,0.4701259219,-0.0203353604,0.688990645,-0.8195080355,0.6074403334,-0.7029096937,-0.9327656257,-0.9803106486,-0.3088462838,0.5461745516,0.7924480964,-0.3017094301,0.6319907851,-0.6822746852,-0.2261420552,-0.1404591219,-0.3452223089,0.4240983508,0.2026915611,-0.1619612898,-0.2163087373,-0.8686086865,0.0603625877,-0.844331169,0.0987687236,-0.8144716339,0.005384928,-0.3533385275,0.4950034667,0.2999654303,-0.7377603409,-0.3759356759,0.2660276681,0.6337271577,0.3293116716,0.3015167611,-0.4239086585,-2.6075704817,0.9448352768,-0.5880831101,-0.1136555938,0.8072801589,-0.8373567693,0.1970996369,0.8940999378,0.05596406,-1.498383526,0.1529066788,0.2037610785,-0.0138803517,0.0463546532,-0.4857093118,0.1474757216,-0.4242207843,-0.2365749682,0.3433579371,0.7117429275,-0.7649291719,0.6488699625,0.0304189622,1.1517360273,0.4686435025,-0.3688849926,0.1704868044,-0.7132662476,-0.0317709048,-0.1295610946,-0.5484461087,0.4910801122,-0.5234246546,-1.0987210668,-0.7507955937,0.0531168667,0.9369963532,0.3305230129,0.227859233,1.1003065176,0.7500385914,-0.2849875116,0.3152009727,-1.0163199379,-0.0779780641,0.2512756851,-1.3891415199,-0.0568785327,-0.3952745394,0.6195718089,-0.8600892614,0.2938280271,0.02982151,0.3117012721,-1.2094494956,-0.7972715386,-0.1217898813,0.1601323878,-0.933478073,0.7308746355,0.2155347345,0.0400542193,-0.0681270259,-0.4353124161,0.5661164592,0.6574948442,-0.8308666437,0.4760560435,0.1355253315,-0.9954999861,0.6793403248,0.1589701499,-2.8898849858,0.5938054714,-1.4173622926,0.7845667693,-1.1540315203,-0.1125387639,0.572457238,-0.2229001308,0.9150626344,-0.8165051959,-0.7949279244,0.7211479942,-0.8109493277,0.5399700953,-1.213307501,0.9709913218,-0.7918409741,-0.5714834352,-0.358730547,0.250263739,1.4875621829,0.2522950165,-0.4729342256,-0.2315004373,0.3800281605,0.3934202186,-0.6268821016,-0.5757835016,-0.0935303439,-0.2865250181,-0.6519719107,0.2168796952,0.8594583184,-0.8298823162,-0.4574162619,0.141405118,-0.8835763029,0.9112322847,-0.2726128685,-1.8150571866,-0.7863594086,0.3623244653,1.2890198226,-0.2127748254,0.5362313069,-0.1724788128,0.7381403234,-0.8601086006,-1.0061128692,0.5950660727,-0.2281686557,0.1118564089,0.5452486737,0.3388069314,0.0142961527,0.8011358813,0.9432948556,-5.8823840593,-0.6954162069,0.4552712895,-0.7254252526,0.0766402339,0.7928654571,0.0110617181,-3.2236317126,-0.0080530533,-0.9434497674,-1.0702521415,-0.4058917397,1.6000874585,0.3145227811,0.1085262447,1.1270394783,-0.6760495482,-0.3116436287,-0.7018762304,-0.3338832579,0.1178603798,0.6074434826,0.4969085847,-0.8267275021,-0.8762964307,-0.3904396198,-0.9044257862,-0.1489950901,-0.8085831759,-0.9565263016,-0.5226112963,-0.5076381689,0.0686812248,-0.6632673598,0.5944626584,0.9907764912,1.0227424457,-0.460339394,0.1793836429,2.4954500441,-1.4244777741,-0.5102899737,-0.9018759675,0.8462719222,0.8272763559,-1.4535783581,-0.1217049252,-1.5161379576,-0.4569292157,0.8423410288,0.4194950787,-0.326229315,-0.1687157898,-0.9118645161,0.6969146251,0.7243512145,-0.7517405205,0.684426474,0.2289126146,0.7308576276,-0.6606028053,-0.5393219237,-0.1020687972,0.0137450109,-0.7898696863,-1.8312267612,0.5401487209,1.0240677302,-0.8434705123,-0.5004621554,-0.2013275329,0.5183049808,-0.6587469737,0.8248884097,1.1113857012,-0.4852417259,0.2760841996,-0.1471351818,-0.8847148012,0.3973563711,-0.641787928,0.8434320489,1.1044729148,-1.4079768127,-0.4922637245,1.1285545825,0.0904238231,0.2192994588,0.2143246319,0.0776413989,-2.0539487573,0.9191778778,0.0250336804,0.1643911022,-0.0078716976,0.0594404917,-1.7709031381,-0.1619852957,0.6749686159,0.9858276709,0.917613097,0.8668413972,0.0412286828,-0.7995967405,-1.3916159628,-0.7990069814,0.154569806,0.3508406901,-0.1372574679,-0.1321678948,-0.1573388673,-1.2523211071,-1.2025351204,-0.3409789041,-0.5344654855,0.3920493001,0.0412053718,-1.5119648793,0.5168924032,-0.7069360063,0.1973078421,0.5649228756,0.8386428057,-0.2607203245,0.5534097035,0.6453330063,-1.078223251,0.9340905598,-0.494605728,0.7456434889,0.1415289644,1.044894048,0.4429002654,-0.2812384198,-0.389642688,0.4465633919,0.6782515114,-0.0708625944,-0.8875115326,1.0614699522,-0.9788519996,0.1107402051,0.0718882418,0.1473825162,-0.0058050962,-0.0880364225,-0.3441651499,1.5386972071,-0.9644290678,0.8183122437,1.0043141559,0.0385143501,-0.4440642895,-0.8797884159,-0.1914313739,-0.4904606386,-0.4302100025,0.6795990778,-0.081581177,0.946419319,-0.0070476233,1.0514859594,0.6992871658,1.1948389293,-0.0772406262,0.7208899471,-0.181663778,0.7025646782,-0.1741333414,-1.2578084662,-0.4287494027,1.6769105621,-0.9362619158,0.1202438617,-0.6439048539,0.7692474609,0.258995902,-0.0314699949,-0.4950571317,-1.3940116159,-0.0397393753,-1.0563106697,0.1483994982,0.842337543,-1.1025579994,0.6007433656,0.8821842831,0.4359575526,-0.4246874013,0.0245399954,-0.5018214226,-0.4940407242,-0.5846819203,0.6846515043,-0.6143737643,-0.3777315326,-1.0614860771,-0.6189126659,-0.1275627729,0.2609678968,0.6788658761,0.6237443732,0.1670161804,0.0808046356,-1.157706531,-1.0557615414,-0.4167897849,1.7138147532,1.1288477065,0.6835725102,-0.5655620094,-0.5486245539,0.6860022074,-0.9340605289,-0.0051067551,1.3876771985,-0.5644073718,0.1307729986,-0.9222726902,-0.1375570214,-3.4749906536,0.0653590771,-0.6520683855,-0.9020669307,-1.5802888113,-1.0159079119,0.269519481,-0.6679811574,0.4139484209,-0.3676835043,0.7680305402,0.122677296,-1.0862752687,-0.0244141948,0.2570102851,-0.6519857754,0.3024902583,-0.7608766589,0.7991371937,-0.3979923122,-1.1107810068,0.5724993147,0.8652866,-1.0966257659,-2.1432474845,-0.4905009259,-0.0981103078,0.9236335349,0.471156321,0.8154127199,0.298638564,-0.6438846094,-0.8418409628,0.0097892312,0.3986795661,-0.3579974437,1.4175314042,-0.5864803295,-0.9992307834,-0.3535229693,-0.8960077973,0.7210481278,5.0791178342,-1.1337685126,-0.3809114272,-0.0765688105,-0.3512638066,2.2289509883,-0.3850357248,0.8052123146,0.4736942773,-0.9811761749,-0.479429148,0.5746484716,0.6130610414,0.3766280931,-0.024880571,-0.1142796821,-0.7469357951,-0.8969105367,-0.2814976368,0.0896198294,0.5717741618,0.615307565,0.0420093002,-0.4164313913,0.584967874,0.1109394646,-0.9207324676,0.3730713517,0.378070783,-1.1768592386,-0.0260219609,-0.1228411757,-0.3387206628,-0.6560684491,0.6654503406,-0.9267400275,0.6099031734,0.3071264781,-1.7947272431,-0.3573800511,0.5511025444,0.3088321968,-0.174369831,-0.9528546489,-0.7386587158,-0.1923224308,0.3850087104,-0.7624237849,0.4062527124,-0.1088234816,0.9435750782,2.0409309935,0.9497067613,0.2651637391,0.8888763962,0.6631793013,-0.0116406583,-1.0032976992,0.7618727071,-0.837497264,1.0367072328,-0.531900401,1.1212553858,-1.183134558,0.6141158616,0.7535783588,-0.9971108284,-0.0064538938,-0.1056246001,0.1155513072,-1.1053944379,-0.8106381375,2.3141277038,-0.7968383831,-0.628422044,0.0138092166,-0.4997814494,-1.0852193307,-2.0454532949,0.7130785114,-1.1313489321,-0.6651809902,-0.7820003735,-2.2647941012,-2.0334834224,-0.5633981049,0.4739599348,-0.0133207535,-0.0484232132,-0.342720961,-1.4204095043,0.1257556545,0.4914819738,0.1036101331,-0.5773749335,1.0129314777,-0.1381667266,-0.790823537,-0.8015359885,0.4973611079,0.814822866,0.5473866609,0.5699015311,-0.4165014886,-0.5969594331,-0.7910689392,-0.1425049932,-0.3301524507,0.3057026816,-0.8290974043,0.6224776186,-0.9486079639,0.5060113001,-1.2357299505,-0.6607363599,-1.1291480663,-0.2308403581,0.890686316,-0.7090634656,-0.2548054777,0.4961156662,-0.1319394843,0.7250581202,0.48962962,0.6762503779,-0.5032023661,0.3607290857,-0.7189367755,-0.4593759234,0.9475308396,-2.0687897548,-0.1036898711,0.1931728248,-0.6537331037,1.1248928888,0.9702414102,-0.2112906214,1.2634342329,-0.2245975159,0.4508570052,-0.6341165266,0.0743433131,-0.3301407696,-1.2174320889,-1.0859974243,1.0944366565,1.2006110316,-0.5294278185,-1.0636151415,-0.5407396914,0.2067990978,0.8390037568,-0.3371856647,0.2535004467,0.7969222727,0.3016673544,0.8419953093,3.3045951665,0.2757722594,0.1465520986,-0.59976226,0.807071668,0.2767687887,-0.5007222747,0.5459604014,-0.2453518117,-0.560053672,-0.5929910302,-0.4522045373,0.9926972276,-0.1457162624,-0.2067636015,1.4646601837,0.9053611761,-0.8943035555,0.959887415,-0.4150353544,-0.4794319082,0.0161860869,-0.0828320072,-0.9698808159,-0.6451709072,1.6110919614,0.9321257624,0.1688708452,-0.7760022746,0.8640917235,-0.0939695354,0.266853548,-0.1501795566,-0.1517422692,0.2705825052,0.2123601885,0.9198567307,0.7306977165,-0.1574472414,0.5772691442,-0.9982493621,0.3167599592,-0.8828296934,0.283376013,0.2275108841,-1.0945260658,0.267173969,-0.5635041974,-0.1835763095,0.6735283735,-0.205619263,-0.506916263,0.6690221053,-0.1715572315,-0.1886505288,-1.0892646863,-1.1089301662,0.7842629773,-0.205013797,3.2921220679,0.7980895605,1.097407056,1.4892066263,0.0012340183,-0.6782502374,0.9081113779,-0.4406023856,-0.2229975294,0.7005094125,-0.2018325693,-0.5800468645,-0.4158815421,0.6760455828,0.7000814417,0.4011600803,-1.5205385838,0.8941626094,-0.7683715479,-0.0604824161,-0.2695521922,0.1410128126,0.4656163691,0.9382958066,-0.4692676636,0.7622832695,-0.7793266205,-0.7169042829,0.5188714546,0.9933587665,-1.9620120213,0.0701518599,-0.2789451445,0.7861408648,0.0184217821,0.4212573086,-0.1178218261,-0.9740823686,-0.0860584644,-1.7517694197,0.2275521752,0.1000558369,0.9004373262,-0.3026440419,0.5171442027,0.1379424125,0.5266264791,0.7220437875,0.7219815777,-0.7017288532,-0.3285696485,-0.0825237673,-0.567246275,-0.3787001136,0.4534834429,0.6888473695,-0.4486139401,0.4540762944,1.1025480625,0.3630613316,0.9316229028,-0.0265258073,0.1663265053,-0.0806275676,-0.7875845523,-0.4767633386,-0.0710656233,-8.7395995648,0.3485409594,0.6639358614,0.672123127,0.7455824675,0.0183657155,0.4133859708,0.5414161402,-0.6351378971,-0.9596607515,0.6935422416,0.2974347533,1.0578045846,0.2019058976,0.5468259735,-0.3240260484,1.5972119596,0.796095822,-0.8572933315,0.7316087343,-0.2230245182,-0.264866749,-0.824228201,0.1672876386,-0.1901644354,-0.4541335731,0.1641214698,0.4635315227,-0.0768197623,-0.6089540574,-1.5602034655,-0.8727470935,0.3635355575,-0.1839206902,0.2456696277,0.9712838978,0.3938648406,-1.0684633758,-0.4374054434,-0.0684865632,0.8288222179,0.8920258195,-0.095375298,0.1926585105,-0.8160907156,-0.7365342758,0.8624740121,0.4622356085,-0.095856148,-0.5222996714,-0.517252173,0.1128061638,0.21724895,-0.3168423154,0.1490622149,-1.0232968145,0.0537755084,1.2020706614,0.3570471765,-0.9944631934,-0.1838996122,-0.4584254335,0.2891546075,0.8339186164,0.5765627845,-0.8331903467,0.1194360353,0.3862820134,0.5078281155,-0.4833141561,-0.6749720081,0.7847993396,0.5295056019,0.1301367925,-0.4566047141,0.8902619915,0.0322422389,0.2458015326,-0.5858926615,-0.8037473259,0.1211884794,-0.376098861,-0.8908828256,0.2101727593,-0.405323449,-0.6634869255,-0.7146889167,0.9722684282,0.234752267,-0.0190526248,0.3244941365,-0.2356117671,-0.5690220951,-0.6131365279,-0.4129866088,0.5587071018,-2.0433822888,0.380946318,-0.3188510129,0.5995009056,0.594738947,-0.1002721042,0.9725318481,0.8693268282,-0.5353260292,0.2215036698,-1.0042427729,-0.6354859162,-0.7238259876,0.5561626903,0.3958939017,-0.9362889757,0.6312123212,-0.809445322,-0.515042495,-0.7145716432,-0.6436996192,0.8953623574,-0.0538185901,-0.8911223051,0.2622894939,0.3392609193,0.0225536418,-0.2902393122,-0.4581894299,-1.1946148049,-0.1177000415,-0.4923177868,-0.6894886798,-0.6319625641,-0.0469394524,0.8515230721,0.0916765433,0.9443917651,-0.3108685555,0.6909462949,-0.1844872413,0.7036843784,-0.9418286137,0.3692378421,0.5259998712,0.2474844466,0.3682629908,1.1243233854,0.3333888393,0.0000371605,-0.0805723033,-0.2239556919,0.83155479,-0.04523291,0.9093859672,-0.2154693334,0.8355086678,-0.068337575,-0.0732114141,-0.9501852537,0.5379681828,-1.3502392327,0.3460243467,-0.4892319395,-0.8352989804,0.9137692613,0.852069337,0.0847747806,0.8272574808,0.9850481294,0.4802110744,1.1228594259,0.209633107,-0.0508530102,0.6113004912,0.3151074953,0.85362335,0.0612697282,-0.0508897041,0.5325232356,-0.3239527972,0.0878816602,-1.5290293676,0.4965775198,0.4602360583,-0.2852152637,-0.3179033375,0.9223967189,0.324138648,-0.1078465252,-0.318052583,-0.1923220543,-0.3671642913,0.5209172894,-1.5925622568,1.0343260939,-0.4868223673,0.6944538225,-0.3290964131,-0.8801148559,0.5091116197,0.5765707072,0.2666657476,-0.4569900616,0.8841461445,-0.5156710518,-0.1068248081,0.014405005,-1.0505783904,-0.6073337553,0.7764391297,-0.1176352946,-0.3453654877,0.726295573,-0.9753786649,-0.1590098846,0.5994484399,1.0024787553,-0.802528802,-0.2659568917,0.5939017307,0.2821975114,0.8725793947,-0.8290155056,-1.1691602587,0.9106667115,0.1147780643,-0.6710034952,-0.577846259,0.7163906719,0.490152093,0.6688761745,0.0133851892,2.5593942706,0.1105036553,-0.0972461383,-0.0526156715,0.427269043,0.9696727951,0.0446222568,-0.2938980257,0.2748918399,-0.5757819871,-0.0576947086,-1.1935686682,-0.0219878891,-0.359251788,-0.4894157467,0.6808016451,0.4871033824,0.1494682793,0.5622861435,-0.6776499897,0.2536366675,-0.2870769118,0.6493881625,0.3457053365,-0.2053128702,-0.119069683,0.2729023475,-0.865354792,-0.9031059826,0.5999905556,-0.3644200311,-0.5086597118,-0.008911685,-0.6150030424,0.4797777001,-0.0071983187,-2.4530967774,0.4015481377,-0.3308045345,-1.0922077055,-2.4500178289,-0.2803309006,1.2057866714,1.1518660271,-0.9288004051,-0.973185466,0.5957529302,0.1117714379,3.7540303765,0.9556755447,0.6493920332,-0.2736568325,0.9991460671,-0.0471059721,0.2996883575,-0.8306882369,0.3125167427,-0.5326096534,-6.2993774273,-0.9799666759,-0.4206073938,0.7876002669,0.0415441518,1.0713917055,1.3056219464,-0.6474639279,0.2065330648,-0.634776747,0.8327235305,-0.1418675353,0.1600932183,-0.029116422,0.2524325753,0.4468253827,-0.9336961841,1.380907373,0.1384470839,0.9815723071,-0.319765753,0.8543734337,-0.6203029553,-4.3943374972,-0.174143778,-1.0934478933,1.3731667501,-1.1036799917,0.6823960918,4.0174555728,2.6812970218,0.6739383784,1.857539077,0.0190205549,0.8702257098,-0.1547788996,2.3590820559,-0.7640236144,1.050569262,0.0183582655,0.2864781716,-0.3095754702,-0.2969256474,0.3620274712,0.4071738947,0.2784737829,0.0408286338,1.2483424366,0.9273327003,-0.0338225996,-5.0500746037,0.1317097656,0.6046610423,1.4107625129,0.3659886436,-0.1564905674,0.5909670068,-3.5396763254,-0.2952131831,-0.4861631619,0.9150470971,0.2519241591,0.4341918964,-0.3549808042,-0.2603974168,0.5720501397,-0.109836827,-1.5901232729,-0.7880822087,0.4429443323,-0.916781492,2.3291281517,-0.4245564905,0.6665215894,-0.4169800915,-0.7488753521,-3.0790067833,0.5170041987,1.7467403575,0.8938310225,1.2006714522,17.1214061833,-0.5874643493,-0.6411471314,0.7461825854,-1.8567281191,0.8498289866,-0.5205266779,-0.0303016956,-0.0340644013,-0.8754264236,1.1319006476,-0.325801255,0.8702591673,1.1918003471,1.6787490593,-0.977082355,0.3577343088,1.0389005907,0.2906689999,-0.6907990984,0.1799395989,0.2261056612,1.4583315702,-0.0021689505,-0.8362178407,-1.050697361,1.3411161718,0.1287201239,-1.2810184026,-0.6900897545,0.4467277516,0.0304706424,0.1817564177,0.6582717489,1.3963190141,1.1296369171,0.3748087121,-0.4093904652,1.1549859972,-0.787968355,-0.0100246138,1.1957557854,-0.0033114558,-0.0717372094,0.4495765222,-0.2005571728,1.234515787,1.6253530682,0.7261356871,0.8944421478,-0.1984317262,0.2833706112,2.500744726,-0.5683167301,0.10620887,3.1531843947,-0.2080748662,0.6946973989,0.7528734554,-0.4166488165,0.2217227678,0.8911935202,0.2301610069,0.2742876346,-0.662979463,-0.1300738385,-0.7386094192,-0.1926608739,-0.2477279748,0.1641092764,-1.4842617912,-1.0097316003,-0.8855008024,7.1773995398,-0.5571946116,-0.8775079297,-0.585797396,-0.6740605125,0.4739593614,1.1997844503,0.9918228286,1.1149192252,1.9356676362,-1.1812756967,0.7715348653,-3.1757260973,-6.7456396051,0.1990410484,-0.1079127461,-0.8039434095,-2.3104226529,-0.4170379153,-0.9736286515,0.6160419374,0.8658041437,0.9033812134,-0.8435744407,1.1652928878,1.188248636,0.1302577452,1.0738339059,1.1599972576,1.1071779303,0.0113907901,0.1012966485,0.4091855441,-0.8761225895,-0.5188857245,-0.6037476476,-0.2627917192,0.9495733199,0.0445948627,-0.6664331055,0.2913648368,0.686635522,1.0036055628,-0.1650329791,0.4376789175,-0.757462001,-0.6213926031,-0.6678264698,-0.5941236588,-0.2384491041,-0.3549708435,-1.7473468156,0.3435698524,-0.2630987033,-0.7685954837,0.4517549505,0.9098353048,0.8397035298,-0.117829718,0.8343957032,-0.860824575,-0.8177656114,0.58601155,1.023079042,-1.2528314028,0.780444067,0.7461482878,-0.0211682311,0.4766480641,-0.3436328663,-0.8150021839,-1.9941811659,0.5306964056,0.6838780288,0.8909584895,-0.8133659018,-0.9306828407,1.0937136756,-0.4055303155,2.1058640467,3.7795795855,1.0184404166,-0.4018615395,-0.3225257879,-1.1227172495,-0.4244090351,0.4174966786,1.0468037618,-1.6042413285,4.1451425477,-0.6022809863,-0.9273959978,-0.8073882822,-2.3969057068,-0.452013291,-0.8746487542,0.0864355313,-0.1177176122,1.4509863545,0.7937197513,0.7108032206,-0.0728231734,0.3775708798,-0.1043118181,0.1279093522,0.5866490068,-1.0604034301,-1.0835699974,-0.172394298,0.7297258655,-1.3692608747,1.1359299486,-0.6565986561,0.7054837414,0.6439418881,-0.1893348128,-1.1634019264,-0.1824413769,-1.1148358803,0.6694826452,0.7280316772,-0.6815996624,-0.3859969595,-1.0224871548,1.3441884239,-0.2373365998,0.2058210346,-0.8456259948,-0.018368589,0.2917297345,-0.4563761884,0.3399956865,0.513950417,0.5047899601,0.0872379724,-0.0819136125,-0.6468384427,0.2840106074,-0.1038341672,-0.4928698507,0.3326786195,0.3708720254,0.1570385294,-0.4251668892,0.2894603663,0.6393713661,-1.1535167881,-0.2376958368,-0.342245373,-0.0594427983,0.3164366025,-0.3114270153,-0.4330380632,-0.6222878505,0.2714899287,1.3003573568,0.7094713259,-0.2216590256,0.2777816091,0.5156954392,0.7138804934,-0.8258947758,-0.85563848,0.4064195715,0.7965490544,0.6999777545,0.7005649631,-0.639528462,0.9542829267,-0.4158298574,-0.0460598961,0.1997257214,0.353016986,-0.5839194561,0.3428885918,1.3450157783,-0.6615370553,-0.1800295178,0.1353907739,0.9790484877,0.0426871591,0.1928636227,-0.6883753735,-0.4244454506,1.0636225531,0.0774368661,0.8319266237,-0.0363809256,0.4195560629,0.129188797,-0.2145707626,0.5182782147,0.3072968942,-0.1244406558,1.3223834825,-0.7187073683,0.274490029,-0.768708848,1.351126455,0.026621996,0.0859240349,-1.3484849659,0.2557094434,-0.7847641215,0.3233580696,-0.3865636783,0.6962284485,-0.4480185701,-0.7584294372,0.0151927009,-0.4011001134,0.0297918287,-0.634988469,0.3987893152,0.2238386324,-0.8772263042,-0.7162056695,0.0117170392,-0.3922881102,-0.6945262068,0.3301257464,0.873644973,-0.1296145562,0.9482500963,-0.8033079705,0.313495607,-0.8583925302,0.260630292,-0.0951984894,-1.0096014937,-0.8889076534,-0.6059426082,0.3216640227,-0.3840916024,0.9806021576,0.6476676696,-1.0494431439,-1.2921149036,-0.2438397388,-0.6720269753,0.0253757128,0.4396502389,0.2324650769,-0.6483204972,-1.1237023646,-0.9599249522,-0.8558117153,-0.7111232182,0.0642249472,-0.7228839166,0.6015232327,1.026817822,-0.397111255,0.4757424872,0.9126210614,0.7599961662,-0.7680629733,0.1581161986,-0.1720241276,0.4932886154,0.2414824132,0.4706859085,-0.8713496999,0.0567732094,-0.4954718687,1.177059019,0.4943181486,-0.4142302292,0.694348561,-0.3739931756,0.2758439171,-0.5558407738,0.3386810396,0.5338721514,0.7127167902,-0.2742328349,-0.9810526545,-0.616339179,0.0464035608,0.010515021,-0.2151011313,-1.2539123239,0.7963184869,0.8212861755,-0.6108300228,-0.4446567933,1.6610341653,1.0245991507,1.174226717,0.5455180569,0.1377158154,0.5424479554,0.8273399126,0.540186939,0.3254454651,-0.5248435928,-0.8008880856,-0.6688801035,-0.1052562761,0.5636794163,-0.5232982802,-0.3569185971,-0.2982874251,-0.4056020075,-0.9020331412,-0.4216485168,-0.4156864406,-0.7775284753,-0.7866837302,-0.8891725043,0.5342594107,0.78498928,0.8344669605,0.0910541231,-0.4488478373,0.3602876385,0.1874735005,-1.0121349802,-0.2658945256,0.2451731506,-0.2428346884,0.2358186893,0.2587818171,-0.917544281,-0.2446198896,0.5009099888,0.4927683526,-0.9389656292,0.1155499755,-0.4973499227,-0.5455299378,-0.4272977756,-0.8804805167,-1.0069665644,1.0789202507,-0.1010787985,0.6232835298,-0.670499937,-1.2646109703,-0.0638564538,-0.6034725449,0.0042453968,-0.2877236354,0.3223754487,0.6719815842,0.0917377596,0.6470867371,-0.2134775086,1.2813281993,1.2682049305,-0.551733672,1.4262139859,0.8053319372,0.2520833745,0.5984173635,-0.3972979972,0.126009235,-0.6619161738,-0.7326679121,-0.3279416998,0.0232437695,0.3198436026,-0.1888810253,-0.4717551545,0.0705033658,-1.1359747459,-1.1475631325,0.1813250698,0.8177594435,-0.1688614229,-0.4778271291,-1.0261784329,-0.0397227698,-1.1498195186,-1.1833229969,-0.7498903864,0.1544629,-0.2085290792,0.0077487934,-0.3265550724,-0.9662867036,-0.0317737171,-0.10128069,-1.2261415869,-0.7405528234,-0.2261826767,-0.3522186986,0.16000803,-0.974105636,-0.3763379659,0.2850112409,-0.832174763,-0.8164430551,-0.3456273657,-0.1587255824,-0.2513290793,-0.0164483766,0.9379363666,-0.5316177327,-0.6079965523,-0.0470407912,-0.2954803259,0.1099376569,0.5666325532,0.5615127651,-1.1355919343,-1.2879131239,0.3963627706,-0.5036841036,0.8294483296,0.8570106824,-0.9351694256,0.381857085,0.1198746186,0.4812720073,-1.2886082553,0.4467000046,0.4185750468,0.0773674422,0.4107085588,0.3250164914,3.1537333513,-0.1742762483,0.2306891938,0.619515141,0.6492540461,-0.6679231605,0.418589565,-0.6492497391,0.2226841661,0.9993062311,-0.406442765,-1.0783040757,-0.6664997098,0.5101265544,-0.548501213,0.4562714244,-0.7085156499,-1.6916055609,-0.2664868398,0.210502943,0.6331409083,-0.1806967865,-0.5975264295,0.5750443933,0.8688635364,0.9251394298,0.850242287,-0.2282641,-0.2222833148,-0.5807633695,-0.0693402715,-0.0948573783,0.4810895788,0.7371928926,-0.7239020106,0.919878015,0.5527057367,-0.2978675398,0.1735516344,0.0154213202,0.5902748007,2.064205587,-0.3552772254,-0.7358380904,-0.1337162328,0.3133665365,0.5932806737,0.0418015921,-0.4504231398,0.1917898943,-0.8045490811,-0.330197997,1.6297760045,1.9688977854,-0.8741794004,-0.3736131436,0.6910679451,0.6887108836,-0.0576353053,-1.3710624003,0.9303473478,0.8796600426,-0.2753083914,-0.2560829421,0.6756911454,0.1422486576,0.7029294405,0.9900929088,-1.1146614245,-1.4167703461,-0.7224875864,0.9915902254,0.4823567329,-0.1109036089,-1.4749345462,0.1725209281,-0.2605186366,0.6409703682,0.1450078175,-0.751621609,0.5352961489,0.8501718984,0.4160417858,0.2645435103,0.8674916803,-0.4355199415,0.0669492748,1.3639516428,-0.3512166109,-0.9696112305,0.5465141914,-1.005333203,-1.332374676,1.3950931644,-0.5534446749,-0.5557846365,0.4370971678,3.0105607616,-4.0022381959,-0.5325766694,0.67924828,-0.8822720905,0.4721194784,-0.512313016,0.4155406135,0.0702008659,0.2107403693,-0.6857680972,-0.4332356047,-0.3594812806,0.7306537691,-0.5419698548,1.0824322947,-0.7850498334,0.52672561,0.0039325393,-0.3985813425,-0.3222816345,0.9127644247,2.2410387739,0.0752203236,-1.2497108975,-0.4631634047,-0.8544234762,-0.4461512693,0.5589469182,0.1922636597,-0.6580439931,0.0936896639,-0.509373777,-0.0513555569,0.6766680716,0.1447972712,0.656390959,-1.3634469033,0.3613007735,-0.2919946661,0.7562211237,-0.7886852827,-0.6109391212,0.1610515376,-0.7859186155,0.3678441087,-0.1145610427,0.0840726428,-1.1527516734,-0.0269484427,-1.1170883768,-0.0558740226,0.3646708131,0.2356761114,-0.7135960583,-0.9068118702,0.00826873,0.1484901001,0.335241509,-0.1833772031,1.3356494605,-0.4341025443,-0.7549929431,0.1534668694,0.7194923553,0.1326795968,14.6996212544,-0.0101425424,-1.0537827953,0.1136545366,-0.4678854206,-0.617587052,0.0154865481,-0.4133197829,0.7531016548,-1.354099344,-0.5189685243,-0.0844709817,1.2658961586,-1.1663470488,0.372045139,0.5684214172
   -0.0770169819,0.4481521565,0.3284760734,1.2708776198,0.2940111735,-0.0295291514,-0.8219819605,-0.2181772825,-0.4968209346,0.6654810289,0.7760591963,0.5746491098,-1.6950256108,-0.379556282,0.4038110491,-0.5889709938,0.1606206452,0.0758016339,0.0236905529,0.7047045093,-0.225943635,-0.4328496327,-0.40207718,-0.2904871651,0.0139179366,1.1371818084,-2.674083998,-0.4276352531,1.2420152521,-0.9593753634,0.5108824011,-0.5687655963,-0.5615086615,0.4348152275,-0.5095777652,-2.2631697901,0.5418457913,0.346073887,-0.5512397223,0.2287624288,-0.539913606,1.0409216952,-0.0959811381,-1.2626891507,-0.65291388,-0.4792805579,1.243298507,-0.7876572499,-1.0274063893,-0.5647823964,0.1634329292,0.4813342314,-0.3603194405,-1.2638137923,1.0997509817,0.130769922,0.7867256422,0.4193674161,1.4541853352,0.5459479357,-0.1594207936,-2.9810050201,-0.9190586804,1.0861268537,0.7910770555,-0.3272583813,-3.9479134433,0.8550097761,-0.6201992277,-0.5004475789,0.2394421334,-0.1753377824,-0.0018786083,1.2516671506,-0.0859403652,0.0811757439,-1.6733273615,0.7896749415,0.2463876972,-0.4740308257,-0.0713213954,0.6263214644,2.122687142,-0.182530129,0.9085004138,0.114808952,-1.2355758795,0.0287750667,-1.5824858619,0.1528784197,0.1097304667,1.4919281612,-0.5784835209,-0.0624739629,0.7415711604,-0.0511645861,-1.5463841513,-1.2877830334,-0.7330260063,0.4262744821,-0.7458992159,0.6424314595,0.3058404674,-0.2378353986,-0.4160873576,0.1762223555,0.3006270957,1.8499601853,-0.8022421641,0.436787878,-1.0001665451,-0.6603722093,0.0727093427,0.1991676829,-0.2801803133,0.1161668161,0.5030172238,0.4398355295,0.1988574776,0.5409854782,0.5888888854,0.3864432907,-0.231434842,-0.7319582202,0.7309159936,-0.8435768799,1.0108837005,-0.0584403715,-0.503465723,-1.0738571337,0.2106396546,0.3328974636,-0.3052068349,0.5474564689,0.0381992276,-0.5098048627,0.1905877784,0.5924298385,-0.0669311111,0.8873932442,-0.6761160403,0.7373062755,-0.605399029,-0.2324481775,0.5254358065,-0.304814592,0.397116872,0.8664955467,-0.1730036383,-0.3759307115,-0.5709359306,-1.1812158128,-0.898063333,-0.1122890436,0.1867209071,0.2070454236,-1.053751609,-0.8190288552,-0.1136161691,0.2552697309,-0.467479679,0.4218051956,0.2702884805,0.3509882659,-0.2350403605,0.6538423644,-0.8583516496,-0.9698640495,0.8811566224,0.182524297,-0.5836825698,-1.1408017971,-0.2368747862,0.2839492325,-0.5047666824,0.3137982465,-0.0081983941,0.9091816756,-0.4836363502,-0.327891968,-0.5632103466,-0.5030331596,-0.4407825858,-0.5888797305,1.1394886174,-0.5386237574,0.7014931571,0.5554158941,1.0366384743,-0.1497231115,0.2263342466,0.9645455728,0.7590546839,0.3121959563,0.194448398,-1.0574297626,0.8411234951,0.5685899288,0.58006493,-0.8169760492,0.258548874,-0.5300186727,0.3879515337,0.766784153,0.0547956154,0.8866028155,0.5153153196,-0.966234348,0.3313275432,-0.9892607495,-1.663464558,0.1526347309,-0.7148078576,-0.5249685072,0.2757598959,-0.2977684752,-0.691666545,-0.3459287799,-0.7512562826,-0.5582700408,-1.1851410015,0.6621884209,-0.6859188716,0.201020405,-0.4369004286,0.5025478451,-0.0902774215,-0.077039998,-0.5478238775,0.2292094207,0.3577929514,-0.930357609,0.5151284085,0.8057648705,-0.9826439008,0.7471754884,-0.047654852,0.4814603449,-1.1184373838,-0.9932543997,0.0924021359,1.4164039339,-1.079423141,0.1674728495,-0.2105670898,0.1922150408,-1.1007145601,-0.5646647591,-0.2057637745,0.7622256984,-0.590123068,0.6153627833,0.0695544855,0.6805486547,0.2440667755,-0.614922339,-0.4607598555,-0.9434921622,0.0665595171,0.5385819132,0.2017133612,-0.1411467966,0.2968778426,-0.624270996,-1.1276729829,-0.7606581253,0.2555487382,0.3003942148,0.8038106934,0.6070150014,0.0158466821,-0.9331500646,0.3608123393,-1.0583417115,0.4712841008,0.4997181278,-0.7796940771,0.7583223328,-0.4009350167,-0.3195748467,-0.5915583999,-1.0664618976,-0.0759120982,-0.1475821603,-0.6765833711,-0.2226158801,-0.3681535484,-0.1339146231,1.0606019302,-0.816305101,1.019515567,-1.0400031031,0.386150307,0.5178697884,-0.8615081354,-0.2970812918,-0.7302748119,5.6414990829,-0.3548460993,-0.8114272356,1.0826912776,0.7902968438,-0.2513817277,-0.9590754169,0.7968989545,-0.6753685339,0.0468588232,-0.1680175681,-0.47330129,-1.1988313693,0.4619385169,0.9899650874,-0.5227102715,0.1859918709,-0.2384087178,0.7395277922,-0.1605198678,-0.0458920889,0.101212721,0.1137996778,0.638678673,-0.420701588,-0.2937938427,-0.5982597568,-1.8216610225,-0.856099018,0.0000215457,0.0661899937,0.2613805767,-0.7944911664,0.1768093928,-1.1305341955,-0.0207166124,0.2870695648,0.1086689266,-0.5161167453,0.5298785548,-0.6641927381,0.3377686538,0.4217063324,0.5147697839,-0.0373931091,-0.3175645016,1.0153834506,0.7436316971,0.2397632713,0.3077144066,-0.0111588913,1.1118799871,-0.1034850281,-0.6222219396,0.0870805728,-0.3838417075,-0.4139583523,0.2204294607,-0.5474761381,-0.7113337143,-0.136905414,0.0061316882,0.0656838706,-0.6096500938,-0.9230278414,0.8176429097,1.556286694,-0.8193881904,-0.6983400688,-0.3306558108,-0.8046911138,-1.0185567245,0.6004357552,-0.4408366322,0.6650571385,-0.5887387773,0.815704936,0.5492031617,-0.9357320409,-0.9681798151,0.3857515278,0.3434039014,0.7615368376,-0.8462013665,0.89781831,-0.7016706843,0.6046011178,-0.7295850819,-0.691469516,0.7394069665,-0.9441021928,0.2691926388,0.2343155101,-0.9398914366,-0.1086268113,-0.6676205056,0.5503048871,0.814750611,-0.4959353832,0.3114200699,-0.4835800288,0.9954617525,0.3054752922,0.6394332853,0.1998023591,0.852526505,-0.6555315514,0.7897358272,0.1788054954,-0.4136230664,-1.023313683,0.741948964,0.4479933128,0.0505499429,-0.6672008596,0.586020278,-0.0109823747,0.9540958778,1.0856521623,-0.9153651969,-0.3123334101,1.1014434353,-0.6593521817,0.3416508737,0.6097184678,-0.6858750876,0.5730784859,0.1106350188,0.6251599764,0.3803841994,-1.010512391,-0.104722402,-0.7713339716,0.567624756,0.5646935696,-1.1337281108,0.9772526091,0.8760392154,0.7937378359,-0.3752979534,0.7762509972,-0.1537360333,0.0641304097,-0.3074756961,-0.1025743583,-0.7315451742,0.2724135397,0.4752271778,0.1796440301,-0.7297268174,0.0343395029,0.5507944608,-0.9357358002,-0.1326439115,-0.4880770951,0.3355439555,0.2101903693,-0.0830796758,-0.3520302995,0.838402857,-0.0274061899,0.6185813872,-0.8149406712,-0.2548966933,-0.2686238666,0.4779039169,-0.84897795,2.8891261481,-0.5867512347,0.2367813866,-2.8108699734,-0.5141993462,-0.8914703196,-0.0213371953,-0.0933867564,-0.4385272113,0.6353385515,1.1132577217,-0.850923894,-1.7784657026,0.3895856999,-0.1856539205,-0.1070783948,-0.0102687157,-0.2803884786,-0.2869193277,-0.1681530728,0.0089404078,0.1994865778,-0.235582284,-0.4104872735,-0.0773182279,0.6494067276,0.109363191,-0.3248396787,0.6486266867,1.0439390901,-0.8899783576,0.6499044574,-0.6402519087,1.0295118273,0.0210204414,0.0380765265,-0.1538238842,0.7072908507,-0.789265463,0.2471971844,0.8606980362,1.2013066363,-1.0064577295,-0.5739499071,-1.3320426433,-0.39216033,-0.43223073,1.2625768503,0.9483938396,-0.074445338,-0.5956800404,-0.2704016373,1.0215595672,-0.5965905806,-0.2517541571,-0.9935511231,0.8289154283,0.3473680276,-0.8669885461,-0.8860859159,0.5797712751,0.5879182918,-1.2105663702,-0.9414558572,0.5985815995,0.4564118781,0.7888301612,3.6595075251,0.7494080982,-0.220073808,-0.2759325875,-0.8134565665,0.6103909485,0.9336211527,0.4225841816,1.096843728,0.5795555117,-0.4712843514,-0.0167327155,-0.2743730186,-0.4763936388,-0.2597572789,0.3331260294,0.523491576,0.0247861956,-0.3609571311,-0.6054375062,0.6550420622,0.6887624337,0.9756037135,-0.1511782463,-0.4334976666,-1.7255394528,0.2403496639,-0.7240552243,-0.242075005,-2.1337583933,0.0701849666,-0.6652707928,-0.2925272058,-0.415086437,0.135190065,0.853999636,-0.3853095494,0.3620714755,-0.3052912296,0.4033044126,-0.7455399243,0.3689265364,-0.7148023726,-0.8162462008,0.4413389138,-0.04272343,0.9142854997,-0.3667119137,-0.7248303722,0.7631157909,0.6247014163,0.1130726532,-1.0989693009,-0.4865150711,-0.7782915025,1.3885864277,-0.8653191197,1.0128409253,-0.1265382959,-0.2066299747,0.6519940311,-0.149343471,-0.5741447335,0.5984377658,1.8429043758,0.0167637154,1.1432346361,-0.7599051522,-0.1339921849,-0.3397899486,-1.0228429521,0.402468424,-0.0479456654,-0.0735577522,0.7962887253,-0.7855702187,-0.3923793839,0.9928482475,0.4201604464,0.2753316971,-0.5417469678,1.3600588309,-0.8942657645,0.7372227982,0.0579195501,-0.40527269,-0.429435963,-0.1874083567,0.5620577527,-1.1028317919,-0.7331927752,-0.1729249978,-0.7917187221,-0.5361325239,0.976260275,0.3089769005,0.3621452707,-0.3649351021,0.0474083073,-0.6742827447,0.3913034923,0.9394730894,-0.8040179993,0.0282007094,-0.5630138024,0.6909707518,0.7489548255,0.8539879017,-0.6373934235,0.1174628471,-0.7650630535,-0.2145898852,0.2390924262,-0.6490573,0.4112814239,0.0826216925,1.0746957363,-0.5576288549,-0.1084486668,-0.2199719416,1.2597769132,-0.6531464255,0.4672679424,-1.5666380599,-0.029897777,-0.707243969,0.1678101395,-0.5187380217,-0.1050282857,-0.818893074,-0.354477097,1.2437028062,-0.777748513,-0.7566381631,0.6422315131,0.2034687519,0.6350760533,-0.3923776098,0.084157777,-0.2902132296,0.7841187901,0.821867461,-0.3164636388,-0.713749832,-0.7005228937,0.2909666837,-0.5595126243,-0.6763659675,0.5380224175,-0.2255491383,0.1228943912,-0.7999949083,-0.6274687307,1.3218588195,-0.5584589068,0.9271159839,-0.9242559457,-0.8628702874,2.5898213233,-0.5444424301,-0.6317513528,1.052103635,0.8342620321,-0.4427698385,-0.5676759717,0.0029420292,0.8268117972,-0.0343566599,-0.1361074678,-0.9824955256,-0.1680529741,1.3875480716,0.4804412038,-0.2841485267,0.4772024819,-0.1476799013,-1.1285969871,-0.2529658829,0.8746708855,0.1634932235,0.6895506244,-0.0132350133,-0.6616376059,-0.9208304564,0.0837612233,-0.9973558307,0.6556169786,0.8019076297,-0.125831695,-0.0188768204,-0.8946570545,0.1499610557,-1.1457024771,0.135194417,-0.7320327833,-1.1108818914,0.1247744506,0.5053437055,1.3157437751,0.5816818314,-0.0799128522,0.9834967756,0.9250569382,0.4794472619,-0.1378923377,0.5979408204,0.7509851842,-0.3365315454,0.4841622576,-0.8868303755,4.9603502029,1.2985485284,0.4338821595,-1.2570186593,-0.7488533572,0.6431444119,-0.8310326409,-0.7644112858,-0.0366080973,-0.8500253357,0.5355604597,-0.2721041787,0.6842960523,0.6085108803,-0.771031679,-0.5089743957,0.2155239364,-0.9576153712,-0.4503021627,-0.6340151734,0.2343770124,-1.2494083488,0.918048828,0.153658771,-0.357312315,-1.4266206722,-0.0299693818,-0.622407941,-0.3496198609,-1.3529079383,-0.1820944393,1.3862055343,-0.1618470341,0.1152043509,0.4436051059,1.0008845295,0.348342865,0.5028197654,-0.8918125068,-0.1234475205,-0.3903932276,-0.1641072626,1.1900072702,0.5607150856,0.7558359839,-0.138620466,0.3668010774,-0.1194246586,0.1903099555,0.4940722796,-0.639655018,0.6975679492,0.0429021194,0.655455932,-0.79000526,0.389051554,-0.525389199,-0.3034048369,0.1092810273,-0.4715557216,0.4219612901,0.1230100617,0.8573538766,0.0506210877,-0.7404129612,0.8176083746,1.0958882536,-0.5205361861,0.2935932904,0.2579550501,-0.215659787,-0.234194789,0.3677487479,0.2764271561,0.5486987994,0.8165191168,0.7121541548,0.7635271239,0.0895459038,0.7114224885,0.6754938798,-0.6170829595,1.2073527429,0.925426068,0.8266730116,0.4378190927,0.0006396,0.6493220846,0.482545628,-0.2263273984,-0.2273952418,-1.0374799197,0.1764492607,0.2778278094,0.3247802755,-0.9990121673,0.5107137383,0.4672423223,0.2289842096,-0.6287476342,-0.5124999969,0.4751292974,0.8319184544,-0.699231817,-0.4860412833,-1.0695473359,-0.3554943607,0.6263968346,1.1450285642,-1.3415536662,-0.1106247395,-0.6482828918,-0.95284124,-1.0198045576,0.2345044495,0.8774155673,0.0673857853,0.0300756067,-0.5551275796,0.0972715922,0.9305478097,0.2444982156,0.5211811368,-0.0263771859,-0.8821432657,0.8362096629,-0.6622394147,0.3760839169,-0.4064422338,0.7834417245,0.8046621371,-0.417820214,0.8689147933,0.7988229843,-2.0032013388,0.1166542307,-1.3441803886,-0.5979563445,0.2909297642,-0.4231297447,0.3673931451,0.2129870247,0.5462105412,0.6866300722,0.8559802211,0.9198452328,-0.2514070491,0.5353953679,-0.1584533286,-0.6738230834,-0.4998903837,0.9982731605,0.53341543,-0.5446853589,-0.2602075968,-0.7004628042,-0.5841969729,-0.7308509697,0.2605588753,0.3561700735,0.3196013955,0.8065574946,0.4123711199,0.9448686895,0.5152319685,0.1113016702,0.28775344,0.9842837678,0.0925991441,-0.9747936629,-1.1324728403,-0.5408800377,-0.6925585396,0.3525274829,0.4983767841,-0.2097754959,1.0199626969,-0.2967327693,-0.6155885767,-0.8475895357,-0.3917557135,1.0719993281,-0.4459876998,-0.4607421846,0.8302631682,-0.9364554176,-0.425486533,-0.5611451982,-0.8355776395,0.33744985,0.1877714511,-0.6313720806,0.2610587447,0.0876324902,-0.1075373911,-0.7261916798,0.3517103313,0.9660446216,-0.0012502256,0.884164808,-0.9832094884,0.444231674,0.2400621564,0.4485011376,-0.7036500904,0.4121425557,-0.7072174022,-0.4655847527,0.8649596179,-0.290938121,0.5776796663,0.5195481899,-0.6411450438,-0.7205108867,0.899760073,-0.8543997645,0.9313902961,1.0794108003,-0.6414869481,-0.1395379178,0.6403389904,-0.9892637267,-0.8362976412,-1.2691676966,-0.8390832511,-0.1207828696,0.3260464917,-0.6374053834,-0.8175625733,0.3232041344,0.0620646318,0.4153614693,1.1519768669,-0.6238365682,-1.3465064309,0.4667983618,-1.1840872916,-0.3019461048,0.3359050856,-0.8243281829,0.9326424624,-0.0542188145,0.1068748851,0.4579731482,0.1205244333,0.3826481265,-1.0628105371,-1.3744322009,-0.0942865638,-1.0225741039,-0.3690880606,-0.8758803607,0.1555617816,-0.8000227333,-0.2344232826,0.286695357,-0.8619288521,-0.1224137497,-0.8638085403,-0.2702319498,-0.1276010444,-0.6835945776,0.7372648734,-0.597588597,-0.2104945106,-0.7442494769,-0.6209455418,-0.302122746,-0.0898855416,0.5451269477,-0.1594551988,-0.3483050791,-0.5936982973,0.0316822673,-0.7196287595,-0.8170138153,0.2288879795,-0.3531948971,-0.5303835574,0.169852495,0.0036172394,-0.2405580882,-1.0771598712,-0.8551961981,0.7210246899,-0.3100681464,0.1573630043,-0.2219685794,0.6070740066,1.8897932807,0.4700753254,-0.0944836463,-0.0965675435,1.3421936207,-0.0191518856,0.0962432414,-0.6392051051,-0.7884751117,-0.3147616378,-0.9267172168,0.2803439097,0.0730114608,-1.1169993256,-0.4379294507,-1.1703976191,0.9391923961,-0.2229471822,-0.883637479,0.3970546348,0.6626803395,-0.087690726,0.1132358995,0.8112040105,-1.1904259797,-0.5140478124,0.771183913,-0.8912984333,-0.6214943476,0.7843367018,-0.2468706715,0.5448300548,0.3868461446,0.0586010058,1.013784849,0.93904452,-0.9605766373,-0.0510470359,0.983796761,-0.6613456651,-0.5877183428,-1.1316603145,0.9071934633,0.0469876786,-0.1190663662,-1.5538660594,-0.343481947,-0.3847732492,-1.3837809024,-0.7641008529,-0.4305653999,-1.0798804324,0.357847306,-0.7384342844,-0.4179616888,0.834766191,0.0858901083,0.1482380039,-0.2170258878,0.9279012957,-0.6057914029,0.9613251234,-0.6642579815,1.0014583462,0.207391121,-0.4824828372,-1.066963314,-0.1295496985,0.1420172157,0.50208003,0.5190704228,-0.6434275393,0.6645836175,0.0132704202,0.6330378894,-2.7827763142,-0.4819625986,-0.4848758487,0.6933367636,-0.85009099,-0.8255364901,0.6781247582,-0.8896634281,-0.0972474825,2.9858032245,-0.7196301883,0.9992320844,-0.7477055218,0.5549646058,0.0481365098,0.8596081205,0.9681985916,-1.0968295685,0.9112077121,1.0966149931,0.2648214457,0.7677163624,0.1357859659,-2.2058819907,0.010221149,3.1672563735,0.787809181,-0.8691081917,-0.2670915607,-0.7098599913,0.0449243976,-0.4372870558,-1.3936828992,-0.9539011516,0.0967400213,-0.399927074,-0.9505581038,-0.8613001818,-0.176870313,0.4078229459,0.4776860924,0.1040574328,-0.9987126071,0.3051693116,-0.7406775501,-0.3347396412,0.334046705,-1.7745242252,0.6159671192,-1.0107800019,-0.6148599248,0.376635833,-0.7730852962,1.1024699952,-0.2953902084,-0.4101796586,0.3280742317,-0.2923221791,-0.6563795716,-0.6550809806,-0.7746318971,-0.3334719264,0.3405823521,0.1468705289,-0.9679848176,0.0066260854,0.0897089958,-0.3051027522,1.3355856053,1.1632293321,-0.0258486903,-0.9330225085,-0.3503865985,0.3044683245,-1.1074012468,-0.1844565522,0.5063350846,0.179477113,0.1060644902,-0.5312351508,0.3823117997,-0.0527157549,-0.1846298822,-1.9950899686,-0.2638688446,-0.5926892826,0.922948613,0.4830865012,-0.6192793432,0.1485793663,-0.1086078832,0.2824787402,0.73155282,-0.9686333425,0.3852821093,-1.4952475918,0.5162403659,-0.3507282247,2.5391456354,-0.2664158168,1.3949346461,-0.6557394526,0.1801720993,-0.2872921181,0.4151935453,-0.0589959928,0.5488289793,-0.7044970078,-0.2647568699,-0.2309908106,0.2647623982,0.6731491927,0.3674616482,0.0310824154,-0.0718207429,-0.417643694,0.9601891017,0.558479819,1.3233084057,0.6194977303,0.147835081,0.2728118577,-0.6816768576,-0.0636233362,0.3553090851,-1.3163133814,0.1636183328,-0.1512019039,-0.0199950326,-0.2055346701,0.2336831049,-0.4308617759,0.8256937335,-0.434289673,-0.1367996445,-0.7861698072,0.9432700796,-1.0615118318,-0.4122084177,-0.3278849487,0.8389565699,-0.3664006598,0.4980190653,0.4485004659,-0.757476688,-0.9154779577,0.1741807465,0.8344579496,-0.8584829248,0.233876774,0.6863598085,-0.818327036,0.790637463,0.5635374443,0.9022726587,0.3186359718,1.4668639197,0.3763749796,0.2885377342,-1.0282337239,-0.0985728391,-0.5638458951,1.4480220988,-0.2166676454,-0.5802811118,0.2698225229,0.8501461842,-0.1696117361,0.2804260697,0.1915768412,1.4433080727,-0.3530152979,1.6714781136,-0.1258778535,0.9087993837,-0.6872651599,-0.8326213495,1.3926451906,-0.0545947543,0.9908640662,0.5014595042,-1.3694702797,0.5630777807,0.3161263445,-0.4135348491,-1.3896195638,0.788851425,-1.1391890569,-0.092046242,1.316210638,0.425664949,1.0431138109,-0.4039473944,-0.9586873246,-0.5521582267,0.0812853796,-0.5257352306,-0.8144740862,0.7817082785,-0.8543067122,-0.1021939022,0.7759328636,-0.1224189616,0.5703436262,-0.6314654018,-0.9964188141,0.3985746101,-0.2828905483,-0.3774596145,-0.1481840646,-0.6390831837,0.7769968248,-0.6118209841,-0.139083236,0.9067326817,0.5280044679,0.2709643863,-0.2879108191,0.3067246579,-0.2300630358,1.0901688273,0.4091674216,0.4789158182,-0.3467937332,0.9030417747,0.5656408014,-0.270937137,0.8637140661,1.1421955018,0.2111567428,-0.6479528588,-1.0755336094,0.8269038941,-0.7827880484,0.4878953386,-0.4403112854,0.2234858615,0.0382634949,-0.9462905993,-1.4622241039,0.0500724778,0.8684525731,-0.5249510398,-0.2580661555,0.7612230153,0.5140985204,0.34669764,-0.1549396939,0.8342041052,-0.0230910084,0.3226712393,-0.3425906746,0.3006368129,-0.123549581,-1.1543646795,0.1277775704,0.2291542567,-0.0856955987,-0.5571738824,1.2799499713,0.366159507,0.6456128345,-1.0668753928,0.320169138,-0.2968952125,-0.2143490949,0.0066074723,-0.8210114535,-1.2045617309,-0.9836498621,1.0557776613,0.922272829,-0.5978917029,0.9074392282,0.5974257223,-0.6493317369,-0.0535238862,0.9443910258,0.3559498956,0.6664914848,-1.2728140584,0.6294764026,0.2072001995,0.3387208858,-0.0170921124,0.5544714362,0.5047586379,-0.0877572904,1.41886857,-0.7709521231,-1.5414645969,0.3429453332,-0.6191508692,0.4730942968,0.1027554726,0.9737867518,0.2530979013,0.2260069755,0.8950280201,-0.6852738913,-0.8110314681,-0.2897531572,0.0398084971,0.4646400578,0.3642951094,0.8324197524,1.0418610579,-0.8381576983,0.6022923837,-0.3764903603,-0.8464186172,0.0997644387,-0.2633851926,-0.562144295,0.2558172765,0.0087288665,-0.7751212273,-0.5547280726,0.5643730314,0.8300788117,-0.3890730066,0.0133541585,-0.6035197761,0.3435850421,0.7960161042,-0.7701283595,-0.7870565934,0.0907709748,-1.0993644257,-0.4988320149,0.2878933279,0.625154069,-0.3221416264,0.7379171823,0.2615456899,0.5278852662,0.0686900619,-0.8034160702,0.6382441312,0.7895811272,0.9669385005,-0.7797464621,0.1227082636,0.1181179013,-0.8508134536,1.0924152391,-0.7394736265,0.3934197292,0.4806223038,-0.3199415514,-0.4496137365,-0.395793608,-0.3587528767,0.5685072606,0.2958241432,-0.8551746471,-0.5843857988,-0.3504147096,-0.4157116194,-0.4998032551,1.1217766649,0.5247572184,0.5870074874,0.1607849587,0.3995598631,0.614206671,1.1704676528,0.5789833515,0.1575178609,-0.690026871,0.7292140107,0.5347600334,1.4167916888,0.1337183537,1.2058050414,-0.0300470833,0.6891615414,0.8513153234,-0.6926455857,-0.6732132743,0.5516896871,-0.9848794393,-0.4094183558,-0.378456487,-0.953145118,0.065588528,-0.5110178204,-0.9744671771,-0.0480686459,-0.5135168219,-0.3496907289,-0.877576533,0.5806654434,-0.491784402,0.9312523932,-0.1482339971,0.6045150995,-0.5342708481,0.1611253826,-0.9756427644,-0.3789892127,-0.8352984473,1.0479828661,0.1998135853,-0.1954002594,-0.8991492227,-0.013273804,-0.4019719884,0.5549587086,-0.3012266978,0.0340244523,0.3167459987,-1.506059719,-0.0078601101,-0.7430413247,-0.6087356916,1.0365959528,-0.902169268,-0.9107139866,0.28473163,0.4701104575,-0.9441397823,1.1686179354,0.1213512224,0.4526980662,0.4252324846,-0.1661601648,0.7853629637,0.3644793443,0.9718191095,0.3250796328,0.4134514854,0.7093259542,0.078154677,-0.5898226185,0.4321525543,-0.2459124145,0.5790940268,0.5650113805,-0.1419324527,-0.350537843,0.0954453748,-0.2760634923,-1.3915823146,-0.1482853354,-0.5770293639,-0.4533790608,-0.066075387,-0.8461006351,-1.0668153233,-1.1452786922,-0.3096058921,0.7475498367,-0.739480979,0.5548501658,-0.4691322189,0.5146715866,0.1657545157,0.4558167693,-0.2644032472,1.4797580081,1.3833683508,0.2918439327,-0.689648824,0.7723884779,1.0500673332,0.3099777272,0.6734930116,-0.7728347412,-1.3600522766,0.8833127091,-0.9622578496,0.0478035408,-0.6147290718,0.3115317362,0.0171094188,-0.3565772442,1.001199072,-0.8043894862,0.5234825187,-0.6360896795,1.4874563627,-0.4077680456,0.6395973575,1.1623031843,1.0210050053,0.2013197826,1.2478711254,0.4738949216,0.2277529661,-1.6085378732,0.2588574082,0.2701154194,0.1542392961,-0.6801610754,-0.4944181626,-0.7171201835,-0.5902270924,1.1958935878,1.6022880398,0.6057145534,-0.6004589218,0.1026121431,0.1808920209,-0.3814462253,0.5754364517,0.6226966203,0.5072681576,-0.2780784837,0.0707577622,0.3098840283,-0.6580017585,0.6460620776,0.1563748797,-0.2403122068,1.1640881253,0.4802245464,-1.134117687,0.8632486746,-0.4173927892,-0.6618182977,0.9154316404,-0.6874697822,0.3078796892,0.0143985208,-0.7361344757,0.360774484,-0.9062803296,0.0105889572,-0.1522665517,-0.9065863625,-0.4120750277,0.6919869963,0.6683823713,0.3186741405,0.6305360368,0.1338904168,-0.974863583,-0.1738854001,0.2056434553,0.1778841018,-0.9609451967,0.1117494942,0.7740483972,-0.8794861859,-0.6433647888,0.7900469006,0.6290609823,-0.059839585,0.5296477837,-0.9022359775,-0.9431127763,0.0052139644,-0.7328436663,-0.4514089784,0.6675680522,-0.7246399998,0.3150049941,0.6432542463,-0.6536210552,0.5985902638,0.414909892,0.0538731632,0.3367998672,0.0115390157,0.7995770588,0.4901158659,-0.858733722,-0.3767448286,0.197709494,0.0329516545,-0.1919189974,0.6383202042,0.7700426461,0.2167861328,1.4716513662,0.7318750734,0.5939157361,-0.8013407711,0.7761702352,0.3293183572,0.3533138344,0.2171644203,-0.2729295192,0.6155408172,0.3564356929,0.7133106146,0.8180467573,0.2350716569,-0.6205748089,0.0332252143,-0.2432045098,0.2267542472,-0.8589938895,-0.7310587967,0.478151575,0.2751198351,-0.4775906058,0.771853281,0.5249721687,-0.3977947695,-0.0579976579,-0.2786867972,-0.2627549653,-0.6338524028,-0.1981160661,0.9174813994,0.4447791736,-0.5759279397,-0.1030325543,-0.1967243846,0.0959023693,-1.0909796432,-0.1329307613,0.8781324966,-0.6843486009,-0.2254975636,0.052790283,0.3204120391,-0.709778627,0.3982974715,-0.9455359808,-0.690788758,-1.0223633932,-0.0270413993,-0.3896956554,-0.975871174,0.3937854781,-0.8916006474,-0.4892214813,0.8100991307,0.5113707407,-0.2427603351,-0.4685238116,-0.0043718298,-0.376861184,0.006032087,-0.3018127783,-0.6515006207,0.4553114489,0.0065452781,0.8797664544,-0.651260656,-0.7896291925,1.1347369201,-0.8997679159,-0.1097849726,-0.0995852426,-0.7688842225,0.7134218061,0.2136293678,0.7819235486,0.1456758169,-0.7857797824,0.7748743065,0.4594651598,-0.812229668,0.1426671969,-0.8450401321,-0.4988136238,-0.1379682842,-1.0351793339,0.8688012479,-0.5664255497,-0.5347758255,0.3559019011,0.8315236251,-0.9772403212,-0.9669318359,0.076065459,0.1673066106,-0.7678901831,1.0735357545,0.478562234,0.2080471612,-0.2674286355,-0.3167582693,0.0689468812,-0.7750843466,-0.6089988043,0.5794405613,-0.5586228205,0.0566458599,0.0560309205,0.9503344333,-0.4092728512,0.2979857888,-0.854037566,0.0030469634,-0.5161726631,0.9369324947,-0.1431485342,0.0941565013,0.510767697,0.720460661,-0.394234816,0.968084952,-0.586230923,-0.9181232846,0.9172525578,-0.070468127,0.9262160939,-0.7748945898,0.9190061619,0.2031204315,-1.4695468066,-0.7750312333,0.0938148118,-0.3080180444,0.0024974357,0.5615688547,2.4829382052,0.714032531,-0.9303692448,-0.5260556418,0.6478504967,-0.90738241,-0.0851204775,0.4255820471,-0.7645224297,0.365807683,-0.3464386761,0.072531283,0.1781914305,0.3717175754,0.2551151044,1.129654782,0.8722975353,0.1200522036,0.0110721352,0.8534430151,0.1557873111,0.3045794207,-0.8193120278,0.2904953776,0.1590978497,-1.0255535571,0.0452211492,-0.6136980193,0.1495616605,-0.7183420691,-0.5381272772,-0.3104563327,0.6546420264,0.1906828477,-0.2530657248,-0.5206089446,-0.0763254848,0.4136820458,0.6488138137,0.682969454,0.6580397811,-1.032058754,0.4492665593,0.0956232204,-0.96795384,0.610437782,-0.9768581778,0.0126366895,-1.0503197394,-0.1322190547,-0.5432428822,-0.6273635543,-0.8142374713,-0.6337006211,0.9635897575,0.8065994365,-0.4797458897,-0.8740302321,0.6165965369,-0.0136486255,0.7704643943,-0.2385111075,-0.5848301034,-0.3971053843,-0.5071841865,-0.0082052638,0.06988296,0.5848555236,-0.5152419168,-0.7224497713,-0.2873292254,0.9743862919,0.5882054647,0.7334281553,0.8410085819,0.7694001173,-0.284481608,-0.7617035078,0.706853034,-0.8330825214,-0.9748338995,0.1980578439,0.0649025068,0.8384690429,-0.7335046041,-0.9040903565,-0.2593946691,0.7951106849,0.0481291447,0.6643129369,0.150179232,-0.5662540535,0.1399281166,0.2483687057,-0.0119173828,-0.7651148591,0.012277307,0.7685240492,0.6947773838,1.0303995792,-0.5896210158,0.5906979649,0.3843690098,0.1410881755,0.3149414579,-0.4521188971,-0.1640412801,0.2305395589,0.9653485373,-0.2836530909,0.5959720564,-0.362561694,-0.1976976509,0.1137623337,-0.6824796064,-0.5873984011,0.6337682114,0.3722107054,0.2406520382,0.4892745828,0.0781141481,0.8065257749,0.5865837731,-0.104399345,-0.5505110198,-0.688694478,0.2101417605,-0.4051854492,-0.8685608115,0.6972917232,0.0612531516,0.2734396718,0.3729262771,0.8748527556,0.2640728829,0.4237986113,-0.2188256967,-0.659882515,-0.1737454588,0.7127948444,-0.2236736376,-0.1145513585,-0.0618410526,-0.0120884749,0.2321676655,0.4633647258,-0.1464414198,0.8216455713,0.6124714761,0.3715677739,-0.2764508811,-0.9851855851,0.8700946832,-0.5688120915,-0.4079610191,0.1330484192,-1.5866476413,-0.5945809744,0.5505602855,-0.6017480704,0.5354862875,0.3829842427,-1.1003862222,-1.0932724847,0.2673850471,-3.2430349253,1.0958297564,-0.1658088282,0.386019728,1.8115581833,-0.6940351781,-0.1366916492,0.7989615789,0.9191381192,-0.2172334596,0.2999136629,-2.3956051174,-0.2932731247,1.1180073765,-0.1048023465,-0.5877329993,-0.6218158565,0.0895137606,0.2491553612,-0.9046178252,0.4296853227,-0.2494207234,0.8223656694,0.288000941,0.2755779615,-0.5768259791,1.0108054419,0.2876228032,0.0557766376,0.6135527499,-0.7685915066,-0.9666658671,7.5098078205,0.5042780066,0.0608782178,0.2792575664,0.5668660437,0.5842814004,-0.8087022358,0.9933116992,-0.2944560417,1.1921339482,0.3318886298,0.880582829,-0.093915841,-0.9167984769,-0.4167029011,-0.7408670112,0.5436032678,-0.667460426,-0.5838727842,1.4403333627,1.4349446059,-0.0717491006,-1.9729042509,-0.1938249261,0.551651186,-0.6191805188,-0.3807989129,1.4959490922,-0.95092188,-0.5237626649,-0.6972132667,0.4014223764,-0.0323612872,-0.5602428559,-0.5197930377
