encog,BasicNetwork,java,3.3.0,1,1472742652887
[BASIC]
[BASIC:PARAMS]
[BASIC:NETWORK]
beginTraining=0
connectionLimit=0
contextTargetOffset=0,0,0
contextTargetSize=0,0,0
endTraining=2
hasContext=f
inputCount=28
layerCounts=2,46,29
layerFeedCounts=2,45,28
layerContextCount=0,0,0
layerIndex=0,2,48
output=0,0,0,0,0,0,0,0,0,0,0,0,0,0,0,0,0,0,0,0,0,0,0,0,0,0,0,0,0,0,0,0,0,0,0,0,0,0,0,0,0,0,0,0,0,0,0,1,0,0,0,0,0,0,0,0,0,0,0,0,0,0,0,0,0,0,0,0,0,0,0,0,0,0,0,0,1
outputCount=2
weightIndex=0,92,1397
weights=0.0304008794,0.0685885181,0.4325362103,-0.2767145808,0.1353281607,0.1620015294,0.1965042544,-0.6920339004,0.1607311233,0.1018082289,0.6167149364,-0.5998041244,0.6889337832,-0.1716066817,0.5603497902,0.1360672342,0.751534274,0.6321697766,0.7237603426,0.0209498991,0.8503847151,-0.4230027276,0.0789733239,-0.0605061588,-0.9090102742,-0.0489036963,0.14236933,0.1088461037,0.2165327855,-0.8880954616,0.1351198527,-0.2882482765,1.0178414806,-0.0035532526,0.7881994878,0.7257622562,0.2164026545,-0.1952530695,0.4917037188,0.4368959408,0.1368366324,0.2395126696,0.577287939,-0.5606879769,0.3656773919,0.7721943235,-0.5997530871,0.3387721504,-0.8105058773,0.3390557938,-0.0515133937,0.4169709554,-0.8412494501,0.1439367658,-0.2702596136,0.0017678618,-0.1447410136,0.3614485691,-0.6470358877,0.2155958226,0.8923394111,-0.4869444379,0.4073614956,0.6731627593,-0.4273710749,-0.2893437256,0.6481949858,0.238689929,-0.094578813,-0.6994939384,0.5138479479,0.7600464923,-0.5484680793,-0.050341985,0.1536100233,-0.9041470335,0.1169440938,-0.1213505292,-0.5951428759,-0.062524087,0.5521740473,-0.0021270023,0.0587124163,-0.4018764345,0.1013873079,0.0630207739,-0.4580449073,0.021208552,0.4058130474,-0.086005496,0.1880364167,1.0281786787,-42.4160435474,-0.2400883215,-0.737662656,-4.7387812492,-0.8844231522,-0.451040214,-1.564314719,0.7351958944,-0.6781506163,-0.5027008759,-0.9388390568,-0.4515971366,-16.066461469,-1.0108033527,-1.2509619905,-4.5747500844,0.5388000632,-0.3608087899,-1.3746446364,-0.1552886339,-551.9014914507,-2.044465921,-1.3504355002,-0.465927475,-0.07103569,-60.966444542,-1.7322606597,-6.5535385815,-3.0624601541,-65.2418428968,-0.0925093954,-5.4391576902,-0.7555052424,-5.7797160613,-7.7732004606,12.3036761566,-7.0372149703,6.4851017964,-3.9597498539,-4.1813722951,7.1428243081,-25.6689051014,-3.1466953578,17.0757863715,88.0689958224,1.0448688146,-2.618305258,1.0599847237,13.071644729,-5.4790893352,-5.3562604151,-4.9627417046,-1.5495175737,-6.7884865731,25.3613212925,-20.8161181024,-18.0646739644,-2.0560417673,9.7670186876,-2.9217070384,-1.0239090706,2.6364194332,-18.7897084375,-1.5797901215,-0.1675259329,-3.2635612201,1.3676451272,-3.2344342233,-1.4309349254,-1.9036449894,-40.6076139421,-7.0483060597,-5.5184048193,-0.5834017018,-0.9251339749,-12.2973819864,-1.3960718495,-0.9366284165,-8.4225464059,-5.6983917131,-8.4893616259,-2.4032214578,-1.6706594768,12.4821473118,36.612275695,2.8816597955,-1.1667886795,-614.1713280266,-141.053142873,-469.4383310899,-783.2488159054,-472.0346190236,403.4962602519,-564.2883177653,194.1269209243,-135.6768038542,-1074.5263481817,-565.2600878905,-408.898137913,-1417.4929564552,-628.6150878503,-572.7480604809,-480.3291978525,-269.9744200029,551.3278012195,-563.086802464,-496.5706688253,1641.3785254457,-287.0734145767,-289.9612548919,-565.7077608174,-1560.3575531974,-2057.5996910011,-1073.913811996,-944.8017330187,-564.161458935,1.7654338967,4.6489928312,3.5325543859,2.1776483371,10.9072641006,4.2715257277,3.2127455652,3.2550107335,1.3895098496,4.2273887054,4.1334684771,1.9571839448,1.037345908,2.8357900328,4.4965372913,2.1173456336,-0.0567174341,2.971914169,3.3841471798,6.784521062,0.0475889433,4.3378164523,2.6049084396,4.0953414767,3.3310852461,15.244252163,0.2024302791,3.1347299015,5.5656121739,-0.7896570666,-0.869654477,-0.7067948125,0.1802690544,0.1374226476,-1.2235600752,0.1020864118,-1.9622256297,-394.1110430229,-0.0292187763,-0.1338781613,0.2893882905,12.9340340358,0.159501216,-0.2645763145,0.567815853,-2.0877415751,-0.5180365099,0.383834407,-0.9245523009,-0.7042968801,-0.2907664026,-0.8611363223,-0.0339423246,-0.2805405351,0.2008810027,-1.3984518034,1.1315798193,0.4446258357,0.0932350862,-2.0485180352,0.5325799085,-3.7449374114,0.6228379481,2.6840918272,0.2191843931,-0.2443248475,-4.3057508094,3.2451953963,0.2062019583,-0.0738867429,-0.3625987048,2.8687502349,0.7814593797,-0.7601051208,-0.3335707254,2.7082089315,-0.0188821635,-0.2316464686,-7.0475483833,1.5685587609,0.7786288027,1.5833380279,0.2083585545,1.3806441358,0.9491097316,-1.7825407548,-0.2821274656,-434.6031294299,-32.2949199966,-4.6500769684,-1103.8891403557,-3.8271005508,-24.4733336327,-34.9142848066,-4.8925483709,-37.5835278838,-212.2826351871,-13.1902686575,0.3982575772,-715.7389008085,-49.5178987543,-9.7551683353,-31.1302381015,-294.3346405706,-49.8527143204,-8.2537533563,-48.1585021905,780.3863963354,-15.0927587655,-3.4024500008,-13.4769429496,-432.2126841103,-3196.9491203515,-173.7602245806,-1419.6134845044,-35.9680645286,-1.1498117712,-0.404669162,-1.698632249,-1.5616840948,-0.7745562235,-1.2084578074,-1.2861525272,-0.8678661909,-1.059929696,-0.9724975789,-0.8584679619,-0.6936262237,20.7146064256,-2.0734491852,-2.2321193847,-1.5078457697,0.0775211677,-0.8039948265,-1.4748929029,-1.597092534,-85.1785358626,-1.6405380908,-1.4131604664,-1.8924287198,-0.6955643503,-0.5896315816,-1.2039688416,0.7006311283,-0.8403317458,-46.4273160154,-2.2223572244,-0.7237328808,-129.9542477467,-3.3389107399,-1.786361446,-0.9036150773,-1.1632672033,-5.1673703999,-6.42483475,-1.2674095482,-2.1995722109,392.4290962004,-18.7331582714,-1.4625331701,-5.1596422374,-8.0994332384,-1.2929096876,-0.7155113052,-5.0743428487,-64.932905476,-3.0002208717,-1.7812292341,-0.7911171068,-3.7549421849,-567.3551556344,-21.3078239553,-54.8448587559,-1.6721435755,6.6432717508,6.6454695186,1.1911021398,7.3859394289,2.0476151503,-1.0309690627,4.8031848904,-0.5564850883,11.5806815341,-1.9942150543,5.5419077759,-1.9036670346,17.3456823494,5.981451076,15.3884792066,5.9689846685,1.3469751165,3.4033484223,4.4658077656,2.0601119052,33.137194709,0.2101438838,0.4267384276,5.573755718,4.8796269276,112.6231773222,8.6791228378,34.5622099852,5.9515838024,-2.3395879585,-1.1592539309,-0.3203879994,-32.693466588,0.3529366094,-0.1449670945,0.4094094907,-0.0347257084,-4.3967269017,-0.9486297818,-0.3785187072,0.2224034584,-421.0347787031,-0.708196442,0.6318910343,-0.0966901222,-12.3883321086,1.1780109775,-0.8480045146,-0.4087418627,38.6584651938,0.6670130341,-0.0763352035,0.2676621596,0.2034679062,-526.5546197645,-1.7361878106,-114.9836877217,0.5565493272,-20.8299525801,-1105.5066258971,-34.5397800995,-51.1439951781,-239.3846316179,-2.1577036031,-232.5445034845,-17.2404985024,19.7045874963,-160.2397326145,-555.5229591225,-550.7369018485,479.097408945,-141.143824877,-78.6879955647,-945.8067509466,0.0799983799,-878.1739367326,-236.1723052533,-822.7584889272,-59.2056039758,-326.5121003522,-60.0762511203,-43.8336676282,-275.2080498437,28.7311280919,-259.8662197726,13.7350728771,-80.0272748117,-1729.935118124,-283.1937608189,-743.3758613651,-1467.3067819798,-469.2571804101,403.909584709,-549.9063626957,-87.6605776928,-944.7546687225,-1581.5499169294,-550.3350820845,-535.8667780063,-1679.8305414355,-1186.9972054212,-559.7334634345,-435.2942054274,-665.1186573454,373.5400974847,-550.533619224,-379.2390060856,1745.5642803828,-771.5840916607,-797.1738856221,-549.2952883777,-1552.5540848706,-3504.4810791287,-1895.413386932,-2246.977437975,-549.7231607426,-2.1170865879,-1.1828907385,-0.7682280044,-2.2205057242,-0.5071377106,-1.0411332133,-0.1702934595,0.2400772166,-41.1641744796,-0.4353639537,-0.1100086361,-0.0982997475,9.3390583168,-1.2639399661,-1.2492116149,-0.8898323568,-7.0425918409,0.1990689497,-0.8028566259,-0.9131363406,-60.8686300586,-1.2576941296,-0.9451222033,-0.2077843094,-0.962758197,-68.8291011189,-0.6082638253,-11.6555106213,-1.5470797087,-1.5038779611,0.3149376027,-0.1859691164,-2.2739619862,-0.1435036419,-1.7781000447,-1.1053722126,-2.9818998204,-0.6708376865,-2.5336315978,-0.9588191582,-0.3607250872,0.1209145393,-0.8253079072,0.0449854427,-1.0823742518,0.2011619902,0.5048051913,-0.0838832561,-0.8815171581,-56.8581275202,0.16199433,-0.7684091432,-0.1304801729,0.1298724351,2.1213498038,-1.7000664453,-1.4913731341,-1.3786029079,-0.300285466,-1.7061819783,-1.4705045024,-2.9525273173,-1.8385115857,-4.0927297628,-1.8337641556,-0.4955033883,-2.4131552806,-1.957881711,-1.3245883838,-2.913418672,26.5265709445,0.0297011736,-1.0175420875,-4.8423533906,-0.79173464,-13.9044100973,-1.3455841626,0.1314315148,-552.3601214255,-0.6425359968,0.0193203774,-2.3343569382,-0.2986797406,-3.3299003796,-1.0349590315,-1.4841689958,-1.834075433,-0.9093861677,-0.4875795519,0.4042971779,-0.4933870104,-0.217671853,-0.5645869056,-0.9399003499,-1.1502328824,-0.9980894633,0.5405889147,-0.448257909,-0.9952750871,-0.1990445163,-1.0754703883,-0.9242022485,-1.2917199192,0.0259648075,-0.9304186655,-0.3191841467,-0.4480612607,-1.1692483419,0.3714322512,-1.0973941407,-0.9676777208,-0.027217627,0.0687269476,-0.5786384024,0.5341787172,-1.0548037923,-33.2277423824,-9.7509418647,-78.7280244854,0.1170959988,-27.5605560348,-1.5655335937,-10.0950036308,-10.0632555755,2.7649708659,-24.5442574323,-10.7033212186,-29.0347458566,53.3566120933,-76.2741142946,-8.604307406,-236.4897304504,-0.8286109769,-7.1272475064,-1.1597643867,-9.2305187178,-738.8262926405,-26.9260026991,-10.8977950887,-2.6947833922,-2.5967443246,6.0842066821,3.0460894273,0.6795669946,-1.8830545998,6.4496998929,-1.3220151716,-0.8895464718,12.1231119842,0.4885974845,-0.0248266964,-1.6673242574,0.6249858087,-2.9929355493,-0.5744709294,-0.3557050758,-0.6885815606,-15.8635053733,2.4128991613,-0.9763389401,-9.7469421549,-1.8435849506,0.5559319916,-0.80237524,-2.5222266637,-231.3720146122,-0.8352932501,-0.7465969273,-0.1847953244,-1.4804043364,6.7037132628,-0.3597097788,4.4994383494,-1.2806191889,-1.0116993914,0.3621977813,0.2314230463,0.1554323348,0.1479022473,0.5378653854,-1.1843235102,0.6983472266,-0.704497314,0.5107196579,-0.6138224248,-0.7629230888,-0.7173106232,-0.1288935833,0.2754740565,0.0980586158,-1.3710030981,-0.279979683,-0.9705890174,-0.9509203257,-0.1324479287,-0.7653398119,0.2650649674,0.1261127398,-1.1052970753,-0.8761641163,0.5519892212,-0.6840324856,-0.7780923204,-529.570365108,-10.4977076189,-12.5514391666,-1090.0782100929,-18.9620844381,-1.120177244,1.7389356914,-0.4415287838,-171.9836701757,-79.9892940479,-11.1279715588,-22.0558718494,-1795.7421824413,-25.1373980715,-140.756180577,-3.3612297485,-58.9697568782,51.7759006743,-11.4952704807,-104.5662625738,626.3045486587,-0.9210428032,-2.8826929492,-10.0696510557,-671.889778829,-2345.1039362592,-595.5660437571,-1738.1627974728,-11.1398260669,-0.3713088064,0.6110117758,0.3723229852,0.7153071713,0.2871344985,-1.8580918027,-1.1728638232,-0.3325387409,-1.0405733092,0.7700513196,-0.3056863745,-6.6431942078,-0.2622908206,-0.0115100424,0.5513009553,0.5858855655,0.9542663217,1.0157037725,0.5182675604,0.9128519458,4.8710301744,1.9994834321,-1.2166547115,-1.4010033172,-0.6704826641,0.5230315164,0.9072490988,2.264116798,-2.1518388258,-0.2932156815,-0.3779062336,-0.1456756286,-0.2850777596,-0.58773337,0.1693192117,-0.3000045448,-0.8608469646,-0.9262838972,0.5397476474,0.484239386,-0.2584407331,-0.994854759,-0.3707965322,-0.1643946025,-0.7486423128,-0.3486844452,-1.363168922,-0.5272846169,-0.4264268294,-3.0026217356,-0.1336136169,-0.6473240296,0.2952344711,-0.9184861,0.062519169,-1.0600164624,-0.5769280436,-0.178820586,-1153.2791335401,-102.2839543813,-0.2397020029,-1872.972494331,-242.8768954476,25.2974919316,-105.9673170433,182.0634588596,-459.3365268135,-561.37665498,-100.3889216474,-48.815218899,-2382.1556617589,-298.1962799197,-390.4723179047,85.1525992232,-248.8269435396,751.4043213547,-102.2089676867,-424.663628629,1572.1026969228,177.3319380414,40.2752646283,-103.3229037007,-1052.5279408126,-3674.8660053435,-1238.2637547186,-2233.543245227,-101.8956671093,-5.0100040045,0.3378699943,-0.1633909999,-0.2623036523,0.1828768303,0.6720093345,-0.1111812037,-0.5202684281,0.4935078204,-1.0119761252,-0.0234318141,0.2942237982,-0.7751690204,-1.0210413926,0.5995327331,0.5731118744,-0.8885915384,0.257838084,-0.2422788167,-0.5248018309,0.0260171312,0.4192929687,-0.9006232343,-0.6867239931,-0.2428202989,-1.2340574417,-0.5075751494,-0.981002952,-0.2631295459,155.0638331073,0.739209252,-0.5228264352,167.4995100651,0.2150319437,-1.2097035795,1.533449786,-1.0673035788,49.7687464401,147.3880682121,1.2475991081,0.4720014879,239.6899769013,146.0694994291,0.1465166458,14.585570028,38.70432303,15.4990490971,3.8415642332,1.5424442218,21.6429972149,145.5915273392,-2.7625799194,-0.9509885705,0.0677579905,710.6351364505,55.4302572072,166.9722537148,3.4640703021,-23.4180859128,0.5517705252,-0.4019548275,-136.4638094295,-0.0706026988,-0.5380979407,0.3472959136,0.2201518711,-29.028672976,-1.638669431,0.5269214711,-0.9647268861,53.4489059658,-0.9074478157,-1.146842227,-0.5148786081,-3.7442487868,-1.2421574516,-0.9670680577,-1.4523937957,-1026.3332250473,-1.0662581131,0.4936804599,0.3743355674,0.4872687127,-8.2128895463,-3.4543690435,-25.3159115995,0.425209769,-0.3222955298,0.0147497,-0.9257252893,-0.5788197519,-2.7133315966,-2.9552197824,-0.4251695176,-0.9676545021,-5.8316157322,-0.8310611293,-1.8802665652,-1.1810400383,19.2298147246,-1.224518705,-0.0965867877,-3.454610393,-0.8438923954,-1.6238391273,-1.7979602599,-0.0154917982,-49.4304467231,-1.1876069896,-1.3562977711,-0.1723638001,-1.7129904871,9.5563063198,-0.3762806556,1.0082474268,-1.9775287785,-0.1354854811,0.1026681591,0.1757535248,-0.0066128794,-0.8561649857,-0.6130243154,-0.8528676872,0.2837868896,0.0726317116,-0.4362533773,-0.1498905813,0.5948682758,-0.5292341939,-0.6022166665,-0.9644980384,-0.7553347073,-0.9628636494,-0.0230987752,0.3806192398,-0.9666823058,-0.9101565849,0.8864528354,-0.6584932977,-0.7222770823,0.5483515838,0.4542568213,-0.6302500232,0.405193164,-0.9879795751,-8.7163557411,-23.7408500472,-29.0414990453,-8.5217283941,-30.0949954129,-20.7566363411,-23.131602207,-12.1909891164,-16.4999423528,-6.97189517,-23.2425792247,-21.8539683246,75.0427022021,-16.7573996727,-23.3200517989,-24.1729423146,-3.664101075,-23.2411019263,-23.7723611961,-9.1894367013,-1092.2725788561,-19.4265122522,-17.5683676155,-24.1315798891,-20.1188445798,-2.6857225786,-8.6860400791,-8.3178406852,-23.0595618122,0.5417577581,-0.5012721485,0.4809409456,-1.3698643902,0.2941272116,-0.3323678633,0.1552077922,-1.4574623589,-1.3916887697,-1.2242587859,0.6686746837,-4.1577421387,-8.4422371817,-0.2985782806,-1.0896360062,-0.4732708486,0.6792016326,-0.5497388438,0.3778593039,-2.5223481394,-16.8799899118,-0.0537844432,-0.0531426709,0.1773516239,0.0398018585,0.0277059373,-1.1278973471,-0.6431646978,0.232269156,3.0612408092,1.3360762103,3.4607118896,3.8528337111,3.7595821093,3.6871633027,2.3873294529,3.6087066963,2.2040978279,3.5982277031,3.0937240168,2.5876973054,2.146138715,5.2666573005,4.4984915306,3.1364190013,3.1917650004,2.1470473167,1.7622611202,3.3516009704,1.6938986568,3.8299051997,3.7403552666,4.2429134108,3.7265466902,1.7554034758,4.3680085075,3.0551259803,6.3314618895,-1.1233463267,0.4927212888,-0.916319878,-0.5330214076,-0.0179595891,-0.8206418469,-0.2317562814,-2.143124585,0.0883731648,0.6515768445,-0.3443822121,-0.2215757462,-1.5013566957,-0.0626189166,-1.5526458706,-0.8221655001,0.0687020828,-0.6154584057,0.6381335678,0.2760786196,-1.8146164567,0.3556350256,0.4743164135,-1.0504454881,-0.8319519423,0.2961249022,-1.0605032229,0.7467834355,0.4579655572,0.1782790905,-0.4759740633,-1.3904491597,-0.1868241251,0.0968102382,-0.4821525647,-0.501189191,-1.9011755022,-266.3539773201,-1.6043373618,-0.0703676794,0.5108703507,5.5153511797,-1.366935277,-1.4690377228,-0.202350717,0.6456126234,-0.9341425479,-1.2648244489,-1.1350029558,-1.8639200085,-1.0748865939,-0.8177231827,-1.6334872119,0.1326572752,-1.4174519517,-1.3644390267,-1.3829906475,-1.7598940728,1.1692627441,0.0571874674,-26.507811955,1.1033038357,-4.7957783049,-29.3313499039,-0.1972958677,0.6041904134,-9.856199391,-9.7061011801,-1.2587437238,-1.4923301063,62.9394769712,-9.7364217674,-1.4147722906,-0.7204712478,-6.2475754137,-4.5189084641,-0.2663770043,-8.4210348928,-718.1162072192,-25.2438530251,-1.0640636879,-2.4011743759,-0.3016521156,40.9122150973,1.5413127339,6.2055934172,-1.8146542276,0.6444622139,-1.2165647761,-0.7729614049,-0.4029280847,0.4474840625,-0.4489189822,0.4471759233,0.2617484344,-53.3020097218,-1.1511913597,0.1379279789,-0.8405228296,54.9348940827,0.5723679053,-0.3349876513,-1.0414236217,-9.8192299516,-1.1916430535,-1.0886516928,-0.425789474,-246.0705406448,-1.1599314167,-0.4204551741,0.5415017199,-0.1136536308,-1.1366877548,-0.2801088888,0.5703782409,-0.5758077503,-0.8612887808,-0.1250941219,-0.5348494196,0.5895623573,0.6193831476,0.1311838991,0.4532935217,-1.8835520564,-0.4353746855,0.4747827498,0.5029780802,-0.1115352172,-5.7398654367,-0.5118302592,0.1546659341,-0.2157931527,0.466235305,-0.596305432,-0.0704747905,-0.5585069124,-233.4971703273,0.1484616753,0.1046132298,-0.0009274382,-0.546061179,0.885548672,0.8442627269,-0.9073036158,-1.0155218771,-3.4300242568,-33.3395710002,-35.6659583444,-22.5643664485,-26.5499005725,-66.6049175537,-30.6074102774,-56.1732647227,-87.6675663918,-21.2484541783,-33.6801244649,-24.5798951544,410.856255056,-112.9957556978,-19.4343025293,-10.8867697613,-7.6636762678,-247.342538809,-32.9526780123,-18.5580072179,-1136.7685835288,-52.653435492,-25.2896907972,-20.9891642993,-46.5160342487,232.5592991078,0.5950714516,4.5887746883,-32.109999536,-0.0905294278,-0.0425836666,-0.1034291661,-0.2456468037,-0.1667753486,-0.7118466441,0.7978848387,-0.0244651506,0.2982698478,-0.4492014738,0.5611421588,0.3465191869,-0.9019370726,0.0072962999,0.9615134368,0.3043301405,-0.0997921093,1.1760897024,-0.2802422034,0.6329655754,2.3137882684,0.014868934,-0.4146603953,-0.490053278,-0.3278711422,-0.3082766216,0.1000275977,0.261505576,-0.3882045026,2.8589969416,1.7946712475,3.1276364358,3.2625839953,2.1037453498,4.8291066191,3.3077587835,4.653671475,7.4901678981,8.5503720335,8.4569417746,3.4887739005,6.5489313407,7.3323886724,3.4171929111,2.2173973888,1.3066455858,7.2118520087,3.1588297276,3.4798783691,1.8372820223,2.4127708576,2.2363576358,2.1133462161,3.8492830931,13.8295977946,3.3435675818,3.9963305632,4.4245907535,2.072152122,4.2797802096,5.13092844,5.7552237959,3.5577833356,3.7085605126,3.7438154978,4.3226513331,3.8798632678,4.7444056551,4.9635184719,4.4540437492,0.9347178411,3.242834588,3.7367435781,4.8671711254,-0.8050540255,4.4729760578,4.704893199,3.639270593,1.3225394695,3.7670365287,4.8713502521,4.9719947796,4.9499560499,2.669517921,0.7157174924,5.6520053535,4.3212474279,-0.0548255459,-0.5136226458,0.2358271185,-0.3356472036,-0.2786465788,-1.019148085,-1.301142091,-1.408245014,-44.3891800934,-0.9834147903,-1.1245993112,-1.4097862527,-0.8501209928,-1.3108680512,0.1271392758,-1.4929124905,-1.2385679811,-1.3857121931,-1.3066864881,-0.2192945789,-0.288977103,-1.2636080659,-0.8252676399,-1.4585234986,-0.7564922542,0.1209570436,-0.1461940192,-0.9054558208,-1.128647059,-31.009026113,-0.7348482706,-0.1238922337,-113.3919735995,-3.7757754499,-1.2477878876,-1.2974689495,-1.3883277875,-14.6407677995,-84.6884444478,-0.763721484,-2.1283716443,-333.6153217884,-4.2113155944,-1.7346127553,-1.9629023687,-3.1011331635,-1.844830544,-1.8735205988,-2.6089422878,119.4894782848,-0.1044487954,-2.5271889457,-2.2898139494,-0.0943501341,-523.6884128138,-83.3565815669,-338.7848963213,-0.6859587907,-0.8043230129,0.1380107786,-0.2927147583,0.2582412962,-0.1584938118,-0.9835949557,-0.9587592012,-0.4709362151,-0.7311445013,0.3348168085,0.3669048437,-1.3500195798,-0.209320031,-1.3274101537,0.0287930288,0.3958626597,-0.2674885352,-0.1559606186,0.5023197826,0.0135956623,-1.0042131682,0.3788592907,0.0054212496,0.0846189643,-0.39321601,-0.0930010454,-0.1915296322,0.089488094,-1.2981318876
biasActivation=0,1,1
[BASIC:ACTIVATION]
"org.encog.engine.network.activation.ActivationSigmoid"
"org.encog.engine.network.activation.ActivationTANH"
"org.encog.engine.network.activation.ActivationLinear"
