encog,BasicNetwork,java,3.3.0,1,1472749106985
[BASIC]
[BASIC:PARAMS]
[BASIC:NETWORK]
beginTraining=0
connectionLimit=0
contextTargetOffset=0,0,0
contextTargetSize=0,0,0
endTraining=2
hasContext=f
inputCount=28
layerCounts=2,46,29
layerFeedCounts=2,45,28
layerContextCount=0,0,0
layerIndex=0,2,48
output=0,0,0,0,0,0,0,0,0,0,0,0,0,0,0,0,0,0,0,0,0,0,0,0,0,0,0,0,0,0,0,0,0,0,0,0,0,0,0,0,0,0,0,0,0,0,0,1,0,0,0,0,0,0,0,0,0,0,0,0,0,0,0,0,0,0,0,0,0,0,0,0,0,0,0,0,1
outputCount=2
weightIndex=0,92,1397
weights=0.030506181,-0.1978549381,0.8255752759,-0.1900241542,-0.0012293623,2.1417593716,-0.8021449617,0.0238391524,0.1105155976,1.0080134259,0.5293273502,-0.0040899495,0.6064346829,-0.0842190955,0.5145197792,0.8763636036,3.6381822754,-0.0494523591,0.2138010943,0.0154500168,-1.2860505858,0.3541949599,-0.2785647177,0.519726179,-0.8174891086,0.4521580179,0.0549817438,-0.620492175,-0.4259438947,-0.7515379385,0.6499322691,-0.1857768645,0.8812839575,-0.0854321248,1.3194499156,0.0288124526,-4.9176562218,-0.8312763151,-0.2441065062,0.490910755,0.0462598334,0.1370861688,1.5686804984,0.2335279888,-0.5665490234,0.6356368004,-0.1944060012,0.2937832716,0.2434266099,0.3390489617,-0.0520148468,-0.1520922122,0.0839601617,0.1360520276,-0.0700232132,0.3536475597,-0.1454779604,-0.4119646171,0.0005887911,0.2154741671,0.0712808032,-0.0482356062,-0.05814734,0.2193087342,0.052427355,0.1048573663,-0.0456288535,-0.0903251254,-0.0763496438,-0.0808060552,0.5029224675,-0.050445449,-0.5484612473,-0.1018793492,0.0640332352,-0.9045231216,0.1004392052,-0.122433663,-0.5950212204,0.1539564185,-0.0111480183,0.16714983,-0.0925820655,0.0465609823,-0.1267594427,0.068364201,-0.4579232517,0.0213302075,0.0614607154,-0.3356170501,-0.1285725904,1.0285547668,2656.0132449179,-2.219476362,-1.7656614742,2532.4334910307,-1.251485393,-1668.3381294899,-2.2593984839,0.5505663679,-0.1171969543,-1033.6579206163,-1.6360175641,-1.1531147574,2133.0259742307,-755.5379961117,-1.4930505151,-292.0231855117,2179.0760454544,-637.4308010294,-1.6265612979,-0.8506431599,-2707.9190246635,-11.848132776,-42.3659520345,-1.1941974209,-0.136146326,878.3566725473,-1.9334819499,3492.3639069698,-5.1285207161,-242.8718137295,37.696336402,42.9907204974,681.5251522067,42.1642721674,-8.9565133829,48.3692618449,-6.8995837522,165.8530743403,305.3397520673,107.2748185966,129.0875345053,743.0376241821,553.3390136223,47.9699292468,92.7041552284,623.4513678935,-42.3860005287,31.7818091251,-7.5472467405,9.1746841929,306.8662536349,573.2252765365,109.9066733181,215.0650871341,-648.4731521485,-955.7817837535,51.1879679154,109.4001491245,46.4933662534,-45.4000939088,-6.0047325218,5407.3968496332,-139.3769960615,-2097.1487241925,-4.9657747554,-3.3045321849,1.5284719036,-1959.3658258729,-4.2445036182,-19.3397644401,-1259.8098144618,-100.0227203743,-68.3269967156,-883.5691147012,449.1679616954,-2133.2057584204,-6.1948003155,-4.5724020738,-1256.5375453311,-593.0344890343,-1054.8285316774,-5.837064439,-0.3085616715,6094.2712917799,1068.6010671423,4194.4485660196,-3.980378088,-10553.3664659606,-2035.4926755377,-1332.9370433082,-14892.3207739214,-1414.802532782,2740.994896663,-2125.571962879,-333.3215536871,-1608.6137095954,-833.649977973,-2126.5437330042,-1932.3821118581,-6966.1546415474,-1210.8644766424,-1340.2509514472,-709.2050328972,-7551.1631715844,2749.4378997996,-2579.1468375853,-1967.3849935475,2969.2336737975,-208.9091168826,644.3655891085,-1905.7981590381,-3750.4440232461,-17780.4541968351,-7282.2210396783,-15003.0364191034,-1827.3272497038,1.7654338967,4.6489928312,3.5325543859,2.1776483371,10.9072641006,4.2715257277,3.2127455652,3.2550107335,1.3895098496,4.2273887054,4.1334684771,1.9571839448,1.037345908,2.8357900328,4.4965372913,2.1173456336,-0.0567174341,2.971914169,3.3841471798,6.784521062,0.0475889433,4.3378164523,2.6049084396,4.0953414767,3.3310852461,15.244252163,0.2024302791,3.1347299015,5.5656121739,-0.7663534786,-1.4179745385,-1.0257472154,-3.3663706929,0.0279489782,-3.3641230238,-0.4521636948,-3.5570045241,-89.3980854758,-0.0055253809,-0.6840403871,-0.0460440769,-105.2282485256,0.2217246626,-0.8187303268,-0.2561632782,-58.0464435191,-1.5023993507,-0.1637940087,-1.4786909242,-294.581567568,-0.6424572268,-2.3681621545,-0.2274421563,-0.5635220188,-1539.3379846525,6.1442828018,147.847593725,0.2510918157,0.087975467,-2.5894848278,0.5163885441,-154.301399471,0.6159916655,-2.7863131887,0.1765934708,-0.2510676603,-1.5682821118,3.1670842892,0.1634913249,-0.090926482,187.7308406718,2.8525143616,0.7673031938,-10.3026598254,-17.7516103776,2.5675939057,-0.1577391934,-0.2535381552,-1151.9325575037,1.5467269788,0.7586128643,1.5382229813,0.1776137132,42.1444570169,0.9936665295,7.5992720551,-0.3057820691,-293.6336228626,-158.5054381249,63.3228627891,-1484.9253062434,224.808226272,-259.5540675324,-147.2286910849,163.4650082975,-36.4639461199,-1349.3334937252,-129.2171796393,264.7949255655,781.796920775,-213.4974300418,198.1614187882,-199.5312144142,6284.6080703679,-290.1135762907,-181.1838985874,-126.2911672949,-215.198352908,103.4509155664,75.8882725811,105.1804735251,-1140.7970233052,-3989.0990901054,-33.7833858693,-1981.1759009004,-635.9516384525,105.0873668101,-0.4130852859,-1.7815135149,1990.9759948295,-0.8026301538,-1.2584645341,-1.3122912674,-0.8775186384,-32.5961605868,-1.0059751669,-0.8845183827,-0.6999478351,391.7843310241,-1.9205406118,-2.2584150804,-1.4997886125,-1114.1271480532,-1.6490311457,-1.5023030031,-1.6056929215,-497.0857785365,-1.7574043548,-1.4546473692,-1.9010325563,-0.6744314924,1213.4222965523,-1.2269808728,1081.902698027,-0.8487538021,-812.8301982692,-0.6736405257,-0.1880603838,-2897.327529631,9.4548453582,-1.789884985,-0.7138578552,-1.1398198584,-206.6775265513,12.6522035947,-1.0799533294,-4.5768344099,-3519.7225193281,-13.5897323036,-1.3942681241,0.6584476466,-1149.8797011206,-1.3485105128,-0.5290782132,-4.5004453672,-212.6154998902,-2.8567023151,-1.5961206236,-0.2543702453,4.4337723061,-4939.1975278686,-979.6061523194,-2949.1892268697,-1.4858322511,6.6432717508,6.6454695186,1.1911021398,7.3859394289,2.0476151503,-1.0309690627,4.8031848904,-0.5564850883,11.5806815341,-1.9942150543,5.5419077759,-1.9036670346,17.3456823494,5.981451076,15.3884792066,5.9689846685,1.3469751165,3.4033484223,4.4658077656,2.0601119052,33.137194709,0.2101438838,0.4267384276,5.573755718,4.8796269276,112.6231773222,8.6791228378,34.5622099852,5.9515838024,-1052.4490317457,-8.7846655418,-365.8195726168,-1166.0463681182,-14.9467150584,-8.9234738301,-4.9108845895,-609.4974229137,-10.0967599319,-40.4318825659,-5.6988127874,-3.4656297887,-4528.7836351486,-1350.139106263,-43.1714116602,-236.4141370751,-5598.9055848212,0.1753890337,-15.9850674449,-11.6427917621,90.0784318784,-55.5233860006,-158.233954496,-43.1850807201,-3.3318913655,-2316.5771251593,-1892.1912940469,-2418.0180746436,-42.5303954382,1237.0049478298,-1243.4878888819,-27.5090791644,2302.237116521,102.2612370665,69.597903841,-242.6052041584,4.7801727113,19.9046889162,-108.9995269318,-411.3381942173,-349.4016969718,658.2240381304,-258.0802330908,41.6594395959,-1217.2622631259,498.9723883693,-1018.4574004763,-231.3661310504,-688.1024697744,-1402.7392525864,-519.8988159061,-25.4680952503,-10.5001387762,797.2279348155,3198.3554375215,1156.2714918349,1386.7661157703,55.4604771246,-10894.8194181437,-2035.2012744663,-2229.3480478662,-15469.2172999958,-1999.8057757984,3149.2597947212,-1669.2088100356,-671.4494717847,-2547.3399427193,-1315.4879830084,-1740.6231035225,-2537.0433360036,-6573.3080562325,-1709.9437209786,-1311.4286396256,-1513.5477322422,-7197.7571278063,2719.3650235272,-2485.2960877588,-1315.034916338,3090.5347570468,-784.3942038799,84.5359092141,-2339.9362058602,-2783.1632382763,-18999.3741449627,-7850.1928117046,-16119.512414999,-2288.9288130049,-400.9720285051,-1.6069632887,-1.3584565272,438.4926840298,-28.3556880311,-1.3509890806,-0.7428256109,-1.3136094608,-124.6439067809,-301.3565643056,-0.4566615402,-1.92360474,126.7882607509,-469.4147503925,-1.6704097719,-3.9520760334,-135.5562861717,-5.936797653,-2.0031652029,-1.3343344976,-5.7725035765,-1.424533978,-1.1498306198,-1.7601069884,-69.4807003183,-73.3006573653,189.0700815547,-237.0377687304,-3.0994023877,-3099.2928042186,0.2919801624,-0.3422821351,-289.1598954344,-0.206444633,-3.0517960379,-1.1283594939,-2.994842911,-0.6663041264,-2.7444219825,-1.0182512081,-0.3837304469,1274.0564276246,-1.9017074061,0.0174073365,-1.5162144558,-347.0099461796,0.1359145347,-0.1081881881,-0.9069009184,-938.9179068156,0.0817076248,-1.0014624554,-0.1942725884,0.0785859741,-1326.6353836253,-5.5865239744,-1357.3182650367,-1.4001614393,-1.2054450864,-3.3529921881,-2.106825221,-602.954786121,-3.6719580444,-22.2713702354,-2.0317947525,-0.542109844,-162.0930633825,-5.2006326409,-1.8959900855,-9.2390784913,-1162.3241904818,-0.0059255982,-1.5889335422,-5.945842284,-1354.2468445666,-22.9598655201,-1.9169722796,-0.2581276032,-108.7007707332,-0.7687210536,-0.1138857206,-3.9810793845,-0.446542894,1414.2175488878,-1.1357664537,-183.2886945571,-2.4054799613,-1.4727534155,-0.4890956557,0.4024315108,-0.5823239567,-0.2246011805,-0.5012095984,-0.9417861931,-1.151615013,-1.9823279339,0.5413365109,-0.4500701012,-1.0009811871,-45.0089409825,-1.0718636504,-0.92602533,-1.290625093,-5.678484937,-0.9283725258,-0.3215911164,-0.4494785207,-8.2009710986,0.3739193338,-1.0962508981,-0.9692154598,-0.039806699,0.026264996,-0.5870888038,0.2881430031,-1.0564439247,145.7057323525,-66.2538578603,-352.9233595533,1950.0271294805,-276.5354661298,-12.2825109001,-62.9713037081,-62.9416781696,2.6830793032,-1350.619179953,-63.5566253139,-181.336046638,3001.3004177695,-403.0363251402,-61.4806074833,-690.2699280474,1633.0574990078,-111.7280114792,-7.5946468434,-165.4731522407,-1926.3184087302,-306.7926045891,-84.4591225997,-13.945742212,-12.4364538904,2004.0822170235,2.8790540289,854.8920168873,-8.2582670474,110.0864938708,-2.9661515235,-0.9956433878,-1064.6736313865,0.4517672932,-0.243387114,-2.5432228167,0.5894689478,-80.8313331751,-0.751440703,-0.4612920308,-0.7934186018,-222.0805776585,1.6393541427,-1.8520754362,-138.8488246397,25.5996263287,0.2089927521,-1.1077184834,-7.2818034516,-3207.7612635737,-0.8678837018,-0.7576096044,-0.2907459574,-2.199720212,921.140314068,-1.1919234773,-217.7861418436,-1.5836835249,-1.0145654126,0.3625483571,0.2309899175,0.1474358244,0.147745028,0.5381564243,-1.1840631038,0.6974012091,-11.5332923352,0.5103967866,-0.6135302652,-0.7637915826,-572.8546012802,-0.1292593468,0.276305092,0.0981795114,0.5839477772,-0.2798784048,-0.9704881232,-0.9507192874,-0.2892800138,-0.7662295613,0.2650462291,0.1258927914,-1.1058655563,-2.450386481,0.5514680931,-0.6888590061,-0.7780003532,-2226.1548068627,989.9793403841,-473.5533292726,-3832.4333230271,-291.255150743,3169.1196012642,-959.2244836856,-419.3262644418,-807.0397130637,3870.7925662669,-571.4414475516,783.5020700462,-141.4186106473,2141.2725786935,-683.210523128,2498.5455482411,1962.1383765269,3041.4885345142,-304.2149231554,107.4440627919,1508.7078773512,1615.6915788603,2267.9800920137,-156.7340502224,-2520.0476088406,-5876.2159177158,-3032.6381750779,-4797.8267584683,-571.4795836233,0.6098086613,0.6145120683,0.3846456091,1.5050022271,0.2704529939,2.6422661971,-1.1134358737,-0.2679011988,-0.8176568138,0.7805262095,-0.2461129937,-7.1145670479,-855.0503843002,0.1317003305,0.556140272,1.331553145,1771.9579454576,1.1061296202,0.5407438048,0.9184493294,-688.0045437508,2.0051189551,-1.1976523211,-1.235545119,-0.6546715237,343.9890872424,1.0139569795,3.5439355527,-1.9863487613,-0.2144875393,-0.3785814453,-0.1841830962,168.3804964734,-1.1944863763,-14.6708047543,-0.3017018457,-0.8611719264,-1.1719754258,0.4504563358,0.4825420851,-0.2637226679,-429.1610386158,-0.3773533938,-0.1660919034,1.2797383343,263.4543703697,-50.0912843119,-0.52986196,-0.4285156445,-1440.4127654728,-0.1368835914,-0.7001189289,0.2935240696,-0.9179660857,195.327851519,-1.0541952011,126.8999127975,-0.1812460466,-12076.3556035489,-1564.2814382431,-1757.3478344062,-17061.1292820245,-2052.841845874,357.1401969585,-1866.8722695382,-1595.9775269733,-1779.4623862542,-1550.5983951453,-1861.1157570635,-952.134147786,-12048.5066467858,-1736.6656344209,-2150.4010420645,-2201.5756272604,-9138.2961849355,-81.7850178206,-1540.4832097081,-1819.9774413134,1890.7839092741,-1203.0359275166,-1366.8307980334,-1876.9211372097,-3309.2797993412,-19673.3103201997,-10737.1518671099,-16899.2698399158,-1876.9148360203,109.4877844761,0.3373192169,-0.1843639977,4.9170237727,0.1663045879,0.8161494123,-0.1117092424,-0.5204177855,-6.4617069886,-0.588600414,-0.0241279238,0.2924310193,-435.953707033,-1.0584619238,0.5973246167,0.5753003509,-23.7321704489,8.6230025184,-0.244764702,-0.5310206809,-92.7767043558,0.3685173279,-0.883931588,-0.6872489581,-0.2438624495,0.7364790335,-1.2393356195,-14.7850104048,-0.2637493988,155.0638331073,0.739209252,-0.5228264352,167.4995100651,0.2150319437,-1.2097035795,1.533449786,-1.0673035788,49.7687464401,147.3880682121,1.2475991081,0.4720014879,239.6899769013,146.0694994291,0.1465166458,14.585570028,38.70432303,15.4990490971,3.8415642332,1.5424442218,21.6429972149,145.5915273392,-2.7625799194,-0.9509885705,0.0677579905,710.6351364505,55.4302572072,166.9722537148,3.4640703021,267.9114637199,0.547373427,-0.4155017456,585.8549623844,-0.0111193506,-0.5276169563,0.3463274565,0.2166808462,-28.396415165,-1.884980409,0.522812863,-0.9752138155,1641.7085645055,1.2277747443,-1.1500993701,-0.5282279257,466.0034772903,-1.1788425298,-0.9711814015,-1.550734258,-1277.3288995984,-0.5006987924,0.4916113662,0.3742462193,0.5061479506,6.1939025212,-1.310865175,647.7359214386,0.4253214304,-0.3169394334,0.0178500632,-1.7170751901,-0.7143256339,-9.3210059081,-4.1102275514,-0.432224023,-0.9749879916,-1176.1147228985,-0.885351552,-2.6729322309,-1.2868192609,849.6381888881,-1.3218827195,-0.1034543692,-3.4632861851,2421.0048357997,-2.2060288818,-2.0703184184,-0.0149928567,-433.4284698399,-1.2061626891,-1.4158434731,-0.4446359033,-1.7174539792,1837.4905074352,-0.3747348006,0.9414536297,-2.7702032288,-3.287769311,-11.1242651941,-10.3750034256,-2.6893756095,-12.51302095,-12.0121876517,-16.3630364841,-10.2705045302,0.1478410331,-72.0586774532,-11.0626362593,-10.013395159,-6085.9749425046,-29.8423436274,-11.5145181921,-186.1067162153,-2160.2070924424,-3.9985921638,-10.1647600824,-11.879766717,-1.1627119302,-18.0843422629,-11.5116202768,-11.2796455711,-1.7544112593,0.3871257744,-2.8221617876,-7.0610552022,-11.5453480638,-9.0086379255,-24.2148010474,-30.4391980721,-8.5912178693,-31.6262195042,-21.123332149,-23.605401862,-12.2469767541,-56.3562575333,-7.0203458395,-23.7130751486,-22.3444400516,609.579344932,-17.153068076,-23.7940206594,-25.1044988917,653.3208926193,-25.2232058267,-24.2461712241,-9.2464918008,83.4051600677,-19.5147538681,-17.7046513739,-24.6056312426,-20.2644188111,-3.1632948172,-8.8278353373,-8.455597798,-23.5335410808,-4144.8698375643,-749.2179986026,-446.5683307247,-5276.3324576327,-880.5747365044,-3.1718477615,-501.8685808275,-448.6525954872,-1.8854461819,-3452.4154728087,-885.0204018618,-1559.4950074785,-8523.9581106073,-829.5664630035,-502.1688484352,-1286.8740304606,-4496.4908505971,-58.6193125085,-446.7932818853,-2093.9926942946,-368.8770972344,-870.7321442148,-881.0799524315,-446.9937895653,-1744.9773473343,-5241.7304839474,-2361.6437225306,-5503.3195892878,-446.9388720332,3.0612408092,1.3360762103,3.4607118896,3.8528337111,3.7595821093,3.6871633027,2.3873294529,3.6087066963,2.2040978279,3.5982277031,3.0937240168,2.5876973054,2.146138715,5.2666573005,4.4984915306,3.1364190013,3.1917650004,2.1470473167,1.7622611202,3.3516009704,1.6938986568,3.8299051997,3.7403552666,4.2429134108,3.7265466902,1.7554034758,4.3680085075,3.0551259803,6.3314618895,-608.4094841614,0.0099835582,-0.9238628079,-1136.4038096664,-0.0408658678,-144.8733466405,-0.3244307968,-3.21150577,0.6809540469,-1713.3510044327,-0.3771506783,-0.3785517726,1287.3130004631,-1497.0099969374,-1.7302734768,-0.8639516708,-72.039042251,-0.6763456133,0.547557951,-0.0693501053,-3.2302776454,0.3258339202,0.4659469812,-2.058331557,-1.5052443366,-234.5840409621,417.5710691723,9.6131803247,0.3666615734,0.1970879981,-0.8300980639,-3.6876761345,44.929785766,-3.2180515928,-16.5051120282,-1.2841973851,-3.0819655408,-1112.7519260264,-1.9818561911,-0.8535719894,-53.585002471,-250.4123456074,-1.0538987669,-1.5893020685,-0.2363868401,-617.4184195472,-1.1913356727,-1.5337954404,-1.1456999283,-19.7069868822,-1.1130869013,-1.1070732325,-2.4266032086,-0.9308939352,553.4124503642,-1.4451336897,-29.934882156,-2.5529041869,1.3259898434,-1.0600213576,-167.382725602,2273.655719071,-14.0607606953,-283.2856638651,-0.3323599036,-0.5154545772,180.3712017953,-52.3511379084,-2.3760646662,-1.62763045,414.1649521483,-87.5849868522,-3.231010424,-4.0807419892,-42.0470962528,-31.7168409264,-0.654489466,-60.7475282787,-1202.9336618533,-166.5252436345,-10.3293507156,-11.6810801126,-0.3309511156,2352.0326179782,1.366630374,1383.8382912127,-5.0316835404,0.6471124979,-1.2196880161,-0.7759206035,-0.4098893058,0.2521857815,-0.4593940119,0.447398667,0.2610781431,-126.823933833,-1.1510575918,0.1365641747,-0.8418523138,-232.5199560662,0.564328541,-0.3347649076,-1.0442165087,-530.9642380066,-1.3341525661,-1.0900214105,-0.4397928574,-619.2932331039,-1.1607220896,-0.4206017615,0.5401352758,-0.1123253075,-12.9090325744,-0.2784487278,0.5661496104,-0.5759810441,-1.2397061505,-0.0388511516,-0.5349131619,-348.8670639807,0.6218781941,0.2678691636,0.4854614321,-2.0114670784,-1.1538972152,1.1100442157,0.5351406626,-0.079070254,-4431.0143275693,-0.5101741233,0.1834028097,0.0298674876,-1743.3147625673,1.9100461497,0.0171252322,-0.553554443,-1326.1065361062,0.4209790784,0.1920907119,0.0300082473,-0.555191491,-2257.8815761892,0.3608057796,-1060.1340924783,-0.9849432602,-7.1793511071,-51.5561571763,-88.166383182,-1099.8838296148,-44.7792107855,103.5732941675,-36.9285121197,-64.3148915947,-2474.9331038243,-47.8830037946,-51.8849042316,-25.3418108966,2564.7111798508,-690.325273204,-23.8236243866,-44.9035101881,442.3545194114,-640.7150153903,-51.1821242728,-115.4862669892,-280.574186021,-227.472524253,-61.5058734511,-33.6488447801,-51.9508869867,-219.8982504377,-148.7110529186,96.7259789598,-38.4396806236,-0.0931293127,-0.0371416364,-0.0766163499,-0.246653932,-0.0903751849,-0.6069400721,0.7958474664,0.1575444217,-0.2374583234,-0.262034663,0.5792910633,0.3499889487,-0.6868830758,0.0110993593,0.9693164966,0.3051370757,17.8672768723,1.1584553651,-0.2734491898,0.6575360563,0.1054290736,0.0402549154,-0.2798078258,-0.4778318243,-0.3039736548,-0.3392605006,0.1424071064,0.1502442241,-0.366444247,2.8589969416,1.7946712475,3.1276364358,3.2625839953,2.1037453498,4.8291066191,3.3077587835,4.653671475,7.4901678981,8.5503720335,8.4569417746,3.4887739005,6.5489313407,7.3323886724,3.4171929111,2.2173973888,1.3066455858,7.2118520087,3.1588297276,3.4798783691,1.8372820223,2.4127708576,2.2363576358,2.1133462161,3.8492830931,13.8295977946,3.3435675818,3.9963305632,4.4245907535,2.072152122,4.2797802096,5.13092844,5.7552237959,3.5577833356,3.7085605126,3.7438154978,4.3226513331,3.8798632678,4.7444056551,4.9635184719,4.4540437492,0.9347178411,3.242834588,3.7367435781,4.8671711254,-0.8050540255,4.4729760578,4.704893199,3.639270593,1.3225394695,3.7670365287,4.8713502521,4.9719947796,4.9499560499,2.669517921,0.7157174924,5.6520053535,4.3212474279,-0.008009229,-0.5053929049,0.2388358502,36.4700035601,-0.2773249204,-1.0186816114,-1.2912771358,-1.4066080226,-450.1320871014,-0.9743858214,-1.114734356,-1.4152439996,-2571.1204477613,-1.3059853482,0.1367774418,-1.4895608257,-1204.0777607479,-1.3841692123,-1.3021140855,-0.2074517933,-1.9027320951,-1.2614485213,-0.8215217481,-1.4547499935,-0.7382232067,-1334.9825605681,-0.0518157851,76.2979769369,-1.1251484481,123.4122156857,-1.6158099996,-2.842386441,694.5417100488,-17.8937327737,-4.6720945376,-8.459100919,-9.2380588969,-401.2493070539,-434.6981298397,-8.0048092572,-10.0009980486,-4148.272258494,-10.0640169111,-8.8962447248,-4.2984984785,-1167.8689303785,-7.5859462218,-4.3891188062,-23.2251106757,-141.3032436466,-19.2194621021,-64.999958772,-9.5373142876,-1.9070485389,-750.1930295692,-214.7227442826,-79.567880822,-7.9250257406,-0.7837576776,0.1612488739,-0.2752195219,0.2756360502,-0.1434312038,-0.9444633354,-0.9330124295,-0.4533965945,-38.1255434624,0.3984714001,0.3926529714,-1.3340834748,-94.4803988829,-1.2913742738,0.0515151041,0.44357756,942.6137652992,-0.142224463,0.5272016488,0.0363893482,-270.1043951703,0.3971913688,0.0442352865,0.1049038827,-0.3743407969,0.279342945,-0.1723487735,0.1140779044,-1.2723837598
biasActivation=0,1,1
[BASIC:ACTIVATION]
"org.encog.engine.network.activation.ActivationSigmoid"
"org.encog.engine.network.activation.ActivationTANH"
"org.encog.engine.network.activation.ActivationLinear"
