encog,BasicNetwork,java,3.3.0,1,1469372452881
[BASIC]
[BASIC:PARAMS]
[BASIC:NETWORK]
beginTraining=0
connectionLimit=0
contextTargetOffset=0,0,0
contextTargetSize=0,0,0
endTraining=2
hasContext=f
inputCount=28
layerCounts=2,16,29
layerFeedCounts=2,15,28
layerContextCount=0,0,0
layerIndex=0,2,18
output=0,0,0,0,0,0,0,0,0,0,0,0,0,0,0,0,0,1,0,0,0,0,0,0,0,0,0,0,0,0,0,0,0,0,0,0,0,0,0,0,0,0,0,0,0,0,1
outputCount=2
weightIndex=0,32,467
weights=0.2290442528,0.6082153466,-0.6399747242,0.7736522815,0.599361165,0.2408782098,0.4792120911,-0.1607726324,-0.4811983862,0.2101275584,-0.6127767466,-0.1670904768,0.5947779114,0.1005262515,0.0023535792,-0.027050076,-0.2032675085,0.2906725316,0.5911468137,-0.350812146,-0.9107334552,-0.8590201933,-0.461681867,0.2620611468,0.5048844141,-0.2121042804,0.4775278658,0.1782993866,-0.5276890381,-0.6295868795,-0.4949246047,0.0759064887,-2.0685403479,-0.7016066133,-0.3742587585,-1.2727496746,-0.569077224,3.8238856909,0.1275970805,-0.380221609,-0.1745334532,1.6364127293,0.1222172933,-0.7019233063,-0.1258015797,-0.3962723567,0.4361217361,-0.5936717385,-0.2646587155,-0.1540786508,-0.7056539844,-0.4269582459,-0.370280105,-3.3598618582,4.712930096,-0.3298020819,-4.4053980424,20.5366591174,1.0225995928,3.4225833486,0.5238361315,0.7840597325,0.7412089755,-0.059128926,1.4269905188,-0.0417299837,3.0608232434,-0.6073110312,-0.1208895092,-0.5691824571,3.0386841834,-0.1671099234,0.085035559,-0.4031341665,0.4052595884,0.0107717442,0.0483882123,-0.3701306495,-0.9260488934,-0.4039171828,0.040673126,-0.32542488,6.3868674553,-6.2138133508,0.7297801067,-3.4509991024,-5.0240064381,18.0889888574,6.7884459704,0.1419093572,0.0169420062,-0.2726587958,-0.204679245,0.4987820454,-0.2314201463,-0.3281216482,0.2009949169,-0.2068631782,-0.2922526139,-0.0869360411,0.1318870467,-0.2564201636,-0.2138867308,-0.2806393735,0.0772534321,-0.2287821076,-0.2305747008,-0.2171481641,-0.2676568278,-0.1741277478,-0.2423539953,5.919424411,-4.6414851219,-0.2126170169,-1.9365428739,36.0264039316,-1.2812282105,-0.2108229878,-0.668472184,14.1583368359,-0.0382579526,0.0519821206,-3.7760665968,-0.0079069844,0.4249503074,-0.1860170611,0.0127309465,-0.0468297815,1.280540787,0.0412154945,-0.0224959692,-0.0728581099,0.582144641,-0.2367039939,-0.0138050214,-0.0301867885,0.594779,0.1144216821,0.0460884377,0.0286266921,-4.0474081001,-6.6148803189,1.1686590925,-3.3833864885,-1.8669584814,1.8854459347,7.4470405868,1.1937950192,1.6350721641,-0.0189940022,0.0063900253,1.7626787036,0.0511671594,-8.5982018762,0.0754672829,0.0413766706,0.1906303229,4.3073389041,0.0418485769,-0.03102456,0.3626514294,1.1624629685,0.018094853,-0.0368399179,0.312108097,1.9453066189,0.0088222209,-0.0140553342,0.2731153615,-6.2727933611,0.4007162638,0.2138697214,-1.4672573776,1.9731400234,0.5995833012,-11.1441455775,-0.461538727,0.7073346517,-0.0160968761,0.0514900106,0.4824552802,-0.0053895921,-2.4572649138,-0.1982487924,0.042389471,-0.3207430201,0.7003446285,-0.046981866,0.0119289511,0.0225626809,0.2063308928,0.1269823783,0.0109543304,0.1102284655,0.2764684611,-0.0104494662,0.032928656,0.1403190865,39.0040643842,-65.1097854929,-1.428872818,1.6251321753,0.084706444,2.4286446506,-2.9759127587,-0.06622733,-2.5073369437,-0.0654717529,-0.1318390325,-1.5027576101,-0.1732337414,-1.8163964103,-0.0266203421,-0.1840317358,-0.2850743715,-0.9587640754,-0.0042452329,-0.164728478,-0.2565470643,-1.5633939682,0.0011465504,-0.1452431424,-0.1806156891,-1.660249897,-0.0953978466,-0.0946245869,-0.089188593,9.5669683718,-11.2110836646,3.7448474215,-8.6883201552,83.1259231217,-3.2064402236,3.2600246527,-1.7812638077,5.2609075679,-0.030309786,-0.2401739038,3.8716580883,-0.0088914938,-2.2203636836,-0.0701876242,-0.2394575592,-0.21949687,-0.2482726141,-0.4592351835,-0.3626965986,0.0993970711,-0.00178252,0.068514289,-0.3672251747,0.2753322506,0.7305702233,-0.147095319,-0.3534666045,0.3864492649,-21.34929698,-27.539350764,-2.4797774497,-5.3302229366,16.34221337,-0.7401216059,7.2995963075,0.6679513788,-2.6231079716,0.1417745183,-0.0737507502,-2.2671083264,-0.1516404543,-0.7614895792,-0.5237249486,-0.1673196299,-0.4604024379,4.5537949249,-0.2090843893,-0.0289735913,-0.0849289711,1.5682640222,0.1294284058,-0.0077621423,-0.1060285598,1.3521987157,0.0225212662,-0.0235783225,-0.1924530215,-8.9410892685,15.9730939653,-0.2864701323,0.859714751,-0.9417141296,-1.0942060446,16.1742687759,-0.1703901808,2.4556335069,-0.144054115,-0.1683330781,-0.1661132926,-0.0986825607,-1.2693971062,-0.1490535706,-0.2104718003,-0.0442012802,-1.1516374864,-0.3287655393,-0.2254139686,-0.1296369275,-0.6160810994,0.0671990354,-0.0985711437,-0.221064064,0.1386850407,0.0427295589,-0.1915878147,-0.3236242203,1.4252404901,7.7556995502,-12.8848412343,63.3818406162,-3.9800631161,-2.1241527201,-1.2604245124,-2.1151878655,0.6978737987,-0.0663357032,0.1175191781,0.5676056914,0.1602560384,-4.7100670331,0.4652638323,0.0145780997,-0.0886724032,0.817649349,-0.5166988463,0.1086641094,-0.0952996095,-1.1012646777,-0.0450435554,0.0700267212,-0.0762593774,-1.7211730965,0.2534275702,0.0228673286,0.0074717808,3.8826111689,-14.0499696659,-1.6873828054,5.7374890396,0.7133674002,2.7927845432,11.7093412517,-0.0792406917,7.1266279448,0.0767467506,0.1208383056,2.8728449912,-0.1808182662,-6.5095085453,-1.3262397451,0.3028594388,0.5559118775,-1.9260993446,0.858067011,-0.0843841849,0.3935409052,-1.08542069,0.120061414,0.1000524683,0.3079173758,-0.373734736,-0.2133600242,0.2087731218,0.261143722,5.0928589002,-1.2316021874,-3.2210248231,1.4385115489,0.7437901103,-3.9614107946,4.3727499913,-0.1839164801,-1.0327666751,-0.686251111,0.1632710881,-0.7897183973,0.0963474895,0.8695199831,0.5133164044,0.0343439791,-0.309465091,0.5843118252,-0.5080163068,0.0634305149,-0.3440975192,-0.338482877,0.0522829155,0.1194186547,-0.300043029,-0.6433393112,0.7730678426,0.009404298,-0.2375556115,7.395039914,-8.9180652006,-0.8832942139,-3.7781681982,-6.9705246626,25.025267636,9.1465506987,-0.070501284,0.2005243818,0.5225630215,-0.2232396244,-2.0302223564,-0.2217912079,10.2286496911,-0.6498775875,-0.2369363905,-0.5791023081,3.9942980454,0.0610553751,-0.1117035301,-0.4813869901,1.6756412314,0.043645562,-0.1420250924,-0.4783281388,0.323051572,-0.5117418812,-0.0821743531,-0.4616411553,4.6355438878,-2.1715574962,-0.1132954423,-5.461701441,-18.1068716492,41.1858737984,3.484762782,-0.0685907374,2.8530178918,0.637309829,0.0119725205,2.9996782652,0.0203652,0.461925531,-0.6980614202,-0.0785726948,-0.5457672466,-1.5417012484,-0.2999513415,0.1395344206,-0.4171487237,-0.7412603894,-0.0617792217,0.133944172,-0.2739342522,-1.6914381554,-0.2401028736,0.070660442,-0.2203336626,-1.2242775894,-0.6753851445,-0.1131186753,-2.166593733,8.0710043796,-0.831892605,9.9819025651,0.5031089695
biasActivation=0,1,1
[BASIC:ACTIVATION]
"org.encog.engine.network.activation.ActivationTANH"
"org.encog.engine.network.activation.ActivationTANH"
"org.encog.engine.network.activation.ActivationLinear"
