encog,BasicNetwork,java,3.3.0,1,1469371431363
[BASIC]
[BASIC:PARAMS]
[BASIC:NETWORK]
beginTraining=0
connectionLimit=0
contextTargetOffset=0,0,0
contextTargetSize=0,0,0
endTraining=2
hasContext=f
inputCount=28
layerCounts=2,16,29
layerFeedCounts=2,15,28
layerContextCount=0,0,0
layerIndex=0,2,18
output=0,0,0,0,0,0,0,0,0,0,0,0,0,0,0,0,0,1,0,0,0,0,0,0,0,0,0,0,0,0,0,0,0,0,0,0,0,0,0,0,0,0,0,0,0,0,1
outputCount=2
weightIndex=0,32,467
weights=0.2594621026,0.6085803036,-0.4326327413,0.7741121291,0.2179578242,-0.049709819,0.2702925991,-0.1485447187,-0.0509642185,0.1075106002,-0.9253689109,-0.2184626979,0.5963167423,-0.0253108391,-0.3450440054,-0.1707827799,-0.4203915983,0.2850439266,0.7233013222,-0.3266372435,-0.9216146853,-0.857077806,-0.3322061693,0.1038924356,0.4048617272,-0.0998425274,0.3722249732,0.2529603744,-0.5308368669,-0.6288792531,-0.496272347,0.0735386949,-0.0255157177,-0.9839443814,-0.0125334883,-0.4554484555,-0.7042320648,-0.7048066995,0.1262479802,0.3927443025,0.3356932474,0.8517360689,0.1350630126,-0.9788701309,0.6522186482,-1.0070718162,0.6005506485,-0.5972402764,0.1266191113,-0.2946768717,-0.8762121601,-0.1343767125,-0.2475817907,-0.6734149946,-0.8775985753,-0.3314066215,-0.6209359031,5.7689247276,1.2179459567,-1.1971354715,0.524676277,1.8664884987,1.0278809456,-0.0978139799,1.5072846649,-0.094190638,0.7308977648,-0.489796656,-0.2660493148,-0.4278367176,3.912391854,-0.1974420415,0.3113740356,-0.4843740785,0.1640288685,0.2071945121,0.0350809052,-0.4204323751,-0.6984771957,-0.4167034649,-0.0622490532,-0.2780261479,-0.1004541243,0.0562659782,0.8034198982,-0.2637747352,0.6441362344,18.9208625084,0.8742427008,0.1409940121,-0.5128230093,-1.0094080593,-0.5216637192,0.3300909188,-0.3467495971,-1.1293266175,0.6936524855,-0.1865133813,0.100172969,-0.1390561418,0.6933083149,-0.7371065753,0.0972492692,-0.3227100869,0.3954784343,-0.6447416256,-0.0267161118,-0.9405400134,-0.271917557,-0.5343627848,-0.0913328555,-0.2101119739,-4.2267748134,-0.2106193749,-2.1228797482,26.1101898339,0.5501862806,-0.7151094829,-0.667905359,13.0316982168,0.1907968438,-0.1481877807,-0.2964135901,0.6371802268,2.6924643721,-0.4977267629,-0.1425702299,-0.4248103657,1.8389390427,0.0415500184,-0.3972229578,-0.5666706623,0.5265456053,-0.2447402203,-0.2893808134,-0.2645222092,0.5968949613,0.4297118015,-0.1273913795,-0.1208733545,0.8120588573,0.4361360103,0.2963680361,1.1381022464,-1.8569601574,5.8589841196,0.1367523207,1.3707397266,-5.1168853146,-0.735690566,-1.3009569294,-2.3195564159,-0.2652083209,-5.8649740074,0.7541754061,0.0407762889,0.3284419166,0.6961244028,-0.0685239915,-1.0922528476,0.6781475034,2.1023789376,-0.3318586438,-0.9777962854,0.373904124,1.6539358741,-0.6450733506,-0.7016885954,0.1503949454,-9.0486832245,0.1126140863,0.2046168954,-0.4358340042,2.981447,0.7690409737,0.389140357,-0.4646552287,-1.1769084154,-0.2755461869,0.4147389985,-1.9975536738,0.279150939,-5.9156957535,-0.4469899249,-0.0620705779,-34.9096687662,-1.9169647226,-0.6128280209,-0.2605580079,-0.1768856756,0.5578713633,-0.8561798928,0.3625462659,0.4299346078,0.6357120545,-1.0889396717,0.6115153981,0.2936599714,-1.2498449538,0.5166885401,0.2513531283,-1.0518307367,0.2030610074,0.6524174654,-17.4609339002,-0.1255282078,-4.8454943711,0.2858780934,0.059390474,-4.4293107575,-0.2818680003,0.8536693285,-0.3285714818,-0.0147858323,0.443063029,1.2157467834,0.2460415423,-0.2544157394,0.1082794165,0.9924494677,-0.3374407189,-0.0086606788,0.1293347204,0.2310624635,-0.0114813887,0.1668761713,-0.0693308134,0.8321981326,3.3680545775,3.4590830221,-0.380954583,27.6317884119,0.5172724381,-13.2135744274,0.224497461,3.0524735065,-0.0326327331,-0.2448133561,0.918418967,0.0335810327,-0.3648408945,-0.2087833231,0.6579675213,-0.1329232958,0.0927379815,-0.7769978583,-0.6630029963,0.6319359804,0.0862950709,0.1993517969,-1.0474969003,-0.2022357517,-1.523926737,-0.1293550638,-0.7804136384,0.1206059514,-0.7670512877,-9.8023350304,-1.2172153424,-1.1729744748,13.6811835726,-0.9956322392,0.7523311179,0.7534059171,-2.5873497239,0.570320397,-0.001232979,-2.2697599177,-0.1448893212,-2.1838228164,-0.6266717741,0.1601457135,-0.4560438329,7.9270028368,-0.2315890666,0.4031812368,0.13041494,3.4951871599,0.3252554663,0.2003701424,0.0271149339,4.7408669329,0.0257461135,0.023880939,0.0317559313,0.2584918067,0.1638885874,-0.2834806243,-0.3125447776,-0.571566499,-1.1007103701,12.6329258777,-0.1707904599,-0.9952500644,-0.5820356107,0.7021198223,-0.2146597545,0.7941251086,0.7494290091,-0.8991883116,0.8192456624,-0.2176646075,0.4894912727,-0.2761705541,0.7692781421,0.4454001719,-0.6274131458,0.448756001,-0.0495109551,-0.4032096549,0.7294288317,0.4358328883,-0.376420102,-0.1169884622,0.580532847,-0.5055191126,-0.9525586288,7.1063724121,-2.3125566678,3.8258500656,-1.2591294215,-1.0272047731,0.3327420187,-0.0055838269,0.253268074,0.5632992662,0.3999610614,-5.7392815552,0.5736618407,-0.0053935442,-0.1422461884,0.8326452048,-0.6829830757,0.5088265471,0.0971298176,-0.5051589317,-0.0195048394,0.3967075921,-0.0150064743,-0.3879934774,0.4285821538,0.1169531235,0.0241227917,4.1752584948,-5.3779269662,-0.5498163911,0.4459397496,0.8148531692,-0.1438522146,11.1395554007,-0.0789868898,0.7710507621,0.0380716772,0.828381447,1.1363531949,-0.2174859739,-1.2492553177,-1.3046065162,0.4036191072,0.2824827542,-1.9232116206,0.2060205152,-0.116774861,0.139047426,-1.0008723026,0.0845015221,0.4273995283,0.1403593423,-0.3593582719,-0.2189593374,0.3942460695,-0.16857565,-0.5677505136,-1.2079224319,0.5326422998,-1.7004605361,0.9213013369,-4.9285419917,4.0453902052,-0.1843572258,-0.14307293,-0.7281206025,0.3631227441,-0.6823201815,0.3394083316,0.5173319269,0.9505181083,0.0218812948,-0.5815773884,-0.4022492788,-0.742783827,0.4434730237,-0.4242292121,-0.3306345656,0.0422977366,0.5484655659,-0.3722084245,-0.1493142634,1.1465893035,-0.1453427185,-0.1957090432,-0.2817708701,-8.9271494178,-0.8840385023,0.255550349,-1.3070061827,24.9135247989,0.031316866,-0.0170477849,0.9418176929,0.4094345128,-0.6533129631,-0.5011953299,-0.542213739,3.5210689678,-0.6467366968,-0.5779970939,-0.6126160522,7.9429778169,0.5054511385,-0.112236577,-0.7390228908,1.6494774466,0.2411395587,-0.2802198838,-0.5504460462,0.1858834979,-0.4033770591,-0.2496495385,-0.4040192929,0.2883567996,-0.5639875362,-0.1140103599,-0.4304070013,-0.6021366278,34.5837093968,-5.5848734986,0.7589232242,0.5293952938,0.9095772697,0.1069444486,0.6444799903,0.6481637877,-2.6047091754,-0.072201092,-0.3429281932,-0.623060372,-3.0728290667,-0.1482042415,0.7130548692,-0.5999919335,-0.0243161843,0.0083218767,0.3094763598,-0.1343519348,0.5400723609,0.5594731136,-0.4985081135,0.1518787684,0.3923586695,-0.666416309,-0.1114787231,-0.3929528157,22.3095122523,-0.2990501314,0.6431333495,0.5217387964
biasActivation=0,1,1
[BASIC:ACTIVATION]
"org.encog.engine.network.activation.ActivationTANH"
"org.encog.engine.network.activation.ActivationTANH"
"org.encog.engine.network.activation.ActivationLinear"
