encog,BasicNetwork,java,3.3.0,1,1469372796423
[BASIC]
[BASIC:PARAMS]
[BASIC:NETWORK]
beginTraining=0
connectionLimit=0
contextTargetOffset=0,0,0
contextTargetSize=0,0,0
endTraining=2
hasContext=f
inputCount=28
layerCounts=2,16,29
layerFeedCounts=2,15,28
layerContextCount=0,0,0
layerIndex=0,2,18
output=0,0,0,0,0,0,0,0,0,0,0,0,0,0,0,0,0,1,0,0,0,0,0,0,0,0,0,0,0,0,0,0,0,0,0,0,0,0,0,0,0,0,0,0,0,0,1
outputCount=2
weightIndex=0,32,467
weights=0.2639146862,0.6083065213,-0.6710845927,0.7736509679,0.6359033647,0.7118524859,0.4921518501,-0.1771313857,-0.4632304095,0.2135352005,-0.6116622247,-0.1685896027,0.5948556724,0.1672547611,0.208836994,0.1689467093,-0.2129379178,0.350128636,0.6022123158,-0.4004264469,-0.9102944225,-0.8184374517,-0.4657174472,0.2815846379,0.5012319917,-0.2188705091,0.4825612908,0.1600697941,-0.5220909061,-0.6278225956,-0.4894899335,0.1168799197,-2.0746850084,-0.6929229484,-0.3743639394,-1.2757784793,-0.5436940763,3.8376065499,0.1281933174,-0.3877904318,-0.1725710205,1.7277277931,0.1229848,-0.6307996395,-0.2149922903,0.3291434492,0.431199514,-0.5061711516,-0.2856978571,-0.0656331811,-0.6444135228,-0.4244932122,-0.3656449349,-4.105384435,4.7139237753,-0.3293603963,-4.4056112139,20.5389591027,1.0227346799,3.2990510222,0.5229869224,0.5188300363,0.6795885926,-0.0572474299,1.2053524931,-0.015490453,2.8039395503,-0.5082530136,-0.0745388778,-0.4229073589,3.033990089,-0.0775635967,0.0853424591,-0.3189512461,0.5527025305,-0.024805474,0.0485660356,-0.3093859236,-0.4205485783,-0.3992456229,0.0422208334,-0.2805317238,5.1782720892,-0.8319084993,0.7295572745,-2.5574341225,-5.0359863216,13.3352266674,6.7917178546,0.1431984598,0.0050563818,-0.2391946089,-0.2024261544,0.49842363,-0.2305101535,-0.2888616341,0.1225526859,-0.2063565529,-0.3144010861,-0.0542882426,0.075665482,-0.2532800466,-0.2533026331,-0.2803666324,0.0773902203,-0.2149777014,-0.2550245117,-0.2160559688,-0.2656695465,-0.1721436231,-0.2654645324,6.1170704511,-4.6417238951,-0.213010122,-1.9382624518,38.1211972856,-1.8067897534,-0.1370727924,-0.66822327,14.1383398551,0.0042291022,0.0489008323,-3.3141693068,-0.0098426881,0.2355136775,-0.1857322553,0.0139076288,-0.0251927265,1.273611305,0.0410849431,-0.0226473322,-0.036660957,0.5806746794,-0.2340440579,-0.0138382757,-0.0146708408,0.5950604231,0.1112075806,0.0448349271,0.0321048135,-3.8254873064,-6.6155364104,1.1757603697,-3.1582711694,-2.5338123187,1.8219469721,7.4429097997,1.0364990529,1.5734204588,-0.0189597702,0.0112406321,1.7657458401,0.0521263385,-7.9448583984,0.1214007073,0.0427976828,0.2071694196,4.0700865244,0.0505455527,-0.0151590521,0.3581356695,1.1621328859,0.0184248498,-0.0268597968,0.2778517488,1.7318759479,0.0253056021,-0.0034874661,0.2544322298,-6.2813710412,4.5035473659,0.2183964982,-1.4774375155,1.9745022169,0.5993514464,-13.3387538558,-0.4614077426,0.6340765513,-0.0155518081,0.0502906929,0.4836582393,-0.0039349474,-2.9737734694,-0.1830522436,0.0421702612,-0.0099535142,0.6980066205,0.1040573319,0.0111981764,0.1266971018,0.2068682375,0.1287711779,0.0134351847,0.2179154148,0.7850671489,0.0245067821,0.0305625549,0.2242332278,35.4953232021,-63.6590648947,-1.4279339461,1.6544703965,1.0010497628,-2.4412274098,-1.6344524615,0.3678287818,-2.5042232575,-0.0706082294,-0.1284862969,-1.4619134428,-0.1467381301,-1.8159942311,-0.0152838423,-0.1736892553,-0.2648995151,-1.0465319198,0.0032435988,-0.1594796273,-0.2426125335,-1.4722616511,0.0015522698,-0.1456580124,-0.1805961671,-1.4615240302,-0.0961254434,-0.0957040344,-0.0896910556,10.0397413622,-11.0133405486,3.8685843651,-8.6683736033,83.1250301608,-3.4017216273,3.2627113075,-1.910316385,4.821347029,-0.0299062387,-0.108463082,3.8004214757,-0.0089120333,-2.7096587799,0.0529081734,-0.139118496,-0.0199038522,-0.0114237839,-0.1348922153,-0.2362301191,0.1964647361,-0.0025187295,0.0687449526,-0.2142867437,0.4064101737,0.3861114305,-0.1450840873,-0.20061506,0.5132969925,-9.3949887337,-46.8289284097,-2.4793423748,-5.3719839083,16.3414963284,-0.741294404,7.3203493869,0.6678823913,-2.6205956175,0.1415824078,-0.0737621952,-2.2681647001,-0.1516241674,-0.7559967536,-0.5193423007,-0.1452104229,-0.4630404146,4.5626265575,-0.1879604509,-0.0298313456,-0.1192028373,1.4582147209,0.1293514366,-0.0094956101,-0.1062405298,1.0286649567,0.0221811059,-0.0248600768,-0.1475906463,-8.9300863928,14.6862158219,-0.2854824672,0.8604153792,-0.9424567533,-1.09341204,16.1752270856,-0.1701695481,2.4552885777,-0.1407756416,-0.1668066704,0.0860346568,-0.0994916837,-1.2652566306,-0.1458119962,-0.194647393,-0.0195443732,-1.1501835451,-0.2394116509,-0.1910045457,-0.0926812953,-0.6134243474,0.0660455098,-0.0986033215,-0.1625190462,0.139048671,0.0421125678,-0.1824501189,-0.2656935095,1.1683870013,7.7693362847,-13.0117071107,63.3854584762,-3.9785900343,-2.1618487312,-1.2608375046,-2.2603319146,0.6590545837,-0.0666759248,0.0874276766,0.5405375755,0.1453259251,-4.7030691824,0.4437372365,0.0144367864,-0.0965298799,0.8199319206,-0.5043467472,0.0769592511,-0.0932814324,-0.7128554409,-0.0451849109,0.0581501016,-0.0757682691,-1.2901280265,0.2318047336,0.0209960585,0.0058385282,3.7487429069,-14.4295013975,-1.948667708,5.7380147048,0.7150328043,3.4182185075,11.7125444672,-0.0790303242,10.3595137233,0.0770988946,0.0991315718,4.0287324771,-0.1714682562,-6.5219911547,-1.3261443851,0.2166597063,0.5423676156,-1.9224801815,0.8581003601,-0.0746230074,0.395146534,-1.0856047039,0.1489620746,0.0981591363,0.308875654,-0.3745289837,-0.2128852005,0.1328722427,0.2624624056,5.0927032898,-1.2317550945,-4.2634080458,1.4386979729,-0.2682245863,-3.9634301553,4.3716895065,-0.1820530765,-1.2383158749,-0.6805976154,0.1423503056,-0.7924795811,0.0783363146,1.1080510623,0.5127450518,0.0329915974,-0.2995104094,0.5830345743,-0.4764270172,0.0306304192,-0.3440473742,-0.3238364009,0.053239132,0.109122224,-0.2915739614,-0.6428971124,0.7005642929,0.0083870979,-0.2288412738,4.0678472263,-8.9020375939,-0.8824495813,-3.4874230104,-7.374679029,25.0280089438,10.5237142729,-0.1852156604,-0.0275279345,0.5127144158,-0.2217701288,-2.4055070616,-0.2196673546,10.2515461145,-0.64967991,-0.2355124078,-0.54844898,3.8462075347,0.0608864144,-0.1179422663,-0.4674169195,1.6769707834,0.0407740411,-0.1414804074,-0.4572464346,0.3489702476,-0.5098624586,-0.0815747206,-0.4387568953,4.3895798154,0.5135607267,-0.1127072571,-5.4998994862,-18.1075667517,41.1860603757,5.1358101021,-0.2562020628,2.8519281909,0.6135568063,0.0119367257,2.9916930013,0.0200641444,1.1762870868,-0.518006256,-0.0554482056,-0.5455419461,-1.5412284141,-0.3188944831,0.1162447732,-0.3982767665,-0.7367286273,-0.1201544748,0.1258893633,-0.2239591942,-1.2064440559,-0.2397476326,0.0568721198,-0.172046811,-2.5432751186,-0.4875595492,-0.1137124884,-2.1644914302,9.0804802671,-1.2083536001,9.9830982372,0.1601671609
biasActivation=0,1,1
[BASIC:ACTIVATION]
"org.encog.engine.network.activation.ActivationTANH"
"org.encog.engine.network.activation.ActivationTANH"
"org.encog.engine.network.activation.ActivationLinear"
