encog,BasicNetwork,java,3.3.0,1,1469372933852
[BASIC]
[BASIC:PARAMS]
[BASIC:NETWORK]
beginTraining=0
connectionLimit=0
contextTargetOffset=0,0,0
contextTargetSize=0,0,0
endTraining=2
hasContext=f
inputCount=28
layerCounts=2,16,29
layerFeedCounts=2,15,28
layerContextCount=0,0,0
layerIndex=0,2,18
output=0,0,0,0,0,0,0,0,0,0,0,0,0,0,0,0,0,1,0,0,0,0,0,0,0,0,0,0,0,0,0,0,0,0,0,0,0,0,0,0,0,0,0,0,0,0,1
outputCount=2
weightIndex=0,32,467
weights=0.2743779751,0.60842628,-0.6786391223,0.7734905887,0.6897405682,0.7167904148,0.4965825874,-0.1829248216,-0.4631185127,0.2113353724,-0.6325378864,-0.1698105329,0.5947837165,0.2000117062,0.2592237604,0.1693333461,-0.217880168,0.3725951463,0.6087385332,-0.4376309087,-0.910258556,-0.7462491642,-0.4704193862,0.2870077955,0.5010517679,-0.2161939682,0.474309969,0.1595074651,-0.505292694,-0.6233380882,-0.489093831,0.1875424167,-2.2712617873,-0.6742133719,-0.3742771017,-1.2766516285,-0.5316313609,4.0419963705,0.1281043789,-0.4060514484,-0.1732808299,1.7678308535,0.1230654475,-0.6122937285,-0.2445856378,0.3292261836,0.4275135761,-0.4816643262,-0.3065242303,-0.0652903339,-0.5945196213,-0.4240988923,-0.3656866918,-4.1055410554,4.7138604111,-0.3292901533,-4.4058020215,20.5393152289,1.0228536028,3.0767685829,0.5222108364,0.1740345325,0.6202595354,-0.0449562545,0.9900363906,0.0052194406,2.7971618968,-0.4155303581,-0.0600046496,-0.3574166607,2.3485539541,-0.0775964754,0.0851769291,-0.2834130609,0.4144069909,-0.0454641473,0.0483230838,-0.2897492989,-0.4206045792,-0.3487110003,0.0432646193,-0.2608411167,3.6331077014,1.3443725793,0.7293554976,-1.4248893927,-5.0374395632,10.8444846788,6.7916738489,0.1439597344,-0.0756487328,-0.238246055,-0.1954969684,0.4984687438,-0.2295698433,-0.2881351704,0.1215944222,-0.2059697097,-0.3170739266,-0.054163469,0.0682170729,-0.2481750089,-0.2714853353,-0.2797693466,0.0773875341,-0.2075166746,-0.2639966479,-0.2156208855,-0.2590793389,-0.1717894837,-0.2701517017,6.2584873568,-4.641365003,-0.2130824895,-1.9394673956,38.4990038543,-2.0255433254,0.0184801405,-0.6682106506,12.6478834042,0.0042517584,0.0483266434,-3.3042120839,-0.0099262102,0.2353419022,-0.1854638033,0.0156120006,-0.0204908361,1.0987945802,0.0413178236,-0.0223353381,-0.019946571,0.5808225199,-0.1719810068,-0.0135483617,-0.0110975894,0.5954307485,0.1110557478,0.0447164623,0.0326915415,-3.2497151034,-6.6155514621,1.1783677767,-2.7689096375,-2.5347060257,1.3022384089,7.4433948363,0.9342032105,1.4454871588,-0.0188018531,0.012770883,1.766156286,0.0525047214,-7.9446622063,0.1243695023,0.0437903059,0.2075766276,4.0679711484,0.0684703334,-0.0010773115,0.3575206372,1.1621001626,0.0186144703,-0.0187545608,0.2774769237,1.7292271342,0.0256185349,-0.0023847309,0.2537013862,-6.2814618715,4.5936022695,0.2186663056,-1.4778437868,1.9751659258,0.5992507007,-13.5253374402,-0.4612412624,0.6341116025,-0.0153375245,0.0499956051,0.484063042,-0.0029863038,-2.9728376601,-0.1483657511,0.0419371954,0.0112058485,0.6981299407,0.1041798566,0.0090739021,0.1167949394,0.2071757928,0.1286960032,0.0171190931,0.212014167,0.5870279958,0.0247196225,0.0304221127,0.2224051864,33.5685125825,-62.8730429159,-1.4278493138,2.1712751537,1.0010518486,-3.9893030235,-1.6302718337,0.5775891215,-2.4941527276,-0.0711775795,-0.1267327326,-1.4454183783,-0.1458332378,-1.8158615064,-0.0143554541,-0.1689021959,-0.2648845586,-1.0473620369,0.0035080186,-0.1578803877,-0.2425744259,-1.4730613828,0.0017142285,-0.1457748607,-0.1826149503,-1.4611809523,-0.0961286296,-0.0958902557,-0.0902148564,10.0411759445,-11.0124264069,3.8690010933,-8.5206781881,83.1248217504,-3.4337922525,3.2625816217,-1.9348218197,4.5894707789,-0.0299703736,-0.1048977803,3.5437599944,-0.0088011223,-2.7751728942,0.055286857,-0.1185824178,0.0139304771,-0.0278816554,-0.1126002423,-0.1979518626,0.221518431,-0.0035406354,0.0687654311,-0.189114378,0.4223767692,0.2727095742,-0.1423926287,-0.1906977882,0.5494661427,-9.3943086469,-46.9484429138,-2.4791560941,-5.770595816,16.3412635921,-0.7418498237,7.3214885046,0.6678179437,-2.4340719788,0.1413026888,-0.0737609523,-2.2680319031,-0.1515993905,-0.7556170547,-0.5187379121,-0.1329439585,-0.4649199356,4.6044062113,-0.1737556571,-0.0300329016,-0.1195487313,1.4580111207,0.1291819699,-0.0097412436,-0.1058083971,1.0284238392,0.0220211008,-0.0249931481,-0.1419692899,-6.1043286225,10.4905274116,-0.2849865549,1.3518358733,-0.9430715569,-1.092973095,16.1835345902,-0.1701595663,2.4555689786,-0.1229733347,-0.162237771,0.0884862664,-0.0996170873,-1.2641573401,-0.1123470967,-0.1640526927,-0.0031495383,-1.1484806166,-0.2376577512,-0.1721482872,-0.0799961981,-0.5603316503,0.0658373203,-0.0984666361,-0.1608551135,0.1720764001,0.0419760177,-0.1808239237,-0.2630279364,1.1466296723,8.5884181913,-13.6682338146,63.3862495569,-3.9781391089,-2.2269182479,-1.2686504994,-2.2621717281,0.6578960004,-0.0669009212,0.0860554891,0.5401708283,0.144752645,-4.7030192517,0.4433525818,0.0143770506,-0.0966875715,0.8198872797,-0.5007377253,0.0747780747,-0.0910533936,-0.6967603606,-0.0453218388,0.0577023577,-0.0750116069,-1.1859974978,0.2244674033,0.0208155673,0.0053822543,2.9950361924,-14.455711824,-1.9499923423,5.738488433,0.7157569738,4.0141325345,11.713853772,-0.0790087059,11.534792948,0.0774140054,0.0877177544,4.0311284231,-0.1634577244,-6.5903977329,-1.3258584153,0.1913924158,0.5416871384,-1.9222450311,0.8579641807,-0.0655699202,0.3961723919,-1.0860727659,0.1517321209,0.0941985963,0.3086822977,-0.3839242314,-0.2120410197,0.1176831082,0.2603295974,5.0921160487,-1.2283343431,-4.4180688185,1.4381624021,-0.6006830395,-4.3177633602,4.3708487013,-0.1784401163,-1.2390124827,-0.6794316443,0.1385802943,-0.8598066066,0.0655286052,1.1082374253,0.5126154121,0.0328896876,-0.298917618,0.5828714808,-0.4717693211,0.0297064888,-0.3438916426,-0.323295629,0.0534385237,0.1080492766,-0.2913780325,-0.6429571931,0.6572058596,0.008230378,-0.228452664,4.0096077087,-8.844124805,-0.8823829936,-2.9075116486,-7.3752246434,25.0282736873,11.6569784872,-0.3298300479,-0.0277882139,0.5128265157,-0.2208018953,-2.5030243331,-0.203385107,10.2513680351,-0.6495603835,-0.2219602148,-0.5471493513,3.6203812825,0.0611169724,-0.1180213083,-0.4574474738,1.677242045,0.0404880573,-0.1412489909,-0.4516080457,0.3491103615,-0.5087450346,-0.0814142454,-0.4225161399,4.3851747163,0.5142257784,-0.1125123495,-5.5101264964,-18.1083159783,41.1859000495,5.1365795003,-0.2567630265,2.8518818256,0.6130475993,0.0110892923,2.9915634302,0.0198542265,1.4133268786,-0.5178425119,-0.0545769204,-0.5470265592,-1.5405102814,-0.3190194476,0.110857035,-0.3979505969,-0.7358851178,-0.1377820315,0.1249462611,-0.2226755085,-0.9527155143,-0.2397403916,0.0566029893,-0.1718734301,-2.5433546324,-0.4876763965,-0.1140927906,-2.1588550695,9.1186240653,-1.2100123177,9.9832650708,0.1160932431
biasActivation=0,1,1
[BASIC:ACTIVATION]
"org.encog.engine.network.activation.ActivationTANH"
"org.encog.engine.network.activation.ActivationTANH"
"org.encog.engine.network.activation.ActivationLinear"
