encog,BasicNetwork,java,3.3.0,1,1469371568394
[BASIC]
[BASIC:PARAMS]
[BASIC:NETWORK]
beginTraining=0
connectionLimit=0
contextTargetOffset=0,0,0
contextTargetSize=0,0,0
endTraining=2
hasContext=f
inputCount=28
layerCounts=2,16,29
layerFeedCounts=2,15,28
layerContextCount=0,0,0
layerIndex=0,2,18
output=0,0,0,0,0,0,0,0,0,0,0,0,0,0,0,0,0,1,0,0,0,0,0,0,0,0,0,0,0,0,0,0,0,0,0,0,0,0,0,0,0,0,0,0,0,0,1
outputCount=2
weightIndex=0,32,467
weights=0.1243812175,0.6078986602,-0.4341633394,0.7735574743,0.2184829046,-0.0490008825,0.2960071266,-0.1821650004,-0.2565000161,0.1049256121,-0.7684108795,-0.1579160966,0.595427337,-0.0289230019,-0.3448185473,-0.1712337741,-0.1198725975,0.2848783371,0.4361333214,-0.3266257665,-0.921708844,-0.8571783647,-0.2941935428,0.2024508444,0.3992325608,-0.0921732411,0.3723283216,0.1495252283,-0.5307564421,-0.6289547925,-0.4962858713,0.0736466536,-0.0344548668,-0.9839444464,-0.0134215473,-1.2232584173,-0.5711577478,-0.7051306022,0.1261417092,0.392529398,0.3108787327,0.9328462951,0.1353613121,-0.9790661856,0.651210123,-0.5202254386,0.6005567847,-0.5973628209,0.1521232692,-0.1639438592,-0.8640079722,-0.1358377056,-0.1559145668,-0.6767535606,-0.8700908073,-0.3314314748,-0.6210162646,10.3937567295,1.2172229072,-1.1971988531,0.5242979347,1.8484402784,0.6518623766,-0.1757847678,1.9654494271,-0.1024520446,0.6870347064,-0.4893749344,-0.2665562783,-0.6114626624,4.2307486639,-0.1919722051,0.1719259662,-0.4747887864,0.1765734344,0.1374388371,0.0350494327,-0.3833754827,-1.0964625396,-0.4167648419,-0.0622704842,-0.2500916782,6.2678351279,-3.705706548,0.8031876301,-2.0321925827,-1.4378067033,19.8905358666,1.0843795438,0.1407687137,0.0803558937,-0.680330741,-0.3169296874,0.2348010506,-0.3177435182,-1.1292685611,0.3404760307,-0.2214514695,-0.154644576,-2.2210262369,0.501927805,-0.3446088604,-0.0294824868,-1.015221347,0.120351011,-0.298476332,-0.0278884186,-0.9381330681,-0.2722809317,-0.2481700875,-0.0814287515,-0.1263059571,-4.6341726557,-0.210777905,-2.2442085004,33.8186846515,0.5503624225,-0.7143695205,-0.6679313029,16.3437329475,0.1344746681,0.069725001,-3.8805585318,-0.0016358522,2.6390939432,-0.459320399,-0.0556520148,-0.248744413,1.2540575495,0.0416765547,-0.330432203,-0.1876498462,0.5798437684,-0.2446490009,-0.026368952,-0.0997921864,0.5945203033,0.4286345232,0.1595284562,-0.0268954134,0.6420800558,0.4237989879,0.2967048361,-1.5040827636,-1.8594810857,5.7799501794,0.1652571068,1.3706898588,0.9328228134,-0.2263185357,-0.5175120488,1.1127144554,-0.5110076588,-13.2473238857,0.5860106915,-0.0372802514,0.2116785756,5.5525160991,-0.0653678661,-1.0903898762,0.6244844264,3.2032069759,-0.3305269893,-0.9759202656,0.5344608619,2.0855479427,-0.645151745,-0.6195535048,0.3554113975,-9.0381668513,0.1248108179,0.2047518328,0.5281523703,2.729463167,0.5978177289,-5.3988310594,-0.4648948341,3.25116349,0.8019390117,0.4213303511,4.3310569698,0.2971175697,-4.9140819805,-0.440694756,0.355009011,-34.9096687662,1.4797407994,-0.5216668541,0.1717621512,0.0593211168,0.5583163257,-0.1502164985,0.3472595762,0.2204697204,0.6359510617,-0.3448825737,0.2327413493,0.1707639334,-5.4899836904,-6.3134583613,0.2514534942,-36.9632914215,-7.7428815983,17.9876713767,-19.0704925401,-0.1596740285,-4.4268226185,0.1915445991,-0.1614950039,-4.3691642348,-0.2818798329,-2.3500993882,-0.3348584707,-0.2446400893,-0.0774348773,1.2154684981,-0.2104264586,-0.2543966828,-0.1741983751,-0.3956772091,-0.3376079975,-0.0151550133,-0.1463229729,-1.423437971,-0.07357729,-0.0774896717,-0.0779702271,0.832295108,0.5974507945,3.458996422,-0.3817035615,82.7686472843,0.5168417235,-9.7061672609,-1.2212821448,4.8408012653,-0.0307465345,-0.2410308252,2.2263694255,0.0351932527,-0.2168010672,-0.2388262929,0.3874037637,-0.1754014347,-0.8508720008,-0.7748663041,-0.6505259357,0.0065179262,0.0129293429,0.155520143,-0.9974776991,-0.0091866094,-1.5229484172,-0.1469733742,-0.7756018001,0.2719836958,-0.9151046252,-10.2558490898,-1.8654940141,-1.1766276913,13.5637493574,-0.9890275744,0.7607471986,0.7554672217,-2.5874865194,0.549811832,-0.0012425451,-2.268750874,-0.1448259573,-0.7658388844,-0.6257669779,-0.1757188425,-0.4562445679,6.8345704404,-0.2313252826,0.3303379593,-0.0707127157,2.7570232489,0.3242948162,0.1019721341,-0.1037826361,1.5425523607,0.0257014433,0.0223748077,-0.2079917724,0.2057894118,0.2678374527,-0.2835205824,-0.3105204186,-0.6898721403,-1.1004111941,12.9165508693,-0.1703520925,-0.99617613,-0.5823418565,0.7017288531,-0.2299214042,0.7372379186,0.7382126926,-0.8991167497,0.8182755451,-0.2192256395,0.4892432315,-0.2765976441,0.7655543569,0.2079981227,-0.6179911879,0.4488113317,-0.0494590846,-0.3067668949,0.7294261848,0.4358465051,-0.3765679623,-0.3776993005,0.596241539,-0.3520339764,-0.9525290859,7.1095228128,-2.5946956029,3.6577090395,-1.259469174,-1.0281649202,0.3338202169,-0.0161276092,0.1420538912,0.5694813752,0.3656761646,-5.3379462981,0.4691121869,-0.0051542075,-0.1776014384,0.8142886351,-0.6794926712,0.3396152427,-0.0010003162,-1.0496984179,-0.024828078,0.3082252739,-0.0581249727,-0.9429427497,0.4204215681,0.1140262374,0.0235706654,3.9276153673,-5.3987995781,-0.5508844005,0.445850949,0.7141020778,-0.1437871156,11.2936280737,-0.0787990079,2.8763457603,0.0385242138,0.7659941617,2.3016023609,-0.2154739234,-1.2475830509,-1.3045509772,0.4037531891,0.2919771794,-1.9233279748,0.2064885291,-0.1142948142,0.1397421954,-1.0219496799,0.0844571211,0.4272430622,0.0147843232,-0.3594591644,-0.2189818556,0.3941292354,-0.1554089557,-0.550340332,-1.230480464,0.530741299,-1.7002510334,0.9250151136,-4.6499800185,4.3325867688,-0.1841067476,-0.1429603196,-0.7255980619,0.1924967544,-0.5478337725,0.339127497,0.3187359072,0.8714361336,0.0219517677,-0.5283517049,0.6110319847,-0.7427196595,0.3118366998,-0.3746690673,-0.3236639031,0.0424607221,0.337398776,-0.3155276688,-0.0467983335,1.0056569979,-0.0341997368,-0.1972559415,6.7444930846,-8.9188478446,-0.8839777391,0.2184243865,-1.7673307917,25.0227773526,0.8859386915,-0.0658849386,2.3575241816,0.5269985818,-0.3935695899,-0.5004024891,-0.4784471644,5.7157859158,-0.6471877932,-0.4343715348,-0.6731365241,7.9430434973,0.1471142017,-0.1117543056,-0.6160963215,1.6745137065,0.2410570956,-0.2773570527,-0.5074843401,0.1864760421,-0.5191907859,-0.1916047128,-0.4030764354,1.3706728861,-1.0774730228,-0.114037525,-1.9482463808,-7.6648972024,34.7516331469,-4.2923045799,0.4508195241,1.6973681873,0.8938276055,0.0283117364,3.8989079775,0.1835173505,-2.6040160735,-0.7092214203,-0.2053664331,-0.6704427847,-0.4191627975,-0.2898018744,0.6716473915,-0.448913165,-0.7258982482,0.0007402103,0.3087965657,-0.2315980108,-1.3776529082,0.0536038214,-0.0466838727,-0.0453805031,3.5214806672,-0.6662105605,-0.1116161885,-0.3928075169,17.0228859473,-0.298852519,5.2360984292,0.5152635461
biasActivation=0,1,1
[BASIC:ACTIVATION]
"org.encog.engine.network.activation.ActivationTANH"
"org.encog.engine.network.activation.ActivationTANH"
"org.encog.engine.network.activation.ActivationLinear"
