encog,BasicNetwork,java,3.3.0,1,1469373195054
[BASIC]
[BASIC:PARAMS]
[BASIC:NETWORK]
beginTraining=0
connectionLimit=0
contextTargetOffset=0,0,0
contextTargetSize=0,0,0
endTraining=2
hasContext=f
inputCount=28
layerCounts=2,16,29
layerFeedCounts=2,15,28
layerContextCount=0,0,0
layerIndex=0,2,18
output=0,0,0,0,0,0,0,0,0,0,0,0,0,0,0,0,0,1,0,0,0,0,0,0,0,0,0,0,0,0,0,0,0,0,0,0,0,0,0,0,0,0,0,0,0,0,1
outputCount=2
weightIndex=0,32,467
weights=0.294226718,0.609414096,-0.701776735,0.761342097,0.7629016931,0.7169082862,0.5030142851,-0.1840053756,-0.4638222411,0.2085392395,-0.6364819134,-0.1677883699,0.5948228495,0.236344171,0.3238204334,0.1701851273,-0.2304837993,0.3739500154,0.6258889664,-0.541901976,-0.9099063709,-0.6541896768,-0.4717541796,0.2850829902,0.5013287446,-0.2131202047,0.4612376447,0.1538144375,-0.5044336137,-0.5985640575,-0.4888195832,0.3482099715,-2.4430694684,-0.6698701826,-0.374187632,-1.2784813985,-0.4924013291,4.0469210028,0.1277818631,-0.4126719591,-0.1996047453,1.7966817987,0.1231334317,-0.535356681,-0.266972559,0.3294586386,0.4147414814,-0.4630357739,-0.3258427568,-0.0633966178,-0.5354896468,-0.423492637,-0.3672018577,-4.1059466518,4.7133121821,-0.3296127468,-4.406430247,20.5397210641,1.0233080433,3.0222613485,0.521091157,-0.0275097275,0.5255443119,-0.0305321117,0.6670242206,0.0225604519,2.5752900961,-0.3261767754,-0.043107774,-0.2770620662,1.5960364216,-0.0777029212,0.0707710687,-0.2538371487,0.2128141497,-0.0861930138,0.0482870913,-0.2785937039,-0.4208271673,-0.249252461,0.043496159,-0.2611541007,1.6022960364,5.5408431982,0.5649623322,-0.6522206096,-5.0522539787,8.0488048159,6.7913825051,0.1441503606,-0.1510219959,-0.220880035,-0.1941913331,0.4978952209,-0.2241451719,-0.2851252101,0.1140079473,-0.2056574583,-0.3175774941,-0.0538854269,0.0373320925,-0.2349735261,-0.2788744905,-0.2793539167,0.0772307301,-0.204992121,-0.275503004,-0.2151133128,-0.2492838823,-0.1709210037,-0.2758077103,6.341336926,-4.6405182568,-0.2130392717,-1.9403166297,39.1087560896,-2.8714244357,0.5345427217,-0.6683217957,11.1330984601,0.0026496893,0.0465777153,-2.9254339176,-0.0101814706,0.2352764072,-0.1843961624,0.0257911228,-0.0099987371,1.0970288562,0.0428762169,-0.0116320516,-0.0137366585,0.5809969842,-0.0987850097,-0.0104011767,-0.0033581864,0.5956859434,0.1104845124,0.0440945833,0.0270128188,-2.4881098748,-6.6171213804,1.2298980685,-2.5536811479,-2.5346957363,0.5482801449,7.4438588351,0.7215533595,1.3057625519,-0.0186369216,0.0309559974,1.7928956297,0.0560769759,-7.9110216314,0.127360341,0.0520408046,0.2073140883,4.0673720403,0.1098456614,0.0215145144,0.3553403393,1.1619582832,0.0262669338,-0.0018945971,0.2757521621,1.6944250821,0.0276404631,0.0074456956,0.2475371679,-6.2815555661,5.5804978589,0.2196100109,-1.4782226785,1.9776509998,0.5994826801,-14.6311402083,-0.4606562191,0.7828421146,-0.015465637,0.0490965597,0.4842995368,0.0034507726,-2.8707546251,-0.1389710959,0.0414918034,0.0445104337,0.6956791298,0.1042618351,0.0083697271,0.1118963484,0.1624642638,0.1279323284,0.0179421884,0.1961783688,0.2523481245,0.0250135977,0.0298323052,0.221771265,33.5570711165,-62.8727564882,-1.427857702,2.1997567083,0.9997585468,-5.2212234644,-1.6329972617,0.8065229189,-2.487928049,-0.0725802496,-0.1210211003,-1.3222670579,-0.1416505668,-1.8151810145,-0.0025512094,-0.1577192743,-0.2656160639,-1.1497053942,0.0043610644,-0.151934139,-0.2430367592,-1.4707078697,0.0031305628,-0.1456991579,-0.1933591299,-1.3523091916,-0.0961180857,-0.0962283281,-0.0974426591,10.0726397112,-11.0021311624,3.8699550574,-8.4289999615,83.1245286905,-3.6912972873,3.2615143096,-1.9642726225,4.3556173455,-0.0297115452,-0.063555685,3.2806791916,-0.0083581096,-2.9433588695,0.062739695,-0.0784225937,0.0655201135,-0.0755357895,-0.0340846993,-0.1469093844,0.2650238324,-0.0072451925,0.0688155145,-0.1555805915,0.4599569364,-0.1549943185,-0.1258718846,-0.1478304856,0.6254457862,-8.450999178,-50.1544806272,-2.4770456402,-5.7713216161,16.3408441236,-0.7507079411,7.5532374028,0.6677460754,-1.9767644209,0.1315288334,-0.0738616031,-2.2681567272,-0.1516033447,-0.7542588789,-0.5184245384,-0.1290959516,-0.4651655957,4.6941084132,-0.1612528422,-0.0375502445,-0.1286970927,1.4571449059,0.1275191963,-0.0106860506,-0.1050772267,1.0000919952,0.0214119859,-0.0256373113,-0.1391826793,-3.4013080623,7.1145033384,-0.2846479113,1.4180260032,-1.3353588621,-1.0925983917,16.247444339,-0.1703770975,2.4601857902,-0.1125153828,-0.1428349961,0.0941641519,-0.1002373611,-1.2638004588,-0.0413250657,-0.162622456,-0.0005000405,-1.1058414485,-0.2330475386,-0.1671354378,-0.0685356115,-0.4415269592,0.0655096428,-0.0977960316,-0.1586083357,0.1739728603,0.0412457926,-0.1717911636,-0.2613030711,0.6267968968,8.6223716606,-14.5725875904,65.8451277351,-3.9763566847,-2.811874455,-1.2838868388,-2.3398525153,0.6538320036,-0.0673114929,0.0846592646,0.5393705145,0.1391787732,-4.7033357006,0.4371281859,0.0151885433,-0.0833366256,0.8194230044,-0.4082347625,0.0679928083,-0.0868012872,-0.6938173415,-0.0458069445,0.0567412151,-0.0725056419,-1.0921964093,0.2029954605,0.02069296,0.0049866502,2.2148782195,-14.5074010738,-1.9520350769,5.756655082,0.7165766986,4.117164952,11.7154626693,-0.078766557,15.3492990074,0.0785076859,0.0849972834,4.5749981774,-0.1037049436,-6.591166013,-1.3250743926,0.1738927484,0.5427560686,-1.9221768331,0.8577041058,-0.0077655972,0.396758559,-1.0863002262,0.1528059608,0.0930549014,0.2840522732,-0.3879452551,-0.1457136444,0.1152426607,0.218018355,5.0365500191,-0.8051830777,-6.4489581857,1.4388034218,-1.4334641902,-4.6507695665,4.3708477368,-0.1744460449,-1.2392034165,-0.6701677625,0.1185999951,-1.0919094374,0.0528300547,1.22843632,0.5121144811,0.0308760907,-0.2988764834,0.5812953153,-0.4137619748,0.0188637033,-0.3437846267,-0.3223366744,0.0542056069,0.0918435487,-0.2911201425,-0.6447512711,0.6157098712,0.0075794515,-0.2281459246,4.0069068494,-8.8435476764,-0.8826008413,-2.5698069356,-7.376157465,25.0566727883,13.3168774989,-0.4727433027,-0.1969155742,0.5129052933,-0.2175506935,-2.5037956856,-0.18095533,10.2497996544,-0.6494074053,-0.2104454059,-0.4993822921,3.2696578991,0.0622495227,-0.1179329009,-0.4362343639,1.6766903393,0.0396634594,-0.1394463649,-0.4377178525,0.3482711654,-0.4919827311,-0.0806564773,-0.409627225,4.3831010752,0.5152897117,-0.1121978148,-5.7769846775,-18.9739206296,41.1828401109,5.1770568327,-0.2584939477,2.8519062089,0.6099218235,-0.0066280247,2.9917766454,0.0194930723,1.6835941653,-0.517568998,-0.0540838762,-0.55727096,-1.5372905853,-0.3193072765,0.0834343093,-0.3959780292,-0.732512936,-0.1681197222,0.1147798669,-0.2199480445,-0.903593473,-0.2398558448,0.0545917646,-0.1729175152,-2.5413100514,-0.4879327583,-0.1151908505,-1.6775347184,9.7611977934,-1.2189522858,9.9838476112,0.035022103
biasActivation=0,1,1
[BASIC:ACTIVATION]
"org.encog.engine.network.activation.ActivationTANH"
"org.encog.engine.network.activation.ActivationTANH"
"org.encog.engine.network.activation.ActivationLinear"
