encog,BasicNetwork,java,3.3.0,1,1469694239350
[BASIC]
[BASIC:PARAMS]
[BASIC:NETWORK]
beginTraining=0
connectionLimit=0
contextTargetOffset=0,0,0
contextTargetSize=0,0,0
endTraining=2
hasContext=f
inputCount=28
layerCounts=2,301,29
layerFeedCounts=2,300,28
layerContextCount=0,0,0
layerIndex=0,2,303
output=0,0,0,0,0,0,0,0,0,0,0,0,0,0,0,0,0,0,0,0,0,0,0,0,0,0,0,0,0,0,0,0,0,0,0,0,0,0,0,0,0,0,0,0,0,0,0,0,0,0,0,0,0,0,0,0,0,0,0,0,0,0,0,0,0,0,0,0,0,0,0,0,0,0,0,0,0,0,0,0,0,0,0,0,0,0,0,0,0,0,0,0,0,0,0,0,0,0,0,0,0,0,0,0,0,0,0,0,0,0,0,0,0,0,0,0,0,0,0,0,0,0,0,0,0,0,0,0,0,0,0,0,0,0,0,0,0,0,0,0,0,0,0,0,0,0,0,0,0,0,0,0,0,0,0,0,0,0,0,0,0,0,0,0,0,0,0,0,0,0,0,0,0,0,0,0,0,0,0,0,0,0,0,0,0,0,0,0,0,0,0,0,0,0,0,0,0,0,0,0,0,0,0,0,0,0,0,0,0,0,0,0,0,0,0,0,0,0,0,0,0,0,0,0,0,0,0,0,0,0,0,0,0,0,0,0,0,0,0,0,0,0,0,0,0,0,0,0,0,0,0,0,0,0,0,0,0,0,0,0,0,0,0,0,0,0,0,0,0,0,0,0,0,0,0,0,0,0,0,0,0,0,0,0,0,0,0,0,0,0,0,0,0,0,0,0,0,0,0,0,0,0,1,0,0,0,0,0,0,0,0,0,0,0,0,0,0,0,0,0,0,0,0,0,0,0,0,0,0,0,0,1
outputCount=2
weightIndex=0,602,9302
weights=##0
##double#9302
   0.9247711772,-0.3210789736,0.8634029901,-0.0379045861,-0.5433602706,-0.1699411142,0.7987601602,0.5373248854,0.27102203,0.3786620818,-0.3970110008,-0.4388511475,0.8365531137,-0.0212877943,0.3291261821,-0.259225578,0.388706076,-0.3200443583,0.1952476181,-0.0881037589,-0.9041239646,-0.2112852196,-0.1809041697,-0.2116798044,-0.1650853632,-0.1529404882,-0.1546248468,0.2852293451,-0.1235329175,-0.8439907274,0.8541471104,0.7208100266,0.2554393329,0.0089062023,0.032409701,-0.020026836,0.7531824416,-0.5735600727,-0.2072944916,-0.4095673651,0.1894762064,-0.0848293962,-0.0864397657,-0.4068688776,0.1509199185,0.0428947735,0.1643769694,-0.6909618602,-0.8732645714,0.1213330293,-0.1213925766,-0.8516577397,0.977441002,0.5411328256,-0.6392436209,-0.0694294786,0.5273196077,-0.2455871836,0.1937235913,-0.2810596576,-0.6740272246,0.9251872236,0.6557685877,0.4768025529,-0.6781020526,-0.1291387419,0.3854897245,0.4208988836,-0.1169067298,-0.1429312187,-0.2037695355,-0.4225376834,-0.3589145477,0.0408178971,-0.3102389526,0.8490558741,-0.878942564,-0.0446050218,-0.0426386899,0.7334689715,0.2469731746,-0.6249159407,-0.6876400867,-0.1607769504,0.4336931557,-0.7318722791,0.3828705651,-0.8495601709,-0.1526899241,0.1075614252,0.7399201126,0.0422147532,0.6027128537,0.4214703833,0.4341725678,-0.4652826705,-0.2668146406,0.479784006,0.3374549119,-0.4456980646,-0.483184084,0.4715392811,-0.8825926992,-0.1841083162,0.8739046764,-0.0123452098,0.6030571288,0.8551904265,-0.1140947978,-0.4817579605,-0.6553103685,0.2367604336,-0.2275307361,0.1448851624,-0.6188279211,0.4103708353,0.0444614494,-0.6818556403,0.4473372582,-0.0524798807,-0.4490151441,0.3543739499,0.4017653931,-0.6369410657,0.7759727239,-0.9438879151,-0.2332706698,-0.5872256764,-0.8194782795,-0.4676055836,0.8121537956,-0.9129513943,0.0166353222,0.0840205532,-0.1522257904,0.0201064208,-0.8505197437,-0.0187316379,-0.3043006598,0.048831363,0.8974989469,0.8525069862,-0.0318876648,0.0444199362,-0.1091662933,0.3889788155,-0.2858247884,-0.3617081996,0.7114268962,-0.4534973597,0.6607940732,-0.074322329,0.6543410537,-0.5923923364,-0.1827067771,0.082461536,0.0307499863,-0.5430576104,-0.8767944219,-0.7244222763,-0.1135302357,0.0588080658,-0.4419485433,-0.7255867412,0.0468030921,-0.4563588214,-0.1828460437,-0.2658695395,-0.3511574336,0.0642603803,0.2347168502,0.1384342239,0.4445519213,-0.488173437,0.0837405502,-0.0463332786,0.1749842706,-0.1138923563,0.1089580658,-0.2580237125,-0.2960287976,-0.2929996518,0.8853607206,-0.5848063993,-0.3709061461,-0.7862015797,-0.5229856033,-0.7435047298,0.4670340492,0.3534088241,0.0561315644,-0.082896234,0.020192153,-0.3206451063,0.686108338,-0.1548789489,-0.0777793285,0.0885820331,0.2533406467,0.7904781602,-0.4535824043,0.2909313136,-0.8184866206,0.636627503,-0.594589218,0.245942716,0.4487662385,0.719181953,-0.5426145402,0.5468141333,-0.9308219237,0.2473343636,-0.0990403337,0.1507625299,0.8911721541,0.0621549185,0.1438863197,-0.2305662672,-0.4148668284,-0.0511973046,0.0648610822,-0.1755912972,0.2167075557,0.3208562197,-0.9694093688,-0.1693325533,0.9078572028,-0.0101816291,-0.1752167043,0.3899092291,0.1863086363,-0.233731942,-0.1669454126,0.1207182041,-0.4729353294,-0.5237660311,-0.7712869414,0.1608841595,-0.2041025732,0.6139303539,0.7238100699,0.210796894,-0.6433840405,-0.0252524846,-0.8957658194,-0.2946352471,0.7862458248,0.8882724948,0.8133524043,0.8748464063,-0.002875156,-0.9565565222,-0.7892740223,-0.9762642406,0.495127585,0.1826775101,0.1793966816,-0.0899221476,-0.0063699004,-0.4799945851,0.6674295648,0.6017800604,0.4944083631,-0.9593080098,0.526796957,0.2579414909,0.4926245285,-0.9922673766,0.4904704405,-0.7536601016,0.9641607937,-0.1780208527,-0.2155549524,0.0384860047,0.1700302897,-0.3717793216,0.3781644721,-0.3225717524,-0.2135075401,-0.1056741075,0.4991056414,0.9577883328,-0.073950603,0.2552385646,0.2074087696,0.5669250512,-0.1101929583,0.2011618748,0.9594797227,0.7891440886,0.0434464791,-0.2271780692,-0.1900270808,0.5454849812,-0.7215666234,0.0479952775,-0.2269775348,0.0035401286,0.8532685633,0.2516773101,0.8117714872,0.2724883823,-0.1248154737,0.8482211712,-0.2016036594,-0.5728676998,0.1821756228,-0.1528466395,-0.2068848434,0.5210944074,-0.2149393882,0.1416365748,-0.2832276122,0.9463226584,-0.282247084,-0.504630398,-0.272618091,0.366131528,-0.6999000207,-0.1982028194,0.2508502831,-0.7433257262,-0.2835658955,0.9399286268,0.5604564956,0.1312913179,-0.1673905544,-0.4118050696,0.86995353,-0.0242101019,0.6456287939,0.0809725042,-0.7097342253,0.3417893146,-0.3852910227,-0.1044437635,-0.1365766238,-0.6179248246,0.4280557125,0.8829273631,-0.4577125313,-0.515498363,0.5067540878,0.1689277385,-0.5543435999,0.271572866,0.0444928883,0.0942678993,-0.3618553604,0.0169617601,-0.742323489,-0.1574674564,-0.0078383625,0.2310589509,-0.6509945939,-0.7677050068,-0.1582094509,0.3380616266,-0.2902884042,-0.1462342313,0.2860195816,-0.068018378,-0.0910695963,-0.512414191,0.0664355155,0.5595271708,0.5742848675,-0.0225081199,-0.3616789788,-0.3994995744,0.1509127378,0.2115197708,-0.583662649,0.2961144711,0.1394857766,0.6751311291,-0.9053191504,0.0756129703,-0.3066885229,-0.1688450181,0.73409869,-0.2555947882,-0.252724192,-0.0651980787,0.1297112915,0.2145102474,0.663761393,0.0320845873,0.7038434142,-0.0490149343,0.1791394429,-0.8272258436,-0.1951870919,0.4982379803,0.02210817,-0.9230715968,0.1292615986,-0.2745358722,-0.7564779558,0.2028594444,0.5414691224,-0.0332845284,0.2385093403,0.4507000773,0.1380580981,0.660457921,-0.1801777692,0.2063944973,0.1322614576,0.1791673511,-0.8282166139,0.5769986475,-0.6624172018,-0.0662113937,-0.2635589876,-0.588487751,-0.3267982719,-0.3051487669,0.7469282335,-0.0543904692,0.0910177651,-0.3678222108,-0.2372627956,-0.0117036884,-0.4561257782,-0.1183136115,0.1663916162,0.8066684699,-0.5545310592,0.9720643104,-0.8016362758,0.0413686426,-0.8651003773,-0.2983251673,-0.1453895592,-0.0616565558,0.1923435884,-0.3556135211,0.3938048147,-0.805054444,-0.2059344068,0.388982923,0.0492609278,0.2199031287,-0.080332733,-0.0021521636,-0.0807622737,0.3021678556,-0.4888305515,0.4210320415,0.2665778559,0.6453136927,-0.4344935901,0.3201152872,0.6302161153,-0.3438202824,0.989981824,0.1188409193,0.2681226162,-0.7938030647,0.5056778736,0.2275917835,-0.1812980974,0.7594956542,0.8815969816,-0.860985403,0.144427844,-0.0839629363,0.2524399658,0.6050751014,-0.0959838155,0.5526819013,-0.1734346441,-0.4694677362,-0.3590828533,-0.4779614564,-0.8437859836,-0.7989951054,0.7526850956,0.2810049215,0.4490480772,-0.9938804981,0.2167554649,-0.0582168304,0.2014426776,0.8432755625,0.3288196331,0.2073151498,-0.4942985134,-0.1373597338,-0.4800562722,0.394297073,0.1611896517,-0.1034842853,-0.0369501709,-0.2138532423,0.2044491623,-0.7332572989,0.676415893,-0.3718755744,-0.4266064141,0.4543727757,0.0620075181,0.5330218454,0.8491578644,0.3891005682,0.702439643,0.442681758,-0.5976052817,-0.0758578441,0.3496895593,0.4354638179,-0.000996445,0.0297795001,-0.8062238769,-0.7051087258,-0.1320737855,-0.1973066986,0.1886895162,-0.3590104873,0.2010281091,-0.2546460423,0.0606970455,-0.9732444609,0.0937805779,-0.8524146142,-0.0723944616,-0.0515880836,0.5594172625,-0.150860389,-0.5672700151,0.6228966416,-0.1280724882,-0.0662262571,0.2372580887,0.1916005521,0.3313236693,0.6079000469,0.1272811382,0.097093825,0.5751087015,-0.1568788061,-0.4688926095,-0.4963804639,-0.4061886865,0.2872800271,0.2334503903,-0.1378000463,-0.4614222361,0.5120477842,0.5274645048,-0.089823893,0.3266433831,-0.3358276452,0.6515071563,0.0080170099,0.2200901192,-0.5099662519,-0.1529973334,0.4373440838,0.445618808,-0.0091851366,0.3736983791,-0.9028732809,0.3544411824,-0.1942817541,-0.7415720834,-0.5220999827,0.552496057,-0.3141428947,-0.251510529,-0.8486111043,0.0492909757,0.1401499715,-0.0788175744,0.1380096093,-0.8812107349,0.7021066471,-0.0041465587,-0.1984802619,0.5357630265,0.1950678438,0.9343100686,-0.0775728382,-0.4331848365,0.5230312806,0.7487947529,0.2433411834,0.124607808,-0.0948442903,0.8970116511,0.7848900684,0.8075263077,0.7627839564,0.4865786994,0.8078043852,0.1268432145,-0.3555983126,0.1554932809,-0.9581902741,-0.7137064187,0.7182657641,0.3926628003,0.1347846931,1.0214883394,-0.5459687721,-0.096749535,-0.4267169111,0.6892991416,-0.7988993529,0.5518935323,0.2088758181,-0.2392339035,0.0812929983,0.3445756016,-0.3059907472,0.0944769014,0.2272098971,-0.0708770588,-0.5334295029,-0.0928346826,0.6596902919,0.6417311537,0.1548273643,-0.8026896362,0.3128912331,0.3343001363,-0.095370178,-0.0781715923,-0.2322194586,0.1628324223,-0.2805679934,0.5748277379,0.0458041932,-0.5002182554,-0.6500648377,0.1412802102,0.6137245189,0.4652579299,-0.7692114389,-0.3045941674,0.3925917382,0.2883661808,0.967563072,-0.10441437,-0.625401843,0.0477773531,0.3010929527,0.154127972,-0.8862027998,0.8696787024,-0.0143306585,0.2101914821,-0.9383404906,0.6988712421,-0.794213203,-0.7325101018,0.0178331178,-0.1470459238,-0.9197233577,-1.1757549328,0.2675650256,0.0104581774,-1.6805907071,-0.2588005602,0.9531518163,-0.6621437657,-0.072682961,0.2612799309,1.3540064972,-0.2221797559,0.0824065466,-0.2132791328,0.008750581,-0.0908783719,-0.8319553563,-0.2546545857,-0.7704323033,-0.923100741,-0.115334797,-0.140767253,-0.8425861783,2.1430992491,0.7003229537,1.0167375623,-2.540443699,-0.7042009433,-0.9287548155,0.066992478,-0.294975121,0.3971834233,-0.115490348,-0.291341808,-0.3869239557,-0.2473723822,0.2873867478,-0.5445009994,-0.8388945442,-0.2995587362,-0.7968069985,0.6910631656,-0.9250684162,-0.6025191272,-0.6187033754,-0.5297891956,0.2406476062,1.1304097732,0.8342759876,-0.023909279,-0.0055963715,-0.6495020624,0.8071271581,0.3327682307,-0.447054327,0.2658245211,-0.5565363827,-0.0715643836,0.8733296194,0.4911488052,-0.1436308868,0.3002602999,-0.2704819601,-0.3249301529,-0.0590267125,0.3953956324,-0.0281380305,-0.4819774789,-0.1050357064,-0.0436104745,-0.4458428856,0.5730491919,0.5080487708,-0.1165200297,0.1468796575,-0.1726588707,0.3323711486,0.6653717437,-0.6910201927,-0.4366608436,0.2268870597,-0.2194753912,-0.0006314501,0.8443724541,-0.534300382,-0.2563261789,-0.3460401392,-0.6144101859,0.0896661799,0.4182212677,-1.0185525389,0.6249718835,-0.2228021425,-0.0544357848,-0.1464658928,-0.2279138849,0.1309895627,-0.6255534394,0.4276478998,-0.1226503202,-0.8234956202,-0.8263856496,0.5019724199,-0.7133352578,0.3745007573,-0.6406035113,0.2978451373,0.5908620733,0.1238613179,-0.8328693683,0.0210882019,0.5394196075,-0.188992838,0.6041560971,-0.2723880519,-0.4928343834,0.4133111136,-0.2225311245,0.2727187454,-0.4596706229,-0.4456421084,-0.3294677766,0.8953309977,0.1691920382,0.6496689092,-0.604828715,0.1180660076,-0.1540599392,0.8760848755,1.0995014317,0.2323496196,0.8907325927,-0.3371013961,-0.1345069269,0.8156597068,-0.6622109605,-0.2582054956,0.6129506756,1.7302613997,-0.0774420499,0.3269095497,-0.0348313248,0.0300997107,-0.4259505035,1.2005676469,0.6584820075,-0.362217784,0.4794410519,0.1795254943,-0.5588561599,-0.6546662908,-0.4746725797,0.4852561312,0.4461465887,-0.2245429444,-0.1467211154,0.0766399224,0.1766041108,0.4429330087,-0.6233016571,-0.2269265861,-0.6529867489,0.0441223463,0.4064923276,0.7922905932,0.0741103698,0.6492383513,0.6005968923,0.5959191322,0.4034684647,0.4775822054,0.4418367454,-0.8450350127,0.4084713053,0.2234735318,-0.8179984221,0.1838737192,-0.697207213,0.8865277182,0.0220684018,0.0900133022,0.5755808614,0.680116597,-0.5858016753,0.8276859167,-0.2806459628,0.0349533293,0.4770735307,0.3991485599,0.6472199454,0.4703864375,0.3952097812,-0.0553922738,0.3784365541,-0.3456495405,-0.3301759077,3.9857862933,-0.475484028,0.7698473525,-0.3846938778,0.1878251351,0.851269601,0.1740018516,0.751128906,0.2295964672,-0.5438856164,-0.0398097374,0.225929038,0.8568857352,-0.0153376762,-0.9246603418,0.2533677955,0.1884719916,-0.3711447374,0.6132608059,0.1862185562,-0.6334084696,-0.7648373534,-0.7389926251,-0.5268096956,0.119869007,-0.9250709829,0.1470808911,-0.2472730838,-0.3508017554,-0.0722807358,0.7941824201,0.2790536063,0.9371529809,0.0485073445,0.6170257443,-0.3956305893,-0.339940924,0.4045169593,-0.7456246886,0.0625417303,-0.8664476166,-0.0770132317,0.3084756665,-0.4349129222,-0.6949239809,0.0230364282,0.6333192307,-0.8488957721,0.6954138449,0.4088933805,-0.6711679466,0.9837391774,-0.4939436439,0.8815891777,0.3125337559,-0.3464553663,0.132252504,-0.087978398,-0.0655169909,-0.9162347495,0.6060400621,0.1898454654,0.8975966113,-0.619810368,0.7364139735,-0.1166550408,-0.6145116999,-0.1755909522,-0.3544402681,-0.1414354606,-0.4542496728,-0.6709422167,0.7274334981,-0.5953452884,0.8132240666,-0.4390594178,0.8024722772,-0.5711924406,-0.1969358091,-0.8724020581,-0.1965510793,-0.2866285279,-0.5418199552,-0.792289801,0.4334616005,-0.345662447,-0.3562476318,-0.4263717274,0.0062439232,0.5215360303,-0.5850258846,-1.0235615278,0.2645179864,0.4672227588,0.4644401732,0.2568634565,0.1914947175,0.6430247834,0.3675387986,0.6658232279,-0.0432860603,-0.1641833742,0.3253182941,0.9876665371,-0.0444397358,-0.5003794139,-0.1109275425,-0.8165087877,0.6246591596,0.9663247266,-0.3401196591,0.2906101104,0.3212297072,0.2407512373,0.2399541249,-0.1749455233,0.2600548729,-0.5317065994,0.967514828,0.2383110949,0.8699808592,0.8902614095,-0.1546679216,0.1437427432,-2.1590483843,-0.7097612996,0.1298598727,0.1701915515,-0.5859900323,-2.3066878866,-0.8625160163,-0.338961058,-20.5022563501,0.1396610807,-1.1211771235,-0.1295590135,-24.4891882804,-0.0676196595,-0.0954455101,0.3112632454,0.5343052272,-1.0784561744,-2.0458113894,-0.0686663079,1.9245906076,0.979456501,3.072434332,2.6377752518,-3.494581922,0.144527964,1.6163081747,-5.2790803528,-0.1133476073,0.4952439958,-0.3638470764,0.1459774555,0.2712641144,-0.2823192367,-0.8846917301,0.6418478127,-0.0543007179,0.3073871314,0.2516123065,0.3007369177,-0.1589809577,-0.6820962166,-0.5770146779,-0.6452666332,0.6183781022,-0.5695324806,0.2858404857,-0.8065307725,-0.2526027859,-0.7323153286,-0.3203801528,0.9058768757,0.5046168902,0.7937406648,0.061124573,-0.5725467724,-0.0283686888,-0.2513304168,0.8989559855,-1.1890559834,-0.2534283297,0.637939732,0.5506743202,1.6034952299,0.3942469274,-1.4034677877,0.3138755512,-1.4043925057,-0.5426752558,-0.0199123171,0.5650046012,-0.6170495056,-0.8553135644,-0.7291743951,1.0350210029,1.4590592441,-0.1946495482,-0.5269622123,-22.8800730252,0.424758212,-0.0357802941,-0.5741478213,-0.8066123742,0.4199873064,0.1073044182,1.227039262,-0.7925738167,-0.9767445582,-0.0025374113,-0.6744930777,0.4370596971,-0.0504878221,-0.0435729813,-0.7226929441,0.3639008117,0.3682018847,-0.0775217436,-0.0602934783,0.2233522215,-0.6569388759,0.3275825425,0.1876137342,0.8471278866,-0.0197687393,0.3125690724,-0.1375854595,0.6361006964,0.2063719721,-0.8687976765,0.8246117576,-0.126632809,0.2829544913,-0.5602231913,0.718920797,-0.3507581627,-0.8317037833,-0.157616182,0.5690151221,-0.1688301744,-0.9066182856,0.1964270986,0.9156338254,0.4057915717,-0.1720459746,-0.3065278532,0.0645116699,-0.5321404662,-0.2760822896,0.8086273068,-0.4741276466,0.5601817057,-0.1145811877,-0.3822150691,-0.5055636044,-0.8246164424,0.5725690006,-0.1415208737,-0.4798990548,0.19695304,-0.839009437,0.8382765317,-0.0201146017,-0.8405926731,-0.5966887564,-0.8655764417,-0.1223370365,-0.6301673131,-0.4325797046,1.1752641396,0.7175302349,0.810937562,0.3822958329,-0.6840205023,-0.5595121756,-0.1425913124,0.8025487008,-0.5957240728,-0.53374142,0.1582868704,0.3164310006,-0.7855714108,0.1537426836,0.2680326673,-0.5173261357,-0.321813406,0.1868892257,-0.8096980677,-0.6264162244,0.4626187899,2.7971386371,0.290414174,0.0240081421,2.378630359,0.6106917929,-0.280571765,0.6264184694,0.2017335585,0.2131112473,-0.6558293646,-0.5434503169,0.5151609772,0.7612110106,0.7407491408,-0.7810301722,-0.6182689778,0.584527857,0.3849766521,-0.0454853307,-0.1881136712,0.7159839828,-0.3771792116,-0.0012765655,-0.9926320646,-0.5734199385,0.7973113035,0.6011203382,-1.1172052165,-0.8789391534,-0.5231698316,0.4992380423,-0.4181240532,-0.4261898716,-0.3444743906,-0.7628459745,-0.5961286125,-0.5568622157,-0.7470625631,0.2396344634,0.4563426608,-0.5603941192,-0.4487313029,-1.478277273,-0.0816815786,0.4705619329,-0.6038376251,0.1587041536,0.1431533159,0.3428552826,-0.0731662911,-0.7059847811,-0.8829598561,-0.8963042172,0.1326023618,0.1331500516,-0.6705502599,-0.5857381293,-0.3204221202,-0.9324723835,-0.4355398344,0.107712892,0.2810374479,0.8331153677,-0.62351775,-0.4270424779,-0.8610617321,-0.8528542396,0.429773704,0.3445275364,0.1007552422,0.6946336259,0.0012587169,-0.9730820279,0.525674646,0.6554314289,-0.2255618585,-0.2352326463,0.7855394089,-0.6350485031,-0.5064682169,-0.5331845737,-0.6272424538,-0.6304664692,0.2088357751,-0.3978391673,0.4034091899,-0.9749702933,-0.9878060382,0.3473247796,0.3589952269,0.5262461209,0.4022512405,0.9596337952,-0.3933931214,0.0244970019,1.2374934553,1.0321471357,-2.4105821939,0.3862628361,-0.3250869996,-0.1911263245,2.327415007,0.1319247611,0.5442806017,1.0125619373,3.1580029288,0.2427110159,0.0657390835,-0.029040091,0.846424854,0.6967141329,-0.2999427598,-0.3755792981,-0.0511035287,1.3623482466,-0.1754526598,-0.7648517418,-3.4177380986,1.0551000311,0.0288428444,0.9477147006,-0.3602281514,-0.4900286518,0.6083631366,-0.6208277275,-0.1218914989,0.6715292077,0.2912908407,-0.2518272804,1.1200046956,0.3765709554,0.043875643,-0.6114095329,0.4084587002,-0.8377817689,0.869929519,0.6834517215,0.3393153302,0.4077476903,0.7894979085,-0.2593412541,0.3347102462,0.2924088023,2.2966598098,-0.9608120674,0.4354155082,-0.2825734333,-2.1526422452,4.2723168852,-0.251908375,1.1322800069,0.6993583839,0.2009306104,0.315123102,0.3571562029,-0.3915516411,0.9336239259,0.2954779952,-0.5520737125,0.1074621237,-0.9788844708,-0.4755596675,-0.0564849676,-0.6459589322,-0.4476264906,-0.2619638961,-0.5733098842,0.269144293,-0.2872195694,-0.5500238259,0.4994921175,-0.0561567032,-0.3538376532,0.2425794079,0.7559653233,2.3195267099,0.356859613,0.8890212471,0.8767250342,-0.1727004051,0.1921608275,-0.3008989531,-0.8509905708,0.9274551841,0.6265341928,-0.126655948,-0.7979252816,0.1533303513,-0.0013559127,0.1068551237,0.025370976,0.2256439466,-0.2920595093,0.6859238235,0.3652737221,-0.1498047912,-0.0213057833,-0.8150677535,-0.6432452394,-0.7183355353,-0.5136832165,0.1469968503,0.0348425575,-0.023027668,0.0905353848,0.0307170838,0.3332026752,0.4278987506,-0.3192227316,-0.0146981958,0.2089866114,-1.5053659353,-0.7858496603,-0.4843586336,0.6492994,-0.5473073606,-0.6280772049,-0.2879921381,1.2938255397,-0.3510021912,0.5199445307,1.0450600427,1.0610973875,0.6142068637,1.3584251828,-0.5161713771,-1.1691949865,0.9447577309,0.2324262187,0.1162497817,-0.1055571224,-0.4325790758,-0.8443528329,0.1042502028,-0.2870205076,0.6503502373,0.9759299022,-0.0038505983,-0.5767726797,-0.373254902,-1.2110806852,0.2585648759,0.9227128743,-0.3450852753,-0.2021166728,-26.6931071724,0.1277948316,-0.2502479192,-0.1279678226,0.6571926018,0.0536415487,0.4063365349,0.1746778347,-1.0026902657,-0.0366480913,-0.83987417,-0.1480558361,0.2351544068,-0.8676908651,0.0319662864,-0.5333309653,-0.5884684953,-0.6635618604,-1.2132124842,0.6775930275,0.1646082999,-0.8842991676,0.7140529887,0.8231297843,0.3923716554,0.3094207935,-0.8437080559,0.0487289029,0.0505524874,-0.135225862,0.6975249066,-0.9283788797,0.4206700143,0.3947739135,0.8204856546,0.3979830648,0.200847863,0.2762387784,-0.7871501861,-0.9084347642,-0.9125743758,1.6175547823,-0.8602465949,-0.4554004802,-0.6166928262,-0.049564671,-0.2233534213,0.912810006,0.6810266206,-0.9375691554,-0.0763419665,0.4707226785,-0.2989121847,-0.9007422677,-0.1613576021,0.0043763791,-0.8957191365,-0.1197638229,0.114988234,-0.4492265155,0.1497357376,-0.0144904733,0.2176284811,0.3330230522,-1.4055649933,-0.2765301356,-0.8265453884,0.0126733677,-1.1955279102,-0.2575760475,-0.3858243625,-2.1768924542,-0.6854638588,0.7658493171,0.0978064546,-0.313927872,0.8986490883,0.6115840192,0.3642995252,-0.5484031617,0.5520975785,0.2577904341,-0.9184951413,0.4609895446,0.1537736792,-0.1336636561,-0.5718282792,0.7002476858,0.5184327153,-0.4099444475,-0.4947414418,0.0043676571,0.7785102748,-0.9217439443,-0.4492803168,0.8619273029,-0.2381715198,-0.1341914454,0.1714401023,0.4000871429,-0.841963323,0.2526400022,-0.9811496528,-0.4346904762,-0.1545888733,-0.8394120913,-0.6640638573,-0.6763381685,-1.2959497558,-1.4810954877,-0.5038799511,-0.4125714392,-0.5277847271,2.5710342341,1.3344636126,-0.073003201,0.7165121673,-3.1054280673,-0.7499990775,-0.4208466755,-0.3594242617,0.2590936954,-0.1165180098,0.1098099479,-0.131944548,-0.6600149914,0.0038688892,-0.2332410312,-0.3032954939,2.1883905423,-2.1797001767,0.1796490624,0.4358059508,2.9592705232,-4.9166124372,-3.6318812522,-0.276353411,-0.7970854018,0.0730745349,0.1837319096,0.1161844971,-0.5227052211,-0.7522232072,-0.3680715447,0.733325641,-0.4974144352,0.7777950412,0.5406752472,0.0340628773,0.2868630121,-0.39441702,-0.9187269965,0.3798873217,0.5468703541,0.2138207864,0.0276608089,0.3234024649,-0.2240627983,-0.3891203702,-0.2470623244,-0.6514724933,0.9768371072,-0.2279425175,-0.6379666862,0.5005836322,-0.0030972911,1.9983605109,-0.8939528149,-0.1407813615,0.4593348143,0.8206596539,1.5632984879,0.1293309982,-0.0052038748,-19.5199309956,-0.5927672542,-0.7788351714,0.1525655498,0.2592378476,1.5957853343,0.3452065033,0.172544253,-1.0775117927,0.8529372658,-0.5250486872,-0.1768041344,-0.7344573863,-1.7704293971,-0.3389679263,-1.8039868913,0.060010326,-7.6238304688,0.5199177621,1.3447003797,-0.30047307,-3.2968337676,0.6423634349,0.5998005111,-0.5759973264,-0.075316213,-2.850720643,-0.3874469106,-1.277756602,0.0390472051,-1.1613771486,0.9700887517,0.0407243978,-0.9186786257,-0.6034490273,-0.5706085618,1.8877713733,4.1544375259,-0.4893224617,0.3371705783,0.1725941095,-0.388099364,3.0692340891,1.0645452435,0.3934424636,-1.2717474859,-4.0296229761,-0.4650034267,0.2524264131,0.9744915141,0.8136846656,-0.9420736874,0.2330588657,0.4165786089,-0.4509102209,-0.9795768774,-0.9931417784,-0.799233977,0.4505936118,0.5963069428,-0.7350215772,-0.3010042851,1.0887553143,0.2717143994,-0.4921422006,0.1229927112,-0.6082258949,1.7538600704,0.2770492487,0.801343706,0.4593278206,0.6556669019,0.7322155582,0.7150867867,0.4732295332,-0.0781296736,-0.5972882059,-0.8324151813,0.7066347436,0.1089972347,0.7073213278,-0.2421640108,0.7437456258,-0.2797467589,-0.3030707685,0.100073603,0.2883485747,-0.1305273614,0.327476192,-0.082012379,-0.8550149428,-0.9423101666,-0.8269632706,-0.7566087215,-0.0192421063,0.3270132092,0.0491282838,-0.2688526516,-0.5569366109,0.2755162672,0.290786053,-0.9429643737,-0.3239244684,0.2059442551,-2.7580192475,-0.7544887996,-0.937904101,0.2560733388,0.2818421594,-0.27130213,0.8196373853,-0.7336602138,-0.4963166487,0.3164035869,0.3047053874,0.1924636429,-0.0681935735,0.2579669201,0.1136390894,-0.3026515998,-0.6918602605,0.5684387282,0.3641600485,-0.2518204525,-0.0018010516,0.066631101,-0.8819077611,0.3479276567,-0.5302275411,-0.2264514517,-0.8665564703,-0.8551505702,0.4574420366,0.5875957315,0.652107722,0.3145062373,-0.3412419286,-0.2377139918,-0.0303418326,0.1773414343,-0.6463181796,0.0406580428,0.0286132275,-0.5283864786,-0.6102864074,-0.2950161776,0.2021596938,-0.3323514734,0.4866979579,-0.3177270268,-0.6859975764,0.7567877177,0.5481814834,0.4001063705,-0.3489099307,-0.7271114759,-0.8919921075,0.0478788747,-0.590166934,0.582519251,0.1449275346,0.3822058486,-0.0514020246,-0.0941331661,0.5138423329,-0.4545949277,-0.1129933275,-0.2006272253,0.4684325219,0.7298810484,-0.6126891584,0.1485379429,-0.2827914743,0.6135401065,0.7238419746,-0.0798407042,0.9529974685,-0.7572818364,-0.2188198279,0.0901002135,0.7609547781,-0.3117715828,-0.4750264933,0.1486141879,-0.0027829589,0.3212267459,-0.472410047,0.2490932686,0.2424536908,0.797238335,0.2569981895,-0.1535504538,-0.0831965912,0.3030848165,0.8250319789,-0.4414997071,-0.2091254431,0.8357617112,-0.6844440592,0.5814354546,-0.2226410469,-0.8008517169,-0.7525858095,-0.3297447208,0.9842727569,-0.0999647641,-0.4771346368,-0.0044787981,-0.666957594,-0.6330984407,-0.226544785,0.227362356,0.6295726841,0.8692652694,0.3874207234,0.0519385512,-0.2416692611,0.245809125,0.0129891307,0.6408310255,-0.0110442198,0.1949592561,0.8256966855,-0.4613506879,0.1181560918,0.1775663084,-0.532022231,-0.1153085245,-0.5141795472,0.1514165265,-0.4771827221,-0.1830112321,-0.7982789142,-0.7290848439,-0.1111870633,-0.3619350867,0.466156444,-1.0221986023,-0.8384971199,0.0535492953,0.2346116498,-0.7546615194,-0.231022524,0.6908314654,0.7095246796,0.8844748599,-0.4075217627,0.6017726493,-0.1092361361,0.9642377663,-0.6806843488,0.1642195304,0.0639783358,0.5639158062,-0.4852758696,0.4911244262,-0.824747682,-0.7055094665,0.37251142,-0.4946869956,-0.1896266407,0.7595565741,0.9686172208,-0.7589157838,0.543338591,0.1624840489,-0.1911912947,-0.3515892631,-0.0498953256,0.8663968006,0.3852129315,0.9864689121,0.4084737671,-0.1345654068,0.6417634026,-1.1156941606,0.4192023864,-0.0152048006,0.3584208766,-0.5049907404,-0.8399078992,-0.9281987176,0.8252899641,0.2230522217,0.3161161781,0.7275479825,0.8944874905,0.4731343045,-0.2452940034,-0.1572800321,-0.4777484642,0.0944550245,0.296775876,0.6187007431,-0.8351997268,0.5830409757,0.7862658657,-0.0618537308,-0.4218106126,0.1873520854,-0.3923334423,0.151133045,-0.09329514,-0.1312032359,-0.9516285509,-0.5368061446,0.0918412793,0.4897187747,0.0592936675,0.1012104945,0.5610218578,-0.2837191736,-0.8353983859,0.247325674,0.2178663441,0.4990026399,-0.8474142186,-0.6748836884,-0.1285280647,-0.2055221456,0.3644628955,-0.7404465873,0.3606321751,-0.1225283237,-0.8372433202,0.7554940603,0.4656200084,0.9004032653,0.5166209742,0.2430259548,0.7415119262,-0.2640581468,0.6206115978,-0.5691948314,-0.467252638,0.2520059291,-0.1729283766,-0.1325269138,0.3342956666,-0.8385126868,-0.6920899886,0.9230843307,-0.6333725656,-0.8944582065,-0.2862640265,-0.8888409166,-0.3849724386,-0.6963414655,0.2025223976,-1.2596583466,0.3982005175,0.380425248,-0.6160241646,-0.8958225045,0.5841630908,-0.4058744138,0.4933556918,0.9609320133,0.843840203,-0.0795331883,0.0710865891,-0.5085884632,0.6057756524,-0.4659009589,0.6186647572,-0.8325152045,-0.2192219978,-0.9224324077,-0.165580169,-0.0266451329,-0.9317628478,-0.0828780393,-0.4782235432,0.1530857225,-0.1244906282,-0.5453894183,-0.165321136,-0.1349462759,0.2774490894,-0.6536527241,0.14106631,0.7528110576,-0.024807713,0.0178464164,-0.9848599892,0.7772322882,-0.7157472822,0.5977548631,-0.9499511822,-0.1918973918,-0.5645644497,-0.8142322995,-2.7917262363,-0.1192339534,-0.8068975192,0.2331896556,0.9795399143,0.8203541494,0.1053638161,-0.0013916079,0.2470616464,-0.9676506071,0.1501889268,0.3600411715,-0.0586793838,-0.7865599366,-1.199637415,-0.6798192474,0.1677145218,-0.501954321,0.7345219855,0.4645010291,0.2767996544,0.3717098103,-0.2626643693,0.4015955761,-0.2926171128,-1.0189769688,-0.9951788386,-0.0385823202,-1.9918261337,-0.3115639792,0.1794728859,0.7044544118,-0.8728197523,-0.0655263497,-0.6647963379,-0.283484428,-0.4048154112,-0.5090093886,-0.3522554064,0.5000843913,0.7688438349,0.1475583184,0.3106528873,-0.8085514275,-0.1004956404,0.7252940187,-0.0160900231,-0.2526142465,-0.4046469354,0.0611675064,0.3728097073,-0.8660545571,-0.4881958558,0.5401685795,0.138941905,0.2766558744,0.9244662565,-0.0903640292,0.9484294722,-0.7440596928,1.1784830236,0.2489255965,-0.8014466756,0.876430313,0.0270819372,-0.7860714284,0.530405123,-0.8129987042,0.5450377282,0.1925844561,0.1173464573,0.0198273298,-0.0890644761,0.4522039432,-0.1758999938,0.5189632341,0.8006584288,0.0972989526,-0.2581642713,-0.6555748275,0.6445786583,0.8895112367,-0.268899611,0.7568604737,-0.3417575991,1.908946358,2.0441468104,-0.1159599963,0.969865479
   2.578014942,-0.2459805434,-0.8349248393,0.6607689171,0.1683732645,0.4556072895,0.4134963501,-0.0694069849,-0.8573878758,0.1121614011,-0.0641670246,0.3888829726,-0.3511017846,0.8848954966,-0.961526861,-0.2620629958,-0.1444918091,-0.8456478627,-0.0588002431,0.3949744588,0.6530258802,0.413748496,0.980710892,-0.2473759647,0.1809180465,-0.8067523766,3.7972996347,0.7458288613,0.1265489808,1.3759988928,1.6147406758,-0.459397488,-0.7689370976,-0.5047122902,-0.9473709362,-0.4096546163,0.1469925298,-0.9173184217,-0.5637961784,-0.5047658869,0.2079739664,0.3196671371,0.3213641413,0.0996198501,-0.5717488152,-1.4030039762,-0.0489740619,0.4125443181,-0.4966192254,-0.0002978875,-0.7418470143,-0.4791268468,0.1190576076,-0.4067284638,-1.0016614355,0.281682138,0.0771729633,-0.3822740593,0.5153463849,-0.1344455045,-0.4485264875,0.4465468173,-0.3209713523,0.0748123918,-0.7399966749,-0.5385894839,0.1116894644,0.8063614946,-0.113571369,-0.6889283755,-0.8759238828,0.3063910145,0.8889816213,-0.7610558228,-0.2122818456,0.9064836467,0.0503425489,-0.7010576469,-0.4300841881,0.0348480389,-0.9183102898,0.4994790589,-0.2541378654,-0.5701714718,0.984851785,0.3298089106,-0.8366444216,-1.4358188058,-0.0925168504,-0.1108017379,0.4661361847,-0.7133950478,-0.5881811055,0.4678786523,0.140703051,0.4560237944,0.0946517146,0.3494081955,0.2908982366,-0.4805245145,0.5814872545,-0.3323259554,0.3475290429,-0.2631780439,0.970553421,0.6845058314,0.1940934068,0.5818488346,-0.6929915009,0.823355778,0.0532953633,0.7852893107,-0.3106896713,-0.1126572438,-0.5964790266,0.2024124228,-0.2942879822,-0.3896226693,-0.4208432833,-0.548501257,0.8819244011,0.6539734044,0.0236022836,0.5291699308,0.2293868398,0.3186264089,0.1414930476,0.1437143353,0.2510808187,-0.9013437366,-0.3215058738,0.45424035,27.8687763993,-0.6083582025,-0.1970033901,0.9529527189,-0.6251418314,0.0431759797,-0.4876295837,1.0382868653,0.5677723827,1.8217213651,0.465590412,-0.6310898081,2.382160399,-0.4904288314,0.0283867722,0.2707205827,0.9123712618,-0.7539852242,0.3185749207,-0.4706192256,-0.2375170578,0.9362858497,0.3302693949,-0.2399169674,0.8549348133,-0.1082466351,0.0322181312,0.4633682449,-0.7097935336,-0.8684277459,-0.557137441,-0.4668429605,0.5142874124,-0.8924021336,0.3681719356,-0.698689441,0.390228211,0.2375044112,0.3209323033,-0.9027532549,-0.3966159826,0.6588089143,-0.4080773195,1.0681456386,-0.9290860888,-0.156820259,0.140536057,-0.8975524581,0.2129852212,-0.2001413646,-0.4743549063,0.3142649964,0.691753174,-0.1314179132,-0.0874391231,0.2956715943,-0.6039388149,0.7146501349,0.283322591,0.7735248278,0.8737561,0.6025169668,-0.4707046843,-0.7060279568,0.2734479877,0.5396723453,0.0950670952,-0.1870128581,0.7067294567,0.478121049,-0.2789536197,0.8333680392,0.847897341,-0.16573369,-0.3032859639,0.8247400195,0.3558409567,0.6509397098,0.3273194483,0.4154275742,0.9103698628,-0.3707526167,-0.404122629,0.0574102301,-0.0957735062,0.3103886781,-0.1106500861,0.1397339068,1.0142225733,0.8106556804,0.7137676625,0.6134389652,0.1465322613,-0.4597359941,0.4026474832,0.5812592776,0.8376262907,-0.3046202038,-0.8508325156,0.4028721877,-0.9283651005,-0.2553807996,-0.7233343916,-0.9241839894,0.466519799,0.8923749395,0.8849541509,-0.036674969,-0.0380146388,0.0808655235,0.0074384032,-0.4126537224,0.5316867498,-0.9586270458,-0.0505644149,-0.094467032,0.0347739282,-0.2032613355,-0.5925627976,-0.542151172,0.7747674211,-0.8144563117,-0.6193359804,-0.1849348811,-0.6561681115,0.158728626,-0.0923616381,0.9768502893,-0.1010683698,-0.4993661043,0.0802309158,-0.4615893714,0.7743899291,-0.3904553062,0.7708012759,-0.4830994498,-0.4840118113,0.8522982528,0.3121350015,-0.3815383934,0.636444596,0.8136869207,0.8057813436,-0.5742211142,-0.7995425308,-0.4665621679,-0.0254095019,-0.7211670725,-0.9223985041,0.2701374833,0.0165359569,0.4639216162,-0.6940149854,-0.1577343711,0.0032004658,-0.1418185114,0.4678727534,0.8480810147,-0.7461102151,-0.1843733826,-0.2883536971,0.1585073994,-0.6669061506,-0.3196618717,0.4627282765,-0.2699764167,0.6088506305,0.3604117985,-0.3101257198,-0.9310211081,-0.1051369982,-0.2587814185,-0.7595053905,0.3459356747,-0.4770457908,-0.2068804109,0.7801862797,0.8180174236,-0.6901758719,0.2260552965,-0.4550810869,-0.6098462363,0.094602446,-0.7418581368,-0.4565236828,-0.9699596329,-0.789088197,-1.1404093985,0.0077446759,0.9205805855,-0.3289470223,-0.340591096,-0.5857028423,-0.6573918619,0.4960836596,0.0189980108,0.1896323165,0.2019083091,-0.1742859364,0.5597869347,0.4943087581,-0.4200546806,-0.8824857455,0.171561729,-0.5714658351,0.4738867746,0.1197549305,0.196482999,0.9380710281,-0.6867523936,-0.7601663771,0.0140927313,-0.558266419,-2.4009825666,-0.4481007703,0.8876325964,0.5112609414,-0.1600005825,-0.7585375651,0.1383637732,-0.4261559263,0.3118256776,0.3518510762,-0.7312930206,0.2663407885,0.1049951872,-0.0138803699,0.2171971848,-0.8133447231,0.2409798768,0.2510126159,0.5690701639,-0.2929750748,-0.1773956834,-0.7822385741,-0.0650574563,-0.2599918867,0.0265699317,-0.684211389,0.6037451245,-0.5144514757,0.2222109828,0.2804683543,-0.2306936846,0.7640928177,0.7188540205,-0.6082991701,-0.8217806579,-0.0651790645,0.2662676232,0.9641432937,-0.8116975567,0.7378401494,0.4473952823,0.4833639651,0.8745394849,-0.3597466701,-0.0433406528,-0.5234588308,-0.7193887423,-0.1170580953,-0.6411719622,-0.2935118234,0.2609099837,-0.3857043633,1.26537119,-0.2050166989,0.3452921648,0.0193701583,-0.4962710379,0.3902284213,0.7092220729,0.5225659603,0.3945306077,0.3748904867,-0.2049261077,-0.0834924826,0.8216427123,0.0340538734,0.0217619543,1.1698183939,0.7719067469,-0.4897727671,-0.4061215124,-0.2323012491,1.0495893971,0.4594809514,1.6447351304,0.2397329794,-0.8502853895,0.4625528493,-1.7681890927,0.1957309179,-0.0167900784,0.6494189726,0.515012046,-0.1944845064,0.5300078915,-0.1829798932,1.8494946227,0.2199015424,0.5808868618,0.3845980448,-0.5622476838,0.8280206772,-0.0957443719,0.5902381163,-0.3635053012,-0.6071103389,0.2888495802,-0.3921688136,0.6424385663,0.1445684178,0.1465227439,-0.1513557168,0.2735044117,-0.5535697735,-0.6336616788,0.248198234,-0.2681466875,-0.1208281207,0.4555630499,0.9612432689,-0.7619926802,1.0643965965,0.4355889223,0.7483378607,0.7622201891,0.502875812,-0.4767336182,0.5277552628,0.7486193695,2.1264666067,-0.4891161355,-0.0969870542,0.3993016911,0.2970758251,-0.2863877688,0.4258114195,0.4056846431,0.711760218,-0.1706858956,0.6118932566,0.2778252359,-0.0060704558,0.78750631,0.0920164377,0.5283948434,-0.9790898459,0.4106523822,0.0890226245,0.4801986014,-0.1233498753,0.2052747323,-0.5317050439,-0.2394090849,-0.161488852,0.0739071535,0.1951535322,0.603266484,-0.5232192431,-1.8480020797,0.5137127948,-1.1575760968,-0.9425591328,0.388806217,0.2227676117,0.999766118,0.3048182676,0.1999552142,0.3737287747,-0.7998547818,0.6556789402,-0.2136001739,0.6790790374,0.1066466011,-0.8291254707,0.6882274772,-0.7181006024,0.6715237015,-0.5670471273,-0.1960928769,0.0044329192,0.0624505543,0.0497844471,-0.0024183852,0.098194887,-0.1175835329,0.247907757,2.0003892338,0.4004516551,1.042438807,-0.2508870889,0.706833227,0.0052474232,-0.5309233735,0.7136915869,0.237541189,-0.2108303169,-0.5101443263,-0.0583226551,-0.3051848728,-0.6008880733,0.6457990289,0.4406677322,-0.7052944759,-0.6022201965,0.4282292627,0.7920461915,-0.0888352249,-0.6596377765,0.2038070976,-0.9293607416,0.7791465162,-0.1606636941,0.7395939993,-0.0891488157,0.7915083211,0.2994522126,0.3115504789,-0.5705847791,0.9177034085,-0.3544916085,-0.657391286,-0.9574929291,0.3840668409,0.6467812526,0.565014786,-0.7719034985,0.7825720441,0.2009893392,0.1415047215,0.1782395411,0.8159334073,-0.2967182683,0.5222976577,-0.5466268001,-0.0890986251,0.0577769424,-0.9332839193,-0.1606111857,0.6447402808,-0.6696275946,-0.1004325186,2.0190005344,-0.9634233033,0.8206695126,-0.6285189464,0.5055848365,0.5664604441,0.7033480851,-0.6899318963,0.7301956962,-0.8740862516,0.5161823614,-0.8005637851,0.6560162663,-0.496326809,0.7385696109,0.422798008,0.2532588093,0.1440142637,-0.3129389067,0.2507009556,-0.9546271283,-0.5675240235,0.2568980252,-0.3714283258,-0.8650444754,-0.2569600808,-0.6680664974,-0.6549506879,0.0595307375,0.5308501249,0.6635132577,0.3465470368,-0.6378827906,-0.7067256616,0.5170324739,0.3282827219,0.9189773239,1.2149591053,0.919770284,-0.2876631449,2.0104134017,-0.1355155937,1.4801549478,-0.3543571429,1.3142387206,-0.3653471567,2.7645721936,0.0519135142,-0.2694546435,0.1837752195,0.4979441587,0.7057258321,0.4456067516,-0.7084212627,0.1299412183,0.3107104008,-0.0199156634,20.8177981693,2.0708802278,1.284299961,-0.8166746249,1.8201624287,-1.9988183433,-0.4733251261,-1.1356028868,0.9667197805,1.6364391276,0.1580574432,0.201380047,0.6302582409,0.2084679169,-1.2564200458,0.2735031985,0.2244035558,0.2090448808,0.3391726478,-0.1624879824,0.1502767539,0.252435442,0.5647719024,0.0200309424,0.2123559636,0.3348446587,0.4024812882,0.0744689636,0.1239438553,0.3920000069,19.3993117551,-74.9370097347,-0.8051694858,-4.1407175442,1.1791173488,-0.6911934161,1.6683652045,2.0957903142,0.5905318065,-0.7558931387,-0.3400860727,-2.0809506295,0.1582238725,-2.5985977513,-0.1774787487,0.7171845508,0.4201205054,0.68356874,0.0597336298,-0.5810647389,0.933375829,1.3553312614,1.4300601043,-0.1684435936,-26.4927233745,2.1021918288,-0.3347010402,-2.0767876481,0.6495134874,-3.626624679,-1.4981636409,-0.4586988721,-2.3675532474,-1.0087868947,0.3465298745,0.0701803499,-0.7144838346,-0.0872196685,0.7914296621,-0.4243006889,-0.5136277527,-0.6130511338,1.761439602,-0.5322624983,-0.49265051,-0.2703152565,-0.3767959044,0.3938109271,0.3285905462,1.0453388813,-0.3996268429,0.5817917632,-0.2114407202,0.269933996,-0.0536893266,0.5118038695,-0.2783685747,0.8903996767,3.3304731786,-0.578258251,0.1160191184,-0.372844409,2.1396552482,1.1596250678,0.8697141818,0.8507633139,-0.2206003629,-0.3444973633,0.9063140326,-0.3596745733,0.0258263185,0.4759768237,0.0384770892,0.2400606746,0.9612612883,0.955273806,-0.6938737698,-0.3020858471,0.3975637498,-0.0268241476,0.3378710597,0.6450478806,0.2284897062,0.2309106363,0.3216279456,0.2016205132,0.3742278214,0.9579464066,0.4918101144,-0.2699156111,0.7050623676,-0.0482917458,1.2299728195,0.7449138994,-0.3518794232,0.2330275107,0.7201580667,-0.5454389548,-0.3226136358,0.3700948671,0.6537457404,0.6675870666,-0.6304899126,0.1805926153,0.6942124019,0.7000253446,0.6631835756,-0.1010415082,-0.4579415833,0.2384427027,-0.5918027859,0.2667246054,0.3686976583,0.609773718,0.0259902808,0.6544401975,0.467123385,-0.5755184583,-0.3763289532,0.755199027,1.8827210231,-0.8038794894,-0.9083092508,-0.0896153241,-0.406591396,-0.4301332073,0.9865971359,-0.9831014875,0.2913281848,-0.1142207854,0.6469860127,0.6320039654,0.9614448033,0.3706696951,-0.0352020315,0.0411154102,-0.8933225284,-0.1252981218,-0.9357789255,0.1475415831,-0.5901143293,0.2386201623,0.2241501601,-0.2459178899,0.2436929704,0.3483093324,-0.8616343942,-0.6701465719,-0.7833116622,0.014798336,1.0047738807,0.1158280983,0.1206434388,0.5988518347,-0.1506525215,-0.2050101687,0.4907921318,-0.0747329573,0.7890003186,-0.3846871901,-0.4021384453,-0.6274467128,-0.7997059737,-0.584942437,-0.6454159442,0.6778308417,-0.2264703728,-0.3566735278,0.7887662649,-0.034226221,0.3271655852,0.8925051921,-0.1158101952,-0.4275337184,-0.4772319487,-0.4853133534,0.6884994492,0.7905744624,-0.0318528034,-0.5194202321,0.3468452573,0.4608015873,0.9124342947,-0.0758653021,0.6893751436,1.5626698939,0.515550084,-0.6370153705,0.4281660563,0.7439760833,-0.3209358692,1.6696543244,0.6265682238,-0.5474034697,0.3691812165,-0.7621645242,0.4389844989,0.3044933753,0.2531736607,0.4485416312,0.3924458142,0.2415542958,-0.1472211173,1.2958347911,-0.7435186967,-0.1766410775,0.9552194227,-0.0685589756,1.0236566569,0.5537597108,-0.3550548142,8.8107261521,-0.8678487687,0.0230930751,-3.298288686,0.3990308206,0.8290368945,0.1560998633,-0.5007843632,-0.391648016,0.1346182919,0.5132096497,-0.2184002124,-0.2168069076,-0.1195283556,0.226454622,-0.4506623316,-0.2518569508,1.8447196651,0.5766395156,0.1300467553,-0.3048389272,-11.6086534881,0.0664196299,2.3268492261,-1.2164519125,1.458444503,-0.1908507574,1.690966215,0.7870036096,0.2404425902,0.5282266433,0.9040259684,0.3875920505,0.8215569577,-0.1148663297,-0.4373942705,-0.2431265468,-0.283029094,0.5864474876,-0.3147002733,-0.4773865995,-0.6980879072,-0.6984645108,-0.1287087095,0.0280104039,0.8788802775,0.543869402,0.1998574789,0.5838864053,-0.3950876352,-0.1699104292,-0.808979388,-0.2187181073,0.5930988258,-0.4374027803,0.6782799742,0.6265850742,0.7323606931,0.0666165493,0.0929590126,0.6451529932,0.3131381224,0.754799716,0.8392810655,0.2727864459,0.851165749,-0.3626965073,1.2473844083,-0.4488996933,-0.8802149805,1.2559148602,-0.7394822617,0.530332453,-0.4271764712,-0.1970049921,1.3830431966,0.3324124083,-0.0584507217,-0.017331004,2.1994980319,-1.2819847723,-0.4700915154,0.0237056386,0.8753651143,0.5546517167,1.0386123791,0.6591882531,-0.8378556182,0.6713260335,-0.5861833562,-0.0610449153,0.9046118974,-0.7181731493,0.080088125,-0.5093297116,-0.6361537819,-0.6252745837,0.5605693549,-0.3156474667,0.4372545323,-0.8418373294,0.233162402,0.7746488457,0.5359156424,-0.253953144,-0.9613282736,-0.6119037428,1.4998708162,0.8044664999,-0.5435483265,0.0802373092,-0.1056970718,-0.8681075308,1.0424540955,0.881265975,0.0591900217,0.5056353872,-0.6358775205,0.822006878,1.0333120339,0.2658962206,-0.2328503356,-0.9151366534,0.5885208148,0.0957114635,-0.2455941288,0.0229771899,0.0230995096,-0.403387907,0.0283023888,-0.6409860628,0.8733143348,1.3267199503,0.7741164945,-0.1249462583,0.6863811315,0.0136407169,0.7038949502,-0.389412861,-0.0809357564,0.0367109628,-0.1914150296,-0.6441256334,-0.4732266482,0.7236952784,-0.3999133941,0.3372490254,-0.2816613909,-0.5415009605,-0.6621521618,0.7646415297,0.1626886076,-0.670866028,0.1248610644,-0.7474743731,0.7889348801,0.6553219314,-0.5547276889,0.4897302232,-0.9132781713,0.5494196864,-0.6757343499,-0.5087086943,-0.484115669,-0.851151062,0.1206447813,-0.1991885222,-1.0503142334,0.4463146264,-1.3378032327,0.4358100399,0.5199098729,-0.7875853713,-0.2014877239,0.805491648,0.7785295788,-1.0970443087,0.4566180529,-0.1507070115,-0.4768477359,-0.1268497737,-0.6722333471,-0.9523427513,-1.8533970092,-0.0179817519,-0.3353863681,0.5834299036,0.4099316671,0.6910394909,0.4032961667,0.1640848298,-0.0602081364,0.4916661418,-0.9681465931,-1.3502827818,-5.1363694535,-1.8141169317,-1.1273707976,-0.1853256511,-0.3322467702,-0.8542286281,0.1238599327,-0.3346468456,-0.5712665016,0.6254552441,-0.1315262517,-0.610154232,-0.3385183838,0.846105763,-0.2910921866,0.756002062,0.072469672,1.0041297768,0.7410800849,0.8987928979,0.6793675961,0.7269676496,-0.4119145087,0.8505865818,0.0782822642,0.7971094881,-0.3302619158,0.3416431319,0.4646176878,0.3784546187,2.2021018381,0.4640334093,0.0731316937,0.9352199278,0.1145309301,0.9197743177,-0.6622280799,0.6354931183,-0.8477898213,0.3065516273,-0.0544790025,0.9019400038,-0.7891110108,-0.0297565605,-0.6419288579,0.7950424134,0.5967801381,-0.6334186228,0.3905438289,-0.8945032543,-0.6547305392,0.8359758012,0.6217859172,-0.2055819513,0.1344557982,0.1853538298,-0.5347527392,-0.1243002249,0.3360684146,0.1276984719,1.1772015603,0.7216727659,0.5149612305,0.5692022458,-0.7635228296,-0.2448609611,0.6032137434,-0.3447201448,-0.5806179623,-0.3718122489,0.1375103656,0.3563877727,0.3618404945,0.2053130337,-0.8516316313,-0.9586804646,0.7137601465,-0.7253919795,0.4554507823,-0.4186974392,-0.469903173,-0.4786164456,-0.0176831499,0.8480488996,0.7539174199,0.8446382067,-0.1395213667,-0.8654302282,0.7047343171,0.7907192853,0.6055405695,0.5436010547,0.1619930572,-0.2326007977,0.0831376132,-0.6847302068,-0.3550945787,0.2016635633,-0.3288305736,-0.0664078799,-0.5530562023,-0.591396525,0.5008130497,-0.4141922817,0.570778173,-0.6394634452,-0.0983884661,-0.3556988755,0.2381755326,0.5519837293,0.376777547,-0.5803247627,-0.4389775824,-0.3549315505,0.5641676857,0.730790848,0.3751480125,-0.0512763724,-0.8675418442,0.3460103992,-1.3605112622,0.2377731055,-0.9447365179,-0.4599352826,-0.6610425607,-0.3677664084,-0.3832975589,0.2313856156,0.0237741682,0.0029439283,-0.687798983,-0.5662338786,0.897028283,-0.7470834228,0.2940357523,-0.3539767247,0.9144649137,0.7441386941,0.4818727303,0.0220863141,-0.4534356122,0.0047870983,0.2697955694,-0.2156869561,-0.4857332057,-0.184983142,-0.2236247298,0.7747398152,-0.2962091581,0.8683598457,0.2970335464,-0.9057656013,0.3182344161,-0.896971046,0.2108432003,-1.0099254176,-0.3570070682,0.1660845858,0.7368460804,-0.4537449511,-0.047843797,-0.3766480169,-0.8703818243,0.4829671063,-0.1174698961,0.3635841144,-0.3519631247,-0.4264415222,-0.8457549882,-0.1605640601,-0.3481600975,0.1546067309,-0.9177248458,0.1068195867,-0.4953419353,-0.1302990573,0.2271155014,-0.5337148473,0.1012362954,0.0803224101,0.752771069,0.821718601,-4.2891131027,0.8982262642,-0.1298167005,-1.7690651502,-0.1578806907,5.3745696296,0.4506614965,-0.5158177939,-0.8518407578,0.5362094575,-0.2839887174,-0.1734850926,-0.1550930352,1.9738722042,-0.030631479,0.1619085783,0.0484405266,1.5945298491,-0.3884101784,-0.8094068835,-0.0444337591,-2.3053778819,6.8345674997,1.3651426039,3.8503374855,-1.6239924992,0.6906067064,-7.2261539443,-0.6404633898,0.113227684,0.2962246968,0.2004236762,-0.1046979955,0.2834942572,-0.0235699803,-0.9288488882,-0.1434270026,0.973434073,0.2288008305,0.6045732592,-0.0482225501,-0.408533209,-0.6401384363,-0.0584488836,-0.0858690491,-0.4840779144,-0.3208578491,-0.5134957999,-0.7646046971,-0.1995138516,-0.0850433697,-0.5555097196,-0.7933997971,-0.1487947052,-0.0844977891,0.7004065671,-0.1354239622,-0.678847539,0.6674712917,0.5869604628,0.6005633597,-0.8790531287,-0.4165286067,0.1495635507,-0.388595105,0.4633142545,-0.9369836049,0.8442683973,-0.1513889279,0.7655631867,0.6181606242,-0.0896241592,-0.1056999484,-0.377989639,-0.2808579009,0.3737719609,-0.0263303125,-0.1830515985,0.7879017333,0.6483919943,0.6650159271,-0.1129978379,0.7469181846,0.064015473,-0.1489461585,-0.790117099,0.9117638855,-0.4830028941,0.449883192,-0.2239427804,-0.2587833651,0.3420557313,0.2771249642,-0.7001357662,-0.2849805304,0.7135856764,0.0080572528,0.1917861255,-0.2259337113,-0.7514914394,0.4551468674,-0.3784127178,-0.151294381,-0.2439349594,-0.8044542422,0.8825760022,-0.3428111926,-0.1493495476,0.8745689687,-0.7799468591,-0.6541677362,0.7660022153,-0.5013701852,0.7506584302,-0.3282159526,0.622284122,-0.4547011614,0.6130735217,-0.441790693,-0.575998264,0.2535231055,-0.2519425017,-0.1544679486,-0.6801592264,0.3793061987,-0.324128981,-0.4320169378,-0.3275311249,0.6800205279,0.3574667282,-0.1769174901,-0.2771735889,-0.0472663785,-0.4634973469,1.0035311676,0.13723933,0.2467629867,0.4979770913,0.7822763122,-0.2683175677,-0.0089612194,-0.3641165338,0.1553986556,-0.4462798191,0.8724788657,-0.7902560287,0.8590387399,-0.4065287537,0.1106138422,-0.9997038217,-0.3386240629,-0.5023625591,-0.2672790351,0.2975491425,1.2479698812,-0.059512846,-0.6575316593,0.8662545073,0.3727521905,0.273656635,0.8580478345,1.3445644768,0.7849859649,-0.2736789072,1.164249912,0.3166718203,-0.165949685,0.0529473147,0.9241669415,0.8140234237,-0.1125998112,-1.0040229302,-0.2005768386,0.7653243405,-0.21893051,-0.0837903251,0.7593012739,-0.4950769687,0.3333758031,0.8212596384,-0.2655151849,-0.4920355219,0.3301860638,-0.344281503,0.4337623923,-0.2755866529,0.1979177421,-0.1679991912,0.1638111713,0.3853195326,0.6279010096,-0.343206453,-0.1812023897,0.7966697782,0.5806864631,0.9974590835,0.9135366066,0.7497864748,-0.9374036354,-0.577176431,-0.1431428055,0.8844398342,-0.3378600862,-1.0460207037,0.376729176,0.6360565598,-0.0685453565,0.0613804225,0.577205682,-0.2667798431,-0.3864305527,-0.9356743268,-2.220863901,0.9395495309,-1.2210570017,-0.3314476817,0.0522715766,0.5704774161,-0.5834682587,0.0776345123,-0.042035142,-0.1544768243,-0.969737997,0.485293652,-0.5914267338,1.3869433946,-0.3610260714,-0.5279581392,0.4154849207,-0.7510072544,-0.374986979,-0.7685061758,-0.9736741773,0.8782585247,0.4066855328,0.2402185704,-0.2021596775,-0.866506165,-0.6391339491,-0.8958426368,0.1019795959,-0.2251491049,-0.847606708,0.3197453319,-0.1244805508,-0.3945466124,0.6187044222,-0.2721118916,-0.171570573,0.2760607317,-0.3997997838,0.7977596944,0.2582275346,-0.9668286666,0.8934804108,0.7036576353,0.2521549393,0.4078965129,0.2270520428,0.4393800847,-0.7138780351,0.6113562266,-0.702772729,-0.8514176464,-0.6274169452,0.8812123116,0.0401873113,1.0443310877,0.504682395,0.6331786767,-0.5873469473,0.7050925786,-0.7179747299,-0.2817216533,-0.221302759,-0.2001445295,-0.3751186986,-0.6426635934,-0.1670889159,-0.7653213906,-0.9616770739,0.1689150714,-0.068172822,1.1341202205,-0.1573931636,0.3635701308,-0.1120414124,-0.5474169127,0.0822014144,-1.0207163906,0.7362520744,-0.8167686095,-0.1846734788,0.9522600717,-0.1111622631,-0.8036234039,0.6409555845,0.1651557273,-0.5923268718,0.0626070507,0.395638367,0.4642567448,-0.576947474,-0.2125114131,0.0388122195,0.7512928025,-0.2469492181,-4.4502954729,0.1936646817,0.6775093282,0.1761771667,5.8407828273,-2.3745259762,0.9102002901,-3.217175213,-11.2464412048,-6.257906644,-1.2286023404,0.6278798213,0.1639955932,-0.0520536514,0.2049369009,0.1862139486,0.2100616972,-0.3898838045,0.8355379603,0.3547975445,0.6979073841,0.0562425118,-0.2000845907,0.6412955391,0.102771442,0.5661291319,-0.8935313158,0.8831271327,0.1402565623,0.0797413601,0.2316462602,0.004376295,0.6475170866,0.1326808516,0.6727361587,-0.9851873332,0.2776398818,0.4434063086,-0.0688134964,0.0911703422,-0.4449824638,-0.2668416658,-0.8808551182,0.3229215061,-0.7520073812,-0.7382931097,-0.8057037916,-0.0786171652,0.6899184634,0.5261147225,-0.4078738287,0.320819234,0.7246793167,-0.4045192552,-0.838038643,-0.4135430106,-0.5730801404,-0.7357841545,0.6716469852,-0.2060697341,0.2721321813,-0.5499495298,-0.3968797196,-1.0168129317,-0.3207120896,-0.1633080302,0.2382675186,-0.4791767812,0.3120273977,0.8481726399,-0.1893049554,-1.0932128953,0.0300898774,0.514482631,0.027373393,-0.0038256563,0.5373133676,0.663713731,0.6181868272,0.4027326594,0.1290473315,-0.4824058379,-0.4258061738,-0.1603890597,0.9660835396,0.1203783359,-0.375486038,0.3119831654,0.3661118299,0.5073696786,-0.8985200112,0.1632736241,-0.154126487,0.9306724118,0.1666306803,-0.8727382337,-0.5945533352,0.9789013199,0.6836322843,-0.5994139012,-0.5752718115,0.0223300185,0.5180880428,-0.6483845285,-0.1629076317,-0.6597257287,-0.2085649261,-0.1633771388,-0.4389026465,0.2377345061,-0.1837135206,0.016652361,-0.8091264995,1.2217854826,0.0220521303,0.9512209572,0.4724259929,-0.9295717172,-0.5619690251,-0.2791946767,0.7815755511,-0.5603861027,0.4138409831,-0.3313355642,-0.2529217868,-0.8397115307,0.342629281,-0.152767801,0.5931709032,-0.6363441165,0.0162615985,0.3482745331,0.6784338446,0.2728535896,-0.8121139012,-0.8018436414,-0.0686972766,0.3275332912,1.1234988379,-0.7189874503,0.7646439918,0.4172075483,0.2253410053,-0.2100650073,0.8436721368,0.5134835947,0.8818206724,-0.4621983589,0.0648441503,-1.0068438944,-0.2818473891,-0.6608484846,-0.7882851925,1.1518945698,-0.3996678124,0.4852962066,-0.9731105308,-0.5071970139,-0.5406651449,-0.4286323162,-0.1466110021,-0.6902326328,-0.142891921,0.5464672598,-0.2248462645,0.8495000011,0.0044444591,-0.7685241073,0.0900410798,0.6663544381,-0.7294651375,-0.8351181673,-0.5271470763,0.2984602681,-0.2964819755,0.3219050583,-0.1864216387,0.1545273803,0.9324653344,-0.5665079252,0.669224672,0.5761878835,-0.6331846211,-0.2813199468,0.678527119,-0.5104170562,-0.6690505381,-0.7181954898,0.4247216073,0.6103142714,-0.8600679151,-0.3952177766,-0.9602676722,0.243658291,-0.2517322801,0.1433190651,-0.5002773669,-0.6150145861,0.2947818213,0.1723472662,0.3373777785,-0.0430918219,-0.2836277152,0.6335807759,-0.2771693753,0.2424760267,-0.2417377977,0.6780230838,-1.1588720304,0.4023358504,-0.6980185905,0.7685412245,-0.0309758788,0.3833099328,0.3778513564,-0.6506969291,-0.5272019274,-0.0696110431,0.227686533,-0.6667897649,0.9548031593,0.3484234046,0.1757952532,0.1703158974,-0.8066563677,0.5393661166,-0.3197100329,-1.0361867676,0.2934329136,0.2324567073,0.7447287263,0.1561929879,-0.456015317,-0.1636436591,-0.7947625055,0.3910455604,-0.5088752415,-0.4366431925,-0.6920093005,-0.1528415297,-0.6273708229,-0.5089572259,-0.3415302931,-0.7106279401,-1.7683246433,-0.7452763845,0.5532371838,-1.2301558664,-0.9664600756,0.7399768384,0.8245816392,0.1813122596,0.5274535414,0.7922204127,-0.5671581175,0.2458360625,1.1887478588,-0.1438960248,0.6285332289,0.8613759991,-0.4880345118,-0.6928766083,0.0282334892,0.4059290707,-0.1098527614,0.277829092,-0.1097221733,0.9432607158,0.8598226143,-0.2437848486,-0.6563846205,0.2302097421,0.2100101649,0.6300716834,0.1206526337,-0.6906392973,-0.0432094839,-0.6373286336,0.4999112893,-0.3421394685,-0.9669199282,-0.5668589441,-0.4281320278,-0.4230512501,-0.134345833,0.917638295,0.1176266128,0.6218144093,-0.1017740184,0.6594891248,0.0434986512,-0.7295953417,0.0934808737,0.2944699538,-0.0378636315,0.0473788609,-0.6017330428,0.1091186805,-1.590233926,-0.6000820094,0.5458930097,0.8030690123,-0.3417622389,-0.5712364736,-0.0059765963,-0.1231307201,0.7219177057,-0.5206826879,0.6458748701,-0.3416933376,-1.1060984415,0.1109900504,-0.6282236892,-0.1625794343,0.1375234748,0.3839380344,-0.5927072445,-0.4983489746,-0.0997913606,-0.038795844,0.4091128515,-0.0136399446,0.088119894,-0.3200110608,-0.7393496937,-0.8617653925,-0.6082175838,-0.2783718706,-0.0492743181,-0.7142580644,-0.5810529597,-0.1507139349,-0.7182421808,-0.1532360839,-0.026094534,0.4266494541,-0.4990383185,0.4620769311,0.791671175,0.6121846929,0.4232049881,0.9200134679,0.5723582472,-0.1245207186,-0.122718709,0.8309021341,-0.0386893008,-0.4222676108,-0.4261545,-0.1749548178,-0.7285983542,0.680732302,-0.2825587968,0.705804146,-0.1928476759,-1.2613601758,0.8750861047,0.6220016327,-0.9004636212,-0.1564422823,-0.2217116922,-0.7188815891,-0.6571002648,-0.2045737328,-0.9266417815,-0.7020655423,0.2811169562,0.5047767153,0.7577081595,0.5210682219,-0.8973668032,-0.2342846523,0.5888181227,0.5863622874,0.2572999536,-0.1025311595,-0.1023886227,-0.0032524228,0.3013259055,0.2716660312,-0.3825053631,-0.5961583283,-0.8312845698,0.0955002577,-0.6071350321,0.4904243904,-0.905719107,-0.2163581253,0.3936561555,-0.0312991625,-0.7050163819,-0.0285559579,0.477996184,-0.5390372158,0.4613034413,-0.9152569696,-0.6154672385,-0.4772963211,-0.0700990502,0.7491225462,-0.2694099668,0.422093462,0.6746580182,0.0548870742,0.3674149006,-0.8952463225,-0.2780570747,-0.441569016,0.359166336,-0.5975652339,-0.7636591013,1.162961982,0.2541370839,1.2934513524,0.2563478344,0.2998012464,-0.9452746115,-0.6609042522,0.3534536495,0.051482941,-0.8093596363,-0.8775250841,0.7122076031,-0.1018300002,-0.5026188864,-0.5633261919,-1.0467153261,0.0969204809,-0.8158430071,-0.2509756955,-0.2383442141,-0.1690617175,0.6896612123,0.4935308187,-0.892869876,-0.0327689661,-0.4486065533,-0.1200775394,-0.0196895113,0.3233210681,0.6876468079,-0.2837095978,0.3383614185,1.1339688454,0.0680695629,0.3964755882,0.5720305141,0.0059516629,0.1065980714,0.475613897,0.4437286098,-0.7904744632,0.1743836207,0.5018964086,-0.9213484782,-0.1607918855,0.1535963102,0.0447270253,-0.0538163002,-0.3520087605,-0.0016179258,0.8804680936,0.1872954267,0.2475953224,-0.2487829451,-0.7962791444,-0.5635220931,0.747945178,1.3828491657,0.8154084143,-0.2794406502,0.7359421368,0.5384701074,-0.6910795186,-0.4667766754,-0.5982986731,-0.0109354899,0.1618015425,0.66014565,0.1354871919,-0.0585410505,0.0600843109,-0.2341299916,-0.600369349,-0.1193040974,-0.4635305336,-0.1765925331,-0.6908585814,-0.5924800944,-0.6463231895
   -0.7868636768,0.534461545,0.5553979345,0.0186061734,0.7750633714,0.8681983576,-0.4605412017,-0.1289980593,-0.7016070166,0.9219088384,0.7611802843,-0.1003429831,0.8829608972,0.0646258964,-0.2228431374,-0.6151114857,-0.7150413742,0.7884376161,-0.4719312683,-0.8528840163,0.4715023975,-0.1179998336,0.916316812,-0.0377530985,0.2307109002,-0.4451844436,0.9255390727,-0.3008951897,0.2177729388,-0.2166357325,-0.0254421701,0.2339829979,0.8835515619,-0.1939716826,-0.619238262,-0.4861846345,-0.5664163232,0.7111627023,-0.5902576497,0.6154832558,-0.5817535836,-0.2675894082,-0.4762299918,0.2625524934,-0.340661054,0.8486651904,-0.0426092314,-0.7125281706,0.0059076427,1.009032019,-0.0020535503,-0.508909906,0.7264460971,-0.8959105249,-0.5046497065,0.4148777504,0.3598290425,0.5934339182,0.3778865899,0.245119324,-0.0371395302,0.0704018174,-0.5956856246,-0.4208247614,-0.6435654233,0.4035497929,-0.4056700657,-0.9213159894,-0.100825402,-0.7185146229,0.6857740225,0.3638767877,0.9008772206,0.3752751156,0.9863922076,-0.4846720231,0.4716915804,0.4280801707,-1.3738412555,-0.4455009689,0.3328327336,0.7445140492,0.5175427463,0.767206326,0.6446631758,-0.4341207971,-0.3064930603,-0.7804128468,-0.0165099338,-0.0578469066,-0.4035680892,-0.1018758672,-0.5059353694,0.2505092825,0.1875982632,-0.07199372,-0.7731430346,-0.5405270347,1.010037775,-0.0102292083,0.1745968238,0.9025578441,-0.5321360348,0.7377230258,-0.2193048483,0.2658703477,-0.0373265796,-0.9628292866,-0.3938332472,0.3129347783,-0.281009835,0.1299706093,-0.6219969902,0.015878699,-0.2861261604,-0.5577228347,-0.1657212916,-0.1191891767,-0.3908303089,-0.8977330565,0.5977897595,-0.2802062829,-0.4700358801,0.8492049885,-3.8346988848,0.1447150747,-0.8629637045,3.4819001088,0.8597602263,4.1811216741,-0.756783144,-0.292684778,-0.9025072761,0.702698375,-1.3632197298,-0.2324113074,-0.4248907202,0.4913767874,0.003004483,-0.4145533001,-0.8220400628,-0.8202883236,-0.6925157797,-0.3585870915,0.0937606349,-0.457155997,0.2676587898,-0.4623889122,-0.5481232839,0.0605530227,0.4031017191,-0.696785899,-0.6145334274,0.3865437386,0.3933708609,-0.3491009103,-0.6079725849,0.1253479085,0.7432598815,-0.0681454655,3.0757317824,-1.7814514312,0.6534188145,0.1938888353,0.7713525938,0.1784957714,0.229802811,0.5108216004,-0.0960832864,0.4244172188,0.1036790518,0.6574804663,0.4005996789,-0.5901637694,0.743713992,-0.142534752,0.5068196369,-0.0434560948,-0.396976766,0.4633095375,0.1655183799,1.3831832997,0.0451930695,-0.7691622957,-0.2703142567,0.8303750155,-0.122313786,0.3020173252,0.1465394008,0.6007306571,-0.2528399722,0.6661251636,0.557411772,0.6608903618,0.2655409031,-0.0615943764,0.4867001477,-0.8553370112,0.330731692,-0.6708215427,0.3979694392,-0.4100090736,0.6402764802,-0.2370204075,-0.1670825901,0.3702241381,0.1249775566,0.6289403193,-0.1879116356,-0.1435809003,0.5371498036,-0.0723701273,0.603014719,0.4924712878,-0.2796403788,-0.9087096324,0.3884409868,0.0574596394,-1.8394442383,-0.1400825736,-0.255160061,0.2920905189,-0.6146406818,-0.7172930814,1.0130649431,0.0800817255,0.204573301,-0.0899335611,-0.5857914393,-0.6630993167,-0.4741600654,-0.6750881882,-0.5117613126,0.6040985653,-0.4021178651,0.8672947785,-1.2271243042,-0.2888357614,0.0430106017,0.2037016256,-0.4799872486,-0.3869627634,-0.5891898756,0.9911362579,-2.2523091646,-0.0764124861,0.0782822343,-0.519719397,0.4489156723,-0.0631612256,-0.0516156401,-0.5884516045,-0.4070642564,-0.0804902899,0.8569416977,0.3975214262,0.1064493225,-0.0789104966,-0.5051979427,0.0155458202,-0.738036138,0.722626278,-0.1751096036,0.4950118156,0.41353017,0.3323528379,0.5498880304,-0.3633316998,0.2618086497,0.1168242085,1.1397190927,0.9216698024,0.6243476947,-0.717848446,0.8086036388,0.0051861412,0.1104047248,0.7335888729,0.7016915437,0.1530313828,0.4392689612,-0.1857950561,-0.1987164223,-0.3315677799,-0.3208206708,-0.6527851797,-0.7560140935,0.7069340475,-0.2318348123,0.6598804022,0.3635040705,0.3767485946,0.104146691,0.2133944385,-0.6256044492,0.8755800006,0.0056323206,2.2166157986,0.5999669439,0.7734469957,0.3838659133,0.3420759646,0.2203273917,-0.3561998595,0.0828412069,-0.7614640932,0.1825840046,-0.4955738878,-0.106315793,-0.1127848468,-0.0038874123,0.5264271347,-0.6693735059,-0.5569240796,-0.1374370736,-0.7040279188,0.3595313138,-0.2611500445,-0.1724382813,0.3486757137,-0.1812827291,0.66200573,-0.05314734,-0.2232303594,-0.6541796581,0.0894799175,-0.9366402375,-0.4684481529,-0.4402498657,-0.3582751509,-0.6881233114,0.7121803838,-0.4990270113,-0.1208068324,-0.0033697706,0.7676855437,-0.2384732914,0.6881789997,-0.0807202768,-0.79811524,0.9421294203,0.3334748003,1.1380988824,-1.4853562325,-0.3369407115,0.5221413257,0.174848144,0.4718772208,-1.3755677336,-0.1678424422,1.9004425798,0.0440231968,-0.0522779257,-0.9292022937,-0.2102140507,1.1498224946,0.4696540494,0.4500355689,-0.2715377445,0.5724529287,-0.2593894484,-0.3041520395,0.5140840189,0.1027820437,0.449382737,-0.1580957367,-0.558884013,-0.6102065778,-0.540476536,-0.934585536,0.3929870385,-0.7525339167,-0.3140816443,0.4369662282,-0.5388854755,-0.5496027177,-1.6240260304,-0.1473439634,-0.4693678833,-0.4781493945,-0.3423722184,0.3409765478,0.3338843937,0.2379351684,-0.5773100997,0.3600094891,0.4541957871,0.0041977493,-0.6181875865,0.1910559295,-0.1491513152,0.8672867594,-0.2288108387,0.8021722334,0.8068954477,0.1734107726,-0.2246456788,-0.6511894229,0.007807279,-0.3333912933,-0.966352073,0.832657409,0.4456759155,-0.9614329672,0.7875785965,0.8520652827,-0.5923819147,0.7912163631,0.7713608619,-0.0708078758,-0.2749257906,0.1606000081,-0.7378543988,-0.3899071663,0.4489548431,-0.9153089774,-0.6639144199,-0.2680024574,0.9704175622,0.2324661465,-0.0240461379,-0.7406339687,0.5422506557,0.4823594783,-0.1160362336,-0.2495825288,0.0707993178,0.8505515669,-0.1854611689,0.1936853053,-0.3439376204,0.0344623584,-0.7742984822,0.3532931185,-0.1011285532,0.6345632353,-0.7228287959,0.8824516605,0.406244803,0.4341063837,-0.7212751188,-0.0033342011,-0.608006083,-0.54202198,0.4969085639,-0.5367907978,0.9450983333,0.7227618624,-0.9529030223,-0.9190708337,-0.0434822214,-0.0452165496,-0.2090998964,1.7571949278,0.4678518248,-0.6978085657,-0.1362304784,0.1113955908,0.0618893305,0.4646437765,-0.6418806136,0.1705728608,0.5361351077,0.4493056312,0.3322104752,-0.6362928833,0.8808640162,-0.2908883736,1.1043866061,0.2806497995,0.5277374437,-0.1027567718,0.5958461077,0.3515757944,-0.344927472,-0.3859640533,0.5954334387,-0.0001499776,0.012922308,-0.0701948775,-0.7265406298,-0.7953535191,-2.2123862606,-0.6888337101,-0.3076031251,0.7954502473,-0.6239732638,-0.0697805867,-0.3938453702,-0.9551058243,0.7681041271,0.3892174325,0.7357558401,0.710604565,0.0063584868,-0.4106663165,0.7097150574,-0.6802051193,-0.4935885574,-0.4716488142,0.1955344671,1.9914095802,0.7680285552,0.208420887,-1.4940245379,-3.9226700493,0.5299169135,0.242599526,-0.137829304,0.6780901977,0.506409906,-1.6211908551,-0.5008051088,-0.1454088867,-0.3652693121,0.7014823284,-0.2453201874,-0.6163694345,-0.0692149055,-0.5704751272,-0.1219185867,-0.1886593302,-0.252002366,0.5198100259,-0.2390420355,-0.0361782437,0.050114521,0.7183174606,0.6042621367,-1.4946062698,1.6430849029,-0.5977167648,-0.5692921623,-0.0578415238,-0.1405683101,-0.0012151856,0.9470680549,-0.9428641413,0.7296941927,-0.6613436485,-0.8274254485,0.2811441912,-0.1805946524,0.6570118859,-0.8787183906,0.9579637215,0.2336565534,0.6448704646,0.7596218483,0.7873306724,0.1894717675,-0.6378279096,0.3165133066,-0.6923579145,-0.0927227476,-0.5093266181,0.33736697,0.3132352099,-0.8757284548,-0.0889654747,0.6548357966,-0.6882393952,0.0989985546,0.5952075664,0.096330375,-0.7754821289,0.1340654351,0.2296270684,0.524216075,-0.8684283112,-0.3672814498,-0.7928609906,-0.550320636,0.4992205484,-0.94486592,0.7935481286,0.3009141344,0.6259450645,-0.0463518557,0.6316191877,-0.4620878635,0.2207947076,1.0550597322,-0.0735158664,0.1580219252,0.6758657455,0.0194596298,1.5955895389,0.6155253691,-0.1583857765,0.7733330825,0.9465591194,-0.0845503553,0.1794223581,0.8882890553,-0.3696228567,-0.5270266333,-0.5161357704,-0.1491789164,-0.1698033034,-1.1266319833,0.1272313642,-0.4467090868,0.9316430171,-2.0942402536,-0.7717774464,0.83452227,0.2919516819,-3.0943212938,0.3761207053,-0.5159116905,-0.4136237339,-0.4221893454,-0.6025958054,0.2003852091,0.1664969625,-0.1465908568,0.9670471206,0.5675936302,-1.1126260334,-0.1960376885,0.0507192915,0.3314159695,-0.9465119764,-0.1293374492,-0.7923559423,-0.5974288963,0.2519507916,0.3840430012,0.5357759391,0.0729907125,-0.0510057971,0.0928627358,-0.7993496889,0.2523389234,0.1559120567,-0.3110536371,0.8858632044,0.4778916438,0.2874350882,-0.9691486513,0.0775457965,0.2922410116,-0.7571823925,-0.1864062101,-0.892101771,0.5705537992,0.4467768032,-0.0790652748,1.5817332209,-0.2113812993,0.0325137779,-0.8593175248,-0.7934068004,-0.9137043192,0.2793975757,0.0827561201,-1.0066981331,0.3076700408,-0.0964636687,0.7561194687,0.2571575647,-0.392745452,-0.0234044346,-0.4251824662,0.090406075,-0.2938414732,-0.2938765079,0.6540226219,0.4523941861,-0.5816004134,0.7191186908,0.4021681912,0.8392201202,-1.0834407104,-0.7553883985,-0.932473104,0.3353157333,-0.3505629309,0.4076950065,-0.3150675352,-0.3865155679,-0.2325159222,-0.9828903299,0.1380072197,0.4280286066,-0.6138351455,0.1686795179,-0.081890476,0.6714580617,0.040557376,0.1521174994,-0.3048320874,0.398432688,-0.707952366,-0.5834680949,0.3062997418,0.7684861824,-0.3114754983,0.7870201038,0.1054309727,-0.6930682237,-0.0488944794,0.1212465584,0.6706672222,-1.3133765073,-0.0678455092,-0.3039442404,-0.0083851105,-0.1841417463,0.7869206227,-0.2261122944,0.2124501659,-0.4985343257,2.6731943552,0.5558483968,0.98366234,0.5135072603,0.3973030743,-0.9569384869,-0.0943724544,0.1567067724,-0.8153128448,-0.5892144865,0.2993763636,0.4687071089,-0.0249156367,-0.4909572711,0.3544486698,0.8436353835,-0.2333626949,-0.0275413013,0.5422022582,1.0836086176,-0.1444338784,0.4742437005,0.9208220331,0.9451708561,0.031893863,0.9899672797,0.5919648217,0.3136187405,0.384674253,-0.8845310865,0.8442753709,0.7548321596,-0.2040131079,0.5818533901,-0.1663935378,-0.7261257369,-0.7196486067,-0.646609765,-0.0890783627,0.7316296853,0.4356807053,-0.1266046341,-0.4136991069,0.3667228528,0.185540148,0.3804698646,0.5870529446,0.4802040046,0.5385913095,0.6982806303,-0.9486010622,0.4835308464,-0.6781561557,0.6369678155,-0.9354531448,0.15277772,0.4868033685,0.2111384242,0.4536024908,0.1429952585,0.5689218316,-0.9030066227,0.7129310269,0.8442963674,0.5542763462,-0.9672060474,0.0290314762,-0.1485061628,-0.7235678062,-0.5634399159,-0.4434561553,0.0368826702,0.3807949492,-0.3379076542,0.3362478237,-0.0433314094,0.785951174,-0.7910985594,-0.1970312062,-0.7185212474,-0.8252386432,0.2881057452,0.1650448278,-0.8837605302,-0.2756875348,-0.660807723,0.3332816263,-0.2972872645,-0.7433125614,-0.6482188501,0.7903851759,-0.4494767377,0.0506481626,-0.1070144333,0.828019395,-0.7369253977,-0.2565903166,-0.2773685207,0.4541082274,-0.2230523355,-0.2285240432,-0.8724280468,0.2969601073,-0.7268009812,-0.3949173874,-0.1518962042,-0.2699448509,0.8342790112,-0.1388761245,-0.4797976001,0.9176476654,0.2159768212,-0.0658143462,0.5438218157,0.3870821493,-0.846469489,0.7676921114,-0.308073424,-0.0853728549,-0.0126679797,0.1629383246,0.2151126083,0.200259815,-0.7441654494,0.1288925801,-0.2003906004,0.6204799467,0.2438865015,-0.8068930158,0.1413180517,-0.6727270329,-0.5258393107,-0.7044328797,0.1378576862,-0.5208888285,-0.544396807,0.3110834502,0.9494768733,0.0872738406,-0.1618421522,0.8825140686,-0.0202068389,-0.7712289586,-0.2024204693,-0.2860794703,0.2027939394,-0.4961066823,0.159550728,-1.0664335355,0.5978747262,-0.5595975674,1.409829475,0.8058419057,-0.2740018144,0.0059583341,-0.8733392241,-1.4849023155,0.1511414964,-0.1569583606,1.7487129065,0.8942440788,-0.0471469422,-0.3079919339,0.647978099,0.0497985035,-1.3335562448,0.9554575183,-1.0264531486,-1.821790323,-0.5037502602,-0.2037762785,-0.5624695356,0.1600180177,0.0132833043,0.0431614237,0.1396342502,0.3829762589,0.4384866037,-0.2290694385,-1.0087197049,-0.4591385572,-0.1349191687,-1.0100923927,-0.2660856168,-0.6573897752,-0.6261283272,-0.0786840547,-0.8082964932,-0.4077277055,-0.1161587566,0.5110156187,0.3919849357,0.2700668375,0.5505302249,0.1850306535,-0.5304674225,0.3826040054,2.0194856878,-1.0075621347,-0.7223591623,0.0613247921,0.4246322362,0.3652980557,0.5247099931,-0.6846794714,-0.1520053764,0.6606882865,0.5708509922,-0.3233162973,-0.7708292882,-0.8428186128,0.595495486,0.5931119407,-0.8309765297,0.1457325382,0.6264289421,-0.3410712299,0.459486753,0.4744668673,0.0504652442,0.0948737463,1.0473396048,0.2289810008,-0.5181467906,0.3946445174,-0.4017903267,-0.1496561744,-0.039164311,0.2263691971,0.1200926601,0.6841116108,0.5395593501,0.7984742799,0.6164475956,-0.0010378493,0.0464990013,0.4929238436,-0.5632143274,-0.0591529643,-0.3308694762,-0.4702722187,-0.4169519549,0.2404956311,0.0937198552,-0.7356473728,0.3790181961,0.6100215508,0.4464322437,0.1311604799,-0.6731055571,-0.2555758496,-1.0506342707,-0.2853697988,-0.7358960631,0.638802607,0.3896165011,-0.6618018617,-0.5985480319,-0.2638974828,-0.3133244396,-0.1171473423,-0.2099200953,0.4840217701,0.7505042302,-0.8208954933,0.059898639,-0.8407300424,0.9468121657,-0.8486193256,0.0884229297,-0.156907273,0.4344511525,0.9327415726,-0.3193717308,0.5277374231,0.6638045275,-0.2747202929,-0.1707644095,-0.009545226,0.1495757449,0.0649828522,-0.4985658155,0.7322425771,0.0889911183,0.0588392376,-0.1324966163,0.9637238819,0.5449373002,0.703065144,-0.2062663026,-0.1579428569,0.7434073961,-0.782437302,0.1829199719,-0.5634948948,-0.051408315,0.4049868186,0.842886079,1.0842902239,-0.283779858,0.4556091118,0.0206525671,-0.2072652931,-0.7193858006,-0.3474170144,-0.2949665488,0.0401242869,0.2653638763,-0.7686218829,-0.6634326864,-0.5461070612,0.9269247164,-0.2085898406,0.439803077,-0.45065287,0.9112333969,-0.5402450179,0.4550150427,0.6896049794,0.3983933828,0.2544412229,0.8954133837,0.6313344285,-0.068053319,0.2928193678,0.5308355073,-0.8978953051,0.8748026941,0.000302942,0.0794757623,-0.1900329146,-0.2661654402,-0.4332938409,-0.7339673991,-0.8996893027,-0.6229896831,-1.0147515607,-0.2186177236,-0.1534817085,-0.0509748769,1.0071966984,6.3860627289,0.9640663021,-1.0042608713,0.4078738842,-0.8212114213,0.7618067101,-0.8196577737,-0.4086376882,0.5138117118,-0.3665779653,-0.2637216202,0.4517255503,0.8586106076,1.0256116963,-0.5342183795,-1.1179960049,-0.6995566301,-0.904590477,-0.4274219379,-0.8753606342,-0.3214634297,0.3203176475,0.4293688504,-0.8387311661,0.005070014,-1.3150992934,-0.2320400213,-0.6110817813,-0.6503026105,-3.4191510232,0.2706039706,-0.822852933,-0.3137711414,0.3751520786,0.019268384,-0.629143474,-0.6423066219,-0.6669067228,0.0662093507,-0.1922038982,0.4251444989,-0.2601124814,0.0301299739,0.0850344053,0.3082011014,-0.450278005,-1.0550640046,-0.2994490134,0.757835906,-0.6568175274,-0.038617151,0.0060170623,-0.520004297,-0.1435432739,-0.4799723498,-0.3724012242,-0.0281938006,0.0397086828,0.3965248075,-0.3441575878,-0.3212547141,-0.0557013522,-3.3591167107,-0.2716696817,-0.3938281455,0.1084949579,-0.0741161741,-2.8746906065,0.2612342556,-0.0525435958,0.6242242481,-3.3973001713,-0.1107110865,0.3268739399,0.1556588651,-4.7833338551,0.0969218248,-0.3568383468,-0.3340316127,0.8477709001,-0.3467144487,0.2771366757,0.3032687926,9.2160408419,0.5538256442,0.4617551545,2.7030266292,3.5512213605,-4.4552291488,-6.5787326581,-0.6812407888,0.7455852934,0.5360187597,-0.6690800496,-0.9575775579,0.6070020636,0.7870162067,0.2869399153,-0.6664661781,-0.101633002,0.0674536142,-0.7725385556,-0.4962474925,0.4796958802,0.7037886215,-0.9832797359,-0.055184647,0.7208319295,0.0720269973,0.6312348047,0.4250975235,-0.1025273491,-0.8322836174,-0.9889539931,0.9369482714,-1.1169966114,0.9616908096,0.59883022,-0.670063686,-0.2730995965,-0.1946063331,0.10087725,1.1342999315,-0.4501068015,-0.2646433768,0.727650737,-0.3202884273,0.1851400005,0.8619612659,-0.0081308144,-0.7097046762,-0.2112683734,0.0561825329,0.984837994,-0.3370953736,0.9916348335,-0.3274898844,-0.4399184602,-0.7812328249,-0.5514840426,-0.6837947418,-0.8867238439,1.6600047656,0.6849242884,0.2821882011,-0.1620331219,0.3851462624,-0.5812644062,0.0798593557,-0.2243490642,0.7824541352,-0.1294421051,-0.1588834199,0.4439638138,-0.4747798107,0.892109209,0.7660893995,0.3192949423,-0.1404420403,-0.4516842518,0.7468317904,-0.059582249,0.5705266073,0.8886299783,0.42531141,0.2986133506,-0.4577882091,-0.4542641327,-0.0736519023,0.9916842897,0.3236570956,0.0636256876,0.0913585346,-0.2940489429,-0.4399723007,-0.1691756465,0.5757339064,-0.9458686768,-2.8151593926,0.1014588781,-0.0915864719,-2.5078407515,-0.1301535116,2.1844344343,0.0664557836,0.0216407669,-0.4053805804,0.1756732838,-0.5569533196,-0.1120497607,-0.4616337069,-0.0939759164,-0.0094785796,-0.1429884567,-0.3182355576,-0.8672080303,-0.6678271349,-0.2337769781,-0.3738845969,0.9067676374,2.3106392097,0.5558986357,-0.9691064752,-4.064949097,0.8364103695,21.1744644841,0.653983186,-0.4638770024,-0.4770238769,0.7658105942,-0.2119779071,-0.5243090241,-0.3124112623,-0.4229105656,0.0436516908,0.5557420348,0.8516076001,-0.515815255,-0.6078063853,-0.2947190013,-0.5548189123,0.022290837,0.3899702473,0.0880650742,0.8154176101,-1.2927514245,-0.034958577,-0.4317696852,-0.5201361574,-1.5487940733,-0.7601413364,0.4331598132,0.2976742022,0.4672509928,-0.6521110297,-0.0737794453,-1.078250267,0.2052192922,-0.0343846154,-2.6629596979,-0.7553146511,-1.8750807008,-0.1347818681,0.8762303822,0.2398566586,-1.1041178764,-0.5322276146,-0.5411614048,0.7193516718,-0.0172155337,0.0718311922,-0.9482974443,-0.1815725021,-0.6151530074,-0.1130232131,-0.8173574522,-0.2563785673,-0.0123116695,0.4891817606,0.7218569351,-1.500559616,-1.6146390277,0.7482501264,-0.4301864628,0.0027203441,0.0634857782,-0.1735465668,0.675799833,-0.3253988657,-0.5518576608,0.1958668029,0.603555755,-0.7008171464,-0.1472486844,0.0612605697,0.4949599338,-0.4619805028,-0.8963316952,0.5761878652,-0.1858617818,0.1873065901,0.1542585678,-0.6028061835,0.7184481957,-0.7004886003,-0.7062452641,-0.0163335243,-0.3222057405,0.2647138353,-0.0126731057,-0.1447720813,0.5018147361,0.4582635847,-0.3675499068,3.205887486,0.1054511335,-0.0979972033,0.1439318407,-0.2135064031,1.0044404246,-0.2333561987,-0.0226742146,-0.0931279853,0.9456241187,-0.3012457526,-0.0694827233,-0.2439320726,0.4030404427,0.093736933,-0.0388791226,-0.2515269024,0.1926536645,-0.3371107882,-0.0785972487,-0.2898025919,0.097470556,4.0801441901,-13.0860280981,64.0488223305,-6.2228718561,6.8720715146,-4.8351787308,-0.4455497306,0.2773226366,-0.1668962063,0.378666218,0.6058986083,-0.5052558489,0.043127029,-0.1369434148,0.0094166189,-0.1080688901,-0.294077447,0.1951720371,-0.79774842,0.1270953631,-0.4979091149,0.790489661,-0.1713094011,0.6465550064,-0.792618042,0.6617953936,0.6759159465,-0.4737277254,-0.9227742699,0.5552318397,0.8381137457,0.7539717906,-0.2561391707,-0.5907181089,1.009723907,0.2898864265,-0.9219582315,-0.3277267533,-0.1936441569,0.0148075975,0.4460827572,0.8470598695,0.0239667457,-0.2206957097,-0.1202450696,1.7350617413,-0.2988444361,-0.7926001294,0.9453448774,-0.6868157987,-0.3907898061,0.2865112038,-0.1168235252,-0.0281768751,-0.0956165912,0.8310320161,0.2822522792,-0.8204511164,0.1353133306,0.9325893385,-0.9813752568,-0.8290197295,-0.8274244551,-0.4011162766,-0.276030594,0.7558633239,-0.4624452641,0.6302561764,-0.1155359173,0.1996349875,-0.6030913605,0.5336708785,-0.1300194443,0.1307506202,0.9028798664,-0.2606890946,-0.5461763003,0.1380601021,0.352834501,-0.4015482556,0.1116661466,-0.6494796593,0.5318527272,0.0087551956,-0.4773285853,0.4418103868,0.9513677589,-0.3879430472,-0.5151244979,0.1362908719,0.4172585517,0.2347645374,-0.9190430121,0.6464719914,-0.0560272254,0.2029869916,-0.1476310817,-0.0493578336,-0.8061983177,1.0293967855,0.9074735654,0.3550001735,0.395732767,0.5111532133,-0.0249786944,0.2042776997,-0.2286042577,-0.168901332,-0.7887624013,0.1478767164,0.3259296593,-0.1081575082,0.348490955,0.8812075825,0.0252541444,0.3071612108,-0.8833506333,-0.7752531371,-0.7588811305,-0.7903823035,0.6279738401,-0.0589680313,-0.3621013387,-2.2406613623,-0.3444061207,0.2668114657,-2.0479802228,0.1437023216,1.3039555849,0.2825903412,0.340125557,0.0184037585,-0.1493718082,0.471981541,0.2697658764,0.2194135335,0.2646549064,0.2845347579,0.2436118711,0.1274183607,-0.1718895272,0.0694793212,0.1743482737,0.2197057256,0.6446002904,-13.1970191975,3.3561690663,-23.3622805321,1.3656676689,3.3984387163,7.6541254609,1.5069663456,-0.1623544436,0.5550046373,-0.6107688431,-0.578544417,0.2796822858,-0.1165246125,-0.4405973195,-0.4555628638,0.1340464392,-0.5134179277,-0.1254011379,0.834677437,0.1671241233,-0.4753853387,-0.5660757063,0.3785628797,-0.0737187442,-0.8082639806,0.9151702313,0.3086033853,0.4529407952,0.7445959863,0.8807481123,0.8495239995,0.7310501988,0.6183049219,1.1822941756,-0.5793971563,-0.0642845358,0.3321702486,0.6798656305,0.5569306955,-0.2824072592,-0.1948161777,0.3291944414,-0.9578533229,-0.1360171715,-0.8546734942,0.8449777078,0.0896248736,0.4314949152,0.4142389966,-0.0477351476,0.8762952853,-0.4438927141,0.1831142742,-0.8686208228,0.6466939983,-0.2830309725,-0.6705290758,0.0292873977,-0.4664491519,-0.8936945093,0.9809262768,-1.5665177149,-0.4850957017,-0.1372248215,0.3504494297,-0.7222899992,-0.9986551191,0.7442439923,0.4297239959,0.7500720588,-0.496894155,0.6349644037,-0.5005556259,0.0053442538,0.5039510522,0.5627547693,-0.3932580037,-0.549427231,0.6273855225,0.2541386634,-0.602606674,0.2014424879,0.5851352752,0.8391328692,0.6684758292,-0.0588377735,1.9090505191,1.087306561,0.3824163197,-0.41440527,-0.4468123132,1.5493233772,-0.126450755,0.5697017537,-0.5748400989,0.471117969,0.2791111589,-0.6292504193,-0.5190582691,-0.8073404998,-0.3353878165,0.305809431,-0.4204784839,-0.5899217756,0.1407239232,-0.3385277742,0.3985941634,0.1968895879,0.5299235184,-0.9479043608,-0.7063192743,-0.8388688799,-0.4442206885,-0.5833195153,0.3379000902,-1.0938393142,0.519676002,0.7111861441,-0.6990737168,-1.029348566,-0.351172943,0.7412347971,-0.5846417278,-1.1701693276,-0.5108053428,0.6443463235,0.1814678324,0.3503056617,0.6370034674,0.1447948459,0.0408811757,0.3878503808,0.3662829413,0.5460838624,-0.2192113345,0.1973193382,0.047283411,-0.4487107602,-0.1757982879,-0.6372679182,0.8229143219,0.3819723379,0.2328756117,0.9689520532,-0.5726629191,0.170311572,1.0037570554,-0.7399820471,-0.3509185994,0.0428744347,0.7771521494,0.54252458,0.4900708986,-0.6098298802,0.6110791595,-0.6071683647,0.1595678572,-0.9419994554,0.7127204078,0.2312550672,0.1477377776,-0.4421643989,-0.0586282941,-0.0255161136,0.8002870185,-0.5962701039,0.4821816317,-0.3611738414,-0.1302093545,-0.4388296296,-0.1323537358,-0.6550274273,-0.6894208749,-0.4129706465,0.6057752111,0.2241397725,-0.9419274716,-0.8855805541,-0.5103652516,0.9026587837,0.937491881,-0.4979863001,-0.8933749886,-0.4749559864,0.6916784735,0.2404190068,0.056567073,-0.3071352834,0.5243749793,-0.2475049917,0.0692278582,-0.7020360134,0.6730466479,0.0026458676,0.5956802094,-0.7479772826,-0.1206144286,-0.6036523126,-0.185343735,-0.3640853471,-0.2557403212,-0.0921607475,-0.6534840006,0.3268965852,0.6180979892,-0.5728952728,0.3158029608,0.7546425512,-0.1081527155,0.3028758075,-0.114922663,-0.7003122096,-0.0527640629,-0.0052482397,-0.0290712754,-0.7490678328,-0.2503128229,-0.3371620587,0.0437902591,-0.2332493151,-0.7337238687,-0.0504149091,0.6481498528,0.013994515,0.0552427411,0.2007749514,-0.8278472171,1.049254627,-0.6323091225,0.7207314865,0.1883184191,-1.5898874748,2.7642857029,0.1157970225,0.2167062748,0.2366792697,0.3463471155,-0.9473705457,-0.768951741,-0.9594060909,-0.4967223946,-0.0333265811,0.0899069949,-0.0746557873,-9.5655744943,-0.2303207142,0.0549393858,0.0766831912,10.9348427777,0.3538962994,-0.1307583089,0.3903488276,2.1449637424,0.8934835096,0.1668806185,0.3632996306,1.9695170397,0.3649770082,-0.1538927329,0.2368525026,-5.1918305212,-0.5710397894,-0.6253855511,0.1696712231,1.0190229685,0.5279894791,-1.8432856677,0.360925774,-0.4154879714,-0.662887735,0.9574092088,0.1100867948,-0.1471392741,-0.5643692121,0.3719602418,0.6180944637,0.3139751488,0.0646669275,-0.6896156368,0.6635679453,0.1552617263,-0.5122781049,-0.3225113737,0.1397425378,0.957983902,0.22064748,0.5585837485,-0.653917337,-0.6085941383,-0.4525222571,0.5609171572,0.484296859,0.8968331718,-0.5290435716,-0.0179699041,0.1327861855,0.8592470353,0.1575998309,-0.6007118693,-0.472476748,0.7473170147,-0.6300249081,-0.8248264762,0.849274282,-0.5502340306,0.3356700205,0.4158775166,0.3129583894,-0.3111425949,0.6203872809,0.7793898503,-0.2443503097,0.501156974,0.2884155697,-0.2937521591,-0.3711449276,-0.0241105245,0.0152953432,3.7306433466,0.2921452817,-0.4454239766,-0.9296267312,-0.6269840917,0.2228080289,6.3526314468,0.5679575812,0.2681771874,0.5198729744,-0.1599688846,-0.8730572808,0.5688033272,-0.7186209704,-0.4427145105,-0.3452223677,-0.7119522814,0.3956776376,-0.3896598578,0.3004084791,0.1647750415,0.4067727788,0.1990841567,0.0032634555,-0.8006431305,-0.1984318877,-0.3247458151,0.8141947179,-0.1070607619,0.6624526779,-0.2039803895,0.6824543623,-0.9752454678,0.4657861426,0.6825038316,-0.2160679329,-0.6032529202,1.3682145688,0.6703593829,-0.0168742499,0.5014556291,1.2294653495,-0.4259728922,-0.0258298597,-0.1590098377,-0.1877250217,-2.0090500307,0.6129892786,-0.8901229234,0.2518212821,-0.6196789567,0.224583046,0.42900529,-0.0708208876,-1.3555819783,0.5219891504,0.7073796536,0.468733669,0.0126550062,-1.3606830962,0.4684460105,-0.7645303533,-0.3053879649,-0.7495500167,4.0041151916,0.066163716,0.7954136187,-0.5955349716,-0.0570221385,0.6279805738,0.114535119,-0.3630136074,-0.2853519913,0.5391234095,-0.7634577709,-1.6142919044,-0.4480434681,0.451884495,-0.5418831991,0.2774135435,-0.5066764289,0.2105928767,-0.6452184849,-0.2151704103,-0.3015255326,-0.526422705,-0.5047624795,-0.7250767548,0.5211362413,-0.3289374409,1.6171181492,8.8747958852,-10.5795278135,0.7369343763,-0.3672029009,-0.4359202447,-0.6511016185,0.7447667639,0.07329261,0.3320636282,0.2342392516,-0.9142679325,0.0176554128,-0.0663986982,0.2698855383,0.8043073999,-0.7768125675,0.9521099885,-0.06513934,-0.135995159,0.0036143304,-0.2523515855,0.2407298684,0.3249037366,0.8730230649,0.1605142998,0.5661848343,1.3728483793,-0.057623349,0.5571754058,0.8922435754,-0.2464270382,-0.2392311975,0.921187703,0.8493875923,0.4353401468,0.2712927641,-0.5041798117,0.968781412,0.3299031043,-0.8801868125,0.6119481681,0.0516886414,0.4739899546,0.4953898362,-0.0756914373,0.1722327493,0.3691839915,-0.2020268368,-0.8015233028,0.4476881469,-0.1883935174,-0.0533878488,-0.4840523655,0.7134401633,-0.5727338648,-0.3314792263,0.5580218749,-0.9545713399,-1.8784676788,0.9348295176,-0.0942517121,0.0642702774,-0.5768860471,0.4647807554,0.2982814964,0.6663568095,0.2412021995,-0.0041258092,0.4251316744,0.8850041646,0.2687565075,-0.3636768234,-0.7423340432,-0.3486710482,-0.3052241435,0.861021532,-0.8763987492,-0.493808399,0.7862294285,-0.0015933744,0.3177469329,-0.4461946362,-0.3382391732,-0.5539820153,-0.2361648147,-0.384779879,0.8737879016,0.1623274462,0.3680689116,-0.8837661666,-0.7198644905,-0.5448777027,-0.6053746947,-0.7364039059,-0.0199495061,-0.3559205143,0.5755240069,-0.3682376219,0.0154202241,0.7623505433,-0.6446357701,0.7279005083,0.385695901,-0.0645009895,-0.3603695214,0.2045680334,-0.201170285,0.3983784879,-0.6477849098,0.7194722887,-0.4663956431,-0.5593554516,0.0389830614,-0.4600789325,0.4385469614,-0.2050224079,-0.3223521029,-0.2035516169,0.3278106252,0.8943007547,-0.6793403617,0.2135849423,0.6907434041
