encog,BasicNetwork,java,3.3.0,1,1469469295836
[BASIC]
[BASIC:PARAMS]
[BASIC:NETWORK]
beginTraining=0
connectionLimit=0
contextTargetOffset=0,0,0
contextTargetSize=0,0,0
endTraining=2
hasContext=f
inputCount=28
layerCounts=2,301,29
layerFeedCounts=2,300,28
layerContextCount=0,0,0
layerIndex=0,2,303
output=0,0,0,0,0,0,0,0,0,0,0,0,0,0,0,0,0,0,0,0,0,0,0,0,0,0,0,0,0,0,0,0,0,0,0,0,0,0,0,0,0,0,0,0,0,0,0,0,0,0,0,0,0,0,0,0,0,0,0,0,0,0,0,0,0,0,0,0,0,0,0,0,0,0,0,0,0,0,0,0,0,0,0,0,0,0,0,0,0,0,0,0,0,0,0,0,0,0,0,0,0,0,0,0,0,0,0,0,0,0,0,0,0,0,0,0,0,0,0,0,0,0,0,0,0,0,0,0,0,0,0,0,0,0,0,0,0,0,0,0,0,0,0,0,0,0,0,0,0,0,0,0,0,0,0,0,0,0,0,0,0,0,0,0,0,0,0,0,0,0,0,0,0,0,0,0,0,0,0,0,0,0,0,0,0,0,0,0,0,0,0,0,0,0,0,0,0,0,0,0,0,0,0,0,0,0,0,0,0,0,0,0,0,0,0,0,0,0,0,0,0,0,0,0,0,0,0,0,0,0,0,0,0,0,0,0,0,0,0,0,0,0,0,0,0,0,0,0,0,0,0,0,0,0,0,0,0,0,0,0,0,0,0,0,0,0,0,0,0,0,0,0,0,0,0,0,0,0,0,0,0,0,0,0,0,0,0,0,0,0,0,0,0,0,0,0,0,0,0,0,0,0,1,0,0,0,0,0,0,0,0,0,0,0,0,0,0,0,0,0,0,0,0,0,0,0,0,0,0,0,0,1
outputCount=2
weightIndex=0,602,9302
weights=##0
##double#9302
   0.9311983974,-0.5632390365,0.8643505042,-0.0840764965,-0.5544782347,-0.2554661325,0.806556675,0.539937661,0.2731564153,0.3863964961,-0.5490905809,-0.4887476489,0.8390833886,-0.0276441532,0.3353560472,-0.261728406,0.4048448113,-0.3277238395,0.1818039003,-0.2070358706,-0.9072956536,-0.3546633088,-0.1786699765,-0.2008109815,-0.216323409,-0.3877157723,-0.1624636644,0.2875757034,-0.1295203287,-0.8497583783,0.8727752951,0.72113051,0.2632393448,0.0056317996,0.0253391677,-0.1026052258,0.7626182976,-0.5906184882,-0.2051061242,-0.4107506533,0.2261118165,-0.0806121505,-0.0965372958,-0.4121743453,0.1940739421,0.0962452381,0.170929624,-0.6961739967,-0.8879518236,0.1209949759,-0.1010677647,-0.8554432788,0.9834459723,0.559584371,-0.6404787078,-0.0817359036,0.5427045177,-0.2607456866,0.2000626652,-0.3005465033,-0.6823331585,0.9332157932,0.8543346191,0.4894286337,-0.6840066771,-0.1276626906,0.4768441831,0.4249893375,-0.1292823832,-0.2126469919,-0.4576208609,-0.4229138146,-0.1011137336,0.0424130509,-0.3135559142,0.8582736389,-0.8869169005,-0.0673673065,-0.0993105369,0.7344492873,0.2998694663,-0.6364069205,-0.6885704509,-0.1738166744,0.4367895824,-0.7425794038,0.3894122595,-0.8510828498,-0.4377308842,0.1958244286,0.7541160734,0.0277922815,0.6185169586,0.4085101564,0.4423529026,-0.5094206658,-0.4272337926,0.4917639092,0.3375243925,-0.4471886336,-0.4834025009,0.5371244176,-0.8914635345,-0.1038310016,0.8795535807,-0.1485557198,0.6062668074,0.898617448,-0.1522364474,-0.4922255127,-0.6630753635,0.2408685326,-0.2253008508,0.1652254998,-0.6198075219,0.6080818687,0.0569202013,-0.6865272528,0.454824141,-0.0569727661,-0.4388461349,0.3651280252,0.4866541583,-0.642261344,0.7958310026,-0.9482653265,-0.2323881438,-0.6634562823,-0.8204115715,-0.4796655108,0.8177891377,-0.9231559021,0.016848443,0.0741871824,-0.2064324506,0.046579178,-0.8546441763,-0.0091048375,-0.3051350578,0.301168878,0.8985892275,0.8605157835,-0.0288224705,-0.1682673482,0.0223326012,0.3829391699,-0.3745746607,-0.3622485219,0.7383506393,-0.4526958273,0.6687404207,-0.0752122259,0.6543506756,-0.8163064924,-0.240839097,0.0861591633,0.0265682103,-0.5457242515,-0.8841525006,-0.7268707664,-0.2051317939,0.2106967184,-0.4441674687,-0.4254305466,0.0473274118,-0.4595762047,-0.184168674,-0.1700060483,-0.3669540395,0.0464110045,0.2422899336,0.2569883728,0.4519972283,-0.4789029628,0.0881834705,-0.0457624372,0.1760801576,-0.1097416877,0.1087626365,-0.2575256811,-0.2974716731,-0.3146433644,0.8930674797,-0.6072474747,-0.3841703117,-0.7885384829,-0.5325782094,-0.7471165428,0.5156009934,0.4509243404,0.0642048043,-0.1563965183,0.1242500709,-0.3280397874,0.6909370413,-0.5538737334,-0.0804084674,0.0931618863,0.2522769536,0.7902570895,-0.4563666467,0.3828043098,-0.9977345208,0.6392916249,-0.5997115009,0.2483105956,0.4598378367,0.7260229912,-0.547194401,0.550325874,-0.9349957502,0.2458091684,0.021612206,0.1554574347,0.8950715648,0.0240268001,0.1605519342,-0.5999127646,-0.4248089292,-0.0509334268,0.0723219851,-0.1897741067,0.2205155627,0.7516705682,-0.9744828556,-0.0956816077,0.9148088393,-0.0187120938,-0.1677538877,0.3924288029,0.1898101906,-0.5253576476,-0.5363399392,0.0827027246,-0.5661203847,-0.5182050253,-0.8415423593,0.1609077381,-0.2382392438,0.8299228937,0.7521364449,0.215635744,-0.6450764391,-0.0329099324,-0.8971262849,-0.3052800676,0.788530849,0.9021093485,0.8175482318,0.8793677178,-0.0033493839,-0.9581029423,-0.7923732791,-0.9832341321,0.5093221637,0.4250618328,0.1794940868,-0.2553919759,-0.0064845791,-0.3125397234,0.947169934,0.6108777141,0.4942865682,-0.972510966,0.5276759937,0.2534150648,0.4940750172,-0.9953080075,0.3341544571,-0.7578979138,0.9741270302,-0.2753181269,-0.2255002027,-0.044056018,0.412409172,-0.374933302,0.3807525059,-0.3269446582,-0.2149506771,-0.1036836429,0.515149907,0.9575597253,-0.2663339581,0.2533064049,0.2188138434,0.5666018367,0.371213676,0.2075939264,0.9691275316,0.797259215,0.0569032725,-0.217286687,-0.190885633,0.586091436,-0.7715115904,-0.043799445,-0.2256992773,0.0136976157,0.8566441236,0.2542724827,0.8115908264,0.2740778879,-0.3614606913,0.8495389618,-0.198643601,-0.5803989567,0.3711670696,-0.1486696738,-0.2133333155,0.5213917821,-0.2303988251,0.2980413789,-0.3379584645,0.9475707846,-0.2839530683,-0.5062844372,-0.273330794,0.3811140909,-0.741562593,-0.15931494,0.4283399984,-0.7494774707,-0.3738686923,0.9418849681,0.5622377914,0.1454643848,-0.3032761015,-0.4083322124,0.8759616545,-0.1435987032,0.6432330797,0.0843650528,-0.7089756583,0.6106005845,-0.3834846614,-0.1216713176,-0.1021747013,-0.6193886971,0.4435927873,0.8971314362,-0.4603993013,-0.7455487238,0.5162791307,0.1789731568,-0.5580260239,0.3891901818,0.1142953924,0.0927774867,-0.3606153544,0.0144960683,-0.7494061011,-0.3180623316,-0.0057100113,0.2328925587,-0.6974854346,-0.7659623313,-0.3648031585,0.3516908661,-0.3088107214,-0.1460221821,0.5598121924,-0.0698799035,-0.090632335,-0.7530693266,0.0768717508,0.55990682,0.5800176404,-0.0321636076,-0.362399498,-0.4167087819,0.1897857094,0.5690354265,-0.5837178983,0.1813036874,0.1317049767,0.6786157778,-0.9107555214,0.0721032919,-0.6478500083,-0.217845538,0.7365737129,-0.2674350301,-0.2588483106,-0.0710304293,0.1839002946,0.2208965148,0.6699924689,0.0285277888,0.7091271164,-0.1778942392,0.215797821,-0.8497044457,-0.3351630335,0.543158568,0.0300099441,-0.9305718578,0.141164178,-0.205216375,-0.7645560439,0.202150263,0.5428794494,-0.0295761359,0.2442530166,0.4500343085,0.1025912518,0.6609866824,-0.205618281,0.2094471562,0.1389012514,0.1920431927,-0.8389901868,0.5904627762,-0.6680904148,-0.0636425022,-0.2707768644,-0.5908956239,-0.3417931809,-0.6572677583,0.7462493865,-0.0493179661,0.0950976197,-0.4893316087,-0.3762763498,-0.0074876898,-0.4577055932,-0.1200497946,0.1659927346,0.8123286249,-0.6416436354,0.97465491,-0.8128684959,0.0383814373,-0.8716463272,-0.3059608667,-0.1487483284,-0.0415315114,0.4568975369,-0.3559343216,0.3927365055,-0.8153925417,-0.4107030039,0.3954454338,0.0478716537,0.2171546273,-0.0810190217,0.0585277239,-0.0778573065,0.5176612999,-0.5028340219,0.4289991379,0.2643448286,0.6502425672,-0.4369847624,0.3251115336,0.6759989498,-0.3306836833,0.998102688,0.2122616462,0.2631103635,-0.7956204546,0.5022360712,0.3973746436,-0.3867188642,0.7638998234,0.5662505975,-0.8667117465,0.1412123831,-0.0802196327,0.3036661225,0.6231402858,-0.084667572,0.7853180969,-0.4275814896,-0.4509705748,-0.3744562781,-0.9070751206,-0.8508885596,-0.8073681576,0.7574816932,0.2892624944,0.4532477333,-1.0007235007,0.2250472261,-0.0540162043,0.2104234253,0.8619464313,0.3312033599,0.2056079476,-0.4927154359,-0.1316464519,-0.5476128515,0.4138775001,0.1319267594,-0.2393005334,-0.0402085106,-0.2195995008,0.2337895987,-0.7371932765,0.6766599926,-0.3643014129,-0.4297828542,0.4627102022,0.1266948116,0.2155133382,0.8569110165,0.3904509918,0.7064909641,0.4495488046,-0.6017221947,-0.080798275,0.3460745406,0.4374770754,0.0194372953,0.1902663712,-0.8077690338,-0.7031914581,-0.1296434517,-0.2508101394,0.3714636538,-0.3704508802,0.2198346037,-0.2647018682,0.0620267666,-0.9859694435,0.2301299231,-0.8533462093,-0.2758698076,-0.0546995809,0.64969933,-0.1475059444,-0.5787791587,0.737120867,-0.1520818153,-0.1156896215,0.3341739609,0.248109175,0.3366263555,0.755334546,0.1593883202,0.1130263063,0.589613627,-0.1598027275,-0.4699817059,-0.5027332562,-0.414076414,0.2872683431,0.2336463128,-0.1342208381,-0.4724922753,0.5120292605,0.5309627889,-0.117486187,0.3255047256,-0.3407615171,0.652926111,0.0165516459,0.4154413218,-0.5169560485,-0.2682301318,0.4646299553,0.3126593295,-0.0032003162,0.3921396457,-0.9079826403,0.3629478623,-0.196957179,-0.7435920559,-0.524849439,0.5601784545,0.0062166094,-0.2533488103,-0.8575133856,0.0645240913,0.1103892683,-0.2362316529,0.1337026843,-0.8831835076,0.7205038134,-0.0026974447,-0.1979096027,0.5430378112,0.2094469228,0.9401801218,-0.0724213737,-0.4467659344,0.5360944729,0.7517949757,0.4465260311,0.3042644953,-0.0895258132,0.9190688424,0.7998976022,0.8102912966,0.8129554005,0.498337183,0.7344040016,0.2786688492,-0.3548778859,0.1663221249,-0.9582583105,-0.7266017479,0.719422161,0.4629371949,0.1192416101,1.5768518348,-0.9162384103,-0.1333822117,-0.4338744615,0.6936915793,-0.8602383273,0.5345716826,0.2824013268,-0.2416968263,0.0754491433,0.3815043989,-0.3145402771,0.0911161541,0.1832606981,-0.0498250133,-0.8657591117,-0.1074766903,0.698238606,0.8574792038,-0.8364644682,-0.8821161396,0.3132869691,-0.0557994109,-0.0549745897,-0.4484115808,-0.2190749381,0.1608917008,-0.6255804559,0.5857931844,0.0540984872,-0.5032132034,-0.6827180106,0.5252102738,0.6092466278,0.4641884182,-0.7881775202,-0.3044730059,0.395570265,0.3933327115,0.9835128784,-0.1351216328,-0.6278097335,0.0481386479,0.2964179479,-0.6729048647,-0.9020136661,0.8806320589,-0.0240706942,0.2003739789,-0.9560678211,0.6810126833,-0.8106951252,-0.7459383343,0.0152883737,-0.1483930725,-0.9332171835,-1.0441055728,0.2721038663,0.0462941409,-1.6275096691,-0.2482402898,-0.263896254,-0.6762810431,-0.0798940252,0.3837743036,0.7416187206,-0.1193028788,0.2990673512,-0.2320877473,0.0450642714,-0.0581987155,-1.7271082943,-0.2319317673,-1.6467218122,-1.1132083724,-0.063860397,-0.1359753595,-0.7520917258,-0.4944875474,0.6917064245,0.0410427391,-2.321616684,-0.7701734108,-0.8491108546,0.0802777171,-0.3081946841,0.3841284031,-0.1139511041,-0.2840473963,-0.3870539694,-0.2713620277,0.302683612,-0.5367178026,-0.8390202488,-0.31010538,-0.7946283034,0.7412585325,-0.9168760351,-0.6101113818,-0.6514048707,-0.515186217,0.3345838848,1.1379496288,0.8406797852,0.5364442019,-0.0443094728,-0.6376635624,0.8085164795,0.3423488443,-0.4379050851,0.2679803323,-0.5505587097,-0.0715604564,0.8726742134,0.8010896926,-0.1496959747,0.3170222382,-0.2668421426,-0.3153432889,0.2814676157,0.3983747713,-0.0132482217,-0.5040195376,-0.0864337834,-0.0530027899,-0.4496249375,0.6018058045,0.6122433905,-0.0956079408,0.3662571147,-0.2211027168,0.5890487706,0.8189585231,-0.7765347068,-0.4079031545,0.2592815009,-0.1080607402,0.012272252,0.8611732976,-0.5491043332,-0.2440626612,-0.3320714957,-0.6142074845,-0.24671848,0.4470253326,-1.0201318955,0.8292387627,-0.2107886301,-0.0631989513,-0.1277293351,-0.1941627337,0.1676694957,-0.6011685933,0.5229742554,-0.1049076677,-0.8141459299,-0.8018626964,0.5204598285,-0.7020769642,0.4744199239,-0.6289214754,0.3442618742,0.6760572056,0.1134373435,-0.8460177601,0.0559804805,0.537590451,-0.1726631594,0.6278207318,-0.2627554533,-0.4754170046,0.4227901772,-0.7366854057,0.2918362067,-0.51726733,-0.6571371461,-0.478183737,0.9007889736,0.358203342,0.7952371572,-0.6201608146,-0.5357288807,-0.1444132008,0.8805178995,1.0463452651,0.2336392969,0.9160432375,-0.3442286993,-0.1463424658,1.3840327685,-0.7791702646,-0.2648883526,0.9212881504,0.831032167,-0.8776690386,0.332913534,-0.1298749574,0.0271526012,-0.4683906092,0.2406403813,0.6470416856,-0.4203821371,0.4615281919,0.1675495907,-0.5722012641,-0.6663430891,-0.4728252453,0.484957958,0.4617402651,-0.215145669,-0.1519536033,0.0830717716,0.175910171,0.4424552172,-0.7688532157,-0.2429191626,-0.6725682677,0.0293434556,0.3878715247,0.8006308379,0.0645008332,0.7720673285,0.0899627589,0.5851233585,0.4175240918,0.4685027068,0.4402717857,-0.8643876456,0.3913277385,0.2144715516,0.3812122468,0.1405058513,-1.0202369182,0.2729581445,0.0102148155,0.1481696288,0.5526736336,0.3310101784,-0.5958774638,0.6700291661,-0.2916045962,0.0436750324,0.5868394762,0.1691232068,0.6525038477,0.5846907457,0.9337059359,-0.0689406853,0.1657072675,-0.3594272625,-0.3730317251,4.2622446779,-0.4852567553,0.5580249239,-0.4739167232,1.3950369212,0.862630469,0.1764731852,0.7464924761,0.2342341737,-0.557772363,-0.0342531003,0.4881302524,0.8794258187,0.5482038307,-0.9270024957,0.2556927732,0.1969712503,-0.3750085627,0.6294086229,0.197469639,-0.6437474351,-0.7560459508,-0.746156497,-0.5170582516,0.1293806766,-0.9501994134,0.154782549,-0.2540888162,-0.3464718655,-0.0693633501,0.794328433,0.2970203427,0.9526607211,0.7459044989,0.8571983808,-0.3986709231,-0.336193161,0.7412225678,-0.7455144101,0.2645942272,-0.8533892677,-0.0732241082,0.3444274712,-0.4446355497,-0.7307211426,0.0543993796,0.658555072,-0.8659193428,0.713254805,0.2941586665,-0.6956880744,0.9710670861,-0.5225385187,0.9155814418,0.3186523125,-0.3621300649,0.1570661202,-0.069006139,0.1104006621,-0.8796782607,0.6020446262,0.3907725796,0.69746905,-0.6186294646,0.7576962529,-0.1114949014,-0.6133578692,-0.1636567462,-0.3479204945,-0.0583351168,-0.4682531666,-0.6852446129,0.8027371649,-0.620877737,0.8402281665,-0.443602545,0.8176917551,-0.5593345568,-0.1867520735,-0.86437979,-0.1962254203,-0.2946195597,-0.6268991742,-0.6451629481,0.5277838919,-0.3327504226,-0.8284754038,-0.3977625447,0.0112623607,0.5246520486,-0.5956778804,-0.985988449,0.2660892145,0.510531749,0.468421585,0.2463145502,0.1926543324,0.6760656623,-0.2125142406,0.6318665044,0.0366388843,-0.1578630755,0.3184144909,1.3230449352,-0.4047702866,-0.5428013497,-0.032481326,-0.8445348611,0.7239674036,1.0443423875,-0.3623365834,0.3176796678,0.0428785174,0.4191143259,0.242640405,-0.1901774029,0.1553731871,-0.7318162242,0.9559804391,0.2916007631,0.8669334382,0.9652176973,-0.1649914193,0.1486543961,-1.4323591465,-0.4033154611,-0.1380897701,1.0226140518,-1.4216686134,-0.0229582209,-0.8470413239,-1.5472227509,-20.5052783501,-0.0351342406,-0.8851695549,-0.5036146658,-24.4999882804,0.5043909319,0.4376765078,0.607306872,1.2145544918,0.305578409,-1.6814092174,-1.651283098,2.2592868597,-2.3118128188,4.7921251944,-0.1963928627,-1.7209831324,3.0732570367,-1.0174386166,-2.3671292474,-0.0903109645,0.4974177423,-0.370167081,0.1484744339,0.2522979675,-0.2664208142,-0.8698504766,0.6478074393,-0.0396281231,0.3369055144,0.2477617599,0.3174427126,-0.1648876793,-0.844143663,-0.5726475874,-0.6476185896,0.6347927025,-0.5595765818,0.2945923803,-0.795939824,-0.2578286213,-0.7470970168,0.4320374944,0.9071888072,0.5838193793,0.8963425656,0.083404846,-0.576966438,-0.0413131495,-0.250143298,0.6234560796,-1.6954955927,-0.3868470539,0.1403605558,1.7552256192,2.8634569833,0.1818581213,-2.1446021599,-0.5061262009,-1.3929818319,-0.5210762564,-0.1609271713,0.6311257401,1.2014821473,-1.8225558276,-0.2471096725,1.1366945873,-0.3586864035,-0.3810205517,-0.7413668459,-22.8841950252,0.7070458399,-0.2482962708,-0.0804886337,-0.4784698579,0.0901783314,0.3410634968,0.8224961781,-0.7970707724,-0.9916209559,-0.0103345442,-0.6960975865,0.7003714637,-0.039099603,-0.0385650608,-0.7300993789,0.3808586227,0.3799095455,0.5217754573,-0.0633780943,0.3490981974,-0.6690346157,0.3561007558,0.2007166311,0.8959062452,-0.0138589079,0.3850558216,-0.1275435551,0.6503646513,0.1845096926,-0.8466300798,0.8403654976,-0.0702225378,0.2893141856,-0.4174078645,0.7397564464,0.7180009482,-0.8198240378,-0.0648929635,0.6605848059,-0.1658472459,-0.9239102659,0.1958955282,0.9620355071,0.7781248331,-0.1663033532,-0.3051005262,0.06342199,-0.5366260713,-0.307186904,0.8384748573,-0.8254217743,0.5947107768,-0.1152474691,-0.4663054802,-0.72812703,-0.9040018972,0.6115560276,-0.1308554709,-0.4915728011,0.2012547713,-0.8412199738,0.8372834297,-0.0369537561,-0.8430454015,-0.5935312014,-0.8685201854,-0.1068537675,-0.6254354931,-0.4496561063,1.165570604,0.7156912811,0.9475700034,0.3848569828,-0.6777735544,-0.749298155,-0.1485233694,0.7985408161,-0.5948877454,-0.5414496367,0.1597778088,0.319549178,-0.7939648954,0.6737144759,0.2658811428,-0.5353416519,-0.3289061024,0.7835949677,-0.8234136477,-0.6691833159,0.4748053059,-0.7041329738,0.2978025641,0.0065025621,0.7006230414,0.6071850728,-0.2806581032,0.6429497555,0.22305341,0.2212027206,-0.3595502677,-0.5627078038,0.625465523,0.7396736571,0.7598128113,-0.7898378059,-0.6026884508,0.6071913468,0.4350487467,-0.0441470546,-0.1941223725,0.7121690639,-0.4336517219,-0.0147189115,-1.000202256,-0.592856553,0.8457951857,0.6203956683,-1.1099148175,-0.8839980713,-0.5220767444,0.5141133924,-0.4165890562,-0.4211203381,-0.3361929225,-0.9028296982,-0.9488769563,-0.6800695179,-0.7137906536,0.2766349026,0.3608733096,-0.5493461204,-0.4124550104,-1.0406466835,-0.0999024463,0.619417915,-0.7003584736,0.4816237252,0.119230883,0.3442900863,-0.0643635453,-0.7606359504,-0.9791297797,-0.9719269762,0.327187892,0.1814104092,-0.6624165091,0.3176139009,-0.3046821273,-0.8959806452,-0.4376977946,0.1458038454,0.3358676502,0.8382000617,-0.6774914422,-0.5834025254,-0.8882440184,-0.8826907351,0.4373461242,0.3441533528,0.1213860386,0.6809192905,0.0069259444,-0.9779306099,0.5134468541,0.6608869195,-0.2085693862,-0.291547447,0.7931041089,-0.6475491087,-0.7413213088,-0.548384941,-0.644290223,-0.6361718247,0.2018638983,-0.457768539,0.4003012799,-0.9884767713,-0.9944239998,0.3578409992,0.3768224898,0.5421294174,0.3909740828,-0.7108329608,-0.4035088749,-0.2602677394,-0.0582021874,1.3027868712,-1.0899868018,0.39152041,-0.7341831523,-0.1968848123,2.7947187249,0.1145998512,1.073229364,1.4654473059,3.6148468828,0.6009084952,0.019575047,0.70110899,0.7477706497,0.6181396113,-0.5580009229,-0.2880498817,-0.0529042587,0.3157548837,-0.186739456,-2.0348355873,-1.3090015522,0.9088296562,1.0344423824,0.9543764037,-0.5791661027,-0.2536511791,0.7925921515,-0.6430865865,-0.2212004147,0.4824399016,0.7247608196,-0.6923943784,1.3826020261,-0.67170812,0.144444174,-0.6186113894,0.3724018375,-0.7423599776,0.8627441329,0.7255070596,0.2010427883,0.3907880799,0.7856102647,0.2814168101,0.3106191964,0.6617751331,0.2245171427,-0.9584154347,-0.1988380199,1.36179144,-2.1336568639,4.0292217374,-0.2356878202,0.8759191226,0.706846711,0.2011446548,0.3078658107,0.3587270182,-0.3602681036,0.9109110194,0.2864235673,-0.570856926,0.138299897,-1.0021901416,-0.4840989689,-0.0835311747,-0.6363720376,-0.4642580174,-0.2861174789,-0.6667532952,0.2634241066,-0.2863207718,-0.5988280102,0.5137428021,-0.0559574777,-0.3364516936,0.2085056201,0.8416931051,0.7108351182,0.1631427752,0.9086751748,0.8666391297,-0.1717207793,0.1959871327,-0.4240260721,-0.8630756259,0.9545696533,0.6390836814,-0.157842479,-0.7892005446,0.1457597351,0.0023550297,0.1006274705,0.0170836667,0.2251781095,-0.4191857447,0.6903885593,0.3130670653,-0.13639385,0.0160119214,-0.8454489432,-0.6502597603,-0.8156661718,-0.5608455035,0.1367990697,0.0268476068,-0.0271399442,0.1061409864,0.0285189385,0.3230097806,0.4170082997,-0.4113295794,-0.0041337832,0.1472616286,-1.4944618495,-0.8402401923,-0.8906597858,0.6344615526,-0.5199372921,-0.8934398791,-0.3589885292,1.3301267578,-0.4167213983,0.8415511634,0.8079438777,1.0978492854,0.6102807643,1.3170130781,0.0532649652,-1.0275688787,1.2228930501,0.9969691552,-0.0643047327,-0.2049550864,-0.4301371151,-1.7259843372,-0.6140045907,-0.246613737,0.0948093438,0.9411832467,0.2275423829,-0.8929031355,-0.4030316744,-1.7470799689,0.222113117,1.3732325975,-0.341495294,-0.1720601549,-26.7039071724,0.069450748,-0.6858643684,-0.1209606549,0.678762174,0.4568794279,0.4741747153,0.4650543488,-1.0167263384,0.2772985038,-0.8281653693,-0.1520499716,0.2402737908,-0.8125892989,0.0205682649,-0.5363368049,0.0706022615,-0.3890684909,-0.9206160565,0.698199607,0.1783577818,-0.8793762654,0.7059993334,0.8154537929,0.6728017884,0.4089399048,-0.2883679416,0.0456819617,0.0434084376,0.002355527,0.722227471,-0.9229798141,0.3723273409,0.4452219719,0.9202209766,0.3913678353,0.2254286583,0.398181822,-0.8282588584,-0.9151147478,-0.9045909096,1.1662255358,-0.8495635464,-0.4454961946,-0.6224177389,-0.0346845323,-0.2216422666,0.9335933391,0.7621453466,-0.9395471543,0.2116524371,0.3965707912,-0.1890881383,-1.1924922554,-0.106468434,-0.8842506913,-0.9247233119,-0.1190088358,0.0583502938,-0.3846761413,-0.1776139775,0.2290096116,0.1182964916,0.1958854697,-1.437819038,-0.2767036318,-0.8825222603,0.4326101719,-1.2090926318,-0.2717336545,-0.5713901458,-0.130189516,-0.6963468794,0.8063071757,0.232154278,-0.3980722946,0.9036389506,0.6259878396,0.3791556509,-0.5443923617,0.6162063206,0.3305200876,-0.9325216833,0.475805742,0.1474300827,-0.1270155951,-0.8301200602,0.8008762267,0.524193806,-0.4260789153,-0.5082830894,0.0269017695,0.811362106,-0.9304489738,-0.4197616286,0.9718451199,-0.2413274948,-0.1421894113,0.2123092195,0.5031086726,-0.8672336498,0.2146605886,-0.9793852597,-0.6264650294,-0.1267981631,-0.8314572243,-0.6760973732,-0.6628762376,-1.8362682669,-0.8219038552,-0.9030660423,-0.4635972752,-1.1179296227,2.0200487606,0.8323158457,-0.0579690072,0.8683864962,-3.5499259709,-0.7211312166,-0.7843211846,-0.5360455221,1.0121149584,-0.2181512471,0.200401566,-0.1175552474,0.0187777757,-0.7628079432,-0.3075593699,-0.6800988858,0.4913645272,0.1185981695,0.1951532411,0.4623709505,6.2047206985,-2.1197269399,-3.5410477214,-0.2908835156,-0.897976408,0.0781584031,0.1889579843,0.1356533903,-0.520991627,-0.7170759068,-0.3571315377,0.7490665019,-0.4882408676,0.80993441,0.5396578028,0.0153045535,0.2814831225,-0.380146496,-0.9246087017,0.4136097204,0.5694556705,0.2011954129,0.0111571231,0.3153321571,-0.2114965529,-0.3810244262,-0.2361996139,-0.6572690678,0.9939496096,-0.0784759439,-0.6269330296,0.506280243,0.0024744603,-1.3461966226,-0.5603197866,-0.439176441,-0.0208777301,0.8291687051,0.5884435586,0.5936383955,-0.2004755692,-1.3500102797,-0.6033814446,-0.9152888012,0.2127397156,-0.123547142,1.5817925693,0.0369978753,0.3553857232,-0.921192914,-0.5766053476,-1.0299815268,0.2770727552,-0.7105958847,-1.8001385453,0.1080430947,-0.6592648825,-0.9377800605,0.6776951732,0.5116820836,-0.0025277236,-0.3001848091,-2.8568229486,0.6191057576,0.5968338517,0.6683951983,-0.9118476589,-0.8194871933,-0.2043286175,-1.2996099866,-0.6758778148,0.7972217532,0.9407868913,0.0446062689,-1.3544199147,-0.521891813,-0.7845447691,1.9490092218,3.9016917575,-0.5082582886,0.324993642,0.1852536015,-0.1156549692,0.3804357951,-0.283888851,0.3929226952,-1.2745380679,-3.3309614671,-0.4556649679,0.2724745325,0.9712822179,0.8263227495,-0.9490747187,0.2459080534,0.6761054548,-0.4533242976,-0.9711887743,-1.0033472181,-0.8046244068,0.5689714807,0.5964547496,-0.7309958887,-0.3003806796,0.6305052032,0.2374187402,-0.47527867,0.1236427707,-0.9887313904,0.8720431087,0.4773795,0.8093125095,0.6391402815,0.689424378,0.727562727,0.7145652153,0.4654463846,-0.0777523304,-0.6006276544,-0.8288752445,0.6971176966,-0.2766159724,0.7311771565,-0.2163326732,0.7792821865,-0.2849549903,-0.2149913049,0.1288388158,0.3105516728,-0.1158826002,0.3456873596,-0.0680103243,-0.8694774798,-1.2061408488,-0.8430021527,-0.7761658363,-0.0056924203,0.341722059,0.3046427028,-0.2549087938,-0.6190350618,0.5386455974,0.3238880486,-0.9403729111,-0.3182781071,0.1927236068,-3.0714183276,-0.7594650051,-0.9338136103,0.266031356,0.3466712695,-0.2746520787,0.8628570458,-0.7065158659,-0.496142156,0.4921335227,0.3086016634,0.3946283941,-0.0715809409,0.4465237754,0.118035844,-0.3285684327,-0.8337356556,0.7510975725,0.3776285924,-0.2667312852,0.0162915118,0.1264834413,-0.959641016,0.3468491004,-0.7136091116,-0.2370042513,-0.8712519202,-0.8635203291,0.4761980413,0.6980788178,0.6828408638,0.3547275106,-0.3301036566,-0.2319800813,-0.0134079155,0.2675903518,-0.5873351114,0.0488994857,0.04085821,-0.5336966981,-0.6140894087,-0.2621034191,0.2132685523,-0.3274765629,0.5034315735,-0.336673113,-0.695345633,0.7806466043,0.8533775192,0.4890220988,-0.3176649681,-0.7445777565,-0.960503771,0.069081827,-0.1643294579,0.7608267618,0.1409004395,0.3898151136,0.3015988591,-0.0706256327,0.9085730653,-0.444063195,-0.1879932426,-0.1541920468,0.3040803286,0.7335118195,-0.6336221872,0.175706608,-0.304046692,0.6221702466,0.7018914967,-0.0807643074,0.9377371356,-0.9126656016,-0.2068049448,0.0929061343,0.7865611855,-0.4028260281,-0.4263614417,-0.5599800306,-0.0041712984,0.3340555189,-0.49294596,0.4669241726,0.0427806761,0.8030931879,0.2660586905,-0.1506934687,-0.0341338905,0.3237126259,0.824019019,0.6093398147,-0.2109989942,0.9312041866,-0.6866818317,0.6195854693,-0.2167476622,-0.8339245755,-0.7967909943,-0.6632376856,0.9922634602,-0.0959490743,-0.4878450354,0.010073443,-0.6603097038,-0.6424044969,-0.219138099,0.2432983354,0.636281416,0.8783550958,0.413889337,0.0696679316,0.3105235037,0.7669376728,0.0330755924,0.6519660996,-0.0103674705,0.2468569527,0.8963216559,-0.4579306423,0.1600859937,0.1871777738,-0.5344372539,-0.1281385249,-0.5286158254,0.1694752805,-0.4825404665,-0.1964455295,-0.8126393413,-0.7184529888,-0.1150413515,-0.3510003264,0.4540591884,-1.0105820092,-0.8596616533,0.0569013687,0.3219647869,-0.7477821923,-0.1850440534,0.7093235667,0.7248383493,0.9203656297,-0.3828910815,0.609385502,-0.0898594027,0.9691178731,-0.6693839755,0.2558991153,0.0732586159,0.5421001938,-0.4909091711,0.4992214792,-0.7985331825,-1.0319056625,0.4454345287,-0.4991858054,-0.1890903565,0.7840686913,0.9762168752,-0.7632993589,0.5494222856,0.1210545056,-0.1965553155,-0.3562274609,-0.0730827757,0.8757130085,0.3988947432,0.9753401466,0.5790347588,0.4961111536,0.6431006289,-0.2770320745,0.404388458,0.0024679755,0.3602782732,-0.5341353865,-0.834556215,-0.9235006378,0.7658139528,0.03031347,0.3072865159,0.5915329404,0.9110674041,0.4717195297,-0.2740865026,-0.1596758464,-0.5046472619,-0.0844724612,0.2674620711,0.6527011528,-0.9368304299,0.5599468485,0.7866670187,-0.0898336454,-0.4067655766,0.6349706287,-0.4016635797,0.0074254582,-0.034859153,-0.1402454014,-1.0060488915,-0.5428764793,-0.3265625996,-0.3945380879,0.034927237,0.0753556743,0.5335498042,-0.8864295458,-0.8457631676,0.2496073534,0.7482992656,0.5183163022,-0.8671893209,-0.7021013976,-0.1297436631,-0.2081862541,0.3695351861,-0.8711164396,0.4015374945,-0.0965909182,-0.895463537,0.7684804518,0.4785876097,0.9256996012,0.1562348173,0.2240059537,0.7907600606,-0.4663174814,0.6780068517,-0.56841376,-0.477141581,0.2488717755,-0.8173368564,-0.14266778,0.3408820011,-0.8351220526,-0.6634441051,0.931119988,-0.6270877356,-0.9115316331,-0.290211641,-0.8984019911,-0.3888814582,-0.7173820129,0.1703490741,-0.0734077534,0.4122180865,0.3959967188,-0.6190259937,-0.9019247061,0.5901224315,-0.5194956968,0.4996849359,0.9856670448,0.8560694635,-0.1778171586,0.1087348143,-0.5158044276,0.6044982861,-0.4568552908,0.619983589,-0.8333479603,-0.218992097,-0.922500029,-0.1592979674,-0.0153718577,-0.933998768,-0.0663959342,-0.5156730807,0.1584280788,-0.1119837156,-0.5676668247,-0.0992087046,-0.1139846769,0.2897132322,-0.6397456365,0.1220891498,0.8596983491,0.0510409427,0.0246279038,-0.9823772435,0.777308718,-0.8265720468,0.5800612015,-0.9515098315,-0.7305799047,-0.5314752665,-0.6095595099,-2.7909211426,-0.1209546436,0.5545064743,0.2715601458,0.9759570827,0.828684123,0.2357436801,0.0323692689,0.6015311108,-0.6038633562,0.2885904452,0.3649736767,0.2336424119,-1.0384783271,-1.6298698538,-0.3208790193,0.2499428761,-0.468659295,0.7488128227,-0.3784439241,0.32461628,0.4472837644,-0.6501204573,0.2945287246,-0.3767939222,-1.7050846513,-1.496858968,0.4486499632,-0.8776987103,-0.1228504891,-0.3781954005,0.6890067301,0.0129403634,0.8125034074,-0.661110327,-0.3175008526,-0.4804999586,-0.5270016685,-0.3812039051,0.5454534617,0.777269687,0.1538365881,0.3431669272,-0.8375457798,-0.0852939809,0.7829427222,-0.0342235472,-0.2709275136,-0.4094799139,0.066517127,0.3643144883,-0.8876945499,-0.5011436257,0.5498658313,0.1265423749,0.2691504033,0.9242806972,-0.1177125554,0.9369051195,-0.8557161055,0.4782091543,0.0605994834,-0.8125185631,0.8756596414,-0.2549859555,-0.7998146102,0.5305021545,-0.7961761277,0.554404801,0.2179423847,0.0830467626,0.0088450875,-0.0844212754,0.4600655188,-0.2266849663,0.4832775908,0.840480787,0.0671077167,-0.3097319047,-0.6742764538,0.7764199936,0.9106096721,-0.3087898016,0.7985409235,-0.3682322615,1.3041062338,1.079023946,-0.1830010782,0.6988368124
   5.0930358608,-0.2420380976,-0.8293808367,0.6413369708,0.9616826106,0.4465956157,0.4170083072,-0.1002260716,-0.8615767572,0.1012657551,-0.0653061533,0.3683438194,-0.3790385087,0.8825548937,-0.9553826119,-0.1334573524,-0.2914305553,-0.8512009463,0.05758111,0.3878915788,0.6546960045,0.418769731,0.9787901989,-0.0701867164,0.1872774823,0.9415575072,3.8238347387,0.7484598899,0.1042081084,1.3221124509,1.6201204891,-0.4465221105,-0.7761944206,-0.5722847281,-0.9236909006,-0.5134222323,0.7153630268,-1.0505409807,-0.5540085087,-0.2149284398,0.2167583604,0.3017807599,0.023317774,0.0875329257,-0.8027587591,-0.9323888932,0.7114308349,0.6158792304,-0.5200609858,0.0091608894,-1.1334975143,-0.50842642,0.4911576216,-0.8530573638,-0.9144586013,0.2990288927,0.0707188121,-0.4519730165,-0.8827195155,-0.1386656278,-0.4383500427,0.4581411352,-0.2907532014,0.0938318105,-0.7403631816,-0.5376139197,0.6957552211,0.9451306286,-0.1126836032,-0.8922965606,-0.8159626988,0.9068484493,0.9339501238,-0.8849258595,-0.2150025896,0.9312339621,0.0266206719,-0.7001870447,-0.4626887796,0.1474446704,-0.9180186003,0.5029480963,-0.5213145314,-0.7784004429,0.9473606949,0.3304143121,-0.9547204129,-0.1798461051,-0.0990398735,-0.1160303474,0.4744517073,-0.7246361233,-0.6076364855,0.4902892341,0.1580771646,0.5850270188,0.0823997508,0.3512900974,0.3007562255,-0.5414952095,0.5710180573,-0.3420551533,0.3522263205,-0.4267683327,0.9693016443,0.6819970115,0.1963489562,0.6334480431,-0.8167272017,0.8642428621,-0.005741371,0.9660515854,-0.3225710262,-0.1903097864,-0.5793567777,0.1887403418,-0.5169341598,-0.5212681263,-0.7624112466,-0.5662950978,0.1859111791,0.8613961513,-0.0042290801,0.8448148357,-0.3307564027,0.16291784,0.7122223314,-0.2357934296,0.4123466419,0.3200135837,-0.36090402,0.2465885489,27.8795763993,-0.6409194164,-0.1861112274,0.5904919009,-0.5011589077,-0.8449765081,-0.5821028479,1.4268369668,0.8641429861,-0.4926482264,0.4174246108,-0.4318471138,-0.0586961902,-0.5754723191,0.0553095362,0.1497838606,0.9047813809,-0.8357406738,0.4813358789,-0.4879771202,-0.2355121525,0.9562007058,0.3345908249,-0.2431397188,0.8513754166,-0.1033677053,0.029044884,0.466991101,-0.7230544535,-0.8988676531,-0.578738652,-0.4720242562,0.5271574886,-0.9041067439,0.3874959372,-0.7250142408,0.3692689801,0.2375383539,0.3221198163,-0.9060426276,-0.4150460205,0.7338566784,-0.4117950344,1.0760581908,-0.9071861043,-0.1658611033,0.143542464,-0.9169703721,0.212987578,-0.3687566091,-0.8255185426,0.4208121301,0.7026745532,-0.3029764102,-0.0855544819,0.331203696,-0.6972973764,0.9263379615,0.3680917832,0.7792468839,0.8729364337,0.7502045458,-0.5054468448,-0.7386902851,0.2747136932,0.5660035019,0.1089392866,-0.2258705453,0.7027732401,0.4576865981,-0.2772411851,0.8312672551,0.8452921826,-0.1694186936,-0.3041076398,0.8234824103,0.3293793375,0.6654450744,0.3439491721,0.4056897647,0.8613345705,-0.3896309735,-0.4621846291,0.0691316508,-0.1231488225,0.2985634366,-0.1206611251,0.1297754438,0.9559620112,0.811856728,0.7137177088,0.637489076,0.1135784645,-0.4661227195,-0.4241069305,0.5696232803,0.7603494104,-0.7262383208,-0.8544978717,0.3974150145,-0.9424065632,-0.2966357407,-0.947901963,-0.94217638,0.322134853,0.8888382276,0.8966649699,-0.0364702654,-0.0221153938,0.073645124,0.0005307209,-0.4225246388,0.2367420364,-0.9597611585,-0.0548280447,-0.1532653483,0.029097915,-0.213797445,-0.594361903,-0.5400982511,0.8525025492,-0.8328182651,-0.6313606303,-0.1840303335,-0.6754111669,0.1740866893,-0.1009138266,0.975351618,-0.877114419,-0.5105990503,0.0733273113,-0.4755827403,0.7735771258,-0.3893313662,0.8249610962,-0.6109258935,-0.5026349422,0.8662854147,0.8135537382,-0.3809220281,0.6406910966,0.8235590944,0.8930774132,-0.581385495,-0.799388532,-0.6229793741,0.0052240852,-0.7299666303,-0.9231315465,0.131709916,0.3785244366,0.4463201834,-0.713639631,-0.0428203211,0.0171647875,-0.0980634669,0.4553645958,0.9344250383,-0.7568549854,-0.1750055908,0.0905006464,0.1648096855,0.1759793974,-0.3148100154,0.4787867355,-0.374843671,0.6143254629,0.3193082811,-0.2736652619,-1.0042002779,-0.1155254434,-0.2303335181,-0.7690969159,0.3310655246,-0.4542104813,-0.1944206128,0.8966585214,0.8826616797,-0.7289197768,0.2396958823,-0.5282789123,-0.6059830211,0.1153433568,-0.7213989087,0.2043888461,-0.9694516497,-0.7924473035,-1.276191893,0.2274378919,0.9477754921,-0.3193757435,-0.3389971872,-0.5998829188,-0.6725194939,0.7786207159,0.0319774725,0.189020058,0.1992155188,-0.154498986,0.660307574,0.9865621324,-0.4235607717,-0.8946695363,0.1779609147,-0.8218826074,0.4766971706,0.1435429727,0.2273530713,0.8384040495,-0.6863410653,-0.7700127763,0.3381807991,-0.4285956869,-0.2277037057,-0.380217429,0.8859514747,0.5086826291,-0.3401392711,-0.7608454785,0.1473431193,-0.4293817604,0.3292407073,0.365703511,-0.7479660428,0.2641048476,0.0851814876,-0.0126174444,0.2080372172,-0.8242896669,0.1665722176,0.2618039634,0.788410908,-0.2996895564,-0.1946243915,-0.7985904068,-0.075568901,-0.2519533702,0.0173797208,-0.6862061779,0.6185747569,-0.6218689449,0.2252935775,0.2703510364,-0.222179299,0.7669844061,0.7193395652,-0.6118977518,-0.832491191,-0.0603236589,-0.6295415723,0.956376576,-0.9530964992,0.7210445083,0.5479307984,0.6376237861,0.8794971777,-0.5099045314,-0.0112609026,-0.5560086112,-0.719525082,0.015796436,-0.7161277066,-0.2587625354,0.2512754608,-0.3962500454,1.3021461376,-0.3314486746,0.3450469759,0.2375452222,-0.5430181063,0.3613958488,0.1627347913,0.5121891674,-0.3892826867,0.4220583222,-0.2135947179,-0.3849811734,0.819868393,-0.5919314612,-0.3548308692,1.7199108412,0.1313209268,-0.5858269426,-0.4423848752,-0.2213263516,1.4051330392,0.4545857157,1.6851973668,0.8256506995,-1.3153056149,0.3207945182,-1.9791025499,0.2479180082,-0.2995467385,0.4959300762,-0.0120632036,-0.208756082,0.81532147,-0.1825561615,1.127670261,0.115217238,0.5232486166,0.5693316807,0.7694571811,0.8158543561,-1.7294822764,0.5796757828,-0.4598905849,-0.6285529211,0.2682767048,-0.5478730791,0.6426497157,-0.0849322392,0.1191231259,-0.3697075126,0.3936764234,-0.5124757808,-0.670826763,0.2552288355,-0.3641158457,-0.4133663134,0.4502699771,0.9873414143,-0.9443956159,0.7921933841,0.4526553084,0.7662689605,0.5992593772,0.450312231,-0.4813953609,-0.393018892,0.7594495614,2.039581645,-0.5197090987,-0.0784756544,0.3944482434,0.2991947546,-0.283135205,0.4404484124,0.4098704769,0.7230459848,-0.1701530117,0.6183845684,0.3090317107,0.0010206557,0.7837654223,0.1038328822,0.6597412848,-0.9895009893,0.4169311726,0.1034732884,0.5029267699,-0.1268928468,0.2144886737,-0.5338075402,-0.241412971,0.0406457427,0.0732827751,0.184708496,0.6224298177,-0.5287276515,-1.8401992396,0.5072013992,-1.1699928379,-0.9329318788,0.3955627809,0.2198527092,0.9846636173,-0.9573814934,0.1868506695,0.4180919776,-0.8025720415,0.7024022042,-0.2152152826,0.7350093796,0.1724617335,-0.84554182,0.7752916996,-0.7219277095,0.6757601525,-0.5803663091,-0.1967563745,0.0101892792,-0.0024889825,-0.0298116935,-0.0117371102,0.0413343281,-0.2468712199,0.255824804,0.0600073163,0.4064454321,0.9931374739,-0.3214750075,0.694822762,0.0433645937,-0.5364924836,0.8024122523,0.247396218,-0.2189527856,-0.4977540849,-0.04401016,-0.3107859666,-0.665656855,0.6493900957,0.4530679265,-0.7070866295,-0.9551561572,0.6036174362,0.8362229771,-0.0192230713,-0.8600196895,0.5641772725,-0.9373947818,0.7974241185,0.2960958341,0.7546688028,0.0387145519,0.7969604157,0.8237331732,0.3201402276,-0.5646293126,0.9315569292,-0.3529279558,-0.6396104525,-0.9574787885,0.3943854853,0.6552264128,0.5832825918,-0.7946824934,0.7732817398,0.1970855357,0.1551204098,0.2002046232,0.7502046813,-0.2867772292,0.5325738855,-0.5687700477,-0.0616144108,0.0590669611,-0.9533798396,0.5891982388,0.6631446053,-0.6804948094,-0.1250777286,0.3653839318,-0.9637189119,0.8222437853,-0.6170314325,0.7057299976,0.1828171683,0.7039086382,-0.6896339642,0.7645564533,-0.8568978411,0.5267294356,-0.8281047306,0.7122170916,-0.4193962474,0.7364427425,0.4322215553,0.2590067953,0.2049581322,-0.3170192835,0.2673079318,-0.9583344337,-0.5681518221,0.2771036387,-0.3530775012,-0.8819321955,-0.2484263477,-0.6588874632,-0.7612424202,0.8159771747,0.5988906851,0.6907242645,0.3543332734,-0.6172809837,-0.7216189898,0.5083778558,0.335712086,0.9337201515,2.1295804345,0.5144082525,-0.3290338365,1.9065935239,-0.2045590369,1.3155421509,-0.5410176443,1.7247335469,-0.411917697,3.8063385552,-0.0547182529,-0.3216667952,0.1953077326,0.4837054025,0.7059727135,0.369020509,-0.7266729433,2.1360607979,0.6816884587,-0.3339213791,20.8285981693,0.3357373824,-0.6816032653,-0.6637207355,-0.1551897797,0.575594384,-0.4495369026,-0.7900379436,0.8648694146,0.6511636458,0.2730776484,-0.9235186876,-0.2227567343,0.7071319914,0.1145777252,0.9539114305,-0.9508329198,0.2647218447,0.3373828298,-0.7628562632,0.0084148176,-0.4835328541,-0.8246730131,-0.2273248554,-0.5439220935,0.0882865785,-1.0117952927,-0.6318211878,0.8619620977,0.8131386198,-0.0864447407,0.9529070605,-0.8137293597,0.0641610746,0.712981519,-0.2646717815,0.2364693623,0.8807333035,2.9766162445,-0.6377238389,-0.9866818423,-3.3086911053,-0.7166428761,0.1067848704,-0.1718434168,0.7071840682,0.4656491369,0.7264403348,0.0972018758,-0.3878944097,0.9424869936,0.5856930247,0.7477509928,-0.1607281802,-26.4832813745,1.2369209036,-0.3097757972,-2.0749932426,0.9434407719,0.6876338188,-0.6934098249,-0.4202978939,0.3411141454,-0.6966608566,0.6418118142,-0.4345640587,-0.6964603261,0.415759501,0.8080686696,-0.48104411,-0.5072867011,-0.7195260445,-0.476862755,-0.5473405938,-0.5039930038,-0.268873999,0.2109691371,0.3659249788,0.5141680723,0.8640519074,-0.6144699399,0.8268024699,-0.2722632247,0.216532312,-0.1031716556,0.5158848325,-0.353881129,0.898566211,0.3128057706,-0.7540880071,-0.7456838878,-0.8234643312,0.3992141118,0.8351221317,0.8879283215,0.8363375444,-0.7760108844,-0.4257373728,0.9311626913,-0.383108185,0.0422417245,1.0362464564,0.0317182828,0.252827536,1.0001126941,-0.5931349797,-0.7383473463,-0.5011269668,0.6593009561,-0.0380645819,0.3352164411,0.687753316,0.3296776017,0.833050534,0.320040105,0.1618404895,0.5309704724,0.963797968,0.218335595,-0.2737014917,0.195824135,-0.0383271939,0.9058301886,0.435130874,-0.3647023941,0.2666765182,0.7456421182,-0.5383398486,-0.3487719414,0.3520619089,0.6178967436,0.6732189203,-0.7581480254,0.1619386442,0.7628291844,0.7446888817,0.6754425515,-0.097198744,-0.4761797918,0.2537688745,-0.8283837548,0.1545737885,0.7381229816,0.7666995893,0.0277481002,0.9616461163,0.8861025348,-0.5520301505,-0.3811202702,0.7548017053,1.9270428894,-0.7254013133,-0.9111007484,-0.0916709137,-0.4154222401,-0.469617906,1.0041068914,-0.9935974939,0.2748709139,-0.1147843993,0.656219881,0.6707836371,0.9612301852,0.3693484129,-0.0531070908,-0.0679589351,-0.8950101146,-0.1289859741,-0.9567181941,0.1320705041,-0.5886564462,0.3883969899,0.2109949291,-0.2539867269,0.3481996941,0.3197207621,-0.8576551277,-0.704671955,-0.7792397095,0.0551221463,1.0755242607,0.3750524095,0.1107249361,0.6046037578,-0.1648431463,-0.2032219995,0.5176930948,-0.0822535861,0.7753329322,-0.388508119,-0.4152296058,-0.7619012645,-0.8110869077,-0.6226938825,-0.6860719251,0.6806107857,-0.2372531588,-0.3610305641,0.7807905357,-0.0811604526,0.3338400965,0.8826716891,-0.1223048885,-0.511901299,-0.9880962855,-0.5034158373,0.6812478572,0.7874637217,-0.2089833929,-0.5282227007,0.3376160088,0.4480559952,0.9498969312,-0.5095460072,0.9599959231,0.9217388469,0.495116298,-0.5619362487,0.4376977358,0.6286188262,-0.3382883783,1.6307320343,0.7118343737,-0.7160531906,0.4318224801,-0.8360889078,0.5658100912,0.3554744444,0.2938490506,0.3883247536,0.2393939759,0.4163666252,-0.1280949521,0.0287771885,-0.7398270242,-0.3350421066,0.7254350245,-0.7517243621,1.0121364694,0.5440904283,-0.3646831705,8.5813809874,-0.8621414627,0.1761465957,-1.9363603261,0.8212990439,0.8725990894,0.1919693342,-1.007142971,-0.7183621202,-0.1336217859,0.5304809435,-0.2259552139,-0.1148526655,-0.3659657991,0.3266058601,-0.4928292271,-0.2889794514,1.7049203528,0.8153754847,0.7410920394,-0.3738733485,-4.7682980031,0.0695098916,-0.4990619757,0.5342193729,-0.2315383333,-0.151441236,0.1828730223,0.7941234147,0.2381079128,0.5339848133,0.9682252682,0.4073284124,0.8875147682,-0.1076556281,-0.4628442749,-0.3111875277,-0.2892348847,0.6046694835,-0.3218145496,-0.814138893,-0.7327694525,-0.8360312674,-0.2665772988,0.0268649249,0.6879315678,0.8853106492,0.2042132695,0.5724993152,-0.4872460244,-0.1498868224,-0.8023185988,-0.2602915377,0.5967035025,-0.4581657207,0.6661271371,0.6378184772,0.7185584126,0.484989381,0.2473945606,0.7913057301,0.6788515192,0.7406975416,0.7056345498,0.2936560104,0.8473261532,-0.3154938211,0.9505989151,-0.494526271,-0.9018710046,0.9098766841,-0.9837665202,0.5202778145,-0.4957025325,-0.321208651,0.484259557,-0.0124084036,-0.065578735,0.8150518819,2.204855981,-0.118515429,-0.488555336,0.3064032965,1.1971024618,0.5916222459,1.2635400825,0.661475495,-0.8373329312,0.6924935963,-0.592594239,-0.017430573,0.8097884136,-0.7336552508,-0.0424436125,-0.6527378414,-0.5259164005,-0.6549601207,0.6870577141,-0.3210451432,0.4230400874,-0.9294940569,0.210366065,0.78312954,0.6440892617,-0.9492354047,-0.961114809,-0.7731423078,1.4956322876,-0.8762135379,-0.554851094,0.0554550385,-0.1160939973,-0.9089694841,0.3402461635,0.8810135784,0.0552560252,0.4167378417,-0.660001404,0.8256760589,0.9159445497,0.2369106991,-0.3419224917,-0.9191647675,0.5709710359,0.0918833382,-0.8611471926,0.028751534,0.0357642034,-0.4707372103,0.0194494008,-0.9331008675,0.9197307892,1.4792055305,0.9358503473,-0.1489557029,0.7001683817,0.1830903529,-0.1752654856,0.5495715553,0.2457158694,0.0357901728,0.4202704985,-0.6481561694,-0.6123146703,0.7260425813,-0.3160078248,0.3903555946,-0.2557778787,-0.5320630778,-0.7471924846,0.8180455164,0.1881238354,-0.7036935354,0.1292111074,-0.7405746585,0.8112161052,0.7467583507,-0.6100598672,0.7396371817,-0.9071836583,0.7861143163,-0.8106892441,-0.3274056565,-0.473721939,-0.8811108337,0.4144346776,-0.2726420118,-0.4242897483,0.4821938098,-0.8639284823,0.7817303681,0.5369268789,-0.7869329653,-0.1781804865,-0.597806631,0.8797742721,-1.6862841803,0.3798794744,-0.2057933024,0.3692251871,-0.440635138,-0.6726990631,-1.2348771782,-1.8631366931,0.0034109525,-0.5058771846,0.6927245286,-0.0109415009,0.712058698,0.6340453793,0.1685110741,-0.273165756,0.6851480806,-0.9812010156,-1.6048115278,-0.8681145721,-0.0843924394,-0.6772990553,-0.4392325697,-1.0191393652,-0.8798674004,0.0766349716,-0.3309840529,-0.2887469229,0.6682239038,-0.544955084,-0.7208135005,-0.3641996615,0.5720464736,-0.3288232393,0.8181630008,0.1244421993,0.1007303817,0.751381894,0.8960138071,0.4867601961,0.7564320958,-0.5749106456,0.9021010651,0.061797034,0.9481085999,-0.3229486445,0.3324122772,0.7779130128,0.4033259503,-0.3354654652,0.382081856,-0.1156121984,0.8737122297,0.1206269915,0.9307596647,-0.6643129975,-0.3312859787,-0.8708855001,0.3136467474,-0.0615641898,0.9519961343,-0.7972895188,-0.0877910064,-0.742049262,0.7884713873,0.5938775637,-0.7611037938,0.4194873107,-0.908449957,-0.6917724513,0.8387085874,0.3315618765,-0.2167769371,0.0770158741,0.187109796,-0.5375546701,-0.1651133901,0.3691204962,0.1173576607,0.6839033403,0.6938420392,0.5111371737,0.5624822644,-0.7664691698,-0.26807734,0.6598527883,-0.3489701727,-0.6192215773,-0.3824093839,0.1298557581,0.3315864047,0.3873608915,0.1856922575,-0.8514075839,-0.9786034683,0.724839955,-0.7649352653,0.1382531434,-0.6461387421,-0.4708492509,-0.4692817575,-0.0342610921,0.8308161749,0.6965849518,0.8865267891,-0.1470931321,-0.9012127817,0.5423462101,0.7998099752,0.6012269871,0.4259899348,0.0306419298,-0.2496715875,0.0917363889,-0.7844319009,-0.375903636,0.2176001931,-0.3414910076,-0.2437525601,-0.5560907197,-0.6007356161,0.537215121,-0.6907660181,0.5726064923,-0.9013573685,-0.100057202,-0.3578771232,0.3980252221,0.8678024247,0.4615377619,-0.7685173753,-0.4453171699,-0.3720591206,0.7243841669,0.7766799141,0.3376016238,-0.0713657901,-0.8787659906,0.3382016246,-1.3587344149,0.1494632992,-0.9668888032,-0.451122541,-0.6510426779,-0.3740868568,-0.3911669892,0.2517971054,0.0197300374,0.0143311422,-0.6900718304,-0.5778658111,0.9089121011,-0.7469583107,0.2886505702,-0.3483612575,0.9152819333,0.7286657103,0.4740016092,0.0159372483,-0.4595807252,-0.4018326336,0.2634332496,-0.2134555947,-0.4920144391,-0.1764331974,-0.2385891902,0.78228151,-0.303895084,0.8819608045,0.3010001581,-0.9136927342,0.3115159231,-0.852451347,0.2800837744,-1.021125376,-0.3351996606,0.1619787049,1.1009465962,-0.4590020529,-0.0554583622,-0.3809353842,-0.8362290848,0.6982712879,-0.0797973152,0.3681271685,-0.0134559289,-0.4304876516,-0.849651484,-0.1848264871,-0.3955293026,0.1702233858,-0.9094013431,0.1454781381,-0.436991806,-0.1144052141,0.2343585246,-0.513923551,0.1929724679,0.1284956181,0.8020455813,0.8389959621,-0.9172406059,0.9670354497,-0.0160623982,-0.5442858521,-0.1517303815,2.9297878503,0.8183938436,-0.642423219,-1.552315419,0.6167177238,0.5350224263,-0.1298150057,-0.380834555,-0.6010060148,0.0972440952,0.3491437403,0.106416137,0.5463064663,-0.3874183909,-0.981486604,-0.7119045607,-0.6379686862,0.4309390291,0.1083475139,0.173378252,-1.0019477776,0.187396142,-2.220808232,-0.6199924608,0.0965392088,0.3200566986,0.2386588668,-0.0512940234,0.4953240197,0.3443940663,-0.9224924687,-0.1115967617,0.9937717284,0.5011422472,0.6334860298,-0.0109218444,-0.4788363786,-0.6393870746,-0.0541425323,0.0467937616,-0.6418422995,-0.6519968077,-0.4977655496,-0.941089176,-0.2050504241,-0.0868125103,-0.5693528864,-0.7036970063,-0.1621379935,0.0060443129,0.7120147575,-0.1607674581,-0.6724511035,0.6363804454,0.677938588,0.6466970986,-0.9182755271,-0.4444715692,0.1497764013,-0.4128027465,0.4615035427,-0.9687677201,0.816096443,-0.4813360893,0.7807584517,0.7035097546,-0.0861231325,-0.1371486717,-0.4050224656,-0.62957735,-0.0940065986,-0.1080682401,-0.2017759985,0.7400094915,0.7460504664,0.6552082024,-0.7160555074,0.7477795046,-0.0207246444,-0.1617683287,-0.8004286643,0.9018815671,-0.4994292043,0.4413626498,-0.2218452327,-0.2665863166,0.3239822359,0.6026098202,-0.7025882448,-0.3851953457,0.7053243499,0.0203947793,0.0942410181,-0.2356304155,-0.7676189571,0.4744634513,-0.3997488561,-0.1549725731,-0.3586974777,-0.9146521766,0.8788768508,-0.3556768051,-0.129422518,0.8542793331,-0.8078907822,-0.6711255787,0.7808376656,-0.4965694677,0.7793483029,-0.3126648235,0.6072566389,-0.5919011996,0.5950376982,-0.6751403414,-0.6143590371,0.2509821132,-0.2835489789,-0.1810663711,-0.8945520173,0.3756265517,-0.6095292365,-0.444950478,-0.3205154253,0.9793962785,0.339512158,-0.1931918954,-0.299009351,-0.069973832,-0.4822899937,1.0254872486,0.1394167649,0.2562387772,0.5102120863,0.7704151718,-0.2784922948,-0.0210499747,-0.368792683,0.1431982284,-0.4740742056,0.8575813008,-0.5228784269,0.9510468265,-0.4731101817,0.8370772319,-0.7134468702,-0.4496668508,-0.6852239515,-0.2759357072,0.2462070777,0.2741465425,-0.4710203194,-0.3322729467,0.6278903037,-0.8580444602,0.1834843824,0.4298246652,0.9620790851,0.6080576698,-0.0532728012,0.8799386152,0.2622271061,0.9017568275,0.075506736,0.9869139504,1.4111709043,0.2838356249,0.5024566454,0.5196332078,0.8153398419,0.0257285476,-0.0600370653,0.762803085,-0.7172953743,0.3388039326,0.8141898112,-0.2730899115,-0.5105904975,0.3445240139,-0.3424498263,0.454828105,-0.2945675286,0.1975560953,-0.1592310678,0.1349553082,0.3797563432,0.6131392154,-1.0021035273,-0.1869956658,0.8528970398,0.5695748678,0.9869989369,0.8889003839,0.7449107196,-0.9723001599,-0.5817301448,-0.1409890005,0.8751524907,-0.3339762116,-1.1073299466,0.3808457236,0.6441130252,0.2099776167,0.0452639998,0.2432944645,-0.2689447382,-0.3860498019,-1.0117887804,-3.569750221,0.9184964494,-1.048345802,-0.3924372632,0.2177773201,0.6451087972,-0.8820164089,0.2983649346,-0.4671303967,0.1456060215,-1.1605240363,0.4487558195,-0.4447641869,0.2769150264,-0.3590408433,-0.2852790336,-0.3379968854,-0.4725963987,-0.0959672234,-0.7785454986,-1.0290873254,0.9010596598,0.4853180231,0.3594609222,-0.2110099295,-0.8609839069,-0.6574161325,-0.9819978111,0.1094361434,-0.2277137106,-0.8471040893,0.3413467241,-0.09845308,-0.4074117974,0.6503176601,-0.2683529156,-0.2639377942,0.5275056856,-0.3960971511,0.8476825414,0.5299052748,-0.971839095,0.9000716163,0.7067088333,0.5803062191,0.4189351301,0.3299410038,0.471937142,-0.7094961064,0.6446752448,-0.745004635,-0.7226146973,-0.4017097367,1.4275985165,0.0449456506,1.0699028085,0.5123324138,0.6547180595,-0.2758720613,0.7249761409,-0.7426027819,-0.2789393241,-0.0541867645,-0.2842492773,-0.4373567166,-0.5120057477,-0.0952041871,-0.7590913047,-0.9953014881,0.0896718064,-0.0497206413,1.1374569767,-0.6005504376,1.0244558279,0.1590801582,-0.4243984539,0.2751478858,-1.0219677456,0.7205201654,-0.9211398037,-0.8101313651,0.9445185807,-0.249733144,-0.7983001741,0.6363779429,0.1220622126,-0.8566263762,0.0683692417,0.3800562084,0.4700467923,-0.8787343234,-0.1809402259,-0.4498620785,0.8318233067,-0.5840292141,0.2003855405,-0.1024557572,0.6772549692,0.0721613066,1.0245924164,0.6106453933,0.8747834968,-0.6007329256,0.1986720719,0.0007880157,-0.8345866448,0.6163171574,-0.3039236714,-0.5997380178,0.1768483433,-0.4654856687,0.19604409,-0.4071690645,0.7786088681,0.3312349242,0.7345268583,-0.2321437927,-0.2059045582,0.6476389776,0.0899783601,0.5740731422,-0.9388897287,1.0138279805,0.1524281233,0.2307218843,0.2282065493,-0.0101629476,1.0784219765,0.1332430735,0.6456777237,-1.0026870624,0.1640635681,0.1323388654,-0.1006483948,0.069592322,-0.4558353933,-0.2560026127,-0.8846348064,0.6882116332,-0.5325637156,-0.7261873112,-0.80487678,-0.0631050465,0.6965850937,0.5437404039,-0.3176860401,0.3270043576,0.7276177266,-0.4050110612,-0.8407642409,-0.3795774956,-0.5628606047,-0.8278424918,0.709158942,-0.2047962706,0.2816189239,-0.5533935336,-0.3894385865,-1.00953976,-0.3130664918,-0.1488070755,0.2452939142,-0.4621237608,0.3222012336,0.8477728143,-0.2809069886,-1.1428764538,0.0403832035,0.5089313656,0.042499013,0.0043310359,0.5318384166,0.7239429767,0.8365702432,0.1803741019,0.2417031702,-0.5195172584,-0.3430332238,-0.1634113479,0.9437796233,0.1364710372,-0.4048459319,0.0739990432,0.3548092989,0.5236451301,-0.9979915682,0.5204847165,-0.146640715,0.7376849522,-0.3180859393,-0.8967813958,-0.5945105081,0.9774213321,0.683942453,-0.7063969592,-0.5838298794,0.4869400643,0.6253722946,-0.7062762712,-0.4284041189,-0.8934585406,-0.211211778,-0.3519226021,-0.4693205382,0.2326554349,-0.0465200676,0.0403441675,-0.8129821483,1.2424122862,0.2108081446,0.9787130506,0.5419526846,-0.9462326493,-0.7337444962,-0.2158555548,0.7894878073,-0.5655023123,0.6906431514,-0.2066800272,-0.5196827922,-0.8678374922,0.3254514379,-0.1374262287,-0.1378212965,-0.630062578,-0.0070255953,0.3443917596,0.6763652138,0.3331717555,-0.8177020484,-0.9066032944,-0.0712845268,0.3372963446,1.1192643579,-0.728491005,0.7817219255,0.423599262,0.231665512,-0.2744426844,0.8439092857,0.5002818178,0.8867253537,-0.4971019723,-0.2841117745,-0.9972359402,-0.2686704701,-0.7701376501,-0.2585231798,1.1463692615,-0.4021295446,0.4881913925,-0.9800096964,-0.4722051908,-0.6247114738,-0.4191331244,0.0661457733,-0.6976280225,-0.1484869681,0.5634987802,-0.2324076692,0.8983286678,0.0424248755,-0.9185431223,0.5791955619,0.7220048455,-0.714733524,-0.8591232921,-0.6663162145,0.2832958184,0.0725898789,0.334391104,-0.1535249252,0.2716344078,0.9405665202,-0.5627672583,0.7399713606,0.8533044337,-0.3376820252,-0.1898288352,0.8559828992,-0.5084217136,-0.6797653033,-0.722243996,0.6866552043,0.6147261661,-0.8746088765,-0.1304484561,-0.9822048392,0.2721209767,-0.267645295,0.4269726099,-0.482643422,-0.6718438158,0.6070268038,0.2034406246,0.3352770382,-0.0390080237,-0.3075307383,0.6934331546,-0.2756781554,0.2621671515,-0.3591214005,0.7968681946,-1.1463232985,0.4101628134,-0.6753939029,0.817612575,0.0005136317,0.4030311851,0.3914425738,-0.6731196939,-0.5666778908,-0.0812669047,0.2176075559,-0.676966734,1.0104637134,0.3632797104,0.175973724,0.1683056635,-0.8095891215,0.8444036463,-0.3780374997,-1.0007711767,0.3120177272,0.2252284358,0.7548307796,0.1619445519,0.3919628798,-0.1648384822,-0.7668591932,0.4116710904,-0.2675223984,-0.4280932207,-0.6942496764,-0.3565335232,-0.6171074757,-0.5191303789,-0.4628062657,-0.7086183183,-1.2365478873,-0.7221053727,0.634636618,-0.9971652605,-0.9663933591,-1.5614208671,0.8354659917,0.2917243609,0.5361337062,0.5077222586,-0.5347344182,0.2541883916,0.7545186235,-0.1472518138,0.6444247381,0.8624930144,-0.4187863176,-0.6807476539,0.0283927615,0.4209259729,-0.1634149613,0.2803090141,-0.0288052712,0.9540740049,0.923914291,-0.2675766642,-0.6545728723,0.2298571821,0.2179068203,0.615241073,0.1074077833,-0.6970692727,-0.0471987179,-0.6508094409,0.4884083749,-0.3164705627,-0.808671662,-0.6155110677,-0.4334341983,-0.4359595227,-0.1342198428,0.9682065977,0.1211978668,0.6271576372,-0.2206451122,0.6550172656,0.2157425536,-0.7412465122,0.0933519722,0.3209456011,-0.0338472284,0.0667823295,-0.6052880577,0.1188401986,-0.8083001197,-0.3205799196,0.595856636,0.8019460851,-0.0889862764,-0.8501555264,-0.0011550057,-0.169949708,0.7907504915,-0.3803043902,0.6906729189,-0.3216923339,-2.0568105647,0.088977034,-0.6510241533,-0.8961409038,0.1203656113,0.7577132702,-0.5884609083,-0.5931633536,-0.2206789042,0.4894621037,0.8252888943,-0.0581049289,0.0863481841,-0.4177459454,-0.7725501407,-0.4926577357,-0.4200790665,-0.6590714966,-0.8921008091,-0.7116362092,-0.5795554522,-0.1582132188,-0.7287762484,-0.1634104261,-0.0247911251,0.4309644028,-1.3520234041,0.4712121442,1.0066949945,0.6993529532,-0.0673795824,0.9472211354,0.6148838541,-0.1309010043,-0.3965413689,0.8360645386,-0.1685669219,-0.5925743438,-0.5953086017,-0.15948049,-1.0015222665,1.4890198589,-0.287846987,0.7051509945,-0.2019400471,-1.2829819744,0.5557394203,0.6441258967,-0.8957138308,-0.1772393223,-0.2216892166,-0.7652300901,-0.6777658444,-0.2079230858,-0.942815901,-0.7213511008,0.2798949027,0.5519889582,0.7722778169,0.5209750945,-0.9093774684,-0.239639284,0.5721173384,0.5730579575,0.2666862764,-0.1017887536,-0.1604318851,-0.0156436524,0.2891242289,0.2754035872,-0.3919366267,-0.6054374188,-0.8479054968,0.0982636045,-0.6645179799,-0.5919872208,-0.9213129488,-0.3344060965,0.3870455701,-0.01280305,-0.8549073258,-0.0182137528,0.5855413554,-0.5001240377,0.4723551243,-0.915267467,-0.5139425733,-0.7009894082,-0.0778409925,0.7576372303,-0.4570173887,0.5001309341,0.7058554654,0.061593373,0.4850677559,-1.022174186,-0.1257332871,-0.4060701761,0.5514241613,-0.8058832129,0.6507829274,0.6610417499,0.2486133791,1.376914917,0.8374095529,0.6249271791,-0.86845849,-0.6556179129,0.3619915528,-0.0789196977,-0.8230030984,-0.8722779002,0.7084881592,-0.0737317519,-0.5001649609,-0.552451368,-1.203054762,0.7131627945,-0.820883617,-0.256527088,-0.2261991236,-0.1683808916,0.6975315145,0.5367638199,-0.8932269455,0.4398691056,-0.450573834,-0.1240474193,0.0666383386,0.7864572909,0.8034648543,-0.0944644511,0.4632358465,1.1922106655,0.0763544815,0.5564837548,0.5800771754,0.6199035498,0.1179205685,0.4801238998,0.4429432667,-0.7864243837,0.1828725966,0.4974151369,-0.9291857142,-0.1479770388,0.1779227827,0.0450997087,-0.0627552898,-1.1565311229,-0.0097347472,0.8746978261,0.205581079,0.261121868,-0.2522578389,-0.7954043916,-0.5753152897,0.7615635772,1.3849014587,0.8206663137,-0.2783164629,0.6975651146,0.5388715092,-0.6939673671,-0.4879651601,-0.593696336,0.0025394976,0.1499397518,0.6078717069,0.1201730181,-0.0659304473,0.1003582324,-0.2093895437,-0.6121936121,-0.1056024132,-0.5133507303,-0.1825364572,-0.6694555557,-0.5871848826,-0.6453760129
   -0.783132894,0.664114886,0.6566344358,0.0092910053,0.7803976712,0.932414381,-0.6669883788,-0.6176061919,-0.696581219,0.9364514592,0.7882853651,-0.0736103725,0.944443464,0.0854364714,-0.2233991417,-0.627180705,-0.7363603378,0.8427126994,-0.7727920753,-0.8475406947,0.3893434763,-0.1353798454,0.9141330825,-0.0399528901,0.2162174579,-0.5202948846,0.9425148623,-0.2962666845,0.2221567876,-0.2173277295,0.0043366938,0.2481504177,0.8799440224,-0.2174915807,-0.6359864128,-0.4244171979,-0.554074597,0.7163709061,-0.5934329311,0.6186787664,-0.0934615199,-0.2470417764,-0.4776182531,0.2558231172,-0.4641448642,0.8540019491,-0.2477562582,-0.8663040112,-0.0048514712,1.0068950467,-0.0047654756,-0.6255383144,0.7459612258,-0.9227387682,-0.5201241602,0.4230754383,0.3592897494,0.5884672373,0.3844542956,0.2505974338,-0.182941696,0.0415650502,-0.6109103837,-0.4348925293,-0.8849966754,0.5480896335,-0.4232183923,-0.930469896,-0.5553012642,-0.7115761205,0.6904935119,0.354901029,0.8976263408,0.2757941745,0.9919006343,-0.5209915195,-0.2219310522,0.5198730279,-0.179283738,-0.4626229419,0.3360607254,0.7995291872,0.5190216668,0.7764763421,0.9394802827,-0.4843978006,-0.3124376146,-0.8048244222,-0.012524166,-0.0301294893,-0.4074514629,-0.1102294811,-0.932284686,0.3513160043,0.180499068,0.4022089166,-0.7902725748,-0.5987780676,0.2521004411,-0.0810308747,-0.2807335001,0.892432284,-0.6247451897,0.7363086855,-0.3936078719,0.2891566607,-0.1510956939,0.4099790291,-0.3993704954,0.3455097177,-0.6133213647,0.1737401887,-0.7704770526,0.002658876,-0.3110043242,-0.5561429284,-0.1832196602,-0.2414377677,-0.7980322962,-0.1659225929,0.5811676818,-0.3067258219,-0.851406367,-0.2821174939,0.0141023053,0.133755293,-0.3180778714,3.6740269556,0.8818615799,4.2631623292,-0.7849961472,-0.3385855482,-0.9023146171,0.8321908771,-1.3480553027,-0.2505379246,-1.1750065763,0.4572249004,-0.0014621637,-0.5626080461,-0.8456563772,-0.8315240613,-1.0207702405,-0.3789028157,-0.1095245826,-0.4806916248,0.2335318202,-0.6362839222,-0.5436749179,0.1073883379,0.8753907506,-0.9806535127,-0.4922783456,0.3826187889,0.3945786618,-0.5172370145,-0.5104311318,0.0067150798,0.7417497765,-0.0603903815,2.6601968865,-2.2476357406,0.8380121604,0.1798452071,1.1878981842,0.9182062089,0.2300609138,0.5352966412,-0.0425856989,0.4877014725,0.1275599455,0.703230532,0.4689139632,-0.2651295314,0.867734616,-0.0974105542,0.6817536443,-0.3794080019,-0.4295795376,0.3964442581,0.2036192801,-0.1507721544,0.0551534027,-0.7274324539,-0.2804278815,1.7696991752,-0.1212270422,-1.0493045644,0.1924891513,0.6140254609,-0.2581779141,0.6764639011,0.5307756293,0.8046842275,0.1982902987,-0.0484958034,0.4701287098,-0.8968392216,0.3105709007,-0.8141755289,0.5500504998,-0.4912471445,0.7147196315,-0.2802146573,-0.221619179,0.8022233532,0.1878683361,0.6566265327,-0.292092693,-0.2860356698,0.5360346883,-0.0792983395,0.5946395074,0.4326209405,-0.4330223008,-0.983712527,0.3856122574,0.0425292095,-0.7936655604,-0.1265492762,-0.3290927823,0.4580532627,-1.0646628118,-1.2837783567,0.964959428,0.2877496733,0.0827596194,0.3168610902,-0.8029426925,-0.8617293392,-0.5079877405,-0.6797295846,-0.5181263538,0.6511786504,-0.6153817392,0.8672450064,-1.0948350133,-0.3040909201,0.0566132937,-0.7271739943,-0.6673113037,-0.3745928218,0.018647742,-0.571408816,-1.5999060504,-0.0724483271,0.0933374009,-0.936210724,0.4624343602,-0.185461743,-0.0418708376,-0.8013819716,-0.7841699628,-0.0929523398,0.9026641728,0.4745887176,0.1068193595,-0.0945972852,-0.5271109754,-0.0107805928,-0.7563477822,0.7340927461,-0.1984983053,0.4956581566,0.4073862437,0.3347064439,0.5878554783,-0.5996604431,0.1458849831,0.0976637794,1.1482462353,0.9275532246,0.3409274111,-0.7140601114,0.8563782335,-0.0091477629,0.0710988131,0.7287825151,0.6735675523,0.1098676604,0.4318142708,-0.3325988256,-0.2078334595,-0.3486868025,-0.3271651853,-0.1848752517,-0.7629969938,0.7066154082,-0.2684388316,0.6720364412,0.358266721,0.3741132377,0.1024968843,0.1794145807,-0.7550392029,0.9424850884,0.1547191248,2.9033203746,0.6483421641,0.7838495027,-0.3752297045,0.3465588671,0.2188243229,-0.394796783,0.083167361,-0.7688820415,0.2267945726,-0.585422763,0.0403099364,-0.0974165209,0.0633739669,0.8660346483,-0.8943699111,-0.7693106664,-0.1324199435,-0.7493225181,0.3639211935,-0.3077176362,-0.1420713579,0.5518822422,-0.1979638599,0.7788407826,-0.0709497167,-0.2188067884,-0.6529820467,0.3381461719,-0.9158911598,-0.4582077206,-0.4412187041,-0.3568977986,-0.6930107289,0.8839389995,-0.4862113727,-0.113288842,0.6778836292,0.7699559136,-0.2387946436,0.7179386648,-0.5071814316,-0.8295115739,0.9653466269,0.5063564866,1.6218892343,-1.4782276874,-0.3498601201,0.520839253,0.1544796776,0.820245502,-1.3814527256,-0.0860620256,3.3037823677,0.0299319087,-0.0845341844,-0.9313963336,-0.4462834168,0.7012690914,0.4648704008,0.4584281012,-0.2286273587,0.6248224958,-0.3252001158,-0.3123471508,0.5184800692,0.4628812029,0.4565127426,-0.1520002826,0.4453789429,-0.5904433968,-0.4044612771,-0.9149066868,0.3994369975,-0.7525769105,-0.3061575042,0.456225569,-0.5256080872,-0.5461222318,0.6730338012,-0.1349113609,-0.4731203292,-0.4376627837,-0.3654417716,0.3548756891,0.3336835269,0.2452279546,0.2411375913,0.3566649319,0.4709851179,0.0081638812,-0.6089028462,0.704097615,-0.1448844629,0.8746227393,-0.4961442367,0.8073091538,0.8007843711,0.1772131067,-0.2211660816,-0.6513644695,-0.0027463554,-0.3441321089,-0.9738986431,0.8172670708,0.4439760737,-0.9664167353,0.7930189911,0.8802754505,-0.6048647582,0.7900983392,0.5405798859,-0.0762172204,-0.2971185789,0.0688319018,-0.6788627322,-0.3978449184,0.4498807748,-0.9302134631,-0.8042548145,-0.271676419,0.9822595144,0.4402314155,-0.034781189,-0.7648295394,0.5475584538,0.4673853192,-0.1241840496,-0.2692218127,0.0674090771,0.8491555315,-0.1727368584,-0.0459459602,-0.3416628843,0.0249562164,-0.938307489,0.3530166413,-0.086093269,0.6421571245,-0.8151909804,0.8946993529,0.409427766,0.4271111634,-0.814776931,-0.0148148817,-0.6096837681,-0.5396532106,0.4921837585,-0.5312172649,0.9333160445,0.7208511513,-0.9575987853,-0.9225166368,0.0079686624,-0.0578841482,-0.2453854937,2.1824606029,0.4635249075,-0.7305022642,-0.2904392753,0.1047587116,0.0594786614,0.3798975876,-0.6598020421,0.1735429992,0.570484437,0.4529678588,0.4400420002,-0.647690665,0.9114353959,-0.3882701314,0.9603893258,0.2889529854,0.5796056297,-0.5444516226,0.5977387315,0.3470099285,-0.3401323481,-0.5466391706,0.6693643348,0.000246553,0.0029402516,0.0787099169,-0.4186365897,-0.812887916,-1.7425363022,-0.658527368,-0.3123382406,0.6920065974,-0.6450782649,-0.0658282542,-0.8629984516,-0.9308747185,0.7955123826,0.4008701714,-0.1237532126,0.7206194675,0.0078101829,-0.422893796,0.3724814101,-0.6835684688,-0.7918139158,0.2882482554,0.1930039486,-0.7853726639,0.772544481,0.1731968387,-1.2026357051,-3.9539659804,0.3152165083,0.2496770313,-0.1264308359,0.6742148109,0.706124298,-1.6245453338,-0.6265094763,-0.4308322128,-0.3667836374,0.7160302962,-0.3061029701,-0.6343828741,-0.073457286,-0.6808610474,-0.1367802751,-0.2075605777,-0.3262254419,0.5427956221,-0.2534476125,-0.0365854516,0.046899729,0.7651850907,0.7608697802,-2.391013632,0.5322930687,-0.5885357585,-0.5960936374,-0.0660924111,-0.1497384793,-0.1356096153,0.9439586865,-0.934484967,0.7146692518,-0.6780201692,-0.8110544252,0.2708288905,-0.1721901211,0.6467248117,-0.8822060197,0.9702880017,0.1978568571,0.6704490399,0.775141023,0.8936451128,0.1714135841,-0.6351268741,0.331480857,-0.7738566016,-0.106292085,-0.5215802249,0.3514832156,0.3082198997,-0.8744098828,-0.1021504465,0.664257278,-0.6565170915,0.1097002408,0.5956222634,0.0774625358,-0.7837939655,0.3912408905,0.2181400236,0.3525584547,-0.8976982516,-0.4028033206,-1.5252044758,-0.6821727753,0.5342894372,-0.9565261248,0.8364045759,0.2973353993,0.7241616428,-0.0934022043,0.302742549,-0.4771469158,0.2068036144,1.2244952338,-0.0269405149,0.3242843458,0.6543960098,-0.0435303103,1.715357215,0.239366174,-0.1384742123,0.756253433,0.8516238761,-0.1054735116,-0.1154732726,0.8819475663,-0.2354525574,-0.5388320666,-0.8763021299,-0.2780811837,-0.1592361924,-0.3717576046,0.1160502722,-0.5431373793,1.0089429917,-1.7982941319,-0.7758528531,0.9894108734,0.2968064885,-1.6076703239,0.4981533142,-0.6785970293,-0.5847223084,-0.5826832574,-0.882202042,0.6691371916,0.2470124893,-0.1529747261,0.9635474259,0.6012026373,-2.4481323221,0.2442043868,0.63691144,-0.1503125684,-0.9414617975,-0.9423875133,-0.7823792485,-0.6143100625,0.2473338243,0.3878843494,0.8755550152,0.0777353834,-0.0647251461,0.0824090622,-0.7891241293,0.2552907998,0.1625615102,-0.264183557,0.8884541531,0.4676808197,0.2690205636,-0.9463499462,-0.0081230379,0.286451668,-0.7514608138,-0.165060118,-0.8972900656,0.5706857169,0.441581146,-0.0858063184,1.5756331071,-0.2247046655,0.0298427018,-0.8578718364,-0.7846860267,-0.9544557977,0.2693722755,0.0848897617,-1.0079893143,0.3059864423,-0.0969169784,0.7472800578,0.3870580709,-0.4005125457,-0.0231437586,-0.416729069,0.1106559075,-0.2932479756,-0.2872724508,0.651400025,0.2554861434,-0.5806028001,0.7219029187,0.4052801541,0.8357068753,-1.0794461773,-0.7599770541,-0.8723811082,0.3335024788,-0.3512867071,0.4112245643,-0.3211701348,-0.391140019,-0.2177078879,-0.9817802931,0.1392581249,0.423959336,-0.6205179297,0.5346298312,-0.0860395372,0.6696736246,0.0446307253,0.1656562753,-0.2891889362,0.3862180125,-0.7111767698,-0.5773471853,0.2990876813,0.7714621639,-0.3121968943,0.7895506467,0.111161983,-0.6879852994,-0.6191558962,0.1137043971,0.6759334897,-1.3182686702,-0.0795374305,-0.3164237151,-0.0219983139,-0.1871803592,0.792084253,-0.2373951797,0.2308743662,-0.4402768553,0.9875082112,0.5491772387,0.0455467314,0.492644662,0.1827419224,-0.9615469495,-0.1177447373,0.1294297234,-0.8580860073,-0.5956028836,0.3127649791,0.4742175729,-0.0324333294,-0.2398660395,0.3238452864,0.7305286437,-0.2233678447,0.0594637823,0.9807134072,0.50794788,-0.1423902433,0.2423448977,0.6887440264,0.9507938764,-0.1443399168,0.9806323932,0.6052677892,0.3179025433,0.3884007576,-0.8952645637,0.8440772031,0.7777584944,-0.2169702184,0.6032550216,-0.1678602711,-0.7272206727,-0.7260923408,-0.6504980317,-0.1050980967,0.7631974114,0.4372865499,-0.1286538382,-0.3989099727,0.3828386948,0.1894149971,0.3576000658,0.6098410765,0.5320850669,0.6414926538,0.6922032214,-0.9435115458,0.4797841687,-0.6843850311,0.6404277808,-0.9365991671,0.2240838689,0.7546607259,0.2253571448,0.8260142971,0.2055843968,0.6121023779,-0.9054896011,0.855429992,0.8587096072,0.5879672036,-0.9761356712,0.0444199027,-0.1515837492,-0.8581544779,-0.5709367377,-0.6193210009,0.0775630709,0.3822763709,-0.3198222445,0.3507118937,0.3711465656,0.8047529677,-0.7965483206,-0.1691144346,-0.6943526681,-0.5853549732,0.3128026944,0.1703722103,-0.8767187207,-0.2666827648,-0.6501115703,0.5788616053,-0.3108325816,-0.851481794,-0.640645876,0.8847041086,-0.4493373774,0.1053450285,0.2145328701,0.8618680182,-0.7995206793,-0.2598143467,-0.274965546,0.6029213579,-0.2070697925,-0.4858972285,-0.889904511,0.3168455851,-0.7756629354,-1.1189995631,0.3791495001,-0.2631167888,0.8623547428,-0.0766071074,-0.449276236,0.9224510751,0.2118813539,-0.052066084,0.9507019562,0.3887288238,-0.8496903659,0.5439183793,-0.3036082467,-0.035851312,-0.006206771,0.1586820309,0.2173695315,0.2140708085,-0.724946703,0.1355972775,-0.2048471378,0.7308918681,0.2504323503,-0.8139355291,0.1920084403,-0.2531073028,-0.510979952,-0.6960921958,0.1233253812,-0.4967684121,-0.5411782326,0.3053064598,0.6453058648,0.098383705,-0.159221371,0.8630684321,-0.0102309222,-0.7361628207,-0.1662027149,-0.2778225946,0.7592340107,-0.5117658592,0.4125704743,-1.8127462479,1.2241855268,-0.5509688591,1.5645182969,1.4738813602,-0.3261252515,0.2130437611,-1.0927431566,-2.4534734198,-0.1966772795,-0.4202857418,1.8038258161,1.2785281979,0.0925332713,-0.4201166247,-0.0259949881,-2.0604236342,-1.4172445538,0.2220367055,-3.3765385024,-1.82820468,-0.3100187438,-0.1864581686,-0.7168972154,-0.7451906712,0.0175451717,0.5095644395,0.0084892853,0.2764992056,0.4771094306,-0.2422057662,-1.4895341481,-0.8949467349,0.2163812573,-1.0229386927,-0.3233590756,0.1205520116,-0.8007928802,0.0929106104,-1.0825862793,-0.6457314021,-0.0914595695,0.5586478719,0.3246787308,0.4121068875,0.7054558395,0.1795663298,-0.7875590866,0.7338426667,1.9907736487,1.6673347841,-0.7316505579,0.0646353679,0.415114261,0.1220009858,0.492042666,-0.6928044657,-0.1297556099,0.6495134272,0.4816036332,-0.3374388662,-0.2975581754,-0.9034605446,0.5980775605,0.5829477648,-0.8406366784,0.1469308844,0.8514655963,-0.6050508629,-0.5381010313,0.4674055708,0.038027915,0.1104327964,0.8984174418,0.2210007084,-0.5345839599,0.2697492928,-0.3959848335,-0.1558556805,-0.0808355141,0.2215287722,0.1168617667,0.7015850759,0.5502872668,0.7940083638,0.6383533362,-0.0013358767,0.0546232487,0.4995079214,-0.8237740038,-0.0374549628,-0.3296017519,-0.4794892377,-0.4109716878,0.51003189,0.1075961762,-0.7670372932,0.4055903711,0.625746362,0.4490667898,0.1427956289,-0.6915858244,-0.271160125,-1.0580779506,-0.2985869107,-0.7465800904,0.6386778904,0.3781989732,-0.6667001881,-0.5966389945,-0.2578475239,-0.774104607,-0.1178743693,-0.2137863342,0.4165796581,0.7609729801,-0.8275983725,0.0595481624,-0.8499822476,0.9479782577,-0.8544407885,0.0414308171,-0.1525489627,0.4480947319,0.939586388,-0.3226269827,0.281562522,0.9222568995,-0.2880612182,-0.1790951377,-0.0924329322,0.1546251639,0.0581468023,-0.5033951902,0.7278177435,0.0980356703,0.0563450095,-0.1056082687,0.9579727513,0.9931069185,0.7649456331,-0.2101965662,-0.2038807942,0.7414739175,-0.8039100471,0.1964375611,-0.6333873703,-0.1343127779,0.3865878743,0.9674357813,1.0991932827,-0.3033583134,0.4502808072,0.0121807345,-0.3941743859,-0.794680376,-0.3436040867,-0.4557549651,0.079857204,0.0839551256,-0.8206204754,-0.9113797964,-0.5534378495,0.925287594,-0.4686074925,-0.0174070879,-0.4663042652,0.9061150877,-0.5654375246,0.4467080076,0.6798224738,0.5272107499,0.2550580049,0.9064060532,0.6559370138,-0.0746400981,0.3059925856,0.7724130531,-0.8964634448,0.8687331068,-0.1630926839,-0.0038224863,-0.1945420497,-0.263995448,-0.8067116744,-0.7429189091,-0.9666011607,-0.6631184698,-1.0004957121,-0.2220047724,-0.1489703654,-0.0626001144,1.0043910337,-0.6286122058,0.9365508617,-0.5539757016,0.4058636405,0.3091730799,0.5969518796,-0.818857511,-0.31567172,0.2339103337,-0.2729889839,-0.2966159631,0.3461848081,0.9404455589,0.5866295279,-0.5330162316,-1.7189267523,-0.4604236984,-0.4266357729,-0.2899871131,-0.8514984929,-0.6160323298,0.858388272,0.5427953545,-0.6385743303,0.1041779898,0.4807215749,0.8736094899,-0.642424348,0.1128354775,0.3395697995,0.2708710223,-0.9289739995,-0.3094092391,0.5948400539,0.0446679617,-0.7817062067,-0.6437984634,-0.6651917512,0.1597785601,-0.206530595,0.5164201708,-0.2577495957,0.3202116619,0.0920134676,0.4249741492,-0.4917839956,-1.1631376959,-0.2968313343,0.8228539214,-0.9239068429,0.0871122661,0.0559439166,-0.5736101332,-0.1609795004,-0.4275402105,-0.3593793113,-0.0307723904,0.046650955,0.3197018137,-0.3348881105,-0.3236556697,-0.0561194203,-2.1380912303,-0.2891127707,-1.5407625637,1.6499305938,-0.365841061,-2.0128231119,0.0253027295,0.1677280158,0.539263593,-1.9073243972,-0.2198679959,0.0792204338,0.1652109114,-2.9034995516,0.7355507532,-0.5403965187,-0.1496757649,1.945079528,-0.8503468411,0.3829754914,1.1345207315,-0.3022121254,0.520506171,0.0088768804,-0.8538579518,5.5710576641,-12.4246205027,-0.6008455796,-0.7074433651,0.748536016,0.5315270695,-0.7792469095,-0.967699262,0.6198391003,0.8814929092,0.2779685158,-0.678364946,-0.2197410675,0.0852111765,-0.7745464325,-0.5283281701,0.5058323674,0.7118670049,-1.0015345405,-0.0472335495,0.7007420224,0.0598140868,0.6263076571,0.4270177109,-0.0638624068,-0.8182190959,-0.9813343069,0.9255206045,-0.8872088167,0.9649915268,0.5876833576,-0.6767859619,-0.2708760527,-0.1861924724,0.1153144771,1.1396601442,-0.4803590018,-0.2637954869,0.7530247406,-0.3223265739,0.1278819833,0.8354366403,0.0458316439,-0.7197635136,-0.2049313051,0.0765148355,0.9903029786,-0.35571218,0.9919262345,-0.3333340094,-0.4587508615,-0.7757498658,-0.5627511827,-0.7492622277,-0.0574986687,1.6828090027,0.6855597947,0.2762920009,-0.1599133628,0.5096795563,-0.5800980683,0.070097403,-0.3859189252,0.8116261905,-0.1455165926,-0.6130001777,0.0737097183,-0.7313529917,0.8838925485,0.8049415687,0.314570831,-0.150075937,-0.5317129807,0.7408973302,-0.078162504,0.5719142369,0.9060509517,0.8735636871,0.3724787113,-0.4805322137,-0.4713299021,-0.0675191202,0.9206974128,-0.2149468164,-0.2500627116,-0.7785037729,-0.3208442784,-0.4313906613,-0.4013397253,0.5450286039,-0.9518126619,-2.0347881691,0.322831573,0.1130058044,-1.3027192324,-0.1269557668,0.4292510931,0.5892483283,0.1913859537,-0.1940359358,0.1787216575,-0.9318295896,-0.10928346,-0.5582755875,0.6049429448,0.3531112453,-0.0662357211,-0.10189521,0.471648603,-0.7854905793,-0.6249719891,-0.5905063893,-0.8083484759,0.4084380149,0.5631043419,-0.5467967316,0.8305676301,0.8640876923,13.3264935462,0.6728363837,-0.4749667816,-0.6578164408,0.7752619843,-0.1827548541,-0.5421279981,-0.1328033767,-0.4477553088,0.0463741691,0.7391697461,0.5535866911,-0.8805404967,-0.6948229697,-0.4490794542,-0.5826491484,0.0254855873,0.4062206099,0.122271069,-0.1942863645,-1.3697226869,-0.0372253008,-0.8941360219,-0.2034234374,-0.1360018765,-0.5902238993,0.4196376945,0.6352921993,1.1804433972,-0.6584287909,-0.0680565318,-1.155628782,0.2026884931,-0.0121125306,-0.7120076722,-0.971448315,-1.8704937508,-0.2272792209,0.8871423759,0.2472421886,-0.7791156347,-0.6240076829,-0.5481709469,0.7563889899,-0.2188636425,-0.1332618334,-0.7203898055,-0.3303510315,-0.4490115345,-0.0961683976,-0.8436499548,-0.1642296096,-0.5750396518,-1.1822969561,0.6473553615,-0.7367231654,-0.1052399211,0.8674854648,-0.265149606,0.0054911346,0.0870435234,-0.1772585031,0.7547889918,0.3309834373,-0.5228570063,0.2224907574,0.61346865,-0.4579965683,-0.1604953744,0.0687234931,0.5107745738,-0.4497185763,-0.8904698096,0.6844161677,-0.1875667598,0.3277686977,0.1769513371,-0.5482209847,0.8144991692,-0.6816237496,-0.4959953663,0.0986206429,-0.3065088125,0.2741221846,-0.0065177249,-0.1991507412,0.5918332037,0.5253983924,-0.3565074442,0.6261477834,-0.2670860396,0.5370058684,0.1244704438,-0.451047653,0.3392967677,-0.5587741064,0.0314665656,-0.0507263058,-0.6509120871,-0.3636818618,0.8746231111,-0.072476625,0.1783919128,0.7148526447,0.5191448308,0.4848320195,-0.4074436258,-0.9142885547,0.8112403761,-0.2368453524,0.3428024906,0.9211085937,-0.2357635056,-0.1303151335,0.8959564447,0.5126005519,-0.5414988338,0.9500365716,0.2763423318,-0.1766199831,0.3811022428,0.6117211982,-0.9034042472,0.0132008951,-0.1288946201,-0.0350983898,-0.1842227383,-0.412627673,0.1975298613,-0.8252153475,0.1434392781,-0.5174780954,0.7963829641,-0.1849573805,0.7008107175,-0.8834225806,0.6679943189,0.6971425189,-0.8644493501,-0.9422882416,0.5553162963,0.8330643457,0.776639751,-0.2673612764,-0.5984364989,0.9978526272,0.2812636253,-0.9082175615,-0.3237315664,-0.0794796821,0.0372393239,0.431964089,0.8478488974,0.0310669383,-0.2277675774,-0.1895293518,0.5752592719,-0.301603319,-0.8043341474,0.9292877826,-0.6724563747,-0.3774145977,0.2869133915,-0.1264095137,-0.0105421903,-0.0851797618,0.8351015131,0.967992361,-0.8454886989,0.1204905231,0.9361386996,-0.9728935562,-0.8287048951,-0.8211149076,-0.3983276857,-0.283458921,0.7876086747,-0.4755888186,0.6489205038,-0.1193847739,0.2045519537,-0.8411491858,0.5413227491,-0.1340229421,0.1227601656,0.9090152304,-0.281279176,-0.5467586136,0.1424780132,0.3563661868,-0.3897611592,0.1165670537,-0.7206390402,0.5276230526,-0.0007256423,-0.4923310672,0.4602755491,0.9483785079,-0.3933833915,-0.5147052975,0.1333663671,0.4078828483,0.1313250991,-0.932406921,0.6484712712,-0.0628034185,0.1405334175,-0.1441116138,-0.3001673025,-0.8118262556,0.9986471421,0.9032997769,0.3563895797,0.3812924496,-0.7237388705,-0.0434992718,0.2082871058,-0.2497199136,-0.3492174173,-0.8012853627,0.1275442272,0.3406811541,-0.9770185547,0.3310199895,0.8816094132,0.0239704447,0.308512957,-0.9103046918,-0.7770898468,-0.8044675072,-0.8138330279,0.6045390042,-0.0910384959,-0.3714364083,-0.5726077432,-0.7594472394,0.3448846685,-4.0108624198,-0.23473861,-0.2958079287,0.8982790863,0.8641257332,-0.2609425198,-0.7559847325,0.627826489,0.4374132193,0.2105274268,0.992576223,1.0256415348,0.7876272013,0.3213649246,-0.037683965,-0.1826552634,0.4589170964,-0.3818207899,0.3991472594,-2.1541447889,0.6954387597,-4.8710526205,0.281792715,-0.4092789878,1.4038378981,0.5052971469,-0.1576108039,0.5050661464,-0.6244779226,-0.5590888111,0.2722317033,-0.1169843795,-0.4546348698,-0.462089126,0.145957153,-0.5598889106,-0.1258330979,0.8454584019,0.1800909891,-0.7457901935,-0.5587414405,0.260320604,-0.0680221606,-0.8387253749,0.9167623213,0.3162056872,0.4655870076,0.7299935425,0.8894289753,0.8338057478,0.7386959415,0.6463914414,1.2169629942,-0.5513231817,-0.0818641823,0.3467312392,0.7349581783,0.6869825333,-0.2943236437,-0.1956694094,0.3308073669,-0.9597705786,-0.1159709579,-0.8349045554,0.8722246482,0.1447135169,0.4656868471,0.3502017013,-0.1982388028,0.8983944473,-0.4499964352,0.3908541853,-0.875556845,0.8257604939,-0.3079259364,-0.683833181,0.0285615499,-0.7033465308,-0.8945287808,0.9779884122,-1.5616069354,-0.4878669603,-0.1368985086,0.3523948379,-0.703437344,-0.9996149863,0.908267283,0.5478240428,0.7817988061,-0.4960188504,0.6492608071,-0.7276695546,-0.1727283147,0.7816155859,0.6830436973,-0.4293162463,-0.6275856704,0.8531594865,0.2500347135,-0.621364728,0.2112071698,0.7767215804,0.8408458681,0.6860848365,-0.0947203807,0.7671388288,1.2322629674,0.3739390546,-0.5472553448,0.0248817108,1.5664849709,-0.0958409929,0.5545453527,-1.0539171289,0.6967092387,0.2850271679,-0.679147586,-0.7079082926,-0.7928768395,-0.3153166017,0.4253307935,-0.4347214686,-0.371666541,0.1411798777,-0.3823888566,0.4182015292,0.6117553889,0.6336800653,-1.2323523988,-0.4699208271,-0.8271531889,-0.6625391718,-0.6519369148,0.3484972809,-1.2416973721,0.5364164652,0.7096600292,-0.6976130351,-0.9351996655,-0.4084348887,0.7601150092,-0.5869811727,-1.3083575287,-0.5737971019,0.6397123511,0.1720067741,0.3526037317,0.6185043854,0.1291481836,0.0211717735,0.7846562418,0.3592643862,0.5856582608,-0.2443528802,0.1872821259,0.0553456797,-0.7209570019,-0.1975113786,-0.6441924103,0.8128051182,0.3265713027,0.2305487806,1.4281096919,-0.6807970985,0.1730207372,0.9318948914,-0.7391351183,-0.3503195385,0.0470223359,0.8087900817,0.5434719029,0.1926325323,-0.6226818447,0.6025228378,-0.6571867308,0.1350067471,-0.9428980712,0.7080536783,0.2058191986,0.1156809943,-0.6864276994,-0.0581141923,-0.030442019,0.894791173,-0.6066531358,0.4860986459,-0.359511316,-0.0380403191,-0.4409601523,-0.1463731624,-0.690374751,-0.6981795923,-0.7898835323,0.6294074267,0.2238218855,-0.9526617325,-0.8870084554,-0.6406910892,0.8825702757,0.9359011656,-0.5045166066,-0.87477897,-0.4683552031,0.6934052722,0.2352454912,0.0915919639,-0.2869124864,0.59200245,-0.2301673587,0.0714698166,-0.6865100505,0.7109818939,0.0410927108,0.84470786,-0.7492146519,-0.0958609089,-0.6499250648,0.4604154814,-0.3580018825,-0.1656213644,-0.0970398817,-0.5336456998,0.4122329545,0.6339775961,-0.5764738741,0.3470016781,0.7657889018,-0.0952812714,0.3169980324,0.0551046626,-0.7127724312,-0.0590265999,-0.0167610839,-0.0391591848,-0.7546962743,-0.2151010754,-0.5655464336,0.0777921453,-0.2061832863,-0.7424302647,-0.0613550732,0.6805083118,0.0452827599,0.0508724329,0.2095037622,-0.7141904814,1.7220004902,-0.9558613146,0.7296568046,0.19327558,-2.2005967848,3.4053834768,0.121913734,0.3298658777,0.2273051953,0.3613257278,-0.9310291221,-0.7662882235,-0.9898829073,-0.6901498434,-0.1461337853,0.0627247868,-0.2416746434,-0.9628191493,-0.5239610798,0.0462917659,0.7836921085,0.3685927985,0.3534719176,-0.3618441832,0.5419845089,-0.0179943918,0.9702817323,0.1822173475,0.378628499,0.5039973798,0.5146247426,-0.8096331235,0.4064975443,-0.4467831861,-0.5552187781,-0.9047632621,0.0578673701,0.1851862959,0.5146934101,-0.7544162766,0.3601591406,-0.4274082271,-0.6644238882,1.0992566872,0.371225543,-0.2631895747,-0.5321829908,0.379531586,0.6134971634,0.3068181482,0.104649119,-0.7014371532,0.8056011313,0.175822509,-0.5270260305,-0.3351644138,0.1220673403,0.9738900213,0.6622017559,0.5508212295,-0.6795164119,-0.9502167124,-0.4492448627,0.157960302,0.4973191482,1.1319959941,-0.5791775343,0.1696401986,0.1612804002,0.8524931896,0.1578647347,-0.7308640894,-0.723923051,0.7524371323,-0.6993411523,-0.3698584252,0.8607797709,-0.7354515386,0.2850446684,0.4211495463,0.2618614836,-0.3383923408,1.0846022757,0.8612693143,-0.6074570643,0.5197539479,0.4465770042,-0.2975114283,-0.4023632941,-0.0391923337,-0.0583608729,0.2170155195,0.3145901134,-0.4758286806,0.2989630792,0.9798781262,0.2138730759,6.3436215858,0.5523282332,0.2481471179,0.5343695927,-0.1799369908,-0.868038848,0.7374229742,-0.7290209886,-0.456562766,-0.3664611197,-0.7823488677,0.408714773,-0.3889655837,0.3193283621,0.1650734281,0.4440272035,0.2112753498,0.0109847171,-0.8304487791,-0.1763425479,-0.3305347623,0.8766406707,-0.0964056693,0.9641706774,0.3096316973,0.6809979919,-0.990448456,0.4582413036,0.6899225068,-0.2102753109,-0.5954199162,0.4423753213,0.7260504793,-0.0141458436,-0.3814308409,1.7166280776,-0.7176801343,-0.0464579883,-0.1759218678,-0.1725400733,-1.4666113065,0.5827691555,-0.9852122561,0.2404946145,-0.5014777489,0.1620499372,0.5660168296,0.0181279697,-0.5068395021,0.1047463449,0.6882808607,0.3410777689,0.0110901569,0.4225267263,0.4580139687,0.3626805095,0.0066478551,-0.5420119758,4.0229719624,0.0476334725,0.1860522935,-0.6018346883,0.1286143895,-0.6531141585,0.2849044968,-0.5880660464,-0.5517136686,0.6349655644,-0.852607931,-4.1920885717,-0.4794948508,1.0856697034,0.5709357574,0.4692498155,-0.5604394058,0.3612745151,0.5014616246,-2.4047522053,-0.9139589594,-0.0498824796,-0.3520542644,-2.4861509833,0.2549033538,-0.2958683137,-0.3460138871,7.2197600326,-10.6150774817,-0.5939164836,-0.3474043959,-0.4549200939,-0.6652574248,0.7702163584,0.0766515206,0.3525126024,0.3419702267,-1.1188873445,-0.0390696537,-0.1471898647,0.4517521256,0.8084723201,-0.7710781527,0.890427642,-0.6302323457,-0.0966253918,0.0785785911,-0.1202532812,0.2166040618,0.3182016741,0.9155646668,0.1616763716,0.8308054771,0.823323033,-0.0697179664,0.3498330678,0.885051387,-0.2378118775,-0.5003761817,0.9307168413,0.869255671,0.4011586923,0.2848384431,-0.5143397983,0.9796775829,0.0911744272,-0.9003396051,0.6230236085,0.037900729,0.4416040856,0.4945090726,-0.0993081755,0.1668971437,0.3381767117,-0.2217502563,-0.8649770801,0.4973690966,-0.2260679113,-0.3341014327,-0.5086333833,0.8285495944,-0.5700149849,-0.3394572738,0.5527195937,-0.9578817087,-2.1649798199,0.9071040347,-0.1118687777,0.0466447787,-0.5767530084,0.4807009219,0.3287174394,0.7860649949,0.2648593398,-0.0206558646,0.4350624093,1.0181296676,0.3036816699,-0.4014748902,-0.746766492,-0.32873416,-0.3351802877,0.8602363267,-0.8785893098,-0.5096138675,0.8899272808,-0.1518315848,0.3553268463,-0.4552292707,-0.4432080992,0.0488553313,-0.2268005151,-0.3745034879,0.9220170531,0.1938902298,0.7943864103,-0.8741589428,-0.7185230936,-0.5696451327,-0.6131512369,-0.7566655693,-0.0355388046,-0.3702567678,0.5231082064,-0.3779028169,0.0041480954,0.7848722026,-0.6518010391,0.7363808164,0.3995597933,-0.079097591,-0.3636585759,0.1915660329,-0.1969843194,0.1952956936,-0.6466927127,0.7242976868,-0.4838534844,-0.5820912764,0.0271993367,-0.4629560525,0.4351709085,-0.3430767838,-0.3256875952,-0.232613046,0.2615111565,0.8940968982,-0.686830293,0.2058734709,0.6843870263
