encog,BasicNetwork,java,3.3.0,1,1469991929044
[BASIC]
[BASIC:PARAMS]
[BASIC:NETWORK]
beginTraining=0
connectionLimit=0
contextTargetOffset=0,0,0
contextTargetSize=0,0,0
endTraining=2
hasContext=f
inputCount=28
layerCounts=2,301,29
layerFeedCounts=2,300,28
layerContextCount=0,0,0
layerIndex=0,2,303
output=0,0,0,0,0,0,0,0,0,0,0,0,0,0,0,0,0,0,0,0,0,0,0,0,0,0,0,0,0,0,0,0,0,0,0,0,0,0,0,0,0,0,0,0,0,0,0,0,0,0,0,0,0,0,0,0,0,0,0,0,0,0,0,0,0,0,0,0,0,0,0,0,0,0,0,0,0,0,0,0,0,0,0,0,0,0,0,0,0,0,0,0,0,0,0,0,0,0,0,0,0,0,0,0,0,0,0,0,0,0,0,0,0,0,0,0,0,0,0,0,0,0,0,0,0,0,0,0,0,0,0,0,0,0,0,0,0,0,0,0,0,0,0,0,0,0,0,0,0,0,0,0,0,0,0,0,0,0,0,0,0,0,0,0,0,0,0,0,0,0,0,0,0,0,0,0,0,0,0,0,0,0,0,0,0,0,0,0,0,0,0,0,0,0,0,0,0,0,0,0,0,0,0,0,0,0,0,0,0,0,0,0,0,0,0,0,0,0,0,0,0,0,0,0,0,0,0,0,0,0,0,0,0,0,0,0,0,0,0,0,0,0,0,0,0,0,0,0,0,0,0,0,0,0,0,0,0,0,0,0,0,0,0,0,0,0,0,0,0,0,0,0,0,0,0,0,0,0,0,0,0,0,0,0,0,0,0,0,0,0,0,0,0,0,0,0,0,0,0,0,0,0,1,0,0,0,0,0,0,0,0,0,0,0,0,0,0,0,0,0,0,0,0,0,0,0,0,0,0,0,0,1
outputCount=2
weightIndex=0,602,9302
weights=##0
##double#9302
   0.922581432,-0.2425691155,0.8619780723,-0.037797209,-0.5392584868,-0.1354106473,0.7952338445,0.536317811,0.2692136928,0.3775022569,-0.325969029,-0.4180704906,0.8341008763,-0.0128928117,0.3277743855,-0.2564994898,0.3836694857,-0.3178657519,0.2184546318,-0.0456132939,-0.9042722946,-0.1871367233,-0.1817637421,-0.2159744637,-0.1652597293,-0.0892601148,-0.1505674907,0.2833740961,-0.1279752234,-0.8414433499,0.8456876544,0.7207164899,0.2799559774,0.0123401947,0.0454561159,-0.013092651,0.7516747916,-0.5639364653,-0.2068452923,-0.4094110946,0.1817400023,-0.0857208688,-0.0806732073,-0.4074567158,0.1148393165,0.0290222615,0.159879411,-0.6904613537,-0.8590136324,0.1227010668,-0.1407839501,-0.8513914308,0.9739924864,0.5347436499,-0.6389992783,-0.0664593488,0.5181551643,-0.2385937023,0.1909721916,-0.2096730152,-0.6699811656,0.9202033877,0.6190975498,0.4705043668,-0.6761531963,-0.1286630701,0.3214791427,0.4202975755,-0.1095518336,-0.1547360658,-0.1646296191,-0.4221980784,-0.4080502997,0.0386058338,-0.3106693624,0.8477690651,-0.8741294715,-0.036067153,-0.0201132767,0.7335597465,0.2127967074,-0.6212203723,-0.6876182449,-0.15856734,0.4316606232,-0.7273286798,0.3795864939,-0.8474973307,-0.1409055206,0.0974146415,0.7333560122,0.0506273857,0.5901816756,0.4313971499,0.4320785739,-0.4595819095,-0.2642770807,0.4770872303,0.3373229705,-0.4436696224,-0.4824315562,0.4502896022,-0.8800672958,-0.3546087009,0.8735595484,0.0403617893,0.5992795802,0.84433938,-0.0800537437,-0.4803689265,-0.6521389744,0.2337759722,-0.2303277078,0.1448616647,-0.619119079,0.401096431,0.0678053927,-0.6805636605,0.4405877275,-0.0509789648,-0.3937745466,0.3153784022,0.3941546468,-0.6342702776,0.7562214273,-0.9441086157,-0.2348987971,-0.5722707526,-0.8194916768,-0.4661228644,0.8107222466,-0.9105433524,0.0193600641,0.080416344,-0.1300631971,-0.0198972712,-0.848273043,-0.0276207101,-0.3053293399,0.0126014115,0.8977059391,0.8494156969,-0.0346168762,0.0498744017,-0.0889648576,0.3908641085,-0.2100204929,-0.3633009997,0.698264115,-0.4544689373,0.659063787,-0.0738631271,0.653510644,-0.548400972,-0.1653308724,0.0813097457,0.0179022909,-0.5415142233,-0.8757134628,-0.7188869654,-0.0909931616,0.0573929086,-0.438966338,-0.887543674,0.0466076349,-0.4546528953,-0.1839449337,-0.2691014215,-0.3469886152,0.0710992234,0.2221272855,0.1362155668,0.441735953,-0.489749331,0.0718673705,-0.0450829788,0.1745635378,-0.1149153394,0.1095119719,-0.2586505013,-0.2961371161,-0.2585788294,0.8834665125,-0.5614950988,-0.3673672159,-0.7847116669,-0.5230222423,-0.7415645396,0.4386623377,0.3415848818,0.0505300516,-0.1062842248,0.0154604083,-0.3195974396,0.683372687,-0.1127183477,-0.0756678875,0.0886385355,0.2528559996,0.7900456129,-0.4534341704,0.2576909489,-0.6725481672,0.6367271695,-0.5875273852,0.2462433332,0.4459017274,0.7187090926,-0.541198847,0.5469408438,-0.9298547389,0.2318332478,-0.1066157279,0.1510779687,0.8900773039,0.0592940401,0.1411431926,-0.2022325202,-0.4129665015,-0.0500754207,0.0647762899,-0.1697776585,0.2142980362,0.2795133232,-0.9680848035,-0.3871436729,0.9052501337,-0.0077977871,-0.1794077822,0.388403559,0.1729158565,-0.1897933667,-0.1132436351,0.1252315409,-0.3770965005,-0.5285587715,-0.7554055479,0.1638031918,-0.1786217163,0.5150203906,0.7018409947,0.2096257027,-0.6428315938,-0.0223440717,-0.8960554989,-0.2875162874,0.7849490129,0.8793337367,0.8112571831,0.8743624024,-0.0005724669,-0.9545352748,-0.7872872392,-0.9746299868,0.472921478,0.218849868,0.182554379,-0.0400743366,-0.0069927943,-0.4999114102,0.5549755017,0.5963301152,0.494081729,-0.952640768,0.5256727352,0.2604973334,0.4933661475,-0.993046642,0.8796205145,-0.7523407438,0.9598431772,-0.1423904261,-0.2110838105,0.1115109957,0.0915513998,-0.3695939726,0.3791005434,-0.3215317489,-0.2129686066,-0.1073282806,0.4828618859,0.9570894777,-0.0628249222,0.2572332879,0.2008878418,0.5674161182,-0.1283221109,0.184498441,0.9535091503,0.7855601415,0.0379785383,-0.2399953101,-0.1897910968,0.5269318361,-0.6694281653,0.0632068897,-0.2286020808,0.0008995647,0.8521991034,0.2513845937,0.811861915,0.2729531556,-0.0815097527,0.8493448672,-0.1928749611,-0.5706013333,0.12135767,-0.153728851,-0.205548554,0.5211437455,-0.210537684,0.1344412659,-0.2529400367,0.9460078488,-0.2784507467,-0.5040117247,-0.2735794261,0.3658027013,-0.6864042034,-0.2125041454,0.2106252142,-0.7418952072,-0.228007837,0.9390197696,0.5602403066,0.1284132953,-0.1506335626,-0.4121537605,0.8685820303,0.005330636,0.6471360899,0.0799226539,-0.7091769635,0.2646043242,-0.3853590222,-0.0981907995,-0.1334084119,-0.6160788986,0.4225520663,0.8792583051,-0.4569169113,-0.4866027622,0.5002352878,0.1603008351,-0.5535974417,0.2114420442,0.0297784261,0.0933424961,-0.3606161867,0.0176296318,-0.7396592308,-0.1370198976,-0.0083405309,0.2310559313,-0.6388095553,-0.7685646449,-0.1271882296,0.3347861072,-0.2851355186,-0.1418505689,0.2052458881,-0.067212108,-0.0906727633,-0.4973393661,0.0623007929,0.5594809165,0.5732378445,-0.0087625457,-0.3615503429,-0.3906068466,0.1628325991,0.1846510008,-0.5843062279,0.3620488458,0.1416595968,0.6737455561,-0.904328901,0.0759888336,-0.2689759,-0.1546353662,0.732708661,-0.2385172693,-0.2521861654,-0.0626600001,0.1202794895,0.2104337419,0.6629662479,0.0331660745,0.7028527632,-0.0219711624,0.1617285779,-0.8124500466,-0.1866294024,0.4930234112,-0.0409689812,-0.9205496357,0.1284242949,-0.2777066262,-0.7547724466,0.2016221473,0.5414263235,-0.0355407646,0.2356979793,0.4517271961,0.252334385,0.6601411649,-0.1789388294,0.204908382,0.1309674209,0.151060136,-0.8254143415,0.574740604,-0.6606645325,-0.0656247338,-0.2480016941,-0.5869269557,-0.3220107171,-0.2266534445,0.7480640279,-0.0545948792,0.0906651297,-0.3189249681,-0.1834087311,-0.0157532174,-0.4566732735,-0.1104363872,0.167577926,0.8024893834,-0.5394853265,0.9717811159,-0.79828938,0.0433713531,-0.8632097002,-0.2945358413,-0.1510752083,-0.0437620323,0.1221743201,-0.3549996287,0.3951732796,-0.8016123682,-0.1555387879,0.3860957646,0.0489796947,0.2206608951,-0.0783236035,-0.0096591975,-0.082083925,0.216755023,-0.480961529,0.418451602,0.2676661203,0.6444892427,-0.4332830051,0.3183509897,0.5848105222,-0.3404475473,0.9880147838,0.1185174227,0.2754033879,-0.7928944456,0.5967940877,0.1701666476,-0.1616892325,0.7565606857,1.0137923511,-0.8581202605,0.1485136149,-0.0841952295,0.2636162892,0.6022484721,-0.1177234602,0.4320989425,-0.1729956213,-0.4856290114,-0.3512727411,-0.3310889924,-0.8424290096,-0.7953327843,0.7511460609,0.2781278416,0.4481503449,-0.9901117226,0.2160109346,-0.0589887648,0.1884039047,0.835645136,0.3285517732,0.2080644248,-0.4943431766,-0.1376790457,-0.4633674248,0.3759823646,0.2217981109,-0.1012825193,-0.0339587132,-0.2126117881,0.1555575986,-0.7329431844,0.676631103,-0.3716339317,-0.4252361241,0.4530437432,0.0640401685,0.5420846151,0.8465325473,0.3875374516,0.7008247968,0.4430763591,-0.5957783708,-0.0747595827,0.3500617844,0.435111699,-0.017036697,0.0180112265,-0.8060072415,-0.7057033806,-0.1207622709,-0.1782503508,0.1838559175,-0.3518821125,0.1823568713,-0.2530068328,0.0607157762,-0.9647699829,0.0327923411,-0.852849351,0.1868443407,-0.0507361589,0.544148095,-0.1534409159,-0.5647060488,0.596152731,-0.0594254885,-0.0434531336,0.216363425,0.1523278209,0.3136752431,0.5967529294,0.1065998984,0.098600708,0.4432117801,-0.1551831274,-0.4701008641,-0.4957882186,-0.4033603197,0.2880130876,0.232852177,-0.1391877897,-0.4535738491,0.5124929616,0.5253090039,-0.0800865697,0.3270994349,-0.3339614087,0.651525095,0.0058836357,0.1060002199,-0.5081104645,-0.1406823042,0.4238607098,0.4238203109,-0.0092305403,0.366508982,-0.8999217245,0.3527544228,-0.1948966422,-0.7419225909,-0.5214914758,0.5499886698,-0.6405553019,-0.2510754297,-0.8452723088,0.0510572435,0.2173754415,-0.0668322236,0.1259986419,-0.8804796989,0.6993564534,-0.0034399127,-0.1989409711,0.5344096572,0.1742696693,0.9322310199,-0.072251928,-0.429201653,0.5185433638,0.7486619109,0.1875922514,0.1167401661,-0.0970071646,0.8906901089,0.7804652135,0.8066161521,0.7406083928,0.4838820064,0.7346476445,0.1192212654,-0.3549897892,0.1521670285,-0.957477127,-0.7068519201,0.7174880894,0.3842400652,0.1403336123,0.9160225907,-0.3247995458,-0.0339667534,-0.4187603964,0.6865314754,-0.7556497541,0.5534603073,0.223889923,-0.2258098893,0.083102988,0.3253586241,-0.3006313109,0.1019105655,0.2510803042,-0.0708719071,-0.5244988283,-0.0894694051,0.637876704,0.5044374262,0.3520088294,-0.7102267764,0.3278876983,0.4066571747,-0.1117459289,-0.0720536096,-0.2328042666,0.1614122799,-0.1025194051,0.5642694003,0.0297615758,-0.4942996051,-0.6466601662,0.1453794876,0.6259080291,0.4649012894,-0.7321224795,-0.2788124314,0.3810830745,0.2670784629,0.9539132257,-0.0957272345,-0.6252809684,0.0389504186,0.3035637518,0.2005862319,-0.8824046934,0.859102985,0.0379980704,0.2000337017,-0.9256254345,0.7117228791,-0.7639193997,0.039756534,0.104703142,-0.1294883403,-0.9116510561,-1.1322845604,0.2649415293,-0.0073302621,-1.8193746527,-0.2283018408,1.1226451801,-0.6590775462,-0.0569683834,0.263195341,1.1492766169,-0.2048528919,0.0653254306,-0.1407371501,-0.0973423452,-0.0983539272,-0.6271666232,-0.2389502151,-0.5472222131,-0.8105851316,-0.1335617687,-0.1380719766,-0.8176808414,2.6092222781,0.7096449539,1.023276594,-2.9697659675,-0.6957183011,-1.1414333112,0.0642744133,-0.2882303448,0.4058833462,-0.1120586898,-0.2874981934,-0.3858078605,-0.2268731725,0.2139075284,-0.5418158486,-0.8261769924,-0.3013023446,-0.7941360605,0.6886973617,-0.9086446526,-0.598741026,-0.5679933967,-0.5364878321,0.2258366907,0.731279198,0.8360979258,-0.1618200547,-0.0093458761,-0.647097751,0.7999788135,0.3301852831,-0.4453004574,0.2658204098,-0.5628120294,-0.0713909747,0.8747005551,0.4100510654,-0.1457393314,0.2783985109,-0.2683856875,-0.3257680652,-0.0684294269,0.3868033224,-0.0661150187,-0.4241925915,-0.1163595574,-0.0416928247,-0.4370355096,0.5370285078,0.4814937524,-0.138341002,0.1081895028,-0.1705607585,0.2997888292,0.61811531,-0.6081843756,-0.4527567654,0.1934006543,-0.5399799,-0.0283199383,0.7864491138,-0.4209485485,-0.2472653096,-0.351475101,-0.6147127454,0.1634109219,0.385122135,-1.0181208076,0.618540608,-0.2466497885,-0.0352609052,-0.1704927875,-0.2638761334,0.1147146979,-0.6400583842,0.395492564,-0.1193764537,-0.8293013975,-0.9194987267,0.4946143335,-0.7248697262,0.3600750913,-0.6489062989,0.2813919209,0.5626859856,0.1163973034,-0.8205062497,0.0156476051,0.5408059654,-0.2040725247,0.5755394434,-0.2677162224,-0.5129674242,0.4085903715,-0.2710078639,0.2712413559,-0.4502987344,-0.4544561187,-0.3068330183,0.8498246669,0.1524015674,0.5926403629,-0.5091487928,0.3886536746,-0.1496694689,0.8740685437,1.0145306567,0.2263723901,0.8296953521,-0.3294881843,-0.1254037501,0.8187098264,-0.6028365634,-0.2446990127,0.4312118844,1.7564191078,0.5494511404,0.3321576321,0.1466246052,0.0250377503,-0.4216552205,1.1954041974,0.6671168217,-0.3511015424,0.4826903108,0.1805249703,-0.5515043761,-0.6356026113,-0.4799187159,0.4831286958,0.4238389464,-0.2371423326,-0.1351336524,0.0632183242,0.1737112905,0.4247597377,-0.5992092449,-0.2171939939,-0.6361347472,0.0716276842,0.4147871995,0.7844509523,0.0780552225,0.6259770782,0.5545452446,0.5959082602,0.4025456436,0.4825660276,0.4378074392,-0.8361760128,0.4089412189,0.228261962,-0.6645309121,0.2522114434,-0.6196887606,0.9095718763,0.0271242295,0.0553384028,0.5908224871,0.6861763802,-0.5674431733,0.5994830266,-0.2778275253,0.0352840495,0.3787296834,0.39957906,0.6559129067,0.4837818702,0.1738412567,0.5331187561,0.4888773402,-0.3374559959,-0.3331991598,2.8032390168,-0.4988752622,0.783580844,-0.3770186991,-0.373264038,0.841764857,0.202087885,0.7513418359,0.2301046616,-0.5016764426,-0.0296409243,0.2052745867,0.8574290798,-0.3772765599,-0.9109739752,0.2630872809,0.1869831493,-0.3720028842,0.6149792331,0.1795627052,-0.5107300506,-0.7609972536,-0.7214294092,-0.5258063198,0.141008074,-0.7651828201,0.1560161611,-0.2464623778,-0.3553167503,-0.0698247141,0.8056924372,0.2918601341,0.9203914861,0.0324167801,0.1837308979,-0.4050258832,-0.3368087082,0.3963006859,-0.742056515,0.0588169703,-0.87075551,-0.0726012141,0.3068172376,-0.4218671697,-0.6556839232,0.0250857842,0.397489294,-0.8276945164,0.6804244663,0.450873522,-0.6571856158,1.0032675938,-0.4658458204,0.8565532455,0.3241451669,-0.3369757405,0.1218413054,-0.0822189043,-0.1183021144,-0.9161210655,0.6096066544,0.1619851799,0.9056471188,-0.6066644005,0.7184966084,-0.1133194967,-0.5775724829,-0.1872580462,-0.3458303204,-0.0540507504,-0.4330892406,-0.6565374269,0.7147690709,-0.5713219693,0.7972898165,-0.4490298398,0.7851853662,-0.5831692885,-0.1880337814,-0.8809824629,-0.2047838302,-0.278943754,-0.520799557,-0.8050428184,0.3902570811,-0.3401618778,-0.2465353071,-0.4406145799,-0.0050623818,0.5193838122,-0.5816135603,-1.0357489893,0.2739856795,0.4603201003,0.4656833444,0.2626550792,0.198786604,0.589204693,0.4103564195,0.6571059213,-0.0402195052,-0.1696699769,0.328237338,0.9296828043,-0.0255827214,-0.4567056467,-0.0805224553,-0.7775610592,0.4920836774,0.8782985069,-0.3240591272,0.2815150808,0.5159522804,0.238543768,0.2281305722,-0.1448155982,0.2800966135,-0.5069404732,0.9655554125,0.2554245169,0.8763260225,0.8800458586,-0.1450157281,0.141517448,-3.2037450049,-0.7105421541,0.0527796158,-0.7918876134,-0.3655245019,-1.0045095384,-0.7381967753,-0.2209555207,-20.5161203502,0.5067260428,-0.9442266071,0.0523247284,-24.4752882804,-1.4101951583,-0.1354064041,0.1819395073,0.4365022633,-2.5596005613,-1.6793397467,0.1574964873,1.7055987617,-0.4190984898,0.819842366,2.4735663985,-2.5552749035,-3.6589021124,1.1782459255,-1.7052964838,-0.127793297,0.4790496858,-0.3505150683,0.1462135678,0.2865869723,-0.2891176663,-0.8836729512,0.6489242199,-0.0606136875,0.2933549507,0.2449746842,0.2942650849,-0.1571328896,-0.6279385758,-0.572758237,-0.6452907022,0.6062617982,-0.5758441754,0.3083997146,-0.8106027201,-0.2424555435,-0.723870092,-0.330549697,0.9289941343,0.4904338393,0.7823619115,0.0768720224,-0.5682621075,-0.033734425,-0.2508227005,0.5252427888,-1.1988100346,-0.1965661161,0.4627655523,0.3389263395,1.0005055614,0.3965095917,-1.3199007276,0.392200346,-0.8277193482,-0.3601724073,-0.0335678795,0.6733875578,-0.5759833376,-0.5505737856,-0.7376642301,1.0225919193,1.8295399693,-0.1663390173,-0.5426109453,-22.8662620252,-0.1670004976,-1.2191770238,-0.5901676218,-0.8695526082,0.3151511578,0.3353335786,1.2777811747,-0.776208241,-0.8643630415,0.0002840796,-0.6597979766,0.3037604829,-0.0763873175,-0.0670120658,-0.7063968314,0.3555108158,0.338600001,-0.1351088524,-0.0564497403,0.1711592436,-0.6310925543,0.3164251001,0.1717368534,0.8074616931,-0.0093766841,0.1611189607,-0.1721921491,0.6279848747,0.2139173438,-0.884680922,0.8261793139,-0.1547940565,0.2752803127,-0.653598245,0.6483461606,-0.4752407824,-0.8483721088,-0.1694811457,0.5311508719,-0.1662485873,-0.8937609036,0.1992047535,0.7978087666,0.2812413575,-0.1796010877,-0.3065129315,0.0625625854,-0.533228458,-0.2369632922,0.7773853546,-0.3831455082,0.5312006233,-0.1094148474,-0.3641176998,-0.4266288524,-0.7907077101,0.5567929468,-0.1388557848,-0.5628417568,0.1717189478,-0.8372076415,0.8416277916,0.0062089174,-0.8445904514,-0.5987872873,-0.8644615306,-0.0840136604,-0.6414764478,-0.4207886851,1.1695339289,0.6892320608,0.5719572032,0.3742663077,-0.6786523039,-0.5473239189,-0.153263886,0.8063000408,-0.6054571142,-0.489572366,0.1381687965,0.2956595447,-0.7779233668,0.0596213496,0.2714485567,-0.4897007611,-0.3285692995,0.1371904744,-0.8275847286,-0.6379903856,0.4414877487,3.2389960323,0.1387834146,0.0220119789,2.8636353317,0.6063497147,-0.2805902839,0.6281723751,0.1791616439,0.2289299214,-0.6569651269,-0.4100284807,0.5023547624,0.7731830982,0.7354292212,-0.5582307459,-0.6401646356,0.4971433736,0.3850473338,-0.0437161037,-0.16747497,0.7185259817,-0.3817326351,0.0083647606,-0.9983749869,-0.5465497678,0.7698339909,0.5945138258,-1.1080131671,-0.8738522357,-0.5264834283,0.4922424686,-0.4117455292,-0.4304630869,-0.3453040292,-0.697979226,-0.5400325364,-0.5151927753,-0.8611584883,0.2248954415,0.4760645345,-0.5562326057,-0.4753864507,-1.5070448862,-0.078288781,0.408898208,-0.5694149967,0.128059551,0.1673732423,0.3446929951,-0.1189148511,-0.6877667934,-0.7442504016,-0.8929500121,0.0849519539,0.0882956986,-0.6238015859,-0.5637411852,-0.3299886871,-0.9576065225,-0.4268619068,0.0005615028,0.2199476242,0.8265001947,-0.6025940632,-0.40167964,-0.8431804215,-0.7238367297,0.4292984333,0.3207642456,0.0679510337,0.7009856166,-0.001658377,-0.9817854341,0.5279566188,0.6411046471,-0.2409663144,-0.212926665,0.7808946963,-0.6251474671,-0.4450024919,-0.5026813927,-0.6211134217,-0.6399240039,0.186071559,-0.387348498,0.3818025644,-0.9594997713,-0.9813269329,0.3324320618,0.2554234277,0.4691747515,0.4127563032,0.2288686644,-0.3973011992,0.0495172674,1.2479929448,0.9137284207,-2.283760323,0.3752341035,-0.3089047293,-0.1863149788,3.019918872,0.13479483,0.5195716585,0.9077148581,2.043474845,0.2365318328,0.0643349927,-0.0179379995,0.6933013212,0.7621837186,-0.3011308778,-0.3190082432,-0.0578147627,1.2711124013,-0.1724390791,-0.7869058213,-3.4397578442,1.05488476,-0.0435761027,0.9407587712,1.581819289,-0.6338646551,0.5808233836,-0.5756514764,-0.0936172983,0.6736816764,0.1687073709,-0.2027534459,1.1040034502,2.4330067468,0.039634421,-0.5969314327,0.4321315317,-0.5807165504,0.8987337399,0.5077664269,0.2907314634,0.1455361218,0.7966632638,-0.309358477,0.4382035853,2.3690077399,2.3152581683,-0.9702749531,0.3935604184,-1.7288562197,-2.1589064971,4.2897176186,-0.2648595606,1.3103242461,0.6995758201,0.1912709367,0.4020864419,0.3467639432,-0.3652260922,0.9571866493,0.29832761,-0.5328595141,0.0941143123,-0.9631565013,-0.4576635894,-0.0705882811,-0.792483344,-0.4342253967,-0.2622684403,-0.5556928042,0.2663796097,-0.3086061718,-0.4644906803,0.3716863706,-0.0411280506,-0.3478342915,0.2585869917,0.1549169437,2.3188021,0.3798975854,0.8701571736,0.8846920134,-0.1757274446,0.179700225,-0.2739741879,-0.8379377974,0.9099004399,0.4397239246,-0.1189957254,-0.7982202504,0.160554728,-0.0180390766,0.1072271234,0.0314387644,0.2195314113,-0.2888810378,0.6791307002,0.374122992,-0.1561056978,-0.0807822509,-0.7931208187,-0.6333225984,-0.6637001964,-0.5165994377,0.1392897945,0.0355065709,-0.0278413876,0.0675189996,0.0184212346,0.3308625063,0.4354703003,0.2149231422,-0.077105461,0.1972910673,-1.510747937,-0.7848610626,-0.5009090451,0.6604485141,-0.5497660016,-0.5881968275,-0.2059048026,1.1944547142,-0.231915257,0.3419547544,1.2279850595,1.0111105574,0.6058258425,1.2917059206,-0.5154650194,-1.0947969808,0.7859628042,0.1271131763,0.1067201341,-0.1643843782,-0.0729095976,-0.9797024906,0.444474825,-0.3115603417,0.583117893,0.9941913697,-0.0053057757,-0.5167758943,-0.3491339616,-1.1994615755,0.2307083644,0.8354279101,-0.3445285799,-0.2184835375,-26.6792071724,0.0748064633,-0.1475464992,-0.1509828841,0.6455799094,0.0378252413,0.3805863108,0.1328407077,-0.8926739503,-0.0342987325,-0.8378215219,-0.1332012777,0.2173469359,-0.8592702233,0.0786128153,-0.5335951589,-0.8614532137,-0.6841803091,-1.2160415093,0.5399778747,0.1531011908,-0.8858216435,0.8520707402,0.8246096062,0.2398161322,0.302300489,-0.8535153092,0.0554819215,0.0529037027,-0.1281525705,0.6406746266,-0.9276845117,0.470532842,0.3635193368,0.5330117273,0.4066215254,0.1923503335,0.3015279948,-0.7262448979,-0.9120818575,-0.9124593234,1.5016784762,-0.8617967615,-0.4636307815,-0.6030414993,-0.061739087,0.0942392463,0.9091904058,0.1150087838,-0.9334368433,-0.4763065159,0.5206235647,-0.3014802837,-0.6564845459,-0.1751986724,-0.2445474716,-0.8773468062,-0.1266319486,0.1327275284,-0.5565624867,0.2070063264,-0.0518518892,0.2321092893,0.3242618441,-1.339026482,-0.2582715282,-0.79353622,0.0090365107,-1.1411246568,-0.2460692699,-0.3504737565,-1.7404696877,-0.7129053027,-0.1655301734,0.2845573271,-0.3385496646,0.7894548458,0.6080846712,0.3565577408,-0.5238518308,0.53817114,0.2350723093,-0.9159515919,0.4467714599,0.1489185846,-0.1451436783,-0.4693686409,0.5815834967,0.4957399554,-0.2509525014,-0.4695260284,-0.025304083,0.6593552705,-0.9245980773,-0.4539808891,0.8134986264,-0.2341685243,-0.1279232926,0.1164069279,0.3920311899,-0.8294952855,0.24965708,-0.9774876539,-0.3241093355,-1.2018978344,-0.8500009089,-0.6536373369,-0.6849456154,-6.4681623438,-2.3214045415,-0.1832293645,-0.1171433311,-0.3257129688,1.9114616152,1.7767517239,-0.0827146507,0.5806663573,-2.6680155015,-0.3483736091,-0.3153275297,-0.1503400822,-1.0264150577,0.078534113,0.0603907232,0.07563902,-1.6852839203,0.110287374,-0.1234386496,0.0055241858,4.5536026798,-3.2346409806,0.1395867489,-0.5177588981,2.9452846592,-5.9898674976,-3.6705533761,-0.3224430563,-0.6895532637,0.0656814507,0.1840353695,0.0785175323,-0.5195332881,-0.7555719705,-0.3770474516,0.7130560121,-0.5202496165,0.7752743796,0.5396528055,0.0465845422,0.2865908004,-0.3920733238,-0.9132784069,0.3750803752,0.5266903316,0.2441051944,0.0573307211,0.3342930699,-0.2247377862,-0.1409327237,-0.2021559099,-0.641933803,0.9674652486,-0.3127690973,-0.6530864085,0.5013621897,-0.0080015932,2.5325732841,-0.9154521516,-0.1467791567,0.8221254046,0.7708295116,1.5668893203,0.1211610987,-0.023747408,-19.5338309956,-0.6156726714,-0.7530562677,0.1552189129,0.3353598423,1.3024177398,0.3155405658,0.1066277291,-0.7635963649,0.7517237846,-0.5287899488,-0.186637804,-0.5449752356,-0.6931440271,-0.3301607031,-2.2210783953,-1.3691696783,-6.1435443614,0.0090330806,1.5957790096,-0.3012077247,-3.5894727394,0.68432605,0.5968930383,-0.8570639678,0.3104099556,-3.4147675296,-0.7991823514,-1.2500542434,0.0387156247,-0.2953554594,0.7767228787,-0.0234208392,-0.7594032532,-0.3095850202,-0.1901473625,1.7547807031,3.5773406364,-0.4954632081,0.3408438678,-0.0929683156,-0.5261248752,3.0239158754,6.7317919376,0.3971690583,-1.309114276,-5.7617449855,-0.5250131911,0.2333437524,0.971787521,0.562651112,-0.9300006559,0.2215342299,-0.0021194193,-0.4289203199,-0.986610914,-0.9763386722,-0.7854875685,0.4647668969,0.592878311,-0.7333173038,-0.2883420881,1.0930012547,0.2981311025,-0.5074862278,0.1253923522,-0.5711463503,2.0223290501,0.2737341476,0.8158716469,0.4562944128,-0.9244357362,0.7326640465,0.7107969288,0.4808755604,-0.0642105343,-0.5944675487,-0.8334762543,0.7119984393,0.3256816053,0.6904190359,-0.2514011642,0.7258158398,-0.2732402012,-0.4179495805,0.0750171634,0.2556395678,-0.1313055146,0.1999146438,-0.0993800464,-0.8443622363,-0.7850286854,-0.8387884328,-0.7568584593,-0.043584553,0.3049821219,0.0305446013,-0.2827786214,-0.5666145804,0.2465123952,0.2770523596,-1.0976608171,-0.3404737769,0.1805172577,-2.7167205804,-0.9094493611,-0.9357965969,0.2411707902,0.2572871801,-0.2729093195,0.7902890189,-0.7346383525,-0.48426735,0.299622911,0.2961814113,0.1534883679,-0.0702602016,0.2425383962,0.11705021,-0.2835932635,-0.5682050484,0.5400524479,0.3549830399,-0.2412412241,-0.0105349549,0.0264309309,-0.8550161785,0.3460590119,-0.3724595794,-0.2034757061,-0.8658786417,-0.8467835247,0.4408073207,0.2817640332,0.6458060825,0.2944558386,-0.3486450226,-0.2328624374,-0.0353185812,0.1580803497,-0.6386149558,0.0286025953,0.0323530004,-0.526631051,-0.6131737983,-0.2972993984,0.1879488274,-0.3382894532,0.4732738588,-0.3135752245,-0.6554524857,0.7394387882,0.4510748297,0.3690167018,-0.3847950726,-0.6856667134,-0.7390896675,0.0184499468,-1.1455738842,0.5799124799,0.1543687171,0.3512056501,-0.5980811812,-0.1083321895,-0.0409908382,-0.456400692,0.3396856803,-0.228710032,0.4802970582,0.7403133028,-0.5801900402,0.1288423619,-0.2526404101,0.5949975609,0.7312084542,-0.0778665806,0.9217007414,-0.6768878575,-0.2536641877,0.0610481616,0.732245729,-0.2955724354,-0.5430104622,0.1739345352,-0.0041267239,0.3154027819,-0.4722508872,0.2352230448,0.2309435873,0.7978814833,0.2487993554,-0.1247284333,-0.111891682,0.2983540308,0.8189237249,-0.5154424915,-0.2004464707,0.8060039629,-0.6736264753,0.556144702,-0.2396062019,-0.7720012098,-0.6857770545,-0.1952885843,0.9453613211,-0.0984441891,-0.4680533976,-0.0177080066,-0.6716457659,-0.6219080518,-0.2280834535,0.2174331287,0.6178755337,0.8733268827,0.3676935322,0.0485585323,-0.2728804089,-0.1931172524,-0.0087078072,0.6383726249,-0.0154348651,-0.4066786024,0.7958317282,-0.4626228166,-0.1613761618,0.1744168868,-0.5231584542,-0.0960208338,-0.4957755203,0.1317002961,-0.4755283867,-0.177836361,-0.7255507282,-0.7223154736,-0.1068229413,-0.3757598275,0.4671115057,-1.0412882015,-0.7771333913,0.0556041891,0.2161420604,-0.8760586738,-0.2384867983,0.651470472,0.6302490666,0.7353957991,-0.415204641,0.6013024563,-0.1414365504,0.9744470004,-0.6761561519,0.1223036251,0.0608510254,0.5825045069,-0.4661994539,0.4955017202,-0.806088841,-0.5709786266,0.3913659327,-0.4882347172,-0.1762594163,0.7372484762,0.9806545577,-0.746384773,0.5400166126,0.1738995528,-0.18222693,-0.3428013436,-0.0406263781,0.8726937739,0.3772058226,1.0115692665,0.4065958848,-0.3520557525,0.6480671993,-1.1107169133,0.4404981226,-0.0159794289,0.3658049505,0.3298291528,-0.8241377117,-0.9250569437,0.9502905308,0.2245251264,0.3333938792,0.7995421677,0.8749367733,0.4618863569,-0.2346525506,-0.1676732858,-0.4535778533,0.1259685408,0.3230063439,0.5948717411,-0.7550741112,0.5900687917,0.7910707888,-0.0442140782,-0.4411401621,0.0270177861,-0.3803477817,0.1815008308,-0.0986825604,-0.1305691564,-0.9673235388,-0.5422020448,0.084966022,0.5668699575,0.085855364,0.1094346959,0.5841072751,-0.1709033821,-0.8343412357,0.2447389501,0.2233764775,0.4930022663,-0.7653457896,-0.6616768432,-0.1171336866,-0.1838523875,0.3726003427,-0.6936908351,0.3491268783,-0.145997398,-0.8187680882,0.7424885148,0.4552896309,0.8787369434,0.5283612898,0.2399657207,0.7269542932,-0.2414945266,0.6135032129,-0.5610150361,-0.4652601918,0.2589043143,-0.1674106498,-0.1211887535,0.3384289601,-0.8386241353,-0.6903315215,0.9116958607,-0.6600779267,-0.8923377259,-0.2844194154,-0.8995317867,-0.3633534845,-0.6802513157,0.2516596151,-2.0222347476,0.395439455,0.3717102484,-0.6044616088,-0.8911679162,0.5726719067,-0.3479907471,0.4833938862,0.9485693224,0.8248871009,0.1183279138,0.0601306272,-0.477840023,0.6534260203,-0.4621869896,0.6369139286,-0.8479601809,-0.2318381051,-0.9208443655,-0.166861806,-0.070676013,-0.9361140703,-0.1193031362,-0.4814767456,0.1477640577,-0.1515138602,-0.5502572989,-0.1875270714,-0.1083622373,0.2783433116,-0.663485459,0.1462997099,0.5177788659,-0.0518399058,0.0120264384,-0.9572210341,0.7470097766,-0.6984951621,0.6192053196,-0.9389501864,-0.0317134622,-0.7745957037,-1.0666214693,-2.8000940459,-0.1602647022,-0.9035423248,0.0228516762,0.9529894183,0.80291437,0.1029934602,-0.0043329077,0.0623809506,-0.9722065936,0.121530857,-0.3806355224,-0.0796722655,-0.635301668,-1.1203143038,-1.0173709779,0.1049180522,-0.4960671828,0.7331024911,0.4689140896,0.290074772,0.3472781948,-0.2272834936,0.390932415,-0.2209750687,-0.9007958173,-0.7655665536,-0.1048220543,-1.9776080621,-0.2917626483,0.0730708988,0.9505315002,-0.8790896099,-0.2362632152,-0.6623542349,-0.2772859922,-0.3527035764,-0.4939893428,-0.3256691623,0.4379080447,0.7753394325,0.1356877345,0.2639086703,-0.7794697646,-0.1127851258,0.4844084621,-0.0088525526,-0.2346313134,-0.3999095858,0.0602812053,0.3676148613,-0.8620291903,-0.3586303727,0.5206486415,0.1364708119,0.244634821,0.9225318405,-0.075272359,0.9478412615,-0.6913762752,1.184298482,1.2277107872,-0.7498563159,0.8754896265,0.3058310014,-0.7852100721,0.5042259171,-0.8617546988,0.4586573183,0.1675349971,0.1367231823,0.0237755123,-0.0837168659,0.4601709381,-0.1488294844,0.4694980658,0.7678216481,0.10574106,-0.226753798,-0.6499722678,0.5668742115,0.8714279363,-0.2457723204,0.7172360037,-0.2829689822,1.9368092443,2.0435763746,-0.1201613784,0.9553633728
   2.5709147557,-0.2422972656,-0.5410787467,0.6662942433,0.1679795259,0.4795528873,0.408353333,-0.0181288522,-0.8579079479,0.11568014,-0.0520859708,0.4282337276,-0.2374729319,0.8391906653,-0.9715187807,-0.2745503817,-0.0087170649,-0.8607679472,-0.0859657273,0.3937677607,0.6332425163,0.3587328127,0.9740651936,-0.3099191492,0.1561062255,-0.8460973437,3.7434684176,0.7500976847,0.1478104669,1.3897364949,1.6037879191,-0.4822265755,-0.7580842965,-0.9208170428,-0.9652014572,-0.282883979,-0.1662439045,-0.7136030544,-0.55838545,-0.5734281763,0.208845458,0.3194629818,0.3264333366,0.1392961974,-0.5205182273,-1.3131097075,-0.8677781541,0.2959429708,-0.4497517171,-0.0010725302,-0.9462511198,-0.4576319329,0.0815318967,-0.3957385727,-0.8458981621,0.2920695542,0.0697171425,-0.5376782419,0.4863187154,-0.1368912577,-0.439231165,0.4473036297,-0.3165476773,0.0536214866,-0.7437990417,-0.5226111594,0.0201588793,0.8069031573,-0.1314683678,-0.6317279384,-0.8865545466,-0.0385406673,0.8130794823,-0.759690234,-0.20583205,0.7257470797,0.048581941,-0.7040108499,-0.4455959996,-0.0942585118,-0.8946334249,0.4785443272,-0.202874031,-0.8551083551,0.9037738172,0.3313541772,-0.7661415924,-1.2076709616,-0.0214459274,0.0394181313,0.4528094457,-0.6914475594,-0.5714407533,0.4429894072,0.1145748801,0.4320584801,0.093088269,0.3493054922,0.2819699579,-0.4357002584,0.5677962645,-0.3165800076,0.3292389097,-0.2147654911,0.9783087471,0.682574637,0.1988968567,0.5379662565,-0.6032905623,0.8105275873,0.0884128877,0.688100823,-0.3108906426,0.0800504213,-0.6003141458,0.2065914576,0.3252898656,-0.3747214895,-0.4011143829,-0.5357342879,1.6143896237,0.7256152498,0.0190234895,0.8215671076,0.3833950295,0.0433276893,0.1234979409,0.2072386751,0.1918146439,-1.0080351448,-0.3977912034,0.5435346366,27.8548763993,-0.9220145561,-0.3174379188,0.8505522496,-0.6917731748,0.3190756802,-0.238529605,0.9026754495,0.2768415711,3.8954612102,0.4359426464,-0.7564089254,3.922533665,-0.5084857061,-0.6863442874,0.2451433038,0.9158683537,-0.7519640103,0.2513225231,-0.462146999,-0.242099714,0.8459282229,0.2967640126,-0.2393897431,0.8515279296,-0.1280468598,0.0176650854,0.4450606562,-0.7061290878,-0.8513366768,-0.5615576516,-0.471927121,0.511156452,-0.8744392079,0.3560845097,-0.688007138,0.3850061873,0.2406234577,0.3036895721,-0.9199615062,-0.3952323126,0.5888593925,0.2744677829,1.0468713751,-0.9866778357,-0.1559295549,0.1499727847,-0.8600482129,0.2201045394,-0.2076350099,-0.3826887024,0.1427532719,0.6870997022,-0.0379276037,-0.0761754035,0.2805543259,-0.5231235508,0.5789853156,0.2702965331,0.7775300562,0.8652509609,0.5826217439,-0.4266039656,-0.5999449797,0.273852002,0.5109243027,0.0410352537,-0.1426436751,0.7241895491,0.5426672486,-0.2264951561,0.802236516,0.8486283851,-0.1569800988,-0.3046113679,0.8339496718,0.3753449903,0.6383725138,0.2872178067,0.4255900873,0.9438452019,-0.3436912894,-0.2834551945,0.0598389887,-0.0248581284,0.316797641,-0.0939445807,0.1391561886,1.0344910627,0.7987768351,0.7019438375,0.6026550081,0.1925687144,-0.444184652,0.4323212683,0.5929963281,0.8397553613,-0.2870325494,-0.8480778489,0.4243467494,-0.9037629536,-0.1277780207,-0.6465780052,-0.9008114847,0.6036874146,0.8916031975,0.8611781855,-0.0809329691,-0.0812132028,0.0611641909,0.0018800678,-0.4072512876,0.5354336558,-0.9637690332,-0.0562903543,-0.0826941183,0.0443300256,-0.1914328796,-0.5873786738,-0.5448314194,0.7462483211,-0.2868960109,-0.6066559735,-0.2113501984,-0.643794174,-0.2163337607,-0.1213714674,0.9644408767,-0.0767447959,-0.4991499452,0.0597679001,-0.4574006036,0.7629681841,-0.4006465743,0.7608328532,-0.4614710555,-0.463255031,0.8291142581,0.3316009484,-0.3711014464,0.6390645679,0.711335684,0.7851738557,-0.5701691617,-0.7944469342,-0.4380319061,-0.043585784,-0.7143254576,-0.9114059958,0.2720999773,-0.0376057961,0.4728189566,-0.6703911542,-0.1524294404,-0.0075020837,-0.1472119982,0.4696559978,0.8427393772,-0.7728612703,-0.1741492604,-0.4715785807,0.1543102826,-0.7640556227,-0.3167768998,0.3864316123,-0.2742795524,0.5967800631,0.3908617023,-0.3519104406,-0.8596158523,-0.0756173222,-0.5277501089,-0.7552529296,0.3103631063,-0.4812868469,-0.2161459981,0.6914923194,0.7331227677,-0.6961017214,0.0006650551,-0.2898000511,-0.6022801903,0.0627707654,-0.437196501,-0.4588818687,-0.9631311725,-0.7790440676,-1.131520239,-0.031790297,0.9155297148,-0.3436341714,-0.3482401297,-0.5703219702,-0.6480963568,0.4471144862,-0.0083720733,0.1683974141,0.2027166022,-0.1893569845,0.5421394434,0.5039647676,-0.4157568302,-0.8468038899,0.1531241743,-0.2809529351,0.4766998361,0.1074629361,0.1322082865,0.9472906869,-0.6844778586,-0.7259781001,0.0180678262,-0.57867198,-2.4014220619,-0.452039721,0.889386509,0.5034856382,-0.1483403458,-0.7572558407,0.1323482419,-0.4159104818,0.2943739531,0.3425928719,-0.6962822343,0.2681508674,0.1076728769,-0.0169114858,0.2226732834,-0.7993162874,0.2256878275,0.2473882629,0.5272417399,-0.2838337792,-0.1603031344,-0.764142456,-0.0622802547,-0.2572648702,0.037052545,-0.6810360184,0.5846338938,-0.4873187291,0.2409756006,0.2910019326,-0.241364897,0.7805870251,0.7284408154,-0.6100048539,-0.783821566,-0.070800485,0.309404375,0.9695419201,-0.7700141796,0.7383236615,0.4144961098,-0.4060852608,0.8542886374,-0.1631189113,-0.0601727556,-0.2122615908,-0.7216937505,-0.1672513072,-0.6240531214,-0.3235466925,0.2667107725,-0.3706228968,1.2242316644,-0.0871437986,0.3516332017,0.0000080174,-0.4719085977,0.3932983576,0.7176440191,0.5198217619,0.3868243688,0.3351404422,-0.2187687503,-0.0757866839,0.8198305031,0.0022012425,0.0632364949,1.115362976,0.777185633,-0.3890800485,-0.3948171512,-0.2316296425,0.8789643613,0.6116481353,1.5579349542,-0.0674613754,-0.710093092,0.4968854315,-1.6906081175,0.1837473471,0.0365931159,0.6518060318,1.5459222046,-0.1778741544,0.3494994535,-0.2071238802,1.8669933983,0.4588027352,0.7155338664,0.3915526816,-0.5570768406,0.841045206,-0.0949845594,0.5972169867,-0.435216874,-0.5647155857,0.3181316443,-0.2467144156,0.5969822424,0.1475318199,0.1633833937,-0.12282155,0.2725709918,-0.5791563902,-0.6435687732,0.2203683542,-0.2727034529,0.0998984813,0.4546289197,0.9540156956,-0.7614462895,1.070477229,0.3280755392,0.7268002459,0.7091340031,0.4400171009,-0.451236392,0.6193225159,0.7634261862,2.0998996188,0.1412174005,-0.4070567069,0.3983705124,0.302842006,-0.2865500957,0.4074203915,0.3946565789,0.7035976537,-0.1883705992,0.6101925645,0.2556396217,-0.0070924317,0.7791727797,0.0903720847,0.4844963349,-0.9675518659,0.4027445517,0.0793277794,0.4429176404,-0.1166966855,0.2026891239,-0.5116210832,-0.2384051587,-0.1576430696,0.0772694933,0.2039014222,0.5857644295,-0.4961901437,-1.8550427924,0.5143294925,-1.13735171,-0.9491374448,0.4438064953,0.1999580595,0.8869879747,0.8871333176,0.1737265005,0.2655419592,-0.820061831,0.6305560513,-0.2254468866,0.5312008463,0.0728963478,-0.8417563932,0.5659085187,-0.7259789623,0.654923448,-0.542737553,-0.1874995163,0.1549147772,0.0827071259,0.1007629259,0.0036019416,0.7518666903,-0.1105963622,0.2210336119,2.0385243654,0.3835371918,1.0658476207,-0.0356299896,0.7068480504,-0.0421550722,-0.5273132322,0.6905061891,0.2285627041,-0.2085066022,-0.5209319959,-0.0632799889,-0.2880096069,-0.5146398899,0.6333647767,0.4345969208,-0.7038969342,-0.539235481,0.393442093,0.7830365998,-0.0919408221,-0.6325108749,0.1903161142,-0.9261929051,0.761000305,-0.2427612228,0.5962523308,-0.1014003323,0.7848004484,0.2908879981,0.3050660242,-0.5820489174,0.8958270657,-0.3550570415,-0.6828110089,-0.9871174316,0.3754469914,0.6349015715,0.5475522108,-0.7535925262,0.7935282283,0.1852304447,0.0808017933,0.1422873274,0.8454735839,-0.3069882876,0.5191103489,-0.5536189117,-0.1182148403,0.0490539368,-0.8252540634,-0.3198010155,0.6309401715,-0.6474319685,-0.075643603,2.0064406985,-0.9752770106,0.8115917598,-1.0263219407,0.4193022376,0.5650070302,0.2561653897,-0.6908680841,0.6956502973,-0.8917344043,0.5044291922,-0.2865779915,0.6275279787,0.6687238447,0.7376095189,0.4157410899,0.2428119044,0.1463984078,-0.3252026017,0.2051898045,-0.9520293313,-0.5483189903,0.2244851925,-0.3796311165,-0.8375388181,-0.2997900253,-0.6938748698,-0.5849886606,-0.2870847912,0.5136077624,0.6721996092,0.3421135155,-0.6422824054,-0.6793917092,1.5752566689,0.3392768643,0.9077424748,0.7778725534,0.8127406437,-0.1668847847,1.7583160947,-0.0722487407,1.8677739533,-0.2490492062,0.9611596244,-0.3597450791,1.8518436053,0.0801451872,-0.1755118744,0.010328184,0.1129176802,0.6663975008,0.3964242705,-0.6878114036,-0.0301055054,0.2302689248,0.0500906878,20.8038981693,2.1328282381,2.7294370518,-0.817108869,2.6829369233,-3.8749518718,0.4860195695,-1.9446833705,0.984186317,1.086298819,0.1206446993,0.1259681316,0.6318767261,0.1141376031,-2.0544046612,0.0927259269,0.1426491042,0.1653217569,0.2384423229,-0.0092496092,0.139474783,0.2253714087,0.5261000821,0.0320800521,0.1556914218,0.3014644385,0.1761283618,0.0857833464,0.0926762999,0.2967812793,19.4201659215,-74.9454361183,-0.7952656974,-5.2141387747,2.597209989,-0.7176941837,2.823186985,2.3666123718,-0.3322201437,-0.6921229319,-0.3354390117,-0.8497733374,0.1958533871,-2.6134071997,-0.1752135467,0.715591241,0.247338582,0.5866074792,0.0590175347,-0.5675294611,0.9079584155,1.3435445877,1.440737364,-0.2985231468,-26.4861733745,1.9159117488,-0.3356694933,-2.0847325726,0.6089791937,-2.1234422335,-1.4375410636,-0.4687900081,-3.7534171961,2.3019932949,0.2071904079,0.0840379736,-0.721622372,-0.9744602791,0.686577756,-0.4158345397,-0.5325673092,-0.5558521992,3.5336977075,-0.5094253394,-0.4986725144,-0.2772696069,0.2090101007,0.4088160421,0.2288403704,1.051334524,0.6224335575,0.5697157006,-0.2137803033,0.255348054,-0.1716274357,0.5375662834,-0.1431888427,0.5422303234,3.3523524838,0.1396626708,0.1709064375,-0.3564837611,1.84851048,1.1362370981,0.997338738,0.8573610152,0.320003813,-0.3279215691,0.864120987,-0.3250982026,0.0090926708,0.485528744,0.0311583233,0.2283401693,0.9316646812,0.9496171223,-0.660749488,-0.2929612887,0.3403222151,-0.3192690906,0.3265761411,0.6177116005,0.1998610225,0.256974923,0.3206544755,0.1922947716,0.3425290848,0.9399562688,0.4354921215,-0.2718052248,1.286968474,-0.0427746496,1.2331981385,1.2412204757,-0.3497844151,0.1321897163,0.7158403704,-0.5436047263,0.0311991806,0.3892519867,0.6848734151,0.6611972449,-0.5568354518,0.1865102541,0.5648960612,0.6940994002,0.6572712212,-0.1130088368,-0.4102346035,0.2139929297,-0.5086276697,0.2947764282,0.0626628397,0.5099614802,0.0249040433,0.6468755742,0.4747144824,-0.5594303641,-0.3748635812,0.7459433727,1.7732708895,-0.8032411656,-0.8940763963,-0.0831537738,-0.4032103352,-0.377217023,0.9580474835,-0.9469431192,0.3620109591,-0.145681349,0.6437300734,0.6307848884,0.9543841294,0.368987427,-0.0232231506,0.1510636849,-0.8935624861,-0.1234988687,-0.914467601,0.1577446629,-0.5765457346,0.2268832975,0.2676661624,-0.2394358636,0.1049443208,0.7608383993,-0.8693878346,-0.6604002185,-0.778194987,0.0132980259,0.8867769207,0.1046746547,0.1225912559,0.5928844083,-0.1412555473,-0.2081193021,0.3254420256,-0.0738807784,0.789540938,-0.3869042508,-0.4002512585,-0.6184284788,-0.8020343123,-0.5814504006,-0.6448749455,0.671136025,-0.2187385725,-0.3552652403,0.7851534555,-0.0372882177,0.3227403492,0.9063392061,-0.1231979762,-0.4174351885,-0.3966404801,-0.4902132305,0.6848575655,0.7899932643,0.0850194144,-0.5208229087,0.3484050391,0.4628342206,0.9072243067,0.0047730764,0.5777654455,2.2203330692,0.5557878705,-0.4138694423,0.4122653428,0.6923910553,-0.3155132646,1.6495878008,0.5845331321,-0.4667014437,0.4418402758,-0.70529918,0.3504302927,0.110334372,0.2387995668,0.4233341789,0.3333365819,0.1710902539,-0.1483921845,1.3213920231,-0.7146489693,-0.1555361529,0.9277638758,0.9548741828,1.0363149577,0.5679991423,-0.3420059316,21.4538234727,-0.0398019069,-0.0236218396,-3.8175519343,0.13507839,-0.7484970122,-0.0977900831,-0.1050242299,-0.0464014558,-0.4462767133,0.1506761844,-0.0827651547,-0.0367222646,-0.7316879445,0.0513179464,-0.2079067856,0.0356238504,1.1959249315,-0.0027522425,0.0742126138,-0.0828169661,-5.6777781843,-0.5758608004,3.1934380256,-0.1690842128,-4.54489397,-0.1510189609,5.4683252015,0.261398572,0.1398429444,0.5167603336,0.8427678134,0.3725402823,0.8012675206,-0.1084176919,-0.4207289457,-0.2123054118,-0.2775464812,0.5189377371,-0.312635983,-0.4197589365,-0.6838934702,-0.4684805515,-0.1162171015,0.0284641224,0.8754574923,0.5277326786,0.1946773191,0.5979078441,-0.3514327408,-0.1774273868,-0.8206790207,-0.1533444061,0.5825138878,-0.4110255574,0.7161772191,0.6122164716,0.743730444,0.0252264931,-0.0641385299,0.6337929276,0.9848283555,0.6228922769,1.2147290293,0.2274499699,0.8558200094,-0.375887714,1.2850672665,-0.4401568242,-0.740619754,1.2471494023,-0.7197703062,0.5736674113,-0.4255669498,-0.157630541,1.0835563741,0.3397043901,-0.0586386791,-0.1862908575,1.8439453612,-1.2928425965,-0.4598780612,0.046021031,0.8790093422,0.5810051413,1.0567100018,0.6492131378,-0.394546412,0.6523163169,-0.5789174876,-0.0602097072,0.9431799001,-0.5221282444,0.1716632949,-0.4851057172,-0.642373934,-0.5932668776,0.5007877651,-0.3325829389,0.4497954494,-0.8162667111,0.2516727043,0.7631692278,0.3199143184,-0.0504644715,-0.9617032533,-0.4529550218,1.323410111,4.6724114349,-0.5279757605,0.0875139032,-0.0950517427,-0.8709117242,1.4798926036,0.8984918118,0.0630013897,0.8147894767,-0.5390524771,0.8186605495,1.0554175817,0.2667184754,-0.2068598853,-0.8785689563,0.5717578264,0.0942323754,0.5626970601,0.0235367648,-0.0096620353,-0.4011252859,0.0666241658,-0.5717072227,0.685976685,1.356403739,0.624802916,-0.1041417892,0.6620693332,-0.0472421406,0.7787613579,-0.3650458406,-0.5256991038,-0.0531696686,-0.1762186908,-0.5219898207,-0.1968742657,0.7144280665,-0.4895946059,0.3222226275,-0.3156210925,-0.5394271938,-0.6424837488,0.7248636075,0.1335686407,-0.6278991673,0.1118328656,-0.7740863113,0.7583657227,0.6244465999,-0.5516590024,0.4600907713,-0.886586846,0.5063330684,-0.6124538467,-0.962181855,-0.4831185373,-0.7925765577,0.0898979082,-0.1852335017,-1.067543397,0.4467219247,-1.3530228345,0.406472392,0.5075725346,-0.7903262545,-0.2220986508,0.8285115824,0.605637552,-0.9738822878,0.4714943167,-0.1417794541,-0.4747864447,-0.0974043436,-0.564751321,-0.9010579723,-1.8633983892,-0.0140148173,-0.2956994476,0.5629218161,0.7717175026,0.6661371657,0.3852395762,0.1771522238,0.4706850307,0.4157848424,-0.9530164601,-1.1257862466,-4.0725162279,-1.8149301414,-1.8186954195,-0.155257546,-0.7822328028,-1.1306255369,0.1382156152,-0.3373742687,-0.3940862986,0.4593386686,-0.1006879483,-0.6155875932,-0.252709923,2.0943409128,-0.2681911032,0.7198955874,0.0706675565,2.8772690404,0.7401975595,0.8638487095,0.675183518,-0.1142481409,-0.3070579254,0.7639398313,0.0864398999,0.1749949622,-0.3313450067,0.3577099916,0.3593579372,-0.826822534,2.7672167066,0.5324706535,0.1696503476,1.2536231972,-0.535293629,0.9301541039,-0.6587344638,0.6638764146,-0.8540268113,0.2958407139,-0.0453030852,0.782151721,-0.7535818411,-0.0129579478,-0.644108271,0.7901935118,0.6024848342,-0.6468527076,0.3735989853,-0.8918479645,-0.6378019188,0.8312013776,0.6678746487,-0.1963909036,0.1352017704,0.1765951566,-0.5369867996,-0.0672313944,-0.0358013849,0.1258570813,1.1934551489,0.729205951,0.5267062498,0.6092806543,-0.7614314875,-0.2340014759,0.5996854871,-0.3406094718,-0.5727577195,-0.3748453379,0.1277010187,0.3677515242,0.3139607648,0.2073547087,-0.8596446021,-0.9432926052,0.7059311572,-0.6941570145,0.5017081633,-0.4027410253,-0.4661989344,-0.4760639046,-0.019598509,0.8264126295,0.7543245577,0.7888711743,-0.1387719912,-0.7943605653,1.3833840572,0.7776493698,0.6007399595,0.5377636843,0.1781074644,-0.2248761266,0.0725223345,-0.6547622149,-0.3477688939,0.1873310446,-0.3755660947,-0.0431563486,-0.6100677942,-0.5766964159,0.4646833153,-0.296714288,0.5539804395,-0.5989224574,-0.1018531771,-0.3532972286,0.180883339,0.5044381143,0.3436820282,-0.5089627518,-0.400231508,-0.3416737699,0.4615665319,0.6905350199,0.3626498783,-0.0734523037,-0.873604069,0.3547492544,-1.3404887368,0.2387933698,-0.8550437626,-0.4742485402,-0.9730285978,-0.3588034485,-0.3747148985,0.0909572258,0.0360585113,-0.0156266044,-0.6870124346,-0.536078433,0.8978119471,-0.7477456132,0.3063389905,-0.3594064282,0.9091543471,0.7481276063,0.4830358148,0.0360866587,-0.4472008259,0.0272439518,0.2896780277,-0.2242409132,-0.4759809233,-0.1836176316,-0.2117431556,0.7719672501,-0.2935544524,0.8684437756,0.2914745152,-0.9043453068,0.3212027712,-0.9189759954,0.1922743544,-0.9628676304,-0.4546996878,0.175813462,0.7033252911,-0.4405911266,-0.0508350548,-0.3679240941,-0.8422698644,0.4139368782,-0.1418464343,0.3696206005,-0.3394310949,-0.4132085279,-0.8243668379,-0.1292299061,-0.3316763374,0.1408446361,-0.9241191702,0.0658835515,-0.4908304781,-0.1147341331,0.2273206592,-0.5508577302,-0.0050205422,0.0504920198,0.6822929317,0.8045326907,-5.5228247521,0.8293669362,-0.2402672198,-2.0772635012,-0.1624674115,5.3611609117,0.3857196579,-0.5087050617,-0.526405766,-1.0634898058,-0.3010035148,-0.1794928754,0.0047663077,1.896456191,-0.1522187941,0.0482923504,0.0442800119,1.5095876296,-0.3873126062,-0.5386668712,0.0184044179,-2.2790256066,6.8556231059,3.4594558482,4.7518262268,-0.7889643929,0.392692107,-7.5218637691,-0.650524447,0.1587236861,0.2756173013,0.1593136949,-0.1334669636,0.2047996384,-0.556065229,-0.9306187581,-0.1918878622,0.9621392382,0.1626780936,0.5950569423,-0.0745453904,-0.3581366412,-0.6602363274,-0.066285747,-0.0917252697,-0.402928731,-0.321735225,-0.5104906544,-0.6328546175,-0.1560705472,-0.1139980731,-0.5440114159,-0.8107989256,-0.1503723744,-0.6510356693,0.6999856538,-0.1424196257,-0.6826376654,0.6725917105,0.5674610514,0.5999589478,-0.8666330075,-0.3995575763,0.1583710921,-0.3736911752,0.4646712469,-0.9262813248,0.8628358611,-0.1170845886,0.7396182968,0.6028306059,-0.0931214753,-0.0878225326,-0.3538979555,-0.1834630527,0.3901191538,-0.0241031742,-0.1776338329,0.7694738919,0.6531873528,0.6612159959,-0.1070092724,0.7355938178,0.0983458416,-0.1409528079,-0.2020841954,0.9169691419,-0.4890082315,0.4599344715,-0.2265968094,-0.2299943229,0.3331016161,-0.0152527794,-0.7023954424,-0.225691962,0.7241700147,-0.0189918872,0.2119539678,-0.2009004967,-0.7305192034,0.3428248453,-0.3574677079,-0.1606612745,-0.2085707696,-0.7466671476,0.8719390383,-0.3206163797,-0.1748165918,0.8633884238,-0.7870221266,-0.6511494176,0.7690650159,-0.4840204533,0.7367644146,-0.3428364012,0.6313234317,-0.4662220728,0.6337125687,-0.3914999455,-0.5643036199,0.2602365928,-0.2493169079,-0.1392092208,-0.5795169037,0.3699546988,-0.2817777081,-0.4257446335,-0.3308084869,0.6413145005,0.357989017,-0.1666621114,-0.2544354941,-0.0259032287,-0.3476967065,0.9833007526,0.1304680023,0.2408985379,0.4025180231,0.7915703651,-0.2600645734,0.0014427969,-0.3454081362,0.1522652316,-0.4127109411,0.8808028564,-0.7769128149,0.9265429484,-0.2586410946,0.1019332762,-0.9687278716,0.4646706779,-0.3856112287,-0.2019528902,0.2572545183,1.2453978617,-0.0431574371,-0.657009669,0.7332157961,0.4223225517,0.3288021143,0.8250909012,1.1799267573,0.6538903763,-0.4565036818,1.0820372552,0.3927367538,0.1063679884,0.0573501783,0.8434273858,-0.1422872626,-0.3749608253,-1.0188598377,-0.3109463282,0.7517280392,-0.2672221676,-0.0875886663,0.7677034642,-0.4667518485,0.3360783373,0.8044784208,-0.2502697004,-0.4715549091,0.316781966,-0.4416292663,0.4227488636,-0.25207449,0.2112442102,-0.1545855845,0.179002814,0.3992769502,0.6422097282,0.0018967788,-0.1746217961,0.796438802,0.6008013692,1.0017823624,0.9248863983,0.753358656,-0.8833877143,-0.5962156643,-0.1390601044,0.8860700249,-0.3349560271,-0.7062585747,0.3385216643,0.6401572164,-0.0303460026,0.0616472782,0.570598046,-0.2722063019,-0.384100663,-0.8852714672,-2.2165570467,0.9469737611,-1.1742856688,-0.1964408395,0.057023701,0.471003713,-0.4927770673,0.0476354547,-0.2012127384,-0.1636316557,-0.9096176013,0.4656597089,-1.0691399843,1.3958067377,-0.3446009691,-0.8638632193,0.5045324826,-0.7539352137,-0.8592541493,-0.7584039821,-0.7410838493,0.8435925037,0.3695670803,0.2499093292,-0.1782913003,-0.8632194866,-0.6201981238,-0.8455025371,0.0976454208,-0.2174511516,-0.8394042145,0.2900370853,-0.1243392609,-0.369532513,0.5714427347,-0.2802470428,-0.1631159684,0.2541099947,-0.3979566805,0.7717995377,0.1289739269,-0.9661648088,0.8796815277,0.699398365,0.1333439268,0.4258731941,0.200122477,0.4210257511,-0.7149233264,0.5987490988,-0.6892486778,-0.8590216856,-0.6418169976,0.8530811337,-0.0053103388,1.0330756157,0.4965650956,0.6235920827,-0.6175576981,0.6974309076,-0.6721324068,-0.2708908221,-0.4569893491,-0.0289858198,-0.3893797074,-0.6533354578,-0.1064052986,-0.7511507064,-0.9004523536,0.2487236751,-0.0836774162,0.8335184771,-0.1499157308,-0.8740000757,-0.1223561214,-0.5632178321,0.0017382145,-1.0087125009,2.983169379,-0.1616719578,0.2172460228,2.2284298241,0.2178193753,-0.4658989086,0.2383003161,0.2794428959,0.3343224237,1.0764386302,0.3572338243,0.2622932249,0.2848136571,0.5926491808,0.1108275199,0.2471616858,0.2553717324,0.4463881931,0.3366917844,0.2628544995,0.1908225414,11.0506566969,-0.551574278,1.3423005614,2.1773464857,-73.6062479446,-13.8573629262,1.1047233717,1.8059951851,0.2196218339,0.0431826073,0.2168399563,0.2474060248,0.1962151861,-0.3402372713,0.8448292567,0.3534044278,0.701203775,0.3426418187,-0.1918703567,0.6279464583,0.1275489931,0.4909249223,-0.8736346972,0.8221773338,0.0744850685,0.081927001,0.2261835207,-0.0002053923,0.5194918256,0.1473583022,0.6743752804,-0.9548472533,0.2895277834,0.554735769,-0.0466415177,0.0984285335,-0.4426812591,-0.2861812361,-0.8603382557,0.2613939987,-0.9384527671,-0.7339117809,-0.8074669612,-0.0818068696,0.6958938967,0.5305227805,-0.4188588722,0.3232678134,0.724280372,-0.4015031581,-0.7791549957,-0.4229227004,-0.5720434326,-0.7233765586,0.6632351686,-0.1956660382,0.2667048942,-0.5414556696,-0.3967348393,-1.0193167302,-0.3209009488,-0.1731750438,0.245741747,-0.488286005,0.3102862303,0.8525509802,-0.1302816751,-1.0169058073,0.0419814924,0.4856458066,-0.0985135822,0.0863309379,0.5406232855,0.6336417395,0.5494889708,0.4093563032,0.1269220521,-0.3575928772,-0.4265210539,-0.1705250585,0.9339360351,0.0878965497,-0.3782600383,0.3894617195,0.3714779471,0.4796912448,-0.8548270296,0.4163365049,-0.163733645,0.9268045014,0.1578844087,-0.8774560389,-0.598454632,0.9837560946,0.682599871,-0.563993211,-0.5784558751,-0.0263721431,0.4636367977,-0.5629077069,-0.2337545771,-0.6072253,-0.2074689262,-0.1605230389,-0.408106412,0.238616595,-0.2471961317,0.0007688076,-0.8103631785,1.2036124382,-0.0931839512,0.9080094709,0.475307821,-0.8954222851,-0.4655657216,-0.2652240738,0.3628137867,-0.5785549217,0.2905475457,-0.3243222185,-0.2570636272,-0.8526207919,0.3368825165,-0.1729230604,0.6355631174,-0.6448112488,0.0494921668,0.3511902994,0.6829259067,0.2719553848,-0.801096178,-0.7795656242,-0.0535356015,0.3159785786,1.1107767674,-0.7204508753,0.7556663599,0.4002589475,0.216924887,-0.224041043,0.8366179445,0.4786235058,0.8509670007,-0.4292114498,0.0885630363,-1.0260600219,-0.29110364,-0.639200066,-0.8257995271,1.4180085691,-0.3905142922,0.4761263269,-0.9687839253,-0.5471145899,-0.5219795995,-0.4205320258,-0.1526048329,-0.6857635481,-0.1742040922,0.5336986159,-0.210076972,0.8367053127,-0.0044715783,-0.6318727905,0.001421358,0.62387276,-0.7364609893,-0.7769691515,-0.4864797412,0.3088354064,-0.31324055,0.3244237306,-0.2423148978,0.0603511531,0.8774111749,-0.6094733899,0.6628591173,0.302115574,-1.0188885258,-0.3027188257,0.4299099277,-0.5069829711,-0.6700590285,-0.7060983366,0.3966529095,0.6010279534,-0.7857474113,-0.4104713744,-0.9450636264,0.2146718202,-0.231103319,-0.0114537591,-0.5129442568,-0.5908049029,0.2282518615,0.1545086749,0.3331077448,-0.0267046716,-0.2705512051,0.6070029788,-0.2858235504,0.2194210065,-0.1553057182,0.6757087864,-1.1375019592,0.3913749967,-1.3487769857,0.7536167733,-0.0361660735,0.3817500914,0.3715858051,-0.6499685528,-0.5062243874,-0.0677137911,0.2116238909,-0.6576933737,0.5938933617,0.321779384,0.1727778407,0.1755746816,-0.7792206187,0.5057710646,-0.3160945882,-1.0278574668,0.2812602879,0.2335954637,0.7379382486,0.1164092372,-0.4501104656,-0.1598310169,-0.8027603299,0.3571772852,-0.5167909176,-0.4531963075,-0.7007376612,-0.0851168719,-0.6246296906,-0.5020719446,-0.1864891344,-0.7139612725,-1.7644155355,-0.7533022798,0.4922595377,-1.2317969302,-0.9602333898,0.7533657152,0.8334060052,0.1253129627,0.5218329499,0.7825760035,-0.5776794745,0.3020474193,1.2536269645,-0.1349560523,0.6289915413,0.8574103284,-0.4878619193,-0.6906926925,0.0989922889,0.4071507006,0.0441648667,0.275088127,-0.1022579033,0.9354405352,0.2636988666,0.2978203689,-0.5754518863,0.1868964207,0.2127169328,1.0797778168,0.1306336607,-0.6864410663,-0.0362617343,-0.6083217082,0.49844745,-0.3606503406,-0.9825376329,-0.5640580586,-0.4178763912,-0.4132867896,-0.1256170663,0.8749826138,0.116817887,0.6214027118,-0.0740629325,0.6827356428,0.0029282805,-0.6989108069,0.0865830239,0.2865637591,0.0508455038,0.0261102323,-0.6027714156,0.0993542551,-1.6045146284,-1.65197244,0.5339923828,0.8012837484,-0.4694805715,-0.5107358803,-0.0291250015,-0.1022250159,0.58621437,-0.506990651,0.6235264292,-0.4222110411,-1.0245475899,0.1760551143,-0.6336203536,-0.0745128178,0.1366479167,0.3437182524,-0.5720588675,-0.3526740933,-0.0356534992,-0.1510128295,0.3865047245,-0.0434148925,0.0936379311,-0.2606299539,-0.2549117765,-0.8770448416,-0.6543196511,-0.1951973001,-0.0348913502,-0.7112038428,-0.5747267081,-0.1128546653,-0.7101151057,-0.1500517417,-0.0291401725,0.4273425379,-0.177773209,0.4697896852,0.7409372718,0.531536738,0.4080044946,0.8969143349,0.5665427076,-0.1288622366,-0.0104864986,0.82284863,0.0129300665,-0.316255288,-0.2726483615,-0.1768617775,-0.6161196984,0.5817306528,0.2427187192,0.7167663386,-0.1758497648,-1.2673486371,0.9231297002,0.5413071024,-0.8973741932,-0.136545013,-0.2421822477,-0.7025082893,-0.6349658682,-0.1990820668,-0.9184951172,-0.6817734577,0.2838103599,0.4886362823,0.7586188834,0.5199733862,-0.8933252266,-0.2074178453,0.5947376579,0.5752783701,0.2498386302,-0.1064463912,-0.0214420316,-0.0085820009,0.4430015883,0.2689562849,-0.357446651,-0.5867648285,-0.8279185194,0.0944256958,-0.5900597793,0.5025538878,-0.8962881946,-0.186508768,0.3950567069,-0.0112176137,-0.6025227943,-0.0189572586,0.1662721998,-0.5507973779,0.4779172554,-0.9275672671,-0.6155757199,-0.4683308183,-0.0734216505,0.7386381102,-0.240607217,0.3548095221,0.5692345342,0.0538937118,0.3555654984,-0.6542950141,-0.2916117018,-0.4788871566,0.2565222437,-0.6013509108,-0.7819208647,1.1614400787,0.2568797015,1.3195571522,-0.5995828016,0.2969008941,-0.9548480044,-0.6596773119,0.3375651976,0.0820452995,-0.73879301,-0.8864995203,0.7097027681,-0.1255670228,-0.5047757551,-0.5679802655,-0.8247171179,0.0739441565,-0.8139133177,-0.2440574608,-0.2740624521,-0.1684985559,0.6846561522,0.3961258362,-0.870405901,-0.066335341,-0.4512210907,-0.1170154595,-0.0417656356,0.0697248233,-0.2730413043,-0.5032164478,0.3142981112,1.130187791,0.0633090087,0.3912284879,0.5659007299,-0.005356163,0.1036914785,0.4725548321,0.4405235018,-0.783656542,0.1878362449,0.5038917828,-0.9190195841,-0.1469675481,0.1283111961,0.0500341071,-0.0369086097,-0.3065911515,0.0194735171,0.8919226902,0.1837592893,0.2395208847,-0.2543971688,-0.7981886712,-0.5565014562,0.7235439338,1.3719541347,0.8165303462,-0.2712756356,0.7547963684,0.5704651374,-0.6105297968,-0.4514712594,-0.5969181036,0.0486206006,0.1860651022,0.6642784348,0.1488123217,-0.0305576377,0.034495048,-0.2531798461,-0.5923023355,-0.1180978619,-0.4364444711,-0.1660153717,-0.6841451439,-0.5819685336,-0.6627259694
   -0.7722156051,0.5088252959,0.5361656168,0.0166058009,0.7622791156,0.832217434,-0.4379058095,-0.0900210177,-0.7215552078,0.9121295458,0.7339185498,-0.0998051463,0.8405732243,0.0189065594,-0.2080982501,-0.6136337717,-0.6902951028,0.7408308439,-0.4404399366,-0.8498588757,0.4879169466,-0.0955089974,0.9105994977,-0.0230206801,0.2439633637,-0.4327420428,0.9086619289,-0.3029016087,0.2261953036,-0.2176804213,-0.0320646011,0.2189801728,0.9037937815,-0.1645445424,-0.6031810964,-0.4845938285,-0.5814507114,0.7018093203,-0.585363025,0.6271880617,-0.5885098061,-0.316259616,-0.4777114602,0.2704624152,-0.28943666,0.8460076766,0.0142279559,-0.2475591077,0.0057313181,1.0075466558,-0.0046440889,-0.4820234563,0.7222555601,-0.8930970295,-0.4949167006,0.4076847643,0.3633189101,0.6012493128,0.371894949,0.2342139803,-0.02870498,0.1030641196,-0.5905151508,-0.4131367482,-0.5365884999,0.4313010574,-0.4167848864,-0.9205671276,0.9235704679,-1.3323324961,0.6330707595,0.3904164312,0.8971372139,0.3808697249,0.94679308,-0.4679789363,0.8575740301,0.4052340485,-1.5309444281,-0.3703047112,0.2459993368,0.7312950454,0.5082599481,0.739652391,0.6290407227,-0.4200133639,-0.2948177334,-0.6570233205,-0.0387979435,-0.0760106188,-0.4104755543,-0.0800226582,-0.4507032632,0.2391251733,0.1949036977,-0.8034663797,-0.7547944508,-0.5254638059,1.3968261227,0.1567177596,0.3101370248,0.9209784465,-0.4125351102,0.7377486541,-0.2030225875,0.2684019862,-0.0250765892,-0.9647537253,-0.3796259182,0.3121913169,-0.2696280299,0.1390299669,-0.597955849,0.0247085379,-0.2690355222,-0.5396107068,-0.1497765215,-0.1085559252,-0.2696294472,-0.9094750612,0.6051761883,-0.2459147289,-0.3501664259,0.0037484108,-4.5825310615,0.153318695,-0.8724287981,3.3166783455,0.835409905,4.0826394964,-0.7425822201,-0.311777486,-0.9900786433,0.6866386677,-1.4479904563,-0.2273854848,-0.4230919942,0.5099117698,0.0079978632,-0.4178586886,-0.4325453771,-0.7859433579,-0.511659321,-0.2817759815,0.1142371107,-0.4464159613,0.2722155734,-0.4370222594,-0.5612511878,0.0670075866,0.3225777202,-0.6704435211,-1.0572579436,0.3950213662,0.4102333262,-0.3620361691,-1.617997783,0.0185322959,0.7196380726,-0.0630651283,4.6905219388,-1.7174028813,0.5283243066,-0.010132588,0.6196901862,-0.0130281024,0.2387934308,0.5041802468,-0.1192271962,0.4550021438,0.1078472007,0.6202110989,0.3584639532,-0.4292996097,0.7270834737,-0.1118076513,0.3485381749,0.1027629128,-0.259063621,0.4680852112,0.1031859112,1.4017751066,0.0796967911,-0.764060942,-0.271764466,0.0219366506,-0.1246063771,0.9625743695,0.1432004431,0.5832073873,-0.2506629849,0.6517546642,0.589601518,0.5931740499,0.2761859345,-0.0771488303,0.493076992,-0.7796515652,0.3491732385,-0.6237474484,0.3728444184,-0.363022345,0.4627771583,-0.2073164605,-0.1482468387,0.3122407416,0.1050406631,0.5818098666,-0.1529199676,-0.1272177132,0.5199244042,-0.0885585316,0.6015970601,0.504050944,-0.1816933146,-0.7672909405,0.3918752273,0.0702052531,-2.448352135,-0.1640593815,-0.2419716214,0.27475304,-0.4710152316,-0.7209762145,1.0710891554,0.0767794846,0.2070958075,0.1501475274,-0.4231831966,-0.5189244644,-0.4482006648,-0.6601361981,-0.5064820553,0.474923788,-0.352844618,0.8682492368,-1.1280986077,-0.2814326588,0.0392620258,0.2150025998,-0.1496822389,-0.3777281209,-0.9676929764,0.9844503072,-2.2646915009,-0.0674237284,0.0855508516,-0.223741783,0.414148696,-0.0446325466,-0.0730361657,-0.5351085694,-0.3496780359,-0.0721072915,0.8309415083,0.3824263532,0.1024248801,-0.0633780851,-0.4811398961,0.0152885607,-0.6789999153,0.6971118239,-0.1609800903,0.4855987054,0.4168854424,0.3303663618,0.4966761473,-0.284277849,0.2802072862,0.1154979001,1.1337842434,0.9238796128,0.643403594,-0.7260435355,0.7864716678,0.0127039406,0.1079099421,0.7448109537,0.7615360989,0.1443516141,0.4424638089,-0.1876831222,-0.1896362968,-0.3079531634,-0.3217994565,-0.6506625984,-0.7435685291,0.7005611404,-0.1928441203,0.6540762329,0.3763792407,0.3908471255,0.1091477608,0.2635362103,-0.5364508182,0.8070208167,-0.0291074167,1.2114453839,0.592585757,0.7715377324,0.3964729748,0.2087969193,0.1080835132,-0.367818795,0.079918086,-0.7347895855,0.1580281352,-0.4777344604,-0.1463093716,-0.1273825713,0.0025963642,0.4720880952,-0.5949656038,-0.5148175016,-0.1316855634,-0.6814027245,0.3517411161,-0.2273564114,-0.179617811,0.2990796797,-0.1925697471,0.6032099232,-0.0320852123,-0.2309105474,-0.6262101644,0.0585875919,-0.9443092544,-0.4894941082,-0.4346781155,-0.352152667,-0.6554474006,0.6937767762,-0.4888960657,-0.1343988774,-0.0791452466,0.7673904568,-0.241496134,0.6608552495,-0.0473856407,-0.8022278465,0.9062053095,0.3161753864,0.7061564468,-1.4593474005,-0.3219375037,0.5080019346,0.1912427761,0.465017753,-1.3751170009,-0.1693420414,1.6386582335,0.4405483611,-0.0282556316,-0.9195119132,-0.076735968,1.1492293044,0.4682235628,0.4274118384,-0.2692916489,0.5976143532,-0.2395831754,-0.2697052348,0.509456124,-0.2634407476,0.4529006726,-0.1550500451,-0.573109523,-0.6163334884,-0.5628798674,-0.9352369544,0.3987371076,-0.6520594346,-0.3178646203,0.4330162774,-0.5458709822,-0.5440190752,-1.6338996198,-0.1491204216,-0.4422384343,-0.4922574133,0.6479661417,0.3468552246,0.3413408708,0.2233715754,-0.6012567917,0.3570063555,0.4477758164,0.0190343627,-0.525148166,0.180691319,-0.1373112353,0.8682261139,0.7154373228,0.7564362039,0.7847805475,0.1732461262,-0.2280107787,-0.6374244976,0.0012373709,-0.3320128441,-0.9759260692,1.0404412995,0.4031802001,-0.9618198014,0.7717539232,0.8392539713,-0.5714712315,0.7633415669,0.8251905214,-0.1364190558,-0.2801677353,0.1595530069,-0.8577762432,-0.3828719654,0.4231638632,-0.9123314276,-0.1494528009,-0.2612173736,0.9671189235,0.1150480629,-0.0227802789,-0.5083465275,0.5411221149,0.4982666086,-0.1267336677,-0.2320514378,0.7076160911,0.8525805476,-0.1888558414,0.1963734442,-0.3266923118,0.0582977865,-0.7472035888,0.349534311,-0.1009113615,0.6309502619,-0.7099114508,0.8834189955,0.40076174,0.445546824,-0.7000885937,-0.00036447,-0.6126388474,-0.532612338,0.4996896095,-0.5691573178,0.9503561122,0.7209998403,-0.9561475499,-0.9164615562,0.1602657332,-0.030623925,-0.1929649124,1.7015302557,0.475204921,-0.348233133,-0.1028991831,0.1244970647,0.039587445,0.6189463673,-0.6168306764,0.1601122667,0.5081185995,0.476638328,0.3294499622,-0.5988415495,0.7691134206,-0.1388402099,1.1033118841,0.2676516792,0.4112363472,-0.1016430388,0.5936429161,0.3572659594,-0.3474975345,-0.3751357595,0.6001916961,0.0345378462,0.0224040591,-1.0134337502,-0.7529749705,-0.7665363004,-2.2722715501,-0.633581225,-0.2961730042,0.9389454924,-0.6004395751,-0.0839439779,-0.1100797179,-0.9484207898,0.7540934025,0.3915262563,0.731746357,0.6994169488,0.0086526184,-0.3809919469,0.4335032158,-0.6497436971,-0.4174023782,-0.5192674127,-0.7284317031,3.023480284,0.7693905327,0.2151559538,-3.3172486802,-3.9127265822,0.3109195455,0.2444344291,-0.2184755805,0.6783274666,0.4528369659,-1.6167064182,-0.4579166234,-0.0954713128,-0.3609177634,0.6948139178,-0.2227845316,-0.5864953599,-0.0586461181,-0.4535799051,-0.1095348797,-0.1627215945,-0.2336059652,0.4956814712,-0.2279274928,0.0013877278,0.0574228647,0.6421006232,0.5274538979,-1.4510716221,1.6477763873,-0.5906084708,-0.5287562599,-0.055679467,-0.131229635,-0.0098278745,0.9486288592,-0.9434376109,0.7323715891,-0.6579571391,-1.5461468738,0.2801552382,-0.323588561,0.6624582258,-0.8815688806,0.9334108205,0.2345838034,0.5569557217,0.7485839984,0.7737248448,0.1704901217,-0.6550378093,0.2986498839,-0.5025848247,-0.0798705496,-0.499419247,0.3258451187,0.3109699777,-0.8774529129,-0.0931839169,0.6468528105,-0.7077820424,0.0906096215,0.552034284,0.0981728911,-0.7749235522,0.1383726407,0.2434739488,0.5235992763,-0.5735132122,-0.3605497922,-0.7947522558,-0.5157867558,0.5015685681,-0.937711032,0.7955184904,0.3009972162,0.6259611528,-0.0397371158,0.636333622,-0.4583075505,0.215723356,0.967671799,-0.2312611846,0.1222146009,0.6610285816,0.0327920136,0.7902565971,1.04749422,-0.1625395418,0.7775227518,0.620701111,-0.0821936655,0.1836979641,0.8869542933,-0.259960789,-0.502166335,-0.2763946019,-0.1387061881,-0.159140128,-1.8597789311,0.1365552393,-0.3587071097,0.8925086403,-2.4045975037,-0.7529380876,0.6547375246,0.2881330224,-2.2453776118,0.3724088114,-0.2552707218,-0.146893763,-0.6205881712,-0.3180940846,0.071727939,0.0904532657,-0.1102540255,0.9694401926,0.5327591245,-0.7369082807,-1.3599771841,-0.0137729984,0.4440423851,-0.9486080277,2.8542461785,-1.6564144227,-0.5836778872,0.2576364259,0.3256513723,0.2317438225,0.095276906,-0.0519685272,-0.0498469508,-0.9805989738,0.2420385532,0.1463244748,-0.3133586332,0.8313144872,0.4804216387,0.2900688304,-0.9544524979,0.0036716155,0.2866491452,-0.7607660108,-0.1905312394,-0.8902865057,0.5677163447,0.4463866899,-0.0904566403,1.5601449676,-0.215888264,0.6797195454,-0.8644093128,-0.8219528712,-0.8988272318,0.2921784817,0.0624809058,-1.0007551343,0.168501095,-0.1030094549,0.7590051722,0.4121047401,-0.4136103177,-0.030246063,-0.4227073514,0.0670860162,-0.3041149401,-0.3021923401,0.6514111517,0.4682656614,-0.5925286745,0.7044300958,0.3845601163,0.8320291669,-1.1007125276,-0.7729009676,-0.9466113129,0.3327054356,-0.3499955647,-0.1659832955,-0.3268031876,-0.3868614829,-0.2128235298,-0.9798053249,0.134397396,0.4424074124,-0.5886432662,0.1718773637,-0.0751175061,0.6764567032,0.0375254593,0.1542722405,-0.3112821177,0.4139102815,-0.6826260583,-0.5905195466,0.315900414,0.7715004032,-0.3180043621,0.7834962967,0.1045971871,-0.6863974348,-0.1008391659,0.12456019,0.6677085235,-1.3036448857,-0.0637175907,-0.2683514322,0.0147481011,-0.1830325791,0.7893116252,-0.1029916988,0.1655092388,-0.5233106375,2.7561178727,0.551368088,1.3267344514,0.5003211259,0.4461759636,-0.9846622193,-0.0960255332,0.3532145162,-0.7995059333,-0.5831470563,0.2945666425,0.4297898755,-0.0250173054,-0.5185857456,0.3489625561,0.8286748777,-0.2605081713,-0.0832521157,0.5363608976,1.0770691105,-0.159955552,0.5185790453,0.922288642,0.9395313424,0.0570686853,0.9882307499,0.5770733223,0.3150544427,0.3877231892,-0.8665861338,0.8599415415,0.7644396706,-0.1865977187,0.5541694083,-0.167623267,-0.6935281898,-0.7130808334,-0.6263596842,-0.0714156742,0.6877240302,0.432790157,-0.1281724116,-0.4269223804,0.360185799,0.1824368002,0.4075117507,0.5735668986,0.4004273709,0.5201773407,0.7072129419,-0.96298592,0.4838355784,-0.6605960149,0.6373740444,-0.9281179361,0.0064969248,0.458635095,0.2138823179,0.3048366639,0.1277741275,0.2664496599,-0.8664187554,0.6273594093,0.8364002637,0.5598373169,-0.9558222369,0.0231898456,-0.1588046925,-0.6235756695,-0.5350575187,-0.3999329672,0.0252416188,0.3601207968,-0.3404447955,0.3222105581,-0.0714363488,0.7451623562,-0.7899227094,-0.2037388288,-0.7288416325,-0.8380923229,0.2679765385,0.1416062414,-0.8840714285,-0.2998075301,-0.6580807865,0.2796492237,-0.2879522569,-0.6716905852,-0.6561974136,0.7761658899,-0.4484019696,0.035364192,-0.0997780218,0.8052496535,-0.6797961193,-0.2521118504,-0.2753727834,0.401017828,-0.2234492047,-0.1692054715,-0.8239323186,0.2662501118,-0.6997672737,-0.2949384514,-0.1423472038,-0.2409420961,0.8232926799,-0.1144748679,-0.4826240714,0.9077103591,0.2174609407,-0.0805783635,0.5498811675,0.3886831992,-0.8003394045,1.096608712,-0.3139250505,-0.110336643,-0.0215150134,0.1649053482,0.2142119463,-0.1806153294,-0.7445916166,0.1230517064,-0.161210574,0.2001784253,0.2342734232,-0.7738439421,0.113594042,-1.2587028226,-0.5460231703,-0.7025808598,0.1459990288,-0.541513588,-0.5609863837,0.1603654443,2.0406111059,-0.0039418387,-0.142359975,0.9160285143,-0.0284831985,-0.7796330849,-0.2006793197,-0.2843269551,-0.1226480723,-0.5190350401,0.154687212,-0.919543079,0.53151316,-0.5607113239,1.2552576998,0.7651231045,-0.2615149046,0.0407810906,-0.7262172273,-1.2984962559,0.1813184591,-0.0984955568,1.4127275849,0.7388333109,-0.0511566648,-0.2882015088,0.6275712025,0.0694236806,-1.1617243533,1.0562041828,-1.2905732134,-1.8398580572,-0.5835323521,-0.2161931281,0.1247433487,0.2195985506,0.0155895274,0.2273532337,0.156640355,0.4720853364,0.4168196827,-0.2352062302,-0.8070817576,-0.4660304635,-0.1463783346,-0.9953897858,-0.2616409694,-0.6332470258,-0.6097208048,-0.2248141506,-0.7890325233,-0.2278261266,-0.1223225837,0.5039841768,0.4121269913,0.1909796894,0.3879242284,0.1810355525,-0.5179250725,0.3907982624,2.0118731409,-1.0014518004,-0.7156094553,0.0543874579,0.4367174472,0.3842741558,0.5179396893,-0.680205152,-0.1689658739,0.6473885703,0.5533286314,-0.3165163505,-0.3014508091,-0.8182821858,0.5753897854,0.5972364574,-0.8245289037,0.14020137,0.5556470644,-0.2981444746,0.5280110247,0.4743826565,0.05057476,0.0957073529,1.0467455614,0.2549842424,-0.4784684142,0.5113731055,-0.3944409522,-0.1211242047,0.0193132818,0.2218098396,0.1168597975,0.6621507667,0.5341975417,0.7940338575,0.6037605991,0.0128702917,0.0408511946,0.4844053104,-0.5361415279,-0.0527267287,-0.3354691816,-0.4678194674,-0.40878654,0.2248711963,0.0846233234,-0.7073268295,0.361212078,0.5961286629,0.4339927148,0.1190030014,-0.6515740412,-0.237085597,-1.0255025947,-0.2762853878,-0.7645677266,0.6361850178,0.4099452336,-0.6662611943,-0.5966057476,-0.257632924,-0.2511518917,-0.1137064197,-0.2037364257,0.4969305657,0.7244557514,-0.8212243671,0.0571187117,-0.8256577761,0.9216697839,-0.8440644499,0.1071519037,-0.1435847878,0.4268248948,0.9236628256,-0.3130224091,0.5289312177,0.6548790462,-0.263099341,-0.168903081,-0.0019261277,-0.1975475668,0.0492524811,-0.4936301605,0.7329896419,0.0781164818,0.0566856975,-0.1689696437,0.9653286516,0.0765257951,0.714722745,-0.2051061433,-0.0540763412,0.7416974077,-0.7318647392,0.172428642,-0.5179159308,-0.0214004594,0.418154756,0.7988685386,1.0720537796,-0.2808291487,0.436423832,0.0212717316,-0.1827765047,-0.6867444904,-0.4783197665,-0.2882055132,0.0292217387,0.2743361907,-0.7670597561,-0.5860928031,-0.54549863,0.9195987184,-0.0077259743,0.5414684996,-0.452238272,0.9112389,-0.1275510909,0.4877843882,0.7051089816,0.0855263745,0.2592999791,0.8952735231,0.6342023045,-0.0232114869,0.2930937107,0.5301312815,-0.8926908371,0.8800487498,0.0385186511,0.895830311,-0.1814583341,-0.2073276109,-0.3896946488,-0.6692236512,-0.7959260654,-0.6071968956,-0.9525374819,-0.2249591779,-0.1414919594,-0.0168202427,1.0399032444,6.3942398118,0.9639342914,-2.7548590391,0.4176872824,0.2696739832,1.1781554895,-0.7966498683,-0.3603935639,0.5936581095,-0.3588967447,-0.2553462351,0.2121154233,0.2825731819,1.0445694727,-0.5325630209,-1.0305557918,-0.3716034645,0.0563462083,-0.5406806539,-0.8924848769,-0.2280053168,0.4455356861,0.0544207772,-0.8347931827,-0.0778867582,-1.0404132707,1.736888579,-0.9220493325,5.3789678702,-6.8583481945,0.3578113766,-0.7259874713,-0.3154951117,0.3723745848,0.0184148249,-0.5569001547,-0.6399646921,-0.6596740594,0.0500295766,-0.1809496014,0.348900833,-0.270803555,-0.0031424667,0.0852140177,0.2110188108,-0.4345127932,-0.85432179,-0.3096363889,0.7331332282,-0.5741366835,-0.0602519504,-0.0327913374,-0.4844171728,-0.1338891872,-0.5729445573,-0.4001868196,-0.0269395421,0.0360498204,0.4488683297,-0.3364985606,-0.3132121655,-0.0537957978,-4.0579153083,-0.2347926126,0.073523012,0.1030406647,0.0023269849,-4.9391176159,0.2774165742,0.0597356946,0.6321345194,-3.9832005058,-0.0829796389,0.1373834261,0.2302522738,-2.0911921646,0.11817292,0.0322343351,0.1498999319,-1.0540659824,0.0211055421,0.1624858096,0.2096293087,11.0632806026,2.4132201376,1.0206733276,2.7267189393,-2.8811587547,-2.9228943071,-14.1190717668,0.0030397499,0.7169678524,0.5348884307,-0.5184452774,-0.9464335249,0.5940307741,0.7807217632,0.2879303079,-0.6657718308,-0.0990091362,0.0690427409,-0.7741189667,-0.4746292261,0.454007023,0.6884794593,-0.9723180247,-0.0571152994,0.7333327313,0.0904385478,0.6267443728,0.4296263196,-0.1529090492,-0.848668693,-0.9845626088,0.9412408823,-1.130480375,0.9518154362,0.6088555553,-0.6761561652,-0.2744437174,-0.2184285642,0.0969227241,1.1428341167,-0.4453832937,-0.2608337821,-0.1994214169,-0.3086943671,0.2162283865,0.9331753909,-0.026056401,-0.6932407536,-0.2124722421,0.0459442088,0.9844332335,-0.3169562214,0.9943491363,-0.3237378239,-0.2979623268,-0.7791004598,-0.5193232869,-0.5990288315,-0.8951777106,1.6396047942,0.6871521383,0.2858299538,-0.1362673228,0.3675526985,-0.5765973163,0.087677868,-0.2282335942,0.7351898207,-0.1035019871,-0.1649367613,0.4515907478,-0.4010899854,0.8959751709,0.7475277682,0.2934430393,-0.1338235743,-0.4132895435,0.7469417732,-0.0175083225,0.5801260591,0.8592972373,0.3525206462,0.2785814661,-0.4426211803,-0.3981737671,-0.0782393047,1.0269385844,0.3625874843,0.1328001458,0.1184865284,-0.2602270981,-0.4522189163,0.1207520099,0.6150984943,-0.9364397551,-2.6104621246,0.0574978802,-0.1636372816,-2.7255322074,-0.1394064823,2.4466502646,-0.00596265,-0.1058998777,-0.3698752658,0.1502692332,-0.4383279635,-0.1357630854,-0.4114931104,-0.2806751149,-0.1276886131,-0.1794600583,-0.3588990826,-0.9437516546,-0.4798176821,-0.2130950939,-0.3743060584,0.9030066783,1.4144089732,0.4870753642,-0.86915781,-4.3011756805,0.8513699153,24.3590214929,0.5051208785,-0.4563957432,-0.4330851426,0.7517837866,-0.2380454867,-0.4830964284,-0.3108858806,-0.3760575993,0.0470570599,0.5046284957,0.8540310098,-0.4767093577,-0.5920441067,-0.2917944767,-0.5614127298,0.0231964649,0.3727617175,0.0554296928,0.8013653919,-1.2451734254,-0.0361762824,-0.3444291128,-1.078419336,-1.5511095471,-0.7691937264,0.4391686928,0.2960916809,0.4686574621,-0.7894654346,-0.0763038757,-1.3076717879,0.2183188009,-0.0243358883,-2.7596691719,-0.6475903239,-1.7914931124,-0.1116598145,0.8568490105,0.2312847474,-0.6498210711,-0.5065584731,-0.484962895,0.66374016,-0.0046436522,0.0768213417,-0.9445678955,-0.1776791992,-0.1074119775,-0.1052688882,-0.810726635,-0.2584024174,-0.0266803041,2.0815252064,0.7744951577,-3.310505628,-1.6577729561,0.7505848884,-0.4513695219,0.009957322,0.0486203564,-0.1703651669,0.6617317059,-0.482910567,-0.6044422389,0.0861667327,0.6072631896,-0.6954600405,-0.1267066134,-0.1022968148,0.4952306141,-0.4823010865,-0.8928789672,0.5583440273,-0.1148508661,0.1801964033,0.0954379954,-0.6174094923,0.7178354511,-0.6981351473,-0.7101032114,-0.1865427483,-1.3270230428,0.2582828542,-0.23836532,-0.140543681,0.4952746707,0.4330306231,-0.3698478548,3.720212357,0.0703038252,-0.1301177129,0.139435462,-0.1233351097,0.4263660939,-0.1304866311,-0.0816578792,-0.0694449878,-0.06541221,-0.2219119002,-0.0819558347,-0.1199044025,-0.0622672338,0.010972243,-0.0217054638,-0.1076437221,0.2385251005,-0.1014248536,-0.0756330885,-0.1396390864,-2.4885454525,4.0700698458,-16.0767123842,76.1450719749,-5.7278557661,6.8863736611,-4.1068926182,-1.0129102433,0.2718556159,-0.0455601376,0.3629300492,0.6078072014,-0.4589069246,0.0486642249,-0.1410477965,0.0405965679,-0.0879891505,-0.2692204691,0.1940234143,-0.7734016417,0.1292214871,-0.4838628665,0.7931740897,-0.1599489913,0.6282639799,-0.7226026143,0.6643546055,0.6671889192,-0.3491010783,-0.8465821583,0.5702885616,0.8433129709,0.7504422384,-0.2384240043,-0.5848571748,1.0130800613,0.2974556909,-1.6364826155,-0.3259543156,-0.2846957773,-0.2764026554,0.4570278769,0.8211974434,0.0186653141,-0.2209003629,-0.0953931373,4.4622415619,-0.2981011147,-0.7788607353,0.9671240518,-0.6929280171,-0.4007054042,0.2732410018,-0.121433189,-0.0373839636,-0.1029428131,0.8167481741,0.075870674,-0.2609714348,0.1377170627,0.9204693523,-0.9896037687,-0.8363979278,-0.8422195378,-0.4029580188,-0.2764806632,0.7344654853,-0.4610018712,0.6103603533,-0.1090256695,0.1783823882,-0.5333883417,0.5222133471,-0.1373203734,0.1391908469,0.8888059244,-0.2528647912,-0.5405680757,0.1332086896,0.3436913639,-0.4142551738,0.1039333698,-0.6236904288,0.5292321679,0.0076287314,-0.4742422849,0.4181960072,0.9449339984,-0.3821433786,-0.5182101305,0.1254613454,0.4057288324,0.2362405517,-0.9182387303,0.6430878803,-0.0381551035,0.308097717,-0.1445915706,0.0810196528,-0.7946164086,1.0434742772,0.9048554906,0.362265502,0.4077416786,0.6804356925,-0.0016785766,0.2022160801,-0.1973945336,-0.1191120007,-0.7791722074,0.1717853938,0.3070349589,-0.0144288219,0.3747525576,0.8766876994,0.025696672,0.3268179996,-0.8725868089,-0.7765537591,-0.7050425232,-0.7810474157,0.6465018308,0.078138804,-0.3569469533,-0.6721271742,-0.1707454646,0.0983056642,-0.7701927528,0.1411842067,1.0236572387,0.1764093703,0.2331766491,0.0732988598,0.8841094405,0.3099968375,0.17341624,0.0960471055,0.2348353483,0.1588906697,0.1502707097,0.0449540848,-0.5412527144,0.0242486306,0.1179650781,0.1532822529,2.6175117124,-15.4854080039,3.5416766655,-25.7830994004,1.1945869532,3.8656469908,8.4795307543,1.5153489831,-0.1897276776,0.5464920042,-0.5897685829,-0.672476549,0.3015746554,-0.0946747253,-0.4281367198,-0.444059155,0.1076174072,-0.3859108791,-0.1301143931,0.7983852989,0.1400385953,-0.233276825,-0.5766124997,0.3887152186,-0.0837351043,-0.7785042313,0.9055751965,0.2649400919,0.418872403,0.7604831761,0.8712089012,0.8613866792,0.6923413884,0.5984434318,1.1702432505,-0.6101733159,-0.0445502967,0.2216293623,0.6653326235,0.5290178505,-0.2367280458,-0.1955972808,0.3254513571,-0.946806845,-0.1402322514,-0.8838492853,0.4059312361,0.0767746614,0.4161466951,0.4277254459,-0.0175937758,0.8589141735,-0.4438162961,0.1738137583,-0.8471743413,0.6286128366,-0.2442043509,-0.6149477624,0.0296233401,-0.4618446431,-0.8886951455,0.9987620075,-1.5801344017,-0.487081632,-0.1372779509,0.3505525506,-0.7012144164,-0.9813007646,0.7216004909,0.1255079795,0.7485162197,-0.4777433492,0.6365118131,-0.3714408236,0.0201168857,0.5104606039,0.4880797634,-0.3962355177,-0.5052295244,0.2908591915,0.258982443,-0.598249521,0.1166259888,0.3238232576,0.8351095405,0.6371828852,-0.0347760221,1.9084293077,1.0961580796,0.3947633343,-0.4046964153,-0.8837825892,1.5284636479,-0.1384945923,0.5794368992,-0.2055763118,0.4326653226,0.2643573154,-0.5046138032,-0.3549324836,-0.9127715116,-0.3465270452,0.2884661363,-0.4224587308,-0.5894162633,0.1349137827,-0.3180848254,0.3937117435,0.057917747,0.4842842236,-0.8229948876,-0.7062892251,-0.8456311763,-0.4227747169,-0.5687077853,0.3413204906,-0.8258070431,0.497051371,0.7018024801,-0.6948841279,-1.0324055681,-0.339363418,0.7605556556,-0.5842466325,-1.1142494328,-0.4754061644,0.6422741388,0.4496545803,0.3481024368,0.6287762778,0.1468436352,0.0568723304,0.316079777,0.3809616415,0.5238795041,-0.2127067861,0.2097316805,0.0463962931,-0.431427539,-0.1717046416,-0.6320522175,0.8208886479,0.3894606434,0.2278396341,0.7693385687,0.4769773659,0.1872159767,1.0443681974,-0.7335421779,-0.353358749,0.7704973822,0.7861130852,0.5415067682,1.0053607235,-0.6037400041,0.6156493336,-0.5736685618,0.1638275629,-0.9414470288,0.7140513148,0.2462949287,0.163352963,-0.3620860759,-0.0577856955,-0.0269473657,0.5440280246,-0.5867002931,0.4780884628,-0.3585676649,-0.1375680675,-0.4605831441,-0.1282671803,-0.6355192989,-0.6741119388,0.8934596375,0.6152810072,0.2228262256,-0.9421328811,-0.887150191,0.3993610854,0.9388440743,0.9377416284,-0.495153182,-0.8964195003,-0.4768926044,0.6928685605,0.2475769724,-0.0368195279,-0.3178174585,0.4918951496,-0.2484891074,0.0573018158,-0.701799447,0.6489269159,-0.0008582493,0.2318911585,-0.7419389864,-0.1248415411,-0.5890070954,-0.2801722821,-0.3586741639,-0.2490369329,-0.0901921925,-0.6580949696,0.3153472912,0.4907737813,-0.5700230149,0.2772717409,0.7223366428,-0.1371088529,0.2974751846,-0.078472,-0.6786802348,-0.0436895544,-0.017028442,-0.0271209906,-0.7472544102,-0.2492564822,-0.3342646191,0.0330919407,-0.2550220808,-0.7277255081,-0.0566589731,0.6336986207,0.0139141715,0.0620220113,0.1959572936,-0.7809479188,0.7520586331,-0.5215613602,0.7116009592,0.1796248632,-1.5457861084,2.1470701703,0.1201273337,0.2198248365,0.2262608298,0.337853027,-0.9660910331,-0.7687847936,-3.8728586092,-0.2531032955,0.0146932344,-1.4298920257,0.0469883532,-11.3505243988,0.0531255472,0.0791436875,-0.5776431056,11.2634152783,0.2077160986,-0.027783057,0.1391780939,3.5004194125,0.4641179343,0.085580928,0.2078546084,3.5367613056,0.1884525434,0.0823291607,0.1417916276,-4.0050557355,0.1102708757,3.0106566404,-0.6407530411,7.3989266252,-1.4851227081,-2.1428797096,0.3841076555,-0.1948392168,-0.6657642933,0.950652021,0.1011745055,-0.1457008522,-0.5970633995,0.3614253608,0.6181499494,0.3049355892,0.0588285707,-0.6791820452,0.5670149768,0.1425630833,-0.4659326833,-0.3145478283,0.1379038005,0.8416456745,0.1810264011,0.5600217869,-0.6568133368,-0.4373810687,-0.6951746609,0.5557032663,0.4457939574,0.7165182207,-0.514611527,-0.0197351408,0.1789250761,0.8562733466,0.7769897038,-0.5759365496,-0.450249625,0.7412148806,-0.6060278262,-0.8126494792,0.8094838619,-0.418455712,0.3307083542,0.4286903384,0.3263294116,-0.3026016997,0.5682438823,0.4450487503,-0.1581306156,0.5033618814,0.2821770464,-0.2966328923,-0.3592048067,-0.0145971045,0.0618100531,3.6033469904,-0.2024651121,-0.4250189123,-2.330738346,-0.650982127,0.2135628939,6.2774787186,0.5769369771,0.2735502917,0.511903727,-0.1480301703,-0.8784410283,0.4886752682,-0.7018564372,-0.4215504521,-0.3281066338,-0.6729233285,0.4077249692,-0.3824515488,0.2865016562,0.1595226438,0.3735311593,0.1936398402,0.004617536,-0.7313674475,-0.2038856899,-0.3169327106,0.733412129,-0.1029250512,0.5146989442,-0.2161072826,0.6924514129,-0.9832742184,0.464983516,0.682046441,-0.2354440624,-0.6046781187,1.2088555184,0.6757298106,-0.0220099588,0.621478534,1.1877070973,0.0564053749,-0.0116054725,-0.1548500313,-0.176891169,-1.9923431317,0.6245164988,-0.8190410236,0.2644075632,-0.5898363262,0.265619254,0.4240604529,-0.0914441395,-1.2348162382,0.5389513019,0.6521299286,0.3607497215,0.0117250058,-1.3613470585,0.4654865187,-1.2190294424,-0.7233746556,-0.8621924575,3.9930391925,0.0770393175,0.9814453263,-0.3641053543,-0.0608908455,0.7931432189,-0.0703191545,-2.5784218587,-0.006418697,0.5102349293,-0.5064027502,-1.5842337992,-0.4417872809,0.4442272223,-0.5270167601,-1.2909633553,-0.3589916336,0.1242446057,-0.7660763628,-0.3409445158,-0.2752323427,-1.1061214273,-0.7328907477,-0.7408453659,0.4949504329,-0.3082291327,1.6198902496,9.5826049733,-10.5689197711,0.7332223996,-0.3638021106,-0.2161740405,-0.5770820193,0.6284598354,0.0599069398,0.3050931376,0.1856756314,-0.8350310072,0.0507467514,-0.0204634257,0.1968701986,0.7737274023,-0.7523011193,0.8924764029,-0.0097127326,-0.1649110235,-0.0742660287,-0.2678961978,0.2318636922,0.3217723002,0.8623434671,0.1208459355,0.2919198181,1.3615764589,-0.0231828338,0.6764478011,0.8901033904,-0.252261533,-0.2331703961,0.9087512178,0.8240766868,0.443124902,0.2616678004,-0.4914786195,0.9457628521,0.3396880492,-0.858079693,0.5994052432,0.0719824308,0.482699033,0.4886101694,-0.0618020282,0.1693219143,0.4055769547,-0.1879257935,-0.759306529,0.4300626023,-0.1423202026,-0.0362748458,-0.4700117332,0.5435861881,-0.562515061,-0.3265683634,0.5578931829,-0.9416323976,-1.5577408454,0.9373469589,-0.087843861,0.0744066151,-0.55321467,0.4474873244,0.2759133895,0.6482067516,0.2423775913,0.0099624326,0.4238472342,0.768150298,0.2626360579,-0.3664349101,-0.7349253688,-0.3493497525,-0.2923306628,0.8428505076,-0.8642586225,-0.475432407,0.7241006962,0.1035360118,0.3075843784,-0.4440693918,-0.2674791234,-0.5540505617,-0.2395930793,-0.3781304653,0.8694444015,0.1526000684,0.3404824386,-0.8869844817,-0.720203718,-0.5291576653,-0.6042688343,-0.6943859001,-0.0184211466,-0.3510648841,0.5787682145,-0.365286961,0.0210209182,0.7163724007,-0.6331834998,0.7204405669,0.3516195327,-0.0401407245,-0.3565032264,0.2099428949,-0.2026743411,0.4084169011,-0.6467180528,0.7171956319,-0.4606583951,-0.5234806406,0.0307695627,-0.462264907,0.4414900208,-0.1937220732,-0.3212835323,-0.1967716945,0.3289343548,0.8940888552,-0.704629667,0.2329837888,0.7000415262
