encog,BasicNetwork,java,3.3.0,1,1470070365905
[BASIC]
[BASIC:PARAMS]
[BASIC:NETWORK]
beginTraining=0
connectionLimit=0
contextTargetOffset=0,0,0
contextTargetSize=0,0,0
endTraining=2
hasContext=f
inputCount=28
layerCounts=2,301,29
layerFeedCounts=2,300,28
layerContextCount=0,0,0
layerIndex=0,2,303
output=0,0,0,0,0,0,0,0,0,0,0,0,0,0,0,0,0,0,0,0,0,0,0,0,0,0,0,0,0,0,0,0,0,0,0,0,0,0,0,0,0,0,0,0,0,0,0,0,0,0,0,0,0,0,0,0,0,0,0,0,0,0,0,0,0,0,0,0,0,0,0,0,0,0,0,0,0,0,0,0,0,0,0,0,0,0,0,0,0,0,0,0,0,0,0,0,0,0,0,0,0,0,0,0,0,0,0,0,0,0,0,0,0,0,0,0,0,0,0,0,0,0,0,0,0,0,0,0,0,0,0,0,0,0,0,0,0,0,0,0,0,0,0,0,0,0,0,0,0,0,0,0,0,0,0,0,0,0,0,0,0,0,0,0,0,0,0,0,0,0,0,0,0,0,0,0,0,0,0,0,0,0,0,0,0,0,0,0,0,0,0,0,0,0,0,0,0,0,0,0,0,0,0,0,0,0,0,0,0,0,0,0,0,0,0,0,0,0,0,0,0,0,0,0,0,0,0,0,0,0,0,0,0,0,0,0,0,0,0,0,0,0,0,0,0,0,0,0,0,0,0,0,0,0,0,0,0,0,0,0,0,0,0,0,0,0,0,0,0,0,0,0,0,0,0,0,0,0,0,0,0,0,0,0,0,0,0,0,0,0,0,0,0,0,0,0,0,0,0,0,0,0,1,0,0,0,0,0,0,0,0,0,0,0,0,0,0,0,0,0,0,0,0,0,0,0,0,0,0,0,0,1
outputCount=2
weightIndex=0,602,9302
weights=##0
##double#9302
   0.922365687,-0.2333904781,0.8619044236,-0.0372775403,-0.5387264195,-0.1307688734,0.7949204784,0.5360483637,0.2690059366,0.377374293,-0.3090314282,-0.4135800745,0.8336279376,-0.0109968899,0.3277648793,-0.2558971873,0.3834260424,-0.3175473302,0.2215963761,-0.0415112331,-0.9041728264,-0.1836995615,-0.1820311045,-0.2170069248,-0.1656032331,-0.0813495149,-0.1501860983,0.2832890443,-0.1286296933,-0.8410397394,0.8454049472,0.7193970685,0.2816736162,0.0132333175,0.0460325743,-0.0128339888,0.7516360325,-0.5627353544,-0.2066834242,-0.4095546475,0.1810022079,-0.0858141941,-0.0808483458,-0.4076930319,0.1091860533,0.0265563443,0.1596851134,-0.6903451816,-0.8581906334,0.1227512707,-0.1364925156,-0.8513097227,0.9738042836,0.5339944315,-0.6391041224,-0.0649658195,0.5173686542,-0.2383881386,0.1906716424,-0.1911251117,-0.6696158755,0.9199327129,0.613916974,0.470012417,-0.67613433,-0.1288198983,0.318681796,0.4200916225,-0.1078461026,-0.1543419751,-0.1635020258,-0.422191521,-0.40959074,0.0377183718,-0.3109760554,0.8475456401,-0.8737808043,-0.0340136185,-0.0140897127,0.7334007584,0.216510906,-0.6209179654,-0.687733409,-0.1587597298,0.4315039413,-0.7266627658,0.3794073359,-0.847407026,-0.1355925903,0.0965815622,0.7329704374,0.0522146664,0.5887045972,0.4338294729,0.4320932389,-0.459459952,-0.2640309614,0.4766612266,0.3372447663,-0.4436118073,-0.4822858161,0.4487509932,-0.8796561147,-0.3608595257,0.8733952803,0.0503619487,0.598833423,0.8439258518,-0.0767546756,-0.4799761532,-0.6518701895,0.2336333955,-0.2309653411,0.143253912,-0.6190866188,0.4005091485,0.0673271758,-0.6804004004,0.440348984,-0.0505067481,-0.3790914607,0.311606297,0.3934046741,-0.6341591681,0.7496395334,-0.9440782611,-0.2369184012,-0.5708104624,-0.8193775207,-0.4661641085,0.8105709864,-0.9101605914,0.0194394301,0.0802019362,-0.1261967049,-0.0316650393,-0.8482384872,-0.0282347873,-0.3054876266,0.008564514,0.8976651478,0.8492428323,-0.1404644612,0.0515512162,-0.0852719551,0.3909208259,-0.1994754519,-0.3632482772,0.6980255978,-0.4543203172,0.6589389912,-0.073742635,0.6533434478,-0.5443326221,-0.162749245,0.0811121175,0.0122821133,-0.5409363664,-0.8755222961,-0.7159813915,-0.086710027,0.0553332564,-0.4387589625,-0.8990802685,0.0466891031,-0.4544987072,-0.1838406864,-0.272310885,-0.3468369666,0.0741188425,0.209856293,0.1362768923,0.4415079755,-0.4900149446,0.0693656663,-0.0449796389,0.1745438827,-0.1150483116,0.1093998046,-0.2584870284,-0.2960193119,-0.2399013219,0.8832395858,-0.5594782224,-0.3670332197,-0.7847213751,-0.5229145181,-0.7415031726,0.4329406795,0.3408302989,0.0499829232,-0.1063902568,0.0154571756,-0.3193876194,0.6828301233,-0.1084512002,-0.0755534116,0.0888179716,0.2528737826,0.7899984059,-0.4532975023,0.2557805912,-0.6632125768,0.6366534293,-0.5870853536,0.2460419131,0.4458717043,0.7188377927,-0.5411802687,0.5470567759,-0.9297624055,0.2321740482,-0.1121776219,0.1511090477,0.8899363638,0.0599917697,0.1404048079,-0.1991127104,-0.4130635904,-0.0497189931,0.0649771548,-0.1695171625,0.2143029924,0.2721083688,-0.9680409356,-0.3946093917,0.9052680291,-0.0078148185,-0.180281645,0.3883448591,0.1713123975,-0.1854079207,-0.112534946,0.1240208427,-0.3614340832,-0.5292509495,-0.7541727809,0.1623508569,-0.1724889873,0.5043459809,0.698173652,0.209410127,-0.6429013019,-0.0221126787,-0.8958749859,-0.2865315433,0.7847762487,0.878665375,0.8112574481,0.8743790018,-0.0003817443,-0.9542450644,-0.7873853634,-0.9745759747,0.4714523381,0.2198419623,0.182736378,-0.0341258059,-0.0070754625,-0.4987719638,0.5438389888,0.5955725781,0.4941690051,-0.9523433542,0.5257756593,0.2606182141,0.4933027753,-0.9932340462,0.8903809609,-0.7523057495,0.959279355,-0.1404177763,-0.2068892074,0.1204710922,0.0858092679,-0.3693305157,0.3791636865,-0.3216469131,-0.2126451158,-0.1075295132,0.4782727279,0.9570722227,-0.0618239846,0.2572113814,0.2006155561,0.5675987223,-0.1305714139,0.1812298737,0.9528404954,0.7850483913,0.0374643195,-0.2456201969,-0.1898759457,0.524698654,-0.6654839582,0.0658588223,-0.2285722063,0.0009083331,0.8521744291,0.2512915992,0.8117881749,0.2729603534,-0.073669674,0.8494299689,-0.192316832,-0.5705356235,0.1131442773,-0.1538171207,-0.205612897,0.5211548792,-0.2100725352,0.1321864503,-0.2514329643,0.9460887746,-0.2782816513,-0.5040735944,-0.2738078287,0.3659537759,-0.685628643,-0.2064778445,0.207306776,-0.7418617032,-0.219086021,0.9389567479,0.5602780803,0.1283378189,-0.148837731,-0.4122202319,0.8684010518,0.0070620097,0.6472540925,0.0799481835,-0.7093839309,0.2531926962,-0.3854203159,-0.0977711381,-0.1315463316,-0.615810332,0.4221585288,0.8790158178,-0.4568043055,-0.4818991657,0.4998183755,0.1596007965,-0.5534628519,0.2037172965,0.0290942541,0.0932107677,-0.3605014209,0.0176466718,-0.7394027274,-0.132285067,-0.0084324007,0.2310246375,-0.637729558,-0.7686007409,-0.1234335096,0.3345499852,-0.2846908592,-0.1410887338,0.1962755305,-0.067129164,-0.0905899403,-0.494225447,0.0620512396,0.5594780343,0.5731820228,-0.0078113785,-0.3614829051,-0.390363526,0.1579300437,0.1844106697,-0.5843910896,0.3670950454,0.1422712569,0.6736136063,-0.9042956873,0.0760246394,-0.2668995023,-0.1532361667,0.732656053,-0.2381146972,-0.2521950454,-0.0624739336,0.1204908601,0.2100334141,0.6628764422,0.0331682803,0.702913865,-0.0203108519,0.1585280635,-0.8111469143,-0.1835778691,0.4928474455,-0.06920099,-0.9205193019,0.1284091726,-0.2708607875,-0.7545028184,0.2015684833,0.5414708173,-0.0357002184,0.2355449495,0.4519241773,0.2608454419,0.6601291169,-0.1796041014,0.2047590691,0.1308450024,0.1486987628,-0.8253693677,0.5746397583,-0.6605493805,-0.0655894768,-0.2454584765,-0.5867687771,-0.3219631971,-0.2107192917,0.7481674176,-0.054449573,0.0905307175,-0.3133456956,-0.1757816969,-0.0159827829,-0.4566853673,-0.1091819554,0.16755335,0.8023516267,-0.5383167738,0.9716828622,-0.798002259,0.0435273988,-0.8631294256,-0.2938639625,-0.1519172173,-0.0388081902,0.1147359142,-0.3548674389,0.3950743059,-0.8013897736,-0.1498475453,0.3857140834,0.048900065,0.2213374259,-0.0797662593,-0.0098959688,-0.082163029,0.2087646364,-0.480599672,0.4158881415,0.2678399219,0.644393197,-0.4331191897,0.3180871053,0.5800255688,-0.3381894634,0.9878515652,0.1191620516,0.2789857311,-0.7928320705,0.6016672654,0.1664126921,-0.1574582918,0.7564377119,1.0215615743,-0.8578142384,0.1489164324,-0.0846405259,0.2684645492,0.6021161697,-0.1218115045,0.4256152669,-0.1733806145,-0.4857761933,-0.3500752922,-0.3148039922,-0.8422657911,-0.7950193192,0.7509936903,0.2779793654,0.4480198352,-0.9898574839,0.2095172475,-0.0590118528,0.1874593549,0.8352592993,0.328631403,0.2081560568,-0.4943038668,-0.1373755174,-0.4614460837,0.371156807,0.2236179698,-0.1013082441,-0.0336430183,-0.2123364479,0.1513562077,-0.7328837146,0.6766093613,-0.371514174,-0.4252055481,0.4529566254,0.0640264949,0.5423342897,0.8463659207,0.3874027931,0.7008319946,0.4431576416,-0.5954972774,-0.0746993929,0.3500326027,0.4354962264,-0.0243852547,0.0204854896,-0.8059151318,-0.7057182606,-0.1204662306,-0.1780426779,0.1821923575,-0.3510556611,0.1785304373,-0.2529378088,0.0613124644,-0.9645052859,0.0206164828,-0.852861591,0.1979419488,-0.0507302549,0.5431036483,-0.1536637634,-0.5645383454,0.5921629548,-0.0576687236,-0.0366050067,0.2091553731,0.1446181389,0.3109727658,0.5962912975,0.1048713329,0.0990657199,0.4268947501,-0.1549572753,-0.4701370539,-0.4956944289,-0.4030870435,0.2881111973,0.2328794368,-0.1392749554,-0.4529575775,0.5124154439,0.5251606382,-0.0770604922,0.3271600109,-0.3334270305,0.651472871,0.0054305672,0.0913926578,-0.5076897099,-0.1381404422,0.422959813,0.4181779018,-0.0093172261,0.3661084729,-0.8997064596,0.3525407672,-0.1950425056,-0.7418828491,-0.5215270918,0.5497652418,-0.6583926147,-0.2509384879,-0.844896023,0.0540973501,0.2214522371,-0.0649474564,0.123754107,-0.8804270452,0.6991502573,-0.0028211204,-0.1991790633,0.5342194354,0.1735069248,0.9320686862,-0.0689883534,-0.4290475272,0.5180782193,0.7485721532,0.1799168414,0.1132410403,-0.097263944,0.8904833618,0.780118758,0.8063431639,0.738635817,0.483713353,0.7265968083,0.1188624683,-0.355008363,0.1517550896,-0.957438391,-0.7065856039,0.7174373534,0.3955941423,0.1397846206,0.9045000716,-0.2895711873,-0.0254624363,-0.4182474718,0.6863306278,-0.7508801924,0.5519007245,0.2245356185,-0.2226653049,0.0829464379,0.3199235602,-0.2943230463,0.1021763382,0.2566049966,-0.0708559167,-0.515838238,-0.0900238486,0.6317743515,0.4858578288,0.3595077291,-0.6843943561,0.3334159018,0.4103270135,-0.1131364879,-0.0705668,-0.2324940245,0.1612883608,-0.0966766196,0.5612178722,0.0264636828,-0.4916035313,-0.6466730023,0.1488740512,0.6277194229,0.4635807326,-0.7082314357,-0.2745841692,0.3789720538,0.2655396301,0.9537080687,-0.0947186809,-0.6257863285,0.0377799349,0.3026075245,0.2014396416,-0.8823993901,0.8583328733,0.0460409605,0.1981472124,-0.925301466,0.7124031195,-0.7611405431,0.2598833383,0.1103197909,-0.1276167208,-0.9107291934,-1.1046707551,0.2607030027,-0.0082220026,-1.8199982825,-0.2261140488,1.1314557916,-0.6539050074,-0.0523061651,0.2609056431,1.1122855175,-0.2003387189,0.055436383,-0.1329997727,-0.1087140479,-0.1017638334,-0.614404272,-0.2238535098,-0.5469562287,-0.8009321383,-0.1362924099,-0.1359839377,-0.821562928,2.6244984742,0.7105888124,1.0855206486,-3.0759237807,-0.6886640662,-1.1482813869,0.0637299192,-0.2877145512,0.4061521507,-0.1120025842,-0.2878166364,-0.3860646141,-0.2249716184,0.2100757317,-0.5406470079,-0.8198375907,-0.3027388722,-0.7938058802,0.6880304223,-0.9078869906,-0.5986158477,-0.5567435724,-0.5367817707,0.2252412298,0.5808084584,0.8362510218,-0.1755002321,-0.0130906703,-0.6470030253,0.7987825654,0.3299534789,-0.4452078052,0.2657769282,-0.5648916779,-0.0712404215,0.8748116143,0.4058546315,-0.1469140097,0.2752050717,-0.269142156,-0.3261696864,-0.0742266574,0.3873325201,-0.0717212102,-0.4176682048,-0.1210281129,-0.0401637111,-0.4359356104,0.5309374944,0.4727089667,-0.1410851063,0.1034301821,-0.1679585376,0.2956261758,0.6114731364,-0.582665251,-0.4539569322,0.1906390201,-0.5501054516,-0.0359443398,0.7765711465,-0.4133495145,-0.2445988796,-0.3508628595,-0.6143165876,0.1686433301,0.38166168,-1.0180054149,0.6200796946,-0.2494741076,-0.0322045716,-0.176178794,-0.2685322673,0.1124649795,-0.6410095954,0.3915496772,-0.1176665048,-0.8274036013,-0.9238959748,0.4947871513,-0.7268420443,0.3597530665,-0.6485792652,0.2802059121,0.5594611655,0.1145635396,-0.8159531162,0.0147086559,0.540234232,-0.2069924254,0.5726323917,-0.2652285845,-0.5167445044,0.4081560905,-0.2785415214,0.270212968,-0.4519913817,-0.4650791707,-0.305994154,0.846799249,0.1505977099,0.5826786533,-0.4968901421,0.4167096022,-0.1497321773,0.8719968885,1.0016809467,0.2227427994,0.8237212304,-0.3280156673,-0.1260297672,0.8094037353,-0.5889012902,-0.2431921101,0.4110078666,1.7555511169,0.5531020543,0.3320875407,0.1474841954,0.0208134047,-0.4228099207,1.1924635787,0.667276883,-0.3498673538,0.4833350074,0.1806048134,-0.5501119347,-0.6316440355,-0.4809418944,0.4831157148,0.4207891049,-0.2388212086,-0.1341624763,0.0620856452,0.1730443214,0.4184428624,-0.5988672351,-0.2152951314,-0.6322727752,0.0784575486,0.4138713433,0.7829143915,0.0796823159,0.6223636662,0.3914194982,0.5963729182,0.4036682294,0.4842962483,0.4349254822,-0.8362110311,0.4090319173,0.2291879123,-0.6549419708,0.3276018814,-0.6029718392,0.9092355982,0.0268408839,-0.1238202934,0.5932355753,0.6860663248,-0.5617931471,0.5182104242,-0.2791647606,0.0354533911,0.3717621526,0.3940489311,0.6557574177,0.4837692045,0.170878681,0.5379420608,0.4986361561,-0.3354863413,-0.3333054917,2.7868668736,-0.503769577,0.7838680554,-0.3766022701,-0.4591778836,0.8395300149,0.2021964175,0.7511863164,0.2364348189,-0.4977048182,-0.0292109702,0.1607464877,0.8559335697,-0.389164919,-0.908856414,0.2628285442,0.1845409873,-0.3749548399,0.6141242705,0.1780464466,-0.5032629082,-0.7601709597,-0.7189267973,-0.5256074236,0.141493302,-0.7593419262,0.1559395235,-0.2473956926,-0.3561889224,-0.0723144905,0.805183373,0.2942657283,0.9189734055,0.0223236833,0.1734418744,-0.4060298987,-0.3374317995,0.3932539842,-0.7398002281,0.0590727231,-0.870875352,-0.0724461004,0.303998781,-0.4211542333,-0.6524107264,0.0275882665,0.3239435477,-0.824717036,0.678068975,0.4562156101,-0.6523132854,1.0067680253,-0.4613873194,0.8521433916,0.325513694,-0.335496163,0.1197908765,-0.0805778115,-0.120882709,-0.9169345979,0.6092293422,0.1490862703,0.907023794,-0.6050129902,0.695098185,-0.1127791212,-0.576183824,-0.1894878156,-0.3427904823,-0.0361094476,-0.4276210145,-0.6597948699,0.7134226966,-0.5649939935,0.7958335347,-0.4517612715,0.7813150588,-0.5861184938,-0.185922936,-0.8811820716,-0.2053628144,-0.2776299956,-0.5175980744,-0.8059372491,0.3820020368,-0.3381971222,-0.2374720328,-0.4436210706,-0.0097544086,0.5187240885,-0.5831032706,-1.0374698114,0.2741357934,0.4565996993,0.4660373076,0.2339052246,0.2072135275,0.582417868,0.4141243398,0.6540133278,-0.0336992053,-0.1699929805,0.3253806637,0.9118799401,-0.0235872287,-0.4531018912,-0.0739527669,-0.7691663176,0.4500432609,0.8616209437,-0.323661175,0.2821836842,0.5212378414,0.238169683,0.2260487835,-0.1382529027,0.2808096614,-0.4972083914,0.9639518874,0.2575728151,0.8758342696,0.8734157753,-0.1469344322,0.14068446,-3.6497099165,-0.6015205991,0.0531774413,-0.8025528324,-0.3602618927,-0.7991932071,-0.737824378,-0.1857982974,-20.5194203502,0.6189436755,-0.932862181,0.0572855076,-24.4719882804,-1.6626312288,-0.1307445593,0.154568545,0.4242111125,-2.9048169542,-1.6143530041,0.1792857086,1.664678478,-0.7448669007,0.1826490949,2.489027027,-2.5487173559,-4.7637042618,0.7798652819,-0.6528181276,-0.1263294722,0.4776746525,-0.3504978307,0.1461897,0.288212291,-0.2909456699,-0.8804978797,0.6534607287,-0.062042195,0.29025,0.2459297032,0.2946074444,-0.1570058877,-0.6216129399,-0.571919076,-0.6443225721,0.6035197138,-0.574416614,0.3094080579,-0.8098733832,-0.2398526804,-0.7233177669,-0.3317491933,0.9320982548,0.4901854282,0.7830167298,0.0798761924,-0.5683317864,-0.0314145922,-0.250398593,0.2402277675,-1.1963795828,-0.1825663199,0.4157350228,0.3285134937,0.9627890672,0.3991062258,-1.3047528004,0.4210025002,-0.7603467893,-0.2908453829,-0.0339515204,0.6836439895,-0.5156698894,-0.5401005887,-0.7370633953,1.0034967937,1.8403216747,-0.1569114605,-0.5455978868,-22.8631580252,-0.1826275583,-1.5490102484,-0.5879008969,-1.0955925466,0.7351662805,0.3635746795,1.2841000705,-0.7711018017,-0.7501438235,0.0006319268,-0.6581913152,0.2934542089,-0.0816749338,-0.0661176012,-0.7032469853,0.3547191476,0.3313104445,-0.1425162148,-0.056448737,0.1623508884,-0.6268510444,0.3166181857,0.1695541683,0.8032868741,-0.0078195161,0.1392686468,-0.179742603,0.6246048571,0.2122309766,-0.8885050962,0.8286289827,-0.1611031178,0.2749171275,-0.6652159659,0.6435280936,-0.4809667758,-0.8522977527,-0.1821578144,0.5262680336,-0.166098059,-0.8929647677,0.2003820977,0.7841662185,0.2522891523,-0.1797878646,-0.3048221393,0.0622593688,-0.5333195054,-0.2270305507,0.7735055105,-0.3786663464,0.5285858138,-0.1088168997,-0.3632462715,-0.4226275968,-0.7828702974,0.5547811057,-0.1390111721,-0.5645579408,0.1700407324,-0.837058571,0.8376561696,0.0099567635,-0.8458497065,-0.6005040534,-0.8644314063,-0.0836453626,-0.6424164509,-0.4197581238,1.1664785551,0.6711146186,0.5689497526,0.3720430829,-0.677128041,-0.5459286099,-0.1536366589,0.8073113684,-0.6069581416,-0.4836555511,0.1302769074,0.2922143192,-0.7766656324,0.04556522,0.2697131627,-0.4873610894,-0.32896956,0.124973056,-0.8399667244,-0.6410088347,0.4370379347,3.2424479789,0.0657708702,0.0205486005,2.87579595,0.6047774708,-0.2798726829,0.6292562157,0.1718402727,0.2413030909,-0.6557032154,-0.4028217407,0.5016256052,0.7775130931,0.7352345667,-0.5447625487,-0.6418571092,0.4918111435,0.3854134637,-0.0417593971,-0.161983262,0.7187823424,-0.3849875114,0.0109153786,-0.9983022253,-0.5437412712,0.7657291973,0.5949920034,-1.1058450529,-0.873259041,-0.5266755912,0.4921377877,-0.4098203843,-0.4306178214,-0.3451666411,-0.6968771458,-0.5367840326,-0.5052296248,-0.8735165376,0.2217480914,0.48080401,-0.5536617049,-0.4813010491,-1.5130641707,-0.0746941696,0.3976648775,-0.5645488574,0.1250244688,0.1707536214,0.344544066,-0.1286805626,-0.6829692053,-0.7358265142,-0.8933343108,0.0804261354,0.0802283677,-0.6170085562,-0.5573675149,-0.3342011693,-0.9657324993,-0.4215213988,-0.032721681,0.2163050462,0.8258028489,-0.6023921378,-0.3998303562,-0.8410996644,-0.7120488218,0.4296567272,0.302885138,0.063822641,0.7020504112,-0.0023054266,-0.9819875244,0.5287935821,0.6372016691,-0.2408119965,-0.2074690277,0.7808345263,-0.6206936451,-0.4309444206,-0.4953436957,-0.6196068147,-0.6403166688,0.1770364134,-0.3849122282,0.3745092321,-0.9563333652,-0.9803395609,0.3303667999,0.2432223014,0.459415897,0.4153557386,0.2215999871,-0.3952636985,0.0620975392,1.2113256242,0.8679086751,-2.3311887156,0.3717629133,-0.3094249379,-0.1908027739,3.3789245156,0.1349495128,0.490705543,0.8522701811,1.9547778693,0.2362695909,0.0625827169,-0.0172068828,0.6974987585,0.7619353069,-0.3055587451,-0.3118619356,-0.1521690129,1.1748222776,-0.1734398251,-0.7910360558,-3.4487972134,1.0519864586,-0.0860316904,0.9356093268,2.0794446347,-0.7087992348,0.5678046468,-0.5625344128,-0.0892343884,0.667433955,0.1658016693,-0.2011453426,1.0778872336,2.6837736982,0.0407398354,-0.5947767665,0.4287742212,-0.3515145071,0.9052325994,0.4591505208,0.2635918065,0.1430605127,0.8015568113,-0.3189382893,0.4472212616,2.4156041704,2.3255676116,-0.9706170085,0.3931075162,-1.734446999,-2.1585808107,4.3440136174,-0.2673141351,1.3135481103,0.698281861,0.1853446101,0.6543700655,0.3425931699,-0.3218761115,0.9572197049,0.2977584644,-0.530363332,0.0924360812,-0.9636461686,-0.4565247741,-0.0731267662,-0.8695007007,-0.433696722,-0.2648210069,-0.5556394259,0.2642313607,-0.3142108659,-0.4614205341,0.3545799388,-0.0357781438,-0.3466338574,0.2580586771,0.1499717287,2.3194581496,0.3843547563,0.8669821523,0.8842657699,-0.1777172489,0.178288052,-0.2729151368,-0.8379187793,0.909618098,0.3888672967,-0.1180948451,-0.7977430643,0.1637862168,-0.0199697998,0.1074882911,0.0316250709,0.2178109259,-0.2894798736,0.6782584646,0.3751465441,-0.1568426495,-0.0833802621,-0.7879822961,-0.6323282184,-0.662908521,-0.5168090915,0.1381262603,0.0354420509,-0.0287501672,0.0665368523,0.0142139934,0.3309574375,0.4361678606,0.2108672195,-0.0488849559,0.2012914933,-1.510692235,-0.7849454418,-0.5011548815,0.6623221208,-0.5487188525,-0.5832018773,-0.1747274774,1.1767721595,-0.220576106,0.3352254147,1.2232126098,0.9921432146,0.546098404,1.2937613533,-0.5171138627,-1.0893155656,0.7771539149,0.1264086374,0.1003547305,-0.1793595568,-0.0078934,-1.1277157094,0.4483955404,-0.3557438402,0.5751166386,1.0003716159,0.0026053108,-0.4979340287,-0.3452466423,-1.1965633285,0.2240097485,0.800932411,-0.3440177855,-0.2192799716,-26.6759071723,0.0647910093,-0.1394542666,-0.1560356967,0.6449488305,0.0388770415,0.3778700462,0.1257702851,-0.8814914438,-0.0346286283,-0.8358642725,-0.1300753762,0.215675259,-0.8588101691,0.080885584,-0.5330400358,-0.8840736386,-0.6882247425,-1.216241539,0.4596666219,0.1518267907,-0.8708896126,0.861903778,0.8242979385,0.2375078534,0.3024932942,-0.8539354748,0.0570557708,0.0530534432,-0.1273120968,0.6345057396,-0.9271124807,0.4724343766,0.3607944293,0.4512705332,0.4101736229,0.192684147,0.3095967266,-0.7219842886,-0.9121107328,-0.9119378889,1.4661677005,-0.8595582948,-0.4650887115,-0.6006201941,-0.0627497075,0.2891569154,0.9101909099,0.1081934246,-0.9325138908,-0.4766224342,0.5188008869,-0.3007873068,-0.6435644537,-0.1808316641,-0.4296608569,-0.8716350575,-0.1300836561,0.133991008,-0.5625319917,0.2150075046,-0.0592222744,0.2295846525,0.3313721548,-1.3346876751,-0.2563566367,-0.790455832,0.011820262,-1.1344961949,-0.2448942906,-0.34402689,-1.740156567,-0.715754693,-0.1764434151,0.3209587555,-0.3372253698,0.7881940232,0.6076162897,0.3539265983,-0.5249979637,0.5378685181,0.2324663222,-0.9138854683,0.4448951002,0.1493440608,-0.1474310364,-0.4611034069,0.5726920965,0.4833546047,-0.2364567535,-0.4623756899,-0.027022835,0.6101440765,-0.9250746585,-0.4533859442,0.8055153344,-0.2342191069,-0.1273284719,0.1081526982,0.3921592624,-0.8275266487,0.249808124,-0.9773471707,-0.3186781311,-1.2799317149,-0.8530514151,-0.6531477234,-0.6855994411,-8.5995572585,-2.7259751832,-0.1309536013,-0.1139891434,-0.2484785651,1.3397964419,1.7209202899,-0.0892813333,0.3911658526,-1.8746735281,0.0360601616,-0.2739025391,-0.1144586007,-0.8351021769,0.1750532039,0.0374369899,0.0552358385,-1.2940337903,0.2556039805,-0.127045391,0.0256878991,4.805118504,-2.4461940733,0.1333424316,-0.5219640345,2.6173083022,-4.2194679853,-3.6665301171,-0.3285718366,-0.6736755451,0.0629609199,0.1819474073,0.0720943366,-0.5181493175,-0.7546104645,-0.381048002,0.7064540787,-0.5259070686,0.7738540349,0.5373218104,0.0478206606,0.2853737974,-0.3932912428,-0.914019605,0.3735606124,0.5199690516,0.2471009665,0.0620897269,0.3364397995,-0.2261836614,-0.1365292843,-0.1930837807,-0.6405116944,0.9688621065,-0.3896332054,-0.6558302904,0.5013690008,-0.0107112708,2.6895261653,-0.9263197841,-0.1466084771,0.8409660764,0.7364259738,1.5172067168,0.1802379355,-0.0246481523,-19.5371309957,-0.610750109,-0.7173745475,0.1567998558,0.3354229709,1.3022582409,0.2940979326,0.1019557226,-0.70123026,0.748844343,-0.5286871628,-0.1776580357,-0.5353960659,-0.5896834093,-0.3278669907,-2.2285760518,-1.3685909113,-5.9578525643,-0.4582306202,1.6315918392,-0.3004396376,-3.589325238,0.6892046746,0.597477006,-0.8725877939,0.3155226935,-3.4148016804,-0.8025064693,-1.2333025184,0.0398093407,-0.2173162162,0.7670627749,-0.0288489727,-0.7532704941,-0.3098616816,-0.1678156336,1.6921271651,3.7486250741,-0.4976204562,0.3409449454,-0.0943739388,-0.5270772448,2.9627844682,6.8494927955,0.3984631241,-1.3126452145,-5.906723765,-0.6826665508,0.2313260205,0.9722000187,0.5583121526,-0.9271019316,0.2212731064,-0.0290731735,-0.4276986443,-0.9880159968,-0.9727951303,-0.7809582749,0.4658985624,0.5923982232,-0.7323836833,-0.286426482,1.0931479318,0.2989628413,-0.5097569675,0.1252625752,-0.5654558777,2.0255522265,0.2735460651,0.8215085178,0.4567264129,-1.024785521,0.7325370754,0.7105161688,0.4820248247,-0.0590412858,-0.5943121822,-0.8333396428,0.7127081176,0.2910828984,0.6877022008,-0.2549255962,0.7269573572,-0.2724700173,-0.420584822,0.0715582174,0.2502335643,-0.1303830568,0.1917143249,-0.1047469073,-0.840852822,-0.7690559846,-0.8389739404,-0.7559499419,-0.047953902,0.3005120412,0.0290548902,-0.2845743768,-0.5710423795,0.2400406138,0.2783347935,-1.1028097588,-0.3436469096,0.177855273,-2.7016550924,-0.9108976178,-0.9344229193,0.2388230128,0.1562725205,-0.2716891375,0.7862742414,-0.7331239837,-0.4815708542,0.29680124,0.2928044751,0.1467659147,-0.0712022276,0.2405390225,0.1155149559,-0.2817313324,-0.5600049192,0.537957608,0.3523439299,-0.2402502669,-0.0102245323,0.0217599102,-0.8526674104,0.3457484912,-0.3611664062,-0.1938199387,-0.8647216614,-0.846428308,0.4318921515,0.2736734846,0.6475411178,0.2907501232,-0.3502357413,-0.2302137084,-0.0361606347,0.1522838709,-0.6359037513,0.0246645814,0.0329551249,-0.5269241979,-0.6132533446,-0.297146877,0.1859723217,-0.3415163541,0.4714321772,-0.3135941261,-0.6104524361,0.7361160781,0.4392892654,0.3637574662,-0.3871826898,-0.6788004393,-0.7304719774,0.0145879258,-1.2519620095,0.5798513898,0.1546871221,0.3500933357,-0.6082379678,-0.1087200366,-0.0489272929,-0.4566299467,0.4287565898,-0.2382661808,0.4813245153,0.7394826758,-0.5705564217,0.1241119962,-0.2510505733,0.591558979,0.7368566029,-0.0777574369,0.9113087761,-0.6639640991,-0.2577370572,0.047392728,0.7295330701,-0.2928869491,-0.5508353244,0.1769581331,-0.0042684548,0.3135171072,-0.4723870505,0.239047622,0.2262849961,0.7973350707,0.239400599,-0.1187792691,-0.1177649604,0.2987516562,0.8171807674,-0.5169468006,-0.2001331186,0.7994447129,-0.6735036493,0.5533179782,-0.2423539128,-0.7654778519,-0.680269572,-0.1863909371,0.9385612535,-0.0979664502,-0.4667165519,-0.019339746,-0.6718255366,-0.6188467558,-0.2278613621,0.2153225199,0.6153159666,0.8741067719,0.3647086801,0.0483490846,-0.2747383845,-0.1957610197,-0.0105304725,0.6393434009,-0.0162415862,-0.416192551,0.795307741,-0.4627374331,-0.189370582,0.1754338674,-0.5185144576,-0.0923312574,-0.4893403619,0.1279682219,-0.4750461492,-0.1769110007,-0.7229258126,-0.7202011324,-0.1045019367,-0.3767783953,0.4673999209,-1.0463685119,-0.7569737033,0.0565658677,0.2159851382,-0.8838097379,-0.2385010271,0.6501568912,0.6216908863,0.6831346635,-0.4175245365,0.6010953349,-0.1470696565,0.975486707,-0.6763241559,0.0444822059,0.0608516974,0.5823450365,-0.4623486745,0.4956560346,-0.8002131263,-0.5648880859,0.3921989794,-0.4888206295,-0.1743327523,0.7352201957,0.9812950991,-0.7463971677,0.5389826456,0.1750604237,-0.1818107056,-0.3420439935,-0.0403813979,0.872557704,0.3759632333,1.0145344339,0.4054320871,-0.3593549658,0.6486983615,-1.1111004222,0.4413049626,-0.0168151509,0.3659609808,0.3365991932,-0.8237885747,-0.9250683009,1.0455930213,0.2231647804,0.3379247215,0.7970009325,0.8725864093,0.4527202198,-0.2320736101,-0.170966315,-0.4512452238,0.1265649777,0.3330397961,0.5900303351,-0.7476290674,0.5958012308,0.7926509368,-0.0407447239,-0.4434320552,0.031519542,-0.3778726523,0.1878568209,-0.0985014721,-0.1273500038,-0.9724917685,-0.5420102735,0.0852822437,0.5733969357,0.0942424595,0.1110036471,0.5888650978,-0.1501604309,-0.833287572,0.243228739,0.2300509689,0.4923762528,-0.7382375357,-0.6613047261,-0.1162277968,-0.17945161,0.3733627455,-0.6873332657,0.3486558651,-0.1500285758,-0.8174070344,0.7417406659,0.4539845993,0.8724526716,0.5294985394,0.2396884827,0.7205403225,-0.2395983629,0.6131912688,-0.5592711045,-0.4652479394,0.2613166356,-0.1654571638,-0.1169773137,0.3397669937,-0.8387290951,-0.6860444558,0.9075984406,-0.6761321874,-0.8925884224,-0.286164207,-0.8987805427,-0.3613289431,-0.6802500998,0.257500376,-2.0302902917,0.3942775671,0.3707285164,-0.6047238846,-0.8917611921,0.5696701129,-0.3398390929,0.4765130441,0.9444930835,0.8198995935,0.1239855596,0.0532484307,-0.475420656,0.6573946006,-0.4613704891,0.6414306466,-0.850500041,-0.2320701989,-0.9198668784,-0.1678382298,-0.0752619718,-0.9386338246,-0.129636307,-0.4807670845,0.1446374787,-0.1628741451,-0.5503046514,-0.1907228096,-0.0982650536,0.2768795571,-0.6645816925,0.1466640136,0.4962714532,-0.0546875255,0.011208114,-0.9535300373,0.7428602347,-0.6914697284,0.624409005,-0.936750136,-0.0144033393,-0.7766716747,-1.0670665101,-2.8005199697,-0.1616778664,-0.90761389,0.0135774335,0.9477989326,0.7987631073,0.104646719,-0.0038838826,0.0503044673,-0.9791561742,0.109811507,-0.6275181469,-0.0844230173,-0.6135698178,-1.1150675867,-1.0222732614,0.0916040053,-0.4923454171,0.7337677909,0.4630255445,0.2956480723,0.3415464573,-0.2167683945,0.3837544214,-0.2169839015,-0.8841813102,-0.7572947669,-0.1122126561,-1.9744688527,-0.290988706,-0.004941982,0.9472520422,-0.878446896,-0.2419232645,-0.6623198755,-0.2744213683,-0.3468418691,-0.4913504179,-0.3223104854,0.4325868745,0.7729949439,0.134349253,0.2529860613,-0.7758450906,-0.1167761138,0.4693295508,-0.0078030083,-0.2340903267,-0.3976821385,0.0604465272,0.3670184282,-0.8614703381,-0.3256361951,0.5193489966,0.1362152419,0.2403466897,0.921362834,-0.0758076989,0.9478608651,-0.6913663716,1.1849718762,1.2867041971,-0.7480545181,0.8754552366,0.3036361562,-0.7810621794,0.4931684135,-0.8666379656,0.4197793542,0.1167076995,0.1388506896,0.0235809884,-0.0824037019,0.464597995,-0.1460419332,0.448433317,0.7487202338,0.1054917884,-0.2258803212,-0.6500614895,0.5612212745,0.8679550412,-0.2422756696,0.7160881377,-0.2772258918,1.938681081,2.0432720062,-0.1210050253,0.9512748834
   2.570083522,-0.2415277747,-0.3062521451,0.6666160449,0.1682056246,0.4845754452,0.4070170376,-0.0075218249,-0.8591978905,0.1127484778,-0.048089139,0.4431059627,-0.231564973,0.8238744217,-0.9732756289,-0.2778575465,-0.0042335395,-0.865803682,-0.0908538538,0.3942412026,0.6290500651,0.3493874534,0.9708153398,-0.3184553245,0.1542177553,-0.8545622322,3.7315155948,0.7506897125,0.1503276547,1.3930443412,1.600576236,-0.486557329,-0.7559132814,-0.9996668171,-0.9655699759,-0.2667063571,-0.1677338444,-0.6708612557,-0.558124682,-0.614592461,0.2087779219,0.3192002777,0.3292510566,0.143008614,-0.5180990412,-1.2400580542,-0.9194895405,0.2828651166,-0.4452193336,-0.0005602527,-0.9530590835,-0.4530321926,0.0773774249,-0.3966314412,-0.5027163267,0.2936923678,0.0676792512,-0.5372267555,0.4813060759,-0.1365682042,-0.4362811888,0.4474989476,-0.3140042274,0.0521309594,-0.7448175111,-0.5213622329,0.0139216274,0.8030760884,-0.1346761276,-0.6247486572,-0.888580074,-0.0535227986,0.8061106877,-0.7577818854,-0.2047238292,0.696800219,0.048101282,-0.7040802501,-0.4478861899,-0.0951848893,-0.8868334747,0.4720734608,-0.2005539045,-0.8868822903,0.8773567845,0.3314757208,-0.7582636691,-1.2000410127,-0.0137677489,0.0527264144,0.450856149,-0.6916456619,-0.5694355739,0.4397843862,0.1129071004,0.4269045855,0.0951780188,0.3486911505,0.2806201495,-0.4290205949,0.5651599054,-0.3144968664,0.3259655836,-0.2091060647,0.9783560053,0.6817850172,0.1988131045,0.5298458454,-0.6012573042,0.8080108809,0.0927986522,0.6779251279,-0.3084560142,0.1989318707,-0.6002817155,0.2085229914,0.3332805878,-0.3734973049,-0.395964448,-0.5337399882,1.8293510605,0.7259229956,0.0211775511,0.8264618846,0.3767385104,0.0323715279,0.1244699174,0.2074076261,0.1771736491,-0.9800602163,-0.408285591,0.5638439126,27.8515763993,-0.927484336,-0.3176633227,0.8447319415,-0.6959588087,0.3848999871,-0.1956017813,0.887973725,0.251113495,4.1224788051,0.4317380757,-0.7691954839,4.2110122058,-0.5339211609,-1.0633657434,0.2380919221,0.9172102833,-0.7521944749,0.2431837661,-0.4609343362,-0.2436558503,0.8290860862,0.2861616149,-0.2392585475,0.8508898028,-0.1364161296,0.0171408782,0.4423121768,-0.7051351129,-0.8413542443,-0.5655470869,-0.4724399906,0.5102157076,-0.8714953391,0.3547280496,-0.6859643834,0.3846376223,0.2401930826,0.3025978998,-0.9238532884,-0.3952260728,0.5831801264,0.2899282087,0.985966472,-1.0016843245,-0.1558765156,0.1517333891,-0.8526658013,0.2216345355,-0.2079282995,-0.3757811924,0.1450689855,0.687050412,-0.0305808573,-0.075425757,0.2770770493,-0.5124782786,0.5675503493,0.2659084651,0.7782747265,0.8614360405,0.5793369843,-0.4184469077,-0.5912882636,0.2728466892,0.5080635195,0.035057513,-0.1395862729,0.7263536838,0.5496304263,-0.2142527277,0.7968526969,0.8494092754,-0.1566632117,-0.3052070793,0.8456532789,0.3763932599,0.637767693,0.2830791593,0.426422536,0.9512058076,-0.3342195813,-0.2684848687,0.0621751132,-0.0193297745,0.3179229664,-0.0924014017,0.1382278719,1.0374509333,0.7963464812,0.699161674,0.6047149215,0.1943519179,-0.4407472157,0.4379147985,0.5943276833,0.839477163,-0.2861018501,-0.847628011,0.4764745232,-0.90042171,-0.0851827891,-0.6346284551,-0.8952775589,1.1379053803,0.8913163182,0.8562564922,-0.4481160553,-0.1021334142,0.0533780388,0.0024411104,-0.407717917,0.5299815279,-0.9635175669,-0.0574193623,-0.0815014859,0.0432639146,-0.1879513477,-0.5859121502,-0.5459983434,0.7429725571,-0.2669895876,-0.6041977286,-0.2126303891,-0.6396185235,-0.3109414298,-0.1277232193,0.9642442012,-0.0723396632,-0.502799487,0.0506223677,-0.4572069495,0.7610638715,-0.4002003884,0.7578350469,-0.4577436574,-0.462374164,0.8260032314,0.3342047806,-0.3702265632,0.6381001106,0.686407021,0.7830604581,-0.5692779822,-0.7934044253,-0.4323064427,-0.0444842179,-0.7137088696,-0.9095576298,0.2743633343,-0.0406535555,0.4739988411,-0.6680889468,-0.1545741231,-0.0072126291,-0.1464663725,0.4693725061,0.8426428859,-0.7775721946,-0.1704332369,-0.4741375821,0.1529526823,-0.7638036831,-0.3150928731,0.3832854507,-0.27373143,0.596039409,0.4112595378,-0.3559918574,-0.8522251522,-0.0712340782,-0.5292187047,-0.75516332,0.3037227034,-0.4816956061,-0.2165226816,0.6822327699,0.7177284164,-0.6954103018,-0.0316922687,-0.2725535328,-0.6008835215,0.0597832464,-0.301392572,-0.4591728268,-0.9628212596,-0.7785079002,-1.1304728636,-0.0709251225,0.9147804055,-0.3449328723,-0.3474543304,-0.5692176124,-0.6473192265,0.4433305407,-0.0157246372,0.160135053,0.2027495635,-0.1928938273,0.5381879714,0.5084241845,-0.4160005343,-0.8450436003,0.1499001975,-0.2319185724,0.4761777608,0.1050560695,0.1133193762,0.9470720705,-0.6844573104,-0.7199399704,0.0187146971,-0.5938422883,-2.4004032789,-0.4520562723,0.8892272309,0.5022977334,-0.1480463494,-0.756977487,0.1317351314,-0.4158360222,0.2910778761,0.3402403645,-0.6929231406,0.26805208,0.1080569772,-0.016524335,0.2231801957,-0.795147158,0.2226958535,0.2482723231,0.5232934966,-0.2817835413,-0.1586118635,-0.7590992127,-0.0612543722,-0.2571776485,0.038644402,-0.6800474693,0.5799717175,-0.4841632515,0.2433430728,0.2930317404,-0.2434463237,0.782900738,0.7297530933,-0.6114546119,-0.7783771634,-0.0719552553,0.3198064965,0.9694209272,-0.7630974602,0.7332953063,0.4097304755,-0.4830147289,0.8506739066,-0.1512440173,-0.0618871325,-0.1621479868,-0.7223434976,-0.1712791391,-0.6234887246,-0.3249025118,0.2683154418,-0.3690550422,1.2036373635,-0.0363574101,0.3516127144,-0.000746236,-0.4711340825,0.3931904384,0.7205279676,0.5197162635,0.3861165529,0.3284130604,-0.2198260005,-0.0740195692,0.8195920756,0.0040260955,0.0677891891,1.0846939187,0.7810185678,-0.3529046614,-0.3853352663,-0.2338625732,0.8669353729,0.6477836283,1.3881849546,-0.1417755162,-0.6983329373,0.5035407654,-1.6486577724,0.184135354,0.0588661436,0.6445291709,1.5921168568,-0.1779652681,0.3144035794,-0.2153547474,1.8674088389,0.4625392267,0.7285139309,0.3923870831,-0.5459991903,0.8439405873,-0.0963493355,0.5965194214,-0.439097626,-0.5547912828,0.3265745146,-0.2393432664,0.5901471807,0.1490989292,0.1646831389,-0.1181425944,0.2763255623,-0.5831901257,-0.6445672412,0.2181953908,-0.2761233737,0.0996090644,0.4547576166,0.9509783582,-0.7615449497,1.0686010131,0.3192491844,0.7257108036,0.7071549493,0.3023100471,-0.4517055005,0.6236870342,0.7695757342,2.0725352313,0.3912379457,-0.5764788219,0.3980808158,0.3038053584,-0.2868934423,0.4027226132,0.381703839,0.7017401393,-0.190369708,0.6098328587,0.2514869254,-0.007855739,0.7767081084,0.0901438412,0.4759116189,-0.9663462525,0.4008113389,0.0784320019,0.432839077,-0.1160682056,0.2018659862,-0.5098271413,-0.2383114604,-0.157656921,0.0739651588,0.2041471904,0.5831033266,-0.4936018141,-1.8581244098,0.5139311175,-1.1353311186,-0.9506397172,0.4898490686,0.162640526,0.8569298646,0.8926154458,0.1680516455,0.2694929326,-0.8211151399,0.6285707345,-0.225765046,0.5257724697,0.0692645811,-0.8449750341,0.5572288462,-0.7250141794,0.6528358105,-0.5387232838,-0.1837860179,0.1620878294,0.0893914166,0.1055532977,0.0026643455,0.7642929876,-0.1089653017,0.2172868399,2.0430540353,0.382709826,1.0682309455,0.2252209821,0.7081119928,-0.0431660073,-0.5281528399,0.6865869817,0.2265187954,-0.2086853613,-0.5233066342,-0.0632567169,-0.2843073879,-0.5086477253,0.6332271277,0.4343191537,-0.7034675374,-0.5322212034,0.3847907823,0.7823936732,-0.0920204813,-0.6308332712,0.1880229613,-0.9251391156,0.7582298939,-0.2489977116,0.5430216909,-0.1035763382,0.7843932479,0.2897045442,0.3044705245,-0.5909279754,0.8939172804,-0.355084596,-0.6848922539,-0.9922418741,0.3758998849,0.6380691617,0.5456571243,-0.7474824718,0.7940037489,0.1820203177,0.0691120118,0.1413740646,0.8495768303,-0.3085883841,0.5198951297,-0.5520490481,-0.1210013288,0.045921579,-0.8063026,-0.3224026063,0.6292335514,-0.6377752601,-0.0700672058,2.0067341517,-0.9771603315,0.8099337984,-1.0362524948,0.4179234694,0.5678612555,0.2501682486,-0.6904498987,0.6973235734,-0.8955333787,0.5023570648,-0.2516588682,0.6224805474,0.8717932176,0.738807635,0.4143994891,0.2409596051,0.1448857305,-0.3270177686,0.1942212784,-0.952363845,-0.5481977302,0.2187021338,-0.3812417156,-0.8105349089,-0.319526142,-0.6957943782,-0.5470416714,-0.3330485362,0.5103485652,0.6718566664,0.3411986899,-0.6429437054,-0.6751622206,1.6481261887,0.3404264521,0.9062155096,0.7626420973,0.7190900309,-0.1391759585,1.3453861569,-0.0692224823,1.9082071925,-0.1623437315,0.8771559176,-0.3609475339,1.7697930089,0.0858630185,-0.172277825,-0.0703310712,0.1085818333,0.6263823052,0.3909678358,-0.6838021789,-0.01014801,0.2033790367,0.0714908358,20.8005981693,2.1165718797,2.7355042596,-0.8137878282,2.9933705186,-4.4975594414,0.7924918411,-2.0277483294,0.9859121661,1.0137649478,0.117588455,0.1206600513,0.6338966717,0.1073323486,-2.066690255,0.0799491479,0.1371522654,0.1629798935,0.2277842136,-0.0020409507,0.1353759103,0.223060795,0.5177469126,0.034067976,0.1514414728,0.298581435,0.1616499585,0.0856840946,0.0878273607,0.2904811375,19.4205159854,-74.9476953623,-0.7941918111,-5.2149351136,2.6005818837,-0.7306555298,2.8307300481,2.3957562951,-0.3234574989,-0.6573595409,-0.4145457286,-0.3745683349,0.1982435685,-2.6101922993,-0.1759306565,0.6848013636,0.2147883316,0.2055128917,0.0589872662,-0.5168064365,0.889854571,1.3461043156,1.4429688803,-0.2966331794,-26.4829763745,1.7214609072,-0.3309473758,-2.1119185967,0.6064030356,-1.9336353776,-1.4357817039,-0.4687166284,-4.4740557638,3.837200944,0.2010723659,0.3374359294,-0.7222234004,-1.0564123708,0.6887327941,-0.4155786629,-0.5340288528,-0.54996555,3.7500025457,-0.5199709341,-0.5030423457,-0.2770890257,0.2129595383,0.4064107547,0.2218689085,1.0502069112,0.6496602114,0.5582108128,-0.2144284976,0.2515275292,-0.1802597086,0.5376159167,-0.1339707697,0.5029282113,3.353005115,0.1421046775,0.1724784839,-0.3489235492,1.8482280669,1.134126447,1.0311313207,0.8570399615,0.45698605,-0.3279512343,0.8575634857,-0.3210157997,-0.0010659595,0.4917459892,0.0291472153,0.2253883774,0.9251457319,0.9557923615,-0.6570292537,-0.2915326963,0.3347812914,-0.3238840596,0.3233318644,0.6049346404,0.196326548,0.2628088342,0.3192146069,0.1887009147,0.3342997706,0.9392518669,0.4137470328,-0.2733080059,1.2927019162,-0.0406951003,1.2349784299,1.2667444662,-0.3494503973,0.1859364354,0.716072059,-0.5394399011,0.0484770623,0.39121525,0.6853302385,0.6598684221,-0.5504878911,0.1870739273,0.5558543076,0.6930870866,0.656867957,-0.1174511196,-0.3961704592,0.2064169451,-0.4984861204,0.3014519882,0.061420577,0.5034750391,0.0252574255,0.6441055665,0.4925021919,-0.5516554515,-0.3749785914,0.7451080196,1.766514666,-0.8016004001,-0.8924470002,-0.0818624486,-0.4026132437,-0.3749284621,0.9538024742,-0.9418252746,0.3734743345,-0.146492882,0.6439498013,0.6307692218,0.9523697996,0.3729956268,-0.0213205738,0.1558199834,-0.8934695789,-0.1219570282,-0.910942108,0.1585559665,-0.5685739715,0.2267996255,0.2793771612,-0.2335973534,0.0891226377,0.9050658389,-0.8701219247,-0.6583411672,-0.7765683869,0.0136522183,0.8859987159,0.1046300921,0.1227379561,0.5934612587,-0.1410606827,-0.2084690023,0.2535878106,-0.0743855724,0.7886052619,-0.386484815,-0.4004054009,-0.6178779599,-0.80351388,-0.5814060486,-0.6450916679,0.6706837391,-0.2187003625,-0.3552724403,0.7842616496,-0.0377638872,0.3212227851,0.9087678218,-0.1236929308,-0.4163726048,-0.3926993433,-0.4916111591,0.6844216435,0.7895650742,0.0920140011,-0.5221852257,0.3482336669,0.4628989246,1.0104191665,0.0103229163,0.5633312398,2.3432748336,0.5557097662,-0.4118037337,0.4096030809,0.6787345464,-0.3158643059,1.5545763201,0.5637676651,-0.4270808767,0.4384560737,-0.7047039207,0.31274506,0.1019372684,0.2401334337,0.3805363305,0.2967925547,0.1635897881,-0.1427357691,1.3255534577,-0.7111092063,-0.1525303949,0.9213843477,0.9600584955,1.0373035854,0.5680499005,-0.3398606568,26.0704307424,0.514135761,-0.0093775167,-2.4929525703,0.1291998476,-0.6585212203,-0.5684541885,-0.0776892657,-0.0490381936,-0.4482069362,0.0688158628,-0.0204790146,0.0184674168,-0.7296072125,0.0491440978,-0.1858593237,0.0458231288,1.0854540231,-0.1137245345,0.052422394,-0.0627317633,-4.7229653052,-0.5775432539,3.1855085297,-0.1820862421,-4.6996328653,-0.2667159765,7.052663869,-0.3033757662,0.1251909555,0.5152163505,0.8366756502,0.3721033223,0.7971645539,-0.1074284486,-0.4195629001,-0.2074255683,-0.2766605894,0.5099004364,-0.311622762,-0.4122885998,-0.6767659834,-0.4503068435,-0.1150233625,0.0286376864,0.8730514971,0.5253630367,0.1938270865,0.5981724924,-0.3454161513,-0.1811328113,-0.8328495253,-0.1499859442,0.5808246174,-0.4054223249,0.7275170636,0.5627306466,0.7446668132,0.0311456921,-0.0722065848,0.6339101179,1.112669334,0.6133102675,1.2100224587,0.2239506484,0.8556978925,-0.3785278772,1.2934196485,-0.43865083,-0.7240355176,1.2193965786,-0.7251683522,0.5821647181,-0.4253117511,-0.1485318221,1.0841162156,0.3398068774,-0.0564501521,-0.1962780903,1.8387070268,-1.2933170633,-0.4591126441,0.0670024985,0.8804490927,0.582424532,1.0610308665,0.6466773101,-0.3867454547,0.6508903451,-0.5777382333,-0.0590039582,0.9845798463,-0.5181201356,0.1763735129,-0.48013667,-0.6397382548,-0.5909800541,0.4859714232,-0.3369712959,0.4612254157,-0.8127129261,0.2548601551,0.7620769197,0.286545115,-0.0364589045,-0.9592822102,-0.4452101585,1.2897722903,5.0067853314,-0.523160395,0.0883277514,-0.0962425229,-0.8722211084,1.6948853367,0.9006189695,0.0637576967,0.8175565087,-0.5322312118,0.8173521376,1.0614010901,0.2651940001,-0.2083919807,-0.8661657374,0.5638260984,0.0929006153,0.5692259537,0.0233394231,-0.0176144687,-0.4016379139,0.0667629625,-0.5653268382,0.6747424718,1.361580692,0.5952632518,-0.0984605269,0.6587698905,-0.0574127376,0.7966390197,-0.3567347736,-0.53869889,-0.0454884517,-0.1743010193,-0.5167851647,-0.1183823663,0.711939003,-0.489643965,0.3191123848,-0.3216069095,-0.5337963456,-0.6385990076,0.7199519178,0.1295693156,-0.6213298231,0.1102485122,-0.7748926207,0.7525542053,0.6203481283,-0.5488796096,0.45778261,-0.8812223566,0.5028055427,-0.6097689298,-0.980697518,-0.4826797936,-0.7785183139,0.0852216962,-0.1806958475,-1.0684888824,0.4470205583,-1.3533420734,0.4040141126,0.509363147,-0.7880490039,-0.2257577281,0.8109945909,0.5739249857,-0.9549692865,0.4703834677,-0.1410517629,-0.4679462832,-0.094406794,-0.5620325486,-0.9012016619,-1.8654282947,-0.013344,-0.2950307972,0.5530176314,0.9074309687,0.6375865493,0.3834652401,0.1806710037,0.4929919776,0.4058645754,-0.9506217231,-1.1235380955,-3.751457586,-1.8123166506,-1.8262002352,-0.1446403257,-0.7817589271,-1.2436405401,0.1402017223,-0.3374174283,-0.3992791669,0.462072526,-0.0959271388,-0.5869422945,-0.2326008414,2.1132296212,-0.2686467848,0.7066685589,0.0716070982,3.2504594678,0.7371297414,0.8460349793,0.6758121515,-0.3217203691,-0.3006490028,0.7368426146,0.0884218606,0.1051782401,-0.3355372733,0.3603004737,0.3466242137,-0.8386490375,2.8596897961,0.5352763658,0.1734919582,1.2997307081,-0.6491393499,0.9309498884,-0.66020947,0.6693517804,-0.8548134994,0.294616874,-0.0431155951,0.7666276646,-0.7292610513,-0.0113882484,-0.6446242196,0.7900093073,0.6026808775,-0.6490287967,0.3730888577,-0.8912809853,-0.6330326451,0.8305231876,0.6700138598,-0.1948641514,0.1350838489,0.176237397,-0.536996909,-0.0659927147,-0.0381350054,0.1258114771,1.1951088032,0.7290805765,0.5276958571,0.6119801017,-0.7614574994,-0.2327063416,0.6003066357,-0.3397015979,-0.5723286905,-0.3746774363,0.1273530428,0.3704896675,0.3066407575,0.2080872133,-0.8601429821,-0.941413067,0.7054081489,-0.6885293724,0.5070325127,-0.4009960724,-0.4643784735,-0.4736350572,-0.0196047687,0.8185169896,0.754261576,0.782776333,-0.1387278555,-0.7825286132,1.5562380072,0.7761366708,0.6010825059,0.5363483692,0.1846565133,-0.2225673545,0.0714288863,-0.653395072,-0.3463935556,0.1849608666,-0.3893609962,-0.0381815226,-0.6166706233,-0.5734511335,0.4601877963,-0.2869162595,0.5519470363,-0.5917930446,-0.1022560429,-0.3526243009,0.1780468863,0.4996691337,0.3376838626,-0.5037477921,-0.3958684472,-0.3404287759,0.4557849129,0.6840128458,0.3557574525,-0.0804047045,-0.873707847,0.3546630531,-1.3380813836,0.2386106442,-0.8480523293,-0.4762177324,-1.2905189492,-0.3570862201,-0.3739902662,0.0047130468,0.0394137477,-0.0171866697,-0.6865486126,-0.5277196538,0.9001883531,-0.7479622167,0.3099040446,-0.3596226094,0.9061666868,0.7475476004,0.4831348087,0.0423548156,-0.4452217956,0.0277408355,0.3080990535,-0.2260223787,-0.473053934,-0.1818999518,-0.2046636769,0.7720105136,-0.2931549376,0.8683375516,0.2908484385,-0.9027472428,0.3216731459,-0.921562729,0.1863698144,-0.9548739342,-0.4611348093,0.1769543462,0.7010045638,-0.4364742721,-0.0514784594,-0.3675366163,-0.8378858491,0.4068672041,-0.1469614017,0.3694781581,-0.3340240745,-0.4108323872,-0.8163984078,-0.1227505145,-0.3273979471,0.1387935809,-0.9247001334,0.0589216138,-0.4887247572,-0.1065256049,0.2298717651,-0.5511596604,-0.0134980148,0.0462755808,0.6748446365,0.8014175359,-5.6792298625,0.8271668439,-0.2427883198,-2.0800180827,-0.1626367604,5.3611799971,0.3851060367,-0.5011324783,-0.43948363,-1.0872779923,-0.3039307549,-0.178500767,0.0429614073,1.8963436049,-0.16605344,0.0448958066,0.0470999284,1.5067566678,-0.3873600789,-0.4729175308,0.0376786606,-2.2768995672,6.9649868248,3.5258754706,4.7564147773,-0.7764410604,0.0903109894,-7.5411698852,-0.6508209707,0.1590780249,0.2768634156,0.1588790785,-0.1362747597,0.1982901921,-0.5691274218,-0.9320590377,-0.1971315827,0.9617641162,0.159609948,0.5952524794,-0.0757248664,-0.3482836682,-0.7010579271,-0.0676779114,-0.0936432518,-0.3856942311,-0.3245410696,-0.5109589113,-0.6082870635,-0.1489891313,-0.1169118255,-0.5416478717,-0.8127533913,-0.1506113051,-0.7134067839,0.7002388793,-0.1414920735,-0.6828059154,0.598731407,0.5661993084,0.6015385772,-0.8600244114,-0.3957772551,0.1587078855,-0.3722836512,0.4662104208,-0.924780807,0.8653002938,-0.112034296,0.7370444293,0.6031343224,-0.0939162474,-0.0847201348,-0.3520408878,-0.1760768465,0.3980877255,-0.024451772,-0.1777359396,0.7612047111,0.6560970585,0.6594734296,-0.1070735202,0.7356580627,0.1881301143,-0.138053811,-0.1908308938,0.9177665794,-0.495220328,0.4569491618,-0.2256143265,-0.220354279,0.3290343086,-0.0770278089,-0.7026092347,-0.2221714716,0.7251593593,-0.0260183694,0.2137924765,-0.1962388726,-0.7230260648,0.3335440432,-0.3525974069,-0.1635064591,-0.204231402,-0.7436869837,0.8678852351,-0.3143282821,-0.1811166534,0.859024336,-0.794379057,-0.6521962965,0.7668695123,-0.4808865802,0.7294352134,-0.3482601239,0.6320035236,-0.4636998842,0.6343309531,-0.3836592829,-0.5656519631,0.2614586364,-0.2495800945,-0.133362662,-0.5727036851,0.3664108867,-0.2748892549,-0.4228547253,-0.3302031453,0.6359919869,0.3582713163,-0.1644952241,-0.2511306302,-0.0230192993,-0.3280191764,0.9814200082,0.1301878507,0.2400903447,0.2864146607,0.7915358146,-0.2555816198,0.004070585,-0.3435195474,0.146963883,-0.4115584072,0.8823788224,-0.3940119862,0.9539871443,-0.2630663389,-0.0691036654,-0.9468783824,0.6649638446,-0.3819673154,-0.1966031352,0.2398367339,1.2398714718,-0.0381397172,-0.6560600709,0.711149754,0.4250189035,0.380868514,0.8253548164,1.1301116895,0.6497755869,-0.4779389829,1.0322329528,0.4155694583,0.1100484322,0.0575857507,0.8378461173,-0.2231169839,-0.3865630891,-1.0220302639,-0.4310448012,0.7459331733,-0.2724347808,-0.0870529968,0.7688179235,-0.4644918868,0.3409643278,0.8004748105,-0.2493498027,-0.4658504019,0.3171273415,-0.5579275199,0.4214492611,-0.2448304401,0.2143500806,-0.1469672784,0.1851894595,0.4067889958,0.6432471964,0.0386295533,-0.1715160757,0.7948152213,0.6018654286,1.0037164703,0.9278194359,0.7547333284,-0.8817691658,-0.5990907651,-0.1369482456,0.8864367797,-0.3346426569,-0.6815835747,0.3367306959,0.6409411107,0.0197355031,0.0617372475,0.5704273479,-0.2718798812,-0.3845402597,-0.8628007808,-2.21567577,0.9472104091,-1.1640777924,-0.1866828834,0.0583186592,0.4321355957,-0.4914066744,0.0378219217,-0.225976219,-0.1651382054,-0.9058066212,0.4634902004,-1.0745726945,1.3971991445,-0.3426729426,-0.906478613,0.5049981248,-0.7548451938,-0.8596081852,-0.7575564575,-0.7348760703,0.8355577642,0.3623646682,0.2534058181,-0.1743381453,-0.8626904422,-0.6164226015,-0.839203171,0.0950149445,-0.2157747606,-0.8376196543,0.2828801089,-0.1239161022,-0.3686020838,0.5641197781,-0.2826119465,-0.1622665084,0.2460738373,-0.3978063112,0.766855774,0.1203845565,-0.9659158282,0.8762792517,0.6972328827,0.1335269515,0.4297127385,0.1962009245,0.4179472655,-0.7153146125,0.5899348203,-0.6729114545,-0.8604667153,-0.6373034917,0.8494460994,-0.0062150814,1.0238929209,0.4950447297,0.6226626366,-0.6161914949,0.6955149099,-0.6668963513,-0.2685660448,-0.5033538923,-0.0191089135,-0.3919062026,-0.677482912,-0.0947245178,-0.7476059398,-0.8996981594,0.2508496544,-0.0829578807,0.8255848456,-0.1495678124,-0.8755160106,-0.117961841,-0.5584954305,-0.0017399846,-1.0079044581,3.1477412505,-0.141141577,0.2091551815,2.335978526,0.2097380519,-0.4667774227,0.2122339012,0.2648276026,0.3393698397,1.0758389027,0.323544113,0.2432400601,0.2880869631,0.6707311542,0.1013299575,0.2311479236,0.2511756845,0.5771856625,0.3018657662,0.2461471274,0.1805973578,10.2103519479,0.0826358222,1.1370521102,2.4368505691,-73.7302383956,-13.8000481299,1.1665270386,1.8337542986,0.2255711585,0.0511464793,0.2187099289,0.2538546199,0.1935582033,-0.3376354396,0.8431073006,0.3510374769,0.7008262035,0.3499814938,-0.1866721498,0.6266476132,0.131964141,0.4820703165,-0.8687407391,0.8143021516,0.0671947723,0.0865969602,0.2260519843,-0.001039816,0.5048134801,0.1509444754,0.6704671731,-0.9466642423,0.2947487517,0.5633184363,-0.0426386757,0.0976060344,-0.4429319696,-0.2902576183,-0.858095649,0.2552735132,-0.9593705632,-0.7327010934,-0.8076530368,-0.0818265704,0.6963276538,0.5319891613,-0.4202085951,0.3240897497,0.7239976748,-0.4006847297,-0.7192867498,-0.4241106944,-0.5720127288,-0.7227268155,0.656913258,-0.1939079713,0.2665693742,-0.5392067696,-0.3975082743,-1.0203893576,-0.3207366373,-0.1755936263,0.2458907243,-0.4938193615,0.3101792181,0.852947253,-0.211260354,-0.9891557236,0.0431411096,0.4835294223,-0.1233041021,0.1116480966,0.542400063,0.6258533146,0.5423152844,0.4061254293,0.1264872648,-0.3408851923,-0.4267902421,-0.1757258721,0.8994200246,0.0819774075,-0.3768027872,0.3920827484,0.3715671511,0.4776777708,-0.8495129027,0.5227651572,-0.1635446812,0.9261213907,0.1597308957,-0.8781187686,-0.5997404129,0.9821280283,0.6827618335,-0.5629930538,-0.5789038053,-0.0298428972,0.3627117808,-0.5573858389,-0.2822226628,-0.5961359546,-0.2075605126,-0.1604670796,-0.4041046556,0.2389126942,-0.2555202028,-0.0033042655,-0.8105471375,1.2021654585,-0.1072051596,0.897109877,0.4757544473,-0.88935363,-0.4545006886,-0.2564946796,0.3400177271,-0.580272629,0.2852732502,-0.3246338257,-0.2574588059,-0.8571254828,0.3328315747,-0.1761605807,0.6364029034,-0.6455410653,0.0541245226,0.3540782681,0.6850244597,0.2733915702,-0.8003994519,-0.7738915644,-0.0243097102,0.3141748695,1.1096410156,-0.7201538278,0.7558826925,0.3964825723,0.2164482309,-0.2248598264,0.8340805763,0.4695889385,0.8476476872,-0.4247797178,0.0974410826,-1.0296465584,-0.2943023631,-0.6368199937,-0.9200789593,1.4225417497,-0.3902602809,0.4725627764,-0.9678977905,-0.5467012204,-0.5218883579,-0.4188385126,-0.1596920902,-0.6853722114,-0.1921257178,0.5331314457,-0.2091878143,0.8338919612,-0.0110003265,-0.6190098688,-0.0125955509,0.6130676552,-0.7354382224,-0.7712341733,-0.4722761847,0.3092567083,-0.3136273539,0.3246699561,-0.2523318276,0.046180358,0.8730194902,-0.6171750515,0.6636357325,0.2901483265,-1.0267411806,-0.3053813568,0.4190209984,-0.5062079972,-0.6693688986,-0.7035930514,0.3941296862,0.5988199705,-0.776684612,-0.4108666892,-0.9440165383,0.2113092642,-0.2278122013,-0.0159531265,-0.5154479857,-0.587117108,0.2186000789,0.152181288,0.331933801,-0.0226209939,-0.2678775522,0.6034348598,-0.2868646958,0.2166717811,-0.1490057191,0.6820279264,-1.1321623085,0.387429964,-1.366988273,0.7518458547,-0.0346112467,0.3824466515,0.3700996363,-0.6475282074,-0.5043687436,-0.0671474705,-0.0082538363,-0.6552662735,0.5580540611,0.3216750869,0.1726719751,0.17647598,-0.7741543613,0.503194098,-0.3153746092,-1.028803569,0.2818254244,0.2337213945,0.7380786345,0.113753037,-0.4421978724,-0.155769453,-0.8017798785,0.3518086373,-0.520060233,-0.4552404439,-0.7005851719,-0.067309472,-0.6230296649,-0.5006269772,-0.1412595183,-0.7135957853,-1.7678844124,-0.7541747519,0.4902544402,-1.2310962314,-0.9577297449,0.7483157242,0.8376088277,0.123809391,0.5254214805,0.7807649142,-0.5792552985,0.3153211647,1.3117869976,-0.1347747134,0.6300785992,0.8571508836,-0.4867656454,-0.7129516508,0.1122607295,0.4069214537,0.0612699529,0.2762740032,-0.0989439524,0.9348858704,0.1005939091,0.3158476247,-0.5774550112,0.1825918322,0.2142334741,1.0934972596,0.1298837286,-0.6864700615,-0.037050846,-0.6021184434,0.4987749762,-0.3622181966,-0.9845283721,-0.5658740458,-0.4146511074,-0.4121837168,-0.126138273,0.8479316487,0.1167036165,0.6213460571,-0.0719761904,0.684286878,0.0024757976,-0.6948100577,0.0857738335,0.2835603696,0.056993602,0.0235402918,-0.6028762261,0.098329535,-1.6058877439,-1.6669307359,0.5335619017,0.8004203589,-0.4841077489,-0.5117918875,-0.034412577,-0.0978596576,0.5777181595,-0.5047741618,0.6201834286,-0.4257096423,-0.9931737398,0.1755757744,-0.6347256222,-0.0660211919,0.1348629658,0.34145824,-0.564740378,-0.3081126096,-0.026927229,-0.1541098351,0.3820167882,-0.0485925146,0.0969695009,-0.2436279169,-0.2462450479,-0.8806626156,-0.6574899688,-0.192296209,-0.0346820149,-0.7103049817,-0.5720379836,-0.1112087472,-0.7114252616,-0.154059297,-0.0294288652,0.4268744254,0.0310537381,0.4700041878,0.731042601,0.51826844,0.4032014174,0.8920842441,0.5673373657,-0.129945674,-0.0067679736,0.8204450163,0.0171301273,-0.3102285978,-0.2759122077,-0.1778999196,-0.6131318967,0.5655961406,0.3599532989,0.7201064572,-0.1731682468,-1.2677951875,0.929387332,0.3697984889,-0.8966550373,-0.1343141664,-0.2445048204,-0.7014413682,-0.632496276,-0.1992698306,-0.9183695594,-0.6796557109,0.2845179748,0.4874122695,0.7566557841,0.5199658959,-0.891951254,-0.205072302,0.5970159987,0.571468117,0.2483381451,-0.1087729675,0.0096240055,-0.0125579636,0.4514754349,0.2685908814,-0.3548435917,-0.585513976,-0.8267852748,0.0941755766,-0.5889474102,0.5026448442,-0.8959156561,-0.1193260564,0.3948924179,-0.0224843424,-0.5560974955,-0.0173449673,0.161427798,-0.5531398829,0.5761708802,-0.9396414744,-0.6150784141,-0.4677477615,-0.0739944091,0.7343927669,-0.2379084308,0.3486812294,0.5689524047,0.0527056904,0.352091199,-0.609148211,-0.2915326998,-0.4946261606,0.242735514,-0.6017360612,-0.7841996043,1.1609314131,0.2561079135,1.3225124158,-0.7032376775,0.3000916485,-0.9575397982,-0.6595404116,0.2836943587,0.0835577536,-0.7248402165,-0.8874436062,0.7091825288,-0.1405995079,-0.5050680895,-0.5687221138,-0.8193102116,0.0701832018,-0.8137098149,-0.2436885765,-0.2843196222,-0.1709488865,0.6838522597,0.3860018193,-0.8668958699,-0.072110782,-0.4515222069,-0.1164902006,-0.0432566916,0.0594731171,-0.4835413134,-0.5680601725,0.3144516699,1.1288407936,0.0628285947,0.391177202,0.5652562067,-0.0133873887,0.1033009834,0.4716113039,0.4414585522,-0.7830189003,0.1884639392,0.5020753891,-0.9192429757,-0.145194611,0.1196901801,0.0494555228,-0.0344943556,-0.2961543984,0.0214782215,0.8923561043,0.1826539658,0.2381483048,-0.2567133347,-0.7997576003,-0.5560293027,0.6942321108,1.3691874621,0.8155474015,-0.2719284716,0.7582613519,0.5719426657,-0.070340984,-0.4501747441,-0.5973591277,0.0496315252,0.1890241112,0.6619718632,0.149503002,-0.0262474818,0.0245815592,-0.2569418395,-0.5921003822,-0.1175105061,-0.4322187739,-0.1637500057,-0.6822787825,-0.5787354791,-0.6683032624
   -0.7682391586,0.5040949804,0.5330581299,0.0141873222,0.7589984199,0.8288183333,-0.4311934726,-0.0850246156,-0.7301599011,0.9086365383,0.7263995195,-0.1005118742,0.829017323,0.0080617378,-0.2047565817,-0.6110994065,-0.6880330039,0.7338884779,-0.4394549789,-0.8487006095,0.4899237667,-0.0903957036,0.9080652573,-0.0228757209,0.2439671907,-0.4312541195,0.9060606754,-0.3031303162,0.2279894517,-0.2182094606,-0.0327525509,0.2186011495,0.9063873391,-0.1606089646,-0.6003169953,-0.4825985747,-0.5912148809,0.6988550713,-0.5834578039,0.6298492628,-0.5898975927,-0.4138409131,-0.4787308188,0.2719609127,-0.0056459411,0.812846728,0.0156729914,-0.2376716703,0.0048947019,1.0058388559,-0.0047254442,-0.4809604072,0.7156317352,-0.8917662806,-0.4935230029,0.4072703605,0.3629275567,0.6059306649,0.3717064287,0.2323237828,-0.0278900647,0.1060067975,-0.5898651127,-0.4129984937,-0.5317818536,0.3102461621,-0.4263251371,-0.9201575007,1.3139258424,-1.3508492211,0.6313395709,0.4258943511,0.8962828915,0.3596361649,0.9252931229,-0.4650406661,0.9148830124,0.4027689974,-1.5792829953,-0.3459749959,0.2361603563,0.7300183811,0.5007052431,0.7344754064,0.6221752955,-0.4215968173,-0.2927949086,-0.636383807,-0.0454660665,-0.0818027016,-0.4114278301,-0.0756804361,-0.433213966,0.2403741573,0.204433297,-0.9521679368,-0.7515766267,-0.5300643558,1.5930832021,0.1586591025,0.315338615,0.9261517997,-0.3769495101,0.7362376245,-0.201943053,0.2682502,-0.0242498363,-0.9663418029,-0.3783941336,0.3111389034,-0.2685712999,0.1382488328,-0.5950588023,0.0249734276,-0.2658644799,-0.539658542,-0.1481639365,-0.1079228024,-0.2656503705,-0.9152082729,0.6052059988,-0.2396829976,-0.343975778,-0.0313212604,-4.5896117533,0.1541337498,-0.8727805843,3.3065840793,0.8174702142,4.0717495308,-0.7414556727,-0.6140232692,-0.989785335,0.6869769436,-1.4505206905,-0.2279801486,-0.4216554787,0.5099058237,0.0085480426,-0.4208170853,-0.371523591,-0.7852158689,-0.5033744098,-0.2651489803,0.1194947115,-0.4458284373,0.2704808795,-0.4330428364,-0.5603684653,0.0658695842,0.3156288456,-0.6680004945,-1.0574973782,0.4018103236,0.4118270687,-0.3707160444,-1.7720330765,0.0018790376,0.4492108445,-0.0624774905,4.8927519707,-1.730005444,0.50571234,-0.1830463366,0.5086058799,-0.1561034176,0.2531141762,0.4817041326,-0.1310275452,0.4561293739,0.111507145,0.5517141292,0.3361358555,-0.4014466908,0.722586425,-0.1105092258,0.3359958253,0.1086606019,-0.192485829,0.4643378574,0.0821297771,1.4030435108,0.0824588491,-0.7639286739,-0.1843360711,-0.0144572249,-0.1227634364,1.4286935325,0.1425414668,0.5759682413,-0.2498135191,0.6494953833,0.5921953005,0.5853049842,0.270928078,-0.0798057296,0.4945116115,-0.7696191285,0.3552681263,-0.6125766032,0.3684324474,-0.3551300165,0.4480497439,-0.2026277342,-0.1458659392,0.3040522109,0.1049534916,0.5742543058,-0.1475440152,-0.1223456414,0.5149504357,-0.0957261445,0.6013193095,0.5014358889,-0.1741927569,-0.7589668797,0.3895335475,0.0724613129,-2.4512712565,-0.1672306331,-0.2402739661,0.2709498985,-0.4621283706,-0.7267375225,1.0761706765,0.0741840651,0.1855032116,0.1510016203,-0.3698733433,-0.5134066549,-0.4441898662,-0.6614524764,-0.5073717627,0.453736828,-0.3508708661,0.8799058266,-1.1209961306,-0.2819778563,0.0410572576,0.2171862674,-0.1474582017,-0.3775419953,-0.9682290456,0.9787062817,-2.2642592666,-0.0655581222,0.0854186207,-0.2122298039,0.402510208,-0.0371720219,-0.0802283553,-0.5310311919,-0.3416423221,-0.0705726574,0.8248249927,0.3792481943,0.1023433392,-0.0599012846,-0.4767218662,0.014923712,-0.6760705086,0.6936481018,-0.160063793,0.4841653009,0.4174324292,0.3297398898,0.4913257389,-0.274725658,0.2899343647,0.1139852681,1.1321875847,0.9238767367,0.6464614932,-0.7304902762,0.7825292004,0.0137629799,0.1870510002,0.7444474127,0.7681839178,0.11191149,0.4423557475,-0.1912740137,-0.183809241,-0.3067800762,-0.3229012246,-0.6517742912,-0.7430689306,0.6973235141,-0.1896261761,0.6601380119,0.3771690999,0.3919050218,0.1118725819,0.3897669389,-0.5282748138,0.802262459,-0.0347125235,0.98110355,0.5925877076,0.7716952046,0.3988878751,0.188195003,0.0799092425,-0.3687768169,0.0796466533,-0.7114431728,0.1488774214,-0.47457347,-0.1495162011,-0.127029183,0.0048810407,0.466822599,-0.5789121765,-0.5067845243,-0.1300864493,-0.6771337862,0.3495891894,-0.22259147,-0.1802752901,0.2958392425,-0.1945923829,0.593162753,-0.0290369544,-0.2304309914,-0.6221519747,0.0535287328,-0.945586551,-0.5022035157,-0.4333328397,-0.3561573016,-0.6430005496,0.6861639341,-0.4865305739,-0.1369828175,-0.0809074894,0.7670032734,-0.2414893036,0.5831853351,-0.0441102374,-0.8063839247,0.9051365081,0.3153553495,0.6543259716,-1.4489463391,-0.315725752,0.5049790318,0.1919932357,0.4595554988,-1.3755688063,-0.1698529046,1.6103791482,0.5278922663,-0.0260223318,-0.9091114003,-0.0668379072,1.1445111803,0.4674801404,0.424541613,-0.2686390289,0.5993313394,-0.2390617851,-0.2605605413,0.5091285327,-0.3982812638,0.4529233064,-0.1549823622,-0.5746262416,-0.6164751972,-0.5634747297,-0.9349405145,0.4002407753,-0.6158233725,-0.3172289994,0.4327970564,-0.546454217,-0.5432917978,-1.6346218255,-0.1489245521,-0.435545709,-0.4962434835,0.6901017295,0.3486354697,0.3421378878,0.2214125247,-0.6035959124,0.3561687905,0.4477182172,0.0229101633,-0.5146043135,0.1795730214,-0.1340851559,0.8684908035,0.7174072828,0.7472470904,0.7824764517,0.176632548,-0.2284752807,-0.6368628033,0.0010902703,-0.3319384538,-0.9759980617,1.0624473187,0.3979571139,-0.9610955701,0.7703872053,0.8390905157,-0.5671991521,0.7594399176,0.8311438792,-0.1490214041,-0.2800756504,0.1600687781,-0.868893592,-0.3810495706,0.4188149003,-0.9116680698,-0.1395870558,-0.2591918314,0.9668896131,0.0984194533,-0.0220664922,-0.5002357584,0.5414029281,0.5011232968,-0.1274205399,-0.2302510337,0.8774404663,0.8528897038,-0.1885234293,0.1968040945,-0.3246420473,0.0624205492,-0.7317757803,0.3505633441,-0.100919792,0.6310315445,-0.709061197,0.8837844104,0.4003282709,0.4496781395,-0.6983682665,-0.0004051664,-0.6125184467,-0.5301481216,0.4998918095,-0.5732386651,0.9518000371,0.7216106338,-0.9563344687,-0.9157350065,0.2809985184,-0.0303595944,-0.1896790551,1.6742812955,0.4743999315,-0.3420585516,-0.1012522671,0.1249334034,0.031504445,0.7019589532,-0.6145482897,0.1555528736,0.5026746692,0.4820127911,0.3275917736,-0.5962212157,0.7566845864,-0.0942878303,1.1019238142,0.2648983686,0.3946506815,-0.1009806291,0.593838033,0.3574699602,-0.3481096283,-0.3728821673,0.6017879639,0.0560300768,0.023083113,-1.1611733136,-0.750591154,-0.763990988,-2.2733570022,-0.6232917944,-0.2919283749,0.9401512276,-0.5894941538,-0.089475763,0.2481963186,-0.9484877235,0.7496072249,0.3923413369,0.7264830247,0.6966553562,0.0085668232,-0.3778163264,0.3584353205,-0.6430225552,-0.4174996451,-0.5215768235,-0.8121220147,3.9792559431,0.7691065507,0.2156397076,-4.2004596611,-3.9110114142,-0.2212410465,0.2442777738,-0.2188045796,0.6757034204,0.4500015641,-1.6212847911,-0.4558806937,-0.0961864736,-0.3573922827,0.6914507558,-0.2224299953,-0.5853581952,-0.0572224439,-0.4492614551,-0.1097705215,-0.1621625954,-0.2334863101,0.4782518902,-0.2206392628,0.0027354978,0.0573238395,0.6377983147,0.5170329882,-1.4519430264,1.6459940241,-0.5895818946,-0.5298661548,-0.0569858909,-0.1331809437,-0.0291708843,0.9486386945,-0.9416217652,0.7323801959,-0.6568289242,-1.7089778905,0.2788067231,-0.5325923635,0.6646083647,-0.8816463462,0.9314064515,0.2343346287,0.546772414,0.7482288188,0.7722223993,0.1167895267,-0.6577908477,0.2956287076,-0.4354373303,-0.0796115167,-0.4972624744,0.3248399882,0.3108278983,-0.8775437811,-0.0938020108,0.646643358,-0.7092423949,0.0903938209,0.5444347457,0.0984447247,-0.7748210287,0.2788917592,0.2438808433,0.519608211,-0.5329131774,-0.3588962995,-0.7940801573,-0.5121643661,0.5045504851,-0.935898318,0.7957387815,0.3008603449,0.624208933,-0.0399509156,0.6384604762,-0.4573820956,0.2161852449,0.9386284828,-0.2767582348,0.1179840929,0.6539674571,0.0348245832,0.5502899581,1.0872997161,-0.1625970823,0.7775934709,0.5413297817,-0.0827786106,0.1852720792,0.8867583161,-0.2408251687,-0.499702359,-0.2728398839,-0.2802692824,-0.1586916702,-1.4938728265,0.1374270488,-0.347211299,0.8883724894,-2.4039408325,-0.753367926,0.636525654,0.2768598764,-2.2216038744,0.3715244761,-0.2399321223,-0.1361475616,-0.6218329264,-0.3014753594,0.0646308394,0.0859678398,-0.1075431085,0.9716502201,0.5305352943,-0.7373642348,-1.363413294,-0.01356567,0.4817145223,-0.9486848319,5.7209679631,-5.4185234545,-0.285663548,-2.8792356769,-0.1602869527,-1.8513667224,1.9731460206,-0.4109735229,-0.3457890508,-0.3024360442,1.001209875,-0.2761413468,-0.411660879,0.8998033454,0.7351019876,-0.0926415015,-0.3441442846,0.0100727112,0.7662331349,-0.393151123,-0.1446876733,-2.7521533423,-0.5585622843,1.60169738,1.6466780153,1.4673861172,-3.6144789089,2.8971068562,-0.9322795189,-0.8255711386,-0.8969865023,0.2972010182,0.0580097512,-0.9997720067,0.1585370011,-0.1017476909,0.7595139559,0.4170989138,-0.415788578,-0.0298748013,-0.4196455299,0.0664474798,-0.3049643352,-0.3022647804,0.6513005835,0.4704193379,-0.5930733871,0.7020386472,0.3821447063,0.8309407022,-1.1035179745,-0.7761874553,-0.9468238244,0.3335377424,-0.3493723084,-0.2870321517,-0.3273676076,-0.3865092528,-0.2109745959,-0.9790048747,0.1337640821,0.4452956862,-0.5831667492,0.1727594168,-0.0749284242,0.6771766242,0.0372729416,0.1550197312,-0.3118056209,0.4167791489,-0.6751947871,-0.5915647449,0.3166214528,0.7718699262,-0.3200602109,0.7833524124,0.1045603417,-0.6858207751,-0.1166447659,0.1253503751,0.6665270244,-1.3031072187,-0.0637532755,-0.2547779872,0.0179772155,-0.1830131686,0.7896245155,-0.4033491018,0.1486212127,-0.5268342123,2.8993973465,0.5495238442,1.4482133853,0.4990954229,0.4476312263,-0.9892644374,-0.0974814261,0.3588248687,-0.7933140784,-0.5797474036,0.2933567836,0.4232671865,-0.0255027305,-0.5242793379,0.3465468205,0.8207059594,-0.2645415598,-0.1105251625,0.5395678693,1.077399938,-0.1636993959,0.5293469796,0.9209165647,0.9389972134,0.0882669515,0.9877690615,0.576169938,0.3165394254,0.3895128713,-0.8594614066,0.863869818,0.7671795811,-0.1840661519,0.5479193106,-0.1680279545,-0.6862532373,-0.7118543022,-0.6219184148,-0.068075686,0.6836434311,0.432248082,-0.1289619752,-0.4281003133,0.3607109651,0.1829269729,0.4109656997,0.5738282798,0.3988426578,0.518202138,0.7083978792,-0.9664551141,0.48474302,-0.6562750625,0.6370524537,-0.9264305421,-0.0598531464,0.45933642,0.2157315109,0.300329382,0.1288040249,0.2634050294,-0.8601870388,0.6178434524,0.8352712017,0.5705367048,-0.9519555191,0.0243312215,-0.1580233657,-0.5672784783,-0.5184564529,-0.3799588189,0.0251921802,0.3581771935,-0.3399214644,0.3184866735,-0.0743548656,0.7426189035,-0.7881531977,-0.2021559198,-0.7406462919,-0.8383585303,0.2624165411,0.137893361,-0.8832158392,-0.3018261005,-0.656277721,0.2707210576,-0.2870947759,-0.6612777089,-0.6535440725,0.7720448019,-0.4477059734,0.0338883556,-0.0954001602,0.8015286469,-0.6683916436,-0.2497940636,-0.272714552,0.3950008045,-0.2218607922,-0.1613584663,-0.8159765488,0.2614269333,-0.6953022839,-0.2865945603,-0.1395463146,-0.2221978269,0.8227351964,-0.1071140748,-0.4824963843,0.9079790146,0.2193379764,-0.0831895821,0.5491251676,0.388719041,-0.7925629054,1.1665050459,-0.3142990394,-0.118005977,-0.0228543363,0.1661347266,0.2152505339,-0.1829840205,-0.742539413,0.1228177781,-0.1548647154,0.1943006704,0.2356205239,-0.7648515338,0.107578972,-1.2737534219,-0.5478898881,-0.7015169804,0.1447943656,-0.5473178114,-0.5647966995,0.0812079401,2.0616629529,-0.0057873383,-0.0721637776,0.9360555507,-0.0302176715,-0.7822177833,-0.1963719474,-0.2827727697,-0.1489409625,-0.5229467757,0.1615106696,-0.898131962,0.5189380967,-0.56479654,1.2558983804,0.7606643175,-0.2604677667,0.0460702062,-0.7176130297,-1.287341295,0.1823208906,-0.086684712,1.3357149975,0.7145309444,-0.0517824971,-0.2800318474,0.6206010394,0.0725800093,-1.1426193573,1.0555841498,-1.3309579212,-1.8442002416,-0.6649922655,-0.2197040441,0.3166990435,0.220002802,0.0147938216,0.2436387456,0.1571192877,0.4717932898,0.4147232385,-0.2377965731,-0.804058035,-0.4684799591,-0.1490822621,-0.9932950209,-0.2615464084,-0.6334824445,-0.6020782743,-0.2288823359,-0.7894581819,-0.2270906509,-0.1230430869,0.5024048672,0.4129919197,0.1930452524,0.2919230269,0.1801704501,-0.5171874295,0.3936221089,2.0007353661,-1.0012969523,-0.7152797684,0.0575684348,0.4374908407,0.3843039384,0.5159429847,-0.6784692093,-0.1696667755,0.6422396069,0.5466485479,-0.3166103767,-0.2254390791,-0.8127063157,0.5675458728,0.5968546921,-0.8201152827,0.139765515,0.5512458604,-0.2927929069,0.534888512,0.4740892541,0.0493065274,0.096087667,1.0456022446,0.2623423022,-0.473022318,0.5148793719,-0.3942274516,-0.1165076638,0.0276774174,0.2201811438,0.1191074868,0.6588490941,0.534568183,0.7928122934,0.6020062904,0.0140684008,0.0395906803,0.4828458554,-0.5329288712,-0.0518206538,-0.3366607153,-0.4671203329,-0.4052950837,0.2252760493,0.0832544117,-0.7020366956,0.359146328,0.596053345,0.4317428471,0.11931533,-0.6453085598,-0.2330075262,-1.020449947,-0.2744201511,-0.7680801455,0.6360713675,0.4166671549,-0.6657875369,-0.5953278825,-0.2569317914,-0.2461591659,-0.1124781995,-0.2019082224,0.4983706473,0.710127368,-0.8209330984,0.0570755245,-0.8207231011,0.9189584851,-0.8428556976,0.1111723455,-0.1373235513,0.4258703138,0.9230918144,-0.3122731627,0.5286121575,0.654203089,-0.2618335474,-0.1679189667,-0.0006720463,-0.2060035397,0.0463849004,-0.4925037055,0.7330733429,0.0775642289,0.0565873286,-0.1718867872,0.965501774,0.0066944033,0.7165589082,-0.2043165702,-0.0028242992,0.7412401662,-0.7179074121,0.1641766959,-0.5086395096,-0.017827644,0.4249755078,0.7938910645,1.0689214906,-0.2793839233,0.4238753217,0.021558837,-0.180772892,-0.6837093872,-0.4866745301,-0.2879526142,0.029152186,0.2736243789,-0.7637786166,-0.5799870628,-0.5468217687,0.9110990121,-0.0073153363,0.5476334651,-0.4537451011,0.9109837404,-0.1228307245,0.526248629,0.7090944183,0.0856326897,0.2592403404,0.8970613246,0.6342713199,-0.021093722,0.2928544991,0.5301781141,-0.892120731,0.8801682307,0.0396814322,0.8991605349,-0.1809358639,-0.201607739,-0.3832767179,-0.6682996289,-0.7920132438,-0.6032875104,-0.8844397368,-0.2260661965,-0.1404168095,-0.0155488874,1.0448573428,6.395888171,0.9644976926,-3.2696759851,0.4187267602,0.46591261,1.1813597837,-0.789422438,-0.3640259549,0.586307487,-0.3923560837,-0.2483863341,0.1561603147,0.2531067562,1.0560068724,-0.5302303536,-1.0071389534,-0.3339472515,0.2183312203,-0.5443824844,-0.8681030312,-0.1977372047,0.4488073138,0.0197481102,-0.8036557514,-0.080452213,-1.5458816423,2.2918740197,-0.9314637576,5.7173675343,-7.5075899113,0.4091370464,-0.7255142688,-0.3153194758,0.3706882801,0.0190377066,-0.5409075543,-0.635479321,-0.6626683619,0.0411044165,-0.1780053436,0.3366488961,-0.2747249257,-0.002683587,0.0860484375,0.1957603007,-0.4304830912,-0.8460160775,-0.3149231348,0.725815472,-0.5558555601,-0.065487109,-0.0397375239,-0.4766460988,-0.1303904256,-0.5806068774,-0.4081715159,-0.0290943221,0.0366350305,0.4566600856,-0.3350477101,-0.3086534402,-0.0535277551,-4.0533087017,-0.2368641898,0.0833993179,0.1037675279,0.0100497508,-5.3818672963,0.2812764585,0.0647184659,0.6053418458,-3.9536944744,-0.0771929086,0.1306150879,0.2498094244,-1.9953788052,0.1208041848,0.0387515573,0.1746649431,-1.0571668808,0.0377043478,0.1550847757,0.228968807,11.0629029035,2.4272393134,1.043516863,2.7288799958,-3.1180235611,-2.9219254153,-14.1312222415,0.0269067573,0.7137173065,0.5350588118,-0.5085020254,-0.9456257294,0.5919880194,0.7798514795,0.2867081256,-0.6658997626,-0.0992388401,0.0697971482,-0.7745617914,-0.4707093126,0.451036226,0.6858402835,-0.9721571146,-0.0577642673,0.7331144656,0.0970570877,0.6256287075,0.429812853,-0.1618313202,-0.8513319153,-0.9844992225,0.9411370421,-1.1338198668,0.9504506469,0.6102410347,-0.6783079975,-0.2747942722,-0.2226042196,0.0958142045,1.1435180693,-0.450377974,-0.259488246,-0.3871961114,-0.3060680082,0.2184636937,0.9341105323,-0.0308357041,-0.6907583082,-0.2132907574,0.043412042,0.9839280179,-0.3149691476,0.9952719359,-0.3235397388,-0.2961413046,-0.7790638686,-0.5148528522,-0.5808092449,-0.9005549638,1.6345648003,0.6875111659,0.2861106847,-0.1356584079,0.3520806511,-0.576382117,0.0883936057,-0.2876231631,0.7328082495,-0.095643001,-0.1679932516,0.4516178932,-0.3706089118,0.8898997417,0.7458746571,0.2899666732,-0.1335109322,-0.4107765478,0.7466816317,-0.0091418872,0.5802796473,0.8511287392,0.3457920749,0.2761279461,-0.4428031888,-0.3946800085,-0.0777906353,1.0325250555,0.42492856,0.1335817808,0.1201171099,-0.262304461,-0.4594459495,0.1219545013,0.6138383577,-0.9362580542,-2.5491946351,0.046700986,-0.1656293333,-2.787500454,-0.1409065193,2.4506951849,-0.0117318896,-0.1137849646,-0.3539966452,0.1294561201,-0.4130735701,-0.138086067,-0.401663974,-0.2924225288,-0.1335666915,-0.1816725416,-0.3584312416,-0.9487368519,-0.4526204092,-0.2100125386,-0.373901695,0.9004118617,1.4075486568,0.4774546931,-0.8223733264,-4.4161752369,0.8533823317,24.6466383404,0.4656934514,-0.4642747085,-0.429689678,0.7476451998,-0.2383490022,-0.4787436076,-0.3092848957,-0.3698115715,0.046848635,0.4976949567,0.8542711649,-0.4692733481,-0.5889545993,-0.2919371914,-0.5655890303,0.0230452713,0.3676217003,0.0460318838,0.720835696,-1.2419575572,-0.0366868468,-0.3399574286,-1.0910968426,-1.5514987294,-0.7694294,0.4378773946,0.2961327843,0.467577017,-0.8121522691,-0.076669465,-1.2983485495,0.2191425529,-0.0228710405,-2.7640359915,-0.6335725072,-1.7888557641,-0.1093116783,0.8559492838,0.2269512492,-0.4809759261,-0.5006717308,-0.4817452426,0.6612639681,-0.0071846356,0.0772541709,-0.9447618648,-0.1788321516,-0.0938585944,-0.101065672,-0.8079677122,-0.2589373809,-0.2548215677,2.0940820742,0.8020192563,-3.3251926204,-1.8408561765,0.7502816943,-0.4572647665,0.0111863603,0.0460628399,-0.1699517377,0.661333249,-0.4873640765,-0.6149173108,0.0452421633,0.6095654971,-0.6922687005,-0.1237601691,-0.1077237466,0.4954853466,-0.4879537131,-0.8927875987,0.5556676337,-0.0861175922,0.1781069163,0.0878112144,-0.6164386408,0.7184339715,-0.6954661307,-0.708377287,-0.1873777378,-1.3356013975,0.2579631298,-0.3027553837,-0.1396332139,0.4946428529,0.4321845099,-0.3696177863,3.7230474875,0.0352862477,-0.123093544,0.151982673,-0.1189330348,0.3238090963,-0.1235422093,-0.084447424,-0.0716904136,-0.0734122181,-0.2032181006,-0.0799530796,-0.1137961174,-0.0754350569,0.0068430337,-0.0177712821,-0.1000424831,0.3065770182,-0.0635573177,-0.0662948966,-0.1273749296,-2.7541225796,4.0641234516,-16.0978403694,76.2191468355,-5.5728156242,6.8786010423,-4.1012775515,-1.046103271,0.350487194,-0.0384501106,0.3535242775,0.6107340989,-0.4493602503,0.0481658557,-0.1412661986,0.0437068353,-0.0840218358,-0.263391955,0.1939205395,-0.7709086866,0.1299351811,-0.4797004335,0.7940385529,-0.1562057028,0.6136609261,-0.678792687,0.6670550868,0.6650705121,-0.3458086678,-0.8331298645,0.5735619898,0.8445884332,0.7522557058,-0.222731359,-0.5675968894,1.0167280913,0.2979545313,-1.6441273331,-0.3253898896,-0.2913543501,-0.3885582102,0.4568131765,0.8026614487,0.0199570865,-0.22102921,-0.0929415819,4.5285512348,-0.2980895835,-0.7770363344,0.9703256291,-0.6943984796,-0.400278706,0.2709974735,-0.1221034359,-0.039352011,-0.1037632689,0.8139535122,0.0725105338,-0.2635438987,0.1381527945,0.9195985431,-0.9928067341,-0.838117699,-0.8516471985,-0.4042857965,-0.276538987,0.7321624256,-0.4613715699,0.6067793575,-0.103783474,0.1743829008,-0.525605694,0.5195876384,-0.1399348386,0.1405055476,0.88354946,-0.2523175491,-0.5397723991,0.1315715029,0.3420629969,-0.4159856106,0.1029964113,-0.6224805937,0.5284233084,0.0076551938,-0.4744030858,0.4114999227,0.9451795717,-0.3801606568,-0.5186898141,0.125048822,0.4035063277,0.2371389387,-0.9176164151,0.64250061,-0.0371339024,0.3122905675,-0.1433929347,0.0834675808,-0.7942096412,1.0442032199,0.9030723335,0.3628054217,0.406585621,0.7257372609,0.0010394227,0.2014110587,-0.1943834371,-0.11618508,-0.7793062814,0.1740703342,0.3030677905,-0.0075430963,0.3764377239,0.8757776141,0.0259700706,0.3312718597,-0.8707350447,-0.7777039898,-0.6995093559,-0.7817434911,0.6489686059,0.4005171259,-0.3571960502,-0.544150807,-0.1705108908,0.0953185459,-0.7595472055,0.1393926084,0.9290962178,0.1758826948,0.2261498301,0.0693876984,0.9857836474,0.3015449218,0.1669866367,0.0891266767,0.2157110875,0.1482347957,0.1453218205,0.0349136799,-0.5483210504,0.0235576933,0.113336237,0.1412410996,2.8050648116,-15.6535706658,3.6348613225,-25.8834792954,1.18301168,3.867698807,8.4826226393,1.5169640893,-0.1933369569,0.5438470801,-0.5825052307,-0.6744376606,0.3078464463,-0.089950725,-0.4223019883,-0.4413262532,0.1010284622,-0.3803719304,-0.1304330864,0.7922669332,0.1347622081,-0.2223514305,-0.5775403742,0.3895226749,-0.0857657961,-0.7761367301,0.9053307685,0.2593486178,0.4151100364,0.7628753823,0.8668361826,0.8647153013,0.6852323994,0.5962604647,1.1667651497,-0.6155515319,-0.0390106992,0.220666486,0.6618068811,0.5263964436,-0.2339351562,-0.1959815875,0.3240729469,-0.943623252,-0.1412876941,-0.8912305062,0.3987567115,0.075855403,0.4154205305,0.4283640951,-0.0152973216,0.8561009626,-0.445663909,0.171989166,-0.843223717,0.6255445005,-0.2419421794,-0.6022421448,0.0305809852,-0.4617700763,-0.8875328058,1.0136050467,-1.582577064,-0.4873305092,-0.1358232852,0.350475302,-0.8450844446,-0.9229182232,0.7199741094,0.1233095116,0.748400734,-0.328141385,0.6360522973,-0.3567143249,0.0199710321,0.5122333461,0.48239463,-0.3974491003,-0.4906477113,0.2826139866,0.2591345562,-0.5985382524,0.1027342703,0.2470092548,0.8326189067,0.630245828,-0.0344723545,1.9081187341,1.0964314331,0.3972767603,-0.4050252778,-1.1707107609,1.5236801306,-0.1423268975,0.5806187713,-0.2066867694,0.4304905459,0.2547907374,-0.4964348797,-0.3300425295,-0.9181513615,-0.3472686288,0.2873802713,-0.4205112206,-0.5890932771,0.1343821787,-0.3162114175,0.3921368246,0.0330163654,0.4816741656,-0.7922328995,-0.7057476938,-0.8452094425,-0.4220779197,-0.5677214554,0.3410774809,-0.7974554312,0.4947108687,0.6996976844,-0.6949365017,-1.032509919,-0.3379216572,0.7645216874,-0.5842952818,-1.0271781102,-0.4499567406,0.6421355017,0.4521924268,0.3482493964,0.616048788,0.1463513342,0.0596765861,0.3143753956,0.3828005018,0.520890545,-0.2112176542,0.2105969396,0.0466925369,-0.4297220902,-0.1718165693,-0.6313297121,0.8238300426,0.3895544689,0.2277768392,0.7553708908,0.5027970504,0.1932900898,1.0476513575,-0.7305205771,-0.3534995092,0.8272756193,0.7886880642,0.5414820433,1.0081824646,-0.6034668334,0.6156000758,-0.5704326542,0.1639428167,-0.9418806962,0.7141799922,0.2466887593,0.1622106067,-0.3606359801,-0.0577550454,-0.028090514,0.5276409832,-0.5861363577,0.4771396932,-0.3579960692,-0.1378162344,-0.463835968,-0.128263408,-0.6343503712,-0.6729409823,0.9763434556,0.61633883,0.2221651832,-0.9421131573,-0.8889779979,0.5284309802,0.9431687796,0.9375827187,-0.4964309742,-0.8937540232,-0.4757993804,0.6969737385,0.2538126933,-0.0395628928,-0.3201233137,0.4885584402,-0.2450752263,0.0585059401,-0.6994121085,0.6468359442,-0.0002091656,0.2288195018,-0.7384008602,-0.1229552827,-0.588421145,-0.284724033,-0.3544323183,-0.2486381983,-0.0896759175,-0.627087788,0.3158166376,0.4502514579,-0.5670026504,0.2763861073,0.7240701402,-0.1376700687,0.2970278498,-0.0779916658,-0.6782689266,-0.0434541417,-0.0207000039,-0.0264492015,-0.746234267,-0.2471903476,-0.3342170205,0.0323500524,-0.2602834954,-0.7250171103,-0.057456124,0.6327832079,0.0152170049,0.0629646905,0.1956135989,-0.774461342,0.7325232334,-0.5141157426,0.7112353057,0.1777185491,-1.5059264191,2.1083346379,0.1221514681,0.2205528689,0.2166348323,0.3358006221,-0.9695358377,-0.7685934986,-5.403125855,-0.1981610611,0.0261976693,-2.2275167611,0.0693394878,-11.3528581934,0.0699984827,0.0837327149,-0.6385363374,11.6464186868,0.1870566777,-0.0144342566,0.1048143462,3.8737754556,0.4190482697,0.0796212122,0.1880871808,3.9669580796,0.180949691,0.0994980457,0.1345542382,-3.9930503342,1.679877582,4.2310583453,-1.0738394247,8.7188705591,-3.3784889889,-2.142869289,0.3913553015,-0.1927432211,-0.6651746921,0.9506652,0.1006641643,-0.1458942694,-0.6061914729,0.3605999307,0.6177767156,0.3051120776,0.0561085084,-0.6779267267,0.5607197244,0.1395677988,-0.4640087096,-0.3135055643,0.1372326299,0.8176861063,0.1813348795,0.5598458312,-0.6567346516,-0.4284873867,-0.717983097,0.5542285819,0.4371385379,0.7154691271,-0.5147219169,-0.0204046715,0.1823154343,0.8558077042,1.1795793831,-0.5754519264,-0.4486289172,0.7377599174,-0.6033536249,-0.8135524141,0.801682579,-0.4136736021,0.3291480696,0.4280025927,0.3271360308,-0.3036197046,0.5299542718,0.4300582685,-0.152999527,0.5017286693,0.2739629897,-0.2949828682,-0.3581707015,-0.014167796,0.0696690011,3.4517073829,-0.566099066,-0.4221605642,-2.3384174165,-0.6545793538,0.2078836066,6.2663801864,0.5775922738,0.2855823602,0.5114854283,-0.1465226531,-0.8788900481,0.4828030921,-0.6996191774,-0.418423086,-0.3261062058,-0.6689363898,0.4092673598,-0.3817559346,0.2847821829,0.1588226664,0.3731261585,0.1928174757,0.005320252,-0.7213904303,-0.2028809557,-0.3151298751,0.7231372972,-0.1023952055,0.4658932225,-0.2180649378,0.6947509927,-0.9836576644,0.4674427482,0.6831830238,-0.237962165,-0.6046427009,1.1450472689,0.6750128858,-0.023261944,0.620209581,1.185872313,0.3075233308,-0.0176718725,-0.1565423884,-0.1759350059,-1.9899014353,0.6234255856,-0.8130767461,0.2647981432,-0.5860532786,0.2697259213,0.4240697095,-0.0934927657,-1.2360373315,0.5389664378,0.6400487874,0.3512893484,0.0127572056,-1.3626462644,0.4628200506,-1.2205577286,-0.7253746783,-0.8617974629,3.9953919578,0.0762778013,0.9128998693,-0.2051103425,-0.0636711804,0.9020497619,-0.0718416222,-2.6358048434,-0.0146827002,0.5092149914,-0.4684477933,-1.585598525,-0.4931777535,0.4369412594,-0.5293825903,-1.5763906532,-0.3471186036,0.1204508076,-0.827099017,-0.333539182,-0.2742226953,-1.1272367828,-0.7523105307,-0.7443087498,0.4897626056,-0.3052530862,1.623535735,9.558994,-10.56272009,0.7341233992,-0.3643776458,-0.1122588696,-0.5642907056,0.6164546534,0.0616384117,0.3042550003,0.1812673891,-0.8294524233,0.056445004,-0.0093446023,0.2033309331,0.7647678631,-0.7471660107,0.8703185149,-0.0072005045,-0.1686382413,-0.0854151337,-0.2717111731,0.2299029914,0.3219996448,0.8600480823,0.1079467564,0.282286915,1.3529017979,-0.015845691,0.6772263774,0.8943710274,-0.2545704354,-0.2275960495,0.9060363589,0.826243182,0.4420957198,0.2594076729,-0.4937339426,0.9402520493,0.3416465062,-0.8502553513,0.5958227768,0.0726187441,0.4861189936,0.4875473133,-0.0607123461,0.1693631538,0.4071441258,-0.1867427641,-0.7562845449,0.4278678801,-0.1419722667,-0.03389599,-0.4692202161,0.5268762532,-0.5626653963,-0.3244352189,0.5580955564,-0.9392136678,-1.5487235724,0.9370337937,-0.0840076322,0.0754038447,-0.5459095939,0.4456893229,0.271754911,0.6452494593,0.2433845337,0.0135831674,0.4243240452,0.7597875292,0.2618545297,-0.3677065711,-0.7341467005,-0.3485689953,-0.28893495,0.8385791476,-0.8611548392,-0.4721352687,0.7089421268,0.1064406395,0.3068707608,-0.4447775286,-0.2599154672,-0.5545629392,-0.2401778553,-0.3764539276,0.8683708211,0.1514574875,0.3141871463,-0.8882894966,-0.7201803035,-0.5242509431,-0.6037889653,-0.6870328279,-0.0189566579,-0.3506882102,0.5781788555,-0.3649343131,0.0210269662,0.6918920243,-0.632968118,0.7191338511,0.3443635929,-0.0384346488,-0.3557063965,0.2099904357,-0.202740136,0.4103464921,-0.6456963039,0.7167509034,-0.4601308445,-0.51977752,0.021847762,-0.4630910892,0.4416267642,-0.1899081287,-0.321091771,-0.1947771394,0.3288522018,0.8940267455,-0.701686336,0.236092862,0.700308363
