encog,BasicNetwork,java,3.3.0,1,1470072891425
[BASIC]
[BASIC:PARAMS]
[BASIC:NETWORK]
beginTraining=0
connectionLimit=0
contextTargetOffset=0,0,0
contextTargetSize=0,0,0
endTraining=2
hasContext=f
inputCount=28
layerCounts=2,301,29
layerFeedCounts=2,300,28
layerContextCount=0,0,0
layerIndex=0,2,303
output=0,0,0,0,0,0,0,0,0,0,0,0,0,0,0,0,0,0,0,0,0,0,0,0,0,0,0,0,0,0,0,0,0,0,0,0,0,0,0,0,0,0,0,0,0,0,0,0,0,0,0,0,0,0,0,0,0,0,0,0,0,0,0,0,0,0,0,0,0,0,0,0,0,0,0,0,0,0,0,0,0,0,0,0,0,0,0,0,0,0,0,0,0,0,0,0,0,0,0,0,0,0,0,0,0,0,0,0,0,0,0,0,0,0,0,0,0,0,0,0,0,0,0,0,0,0,0,0,0,0,0,0,0,0,0,0,0,0,0,0,0,0,0,0,0,0,0,0,0,0,0,0,0,0,0,0,0,0,0,0,0,0,0,0,0,0,0,0,0,0,0,0,0,0,0,0,0,0,0,0,0,0,0,0,0,0,0,0,0,0,0,0,0,0,0,0,0,0,0,0,0,0,0,0,0,0,0,0,0,0,0,0,0,0,0,0,0,0,0,0,0,0,0,0,0,0,0,0,0,0,0,0,0,0,0,0,0,0,0,0,0,0,0,0,0,0,0,0,0,0,0,0,0,0,0,0,0,0,0,0,0,0,0,0,0,0,0,0,0,0,0,0,0,0,0,0,0,0,0,0,0,0,0,0,0,0,0,0,0,0,0,0,0,0,0,0,0,0,0,0,0,0,1,0,0,0,0,0,0,0,0,0,0,0,0,0,0,0,0,0,0,0,0,0,0,0,0,0,0,0,0,1
outputCount=2
weightIndex=0,602,9302
weights=##0
##double#9302
   0.922358687,-0.2329963809,0.8618909299,-0.0372573403,-0.5387117395,-0.1306183911,0.7949108384,0.5360387237,0.2690013366,0.3773607993,-0.3074536506,-0.4133180822,0.8336132576,-0.0109043919,0.3277646793,-0.2558825073,0.3834103887,-0.3175451302,0.2213175336,-0.0412870073,-0.9041730264,-0.1835322624,-0.1820407445,-0.2170645365,-0.1656104731,-0.0810710762,-0.1501678045,0.2832731505,-0.1286652352,-0.8410300994,0.8453840134,0.7192572157,0.2815938094,0.0132681303,0.0460535081,-0.0127693558,0.7516251788,-0.5626827608,-0.2066812242,-0.4095568475,0.1809675461,-0.0858276878,-0.0808874203,-0.4077026719,0.1089158761,0.0264407568,0.1596641797,-0.6903429816,-0.8581445007,0.1227621244,-0.136347212,-0.8513075227,0.9737883898,0.5339795115,-0.6391063224,-0.0648868261,0.5173537342,-0.2383826586,0.1906620024,-0.1901079538,-0.6696062355,0.9199144191,0.6136876267,0.469997737,-0.6761266443,-0.1288220983,0.3185884002,0.4200894225,-0.1077390109,-0.1542033479,-0.1634339772,-0.422188681,-0.4099623963,0.03768395,-0.3109856954,0.8475434401,-0.8737625105,-0.0338646056,-0.0139667902,0.7333985584,0.217049019,-0.6208996717,-0.687735609,-0.1587720098,0.4314993413,-0.7266428058,0.3793888022,-0.847404186,-0.1351640043,0.0965711542,0.7329521436,0.0523985488,0.5886463235,0.4339307247,0.4320930389,-0.4594522663,-0.2640109155,0.4766491866,0.3372449663,-0.4436116073,-0.4822836161,0.4486615542,-0.8796438347,-0.3613002663,0.8733930803,0.0508025477,0.598823783,0.843904918,-0.0766762994,-0.4799614732,-0.6518605495,0.2336201418,-0.2309853011,0.1431322185,-0.6190868188,0.4004918285,0.0668705773,-0.6803982004,0.4403330903,-0.0504971081,-0.3783558439,0.3114324156,0.3933789061,-0.6341531601,0.7493300207,-0.9440760611,-0.2369931403,-0.5707026452,-0.8193753207,-0.4661639085,0.8105663864,-0.9101459114,0.0194459661,0.0801910824,-0.1260077338,-0.0325689251,-0.8482382872,-0.0282663291,-0.3054922266,0.0085114554,0.8976629478,0.8492269385,-0.1408547946,0.0514762226,-0.0852338639,0.3909343197,-0.1988945481,-0.3632511172,0.6980229978,-0.4543133172,0.6589230974,-0.073740435,0.6533364478,-0.544185534,-0.1625674031,0.0811051175,0.0120632325,-0.5409190464,-0.8755200961,-0.7157805987,-0.0865120257,0.0553355926,-0.4387430687,-0.8993950349,0.0466913031,-0.4544965072,-0.1838360864,-0.2723618977,-0.3468210728,0.0742591884,0.2094966821,0.136290386,0.4415033755,-0.4900219446,0.0692960456,-0.0449637452,0.1745436827,-0.1150505116,0.1093976046,-0.2584800284,-0.2960171119,-0.239186851,0.8832373858,-0.5593840648,-0.3670310197,-0.7847211751,-0.5229123181,-0.7414947646,0.4327197468,0.3407929492,0.0499730432,-0.1064063906,0.0154593756,-0.3193854194,0.6828128033,-0.1083457645,-0.0755399179,0.0888201716,0.2528766226,0.7899982059,-0.4532953023,0.2557193189,-0.6628598433,0.6366512293,-0.5870612518,0.2460373131,0.4458640186,0.7188399927,-0.5411800687,0.5470589759,-0.9297414717,0.232225588,-0.1126420084,0.1511092477,0.8899341638,0.0600240795,0.1403699836,-0.1989591254,-0.4130657904,-0.0497143931,0.0649793548,-0.1695010287,0.2143051924,0.2717865123,-0.9680380956,-0.3951293732,0.9052678291,-0.0078138505,-0.180321141,0.3883340054,0.1712521181,-0.1850456644,-0.1125483289,0.1239651123,-0.3607822426,-0.5292773143,-0.7541342721,0.1623041837,-0.1722580866,0.5030246233,0.6980424186,0.209407927,-0.6429035019,-0.0220943849,-0.8958727859,-0.2864946873,0.7847740487,0.8786285533,0.8112497623,0.8743788018,-0.0003848243,-0.9542380644,-0.7873851634,-0.9745737747,0.4713848349,0.2199101649,0.1827498718,-0.0337689935,-0.0070776625,-0.4984811806,0.5433805411,0.5955602981,0.4941688051,-0.9523274604,0.5257778593,0.2606341078,0.4933005753,-0.9932362462,0.8919823219,-0.7523029095,0.959264675,-0.1402922138,-0.2067310121,0.1208024665,0.0856106287,-0.3693235157,0.3791713722,-0.3216491131,-0.2126304358,-0.107545407,0.4781149523,0.9570720227,-0.0617846609,0.2572115814,0.2005890544,0.5676033223,-0.1313305789,0.1811189773,0.9528152554,0.7850361113,0.0374496395,-0.2459234582,-0.1898757457,0.5246524652,-0.6653795824,0.0660026408,-0.2285724063,0.0008974794,0.8521742291,0.2512917992,0.8117859749,0.2729599134,-0.0733982227,0.8494328089,-0.1922943392,-0.5705351835,0.1129593674,-0.1538223607,-0.205615737,0.5211544392,-0.2100479304,0.1320427296,-0.2512511241,0.9460909746,-0.2782764113,-0.5040757944,-0.2738280287,0.3659648239,-0.685544679,-0.2065256977,0.2070044203,-0.7418612632,-0.2187779321,0.9389539079,0.5602776403,0.1283325789,-0.1487284019,-0.4122230719,0.8683885318,0.0075343152,0.6472593325,0.0799486235,-0.7094091709,0.2529404144,-0.3854225159,-0.0977371621,-0.1318259434,-0.615796644,0.4221308888,0.8789956178,-0.4567970655,-0.4816900037,0.4997899675,0.1595723885,-0.5534505719,0.2033675634,0.0290870359,0.0932037677,-0.3604961809,0.0176488718,-0.7393798874,-0.1327924442,-0.0084346007,0.2310250775,-0.6376639325,-0.7686011809,-0.1232709774,0.3345389372,-0.2846600512,-0.1410494778,0.1958397632,-0.067128724,-0.0905871003,-0.4940267089,0.0620325116,0.5594775943,0.5731815828,-0.007759682,-0.3614807051,-0.390350606,0.1579035056,0.1844128697,-0.5843963296,0.3675178589,0.1422926249,0.6736083663,-0.9042961273,0.0760241994,-0.2667687438,-0.1532699837,0.732655613,-0.2380870572,-0.2521928454,-0.0624666936,0.1205142281,0.2100120461,0.6628742422,0.0331687203,0.702916065,-0.0201252166,0.1582929948,-0.8110667446,-0.1833623892,0.4928272455,-0.0695555723,-0.9205164619,0.1284039326,-0.2704835251,-0.7544852584,0.2015656433,0.5414730173,-0.0357098584,0.2355377095,0.4519294173,0.2619302624,0.6601286769,-0.1796086575,0.2047538291,0.1308375224,0.1486132337,-0.8253689277,0.5746298783,-0.6605441405,-0.0655846368,-0.245335496,-0.5867635371,-0.3219559571,-0.2099898039,0.7481726576,-0.054449133,0.0905208375,-0.3131153652,-0.1754535663,-0.0160041509,-0.4566858073,-0.1090573964,0.16755379,0.8023432187,-0.5382801578,0.9716806622,-0.797979659,0.0435295988,-0.8631289856,-0.2938299865,-0.151969574,-0.0385091975,0.1145017072,-0.3548652389,0.3950692259,-0.8013777336,-0.1495565036,0.3856927154,0.048897865,0.221490942,-0.0795238103,-0.0099064853,-0.082165869,0.2081124525,-0.480585984,0.4158292557,0.2678483299,0.644393637,-0.4331139497,0.3180762973,0.5798052393,-0.3381243878,0.9878463252,0.1191822516,0.2792333553,-0.7928316305,0.601879584,0.1661694501,-0.1573006109,0.7564300719,1.0217424722,-0.8578007904,0.1489378004,-0.0846633659,0.2685982894,0.6021109297,-0.1219915482,0.4253597467,-0.1733834545,-0.4857872413,-0.3500355082,-0.3142512871,-0.8422585511,-0.7949979512,0.7509884503,0.2779659174,0.4480020352,-0.9898387559,0.2091073699,-0.0590122928,0.1873646822,0.8352308913,0.328630963,0.2081612968,-0.4943043068,-0.1373704374,-0.461309505,0.3708951014,0.2237432338,-0.1013102041,-0.0336216503,-0.2123112079,0.1512172902,-0.7328815146,0.6766098013,-0.371509334,-0.4252027081,0.4529544254,0.0640293349,0.5423492097,0.8463606807,0.3873975531,0.7008315546,0.4431604816,-0.5954888694,-0.0746998329,0.3500330427,0.4355270344,-0.0244839319,0.0204508757,-0.8059129318,-0.7057187006,-0.1204507826,-0.1780215122,0.1821562418,-0.3510280211,0.1783802202,-0.2529349688,0.0613440404,-0.9644839179,0.0203272963,-0.852864431,0.1987067354,-0.0507298149,0.5430453289,-0.1536754082,-0.5645331054,0.5919470088,-0.0574683598,-0.0360987594,0.2087117775,0.1442993416,0.3108084237,0.5962628895,0.1047629678,0.0990816479,0.4268486145,-0.1549500353,-0.4701374939,-0.4956922289,-0.4030618035,0.2881140373,0.2328772368,-0.1392753954,-0.4529101738,0.5124158839,0.5251509982,-0.0768497321,0.3271628509,-0.3333962225,0.651470671,0.0053997592,0.0910838634,-0.5076589019,-0.1379889937,0.4229084265,0.4170282605,-0.0093280341,0.3660666372,-0.8997012196,0.3525355272,-0.1950576656,-0.7418832891,-0.5215275318,0.5497600018,-0.6603646012,-0.2509338879,-0.844873423,0.0541678023,0.221852199,-0.0650200531,0.1235602378,-0.8804266052,0.6991450173,-0.0027871444,-0.1992016633,0.5342016354,0.1734517734,0.9320561662,-0.0687455649,-0.4290376472,0.5180529793,0.7485699532,0.1798402852,0.1130463022,-0.0972832688,0.8904781218,0.78009475,0.8063179239,0.7385121542,0.483708113,0.7263067394,0.1188372283,-0.355005523,0.1517266816,-0.957437951,-0.7065603639,0.7174345134,0.3958403297,0.1397244272,0.9040197057,-0.2885817165,-0.0252637052,-0.418241658,0.6863149398,-0.7504452787,0.5518637278,0.2245172905,-0.2225926759,0.0829303931,0.319731982,-0.2939402944,0.102179224,0.2567914316,-0.0708431909,-0.5149260208,-0.0901045097,0.6315884691,0.4851449671,0.3599547047,-0.6831547917,0.3338813464,0.4104752104,-0.1131838241,-0.0704807033,-0.2325151332,0.1612726728,-0.0965105044,0.5610167197,0.0261129004,-0.4914427688,-0.6466910081,0.1491653457,0.6277764904,0.4634230288,-0.7075867925,-0.2743719202,0.3787735703,0.2654306478,0.953695103,-0.09469685,-0.6258595655,0.0377073959,0.3025447555,0.2014667251,-0.8824099558,0.8582536384,0.0464302071,0.1980367784,-0.925291826,0.7124095915,-0.7610966812,0.2703739766,0.1104308975,-0.1275585366,-0.9107049406,-1.1018965511,0.2605065156,-0.0082373434,-1.8199800098,-0.2259862409,1.131795513,-0.6535755943,-0.0520341549,0.2607029397,1.1120893116,-0.2000326833,0.0550804773,-0.1321422366,-0.1089929434,-0.1020194643,-0.6128056874,-0.2229462673,-0.5468639604,-0.8000030222,-0.136461708,-0.1358323868,-0.8218244388,2.624866146,0.7105856844,1.1179898603,-3.0775009068,-0.6877952227,-1.1486322526,0.0636932697,-0.2876986574,0.4061497107,-0.1120074242,-0.2878531269,-0.3860848141,-0.2249030231,0.2098556981,-0.5405649179,-0.8194964056,-0.3028413559,-0.7937948322,0.6879967343,-0.9078679277,-0.5986230877,-0.5560639343,-0.5368019707,0.2252186298,0.5789471443,0.8362488218,-0.1762055651,-0.0132842765,-0.6469585936,0.7987059981,0.3299435989,-0.4452100052,0.2657620082,-0.5650866801,-0.0712399815,0.8748120543,0.4053248444,-0.1468949743,0.2750513502,-0.2692050634,-0.3261485389,-0.0745574176,0.3873964363,-0.0721072758,-0.4171070347,-0.1212738884,-0.0400202585,-0.4357939586,0.5305889117,0.4722391043,-0.1412214296,0.1031927094,-0.1677922155,0.2954777792,0.6111368631,-0.5819599905,-0.4539586055,0.1905868329,-0.5509742951,-0.0363822697,0.7752935892,-0.4126684648,-0.2445111913,-0.3507597192,-0.6142674411,0.1689265527,0.3812779418,-1.0180266192,0.6201059516,-0.2496550024,-0.0321008838,-0.1767002484,-0.2689634355,0.1123156716,-0.6410805738,0.3913025197,-0.1175901644,-0.8272995126,-0.9242788255,0.4947904065,-0.7269803305,0.3597130987,-0.6485845415,0.2801104475,0.5592396015,0.1143882919,-0.8157408402,0.014566836,0.5401469755,-0.2072489379,0.5723877928,-0.2651482632,-0.5170399278,0.408081703,-0.2788650955,0.270198288,-0.4519983817,-0.4656539953,-0.3059277894,0.8467500853,0.1505675541,0.582160004,-0.4965022418,0.4171527195,-0.1497148854,0.8718867343,1.0008568634,0.2224766747,0.8234285186,-0.3279678016,-0.1260771935,0.8087809818,-0.588542828,-0.2430653761,0.410705476,1.755519446,0.5532915256,0.3321071535,0.1475116594,0.0205885774,-0.4228408183,1.1923157744,0.6673088149,-0.3498193568,0.483422605,0.1806471306,-0.5499443146,-0.6312447107,-0.4808696232,0.48310471,0.4207105034,-0.2388575822,-0.1340381647,0.0620284077,0.1730370814,0.4180928002,-0.598805891,-0.2151593709,-0.6321049282,0.0786963639,0.4138881278,0.782855042,0.0797726705,0.6221536328,0.3863066972,0.5965171737,0.4037846634,0.4844009059,0.4348796676,-0.8361505346,0.4090690881,0.229273467,-0.6504184688,0.3285241503,-0.6024396103,0.909235995,0.0268327159,-0.1875560488,0.5933715405,0.686020088,-0.5613253695,0.5179421134,-0.2791845446,0.0354864903,0.371083178,0.393918706,0.6557656177,0.4838009389,0.1707973,0.538323344,0.4991369056,-0.3353816315,-0.3333115477,2.7864285707,-0.5039334109,0.7838540794,-0.3765873085,-0.4622764633,0.8395021483,0.2021883183,0.7511723404,0.236771466,-0.4973442337,-0.0291754277,0.160381494,0.855902694,-0.3894419414,-0.9087408084,0.2628302594,0.1844437027,-0.3751961806,0.6140609673,0.1779804684,-0.5028332063,-0.7600607111,-0.718770622,-0.5255670355,0.1415056929,-0.7590141668,0.1559124566,-0.2474293033,-0.3561574142,-0.0724365812,0.8052414918,0.2944307087,0.9188958457,0.0217912872,0.1730798582,-0.4060460648,-0.3374250248,0.3931099634,-0.7396669993,0.0590802031,-0.8709196874,-0.072448389,0.3037409917,-0.4211153719,-0.6522647995,0.0277405718,0.3232094079,-0.8245763891,0.6779340308,0.4564839267,-0.652067012,1.0069139521,-0.4610741116,0.8519466177,0.3255896511,-0.335420574,0.1196778243,-0.0805049213,-0.1210793598,-0.9170581415,0.6092011669,0.1485619226,0.907111966,-0.6049682697,0.6945459093,-0.1127628364,-0.576098699,-0.1896729042,-0.3425159745,-0.0353228017,-0.4268484463,-0.6601491524,0.713345768,-0.5641985171,0.7957654465,-0.4519441304,0.7809524326,-0.5864757188,-0.1856556088,-0.8811580381,-0.2053736144,-0.2774179797,-0.5171986246,-0.8061014677,0.3809510269,-0.3380329054,-0.2366633196,-0.4438627127,-0.010255365,0.5187183285,-0.583385256,-1.0375218515,0.2741346483,0.4562164049,0.4660720269,0.2332528744,0.2074117699,0.5821478688,0.4143591707,0.6537627383,-0.0331588762,-0.1700646781,0.3251911195,0.9113153645,-0.0235436146,-0.4530226078,-0.0737184114,-0.7687269965,0.4493729163,0.860950599,-0.3236549702,0.2820836767,0.5214319976,0.2380816748,0.2258711628,-0.1379127023,0.2807975385,-0.49672835,0.9638268459,0.2576403187,0.8757502977,0.8730913904,-0.147105956,0.1406290934,-3.6605894335,-0.591896588,0.0532987563,-0.8027633721,-0.3599958344,-0.7976530787,-0.7377613032,-0.1848592828,-20.5196203502,0.620906181,-0.9319143193,0.0574489211,-24.4717882804,-1.6910812152,-0.1302237985,0.1544873441,0.4240841854,-2.909742734,-1.6129607475,0.1797810836,1.6628186623,-0.7807970217,0.1744406242,2.4899554297,-2.5483999507,-4.8226584339,0.7782784946,-0.6305938238,-0.1261489643,0.4775350797,-0.3504905021,0.1461668387,0.2882817335,-0.2910315824,-0.8800390168,0.6536477932,-0.062177827,0.2899792923,0.2459583808,0.2946091791,-0.1570003882,-0.6212958836,-0.5718892735,-0.644276759,0.6032469628,-0.5743858937,0.3094534109,-0.8098186972,-0.2397204727,-0.7232514663,-0.3318334197,0.9323401197,0.490184906,0.7830126096,0.0801035331,-0.5683841713,-0.0313136886,-0.2503903792,0.2376056826,-1.1961354173,-0.1817564917,0.4139408412,0.3281409816,0.9610119707,0.3991730012,-1.30238689,0.4221419123,-0.754395957,-0.2896646656,-0.0338875878,0.6844138751,-0.5153079878,-0.5394354293,-0.7370561934,1.0031953992,1.8405856816,-0.1561249486,-0.5457183508,-22.8630180252,-0.1828088048,-1.5508126773,-0.5877418006,-1.1122999403,0.7596371361,0.3642912475,1.2847480446,-0.7706061065,-0.7389946649,0.000670313,-0.658076742,0.2927838255,-0.0819524477,-0.0660189157,-0.7030412444,0.3546808114,0.3308966341,-0.1427890649,-0.0564488638,0.1617463274,-0.6263568518,0.3166748368,0.1693965966,0.8030481761,-0.0076836789,0.138884429,-0.1800905909,0.6244605478,0.2121484691,-0.8887193729,0.8287585015,-0.1614511058,0.2749707466,-0.6659136187,0.6432788428,-0.4815304178,-0.8525244873,-0.1823714753,0.5258614624,-0.166087251,-0.8929511237,0.2004016886,0.7831324993,0.2512606536,-0.1797955846,-0.3048081633,0.0622518888,-0.5333245854,-0.2267498395,0.7732996998,-0.3785284478,0.5284647966,-0.1088060917,-0.3631967533,-0.4225045165,-0.7825030308,0.5547071176,-0.1390287321,-0.5645905717,0.1699851924,-0.837044595,0.8373538104,0.0101037072,-0.8459435639,-0.6005753316,-0.8644264063,-0.0835989406,-0.6423522732,-0.4196927592,1.1663174578,0.6707006272,0.5688645505,0.3719076313,-0.6769998802,-0.5458618442,-0.1535699017,0.8074222692,-0.6070008303,-0.4831432079,0.1297092805,0.2920073509,-0.7765434933,0.0449558199,0.2696490545,-0.4872196352,-0.3289598005,0.1244249501,-0.8401940276,-0.6410792174,0.4367876834,3.2427945086,0.0647727312,0.0205533521,2.8765711284,0.604736687,-0.279832851,0.6292660957,0.1715034433,0.2416587277,-0.6556569808,-0.4026832564,0.5015787569,0.7776975159,0.7352189859,-0.54445856,-0.6419600976,0.4915118387,0.3854204637,-0.0416127529,-0.1617187193,0.7187999024,-0.3851862799,0.011046384,-0.9982925853,-0.5436194679,0.7654901431,0.5949462539,-1.105810262,-0.873238841,-0.5266842392,0.4921320677,-0.409731129,-0.4306418489,-0.3451570011,-0.6967146649,-0.5362586182,-0.5046274638,-0.8738086539,0.2216455484,0.4812815161,-0.5535389949,-0.4816103443,-1.5139656391,-0.0742743053,0.3966908154,-0.5640146449,0.1247993139,0.1712391566,0.3448160218,-0.1296546247,-0.6825450431,-0.73550036,-0.8933130183,0.0800977736,0.0795792795,-0.616437352,-0.5567897416,-0.3345091119,-0.9666719889,-0.4210212573,-0.0349545685,0.2162478045,0.825776115,-0.6023642533,-0.3997657443,-0.8409932816,-0.7114442608,0.4296556792,0.3015012093,0.0635794213,0.7021081646,-0.0023572738,-0.9820131201,0.5288208256,0.6369966712,-0.2408234125,-0.2071726545,0.7808209983,-0.6204430556,-0.4302418001,-0.4951155659,-0.6195401989,-0.6403277968,0.176237379,-0.3847493555,0.374074762,-0.9560965935,-0.9803088226,0.3302487362,0.2415122752,0.4589616995,0.4155171907,0.2214417771,-0.395043115,0.0621150992,1.2110013556,0.8671746533,-2.336506979,0.3715828614,-0.3094357875,-0.1909249137,3.382291788,0.1349670728,0.4855282099,0.8512069084,1.9543824772,0.2362794709,0.062520707,-0.0171685433,0.6978527948,0.7619205421,-0.3056411015,-0.3114788159,-0.1531259219,1.1735666517,-0.173494756,-0.7911252512,-3.4488706462,1.0518513368,-0.1052935042,0.9353629229,2.1166219543,-0.7101657698,0.5673135119,-0.561968736,-0.0889996221,0.6672611006,0.165636977,-0.2010917916,1.0773405977,2.6842351662,0.0407690114,-0.5945895778,0.4285244647,-0.3471969995,0.9055353184,0.4572166304,0.2624883811,0.1429665691,0.8017811272,-0.3193292209,0.447448394,2.4159642854,2.3258483962,-0.9706198485,0.3931076042,-1.7346490043,-2.1586135575,4.3444170112,-0.2675127586,1.3137128561,0.698146452,0.1845853037,0.6550002362,0.3422089843,-0.3209299959,0.9571970795,0.2976682544,-0.5302556291,0.0923210695,-0.9637087307,-0.4565323014,-0.0733014353,-0.8704740641,-0.433703353,-0.2650181734,-0.5557028467,0.2640699811,-0.3146121324,-0.4612819145,0.3537555053,-0.0355927532,-0.346666978,0.2579722615,0.1496010497,2.3195106529,0.3846211024,0.8667037853,0.8841978183,-0.1777937845,0.1782279108,-0.2729011608,-0.8379440401,0.90960001,0.3868637823,-0.1180835091,-0.7977343683,0.1638299495,-0.0200905087,0.1074826831,0.0316252709,0.217740507,-0.2895280021,0.6781895186,0.375169303,-0.1568450895,-0.0835300795,-0.7877511552,-0.6322946115,-0.662913841,-0.5167866428,0.1380635159,0.0354369709,-0.0288297702,0.0664948417,0.0139650158,0.3309650775,0.4361856014,0.2109014909,-0.0487978301,0.2012802485,-1.5107524676,-0.7848275253,-0.5010098045,0.6623417117,-0.5486406309,-0.5828992236,-0.1745934953,1.1761466704,-0.2197822354,0.3349386228,1.2231619444,0.9919786154,0.5460876392,1.2936782366,-0.5172114199,-1.0890294707,0.7763639469,0.1262744351,0.1001087266,-0.1795734921,-0.0051986582,-1.1290711713,0.4486383915,-0.3598528747,0.5747614777,1.0007012451,0.0028708973,-0.4974224418,-0.34499411,-1.1964810797,0.223658156,0.7996337478,-0.3439975855,-0.2193307612,-26.6757071723,0.0644403528,-0.1390038372,-0.1563550627,0.6449190586,0.0389105791,0.3775996471,0.1254393123,-0.8801314411,-0.0346376043,-0.8358260517,-0.1299794691,0.2156154247,-0.858878954,0.0809273077,-0.5330171958,-0.8845571997,-0.6885330684,-1.21630478,0.4581725216,0.1517466157,-0.8704989601,0.8621885243,0.8242738368,0.23733903,0.3024930942,-0.8540019776,0.0570923868,0.0530506032,-0.1272868568,0.6342767089,-0.9271004407,0.4724569766,0.3606601095,0.450942938,0.4102986167,0.192688747,0.3097906367,-0.7218518809,-0.9121348345,-0.9119205689,1.4658021482,-0.8595155302,-0.4652817445,-0.6005579213,-0.0628437416,0.2927616898,0.9102034299,0.1079048377,-0.9324965708,-0.4764841832,0.5187811119,-0.3007684456,-0.6435815193,-0.1812769993,-0.4471657795,-0.8711219501,-0.1303257915,0.1341469308,-0.5627880734,0.2155307746,-0.0596950501,0.2293697797,0.3319302434,-1.3341718908,-0.256238077,-0.7903726124,0.0119220636,-1.1341556617,-0.2448376284,-0.3438804744,-1.7402357229,-0.7160887436,-0.1771052836,0.3216504437,-0.3370534076,0.7881776015,0.6076606556,0.3536907503,-0.525085968,0.5378400906,0.2323941881,-0.9137770546,0.4448141832,0.1493652345,-0.1475374101,-0.4608284638,0.5723838913,0.4828713614,-0.2358564883,-0.4620620866,-0.0272599684,0.6095866257,-0.9251004265,-0.4533527976,0.8051541128,-0.2342426156,-0.1272977253,0.1078423273,0.3921522624,-0.8273755294,0.2498351965,-0.9773517707,-0.3184546497,-1.3007051763,-0.853122034,-0.6531340354,-0.6856366733,-8.8140127569,-2.7270001211,-0.1270868307,-0.1139448706,-0.2446974292,1.3388169758,1.7098538848,-0.089432712,0.3882146184,-1.8112588377,0.0501305161,-0.270226053,-0.1120239221,-0.753050671,0.1788305749,0.0369247979,0.0549462426,-1.2775740778,0.2645335986,-0.1271166091,0.027244913,4.8055483805,-2.4347193774,0.13301029,-0.5223555404,2.5312194289,-4.139422757,-3.6664016027,-0.3289002134,-0.6701531911,0.0627893051,0.1818996035,0.0714833329,-0.5179797974,-0.7545109361,-0.3812188487,0.7061269514,-0.5262177362,0.773847632,0.5372046448,0.0479500385,0.2854254239,-0.3933500794,-0.9140318223,0.3735120904,0.5192986682,0.2473093019,0.0625966037,0.3366463597,-0.2261937145,-0.1362958195,-0.192185199,-0.640379467,0.9690913244,-0.3905957245,-0.6558737543,0.5013412046,-0.0108135237,2.6895177912,-0.9265195861,-0.1466268051,0.8413098207,0.7351831447,1.5172085696,0.1804958012,-0.0246688803,-19.5373309957,-0.6105074903,-0.717044464,0.1568587169,0.3354176509,1.3022908537,0.2938848521,0.1016857565,-0.700918677,0.7487477071,-0.5286965148,-0.1774635418,-0.5352300608,-0.5866155438,-0.3275790592,-2.2288130624,-1.3685737673,-5.9565439849,-0.4763690216,1.6321710837,-0.3004197848,-3.5892963689,0.6894819922,0.5974947183,-0.8732267394,0.315775814,-3.4147243032,-0.8027495223,-1.2305141802,0.0398616955,-0.2165799601,0.76679001,-0.0291074753,-0.752600163,-0.3098395592,-0.1646512127,1.6914331796,3.7485705064,-0.4977681557,0.3409427454,-0.0944940838,-0.5271059136,2.9625174445,6.8674001561,0.3986118807,-1.3128959367,-5.9072345956,-0.6872431349,0.2311861977,0.9722555415,0.5582547024,-0.9269543284,0.2212603464,-0.0294410829,-0.4275986148,-0.9880361968,-0.9725749528,-0.780606704,0.466003693,0.5923750952,-0.732319749,-0.2862782035,1.0931558118,0.2990386164,-0.5098580649,0.1252654152,-0.5652354254,2.0257654225,0.2735412251,0.8217826524,0.4567752064,-1.025016725,0.7325528754,0.7105137288,0.4821081625,-0.0583749322,-0.5942934542,-0.8333235548,0.7127670119,0.2800190464,0.6874828869,-0.2550633048,0.7271556423,-0.272378653,-0.4206581018,0.0713367682,0.2498711825,-0.1303907392,0.1905016688,-0.1050149249,-0.8407112764,-0.7663319061,-0.8389095806,-0.7558945203,-0.0482245596,0.3003052466,0.0290340461,-0.2846656359,-0.5713066323,0.2397052745,0.278800988,-1.1030378175,-0.3437943448,0.1777520414,-2.6976085253,-0.9108025405,-0.9342042418,0.2387210069,0.153878002,-0.2716319,0.7859445288,-0.7330276938,-0.4814354026,0.2965628573,0.2926004795,0.1464270693,-0.0712062323,0.2403836541,0.1154558728,-0.2816348761,-0.5594229952,0.5378691632,0.3521648973,-0.2401678127,-0.0102049846,0.0214507958,-0.8525394445,0.3457210994,-0.3605501227,-0.1922055385,-0.864662565,-0.84642342,0.4315074095,0.2733413958,0.6476956681,0.2906343202,-0.3503239048,-0.2300364632,-0.0362273098,0.1520187364,-0.635844136,0.0244069458,0.0329700449,-0.5269246379,-0.6132848822,-0.297144677,0.1857975338,-0.3417053361,0.471253634,-0.3136048861,-0.6099934427,0.7358754673,0.4388495529,0.363578923,-0.3873795696,-0.6784712122,-0.7301434322,0.0143488716,-1.2564124636,0.5797554471,0.1547046821,0.3500412293,-0.6087340009,-0.1087893257,-0.0500204754,-0.4566492715,0.4298612247,-0.2391081269,0.4814557384,0.7394043886,-0.5699510256,0.1238283802,-0.2508978802,0.5912274309,0.7371103979,-0.0777123295,0.91046683,-0.6633128564,-0.2579747707,0.0469090208,0.7294391639,-0.2926652326,-0.5514690532,0.1771535312,-0.0042260054,0.313430482,-0.4723544387,0.2396576964,0.2261399775,0.7973107721,0.2382296847,-0.1181738731,-0.1179471114,0.2989520584,0.8171296676,-0.5170454274,-0.2001108877,0.7991378413,-0.6735380917,0.5531414929,-0.2424913161,-0.7650767187,-0.6800561463,-0.1858228187,0.9379019814,-0.0979612102,-0.4666523139,-0.019459363,-0.6718531974,-0.6187235641,-0.2278775781,0.2151952034,0.6151452931,0.874162445,0.3645813636,0.0483278286,-0.2748068421,-0.1958986699,-0.0106307052,0.6394136094,-0.0163354141,-0.4166943509,0.7952828012,-0.4627560491,-0.1901328599,0.1754604034,-0.5183866326,-0.0922372463,-0.4889928583,0.1278264714,-0.4750338692,-0.1768818247,-0.7227633102,-0.7201097811,-0.104411476,-0.3768567581,0.4674071609,-1.0465612587,-0.7565695876,0.0566202884,0.2159379345,-0.8840830621,-0.2384942671,0.6500334185,0.6211698069,0.6800801422,-0.4177018054,0.6010702021,-0.147418273,0.9755289368,-0.676355953,0.0425043775,0.0608478494,0.582334257,-0.4621038999,0.4956714826,-0.7998741766,-0.5645586391,0.3922389419,-0.488842305,-0.1741655627,0.7351265895,0.9813379038,-0.7463896877,0.5389194428,0.1751529572,-0.1817669397,-0.3419437608,-0.040332352,0.872570224,0.3758984274,1.0147549761,0.4053715243,-0.3597147241,0.6487159892,-1.111166553,0.4413579921,-0.0168581904,0.3659828793,0.3371206007,-0.8237636349,-0.9250634609,1.0461886825,0.2231714332,0.3382213323,0.7966785606,0.8725348283,0.45230626,-0.2319321794,-0.1710731586,-0.4511489661,0.1265894363,0.3334616742,0.5898719681,-0.7470119401,0.5959637451,0.7927059734,-0.0405991916,-0.443431373,0.0317147002,-0.3777736996,0.1881718925,-0.0985049889,-0.1272129287,-0.9728455117,-0.5419866739,0.0853037976,0.5737415183,0.0945692443,0.1111087032,0.5891379479,-0.1487301665,-0.8332630792,0.2431916553,0.2305273713,0.4923534939,-0.7372526153,-0.6612802333,-0.116200664,-0.1791469739,0.3733854132,-0.6868647323,0.3486392491,-0.1501142296,-0.8173142932,0.741717907,0.4539592004,0.872156746,0.5296041248,0.2396885227,0.7203034904,-0.2394796424,0.6131464699,-0.55920627,-0.4652513074,0.2615607483,-0.165317242,-0.1165941904,0.3398200924,-0.8387290551,-0.6859527127,0.90733289,-0.6767649124,-0.892607069,-0.2862975755,-0.8987752227,-0.3613092045,-0.6802952897,0.2577528887,-2.030818991,0.3941566074,0.3705952301,-0.6047340172,-0.8917976457,0.5694441437,-0.3394363202,0.476167774,0.9442891425,0.8196439335,0.1243239339,0.0528450133,-0.4753512996,0.6575651039,-0.4613702091,0.6416411992,-0.8507307103,-0.2320699189,-0.9198729552,-0.1679461065,-0.0755373599,-0.9388718414,-0.1304450201,-0.4806926369,0.1442944794,-0.1705827742,-0.5502752738,-0.1910144655,-0.0971380999,0.2766860615,-0.664657915,0.1466885016,0.4954776615,-0.0547950552,0.0111183346,-0.9531555473,0.742482511,-0.6904116275,0.6250620202,-0.9365279882,-0.0124933517,-0.7768296478,-1.0670951483,-2.8005041297,-0.1617276055,-0.9078659997,0.0129710738,0.9472853826,0.7984054279,0.1046161873,-0.0036759862,0.0491582369,-0.9792341016,0.1090879566,-0.6292037267,-0.084842043,-0.6127083586,-1.1149609533,-1.0223607503,0.0905084448,-0.4919354048,0.7339411441,0.4626919524,0.2962402989,0.3411834241,-0.2162156896,0.382785137,-0.216522136,-0.8833714869,-0.7566097774,-0.1126206785,-1.9740543667,-0.2909084187,-0.0086910638,0.9468540297,-0.878394415,-0.242163908,-0.6622874375,-0.274359065,-0.346375622,-0.4911858151,-0.3220724427,0.4324073852,0.7726864399,0.1343225112,0.252838496,-0.7756466605,-0.1169249448,0.4689714719,-0.0077616844,-0.2340375122,-0.3975765574,0.0604564072,0.3669943264,-0.8614342942,-0.3188178965,0.5193097349,0.1362126419,0.2402574952,0.9212954686,-0.0758520283,0.9478657051,-0.6913607167,1.1850614199,1.2879020032,-0.7479428105,0.8754576766,0.3034888984,-0.7809188396,0.4927069895,-0.8666911761,0.4195910733,0.1160834708,0.1389041827,0.0235711084,-0.0823836091,0.4647128202,-0.1458916356,0.4482813228,0.748427727,0.1055340437,-0.2258499084,-0.6500449215,0.5604112252,0.8678516326,-0.2420931753,0.715965969,-0.2770029982,1.9388541133,2.0432700462,-0.1210315613,0.9511090468
   2.570071242,-0.2414322454,-0.297416265,0.6666326129,0.1683659366,0.4849049725,0.4069766444,-0.0068538415,-0.859302967,0.1125258361,-0.0478998812,0.4440138926,-0.2312203905,0.8225711065,-0.9733451829,-0.2780089398,-0.0037264163,-0.866219969,-0.0911109077,0.3943141632,0.6288111513,0.3465901195,0.9706499785,-0.3192295752,0.1541745623,-0.8550075809,3.7304582091,0.7507778087,0.1504893956,1.3933593361,1.6003733687,-0.4867086976,-0.7557098516,-0.9998695505,-0.9655627359,-0.2665301811,-0.1677821787,-0.6698996795,-0.558119602,-0.6152540366,0.2087674019,0.3191923977,0.3294260214,0.143318738,-0.517971056,-1.2364647027,-0.9198600251,0.2826157189,-0.4450280791,-0.0005593279,-0.9531892124,-0.4527491889,0.07718019,-0.3967608776,-0.5002554518,0.2937606641,0.0675492183,-0.5371652049,0.4811126795,-0.1365251376,-0.4360754809,0.4474878996,-0.3139717391,0.0519937605,-0.7448271511,-0.5213229696,0.0136410174,0.802181079,-0.1347694439,-0.6244588396,-0.888647348,-0.0550225723,0.8056173169,-0.7576657498,-0.2046723696,0.6961225427,0.0480606555,-0.7040980981,-0.4479606652,-0.0952279136,-0.8863504401,0.4717618778,-0.200416136,-0.8873629305,0.8768161864,0.3314858065,-0.7558391672,-1.1991653618,-0.0126176081,0.0529076085,0.4507625927,-0.6916821371,-0.5693165063,0.4395108221,0.1129295406,0.4266257414,0.0956033746,0.3486230188,0.2805309491,-0.4285355496,0.564994786,-0.3143481705,0.3257379696,-0.2086804528,0.9783997991,0.6817385288,0.1988119854,0.5294767442,-0.6010877091,0.8078981596,0.0930290661,0.677400145,-0.308170815,0.201062859,-0.6002335793,0.208630592,0.3337213431,-0.3734046093,-0.3955399885,-0.5335775778,1.8295041511,0.7261255018,0.0212526875,0.8269793157,0.3761296997,0.0322001896,0.1244540851,0.2074547202,0.1768874034,-0.9782407171,-0.4110048761,0.5651223002,27.8513763993,-0.929928393,-0.3176314595,0.8404164933,-0.6961274571,0.3850134374,-0.1885244601,0.8835708733,0.2498116288,4.1580469804,0.4315523846,-0.7735085321,4.2113455165,-0.5350012174,-1.083802369,0.2377396339,0.917291029,-0.7521881789,0.2424256147,-0.4609203602,-0.2437345431,0.8279317584,0.2851723768,-0.2392638675,0.8508538652,-0.136869503,0.017080928,0.4421680392,-0.7051059492,-0.8409224004,-0.5657349856,-0.4724607186,0.5101912148,-0.8714327922,0.3546171841,-0.6858763379,0.3846057114,0.2401558916,0.3025877798,-0.9240079226,-0.3952120968,0.5828387789,0.2912228352,0.9839938514,-1.0020753679,-0.1558678196,0.1519945418,-0.8519838064,0.2218850044,-0.2079468731,-0.3750404514,0.1454843101,0.6870249642,-0.0299270359,-0.0752708227,0.2764760336,-0.5113664013,0.5667557137,0.2655022176,0.7783115684,0.8609472659,0.5789260523,-0.4174250186,-0.5901445772,0.2727778293,0.5078131026,0.0347334361,-0.1392298341,0.7266817761,0.5506021086,-0.2129061405,0.7961082194,0.8496630816,-0.1566905901,-0.3052666264,0.8460683811,0.3765276349,0.6377133651,0.2828066335,0.4265134237,0.9515778933,-0.3338195693,-0.2678367102,0.0623335115,-0.0191378713,0.3180194933,-0.0922822506,0.1381943323,1.0375778181,0.7962432522,0.6990624174,0.6049378377,0.1944079318,-0.4406131417,0.4381889071,0.5943404571,0.839474483,-0.2860610676,-0.8475808083,0.4771621996,-0.9002765347,-0.0848324012,-0.6339904671,-0.8949872312,1.1460915967,0.8914168272,0.8557287623,-0.4537033435,-0.102701041,0.0528220196,0.0025164758,-0.4076510153,0.5294452812,-0.9634207222,-0.0574548991,-0.0814279352,0.0433068676,-0.1876233517,-0.5857461717,-0.5460155353,0.742581371,-0.2661466284,-0.604015528,-0.2126982557,-0.6392407267,-0.3179871442,-0.1279916031,0.9643303768,-0.0720740881,-0.5029274953,0.0499039205,-0.4571881562,0.7609938028,-0.4001552929,0.7576142747,-0.4574636885,-0.4624338802,0.8258121451,0.3343365793,-0.3701520819,0.6380218439,0.6856999784,0.7828412671,-0.5692130737,-0.7933595527,-0.4319291576,-0.0446712494,-0.7137135891,-0.9094845134,0.2745722902,-0.0409300997,0.4740690776,-0.66790045,-0.1547267715,-0.0072705892,-0.1464865558,0.4693280451,0.8426103976,-0.7779061113,-0.1702743193,-0.4743972601,0.152837501,-0.7638065689,-0.3150577473,0.3830656379,-0.2737151452,0.5960126673,0.4115651258,-0.3561008654,-0.8519473452,-0.0711491344,-0.5292717,-0.75515608,0.3034761322,-0.4817014199,-0.2165180816,0.68198056,0.7174233015,-0.6953719028,-0.0322116624,-0.2711819762,-0.6008625935,0.059723229,-0.3007028397,-0.4592038603,-0.9628166596,-0.7784918773,-1.130438773,-0.0712456871,0.9147534237,-0.344989125,-0.3473988685,-0.569170621,-0.6472900848,0.4432038187,-0.0160378953,0.1600066847,0.2027497635,-0.1930252259,0.5380022923,0.5086732172,-0.4160125743,-0.8449281281,0.149795328,-0.2313233679,0.4761525208,0.1049417294,0.1128046839,0.9470786065,-0.6844375264,-0.7197223732,0.0187273771,-0.5990515235,-2.4002579379,-0.4520355785,0.8891918651,0.5023013414,-0.1480147619,-0.756968311,0.1317151714,-0.4159009859,0.2908539331,0.3401049129,-0.6926776239,0.2680785928,0.1080695736,-0.0164891934,0.223208342,-0.79482191,0.2224423522,0.2483539148,0.5229504779,-0.2816617633,-0.1584976444,-0.7586739805,-0.0611675997,-0.2571242367,0.038757456,-0.679947687,0.5796551797,-0.4838990013,0.2438066273,0.2932651519,-0.2435381392,0.7831383373,0.7298010535,-0.6114863686,-0.77807954,-0.0720019969,0.3200441498,0.9694187272,-0.7627136798,0.7329804252,0.4095845194,-0.4833823315,0.8505131637,-0.1508276244,-0.0619482405,-0.161539533,-0.7223692656,-0.1714309118,-0.623456106,-0.3249524435,0.2683697344,-0.368950815,1.2004304201,-0.0340372271,0.3516163224,-0.000764324,-0.471090904,0.3931935184,0.720745654,0.5197191492,0.3861093129,0.3280631106,-0.2198584394,-0.0739875954,0.8195848356,0.0046438093,0.0680322513,1.0841276235,0.7812403952,-0.3520609522,-0.3846101409,-0.2339709781,0.8663538318,0.6480677861,1.3874473936,-0.1511331626,-0.6964268849,0.5036414669,-1.645557545,0.1842354599,0.0595260875,0.6443587825,1.593115415,-0.1779378438,0.3138761937,-0.2154373556,1.8674220657,0.4626835281,0.7291449452,0.3924083847,-0.5454142229,0.8440497637,-0.0964069858,0.596469183,-0.4391235463,-0.5544922838,0.3267247469,-0.2391449762,0.589944876,0.1492244317,0.1647123149,-0.1178688219,0.2764525974,-0.5834346071,-0.6445949452,0.2180025887,-0.2763356812,0.0996009444,0.4547725366,0.9507745164,-0.7616305114,1.0684468074,0.3189291195,0.7255281826,0.707026868,0.3008187843,-0.4517535205,0.6238991681,0.7698401076,2.0715987345,0.3925309837,-0.5780008007,0.3980442601,0.3038077162,-0.2869054823,0.402536536,0.3783675951,0.7016718738,-0.1904248978,0.6098258587,0.2513342866,-0.007883619,0.7765671634,0.0901418812,0.4752708748,-0.9662979199,0.4007342906,0.0784120419,0.4324026848,-0.1160379609,0.2018095986,-0.50975817,-0.2382905267,-0.157658641,0.0738595514,0.2041827839,0.5830116128,-0.4934727215,-1.8583036238,0.5139313175,-1.1352430452,-0.9507063049,0.4901719212,0.1620130849,0.8524954186,0.8929665369,0.1676490771,0.2696817979,-0.8211787822,0.6284451293,-0.2257947747,0.524828251,0.0690037565,-0.8452457445,0.5570371533,-0.7249584855,0.6526613848,-0.5385396848,-0.1835577,0.1622757486,0.0897311844,0.1058420466,0.0025004901,0.7648873631,-0.1088304124,0.2170161295,2.0432475348,0.3826406198,1.0683271915,0.2261747493,0.7081970435,-0.0431758393,-0.5281706399,0.6864006789,0.2264280786,-0.2086851613,-0.5234222138,-0.0632567569,-0.2840780476,-0.5082361163,0.6332299677,0.4343013537,-0.7034461694,-0.5318262474,0.3839091644,0.7823684332,-0.0920380413,-0.6307622074,0.1878493145,-0.9250849045,0.7581200632,-0.2492518143,0.5423206266,-0.1036614341,0.7843807279,0.2896278473,0.3044362397,-0.5914900984,0.8938371108,-0.355089436,-0.6849900011,-0.9927048082,0.375885292,0.6382715429,0.5455288647,-0.7469657539,0.7940096679,0.1817186726,0.0686307366,0.1413249909,0.8498886848,-0.3087253055,0.5199036315,-0.551942851,-0.1212211827,0.0456552299,-0.8056928086,-0.322653951,0.62909927,-0.6372173124,-0.0697803041,2.0066310002,-0.9775035575,0.8097827594,-1.0368074743,0.4178564244,0.5681182068,0.2497363451,-0.6904735821,0.697612095,-0.8957526358,0.5022175435,-0.2471363376,0.622162158,0.8736724352,0.7389778616,0.4143026749,0.2409208071,0.1447681492,-0.3271535251,0.1936885713,-0.952402707,-0.5482529688,0.2183892443,-0.3813183552,-0.8098120406,-0.3282483731,-0.6958925902,-0.5455146611,-0.3348571779,0.5099678369,0.6717881357,0.3411406679,-0.6429659672,-0.6748390678,1.648716737,0.3404793566,0.9061237024,0.7609203966,0.7175360576,-0.1334584939,1.3192196889,-0.0691959454,1.9102857541,-0.1614583306,0.8628514467,-0.3610393272,1.768476787,0.0861087803,-0.172121671,-0.072393784,0.1073678623,0.6247468103,0.3905236608,-0.6831256818,-0.0100935681,0.2017435418,0.0748640792,20.8003981693,2.1150731389,2.7361090745,-0.8136243964,2.9954745248,-4.5821051003,0.8393636397,-2.0363353334,0.9859196957,1.0126828439,0.117461542,0.1204347225,0.6340855702,0.106908503,-2.0671182723,0.0791498285,0.1368868294,0.1628926478,0.2274043181,-0.0015354613,0.1351878507,0.2229423656,0.5173618534,0.0342614553,0.1512392368,0.298439251,0.1611434543,0.0856811383,0.0875998319,0.2902411822,19.4205626587,-74.9478092933,-0.7941187967,-5.2149592864,2.6008003521,-0.7311993842,2.8313012031,2.3967316535,-0.3234801543,-0.6573948809,-0.4145871301,-0.3674311072,0.1982295456,-2.6101924993,-0.1759523594,0.6831386154,0.2144164295,0.2016653454,0.0589682033,-0.5164692397,0.8896262149,1.3460422755,1.4429917203,-0.2966448023,-26.4827763745,1.7204617251,-0.3307851376,-2.1119087167,0.6063543331,-1.9333444253,-1.4358171127,-0.4687414993,-4.4790255797,3.8859479876,0.1999942699,0.3377535376,-0.7222732277,-1.0563870657,0.6889447689,-0.4155300919,-0.5340613095,-0.5497412559,3.7534319277,-0.5207295516,-0.503170237,-0.2770430947,0.2131151075,0.4063180863,0.2217068669,1.0502156664,0.6509480225,0.5575025527,-0.2144008587,0.2513941749,-0.1803664577,0.5376077967,-0.1337041031,0.5008209409,3.3530509929,0.1422440457,0.1725568669,-0.3404525105,1.8482353069,1.1341921518,1.0354227326,0.8570368815,0.4576377454,-0.3278944745,0.8571705964,-0.3206024925,-0.0014677001,0.4924686819,0.0290522778,0.2251957874,0.9248893377,0.9563262181,-0.6567402322,-0.2914187234,0.3344947929,-0.3241394837,0.3230669621,0.6044541972,0.1961256014,0.2633222722,0.319104885,0.1884624931,0.3338443114,0.9392825494,0.4133099361,-0.2734015963,1.2935042507,-0.0404914378,1.2353202008,1.2677488515,-0.3493703708,0.1896620146,0.716089907,-0.5392570476,0.0496264746,0.3913069581,0.6853167447,0.6598366404,-0.5501819181,0.1870814073,0.5555840977,0.6930605849,0.6568472633,-0.117602047,-0.3957091765,0.2061443002,-0.4981505942,0.3016176154,0.0613554876,0.503241952,0.0252572255,0.6438476277,0.4935489303,-0.5512620837,-0.3749961172,0.7450610526,1.7663114765,-0.8014959403,-0.8922918408,-0.0818258326,-0.4025556621,-0.3747395745,0.9535535909,-0.9413371987,0.3742193675,-0.146513082,0.6439582093,0.6307691818,0.9522165866,0.3733410668,-0.0211847463,0.1559970236,-0.8934616989,-0.1218775782,-0.9106707884,0.1585895473,-0.5682143327,0.2267953135,0.2797714292,-0.2332768229,0.0887337467,0.9191977238,-0.8701508607,-0.658200073,-0.7764694385,0.013673392,0.8859697799,0.1046387401,0.1227458361,0.5935557859,-0.1410498747,-0.2084942423,0.2514627656,-0.0744108124,0.7885736859,-0.3864507062,-0.4004128809,-0.6178273882,-0.8036220352,-0.5814058486,-0.6450965079,0.6706579711,-0.2187076025,-0.3552672003,0.7842276736,-0.0377987,0.3210852367,0.9089231192,-0.1237205708,-0.4161742831,-0.3924850107,-0.4916608247,0.6844088835,0.7895308582,0.0925704729,-0.5222916392,0.3482290669,0.4629041646,1.0131907304,0.0106315772,0.5630564832,2.3502409276,0.5555606592,-0.411906658,0.4094688546,0.6761109078,-0.3158933066,1.5337753857,0.5631481378,-0.4251952868,0.4381568928,-0.7045603165,0.3106568506,0.1016537118,0.2401937827,0.3773785214,0.2950837344,0.1633908773,-0.1425820672,1.3257038124,-0.7109753384,-0.152413248,0.9211335927,0.9603950991,1.0373565509,0.5679832173,-0.3397535753,26.4062793147,0.5748746202,-0.0087430637,-2.4494113634,0.1289190833,-0.6581259547,-0.5865578175,-0.0770557097,-0.0493751495,-0.4483910017,0.060832317,-0.017402553,0.0271819935,-0.7292028704,0.0488908798,-0.1844011803,0.0485841991,1.0807287545,-0.1231458493,0.0521416899,-0.061457469,-4.7225233731,-0.5775223985,3.1851737436,-0.1825245689,-4.7005561664,-0.2708754145,7.2090902569,-0.3628114623,0.1248224972,0.5151494619,0.8359421106,0.3720850766,0.7967654367,-0.1073311691,-0.4195256596,-0.2072240693,-0.2766279105,0.5089903956,-0.3115560528,-0.4117993238,-0.6764227446,-0.4496521463,-0.1149499052,0.0286475664,0.8728846385,0.524982986,0.1937757667,0.5981585644,-0.3451032463,-0.1814154598,-0.8336607056,-0.1497938399,0.580563051,-0.4052553129,0.728010463,0.5619345912,0.7447049721,0.0359718028,-0.0723811762,0.6338596935,1.1146736228,0.6130791248,1.209909602,0.2238169567,0.8557024925,-0.3786752764,1.2939101449,-0.4385934114,-0.7235332869,1.2191697605,-0.7255178968,0.5825982179,-0.4253021111,-0.1482763305,1.0841956687,0.3398141174,-0.056376845,-0.19677553,1.8384973494,-1.2933412739,-0.4590903513,0.0675752281,0.8804701775,0.5824590157,1.0611182626,0.6465666945,-0.3863892997,0.6508287694,-0.5776974586,-0.0589996727,0.9851640405,-0.5179886335,0.1767238153,-0.4796034204,-0.6395996352,-0.5909218343,0.4854607619,-0.337336039,0.4617661569,-0.8125518621,0.2549987747,0.7620451201,0.2860519926,-0.0352799221,-0.9591493986,-0.4446372516,1.2891821977,5.0138191283,-0.5226408512,0.0883516253,-0.0963389503,-0.8723203118,1.6955325921,0.9007109451,0.0637820371,0.8176961075,-0.531496687,0.8173490528,1.0620349404,0.2650101764,-0.2085494816,-0.8643136968,0.5633304265,0.0928729076,0.5700755789,0.0233286583,-0.0180561644,-0.4016299881,0.0667117403,-0.5647073316,0.6739176872,1.362962684,0.5950290259,-0.0978320324,0.6586249471,-0.0580216779,0.7974423538,-0.3561377496,-0.5394479643,-0.0445643491,-0.1740295306,-0.5160584378,-0.1172006004,0.7117907149,-0.4895710533,0.3187326725,-0.3223227455,-0.5335445434,-0.6383955502,0.719392605,0.1292938272,-0.6210116075,0.1100849383,-0.7748657383,0.7520295411,0.6199884327,-0.5487053563,0.4574916621,-0.8808545525,0.5024598818,-0.6094688585,-0.9815243123,-0.4826972331,-0.777879372,0.0849337461,-0.1805027875,-1.0686440747,0.4469710572,-1.3533777296,0.403723978,0.5093996299,-0.7879559133,-0.2261178638,0.8100169439,0.5727718056,-0.9547944227,0.4703548637,-0.1410298211,-0.4675368342,-0.0942693989,-0.5619288369,-0.9011775601,-1.865592446,-0.0133331462,-0.2949903899,0.55282421,0.908043382,0.6362791815,0.3833399164,0.1808184571,0.4932645263,0.4054596415,-0.9505361011,-1.1235509035,-3.7511105595,-1.8121930902,-1.8264542014,-0.1442567438,-0.781716617,-1.2442469698,0.1402418266,-0.3374198225,-0.3992845954,0.4622503695,-0.0956812054,-0.5862434792,-0.2315302748,2.114635858,-0.2687728165,0.7057384326,0.0716489241,3.3051773196,0.7369848043,0.8418537315,0.6759842353,-0.3265794212,-0.3002349004,0.7360195708,0.0884832785,0.1044392669,-0.3362085815,0.3603264126,0.3458345944,-0.8391461904,2.8603732528,0.5353804113,0.1739586619,1.3019443674,-0.6496742911,0.930996273,-0.6603419066,0.6696695302,-0.8548501212,0.2945624933,-0.043022833,0.7661382953,-0.7288088711,-0.0113472927,-0.6446850739,0.7899814887,0.6026775095,-0.6491647039,0.3730804039,-0.8912602573,-0.6328664345,0.8304945739,0.6701055613,-0.1947780732,0.135061138,0.1762186233,-0.5369997948,-0.065947095,-0.0382110894,0.1258134371,1.1951562949,0.7290644428,0.5277270458,0.6120478954,-0.7614555874,-0.2326652547,0.6003130805,-0.339668679,-0.5723010516,-0.3746641483,0.1273366199,0.3706060191,0.3063479519,0.2081262971,-0.8601657629,-0.9412813374,0.7053981089,-0.6882265789,0.5073177194,-0.4009436262,-0.4643018018,-0.4734685454,-0.0196047287,0.8180275562,0.7542580912,0.7825400632,-0.1387187707,-0.7823088938,1.5567381383,0.7759948857,0.6011136216,0.5362265342,0.185108299,-0.2224992006,0.0713804926,-0.6533765311,-0.3462662471,0.1848078617,-0.3898723956,-0.0377166202,-0.6171350205,-0.5732174238,0.4599261221,-0.2864916896,0.5518688963,-0.5912418444,-0.1022366042,-0.3525140723,0.1779324592,0.49936207,0.3373250832,-0.5032076225,-0.395504972,-0.3403626891,0.4553137457,0.6835232493,0.3556360382,-0.080692257,-0.8736494402,0.3546700389,-1.3378423938,0.2386839233,-0.8475397704,-0.4763262959,-1.2911776778,-0.3569891276,-0.3739270634,0.0035585149,0.0395840941,-0.0172826096,-0.6865484126,-0.5273698635,0.9003235977,-0.7479898775,0.3100597543,-0.3596406974,0.905964714,0.7474107014,0.4831326087,0.042607433,-0.445098276,0.02777011,0.3083782508,-0.2261297141,-0.4729045465,-0.1817227755,-0.2042934136,0.7720109536,-0.2931348253,0.8683125996,0.2907819123,-0.9026405775,0.3217017336,-0.9218026773,0.1857178917,-0.9536388175,-0.4617951687,0.1769994484,0.700868907,-0.4359938762,-0.0514669552,-0.3674401564,-0.8376571693,0.406182788,-0.1474542914,0.3694979983,-0.3337508564,-0.4106816536,-0.8155571607,-0.1217591648,-0.3269956197,0.1386808229,-0.9246625296,0.0585604281,-0.4885721644,-0.1056296632,0.23004385,-0.5511426569,-0.0141748069,0.0459792169,0.6740462228,0.8011377349,-5.6795315188,0.827102193,-0.2428676922,-2.0800329547,-0.1626333924,5.3612070269,0.3851094047,-0.500596628,-0.4368901053,-1.0882514227,-0.3040346592,-0.1783821634,0.0444075869,1.8964114709,-0.1668423318,0.0447469781,0.0473142169,1.5066574139,-0.3873540709,-0.4704870881,0.0385012293,-2.2767110451,6.9659838553,3.5264822068,4.7566558722,-0.7762097979,0.0760774359,-7.5417502372,-0.6508202427,0.1591252655,0.2769334176,0.1588040491,-0.1363100632,0.1981361841,-0.5692285174,-0.932241234,-0.1973883083,0.9617028044,0.1593989878,0.5952547421,-0.0757416792,-0.3479617779,-0.7012694028,-0.0677619856,-0.0937182812,-0.3852437875,-0.324635935,-0.5110377055,-0.6080532082,-0.1488840142,-0.116990965,-0.5413368002,-0.8128348254,-0.1506520999,-0.7138738514,0.7002835541,-0.1413467998,-0.6828319693,0.5981435699,0.5660986556,0.6015929347,-0.8595136991,-0.3956562061,0.1586116923,-0.3722201188,0.4662920121,-0.9247147647,0.8653804078,-0.1116935121,0.7368969676,0.6031378664,-0.0939802315,-0.0845876628,-0.3519528918,-0.1756964751,0.398643464,-0.0244919578,-0.1777483524,0.7610332993,0.6562724415,0.6593089465,-0.1071110659,0.7356968363,0.1906136813,-0.1378867593,-0.1902821965,0.9177988471,-0.4958875521,0.4568034511,-0.2255703272,-0.2197705787,0.3287225491,-0.0802770651,-0.7026215243,-0.2219820052,0.7252796531,-0.0264616884,0.2138874337,-0.1959505822,-0.7224215038,0.3325067262,-0.3523091165,-0.1636355059,-0.2039727296,-0.7435652429,0.8676412355,-0.3139802941,-0.1814898455,0.858834238,-0.7948270457,-0.6522418676,0.7665429681,-0.4805914008,0.7284789832,-0.3486174934,0.6320310551,-0.463578053,0.6343832774,-0.3831058925,-0.5657799749,0.2615570453,-0.2495925029,-0.1331021778,-0.5721648017,0.3661430142,-0.2745231639,-0.4227389489,-0.3301738378,0.6356106883,0.3582770819,-0.1643721381,-0.2509647751,-0.0228378453,-0.3266225264,0.9812790656,0.1301880702,0.2400665408,0.2822942062,0.7915468821,-0.2552434406,0.0041782458,-0.3433887133,0.1462982114,-0.411543025,0.8824744657,-0.3846056022,0.9542958783,-0.2627925657,-0.0779283868,-0.9457506845,0.6661774279,-0.3810067702,-0.1960424524,0.2389283688,1.2393231791,-0.0375532254,-0.6558997566,0.7104954468,0.4249621188,0.3824906578,0.8251055818,1.1290138723,0.6495536698,-0.4787476961,1.0315225663,0.4169065504,0.1100931931,0.0576146101,0.8374508986,-0.2239888084,-0.3870096608,-1.0220753068,-0.4317748546,0.7455158873,-0.2726076793,-0.0870766936,0.7689402284,-0.4643917294,0.3411730653,0.7998663636,-0.2492920982,-0.4655082158,0.3171185571,-0.5626763144,0.4213312216,-0.2444289862,0.214495612,-0.1467063082,0.1854872123,0.4070998243,0.6433600093,0.0390793252,-0.1713203177,0.7947112282,0.6019268665,1.0038134952,0.9278814071,0.754772459,-0.8816318672,-0.5994925713,-0.1368237855,0.8864680027,-0.3346729432,-0.6784941784,0.3365736398,0.6409533907,0.035665959,0.0617315275,0.570412498,-0.271880367,-0.3845617683,-0.862344077,-2.2156376267,0.9471961004,-1.1629932306,-0.1863793293,0.0583815786,0.4302004309,-0.4913743235,0.0374679955,-0.2265500262,-0.1652684678,-0.9057883332,0.4633335355,-1.0748633901,1.3972296453,-0.3426570546,-0.9068887106,0.5050244896,-0.7550442848,-0.8596248939,-0.7575432095,-0.7342523629,0.8349358151,0.3618557499,0.2539545287,-0.1736671189,-0.8625770147,-0.615948639,-0.8387589143,0.0948858664,-0.2156614358,-0.837299234,0.2825353693,-0.1238989593,-0.3684308954,0.5634723643,-0.2827888606,-0.1622670844,0.245836206,-0.3977784984,0.7664604548,0.1196168856,-0.9658941738,0.8760761191,0.6970680168,0.1335912743,0.4299450136,0.1960769188,0.4175622684,-0.7153246925,0.5895405046,-0.6723655889,-0.8604856586,-0.6370036235,0.8490665651,-0.0063642116,1.0234344619,0.4948966983,0.6225900992,-0.6160842032,0.6954123358,-0.6665395191,-0.2685333481,-0.5038572495,-0.0186183584,-0.3921697101,-0.6780549769,-0.0939487111,-0.7474877357,-0.899635534,0.2510266802,-0.0829335766,0.8251126215,-0.1496024697,-0.8754623537,-0.1178441299,-0.5580224317,-0.0018725069,-1.0078953253,3.1976234606,-0.140683841,0.2074688881,2.3781185106,0.2091538902,-0.4668972182,0.2101470016,0.2639771479,0.3394825595,1.0757961515,0.3150639186,0.2411531605,0.2880670446,0.6942845816,0.1005725004,0.2303444498,0.2507228996,0.581007214,0.2997791105,0.2449797061,0.1801645513,10.0413072618,0.1922173787,1.0797303094,2.5090845239,-73.82203364,-13.7541792777,1.1777875005,1.834348302,0.2266075044,0.0520590042,0.2188518844,0.2545317785,0.193094827,-0.3375169551,0.8429788353,0.3507466767,0.7008022952,0.3506114444,-0.1861857924,0.6265069433,0.132496706,0.4813890964,-0.8684650704,0.8135130693,0.06633921,0.0870272167,0.2260221198,-0.0011571795,0.5040485065,0.1512313728,0.6700441859,-0.9454291256,0.2956959667,0.5643765371,-0.0417823515,0.0974439146,-0.4430009792,-0.290448201,-0.8579762856,0.2549647493,-0.9599805229,-0.7325786986,-0.8076525968,-0.0818390904,0.6963466218,0.5321097243,-0.4202987351,0.324131798,0.7239769468,-0.4005935516,-0.7188251937,-0.4242071623,-0.5720199688,-0.7226802882,0.6566469737,-0.1937760037,0.2665621342,-0.5390777772,-0.3975372572,-1.0204379702,-0.3207221125,-0.1757544448,0.2458909243,-0.4940703589,0.3101695324,0.8529641778,-0.2228703495,-0.987967072,0.0431732002,0.4834993558,-0.12408997,0.1142741174,0.5424673002,0.625414881,0.542124415,0.4057317055,0.1264556831,-0.3396027627,-0.4267919141,-0.1761120566,0.8983296462,0.0815541046,-0.3767655889,0.3922047527,0.3715597111,0.4776093955,-0.8488159022,0.5278618115,-0.1635047826,0.9260807642,0.1598629222,-0.8782395485,-0.5997916451,0.9818864718,0.6827604015,-0.5629710651,-0.5789288511,-0.030088826,0.3579712777,-0.5570936831,-0.2837414771,-0.595880123,-0.2075619446,-0.1604567539,-0.4039156702,0.238923548,-0.2560257817,-0.0036481727,-0.8105406015,1.2020943061,-0.1075779019,0.8966561767,0.4757821982,-0.8891650936,-0.4541575964,-0.2560692872,0.3393211279,-0.5803661853,0.2850626272,-0.3246493206,-0.2574713259,-0.8572842545,0.3327149683,-0.1763174229,0.6364561359,-0.64562856,0.0544286581,0.3543324459,0.6851273324,0.2734918498,-0.80036495,-0.7735710789,-0.0237764525,0.3140312937,1.1095725329,-0.7201298173,0.7558933405,0.3962513474,0.2163876681,-0.2249256691,0.8338940206,0.4677781636,0.8474894436,-0.4245463661,0.0978765263,-1.029937836,-0.2945925159,-0.6367159962,-0.9207663081,1.4228262804,-0.3902631404,0.4723177353,-0.9678001978,-0.5465883782,-0.5218600309,-0.418686388,-0.1611106436,-0.6853285755,-0.1924713728,0.5331131177,-0.209135835,0.8337777111,-0.0113375597,-0.6186641729,-0.0135122929,0.6122438132,-0.7354159035,-0.7709920679,-0.4719550171,0.3094093829,-0.3137041687,0.3246734409,-0.2528108564,0.0456547214,0.8727856947,-0.617472745,0.6637714101,0.2892133593,-1.0271423027,-0.3056209747,0.4186419113,-0.5061643613,-0.6693133413,-0.7034827083,0.393975924,0.5987026598,-0.77620704,-0.4109198938,-0.9438859324,0.2109889588,-0.2275792629,-0.0164959641,-0.515552808,-0.5868459053,0.2178981705,0.1519580389,0.3318751542,-0.0222875907,-0.2677754745,0.6031180124,-0.286903356,0.2165397276,-0.148668172,0.6822266617,-1.1318228259,0.3870345566,-1.3675194691,0.7517115272,-0.0345627259,0.3824876866,0.3699934933,-0.6474706846,-0.5042313401,-0.0671470305,-0.0093621266,-0.6551260056,0.5572982162,0.3216434652,0.1726555191,0.17651665,-0.7740116778,0.5029663591,-0.3153151712,-1.028929654,0.2818573389,0.2336826676,0.7380764345,0.113532553,-0.4418476235,-0.1556387137,-0.801755851,0.3515674665,-0.5202247417,-0.4553649091,-0.7005849719,-0.0670675355,-0.6229339468,-0.5005735872,-0.1408642085,-0.7135955853,-1.7679910402,-0.7542695703,0.4900613629,-1.2310621148,-0.9576221714,0.7473611393,0.8378309414,0.1236585541,0.5255111515,0.7807344118,-0.5793332075,0.3195757443,1.3122404585,-0.1347405967,0.6301227287,0.8571427178,-0.4867226407,-0.7138177998,0.1134054881,0.4068610375,0.0620186152,0.2763595938,-0.0987920563,0.9348332222,0.0930069751,0.3164142737,-0.5781181674,0.1823896309,0.2143130105,1.0938903508,0.1298112952,-0.686456594,-0.0371235552,-0.6017732292,0.4987889237,-0.3623615392,-0.9846475573,-0.566009954,-0.4144276921,-0.412112066,-0.1262449105,0.8473125706,0.1166892037,0.6213479099,-0.0718981348,0.6843642666,0.0024214842,-0.694622566,0.0857066113,0.2834435625,0.0574625363,0.0234592226,-0.6028813061,0.0982847135,-1.6060042891,-1.6674899647,0.5335525015,0.8003201262,-0.4949214101,-0.511674028,-0.0352730174,-0.0974891609,0.5768210839,-0.5046619813,0.6199502218,-0.4260106464,-0.9916885737,0.1755309386,-0.6347576116,-0.0654157959,0.1347884633,0.3412287691,-0.5641490147,-0.3072322736,-0.0261976331,-0.1542728862,0.3817643823,-0.0490286219,0.0971834162,-0.2427936471,-0.2456986293,-0.8809781056,-0.6576217931,-0.1921980732,-0.0346931909,-0.7101712306,-0.5718756114,-0.1112078958,-0.7114831356,-0.1542526582,-0.0293651589,0.426855072,0.0338251991,0.4700683922,0.730413922,0.5177333439,0.4028501313,0.8917142007,0.5673810368,-0.1299287981,-0.0065859821,0.8202671947,0.0172816838,-0.3097479151,-0.2762753831,-0.1779135839,-0.6129710905,0.5649552088,0.3676862965,0.7204114726,-0.1730203863,-1.2677580311,0.9296529932,0.3690483196,-0.8966068967,-0.1341854765,-0.2445643876,-0.7013474438,-0.6323765873,-0.1992934056,-0.9183802074,-0.6794986982,0.2845542151,0.4873184416,0.7565274916,0.5199872503,-0.8918707985,-0.2048824833,0.5971991727,0.571288597,0.2482608659,-0.1088995173,0.0100474316,-0.0127736066,0.4518798689,0.2685635774,-0.3547001186,-0.5853390566,-0.8266502493,0.0941654566,-0.5888643146,0.5026426442,-0.8958852457,-0.1180566,0.3948735619,-0.0227044875,-0.5556800069,-0.017218824,0.161160804,-0.5533647549,0.5774547213,-0.9399088139,-0.6150433704,-0.4677479413,-0.0740689192,0.7342885339,-0.2376224505,0.3483358172,0.5689363307,0.0526286293,0.35187511,-0.6066046643,-0.2914934972,-0.4951616812,0.2423838306,-0.6017806232,-0.7844067419,1.16085776,0.2560376523,1.3227837831,-0.7041101527,0.3004279495,-0.9575952039,-0.6595121027,0.2421249637,0.0836430754,-0.7243274218,-0.887460179,0.7091755288,-0.1408690051,-0.5050832975,-0.5687272418,-0.8189697862,0.0701212973,-0.8137043349,-0.2436700427,-0.2845913253,-0.1709980502,0.6838344117,0.38535163,-0.8667420252,-0.0722565625,-0.4515347749,-0.1164457429,-0.0432997182,0.0591976591,-0.4843391746,-0.5684151882,0.3144839054,1.1288369616,0.0628526222,0.391177114,0.5652385987,-0.0147562698,0.1032489211,0.4715337763,0.4415381942,-0.7829495159,0.1884821556,0.5019164918,-0.9192701712,-0.1450390413,0.1193902804,0.0494283273,-0.0343348656,-0.2950612866,0.0216577196,0.8923932462,0.1825814782,0.2380300699,-0.2568867484,-0.7998723304,-0.5560350902,0.689878111,1.3687266104,0.8153182966,-0.2719919144,0.7586176564,0.5720995158,-0.068987809,-0.4501331014,-0.5974172905,0.0497134277,0.1893078842,0.6618563219,0.1495296295,-0.0258874677,0.0232827492,-0.2572278923,-0.591995297,-0.1173760396,-0.4317990317,-0.1635579933,-0.6821681178,-0.5783993187,-0.6690561825
   -0.7678281942,0.5036163799,0.5327076787,0.014060353,0.7587952781,0.8286571486,-0.4307250678,-0.0844605093,-0.7310588861,0.9084371302,0.7251895135,-0.1005148517,0.8276026357,0.0067951003,-0.2045217736,-0.6109695478,-0.6878900761,0.7333604803,-0.4393555553,-0.8486140092,0.4900855522,-0.0901031637,0.9079483373,-0.0228649004,0.2440275665,-0.4311616183,0.9059298467,-0.303139762,0.2281217094,-0.218233035,-0.0327673205,0.2185764942,0.9065442655,-0.1603278696,-0.600145696,-0.4824543043,-0.591506286,0.6987841611,-0.5833076504,0.629999567,-0.5899550898,-0.4145572977,-0.4787525548,0.2720568017,-0.0050716134,0.8121457666,0.0157773895,-0.237612686,0.0048736171,1.0056447354,-0.0047087355,-0.4809011186,0.7153511479,-0.8916266602,-0.4934413029,0.4072554405,0.3628897908,0.606182485,0.3717121487,0.2322454664,-0.0278475823,0.1061757058,-0.589814847,-0.412966516,-0.5314704231,0.3097123088,-0.4265103362,-0.9200958121,1.3144410809,-1.3510659109,0.631296572,0.4261910514,0.8962650435,0.3567745458,0.9238914258,-0.4647060496,0.9157558483,0.40266174,-1.5812825262,-0.3451149697,0.2349164349,0.7297580459,0.5000924323,0.7334053208,0.6218034767,-0.4215804934,-0.2928501745,-0.6354657914,-0.0467011832,-0.0823929155,-0.4115188286,-0.0753937192,-0.4322959504,0.2404362079,0.2052671869,-0.9563417833,-0.751444196,-0.5311024145,1.5940461259,0.1587523617,0.3158736183,0.9265697723,-0.3758412129,0.7361219546,-0.201885595,0.268259616,-0.0241908631,-0.9663562157,-0.3783384983,0.3111011844,-0.2684800848,0.1382275299,-0.5949426896,0.0249953236,-0.2657450949,-0.5396432231,-0.1480639824,-0.1078788519,-0.2655250166,-0.9155908665,0.6052226148,-0.2395089894,-0.3437534437,-0.0320482212,-4.5899220938,0.1541891868,-0.8727822563,3.3047064689,0.8169590407,4.0711872148,-0.7413774809,-0.6145585791,-0.989767487,0.6869375259,-1.4505504071,-0.2280813982,-0.4215844009,0.5097966736,0.0085439546,-0.4212036827,-0.3708074369,-0.7852478466,-0.5030449333,-0.2643017415,0.1195517952,-0.4458443311,0.2703105955,-0.4329693849,-0.5603123218,0.0657133357,0.3151348571,-0.6679518749,-1.0574757654,0.4021337831,0.4118217829,-0.3710577539,-1.7725270651,0.0017154919,0.4488012359,-0.0624960243,4.893301139,-1.72998342,0.5052959946,-0.1832595321,0.5083184748,-0.1562975363,0.2533769214,0.4815913506,-0.1310979456,0.4563530988,0.1116500954,0.5515719472,0.3361467915,-0.4009955418,0.722465457,-0.1104845618,0.3355248338,0.1089061049,-0.1916510602,0.4643450974,0.0818057615,1.4030618388,0.0825174883,-0.7639098179,-0.1822223692,-0.0146951099,-0.1226927439,1.4531764666,0.1425116643,0.5750877038,-0.2497321936,0.6493206801,0.5922793216,0.5844313363,0.2705631586,-0.0799205795,0.4946337442,-0.7688114495,0.3555971258,-0.6118921871,0.3682029236,-0.3544346651,0.4466734166,-0.2023232245,-0.1456884476,0.3031757965,0.1049200255,0.5733583641,-0.1472307072,-0.1221054764,0.5146274873,-0.0965714032,0.6013819398,0.5012942473,-0.1735281399,-0.7584031987,0.3893984942,0.0726728758,-2.451284964,-0.1673891338,-0.2401283872,0.2708156833,-0.4617666315,-0.7272605742,1.0764588315,0.0739282099,0.1845110311,0.151080159,-0.3685992704,-0.5130492811,-0.4438607808,-0.6614946146,-0.5073927298,0.452188953,-0.3508516075,0.8811559349,-1.1206813649,-0.282040418,0.0411965497,0.2173792272,-0.1473365118,-0.3775421953,-0.9681382941,0.9783239152,-2.2641079075,-0.0651061883,0.0853712244,-0.2114283659,0.4021605008,-0.0370226165,-0.0806102635,-0.5307582119,-0.3412408339,-0.0705377575,0.8245756651,0.3790470304,0.1023523221,-0.0596859173,-0.4765126418,0.014907496,-0.6758158118,0.6934829659,-0.1599980116,0.4840589114,0.4174792285,0.3297268418,0.4909749675,-0.2740972464,0.2972867354,0.1139626953,1.1321317762,0.9238652519,0.6466438808,-0.7307552493,0.7823783738,0.0138016447,0.1877497813,0.7444457407,0.7685025173,0.108413935,0.4423567155,-0.1914439219,-0.1835080063,-0.3067016561,-0.3229406171,-0.6518427151,-0.7430503968,0.6971022014,-0.1893551074,0.6603169779,0.3772011217,0.3919476985,0.1119200532,0.3901474228,-0.5279475098,0.8021355077,-0.0349177356,0.9797370574,0.5926128861,0.7717161383,0.3989231118,0.1881348767,0.0761959109,-0.3688099758,0.0796476213,-0.7107696762,0.1484675534,-0.4743854989,-0.1498425737,-0.1269688444,0.0049894896,0.4665502432,-0.5782034586,-0.5064687623,-0.1299613255,-0.6768324415,0.3494922588,-0.222167395,-0.1803363764,0.2957615945,-0.1946793667,0.5922287267,-0.0288571702,-0.230318196,-0.6219090208,0.0533574044,-0.9455326567,-0.5031109269,-0.4332448619,-0.3565439974,-0.6423028967,0.6856844022,-0.4861261786,-0.1370593169,-0.0809755526,0.7670085134,-0.2414912636,0.5825677539,-0.0438524455,-0.8065120173,0.9050816979,0.3153255767,0.6532326061,-1.4482883591,-0.3154829206,0.5048304556,0.192031108,0.4594069359,-1.3755861263,-0.1698762726,1.6093501035,0.5295794832,-0.0258747806,-0.9088026589,-0.0665062861,1.1443678555,0.4674646924,0.4244500765,-0.2686070334,0.5994659801,-0.2390313528,-0.2603457741,0.5091083327,-0.4144761057,0.4529269144,-0.1549795222,-0.5747180264,-0.6164721172,-0.5635038137,-0.934915959,0.4003315069,-0.6149231139,-0.3171669216,0.4327816564,-0.5464768378,-0.5432055148,-1.6346626634,-0.1489123793,-0.4352057207,-0.4964542989,0.6924472897,0.348744323,0.3422010906,0.2213058872,-0.6036458639,0.3561472476,0.4477268652,0.0230980643,-0.5134794493,0.1795348665,-0.1339096285,0.8685423215,0.7174017571,0.746599791,0.782276118,0.1768588846,-0.2285131793,-0.636892381,0.0010720246,-0.3319306858,-0.9760014297,1.0630104867,0.3975372281,-0.9610567263,0.7702981887,0.8390919477,-0.5669522347,0.759217357,0.8315548517,-0.1512453787,-0.2800809362,0.1600873941,-0.8699100276,-0.3810001612,0.418337737,-0.9116363313,-0.1394801747,-0.2591134778,0.9668426916,0.0975938912,-0.0220297356,-0.5000964686,0.5414326321,0.5013032764,-0.1274507961,-0.2301492858,0.8800871428,0.8529130718,-0.1884968933,0.1968908087,-0.3245102739,0.0626354003,-0.7313953946,0.3506349673,-0.100917352,0.6310517445,-0.7089870858,0.8838077784,0.4002992364,0.4499378364,-0.698264269,-0.0003926464,-0.6125370243,-0.5300644813,0.4999069695,-0.5734560102,0.9519090528,0.7216460204,-0.9563529762,-0.9156411786,0.2835012797,-0.0302961642,-0.1895966391,1.6738184201,0.4743728639,-0.3416980844,-0.1011940747,0.1250273037,0.031006512,0.7035470146,-0.6143739629,0.1549237089,0.5020291396,0.4824277134,0.3275573157,-0.5959501895,0.7556815842,-0.0878293,1.1018644683,0.264494344,0.3932551577,-0.1009266357,0.5938737144,0.3574919912,-0.3482096968,-0.3727162917,0.6018397515,0.0566260998,0.0231113087,-1.1638438364,-0.7505082235,-0.7636152629,-2.2733182534,-0.6230261835,-0.2915351563,0.9401921145,-0.5890581457,-0.0906893258,0.2683486225,-0.9484943283,0.7492785412,0.3924202768,0.7263509069,0.6964232846,0.0085791032,-0.3775689763,0.3583099935,-0.6427085665,-0.4174733491,-0.5216821239,-0.8922930507,3.9836519425,0.769085883,0.2157331022,-4.2051425999,-3.9108508831,-0.225070832,0.244273569,-0.2187314679,0.6756566828,0.449808254,-1.6215773154,-0.4556745124,-0.0962151216,-0.357233041,0.691203937,-0.2223963884,-0.5852944311,-0.0571557002,-0.4490198766,-0.1098005124,-0.1621397965,-0.2334698872,0.4778274417,-0.2204094223,0.0028191015,0.0573304443,0.6375728642,0.5162439031,-1.4519470035,1.6459719313,-0.589437857,-0.5299962118,-0.0571004365,-0.1333222698,-0.0295377672,0.9486476993,-0.9415203933,0.7323962839,-0.6567289851,-1.7098989105,0.2787410977,-0.536378239,0.6647098666,-0.8816557462,0.9312810417,0.2343162527,0.5463270052,0.7482189388,0.7720901209,0.1147367664,-0.6578933258,0.2954525361,-0.4348186062,-0.0796062767,-0.4971095552,0.3248139802,0.3108259383,-0.8774919095,-0.0938142908,0.646636358,-0.7093272091,0.0903889809,0.5440824241,0.0984735522,-0.7748157887,0.2806450678,0.2438947713,0.5193829147,-0.5305150832,-0.3588911075,-0.7940241183,-0.5120156054,0.5047646981,-0.9358390957,0.7957781621,0.3008281526,0.6240911326,-0.0399458699,0.6384443856,-0.4573691299,0.2161341722,0.9380001522,-0.2798507295,0.1178009211,0.6532773964,0.0348858697,0.5463430872,1.0880695415,-0.1626604848,0.7775628571,0.5404964077,-0.0827927615,0.1853275836,0.8867364438,-0.2406221286,-0.4996421015,-0.2726740459,-0.2885563516,-0.1586907022,-1.4922839209,0.1374482226,-0.3468239607,0.8882361412,-2.4039756235,-0.7533995489,0.6361156208,0.2762440419,-2.2212354583,0.3714890884,-0.2393466537,-0.1358149412,-0.6220231757,-0.3011019252,0.0643352517,0.0857225834,-0.1073331942,0.971840198,0.5304366861,-0.7374365071,-1.3636509441,-0.0135853628,0.4819498185,-0.9486819461,5.7209701652,-5.4423811407,-0.2832194897,-2.8797310905,-0.1619574119,-1.8945104868,1.9888227284,-0.4125652487,-0.3472412585,-0.3000198959,1.0150213791,-0.2764652467,-0.4067752667,0.9129426866,0.7374427375,-0.0939426991,-0.3380335389,0.0150905918,0.7689519514,-0.3905053517,-0.1438900014,-2.7523230805,-0.5584974136,1.6041414382,1.6474834165,1.4722770692,-3.6796924329,2.9071782555,-0.9357776665,-0.8258633172,-0.8968621082,0.2975368782,0.0576732251,-0.9996958933,0.1579833884,-0.1016792081,0.7595388945,0.4172696504,-0.4159282811,-0.029841201,-0.4194672017,0.0664713568,-0.305013428,-0.3022688966,0.6512787307,0.4705007313,-0.5930716635,0.7017857671,0.3819404656,0.8309223742,-1.103576134,-0.7763051458,-0.9468361044,0.3335959532,-0.3493223002,-0.2877934541,-0.3273743679,-0.3864656548,-0.2108909094,-0.9789843867,0.1337291323,0.4453727017,-0.5830341264,0.1727832648,-0.0749313099,0.6771920722,0.0372427231,0.1550588149,-0.3118315946,0.4168754686,-0.6750248931,-0.5916154792,0.3166363728,0.7718745262,-0.3201355056,0.7833272796,0.1045468479,-0.6858084951,-0.1169588311,0.125375814,0.6664363321,-1.3030999787,-0.0637641293,-0.2541940599,0.01807782,-0.1830197046,0.7896291155,-0.4155391936,0.1476764639,-0.5269483931,2.8997561076,0.5493745034,1.4488738154,0.4990193783,0.4476369943,-0.9894493866,-0.0976686198,0.3590945715,-0.7930226845,-0.5796486049,0.2933310156,0.422920793,-0.0255645191,-0.5244567882,0.3463830973,0.8203196399,-0.264744801,-0.115003188,0.5397935044,1.0774197908,-0.1639022737,0.5296531573,0.920751717,0.9389357306,0.08868224,0.9877072729,0.5761760711,0.3166531064,0.3896191877,-0.8588859247,0.864149787,0.7673503334,-0.1838773778,0.5473687758,-0.1680585446,-0.6855742892,-0.7117645996,-0.6215759242,-0.067787643,0.6832762962,0.4321999458,-0.1290624101,-0.4281510078,0.3607340948,0.1829333919,0.4112366238,0.5738308788,0.3986067914,0.5179685603,0.7084355279,-0.9667978791,0.4847777206,-0.6559431222,0.637025095,-0.9263352715,-0.0623940731,0.4593363112,0.2158595084,0.2999245121,0.1288069129,0.263215766,-0.8599848222,0.6167701108,0.8352612801,0.5708421112,-0.9517892843,0.0244045561,-0.1578451308,-0.5655227979,-0.5180713527,-0.3782031616,0.025328994,0.3580510809,-0.3399095316,0.3182525773,-0.0746865359,0.7425304712,-0.7880235493,-0.2020047192,-0.7411196429,-0.838257742,0.2620123447,0.1377341009,-0.8831313971,-0.3019216823,-0.6562575482,0.2699264219,-0.2871079245,-0.660226699,-0.6533450615,0.7716670782,-0.4476985414,0.0338003282,-0.0948967795,0.8010906047,-0.6673880053,-0.2496871389,-0.2724509238,0.3942551561,-0.2217905789,-0.1604894654,-0.8149565711,0.2609924588,-0.6948188151,-0.2857948197,-0.1394373247,-0.2210956976,0.8226911091,-0.1061479447,-0.4824901079,0.9079966736,0.2193839958,-0.0834394585,0.5490177642,0.3887305738,-0.7919894998,1.1668544507,-0.3143497696,-0.1185006117,-0.0228931173,0.1661702299,0.2153338914,-0.1830876207,-0.7423799985,0.1227852785,-0.1546419989,0.1939920553,0.2356963181,-0.7643104852,0.1071088318,-1.2742789576,-0.5479747843,-0.7014242245,0.1447274639,-0.5477164286,-0.5651638018,0.0801758525,2.062385582,-0.0058955865,-0.0714075094,0.9369839976,-0.0303201669,-0.7824967149,-0.1962750076,-0.282688695,-0.1496955817,-0.5232105181,0.1619529049,-0.8914567564,0.5185195255,-0.5649704772,1.2559550447,0.7604174336,-0.2604501042,0.0464812195,-0.7166340461,-1.2858240347,0.1823352818,-0.0852020242,1.3224122571,0.7120403388,-0.0518057404,-0.279095259,0.6203381611,0.0733942049,-1.1355265055,1.0554829087,-1.340562879,-1.8443424158,-0.6662034964,-0.2199005312,0.3170251142,0.22001625,0.0147810616,0.2442492547,0.1571686091,0.4717826418,0.4147025105,-0.2378611544,-0.8039604826,-0.4686852564,-0.1491194749,-0.9931804995,-0.2615297924,-0.6334822445,-0.6014365842,-0.2290214202,-0.7894473531,-0.2270430446,-0.1230532069,0.5023817392,0.4131240547,0.1933971141,0.2852528976,0.1801521221,-0.5171400283,0.393945406,1.9999756449,-1.0012835043,-0.7152225491,0.0577049865,0.4375288032,0.3843653018,0.5157594681,-0.6784068647,-0.1697059,0.6417372853,0.5458826785,-0.3166257254,-0.2067455834,-0.8121700316,0.5667394706,0.5968136688,-0.8196672056,0.1397254646,0.5508323179,-0.2921730303,0.5358979117,0.4740019298,0.049257501,0.0960882158,1.0454581481,0.2631420597,-0.4724702129,0.5153077013,-0.3941618766,-0.1158396137,0.028155354,0.2200587028,0.119322154,0.6586394098,0.5346021566,0.7927193763,0.6018817514,0.0141117321,0.0394756702,0.4827438248,-0.5327194647,-0.051790106,-0.3367491077,-0.4670698965,-0.4050209203,0.2253223986,0.0831598294,-0.7016352417,0.3590125504,0.5960503702,0.4315928481,0.1193445308,-0.6448991197,-0.2328350694,-1.0201357094,-0.2743085546,-0.7683605003,0.6360814023,0.4172082842,-0.6657807111,-0.5952521261,-0.2569024096,-0.2458749031,-0.1124565435,-0.2018455593,0.4984210451,0.7090898903,-0.8209191224,0.0570704445,-0.820522843,0.9187930459,-0.8428022619,0.1114010289,-0.1370256255,0.4258200952,0.9230618016,-0.3122477638,0.5286150455,0.6541328918,-0.2618031084,-0.1678973107,-0.0006580703,-0.2064407244,0.0462123439,-0.4924130749,0.7330682629,0.0775553841,0.0565614929,-0.1720423125,0.965509942,0.0063879445,0.7165815082,-0.2043040502,-0.0025404061,0.7412054824,-0.7177117909,0.1640086196,-0.5084444201,-0.0176990464,0.4251475435,0.7938159073,1.0686355418,-0.2793523473,0.4237490163,0.021581965,-0.1806371521,-0.6836541755,-0.4868323333,-0.2878884463,0.029162306,0.2735906574,-0.7637268347,-0.5797293368,-0.5468940168,0.9108872441,-0.0072927363,0.5481895709,-0.4538418768,0.9109720956,-0.1224463791,0.5264616125,0.7092660297,0.0856536577,0.2592401404,0.8971492295,0.6342687199,-0.020961485,0.2928617391,0.5301726341,-0.892086755,0.8801704307,0.0397127682,0.8993923334,-0.1809018879,-0.2012701082,-0.3830108544,-0.6682278008,-0.7917692162,-0.6030989435,-0.8840553643,-0.226275249,-0.1403738106,-0.0155149114,1.0451109404,6.3960119601,0.9645380515,-3.2704452692,0.4187812039,0.4661776445,1.1815437958,-0.7890537664,-0.3641899666,0.585202236,-0.4026082946,-0.2467793332,0.1541255474,0.2496105178,1.0582811797,-0.530002874,-1.0055032636,-0.3301969295,0.2233836347,-0.5445535323,-0.8664606287,-0.1969712738,0.449041741,0.017710703,-0.8016164345,-0.0804706494,-1.5503709614,2.3126332487,-0.9324735123,5.7256605884,-7.5220638812,0.410244522,-0.7255108443,-0.3153384139,0.3707019844,0.0192586473,-0.5402772293,-0.6348956207,-0.6626670938,0.0406834594,-0.1778292792,0.3356957468,-0.2748143343,-0.002631144,0.0862483028,0.1944121647,-0.4299556545,-0.8453782787,-0.3151274005,0.7255257279,-0.5550087707,-0.0656414246,-0.0400638128,-0.4762648548,-0.1301894912,-0.5810123704,-0.4085853294,-0.0291397001,0.036672059,0.4573577384,-0.3350129339,-0.308168354,-0.0534534163,-4.0485570631,-0.2367504771,0.0839966283,0.103868167,0.0106725416,-5.3833580166,0.2815760805,0.0650368119,0.6040572032,-3.8856845474,-0.0765886653,0.1304581936,0.2518251077,-1.9513331605,0.1210108621,0.0390578336,0.1753539122,-1.0571187127,0.0383304437,0.1546896126,0.2297839468,11.0628428111,2.4280448071,1.0450492891,2.729074363,-3.2415558458,-2.921777823,-14.1315939084,0.0284391833,0.7136190506,0.5350797798,-0.5080801332,-0.9455931096,0.5918162684,0.7797805127,0.2866334781,-0.6659084106,-0.0992702515,0.0698478718,-0.7745887469,-0.4704237521,0.4508644062,0.6856640673,-0.9721469946,-0.0578301101,0.7330629476,0.0974231429,0.6255358694,0.429812653,-0.16223962,-0.8516231929,-0.9845545053,0.9411113618,-1.1340077678,0.9503636801,0.6102969311,-0.6784808849,-0.2748481902,-0.2227809575,0.0957177366,1.1435261893,-0.4510205116,-0.2594077904,-0.3903989296,-0.3059849127,0.2185628733,0.9341215998,-0.0310521979,-0.6906682799,-0.2133845853,0.0432365743,0.983889531,-0.3148945001,0.9953081762,-0.3235636348,-0.2960336549,-0.7790853646,-0.5147088868,-0.5803334572,-0.9008386027,1.634309038,0.6875256907,0.2861185842,-0.1356467631,0.3509637669,-0.5763744575,0.0884285708,-0.2877143746,0.7324761577,-0.0952006016,-0.1682382002,0.4515749401,-0.3697818287,0.8895035749,0.745776011,0.2898254346,-0.1335214886,-0.4104944171,0.7466518097,-0.0088270313,0.5803644304,0.850676199,0.3455745575,0.2759848378,-0.442773418,-0.394383815,-0.0777320553,1.0328435574,0.4281874533,0.133655458,0.1202173427,-0.2624608907,-0.4601054761,0.1220579708,0.6138067107,-0.9362255007,-2.5426552976,0.0464698847,-0.1657276658,-2.7881612539,-0.1409301555,2.4509940838,-0.0121592884,-0.1142218095,-0.3529463577,0.128625156,-0.4122350196,-0.1382352257,-0.4010472477,-0.2929763073,-0.133892196,-0.1818307452,-0.3583233456,-0.9490150863,-0.4515822811,-0.2098335876,-0.3737959275,0.9002255438,1.4071685296,0.4768957567,-0.8188111987,-4.4603271826,0.853521481,24.6839157062,0.4633087382,-0.4645662165,-0.429454552,0.747488803,-0.2382889893,-0.4785719839,-0.3091445392,-0.3696800988,0.046854403,0.4974555759,0.8543319176,-0.4691145521,-0.588799568,-0.2919361546,-0.5658446303,0.0230329913,0.3672664884,0.0459356559,0.7190035281,-1.241802526,-0.0367184698,-0.3397436928,-1.0913234923,-1.5515112494,-0.76943904,0.4377096117,0.2961305843,0.4674119584,-0.8130151204,-0.076690193,-1.2979822785,0.2192128863,-0.0228245471,-2.7642547505,-0.6330258342,-1.7888230164,-0.109228632,0.8558850031,0.226636865,-0.4788422545,-0.5004136435,-0.481669726,0.6611244969,-0.0073833845,0.0772672877,-0.9448367507,-0.1788371044,-0.0931383887,-0.1009391232,-0.8077421379,-0.2590742857,-0.2566177708,2.0943240488,0.8025582484,-3.3256540756,-1.8429735184,0.7501499924,-0.457730306,0.0112377809,0.0458847131,-0.1698992084,0.6612380861,-0.4875329785,-0.6157389342,0.0416210231,0.6096665947,-0.6919120426,-0.1236696864,-0.1083320249,0.4955170633,-0.4884325288,-0.8927844365,0.5554157086,-0.0853442973,0.1779800038,0.0870899404,-0.6163889291,0.7184661224,-0.6953929156,-0.7081570169,-0.1873594455,-1.3364258623,0.2579254297,-0.3040586127,-0.139576305,0.4945240475,0.4321572193,-0.3696020033,3.7229747061,0.0350704248,-0.1227444489,0.152619377,-0.1186239979,0.3222485503,-0.1232306564,-0.084523557,-0.0717787885,-0.073684274,-0.2026183107,-0.079690383,-0.1132462424,-0.0760718714,0.0066719217,-0.0175054174,-0.0996434245,0.3075662116,-0.063061025,-0.0657624198,-0.126881634,-2.7740798017,4.0636962138,-16.0987469082,76.2213996792,-5.5609597451,6.8762095258,-4.1011040547,-1.0487150983,0.3511111637,-0.0381246824,0.3533209929,0.6108110129,-0.4490733085,0.0480513145,-0.1412496738,0.0438098508,-0.08385412,-0.2624296466,0.1939004686,-0.7707831077,0.1299649539,-0.4795594008,0.7940688319,-0.1560880439,0.6134284969,-0.6782913882,0.6671753857,0.6649855939,-0.3455928521,-0.8330703402,0.5735922687,0.84462243,0.7523636201,-0.2221721394,-0.5671964015,1.0169066451,0.2979739841,-1.6443729325,-0.3253132429,-0.2916651565,-0.3902217459,0.4568004165,0.8020720385,0.0201036646,-0.221033522,-0.0928487437,4.530956075,-0.2980914955,-0.7769010069,0.9704980184,-0.694449417,-0.4001973126,0.2708308968,-0.122078033,-0.0394547992,-0.1037946945,0.81373561,0.0723974915,-0.2635880422,0.1382872219,0.9195778151,-0.9931150569,-0.8382842758,-0.8521805608,-0.4043571425,-0.276535379,0.731964965,-0.4613893107,0.6065858376,-0.1035233573,0.1741518392,-0.52537103,0.5194183901,-0.1401408693,0.1405586681,0.8833017612,-0.2522959843,-0.5397476663,0.1314641222,0.3420185241,-0.4160590783,0.1029410906,-0.6224473399,0.5283862101,0.0076626738,-0.4744138938,0.4112301712,0.9451403408,-0.3801077763,-0.518717853,0.125029478,0.4033839648,0.2371856325,-0.9176078103,0.6424752111,-0.037109012,0.3125545756,-0.1433580465,0.083580354,-0.7941727101,1.0442767403,0.9028038094,0.3628597008,0.4065231376,0.7284323373,0.0011954283,0.2013361432,-0.1942382795,-0.1158587151,-0.7793528092,0.1742301046,0.3027119881,-0.0070703323,0.3765102155,0.8756923242,0.0259912309,0.3317817782,-0.870550933,-0.7777789053,-0.6991526442,-0.7817937779,0.649256698,0.4011672923,-0.3572348918,-0.5438686629,-0.1703997886,0.0952256987,-0.7592377733,0.1393748733,0.9135018162,0.1758637022,0.2256221651,0.0684715253,0.9868391814,0.3009787926,0.1667296045,0.0887852414,0.2148882777,0.1476675417,0.1450554775,0.0346063171,-0.5486305955,0.023581091,0.1131417171,0.1410180712,2.807393322,-15.6549800927,3.6659221687,-25.8988713724,1.1818302879,3.8677528332,8.4827528397,1.5171406222,-0.1937242766,0.5437729426,-0.5816323948,-0.6744799501,0.3086138124,-0.0895998302,-0.4216766068,-0.4408303371,0.1004437841,-0.3797676669,-0.1304380784,0.7913311479,0.1342022683,-0.2215507154,-0.5775479553,0.3895967126,-0.0858060242,-0.7760625081,0.9052953538,0.2589708321,0.41491923,0.7633226474,0.8664721612,0.8651359139,0.6840143101,0.596012195,1.1660989431,-0.6159993307,-0.0383503398,0.2206434713,0.6616960623,0.5262236354,-0.2338209541,-0.1960081235,0.3240341731,-0.9434974772,-0.1413649733,-0.8915631083,0.3985018579,0.0757955071,0.4153870368,0.4284003354,-0.0151368102,0.8559345592,-0.4457609049,0.1718814037,-0.8428572186,0.6253613528,-0.2418381101,-0.6018114645,0.0307924329,-0.4617300712,-0.8874173135,1.0150278632,-1.5826913596,-0.4873295412,-0.1356955773,0.350465422,-0.8451777461,-0.9227386169,0.7198834872,0.1233234396,0.748403574,-0.3205255269,0.6360183213,-0.3557896484,0.0199685921,0.5123525424,0.4821939324,-0.3974921211,-0.4899941207,0.2823959187,0.259157049,-0.5985207996,0.10231231,0.2465937617,0.8325554895,0.6295065263,-0.0344642345,1.9081707988,1.0965150949,0.3974792073,-0.4050325178,-1.1809939254,1.5235749593,-0.1424391372,0.5807078319,-0.2068107857,0.4303162926,0.2543799842,-0.496279375,-0.3297367597,-0.9183925846,-0.3472946368,0.2873220531,-0.4205070158,-0.5890957171,0.1343530027,-0.3161285838,0.3920383579,0.0325551455,0.4815779559,-0.7916428485,-0.7057287258,-0.8451901396,-0.4220533149,-0.5676385999,0.3410702409,-0.7969893314,0.4946620617,0.6996072237,-0.6949466217,-1.032519559,-0.3377808885,0.7647479762,-0.5843078018,-1.0214486579,-0.4491712918,0.6421324217,0.4522424693,0.3482701244,0.6156990906,0.1463203934,0.0598498522,0.3143234147,0.3828358426,0.5207432613,-0.2111449946,0.2106121191,0.0467159049,-0.4296279413,-0.1718018893,-0.6313005361,0.8240026141,0.3895691489,0.2277787992,0.7549149801,0.5031933292,0.193518532,1.0478559837,-0.7303163827,-0.3534953892,0.8280126868,0.7888153943,0.5414892833,1.0082587053,-0.6034402286,0.6156041478,-0.5702325582,0.1639606167,-0.9418729762,0.7141949122,0.2467115993,0.1621825678,-0.360535218,-0.0577425254,-0.028118793,0.5273641225,-0.5861077097,0.4771198623,-0.3579689364,-0.1378042424,-0.4640680541,-0.128245848,-0.6342382263,-0.6728869551,0.9764888904,0.616372758,0.2221397843,-0.9421006373,-0.8890321606,0.5316576722,0.9433714284,0.9375825187,-0.4964840665,-0.8937295992,-0.4756927429,0.6971371163,0.2539128415,-0.0398219465,-0.3202080871,0.4882984517,-0.2449724483,0.0585992263,-0.6992153213,0.6466613369,-0.000164344,0.2285638311,-0.7382428213,-0.1228916365,-0.5883654449,-0.2849824315,-0.3541329567,-0.2486120527,-0.0896852742,-0.6270518723,0.3157105498,0.4383489084,-0.5665642955,0.2762310761,0.7241655798,-0.1376876005,0.2969461685,-0.0779481797,-0.6782341699,-0.0434430937,-0.021016962,-0.026394931,-0.7461364104,-0.2471328653,-0.3342067405,0.0322921318,-0.2605561618,-0.7249274313,-0.0575172125,0.6327300144,0.0152693977,0.0630078,0.1955787861,-0.7738706988,0.7317165212,-0.5137908558,0.7112074257,0.1776244084,-1.5048336762,2.1080309858,0.1223216248,0.2205581089,0.2160184029,0.3356275509,-0.969705441,-0.7685856186,-5.5306939822,-0.1957074149,0.0272359233,-2.3419640974,0.0704902437,-11.3524246974,0.071016992,0.0846681801,-0.6410786815,11.6476276742,0.1844311618,-0.0133478625,0.1010782276,3.8763169431,0.4142599237,0.0790732252,0.1852611578,3.9698098472,0.1791347322,0.1006531193,0.1347786064,-3.9926247851,1.9316266169,4.3692191611,-1.0858475032,8.8261344664,-3.5655489259,-2.1422838399,0.3924222123,-0.1927097018,-0.6651593721,0.95066828,0.1006487163,-0.1459036694,-0.6065112951,0.3605770427,0.6177667876,0.3050969176,0.056001697,-0.677876461,0.5603590842,0.1395209068,-0.4640034696,-0.3134579386,0.1372092139,0.8167495143,0.1813703363,0.5598414712,-0.6567366116,-0.4281180697,-0.7180711386,0.5541892322,0.4365339994,0.7154258402,-0.5147259889,-0.0204126795,0.1823798501,0.8557842882,1.1917574691,-0.5754482523,-0.4485910837,0.7373736511,-0.6033043905,-0.8136396573,0.8009963562,-0.4134978248,0.3290668053,0.4279154573,0.327145955,-0.3037013093,0.5282357266,0.4254417367,-0.1527519882,0.5015866794,0.2734030587,-0.2949521721,-0.3581542178,-0.0141481443,0.0700936872,3.450606751,-0.5682794143,-0.4220652583,-2.3396934762,-0.6547363223,0.2065473231,6.263636357,0.5776087986,0.2859168488,0.5114706155,-0.1464235452,-0.8789450429,0.482428152,-0.6995512396,-0.4182430017,-0.325995675,-0.668686932,0.4093090147,-0.3817349666,0.2846440387,0.1587532988,0.3730654193,0.1927385323,0.005347028,-0.7210117068,-0.2028354696,-0.3150499559,0.7226740257,-0.1023768775,0.463336439,-0.2183125333,0.6948474606,-0.9837099334,0.467603916,0.6831839291,-0.2381124695,-0.6046563889,1.1446258131,0.6748789809,-0.0233632853,0.6200822989,1.1857045464,0.316176669,-0.0179048362,-0.1567242017,-0.1759269486,-1.9898745708,0.6233536012,-0.8127823161,0.2648327453,-0.5859180855,0.2698790634,0.424058642,-0.0936287864,-1.2361674054,0.538957832,0.6392126946,0.3507451665,0.0127685656,-1.3627962623,0.4626317166,-1.2206335759,-0.725514175,-0.8617597326,3.995543807,0.0761590595,0.9155531579,-0.1983248607,-0.0637208909,0.9023787357,-0.071922215,-2.637463334,-0.0152179997,0.5091477372,-0.4683514485,-1.5857721521,-0.4936723903,0.4367358031,-0.5294714687,-1.5814931597,-0.3468222056,0.1203336573,-0.827102385,-0.3334074227,-0.2742202887,-1.1277835571,-0.7535867965,-0.7444261398,0.4892488637,-0.305129441,1.6237164397,9.5536397714,-10.5624637773,0.7341621573,-0.3644050178,-0.1097651809,-0.5634960699,0.6151042892,0.0619283775,0.3042340643,0.1807751543,-0.8289576033,0.0571257887,-0.0085156236,0.2132888258,0.7637765134,-0.7466436488,0.8692145498,-0.0070313109,-0.1688329036,-0.0862511601,-0.2720731704,0.2298808798,0.3221677534,0.8598484323,0.1068266999,0.2814482486,1.3519104482,-0.0150650881,0.6771610396,0.89493096,-0.2551281491,-0.2270422088,0.9057680486,0.8264192144,0.442068827,0.2593038547,-0.4938951287,0.9399506273,0.3418145458,-0.8499025771,0.5956407353,0.0726516841,0.4863186888,0.4874811409,-0.0606633555,0.1693762904,0.4072320805,-0.1866964136,-0.7561801274,0.4277630605,-0.1419528148,-0.0337667961,-0.4691762656,0.5261831079,-0.5626673563,-0.3242705485,0.5581204949,-0.939112396,-1.5484699514,0.9370212737,-0.0838618321,0.0754719381,-0.5454836629,0.4454946703,0.2714582392,0.6450195881,0.2434326696,0.0138530191,0.424337299,0.7593429217,0.261747228,-0.3678464753,-0.7341038443,-0.3485148373,-0.2887389714,0.83826755,-0.8609924288,-0.4719525977,0.7083132651,0.1066355925,0.3068125701,-0.4448357193,-0.2591387096,-0.5545379783,-0.2401594976,-0.3763382264,0.8682594265,0.1513704937,0.3134933597,-0.8883777381,-0.720160581,-0.523937995,-0.6037581573,-0.6865575238,-0.0189623779,-0.3506547622,0.5781590027,-0.3649135851,0.0210318062,0.6916581402,-0.63295291,0.7190677168,0.3440456315,-0.0383646368,-0.3556779885,0.2100003157,-0.202737936,0.4103666921,-0.6456162209,0.7167220496,-0.4601024365,-0.5196096567,0.0211779402,-0.4632114893,0.4416292042,-0.1897223147,-0.321084531,-0.1946933406,0.3288320361,0.8940241455,-0.7015161233,0.2362622487,0.700326691
