encog,BasicNetwork,java,3.3.0,1,1470492210083
[BASIC]
[BASIC:PARAMS]
[BASIC:NETWORK]
beginTraining=0
connectionLimit=0
contextTargetOffset=0,0,0
contextTargetSize=0,0,0
endTraining=2
hasContext=f
inputCount=28
layerCounts=2,301,29
layerFeedCounts=2,300,28
layerContextCount=0,0,0
layerIndex=0,2,303
output=0,0,0,0,0,0,0,0,0,0,0,0,0,0,0,0,0,0,0,0,0,0,0,0,0,0,0,0,0,0,0,0,0,0,0,0,0,0,0,0,0,0,0,0,0,0,0,0,0,0,0,0,0,0,0,0,0,0,0,0,0,0,0,0,0,0,0,0,0,0,0,0,0,0,0,0,0,0,0,0,0,0,0,0,0,0,0,0,0,0,0,0,0,0,0,0,0,0,0,0,0,0,0,0,0,0,0,0,0,0,0,0,0,0,0,0,0,0,0,0,0,0,0,0,0,0,0,0,0,0,0,0,0,0,0,0,0,0,0,0,0,0,0,0,0,0,0,0,0,0,0,0,0,0,0,0,0,0,0,0,0,0,0,0,0,0,0,0,0,0,0,0,0,0,0,0,0,0,0,0,0,0,0,0,0,0,0,0,0,0,0,0,0,0,0,0,0,0,0,0,0,0,0,0,0,0,0,0,0,0,0,0,0,0,0,0,0,0,0,0,0,0,0,0,0,0,0,0,0,0,0,0,0,0,0,0,0,0,0,0,0,0,0,0,0,0,0,0,0,0,0,0,0,0,0,0,0,0,0,0,0,0,0,0,0,0,0,0,0,0,0,0,0,0,0,0,0,0,0,0,0,0,0,0,0,0,0,0,0,0,0,0,0,0,0,0,0,0,0,0,0,0,1,0,0,0,0,0,0,0,0,0,0,0,0,0,0,0,0,0,0,0,0,0,0,0,0,0,0,0,0,1
outputCount=2
weightIndex=0,602,9302
weights=##0
##double#9302
   0.9217818798,-0.2105563172,0.8614987997,-0.0334932408,-0.5373421736,-0.1271427119,0.7936311417,0.534861804,0.2681517596,0.3768746654,-0.2371332906,-0.3911435011,0.8317795925,-0.0035630835,0.3271817653,-0.2542590681,0.3831236601,-0.3167990347,0.2148865821,-0.0203714938,-0.9040091065,-0.1637800342,-0.1832624802,-0.2215811169,-0.1688092254,-0.063470243,-0.1493109032,0.2830237693,-0.1339301553,-0.8397722972,0.8442628832,0.7149360492,0.2864478437,0.0269521278,0.0466640842,-0.0138608618,0.7512067655,-0.5592727707,-0.2061965977,-0.4098621002,0.1793251054,-0.0858652844,-0.0851488336,-0.4091241936,0.0721362255,0.0168888943,0.1583949478,-0.6902344057,-0.8563145094,0.1229631216,-0.1289862806,-0.8510117948,0.9730027427,0.5306053877,-0.6392828183,-0.0590959814,0.5157706749,-0.2384660012,0.18952079,-0.1601403723,-0.6684094892,0.9189288137,0.5963934648,0.4682648162,-0.6757238615,-0.129774797,0.3133308505,0.4196686339,-0.0994663581,-0.1407735335,-0.1602468566,-0.4213976215,-0.4143446224,0.0337167953,-0.3120941172,0.8468908911,-0.8726538123,-0.0273938401,-0.0006378248,0.7329977377,0.3007525233,-0.6198637328,-0.6878642991,-0.1595267563,0.4308481549,-0.7247368417,0.3787966793,-0.8472787572,-0.1237087417,0.0925883863,0.7316492966,0.0790059674,0.5862519379,0.4377363895,0.4323655975,-0.4589373932,-0.2630204691,0.4753890716,0.3373148877,-0.4434173257,-0.4819037714,0.4447820869,-0.8780680079,-0.3541790209,0.8729078276,0.075977012,0.5978156803,0.8428206021,-0.0742486649,-0.4778699886,-0.6504954739,0.2330276006,-0.2332506934,0.1390484078,-0.6193031783,0.3977440121,0.0665958923,-0.6800830325,0.4399188434,-0.0511685899,-0.3247652768,0.2967989927,0.3903575618,-0.6338396781,0.7266748591,-0.9437345412,-0.2416483551,-0.5668871857,-0.8188923054,-0.4660094691,0.8102544346,-0.9091348045,0.0204844486,0.0809052587,-0.1063327043,-0.0427111611,-0.848021354,-0.0309248947,-0.3054222649,0.0097557414,0.8975854131,0.8490526903,-0.1738784576,0.0496348434,-0.0801242326,0.3911488737,-0.1554287995,-0.3630370679,0.6967946132,-0.4528494299,0.6583999514,-0.0732598198,0.6526471089,-0.5368756252,-0.157250577,0.0800830391,-0.0050678238,-0.5382071212,-0.8750985602,-0.7011698093,-0.0739631796,0.0584175861,-0.4382820411,-0.9584041954,0.046986599,-0.4542003473,-0.1837732545,-0.2742927181,-0.3462466659,0.0899098768,0.1429015264,0.1367187351,0.4515349602,-0.4905987005,0.0654995403,-0.0442398518,0.1743772455,-0.1154581754,0.1090697439,-0.2575639994,-0.2955522343,-0.2279764112,0.8825317072,-0.5550079644,-0.366170384,-0.784655415,-0.5227633263,-0.7411357076,0.4189541747,0.3371796575,0.0482796482,-0.1064166005,0.0169855687,-0.318882745,0.6809902612,-0.1052779358,-0.0747909205,0.0900208181,0.2529504013,0.7899226993,-0.4530176038,0.2510082264,-0.5865218838,0.6364881254,-0.5859224829,0.2450621231,0.4458454094,0.7190265206,-0.5413960478,0.5472313918,-0.9267919552,0.2341874702,-0.1371459692,0.1514287025,0.8896299191,0.062444933,0.1393554801,-0.1864910772,-0.4136198706,-0.0485356056,0.065402514,-0.1686945974,0.2143972563,0.2191104025,-0.9677617176,-0.482193791,0.905445525,-0.007445294,-0.1821942305,0.3878835489,0.1654715905,-0.1624166642,-0.1157743567,0.1158129131,-0.3247603796,-0.530272782,-0.7494479086,0.1591300699,-0.1577893855,0.4619975722,0.6893110865,0.2090057352,-0.6429906426,-0.0210701395,-0.8951924513,-0.2829363041,0.7842042975,0.8765226205,0.810890869,0.8742636974,0.0000233735,-0.9533157715,-0.7878166788,-0.9744255508,0.4690491137,0.2226057794,0.1832497683,-0.011234127,-0.0074504659,-0.486420651,0.5089428779,0.5944327856,0.4942870562,-0.9515958871,0.5262449386,0.2618650298,0.4931064884,-0.9937955583,0.9052844337,-0.7522365709,0.9579414804,-0.1297624588,-0.1930771786,0.1257482913,0.05904951,-0.3686090292,0.3794250027,-0.3211971409,-0.2113954055,-0.1082346202,0.4665465632,0.9570568693,-0.0594935065,0.2570756455,0.1992750078,0.5681983881,-0.1557256028,0.1722733995,0.9505777373,0.783620554,0.0363223767,-0.2888720747,-0.1906979411,0.5214273309,-0.6555744797,0.0711230837,-0.2282188886,0.000905746,0.8518378303,0.2515032579,0.81181495,0.2729515041,-0.0548355169,0.8497367894,-0.1920445837,-0.5702491154,0.094325681,-0.1542762762,-0.2056657143,0.521177182,-0.2090226691,0.1235015929,-0.2336606424,0.9463998783,-0.2779359445,-0.5039477964,-0.274470998,0.3663782421,-0.6835950484,-0.1856257759,0.1811838019,-0.7417877595,-0.1899871655,0.938680161,0.5604311287,0.1291632781,-0.1368382327,-0.4122348891,0.867853485,0.0238539036,0.6475712809,0.0796730994,-0.7100693708,0.2413391338,-0.3856955646,-0.0960416362,-0.136153015,-0.6152494895,0.4216870008,0.8784505945,-0.4565561212,-0.4728859743,0.4978904105,0.1549749165,-0.5528886745,0.1902486874,0.0321234055,0.0932576615,-0.3602729029,0.0180191664,-0.7387380251,-0.1313032685,-0.0084768042,0.2309835188,-0.6355862816,-0.7687343149,-0.1183359838,0.3341612163,-0.2838330086,-0.1391412832,0.1813141034,-0.0671531196,-0.0902662926,-0.4852364826,0.0611829513,0.5594330411,0.5730512327,-0.0064311055,-0.3613014408,-0.3896746614,0.1451447584,0.1845646629,-0.5847983261,0.3868902382,0.1430499711,0.6731678739,-0.9040830229,0.0761737789,-0.2614341916,-0.1444674323,0.7323786021,-0.2913648276,-0.2521934578,-0.0620642182,0.12173042,0.209304793,0.6626694169,0.0329896271,0.7028575438,0.0046503881,0.1441999935,-0.8077705638,-0.1845616012,0.4919122786,-0.1397340035,-0.9205022719,0.1281998546,-0.2481757626,-0.7541077935,0.2013223973,0.5415817216,-0.0360929441,0.2355191363,0.4522500121,0.2748984871,0.6601069445,-0.1795120304,0.2042218906,0.1304661512,0.1448572679,-0.825544016,0.5743351336,-0.66005944,-0.0652896584,-0.2381172013,-0.5863092687,-0.3216957213,-0.1792671837,0.7485931821,-0.0547144783,0.0912701187,-0.2764914732,-0.160733203,-0.017032473,-0.4568386965,-0.1059540344,0.1678334408,0.8016174441,-0.5374960741,0.9712453733,-0.7973263294,0.0432686888,-0.8629829332,-0.2923090742,-0.1548763302,-0.0170019517,0.0835779264,-0.3546403768,0.3949729055,-0.8010723128,-0.1397147531,0.3850011312,0.0473391194,0.2350386772,-0.0673731374,-0.0076800073,-0.0824792699,0.1440283178,-0.479700825,0.4146816584,0.2685847717,0.6442624414,-0.4327478365,0.317558504,0.5708336068,-0.3337707202,0.9874871447,0.1197680354,0.2916279031,-0.7926270453,0.6067871674,0.15490308,-0.1478492361,0.7556684412,1.0288028404,-0.8569108372,0.1501535482,-0.0848826929,0.2719539023,0.6018169749,-0.1310590854,0.4168686041,-0.1735752979,-0.4922991438,-0.3483318208,-0.2693302651,-0.8419967354,-0.794153598,0.7506689594,0.2771061626,0.4476957977,-0.9888531919,0.241371262,-0.0592289676,0.1846288121,0.8342729566,0.3288118593,0.2084667924,-0.49430758,-0.1374861474,-0.4556567777,0.3555927214,0.2242862212,-0.101234863,-0.0327919643,-0.2115066917,0.151612164,-0.7327596103,0.6766223865,-0.3712178312,-0.4249032061,0.4528835387,0.064641613,0.5123937388,0.8460829019,0.3868118628,0.7004728564,0.4434668413,-0.5947793184,-0.0744437009,0.3499777831,0.448310093,-0.0370537782,0.0309355072,-0.8056968306,-0.7058720699,-0.1200787658,-0.1772934786,0.1793790455,-0.3497927523,0.1681365577,-0.2526045131,0.0641432213,-0.96335191,0.0062956879,-0.8530604178,0.281593947,-0.0507334744,0.5404517436,-0.1540507499,-0.5643688882,0.5740028433,-0.038160698,-0.020760753,0.1836657771,0.1339583636,0.3068520865,0.5951824581,0.1013850465,0.1007057294,0.3900144437,-0.1549828013,-0.4701300696,-0.4953646775,-0.4020640238,0.2885643676,0.2328517101,-0.1395609711,-0.4507372724,0.5123702451,0.5248572897,-0.0679058012,0.3275472793,-0.3322733264,0.6515878962,0.0039924526,0.0607760537,-0.5067500163,-0.1276641308,0.4208620699,0.3898314585,-0.0099925963,0.3647231709,-0.8990341549,0.3523896459,-0.1957548442,-0.7419898376,-0.5215776051,0.5494408949,-0.7106263391,-0.2505975271,-0.8440373746,0.0611644039,0.2355944359,-0.0681534569,0.118403073,-0.8802896519,0.6987073383,-0.0014011209,-0.199708316,0.5336531364,0.1705513738,0.9317085044,-0.0572149704,-0.4287625886,0.5165948599,0.748332444,0.1775322847,0.1078876585,-0.0983084219,0.890271527,0.7791427456,0.8052294109,0.7340334918,0.4832916685,0.6800690676,0.1179987058,-0.3547354241,0.1499007489,-0.9572346409,-0.7059026514,0.7172112834,0.3974431231,0.1314297877,0.8711485355,-0.2568477037,-0.01035834,-0.4184563031,0.6798142596,-0.6961208663,0.5543444021,0.23889659,-0.2198815305,0.0815532898,0.2872944098,-0.2838431383,0.102414414,0.2869721176,-0.0679479824,-0.5096960627,-0.0989613916,0.6273936018,0.4018925737,0.4448373512,-0.5871247197,0.3742792294,0.4121612291,-0.1132482305,-0.0549358638,-0.233116568,0.160576645,-0.0714781697,0.5526666789,0.019571523,-0.4740531678,-0.6481000552,0.1497438618,0.6436766268,0.4551991606,-0.6650545635,-0.2725021233,0.3630962764,0.2614640526,0.9534860181,-0.0937231387,-0.6310585823,0.0337594923,0.2982210212,0.2011090197,-0.8822806305,0.8498827737,0.0752714307,0.1973528256,-0.9232310056,0.7126969486,-0.7591806062,0.3688291374,0.1184239394,-0.1264382371,-0.9086780157,-0.8585636728,0.2592436216,-0.0064618105,-1.834317404,-0.1892005496,1.1498849574,-0.6245078083,-0.0114408162,0.2454846958,1.1114689784,-0.1780865941,0.026570769,-0.0926396705,-0.1145707749,-0.1124608024,-0.529172171,-0.1851535999,-0.491813909,-0.7350700715,-0.1412394737,-0.1286348256,-1.2992395364,2.6337183448,0.7131928125,1.2818771929,-3.2468917773,-0.6308223339,-1.3327457144,0.0648344629,-0.2900726418,0.4071555835,-0.1114905155,-0.2887885478,-0.3865202711,-0.2165296996,0.2011647109,-0.519058713,-0.7919058196,-0.3138600277,-0.7915469627,0.6853114709,-0.9057555894,-0.5991440361,-0.5149136837,-0.5382866281,0.224466417,0.1921064168,0.8368214105,-0.2155811321,-0.0494375339,-0.6453928496,0.7963352042,0.3309949545,-0.446180949,0.2650584782,-0.973521568,-0.0716077662,0.8753536569,0.330371731,-0.1466861473,0.2562041488,-0.2715378035,-0.3202069545,-0.0812574705,0.3882375475,-0.1029009416,-0.3937354956,-0.1430749576,-0.0333918817,-0.4199746104,0.4988451801,0.4458747214,-0.1512665216,0.0841796149,-0.151062414,0.2893223271,0.5711242462,-0.5128741953,-0.4513793217,0.1821553212,-0.6115591768,-0.0565965916,0.6664258117,-0.2504364612,-0.2573566154,-0.3490891519,-0.613462626,0.1916441865,0.3591323948,-1.0164608998,0.6304046896,-0.264273487,-0.0213846931,-0.2057603532,-0.2872041234,0.0913066378,-0.6308645545,0.3781196632,-0.1012872213,-0.8102096967,-0.9335617794,0.5046215614,-0.7387156656,0.3723703115,-0.6312166847,0.2757205483,0.5410545651,0.0939435686,-0.7991421974,-0.0036201219,0.5242989168,-0.2123195571,0.5578264295,-0.2391608259,-0.5417336265,0.4082521136,-0.2856518164,0.2693048209,-0.4516746991,-0.5990874539,-0.3006790608,0.8626051195,0.1407866581,0.562082356,-0.4320658484,0.6828210284,-0.1499567729,0.829040661,0.8782856598,0.1140058218,0.7806466487,-0.3245372149,-0.1344157048,0.7432025419,-0.5381036336,-0.2340456619,0.36689852,1.7337648953,0.562239118,0.3330947979,0.1438463719,-0.0136426347,-0.4480275014,1.1848690921,0.6684291605,-0.3435362393,0.4977410822,0.1818207569,-0.5378291955,-0.6010344705,-0.4758074485,0.4766038193,0.4144996068,-0.2398767794,-0.1194192366,0.0607896631,0.1732555381,0.385318357,-0.5821394338,-0.1991207365,-0.6106874751,0.106319469,0.4163091103,0.7783985227,0.0884293137,0.5928020994,0.2155692111,0.6468908605,0.4091642862,0.4878132819,0.430646735,-0.8358289659,0.4116750887,0.2344496623,-0.5867805073,0.3495986865,-0.5824974775,0.910447084,0.0170686646,-0.7962305465,0.5948284559,0.6652908613,-0.4982991395,0.5124000293,-0.2806405031,0.037504976,0.2891205641,0.3861736637,0.6571728618,0.4841993081,0.1690311605,0.5536839939,0.514789756,-0.3260440646,-0.3555757534,2.6472632104,-0.5105826499,0.7813183658,-0.3741869491,-0.492888012,0.8436164337,0.202271099,0.7499588994,0.2603985732,-0.4699441272,-0.027396301,0.0927753166,0.8515901283,-0.3920342993,-0.9010345095,0.2617634917,0.1827064796,-0.4028377064,0.6064472344,0.1746689441,-0.4743915562,-0.7554676203,-0.7074732503,-0.5182597937,0.1327544773,-0.7392260801,0.1546413167,-0.2492816841,-0.3588994831,-0.0816022464,0.8124961414,0.3082973295,0.8964589953,-0.0086888961,-0.0509835491,-0.4068468743,-0.3390938252,0.3956572518,-0.7282143266,0.0610183649,-0.8728057047,-0.0710615102,0.1716603621,-0.4191272055,-0.631953329,0.0413921375,0.2304737335,-0.8049537507,0.664344507,0.4783370347,-0.6184824275,1.0385490429,-0.4321627339,0.8345101273,0.3462311904,-0.3163477306,0.1091122401,-0.0616819703,-0.135004238,-0.9355756954,0.6045532208,0.1264179028,0.9187596289,-0.5841475676,0.5406376704,-0.1092803125,-0.5546731258,-0.1968753059,-0.3282319422,0.0048489324,-0.3835165919,-0.6658169701,0.7021981932,-0.5267056857,0.7941164333,-0.4581021175,0.7631888928,-0.5916106786,-0.1759495943,-0.8726885769,-0.2056977922,-0.2683375516,-0.5080936982,-0.7982503216,0.3265079895,-0.3274304069,-0.2025709841,-0.4504266224,-0.034841811,0.5208232269,-0.5873498635,-1.0310011101,0.2744693868,0.4375635315,0.4670271667,0.2135512088,0.2244293786,0.5668471063,0.4573218159,0.6230576456,0.0224432577,-0.1723440199,0.3200402637,0.866311641,-0.0841179832,-0.445598031,-0.0295356901,-0.7245080773,0.3708279714,0.7878497132,-0.3210105401,0.2682237794,0.5261001105,0.2245955816,0.2145014132,-0.1115637714,0.2896509289,-0.3875100579,0.9401166057,0.2639410859,0.8477429511,0.8566723806,-0.1382735299,0.1371923178,-4.1899155787,-0.4867149976,0.0472580631,-1.1307709955,-0.2957493615,-0.7894385762,-0.6687725596,-0.1077751313,-20.5401203502,0.7559927598,-0.6668813778,0.0567682706,-24.4512902804,-2.3565527279,0.0087789788,0.1474501249,0.4216208757,-3.9717572425,-1.1750345294,0.2006458935,1.3729372005,-6.0122777617,-0.196079347,2.5248630669,-2.5212419737,-7.618966739,0.7408318895,1.4857089537,-0.0956767915,0.4705057688,-0.3486777219,0.1437137539,0.3006695278,-0.2971908658,-0.7387944815,0.6591970226,-0.0742488811,0.2697342616,0.2239061012,0.2892436145,-0.1576292299,-0.5982238732,-0.5769090333,-0.6437489498,0.579815387,-0.575451167,0.305425212,-0.8094269896,-0.2259034762,-0.7139273016,-0.3439907476,0.950775159,0.4900720423,0.7747937869,0.0846859432,-0.6379222334,-0.0172088557,-0.2513086633,0.2585007928,-1.1341443872,-0.1575493296,0.3669228012,0.1713147502,0.8592610843,0.3990802576,-1.2362501519,0.502275107,-0.7216124992,-0.1713959372,0.0030947465,0.7404198005,-0.4819355362,-0.4799881221,-0.7051787606,0.9628101108,1.8419517148,-0.0962603017,-0.5783639527,-22.8807170252,-0.981287683,-3.0938672038,-0.5436742827,-2.1234620261,3.0892264311,0.3980733605,1.4889338214,-0.75340153,-0.5681425877,0.0168510108,-0.6481386553,0.2446799522,-0.1110176281,-0.0360300189,-0.673358682,0.3549612324,0.2836409485,-0.1438415687,-0.0583014437,0.1242682299,-0.5959553278,0.3363068368,0.1594600619,0.7878386089,0.0092825742,0.1050392858,-0.2111143094,0.6215089284,0.2078617712,-0.901205763,0.8327728733,-0.2024113681,0.2789755679,-0.7151588888,0.6366147147,-0.5020804083,-0.8686761293,-0.1939967841,0.4784325535,-0.1657979017,-0.8917441499,0.2017737961,0.7592647417,0.1981646871,-0.1802547663,-0.3021593082,0.0408201455,-0.5331614894,-0.1979638784,0.7592353476,-0.3757442614,0.5180347312,-0.1071264202,-0.3555466501,-0.4220180994,-0.7324774906,0.5463935395,-0.1409642062,-0.5791563375,0.1664344532,-0.8293010827,0.7686242733,0.0181139211,-0.8780490417,-0.6088134903,-0.8640512527,-0.088444011,-0.6328406026,-0.4239177699,1.156368568,0.6452492279,0.5901647892,0.3623574159,-0.6550050629,-0.5378723651,-0.1389982421,0.8201603948,-0.6105588116,-0.4629965645,0.0926430463,0.2804176469,-0.7628058227,0.0170789096,0.273292897,-0.469614907,-0.3228390095,0.1000565287,-0.8628824072,-0.650470931,0.430546826,3.2567405305,-0.2048096111,0.0029315286,2.9400832666,0.6053127435,-0.2705888291,0.6295755719,0.1167034624,0.3797718989,-0.6547717551,-0.4011954011,0.5000054852,0.783530122,0.7341938099,-0.4419580616,-0.6452547875,0.4624687317,0.3850884302,-0.0241189271,-0.1358578929,0.7193873845,-0.3968992669,0.0321263612,-0.9982310102,-0.529575291,0.7519369092,0.5933864185,-1.1053699734,-0.8737621298,-0.5260646301,0.4913701549,-0.3929613905,-0.4318022655,-0.3451922986,-0.6102648402,-0.5042868981,-0.4752193559,-0.8950786763,0.2195828932,0.4768301132,-0.5532791146,-0.5043021532,-1.5490467915,-0.0402887089,0.3221840138,-0.5458452335,0.1187122206,0.1720209863,0.3526010954,-0.1849211477,-0.6492323522,-0.6414884943,-0.8849133371,0.0600789573,0.0502785725,-0.6309885722,-0.5266484235,-0.3744726677,-0.9898734033,-0.4195051715,-0.1739732922,0.2006855123,0.8237944038,-0.6029393696,-0.3935158844,-0.8317780033,-0.6680861661,0.4256553512,0.2399286446,0.0290323826,0.7022019195,-0.0150344956,-0.98486072,0.5307421076,0.6123488772,-0.2438982862,-0.1403271297,0.7750814743,-0.6069717691,-0.3639176714,-0.4208755208,-0.6123084816,-0.6422056936,0.117820901,-0.3611725714,0.3498546291,-0.9268591756,-0.9686007062,0.3270437094,0.1316378457,0.4200137906,0.4257128468,0.3789675604,-0.3716373442,0.0122554834,1.206583466,0.5727502739,-2.5707526184,0.3120802344,-0.3104416579,-0.1964201082,4.3656255456,0.1212261558,0.256300056,0.6252868486,1.9527268459,0.2358493844,0.0236926556,-0.0163405579,1.2814435712,0.6781290911,-0.3089795787,-0.2237699806,-0.3529936696,0.7512784128,-0.1780909547,-0.6291734156,-3.2717774349,1.0600532012,-0.2956309738,0.9104294775,2.2398447611,-0.7542030231,0.5122607709,-0.354486482,-0.0813732354,0.9292656384,0.1130339489,-0.1941960736,1.0761656589,3.0650094153,0.041535968,-0.5596607659,0.3598207433,-0.0808848179,0.9302462914,0.3705544079,0.1815921916,0.128562498,0.8046146947,-0.3437575175,0.4596703665,2.9788556582,2.9010282811,-0.9756088732,0.394769146,-1.7400181553,-2.1640495427,4.3751107809,-0.2829569442,1.5635832168,0.6817466194,0.0748103447,1.2884454678,0.3017472638,-0.3240309988,0.9662744001,0.2899201597,-0.524145073,0.0692564411,-0.9746146016,-0.4533949909,-0.0871959774,-1.2551930208,-0.4343010346,-0.2903087461,-0.5496530012,0.2400555454,-0.3431953682,-0.4404693488,0.0732128493,-0.0390931064,-0.3628958738,0.2399761438,0.1348768456,2.3225402167,0.4126571369,0.8379538826,0.8763284846,-0.1830672883,0.1737355491,-0.271778049,-0.8390777729,0.9083996966,0.3248081124,-0.1169882267,-0.7942917977,0.1667153385,-0.0393244688,0.1070373275,0.0334331905,0.213736468,-0.294508778,0.6721219177,0.3766490131,-0.1545982198,-0.0923772276,-0.7706002264,-0.6267195427,-0.663140219,-0.5136160272,0.1375264801,0.0378692855,-0.0339998705,0.0639686243,-0.0312059453,0.3331310552,0.4373671448,0.2136167039,-0.0477318446,0.1963694102,-1.5407312293,-0.7810747169,-0.3184765656,0.662195812,-0.5386342789,-0.5073809509,-0.1779204048,1.1191874116,-0.1622316893,0.3118042669,1.1312363903,0.986966185,0.545133005,1.089669709,-0.5911536135,-1.0360509349,0.7238296635,0.1051124582,-0.0213043158,-0.1841164874,0.385392495,-1.3622943341,0.4938789656,-1.1776483921,0.5700907865,1.0304063076,0.0291940847,-0.4657761816,-0.331569797,-1.1767990539,0.1992719169,0.786206066,-0.3414734889,-0.2209421007,-26.6552071723,-0.0441579651,-0.1072724865,-0.1734268054,0.6321832558,0.0789938977,0.3559994956,0.0916613238,-0.7995870994,-0.0356211144,-0.8331794581,-0.1166497786,0.2132967912,-0.8125073794,0.0977021248,-0.5322744511,-1.1716423108,-0.6947773792,-1.2185780739,0.4061949516,0.1481744914,-0.6036006409,0.882030911,0.8218597498,0.2330529139,0.3029972063,-0.8761366454,0.0594405024,0.053210311,-0.126503019,0.58528317,-0.9234715098,0.4736197722,0.3554914259,0.159605007,0.4213978029,0.1968197186,0.3913066259,-0.7148503365,-0.9129616926,-0.8952147284,1.2856734623,-0.8550476078,-0.492193139,-0.5988421453,-0.0696120521,1.567204603,0.9125502965,-0.4265907691,-0.9308891056,-0.4632327209,0.5197070942,-0.2924044937,-0.6555924382,-0.205359606,-0.5388912744,-0.8538360735,-0.14179654,0.1362763165,-0.5904638684,0.2459233792,-0.0812475014,0.2087138721,0.400326406,-1.2891870831,-0.2443038263,-0.7622545799,0.0232927305,-1.1155590995,-0.2482156144,-0.3322648919,-1.7386464702,-0.7203627871,-0.2657557052,0.3558805631,-0.269834455,0.7769502911,0.591034437,0.3343117583,-0.5250113259,0.5353105869,0.2295070271,-0.9105035347,0.4379274786,0.213235316,-0.1576595121,-0.4492189783,0.5510948106,0.3952329142,-0.1826756204,-0.4374746489,-0.0296857589,0.5534993956,-0.927335247,-0.4488936746,0.7606240846,-0.2301433894,-0.1247858022,0.0885851074,0.3856269304,-0.8146226198,0.253911523,-0.9766698258,-0.3131511217,-1.3788194928,-0.8560580472,-0.645687005,-0.6879008064,-9.8881653484,-2.8981845375,-0.0869056921,-0.0011592881,-0.1446815564,1.0554573095,1.3855208941,-0.0890998908,0.2845918541,-0.7656374372,0.3934091478,-0.2204835815,-0.0614923551,-0.5991141254,0.2877579699,-0.0082222761,0.0367071135,-0.645747518,0.3296194437,-0.1239689799,0.0320491992,4.3534152683,-2.1187290115,0.108418261,-0.5574997124,0.9130326291,-0.0057896718,-4.3487498504,-0.3510665139,-0.5102752529,0.0458982268,0.1729026625,0.0449245871,-0.4926359899,-0.7403914809,-0.3911737304,0.6744689098,-0.5433402787,0.7953141562,0.5301047201,0.0603646683,0.2838153227,-0.4040448161,-0.9141745041,0.3686651972,0.4791054297,0.2587380191,0.0969578815,0.35687665,-0.2154349743,-0.125068226,-0.142253212,-0.6382892103,1.0719990525,-0.7812726617,-0.6368098879,0.51245899,-0.0177564997,2.7677815026,-0.9268310656,-0.1414050153,0.9703203848,0.6046201841,1.9256458408,0.2081090717,-0.0273235856,-19.5578309957,-0.568441958,-0.6655475258,0.1935073277,0.334611705,1.2680019403,0.2497828583,0.0933993999,-0.6517551535,0.6289379871,-0.5261225947,-0.1513268353,-0.4732354758,-1.5152921053,1.8658210509,-2.2347851734,-1.3553060141,-6.6070179016,-2.2342095251,2.0877446435,-0.2996710466,-3.5853675682,0.7513349271,0.6004302499,-0.9523116934,0.3346902254,-2.8784094614,-0.8522310096,-1.1865359543,0.0417829106,-0.2106168042,0.714582915,-0.065615764,-0.7119862565,-0.4921136452,-0.1300689591,1.557747707,3.5211532263,-0.5428199061,0.3381443505,-0.1136147956,-0.5082553751,2.321811895,8.9923392222,0.4108305145,-1.3328541608,-5.9333271533,-1.589329166,0.2278066201,0.9734617641,0.5549730265,-0.9214462,0.2212023166,-0.1248457956,-0.4231989871,-0.9874613024,-0.9622790031,-0.7664879251,0.4718671621,0.5898059573,-0.7297616796,-0.280420556,1.0937688481,0.3000246655,-0.5146597674,0.1250421632,-0.5553967979,2.0302029924,0.2722121178,0.8262676999,0.4585837004,-1.6553011338,0.7328915297,0.7114113897,0.484163935,0.3473777709,-0.5955771464,-0.8325807888,0.7148218438,0.0954314597,0.6787753226,-0.2609640692,0.7315514711,-0.2696226778,-0.4054827411,0.0553594398,0.2274328057,-0.1243112926,0.1332771017,-0.1262880023,-0.8278236969,-0.7089882541,-0.8302310502,-0.743649983,-0.0658663124,0.2826079098,0.0316611266,-0.2927378886,-0.5856368535,0.2187273837,0.3261194433,-1.118033169,-0.3497015614,0.1616489088,-2.3469461643,-0.8977101915,-0.9046853421,0.2309822263,0.030241298,-0.2668644117,0.759410272,-0.7200079719,-0.4630075205,0.2549543831,0.2800470395,0.1215272132,-0.0790560081,0.2356712214,0.1138291615,-0.2705947016,-0.5274327332,0.5332130732,0.339614664,-0.2328447557,-0.0094814715,0.0057006753,-0.83580292,0.3382056196,-0.3208248059,-0.1028038438,-0.871582073,-0.8515528812,0.4083954174,0.2589953081,0.6671367587,0.2656098891,-0.358566408,-0.1979303541,-0.0383663164,0.1334161718,-0.6292750161,0.0021861219,0.02128575,-0.5280843396,-0.6160082786,-0.3013022313,0.1608963873,-0.3541251447,0.4617193739,-0.3148587997,-0.5861177898,0.697755324,0.3939056607,0.3584846633,-0.393287636,-0.6415650711,-0.6954176667,0.0119832313,-1.4859751738,0.5693855291,0.1542428592,0.3492907016,-0.8178028827,-0.1098231715,-0.2738083256,-0.4575303119,0.5654999752,-0.2854869412,0.4839638336,0.7654426003,-0.528895885,0.0498777286,-0.2222217545,0.5511796586,0.7488581924,-0.0759638287,0.8549175236,-0.6012519385,-0.2716600423,0.0107548547,0.7133121575,-0.2843874325,-0.5741211845,0.2055348402,0.0002336445,0.3068961996,-0.4697389689,0.3577644787,0.2134703622,0.793818759,0.2101172072,-0.0886671506,-0.125064654,0.3245861331,0.8127424914,-0.5274109899,-0.1987850473,0.7733904961,-0.6743513885,0.5355368464,-0.2435816389,-0.7356991684,-0.6628672165,-0.1481020825,0.8159464704,-0.0974491075,-0.4640621287,-0.024554949,-0.6724733848,-0.6158321862,-0.2282794068,0.1994220862,0.5862016229,0.8754173807,0.3578885188,0.0469567495,-0.2800892634,-0.201335827,-0.0115597667,0.6395475381,-0.0199360006,-0.6091201131,0.7973479345,-0.463349731,-0.2262819925,0.1766392242,-0.515188453,-0.0888165978,-0.4481670547,0.1211895748,-0.475662566,-0.1743105602,-0.7195186365,-0.7161377884,-0.0979618709,-0.3790243229,0.4660190262,-1.0563958004,-0.7012238518,0.0633493667,0.2149433311,-0.8949303159,-0.2383572191,0.643004666,0.552769287,0.3718646995,-0.4237242997,0.5879854278,-0.160965381,0.976949867,-0.675548313,-0.0731260302,0.0603085002,0.5836226331,-0.4421164549,0.494229904,-0.7704921819,-0.5413582673,0.3762133703,-0.4904177089,-0.1615255769,0.7194364593,0.9828664222,-0.7460963247,0.529913782,0.1817241154,-0.1734485865,-0.3376977966,-0.0388759234,0.8726630101,0.3739998775,1.0373192641,0.3925177214,-0.3817517469,0.657357726,-1.1237582903,0.4407874645,-0.0162275887,0.3659536326,0.3786288553,-0.8264073187,-0.9253415945,1.1127301135,0.2232390456,0.3546611011,0.7310254481,0.8682129844,0.4300320421,-0.2259936039,-0.1853071526,-0.449788777,0.1488275742,0.369881057,0.5745647519,-0.6962367464,0.6244487523,0.7932995185,-0.0332290351,-0.4447566701,0.0577965503,-0.3786800308,0.2151681382,-0.0986637105,-0.0973308596,-1.0103033128,-0.534938271,0.0857968769,0.5975413789,0.0977751803,0.1137309152,0.6079962016,-0.0278657217,-0.8319379531,0.2413204795,0.481560152,0.4904060096,-0.7257864851,-0.65856877,-0.1160427159,-0.1633128946,0.3757642091,-0.6130447424,0.3479983171,-0.152473967,-0.816608969,0.741182603,0.4510879187,0.8575237922,0.5321122289,0.2401432843,0.7079432644,-0.2270677571,0.6102556672,-0.5583290687,-0.466912748,0.290196717,-0.1626408548,-0.0665122008,0.3419954526,-0.8381885111,-0.6784474644,0.890493168,-0.8681400482,-0.8827790538,-0.2904847058,-0.903146259,-0.3624168163,-0.6836918297,0.2725004043,-2.0449211586,0.3908512046,0.3687110879,-0.5954355392,-0.915310409,0.5624201784,-0.3265865925,0.4768786169,0.9308810666,0.807730557,0.1335676954,-0.3286594974,-0.4758424471,0.6614445156,-0.4617190013,0.654566611,-0.8540162208,-0.2138240431,-0.9173727454,-0.1703244729,-0.067534856,-0.942971038,-0.179570044,-0.4031441674,0.1249094309,-0.5273926965,-0.5399306328,-0.201164206,0.0059646396,0.272099843,-0.6689878016,0.1547528468,0.46522008,-0.0598858035,0.0084502377,-0.9254742423,0.7365961928,-0.6132090132,0.6681215075,-0.9006295214,0.0168594736,-0.6481991623,-0.8123031778,-2.7826738568,-0.1368796139,-0.9011277771,0.0078813918,0.9419375857,0.7921468537,0.0397757058,0.0093175022,0.0101437303,-0.9825304275,0.0991668585,-1.4272164497,-0.1111553173,-0.4738018093,-1.0997855326,-1.0129672369,-0.0156236119,-0.4560155929,0.7487396192,0.4156919535,0.3416738974,0.287393194,-0.1624692498,0.382265747,-0.1659577735,-0.7870759328,-0.7401076853,-0.8623503439,-1.9788476241,-0.2832332699,-0.0403039388,0.8597212121,-0.8824526766,-0.4543978901,-0.6610741821,-0.2873613457,-0.3311301709,-0.4810415678,-0.2093477889,0.4270265275,0.6764871527,0.131377731,0.2442138434,-0.765517545,-0.1174677107,0.4234362218,-0.0060047446,-0.234081701,-0.3442664521,0.0608665387,0.3651112354,-0.8596268126,-0.1546224148,0.5155286989,0.1349813936,0.2401550422,0.9143047425,-0.0902639631,0.9480599338,-0.6956855418,1.3917920669,1.3306721862,-0.7469571917,0.8752707667,0.2915293927,-0.7744539425,0.4396334003,-0.8674037383,0.4089255896,0.0708911885,0.1410812483,0.0250088061,-0.0818385188,0.46528653,-0.1358777237,0.4422445457,0.7202521848,0.1057313717,-0.2236907946,-0.6487283084,0.4935250277,0.8601233287,-0.2300284482,0.7003639065,-0.27037754,1.9703216439,2.0434729839,-0.120813002,0.9412778069
   2.5670231281,-0.2418955989,0.1055554638,0.6677446297,0.2171192355,0.5052938433,0.4049728366,0.0635080455,-0.8662519515,0.0901245313,-0.0331827084,0.5171573002,-0.2065271557,0.5015784622,-0.9826077397,-0.2829706805,0.0293113932,-0.8900810858,-0.1023383273,0.4025947405,0.6096916776,0.3110855062,0.9511355851,-0.3311542571,0.1553742296,-0.9038285537,3.5050540524,0.7712041968,0.1653165254,1.4278841199,1.5505909162,-0.5005636442,-0.7432675284,-0.9978661568,-0.9658907619,-0.2384070423,-0.1748867354,-0.5380772469,-0.6441279403,-0.7074060652,0.2069887837,0.3174797215,0.4215336788,0.1610285854,-0.5118732379,-1.1145623655,-1.0215613526,0.2479573562,-0.3773281722,0.0047561761,-0.9586854335,-0.4395035592,0.0653532243,-0.4190407027,-0.3682979064,0.2949742206,0.0573710074,-0.534604208,0.2870112935,-0.1310635194,-0.4277875353,0.4461326755,-0.3575417168,0.0500499498,-0.7438334946,-0.5068185201,0.00298743,0.7732847629,-0.1399328367,-0.5878098702,-0.8925888573,-0.2348526307,0.7570370366,-0.7425646034,-0.1920335997,0.5588117399,0.0476985015,-0.7031177392,-0.4629286411,-0.1192162659,-0.8481074447,0.4548597476,-0.1870043884,-0.9615131906,0.5430233712,0.334127051,-0.7476277247,-1.1000676934,0.0026615514,0.0644303058,0.4471493951,-0.6971825657,-0.5604424029,0.4229860419,0.1297366933,0.4069865447,0.3413318658,0.3437502751,0.2736414554,-0.392768599,0.4857167478,-0.3034254171,0.3101589107,-0.1820733525,0.9605992727,0.6741011489,0.1953732922,0.5055703217,-0.6038905308,0.7949615563,0.113293116,0.6404866184,-0.2935119623,0.3780868438,-0.5981764119,0.2278166231,0.3485307411,-0.3723173986,-0.3500648285,-0.5211404809,2.2710177704,0.7790266305,0.0530633385,0.8673872165,0.2127559083,-0.0030306041,0.1160673044,0.2528883057,0.2120482155,-0.9205676104,-0.4219176464,0.5624539022,27.8308763993,-0.9353142785,-0.2305635758,0.6318525142,-0.6400746665,0.4805241256,-0.1259238421,0.6248918376,0.0613004059,4.2546771102,0.4058410406,-1.1291775881,4.258585425,-0.7290545864,-1.2731721414,0.1527089671,0.9365462991,-0.749412388,0.1944415261,-0.4594780302,-0.2508563389,0.7521282297,0.1331251014,-0.2395216291,0.8476362072,-0.1463698689,0.0144287041,0.4373609904,-0.701669114,-0.8003342729,-0.5771677766,-0.4728369345,0.5081713633,-0.8617766406,0.3522313434,-0.6805153329,0.3815144305,0.2318829287,0.3166337089,-0.9238021582,-0.3933411487,0.5583999657,0.4377443229,0.7633414775,-1.0293684272,-0.155328809,0.2598298662,-0.8038471863,0.2267051408,-0.2110352007,-0.3319539383,0.2028480873,0.6774424939,0.012664079,-0.0608498673,0.1973527658,-0.4566699937,0.537686412,0.2508217514,0.7588598795,0.846445599,0.56708937,-0.3787789313,-0.5514861552,0.2677539179,0.4922719192,-0.0009974405,-0.1279849607,0.7353079057,0.5943360245,-0.1696301518,0.7607536319,0.8763397139,-0.1523394975,-0.3091094034,0.8727472948,0.3915110023,0.6324767265,0.2559309614,0.4351279027,1.0070019658,-0.3000762525,-0.2085759918,0.0639230073,0.0080992441,0.3195577658,-0.0857072586,0.1382545878,1.0617450079,0.7753459373,0.6896270589,0.6457852253,0.1997703539,-0.4374199861,0.4487214715,0.5713953274,0.8361419233,-0.2804205641,-0.8436628715,0.6871983011,-0.8934558213,-0.0686402481,-0.5935577255,-0.8782319064,1.173794641,0.897672802,0.8271887661,-0.647257106,-0.1332146588,0.0558263594,0.0044460829,-0.3976924598,0.5040459409,-0.9275996866,-0.06674394,-0.0681271652,0.0378293297,-0.1387387409,-0.5690622764,-0.5409322012,0.7192772578,-0.1303684659,-0.5860208674,-0.212330426,-0.5998650363,-0.3655313726,-0.1380581795,0.9889237105,-0.0551525643,-0.5022271751,-0.1212385249,-0.4506210256,0.7565316071,-0.3914105083,0.7377075725,-0.4357103157,-0.4775473637,0.8114754537,0.3359666783,-0.3661602664,0.6346253116,0.6027388414,0.7700663027,-0.5667203791,-0.791053414,-0.4049666221,-0.0518388195,-0.7141700356,-0.9090371266,0.2846149898,-0.0555628539,0.4836424957,-0.6512956103,-0.1665051641,-0.0150563029,-0.1573008753,0.4631741041,0.8464231834,-0.8021098877,-0.1564825506,-0.5096471758,0.1401769458,-0.7659028269,-0.3119222956,0.3405191837,-0.2533241274,0.5948633157,0.4191112284,-0.361058514,-0.810672978,-0.0668666053,-0.5943474885,-0.7539808606,0.2809092498,-0.4816978021,-0.219187776,0.6550052958,0.6871510344,-0.669164234,-0.2204163544,-0.2088881445,-0.5965220889,0.0515845117,-0.1233908273,-0.463975006,-0.9640163068,-0.7607529833,-1.1297616875,-0.0765563796,0.9090916937,-0.3511465254,-0.3598271453,-0.5640143306,-0.6464268448,0.4180244049,-0.0293329564,0.096019995,0.201060173,-0.20742117,0.5300926412,0.5956207904,-0.4170306364,-0.8233711313,0.1437327953,0.0114260478,0.4754734595,0.0896780129,0.0457910605,0.9575289697,-0.6839673852,-0.6981340325,0.0202100198,-0.7402867519,-2.366126876,-0.4514713343,0.8732083807,0.5070035539,-0.1483558967,-0.7578792112,0.130862653,-0.4184852142,0.273512721,0.3275551554,-0.681219131,0.2636694016,0.1166291116,-0.008698332,0.2173735235,-0.7689555014,0.1993900806,0.2582774444,0.5004861615,-0.2663621312,-0.1558658398,-0.7308375897,-0.048902432,-0.2501363556,0.0448614817,-0.6677354067,0.5594799061,-0.459681565,0.2638415637,0.3138954595,-0.240436999,0.7781126306,0.7270573406,-0.631035488,-0.7496759814,-0.0779933953,0.3236739012,0.9693856489,-0.7239267231,0.69426211,0.4022697708,-0.4883865158,0.8363026237,-0.1097893733,-0.0630435894,-0.1127799842,-0.7250986743,-0.1792483691,-0.6207592705,-0.3308094132,0.2709668602,-0.3625683791,1.1044018932,0.008718798,0.34955304,-0.0024368017,-0.4673075773,0.3963768007,0.7363883395,0.5201387944,0.385883256,0.3148874195,-0.224517184,-0.0667756425,0.8190207134,0.0583576711,0.0631489203,1.0223387998,0.7950165715,-0.3256075216,-0.0848555369,-0.2373953486,0.8207136281,0.6536999108,0.7015933636,-0.2834308909,-0.6297196751,0.4951863145,-1.4491888658,0.187827518,0.0817065983,0.6361468763,1.6073475221,-0.1757208063,0.2883691161,-0.2239282148,1.8885359816,0.4768999912,0.7523665175,0.4103974743,-0.5311338509,0.8657890266,-0.0832644099,0.5897900458,-0.4390529528,-0.5235752148,0.3323898606,-0.1523737167,0.5768217091,0.1642044339,0.1646545177,-0.0925971929,0.2786163373,-0.5830873882,-0.6435213467,0.195815611,-0.3075410072,0.1080265289,0.4564138419,0.9367885724,-0.7658959647,1.0670203152,0.3039213225,0.6522249108,0.7044814491,-0.087770303,-0.4687949526,0.6254280966,0.7795215766,2.0633816602,1.6484056575,-1.3427858914,0.3963956764,0.30104487,-0.2874866911,0.3911633447,0.1667580291,0.6977395493,-0.1884100104,0.6077677977,0.2466533727,-0.0104842582,0.7676134767,0.0898926753,0.4505499942,-0.9632361873,0.3948514916,0.0769073691,0.3813755207,-0.1118089204,0.1940339793,-0.5065214374,-0.2362392873,-0.1579909694,0.0453263439,0.2085754288,0.5782890371,-0.4925535499,-1.8694985095,0.5120263884,-1.0958256287,-0.954754374,0.4674096831,0.125726464,0.80028241,0.9424891012,0.146845044,0.3007750265,-0.8316625226,0.6143995597,-0.2254800409,0.4848359634,0.0562751982,-0.8643677539,0.5485173266,-0.7275279873,0.6451392984,-0.5188975174,-0.1637806749,0.1807565778,0.1179632569,0.1307997551,-0.0043083254,0.8183493199,-0.08946422,0.1977087161,2.0487559427,0.3773286865,1.0583862577,0.4343098614,0.7141006846,-0.045683261,-0.5275947796,0.6700700565,0.2239199748,-0.2079931832,-0.5280484803,-0.0639641679,-0.2669943423,-0.4825916621,0.6418227112,0.4332245363,-0.7016316613,-0.487275388,0.3720554206,0.7803082786,-0.0920150524,-0.6101502735,0.1863245714,-0.9219516034,0.7529520454,-0.2835269964,0.4241594494,-0.1051972229,0.7871839717,0.2870953224,0.305305487,-0.7496888698,0.8928882518,-0.355092773,-0.6765958091,-1.016230786,0.3660760703,0.6517319944,0.5335090216,-0.7351997876,0.7880952746,0.1545343137,0.0173801165,0.147810113,0.8778424893,-0.3237557002,0.5151519893,-0.5177470619,-0.1373885276,0.0238761183,-0.7557185236,-0.3259712079,0.6146217783,-0.6116901691,-0.0593170254,1.9969139818,-1.0067744669,0.7849847072,-1.0641508522,0.414859916,0.5996938523,0.2095205065,-0.6915548055,0.7738745262,-0.9125087203,0.4852335411,0.1843868836,0.5831280668,0.9063378843,0.7578689417,0.3977501072,0.2415474727,0.1282386073,-0.3418161917,0.1547437913,-0.9484316701,-0.5638583088,0.1904414531,-0.3882640139,-0.7614902407,-0.5216259524,-0.6957192454,-0.4724678338,-0.4070725536,0.4667344,0.6613876954,0.3235721079,-0.632600441,-0.6438340351,2.5009054849,0.3417081794,0.8970560756,0.2530578197,0.596680666,0.0177536773,0.693708795,-0.0427824392,1.9792733646,-0.1037943064,0.5753889658,-0.3668126383,1.677383698,0.1341920611,-0.1284138432,-0.3140004867,0.0881133451,0.2775364673,0.3461067528,-0.6287497901,-0.0196757057,0.0937561227,0.1831132387,20.7798981693,1.1545301275,5.0602168175,-0.7700840074,3.7069446813,-7.017373407,1.8747799659,-2.7196612947,0.9822675757,0.5093923225,0.0999373124,0.1007480217,0.6242992316,0.0847703169,-2.0687736973,0.0470534494,0.1184553526,0.1458037653,0.2171797639,0.0318060386,0.1192852458,0.2061823279,0.4980484154,0.0480536909,0.1326430769,0.2805463627,0.1207959327,0.0793043692,0.069810406,0.2669816465,19.4313621003,-74.9634520421,-0.7868132732,-5.1965205405,2.6115088657,-0.8288263891,2.8719960344,2.4935816233,-0.328539416,-0.6597624473,-0.4133491921,0.5963340904,0.1566780552,-2.6104016273,-0.1757972915,0.555356531,0.1811050767,-1.3227408927,0.0585817462,-0.4284840244,0.8848462961,1.1005962241,1.4427305985,-0.2986635355,-26.4622783745,1.5203188607,-0.3092722721,-1.9545374882,0.6061895891,-1.4436338602,-1.4370118211,-0.4702288259,-5.0139363217,4.7645200428,0.1883283639,0.793928502,-0.7236368464,-0.969266799,0.7249593139,-0.4152267435,-0.5146284685,-0.5353359013,3.7775846803,-0.5458685545,-0.5065044349,-0.275333921,-0.1646612214,0.4045203204,0.2356064696,1.3047645219,0.8297825056,0.5425406988,-0.2147349749,0.2520913708,-0.4001180655,0.5394097829,-0.094692703,0.4678689069,3.357342829,0.1563531411,0.1836525208,-0.0280643677,1.8448328817,1.1725101512,1.7805450715,0.8571674135,0.483611352,-0.3116182788,0.8327249225,-0.2869275678,-0.0193260768,0.510534204,0.0302569293,0.2071639843,0.912720108,0.9939969252,-0.6342461249,-0.2852831758,0.3260963515,-0.3435594127,0.3079382174,0.5807434187,0.1829496296,0.3489403459,0.3177955169,0.1794606608,0.3001271257,0.9457184298,0.3812848204,-0.2618926915,1.3342650107,-0.0206102957,1.2598264928,1.3698380563,-0.339094356,0.2609272008,0.7160811562,-0.531866292,0.1111706685,0.3994365547,0.6707658139,0.6585311086,-0.5283482684,0.1875546199,0.3977342027,0.6922660895,0.6519085197,-0.1218032186,-0.3882365968,0.190441255,-0.4547507231,0.3113474478,0.0594987788,0.4801526434,0.0254264462,0.6326505952,0.5245786934,-0.5317544276,-0.3778627941,0.7440290206,1.75847657,-0.7826600898,-0.8857473008,-0.0797305124,-0.4029852381,-0.3613848266,0.9376092658,-0.9136346096,0.4239448953,-0.1393549574,0.6453663398,0.6320479798,0.9465765437,0.6622856459,-0.0129878848,0.1603882612,-0.8920119696,-0.095130863,-0.893163978,0.1610659285,-0.551408735,0.2279959326,0.3170238324,-0.2208868004,0.0107626948,1.0962185699,-0.8704596764,-0.6159516235,-0.7701508316,0.0279842965,0.8846651551,0.1060986794,0.1233358585,0.5997326648,-0.1387696063,-0.2086541757,0.124787182,-0.0759302705,0.788742774,-0.3847118419,-0.3999854259,-0.6132564557,-0.9438034908,-0.5806992134,-0.6448609899,0.6689955343,-0.2194191612,-0.3547978204,0.7819527855,-0.0400190223,0.2788739996,0.913973117,-0.1244449888,-0.4050524664,-0.3635406,-0.4925755546,0.684773519,0.7854161872,0.1169412229,-0.5408519318,0.3484222864,0.4634213108,1.177625529,0.0729440336,0.5230548204,2.5905174103,0.5320624279,-0.4504653513,0.3870580929,0.5642482573,-0.307754396,1.4874766621,0.4683520831,-0.3401072551,0.4278625471,-0.6335810294,0.2298201067,0.055738065,0.2122854182,0.3430705208,0.2118162998,0.1257104253,-0.1398099213,1.3307051428,-0.7032896757,-0.0989051722,0.8909035697,1.2741588151,1.0410360212,0.561491583,-0.3174990715,29.116949521,1.1405016949,0.0001563863,1.1758134276,0.0806707644,-1.2273977525,-0.6385960001,-0.035176372,-0.0257203968,-0.5337681898,-0.1710505194,0.0258596809,0.061906335,-0.5996387717,-0.0348728691,-0.069646402,0.0363351453,0.098126205,-0.2228353426,0.0416796051,-0.0460854737,-4.0481650781,-0.7507062919,0.5744504235,0.686524984,-4.7426072529,-2.7667220953,10.8093525353,-0.8258989702,0.1973846677,0.5066044684,0.8036267742,0.3693385265,0.7687278172,-0.0587226279,-0.4163997968,-0.1637918888,-0.2731041048,0.1632756665,-0.3051420439,-0.3728507417,-0.6542831016,-0.2440443007,-0.1043745267,0.0337432993,0.8556920103,0.4983076012,0.1926730435,0.5969177397,-0.3282055463,-0.1885761078,-0.8618133771,-0.1378630218,0.5085118791,-0.4001026018,0.7495789674,0.3909577317,0.7466853886,0.2612974846,-0.0824128346,0.6354346313,1.2398232342,0.5656503875,0.9917246651,0.2220826062,0.8554422389,-0.3862493047,1.3118740469,-0.4371991947,-0.6983560866,1.0838668761,-0.9821849959,0.612940803,-0.4232853374,-0.1077443746,1.0929538114,0.3412003034,-0.0467520864,-0.2117070134,1.8344987534,-1.2910546357,-0.4572416083,0.2603451694,0.8801446934,0.5964263003,1.0660930646,0.6416760969,-0.1777497177,0.6352319764,-0.5793683952,-0.051122871,1.0241961397,-0.5138563762,0.2035694307,-0.4608872486,-0.6239607633,-0.5771746428,0.4519733707,-0.3645653381,0.492887001,-0.7389471766,0.2694539876,0.7449918046,0.2121097813,0.0257110793,-0.941253457,-0.4169838195,1.2553883521,5.9049300482,-0.503999674,0.0930984444,-0.1072564366,-0.8754586013,2.1313955209,0.9026829863,0.063523419,0.7980551943,-0.4353789965,0.8097456325,1.0756500032,0.2359099442,-0.2437296771,-0.7921267286,0.5173176951,0.0922776057,0.7555157932,0.0197142666,-0.046496148,-0.4020654168,0.0760307258,-0.5312683191,0.6274266452,1.4015859187,0.5888226897,-0.0621570228,0.6411404514,-0.096675673,0.8115994059,-0.3463061077,-0.7086835895,-0.0051235495,-0.1255832901,-0.4693851401,-0.0311016076,0.7046362095,-0.4501836451,0.2974134422,-0.3540199806,-0.4978887578,-0.62935938,0.5535757897,0.1126103543,-0.602980574,0.0968648182,-0.7579406336,0.7200997832,0.6001739288,-0.5499061001,0.4584553437,-0.8560459182,0.4785401306,-0.5781676545,-1.0173297965,-0.482327264,-0.7245257148,0.0592377802,-0.1559892254,-1.0688698035,0.4413424433,-1.3296541027,0.3875193239,0.5536815032,-0.761326162,-0.2474848252,0.8558879623,0.5510245972,-0.9301293232,0.4526172996,-0.1409759645,-0.4380302639,-0.064563442,-0.5171790686,-0.8996885024,-2.6781095356,-0.0147526365,-0.2921264515,0.5503635523,1.0084679728,0.5263963994,0.3759418464,0.1856596926,0.5838159253,0.3597877295,-0.8919982936,-1.0633104658,-3.6574697202,-1.775620414,-1.8320265875,0.1707882229,-0.8407044118,-1.7730000347,0.1450791082,-0.336563729,-0.4406962349,0.4842397102,-0.0833342771,-0.3119364748,-0.1646336389,2.0449248379,-0.2767648376,0.6180875863,0.0848740831,5.3120271936,0.7417032327,0.7111227903,0.6439889175,-0.8005879796,-0.2468147332,0.6644859036,0.0890000999,0.0746563182,-0.3544333349,0.3767925201,0.3009168423,-0.9225162899,3.1154612575,0.5519548174,0.2311328105,1.5400924037,-0.6697458937,0.9178593214,-0.673663067,0.6969634314,-0.8578208486,0.2924518647,-0.033822015,0.7105265065,-0.727012447,-0.0058138238,-0.6501691796,0.7831683931,0.5999839925,-0.6693131599,0.3719900261,-0.8891834348,-0.3316877545,0.8276050348,0.6733151958,-0.1843607512,0.1355882496,0.1755187244,-0.5372244999,-0.0515251092,-0.0403470252,0.1264370252,1.196872622,0.7264643377,0.5281436181,0.6175589939,-0.7640689301,-0.2300511442,0.6016088651,-0.3342746974,-0.5701030686,-0.3766412008,0.1248609986,0.3712283039,0.2774097708,0.2083464697,-0.8647519919,-0.912561276,0.7044050291,-0.655862174,0.5155262124,-0.3890910818,-0.4567161507,-0.436433711,-0.0124155175,0.7193098739,0.7518627973,0.7552614009,-0.1388539097,-0.7611942891,1.5847034003,0.7557339603,0.6058623046,0.5152164592,0.2392077083,-0.2196622711,0.064861795,-0.6604364362,-0.3375312748,0.1714344763,-0.5732873566,-0.0128423027,-0.6250572396,-0.5564787131,0.4399098249,-0.2561014815,0.5537036347,-0.5645740937,-0.1117090911,-0.3488957731,0.1775985558,0.4747510303,0.3081593498,-0.4818423943,-0.3583293596,-0.3391641847,0.4258142571,0.6426731295,0.3521529303,-0.0967147257,-0.8628039339,0.3323168118,-1.2806012262,0.2291302752,-0.8083207003,-0.4866859588,-2.0076990977,-0.3486042874,-0.3687419719,-0.636748453,0.04899136,-0.0310129597,-0.686744589,-0.4920447512,0.9082044951,-0.7524192607,0.3228052899,-0.3595220192,0.8787354777,0.7265509368,0.4831516222,0.060964527,-0.4191269797,0.0278282639,0.3434074882,-0.235218918,-0.4561474786,-0.1581759041,0.114586093,0.7777659279,-0.2929885427,0.8667156139,0.2752280795,-0.8871232188,0.3233478262,-0.9325599623,0.1525539536,-0.9049557206,-0.496545572,0.179088319,0.6810531641,-0.4049548654,-0.0432512588,-0.3501392736,-0.8018339823,0.3660800775,-0.1763635063,0.3724870952,-0.3161007632,-0.4004576449,-0.7780731245,-0.0824622187,-0.3047920141,0.1291198051,-0.9211427605,0.031779551,-0.4874279777,-0.0659100783,0.2435756446,-0.5510067606,-0.0522086768,0.0356447534,0.5847447091,0.7865943697,-5.8314091857,0.7066961782,-0.2547651639,-2.1662004329,-0.1625944285,5.1011055761,0.3881560156,-0.4291110857,-0.3199022061,-1.1042876522,-0.3059148097,-0.1716914814,0.0704248379,1.9255039624,-0.1892656936,0.0385147219,0.0595262678,1.5052431205,-0.3801063711,-0.3495091943,0.0843553372,-2.2713197102,7.4955207959,4.0801789782,4.7554270074,-0.7755923683,-0.0266605066,-7.5780573717,-0.6513208015,0.3134121045,0.2794482815,0.1484998317,-0.1436702433,0.1821087304,-0.5597490742,-0.9502479238,-0.2077510775,0.9623148836,-0.2435308076,0.5956630641,-0.0753791864,-0.3185486486,-0.8145839248,-0.0724154048,-0.0974430922,-0.3266100444,-0.352164973,-0.5127503281,-0.5841747007,-0.1552990166,-0.1189525767,-0.5243421197,-0.8176343785,-0.1515868649,-0.8752972984,0.6936935851,-0.1152231005,-0.6829101006,0.5096257851,0.5510687084,0.6102161407,-0.8019867087,-0.3862822725,0.0891778324,-0.3551744469,0.4698510378,-0.9221049066,0.8808079064,-0.0961655381,0.7182409086,0.6039295697,-0.0990974443,-0.0688022349,-0.3369579763,-0.14863623,0.4070046661,-0.0251458387,-0.1783242973,0.7563975328,0.6597579675,0.5980020227,-0.1075482652,0.7406350843,0.3075560283,-0.0803279006,-0.1610107536,0.9194711153,-0.5208994811,0.4439318409,-0.2207538958,-0.1904475369,0.2943440891,-0.257807232,-0.6971330652,-0.1983994314,0.759673211,-0.2389798718,0.2225660751,-0.176947406,-0.6783221031,0.2711977258,-0.3280073085,-0.1629205952,-0.1967784838,-0.7227038027,0.842562605,-0.2873817092,-0.2176738139,0.8427452445,-0.8249081511,-0.6558446667,0.7254719366,-0.4582783957,0.5777001516,-0.3860438281,0.6346047627,-0.4481081001,0.6436243917,-0.3548964951,-0.5832347634,0.2673341886,-0.24409399,-0.1250479327,-0.5434054507,0.3492934721,-0.2603168172,-0.417519913,-0.3256238638,0.618123684,0.358154565,-0.1554004614,-0.2293695655,-0.0129811413,-0.2893546436,0.9681621897,0.129698348,0.2364977637,0.1807424734,0.8085433591,-0.2111888385,0.0062285643,-0.338521782,0.0937524168,-0.4041537021,0.886157446,0.0141268401,0.9609373496,-0.2399506133,-0.1627953854,-0.8689975674,0.7742889152,-0.3402149185,-0.1667375534,0.1544086801,1.3247254589,-0.010620294,-0.6639183117,0.6758059315,0.4421147433,0.4960611318,0.7719017227,1.0035655794,0.5267367768,-0.5522979651,0.9721920328,0.4562448708,-0.1004240005,0.0528524666,0.804986935,-0.5142685969,-0.2490167755,-1.0076847914,-0.5419714972,0.7078832214,-0.2898289484,-0.098079094,0.7790855444,-0.4530535362,0.3541450198,0.7508354001,-0.237867145,-0.4356841624,0.3147974556,-0.7939156862,0.420333285,-0.2228415936,0.2193369951,-0.0835817465,0.2048864147,0.4216782948,0.6539088024,0.0680221659,-0.1537581281,0.7853717757,0.6062565277,1.0250837971,0.9297805223,0.7581330466,-0.8747346916,-0.7241774444,-0.1238215644,0.8936364186,-0.3357969164,-0.3343950092,0.3308990666,0.6406921901,0.0577212212,0.0596501604,0.5158683159,-0.271600552,-0.3817935819,-0.8150836333,-2.20422552,0.9472578385,-1.1355031162,-0.1662561155,0.0597037394,0.3103803189,-0.4739142172,0.022146156,-0.3402052407,-0.1847473396,-0.9060766919,0.4500507969,-1.1342606125,1.3988438699,-0.3435533878,-0.930959329,0.503673572,-0.7608082887,-0.8617709717,-0.7561362503,-0.6014186409,0.8007008024,0.3271242818,0.2593125332,-0.134300888,-0.8554065515,-0.6027968761,-0.8113218587,0.0793498152,-0.204589657,-0.830648739,0.2624560065,-0.1201617488,-0.3507176349,0.5366706177,-0.2925759088,-0.1498006971,0.2344290099,-0.394597729,0.7393043602,0.0867970202,-0.9264520905,0.8683088098,0.6829360214,0.1353755819,0.4353444215,0.1849430028,0.4042812311,-0.71459643,0.6006003972,-0.63479197,-0.8545104871,-0.5919000619,0.8143469724,-0.0480599462,0.9965558949,0.4777086449,0.6046707179,-0.6110926394,0.683281438,-0.6457067175,-0.2678988639,-0.5218729989,0.0098633341,-0.3979440964,-0.7004230798,-0.0597735625,-0.7372782792,-0.886692316,0.2540133531,-0.0716341871,0.570840926,-0.1492745546,-0.8467417766,-0.1717568985,0.1918459563,-0.0022649842,-1.0067544528,3.3639960272,-0.0826750746,0.1075902857,2.4733134448,0.1336802448,-0.7137131824,0.129201533,0.1738582489,0.3213349326,1.1011722412,0.1771746753,0.1408599894,0.2708469558,1.0451764072,0.0668349065,0.1645916465,0.2127275979,0.9497412919,0.1742332715,0.1620191395,0.1454072636,7.4070074811,1.7107294713,-1.6393776996,3.083964301,-78.5370898312,-11.7629230199,1.1166693844,2.5485901954,0.3252608228,0.085094105,0.2356309575,0.3086055906,0.182110497,-0.3381274486,0.8213617377,0.3298690639,0.7078250063,0.3762222179,-0.1663736881,0.6150876815,0.1594318715,0.4322258315,-0.8430229438,0.7485531106,0.029596076,0.0832392626,0.2322391135,-0.0078147456,0.4439548912,0.3173585488,0.653143552,-0.8966897172,0.3071662113,0.6165521557,-0.0092009921,0.0866526051,-0.4394277065,-0.323037116,-0.8462803385,0.2311564327,-0.9754028527,-0.7193870139,-0.8033779438,-0.0828713563,0.6987108252,0.5517697624,-0.4355522978,0.3271191945,0.7241603595,-0.3915196988,-0.6843449334,-0.4285239131,-0.5718939365,-0.7195664113,0.6185416217,-0.1825856703,0.2662552011,-0.5202512034,-0.3985164443,-1.0211302727,-0.3144269944,-0.2012866739,0.2471906624,-0.7673565059,0.3107985456,0.8544851376,-0.2567203955,-0.9454561462,0.0536377573,0.4620904519,-0.1601151188,0.3509177179,0.5461927133,0.5935367958,0.5272428226,0.257203179,0.1244610399,-0.2733805004,-0.4245968793,-0.264976169,0.8279521202,0.0502111789,-0.3735041954,0.3887369153,0.3706034483,0.4704091536,-0.8216228721,0.8390734325,-0.162195896,0.9266127328,0.1716594179,-0.8820300839,-0.6085151829,0.9586301968,0.6840898136,-0.5690775445,-0.5809336193,-0.0445648904,0.2201380557,-0.5349278259,-0.5630576619,-0.5722097044,-0.2086405423,-0.1580376283,-0.3799328487,0.2394531198,-0.2833752125,-0.024835893,-0.8051923956,1.2001422884,-0.1255178749,0.8647212988,0.4781760627,-0.8704485313,-0.4091345112,-0.2145684122,0.2768366841,-0.5844556962,0.2793825964,-0.3297652186,-0.2562840966,-0.8996490868,0.3258149311,-0.1858979513,0.6500602846,-0.6607710044,0.0777257151,0.4591685372,0.6869954921,0.2740494509,-0.7992995063,-0.7489634031,0.0273119888,0.3092578872,1.1066696551,-0.7206844937,0.7566546735,0.265158005,0.2133215067,-0.2283630243,0.7928399888,0.4267142189,0.8307881909,-0.40639774,0.1602303133,-1.0545335541,-0.3938355204,-0.6361635675,-0.9478184079,1.4366306888,-0.3808681589,0.4548570203,-0.9649318011,-0.5324460325,-0.5084215354,-0.4031384097,-0.3163787521,-0.6701969652,-0.188767892,0.5317087191,-0.199075034,0.8229789751,-0.2474055886,-0.5726402172,-0.0604730731,0.5871761951,-0.7400497473,-0.7581275649,-0.420303441,0.3347417301,-0.349204453,0.3256543043,-0.288730955,0.0247098922,0.8702036273,-0.629659474,0.6942153346,0.1563818939,-1.0729223919,-0.3642780255,0.401424106,-0.5017028862,-0.6439967124,-0.6959130719,0.3788319467,0.5986440056,-0.7450828517,-0.4228893521,-0.9315835427,0.1913050386,-0.2095462626,-0.1496726447,-0.5196393327,-0.5627796275,0.1893391157,0.1231363715,0.3285229476,-0.000592996,-0.256765857,0.5570420537,-0.2933441526,0.1999136767,-0.1317491767,0.6925833378,-1.1107390567,0.3241259219,-1.3946994462,0.7298520102,-0.0128810013,0.3916848158,0.3594504327,-0.6440484777,-0.4827757331,-0.0675578707,-0.2848233098,-0.6502355437,0.5450643181,0.3152013433,0.17311096,0.1803103017,-0.7719958774,0.468810813,-0.3116198266,-1.0368649689,0.2828531158,0.2319618915,0.7381701189,0.0978961357,-0.4333754964,-0.1449857179,-0.8002884534,0.3273238817,-0.5233787517,-0.4567392475,-0.6994291538,-0.0587677887,-0.6213978875,-0.5068430952,-0.109192753,-0.7132325087,-2.0936057546,-0.7909631637,0.4744164759,-1.2312002418,-0.9502765547,0.3751162528,0.8984898474,0.1096255063,0.5220610987,0.9107923555,-0.5812765237,0.3503722949,1.3169897065,-0.1109163621,0.6321427071,0.8494220035,-0.453849111,-0.7180107286,0.2359002775,0.3562369558,0.189799519,0.3626637288,-0.0704835809,0.931665067,-0.1660632035,1.0535533405,-0.608976811,0.1658283876,0.2195551056,1.118029344,0.1264807867,-0.6852086516,-0.0400271228,-0.5731580402,0.6329804657,-0.3727899524,-0.9896427143,-0.57583086,-0.3955350535,-0.4058830412,-0.1425367053,0.7662222629,0.1168575191,0.622221835,-0.0686795593,0.6833123117,-0.0003844934,-0.6860416303,0.0803739623,0.2658485752,0.1269595643,0.0208291694,-0.6005768409,0.0827749906,-1.6089049558,-1.7291699272,0.5394383205,0.7905959735,-0.5206175382,-0.4729191322,-0.0832027713,-0.0789216121,0.5430761013,-0.5450433057,0.5915950539,-0.4491121981,-0.8483030429,0.1903721302,-0.6386191677,-0.0139567217,0.1219085678,0.3462427855,-0.5297362041,-0.209926118,0.0119999627,-0.0308155753,0.3552776986,-0.0901820748,0.1247435265,-0.2046678646,-0.2418167465,-0.921421997,-0.6455628146,-0.1935411088,-0.021252546,-0.705055618,-0.561757623,-0.0953444681,-0.7093907712,-0.1650658681,-0.0035449121,0.4189928099,0.2924338536,0.4842202134,0.686225506,0.4893208578,0.3324276234,0.8674303875,0.5765844244,-0.1188840063,0.0033371677,0.8024896397,0.0338200292,-0.2765743687,-0.4197701934,-0.1811103857,-0.5920530678,0.53545838,1.1292532197,0.7392292957,-0.1329887707,-1.2578379383,0.9392627514,-0.0112614613,-0.8592341035,-0.1143572453,-0.2563045943,-0.6899441392,-0.6245873046,-0.200890774,-0.9189202877,-0.6689747818,0.2861326955,0.4846451655,0.7544234176,0.5199230681,-0.8864616847,-0.1964646227,0.6009079787,0.5527467043,0.2456285196,-0.1131262041,0.1050257045,-0.0300044386,0.4763055552,0.2676130581,-0.3450319479,-0.5791916329,-0.8193584468,0.0957870636,-0.5880472143,0.5029740344,-0.9040287987,0.5314490081,0.3941273924,-0.0417380087,-0.5288773805,-0.0076427063,0.1383480745,-0.5737086428,0.6775509884,-0.9545936519,-0.6099293805,-0.4737234909,-0.0965706214,0.7350234367,-0.2112086298,0.3289977139,0.5615884982,0.0481262536,0.3352783096,-0.4917251299,-0.2685261844,-0.5286547797,0.2204193014,-0.5804927047,-0.7955818128,1.1339388006,0.2494028741,1.3641175455,-1.0632459255,0.3795854417,-0.9692798263,-0.6466256779,-0.4925825428,0.0888418986,-0.6861836919,-0.895111871,0.7082476301,-0.1593517686,-0.5066994701,-0.569838651,-0.744515095,0.0712741459,-0.8131377425,-0.2428990453,-0.3473519486,-0.1698419516,0.6838591015,0.361325086,-0.833016964,-0.0766272422,-0.4520473776,-0.1157452824,-0.046365494,-0.0652692304,-0.7711307507,-0.5809033841,0.3076740393,1.1354772058,0.0614659468,0.3893593846,0.5647459212,-0.0559329537,0.1017592978,0.4690965537,0.456944945,-0.7786696193,0.1844156532,0.4950911143,-0.9200706053,-0.1302780787,0.1000987688,0.0493836135,-0.0133525179,-0.2434468969,0.0362035146,0.8928774208,0.1823906108,0.2397045243,-0.2650974237,-0.801529725,-0.5561960696,0.4542944177,0.7794354044,0.7766509551,-0.2891222913,1.139002579,0.6555669289,2.4268681202,-0.4505641938,-0.5986845731,0.0342586941,0.2082858617,0.651611867,0.1587195165,-0.0066649199,-0.0358071908,-0.2833736471,-0.5954686927,-0.1089545381,-0.3923783368,-0.1560008408,-0.6578223269,-0.558306719,-0.6659223407
   -0.747351831,0.4784727565,0.5067227208,0.031034852,0.7397382172,0.8188316272,-0.3834746446,-0.0369036967,-0.7687626566,0.9048123497,0.7001626976,-0.0841835014,0.7409401649,-0.0416415019,-0.1850242514,-0.6144255311,-0.669832097,0.7071453103,-0.4367715182,-0.8311979902,0.5027210073,-0.0664858625,0.8962708181,-0.014035794,0.2512311295,-0.4244523664,0.8916185877,-0.3003440136,0.2396691297,-0.219500755,-0.0311933155,0.2190916977,0.9214828414,-0.1360462323,-0.5700284972,-0.4640610373,-0.7276147283,0.696684076,-0.5616529215,0.633913367,-0.590281101,-0.8364448602,-0.4765118543,0.2816844522,-0.0147374045,0.7420593321,0.0245987017,-0.2346091559,0.0037515537,1.0045993058,-0.0031773884,-0.4773374497,0.6988937865,-0.8820206053,-0.4894295113,0.4053657082,0.3611682109,0.7845394241,0.3721740592,0.2306654997,-0.0237690578,0.1279194016,-0.5858728144,-0.4114775161,-0.4861560123,0.2814586794,-0.4741015035,-0.847696618,1.3368982528,-1.3505494252,0.5104802991,0.5204612123,0.8951575094,0.2967357485,0.8244133853,-0.4584002999,1.0333807858,0.3881162143,-1.5814500137,-0.3155674089,0.1706992187,0.7277106823,0.3733432855,0.703771493,0.6127518873,-0.4044413194,-0.3663210931,-0.5405542746,-0.1052184084,-0.1108452546,-0.4270024956,-0.0620285461,-0.3912035914,0.2186724448,0.7166349515,-1.1607989228,-0.7279215689,-0.5578716832,1.9003653289,0.1728392748,0.3914547318,0.9458486728,-0.344036603,0.7252153646,-0.2004519836,0.265799371,-0.0223454258,-0.9665539512,-0.3738128506,0.3087607363,-0.2530913804,0.1324067031,-0.5904544415,0.0270891715,-0.2594174752,-0.5400439001,-0.1432794285,-0.1054970112,-0.2569978485,-0.9444149892,0.6055002021,-0.2148396331,-0.3018075484,-0.0538296576,-4.5955340541,0.1610481228,-0.8746184645,2.9846659079,0.7147883335,4.0530023631,-0.7356337867,-0.7285147223,-0.9899532446,0.6744143865,-1.451778791,-0.2406308271,-0.4182578542,0.5028475342,0.0081365286,-0.44791981,0.0107726977,-0.7875925765,-0.441088929,-0.2416952175,0.1253165132,-0.4429203369,0.2539625906,-0.4237847108,-0.523756969,0.0548193949,0.246030822,-0.6122755178,-1.0452542877,0.4793938231,0.4098179179,-0.3716581416,-2.3769932311,0.0096835976,0.3051448602,-0.0631387738,4.910882388,-1.7084363132,0.489153684,-0.1923673359,0.4914417576,-0.1562431459,0.2589890342,0.4789587029,-0.1313940703,0.6057468078,0.1141959862,0.5456930263,0.3333431381,-0.3283770194,0.7176092132,-0.0969750874,0.3147084137,0.1301300425,-0.1496057705,0.4646941046,0.063827781,1.3988194846,0.1719879477,-0.7654556754,0.0388073906,-0.0076929404,-0.1163301845,1.6245132084,0.1405544582,0.5443355065,-0.2506338958,0.6361696129,0.591046029,0.5372772973,0.2372004175,-0.0957913547,0.4949298047,-0.7190423295,0.3849713945,-0.5575996775,0.3530705625,-0.3211576198,0.3540975245,-0.1767136607,-0.1310294669,0.2692252122,0.0936557519,0.5325082795,-0.1223384142,-0.1006722556,0.4895048035,-0.1362286356,0.613094915,0.4600795099,-0.1231597132,-0.7440308419,0.3689423166,0.0810502393,-2.4357212397,-0.176491404,-0.2282174789,0.2648091928,-0.4315495873,-0.7430225688,1.094601091,0.0583436473,0.1344799752,0.1474161913,-0.2809092221,-0.480700644,-0.4267613908,-0.6622064375,-0.514958673,0.4002223871,-0.3465149763,0.9037405471,-1.0977538629,-0.2931945162,0.0458273411,0.2427965211,-0.1250433398,-0.3896847065,-0.9466919755,0.9471758962,-2.1609348913,-0.0465853266,0.0777036649,-0.1834931387,0.3843665594,-0.0231883822,-0.2329649389,-0.4952998836,-0.157135067,-0.0661290514,0.7828311084,0.3668691398,0.1025131352,-0.0378681496,-0.457774586,0.0118558678,-0.6424056267,0.6741745804,-0.1567035728,0.4685556111,0.4334038402,0.3300877579,0.4610937054,-0.2304937424,0.4290652673,0.1138419855,1.1280932625,0.9140977057,0.6563554768,-0.7638017294,0.7621476532,0.0181599462,0.1970898771,0.7444838593,0.7809742536,-0.0684225413,0.4437552153,-0.1925222508,-0.164680429,-0.2958783922,-0.3222236845,-0.7327254255,-0.7421834851,0.6755972888,-0.1800742885,0.6627609016,0.3777382665,0.3936616005,0.115192846,0.4625878966,-0.5005684148,0.7961699353,-0.0419849803,0.4108542641,0.5954500448,0.7741871887,0.4014412805,0.190186382,-0.0491721414,-0.3714055601,0.0792168211,-0.6500410664,0.1184451606,-0.4686053967,-0.1653237714,-0.1234541193,0.0160479512,0.4457424947,-0.5219594307,-0.4876661597,-0.1207610316,-0.6530460133,0.3396853551,-0.1974094308,-0.1750240755,0.2828059922,-0.2059824472,0.5484624092,0.0147529079,-0.2205708622,-0.60035081,0.0397613535,-0.9417555338,-0.5573854973,-0.4344626117,-0.3720354741,-0.6071499925,0.6339181993,-0.4796778038,-0.1539281102,-0.0836116168,0.7680415316,-0.2413128595,0.5493895906,-0.0128414878,-0.8071086233,0.8932601943,0.3147786416,0.5528928827,-1.4343136926,-0.3054839247,0.5017081298,0.1930738179,0.4413045065,-1.3760200706,-0.1705009146,1.5002676672,0.7298831941,-0.0200586208,-0.8865629966,-0.0369721569,1.119670107,0.4683685185,0.4231792367,-0.2685490586,0.6211572779,-0.2392863226,-0.22526089,0.5083327796,-1.5673128005,0.4540945968,-0.1545171677,-0.58146625,-0.6090950853,-0.5536149408,-0.934809667,0.413703432,-0.5576764758,-0.3052977549,0.4331377448,-0.5423364376,-0.5169867754,-1.6381494783,-0.1476910159,-0.3777630246,-0.5034762906,0.8557448286,0.3663127925,0.3452099396,0.2065767128,-0.6029994127,0.3556005788,0.4666915919,0.0287543645,-0.4688608568,0.1611580747,-0.1221163551,0.8722243489,0.7162061733,0.6743535838,0.779631259,0.257665816,-0.2294793706,-0.6552518967,0.001032846,-0.3320728386,-0.9752165629,1.494526682,0.3814433627,-0.9583504468,0.7673612291,0.8402033736,-0.5386161874,0.746597073,0.8469688373,-0.483870962,-0.2787136695,0.1618232653,-0.892892458,-0.3682886075,0.4091709884,-0.9086925451,-0.1339162958,-0.2464002199,0.9659934228,-0.0514244835,-0.0189773383,-0.4575600064,0.5470841057,0.5217401557,-0.1269370093,-0.2169635914,0.9275212744,0.8606064359,-0.1786316436,0.202846585,-0.3062103356,0.0879289278,-0.696494504,0.3560396584,-0.100633041,0.6326772062,-0.7066633956,0.8838064616,0.4073131486,0.482469081,-0.6860025506,-0.0005236671,-0.6122470454,-0.5208979996,0.4989154653,-0.5779933836,0.9687290151,0.74625098,-0.9563656527,-0.905707619,0.4838177071,-0.0305336914,-0.1824152332,1.6545008443,0.4729252627,-0.3429119111,-0.0950882342,0.1288475313,0.0031651381,0.8220885928,-0.597017121,0.1213715708,0.4802344413,0.4959897611,0.3253024141,-0.5781725592,0.6709006025,0.0977884392,1.0965128016,0.2469591527,0.3124034667,-0.0270759187,0.6178649076,0.3603982288,-0.3412387925,-0.3584696017,0.6041063306,0.0795794905,0.023761061,-1.3712023966,-0.7489071294,-0.6323137783,-2.2875198777,-0.5615646604,0.6871870111,0.9408753189,-0.4832608795,-0.1913285668,1.5910482192,-0.948854603,0.6116714129,0.3940144944,0.7294510779,0.6247205446,0.0092661988,-0.2500033955,0.3543889186,-0.5719457612,-0.3985083891,-0.5210428037,-2.3373630878,6.0024659853,0.7666771473,0.3933595086,-6.5547867752,-2.9807256123,-2.1885949955,0.244349601,-0.2150012981,0.6749123351,0.4359741942,-1.8099257173,-0.4204168015,-0.0947472083,-0.3473073266,0.6552109228,-0.214747367,-0.5825123859,-0.0507428525,-0.4230572663,-0.1117275145,-0.1531550986,-0.2312218003,0.4426497464,-0.1999935729,0.0082816544,0.0574581851,0.6170726044,0.4235564703,-1.4546366974,1.6477250218,-0.4612707215,-0.5396627244,-0.0548414009,-0.1525125476,-0.0451543951,0.9489998678,-0.9369098064,0.73368657,-0.6464155368,-2.0658314013,0.2768233404,-0.5591439905,0.6733196138,-0.8807777267,0.9296608775,0.2339971989,0.4264267279,0.7489748647,0.7602357697,-0.0830971027,-0.6599311722,0.286167088,-0.2428330416,-0.077653964,-0.4836006392,0.3231412987,0.311659452,-0.8620251925,-0.0926523683,0.6496815474,-0.7114187671,0.0912262381,0.5180063557,0.125302894,-0.7739590023,0.3434320694,0.2475641555,0.5077666695,-0.4066859752,-0.3575756372,-0.803262741,-0.5054610312,0.5213266027,-0.9160907925,1.042675309,0.2980992146,0.6125540901,-0.0444952001,0.5996402616,-0.4566255546,0.206372809,0.8305992614,-0.3000120152,0.1117137009,0.59676616,0.0343349902,0.2347644965,1.1118364486,-0.1698193704,0.7491189026,0.5202562762,-0.0827386874,0.1864745636,0.8864408079,-0.0486019538,-0.4288828,-0.2279619231,-0.8196351658,-0.1612906814,0.2816438549,0.1774404297,-0.2015999757,0.8691595475,-3.9228625059,-0.7540076418,0.5852742165,0.239444874,-2.2229696714,0.3641372736,-0.1285752567,0.0409489449,-1.1680026424,-0.2115672232,0.0529730792,0.0919036202,0.5655685174,1.0178523134,0.5275876896,-0.7404282296,-2.4892899663,-0.4071599023,0.700231344,-0.9460918904,5.6533938912,-5.553332032,-0.2471607697,-3.4491796436,-0.2232345099,-2.5922213952,2.2267610893,-0.450629183,-0.3684063854,0.4574897793,1.0970151219,-0.2856479562,-0.3423042097,1.0057559674,0.8015138598,-0.1419555286,-0.2762986612,0.1633545885,0.8553693285,-0.3213267312,-0.1105845156,-2.2405558022,-0.870064529,2.356218768,1.5497514935,2.3937093817,-3.7822268521,3.0637231155,-1.1841200817,-0.8587521031,-0.8850354006,0.3333329553,0.0265009005,-0.9916380003,0.1457574665,-0.0976166485,0.7730284917,0.438269531,-0.429264053,-0.023444661,-0.3880531265,0.0796136148,-0.3084601466,-0.3010992407,0.6497901387,0.473778755,-0.5926434676,0.6807196623,0.3641057915,0.8310705228,-1.1032248492,-0.7775246447,-0.9399022097,0.3316521804,-0.3475459985,-0.9032993402,-0.3189728644,-0.3846856702,0.2669643569,-0.9770791127,0.1311516712,0.4602220377,-0.5767268597,0.1776662045,-0.0751762121,0.6777323693,0.0318428035,0.1568474314,-0.3153813157,0.4228549022,-0.6517911375,-0.5945116293,0.3178817636,0.772602994,-0.3240337281,0.7807024412,0.1034040253,-0.68493547,-0.1702306054,0.1290877157,0.6588746902,-1.302737754,-0.0633028331,-0.2227213545,0.029818768,-0.1833277879,0.7899953257,-0.731553584,-0.0775357758,-0.529053979,4.1418844153,0.495367364,1.624622925,0.4933685546,0.4371002482,-0.9953056588,-0.2212175229,0.3891264846,-0.7368682,-0.5526664897,0.2882028411,0.3653203562,-0.0304754531,-0.5505696455,0.3356110185,0.6819720418,-0.2818446218,-0.1913225025,0.5716789207,1.0800847272,-0.4599213991,0.5495965115,0.8923351093,0.9240879289,1.108013933,0.9854599477,0.5995167353,0.331934823,0.3956954751,-0.8026705338,0.8886050634,0.7679866398,-0.1690750563,0.5145772813,-0.176910179,-0.6480583624,-0.7072921615,-0.5980740036,-0.0522663071,0.6587120211,0.4320137555,-0.1470882628,-0.424075457,0.3691010413,0.1927641696,0.4346655639,0.5882708266,0.391861906,0.4976425175,0.6996625525,-0.9766030215,0.485378445,-0.6015103813,0.6370199909,-0.9174342262,-0.1583333921,0.4515025493,0.2312192806,0.2741493529,0.1253823861,0.2588375947,-0.8369430853,0.5373311561,0.8331636438,0.5843212525,-0.9148742099,0.0264644033,-0.1414847653,-0.4931757973,-0.4738900429,-0.3155373121,0.0368305745,0.2897480475,-0.3395351444,0.3030120059,-0.0871419309,0.7295873963,-0.778615099,-0.1817141465,-0.7822504934,-0.8435099055,0.1724508983,0.1392238976,-0.8808553986,-0.3054251342,-0.6557295484,0.2265987211,-0.2833061005,-0.6251556837,-0.6384308221,0.7567169038,-0.4456590245,0.029723469,-0.0932880515,0.7769021359,-0.6242838111,-0.2392224089,-0.2619759789,0.3486020651,-0.2156349716,-0.1167678268,-0.7943807875,0.2352589113,-0.6628077668,-0.2476866525,-0.1449199197,-0.1385274924,0.811897557,-0.0748398246,-0.4794771469,0.9103245675,0.2274074802,-0.0928395008,0.3134345696,0.3888891589,-0.7366251802,1.3157821087,-0.3142281455,-0.4151916577,-0.0245459919,0.1741917835,0.2111985988,-0.1754999741,-0.7259541671,0.1213141082,-0.1486830938,0.1939688782,0.2394504967,-0.7243295709,0.0982325431,-1.2852952854,-0.5494515626,-0.6859007693,0.1458284612,-0.5866609018,-0.7466820995,-0.2126335093,2.1317057657,-0.0090195781,0.2005207016,0.9858022809,-0.0419484836,-0.7878016513,-0.1782243987,-0.2688703156,-0.2851378591,-0.5475572247,0.2982242482,-0.7830231387,0.4719847699,-0.5760291753,1.2567477863,0.7358408478,-0.2554766173,0.076212877,-0.6783353624,-1.1990815307,0.1853844464,-0.0303195635,0.9675654822,0.6253253103,-0.0418706845,-0.2484901285,0.5814802089,0.089675856,-0.8973776388,1.0407520869,-1.5533992097,-1.8508272701,-0.7441946104,-0.2340332889,0.3231795428,0.2284545699,0.0153476985,0.2775263488,0.1610391186,0.4589493645,0.4123258718,-0.2457720239,-0.7996524011,-0.7579319982,-0.1507955334,-0.9772160784,-0.2603589406,-0.634636797,-0.548312797,-0.2496247268,-0.7436608163,-0.2197062571,-0.1230298933,0.5008184385,0.4247279297,0.2553801724,0.1680758526,0.1804636004,-0.5146730132,0.4263783584,1.6852532663,-0.9998661255,-0.7124826196,0.0269845638,0.4403042247,0.3846948157,0.4940168535,-0.6671547467,-0.1500811123,0.6110762259,0.4901550995,-0.3159892888,-0.0517936176,-0.7856805674,0.5003306701,0.5998623591,-0.8010363146,0.1382350194,0.5406034938,-0.2579305125,0.6798371244,0.4687002015,0.0459936282,0.0919867764,1.0412749796,0.409112511,-0.4544604796,0.5208453848,-0.3358072028,-0.0901595229,0.0475429083,0.2148816389,0.1406389444,0.6423285784,0.5356758318,0.7842213539,0.5915936658,0.0011876055,0.0298641751,0.4701902509,-0.5148970231,-0.0404374995,-0.3447080479,-0.460208832,-0.3817726995,0.2334882374,0.0773953393,-0.6767874471,0.3412646669,0.6063435049,0.417234404,0.124969848,-0.6015761948,-0.2174627215,-1.003169573,-0.2739805417,-0.7809413432,0.6444745622,0.4534290513,-0.6673214715,-0.586103123,-0.2532278037,-0.2283140438,-0.1101834023,-0.1935389733,0.502062614,0.6979252975,-0.821312275,0.0557844735,-0.8029083855,0.880101097,-0.8395420788,0.1250175926,-0.1138588454,0.416956034,0.9201492246,-0.3102575809,0.5293304726,0.6486503493,-0.2572523665,-0.1670272696,-0.0000823146,-0.250728868,0.0361924834,-0.4645560384,0.7306082758,0.0781141516,0.0400746723,-0.1822552448,0.9654296901,-0.0127681597,0.7165213777,-0.204907248,0.1152745682,0.7391316893,-0.7147181849,0.1557081132,-0.5020381005,-0.0144266671,0.4286049258,0.783385748,0.9973805293,-0.2798841937,0.4173545911,0.0231125979,-0.1762406949,-0.6798961405,-0.5123140414,-0.2863356598,0.0298679219,0.2723418385,-0.7583870457,-0.5766625382,-0.5674401303,0.899515449,-0.0060288654,0.672355585,-0.4679828778,0.909956038,0.2958664906,0.5304858798,0.7155041795,0.0884169019,0.2573886025,0.8951195799,0.6341085203,-0.0177767365,0.2732466223,0.5293603217,-0.8903354955,0.8781654616,0.0414791374,0.9175822556,-0.1789632153,-0.1724540528,-0.3740515655,-0.6678679996,-0.7582930373,-0.5986420876,-0.8672078836,-1.0330813663,-0.1405375015,-0.0158650179,1.0762972477,6.7856765128,0.9780196872,-3.6610327558,0.4207730476,0.108839721,1.1883199321,-0.7656764261,-0.8770979164,0.5342864436,-0.7198070809,-0.1801057037,0.1152049061,0.1720760412,1.588509883,-0.517504724,-0.915897668,-0.2823543938,0.4096525831,-0.5695119734,-0.7749077754,-0.1588876606,0.4357186182,-0.0562877109,-0.7118777181,-0.0672148034,-1.7435230327,3.0318856474,-0.9540760183,6.4869935577,-7.5700407964,0.4291712938,-1.0095849675,-0.3126083398,0.3615781739,0.0289004028,-0.4896080457,-0.59551527,-0.6614939546,-0.0285876771,-0.1642961978,0.2851309304,-0.2828515584,-0.0223315472,0.1031211808,0.1454187778,-0.4004559555,-0.7762371966,-0.3253739569,0.6987714565,-0.4924462165,-0.0719868646,-0.0712438359,-0.4415655061,-0.1099081763,-0.5987255383,-0.4224563525,-0.0403244337,0.0444499631,0.5102755204,-0.3546022035,-0.3168897173,-0.0525807468,-3.5987968507,-0.2103447851,0.0990722314,0.0885408605,0.040030215,-5.9356833754,0.2822853653,0.0869612867,0.5446084659,-3.4488522258,-0.0698266941,0.1160345583,0.2660734896,-1.7182406385,0.1272616974,0.0548921965,0.2183446533,-1.0531364557,0.0503191148,0.1252622651,0.2656632844,10.6966502801,3.8648873476,1.0740838893,2.7135565089,-4.8979385516,-2.9256525624,-15.3469276168,0.0988386774,0.7195378376,0.5369525069,-0.4818121332,-0.9404222766,0.5762752276,0.7651340879,0.2804141221,-0.6675923341,-0.1003030349,0.0754367867,-0.7778853492,-0.4585098651,0.4395895505,0.6693141862,-0.9721420693,-0.0618737389,0.7181717364,0.2387989597,0.6181458068,0.4296464844,-0.1906650555,-0.8736305471,-0.9912029524,0.9371495393,-1.1369411312,0.9428999583,0.6214131402,-0.6946534751,-0.2764669521,-0.2309351249,0.0901073572,1.1439635353,-0.5412356787,-0.2528765126,-0.4005371067,-0.2970894042,0.2242110834,0.9345242039,-0.0476876369,-0.6805103372,-0.215976373,0.034445317,0.9808956134,-0.3102751073,0.9966825461,-0.3232209442,-0.2947326214,-0.7791168569,-0.5038948188,-0.5008453042,-0.9215407045,1.6292567903,0.6997183684,0.284914236,-0.1311546237,0.096740192,-0.5720822446,0.090276149,-0.2857915826,0.695485207,-0.0621177787,-0.2111625871,0.4363414664,-0.2516953828,0.8705017909,0.7396572233,0.277020867,-0.1279071363,-0.381769119,0.7513519184,0.0090285185,0.5893286209,0.8311668532,0.3244169101,0.2665235455,-0.4401518728,-0.3711059686,-0.0759295318,1.0668625468,0.7880555364,0.1419699475,0.1276299895,-0.2614976735,-0.6198551252,0.1570190316,0.6208029669,-0.9317260147,-2.2678756583,0.0379035752,-0.1682932491,-2.7923455837,-0.1483956939,2.4630764931,-0.0390619855,-0.1413781985,-0.2880215859,-0.129461594,-0.3705838274,-0.142192646,-0.3550378927,-0.4067701689,-0.1522853149,-0.1883763485,-0.3366824035,-1.0427479712,-0.3814084697,-0.1919401611,-0.3541489329,0.8882352699,1.3800904,0.2639438313,-0.2377210604,-4.8036857284,0.8684685903,25.7630786786,0.3028166732,-0.4763671855,-0.3901405174,0.7315021742,-0.2311146382,-0.4736823,-0.3070128154,-0.3671995134,0.0471093491,0.4658302573,0.8673463697,-0.4600788193,-0.5871931442,-0.2925062273,-0.5794816687,0.0220182118,0.3356068157,0.0420471115,0.6496513964,-1.2348542388,-0.0396072625,-0.2655496671,-1.1311955666,-1.5521851788,-0.769186906,0.4288626103,0.2940886318,0.341411117,-0.8580264711,-0.0779416542,-1.0172320301,0.225530428,-0.0232961336,-3.2623139031,-0.5463927792,-1.79148671,-0.1081432843,0.8506416552,0.205772468,0.0729581605,-0.4757459925,-0.4775755791,0.6411072166,-0.1366883749,0.0789692157,-0.9497783772,-0.1859226696,0.0165407212,-0.0833957948,-0.6914047766,-0.2552607834,-1.1595888227,2.265761599,0.8728605803,-3.4988330639,-2.7087764258,0.736137667,-0.6807033897,0.0143680581,0.0295227032,-0.1661032464,0.6524215844,-0.4933228671,-0.6490490404,-0.6273086848,0.6228621422,-0.6593485647,-0.122056541,-0.122854757,0.5048402853,-0.4993319229,-0.8921924946,0.5354429575,0.0641409175,0.1425587472,0.058829191,-0.6087725595,0.7204081451,-0.6894650372,-0.6855546965,-0.1523112556,-1.3796173347,0.258506624,-0.3414622737,-0.1391715975,0.4897803299,0.4255686315,-0.369391776,3.3259133947,0.0241091833,-0.0946043519,0.1521718482,-0.101089959,0.1938395754,-0.1068505548,-0.077729651,-0.0640399445,-0.2213830859,-0.1690763544,-0.0546384037,-0.0863087876,-0.1381442362,-0.0109051818,-0.0058272486,-0.0582824196,0.4549636699,-0.0327675058,-0.0393534431,-0.0745542536,-2.9522435458,4.04279077,-16.4461665739,76.5293182849,-3.6539481119,5.2273893888,-4.0053550655,-1.116325568,0.5337967607,-0.0058535415,0.3334418657,0.6292271428,-0.4325601244,0.0360101531,-0.1403795706,0.048785359,-0.0720834825,-0.2418475031,0.1880309972,-0.7548014426,0.1324658882,-0.4709295917,0.7945870943,-0.1519904782,0.5873132057,-0.6481120418,0.6713761156,0.6621435253,-0.3294403916,-0.7936401668,0.5767335585,0.8449919439,0.7786623896,-0.2024308676,-0.4981019526,1.0319614064,0.2980967009,-1.711881173,-0.3151259946,-0.3045872792,-0.6176296078,0.4569196341,0.7806612434,0.0434801265,-0.2224970696,-0.0855365227,4.5751460612,-0.2954205485,-0.7587619542,0.9722596297,-0.6979517212,-0.3895478986,0.2529683439,-0.107211129,-0.041278722,-0.1037147064,0.7982933127,0.0872282352,-0.2563633578,0.1909903672,0.9291006415,-1.0660464849,-0.8508975508,-1.3104165958,-0.4120540731,-0.2749782002,0.7264505427,-0.4625334914,0.5961700233,-0.0611003223,0.1594058158,-0.517548701,0.5130026857,-0.1525028071,0.1435794336,0.8744978685,-0.2507989484,-0.5372069799,0.1214300519,0.3389795143,-0.4205450841,0.0990299906,-0.617706531,0.5275906177,0.0083537554,-0.4748298351,0.3993217708,0.9446939529,-0.3783957562,-0.525704174,0.1245500396,0.3958354629,0.261097918,-0.9164129332,0.6405825462,-0.025773846,0.333121978,-0.1432281438,0.089203456,-0.7949614191,1.073434573,0.8841472772,0.3629721165,0.3965887022,1.219151884,0.0045006061,0.1877347698,-0.1855570382,-0.0796710002,-0.7817720036,0.1893261727,0.2469715241,0.0253694268,0.3779227519,0.8613256401,0.0237509382,0.3605494284,-0.8540078333,-0.777882064,-0.6881853015,-0.7762740775,0.6533583648,0.4983827286,-0.3618290015,-0.4874277494,-0.1322836277,0.0801245712,-0.8515203784,0.1277754327,1.0355385178,0.1697441425,0.2075327994,0.0569618013,1.3757675822,0.2581756616,0.1539928563,0.0652916224,0.1415469798,0.1174750731,0.1255069759,0.0323228271,-0.5751072024,0.0189835498,0.0987643049,0.1174003607,3.2215295123,-15.6952240597,4.5352815054,-27.3500854468,1.7776572834,3.5584798919,8.493402458,1.5433819962,-0.2230176409,0.5409632337,-0.5428617055,-0.7118398495,0.3516790371,-0.097776923,-0.4057094479,-0.4184219452,0.0686517525,-0.1421288529,-0.1346977632,0.7436998413,0.1134351453,-0.0877785167,-0.5811994469,0.3926607793,-0.0923341374,-0.7409870185,0.8985057341,0.2211365249,0.3989733893,0.7671051668,0.8343718862,0.8895293712,0.6293095261,0.6015396847,1.1138041522,-0.6662550373,-0.0094286581,0.2179244261,0.6594790095,0.505342313,-0.2311218347,-0.1959843712,0.3229596821,-0.9396415038,-0.143379494,-0.9131209694,0.3095849742,0.0747375047,0.4141670978,0.4310233453,-0.0067195665,0.8469118478,-0.4489406798,0.1690959961,-0.8260858636,0.6063642034,-0.2331923671,-0.563530936,0.0758886288,-0.4544384388,-0.8736471468,1.0567615408,-1.5919797423,-0.4899805216,-0.0891526292,0.350424773,-0.8478760631,-0.9199894949,0.7153709312,0.1314881034,0.746814934,0.0175942203,0.6358666192,-0.3086228906,0.0205133486,0.5258359097,0.4700114515,-0.4019553644,-0.4702376249,0.2702184904,0.2640630429,-0.5972477509,0.0767129304,0.0565176428,0.829938646,0.5650224462,-0.0335352888,1.9102209323,1.1088775796,0.4098037902,-0.3967889271,-1.8599405878,1.5189335473,-0.1458000261,0.5843845564,-0.2466438344,0.4237412043,0.2020529229,-0.4865095535,-0.3103070375,-0.9190157501,-0.3471800492,0.2818994152,-0.4193626288,-0.5907112815,0.132034527,-0.3133345781,0.3876849445,-0.1494490026,0.476090718,-0.7163392311,-0.7041376091,-0.8456841554,-0.4211126238,-0.5590435668,0.3412139195,-0.7434532456,0.4801236507,0.6987947748,-0.6962318632,-1.0329532625,-0.3370513278,0.776519595,-0.5846025494,-0.801083563,-0.4194123958,0.6427457994,0.4523748155,0.3491476694,0.5912343489,0.1421233364,0.0674731989,0.305808903,0.3857920699,0.5118439956,-0.2088231397,0.2099694581,0.0481259073,-0.4284864347,-0.1716171611,-0.6302938362,0.8277733764,0.3900905147,0.2273470073,0.7332476931,1.5484789517,0.2111300463,1.0521419823,-0.7238132838,-0.3528178469,1.011372375,0.7953056166,0.5412782317,1.0267830634,-0.5988014996,0.6155686997,-0.5574327724,0.165375648,-0.8446885584,0.7153546482,0.2488561668,0.1607642603,-0.3514114148,-0.0581627326,-0.0295663932,0.5042699992,-0.5861485647,0.4761108906,-0.3477074374,-0.1378884345,-0.5068295557,-0.1270173583,-0.6250243919,-0.6590035766,0.9823483949,0.6162532121,0.2199246326,-0.941598735,-0.890970543,0.6994570638,0.9500840255,0.937346319,-0.5043991292,-0.8945742889,-0.4687873199,0.7609047651,0.2584403541,-0.0630620085,-0.3226404269,0.4612817243,-0.239226882,0.0590157713,-0.6781796411,0.6386829579,0.0034138506,0.2193186203,-0.7242317453,-0.1202520003,-0.5825745042,-0.313480412,-0.3348476686,-0.2433037583,-0.0845933486,-0.607549234,0.3005083007,0.022070653,-0.5188286715,0.204546286,0.7333123558,-0.1488697877,0.2945838786,-0.0762151015,-0.6723952638,-0.0435713475,-0.056939535,-0.0244595656,-0.602240013,-0.244177069,-0.3323083084,0.0245426232,-0.267207194,-0.7188299817,-0.0703470627,0.6231132434,0.0395011983,0.0637515159,0.1933985245,-0.7168025858,0.6474778,-0.4885055897,0.709605378,0.169027381,-1.4860981607,1.9178473191,0.1478422371,0.219162328,0.1921448231,0.2850001544,-0.974224397,-0.7683870032,-15.2172135836,-0.1066914205,0.0893115699,-8.5890939455,0.1000092708,-1.1336659127,0.1015560638,0.1256924165,-0.3659861679,5.635042474,0.0911741571,0.0736446838,0.009784298,2.5025646396,0.1739014413,0.0632345675,0.0771433874,2.5177500071,0.1370451018,0.1219527935,0.1149195046,0.2780271432,9.6555167794,11.5844441204,-5.9435079886,16.9580133815,-22.1357646824,3.5078929853,0.5967223132,-0.1929366486,-0.6629716863,0.9494741488,0.0989832784,-0.1467878158,-0.6370392738,0.3586664721,0.6169438312,0.3024604984,0.0189920622,-0.6739464871,0.5234272634,0.1355347793,-0.4648567631,-0.3084279351,0.1349126564,0.7728582315,0.1824245036,0.5589874863,-0.6575244528,-0.3886296873,-0.7340594665,0.5442862405,0.4067168735,0.7072512707,-0.5157053973,-0.0370548403,0.184202461,0.8545438869,2.3905194709,-0.5714794514,-0.4409829991,0.7349824761,-0.6017331223,-0.8111693686,0.7535418752,-0.4078095608,0.3255110295,0.3501771019,0.3253434665,-0.3077270528,0.4724591396,0.1082705812,-0.1429735487,0.4774416463,0.2127618468,-0.3017474055,-0.3671021443,-0.0106846511,0.1069358075,2.5577410301,-1.1459251735,-0.4217485905,-2.3482221035,-0.661344474,0.1490941449,5.4495609425,0.578133145,0.414631357,0.5113759483,-0.1434841565,-0.8922508396,0.4508312357,-0.6992178363,-0.4110419485,-0.3136893012,-0.627282571,0.4133047726,-0.3810151986,0.2716814232,0.1524960844,0.3700263593,0.1876506284,0.0060125909,-0.6904117735,-0.1992071408,-0.3120972091,0.6707604708,-0.1002514664,0.4042398805,-0.2308687956,0.695285749,-0.9830628952,0.4791729023,0.6982889395,-0.2467779266,-0.6055467353,1.2770409834,0.6513436904,-0.0273313003,0.6294305654,1.0359777098,2.5344025256,-0.0340707261,-0.1650551821,-0.1976535698,-3.0857338326,0.5923141514,-0.7724332943,0.2749136543,-0.8497031033,0.2205264769,0.4246230217,-0.0899274304,-1.5654468805,0.5150577233,0.5233928437,0.2953171331,0.2435251385,-1.3839614553,0.4417001829,-1.2763744564,-0.7363312706,-0.8658714441,4.0075111814,0.0671450601,1.6960473338,0.316391884,-0.0663919082,0.9132187156,-0.0871764829,-4.34922493,-0.1534629938,0.4945472585,-0.3721872079,-1.5914469238,-0.589413195,0.3401929158,-0.5682223009,-1.6241944596,-0.3468787463,0.0961955806,-0.8057189007,-0.1048483057,-0.2790454654,-1.1526932339,-0.8904157172,-0.7726110281,0.465737822,-0.2842998248,1.7119969166,8.8774595691,-9.6119106095,0.7379282319,-0.3692317696,0.1234830927,-0.5276682077,0.5549922071,0.0899320392,0.3131838963,0.1590224529,-0.794883804,0.0772190086,0.0338459939,0.241576381,0.7017378299,-0.702546202,0.7685711266,0.0112278854,-0.1731482135,-0.1096013112,-0.279926269,0.2407439685,0.3404116089,0.8531486357,0.0471341385,0.2621755734,1.3168886768,0.0367107465,0.6838364691,0.9124583024,-0.2994840271,-0.2208461206,0.8874719186,0.8521911739,0.4408883534,0.2480979458,-0.5160786978,0.9058887305,0.4087895224,-0.8235308191,0.5763483232,0.073680265,0.5098762766,0.4816931766,-0.0540969947,0.1719861559,0.408444601,-0.1846801638,-0.750160679,0.4144444402,-0.1412937092,-0.0280008107,-0.4663547726,0.4385832446,-0.5639428111,-0.3143022898,0.5712731514,-0.9329054014,-1.5037086168,0.9233923566,-0.0118251707,0.0788231186,-0.5053108445,0.4302847979,0.2502849191,0.6083632321,0.2449731409,0.0412044221,0.4254021552,0.7272396117,0.2562571043,-0.3807846727,-0.7290117621,-0.3456288769,-0.2723712401,0.8073164849,-0.8452603997,-0.4531873916,0.6712776217,0.1138112529,0.3053297968,-0.4516789881,-0.2209494496,-0.5503412517,-0.2328994688,-0.3599812011,0.8470089689,0.1366117165,0.1492173586,-0.8852366849,-0.7202405361,-0.4754397659,-0.5992321923,-0.6384221,-0.0224973972,-0.3479552822,0.5760339388,-0.3642026361,0.0207553495,0.6873364941,-0.6332778031,0.7154577919,0.3349794345,-0.0350510943,-0.3552118801,0.2112542785,-0.2021140962,0.4115736535,-0.6441073053,0.7156773063,-0.4582824622,-0.5111996475,-0.0624366644,-0.4684958395,0.4397123192,-0.1643150805,-0.3208629131,-0.1835553615,0.327412149,0.8935649112,0.5646328121,0.2465084516,0.7003462284
