encog,BasicNetwork,java,3.3.0,1,1470516590284
[BASIC]
[BASIC:PARAMS]
[BASIC:NETWORK]
beginTraining=0
connectionLimit=0
contextTargetOffset=0,0,0
contextTargetSize=0,0,0
endTraining=2
hasContext=f
inputCount=28
layerCounts=2,301,29
layerFeedCounts=2,300,28
layerContextCount=0,0,0
layerIndex=0,2,303
output=0,0,0,0,0,0,0,0,0,0,0,0,0,0,0,0,0,0,0,0,0,0,0,0,0,0,0,0,0,0,0,0,0,0,0,0,0,0,0,0,0,0,0,0,0,0,0,0,0,0,0,0,0,0,0,0,0,0,0,0,0,0,0,0,0,0,0,0,0,0,0,0,0,0,0,0,0,0,0,0,0,0,0,0,0,0,0,0,0,0,0,0,0,0,0,0,0,0,0,0,0,0,0,0,0,0,0,0,0,0,0,0,0,0,0,0,0,0,0,0,0,0,0,0,0,0,0,0,0,0,0,0,0,0,0,0,0,0,0,0,0,0,0,0,0,0,0,0,0,0,0,0,0,0,0,0,0,0,0,0,0,0,0,0,0,0,0,0,0,0,0,0,0,0,0,0,0,0,0,0,0,0,0,0,0,0,0,0,0,0,0,0,0,0,0,0,0,0,0,0,0,0,0,0,0,0,0,0,0,0,0,0,0,0,0,0,0,0,0,0,0,0,0,0,0,0,0,0,0,0,0,0,0,0,0,0,0,0,0,0,0,0,0,0,0,0,0,0,0,0,0,0,0,0,0,0,0,0,0,0,0,0,0,0,0,0,0,0,0,0,0,0,0,0,0,0,0,0,0,0,0,0,0,0,0,0,0,0,0,0,0,0,0,0,0,0,0,0,0,0,0,0,1,0,0,0,0,0,0,0,0,0,0,0,0,0,0,0,0,0,0,0,0,0,0,0,0,0,0,0,0,1
outputCount=2
weightIndex=0,602,9302
weights=##0
##double#9302
   0.9217571998,-0.2088948486,0.8614567117,-0.0333196168,-0.5372508488,-0.1270473305,0.7935233609,0.5347834872,0.2680983548,0.3768275374,-0.23456865,-0.3902615507,0.8316530437,-0.0027459697,0.3271298373,-0.2541594953,0.3830964521,-0.3167403019,0.215315727,-0.0193245992,-0.9040132265,-0.1628155662,-0.183345309,-0.2219117952,-0.1692847639,-0.0626263066,-0.1492462552,0.2830016013,-0.133773555,-0.8396889404,0.8441801456,0.7146193401,0.2870451334,0.0288881031,0.0467971674,-0.0137041964,0.7511673175,-0.5590482689,-0.2061644777,-0.4098577402,0.1792312318,-0.0859023324,-0.0857407192,-0.4092231984,0.0701900102,0.0166624805,0.1583018422,-0.6902507657,-0.8562182358,0.1229927296,-0.1295495381,-0.8510039148,0.9729407347,0.5304305115,-0.6392786983,-0.0587736147,0.5157239149,-0.2384414332,0.189467454,-0.1592286678,-0.6683152844,0.9188519529,0.5958458213,0.4681128066,-0.6756844135,-0.1298499458,0.3131076319,0.4196559539,-0.098939551,-0.1407698036,-0.1600099602,-0.4213037479,-0.414322337,0.0333558891,-0.31219389,0.8468707711,-0.8725743115,-0.0269371584,-0.0000629294,0.7329946577,0.3038310873,-0.6198014848,-0.6878551391,-0.1595466363,0.4308136349,-0.7246076529,0.3787497913,-0.8472623972,-0.1229453065,0.0918042369,0.7315793686,0.0805060623,0.5860784682,0.4378528652,0.4323710775,-0.4588979452,-0.2629683283,0.4753047068,0.3373495357,-0.4433826777,-0.4818740514,0.4446370517,-0.8779416991,-0.3538181246,0.8728951476,0.0768845581,0.5977516675,0.8427559541,-0.0742059369,-0.4777243838,-0.6503957011,0.2329756726,-0.233413311,0.1388358158,-0.6193426263,0.3975699497,0.0666097317,-0.6800799525,0.4398793954,-0.0512881643,-0.3215535351,0.29588318,0.3901264841,-0.6338026301,0.7253643562,-0.9437266612,-0.2419795614,-0.5666669159,-0.8188796254,-0.4659931091,0.8102369546,-0.9090700237,0.0206208416,0.0810253355,-0.1051702956,-0.0430628664,-0.847989106,-0.0311393564,-0.3054181449,0.0097770958,0.8975943331,0.8490411303,-0.1744914216,0.0493946153,-0.0802096276,0.3911753137,-0.154179197,-0.3630414279,0.6966925316,-0.4527077611,0.6583677034,-0.0732276998,0.6526051489,-0.5364050869,-0.1569686947,0.0800018423,-0.0059311891,-0.5379181474,-0.8750736402,-0.700856075,-0.0736506272,0.0582438159,-0.4382327531,-0.9607927195,0.046994479,-0.4541996673,-0.1837725745,-0.2743168221,-0.3462019379,0.090226693,0.1410740403,0.1368003959,0.4518791697,-0.4906209805,0.0652940936,-0.0441749638,0.1743550775,-0.1154756554,0.1090693039,-0.2574697946,-0.2955076343,-0.2289223238,0.8824823072,-0.5547953058,-0.366121224,-0.784620767,-0.5227674463,-0.7411034596,0.4181698086,0.3369610198,0.048092605,-0.1065815765,0.0171402641,-0.318833345,0.6808822804,-0.1046486425,-0.0747286725,0.0902114111,0.2529617213,0.7899031713,-0.4530217238,0.2508123407,-0.5692319844,0.6364898454,-0.5858626349,0.2449758383,0.4458751294,0.7190272006,-0.5413943278,0.5472272718,-0.9265685174,0.2341765684,-0.1380749212,0.1514583105,0.8896244391,0.0625748754,0.1391632226,-0.1861308351,-0.4136719106,-0.0484438008,0.065422394,-0.168577663,0.2143979363,0.2172199424,-0.9677270696,-0.4860709935,0.905453405,-0.007408246,-0.1822841633,0.3878465009,0.1650016308,-0.1608312385,-0.1158484484,0.1145761687,-0.3232176247,-0.530271062,-0.7492031029,0.1589822594,-0.1573656967,0.4582825005,0.6889181892,0.2089954552,-0.6429610346,-0.0209882387,-0.8951366465,-0.2826514814,0.7841647375,0.8764263469,0.810856221,0.8742473374,0.0002360268,-0.9532573267,-0.7878463988,-0.9744419108,0.4688921745,0.2237390959,0.1832892163,-0.0101922396,-0.0074825859,-0.4865464415,0.5071843753,0.5943706448,0.4942901362,-0.9515461191,0.5262794586,0.2619692234,0.4931106084,-0.9938252783,0.9065314856,-0.7522250109,0.9578562516,-0.1292432574,-0.1926785419,0.1256576021,0.0576232943,-0.3685718692,0.3794644507,-0.3211425729,-0.2113332647,-0.1082891882,0.465869223,0.9570405093,-0.0592589518,0.2570725655,0.199180387,0.5682355481,-0.155984487,0.1720869109,0.9504079677,0.7835193492,0.0362520279,-0.2920946918,-0.1907781299,0.5212455428,-0.654931689,0.0712772991,-0.2281793286,0.000893946,0.8517983823,0.2515479859,0.81183131,0.2729565441,-0.0542544069,0.8497628742,-0.1920155928,-0.5702515154,0.0939351543,-0.154309321,-0.2056665095,0.5211883868,-0.2089761582,0.1233564706,-0.2324246144,0.9464333812,-0.2779287445,-0.5039432364,-0.2745145809,0.3664016869,-0.6835249695,-0.1854160332,0.1801012169,-0.7417951995,-0.1890070143,0.9386615162,0.5604526316,0.129265805,-0.1359769693,-0.4122308843,0.8678099021,0.0246288813,0.6475971257,0.0796345565,-0.7101240417,0.239853104,-0.3857266675,-0.0959684853,-0.1362606819,-0.6152260447,0.4216534979,0.8784168516,-0.4565348364,-0.4726837112,0.4978227796,0.1547877254,-0.5528501316,0.1896576383,0.0323316623,0.0932811063,-0.3602681029,0.0180627494,-0.7386970822,-0.1306234436,-0.0084794442,0.230974714,-0.6355289707,-0.7687255101,-0.118227004,0.3341566563,-0.2837944657,-0.1390786923,0.1809147756,-0.0671693425,-0.0902566926,-0.4850306947,0.0611292884,0.5594418459,0.5730440327,-0.0063925626,-0.3612799379,-0.3896120225,0.1449152848,0.1845933877,-0.5848366509,0.3894515623,0.143088274,0.6731348291,-0.90405672,0.0761998419,-0.2613154471,-0.1438340375,0.7323575573,-0.2941389901,-0.252179853,-0.0620307153,0.1217903709,0.2092739082,0.6626606121,0.0329558842,0.702843939,0.0053550839,0.143969228,-0.8076645809,-0.1844849953,0.4918737357,-0.1436284292,-0.9205184948,0.1281862498,-0.2476728893,-0.7540865306,0.2013013525,0.5415929264,-0.036129087,0.2355151315,0.4522686569,0.2747294492,0.6600997445,-0.1795074704,0.2041886058,0.1304398483,0.144696292,-0.8255624208,0.5743263288,-0.6600311952,-0.0652511155,-0.2378619525,-0.5862786239,-0.3216646184,-0.1769596931,0.7486166269,-0.0547431812,0.0913113016,-0.2738538458,-0.1598349404,-0.0170917039,-0.4568523013,-0.1058617795,0.1678568856,0.8015658932,-0.5374676112,0.9712044304,-0.7972853864,0.043237804,-0.8629879732,-0.2922544033,-0.1550113739,-0.0166672155,0.0831207378,-0.3546241539,0.3949865103,-0.8010385699,-0.1385002261,0.3849604283,0.0472100549,0.2354666089,-0.0670640048,-0.0077625171,-0.0825051147,0.1423940982,-0.4796625002,0.4146407155,0.2686132565,0.6442313385,-0.4327219917,0.3175326592,0.5705614627,-0.3336935165,0.9874612999,0.1197730754,0.2918238783,-0.7926222453,0.6069574417,0.1547951835,-0.1469845538,0.7556092103,1.0288513673,-0.8568489663,0.1502154191,-0.0848778929,0.2720170212,0.6017983301,-0.1311789109,0.4157025654,-0.1736000179,-0.4924109347,-0.3482824299,-0.2668569291,-0.8419656325,-0.7941044471,0.7506529546,0.2770493317,0.4476670948,-0.988791321,0.2425859676,-0.0592361676,0.1845428932,0.8342235657,0.3288429622,0.2084902372,-0.4942987752,-0.1374949522,-0.4555116761,0.3552127309,0.2242750863,-0.1011888801,-0.0327454534,-0.2114657488,0.1516376301,-0.7327357073,0.6766085417,-0.3711816883,-0.4248797613,0.4528771339,0.0646857239,0.5015446029,0.8460644971,0.386780978,0.7004371716,0.4434854861,-0.5947359755,-0.074405158,0.3499615383,0.4493373633,-0.0381012048,0.0311017759,-0.8056606877,-0.7058768699,-0.120079321,-0.1771717581,0.1793774626,-0.3497433614,0.1676906151,-0.2525786683,0.0642359562,-0.9632844711,0.0062970505,-0.8530790626,0.2851738815,-0.0507446792,0.5403594887,-0.1540744347,-0.5643664882,0.573134573,-0.0366331054,-0.0206068354,0.1826716242,0.1338240839,0.3068005356,0.5951330672,0.1012328617,0.1007060382,0.3892138219,-0.1549811965,-0.4701188648,-0.4953510727,-0.4020146329,0.2886156785,0.2328326071,-0.1395892159,-0.4506566335,0.5123638403,0.5248261867,-0.0678029863,0.3275829641,-0.3322239355,0.6515950962,0.0039351417,0.0579821379,-0.5067064334,-0.1273113958,0.420778263,0.3896177179,-0.0100547552,0.3646663399,-0.898982604,0.3523912507,-0.1958010671,-0.7419919976,-0.5215688003,0.5494336949,-0.7124773381,-0.2505613842,-0.8439937917,0.0613546512,0.2358083974,-0.0677723247,0.118150397,-0.8802760471,0.6986740535,-0.00135173,-0.1997293389,0.5336121935,0.1704187938,0.9316972996,-0.0569423531,-0.4287487657,0.516537549,0.7483061411,0.177472288,0.1072613524,-0.0983734608,0.890261927,0.7790885547,0.80516154,0.7339137808,0.4832684637,0.6778317145,0.1179498429,-0.3547167793,0.149789294,-0.9572324809,-0.7058617084,0.7172040834,0.3975891803,0.1296183347,0.8693374245,-0.254819481,-0.0100339423,-0.4179283683,0.6789434722,-0.6927864967,0.5545855967,0.2409261451,-0.2197500985,0.0813544914,0.2850714625,-0.2835074334,0.1023304892,0.2884299137,-0.0675771293,-0.5099282074,-0.0995765387,0.6272823922,0.3955639955,0.4506085851,-0.5842794261,0.3757264272,0.4124232166,-0.1131740977,-0.0530904676,-0.2331690037,0.1604812754,-0.0710026101,0.5523505472,0.0193257598,-0.4735533112,-0.6481850152,0.1495269281,0.6451986489,0.4546579299,-0.6630205397,-0.2727036849,0.3620954644,0.2610302328,0.9534317781,-0.0938792779,-0.6316304012,0.0334778923,0.2978844436,0.2009171333,-0.8822350305,0.849013427,0.0763491144,0.1976321279,-0.9229036872,0.7126431886,-0.7592168462,0.3713737091,0.1186475777,-0.1263256419,-0.9085501709,-0.8468941558,0.2596990221,-0.0064251453,-1.8343933614,-0.1860733438,1.1508739285,-0.6224097165,-0.0079052686,0.2446413962,1.1108520883,-0.176531088,0.0250113819,-0.0895795478,-0.1145918751,-0.1122314101,-0.5230300818,-0.1833394761,-0.4878447381,-0.7310183183,-0.1413584726,-0.1274151501,-1.332076622,2.6340866769,0.7140105791,1.288565007,-3.2477459148,-0.6280855913,-1.367126302,0.0651386979,-0.290265649,0.4072202865,-0.1114660355,-0.2887787078,-0.3865257911,-0.2163937711,0.2005663299,-0.5164234098,-0.7899663312,-0.314465854,-0.7913820164,0.6850938877,-0.9057251094,-0.5991373161,-0.5127413788,-0.5383737886,0.224441649,0.1833305005,0.8368410905,-0.2180509752,-0.0546200039,-0.6453795328,0.7959477686,0.3310519774,-0.446194389,0.2649912105,-0.9870636907,-0.0716678339,0.8753754969,0.3222585405,-0.1465437729,0.2548974767,-0.271093568,-0.3196327775,-0.0809031513,0.3882102835,-0.105013029,-0.3925524116,-0.1440339055,-0.0331859119,-0.4185144242,0.497262968,0.4437336298,-0.1518612531,0.0831665675,-0.150136967,0.2890215076,0.5684781195,-0.5087827311,-0.4506325212,0.1827273327,-0.6136452565,-0.0577505327,0.6561101296,-0.2452162461,-0.2588713195,-0.3481964249,-0.613539753,0.1929696505,0.3571035599,-1.0161802956,0.6309031185,-0.2656469453,-0.0193896864,-0.2083502101,-0.2886060467,0.0893632294,-0.6300924023,0.3771424178,-0.0994762525,-0.8080588443,-0.9343076479,0.5057107843,-0.7400855528,0.3736026461,-0.6289666628,0.2752010695,0.5391506411,0.0920504635,-0.7972574138,-0.0051899245,0.5226691504,-0.2132307284,0.5566462677,-0.2367061388,-0.5437763075,0.4084731502,-0.2853724359,0.2693134257,-0.4515873743,-0.6032574024,-0.2999726516,0.8628317236,0.140157385,0.5617157547,-0.4275843066,0.7024184581,-0.1499737729,0.8233980717,0.8731456217,0.1134954327,0.7788834389,-0.3241914811,-0.1349180386,0.7420359295,-0.5349161862,-0.2335424809,0.3637866308,1.7282656563,0.5622789775,0.3331577387,0.1437200093,-0.0141699113,-0.4511563725,1.1847037078,0.6684945013,-0.3434944258,0.4990675492,0.1818966097,-0.5363228618,-0.5987640838,-0.4757387499,0.4759735041,0.4139024015,-0.2398830546,-0.119118115,0.0607687479,0.1732966389,0.3832986674,-0.5794687678,-0.1981312083,-0.6085357168,0.1086988281,0.4161831758,0.7779898298,0.0887245595,0.5902570273,0.2044599854,0.6522776874,0.4092981963,0.4884835711,0.4304243967,-0.8355804713,0.4118490231,0.2346996106,-0.5858267029,0.3501672783,-0.5820085004,0.9103273224,0.0149566514,-0.7991592196,0.5948099759,0.6626383135,-0.488595127,0.5121720879,-0.2808263804,0.0377519076,0.2891800233,0.38571876,0.6573016954,0.4842345129,0.1679660728,0.5536878003,0.5153182923,-0.3257174987,-0.3575980973,2.6426786534,-0.5105620099,0.781249513,-0.3741077347,-0.4928795171,0.8441141106,0.202271339,0.7497826972,0.2624443042,-0.4675945698,-0.0272308951,0.0905625008,0.8510634332,-0.3922899981,-0.900401888,0.2617240857,0.1826429045,-0.4051989401,0.6054316586,0.1744411369,-0.4719310388,-0.7541146663,-0.7067214851,-0.5178700654,0.1312664758,-0.7375533146,0.1545699416,-0.2493304479,-0.3589971792,-0.0826281225,0.8126683926,0.3092142993,0.8941330552,-0.0117036879,-0.0716650526,-0.4069634122,-0.3392489443,0.3959651225,-0.7270389531,0.0613514496,-0.873210852,-0.0709848526,0.1665905253,-0.4191203607,-0.6299594295,0.0429488756,0.2264126316,-0.8028802063,0.662873283,0.4797596227,-0.6154491115,1.0424439449,-0.4292800642,0.8331136195,0.3492794637,-0.3139142774,0.1083119875,-0.0596152553,-0.1362008852,-0.9376190615,0.6041948374,0.1244603,0.9203848581,-0.5822843439,0.5348193164,-0.1090365774,-0.5513334373,-0.1974915245,-0.3276230569,0.0060604437,-0.381453798,-0.6648014307,0.7015382885,-0.5246732189,0.7941114413,-0.4582355845,0.762367985,-0.5917390786,-0.1753591853,-0.8713030412,-0.2057887522,-0.2678677302,-0.5075383486,-0.7968645101,0.3230614915,-0.3266420513,-0.2013921951,-0.4506088993,-0.0360185307,0.5207514669,-0.5872999032,-1.0302488975,0.2748897433,0.4372669501,0.4669969267,0.2117176017,0.2254739197,0.5659418314,0.4605597615,0.6209889925,0.0199871563,-0.1725404977,0.3201085401,0.8629967085,-0.0879923696,-0.4453355188,-0.0257994306,-0.7211330036,0.3677700688,0.7839184262,-0.3209161017,0.2675085777,0.5263276696,0.223384017,0.2138117096,-0.1094567675,0.29046961,-0.3783438442,0.9373687134,0.2637723605,0.8456519541,0.8564270567,-0.1374539046,0.1369392786,-4.2456157385,-0.4862195174,0.0472003549,-1.148224325,-0.2855130866,-0.7972553052,-0.659307378,-0.0984099401,-20.5419203502,0.7903596819,-0.6526187952,0.0567775554,-24.4494902804,-2.4245942803,0.0262626795,0.14736026,0.4216548053,-4.0588144806,-1.1322606207,0.2008784046,1.354420988,-6.6965637167,-0.1963107075,2.5280099089,-2.5212298089,-7.7549462667,0.7161275456,1.5281934772,-0.0853320546,0.4698482406,-0.3485485211,0.1436227933,0.302733856,-0.2972966583,-0.7358476732,0.6596597036,-0.0750760474,0.2680158925,0.2223704178,0.2887010913,-0.1576123067,-0.5961655399,-0.5770139996,-0.6437073338,0.5780839062,-0.5754267581,0.3053857387,-0.8093693231,-0.2244608245,-0.7123888978,-0.3444184346,0.9526594915,0.4900600279,0.7748171202,0.0849362573,-0.6401677795,-0.0149972114,-0.2513410777,0.2770562908,-1.1267948972,-0.158074862,0.3694755316,0.1591303575,0.8419265127,0.3986379791,-1.2311026455,0.5043490187,-0.7188242638,-0.1664377781,0.0039575361,0.7422923252,-0.4809225029,-0.4693725715,-0.6999823018,0.9574180033,1.8419014717,-0.0930108596,-0.5826187164,-22.8825170252,-1.0691445375,-3.2046201699,-0.5404047038,-2.1688572588,3.1725861606,0.4006108103,1.5317795946,-0.7526788499,-0.5513085641,0.0186162564,-0.6474139647,0.2430288479,-0.1125051775,-0.0344031246,-0.6711620586,0.3549199959,0.280475272,-0.1442547986,-0.0589996189,0.1222423663,-0.5933514549,0.3368423949,0.1588035738,0.7871340678,0.0097417651,0.1024397399,-0.2128025815,0.6216714909,0.2072121918,-0.9012584314,0.8331979692,-0.2041442668,0.2786096112,-0.7172830067,0.6353545783,-0.5033762847,-0.8695742838,-0.1932640502,0.4762261607,-0.1657584937,-0.8917571099,0.2018859801,0.7572159797,0.1955553891,-0.1802394063,-0.3017685717,0.039045358,-0.5331146894,-0.1964011999,0.7585248213,-0.3756502566,0.5173627508,-0.1069885562,-0.3543254459,-0.422192445,-0.7296706611,0.5458599844,-0.141031331,-0.5806468015,0.1661065461,-0.8288473526,0.7657687228,0.018391299,-0.8803492391,-0.6090269484,-0.8640015727,-0.0893803693,-0.6319542514,-0.4246127421,1.1554788895,0.6427097954,0.5919357489,0.3611008416,-0.6528282589,-0.5371034995,-0.1370776707,0.8212817814,-0.6109633111,-0.461771952,0.0897437459,0.2791809113,-0.7614262034,0.0147430842,0.2746342221,-0.467960013,-0.3223641958,0.0979791203,-0.8652518139,-0.652140874,0.429680843,3.2580738109,-0.2147444738,0.0008924831,2.9440157762,0.6052873358,-0.2698074473,0.6296090967,0.1137881416,0.3832770659,-0.6547571151,-0.4011107366,0.4999783652,0.7837109688,0.734135203,-0.440687442,-0.6453285624,0.4609537476,0.3850610702,-0.0236028566,-0.1333319147,0.7194161093,-0.3971496811,0.0343705084,-0.9982123654,-0.5287188415,0.7516145963,0.5932733468,-1.1053369985,-0.8737698098,-0.5260595901,0.4913552749,-0.3923185371,-0.4318327935,-0.3451850986,-0.6041170018,-0.5018558549,-0.4736589487,-0.8968654285,0.2198256191,0.4772452892,-0.553170472,-0.504771402,-1.5518663366,-0.0374831156,0.3173439362,-0.5447157546,0.1185450065,0.1722624202,0.353155408,-0.1876218283,-0.6470799873,-0.6348753229,-0.8841642061,0.0593936581,0.0493970744,-0.6317173042,-0.5239770778,-0.3769309534,-0.9924168103,-0.4195977616,-0.1885686367,0.1995175118,0.8236342955,-0.6021244047,-0.3928879237,-0.8313313916,-0.6654700127,0.42498432,0.2350745554,0.0263161375,0.7016321916,-0.0159741476,-0.9851343697,0.5309258812,0.6102545613,-0.2444707754,-0.1322456643,0.7742875352,-0.6056427921,-0.360361861,-0.4107079233,-0.6114340621,-0.6422563064,0.1146395423,-0.3593539791,0.3476441827,-0.9249917242,-0.9663583546,0.3266583846,0.124484618,0.4181525147,0.4265109229,0.3959463345,-0.3693535245,0.0107945324,1.2066182388,0.5679157917,-2.5699002132,0.3105892928,-0.3104872099,-0.1964967578,4.3763233758,0.1195501936,0.2541962372,0.6248804363,1.952841314,0.2358490964,0.0223927525,-0.0163251979,1.2887449701,0.6770119122,-0.3090503515,-0.2222502004,-0.3530869716,0.7512699168,-0.1780962827,-0.6153918275,-3.2692334578,1.0603630151,-0.3009472533,0.9095538102,2.2485240466,-0.7569173076,0.5089572518,-0.3389089498,-0.0812415219,0.9448960516,0.1105040103,-0.1940728977,1.0761919565,3.081385701,0.0415288576,-0.5572864666,0.3566953834,-0.0558185609,0.9315320045,0.3664255899,0.1781392773,0.1283155008,0.8045879315,-0.3455598795,0.459643611,2.995733444,2.9278919659,-0.9756261532,0.3950713848,-1.7400292705,-2.1642674496,4.3772993167,-0.2836615643,1.5754425598,0.680399187,0.0688828813,1.3149215809,0.2973876608,-0.3256340656,0.9678698252,0.2893572814,-0.5229911235,0.0672496643,-0.9760382883,-0.4527027492,-0.0887064102,-1.2609166317,-0.4342090036,-0.292498925,-0.5479839451,0.2378791084,-0.345668736,-0.4380568716,0.0577191593,-0.0401988386,-0.364477225,0.2381666011,0.1337048111,2.3239410826,0.4154336195,0.8358009134,0.8755201487,-0.1830275235,0.1734639198,-0.271710849,-0.8390020081,0.908310807,0.3211403493,-0.1169194219,-0.7939223958,0.1668982462,-0.0406038128,0.1069719579,0.0336881611,0.2132779769,-0.2949353479,0.6718267641,0.3767290227,-0.1543632577,-0.0928017911,-0.7696393793,-0.6259256729,-0.663130619,-0.5132444761,0.1375423201,0.0380770444,-0.0341366721,0.0635133209,-0.0336658478,0.3333876786,0.437478444,0.2137349839,-0.047793299,0.1952883817,-1.5409597157,-0.7810113841,-0.3182531986,0.662080028,-0.5377672217,-0.5030347818,-0.1777855376,1.1168162676,-0.1599681423,0.3104572102,1.1259572942,0.9869243354,0.545129645,1.0798631746,-0.5928374096,-1.0330564869,0.7205867286,0.1039296111,-0.042003154,-0.1844447052,0.389541393,-1.3634135953,0.4939157336,-1.1829349856,0.5700645369,1.0320430481,0.0300756251,-0.4647150403,-0.3308894877,-1.1717333816,0.1983288205,0.7855926464,-0.3412253554,-0.2210155135,-26.6534071723,-0.0454376503,-0.1052364112,-0.1742509673,0.630721036,0.0796144232,0.3550130596,0.0890485451,-0.7951546272,-0.0356331144,-0.8328666317,-0.1158245405,0.2131365448,-0.8119885399,0.0982350991,-0.5322343711,-1.180941479,-0.69490124,-1.2186219939,0.4061007068,0.1479661462,-0.5845801397,0.8841827605,0.8216998032,0.2326222139,0.3030264463,-0.8775805908,0.0595763712,0.053269359,-0.126471379,0.5768059352,-0.9226456745,0.4736226122,0.3554836579,0.1483481504,0.4230292897,0.1976452679,0.3956787724,-0.7147250779,-0.9129998654,-0.8909333232,1.2771810687,-0.8546060011,-0.4948621601,-0.5987719885,-0.0713668755,1.5904325119,0.9125611045,-0.4403169906,-0.9307730608,-0.4617704577,0.5205588012,-0.2912880705,-0.6568955661,-0.2069216639,-0.540975593,-0.852603354,-0.1425225994,0.1365509383,-0.5950128208,0.2489021601,-0.0823101718,0.2077320309,0.4025649939,-1.2862541732,-0.2431354784,-0.7589221837,0.0228068559,-1.1135905896,-0.2481827386,-0.3314083107,-1.7377598624,-0.7193326533,-0.2675544621,0.3556250002,-0.2651096945,0.7731363052,0.589778525,0.3329415378,-0.5248454129,0.5351217348,0.2293429365,-0.9107004781,0.4375178539,0.2134067928,-0.1584543377,-0.4489297582,0.5491143442,0.3839163658,-0.1812163433,-0.436060435,-0.0297549285,0.5509225073,-0.9273879318,-0.448595408,0.7570319074,-0.2295579645,-0.124619695,0.0879456733,0.3850048647,-0.814709919,0.2539395656,-0.9766702658,-0.3130179489,-1.3797261337,-0.8563152113,-0.6456237554,-0.6881432889,-9.9240993586,-2.9097805473,-0.08540948,0.0173304247,-0.1414505881,1.0445831926,1.3769719491,-0.0892925717,0.2809875318,-0.7249810452,0.4046530762,-0.2181356355,-0.0602172693,-0.5905180396,0.293372091,-0.009125138,0.0364446331,-0.6368180763,0.3320288118,-0.1230252249,0.0311853954,4.3281105393,-2.1047413631,0.1061473222,-0.560580155,0.9038129205,0.1035273248,-4.4052589847,-0.3529564803,-0.5053743581,0.0448666572,0.1724249268,0.0437355361,-0.4909612525,-0.7391421085,-0.3913060507,0.6722078957,-0.5440173118,0.7974817825,0.5297317218,0.061331079,0.2831619258,-0.4045047157,-0.9141130121,0.368409127,0.4765665725,0.2595782963,0.0991443558,0.357958897,-0.2141648211,-0.1252621371,-0.1390313647,-0.6380084306,1.0927466442,-0.7980163148,-0.6360509144,0.5122750939,-0.0182719611,2.7740403823,-0.9266270326,-0.1407165502,0.9752467834,0.5969401453,1.9268791884,0.2098527807,-0.0273732165,-19.5596309957,-0.568454966,-0.6582308155,0.1954363022,0.3346488778,1.2675487842,0.2460292169,0.093344249,-0.6488575857,0.6240891452,-0.5259270097,-0.1492447205,-0.4678687005,-1.6780485315,1.9923170091,-2.2349054014,-1.3475201017,-6.704063355,-2.2377568895,2.0920996617,-0.2996636066,-3.5840451201,0.7609510803,0.6004602499,-0.9547711471,0.335262405,-2.8770401797,-0.8556842593,-1.1837001434,0.0417685858,-0.2108156712,0.7114782468,-0.0677429646,-0.7080801503,-0.4999464696,-0.1278197164,1.5537704929,3.5264645778,-0.5451136792,0.3378592461,-0.1153052708,-0.5044304429,2.3026183344,9.0008334132,0.4117172679,-1.3336373763,-5.9353564722,-1.592164801,0.2277161901,0.9734840841,0.5551157281,-0.9212094441,0.2212461395,-0.1270554701,-0.4229605534,-0.9872572239,-0.9618643908,-0.7661683928,0.4721934251,0.5898004373,-0.7296235109,-0.2801902049,1.0937784481,0.3000968084,-0.5147679039,0.1250103403,-0.5551266021,2.0303026393,0.2721039813,0.8263377308,0.4587110212,-1.6824095802,0.7328769868,0.7114475326,0.4843786215,0.3516310937,-0.5956039294,-0.8325309179,0.7149074747,0.0929668991,0.6788522684,-0.2609223472,0.7323331262,-0.2685891049,-0.4035790632,0.0540389098,0.2258539586,-0.1237510704,0.1305849237,-0.1275911079,-0.8265240124,-0.7066628991,-0.8286139173,-0.7419913917,-0.0672257245,0.2811136428,0.0332872452,-0.2931987491,-0.5863347613,0.2172617744,0.3361389318,-1.1190776442,-0.3505927048,0.1606913835,-2.3420470947,-0.895618218,-0.9007971054,0.2304818936,0.0180119934,-0.2664609806,0.7573650466,-0.7182393691,-0.460926812,0.2533909969,0.2790409963,0.1195631448,-0.0795815647,0.2349097529,0.1144717506,-0.2693485249,-0.5248357624,0.5327122356,0.3386171678,-0.2320316269,-0.0095397662,0.0042956269,-0.8339854264,0.337209777,-0.3182068239,-0.0955918311,-0.8730187725,-0.8519936872,0.4058726527,0.2580925656,0.6684903137,0.2622403729,-0.3593931686,-0.193495761,-0.0384088172,0.1322015935,-0.6289363445,0.0008010107,0.0192485078,-0.5282756319,-0.6160340066,-0.3014808168,0.1579217609,-0.3549803422,0.4611624361,-0.3150199466,-0.5853810582,0.6950292693,0.392049155,0.3584151865,-0.3933441048,-0.639459171,-0.6943466687,0.0119755513,-1.4997582166,0.5683468296,0.1542603792,0.3492811016,-0.8196612375,-0.1099266041,-0.2773882155,-0.4575478319,0.5701260656,-0.2881850899,0.4838959408,0.7686062255,-0.5265197904,0.0450800571,-0.2192726819,0.5468557319,0.7480314038,-0.0755849185,0.8508061575,-0.5971941468,-0.2719689336,0.0085763021,0.7123555663,-0.2840521545,-0.5748387818,0.2059991001,0.0005006544,0.3067587581,-0.4694737006,0.3805569032,0.212283902,0.7938161659,0.2085946727,-0.0873350126,-0.1253073444,0.3275027488,0.8125721276,-0.5275994332,-0.1987603273,0.7714643433,-0.6744050189,0.5339788333,-0.2435953669,-0.7336059634,-0.6619417911,-0.1455927534,0.8144855061,-0.0974491075,-0.4640398087,-0.0247276048,-0.6724930376,-0.6158024262,-0.2283234644,0.1975871248,0.5839511038,0.8754298607,0.3576373935,0.0467673317,-0.2805845669,-0.2017574682,-0.0115854467,0.6395314101,-0.0203212426,-0.6125558303,0.7973500465,-0.4633855806,-0.2280499019,0.1766828071,-0.5151319101,-0.0887489668,-0.4457401682,0.1209080504,-0.475721462,-0.1742444444,-0.7194572728,-0.7160907975,-0.0977567017,-0.3790726317,0.4659113217,-1.0568831684,-0.6993665293,0.0637296858,0.2149354111,-0.8951340042,-0.2383234762,0.6426931243,0.5489528662,0.3660628714,-0.4237327477,0.5876781153,-0.1619056324,0.976964747,-0.6754952261,-0.0739491806,0.0602960202,0.5836031036,-0.4404612085,0.494186416,-0.7683275261,-0.5395780503,0.3757913691,-0.4904737227,-0.1606115737,0.7180106968,0.9824795217,-0.7460612223,0.5292042849,0.1823407936,-0.1728630933,-0.3374976582,-0.0387979101,0.8726917077,0.3738651213,1.0393528189,0.3908821467,-0.3826907243,0.6587857452,-1.1244524915,0.4407855445,-0.0161912383,0.3659749097,0.3809281345,-0.8264600696,-0.9253509545,1.1131000075,0.2232986269,0.3555913081,0.7266486173,0.8681085753,0.4298472524,-0.225614834,-0.1865870952,-0.4500899466,0.1543833964,0.3722691061,0.573644187,-0.6926952096,0.627446545,0.7930176874,-0.0327930419,-0.4453331016,0.0610844757,-0.3790171495,0.2165611273,-0.09862143,-0.0950720212,-1.0122958591,-0.5345057429,0.0861326904,0.5983399941,0.0981534894,0.1146281462,0.6090019119,-0.0257629568,-0.8318454491,0.2412535195,0.4894742427,0.4902489417,-0.7255504567,-0.6583007551,-0.1161396007,-0.1627887853,0.3758232635,-0.6054558164,0.3479961571,-0.152541167,-0.816697337,0.7412402926,0.4509336867,0.8570988052,0.5322012081,0.2402009739,0.7075070681,-0.2266711212,0.6098329257,-0.5583859487,-0.4670263576,0.290849027,-0.162545066,-0.0648045822,0.3419592126,-0.8381358615,-0.6781528402,0.8898118784,-0.8848629879,-0.8816333953,-0.2903230194,-0.9032170734,-0.362591036,-0.6837111945,0.2728263578,-2.0453434619,0.390999643,0.3688833007,-0.5941253569,-0.9179254659,0.5623487336,-0.3264379557,0.4782320753,0.930782001,0.807579445,0.1336209002,-0.3379797766,-0.4758284103,0.6616257994,-0.461503788,0.6549707859,-0.854043944,-0.2119359129,-0.9173922606,-0.1703244729,-0.0664595208,-0.9431693168,-0.1841930371,-0.3969546353,0.123071625,-0.5627694338,-0.5389962339,-0.2011805052,0.0094016259,0.2717826766,-0.669359824,0.1554838671,0.4632686719,-0.0600054667,0.0084733257,-0.9234037993,0.7366102853,-0.6021801465,0.6713218258,-0.897021318,0.0191647407,-0.6192116433,-0.7761060218,-2.7815973989,-0.1326967748,-0.9002189584,0.008545775,0.9420252295,0.7919063309,0.0350500911,0.0102297703,0.0096845756,-0.982102175,0.0991043648,-1.4506497563,-0.1127072266,-0.4621726763,-1.0997049428,-1.0117283704,-0.0246846878,-0.4530489203,0.7505075634,0.411394404,0.3444726773,0.2824449483,-0.1592724582,0.3821006952,-0.1627695057,-0.7816157979,-0.7408647071,-0.9306669778,-1.9807845334,-0.2820687365,-0.0426208159,0.857024472,-0.8835076523,-0.4874111529,-0.6608767658,-0.2881331399,-0.3304437758,-0.48057421,-0.1977015612,0.4266125515,0.6762885079,0.1311171476,0.243825852,-0.7650738081,-0.1176187373,0.4209460909,-0.0059968646,-0.2341587788,-0.3437570556,0.0608117307,0.3649224536,-0.8595604686,-0.1524737775,0.5152599075,0.1348558487,0.240200671,0.9141801301,-0.0907294865,0.9480726138,-0.6959317188,1.4032443559,1.3310334002,-0.7469309757,0.8752308387,0.2910830743,-0.7738629427,0.4377672738,-0.867250355,0.4088308931,0.0652493425,0.1412296088,0.0252600629,-0.0818199908,0.46526133,-0.1348264908,0.442158894,0.7192230766,0.1056936021,-0.2235683749,-0.6486202135,0.4906070421,0.8599958617,-0.2287848186,0.6997562838,-0.2702627784,1.9704586698,2.0434641791,-0.120802154,0.9411880774
   2.566723508,-0.2419317637,0.1136580216,0.6678061865,0.2321739367,0.5062703625,0.4045858112,0.0685178839,-0.8665666181,0.0893955811,-0.0322876323,0.5222178877,-0.2048350443,0.4629503716,-0.9833390007,-0.2830534023,0.0312071326,-0.8910123481,-0.1024829904,0.4036783311,0.6093345953,0.30991384,0.9492440371,-0.331606712,0.1560941917,-0.9053907526,3.4392197355,0.7723874699,0.1669300792,1.4319047938,1.5472133022,-0.5002356004,-0.742145153,-0.9978634116,-0.9659097619,-0.2369156025,-0.1752087437,-0.5325879366,-0.6492334257,-0.7087916281,0.2067411354,0.3172829717,0.4434701316,0.1620038377,-0.5115680121,-1.1039175356,-1.0269466874,0.2462220861,-0.3696123143,0.0049187227,-0.9582292179,-0.4388810243,0.0641582913,-0.4196601469,-0.3669668511,0.2948706997,0.0569858242,-0.5346383008,0.281312466,-0.130876808,-0.4278163273,0.4460263491,-0.3602254691,0.0500053098,-0.7437389346,-0.5062453851,0.0025883616,0.7704064265,-0.1404434429,-0.5855517864,-0.8926942317,-0.240163273,0.7536268904,-0.74152428,-0.1911386857,0.5527822373,0.0478050343,-0.7029702272,-0.464083979,-0.1205208528,-0.8460164257,0.4537953184,-0.1856722468,-0.9646826199,0.5271664909,0.3342551982,-0.74692617,-1.0980926197,0.004381041,0.0647005922,0.4468942367,-0.6984453911,-0.5599777697,0.4214762255,0.1317865885,0.4054578161,0.3433395486,0.3435168392,0.2733830264,-0.3900862216,0.4836573986,-0.3025874481,0.3085131748,-0.1798174225,0.9598210626,0.6734948144,0.1949233125,0.5029638877,-0.6039301637,0.7937000546,0.1151299746,0.6384764969,-0.292572549,0.3809478691,-0.598418365,0.2305765641,0.349497812,-0.3710550147,-0.3462056093,-0.5202668289,2.2765467878,0.7804677679,0.056117948,0.8747330011,0.1979716514,-0.028404708,0.1154180797,0.2544036044,0.2153825877,-0.9190336173,-0.4222589327,0.5579676085,27.8290763993,-0.9309959571,-0.2225669493,0.6200454624,-0.6292435846,0.486704923,-0.1241301501,0.6039226953,0.0517094347,4.273989007,0.4072204916,-1.1620770095,4.2647834852,-0.7605547933,-1.2712175858,0.1515700873,0.9387400318,-0.748887935,0.1918485322,-0.4594345902,-0.2515052635,0.7475118128,0.1283461552,-0.2395258739,0.8473887299,-0.1466572048,0.0143510049,0.43715168,-0.7014035573,-0.7977235234,-0.5775751733,-0.4727738897,0.5079606881,-0.8604116889,0.3521762458,-0.6802322104,0.3812005644,0.2312101221,0.3194036801,-0.9232782957,-0.3932716991,0.5579102999,0.4411763634,0.7609271169,-1.0300194728,-0.1552619994,0.2667315965,-0.8012236363,0.2265615269,-0.211106473,-0.3296850849,0.2054199635,0.676456334,0.0146852023,-0.060478696,0.1914505173,-0.4531579188,0.5361153756,0.2499271636,0.758249884,0.8461470168,0.566722003,-0.3769080277,-0.5447269262,0.2673217883,0.4913527355,-0.0030420516,-0.1288434329,0.7351420014,0.5970247609,-0.1667970285,0.7600715327,0.8782118501,-0.1524788085,-0.3095848004,0.8729437093,0.3925780003,0.6320910274,0.255270879,0.4359422672,1.0096436852,-0.2975636703,-0.2048971786,0.0638921013,0.0114010628,0.3194795034,-0.0850401255,0.1385439859,1.064190267,0.7735218499,0.6886539301,0.6506703049,0.2003360239,-0.4373213253,0.4487724552,0.5681428072,0.8359449656,-0.2798544224,-0.8435201927,0.6950979002,-0.8937292893,-0.0683953633,-0.5914806107,-0.8773029107,1.1761933528,0.8980576305,0.8243343139,-0.6492130892,-0.1361558868,0.0567419392,0.0044712156,-0.3962683373,0.5012783472,-0.9242683074,-0.0678987574,-0.0667709136,0.037434141,-0.136129374,-0.5674293919,-0.540363646,0.7167886581,-0.1285639937,-0.584291609,-0.2122502176,-0.5956280227,-0.3682842432,-0.1391444799,0.9914293555,-0.0529686712,-0.5026293347,-0.1336431704,-0.4505539905,0.7561386724,-0.3905887453,0.7358632641,-0.4338902457,-0.4794777473,0.8102632068,0.3366610077,-0.3660076002,0.6344964537,0.5965070896,0.7680634229,-0.5666453395,-0.7906623907,-0.4030234296,-0.0529962796,-0.7141138287,-0.90892445,0.2849960844,-0.0572072446,0.4847869263,-0.6495861699,-0.1666498418,-0.0155925077,-0.1585659212,0.4630536283,0.8464961601,-0.8042233104,-0.1562149171,-0.5136154842,0.138967789,-0.7660302918,-0.3116230963,0.3374449896,-0.252990007,0.5947909733,0.4195725545,-0.361494735,-0.8079310995,-0.0666223803,-0.5944826837,-0.753803547,0.2795603472,-0.4817551749,-0.2194951667,0.6537526574,0.6850382419,-0.6664138056,-0.2300377952,-0.205323166,-0.5961581589,0.0509327862,-0.1224905066,-0.4649668309,-0.9642238316,-0.7599017306,-1.1295058904,-0.0768399063,0.9087662909,-0.3516047635,-0.3601899615,-0.5634830419,-0.64634096,0.4171776424,-0.0297489376,0.0932271582,0.2009330882,-0.2079183953,0.5298583539,0.5957463712,-0.4170404364,-0.8222064666,0.1435222321,0.0143055597,0.4754564595,0.0892316423,0.0435777428,0.9575708177,-0.6839290412,-0.6964350311,0.0205547921,-0.7409341353,-2.3595705881,-0.4513989375,0.8724265864,0.5074429088,-0.1482739479,-0.7578895392,0.130850453,-0.4182902106,0.2718670255,0.3261496378,-0.679815877,0.2629112556,0.1166377875,-0.0078930591,0.2165991009,-0.7667553773,0.1975232825,0.2592432532,0.49832537,-0.2648819321,-0.1555971839,-0.7284979442,-0.0478715141,-0.2492486587,0.0456744697,-0.6664923945,0.5576059565,-0.4574113435,0.2653451972,0.3155441533,-0.240074856,0.7779957544,0.7261726063,-0.6329898329,-0.7476224877,-0.0786790707,0.3238354126,0.9693450889,-0.721537999,0.6934315834,0.4019514488,-0.4885047814,0.8355967614,-0.1074139203,-0.063095527,-0.1124576163,-0.7253952534,-0.1794105419,-0.6204312897,-0.331052984,0.2710558106,-0.3622099114,1.1000944164,0.009204069,0.3492059036,-0.0027064864,-0.4669772531,0.3966654142,0.7369395376,0.520210972,0.386007576,0.3145064649,-0.2246245744,-0.0664809925,0.8190185534,0.0601135044,0.0626406186,1.0202801514,0.7960862405,-0.3244485292,-0.0797473407,-0.2365415216,0.8165408032,0.6536848994,0.6818728884,-0.2882076094,-0.6260791626,0.4935978809,-1.4434554839,0.1878584787,0.0834219214,0.6360619793,1.6076262148,-0.1745247755,0.2864114542,-0.2248093599,1.8903499102,0.4782129719,0.7544264002,0.4123092788,-0.5294517566,0.8681069859,-0.0810510164,0.5894331723,-0.439022932,-0.5208262892,0.3324607971,-0.1499738665,0.5756720034,0.1684609655,0.1646516377,-0.0913569744,0.2788683533,-0.5830247285,-0.6434218294,0.1948738773,-0.3093895222,0.1091103737,0.4564963944,0.9355428232,-0.7659730527,1.0670102352,0.3034541114,0.6483222804,0.7044467451,-0.0881789502,-0.468954541,0.6254620795,0.7795611494,2.063640373,1.6533883928,-1.3446586173,0.3963927964,0.3009672443,-0.2874921711,0.3903336637,0.1656868081,0.6974362454,-0.1884296024,0.6076369289,0.2464374815,-0.0106855627,0.7671520067,0.0898799953,0.4498126514,-0.9629209806,0.3946863949,0.0768192123,0.3765481595,-0.1114555918,0.1933841903,-0.5063463062,-0.2360572233,-0.1580070574,0.0418819597,0.2088947992,0.5781031395,-0.4925611899,-1.8705671383,0.5118904361,-1.0936544545,-0.9549727797,0.4646922676,0.1226436075,0.7971363048,0.9462160654,0.1451432421,0.3027517253,-0.8330519346,0.6129955632,-0.2255813131,0.4830022476,0.0552331193,-0.8662648888,0.5466415883,-0.7283130105,0.6448404013,-0.5171806958,-0.162045625,0.1826545458,0.119895456,0.1331037257,-0.0053716916,0.8233851943,-0.0879033689,0.1952104227,2.0487832452,0.375908985,1.0568115671,0.442217844,0.7142463373,-0.045715181,-0.5275674196,0.6686520406,0.2238076676,-0.2079154192,-0.5281990735,-0.0640071759,-0.266606345,-0.4808566228,0.6422630128,0.4331187948,-0.7014515533,-0.4852869553,0.3713362745,0.7800915115,-0.0920184124,-0.608153343,0.1863130514,-0.9217685675,0.7526129732,-0.2864410753,0.4232383754,-0.1051849829,0.7873462781,0.2871073224,0.305370335,-0.7508657185,0.8929110518,-0.355101413,-0.6752052293,-1.0181575595,0.365518535,0.6525069469,0.5325715215,-0.7335988533,0.7877116972,0.1524738887,0.0154697443,0.1480727398,0.8808898239,-0.3250942229,0.5148977445,-0.5111342118,-0.1388182031,0.021975897,-0.7526261884,-0.3259067189,0.6133966519,-0.6089367593,-0.0584630258,1.9964380948,-1.0088650689,0.7828791127,-1.0665522318,0.4149579451,0.6022452995,0.2057344292,-0.6914136342,0.775847056,-0.9140966446,0.4835229413,0.1905595297,0.5800050004,0.9065892189,0.7598232954,0.395821156,0.2426057991,0.1261859045,-0.3433887773,0.1521158854,-0.9475485666,-0.5658907442,0.1880999028,-0.3884637484,-0.7583187953,-0.5246629843,-0.6949812596,-0.4683039454,-0.4098817992,0.4643381829,0.661124632,0.3219759601,-0.6311073086,-0.6409388677,2.5533363458,0.3424883315,0.8964822788,0.241066705,0.5889308121,0.0224405049,0.6837515813,-0.0385328805,1.9806753118,-0.0997407096,0.5658448074,-0.3668345443,1.6769855655,0.1372099491,-0.1243456636,-0.3209754558,0.0886150203,0.2594304013,0.3415349082,-0.6277488494,-0.0189677535,0.0894807649,0.1889476969,20.7780981693,1.1372577437,5.1523945737,-0.7672021089,3.7667917973,-7.0818210684,1.9742895719,-2.8186246733,0.9821951011,0.4783045068,0.0981544818,0.0989049518,0.618025089,0.0829218528,-2.0672611728,0.0447361409,0.1166878573,0.1439771204,0.2170617154,0.0340688155,0.1178425209,0.2042435609,0.4958418788,0.0492001046,0.1308864601,0.2783998882,0.1109160691,0.0781533784,0.0685044739,0.2655287547,19.4330787596,-74.9655032349,-0.7858512383,-5.1942316246,2.6106519687,-0.8645657577,2.8748553859,2.5004582699,-0.3290951642,-0.6598817312,-0.4132029513,0.6016646349,0.1537475454,-2.6104827201,-0.1758068915,0.5530830886,0.179911057,-1.3489142093,0.0585851062,-0.4268906188,0.8847007625,1.0971575916,1.4425991018,-0.2988404066,-26.4604783745,1.5193482824,-0.308607015,-1.936209758,0.6061931891,-1.4372274672,-1.4370811811,-0.4702439459,-5.0192235207,4.7655699551,0.1880738161,0.8014559785,-0.7236697264,-0.9523618546,0.7269236931,-0.4151959131,-0.5134713099,-0.5350515748,3.7774123231,-0.5473426931,-0.5064688775,-0.2754243344,-0.2103282914,0.40432085,0.2379129265,1.332476326,0.8490158992,0.5406495313,-0.2147357701,0.2520212777,-0.4018785669,0.5394518181,-0.0926016522,0.4669398405,3.3582620596,0.1571775097,0.1853247733,-0.0253004636,1.8448691864,1.1797238591,1.7845357415,0.8572064519,0.4852328088,-0.3099327795,0.8307878806,-0.2845557942,-0.0201754909,0.5121857333,0.0302684478,0.2057420626,0.9120312996,0.9960360959,-0.6321070829,-0.2848128361,0.3249141338,-0.3453833417,0.3066421391,0.5790182948,0.1815137255,0.3527577425,0.3177471464,0.1786925158,0.2982122969,0.9472028441,0.378893542,-0.2610806485,1.3370273823,-0.0192933583,1.2619045141,1.3726244312,-0.3384718278,0.2647058066,0.7161005562,-0.531505608,0.1124183292,0.3998266445,0.6698887367,0.6584701566,-0.5274179269,0.1875351399,0.3868056666,0.6922374895,0.6511019655,-0.1218503946,-0.3882171968,0.1900058231,-0.4510021945,0.3118378624,0.0594273442,0.4791972342,0.0254362462,0.6309287841,0.5248741438,-0.5315507143,-0.3779765189,0.7438276836,1.7582109742,-0.782474203,-0.8852521197,-0.0795983876,-0.4028873141,-0.3607238949,0.9366369874,-0.9106064082,0.4250658087,-0.1390611735,0.6454620027,0.6321532155,0.9464725624,0.6713971993,-0.0125316027,0.1604553641,-0.8918798059,-0.0940673486,-0.8926270032,0.1611438794,-0.5508724862,0.2279978526,0.3194067653,-0.2202367762,0.0072496553,1.0991636884,-0.8704914993,-0.6135448696,-0.7691226165,0.0285911473,0.8846514271,0.1061559423,0.1233627385,0.6007130006,-0.1386156663,-0.2086429709,0.1236160178,-0.0759875814,0.7886991911,-0.384616419,-0.399917987,-0.6130612028,-0.9456641309,-0.5806317745,-0.6448673947,0.6689329434,-0.2194711922,-0.3547277415,0.7818661466,-0.0400736932,0.2700159047,0.914192393,-0.1244612336,-0.4041752879,-0.3600481635,-0.4926140975,0.6847921638,0.7853533083,0.1172979814,-0.5412308386,0.3484597253,0.4634704617,1.187174687,0.0783831014,0.5202787567,2.6112863134,0.5296159352,-0.4523192841,0.3848672137,0.5572601532,-0.3074124,1.4793445072,0.4624941093,-0.3363433356,0.4280802734,-0.6304988743,0.2268060497,0.0520543424,0.2096881819,0.3400922524,0.204998511,0.1227313559,-0.1398727271,1.331018903,-0.7015704939,-0.0899114537,0.8899468149,1.2927155039,1.0414943594,0.5613991953,-0.3155932069,29.0678673297,1.1569260961,0.0004191286,1.2017342908,0.079062039,-1.2293997441,-0.6373003347,-0.0332934745,-0.0235576579,-0.5128925268,-0.1804595617,0.0276475352,0.0632010082,-0.5844927582,-0.0415800633,-0.0662090402,0.0358633853,0.0920277746,-0.225472442,0.0420708935,-0.0446712963,-3.9787664703,-0.7523702809,0.5434793295,0.7115160633,-4.7408079963,-2.8401188621,10.8192107565,-0.8285912256,0.2047501471,0.5061453646,0.8013155954,0.3690949655,0.7664346326,-0.054848658,-0.4161870602,-0.1608662204,-0.2728306854,0.1552900723,-0.3048034043,-0.3711554403,-0.6528500312,-0.2346122477,-0.1032846019,0.0342536871,0.8547667493,0.4976117442,0.1928357768,0.5968518149,-0.3271248156,-0.1890337892,-0.862546886,-0.1376632661,0.5037269617,-0.3994541176,0.7500799,0.3799707772,0.7468285171,0.2643641346,-0.0830976636,0.6356817763,1.243493204,0.5614562148,0.987929023,0.2219952606,0.8552227205,-0.3868807421,1.3101184013,-0.4373144699,-0.6978491222,1.0814839928,-0.9865210944,0.6132385677,-0.4231560174,-0.1071917575,1.0940164518,0.3413367754,-0.0466310432,-0.2116429462,1.834571706,-1.2904927989,-0.4571443731,0.2670850057,0.8801184038,0.5979868621,1.066287128,0.641434218,-0.1442264189,0.633489995,-0.5802530348,-0.0498462553,1.0266293483,-0.5121182844,0.2062889621,-0.4594061288,-0.6222308942,-0.5765607119,0.4492801581,-0.3667911439,0.4957545112,-0.7336820894,0.2706011863,0.7428129828,0.2078370466,0.0276860092,-0.9393992035,-0.4150045096,1.253202763,5.9274659413,-0.5019675084,0.0936680103,-0.1089645336,-0.8756571529,2.1385016936,0.9025033505,0.0631203862,0.7965903679,-0.427199264,0.8087129471,1.0758993194,0.2340818147,-0.2451415353,-0.7883498159,0.5143955952,0.0924041939,0.7593388783,0.0193021308,-0.0479928392,-0.4021683704,0.0772832386,-0.529448643,0.6251110062,1.4066388755,0.5880058215,-0.0607480879,0.6402008164,-0.1006123259,0.8123210808,-0.3460220829,-0.7139788943,-0.003486504,-0.1251201877,-0.4654781636,-0.0282947264,0.7040635003,-0.4453132564,0.2957485902,-0.3560972161,-0.4952653258,-0.6287726782,0.5512392029,0.1114289145,-0.6014142676,0.0956914888,-0.7564141501,0.7180069971,0.5988755637,-0.5504480964,0.4583389695,-0.8537811393,0.4766267253,-0.5753089115,-1.0200107986,-0.4812710633,-0.7210878055,0.0574818631,-0.1529595365,-1.0674816643,0.4411162456,-1.3270737915,0.3855975679,0.5578677076,-0.7583914275,-0.2490970282,0.8564994486,0.5499113456,-0.9286624639,0.4474042291,-0.1409770893,-0.4380927807,-0.0634250413,-0.5124206134,-0.8991369785,-2.6816992868,-0.0148568589,-0.2919703075,0.5504079171,1.0091258845,0.5246259831,0.3754195944,0.1855600302,0.5888338453,0.3569844471,-0.8866744258,-1.056271068,-3.6572835826,-1.7744328709,-1.8325467524,0.1734994578,-0.8808537323,-1.7939463756,0.1450199306,-0.3365369242,-0.4432246478,0.4869698449,-0.0822424178,-0.306863666,-0.1609642428,2.0375692387,-0.2773169717,0.6135770564,0.0864167311,5.4371139649,0.7423719601,0.7004064432,0.6367032757,-0.828703037,-0.2436406373,0.6594392346,0.0878855147,0.0733601953,-0.3555097494,0.3786286632,0.2981344516,-0.9255124512,3.1189027592,0.5552944639,0.2371113248,1.5767578228,-0.6718395827,0.9143956373,-0.6741116362,0.6978928318,-0.8579968646,0.2923869287,-0.0334372769,0.7088799864,-0.7272347056,-0.0053323757,-0.65049984,0.7826921894,0.5997381931,-0.6708529855,0.3718498117,-0.889105886,-0.3058559133,0.827356685,0.6734924742,-0.182522786,0.1356900656,0.1755167644,-0.5372094199,-0.050805756,-0.0403453919,0.1266330127,1.1969523308,0.7261444689,0.5281815461,0.6178719858,-0.7641487189,-0.2298978114,0.6015402987,-0.3334843436,-0.5696054806,-0.3770246488,0.1244062501,0.3713036031,0.2758268231,0.2082598905,-0.8652476755,-0.9111038542,0.7044917587,-0.6532176912,0.5155587813,-0.3875369536,-0.456061624,-0.4321490502,-0.0113788132,0.7097798045,0.7515883397,0.7531280031,-0.1388243753,-0.7600328733,1.5863831796,0.754886389,0.6058210998,0.5130205759,0.2410553875,-0.2200315955,0.064299917,-0.6600251802,-0.3369128562,0.1702055913,-0.576688414,-0.0109066082,-0.6250790447,-0.5545597138,0.4380742561,-0.2538602031,0.5536946118,-0.5625897539,-0.1126403491,-0.3486371556,0.1773733813,0.4725037331,0.3057547816,-0.4802791961,-0.3560155869,-0.3392155038,0.4238088632,0.6397954153,0.3524388984,-0.0977753723,-0.8618774269,0.3303381088,-1.2778695459,0.2285311078,-0.8057502525,-0.4873825589,-2.0336633605,-0.348340611,-0.3684848324,-0.6484269847,0.0494889324,-0.0331722164,-0.686829845,-0.4900341722,0.9083703606,-0.7527466738,0.3232380764,-0.3595296992,0.8756830892,0.7241905122,0.4831389022,0.0616448449,-0.4171935346,0.0278431439,0.3453254689,-0.2364254046,-0.4545710274,-0.1549125383,0.1174585446,0.7778785678,-0.2929420579,0.8665640343,0.274203847,-0.8855757609,0.3233823862,-0.9329818608,0.1503932315,-0.9017942796,-0.4984028899,0.1791063159,0.6804938391,-0.4031238043,-0.0425538941,-0.3490752993,-0.7985621328,0.3637391275,-0.1780379272,0.3724649868,-0.3149274953,-0.3996538045,-0.7760271305,-0.0801232042,-0.3025363794,0.1286651558,-0.9208374795,0.0307031394,-0.4879591857,-0.0635987754,0.2443691141,-0.5504522666,-0.053804921,0.0355364293,0.5715548284,0.7858385285,-5.834620661,0.700390406,-0.2556180692,-2.1715830035,-0.1624206862,5.0816091366,0.3883264187,-0.4255139517,-0.3171195491,-1.0996887572,-0.3058859489,-0.171289414,0.0712034006,1.9291521304,-0.189408782,0.0379743975,0.0601700562,1.5070808732,-0.3794351789,-0.3440655218,0.0866029607,-2.271092952,7.514175626,4.0848873082,4.755074429,-0.7755910617,-0.0290560001,-7.5807343592,-0.6513053055,0.3252605506,0.2796387503,0.1475168007,-0.1439164364,0.1807520359,-0.5596798166,-0.9519698089,-0.2079002817,0.9623650164,-0.2665337048,0.5956436513,-0.0753818264,-0.3166665087,-0.8167276956,-0.0725674335,-0.0976425024,-0.3243336603,-0.3540833268,-0.5127800609,-0.5820050797,-0.1567367872,-0.1196333638,-0.5243392397,-0.8180060563,-0.1516349249,-0.8995694462,0.6929405104,-0.1132093572,-0.6829228206,0.5031567591,0.5493762574,0.6108018039,-0.8004681967,-0.3854576244,0.0886730609,-0.3534731544,0.4699628586,-0.9220169418,0.8840000977,-0.0949399308,0.7161830756,0.6039653857,-0.1004983108,-0.0678832853,-0.3356166003,-0.1465272732,0.4079350861,-0.0251477987,-0.1783850781,0.7562827116,0.6599929985,0.595951405,-0.10758807,0.7408200255,0.3134350304,-0.0681068288,-0.1587821695,0.9195654161,-0.5222002009,0.4427335835,-0.2203903114,-0.1891566875,0.2917374386,-0.267756754,-0.6959471794,-0.1965362373,0.762376496,-0.2543773154,0.2233148841,-0.1754942096,-0.6749038758,0.2669423943,-0.3260444896,-0.1627047697,-0.1968357478,-0.7208700511,0.8411180567,-0.2860033427,-0.2200462703,0.8419839935,-0.8262355608,-0.6565550871,0.7232534279,-0.4569558623,0.5680886024,-0.3873653499,0.6347536247,-0.4470724656,0.6440215215,-0.353074839,-0.5840894041,0.2673981703,-0.2440599852,-0.1248175042,-0.5413054919,0.3476727413,-0.2602538748,-0.4174915866,-0.3249221784,0.6172002218,0.3580557746,-0.1552521341,-0.2275585011,-0.0126530906,-0.2883364703,0.9671564067,0.1297064664,0.2364392875,0.1731480226,0.8104353784,-0.2085422441,0.0068169363,-0.3385952866,0.0907674358,-0.4037664875,0.8862562422,0.0227999147,0.9617232658,-0.2385251917,-0.1776790302,-0.8601612728,0.7818584086,-0.3377755387,-0.1653741557,0.1501972549,1.3362773467,-0.0088520037,-0.664421554,0.6740396265,0.4449412956,0.5009299655,0.7691725718,0.9967390002,0.5194194586,-0.556588788,0.9663335849,0.4576889247,-0.1542994635,0.0531410681,0.8027177314,-0.5151378538,-0.2225750765,-1.0005398759,-0.5428284841,0.7046754551,-0.2917657783,-0.0996895541,0.7793079607,-0.4527883867,0.3550201257,0.7486251249,-0.2368845744,-0.4336756554,0.3141010744,-0.799785511,0.4202370729,-0.2215496331,0.2192611731,-0.0794545972,0.2064314563,0.4220888452,0.6543133057,0.0697465579,-0.1521723431,0.7841315853,0.6054947094,1.0260084226,0.9282772898,0.7582520026,-0.8755843239,-0.7294076791,-0.1239071981,0.893525981,-0.3358942064,-0.3221881282,0.3304399791,0.6405787597,0.0577241012,0.0594676852,0.5136096573,-0.2716295568,-0.3810723191,-0.8147363038,-2.2025633363,0.9471940609,-1.1336884925,-0.1629735971,0.059614021,0.3046801653,-0.4711272642,0.0214566251,-0.3436340312,-0.1865959016,-0.9059910183,0.4490864776,-1.1346279018,1.399039826,-0.3436018054,-0.9343973577,0.5036416872,-0.7609842359,-0.8618357861,-0.7560842455,-0.5965854137,0.7984767379,0.3255473088,0.2595881721,-0.131157353,-0.855222303,-0.6018341239,-0.8090613657,0.0782569841,-0.2043446114,-0.830433928,0.2614639226,-0.1199260381,-0.3493014811,0.5354082867,-0.2931747786,-0.1481286843,0.2334491618,-0.3944214325,0.7378861474,0.0851367697,-0.9163113816,0.8683478612,0.6822852033,0.1356751298,0.4352938162,0.1846985848,0.4026477598,-0.7144876412,0.6028030668,-0.6316185277,-0.8531596367,-0.5893008627,0.8118260341,-0.0514175688,0.9947925644,0.4761821331,0.6028419591,-0.6112776286,0.6821283787,-0.6434075063,-0.2678999199,-0.5234709502,0.0123884567,-0.397840619,-0.7005590426,-0.0582723672,-0.7360519858,-0.8848492234,0.2536195314,-0.0700016743,0.5671665169,-0.1492482493,-0.8440639052,-0.1800540088,0.2172751968,-0.0023009829,-1.0066493157,3.3767182382,-0.0804302699,0.1047789884,2.4754874255,0.1315358336,-0.7324917917,0.1268102906,0.1708745389,0.320420307,1.1029050185,0.1737944203,0.1380541119,0.2694978385,1.0532126402,0.0649787718,0.1625201677,0.2113161585,0.9590597557,0.1711934741,0.1595742016,0.1439738328,7.2763568036,1.7837480085,-1.7215891014,3.0925286604,-78.8776331235,-11.6287566608,1.0843825835,2.5801259971,0.3269956719,0.0867141251,0.23636563,0.3121501425,0.1817676437,-0.3387184088,0.8200598458,0.3286143037,0.7083858697,0.3789382688,-0.1654471034,0.613962314,0.1609572632,0.4290505693,-0.8412568469,0.7442738415,0.0280163388,0.0824950189,0.2330368091,-0.0081421868,0.440889256,0.3345660351,0.6520455411,-0.8937774084,0.3079237291,0.6190768625,-0.0065731274,0.0856450373,-0.4389286424,-0.3255946707,-0.8454874815,0.2291189585,-0.9759149668,-0.7178660031,-0.8033842318,-0.0829635701,0.6988467659,0.5536502543,-0.4366443797,0.3271674825,0.7241802795,-0.3909426601,-0.6815156518,-0.4287090003,-0.5718740165,-0.7194997895,0.6168783137,-0.1814294326,0.2662243915,-0.5182291332,-0.3985578595,-1.0211666503,-0.3142371169,-0.2032250395,0.2472023056,-0.7789726976,0.3108158256,0.8545352976,-0.2584973772,-0.9438677777,0.054706023,0.4599462065,-0.1612692316,0.3559422893,0.54646519,0.5926470951,0.5264765232,0.2567076963,0.1242998271,-0.2708453836,-0.4242892094,-0.2674791026,0.8244878654,0.0483153032,-0.3732363683,0.3889434939,0.3703898387,0.4698674325,-0.8195759508,0.8410781296,-0.1622627317,0.9265906256,0.1729960912,-0.881889101,-0.6085657749,0.9538179055,0.6842245304,-0.5698754905,-0.5811592006,-0.0456215212,0.2166535824,-0.5340399411,-0.571088963,-0.5708190586,-0.2087605711,-0.1577878641,-0.3773068029,0.2394610398,-0.2843925381,-0.0260767124,-0.8046554155,1.2001446884,-0.1261201822,0.8624133727,0.4780299763,-0.8691012551,-0.4065411949,-0.2120352171,0.2728710077,-0.5848741295,0.2789453289,-0.3304385808,-0.2562062006,-0.9074960061,0.3250918246,-0.1865871701,0.6517825342,-0.6620789039,0.0797642841,0.4816022025,0.6870077049,0.2744153815,-0.7992477687,-0.7467366393,0.0305288441,0.3090128803,1.1066393214,-0.7206797689,0.7566884111,0.2514408653,0.2132296226,-0.2284301261,0.7903979602,0.4250370874,0.8294976935,-0.4046192959,0.1641795148,-1.0563885482,-0.3960988497,-0.6361386347,-0.9498630132,1.4374200321,-0.3800501033,0.4542665155,-0.9647367844,-0.5319976024,-0.5072921958,-0.4022032562,-0.3183766854,-0.6684444406,-0.1886756696,0.5315858321,-0.1981862024,0.8217909243,-0.2532978864,-0.5703539232,-0.0642012122,0.5857125131,-0.7415374411,-0.7575603078,-0.4169670107,0.3354869892,-0.3521319385,0.3256158147,-0.2913585649,0.0238250697,0.8704430478,-0.6308058006,0.6950907386,0.146274714,-1.0797274944,-0.3683271691,0.4012206675,-0.5014319754,-0.6417467361,-0.6950531173,0.3772265801,0.5988038002,-0.7424210097,-0.4248339135,-0.930345619,0.1894894679,-0.2077516563,-0.1534303688,-0.5195244798,-0.5606294968,0.1872724079,0.1210332811,0.3288404232,0.0017145667,-0.255373393,0.5548785063,-0.2942298125,0.1983117715,-0.1307603495,0.6924249425,-1.1089642942,0.321248335,-1.3970741349,0.7276900477,-0.0109272789,0.3929537132,0.3584923172,-0.6439871895,-0.4809946146,-0.0676320418,-0.2870397821,-0.6500519677,0.5447379377,0.3149698236,0.1731184,0.1803842425,-0.7719950822,0.465777015,-0.3115744666,-1.0371548351,0.2828600758,0.2318540735,0.7381924389,0.0965852952,-0.4332708172,-0.1441584272,-0.8002314774,0.3256403087,-0.5233482478,-0.4567339675,-0.6994044338,-0.0578605597,-0.6214095723,-0.5074813267,-0.1071559955,-0.7132176287,-2.0969786327,-0.7943693072,0.4735144096,-1.2313754642,-0.9497093532,0.3747284436,0.902854505,0.1083620776,0.5213883259,0.9149183534,-0.5814011877,0.3506330191,1.3164951118,-0.1109224062,0.6321827871,0.8484912977,-0.4494721742,-0.7187431823,0.2394524301,0.3515886384,0.1931585568,0.3705888729,-0.0667055302,0.931491579,-0.1732311326,1.0689276303,-0.6098741903,0.1656137012,0.2198754735,1.1205767554,0.1262890963,-0.6851754836,-0.0399534049,-0.5708834226,0.6394263812,-0.3732498042,-0.9896639239,-0.5763508432,-0.3939005655,-0.4053522985,-0.1441609491,0.7631766118,0.1168258904,0.622262683,-0.0686545993,0.6832451933,-0.0007741139,-0.6858049691,0.0801522313,0.2637804115,0.1347322608,0.0206590093,-0.6005492409,0.0817552539,-1.6092009112,-1.7320867345,0.5396579312,0.7896646931,-0.5202467533,-0.4699965069,-0.0877192041,-0.078298482,0.5413849168,-0.546008261,0.5897457536,-0.4506280822,-0.8400742463,0.1933305685,-0.638538455,-0.0098939159,0.1201199252,0.3487142248,-0.5284573753,-0.2063201896,0.0142841404,-0.011956525,0.3532981229,-0.0928950244,0.1266029734,-0.2017731849,-0.2421296068,-0.9239888901,-0.6450773572,-0.1931032745,-0.0207847242,-0.7048240592,-0.561222803,-0.0943888006,-0.7087887938,-0.1652320924,0.0001349075,0.418229459,0.2944867705,0.4859210272,0.6834455433,0.4864569014,0.3329161171,0.8651766473,0.5774597398,-0.1174660735,0.005035619,0.8009806992,0.0353030169,-0.2738741037,-0.4226405222,-0.1818935989,-0.5898764196,0.5331637004,1.1326470371,0.740923905,-0.1304725204,-1.2561462499,0.9403909572,-0.0130883619,-0.8571899015,-0.1125432149,-0.2567857362,-0.6891553122,-0.6241328408,-0.2009808278,-0.9189733213,-0.6688020483,0.2861672555,0.4845288307,0.7543979776,0.5199793177,-0.8863403349,-0.1962804083,0.6009084587,0.5518419213,0.2454679695,-0.1131915673,0.1091961925,-0.0304224076,0.4771216531,0.2675748085,-0.3447456708,-0.5791015828,-0.8192216854,0.0958144236,-0.5880198543,0.5029652296,-0.9045193956,0.5360949771,0.3940777668,-0.0431273493,-0.5265657582,-0.0071983918,0.1362572387,-0.5757449043,0.6781131083,-0.9558531888,-0.6095002628,-0.4742916748,-0.0990104978,0.7352714509,-0.2091979945,0.3270995632,0.5596434069,0.0479200879,0.3334448352,-0.4881894568,-0.2657308983,-0.5316566632,0.218743225,-0.5781384651,-0.7974501553,1.1253007637,0.2494536877,1.3657171399,-1.0656963011,0.3790827933,-0.9713611498,-0.6450280062,-0.5128053962,0.0889912122,-0.6845671507,-0.896364551,0.7080793965,-0.1602397092,-0.5067982829,-0.5700050126,-0.7406792033,0.0712611779,-0.8131371745,-0.2428864773,-0.3521814144,-0.1697454108,0.6838301015,0.3594851847,-0.8317650668,-0.0770632606,-0.4520989584,-0.1157550824,-0.0464129729,-0.0667944863,-0.7736077389,-0.5817272748,0.3074420609,1.1355933076,0.0614681468,0.3890682746,0.5647118812,-0.0580939021,0.1017446578,0.4691074433,0.4578376434,-0.7783227185,0.1844503964,0.4948846207,-0.9200443557,-0.1288007185,0.0981339458,0.0495211809,-0.011483917,-0.2396830804,0.0373164013,0.8928957504,0.1825589055,0.2402489339,-0.2658605134,-0.8013881743,-0.5561440024,0.4501805396,0.7727348343,0.7749456687,-0.2905289888,1.1410575431,0.6879099725,2.4355394099,-0.4504728521,-0.5986941731,0.0339669896,0.2094428321,0.6511385603,0.1593070706,-0.0058478143,-0.0382282933,-0.2849936135,-0.5960028647,-0.1087845925,-0.3894777429,-0.155857136,-0.6560853944,-0.5570674244,-0.6647499216
   -0.7464609349,0.4773955508,0.5047919858,0.0323804939,0.7386222846,0.8180193033,-0.3799165464,-0.0336492715,-0.7710658168,0.9046398917,0.6998920657,-0.0835956739,0.7370663629,-0.042958332,-0.1839888185,-0.6156045125,-0.668223831,0.7047129602,-0.4366493714,-0.8291494804,0.5024109747,-0.0646902595,0.8948848548,-0.0136271517,0.2525621915,-0.42420866,0.8893550067,-0.3002728581,0.2413804543,-0.2195984305,-0.031085425,0.2194483882,0.9231181843,-0.1339653788,-0.5671393279,-0.4625237934,-0.7403979131,0.69624399,-0.5597175832,0.6341097556,-0.5902798632,-0.8482882926,-0.4764808019,0.2822082379,-0.0149479964,0.7393753876,0.0250573264,-0.2343504606,0.0036517809,1.0046790738,-0.0030639308,-0.4769185807,0.6985757907,-0.8818300869,-0.4892646729,0.4052690554,0.3609883405,0.78482321,0.3722188352,0.2306083989,-0.0235901368,0.1289069366,-0.5855858668,-0.4113990921,-0.4818075703,0.2804318657,-0.4782789066,-0.8444099852,1.3371724909,-1.3502151977,0.4746065633,0.5227223289,0.8951168246,0.2960676328,0.8173113835,-0.4580238141,1.0423915828,0.387130823,-1.5799869048,-0.3139356681,0.1676711616,0.7271879266,0.3658193789,0.7028419506,0.6123960166,-0.4026233036,-0.3721472576,-0.5343963752,-0.1089241743,-0.1119889551,-0.4282211055,-0.0611789828,-0.3891391916,0.2171148164,0.7633938542,-1.1768992946,-0.7254384665,-0.5583612717,1.9072217175,0.1735835021,0.4055801429,0.9468768948,-0.3432647057,0.7244192714,-0.2003069628,0.265799411,-0.022257093,-0.9669944228,-0.3732603473,0.3087701363,-0.2510375903,0.1320151916,-0.5902110358,0.0272792787,-0.259066766,-0.5400265321,-0.1430333578,-0.1053877504,-0.2563573406,-0.9457349876,0.6055168021,-0.213189468,-0.2979877387,-0.0538512589,-4.5955943229,0.1616834343,-0.8747131973,2.9498415095,0.7123372257,4.0508404888,-0.7351489231,-0.7311124587,-0.9899642494,0.6737004234,-1.451765583,-0.2415893787,-0.4174231313,0.5026922481,0.008024246,-0.4487875532,0.0203256925,-0.7878310836,-0.4365338097,-0.2406132878,0.126286188,-0.4424779001,0.2527318512,-0.4224617184,-0.522145594,0.0543802164,0.2425551716,-0.6073140362,-1.0443965142,0.4804161806,0.4097597771,-0.3715343982,-2.3842130107,0.0098439822,0.2970186511,-0.0631521786,4.9111696474,-1.7067605393,0.4877968956,-0.192736947,0.4899108273,-0.1558877276,0.2591176499,0.4789096469,-0.1313415647,0.6052411814,0.1142039062,0.5455994327,0.3333274901,-0.3265137941,0.7171967405,-0.0954654305,0.3135809885,0.1301369753,-0.1466671924,0.4647509718,0.063425943,1.3988648827,0.1863245375,-0.7654729554,0.0435131172,-0.0066764058,-0.1163108885,1.6366208662,0.1405371782,0.5420197864,-0.2508681827,0.6356250292,0.5907531607,0.5337413337,0.2350711488,-0.0966084209,0.4946103977,-0.7148561962,0.3874950863,-0.5535012621,0.3526204237,-0.3196909009,0.3479262377,-0.1750188513,-0.1297497773,0.2674154986,0.093539403,0.5302602593,-0.120957207,-0.0991380428,0.4881159909,-0.1391891843,0.6130576212,0.4571095257,-0.1195997242,-0.7430100463,0.3681519896,0.0815006881,-2.4339446374,-0.1766096634,-0.2269801495,0.26427742,-0.4290904832,-0.7447473005,1.096287092,0.0573439465,0.1324938747,0.1474235134,-0.2768030495,-0.4779881622,-0.4251732553,-0.6615048108,-0.5155487871,0.3974915467,-0.3464745383,0.9059424163,-1.0956370279,-0.2935424644,0.0459347479,0.2452390473,-0.1229276758,-0.3903249648,-0.9447712716,0.9447982637,-2.1456927427,-0.0451943476,0.0774522379,-0.1813206787,0.3837769316,-0.0220916479,-0.2426641403,-0.4924499627,-0.1535950946,-0.065749716,0.7793714652,0.3660628309,0.1028955112,-0.036144584,-0.4569568915,0.0113903197,-0.6401457187,0.6730764888,-0.1564649221,0.4677243573,0.4348474278,0.3302428747,0.4599344195,-0.2282297322,0.4341712267,0.1139322879,1.1277745933,0.9131691888,0.6568360856,-0.7656402945,0.7607261143,0.0186444886,0.1974936064,0.7444805393,0.7813127883,-0.0741187953,0.4439089177,-0.1923860684,-0.1639740494,-0.2944523888,-0.3221266221,-0.7361626043,-0.7420846195,0.6733077329,-0.1796164969,0.6627850376,0.3777690745,0.3937424181,0.1154416838,0.4638685804,-0.4989857461,0.7958846587,-0.0420496859,0.405023033,0.5956094297,0.7743752799,0.4017734914,0.1905344012,-0.0504912109,-0.3716184394,0.0791996563,-0.6486242321,0.1169266641,-0.4685687292,-0.1664185423,-0.1233409423,0.0174169217,0.4451135754,-0.5191357271,-0.4861605413,-0.1201358843,-0.6513430024,0.3390227004,-0.1959787804,-0.1731855788,0.2814639743,-0.2063974954,0.5455220677,0.0177942547,-0.2199691625,-0.5984925927,0.0393309767,-0.9417199707,-0.562608045,-0.4345985333,-0.372369958,-0.60477571,0.6306127082,-0.4791754832,-0.1551624722,-0.083594604,0.7681121385,-0.2413152595,0.5472657714,-0.0102266745,-0.8071311833,0.8923095106,0.3147597568,0.5475835049,-1.4341488431,-0.3051731405,0.5016171981,0.1931354488,0.4402537991,-1.3760715735,-0.1705272394,1.4904925439,0.7380284546,-0.0195232082,-0.8852604553,-0.0343190514,1.1190327698,0.4685264768,0.4231277338,-0.2684858916,0.6221683478,-0.2392443018,-0.2227455904,0.5082891967,-1.5908665549,0.4541041968,-0.1545572621,-0.5820666079,-0.6081470985,-0.5527641756,-0.9349404604,0.4146132646,-0.5554373281,-0.3037588161,0.4331082104,-0.5418616631,-0.5147765377,-1.6385361367,-0.1476792559,-0.3750123616,-0.5037380374,0.8585619813,0.3675773012,0.3452502596,0.2050220043,-0.60299185,0.3555374652,0.4684132276,0.0288246549,-0.4671444076,0.159176628,-0.1220685754,0.8722956977,0.7161408597,0.6713590969,0.7795501262,0.2629673143,-0.2295151706,-0.6555109207,0.001029726,-0.3321707442,-0.9751700781,1.5269864695,0.3810208794,-0.9580975327,0.7669530211,0.8401714056,-0.5370832652,0.7448881753,0.8484318664,-0.4993903284,-0.2785314935,0.1619636941,-0.8934195493,-0.36752193,0.4087864292,-0.9084844358,-0.1336393412,-0.245411201,0.9659825748,-0.0528232514,-0.0186988258,-0.4544357677,0.5475621702,0.523512874,-0.1268841261,-0.215601638,0.9347698657,0.8615784472,-0.1778512463,0.2030439016,-0.3056355007,0.0901039921,-0.6941926597,0.3562311213,-0.1006309082,0.6328499441,-0.7065177494,0.8837716158,0.408315939,0.4852865888,-0.684491172,-0.0005385471,-0.6120934655,-0.5195010452,0.4989008253,-0.5783302483,0.9704700577,0.7482897169,-0.9562361259,-0.9047310071,0.5021187921,-0.0306355618,-0.1815963745,1.6539641219,0.4729866003,-0.3426161814,-0.0944471712,0.1290492058,0.0021197279,0.8234121387,-0.5956607593,0.1194002035,0.478904577,0.4943958345,0.3252452045,-0.5775183816,0.6656932281,0.1004387684,1.096127745,0.2463103263,0.3083029502,-0.0072417266,0.6214088069,0.3603900688,-0.3405610298,-0.3583392268,0.6041173706,0.0808147678,0.023809589,-1.3817058976,-0.7488609065,-0.6265596255,-2.2887038977,-0.5564251119,0.7250285681,0.9408582789,-0.4825838115,-0.1932228956,1.5991406916,-0.9488554201,0.6032459838,0.3940453573,0.7298765903,0.6217683822,0.0092465188,-0.2443069004,0.3542172781,-0.5665578397,-0.3959753054,-0.5208672393,-2.3698121328,6.0186279021,0.7666787302,0.3977037239,-6.5662659483,-2.9546095612,-2.2440520028,0.2443783039,-0.2148073162,0.6748616807,0.4355586851,-1.8121909101,-0.4177179643,-0.0951256289,-0.3465336552,0.6523248888,-0.2139052819,-0.5820667976,-0.0501707588,-0.4218206876,-0.1117715241,-0.1520044731,-0.2309510494,0.4406053006,-0.1993844965,0.0087818901,0.0575100251,0.6151150596,0.4183909492,-1.4547251623,1.6479886804,-0.4536327646,-0.5396900092,-0.0544718175,-0.1527696406,-0.0452743268,0.9490361078,-0.9368098506,0.7337352628,-0.6460014294,-2.0771429713,0.2767551815,-0.5593939763,0.6736696715,-0.8806902238,0.9296223346,0.2340569578,0.416019831,0.7490702877,0.759785424,-0.085399441,-0.6599697151,0.2858573245,-0.2350185937,-0.077558541,-0.4830889001,0.3230424469,0.3117419368,-0.8595200618,-0.0925309108,0.6498171671,-0.7113854823,0.0912730109,0.5178658694,0.1282746443,-0.7738857554,0.3438819112,0.2483359813,0.5070234195,-0.3974263146,-0.3574088628,-0.803314389,-0.5051584153,0.5221093549,-0.914756948,1.045963896,0.298029765,0.6121563008,-0.0448891821,0.5966167552,-0.4565835818,0.2056785996,0.8242502612,-0.3001282627,0.1114583397,0.5924965998,0.0344025927,0.2220043284,1.1128177689,-0.1697561128,0.7473033639,0.5198760425,-0.0826756554,0.1864481156,0.8864276079,-0.048882205,-0.4278769265,-0.2245665033,-0.8236305306,-0.1615195759,0.2847880997,0.181595294,-0.1941962919,0.8683945292,-3.9323657731,-0.753950461,0.5812290367,0.2367655476,-2.2231058596,0.3638502492,-0.1235288809,0.0431115597,-1.1787775604,-0.208455671,0.0525096539,0.0923779624,0.5658924767,1.0188418642,0.5274281515,-0.7405563383,-2.514983957,-0.4300224751,0.7052079911,-0.9459046095,5.6468362316,-5.5554772685,-0.2451170704,-3.4499252065,-0.2238216313,-2.594509233,2.231261016,-0.4518275195,-0.3686389649,0.4788066199,1.0991664657,-0.2849139142,-0.339278676,1.0149734004,0.8049335412,-0.1438006679,-0.2727403987,0.1678168686,0.8575610927,-0.3187267322,-0.1089475846,-2.2290748039,-0.9166716225,2.3674046669,1.5472722123,2.3985898591,-3.7827400604,3.064500231,-1.1936912894,-0.8612950331,-0.8841786851,0.3360196058,0.0244252174,-0.9913132334,0.1441503848,-0.0975573499,0.774669709,0.4398451945,-0.4295884367,-0.0231066891,-0.385619586,0.0812268461,-0.3086600213,-0.3009839621,0.6495492122,0.4738560744,-0.5925613493,0.6783426041,0.3622281297,0.8309765318,-1.103622387,-0.7779907057,-0.9396904708,0.3315023178,-0.3476286495,-0.9215547255,-0.3186686806,-0.3846413412,0.2973845458,-0.9768655677,0.1309759912,0.4609983755,-0.5764869275,0.1789336124,-0.0752325497,0.6777795741,0.0309193633,0.1568739962,-0.3156310133,0.4233198747,-0.6476160435,-0.5947295845,0.3179493684,0.7727070932,-0.3241158417,0.780478317,0.1033210749,-0.6848518604,-0.1733527511,0.1297363672,0.6586432073,-1.302719794,-0.0632951531,-0.220334144,0.0303389354,-0.1832078237,0.7900255657,-0.7319468678,-0.084972806,-0.5290557422,4.1758003038,0.4917137439,1.6277864806,0.4930930899,0.4350199595,-0.9952325625,-0.2213042877,0.3929590636,-0.7298750859,-0.5512311486,0.2882516219,0.36312138,-0.0306478287,-0.5510077714,0.3358294763,0.6755735395,-0.2822582111,-0.1957199368,0.571797942,1.0800474779,-0.4759523362,0.5502914691,0.8920837532,0.9233305469,1.1267132444,0.9853362951,0.6016735371,0.3335472166,0.3961701089,-0.7999428886,0.8907798508,0.7682966296,-0.1677281647,0.5120305842,-0.1771350008,-0.6460408715,-0.7068273839,-0.5955735036,-0.0508723845,0.654839139,0.4322400942,-0.149121437,-0.4233929139,0.3696812983,0.1941764217,0.4366800588,0.5896345913,0.391609845,0.4959141376,0.6985620094,-0.9779239762,0.4854562168,-0.5981874676,0.6376936142,-0.9166827247,-0.1577335138,0.4511475417,0.2328590384,0.2715981136,0.125044603,0.2581729009,-0.8352012532,0.5321399567,0.8331139516,0.584578599,-0.9109023202,0.0263135108,-0.1397326773,-0.4907597235,-0.4721870938,-0.3120368508,0.0381668242,0.2823899312,-0.3394880847,0.302131766,-0.0884865257,0.7262731171,-0.7788228963,-0.1808756687,-0.7845702141,-0.845376551,0.1593100002,0.1398300189,-0.8806358151,-0.3044098317,-0.6554918576,0.2242392347,-0.2831462014,-0.6235676862,-0.6379578363,0.7560543886,-0.4454553165,0.0295983135,-0.0938511596,0.7754178826,-0.6218132187,-0.2384836441,-0.2610252999,0.3457590367,-0.2152014265,-0.1145823013,-0.7938544834,0.2337608167,-0.6606801053,-0.2462757512,-0.1457729223,-0.1343535855,0.8113623498,-0.0736997114,-0.4790396489,0.9102692505,0.2276754653,-0.0933031338,0.3074385799,0.3888808837,-0.7331730811,1.3159692303,-0.3143799453,-0.4167196618,-0.0248298525,0.1746033503,0.2100407155,-0.1754505584,-0.7244877509,0.120966107,-0.148640633,0.1939694222,0.2394690055,-0.7212489341,0.0982215111,-1.2859327744,-0.5491227612,-0.6844131543,0.1457075603,-0.5902869907,-0.7652648516,-0.2186926614,2.1314463423,-0.009448273,0.200211332,0.9859656523,-0.0431952396,-0.7876531651,-0.1768329441,-0.2682307503,-0.2889771865,-0.5493097969,0.2987391826,-0.7763428356,0.4696792311,-0.576988561,1.2557599831,0.7336381062,-0.2554010301,0.0778526095,-0.6768406313,-1.1922460062,0.1856471346,-0.0272387657,0.9501269394,0.6201924201,-0.0407109765,-0.2459830065,0.5762356284,0.0898310746,-0.8867712098,1.0406025981,-1.557898871,-1.8502407749,-0.7462860067,-0.2347390264,0.3231624548,0.2289327281,0.0154121614,0.2776008646,0.1611320025,0.4577906646,0.4121649094,-0.2464004576,-0.7996075702,-0.7638201203,-0.1508224614,-0.9763952634,-0.2602460729,-0.6347651945,-0.5442603018,-0.250056307,-0.7383833721,-0.2196523542,-0.1230157333,0.5007189786,0.425063258,0.2562447119,0.1656489974,0.1804679204,-0.5140866471,0.4269631293,1.6849459006,-0.9996469408,-0.7123672029,0.0265217753,0.4407537187,0.38442788,0.4921154821,-0.6662455627,-0.148286636,0.6096762929,0.4877450504,-0.3158387048,-0.0509721052,-0.7839505676,0.4959559683,0.6003069232,-0.7999809675,0.1382314194,0.5401223355,-0.2555307539,0.6820393222,0.4681511719,0.0458953786,0.0911420186,1.0401396734,0.4161738864,-0.4532167203,0.5210545965,-0.3204462691,-0.0893686482,0.0482554523,0.214547291,0.1427160819,0.6407919713,0.5356845481,0.7831609891,0.5906673122,0.0009614885,0.0290566946,0.4688929422,-0.5133791363,-0.0401572684,-0.3452956684,-0.4595313148,-0.3795779806,0.233990666,0.0771321074,-0.6744518379,0.3396770192,0.6073803358,0.4161142303,0.125784827,-0.598339515,-0.2159567342,-1.001380582,-0.2739149856,-0.7824708198,0.6460485875,0.4560746246,-0.666858386,-0.5850860173,-0.2521353391,-0.2274085851,-0.1100376183,-0.1923338495,0.502096214,0.6976866416,-0.8214349438,0.0555839679,-0.8016167337,0.8772806849,-0.8392776949,0.1256812917,-0.1124382952,0.4160129304,0.9199329814,-0.3100591329,0.5292878278,0.6484172187,-0.2568371399,-0.1670457496,-0.0000959946,-0.2594094503,0.0348245962,-0.4627266779,0.730575951,0.078112142,0.0389544695,-0.1825712855,0.9654088101,-0.0128257106,0.7164958897,-0.2049542389,0.1199902118,0.7388996604,-0.7146499363,0.155520255,-0.5018235349,-0.0143371482,0.4285507829,0.7827924952,0.9936137411,-0.2799385766,0.4172151817,0.023273101,-0.1757934954,-0.679300396,-0.5146139328,-0.2862444193,0.0299021448,0.2723676134,-0.7573919591,-0.5765131832,-0.5678849847,0.8989728145,-0.0059406217,0.6780157768,-0.4682445588,0.909944038,0.2966242228,0.5305270628,0.7155746905,0.0884660529,0.257200973,0.894052633,0.6340731923,-0.0177456336,0.2683484771,0.5293008027,-0.8902813526,0.8778435894,0.0415227203,0.9186160251,-0.1789085444,-0.1715401988,-0.3739535506,-0.6678762076,-0.7568714415,-0.5985768567,-0.866173976,-1.0428617896,-0.1405711975,-0.0159300787,1.0766850818,6.9520531858,0.9783261134,-3.6938232777,0.4208224385,0.1062966896,1.1882940155,-0.7637488483,-0.8797461897,0.5315662206,-0.7184327361,-0.1780826874,0.1125077018,0.169692479,1.5864903574,-0.5173347728,-0.9122875544,-0.2808560459,0.4107144928,-0.5727205436,-0.7702768115,-0.1567965487,0.4282024398,-0.0593165889,-0.7089702072,-0.065978335,-1.7429284689,3.0334277354,-0.9545835063,6.5154227323,-7.5577781529,0.4190280578,-1.0173375988,-0.3126765255,0.3613515272,0.0298695458,-0.4867481321,-0.5917882544,-0.6611005632,-0.0303828982,-0.1634554626,0.282230994,-0.2827443174,-0.0247790834,0.1040906269,0.1426661026,-0.3985175821,-0.7738507997,-0.325666579,0.6965451768,-0.4879285302,-0.0732170306,-0.0731875569,-0.4397285682,-0.108326442,-0.5996773159,-0.4230000655,-0.041957031,0.0457105914,0.5122581224,-0.3566823749,-0.3181110383,-0.0527011052,-3.5941866662,-0.2071983971,0.0992584274,0.0863245351,0.0415579906,-5.9395239159,0.2811689368,0.0882830012,0.541443004,-3.4426104705,-0.0709870122,0.1152311956,0.2654392377,-1.7070984026,0.1269682984,0.0556400984,0.2196524937,-1.0519556527,0.0502549946,0.1229035544,0.2662241786,10.5838729395,3.9998645936,1.0772836344,2.7112924767,-4.961952948,-2.9260517203,-15.4249669684,0.102635355,0.7201890838,0.5370838283,-0.4797621195,-0.9401055086,0.5749154519,0.7650634874,0.2802054958,-0.6676297741,-0.1003279949,0.0754779643,-0.778001419,-0.4581040453,0.4389261197,0.6674255356,-0.9721593493,-0.062164586,0.7161523964,0.2466654587,0.6176239746,0.4296241644,-0.1923205865,-0.874750837,-0.9914311252,0.9370796808,-1.1370382472,0.9425029393,0.6218065451,-0.6955979326,-0.2765147121,-0.2308928184,0.0897119573,1.1439760153,-0.5449902845,-0.2528205446,-0.4008602318,-0.2965854757,0.2243119447,0.9344918311,-0.0482188904,-0.6801145817,-0.2162012531,0.0339875879,0.9807445584,-0.3102188993,0.9966928661,-0.3232161442,-0.2947227814,-0.7791218969,-0.503251861,-0.4964578509,-0.9224512495,1.6291317511,0.7005259911,0.284915388,-0.1311224909,0.0946885079,-0.5718576334,0.090318629,-0.2847432898,0.6931280956,-0.0601573569,-0.2137369989,0.4343871308,-0.2491190284,0.8697380173,0.7388416962,0.2763260813,-0.1279901674,-0.3794867924,0.7519486856,0.0105405858,0.5896057811,0.8297018957,0.3228731413,0.2660876138,-0.4401988376,-0.3692380558,-0.0757867754,1.0686032489,0.7918818359,0.1422999293,0.1287725656,-0.2614562855,-0.6419937619,0.1589589775,0.6214193246,-0.9308489935,-2.2627212664,0.0367588709,-0.1683359058,-2.7906446744,-0.1490799489,2.4635656444,-0.0405996866,-0.1431703165,-0.2858046779,-0.140230283,-0.3682448899,-0.142490261,-0.3523674546,-0.4092666269,-0.1532531891,-0.1886311868,-0.3340471726,-1.0455488304,-0.377017439,-0.1908488718,-0.3514864132,0.8879495288,1.3779296107,0.2606860681,-0.229596713,-4.8062730653,0.8701897539,25.8022527626,0.2947328716,-0.4767333946,-0.3876574743,0.7301329864,-0.2303752442,-0.4734121047,-0.3069010245,-0.3671009225,0.0470944691,0.4646030779,0.8677238065,-0.4598119912,-0.5871792994,-0.2925498102,-0.5795068687,0.021952624,0.3334405011,0.0419821206,0.6494968664,-1.2344516644,-0.0396871062,-0.259992274,-1.1363578199,-1.5522263618,-0.7692156308,0.4288055394,0.2940257529,0.3411116444,-0.858083542,-0.0780008372,-1.0153853827,0.2261163296,-0.0235216615,-3.2652870602,-0.5429675115,-1.7924155223,-0.1082282846,0.8501161078,0.2052257401,0.0748608628,-0.4737245685,-0.4769971878,0.6387899815,-0.1476992014,0.0790886652,-0.9499083698,-0.1853838936,0.0188280398,-0.0810598503,-0.6866140452,-0.2539948459,-1.1944948843,2.2732098785,0.8837819378,-3.5034558442,-2.7118548434,0.7332854674,-0.6900742498,0.0146950179,0.0256006906,-0.166191992,0.6510032255,-0.4933217151,-0.6507863014,-0.6378062146,0.623730937,-0.6563006723,-0.1221768162,-0.1231220444,0.5056286521,-0.4996007538,-0.8921189922,0.5327226528,0.0754641998,0.1380378247,0.057459499,-0.6088307771,0.7204052651,-0.6891001164,-0.6827860894,-0.1502196077,-1.3821224279,0.2584970992,-0.3425370342,-0.1395675964,0.4895953374,0.4250569667,-0.3694233808,3.3193455184,0.0230728043,-0.0927792076,0.1530653884,-0.0999469383,0.194903565,-0.105615712,-0.076948221,-0.0628014476,-0.2351969759,-0.1665852127,-0.0531540632,-0.084425097,-0.144863885,-0.0125084719,-0.0050468397,-0.0571391096,0.4543619111,-0.0313145094,-0.0378733562,-0.0734948699,-2.9555671129,4.0415204133,-16.4547915063,76.5787152431,-3.6228072392,5.1750241238,-3.9773580167,-1.1240957349,0.5347577428,-0.0037598859,0.3316112091,0.6297539989,-0.4312191655,0.0343630923,-0.140358841,0.0488639691,-0.0713246011,-0.2416239014,0.1875418282,-0.7533239231,0.1325994714,-0.4708323452,0.7945441343,-0.1519323577,0.5847410434,-0.6477079548,0.6715409543,0.6620137924,-0.3284819663,-0.7906725108,0.5768741862,0.8449825839,0.7802927052,-0.2018441592,-0.4961712357,1.032855462,0.2980693409,-1.7146331498,-0.3147791588,-0.3053010656,-0.6209520532,0.4569065845,0.7782966398,0.0458339895,-0.2227577886,-0.0854318236,4.5773940532,-0.2953190448,-0.7569756841,0.9719397371,-0.6982951401,-0.3882125066,0.251234352,-0.1058703796,-0.0414568549,-0.1037032574,0.7965626237,0.0892668982,-0.2553226906,0.1941671575,0.9295781573,-1.0702674469,-0.8529452139,-1.3148350247,-0.4133846757,-0.274949037,0.7257994807,-0.4625718914,0.5958629138,-0.0574603541,0.1585883527,-0.5167023058,0.5128286089,-0.152920258,0.1437471472,0.8741731932,-0.2506542748,-0.5369436104,0.120905111,0.3389331943,-0.4206788265,0.0989524706,-0.6171272467,0.5276408673,0.0084592194,-0.4748264751,0.3986373477,0.9446671481,-0.3782146362,-0.5259532792,0.1244857196,0.3957210853,0.2629025228,-0.9162909844,0.6405129462,-0.0238590795,0.3351371841,-0.14318461,0.0901680692,-0.7950165866,1.0773188319,0.8824595327,0.3629107842,0.395930152,1.2419546958,0.0045178151,0.1863096086,-0.1849419725,-0.0753086892,-0.7820245927,0.1909446645,0.242158289,0.0271478611,0.3779822904,0.8597234302,0.0236831205,0.3695576912,-0.8524027479,-0.7779133559,-0.6872393614,-0.7756909022,0.6537658064,0.5021079302,-0.3622942604,-0.4790519588,-0.1295012376,0.0797105765,-0.8480904073,0.127472311,1.0379836088,0.1696068459,0.206241906,0.0570684899,1.3797764754,0.2561080615,0.1527856848,0.0637528113,0.1288640084,0.1162901199,0.1244067824,0.0314065186,-0.5835407841,0.0186233511,0.0984449873,0.1169675406,3.2295937481,-15.6977630034,4.5535394379,-27.3697765029,1.7817547473,3.5410494705,8.4936485835,1.5463748987,-0.224979274,0.5407186597,-0.5405109931,-0.7180053025,0.3558278728,-0.0976715215,-0.4050320816,-0.4169857259,0.0677030632,-0.1279235559,-0.1350833543,0.7401667577,0.1124628881,-0.0791997171,-0.5814895863,0.3925651768,-0.092685164,-0.7377107629,0.8979242172,0.2189995064,0.3971468275,0.7669317585,0.8320983321,0.8909543411,0.6266057926,0.6020377316,1.1086413095,-0.6699916091,-0.0078132851,0.2178947642,0.659413401,0.5031593572,-0.2310820438,-0.1959814912,0.3225666711,-0.9396006558,-0.143423797,-0.9144325023,0.3070264942,0.0747008599,0.4140654685,0.4310514253,-0.0062157376,0.8466472346,-0.4490192483,0.1689448469,-0.8255988544,0.6043823166,-0.2329361846,-0.5607404489,0.0848527876,-0.4542465007,-0.873285867,1.0612716303,-1.593200394,-0.4900705118,-0.0867923689,0.350425013,-0.8478131842,-0.9198206334,0.7151473323,0.1326500595,0.7465554532,0.0247485321,0.6359398181,-0.3064708014,0.0205492515,0.5268485278,0.4695443717,-0.4020951265,-0.469845799,0.2701318515,0.2651244863,-0.5971453149,0.0759882622,0.054186774,0.829870007,0.563077689,-0.0332545579,1.9102458923,1.1089433386,0.4099297462,-0.3956332471,-1.8645648695,1.5188810364,-0.1458827498,0.5845370499,-0.2477001313,0.4235113519,0.1986850647,-0.4863737961,-0.3094985517,-0.9187315896,-0.3471190892,0.2816868625,-0.4192931104,-0.5908425529,0.1319408176,-0.3132214005,0.3876101408,-0.1645166397,0.4759380525,-0.7138082703,-0.7041344891,-0.8457428311,-0.4211001438,-0.5585772738,0.3412377755,-0.742055018,0.478800068,0.69877349,-0.6962597032,-1.0329978534,-0.3370507998,0.7766634088,-0.5846214342,-0.7986681989,-0.4190641596,0.6427705194,0.4523203627,0.3491838342,0.5905711751,0.1413889811,0.0675554635,0.3043292611,0.3858542016,0.5108189805,-0.2087843349,0.2099113781,0.0481660081,-0.4285390155,-0.1716556571,-0.6302703914,0.8278212041,0.3900828347,0.2272722025,0.7301617081,1.6192661779,0.2131722312,1.0525347904,-0.7236792317,-0.3527332043,1.0129049528,0.7956001726,0.5412729517,1.0275516423,-0.598387185,0.6155281397,-0.5555532703,0.1654984672,-0.8300921048,0.7154202578,0.2489088164,0.1606394251,-0.3511285741,-0.0582663102,-0.0296896652,0.5025928966,-0.5864067294,0.4759807754,-0.346507047,-0.1379411593,-0.510371346,-0.1268867695,-0.624484068,-0.6573888697,0.9829647795,0.6162759369,0.2198117702,-0.941613615,-0.8911280598,0.7012634411,0.9507936758,0.937308159,-0.5055316274,-0.8945822841,-0.4685695848,0.7624748061,0.258582017,-0.0649897227,-0.3227073325,0.4586263467,-0.2387719922,0.0589346444,-0.6764019961,0.637853979,0.0036901357,0.2187540796,-0.7234470557,-0.1202185507,-0.5823781122,-0.3152943829,-0.3332821965,-0.2427279391,-0.0844288418,-0.606691965,0.2983349074,0.0169870165,-0.5176732651,0.1922599801,0.7330870792,-0.150677332,0.294509053,-0.0760545087,-0.6719275051,-0.0435852675,-0.0580101478,-0.0242871377,-0.5985055134,-0.2438493414,-0.3321435604,0.0241511325,-0.2672545636,-0.7181632914,-0.0712482156,0.6225458541,0.0411729637,0.0637743159,0.1932328333,-0.7156886068,0.6452636361,-0.4864135864,0.7095087188,0.1686254725,-1.4859214497,1.8814703974,0.1488212321,0.2191017584,0.1916966206,0.2821974511,-0.9742924066,-0.7683747632,-15.2246631991,-0.1049435461,0.0900069035,-8.5984706065,0.1008329041,-1.0764061564,0.1032800362,0.1264030908,-0.3648342802,5.4987990587,0.0870161392,0.0740157595,0.0087648947,2.4517788435,0.1695409005,0.0621500681,0.0747095735,2.4731447561,0.1343327272,0.1213693748,0.112888376,0.3409191506,9.6579948461,11.5926000041,-5.9472027032,16.9598978656,-22.2227864734,3.562270809,0.6063337462,-0.1929460646,-0.6628121279,0.9492514918,0.0989246144,-0.1468775566,-0.6397060697,0.3585782465,0.6168628744,0.3023877016,0.0137493522,-0.6737514567,0.521901516,0.1353505137,-0.4652090465,-0.3081790094,0.1346121013,0.7707980747,0.1824456636,0.5589125775,-0.6575955968,-0.3853703387,-0.735768263,0.5433579359,0.4045624306,0.7071371059,-0.5158419768,-0.0378467566,0.1840058159,0.8544653029,2.4273093769,-0.5711066065,-0.440249677,0.7355062523,-0.6016512797,-0.8096851936,0.7517693798,-0.4071089404,0.3255316775,0.3457579754,0.3251984029,-0.3077874976,0.4689508509,0.0968218388,-0.1420871611,0.4744959939,0.2093415373,-0.3027721872,-0.3678551381,-0.0104783738,0.10907227,2.5526977803,-1.1502706089,-0.4217928593,-2.3481512842,-0.6613424708,0.145841375,5.4411784202,0.5781714314,0.4164124451,0.5113900331,-0.1433733928,-0.8931315696,0.4487861477,-0.6991671077,-0.4107987335,-0.3126425557,-0.6250301353,0.4133982147,-0.3809731842,0.2705799457,0.1521957937,0.3699217812,0.1874732771,0.0060680933,-0.688260407,-0.1988025951,-0.311955813,0.6679642485,-0.1000438891,0.4009863644,-0.2311353103,0.6953213586,-0.9830504424,0.4806836519,0.6993838786,-0.2468248914,-0.6055740953,1.2822153166,0.6487194233,-0.0275843232,0.6320355371,1.0304245812,2.5965755512,-0.0346024768,-0.1652788183,-0.1996613582,-3.0957681669,0.5896788773,-0.7684956341,0.276845412,-0.8549063153,0.2167470806,0.4246072857,-0.0889752428,-1.5679955233,0.5123068766,0.5182059822,0.2931497798,0.2460080581,-1.3873185806,0.4402953778,-1.2898428984,-0.7363859782,-0.8675412996,4.0075457991,0.0669739765,1.7141760944,0.3255442184,-0.0664059082,0.9132832933,-0.087050591,-4.4742222751,-0.1560164187,0.4929665384,-0.3626948748,-1.5914936454,-0.593642499,0.3374806725,-0.5691854631,-1.6245808666,-0.3470009677,0.0928929754,-0.7986511695,-0.1032850667,-0.2789998631,-1.1508691149,-0.8908076837,-0.7753195207,0.4647242106,-0.2806163579,1.7162415151,8.7427270452,-9.3379676578,0.7377685153,-0.3688604167,0.1422282374,-0.5253117942,0.5521699713,0.0918476008,0.3132367534,0.1583681421,-0.7929022975,0.0789242125,0.0362647796,0.2413832559,0.6966901399,-0.7000421174,0.7617204787,0.0123897017,-0.1736074039,-0.1104780204,-0.2799922778,0.240312607,0.3417624058,0.8531334654,0.0435897133,0.2553739894,1.3071096001,0.0391506459,0.6854197968,0.9134952777,-0.3028904102,-0.2210621012,0.8864244626,0.855270278,0.4408519134,0.2473226665,-0.516774738,0.9028306356,0.4109827152,-0.8210943963,0.5748517783,0.0737410458,0.5122014886,0.4810947222,-0.0535675948,0.1721133163,0.408440753,-0.184562983,-0.7495452945,0.4131408726,-0.1412656164,-0.0278637438,-0.4661533612,0.4342587873,-0.5640752659,-0.3138505573,0.5731083045,-0.9312976258,-1.5012267003,0.9222566391,-0.0071417388,0.079020594,-0.5008491487,0.428844917,0.2486121533,0.6062339695,0.2450881148,0.0426770579,0.4254388041,0.7251718518,0.2561243807,-0.3807995974,-0.7283152863,-0.3455288301,-0.2708781772,0.805347044,-0.8434962142,-0.4512926913,0.6687609651,0.1149737468,0.3052135954,-0.4522221102,-0.2177773489,-0.5501591677,-0.2321490693,-0.3583636919,0.8451742174,0.1350527387,0.1467246188,-0.8845427081,-0.7202190071,-0.4753433622,-0.5989315051,-0.6359516585,-0.0226297787,-0.3477932639,0.5758983892,-0.3641947161,0.0207168066,0.6871136476,-0.6333187461,0.715262324,0.3345134093,-0.0349544506,-0.3551896572,0.2113466775,-0.2020460332,0.4115971735,-0.6440601224,0.7156078034,-0.4581564647,-0.5107579354,-0.0648628552,-0.4687276847,0.4395722576,-0.1640055786,-0.3208011654,-0.1832025057,0.3273596381,0.8935237283,0.6037199625,0.247160986,0.7003464684
