encog,BasicNetwork,java,3.3.0,1,1469374587437
[BASIC]
[BASIC:PARAMS]
[BASIC:NETWORK]
beginTraining=0
connectionLimit=0
contextTargetOffset=0,0,0
contextTargetSize=0,0,0
endTraining=2
hasContext=f
inputCount=28
layerCounts=2,16,29
layerFeedCounts=2,15,28
layerContextCount=0,0,0
layerIndex=0,2,18
output=0,0,0,0,0,0,0,0,0,0,0,0,0,0,0,0,0,1,0,0,0,0,0,0,0,0,0,0,0,0,0,0,0,0,0,0,0,0,0,0,0,0,0,0,0,0,1
outputCount=2
weightIndex=0,32,467
weights=-1.0188042399,-0.7916273376,-0.0878846075,-1.3168015436,-0.6034798984,0.605662132,-0.368455887,-0.7260106565,0.2468297708,0.5255822223,1.6216487406,-1.3612083978,-0.8033416917,-0.7396413804,0.5576469027,0.332399821,0.0930935628,0.5630713485,1.4866470917,0.881112099,-0.4296097346,-0.6991712689,1.2167556797,0.8404993203,-0.8234987329,-0.3851571033,-0.4469030225,-0.523331134,0.4516056476,-0.8081922728,0.7551618492,-0.5152746556,4.4799252976,0.0928837784,0.2443408218,3.8684111456,0.3106980652,-9.0757152905,-0.3810980044,0.2387741949,0.7676183904,-2.4481468207,-0.3080356566,0.2315010527,0.4664405397,-3.1442387047,0.4835934621,0.2022000338,0.3508209519,-4.1402463826,0.1255003625,0.0750682913,0.3915069706,2.7925453138,-7.010714012,-0.9271529957,-6.3576680566,0.1412395666,-11.4276058099,27.9442832518,-0.6321213076,1.3003981338,0.1202405174,-0.3051317268,0.5291325335,-0.2402107867,-3.9236607954,-0.3249245969,-0.2574658379,-0.2306857158,0.4359269982,-0.0630059249,-0.2674807758,-0.0400566918,0.3334015777,0.20540654,-0.2223042096,0.0287382959,-0.4869985501,-0.2760947559,-0.1787022539,0.0194946009,-28.90455015,15.5433954872,-3.2338784628,-6.8687310679,4.9201163644,67.3344532245,-26.1029496954,1.1967798977,-9.8510469798,0.2516346775,-0.0128317709,-8.9881773598,-0.0966172943,21.8032824326,0.133756381,0.1386600325,2.710735756,-2.4067386382,-0.404846902,0.1227330195,-0.144126531,-1.1396539435,-0.1964209785,0.1396600852,-0.1390314247,-1.0358593168,0.0348332017,-0.054491806,-0.2794573395,-0.4033340564,17.3085130904,5.4609889195,0.3332288203,-11.2395207064,-35.8116488698,40.1123735702,0.9699022787,7.5816846409,-0.1532331646,0.163714536,6.0909978374,0.2324439405,-3.2052171171,0.3209153303,0.2715360175,0.6049393565,-1.0288167173,0.1503259459,0.2242918074,0.6115003918,1.6332829344,0.0604203055,0.2183544699,0.4986295458,2.2587881881,0.146722463,0.1630327776,0.3046534801,-4.362286125,4.8910500612,-10.3775285008,14.0045520344,-142.5715957332,2.645896721,-2.1874380402,4.0619856218,2.634119457,-0.066643904,0.0615919716,2.3135230577,0.0565054594,-3.7789272436,0.3588803302,0.0649825509,0.2226928255,-2.4258394582,0.1103013746,0.0363928279,0.2466875372,-0.7447506335,-0.1078021759,0.0344108973,0.3216437931,-0.8702397214,0.1404647434,0.0996244003,0.320163425,-3.146723163,-20.6234559267,0.2620651026,4.1351981913,-18.6752188117,-1.6194615316,2.0808245018,1.4088177389,-2.4134121828,-0.1381777639,-0.1900287722,-3.0218052401,-0.1288196595,3.0230376008,-0.2543477211,-0.2315936055,-0.090551209,0.4294852022,-0.1789443435,-0.2111176246,-0.1716846059,0.0084448296,0.1345994342,-0.2111575105,-0.2052495179,0.8672550763,-0.1417679657,-0.2067784651,-0.2722422896,-60.8055311532,82.0489977533,-0.5769947595,2.970571423,-1.6721373022,-5.8005677267,3.4699970799,-1.2134589234,11.0131856363,-0.1496874993,-0.2153356026,7.3260426643,0.0474210335,-5.9518130652,-0.2614796137,-0.246829805,-0.4979527232,-1.9231180233,-0.053527049,-0.2327752764,-0.1971312019,0.040806015,0.0043218347,-0.1781835475,0.1091828287,0.7309748967,-0.2103540055,-0.1768573478,0.2627997292,-11.1551200067,-35.0153262037,-3.0740055731,-7.3614502725,34.7508371568,3.7029775082,11.9418142529,-2.3777083364,-0.9777625161,-0.3942523304,0.2901007004,4.9730277333,0.2774541733,-6.9459151436,0.2571654697,0.2879069882,0.7710106243,-5.7080518489,0.1685127839,0.263632153,0.8313834788,-1.3993500131,0.2170790794,0.2259997876,0.7010680116,-0.8343753919,0.1562416307,0.2251047242,0.5949170149,-19.1641727323,22.5422378185,-0.8120276214,25.0892286744,46.5287905354,-167.1323518136,4.0989123916,3.2311250424,13.2094645276,0.1058863386,-0.1794063097,11.5439429106,-0.0524425325,-5.9376572034,0.0064324964,-0.1079835007,1.107156285,-11.1888915262,-0.0319420155,-0.2134787783,-0.0693809381,-1.5833080192,-0.1010885066,-0.0660347626,0.0539510374,-0.5292376559,-0.1310029725,-0.1139989924,0.1121325983,13.8864767419,-11.7348049532,-8.6126604215,-3.6650365038,8.6703522341,0.871435824,-25.4989230673,0.1248473592,2.5072760197,0.0541160038,0.1167991768,0.8577406228,0.3536292891,1.8905976227,0.0441554413,0.1985334511,0.3276695881,2.2710753573,0.3224093278,0.3183430728,0.2176631345,2.5544241392,0.2679944345,0.2452381048,0.1496758775,2.755036822,0.0028353529,0.061149931,0.0789152369,185.8801482183,-212.8243822487,-0.1746659604,17.7655009913,-3.7186204648,14.8438452182,-21.3664095587,0.8934078837,0.7641179002,-0.1082759202,0.1246021311,-2.5534885795,0.1037013335,7.7911273541,0.2410198457,0.1350540246,0.3827054275,4.9014816574,0.139154756,0.0991035233,0.206772943,1.8547600458,-0.0058818962,0.0919597948,0.1844353891,1.5065228965,0.1011682367,0.1089276868,0.127956316,-27.0797806933,19.4824281608,1.2094383507,11.5208822261,-86.6969484729,26.4198303651,-15.9359327703,2.0073039234,-16.0314664817,0.3177921936,-0.5524696247,5.3042782253,-0.5565762635,-4.2735058995,-0.13806726,-0.581767759,-0.1105501563,-8.405784159,0.5673695378,-0.4012093443,0.1095618785,-0.1026305561,-0.2057843483,-0.4449558159,0.4058249521,1.926056069,-0.8609045675,-0.3480516611,0.2639813094,0.4802256408,-14.1285744828,-0.8887550629,8.2889754077,33.3376791107,-3.0637005554,-42.7177589273,0.1861923293,-3.0915644083,-0.0184411917,-0.2641302111,-5.184139404,-0.2600811003,2.9109089824,0.1168485237,-0.2824380111,-0.5672502693,0.9533137255,0.1118063072,-0.2560577624,-0.373885155,0.3229879537,-0.3037967805,-0.2714293086,-0.3273280076,-0.1011129296,-0.0637191529,-0.1817388635,-0.3493397915,3.4920448458,-1.0669238402,-0.9895177152,-0.8469004663,-1.1015062825,-1.7748175775,37.1155164371,-0.8909646666,-3.1646318862,-0.1014434143,0.1116649343,-5.5017400687,0.0609128035,12.8595398718,-0.0043618931,0.0712351539,0.2351832089,6.197378483,0.0318672358,0.121051235,-0.1453547073,2.4479733639,-0.029485765,0.0892966638,-0.1667679073,2.921608087,0.0222890163,0.0161201474,-0.1345838837,-0.070374493,15.6559185124,2.1273224573,5.4561025985,-16.8984699943,7.8494190556,-13.5861094937,-0.0322654548,-0.6751800011,-0.8228392919,1.3873554295,1.4319563015,0.7109172144,-2.1395237729,0.1447067261,-0.7825213218,9.6708114895,17.6314998798,0.6410139322,0.6493030377,0.8102167277,-3.5680664804,0.0887490489,-0.2893652134,0.7657959526,0.9166254574,0.351561274,0.1839737879,1.3764843802,6.7385030292,4.6272433049,-5.3776980538,70.2859523806,-24.281142458,-37.6365470772,33.4904864217,0.0683292294
biasActivation=0,1,1
[BASIC:ACTIVATION]
"org.encog.engine.network.activation.ActivationElliottSymmetric",1
"org.encog.engine.network.activation.ActivationElliottSymmetric",1
"org.encog.engine.network.activation.ActivationLinear"
