encog,BasicNetwork,java,3.3.0,1,1469374710262
[BASIC]
[BASIC:PARAMS]
[BASIC:NETWORK]
beginTraining=0
connectionLimit=0
contextTargetOffset=0,0,0
contextTargetSize=0,0,0
endTraining=2
hasContext=f
inputCount=28
layerCounts=2,16,29
layerFeedCounts=2,15,28
layerContextCount=0,0,0
layerIndex=0,2,18
output=0,0,0,0,0,0,0,0,0,0,0,0,0,0,0,0,0,1,0,0,0,0,0,0,0,0,0,0,0,0,0,0,0,0,0,0,0,0,0,0,0,0,0,0,0,0,1
outputCount=2
weightIndex=0,32,467
weights=-1.1165214425,-0.8088927329,-0.1520051061,-1.4063555683,-0.6363738191,0.6373443541,-0.3529819142,-0.7076246323,0.4566376998,0.5253252218,1.691328423,-1.6253763066,-0.7719029913,-0.7241857192,0.557548056,0.3325149678,0.0867032666,0.5633182619,1.4866791839,0.94382477,-0.503050006,-0.7566890741,1.3524900343,0.8686630212,-0.8238921375,-0.3863958925,-0.4174044886,-0.5231343623,0.3832021997,-0.9923861081,1.1296486263,-0.5147281803,4.4912610054,0.0923021461,0.2359298852,3.8767667164,0.2939171185,-9.0758105488,-0.273605087,0.2378824182,0.7676380396,-2.4480482011,-0.2201141907,0.2112298309,0.4573879656,-3.1428153151,0.4634012451,0.1961697516,0.3499905624,-4.1371699597,0.1256526469,0.1006834442,0.3631085616,3.0647497807,-7.0113168833,-1.6689718448,-6.5862660182,0.1413301882,-11.4274489315,29.0868584768,-0.6248514487,1.9567534088,0.1191664964,-0.2972958088,1.3210206364,-0.2383020914,-3.3656319638,-0.321014721,-0.2573598384,-0.221443626,0.4356468888,-0.0630058636,-0.1916888826,-0.0379225668,0.3336529559,0.2035975096,-0.2214476465,0.0257368968,0.4513169817,-0.2034572631,-0.1787642136,-0.0115803193,-28.8696946377,20.9901443041,-3.2336671266,-10.6848498996,3.0634540213,67.3345761655,-29.3427907562,1.1962138175,-8.2972538159,0.1594244248,0.000805537,-7.7799344096,-0.0867437356,21.803992944,0.1372192918,0.1385651886,1.8882506809,-2.4080654012,-0.3232367348,0.1140603617,-0.1458912926,-1.0987976728,-0.1959850875,0.0943392428,-0.1582053099,-0.6504753843,0.0351911001,-0.0541943305,-0.2878960816,-3.1394659333,21.0817800957,5.4611082459,0.3336960269,-11.2406618969,-35.8113795268,34.1982106205,0.9683076662,7.0932546886,-0.1023316811,0.1322575617,5.5701093648,0.1805763293,-3.2055793008,0.2361157524,0.2068368142,0.5236094659,-1.0284248385,0.1502118779,0.1694610802,0.5356434394,1.3207272804,-0.0058714104,0.2042811149,0.4220911822,2.2220172195,0.1177263418,0.131700725,0.264067881,-4.3696725498,4.9818038448,-10.3775967508,14.0038921863,-131.2517717046,2.4860088281,-2.8798602414,4.0641634151,2.6490733215,-0.0529653168,0.0567398585,2.3150751322,0.0568084526,-3.7577342887,0.2785200396,0.071524279,0.2211991158,-2.2754108634,0.1101760301,0.0378023616,0.2651403803,-0.5795914675,-0.1036027702,0.0343013126,0.3213943927,-0.6734157424,0.0887759558,0.0885683468,0.3194543509,-3.1782476067,-20.6230277322,0.1184654482,4.1350197169,-18.6866633698,-1.7368881608,2.0913629497,1.4389490958,-1.812535607,-0.1084506867,-0.1776263331,-2.3929782583,-0.1288812853,2.5678428381,-0.2213935444,-0.2101387554,-0.0715411081,0.4096738129,-0.1782106916,-0.1916832276,-0.1623578511,-0.0105987262,0.0736792066,-0.1750442142,-0.213894857,0.8155887427,-0.1233536284,-0.1720697962,-0.2745156444,-60.8044561747,82.0589933923,-0.5768061345,1.6660395297,-1.6711735186,-5.3984427588,3.4621070227,-1.266912476,11.2739229217,-0.148185589,-0.1154314465,7.3394472583,0.0449985752,-5.9633656046,-0.257149965,-0.1779543223,-0.4988689313,-1.9235193157,-0.0510241914,-0.1883011899,-0.1585011894,0.036373755,0.0046630022,-0.1199000247,0.1090170728,0.7309460167,-0.1708335452,-0.1045080711,0.3035189606,-11.1542444542,-35.0155736629,-2.6162661513,-8.5823423146,34.7503741988,2.8315916175,13.1414992431,-2.7202041328,-0.2958021878,-0.3223155481,0.2308405157,4.973135299,0.2275901007,-6.9462266275,0.2570703401,0.2387618322,0.6639151661,-6.1527256817,0.1589537791,0.200973262,0.7797243331,-1.6607424355,0.1638530392,0.1748688359,0.6514062162,-1.0631991986,0.1560019268,0.181968475,0.5496755588,-19.1642517735,22.5422882374,-0.8234449829,25.0893864467,48.333793983,-166.3797851557,5.5607880964,3.2316494596,13.4591079984,0.1058421626,-0.0214793581,11.939592179,-0.0049186366,-7.1652418979,0.0067852991,0.0325006554,0.7043640642,-9.6979059163,-0.0317756376,-0.0690568229,0.0817660381,-1.5636165456,-0.0994460008,0.0215240794,0.1355857679,0.1159142228,-0.0350967423,-0.0383062373,0.1993822325,13.886680697,-12.950323818,-8.6129808934,-5.226533737,5.8698183822,0.8724858321,-24.9456838452,0.3747395644,2.1622372868,0.0252095158,0.117518141,0.8566502973,0.3009874083,1.8897222163,0.0435690537,0.1974887466,0.3084498789,1.5045794751,0.1705722236,0.2426045494,0.1889806821,2.2767331317,0.2405699385,0.234632549,0.1055510984,2.7552077153,0.0021521042,0.0616072646,0.0306759588,185.8850576513,-212.8242964017,-0.1750831504,17.3260768928,-3.7188896818,14.8418355178,-20.0219731181,1.209283862,0.7618153781,-0.0573961529,0.0627250589,-2.5534900745,0.0640076976,7.2176537338,0.1472197192,0.0804442646,0.4060831141,4.7477916333,0.1391958747,0.0468980803,0.2239804159,1.8548354613,-0.0060888883,0.0444963991,0.1956118115,1.4665525152,0.0567479766,0.0647205165,0.1376365703,-27.151753802,19.4809516589,1.2038388043,10.6099737078,-86.702709763,26.4207896413,-15.935878712,2.2598679657,-16.0319644661,0.2026786162,-0.5514399009,6.2264528534,-0.5024954406,-5.5703429098,-0.1233974671,-0.5815494081,0.1360334252,-8.4100819009,0.3397388412,-0.359164348,0.1097983244,-0.7200045793,-0.2055174056,-0.4433827697,0.3213026842,1.9254471686,-0.6815275009,-0.3392629723,0.2430072336,8.1005937241,-14.1281679145,-0.8890678086,10.8272328662,29.4848514551,-3.0641988076,-42.7175329845,0.186652682,-2.7783243835,-0.0186762791,-0.2392665662,-5.1836640774,-0.2570693213,2.3995453937,0.065186511,-0.2811628125,-0.5639587744,0.9533317476,-0.0357025762,-0.2547422,-0.3573801658,0.7534144809,-0.2939892487,-0.2531522979,-0.3180112803,-0.1013358015,-0.0639111777,-0.1816476119,-0.3294280254,-0.048780189,-1.0665123359,-0.9900654306,-2.297196952,-1.1019308772,-1.7744591694,39.4842687376,-0.904065695,-2.3483901456,-0.0903715582,0.0691962127,-5.2688092734,0.0576605402,12.567396237,-0.0046808859,0.0696962636,0.2307981037,5.82875567,0.0260514144,0.0793690642,-0.1546908948,2.3026865663,-0.029261772,0.0666762058,-0.1692467849,2.638047856,0.0172513656,0.0160419862,-0.1408416414,-0.0750241718,15.6561258693,2.2795172812,5.5049609096,-16.9139675246,7.8661005434,-13.5861255375,-0.031228626,-0.7057046809,-0.6622905682,0.014448054,1.4200283972,0.3039215109,-2.139755285,0.0922619797,-0.1412721323,4.6395334078,10.024677891,0.2520531274,-0.0062736673,0.628132159,-1.7991568325,0.0893896375,-0.2893788557,0.2970463698,-2.5911473589,0.0515545166,0.1838908978,0.4078938663,5.7561224435,19.2308184649,-10.9532951843,70.3922792818,-45.5919899094,3.5594453212,34.5377482439,-0.0571914734
biasActivation=0,1,1
[BASIC:ACTIVATION]
"org.encog.engine.network.activation.ActivationElliottSymmetric",1
"org.encog.engine.network.activation.ActivationElliottSymmetric",1
"org.encog.engine.network.activation.ActivationLinear"
