encog,BasicNetwork,java,3.3.0,1,1469374826724
[BASIC]
[BASIC:PARAMS]
[BASIC:NETWORK]
beginTraining=0
connectionLimit=0
contextTargetOffset=0,0,0
contextTargetSize=0,0,0
endTraining=2
hasContext=f
inputCount=28
layerCounts=2,16,29
layerFeedCounts=2,15,28
layerContextCount=0,0,0
layerIndex=0,2,18
output=0,0,0,0,0,0,0,0,0,0,0,0,0,0,0,0,0,1,0,0,0,0,0,0,0,0,0,0,0,0,0,0,0,0,0,0,0,0,0,0,0,0,0,0,0,0,1
outputCount=2
weightIndex=0,32,467
weights=-1.2560486864,-0.812590964,-0.1954285877,-1.4118343551,-0.6147551333,0.6659271772,-0.3277516118,-0.7010357285,0.455764319,0.5248250477,1.7001290828,-1.7575579872,-0.7568277427,-0.6889986657,0.5571827968,0.3324426684,0.0511251522,0.5633508299,1.486580656,0.9584490668,-0.5253304348,-0.7793297899,1.4378141962,0.8852432528,-0.8239728934,-0.3857287379,-0.3966831656,-0.5221278459,0.3623397131,-1.0985181601,1.3229662342,-0.514528793,4.94282242,0.0920287078,0.217961335,3.8773777317,0.2884068827,-9.0757699049,-0.2730504693,0.2378254063,0.7676308671,-2.4477922245,-0.2193762934,0.2058228666,0.4571653945,-3.1426377611,0.4173157804,0.189820277,0.3492775938,-4.1306193032,0.1256001292,0.1057276,0.3370112391,3.0635118196,-8.2815035734,-2.0737221815,-7.8167772077,0.1417074565,-11.4275344952,30.7321292939,-0.4441867038,2.1346448814,0.1173130272,-0.2839422241,1.4892727207,-0.2119646957,-3.2248990264,-0.310046912,-0.2203358674,-0.2212363859,0.435727045,-0.0631148144,-0.1689783436,-0.0347680146,0.3679932218,0.2032810272,-0.180457993,0.0117805818,1.0434756059,-0.2014949984,-0.1786268005,-0.0292841425,-26.9109908316,22.7759295912,-3.2194119491,-11.7135101689,-0.9171406885,67.3345061028,-30.2255869228,1.1954696806,-7.9768318989,0.1518348304,0.0009294404,-7.7107479062,-0.0758186308,22.3600221199,0.1374283978,0.1374371342,1.7245754339,-2.5524575329,-0.3208141351,0.0819499904,-0.1706109418,-0.7591312839,-0.195358958,0.0913297813,-0.1914678327,-0.6399768134,0.0352973808,-0.0540896736,-0.3104216762,-3.1397650822,24.6807508379,5.4610223463,0.3336953616,-11.2407194007,-35.7923850649,31.9035542737,0.9497833472,7.0706766061,-0.1010130463,0.1263231737,5.3514907002,0.1801798757,-3.2056040337,0.2335178103,0.1898358685,0.4863480964,-1.0274775447,0.1498907488,0.137432888,0.5028927437,1.3159771795,-0.0061191648,0.1732405869,0.4015084509,1.8711350217,0.0622272276,0.1304535381,0.2440541667,-4.3764527165,4.9832491259,-10.3775376206,14.0028813151,-127.780685895,2.4726358727,-2.9024044638,4.0656276158,2.7864602669,-0.0181769921,0.0543555388,2.3198795337,0.0566622895,-3.5671153143,0.259638782,0.072914661,0.1921057099,-2.1307188569,0.1102210519,0.0378285702,0.2552958702,-0.4639452053,-0.1028595045,0.0341901422,0.3223511358,-0.6469375367,0.0879214545,0.0849374581,0.3157640212,-3.4323298674,-20.622577995,-0.0984113409,4.1339338724,-18.6918459115,-2.720384977,2.1298476095,1.5104752754,-1.5592649453,-0.1025429705,-0.1667911398,-2.0632413525,-0.1289924796,2.3074429033,-0.1623951313,-0.1858212413,-0.0711302316,0.19085675,-0.1610290231,-0.1855431066,-0.1424763946,-0.0111025011,0.0698771375,-0.1616952305,-0.2136923132,0.8138583175,-0.1217800693,-0.1583873016,-0.2745499824,-60.8040105467,82.0642240074,-0.576699782,1.4258897325,-1.6614256878,-4.4155882498,2.8762035702,-1.3450183938,11.2746554517,-0.1457966622,-0.1132442592,7.3414940726,0.0448142759,-6.5579750417,-0.1624796974,-0.1415724959,-0.4989103987,-1.9235262157,-0.0036183529,-0.1451650314,-0.1521856122,-0.1121914781,0.0050518419,-0.0989682276,0.1086575245,0.7303984339,-0.1448636649,-0.089618238,0.3041255227,-11.1503423006,-35.0156584602,-1.9794910253,-8.5828307042,34.7501552007,2.8287997314,14.0606063773,-3.065613002,-0.2198743414,-0.319620404,0.2209012023,4.9731898112,0.2027384814,-6.9463434112,0.2569745149,0.2208945789,0.6160824401,-6.7179975657,0.1542456438,0.1878513474,0.7433155669,-1.8112270116,0.1375764188,0.1662520221,0.6352914255,-1.0987558523,0.15551929,0.1540461504,0.5399953123,-19.1643955512,22.5420682608,-2.0276704894,25.0892772422,48.4173055823,-160.8629708154,5.5611262764,3.2320004034,13.4750274244,0.105258697,-0.0154192466,11.9398230767,-0.0042834307,-7.9279424687,0.0075036374,0.0429088564,0.6454032187,-9.6966835176,-0.0316004689,-0.0266290472,0.0816428998,-1.5578033551,-0.0987283295,0.0341086476,0.136331436,0.1155683271,-0.0319832479,-0.0286695123,0.2000771479,13.8882449658,-12.9518114275,-8.6272499125,-5.4890261886,5.2471204755,0.873621538,-24.9450056379,0.5316614275,2.1498859562,0.0245788468,0.1190795702,0.8561801925,0.2995074696,1.8893121505,0.0431654798,0.1968358656,0.3080102747,1.5042804679,0.170167883,0.2423984484,0.1806732117,2.2747299292,0.2248184132,0.2337329737,0.1006701594,2.7565889018,0.0015478445,0.0839727495,0.0276615403,185.9128371655,-212.8228019831,-0.1755804899,16.5695844292,-3.7196710158,14.8415510077,-19.527503929,1.2772392646,0.7424173703,-0.0547109287,0.0638240152,-2.5318343911,0.0636714817,6.9088889767,0.1459758918,0.0800367854,0.4122146713,4.5625978624,0.1391284667,0.0467264078,0.2447589792,1.8620817316,-0.0063146769,0.0441867759,0.2077199518,1.4678535558,0.036734945,0.0646676874,0.1464329954,-27.1528429346,19.4808143787,1.0055009257,10.1772489118,-86.7030953801,26.7830830638,-15.935784016,2.3214059863,-15.8785066935,0.0490079319,-0.4938999156,6.4253084746,-0.4884083951,-5.5719785261,-0.0094758535,-0.529865141,0.095015167,-8.4101853917,0.2549752195,-0.3366852491,0.1101303922,-0.7241506591,-0.2053832236,-0.377527302,0.2364583456,1.9252211809,-0.6281826289,-0.3074204559,0.2412461334,8.2894367341,-9.8990153217,-0.889706165,12.2843188049,26.6345962702,-3.0642294179,-42.7163519908,0.187469499,-2.5526852338,-0.0186732877,-0.2372067393,-5.1825542527,-0.254020665,2.3951808457,0.0390428564,-0.2808561652,-0.5570855143,0.9539606313,-0.0365301596,-0.2544302318,-0.3407115034,0.7437533159,-0.2841995072,-0.2528073424,-0.3125655397,-0.1012862258,-0.0640438234,-0.181773886,-0.3154855195,-1.9564087253,-1.0661272097,-0.9907850828,-2.6574140463,-1.1020050325,-1.7738356053,39.902013897,-0.9231611275,-2.1403755947,-0.0851373448,0.0561303431,-5.1983606759,0.0515777252,12.3916495602,-0.0047359199,0.0694028604,0.230235131,5.6612997402,0.0219116687,0.0592564983,-0.1557283142,2.2801680887,-0.0291674519,0.0517214663,-0.1769612178,2.5864886369,0.0129913702,0.015830239,-0.1482518339,-1.024608993,15.6560072707,2.345195919,6.0394321477,-17.2158457417,8.2367503881,-13.5859625241,-0.03104954,0.2404762251,-0.0541107687,0.0088770297,0.7983599119,0.1486116552,-1.153442479,0.090859463,0.0150599842,4.5914541852,8.1923082352,0.2660369229,-0.0079703087,0.6242670662,-1.7138849409,0.1068886473,-0.2560374965,0.1971755122,-2.591123434,0.0511147405,0.1839409286,0.2070783171,-1.7226088333,19.4178372921,-11.0232680981,70.3906984082,-45.5922730738,4.3834701618,34.5396789947,-0.1134737689
biasActivation=0,1,1
[BASIC:ACTIVATION]
"org.encog.engine.network.activation.ActivationElliottSymmetric",1
"org.encog.engine.network.activation.ActivationElliottSymmetric",1
"org.encog.engine.network.activation.ActivationLinear"
