encog,BasicNetwork,java,3.3.0,1,1469375146091
[BASIC]
[BASIC:PARAMS]
[BASIC:NETWORK]
beginTraining=0
connectionLimit=0
contextTargetOffset=0,0,0
contextTargetSize=0,0,0
endTraining=2
hasContext=f
inputCount=28
layerCounts=2,16,29
layerFeedCounts=2,15,28
layerContextCount=0,0,0
layerIndex=0,2,18
output=0,0,0,0,0,0,0,0,0,0,0,0,0,0,0,0,0,1,0,0,0,0,0,0,0,0,0,0,0,0,0,0,0,0,0,0,0,0,0,0,0,0,0,0,0,0,1
outputCount=2
weightIndex=0,32,467
weights=-1.3547925658,-0.8427537666,-0.2045575493,-1.4802174905,-0.460314582,0.7801421611,-0.2997632894,-0.6982256568,0.5515624441,0.5232613092,1.7453821605,-1.9235031588,-0.658756084,-0.6276709423,0.5556159099,0.3323289579,0.0884766945,0.5637003679,1.4862923823,1.0229035352,-0.673746583,-0.8482718301,1.4635117703,0.8868947555,-0.8245851787,-0.4063347047,-0.2882766899,-0.5175172534,0.3620274694,-1.3155997836,1.4976047301,-0.5125469439,5.2030922195,0.0814548008,0.1951933545,3.8799461905,0.2497193918,-9.6672152202,-0.2326298156,0.2349133248,0.7474700437,-2.4475573299,-0.1790119837,0.1602689562,0.4491647613,-3.1421971552,0.346924482,0.1759931754,0.3441362882,-4.0757019262,0.1251636422,0.1134448553,0.3206411258,3.1534491325,-13.0590572036,-3.4887851241,-8.3237556188,0.4603832561,-11.4278457229,34.1039510496,-0.0772010855,2.5115083583,0.0567042839,-0.2049696278,1.7916743973,-0.1711209738,-3.2148011432,-0.2525256144,-0.1659451191,-0.201552729,0.4362163331,-0.0625536183,-0.1206314623,-0.0345370484,0.7732032753,0.1757376836,-0.1413557938,-0.0103530895,1.2134120725,-0.1472669293,-0.1450716688,-0.0339192856,-25.9197118669,22.7771910751,-3.0289126733,-12.7399055368,-3.0707119234,67.3342607665,-31.4371506665,1.1403363067,-7.2777599239,0.0735443691,0.0004939559,-7.4065880688,-0.0728780352,22.5561670728,0.1369145445,0.0953274134,1.1337753912,-2.861472666,-0.3198438856,0.0726593911,-0.2429659008,-0.4930484216,-0.1950742003,0.0467811209,-0.2482414573,-0.4720736364,0.0351569869,-0.054127406,-0.3428640589,-5.3854594067,24.985706498,5.4603656236,0.3335006237,-11.2424031685,-23.8645767653,19.9882111848,0.8991325796,6.6594116986,-0.0743487448,0.1057521279,4.9873826628,0.1449949724,-3.1969778653,0.1746703583,0.168901085,0.445382577,-0.6674473906,0.1492347735,0.1122695705,0.4464037007,1.2129465633,-0.0135949514,0.1584632438,0.3531765406,1.6646250942,0.061078546,0.1184289624,0.2220687813,-6.4421442225,6.5446348193,-10.3764394873,13.9383622044,-121.3272114777,2.4346359132,-3.4998258583,4.0784827333,2.9090444777,-0.0113817999,0.0522112927,2.3201570397,0.056427212,-3.2265052925,0.1707540856,0.0730854937,0.197910909,-1.828101822,0.1108368277,0.0383002704,0.2742293974,-0.4218104929,-0.0745479875,0.0332829833,0.3414379444,-0.5649267459,0.0848120598,0.0736796519,0.3197063915,-5.4100230388,-16.1019286614,-1.165958354,2.8319030529,-24.4779220537,-4.698592427,7.3982676734,1.5546195403,-1.0744282527,-0.0832475101,-0.1174135304,-1.5008507517,-0.1117861875,1.7921356789,-0.1220609528,-0.1341281975,-0.0605897476,-0.0759666357,-0.1404097317,-0.1304915862,-0.1100481935,-0.0120371334,0.0539437493,-0.1202422586,-0.1887482696,0.7066633299,-0.0844279779,-0.1109700202,-0.2392428014,-59.8675955772,82.0666255303,-0.5762514049,0.8961307557,-0.7025439524,-1.2892831125,1.0165971237,-1.6803614006,11.3983260434,-0.1427829803,-0.0862938901,7.7315562837,0.0443624608,-7.144769507,-0.1515405888,-0.1072046767,-0.4982719794,-1.7851788429,0.0580490922,-0.1299876507,-0.1504033725,-0.2404049388,0.0050683421,-0.0781976283,0.0967307524,0.5977266153,-0.0931122785,-0.043080045,0.3044504287,-10.2369922365,-35.016241565,-1.9686356125,-8.5832396466,34.7403911934,2.8015891536,15.0394999683,-3.3318086704,-0.0258827968,-0.2475107107,0.1825941284,4.7777975965,0.1488033185,-6.9866478934,0.2559693717,0.1666400694,0.5092247255,-6.7260669556,0.111672703,0.1594231136,0.6631454693,-1.812551963,0.0508371487,0.1158591572,0.572085036,-1.1004203631,0.1336383826,0.1520006895,0.4873753417,-20.7683981947,22.5410978184,-2.0298667291,24.9963253411,48.4264282482,-155.1656741199,5.5614890762,3.2337859781,13.3836897846,0.1038845974,0.0268089489,12.1358246961,0.0146269825,-8.7247942003,0.0150944023,0.0682670796,0.5719763996,-9.7211318974,-0.0310741277,-0.0078574948,0.0819134837,-1.5482342299,-0.0522869315,0.0692370735,0.1404482267,-0.0549167498,-0.0031616537,-0.0117492293,0.2010246782,15.2833840387,-14.5921435745,-8.639640288,-5.6241295106,3.1920923026,0.8743031997,-24.9431080286,0.6646869293,1.580861572,0.0115018216,0.1190296402,0.84130244,0.2567140815,1.890071413,0.0424632468,0.1629757622,0.2457865327,1.5043210619,0.1340983404,0.2091016937,0.0947125307,2.2731438872,0.1485656161,0.1830101907,0.0087223684,2.7578063948,-0.0036573786,0.0847754024,-0.0812611511,185.9159531963,-212.8229084529,-0.1916297588,13.0027657963,-2.9952520733,14.840405327,-17.2513618232,1.749078291,0.7360933661,-0.0528209812,0.0548242568,-2.2727729835,0.0622460047,6.3944450869,0.0862776749,0.068433456,0.428203888,4.3540617212,0.1388736375,0.042385181,0.2532641843,1.8786110308,-0.006756545,0.0374734811,0.2086091668,1.4647775038,0.0337681167,0.0567031762,0.1475371307,-27.1511740655,19.4807410519,-0.2002168716,9.8448235746,-86.7077231778,27.1275361917,-15.9242918084,2.5271951761,-11.4071758569,0.0308304728,-0.3457431034,5.492115098,-0.348212525,-5.5739397849,0.0803440033,-0.3951520504,0.063664803,-8.4090755278,0.1997820379,-0.2173550338,0.0399336296,-0.7260143636,-0.2047381196,-0.2832086942,0.1195643735,1.5878070933,-0.4018216816,-0.2488763411,0.0718491237,12.3028263844,1.7130460845,-2.5661852835,13.7709999472,20.1639646397,-3.0643225251,-40.8803953499,0.1873480306,-2.0205775451,-0.0184034103,-0.1847707847,-5.1805420866,-0.2114945138,2.3708381061,0.0236031937,-0.2737004094,-0.5097961598,0.9549810896,-0.036925225,-0.2037977881,-0.2485961177,0.9392389855,-0.2291147035,-0.2315083445,-0.2179188524,-0.1006471046,-0.0640857648,-0.1812741236,-0.2257854403,-5.2137217587,2.36641506,-0.991587494,-5.3019469145,-1.1027820219,-1.772477743,49.2934489556,-2.0024045092,-1.8329423496,-0.0772812389,0.0326012573,-5.0513213692,0.027608642,12.1937833262,-0.0049107894,0.0387472242,0.1966300599,5.3020142975,0.0018054241,0.0349755232,-0.1719894748,2.0848876781,-0.0290256134,0.0286026211,-0.1920749615,2.2657654887,-0.0047123652,0.0146414485,-0.1524233973,-5.3580610305,15.6541999676,2.697718484,6.0428686728,-17.5239530028,9.9319939102,-13.5859716186,-0.0311772489,0.8587010863,-0.0257970653,0.0002922082,0.7604463059,0.0727305522,-0.8858294782,0.0557913108,0.1404913773,4.2626251304,8.0859420327,0.1419738346,-0.0087937173,0.591982947,-1.6861044621,0.3531909737,-0.145342829,0.1741541429,-2.0488985423,0.025412549,0.1859393932,0.1751368479,-5.3420894642,24.1249758799,-12.552086442,70.3782674524,-45.5965271443,5.0909644269,34.8910412778,-0.1324731907
biasActivation=0,1,1
[BASIC:ACTIVATION]
"org.encog.engine.network.activation.ActivationElliottSymmetric",1
"org.encog.engine.network.activation.ActivationElliottSymmetric",1
"org.encog.engine.network.activation.ActivationLinear"
