encog,BasicNetwork,java,3.3.0,1,1469375186024
[BASIC]
[BASIC:PARAMS]
[BASIC:NETWORK]
beginTraining=0
connectionLimit=0
contextTargetOffset=0,0,0
contextTargetSize=0,0,0
endTraining=2
hasContext=f
inputCount=28
layerCounts=2,16,29
layerFeedCounts=2,15,28
layerContextCount=0,0,0
layerIndex=0,2,18
output=0,0,0,0,0,0,0,0,0,0,0,0,0,0,0,0,0,1,0,0,0,0,0,0,0,0,0,0,0,0,0,0,0,0,0,0,0,0,0,0,0,0,0,0,0,0,1
outputCount=2
weightIndex=0,32,467
weights=-1.3550333076,-0.842987383,-0.2050353206,-1.487706709,-0.4394656596,0.80393026,-0.2900140407,-0.6982997803,0.5869003516,0.5232229645,1.7561589123,-1.9678713929,-0.6624599035,-0.6230788007,0.5554019851,0.3322953744,0.1119116632,0.563809066,1.4862826246,1.0270343204,-0.6945455426,-0.8512903935,1.4639928395,0.8867467606,-0.8247647427,-0.4081341619,-0.2565381953,-0.5173467296,0.3762215831,-1.3507655228,1.5038240964,-0.5113646295,5.2031212397,0.0798151069,0.1831825933,3.8800338612,0.2496277133,-9.7554545645,-0.1928246088,0.2345264698,0.7401517792,-2.4474041699,-0.1787827732,0.1600365164,0.4462536714,-3.1420459839,0.3443562837,0.1712926326,0.334615255,-4.0755737046,0.1250831721,0.1136822595,0.3205987901,3.1585330033,-13.8076024333,-3.5580950753,-8.3392251415,0.702218177,-11.4277524347,34.228621448,-0.0704636004,2.5114389112,0.0563863527,-0.2047442946,1.8479920616,-0.1586214674,-3.2146616765,-0.2466968949,-0.1503358405,-0.200192031,0.4361281222,-0.0623784658,-0.1189543423,-0.0347685848,0.9440543362,0.1735553691,-0.1411453344,-0.0115033685,1.254000681,-0.1470905768,-0.1446887748,-0.0339883352,-25.904649935,22.7774601405,-2.0781843312,-12.7416182933,-3.7005963878,67.3343609855,-31.4371093525,0.9657611182,-7.2743489702,0.0630148446,0.000369382,-7.404912396,-0.0728168528,22.5562845414,0.1368626241,0.0691145831,1.0518921593,-2.8624159962,-0.319633996,0.0700513602,-0.2434273454,-0.4641913526,-0.1950313375,0.0460189335,-0.2565533496,-0.4707135056,0.0351520787,-0.0541536156,-0.3430060736,-5.6134758608,25.0208756423,5.4602912409,0.3331617618,-11.2424307297,-23.3423889892,19.816627504,0.8869913555,6.5473701821,-0.0741271004,0.1052537535,4.9660511866,0.1448757447,-3.0138426038,0.1712776834,0.1668204459,0.438338713,-0.2472032159,0.1491155458,0.1121535293,0.4329779429,1.2129524566,-0.0143196669,0.1577614894,0.346923391,1.6643559445,0.0610077019,0.1155470281,0.212352568,-6.4542162714,6.5449831647,-10.3763157316,13.5073658751,-120.5240040293,2.4344917228,-3.4997984913,4.0787864766,3.0616583074,-0.0113481856,0.0520153335,2.3199780062,0.0564053629,-3.1894902186,0.1700286336,0.0726758426,0.2018203591,-1.673288891,0.1108075721,0.0382855459,0.2939056251,-0.4218497199,-0.0737970681,0.0332904236,0.3515834294,-0.5650521959,0.0843314503,0.06242873,0.3264478273,-5.8497894264,-14.6962157391,-1.2138661789,2.1091912762,-26.7733316438,-4.6987175082,8.6496461194,1.5546852842,-1.0251482342,-0.0831651476,-0.1172574229,-1.4392303568,-0.1117657198,1.7572908787,-0.1219174624,-0.1339955166,-0.0577227236,-0.0762637303,-0.140317815,-0.1304311418,-0.109983393,-0.0154928331,0.0533083406,-0.1194988968,-0.1887946278,0.5753108956,-0.0841356893,-0.1109181898,-0.239256113,-59.8342844153,82.0666491898,-0.5762054676,0.8958562353,-0.7013678743,-1.1067204954,1.016469264,-1.6910880606,11.3995986932,-0.1426322253,-0.085903248,7.7317252393,0.0443226704,-7.1568083175,-0.1514138422,-0.1068177294,-0.4978217402,-1.6605876195,0.07414256,-0.129426078,-0.1503542182,-0.2404954643,0.0050280237,-0.078071402,0.0966045252,0.597326227,-0.0926311835,-0.0420985253,0.3044643417,-9.9835365608,-35.0168473136,-1.9685804425,-8.5832759454,34.7196820258,2.7983792655,15.039732647,-3.3660516552,-0.0253490892,-0.24531106,0.1822541647,4.7775936847,0.1487166609,-6.986666987,0.2558522975,0.1664820523,0.5029981736,-6.7259703664,0.1115856458,0.1591288818,0.6630085427,-1.8125093971,0.0507037024,0.1155448138,0.5716416173,-1.1004441187,0.1332555041,0.1517290879,0.4867259867,-20.7687694695,22.5410464117,-2.0301681221,24.8277360542,48.4265856285,-154.8284084431,5.5616530874,3.2347472698,13.3296225323,0.1037138066,0.0271987685,12.1395226427,0.0147639995,-9.2082361372,0.0152665537,0.0685427555,0.5714489029,-9.9517373958,-0.0310152982,-0.0076037913,0.0818813853,-1.5483421443,-0.0517544589,0.0695671584,0.140364579,-0.0549828611,-0.0007298601,-0.0113507863,0.2010767218,15.7717717572,-14.8715814645,-8.6410491457,-5.6245883148,3.1778354901,0.8742663366,-24.9431260346,0.6704019166,1.5765533043,0.0113044661,0.118980643,0.8387479701,0.2526485669,1.8904159989,0.0423822299,0.162818515,0.2339285733,1.5044645137,0.1338872604,0.208462739,0.0946339457,2.2676800476,0.1482963211,0.1829288585,0.0083386916,2.7578532076,-0.0038014336,0.0848312637,-0.0898643999,185.9157676656,-212.8230254345,-0.1945579999,11.983886593,-2.7141914449,14.8390050255,-17.1970787572,1.851783606,0.7349604559,-0.0520806585,0.0546584599,-2.2078873238,0.061724198,6.3241388137,0.0861373519,0.0683708411,0.4289241916,4.3540346231,0.1388985291,0.0422520248,0.2541718676,1.8852347078,-0.0067609697,0.0371944444,0.208787159,1.4648941071,0.0334095168,0.0562050602,0.1476859198,-27.0326298861,19.4866756955,-0.4536370407,9.6077948946,-86.8180464967,27.2804372806,-15.9237614761,2.5692028448,-9.6021127421,0.0307141936,-0.2978024259,5.4373893561,-0.3087228763,-5.5737922631,0.0810374974,-0.3584276783,0.0636193514,-8.3943403441,0.1977630521,-0.2054663768,0.0390718404,-0.7260036543,-0.204646713,-0.2627644307,0.1072829533,1.3334231551,-0.3657104118,-0.2195595381,0.0663708119,12.3341034829,2.0919722125,-2.9695051996,14.267627618,19.2361141022,-3.0643123977,-40.261405667,0.1873675435,-2.015068153,-0.0182860331,-0.1768616764,-5.1802033451,-0.210199108,2.2290669528,0.0226218397,-0.2612366965,-0.4883331684,0.9550744353,-0.0369731036,-0.202949766,-0.2260041902,0.9396887791,-0.2161455586,-0.214290418,-0.1958488254,-0.1004908877,-0.063989684,-0.1810894548,-0.215353675,-6.5923087704,3.9438277452,-0.9916907977,-6.4789381326,-1.1709107364,-1.7723614553,49.4818480654,-2.0147157436,-1.7806574566,-0.0772927703,0.0299833213,-5.015696963,0.0252869704,12.1936267718,-0.0049529334,0.0360293482,0.1936813562,5.3018990716,0.0007983403,0.0339684395,-0.1780857218,2.0847654995,-0.0290812102,0.0284336601,-0.1923141465,2.2653770674,-0.0049453563,0.0144621266,-0.1525796678,-6.1799566094,15.6537503434,2.6979237959,6.0433681094,-17.5240959248,10.1431364634,-13.5859625672,-0.0313170597,0.8616477641,-0.0257032139,-0.0009991984,0.7570922407,0.0711036086,-0.8789091029,0.0557164913,0.1420070731,4.2630848382,7.7398986327,0.1420164032,-0.0088987899,0.5919064244,-1.6860516702,0.3531861704,-0.1453028308,0.1747683743,-2.0489868671,0.0245529768,0.1859997737,0.1779365129,-5.3423678281,24.1259084626,-12.5560286514,70.3781558563,-45.6974815021,5.1408999775,36.3523151791,-0.1325057736
biasActivation=0,1,1
[BASIC:ACTIVATION]
"org.encog.engine.network.activation.ActivationElliottSymmetric",1
"org.encog.engine.network.activation.ActivationElliottSymmetric",1
"org.encog.engine.network.activation.ActivationLinear"
