encog,BasicNetwork,java,3.3.0,1,1469375226081
[BASIC]
[BASIC:PARAMS]
[BASIC:NETWORK]
beginTraining=0
connectionLimit=0
contextTargetOffset=0,0,0
contextTargetSize=0,0,0
endTraining=2
hasContext=f
inputCount=28
layerCounts=2,16,29
layerFeedCounts=2,15,28
layerContextCount=0,0,0
layerIndex=0,2,18
output=0,0,0,0,0,0,0,0,0,0,0,0,0,0,0,0,0,1,0,0,0,0,0,0,0,0,0,0,0,0,0,0,0,0,0,0,0,0,0,0,0,0,0,0,0,0,1
outputCount=2
weightIndex=0,32,467
weights=-1.3567836625,-0.8585342501,-0.2056579799,-1.5511558113,-0.3877396516,0.814828837,-0.2829528497,-0.6945261327,0.5910582621,0.524626963,1.7947041586,-1.9982869177,-0.665265281,-0.6153163508,0.5552586548,0.3322226795,0.151331313,0.5637662071,1.4861933529,1.0496353193,-0.7651606581,-0.8468282512,1.4641748762,0.8867124294,-0.8248403483,-0.4074271554,-0.2220199599,-0.5171714808,0.3933429287,-1.4539444044,1.5615383808,-0.5083111113,5.2031776264,0.0745792727,0.1797205045,3.880117408,0.2381567392,-9.9097271303,-0.1922506778,0.2211676908,0.7224144392,-2.4473872251,-0.1786478706,0.1499852323,0.4366787066,-3.1422379125,0.3187326404,0.1587251285,0.3336818848,-4.0756529528,0.1248642856,0.1138603394,0.3206391123,3.4624290359,-14.6672645511,-3.6739351205,-8.4758665791,0.8175239366,-11.427798223,34.3673997,0.0264617206,2.5113813933,0.0562567378,-0.203535518,1.8626527741,-0.1567694163,-3.214185263,-0.2392670783,-0.1501525831,-0.1924542661,0.4358543646,-0.0618262958,-0.1087813283,-0.0345358475,0.9567762366,0.1733260439,-0.138852521,-0.0116256943,1.2597499973,-0.146296662,-0.1364060116,-0.0340509039,-25.5120032431,22.8059029618,-2.0776242954,-12.8592270556,-3.9960045195,67.3344156567,-31.4368871659,0.9613876916,-7.2076462712,0.0309420036,-0.0003805473,-7.4047476882,-0.0729487798,22.5564632607,0.1367277121,0.0667063206,1.0233076687,-2.8636241965,-0.3194486948,0.0683318812,-0.2581689644,-0.2775734088,-0.195129599,0.0449141018,-0.2567824686,-0.1932051204,0.0350270822,-0.0543298782,-0.3429786928,-7.4116446634,25.3582229045,5.4601059972,0.3329694357,-11.2426834361,-23.143892514,19.3907277886,0.8845830929,6.436784229,-0.0738574906,0.1050912114,4.8622715314,0.1437280872,-2.8013233074,0.1684732102,0.1596849829,0.4378247687,-0.2471923663,0.1490310219,0.1112701485,0.4301665993,1.2128934136,-0.0242505015,0.1527548062,0.3441432801,1.6641815815,0.0609669598,0.1125668425,0.2108427675,-6.4992018935,6.5451875599,-10.3762284899,13.390648939,-119.2408108347,2.4344569561,-3.4998495134,4.0789795092,3.0699798018,-0.0113007044,0.0519445889,2.3198299117,0.0564331336,-3.1572473494,0.144472712,0.0726205307,0.2150171047,-1.6720109319,0.1107939903,0.0383111836,0.2989993674,-0.4218007594,-0.0733179449,0.033231102,0.3538748962,-0.5651304555,0.0841365172,0.0613595221,0.3267521115,-6.1555948369,-13.1143105505,-1.6529532486,1.6148280242,-27.9857719206,-4.6986564986,10.0453238526,1.5547613319,-0.9457526979,-0.0806732964,-0.1120153693,-1.3765612339,-0.1092766454,1.6348662522,-0.1200984593,-0.1293115791,-0.0525443149,-0.0766477965,-0.1393797619,-0.1239431733,-0.1098519848,-0.0255022981,0.0527925797,-0.1126968348,-0.1886888622,0.5568764354,-0.0816438382,-0.1077704237,-0.2390828923,-59.8340210623,82.0667027807,-0.5761279519,0.8956380659,-0.6952580266,-0.5836432457,1.016303619,-1.7512026164,11.4173568029,-0.1425087193,-0.0835258206,7.7349374448,0.0442443667,-7.1583746405,-0.1512454794,-0.1034326376,-0.497264378,-1.6548798674,0.0851910734,-0.1276143767,-0.1502336926,-0.2405234882,0.004982951,-0.077225132,0.0964671873,0.5972675962,-0.0922851167,-0.0367203764,0.3048410224,-9.9825305841,-35.0168879679,-1.9683818519,-8.5832167811,34.2783548608,2.7972851821,15.2809175351,-3.3705190461,-0.0192261589,-0.2439761292,0.1784590338,4.7680127103,0.146560939,-6.9865642017,0.2557090236,0.1659604907,0.4987199397,-6.7256887737,0.1114724848,0.1568774481,0.6600415492,-1.8125253664,0.0488072374,0.1134465205,0.5712321382,-1.1004130218,0.1319288388,0.1512048887,0.4865060095,-20.7689000484,22.5410207912,-2.0327512486,24.4435381225,48.4300743982,-154.2831088192,5.5616767198,3.2371311613,13.2519267407,0.1034286684,0.0329667841,12.1805525322,0.0195706791,-9.2191649001,0.0157001645,0.0703315556,0.57073028,-10.4374420983,-0.0307310757,-0.0037479252,0.0820658106,-1.5484211318,-0.0496647713,0.0729650408,0.140369007,-0.0553046762,0.0027413891,0.0058367636,0.2010599719,16.4378659093,-14.8815270481,-8.6413734352,-5.6250065195,2.9725173216,0.8742566841,-24.9430771959,0.6711404887,1.568161249,0.0111820841,0.1189833574,0.8383327683,0.248253982,1.8905278306,0.0423049765,0.1623949027,0.233805052,1.5045956159,0.1332471352,0.2054453717,0.0924470559,2.2357454573,0.1477540908,0.1827706518,-0.0026216364,2.7578914915,-0.0039409838,0.0849167863,-0.1057928976,185.4493629817,-212.8235871226,-0.1948930283,11.9526340356,-2.3420070715,14.8386506061,-17.1945161762,1.8536347202,0.7270049267,-0.0513230257,0.0544120225,-2.1300774679,0.0615173575,6.2389374552,0.08504115,0.0683418077,0.4355879642,4.3540686169,0.1388984029,0.0422015243,0.254495934,1.9304647609,-0.0069902802,0.0354914207,0.2088109894,1.5164372865,0.031363986,0.0550675837,0.1462378248,-25.9423185447,19.8160492689,-0.4547129428,9.0664100265,-87.8935975002,27.2840446078,-15.923148777,2.603485491,-8.725213304,0.0306471897,-0.2646471567,5.1849901998,-0.2883083697,-5.5737079694,0.0812170791,-0.3122543922,0.0636889978,-8.2044115759,0.1898060512,-0.1798537441,0.0378231672,-0.7260228882,-0.2036525709,-0.2223765015,0.0966956627,1.2661857711,-0.350978807,-0.1910423058,0.0632891584,12.3354944026,2.0925469821,-3.0230689519,14.2681438737,18.3877701556,-3.0643051526,-39.5789456321,0.1873972047,-2.0145989071,-0.0182296821,-0.1763879839,-5.1784787134,-0.2100234911,2.2228354993,-0.0023701849,-0.2610758059,-0.4799657025,0.955133241,-0.0369900229,-0.2029236268,-0.2187546178,0.9398466426,-0.2157205202,-0.213768159,-0.1952672267,-0.1004103342,-0.063860073,-0.181029482,-0.2150244874,-6.8923551711,4.5422080758,-0.9917283334,-6.4806033505,-1.6690736205,-1.7722514065,50.0458902751,-2.0587256324,-1.7253249192,-0.0772289823,0.0290232453,-4.9362115041,0.0251679462,12.193267186,-0.0049266174,0.0358786439,0.1924316088,5.3017996854,0.0004059415,0.033500574,-0.1781305814,2.084637211,-0.0289660297,0.0281562143,-0.1925766272,2.235402764,-0.0050352247,0.0143825458,-0.1576408785,-6.6091331727,15.6534395536,2.699710708,6.0461596268,-17.5242033048,10.3092548155,-13.5858875945,-0.0312907437,0.8647907765,-0.025633754,-0.0031123813,0.7494082033,0.0594790878,-0.8689856292,0.0557310778,0.1424436119,4.2630632831,7.5440616549,0.1420384925,-0.0089776445,0.5920101447,-1.6860435329,0.3531159155,-0.1450825181,0.1748707203,-2.0489555526,0.0238735111,0.1861167786,0.1781195203,-5.3423968438,24.126364943,-12.5601660455,70.3780784476,-46.1140800898,5.1422585097,38.5771828618,-0.1325511778
biasActivation=0,1,1
[BASIC:ACTIVATION]
"org.encog.engine.network.activation.ActivationElliottSymmetric",1
"org.encog.engine.network.activation.ActivationElliottSymmetric",1
"org.encog.engine.network.activation.ActivationLinear"
