encog,BasicNetwork,java,3.3.0,1,1469374147392
[BASIC]
[BASIC:PARAMS]
[BASIC:NETWORK]
beginTraining=0
connectionLimit=0
contextTargetOffset=0,0,0
contextTargetSize=0,0,0
endTraining=2
hasContext=f
inputCount=28
layerCounts=2,16,29
layerFeedCounts=2,15,28
layerContextCount=0,0,0
layerIndex=0,2,18
output=0,0,0,0,0,0,0,0,0,0,0,0,0,0,0,0,0,1,0,0,0,0,0,0,0,0,0,0,0,0,0,0,0,0,0,0,0,0,0,0,0,0,0,0,0,0,1
outputCount=2
weightIndex=0,32,467
weights=-1.0141935269,-0.7025418428,0.4412256271,-0.842451699,-0.3080526821,0.4347409617,-0.3403803255,-0.5264070645,-0.226078748,0.5328919741,1.1083166646,-0.5684079993,-0.0434688294,-0.0895375876,0.5572183586,0.3323003495,0.3026623616,0.4221732432,0.9864103257,0.7416932187,-0.2206190511,-0.2105728921,0.4572700148,0.6362563148,-0.5607657231,-0.2941051443,-0.8555697488,-0.5217618091,0.2384864464,-0.3196010954,0.4872471775,-0.5272515526,1.8745078407,0.4462142905,0.3817493895,2.3263147623,0.2301175011,-6.5662039386,-0.4443464376,-0.2083218178,0.6236357394,-2.6997661347,-0.6238327223,0.4618078958,0.5008930188,-3.1077535129,0.442238927,0.2689209146,0.3563273416,-3.2455781969,0.1225236536,-0.2416855786,0.2212043608,-0.4438852452,-2.6662128085,-0.9035041894,-3.7109146754,2.284587332,-11.4264915163,27.9399968599,-0.7509999251,0.9326737395,-0.1806975,-0.4873543881,1.5908559145,-0.012543053,0.0180979904,1.1982653733,1.3480841623,2.2789075174,8.2360627544,-0.0004588949,-0.0881286832,-0.0497767212,0.3347165247,0.8716447448,-0.6448766013,-0.3379275252,-0.4849726119,-0.4122769946,-0.0977567375,0.2755351879,0.9326436277,-0.306566514,-0.6024085304,6.6798011347,2.3542425231,29.7062607953,0.9851561463,1.1967096843,-7.8493017987,1.1726402171,-0.3741875238,-6.8714146894,-0.4884004318,27.565788213,0.1656265836,1.2502350071,1.3701498718,-0.3196087389,-0.932545842,0.7240472302,-1.2500922407,-10.7024763873,0.6119730613,0.4885145045,-1.6310367825,-12.1366261143,0.6218169464,0.1448102065,-0.531413158,47.0791562886,-0.050441008,0.2883003323,0.323004384,-0.8104330379,-1.5452313088,54.7466288248,0.9714253976,6.8917474132,-0.2643572544,0.2252816839,6.5374861635,0.6114351759,-3.0914067913,0.4457195439,0.5587926436,0.9285832419,-1.6612858182,0.587552123,0.3595048088,0.8764942087,1.1947270059,0.398969172,0.1249914484,0.8147574764,2.7956297861,0.2790109178,0.395580286,0.5063884871,-2.2625824377,-0.4564208791,-4.0529837371,8.726583705,-162.5287779927,-1.6741106889,7.0540341824,2.4299451026,2.1116480408,0.1370511844,0.1405695688,2.9736253642,0.2621134999,0.4071645087,0.8374410256,0.0367039985,-0.2140708367,-3.0768093246,-0.2045024368,-0.069385476,0.5132483638,-0.8077041649,0.1642532839,-0.0231221864,0.9137598698,-0.8261681139,0.4021757809,0.3716280069,0.9139395512,2.0154221828,1.1591924959,-0.6538341831,-0.7958509092,-18.3919355398,-0.1761041687,0.6824260321,0.6692515959,-5.5357989258,-0.7795690139,-0.2355431802,-6.6422922789,0.0510699254,-5.9395785151,-1.1085156868,-0.1428733303,-1.9721723969,8.4814703283,-0.6073596309,0.0495011167,0.7415478704,1.0250451138,0.1776069102,-0.7947339983,0.392879381,3.6858211246,-0.4433613787,-0.9743781991,-0.0688071103,-17.2697511018,8.4870747664,-0.5772799336,9.1836789053,-1.672349328,5.6614466459,1.386242643,-0.494152828,9.0491781569,-0.159294024,-0.7848540163,4.6203658,0.1434781355,-1.2039202044,-0.5469836782,0.1063489674,-0.8310323527,-0.2782127957,-0.4671141558,-0.2417407309,-0.4293210381,0.3147944649,-0.7452306232,-0.4018603543,-0.2003630601,-0.405220851,-0.662176424,-0.1247359683,0.0848026965,0.2848480321,-21.0211124496,-6.1762949134,-0.3737937633,29.7220481431,0.933856728,6.8178797732,-0.3810312395,-2.3522163216,-0.7501631425,0.2909916269,5.9046428678,0.510105578,-4.5351754298,0.8459735031,0.2845443421,1.5953774468,-3.0358794336,0.8071303923,0.6509678741,1.4452454216,-0.9874497944,1.3216398077,0.2043318095,1.263392034,1.9767844963,0.1743481807,0.6156842495,0.8865145922,0.0001846222,22.519250979,-0.8106580241,17.571220444,34.4117943882,-167.1704968955,1.0024652184,0.9213123273,6.5842391652,0.1215509157,-0.5618890886,4.8963416288,-0.1764078925,6.7460016227,0.0071149731,-0.601489306,1.2741016253,-14.5380667469,-0.0365442359,0.2035953215,-1.3185288104,-6.4333796429,-0.3598009463,-0.1697402548,-0.5705135901,-3.3741881192,-1.0930676722,-0.2200970457,-0.2578153608,-1.8087817079,-0.9349265011,0.0524866649,0.3726105563,2.192115829,0.8707506078,-33.6779533516,0.1241908715,5.364774485,0.7184662941,-0.6174748273,6.13122529,0.5805272659,7.6300008272,0.0455052436,-0.8557026532,1.2102298376,1.7308593593,-0.0573507217,0.3422765707,0.3691417379,-0.8439898681,0.4246781467,-0.3740747142,0.1495314622,1.1765876879,-0.0095717865,-0.3990392016,0.2162416212,-0.868690416,8.9733461663,2.5304347788,1.7987896743,-13.2148709815,4.0150496849,-45.2056395474,0.4138464612,0.9347401179,-0.2150268855,0.5215471154,-2.2266829164,0.3238616119,6.6620744427,0.429491379,0.6171512325,0.1476854858,2.7478768893,0.0924863948,0.4803189318,0.0523019691,0.9029028775,0.5880676214,0.4525123753,0.05205808,1.6912179476,0.156884766,0.5028838912,0.0438984876,1.1430978736,19.4823765957,1.2103620924,13.6567073024,-76.1134141912,25.2420188019,-12.4646989513,-0.3603321191,0.7955311638,1.2861892413,-1.1927211689,5.1750679646,1.4286482048,-4.5815839661,-1.7408618994,-0.4910519953,-0.2327241561,-1.2044247999,1.3382674995,0.0690238933,1.4985489614,-1.4977726424,0.3731126676,-1.0788121641,-0.0653971352,-0.202905281,-1.5712429092,-1.1864510073,0.5191138518,-74.5561776251,-0.640399624,-0.8873465354,19.4317871066,-7.7159934,-2.9156604932,-42.5062347801,-1.1475896436,-1.8124253621,-0.0180160269,-0.7244606719,-2.5201895428,-0.3082072374,7.813156729,0.2721999828,-0.8703409528,-0.9706335737,-1.9643374395,1.3525817169,0.1008857768,-0.7565078479,-0.3971928221,-0.8797799051,-0.2898613572,-0.728458048,0.8972017533,0.734882663,-0.175182548,-0.3002109314,6.5255034725,-1.0689970581,-0.9877085062,-0.8399387526,-1.088099319,-1.7789261196,27.7458821933,-0.8898072922,-4.6724621785,-0.0880992381,-0.3218207086,-5.2143683278,-0.4782871672,1.0277684006,0.5099904975,0.7292817237,1.0108655218,6.0642528456,0.7544708408,0.9733695392,0.3634459128,3.1356764146,-0.5194361934,0.1807385853,0.1168812445,3.5178309722,1.172519595,0.1804629599,0.2777717434,-0.0734725995,10.2643653779,0.4708465963,1.1337959873,-16.0255792335,2.9990490942,-8.5253023366,-0.0626576739,-9.1024828436,-0.0352442772,1.7798356592,-4.5271879668,-0.9424205936,1.7300618659,4.008314292,-0.9075816705,1.0394521102,0.9130781846,0.61417216,3.9232748141,1.1472819534,0.3726464135,-0.0661138958,0.5492278766,1.5521251093,1.0169527832,2.2643499209,-1.4295720665,-0.9291276418,28.2344599665,1.8159323086,-0.2777243706,-5.3821167536,0.3040475012,1.088246885,32.8572971763,0.1530112602
biasActivation=0,1,1
[BASIC:ACTIVATION]
"org.encog.engine.network.activation.ActivationElliottSymmetric",1
"org.encog.engine.network.activation.ActivationElliottSymmetric",1
"org.encog.engine.network.activation.ActivationLinear"
