encog,BasicNetwork,java,3.3.0,1,1469374187351
[BASIC]
[BASIC:PARAMS]
[BASIC:NETWORK]
beginTraining=0
connectionLimit=0
contextTargetOffset=0,0,0
contextTargetSize=0,0,0
endTraining=2
hasContext=f
inputCount=28
layerCounts=2,16,29
layerFeedCounts=2,15,28
layerContextCount=0,0,0
layerIndex=0,2,18
output=0,0,0,0,0,0,0,0,0,0,0,0,0,0,0,0,0,1,0,0,0,0,0,0,0,0,0,0,0,0,0,0,0,0,0,0,0,0,0,0,0,0,0,0,0,0,1
outputCount=2
weightIndex=0,32,467
weights=-1.0143542792,-0.7030853443,0.4406899337,-0.8938186922,-0.3146915794,0.4346486648,-0.4387148014,-0.5707261978,-0.215684823,0.507457718,1.1164239696,-0.5683670997,-0.2281109435,-0.3014883534,0.557139238,0.3322296395,0.2745426366,0.4233608615,0.9997347677,0.7685332109,-0.2182065089,-0.2591134271,0.4574398611,0.6842480328,-0.6270766742,-0.1900053042,-0.8554654582,-0.5221964671,0.4050455949,-0.3196641702,0.4876818355,-0.5270521724,1.8750544832,0.4488695354,0.381636114,2.3302221813,0.3105597018,-8.4091162613,-0.3898001793,0.1535655357,0.6376686966,-2.6998099907,-0.6084528498,0.428814721,0.5008963064,-3.1083615262,0.4428635035,0.2635348961,0.3615199221,-4.1462510083,0.1224917038,-0.1403508603,0.3571271672,-0.4446118297,-2.6662277774,-0.903274983,-5.5224209773,2.284290055,-11.4264070034,27.9400823844,-0.749166499,0.9487190273,-0.1806740514,-0.4884665772,0.2680717238,-0.0125583143,-9.4822333571,1.1857807844,0.1337625563,2.3117728253,8.8406517263,-0.032614301,-0.0906670554,0.2782939039,0.3347371387,0.8715582529,-0.6556239623,-0.3347460028,-0.4850385539,-0.9090580963,-0.1050856175,0.0724122697,-15.9684182782,-0.3048865702,-0.6059178578,6.6802800322,2.354979027,30.8636036368,-2.2751413928,1.1967112217,-9.486287643,1.1724569785,-0.369255077,-8.5067083633,-0.3787903357,21.8027819142,0.1770012375,1.2506508406,1.3771441823,-0.3107192943,-0.9726218883,0.6702766445,-0.6684849031,-10.7040289653,0.6108990294,0.486794674,-1.2660791569,-12.1369445898,0.6249139566,0.1425783558,-0.8225951808,47.0790635801,-0.0506646146,0.2878979866,0.3221673423,-0.813219902,-3.2957278649,55.689379075,0.9708097597,6.891785457,-0.2590770476,0.2252179634,6.1141096277,0.4219353399,-3.0931354457,0.4423794846,0.3984294277,0.9285615736,-1.5224428354,0.1375386028,0.3594433527,0.8766206995,1.6322600961,0.3417494747,0.3147054984,0.8147177049,3.672276179,0.2777443372,0.359664375,0.5062564335,-7.906283888,-0.429116811,-5.662064261,8.7778886012,-162.5287480943,2.6591853184,5.0162391665,3.0763939091,1.6532700914,0.0654179754,0.1361057653,2.0926127198,-0.1108233826,0.3513055233,0.8362495385,-0.0602463006,0.0621117365,-3.140247037,0.1183716675,-0.0646536621,0.4760253385,-1.2277249597,0.1350974867,-0.0233241081,0.6486956324,-0.3942178423,0.2793460569,0.1166632169,0.6481720953,1.9686234208,-2.9698127158,-0.6533261471,2.2040020523,-18.6746689378,-0.1569501812,0.5097872203,0.6708116968,-6.0211866524,-0.7782743643,-0.9187829127,-6.6455377919,0.0415673463,-5.4675097121,-1.1084537045,-0.4890139848,-0.9613849296,8.4958748075,-0.6073585297,0.0491518539,0.7203650867,1.0254165778,0.1696344301,-0.7941762281,0.3052312397,3.2565899797,-0.4432790223,-0.9743983515,-0.0690409549,-34.9528150922,27.1473122879,-0.577310181,9.1004964187,-1.6724751868,4.1532622758,3.4704690791,-0.4942495967,9.6559611776,-0.1593331755,-0.4238173205,6.1125652534,0.1349227507,-1.2039905098,-0.5470547623,-0.2137438231,-0.832283919,-0.277926551,-0.4671183561,-0.2417138037,-0.4437603917,0.3132374996,-0.7384642507,-0.4018097582,-0.0857875434,-0.3979442282,-0.6622255093,-0.1242074892,0.2324575225,-5.1978271332,-27.383369748,-6.1729716038,-5.2829083905,29.7220167093,6.9966373964,6.8181388557,-0.3856461244,-2.3516435971,-0.7494476881,0.2910376663,5.8982877802,0.5102019095,-4.6589329131,0.8293380258,0.2845889759,1.4456981449,-3.0401755336,0.4297542208,0.6508288554,1.4453204446,-0.9874949184,0.6733295179,0.2416717931,1.2635004543,1.9767221172,0.1723209358,0.3074657847,1.0150287585,-9.1122181951,22.519927258,-0.8105318304,20.7807370044,39.5380219518,-167.1703233889,1.0018275051,1.5472211893,6.4999931524,0.1191897941,-0.5620798734,4.8968130294,-0.1765676154,6.7552765515,0.007079426,-0.6779126307,1.1703395743,-14.53832517,-0.0297471455,0.2031897576,-1.3239851693,-6.4250172416,-0.3598583197,-0.1711021819,-0.2528149736,-1.9663421359,-1.092201644,-0.224841292,-0.4233431326,-1.8086476539,-0.9391928862,-1.0663539049,0.3726122029,2.1926233223,0.8707030005,-33.7102807327,0.124165062,5.4000244508,0.2856922294,-0.6174752984,6.1258886427,0.5709571284,7.6299156212,0.0455006521,-0.8547505125,1.3681525011,-1.3042511329,-0.0573705241,0.3404532456,0.2503941831,-1.996883518,0.4246182936,-0.2222725158,0.0627150869,1.1733648378,0.0288461925,-0.2697796514,0.2159410994,-0.8315522914,8.9196884364,2.5295316436,1.7986514916,-12.9715909358,4.0149967014,-45.2495839873,0.4131274572,0.9326201688,-0.2143808496,0.3967476398,-2.2279800432,0.3237740506,8.9884778833,0.4294415039,0.505021694,0.183349805,5.4858172133,0.092532836,0.4236362596,0.0567827306,0.9296352288,0.1591106249,0.331153232,0.0535944015,1.6853062814,0.1568940325,0.2798694718,0.0435938884,1.133691349,19.4823053927,1.2103051471,13.6565990772,-84.1996014337,25.2419097191,-12.4702840599,0.3360023965,0.7843714633,1.2843159707,-1.2020681288,6.1318072941,1.3986960732,-6.690667456,-0.6622647621,-1.6362312296,-0.2594678939,-1.2036009068,1.3263258543,0.0693737966,1.3806997411,-1.4976440117,0.3730718862,-1.0858900111,-0.1114944261,3.0647321533,-1.5707434786,-1.1863482165,0.1653455327,-41.2811629123,-0.6385912005,-0.8874178771,19.4392961711,-3.5290514244,-2.9140634362,-42.7163877968,-1.1474863927,-1.7953247603,-0.0179994542,-0.6998997537,-3.3747662481,-0.3081485371,7.7781758482,0.2720462754,-0.8666945205,-0.9714956766,-0.2281095571,0.5164797464,-0.2568242475,-0.7282450176,-0.3971830516,-0.8797179881,-0.2938765561,-0.5589521783,0.8971690283,0.3646281773,-0.1763947322,-0.5409226779,6.5258975543,-1.0688780107,-0.9886509726,-0.8408370259,-1.0888187095,-1.7777565915,35.4437290188,-0.889861427,-4.6220673082,-0.1049554135,-0.0634804702,-5.7013910011,-0.10180786,11.101876753,0.4954713985,0.4056078068,0.5124600219,8.1634439382,0.754711024,0.3213194396,0.1132829909,3.1358142933,-0.5178089773,0.1806857324,0.0471184385,3.5223616502,0.4918793875,0.1802522975,-0.0961813978,-0.0735785355,14.5695468495,0.4753418408,3.8674675141,-16.8985610056,3.1161122356,-13.581952032,-0.0580420469,-9.0576754769,-0.0351667451,1.7811820158,-5.7833957182,-0.9045883466,5.5056662563,4.0006027115,1.9992660396,1.1743103406,0.9149838418,0.6111776711,2.7538637232,1.1485360018,0.3705006043,-0.0661042501,1.5789183386,1.5121989874,0.90752345,2.2643982534,-1.4116780226,-0.7277409155,28.237729312,1.8151880539,-0.27694663,-5.5820359339,0.3166037452,-38.7502466629,33.4994202782,0.152014105
biasActivation=0,1,1
[BASIC:ACTIVATION]
"org.encog.engine.network.activation.ActivationElliottSymmetric",1
"org.encog.engine.network.activation.ActivationElliottSymmetric",1
"org.encog.engine.network.activation.ActivationLinear"
