encog,BasicNetwork,java,3.3.0,1,1469374308130
[BASIC]
[BASIC:PARAMS]
[BASIC:NETWORK]
beginTraining=0
connectionLimit=0
contextTargetOffset=0,0,0
contextTargetSize=0,0,0
endTraining=2
hasContext=f
inputCount=28
layerCounts=2,16,29
layerFeedCounts=2,15,28
layerContextCount=0,0,0
layerIndex=0,2,18
output=0,0,0,0,0,0,0,0,0,0,0,0,0,0,0,0,0,1,0,0,0,0,0,0,0,0,0,0,0,0,0,0,0,0,0,0,0,0,0,0,0,0,0,0,0,0,1
outputCount=2
weightIndex=0,32,467
weights=-1.0202515903,-0.7031173337,0.4375681124,-1.1263195691,-0.5378677609,0.4800587237,-0.4573851701,-0.7090577351,-0.2151445273,0.5269926393,1.4081763978,-0.5681844256,-0.656392552,-0.6412034827,0.5569165296,0.3319082329,0.216081416,0.4594702747,1.0348712985,0.8134589588,-0.2038521292,-0.3801142113,0.6585884469,0.7875542874,-0.7249032013,-0.2877899117,-0.7296409897,-0.5228977317,0.5354231564,-0.3736286279,0.4890330271,-0.5261003436,2.1258482139,0.402095999,0.3636473724,3.1452208061,0.3110961624,-9.0756327017,-0.3921765937,0.2378134713,0.652111225,-2.4280062369,-0.5576602134,0.3840957912,0.4936087143,-3.1137000408,0.4859564041,0.2409963209,0.3648538911,-4.4818927961,0.1223281606,-0.0389658131,0.4627998622,-0.4455242684,-2.8261601361,-0.902664652,-5.8858934696,1.9720659629,-11.4265577111,27.9403935557,-0.7408775733,1.4822329295,0.0522896537,-0.3544078006,0.5227720003,-0.2410935534,-7.3038313936,-0.328370101,-0.3464346093,-0.4469694067,3.1875896039,-0.0630797968,-0.2459212241,-0.0411340347,0.3347228231,0.3452964136,-0.3732247368,-0.0023192353,-0.4848931939,-0.7529421163,-0.111770163,-0.0141811692,-38.1198174934,-0.0654285949,-0.6070107392,6.6802131957,18.8341782411,67.2819597389,-24.5436478726,1.1967689959,-11.8654169517,0.9095223039,-0.0122651009,-9.110961244,-0.3676131624,21.8026422649,0.1323915339,0.1391892296,2.7111197422,-2.3879232035,-0.9698579841,0.1323893291,-0.3851312358,-2.6873281795,0.6090836616,0.1592761749,-0.2578323611,-2.5476759112,0.0338864906,0.1210311717,-0.2369922501,3.7209283708,-0.0374565427,4.8943060547,0.3224630987,-7.5980872251,-29.2513218272,55.6894647163,0.9704021925,6.8926169888,-0.2558804379,0.2249530426,6.112530164,0.3196581407,-3.2051328599,0.373236803,0.3921008804,0.8045362867,-1.5431499067,0.1458576116,0.3233459682,0.8599367562,1.6315938877,0.0621998286,0.3145210641,0.7332688766,3.6701982246,0.2602879693,0.2320683527,0.4866501386,-5.8920107477,3.452748222,-6.3389728342,13.8938567658,-162.528307247,2.6495637484,0.9779098755,3.3880444246,2.2625679467,-0.0670027296,0.1085035832,2.7377440554,-0.041770964,-3.7480867775,0.4277411586,-0.0584351499,0.3632576285,-4.4448275817,0.1098878542,-0.0602580168,0.3946670209,-2.0197708586,-0.1155134243,0.0344359619,0.3779806792,-1.0712187856,0.1936531795,0.1456398592,0.2980558615,-1.2364569801,-8.0027846441,-0.1258375894,3.9639669832,-18.6746751063,-0.1561315592,2.1183913149,0.9777501095,-4.7153117494,-0.1494331995,-0.3828046934,-4.1174356605,-0.1116736689,2.8644774851,-0.383868515,-0.5226032219,-0.2516586385,1.4218707469,-0.4541514585,-0.1925073358,-0.0905210159,0.0108027226,0.140541087,-0.4728764717,-0.0726559271,2.3252584208,-0.290859215,-0.4315306072,-0.1630454787,-60.8094669097,69.6851885447,-0.5774868889,8.9781137873,-1.6727481638,-5.8022043777,3.4704967667,-0.4953951088,9.6312574412,-0.1587621237,-0.4216464622,6.1187592021,0.092281423,-1.2104512943,-0.5468884465,-0.217287851,-0.7682003202,-0.0920804776,-0.4669501667,-0.2417679913,-0.4208607162,0.318271568,0.0252422693,-0.3888985031,-0.0205738036,0.731105306,-0.6619531388,-0.1296640452,0.2665222598,-27.6515643525,-34.2097043794,-4.9370401408,-5.9386350672,29.7229114916,9.1998539542,6.8447174255,-0.4079257808,-2.338960843,-0.6210121217,0.291284125,5.2766476267,0.3803478762,-4.6655466385,0.5727693903,0.288547426,1.1222406036,-3.7095124414,0.322336768,0.3839071577,1.1034885047,-0.9877297791,0.540028266,0.2429192727,1.0448465305,-0.6148804251,0.1584135781,0.2273149227,0.9051934833,-19.1643470448,22.5200549913,-0.8104294098,25.0891109476,43.3610183602,-167.1701111367,1.0019351432,2.4617956446,7.4826146047,0.1135189015,-0.5470833778,4.9080292141,-0.1745750238,6.1539408523,0.0065783342,-0.120766103,1.1684342324,-14.614929332,-0.030122184,-0.2235375314,-1.4259418572,-1.584002453,-0.3605545258,-0.1948062993,-0.1919012352,-1.9578516635,-1.0937931546,-0.2249092677,0.0097187971,0.7118570687,-0.94160783,-6.2263401269,0.3524629997,15.8602354943,0.8705257126,-33.7068802745,0.1241979601,6.9766594937,0.0937619498,-0.0327081874,5.7300052741,0.39169685,2.5394640583,0.0457139177,0.0375164068,0.5965496713,7.079916554,0.4596411428,0.3413566679,0.59071743,2.5313264428,0.4984144675,0.0112099353,0.6620956191,5.6258395814,0.0295929645,0.0442454298,0.7605540665,151.372605237,-212.6768470794,2.5251383634,18.4090203209,-1.2294260864,12.8074801067,-45.2484913052,0.4119716874,0.932226233,-0.1770470796,0.2226866133,-2.3524400262,0.198231527,9.2864645579,0.426819499,0.2803954525,0.3205065003,5.4915669402,0.1387210969,0.2747519183,0.1539912969,1.7448052244,0.0872857436,0.216982265,0.1128221839,1.6215826766,0.1567645396,0.2743019623,0.0620718986,-19.7008895048,19.4831722536,1.210056272,13.5889884567,-86.6846673167,25.2421974426,-15.9361536725,1.3398809106,-3.1203634389,0.8845438379,-1.2868551316,6.1161376626,-0.5546422554,-7.2078488557,-0.6611533609,-0.8476784763,-0.2663888331,-1.5073923984,0.9025324229,-0.6203139821,-0.0100263711,-1.4948711403,0.1754905125,-0.9461010714,0.4284806946,3.0645980319,-1.3450215382,-0.4815728152,0.2268346102,-29.8373500071,-0.6398328665,-0.8887058468,18.2584988546,32.2573673582,-2.9297855067,-42.7165684861,-0.3955943963,-3.4281498983,-0.018087691,-0.343709122,-4.6123351113,-0.3078601647,4.8070233548,0.2039323706,-0.3990716213,-0.7308536869,0.9407639013,0.1974323636,-0.2587916306,-0.5497649429,0.3159761215,-0.3839502965,-0.2933297856,-0.4221250448,0.8548336763,-0.0624436557,-0.1834698717,-0.4834579496,6.4369296455,-1.0683272084,-0.9885634449,-0.8411972191,-1.0891661575,-1.7763694405,37.0956287182,-0.8898512207,-4.0212392272,-0.104664202,0.1452857908,-5.6924543065,0.0514522444,12.3995531292,0.1365302341,0.1812262821,0.2866039404,7.5017606992,0.1030624243,0.2644267165,-0.012349636,3.1360734908,-0.109728212,0.1782109242,-0.1073224296,3.5486333907,0.2767631752,0.0209155805,-0.0778315138,-0.0689376013,15.6397642128,0.9388430114,4.1048893274,-16.8985265026,6.1713881198,-13.584551288,-0.0329215555,-3.3053721177,-0.2533917,1.7762459689,-6.0222315843,-0.3099147636,0.9764035577,1.3540887429,0.1443637361,10.7569648773,1.0413198923,0.6410704487,1.6904177805,1.9664584517,-2.903596798,-0.0657953806,1.1836875748,0.776132602,0.9083457567,2.1329516076,-0.3228345728,0.3927984825,28.2364874627,1.8165422808,-0.2762282355,6.1725871591,-6.7619221141,-38.7916746571,33.4974334696,0.0760538515
biasActivation=0,1,1
[BASIC:ACTIVATION]
"org.encog.engine.network.activation.ActivationElliottSymmetric",1
"org.encog.engine.network.activation.ActivationElliottSymmetric",1
"org.encog.engine.network.activation.ActivationLinear"
