encog,BasicNetwork,java,3.3.0,1,1469323692035
[BASIC]
[BASIC:PARAMS]
[BASIC:NETWORK]
beginTraining=0
connectionLimit=0
contextTargetOffset=0,0,0
contextTargetSize=0,0,0
endTraining=2
hasContext=f
inputCount=28
layerCounts=2,16,29
layerFeedCounts=2,15,28
layerContextCount=0,0,0
layerIndex=0,2,18
output=0.2235450574,0.7176790519,0.7546905239,0.6095721159,-0.1047060402,0.5758695543,-0.4544634142,1,-0.2356535431,0.7331971818,-0.168823472,-0.6790538437,-0.3420827704,-0.7307544517,-0.2080943095,0.799908316,0.1273873315,1,0.0160501457,0.4307999968,0.5655973562,0.0619851268,0.251054439,0.0298383326,0.4543181229,0.1403968745,1,0.0227235232,0.3041014072,0.8661294619,1,0.0162668849,0.1530510046,0.7547033749,0,0.0247933884,0.1690563538,0.3317314576,0,0.0168870871,0.0268686763,0.1142735128,0.0376454321,0.0298177717,0.0219896218,0.0232103024,1
outputCount=2
weightIndex=0,32,467
weights=0.7760183917,-0.4117219959,-0.3756231848,-0.6227595507,0.2229456563,-0.2391049805,-0.7467272264,-0.3646680031,-0.283428418,-0.4522313834,0.1607043742,0.4933598031,-0.5768961036,0.5974783198,0.4263687314,0.0521031708,0.7219483975,0.3537691839,0.3712728752,-0.23858619,-0.1508511527,0.2720725484,0.644174229,0.9368695598,0.1546799338,0.6807556816,-0.3204811283,-0.5100852095,0.4307081522,-0.4944111095,-0.3127023627,-0.0261700535,1.2441832382,-0.1917550627,0.2158996902,-0.8828102763,0.0264476131,0.9184433574,0.0465761638,0.1700122342,-0.2073024453,-0.0629836149,-0.0582929777,0.0660654642,-0.1841192343,-0.7552167415,0.1215218652,0.1657246216,-0.2546275543,-0.5498848566,0.2367883974,-0.0255106794,-0.2022935392,1.1352133671,1.5834701833,-0.125189448,-1.374304344,-0.715157639,1.6202661678,4.4465566328,0.9907896378,-8.0028574066,-0.0968919678,0.0729664527,-7.6767885717,0.0724840485,26.5114297039,0.0042927422,0.0306826064,-0.3371895379,-0.0654783268,-0.1436486165,0.1080495589,-0.3906957489,-2.6243568119,0.0275651434,0.0292965586,-0.3213777217,-2.2202403842,0.1128437561,0.0379709636,-0.1922104148,4.0950657034,1.5878613462,4.8501151687,-2.9649120342,4.5642902199,-4.5158791539,12.6869683558,0.3309956338,4.6069893778,0.0911049802,0.0244372722,2.6213489998,0.0236135613,0.1921323782,0.0473569854,0.0548537848,0.3732620526,0.4973677015,0.0699271545,0.0346687793,0.3330287778,2.4607664356,0.0406157159,0.0714998348,0.2292331393,2.0328738532,-0.0387865368,0.0517643733,0.1492225939,-9.2472018979,8.1009649686,-7.1521479468,13.6862388402,-109.7075384892,6.2786601249,-6.0087402922,2.1476319928,1.6749525413,-0.0027850087,0.0872220673,1.3761622206,0.0758167712,-4.5146740092,0.1137221705,0.0469054211,0.3290459273,-2.5074451856,0.0992128836,0.1016296613,0.3277692435,-0.3946802646,0.0171833279,0.0817020213,0.3215663492,0.5121397544,0.0531732566,0.0903729882,0.2655769042,-3.1089751946,0.997533074,0.7573238737,5.5879586825,11.1478139522,-28.2790488882,-12.1055928926,0.0250115277,-13.589374771,-0.0475706202,-0.4126009564,-10.6107018154,-0.2647436669,8.2190385088,0.2410413167,-0.4261356819,-0.5865406175,5.3656353458,0.3110709016,-0.3345362134,-0.1380609968,7.1381059148,-0.4474111575,-0.4147560553,-0.12857568,5.0744364583,-0.3323509812,-0.2383117438,-0.2636593821,-19.9719262655,31.110765553,6.2377456659,14.2689007141,-1.7967484483,-3.3354340574,-22.1711298224,0.3764587161,0.8129892561,-0.0343767495,-0.0818869441,-1.1239393552,-0.0845240227,5.2693510139,-0.0994033804,-0.127942868,37.4543176616,-2.2213252523,-0.0999602841,-0.1013000979,-0.3630135766,-0.1803389504,-0.0021956875,-0.1713280418,-0.4638241916,-0.0807705219,0.0317085348,-0.152093248,-0.3905039748,-41.5044100898,52.738505065,-11.8702470155,58.2840868286,5.6378892796,24.5247070376,-1.985286418,-1.0495704372,1.0118289266,-0.116885697,-0.2614616044,2.5208012327,-0.0988111832,-1.8030171987,-0.1208186027,-0.2389955432,0.0359640964,-0.4557696445,0.1643650841,-0.1611922224,0.072692302,-0.7015605509,-0.4407993708,-0.0763742525,0.1361404961,0.051832205,-0.2899960401,-0.1036208816,0.0952188696,3.5754474859,-14.5096793802,-1.0306391398,-4.8498288611,29.4057388553,-0.5468104134,3.4758488433,-0.1530501383,2.2124359199,0.256303427,0.0806288153,4.387977811,0.0678757264,-5.081073405,-0.1021634147,0.0597698808,0.3390715803,-2.5732666856,-0.075732825,0.090375776,0.3861794386,-0.7033937587,0.1365926723,0.0601013693,0.3952244634,0.2954413594,-0.0186569541,0.1274109166,0.3507656663,-6.1100214969,0.4950737538,0.3508470606,5.7880430872,21.5126272782,-54.1417614063,-4.332777242,0.3029542441,2.2147209964,0.3679785833,0.6172157112,1.4305473167,0.0885511858,0.9512042044,0.0645607127,0.5235645174,-0.379734934,-0.6312293263,-0.319095158,0.1813011446,-0.4345351481,1.2317908359,0.9205340016,0.0794050766,-0.5456364984,-0.8347407926,0.6547759713,0.10510721,-0.2657959017,12.710576775,0.5401776278,-0.2797702484,1.2492834619,-24.5246508098,-1.6244582221,-2.9773529219,0.0590343248,1.9854837986,-0.6535262212,0.0732867844,-9.2827033632,-0.0503343938,-1.5053732006,0.0161593445,0.168611258,0.2614953345,-0.7041419397,0.1791701471,-0.0527123716,0.2297174545,-0.0980400453,0.2385220821,0.270886497,0.1695676201,-0.0743463988,0.2546841659,-0.0627473219,0.1775969003,-1.7017180132,-7.1644825967,3.2542710489,-0.8242446353,-0.8622753274,-0.1384280881,0.4277906223,-0.8617798531,0.6350920641,-0.8039317442,0.0521220455,-7.4553741093,-0.2021098109,0.1569762466,-0.280766958,0.2341204756,0.1699374031,-1.4155425086,0.1364396856,-0.2528843103,0.1628724745,-1.8755265492,0.054511327,0.4230841353,-0.0000359187,-0.7951498164,0.1261143615,-0.235599343,0.0376216835,1.4953279031,-3.2764126303,-1.0217216421,2.169392731,0.354358579,-0.9365272319,2.2504460792,0.2650489063,9.5284678152,0.1096064734,0.0560868183,0.880548896,-0.0158478091,1.6820532948,-0.2386930548,0.0242298023,-0.5051265609,3.3533527924,-0.5469060641,0.0121703094,-0.3147613313,1.2054205777,0.2868651807,0.0367356155,-0.1890058714,0.6136714609,0.0735632983,-0.0381804189,-0.05989438,-17.9840856198,-5.8679750444,1.3927497701,-7.9099257864,9.0333144678,-0.3989201446,26.0460482969,-0.6298679605,0.1963387176,-0.0090536474,0.1162884292,-0.2668052967,0.0613390678,-4.8125005878,-0.5125885516,0.0457100604,-0.5848630841,7.4346639405,-0.4339408406,0.1000283067,-0.1277181099,1.5806180875,0.3263555325,0.087866613,-0.1895294196,1.0571076412,0.2000735783,-0.0203464434,-0.161222127,-3.3802123859,-8.7651402738,-0.3461520198,-0.7521278829,3.9585175083,2.5829650834,13.5343353029,0.3601920614,3.5877849523,0.0277328467,0.1623014829,4.2007615346,0.1238773574,-4.7829611098,-0.2659124847,0.0853641956,0.3666888815,0.8349270703,-0.0925305209,0.1604315311,0.3901877131,0.5059248625,0.2274690513,0.1545642109,0.2893619514,1.2483489601,0.1626423352,0.1390586488,0.2648128183,-0.5223945397,7.9345699937,1.237216447,0.8463770539,5.726033987,-0.1408633658,-35.2880184538,0.019940179,-0.2919152603,0.0426662271,0.0622566466,-1.071024155,0.1363019071,-1.2621548485,-0.1363256533,0.0548402794,0.3812501571,-0.398732855,0.3370666461,0.1266327926,0.1731427525,0.0243888249,-0.0267827069,0.0559657534,0.1724782906,0.0277053209,0.086569802,0.1151617772,0.1695505429,63.7015719807,-100.7837504195,-1.0579285949,11.8239219652,-1.2080417762,-21.5472283317,0.0336292788,1.1706897856
biasActivation=0,1,1
[BASIC:ACTIVATION]
"org.encog.engine.network.activation.ActivationTANH"
"org.encog.engine.network.activation.ActivationTANH"
"org.encog.engine.network.activation.ActivationLinear"
