encog,BasicNetwork,java,3.3.0,1,1469376801894
[BASIC]
[BASIC:PARAMS]
[BASIC:NETWORK]
beginTraining=0
connectionLimit=0
contextTargetOffset=0,0,0
contextTargetSize=0,0,0
endTraining=2
hasContext=f
inputCount=28
layerCounts=2,46,29
layerFeedCounts=2,45,28
layerContextCount=0,0,0
layerIndex=0,2,48
output=0,0,0,0,0,0,0,0,0,0,0,0,0,0,0,0,0,0,0,0,0,0,0,0,0,0,0,0,0,0,0,0,0,0,0,0,0,0,0,0,0,0,0,0,0,0,0,1,0,0,0,0,0,0,0,0,0,0,0,0,0,0,0,0,0,0,0,0,0,0,0,0,0,0,0,0,1
outputCount=2
weightIndex=0,92,1397
weights=-0.2472702594,-0.4171784586,0.26139359,-0.2093721819,-0.5165332362,0.6617552957,-0.8614545849,0.7011709112,0.4600426767,0.5570663273,0.1263697529,0.7429506912,-0.1373447947,0.0093672523,-0.089318676,-0.8809726762,-0.2347395461,-0.1300810685,-0.5812457168,-0.4709137688,0.3868036493,-0.4590933541,-0.0656583487,0.4953274386,0.4467434091,-0.1106063655,-0.1679094956,0.2005557172,1.455794408,1.0501696055,0.1612097593,-1.108119693,-0.8872719022,-0.4371259809,-0.1789565737,0.2149054784,0.1359214932,0.6706711238,-0.1714216927,-0.0743944874,0.0073272048,-0.1412399131,-0.1468006072,-0.3451398111,-0.1679098148,-0.1225633191,-0.1941136307,0.2834569996,0.2726799937,0.788958211,-0.043543334,0.2326075182,-0.4659516464,-0.4829034394,-0.2581400266,-0.1255836877,0.8430344139,0.8130418582,0.0980592479,-0.1329094363,-0.1055617783,0.5355464213,-0.9411019006,-0.3660598944,-0.0689222559,0.4498595025,-0.4314700864,-0.4649757369,0.1713648406,-0.9407793658,-0.0763093163,0.0319895365,0.4504247146,-0.1789972998,-0.3898480852,-0.803699991,-0.1178523073,0.3333247074,0.1200900757,-1.0401708927,-1.0792761681,-1.5035272441,-0.5245106152,-0.1960779753,0.8107901772,0.1135201559,-0.6866426341,0.2487510688,0.6209067719,0.2552771443,0.2988866446,-0.645259566,-5.1226156177,-0.4523222095,-0.3161459342,-1.8388033663,-0.3334733299,4.507511348,0.0295837219,0.0721699155,-0.0513047566,4.1443189422,-0.6162023097,0.2885468388,-0.1893067411,-0.9438878951,-0.2339817205,-0.0988616279,-0.4165366995,0.2563491474,0.1278628426,0.3003969397,-0.4180555913,71.6690750771,62.1435458747,2.6190653729,16.489751982,-24.4083316039,5.5655228726,-25.9163985316,0.9706381183,0.2364383695,0.7813044671,0.3959874558,-0.1813324778,-0.1382711816,-2.2454643071,-0.6932381438,-0.8211801679,1.855397162,4.4193185841,-2.761490975,0.5877558241,-0.4488689686,-0.0429931394,-0.8158050294,0.3643526735,-0.2122500008,4.0282174214,-0.4795794082,0.1244544501,0.8268657544,2.544206761,-2.7092440634,-1.2305121715,-2.3412374997,-20.0156238524,5.1581664888,-11.9269276633,-0.3302280067,-4.3805883098,-0.103136278,0.1178993608,-3.7748358949,-0.2578927201,2.8071185889,0.2095010779,-0.7833649523,-0.1613488524,-1.2764822432,0.0405515654,-0.1732553316,-0.2110778379,-0.913308422,0.1182829407,-0.2532747435,-0.1560557823,-0.8551856216,-0.314412602,-0.4926189544,-0.4216858051,3.1292752757,2.7558915305,0.6897079685,1.3126641731,6.0615756692,1.2267184997,17.7467052882,0.8327104595,-4.2486450245,-1.0110855986,-0.1794186982,0.3138023367,-0.1239711694,-1.8560595037,-0.3164059798,-0.9389562182,-0.725802115,-1.610148209,-1.1517966004,0.3559531946,-0.5589730862,-1.9317975718,-0.7589017402,-0.5457732072,0.2512324322,-1.5839803574,-0.861615614,-0.7616082773,-0.7749283626,-0.0753285699,-8.2154624101,-0.0593194219,0.2627438193,1.2919303644,-1.4895849984,-3.8941530018,0.5957646151,-1.4309393009,0.4147391772,-0.0595851392,-1.8054244632,-0.0289878524,6.0214887785,0.3058864497,0.1543832255,-0.1755756118,1.2010994116,0.0733853647,0.2111618095,-0.2971908675,-0.1720473326,0.0916803728,-0.0371130292,-0.3233596816,0.2394659866,0.1510726944,0.1794293154,-0.2118345633,4.2185430218,-1.2714951066,-0.67314215,9.0769173984,-3.8303492935,5.1818699228,-8.3239072405,-0.058454556,-4.2281603079,0.0591933543,-0.2763996402,-3.7168910532,-0.6770693752,-2.2055151566,0.7151112175,-1.2947368356,-0.1966322316,0.1870595006,0.4855339525,-0.5859576851,-0.4732551849,-0.1712992884,-0.5854987685,-0.6007477253,-0.311359232,-0.7093457777,-0.5856164497,-0.5768681141,-0.4935672511,-1.1430611092,8.2705765046,-0.5377885987,7.5072836224,-1.8843483604,0.3239081449,-1.8332194525,0.4301813465,2.3881487847,0.044594582,0.1773273952,4.2826121823,-0.1652875706,-5.8599988344,0.4371825398,-0.010112928,-0.1206257326,-4.1725168937,0.2036981033,0.1178267631,0.091608629,-1.9566301333,0.1279512428,-0.0393846818,0.1096903982,-1.8632145471,0.0199760676,-0.0667129082,0.0768758829,-1.3833691206,-3.998646123,0.0169960834,-4.0358147023,7.591910452,-2.9901472454,19.7669442937,-0.6826458597,0.7036396298,-0.2580986521,-0.1225526831,-1.022142421,-0.1693874592,0.4152242725,0.0045316774,-0.4506275557,-0.380305604,-3.2067914595,-0.5525198097,-0.2680509253,-0.3245287299,-1.7050513924,0.0160898417,-0.2625880932,-0.4154296136,-0.8377737897,0.16445963,-0.2318529249,-0.5015885331,12.9495535691,20.9965455095,-1.0617271438,15.3856661633,-0.1821705171,0.5081212574,0.6164995847,-0.4054653726,0.9642643027,-0.3217232941,-0.1458884146,2.5738027605,-0.1789399526,2.8510038923,-0.1811728369,-0.0388926768,-0.1204449229,0.5497474484,-0.2357387853,-0.0557876188,-0.2536561444,-1.5410166702,0.1719813308,-0.1112149242,-0.1981317745,-2.0759467393,0.2312091776,-0.0933019413,-0.0266552401,14.021210142,-1.6283578375,0.2843306802,-4.6547950542,123.0718672301,-86.2891751869,9.1694423781,0.0677159041,1.1438352529,0.4786237614,-0.0504388278,-0.1786740906,0.5299296025,-9.3501185429,-0.3485397494,0.4270665969,1.4576835196,-53.2000037754,0.5263918983,0.3996006781,1.3151964261,-17.0544907172,-0.1755416059,0.4745798989,1.2496785692,-6.4948376714,0.4798612792,0.3304056233,0.9706717216,15.9487361696,-6.0764915823,0.5647670777,0.8397169964,2.6010283423,-22.6511295228,8.6147941692,-0.7773790462,4.3225549793,0.0093196487,0.2212194528,6.1523722794,0.4093714061,-8.8113170055,-0.1950518942,0.2936429104,0.6368763474,-3.8219191304,0.1638921861,0.2662571287,0.7850712552,-0.7128271523,0.3829663276,0.1449518438,0.8220938479,-1.6757856326,0.4456901518,0.2031438998,0.9071491853,-21.571534874,4.908074387,-3.1762251129,7.4430899742,-66.9780146716,-0.9629960356,6.1166779262,-0.7274324243,-3.4859648961,0.1538716823,0.3655274724,-1.728908501,0.0873765109,7.5884080378,0.3836593907,0.4600780385,-0.5461457102,6.6382935655,0.4137375251,0.3400389143,-0.936323427,-0.142094926,-0.2143352968,0.338447635,-0.9800480111,-0.1886322041,-0.3990082593,-0.2017202407,-0.8606538102,13.1440753723,11.1144225387,-0.238200223,-4.9645547601,1.539236718,0.3202907916,9.7034616958,0.6577097641,-1.1150301837,0.4248598512,0.8694980942,0.7547875823,-0.4904198601,-1.1475832053,0.2206934753,-0.0230593165,-0.38260683,-0.2232788778,0.8684612995,0.1056299236,-0.803497957,-0.1888692441,-0.7154731185,0.2582717385,0.9032679499,-0.7807592085,0.2931606658,0.5359662461,-0.1194724908,-0.0878647396,-0.8307851509,-4.0080153362,1.6863890191,1.1192201602,-1.8727080191,-2.2966438254,-0.9192092862,-5.5105739409,0.662761816,-0.9464000999,0.3667013558,-0.137306622,2.1739517263,0.5585004024,-0.0867294388,-0.5917684994,-0.4287726148,0.8158582606,0.4189802741,1.0631713031,1.2064618727,0.5737627157,-0.8983229817,-0.2346447696,-0.140198584,0.5168922042,0.4451737542,-0.2912661412,0.6393709668,0.7192192794,-0.6189476475,0.0098401828,-0.7161805869,0.0402692093,-1.1854049924,0.6486284031,-0.8445922081,-0.3670810461,0.1022917531,-0.157502847,0.135324958,0.6067421552,-1.0193403969,-0.310709072,-0.9023435913,1.2335482164,0.2822153146,-0.1526684543,0.6284512834,1.0947954162,0.8109699202,-0.0011871477,0.0620701542,1.798730366,0.3235510133,0.0630190082,0.1280014902,-0.7611435634,-1.540610414,0.3439617408,0.2225019914,-7.1259327074,0.4896642139,-1.3083891971,-0.0270485016,-1.3951076627,-0.1667337671,-0.1393092829,-3.419668165,-0.0747920327,-0.906416078,-0.6497025603,-0.0689101942,-0.611743785,-0.2778725902,0.1480035193,-0.0184667608,-0.4163891438,-1.6031284316,-0.4241997858,-0.1233371078,-0.3418507873,-1.3365437669,0.0214016553,-0.0416359187,-0.2880238087,-1.4538508851,-1.262017847,-3.0687252654,-0.4078464825,0.8795979718,-18.703878691,46.3891707635,0.2212172879,-1.099783844,-0.2679994684,0.2739461463,0.0579111213,0.4972330033,-9.1759409143,0.6096573459,-0.0088574058,0.0750473798,-0.2179661479,0.1118000781,-0.1724559058,0.6900169715,0.5834091742,-1.1674692468,-0.0371428242,0.394226484,0.4660866718,-0.8318300261,-0.5407461983,0.4856090457,-22.5564020883,0.1507078967,0.2643457032,-0.3855496167,0.1770538775,-0.0397972937,-2.3399533553,-1.1064322367,0.6046756151,-1.075655039,-0.991787556,0.0873553238,-0.2387550041,0.8027567408,-0.7629116299,0.6175702218,-1.0803797176,6.0320755718,0.3408785172,-0.1146432053,0.6350698518,-0.9890360095,0.1236166007,-0.9533443519,-0.2315678171,-0.7940832108,-0.6914713594,-1.1130064383,-1.0344072091,-0.8744058525,-0.3523260694,-1.0191258057,-4.9436849948,-1.4928320833,-0.2240901372,3.5729915673,-0.3322097063,-6.4943137985,-0.1527360088,-0.3519656095,-27.8058996027,0.2426830562,1.3254517482,-0.5923145362,0.1690438185,1.4117748959,-0.8520215858,0.5583378374,-0.0773424755,0.4845250491,3.3335165739,0.0259963398,0.7035815948,0.5244241836,3.2986004375,0.1710247643,0.0706317724,0.246570885,0.5296302193,-2.5837304214,1.3960207557,-1.7068419547,-13.6468569479,-14.1056656452,-1.8722955323,-0.345905001,-22.8651487478,0.1020627926,-0.1962184162,5.3586743629,-0.1622733316,-6.7674207598,0.3780779683,-0.1638703687,-0.1603601884,-4.9978050628,-0.1334800025,-0.0980689308,0.0732184718,-1.2845786348,0.0355506548,0.0084607078,-0.1306474465,-1.1317264861,-0.1801114086,0.3201224937,-0.2537024945,20.8530506422,20.9251094605,-0.0782414887,16.3110299573,-0.2336065085,0.0007164362,-26.0220225873,0.1073283324,5.2399552837,-0.4468896044,0.7759869672,0.7377974774,0.1825323892,2.0009920954,-0.696974502,-0.0275633501,0.9036241255,-3.95215244,-0.3748188409,0.3798964381,-0.0150165013,-0.085794762,0.0983989668,0.5855382925,0.1460862258,0.0774801067,0.3710827372,-0.105755294,0.7602289034,-1.5928032914,-2.2837121098,-0.4779599669,-6.5319119565,-8.0651365084,2.2866320905,-18.9298350818,-0.457032244,-0.3502042347,-1.1524196469,-0.1907926081,-0.2637699226,0.2152243991,0.4335034179,-1.1374832429,0.0793619588,1.0894738474,-4.8053504857,0.1489009208,-0.0957757213,-1.2642150806,-0.9428617887,-0.4379299333,-0.8189696362,0.3728377104,-1.1270135048,0.210734595,-0.6909571306,0.0988677692,-2.0064692468,-5.146160102,0.4963618553,-1.1143900265,-0.4731827777,-0.4214664857,-5.7540552876,-0.9753313818,1.2949725812,0.0276800055,-0.3314685289,1.1827288087,0.3997090751,-0.5256573191,-0.3740511309,0.2414280349,-0.7020335863,-0.2801641601,-0.3864618432,0.7787669692,0.5697356157,-0.4232672246,0.5200482234,-0.0930351438,0.5176050258,2.9444289486,-0.4095340386,-0.0451172417,0.6184161504,-0.8426472319,-0.9445355849,-0.8129002747,0.565086531,1.2222441142,5.3901115545,1.6399434739,-0.8369134432,-2.7767197683,0.4284574517,-0.2259645788,-5.4845920261,-0.0973162718,10.2075169305,-0.5846951888,-0.0951226843,-0.8008383492,8.0894876914,0.3796624517,-0.0891811072,-1.0075347872,1.0703940957,-0.5466165099,-0.167761258,-0.8962654176,0.1632050076,-0.1863467256,-0.164059288,-0.8637501774,18.25734666,-9.4583228328,-0.2479169833,-19.2384815932,-45.0956571286,109.0984990459,0.158307884,-0.5311559023,-1.6140484476,-0.3695990498,-0.1741020859,-0.1574906469,-0.315826058,1.0728294235,-0.2166005672,0.5768340787,-0.5093735067,0.3560455781,0.3914513702,0.0947332506,-0.5412283611,-0.2421918642,-0.3614092198,0.0057643162,-0.5201305234,-1.804306187,-0.153490932,0.3541222776,-0.3700534067,2.31251701,5.6955578106,0.0262723404,-0.1244042846,2.1359177761,-0.7985110505,3.7117206385,0.4299862095,0.6030774029,1.8265116268,0.4684090186,4.3315889237,0.1481877108,-0.2119824426,-1.0712363903,-0.1815008673,-0.2404619771,0.8061537375,-0.949302033,-0.0469890685,0.0678487915,-0.424733221,-0.5732877421,0.7145513806,-0.2582273292,-0.2029925703,-1.7598937413,-1.017474254,0.5145575525,0.0684199586,-0.6658148987,0.1913265165,0.1962041228,6.1777114136,-1.7699539411,-4.0775972822,0.2826610691,-11.5510872105,-1.0852624853,0.342868875,-0.3203727257,1.4240853592,-1.5685654096,0.0717021308,-1.1809048697,-0.4888138634,-1.5001448906,0.1962631043,-1.2029268107,0.5261679712,-0.2280451722,1.298187461,-0.9827324424,-0.2327130601,-1.4076647084,0.1138731561,-1.3976171262,-0.6643168272,1.5840292094,-5.3662652381,0.37229801,-2.9662195678,1.3239849047,-3.8469649183,1.2929834798,-0.5162007981,-7.8221755106,7.8039878207,0.6429238001,-6.4966328522,0.816340662,-0.8449258871,-0.4031564902,1.0304387691,-0.1431529884,-0.9630395059,-2.8167816728,0.3929565602,1.1382370357,-0.3630353848,-1.6292336721,0.6275526799,0.5433340385,-0.7061082168,-1.4179816954,0.7796223225,0.3907400071,0.1715213165,-0.0584123633,0.7291509808,-2.9330943223,2.7620291528,-2.1762311772,0.3678242457,0.9737773294,-0.2522622576,0.1163161889,0.2026801472,-3.8974590674,0.1784968547,8.1531953289,-0.1683628028,0.2918727438,0.8329146228,5.5710459618,0.1058494054,0.1715472965,0.5388327446,2.8911581496,0.0627792919,0.1476657434,0.4344573244,2.1505212399,0.1367057425,0.2084917111,0.3140470087,-32.8546252666,24.635107331,0.0855287632,12.4531741839,-139.3542679191,40.1806348687,-15.719885546,3.5575537919,9.1158159194,0.5021474151,0.3179743885,8.4805100931,0.3287476287,-18.7972709376,0.6248785823,0.2484092476,0.4258070364,2.5989839849,-0.5263486713,0.2869741918,0.5738976092,0.5885298299,0.2053793259,0.2178781964,0.6932867223,0.5158521222,-0.198089413,0.3004994149,0.724798704,62.7689733898,-106.6866471725,-2.7736269203,1.0858443475,-3.5654896027,9.0858290771,-19.0351100351,-0.009674515,-2.2978610237,0.506118297,-0.4871584356,-3.0425368182,0.4663002973,1.0389525084,0.4538782522,-1.0762255865,0.2555676762,0.5980377746,-0.2217771135,0.7683262185,0.1549834475,-1.2591580123,0.290082514,-0.0316747016,-0.383324908,0.4201648118,-0.261711991,-0.247278031,0.1203833332,-2.0275232048,4.0705102246,0.6037013971,-2.6800886115,3.2213680637,0.3853429747,1.6093202856,-0.0914885106,11.8283206876,0.6412466856,0.2916320999,7.9719407432,0.4745770207,-6.709733312,0.0262151674,0.4780420677,0.9397999359,-1.9900141857,0.2595087699,0.5092287558,0.9043859897,1.9683620828,-0.2083085829,0.4218239828,0.7941775782,2.4029601927,0.1744074707,0.3762492174,0.5134622792,-5.5837585389,3.9779465847,-12.6170354633,15.909083202,-224.1616815827,-0.5962956004,-0.6716681293,7.3938097625,17.4429617772,-0.3499064732,-0.1126695707,14.5971081919,0.2508332035,-23.7859582491,0.5651435989,0.2315717272,0.5636819713,3.3183304127,-0.5817449056,0.1574922523,0.0847245771,-4.9959367507,-0.1917600969,-0.0275866261,0.0102653802,-6.1480062531,-0.125278184,0.1653293762,0.2675562887,9.9640010004,-36.9166225671,-2.4541207656,-16.9261210295,9.3554453269,26.8357718262,12.0082888284,1.2095755066,1.6002581989,-0.6070625932,-1.2535706151,-3.8860102133,0.5526090654,-0.3373936438,-0.2982239365,-0.9026682693,-0.8604887986,-0.5803325587,-1.2137490117,-1.1271186734,-0.7982677932,-0.9892419391,-0.9746375941,0.4557265859,0.3297262878,-0.0973072603,-0.7866528137,-0.0945180484,-0.7435308742,-19.4107405661,-0.0007874732,0.4260008975,-11.4933009583,-0.4887322667,-1.1792283791,-5.4129753837,0.200198713,-0.869069907,0.6109549829,0.0352897736,1.0224718317,0.0581927081,0.3491318062,-0.7612575118,-0.5986580891,0.0438344364,-0.8522960251,-0.5456864789,-1.0860109956,-0.1620964808,-1.0455584908,-1.1543184949,-0.8009087271,-0.6794403,-0.7701218139,-0.9532875789,0.3430824283,0.2605709248,-13.8670395758,0.7957818783,-0.0359433049,-6.1286743544,-1.6642713112,-0.1631276468,-0.059024181,-1.0974011268,-7.3600807707,-0.6110518889,0.3477792388,-7.4319160543,0.0600242349,6.0369002234,0.674999996,0.4247951937,0.3064971629,1.7553880841,0.594751037,0.3014107116,0.1264059381,0.4126450757,0.1996298659,0.2776898764,-0.1205663047,-0.2589469183,0.4832733988,0.1007512671,-0.319483698,9.239753053,34.8368999923,2.7884989767,8.7279854297,-30.1252419388,-1.0979828774,-17.8265955902,1.7088495403,5.4498882307,-0.0290799859,0.0933584092,1.4576416265,-0.1007096063,30.8703110909,0.2972656434,-0.1583603005,-0.9389435313,4.6892850063,0.4324531566,0.0991796883,-0.0379620744,2.7120033066,0.1909801915,0.1720892637,-0.1396148364,3.9636182869,-0.0517139604,-0.0257155402,-0.1648256186,-34.639565353,34.6009463344,1.1778074186,13.5345519079,-74.8884783013,13.439966297,-7.4864172417,0.3261556011,6.2878249809,-0.2545875104,-0.3609007424,6.5266763128,-0.4689561505,10.2216795722,0.3863979235,-0.5024242653,-1.5796017393,15.4252297038,0.0195730359,-0.5196474132,-1.1553775355,4.8752964973,-0.3746364772,-0.4984043213,-1.0532611566,-0.6460987356,-0.156596906,-0.033884458,-0.9002707131,-10.7076597452,-18.1274029309,-1.9525820532,-24.1405826736,7.9310642082,35.7598674762,39.2671001697,-0.686549158,0.003634719,1.0038310756,-0.0882969741,1.0791178173,0.5463652066,-1.5478859729,0.8670917508,0.5480068376,-0.4409843642,3.2649766297,-0.7258504224,0.0719788749,0.8806899355,0.2646663716,0.0693613873,0.0725041381,-0.3574128618,-0.0518343816,0.8208058267,0.221292127,0.4020941525,1.1319847693,1.3503803464,-0.0866118779,1.1156990707,2.9404876882,5.6540177875,7.9120179715,0.7635521328,2.0267143826,0.4836469902,-0.0650064467,0.942228061,0.3702777622,-3.1680934237,0.2809393982,0.039412001,-0.3405455893,0.3245330955,-0.2776497873,-0.2331429209,0.6684020161,-0.3486698549,1.4722425881,0.0116240769,-0.9526579734,-0.6136771784,0.2789557096,-1.2444914179,-0.5153369239,-0.2198575114,-2.1664325756,0.6206091436,6.2214879865,1.3575864171,-0.526256616,-1.1843374882,-0.1386817286,-8.9135251322,0.2542880075,0.0595313226,-2.5723734301,0.0174771595,-0.3348905366,0.3054115425,-0.2700605069,0.1950057207,-4.7032942398,-0.045603503,0.218565822,-0.4637092062,-0.7375740803,-0.1793685057,0.0669939684,-0.0469739015,-3.0758647877,-0.2928616493,0.3374691472,0.1908860381,0.2870116612,-20.7691281858,1.2183565159,0.4145167133,-11.1729582816,2.3489624414,13.9144581211,-0.8247994398,1.1768540886,-0.4472505734,0.3882581112,-6.5737029676,-0.4940692832,-1.3076109972,0.9618386221,-0.6401762117,0.9609309766,0.2539811046,0.2575019078,-0.2612621101,-0.0657613452,2.1949651325,-0.4280615977,-0.0797924325,-0.2594377005,-1.3938184534,0.4913053875,0.4577259009,0.1550962549,-0.6595580583,-5.7389127325,4.2381891324,-6.1368721598,3.1553549134,-0.908937236,2.1228459952,-0.8525412308,2.1222125456,0.5519869444,0.0610133404,3.8170120092,0.4570021048,4.1324644574,0.4081255624,0.3547514238,0.702530109,-0.3112684137,1.0729033292,0.9128612291,0.9595925663,-1.7987992483,0.347440685,-0.1229282431,-0.1419164825,-1.77965156,0.1648883529,0.0856559764,-0.4218848591,32.6517300284,7.6351656157,0.7040595528,-8.8268661849,-16.4556618777,0.2039221243,2.5776784463,-0.2311571303,5.7723310756,-0.1262375767,-0.1446464902,2.7466768331,-0.2968206462,27.1803588384,0.378487788,-0.2461321155,0.2547827289,-17.6117504698,0.009521199,-0.2780830198,-0.4052772734,-4.7473141498,-0.0003007043,-0.3165785881,-0.3548848155,-7.5949942319,-0.4597340746,-0.2993767004,-0.2299772245,11.1453293753,-3.0209380487,-1.4043099253,-3.0971451619,-0.990456247,0.2134944849,7.9774022614,0.6608511153,9.2095220464,-0.4526566674,-0.2943644721,-6.8264850714,-0.1057595756,-6.9205399819,0.4635113417,-0.1681840693,-1.3442911871,-2.5906274518,-0.9236528459,-0.1134823779,0.0153178779,-1.7131403641,-0.4388473348,0.0049064156,0.2102877814,-1.0221510164,0.467735092,0.4436352035,0.1262896474,1.0747700968,-10.6426132034,2.0337913947,1.2057583594,1.4349037638,-1.2107874903,9.0038246484,-0.0234490439
biasActivation=0,1,1
[BASIC:ACTIVATION]
"org.encog.engine.network.activation.ActivationElliottSymmetric",1
"org.encog.engine.network.activation.ActivationElliottSymmetric",1
"org.encog.engine.network.activation.ActivationLinear"
