encog,BasicNetwork,java,3.3.0,1,1469376999774
[BASIC]
[BASIC:PARAMS]
[BASIC:NETWORK]
beginTraining=0
connectionLimit=0
contextTargetOffset=0,0,0
contextTargetSize=0,0,0
endTraining=2
hasContext=f
inputCount=28
layerCounts=2,46,29
layerFeedCounts=2,45,28
layerContextCount=0,0,0
layerIndex=0,2,48
output=0,0,0,0,0,0,0,0,0,0,0,0,0,0,0,0,0,0,0,0,0,0,0,0,0,0,0,0,0,0,0,0,0,0,0,0,0,0,0,0,0,0,0,0,0,0,0,1,0,0,0,0,0,0,0,0,0,0,0,0,0,0,0,0,0,0,0,0,0,0,0,0,0,0,0,0,1
outputCount=2
weightIndex=0,92,1397
weights=-0.2514770986,-0.4172401357,0.2613946042,-0.2094854563,-0.5930826538,0.6615621402,-0.8613250306,0.832348394,0.4868056496,0.5431019879,0.1541475495,0.7430874785,-0.1362592678,0.0110607543,-0.0889454642,-0.9333950214,-0.2348518966,-0.1300408713,-0.5814309197,-0.4708791804,0.3867803432,-0.4591963437,-0.130414086,0.4945816281,0.4803109954,-0.2125003278,-0.1680301278,0.2320529119,1.4566711965,1.0503597319,0.154557597,-1.1192478238,-0.8872652832,-0.4372366023,-0.1790726864,0.2001924979,0.1686870463,0.6876444086,-0.1713214632,-0.0955819605,0.0137333372,-0.1414164729,-0.1467571313,-0.3955105435,-0.1684400117,-0.1224807696,-0.2847074442,0.2833528998,0.3799612967,0.7888373826,-0.0315540101,0.2324372391,-0.4659131148,-0.5832580043,-0.2759640017,-0.1256053429,0.8433321354,0.8132491804,0.097516254,-0.1323421655,-0.2031862826,0.5388242949,-0.9412872991,-0.3662568972,-0.0688148104,0.4499166345,-0.43149028,-0.4651015717,0.2554333073,-0.9410720788,-0.0759452799,0.0839302232,0.450304099,-0.2104934586,-0.3319975123,-0.8035522975,-0.0801148918,0.3169957016,0.12381764,-1.0402862181,-1.079379482,-1.6123202488,-0.5247663465,-0.1960925485,0.8109199818,0.1210797685,-0.6870376524,0.2487626463,0.621111095,0.2710544968,0.2937238205,-0.6451635317,-5.1194246856,-0.4516624618,-0.3165642777,-2.0587125709,-0.3514292615,4.5089075385,0.0292982001,-0.0927875277,-0.1862188649,4.1447814592,-0.6166099629,0.0541094754,-0.3811163929,-0.9440094853,-0.234432467,-0.1012020681,-0.4604604954,0.2216468121,0.1240876529,-0.033994294,-0.5143710668,71.5523908446,62.2503852964,2.6190075282,16.4898381592,-24.4095926325,10.6531503853,-25.9165482784,0.9706368973,0.2357768748,0.7811923529,0.2957640568,-0.1818389771,-0.1382321847,-2.3054691523,-0.7045499281,-0.6593019099,1.8543857109,4.4152663959,-2.7620747057,0.4843566245,-0.4480094164,-0.04260299,-0.8191795984,0.3583940379,-0.0708957264,3.8936806363,-0.4789929437,0.1371274682,0.772502931,2.5444406935,-2.709417899,-1.2306903622,-2.3407473377,-20.0155810504,5.159711371,-11.9271748451,-0.3301563988,-4.5341645403,-0.1033053621,-0.0572373599,-3.7821266658,-0.258058352,3.4750212601,0.0994253068,-0.7776562229,-0.1427684216,3.4315620284,0.0003997198,-0.2962710113,-0.3141850141,-1.1913522835,-0.1212743222,-0.2535773081,-0.4023491721,-0.855837736,-0.3899568106,-0.4318795092,-0.357933209,3.6431647012,2.2538515676,0.6898446625,1.3142614551,6.0613392325,1.1573039393,18.3231720235,0.8298524125,-4.2488052342,-1.0109036527,-0.1794703691,0.3139524505,-0.1237631605,-1.8560603371,-0.3168110584,-0.938937123,-0.7258328584,-1.6104678341,-1.1523912658,0.3562019779,-0.5565003975,-1.9318249903,-0.7588086352,-0.5457753671,0.2516412198,-1.5838288279,-0.8616094081,-0.7609910917,-0.7746131486,-0.074492705,-8.2119480403,-0.0594285677,0.2628033891,1.2919826156,-1.4895716643,-3.8942574713,0.5957506553,-1.4658708206,0.2675169769,-0.0594780322,-1.8254679401,-0.0290886513,5.8056697729,0.3057034332,0.145709589,-0.1744403041,1.200448491,0.0704139374,0.2102956734,-0.296085949,-0.1720383869,0.0863454137,-0.0287332018,-0.2907698767,0.4294019441,0.1510489964,0.1793420666,-0.1535726611,3.3251173737,-1.4089755233,-0.6730622853,9.0957536622,-3.8302736427,5.1831694942,-8.3240146456,-0.0581838782,-7.1145064559,-0.2315215401,-0.221392541,-5.2306907069,-0.6756044782,-2.2037433558,0.7232465802,-1.034754542,-0.3564287061,0.2170672425,0.4838354788,-0.5860687242,-0.692381854,-0.1694101831,-0.5851731975,-0.3417482702,-0.2949096286,-0.0613434562,-0.589863283,-0.5764300878,-0.2670688593,-1.0812400345,-7.2873880116,-0.5353399559,12.3635303549,-1.6409642647,4.7183248778,-1.8334461141,0.4295841486,2.0017053331,0.0014159816,0.1332972543,4.2823763593,-0.1079102382,-5.7215776192,0.4370922064,-0.0102752513,-0.1216412206,-3.4117879406,0.2037525788,0.0959920246,0.0913152534,-1.8991155769,0.1273249782,-0.039239467,0.1164827554,-2.0256376012,0.0215159894,-0.035634493,0.1079773345,-2.2792693991,-4.187618735,0.0167547793,-4.0359006266,7.2158582306,-3.0119735672,20.3092677499,-0.6812838418,0.6848145405,-0.2580022266,-0.123183535,-0.8847305538,-0.169688944,0.4102220657,0.0037861768,-0.4404011771,-0.3688024528,-2.7378050878,-0.5513885014,-0.2681402827,-0.3299048724,-1.6935785996,0.015303625,-0.2625312716,-0.387203028,-0.8331934304,0.127638867,-0.2318323636,-0.4879441926,12.6465676483,20.9966555986,-1.9790898799,17.3842630201,-0.1825604692,0.5077216031,0.6115749728,-0.4441749349,1.1295282899,-0.3200027443,-0.1443833886,2.5756676084,-0.1773502043,2.771065464,-0.1797106069,-0.0393493348,-0.1615359666,0.5505878607,0.0494175778,-0.0555512825,-0.2586774161,-1.5403681087,0.1718580065,-0.1111390252,-0.1981977392,-2.7648118322,0.2144319099,-0.0934428495,-0.0261754041,9.0254328256,-1.6301572801,0.3151230725,-4.6544354997,123.0718601056,-86.2896014033,9.1693055734,0.0675612896,2.0733340011,0.4745234704,-0.0463516223,-0.1782152946,0.5286271695,-11.4323049159,-0.3490922929,0.4021847951,1.4581274136,-50.6985242037,0.5036238503,0.3977419474,1.3393176255,-16.3903999335,-0.1677090207,0.4278163023,1.2385969154,-6.5037868833,0.4797841912,0.3301722954,0.9704005437,15.94863753,-6.0814852832,0.5646995949,0.820257343,2.6006000639,-23.6166138837,8.6148610904,-0.7775326036,4.3223771318,0.0114559372,0.2209754675,6.2163909555,0.4086379718,-8.8471433974,-0.1906324746,0.3731207746,0.6542972589,-3.8479567381,0.1638690476,0.266850516,0.8823491283,-0.7154454503,0.3825370771,0.145698594,0.8925217815,-1.676050833,0.4452234358,0.2218280676,0.9075165836,-20.1952527197,4.9052930683,-3.2172469328,7.4428212345,-72.3946859417,-2.4797363714,6.398149177,-0.5609731566,-3.4854531498,0.1537368188,0.3654489107,-1.7355394355,0.0893115403,9.8059174566,0.3808238643,0.4555948138,-0.5996094736,6.6157273726,0.4103605733,0.3339612928,-0.9247682538,-0.14211668,-0.2144610611,0.3382617504,-0.8345218939,-0.2242466848,-0.3994806545,-0.1903932681,-0.916570665,12.9587308481,10.8375759557,0.8030711668,-4.9630576037,-1.7206836115,0.3179799546,9.7046825602,0.6574406121,-1.1153902929,0.4250097573,0.8539838248,0.7553297937,-0.4906170597,-1.1497837618,0.2161109995,-0.0232810679,-0.3805844354,-0.2235291173,0.8656208758,0.1061671716,-0.8034017412,-0.2153833511,-0.7155239996,0.2583200169,0.7889685672,-0.7807309699,0.2929165983,0.5358495732,-0.1191425947,-0.0588573875,-0.8299689032,-4.0085445177,6.8953093485,1.1192737235,-1.872630173,-2.2968083322,-0.9192669928,-5.5104367797,0.6625587251,-0.944512794,0.3667561661,-0.1373153592,2.174063912,0.5590464335,-0.0868969708,-0.5913703662,-0.6723163178,0.8206306104,0.4456113792,1.0619063481,1.2065536732,0.5741333156,-0.8972020997,-0.1575304916,-0.1401746712,0.5170861949,0.4452252896,-0.1078722726,0.6419430934,0.7194436864,-0.6187568578,0.0093444494,-0.716421495,0.0401803686,-1.1850489976,0.6490654163,-0.8446400754,-0.3625968303,0.1021679011,-0.6376969544,0.1250731762,0.6068978482,-1.0182665346,-0.1084146647,-0.9020843021,2.5915998623,0.2822306168,-0.1287849221,0.6282506266,1.0948079505,0.810715584,-0.0010600823,0.2105733733,1.7995861055,0.3238462351,0.0631491565,0.129711632,-8.5444426213,-1.5406047584,0.3522293277,0.2230740696,-10.3995792019,2.5241565272,-1.3082850184,-0.0267749965,-1.3938825489,-0.1666277752,-0.139537602,-3.4201495295,-0.1359051378,-0.9062566963,-0.6396184856,-0.1259448365,-0.5274799777,-0.2782308034,0.1009246656,-0.0971635277,-0.3726311997,-1.4111441329,-0.2542599099,-0.1364840553,-0.3408575725,-1.3369696249,0.0213989419,-0.1272418795,-0.3042435733,-1.4456092483,-1.2618355495,-3.0701523828,-0.4075910639,0.8794524158,-18.7037272303,46.3893931316,0.2203365224,-0.2132425193,-0.267934541,0.2739750674,0.4694101568,0.4946365976,-9.181752383,0.6098541918,-0.0091081721,0.0763740338,-0.217833427,0.1124270549,-0.1721957878,0.6912615671,0.5830905206,-1.1588791027,-0.0371140416,0.4468177891,0.4648118829,-0.830274975,-0.5405767718,0.4854037399,-23.1307311774,0.150937037,0.2644858989,-0.385593079,0.177193961,-0.0397278503,-2.3400978844,-1.1062103819,0.6234032259,-1.0380743627,-0.9919029788,0.0622585133,-0.2392166406,1.3177793315,-0.7605651697,0.5716179495,-1.0804031736,6.5505865582,0.3404882684,-0.1144286731,0.6281139193,-0.9785751287,0.0899267615,-0.953483723,-0.2480482579,-0.9599633128,-0.6382429738,-1.1128932616,-0.5198269963,-1.5734576266,-8.071408675,-1.012206503,-1.887195949,-5.6975482418,-0.2290686293,4.6385257361,-0.3286895432,-6.8908172621,-0.2009512541,-0.1626662348,-27.8053917585,0.242486713,1.3263152871,-0.5920285105,0.169483907,1.3488727331,-0.9203715182,0.5579001903,-0.0963483987,0.4880410848,3.3339374354,0.0239510307,0.7012741346,0.5252548437,3.3060686236,0.1712388716,0.0083390037,0.2921635211,0.5142048383,-1.3116857109,1.4215100938,-1.7057980184,-13.6479058577,-14.0963285048,-1.8751282048,-0.3407951952,-22.8641118785,0.0980074357,-0.1957078128,5.359079799,-0.1622983523,-6.7620295617,0.3779960308,-0.1636125645,-0.1463811788,-4.997561733,-0.1333195244,-0.0974528636,0.0169800726,-1.2845627976,0.0350432081,0.0096059992,-0.1304836161,-1.1327493196,-0.0606970774,0.3198798699,-0.2535858861,17.1250417096,20.9243676418,-0.1337757469,17.4965839382,-0.7013706501,0.001864182,-26.0219291599,0.1076277522,6.9453320146,-0.4438495861,0.7761527126,2.6906149526,0.1826002565,2.0004237103,0.0534026542,-0.026731353,0.8952445855,-3.8852641182,-0.3354006007,0.3802423369,0.3263826975,0.0913903234,0.0988401414,0.5854803776,0.156396001,2.9698999059,0.371324054,-0.1054876059,0.6521412333,-1.5926311221,-2.283299696,-0.4777383247,-28.0827996546,-8.065388245,2.2866664868,-18.9296846139,-0.4567625036,-0.3498246428,-1.1528757238,-0.1911426972,-0.2634814193,0.2150546263,-11.473130852,-1.1373462111,0.0788980003,1.5297532023,-4.8059252769,0.1485983496,-0.1056503866,-1.264503108,0.6889518722,-0.4379353536,-0.8185865377,0.2206662171,1.2204386617,0.2106776963,-0.6937623672,0.1117025034,-2.3280849915,-5.1471938002,0.4960769159,-1.1142032902,-0.4762499092,-0.4220331671,-5.7541446304,-0.9748070453,1.2951005195,0.0276023111,-0.3319677559,1.1798282996,0.3911890608,-0.5255192986,-0.3741262228,0.2397861513,-1.2889018983,-0.2781897326,-0.3867307872,0.3838881095,0.4872761864,0.5149309712,0.5196339087,-0.0931504249,0.5165824662,2.9439304799,-0.4095572703,-0.0451732619,0.2596049681,-0.843450191,-0.944682297,-0.8130927933,1.0358906537,1.2223318447,12.4121775367,1.639811806,-0.8372566955,-2.9541045946,0.4261151742,-0.2249632904,-5.4856979859,-0.0997852349,10.206755233,-0.5841289668,-0.0969250576,-0.7457523279,8.0692643676,0.0796882879,-0.0895969354,-0.9624283932,1.0722286148,-0.4032968198,-0.1676945074,-0.8267436561,0.1634263707,-0.1864304109,-0.162935635,-0.7628931715,18.2560664582,-9.4582911146,-0.2478556587,-19.2384500955,-45.1081633615,109.0985225537,-0.1950633226,-0.5844758052,-1.6140722404,-0.3695397958,-0.1737455529,-0.1574624423,-0.3153804226,1.7174491595,-0.2167108146,0.547689423,-0.5097022658,0.3570527109,0.3914712105,0.094592924,-0.5450894393,-0.2419549235,-0.3615295966,0.005756581,-0.5197139033,-1.8043042915,-0.1539357314,0.3538137875,-0.3703277419,2.3118134817,5.6956040997,0.0260994313,-0.4550288514,2.1360826037,-0.8034378922,3.7117493753,0.4295263795,1.9345433824,2.0408201453,0.1257485603,6.0356860204,0.0199987458,-0.2122887226,-1.5046109121,-0.1816373919,-0.240109109,0.4816695556,-0.9517914017,-0.047524117,-0.2563886362,-0.4240684892,-1.2925300349,0.4220602785,-0.1370657796,-0.2063587656,-1.9790039465,-0.4010110853,0.2034720352,3.3964421985,-0.6646776038,0.1900856361,1.2619863036,6.174139694,-0.6649428298,-4.0763760219,0.2826555814,-11.5508376233,-1.0852644283,0.3429194839,-0.3194573501,1.4258210022,-1.5685776478,0.0819988891,-1.1808245243,-0.5600565198,-1.5000259374,0.1913607154,-1.2035381694,0.5238378678,-0.2277315921,1.6998919759,-0.9826544519,-0.2327750636,-1.4056673597,0.1462023143,-1.3953556413,-0.1621698796,1.5843138096,-5.3656094156,0.3592196964,-2.9660766316,1.3402505743,-3.846232957,1.2932030504,-0.5162930772,-8.3475218569,7.8039920543,0.6092773316,-5.4940715228,0.5908684729,-0.844832071,-1.5346315723,1.0302448743,-0.0835035398,-1.0349376032,-2.8168210067,0.3924972143,0.9312446626,-0.3634786972,-1.89501725,0.3940110769,0.5439610984,-0.7081300572,-1.6608927804,0.7792308885,0.384259109,0.2529306244,-1.0967651605,0.7301622085,-2.9340780824,-0.8536265736,-2.1756443293,1.659120352,2.0729492834,-0.2006077185,0.1154882566,0.2015148519,-3.7092490694,0.1782874861,7.3274649425,-0.1652438759,0.261389463,0.7838129456,5.5704017496,0.1059867603,0.1662310094,0.500993867,2.8824774607,0.055827938,0.1456740851,0.4262168581,1.8774207145,0.1342859443,0.1941710622,0.3142005644,-32.836837401,24.6357141163,0.0854213448,12.4534045304,-139.3542601583,40.1808242813,-15.7203798329,3.6661931185,8.0436456938,0.5013231793,0.3179748121,7.9671892986,0.3282982863,-15.8338519839,0.3771539058,0.2477742453,0.4254365219,1.8742418779,-0.5251793779,0.2699481875,0.5227645,0.5892160171,0.2048832091,0.2176684038,0.6930141188,1.1157989079,-0.1977543188,0.3000441504,0.6956259896,65.4919191184,-110.841805247,-2.9990232167,1.0867889205,-3.5657635194,9.0863600581,-18.6970188312,0.3118600142,-2.2978994373,0.5049002445,-0.4868143216,-3.0529507832,0.4661327224,1.0395142243,0.4551068279,-1.0757766841,0.2573098111,1.3933372786,-0.221387122,0.7683152381,0.0556178319,-1.2686651667,0.2899508805,-0.0314170258,-0.3817142057,0.4113415244,-0.2617636851,-0.2470569056,0.1190759041,-2.0276906759,4.0705700838,0.6039573618,-2.6802526952,3.2215751993,0.3855157491,1.6261138415,-0.0915026659,11.8278062612,0.4395726381,0.2914017383,7.9719974464,0.4705607737,-6.7096612814,0.0261773527,0.4780536871,0.8620639396,-1.9832125759,0.2593250552,0.4950971701,0.8653186794,1.9661999902,-0.1967708962,0.4215139722,0.7535734637,1.902800595,0.1746632957,0.3760925008,0.5131769118,-5.5279359119,3.9779721561,-14.5057771302,15.9089507073,-221.1918665682,-0.724280106,-0.7092824214,7.7815755641,16.0051657701,-0.3502693596,-0.1126607555,13.9059453998,0.1182039794,-24.2596335753,0.5493013644,0.2311135172,0.4940154832,3.3184492089,-0.5815162011,0.1555927116,0.0828936292,-4.954740871,-0.1917985569,-0.0296768061,-0.0348840612,-6.1471357461,-0.1249952509,0.164929059,0.2415028904,9.9642929849,-34.8995681981,-2.4807515335,-14.8709419395,9.3523268729,26.8360143513,12.0086115283,1.2100735364,1.600276989,-0.607046019,-1.2535814337,-3.8865834103,0.5492531551,-0.3455412065,-0.297974149,-0.9027546189,-0.8614421245,-0.5809479108,-1.2134525545,-1.1269588133,-0.7984577926,-0.9891969694,-0.9746862674,0.4554420876,0.3295354319,-0.0983129349,-0.7864459518,-0.0952044194,-0.7436256162,-19.4158488069,-0.0487888715,0.4257921317,-11.4933958679,-0.488962635,-1.1792731929,-5.413144572,0.2002651642,-0.86919293,0.4575627298,0.0084215311,1.0122034239,0.0439913909,0.3457669403,-0.7613083392,-0.5988907855,0.0436686104,-0.8521861744,-0.5456653227,-1.0863460094,-0.1622456499,-1.0461857385,-1.1541954969,-0.8009957274,-0.6795844428,-0.7700809059,-0.9532865701,0.3308600196,0.2606609363,-13.8710307315,0.6658741365,-0.0360739602,-6.1289691544,-1.6670165107,-0.1644615609,-0.0590935462,-1.0974935365,-7.0271887024,-0.6111258284,0.2692509322,-7.4321101291,0.0598412447,6.0370108015,0.6252920144,0.2611197471,0.2952869137,1.7564288009,0.5947220339,0.2455107868,0.1253945325,0.4138528063,0.1996491559,0.2749640746,-0.1461505718,0.0240607016,0.3318379621,0.0914276519,-0.3942356809,9.2353283029,35.8667792319,2.7884828767,8.7266250052,-30.1278990227,-1.0973246206,-17.8264791019,1.9334934981,5.5456601418,-0.0294880619,0.092454141,1.478910618,-0.1006994614,30.0901881898,0.2917842572,-0.1578130201,-0.9389098819,4.689913685,0.4320970365,-0.0211306653,-0.0380512697,2.7103269005,0.190732473,0.1694935168,-0.1425532539,3.9621305592,-0.051682177,-0.0257097191,-0.1646665907,-41.3875424714,34.6014076554,-1.0661114069,13.5343865257,-74.8894413653,19.8690590424,-7.4864714208,0.3264243636,6.2939521261,-0.2394865278,-0.2652816445,6.0396620163,-0.3901946385,10.2216561692,0.3865501133,-0.4382758541,-1.4968173985,11.6985474194,0.0195417011,-0.5075331922,-1.1078714032,4.8664989658,-0.2952002943,-0.4118825788,-1.0137743371,-0.6459754367,-0.1564146831,-0.0337522824,-0.833609542,-13.2893662496,-18.1277031098,-1.9525025232,-24.1404355836,7.931901,35.7597455995,43.3924158783,-1.002310759,0.0035349322,1.0038486615,-0.0883917109,1.0789773176,0.5466822972,-1.5477580742,0.8669616672,0.5480016722,-0.4410321151,3.2649396606,-0.726024428,0.0722821471,0.8815186116,0.2645028969,0.0694128162,0.0724165414,-0.3573207339,-0.0516626859,0.8208061957,0.2225770406,0.4022483082,1.1327082843,1.3662997328,-0.0866426879,1.1157536773,2.9405759684,5.6540756007,7.9117775894,0.7635588614,2.0259862697,0.4841206057,-0.0677650975,0.9453256677,0.3704728039,-4.0905225457,0.2803624289,0.0392422777,-0.340541443,0.3267942957,-0.2780664299,-0.2312740774,0.6702287722,-0.3510378752,1.4715188934,0.010720064,-0.9524642817,-0.6136466695,0.2788012504,-0.6615190853,-0.5152481848,-0.2165453971,-2.1631560783,0.6202311762,6.221634617,1.3579284896,-0.5260088726,-1.184805578,-0.138585428,-8.9110300348,0.254127568,0.0622445098,-2.5725483054,0.028302727,1.7774084618,0.305490091,-0.2693756518,0.1949315789,-6.3547778588,-0.0410949562,0.2177497943,-0.4626865099,-0.7381753313,-0.069848499,0.0672154347,-0.0374906301,-2.1963642117,-0.1947557717,0.083945048,0.1727589988,0.2857122977,-20.7708478491,1.5390597217,0.4148042398,-11.9725929973,2.2441408032,13.9162799718,-0.8245168343,1.1766078755,-0.4451486619,0.3877483956,-7.9505756661,-0.4869746975,-1.4325244476,0.9620900994,-0.5575612043,0.9590089432,0.2541471765,0.2575088752,-0.26023384,-0.0427579825,2.1952489888,-0.4264673391,-0.0798693478,-0.2593937992,-1.393623149,0.4923135877,0.4573630022,0.1531828672,-0.65952725,-5.7389128185,4.2404145336,-6.1368725505,3.1555232403,-0.5766083246,2.1228205012,-0.8525772156,0.7622496334,0.5518050586,0.0611489912,3.8170390988,0.4570162492,2.7656540198,0.4079462123,0.3548851976,0.6348482017,-0.3111663496,0.920268323,0.9051476072,0.9594774058,-1.7991100837,0.3476351879,-0.1224223703,0.067750279,-1.7797035358,0.1649674253,0.0885281532,-0.4194922035,32.6515026413,11.6446509885,0.7038076287,-10.8329703313,-16.54260473,0.2040528209,2.5777799961,-0.2313256458,5.7722184994,-0.1270734885,-0.1449876383,2.746353423,-0.2968992545,30.6281861824,0.3775112526,-0.2462164002,0.2554427628,-17.6116799113,0.0092968042,-0.2772767816,-0.3957500864,-4.7476179991,-0.0003830713,-0.3148647869,-0.3549190458,-7.5929485397,-0.4594452902,-0.2993132208,-0.2301167646,11.1460626592,-3.021322881,-4.173014071,-0.5497469584,-1.1865208328,0.2140667068,7.9779548569,0.6607046123,9.2087181871,-0.4524307338,-0.2928270607,-6.8350115878,-0.1044366024,-6.9208822345,0.4627120029,-0.1672250992,-1.4925883161,-2.8512392052,-0.9238152469,-0.0774444697,0.1223042943,-1.6980478269,-0.4189252837,0.0051362211,0.1574790793,1.8368869403,0.4483162104,0.3357742259,0.131464391,1.0760406554,-10.6460124481,2.0337269061,1.2051436618,1.4352009143,-2.8553978235,8.9872195595,-0.0236449348
biasActivation=0,1,1
[BASIC:ACTIVATION]
"org.encog.engine.network.activation.ActivationElliottSymmetric",1
"org.encog.engine.network.activation.ActivationElliottSymmetric",1
"org.encog.engine.network.activation.ActivationLinear"
