encog,BasicNetwork,java,3.3.0,1,1469377296630
[BASIC]
[BASIC:PARAMS]
[BASIC:NETWORK]
beginTraining=0
connectionLimit=0
contextTargetOffset=0,0,0
contextTargetSize=0,0,0
endTraining=2
hasContext=f
inputCount=28
layerCounts=2,46,29
layerFeedCounts=2,45,28
layerContextCount=0,0,0
layerIndex=0,2,48
output=0,0,0,0,0,0,0,0,0,0,0,0,0,0,0,0,0,0,0,0,0,0,0,0,0,0,0,0,0,0,0,0,0,0,0,0,0,0,0,0,0,0,0,0,0,0,0,1,0,0,0,0,0,0,0,0,0,0,0,0,0,0,0,0,0,0,0,0,0,0,0,0,0,0,0,0,1
outputCount=2
weightIndex=0,92,1397
weights=-0.2939014502,-0.4173563147,0.2615583033,-0.2096063271,-0.6736367438,0.6613100892,-0.8611511842,1.033885692,0.4903821462,0.5374675644,0.1566520701,0.7432183315,-0.1666171911,0.0112207334,-0.0881363296,-0.9287835595,-0.2349858774,-0.129808429,-0.5816369249,-0.4669004416,0.3872323956,-0.459314673,-0.2166952676,0.4652378571,0.5236639529,-0.2475881572,-0.1681290164,0.2485753988,1.469868346,1.0585418609,0.2086767132,-1.1339451333,-0.8873022725,-0.4373535774,-0.1791794215,0.1749318165,0.2102835789,0.691278789,-0.1712044881,-0.0952552431,0.0141540477,-0.1468193799,-0.1466182816,-0.3992700662,-0.1665150987,-0.1224215743,-0.3579792732,0.2830404169,0.4190660433,0.7885437775,-0.0043793274,0.2320730987,-0.4638480237,-0.751453579,-0.2952152786,-0.1255544229,0.843715412,0.8136367444,0.1589665382,-0.1148654163,-0.2040125983,0.5171466678,-0.9416130508,-0.3669329396,-0.0689267904,0.4498401184,-0.3982578893,-0.4654179788,0.3509835264,-0.9414132578,-0.086309943,0.1216706754,0.4499787544,-0.2193801659,-0.2899411437,-0.8032402534,-0.0853950223,0.3161940193,0.1414899337,-1.0405681008,-1.0796543247,-1.6163542188,-0.5249761631,-0.1960631577,0.8112089894,0.140248633,-0.7021641664,0.2488397197,0.6217289978,0.2710091919,0.2913707572,-0.644890857,-4.3554341002,-0.4512475186,-0.2927446135,-3.012502325,-0.3513622973,4.8196713152,0.0289737008,-0.3173697293,-0.2678413431,4.106360716,-0.6169465707,-0.1498133647,-0.4883162232,-0.5202022985,-0.2365146651,-0.1819951695,-0.4579268302,-0.1136044555,-0.1334479482,-0.1434112984,-0.5330247738,44.2099069373,58.4771645331,2.6182096365,23.7547053284,-24.6776353355,17.3901185895,-25.9179777548,0.9710310749,0.1207823125,0.781280663,-0.1093608485,-0.1818186132,-0.1378620274,-2.3061475888,-0.7042872341,-0.6566563445,1.8528348009,4.2377117533,-2.7620440591,0.4859195267,-0.4243330747,0.8852981098,-0.8596855907,-0.2898894474,-0.0704472673,3.7427138201,-0.3459144068,0.1377229607,0.6045968897,2.5461008593,-2.7093162671,-1.2303707349,-2.3329449196,-20.0152479224,11.2545153567,-11.9270112561,-0.3295354731,-4.7466451648,-0.1044263826,-0.0691481736,-3.7969850611,-0.2587375476,3.5136929665,0.0944206468,-0.6279956619,-0.0995334766,3.4335496457,-0.0023644541,-0.2965184841,-0.3181025945,-1.2413961855,-0.1233416328,-0.2554835751,-0.4535245951,-0.8546206806,-0.3903080718,-0.4293132014,-0.3601250265,3.7352257112,1.4981919842,0.6918534438,1.3142706214,6.0596160522,1.1546261188,18.3466868789,0.8264755891,-4.2496999812,-1.0106801187,-0.1767601688,0.3152461257,-0.123480412,-1.8561219265,-0.3176749403,-0.93879989,-0.7254513093,-1.612692548,-1.1524816577,0.3564589798,-0.5559223715,-1.9318709139,-0.7586560408,-0.5457291298,0.2519546076,-1.5835786271,-0.8611688914,-0.7606908061,-0.7722786368,-0.0744768966,-7.8437127956,-0.0594006136,0.2632194317,1.292130599,-1.4894123717,-3.8945500517,0.5958259207,-1.4685829585,0.1344293956,-0.0405323883,-1.8278080018,-0.0290596229,5.1020195086,0.3055595862,0.1454152722,-0.1742986108,1.0696136935,0.0554222953,0.2096474558,-0.2901229442,-0.1720021909,0.0858914109,0.0181433464,-0.2068677797,0.4353718499,0.1503341498,0.1790224524,-0.0918271955,4.4899183897,-1.4244795654,-0.6728295336,9.096122904,-3.832020171,5.1836718473,-8.3243665926,-0.0574144459,-7.0175153344,-0.2792778562,-0.0613818283,-6.9715421462,-0.6031580287,-0.2505239622,0.7232747074,-0.7941395299,-0.3593269096,0.105786802,0.4833177684,-0.5861992333,-0.7242459691,-0.1689122397,-0.5321695879,-0.3406230781,-0.3025272733,1.8823589489,-0.5919564054,-0.4727366623,-0.2543411442,23.4894427278,-39.7028085899,-0.5334434507,12.3428964802,-1.6401277427,9.2058671563,-3.199149662,0.4198205704,1.8548086981,-0.0171245078,0.1204766409,4.194008936,-0.0732573973,-5.7196512416,0.4368205114,-0.0119392389,-0.1198616456,-3.0907847467,0.2035539804,0.0956626729,0.0912604875,-1.8980886605,0.1255874808,-0.0074205219,0.1280850218,-2.4376613552,0.0172135157,0.0029108148,0.1141347997,-1.9292307605,-7.9246198908,0.0164464147,-4.3840929269,6.4997898195,-3.02465938,21.8457549259,-0.5517825415,0.643038737,-0.2511634435,-0.130067221,-0.8837728895,-0.1699223182,0.1735085999,0.003380211,-0.3073437786,-0.3490533634,-2.2138468903,-0.3929205295,-0.2678954247,-0.3213237483,-1.2893814555,0.0149616241,-0.2558116376,-0.3219071932,-0.5861482997,0.0426223296,-0.2314448251,-0.3806913947,8.072140846,20.9973742671,-2.116723389,20.4947073207,-0.7494993394,0.5062565082,-1.1536333844,-0.4921649545,1.5536749588,-0.2864059161,-0.1315521267,2.5937686113,-0.1695390616,2.0269267808,-0.1789421452,-0.0397506004,-0.2202242258,0.5553394289,0.0562204293,-0.0562840804,-0.2895798799,-1.5404911203,0.1715387564,-0.1109365405,-0.2029071153,-3.10525052,0.0502602858,-0.0933742069,-0.0142591426,9.0113250772,-1.6348504807,0.7143033129,-4.6535954537,123.0717059598,-86.2905690984,9.1694215765,0.0671080901,3.357238787,0.4303636347,-0.0374248832,2.0491246523,0.4683731476,-15.0940442959,-0.3499908475,0.3992453206,1.4345535262,-47.9394193848,0.3135105081,0.396011234,1.339401551,-13.287029865,-0.1657836221,0.3521362453,1.2115843992,-6.4896467747,0.4795417837,0.3288858418,0.998559995,15.9484930638,-6.0807699694,0.5632275156,0.8202247379,2.5954518834,-24.5482419622,8.6151297437,-0.7781225115,4.3204741946,0.0524461094,0.2203702067,6.2165643969,0.39802632,-10.7802665334,-0.1473158761,0.395995739,0.7232424012,-3.848742247,0.163906959,0.2818827912,0.9563903072,-0.714969392,0.3776057771,0.1557826143,1.0127975388,-1.57660111,0.4449034195,0.2218410299,0.9703446079,-20.1970512819,4.9048622282,-4.8020252214,6.9043482416,-78.2822852246,-5.3824086541,9.0567774619,-0.1600781173,-3.4967589971,0.1494075301,0.3571319825,-2.6095668904,0.0929559588,10.9343160913,0.3696912415,0.4550840406,-0.6388660557,6.3899336283,0.3975387346,0.3315627351,-0.9491983061,-0.1384039356,-0.2150884719,0.3316979015,-0.7738026077,-0.5540420121,-0.3991537413,-0.1874181501,-1.0161000385,12.955082437,10.8355336792,0.9558328167,-1.5680660343,-2.4985995806,0.3109100727,9.7054953708,0.6512891791,-1.1174631401,0.4238096221,0.181417669,0.9911257893,-0.490415854,-1.1502522384,0.2127663993,-0.0232905746,-0.3783865275,-0.2232340892,0.8650491703,0.1069869335,-0.8033334437,-0.2201867517,-0.715513975,0.2547897734,0.0337273305,-0.7806524713,0.2929784511,0.5321999985,-0.1029014509,-0.0519736518,5.7174115795,-4.0127983286,9.5621390934,1.1193457884,-1.8704663453,-2.2975149918,-0.9192529488,-5.4791524131,0.6558571174,-0.9151224958,0.3050299259,-0.1364999139,2.1745657334,0.5588133956,-0.088249934,-0.5915621807,-1.9790509978,0.8213857389,0.512703949,1.0625289696,1.205350072,0.5773471155,-0.8860636037,-0.023414348,-0.1415396774,0.514050527,0.4440140643,0.1024840517,0.6665311889,0.7200639691,-0.6323244217,-0.2760334678,-1.2424088884,-0.069840217,-1.1840548668,0.6498768268,-1.0065665647,-0.199904414,0.1004308603,-1.2563116983,0.0812754452,0.60743219,-1.0180427153,-0.1073993769,-0.891829044,2.9818974542,0.2822548434,-0.1280250123,0.6200128997,1.0949283347,0.7713310765,-0.0008339258,0.2109488856,1.8001463856,0.3238722533,0.0650590296,0.1326211885,-8.5436391011,-1.5407322352,0.5704236177,0.2382950035,-10.3998310111,2.5327957405,-1.3033252952,-0.0252652089,-1.0721334494,-0.1666404937,-0.1390982504,-3.4196590943,-0.170544639,-0.9061918318,-0.5226474079,-0.1643336854,-0.4617239914,-0.2890240018,0.0699445469,-0.1337586946,-0.3723725013,-1.4055494046,-0.2534204218,-0.1564035096,-0.2995535823,-1.3530552665,0.0211774864,-0.1461511581,-0.2961001221,-1.4121469648,-1.2618439411,-3.093032771,-0.406435942,0.8794346946,-18.7034792184,46.3900127003,0.1984140531,1.0332821583,-0.2681457311,0.2714997645,0.4743222175,0.4411656651,-14.1156995583,0.6097359352,-0.0168774546,0.076357657,-0.2177877588,0.1121336951,-0.1722808414,0.6926002465,-0.0403323838,-1.1581045946,-0.0391314115,0.4476881706,0.4204006517,-0.8303361176,-0.5401775191,0.4601072913,-23.3302558081,0.144152736,0.1946145194,-0.3861752286,0.1770753682,-0.0402941232,-2.3412222581,-1.1061029997,0.6035534381,-0.5059732936,-0.9913694335,-0.1100621163,-0.2388916632,1.3184452924,-0.7268490867,0.5706021082,-1.080227396,7.0345197365,0.3405156867,0.0916157398,0.6178453317,-0.9778429406,0.0899433618,-0.9534344629,-0.2394267601,-0.9599566672,-0.2491988362,-1.1075226752,-0.519176073,-1.5492146596,-9.3368860925,-1.010003919,-1.8837335065,-14.6332116142,-0.2294665426,4.6569102131,-0.3075310024,-7.2710554487,0.2222438837,-0.0024607626,-27.666505476,0.2426502487,1.3283787176,-0.5914510572,0.1688058454,1.3163572336,-1.2327249181,0.5582491979,-0.0960747967,0.7075316744,3.7547317883,0.023415124,0.6847362394,0.6882718597,3.3115860381,0.1708322728,0.0080189808,0.3001472421,-0.2706391182,2.7000769631,1.4703671782,-1.7054889227,-16.8934064911,-14.0727796714,-8.3743450194,-0.3291550884,-20.2471926047,0.0125960309,-0.1125490657,5.3600689433,-0.1618127244,-6.7542491637,0.3778486018,-0.1569455938,-0.0561493324,-4.9966989624,-0.1292186401,-0.0952466696,0.0160124416,-1.284496587,0.0350531402,0.0292116819,-0.1305473941,-1.1332975227,0.0057917544,0.296971888,-0.2122734937,14.9707917445,20.9054448408,-0.2951535229,17.6115725809,-2.4195027587,0.0365033043,-26.0218995123,0.1092902741,4.0109519385,-0.1918331959,0.5325605775,4.101666892,0.1843945407,-1.5804519313,0.4349312111,0.1288918479,0.4718914237,-2.5604234093,-0.2268756693,0.3808425197,0.6338001463,1.9004586727,0.0991839758,0.4051644206,0.4498612192,3.7790757468,0.3717959753,0.1296664114,0.4940560899,-1.5886670889,-0.7446582018,7.9147910979,-60.2825187426,-8.0638983324,18.4033980123,-18.8766245693,-0.4484929744,-0.0402490038,-1.152939822,-0.191205634,-0.2617753825,0.2147782461,-12.7608264034,-1.1375468147,0.0789622559,2.0886999362,-4.8043493055,0.1473597627,-0.1474303271,-0.8333776741,0.6929158637,-0.437807606,-0.7207522265,0.2120485647,1.4731350764,0.207925642,-0.690366125,0.3847427018,-2.3499248036,-5.147377352,-1.9433362721,-1.1143930207,-0.4761738255,-0.4220082244,-5.7542716466,-0.9743264894,1.2947901761,0.0277897932,-0.3111970199,0.953161536,0.2490852882,-0.5250602226,-0.3734185009,0.2356017474,-1.2927680194,0.6401173712,-0.3864887638,0.3489597772,0.4611993533,0.6062027485,0.5149503887,-0.0931731309,0.5157834084,2.8729657075,-0.3382618825,-0.0452461934,0.2590847149,-1.5060158384,-0.9699784973,-0.8127095753,1.038161309,1.2226913252,12.858805684,1.6395312379,-0.8374943316,-2.9601360888,0.4257588451,-0.2246120935,-6.2182659951,-0.1154283503,10.1826393939,-0.5838232119,-0.0978969846,-0.6804236337,7.9239180598,0.0791768517,-0.0901373107,-0.8820460039,1.072516049,-0.4011517818,-0.1674728265,-0.7810011184,0.1643531608,-0.1864593183,-0.1622785599,-0.7190967556,18.2560830246,-9.4584265273,-0.2478955275,-16.6836850161,-46.9394735178,109.0985840224,-1.0363362338,-0.603984758,-1.6132315484,-0.3685338159,-0.1730813328,-0.1576245734,-0.3130937964,1.9721385434,-0.2167934312,0.3976825202,-0.5101759468,0.3659893983,0.3915735706,0.0943613418,-0.545111283,-0.2393173388,-0.3613685568,0.0060529311,-0.51933585,-1.8038840394,-0.153992401,0.3392078137,-0.4036762212,2.3117946995,5.6974262007,0.0259356745,-0.4678615127,2.2740652691,-0.8218581251,3.713251792,0.4288319385,2.2313372709,2.3146818038,0.1134480079,5.9123631863,0.0197449227,-0.2260800434,-1.5046155988,-0.1815939108,-0.2277676582,-0.4130684524,-0.9547425895,-0.0477140603,-0.2582415828,-0.4227810029,-1.3344856871,0.1586546395,-0.1358112897,-0.2069615279,-1.9777537714,-0.3005398518,0.0152985425,5.2924992981,-0.6628979427,0.1880240718,1.5981043853,6.1689029935,-0.6596176214,-4.0756578192,0.2829465869,-11.5435010542,-1.0848058347,0.356878724,-0.2196123488,1.4244077563,-1.5688071402,0.0823021713,-1.1807142081,-0.5864946157,-1.4999585933,0.1846642545,-1.2051996987,0.5158531434,-0.2270285592,1.7001041015,-0.9816703602,-0.2328906671,-1.3940665229,0.5211983096,-1.394746044,-0.0954795983,1.5843908504,-5.2481995539,-0.6052634364,-2.9652149902,1.3662751858,-1.4993891717,1.2934220804,-0.5164725096,-8.3474131074,7.8040245199,0.4242872721,-5.4894277826,0.5398280756,-0.8375041213,-1.6092114005,0.7978006783,-0.026015925,-2.0486873544,-2.8168954732,0.3870015544,0.9040253444,-0.4099124159,-1.898989138,0.3486937857,0.5001521918,-1.0430516705,-1.6604086099,0.7560881362,0.4310380616,2.1888293061,-1.5794924531,0.7303623079,-2.9405772196,-2.589476063,-2.1733335206,1.8259850092,2.4812721057,-0.1972179638,0.1152778014,0.1284969152,-3.6982916339,0.1517711367,7.3210658145,-0.1097286524,0.2384988032,0.7472744233,5.5685849111,0.1058217904,0.1033925109,0.4598569679,2.596455851,0.0448752052,0.1063474335,0.3944775662,1.8756298592,0.1067003421,0.1781010099,0.2899767644,-29.6081863889,24.6370292994,0.0279506945,12.4537180821,-139.3544610039,40.1805419789,-16.4245481795,3.8140187084,6.4923883995,0.4910097837,0.3176245195,5.9110184528,0.3024926162,-13.6798759162,0.101246767,0.2258380994,0.3682997228,1.7113328863,-0.3344777007,0.2486202113,0.4982077343,0.5895296502,0.2044156169,0.2173667322,0.6073364984,1.5708194496,-0.1893781907,0.2264386791,0.6337719585,65.8974237686,-110.84293609,-4.0165161455,1.0879776169,-3.5672955995,9.0228223585,-15.8013197703,0.7685148235,-2.2976669709,0.4942981487,-0.4861361152,-3.1206699163,0.4633344396,1.0399146618,0.4544852577,-1.0751779116,0.2577188761,2.5902547189,-0.2215175022,0.7044653692,-0.0454588183,-1.2899302643,0.2892219733,-0.0220645165,-0.3800355547,-0.3682312856,-0.2746746368,-0.2465758292,-0.0176979776,-2.0278717324,4.0707412308,0.6034706042,-2.6925946422,3.2192880428,0.3834339132,1.6587211208,-0.0959813987,11.6015810422,0.4384942655,0.2912935649,7.971947267,0.4675639639,-6.7131482133,0.026216349,0.4779976469,0.8132306843,-1.3412832767,0.2591196871,0.4710466252,0.8316103637,1.9661447974,0.0006614379,0.4141069717,0.7512359411,1.6647151657,0.1769355199,0.3755282985,0.4955656288,-4.5444117426,3.9801158523,-14.9300777138,15.1096619971,-218.5136913274,-0.7269756581,-1.6008623834,7.8353905426,16.003797813,-0.3510899469,-0.1015416335,13.903412434,0.115801919,-24.2591282064,0.5487221773,0.2302247921,0.468845834,3.3191371892,-0.5716757925,0.1544296585,-0.0151971984,-4.3222368375,-0.1917709787,-0.0311260911,-0.0389867665,-6.002984775,-0.1227656887,0.157417505,0.2412031673,9.9649767504,-34.8955429459,-3.1618297903,-14.2427068595,9.2557403257,26.8715215624,12.0092781888,1.2587383355,1.6016031662,-0.6071984184,-1.2558618218,-3.8869724382,0.5319066818,-7.0063342185,-0.2978743278,-0.902882455,-0.8622141549,-0.5807717069,-1.2134691397,-1.1268724429,-0.7981443789,-0.98884295,-0.9747281702,0.4553863741,0.3295338085,-0.1116269357,-0.7865978132,-0.0952142672,-0.7484410623,-19.4157599819,-4.7499598846,0.4255090678,-11.4934493828,-0.48890038,-1.1791608322,-5.4132425871,0.2006148178,-0.8711503424,0.456523557,-0.0078974954,0.3987367702,-0.0178097759,-0.0690429412,-0.7616457968,-0.5991323519,0.0432820855,-0.8517122096,-0.5458952907,-1.0866316124,-0.163164631,-1.1221849331,-1.1541462867,-0.8010839403,-0.6795146758,-0.769917694,-0.9536418232,0.3307095363,0.2607540924,-13.8708838988,-6.7047521319,-0.0452264501,-6.1304754987,-1.668833085,-0.1685830352,-0.0591192234,-1.0975966844,-6.8268174831,-0.6105084385,0.2476390733,-7.4168492569,0.0591519378,6.0421884658,0.554935223,0.236967135,0.233386367,1.7585388114,0.5936926437,0.2082820635,0.1032883488,0.4181153605,0.2002251871,0.2500328551,-0.1783462759,0.0573281734,0.3190924268,0.0901668689,-0.3976172495,9.2342126381,37.8749780869,2.7872772518,8.7246064614,-30.1420300421,-1.0886784162,-17.8205045022,2.0119498942,5.522860713,-0.0308293369,0.0378643933,1.5028867414,-0.100839289,25.8068551493,0.2892027495,-0.1577587177,-0.8002451708,4.6903561762,0.429227636,-0.0223259663,-0.1214659283,2.1999253996,0.1904062605,0.0497818138,-0.1445144183,2.4200201688,-0.0519612204,-0.025569667,-0.1598396337,-50.0279188264,34.6015627374,-1.0821457887,13.5323914697,-74.8902140095,27.5507867217,-7.4864800913,0.3267470233,6.2947833711,-0.2392584648,-0.2528558137,5.5040851305,-0.3856789066,10.221507446,0.3865947519,-0.3979361757,-1.2960315495,11.3899800167,0.0193150559,-0.4907732716,-1.0274053953,4.5204887282,-0.2103102679,-0.3545066403,-0.9011524059,-0.6465312354,-0.1507335484,-0.0332731254,-0.6829709583,-13.2911420044,-21.2667044056,-1.9524564624,-24.1263297995,7.9328499576,35.7585739959,44.1658630911,-1.2437016077,0.0021936865,1.0040729606,-0.0812066598,1.0793240633,0.5472829113,-1.5476902527,0.8672780311,0.5481834161,-0.4404551449,3.2641260351,-0.7257321023,0.0734422466,0.8824258345,0.264486058,0.069631903,0.072358002,-0.3568669211,-0.0512767582,0.8215158994,0.2231103734,0.4026790395,1.1329223147,22.617415722,-0.0862919707,1.1160471332,2.9408293759,5.654313855,7.9115599415,0.7637138609,2.0119038677,0.4841971387,-0.032670345,0.9469142749,0.3706723254,-4.6186397329,0.2802301303,0.0389736796,-0.3402450344,0.3293701979,-0.2780241453,-0.1796208071,0.6696312921,-0.7197689822,1.4696476639,0.0099944349,-0.82460517,-0.6138435872,0.2787145916,-0.5756568514,-0.5150789225,-0.1759685737,-2.0678483597,0.61666737,6.2236863059,1.3587360508,-0.5231816456,-1.1938254856,-0.1385271654,-8.9064100241,0.2536040582,0.1029735194,-2.5732812513,0.0289623908,1.7787154379,0.3054125742,-0.2655442512,0.1372618142,-6.5086115257,-0.0374236273,0.2058230792,-0.4159487113,-0.738540878,-0.0690348553,0.0680349541,-0.0138514983,-0.9916233237,-0.1940823829,0.0837492534,0.1225099939,0.2863123627,-20.7713837759,2.054131149,0.4129631015,-11.9844611504,1.2258283791,14.0491139121,-0.8241690279,1.1738503064,-0.4448476334,0.3871746748,-7.9505786701,-0.4536141561,-1.8481847071,0.9623755393,-0.4913314649,0.959389471,0.2212681448,0.2576851022,-0.2601136787,-0.0426011936,2.195366076,-0.4262668399,-0.0801098513,-0.258869913,-1.3934996156,0.4930343925,0.4556333289,0.1412499356,-0.6600928503,-5.7390927412,5.0466688649,-6.1366832404,3.15533426,-0.5341691578,2.1222889785,-0.8525982279,-0.7938525365,0.5518061077,0.0629397365,3.8565098984,0.4573196716,-1.1139513498,0.4079617549,0.3567674274,0.6889266408,-0.3099584943,0.9157371383,0.8043184347,0.9788386231,-1.7989135231,0.3480482323,-0.1220104318,0.233458817,-1.9060144238,0.1652939316,0.0893199459,-0.3441096632,32.6493266925,25.6859894646,0.7040611197,-7.5870101114,-19.301895396,0.2069705542,2.6644428595,-0.2314605659,5.7842671284,-0.1297380687,-0.1301688749,2.7461823533,-0.2889438783,30.6496902932,0.3313015863,-0.2464728681,0.3109341761,-17.6157438442,0.0088865082,-0.2287244789,-0.3014773687,-4.7485993001,-0.0012676314,-0.2638026775,-0.3493867577,-7.4378483651,-0.4564996567,-0.2988245626,-0.2290861214,11.1769758857,-3.022803692,-4.1822039822,-0.5126868068,-2.5262911875,0.2618985093,7.9914868561,0.6604958499,9.2077571986,-0.4522556839,-0.2729569325,-6.8354640289,-0.1029170955,-6.9991726885,0.4231526327,-0.162079121,-1.6655197886,-3.1377572912,-0.9238359911,-0.0756311869,0.1354902071,-1.0688684601,-0.2038620399,0.0052597598,0.1575961191,1.8484514183,0.4469191744,0.179956431,0.1310290899,1.0777445861,-10.6472989879,2.0338786177,1.2047296895,1.4353465715,-3.652483227,8.9788759423,-0.0240812233
biasActivation=0,1,1
[BASIC:ACTIVATION]
"org.encog.engine.network.activation.ActivationElliottSymmetric",1
"org.encog.engine.network.activation.ActivationElliottSymmetric",1
"org.encog.engine.network.activation.ActivationLinear"
