encog,BasicNetwork,java,3.3.0,1,1469377395483
[BASIC]
[BASIC:PARAMS]
[BASIC:NETWORK]
beginTraining=0
connectionLimit=0
contextTargetOffset=0,0,0
contextTargetSize=0,0,0
endTraining=2
hasContext=f
inputCount=28
layerCounts=2,46,29
layerFeedCounts=2,45,28
layerContextCount=0,0,0
layerIndex=0,2,48
output=0,0,0,0,0,0,0,0,0,0,0,0,0,0,0,0,0,0,0,0,0,0,0,0,0,0,0,0,0,0,0,0,0,0,0,0,0,0,0,0,0,0,0,0,0,0,0,1,0,0,0,0,0,0,0,0,0,0,0,0,0,0,0,0,0,0,0,0,0,0,0,0,0,0,0,0,1
outputCount=2
weightIndex=0,92,1397
weights=-0.3008925638,-0.4173999611,0.261567569,-0.2096499735,-0.7064683919,0.6612568288,-0.8610911333,1.1158398805,0.4954941672,0.5373984093,0.1630356737,0.743268888,-0.211895549,0.0114038952,-0.0880586233,-0.9287396101,-0.2350090038,-0.1297670986,-0.5816939262,-0.4668512433,0.4398563618,-0.4593546794,-0.2688341165,0.4650836585,0.5270141005,-0.2480167999,-0.1681582228,0.2485815723,1.4712335792,1.0603369154,0.1946631587,-1.13400843,-0.8873294349,-0.4373864238,-0.1792122679,0.1654031377,0.2314593312,0.6914154974,-0.1711662417,-0.0954388447,0.0142965406,-0.146941051,-0.1465792032,-0.39959739,-0.1649437899,-0.1224030159,-0.3584316883,0.2829666517,0.4625839682,0.7884804123,-0.0043421829,0.2319052531,-0.4638750835,-0.8164822183,-0.2952804116,-0.1255595822,0.843857789,0.8137341651,0.1776732979,-0.1142233631,-0.20417847,0.5003827761,-0.9416792544,-0.3670495683,-0.068953025,0.4498605876,-0.3795451868,-0.465481344,0.3787938775,-0.9414074008,-0.0817513865,0.1219210499,0.4499089108,-0.2254171806,-0.2795702826,-0.8030145955,-0.0786901801,0.316084382,0.1414459979,-1.040631466,-1.0797176898,-1.6164993592,-0.5250365217,-0.1960375838,0.8112723546,0.1400558175,-0.767290003,0.2490124625,0.6218502535,0.2709332253,0.2912643994,-0.6448321318,-4.3010487501,-0.449221127,-0.2742215559,-3.0133261143,-0.3503151983,4.8197603068,0.0289041644,-0.3174440162,-0.2722959063,4.101422577,-0.6141163834,-0.1986513714,-0.4778391192,-0.4980650864,-0.2365146531,-0.1819961855,-0.4579847331,-0.1122993537,-0.1336413042,-0.1472246131,-0.5364449225,42.2347541158,57.2965957,2.6176571002,24.421747007,-24.8365535992,17.9145157597,-25.9217632025,0.9714580031,-0.3114556388,0.7813888658,-0.2183767825,-0.181662572,-0.1377439166,-2.3061296311,-0.7032107502,-0.6565535226,1.8529208865,4.2373302621,-2.7619670938,0.4860701858,-0.4207386335,0.8869206239,-1.0043930695,-0.2881124714,-0.0704038791,3.534555925,-0.3442908653,0.1380307216,0.6044742523,2.5477532904,-2.7091625674,-1.2286018689,-1.4950404112,-20.0151054982,12.7372425908,-11.9269470826,-0.3290387726,-4.9935777135,-0.1043452387,-0.0746646484,-3.7989099581,-0.2587536469,3.5135112346,0.09394454,-0.5691017994,-0.0995517375,4.1882791218,-0.0024076847,-0.2962194602,-0.3186401545,-1.2416796464,-0.1233713176,-0.2554967193,-0.4378516359,-0.8541264255,-0.3900365703,-0.4113066412,-0.3601247236,3.7375396473,1.4981116754,0.7239153475,1.3144529247,6.059478898,1.1545362302,18.3584996422,0.8262745959,-4.2499105686,-1.0106948517,-0.1768734762,0.3152775617,-0.1235513227,-1.8561995967,-0.317800602,-0.9388600321,-0.7254267354,-1.6166869237,-1.1525076017,0.3565083167,-0.5558440632,-1.9319958893,-0.7586491989,-0.5457469245,0.2520295926,-1.5835279956,-0.8611173966,-0.7606155915,-0.757086426,-0.074439831,-7.1483623343,-0.0594498988,0.2631384551,1.2920643678,-1.4894174616,-3.8947145956,0.5957192895,-1.4708269612,0.1341572492,-0.0405644102,-1.8281674678,-0.0292559007,4.9953157232,0.3054732029,0.1453935999,-0.1744804669,1.0687788366,0.0554194909,0.2084171289,-0.2867651354,-0.1715613034,0.0857475201,0.0183442363,-0.1878504943,0.436262775,0.1500847537,0.177890707,-0.0917965559,4.4903357338,-1.4251259887,-0.6728727532,9.096035284,-3.8321297186,5.1838706006,-8.3249909404,-0.0573578202,-7.0174846882,-0.2788986612,-0.0150125979,-6.970838895,-0.3969826871,-0.2503836061,0.7233079813,-0.7933848093,-0.35929166,-1.5604097851,0.4828867096,-0.3223937129,-0.7238275342,-0.1690045851,-0.2770096065,-0.3282779388,-0.3026171947,1.5670706539,-0.5913857749,-0.40388793,-0.2301441823,31.657892375,-46.8939333622,0.2557201951,12.3415237715,-1.6399047461,9.2086978916,-3.2000747815,0.4197776007,1.8546651018,-0.0314252947,0.1204197585,4.124136885,-0.0667939266,-5.7193867602,0.4367732236,-0.0119675806,-0.119674751,-3.0885345286,0.2033109034,0.0912531566,0.0907892844,-1.8977095185,0.1207141911,-0.0074181944,0.1278751277,-2.4184286749,0.0117372778,0.0029336065,0.1285670688,-1.687305414,-8.2014442379,0.0160675276,-4.3725563761,6.4997555949,-3.0247692357,21.884736116,-0.4829442864,0.6288281653,-0.1942325347,-0.1298881665,-0.7904314929,-0.1697639324,0.1733119902,0.0033825935,-0.2864992133,-0.3188497872,-2.0479157148,-0.3731303797,-0.2651605829,-0.2842300208,-1.1836554273,0.0149049823,-0.2144044838,-0.3004730157,-0.5836236175,0.0425870188,-0.2138406761,-0.3468088019,4.655676099,20.997467368,-2.4233287196,20.7647846555,-0.8078328019,0.5060331151,-1.2342973729,-0.4931648134,1.6698862637,-0.2698817755,-0.1251179619,2.6004322803,-0.1639376688,2.0267717965,-0.1787765296,-0.039759906,-0.220330139,0.5581233893,0.0562877587,-0.0562315899,-0.2899808737,-1.5404773803,0.1715144047,-0.1108447884,-0.2036675428,-3.2154809365,0.0511134189,-0.0932800583,-0.0129633395,8.9957794565,-1.6351869577,0.7144491572,-4.6534062879,123.0717098518,-86.2906634271,9.1694436099,0.0671090764,3.6974980268,0.4307975896,0.0012909632,2.4052285993,0.468209709,-15.0954381993,-0.3499837467,0.3991590174,1.4332083895,-47.9134039691,0.1987682995,0.3957456005,1.3394043427,-12.3474651744,-0.1652624225,0.3520761062,1.1132713376,-6.3294390619,0.4799738145,0.3288110835,0.9994634214,15.9486175976,-6.0778565733,0.5615072236,0.8202797024,2.5898171954,-24.8204510964,8.6152669272,-0.7780500623,4.3200479622,0.0525292321,0.2126616196,6.2165637044,0.364336155,-10.7820322032,-0.147320668,0.3960764065,0.7810336785,-3.8492097342,0.1638446909,0.3425048026,0.9679329561,-0.7149693356,0.3254370951,0.1558965329,1.028575176,-0.9965868593,0.4445274743,0.2218107285,0.9691470888,-20.1972153198,4.9043864998,-4.8025130349,5.7155451767,-78.8431490696,-5.3825507718,9.7084432814,-0.156124458,-3.511402196,0.1202722043,0.2560263733,-3.5424498655,0.0929835506,10.9342938408,0.3430793125,0.4549031249,-0.6392850134,6.1471984973,0.3229961654,0.3313615124,-1.0295079977,-0.1385116434,-0.21632015,0.3220426877,-0.7736438165,-0.557030691,-0.3987461785,-0.1873205136,-1.0321636155,12.9549309957,10.835447997,1.0874825545,2.8138529714,-3.3962780794,0.3098637463,9.7055872555,0.6494192913,-1.1172968957,0.4233306834,0.1811862348,0.9521853622,-0.4901561734,-1.1502548361,0.212501941,-0.0234505616,-0.3354789873,-0.2237009045,0.8649655346,0.1070528884,-0.8030685838,-0.2204596196,-0.7155338184,0.2541127845,-0.0949024736,-0.7806719947,0.2927835009,0.4620658737,-0.1033961502,-0.0574741834,5.7165168011,-4.0129883902,9.8776600935,1.1193599645,-1.8708480063,-2.2978672941,-0.9193457957,-5.4779914864,0.655696773,-0.8997034467,-0.0960430602,-0.1362521381,2.174980419,0.5588895949,-0.0881977426,-0.5914860622,-2.0062230138,0.821458749,0.7752181163,1.0634737471,1.2053373719,0.5786235237,-0.883268058,-0.0159898517,-0.1415116447,0.5141407666,0.4429758718,0.1024128252,0.6683520358,0.7202415345,-0.6939032034,-2.6991737687,-1.3076468802,-0.0755803722,-1.1830327839,0.6511582414,-1.0066060926,-0.19947993,0.1003912786,-1.2563719428,0.0811938769,0.6075979011,-1.0178823491,-0.107308022,-0.8914346143,3.0154303695,0.2822626661,-0.1280146989,0.6166666827,1.0949355542,0.7711883588,-0.0008052337,0.208738556,1.8000938643,0.3237816213,0.0654048228,0.1328525586,-8.54486492,-1.5421618447,0.5704933548,1.6878458079,-10.3998625671,2.532987558,-1.3020684964,-0.02430354,-1.0721059773,-0.1666173167,-0.1391930961,-3.4193599345,-0.1712330787,-0.9059909219,-0.5155997392,-0.1646128882,-0.4493234201,-0.2894814287,0.0696970036,-0.1493834521,-0.3710752089,-1.3336582707,-0.2527985149,-0.1598915451,-0.2993055975,-1.3535143232,0.0210563326,-0.1524065625,-0.2956978432,-1.4117770169,-1.2617773463,-3.0937460048,-0.4054960935,0.8794990543,-18.703199996,46.3903216939,0.1946950942,2.8442382976,-0.2679827122,0.2718349652,0.4809042124,0.4409463349,-14.4342737469,0.6097978416,-0.017127309,0.0763271392,-0.2176088804,0.1121166874,-0.1722833975,0.6930776579,-0.0403982932,-1.1576820129,-0.0391348106,0.4477613594,0.4162824769,-0.8303275976,-0.5400698546,0.4594150895,-23.3303038251,0.144076994,0.1844481001,-0.3862089097,0.1772572026,-0.0402805254,-2.341270781,-1.1059658538,0.6036451393,-0.5051975567,-0.9909933289,-0.1099590232,-0.2381510316,1.3193738381,-0.7260695805,0.5709469973,-1.0800851081,7.0351129757,0.3407312016,0.0920798492,0.6175279208,-0.9774357621,0.0901413493,-0.9532993599,-0.21609532,-0.9598835373,-0.2491116513,-1.101683762,-0.518776701,-1.4691115437,-9.337012492,-1.0096707512,-1.8836134819,-14.6341673138,-0.2294772716,4.657107241,-0.3040768569,-7.8033646066,0.2222614073,-0.0044397891,-18.1383491022,0.2420867641,1.3287883514,-0.59137905,0.167239527,1.2325109697,-1.2858066404,0.5582187377,-0.0959633511,0.7695642607,3.7597006639,0.0233548718,0.6776194422,0.6834531465,3.3111166261,0.1677207296,0.0070850462,0.3001322273,-0.2707544302,2.6336565111,1.477881588,-1.7053673567,-18.2902450342,-14.0724900498,-9.2991475423,-0.326868516,-20.2391750276,0.0118275797,-0.1121502987,5.360057973,-0.1616832564,-5.8354281753,0.3778551945,-0.1565741321,-0.0556014509,-4.9957347864,-0.1288623086,-0.0944693552,0.0161793471,-1.284526843,0.0351180653,0.053483774,-0.1305050002,-1.1346180234,0.0060509644,0.2854683605,-0.212238007,14.9702159444,20.9054249321,-0.2960048794,17.6112201,-3.6182389209,0.0382695347,-26.0220358867,0.1094388747,2.4437742687,-0.1064512776,0.4411384986,4.0933997102,0.1849736277,-1.5803819929,0.434908599,0.1955981763,0.4716053821,0.7213635829,-0.2267746304,0.3807352321,0.5802495691,1.9002804548,0.0991685449,0.2684079954,0.4497533435,3.7389426534,0.3717117526,0.1328784166,0.3981327963,-1.5888955815,-0.7446491586,11.3175462634,-69.1627389102,-5.597779693,18.4060023684,-18.8765836909,-0.4481550489,1.3229000002,-1.1528811907,-0.1910432474,-0.2616890884,0.2147753607,-12.7607882147,-1.1375170946,0.0794933581,2.3596360689,-4.8037685209,0.1473391646,-0.1481757184,-0.7591354425,0.7790464153,-0.4376930998,-0.4813373394,0.2108868691,1.9927814251,0.2074143057,-0.6894330075,0.3843285343,-2.349983876,-5.1474634071,-1.952191102,-1.1144550839,-0.476074658,-0.4219837968,-5.7542581482,-0.9735972998,1.2949290977,0.0278426499,-0.2991711855,0.9528475684,0.248648635,-0.5250577089,-0.373296551,0.2353578574,-1.292723802,2.600337772,-0.3849421996,0.2340015576,0.4612217222,0.6224493289,0.5147826604,-0.093103376,0.5155907363,2.7268865565,-0.2117949136,-0.0452895901,0.2586194911,-8.4159541859,-0.9784025593,-0.8125952991,1.3230913167,1.2229656011,13.3830591098,1.6394734221,-0.8375599548,-3.1623331988,0.4257457289,-0.2172458868,-6.2201477531,-0.1154333515,10.182614433,-0.583653872,-0.0979636247,-0.6675362478,7.9218582215,0.0790487556,-0.0901421038,-0.8798433316,1.0740025455,-0.3996300049,-0.1670087976,-0.7787654637,0.1662670216,-0.1864317444,-0.1619915365,-0.6965333638,18.2567782898,-9.4583830571,-0.2478434893,-16.6818874353,-46.9436778835,109.098607507,-1.2934387726,-0.6053615789,-1.6130942251,-0.3684046663,-0.1728444523,-0.1576372391,-0.3104439764,1.9757329311,-0.2167975937,0.3763099782,-0.5103535867,0.3660761335,0.3914772955,0.0943269231,-0.5451629083,-0.2392784892,-0.3613617193,0.0060950495,-0.5192491036,-1.803819327,-0.1539738851,0.3390683092,-0.4037109998,2.3118329875,5.6976015395,0.0259516745,-0.4698887808,2.2771330652,-0.822399603,3.713390279,0.4287431656,2.2317613268,2.3145917561,0.0923507677,5.7799002954,0.0193584655,-0.2262132118,-1.5047499614,-0.1816855226,-0.2263698338,-0.4384966,-0.954822682,-0.0500978377,-0.257921745,-0.4222776281,-1.3350458412,0.1513560726,-0.1358703093,-0.2076559913,-1.9779488233,-0.3005360838,0.0145600968,5.445139318,-0.6622566385,0.1874662657,1.9291044518,6.1687738206,-0.6599713496,-4.0759603271,0.2827153926,-11.5435447341,-1.0847574224,0.3565238744,-0.2034628268,1.362263591,-1.5688819096,0.0822751627,-1.1810217243,-0.5866661439,-1.5000390158,0.1845563514,-1.205249952,0.2909952354,-0.2269108942,1.70005188,-0.9816852393,-0.2328781093,-1.3939025929,0.5200365421,-1.3945595213,-0.0955099149,1.5844266125,-5.2444463611,-0.6222901703,-2.9656354261,1.3663684425,-1.4940029751,1.2933953927,-0.516916918,-8.353884359,7.8038412571,0.4247893755,-5.4000287226,0.5345316091,-0.7732277232,-1.6092202608,0.7967012775,-0.0260346293,-2.0486555027,-2.8170152003,0.387099756,0.9040436338,-0.4162353176,-1.8990407793,0.3487120986,0.5060185383,-1.043198225,-1.6545089411,0.7538696124,0.4340048339,2.1858899128,-1.6542692309,0.7304995667,-2.9382464363,-2.5578379451,-2.1700021365,1.9950204609,2.4899664251,-0.1970765426,0.1153089864,0.1287396039,-3.5817585778,0.1516755261,7.318315072,-0.1095070219,0.2268988012,0.7374141576,5.5339615349,0.1058114973,0.1033756843,0.4598095781,2.5963154378,0.0444964318,0.1062757639,0.3943985985,1.8756521211,0.1066511972,0.1779467775,0.2899450287,-28.2762679001,24.6381958007,0.0215324356,12.4538751878,-139.3544582342,40.1803850148,-17.246099027,3.8489910432,6.2898350289,0.4189671713,0.3176121052,5.9098025429,0.3022483923,-13.6167320801,0.1011363753,0.2254845541,0.3029057835,1.707348739,-0.334410561,0.248101649,0.4461801316,0.5895554636,0.2006242557,0.2169531558,0.5471867449,1.5715781117,-0.1586282178,0.2262915582,0.5573437997,65.8987300318,-110.8429913035,-4.39453729,1.0878134124,-3.5675062103,8.9802494676,-15.8011751879,1.0193288833,-2.2976565116,0.494313419,-0.4837887363,-3.1199629065,0.4633299234,1.0401797893,0.45457726,-0.9442111664,0.2590251776,2.5914185079,-0.2215012819,0.7045526651,-0.066477485,-1.2899349785,0.2891515668,-0.0053183536,-0.379905634,-0.3764577507,-0.2744585054,-0.2425740897,-0.0176424681,-2.0278865469,4.0707822673,0.603572372,-2.6925940985,3.2201186786,0.38345501,1.9070257593,-0.0959689183,11.5926230781,0.4380160895,0.2902897974,7.970772104,0.4566900956,-6.713159509,0.0262374854,0.4779851708,0.7993663755,-1.1774984408,0.2590961611,0.4650143957,0.7997441717,1.9661995466,0.0008423413,0.3865248976,0.7422825738,1.6645117016,0.1770411385,0.3749781637,0.4928987992,-3.016794584,3.9804766946,-14.9301048302,15.0891296555,-218.4756909032,-0.7268567673,-1.6047893562,7.8377171042,15.847978171,-0.3513679822,-0.1014834726,13.9026421476,0.0994278932,-24.2589769751,0.5482688339,0.2297961364,0.4647857414,3.3199914626,-0.5710129583,0.1541158476,-0.1041103741,-4.2244340866,-0.1918228697,-0.0617931418,-0.0829442173,-5.7309771034,-0.1228122096,0.149101127,0.2380040274,9.9650237627,-34.8955140143,-3.1797400781,-14.2353358377,9.2496469074,26.8802582409,12.009237832,1.2635768938,1.6018491066,-0.6071161912,-1.2556003166,-3.8869769867,0.5318951984,-7.0062584582,-0.2978017854,-0.9028057725,-0.8622247517,-0.5807013578,-1.2133527468,-1.1268707619,-0.7978887515,-0.9886047662,-0.9746886338,0.4553902484,0.3293856389,-0.1119003071,-0.7866500773,-0.0955818329,-0.7571609383,-19.415810851,-15.6117122711,0.4254319989,-11.4929761405,-0.4885726662,-1.1791167594,-5.4132506991,0.2010378598,-0.8711473699,0.4565949275,-0.0078014991,0.3953032088,-0.0178327961,-0.0690114974,-0.7615817706,-0.5990532156,0.0432865053,-0.8513308576,-0.5458164905,-1.086654645,-0.1631350946,-1.122203943,-1.1540244694,-0.8010067169,-0.679676947,-0.7696992096,-0.9536699412,0.330649699,0.2608487174,-13.8708831295,-13.7717876735,-0.0676639987,-6.1304390925,-1.6687953121,-0.1686124577,-0.0590038365,-1.0974731087,-6.8205369928,-0.6102328141,0.2471546215,-7.3769194982,0.059137453,6.0431023052,0.5548821042,0.2369044166,0.2303154457,1.76050377,0.5884363874,0.208132808,0.0888575573,0.4184030783,0.2003071906,0.2498700076,-0.1893145435,0.0576739705,0.3178485629,0.0895272308,-0.3979460834,9.2340504526,37.8771206792,2.7867888806,8.6404433278,-30.217414584,-1.0843926849,-17.8204345228,2.0336299594,5.3739545987,-0.0308631401,0.0379052654,1.5045953781,-0.1006789537,25.7169115132,0.2891272235,-0.1573761808,-0.7745410858,4.690501099,0.4112897906,-0.0224866468,-0.1417369545,1.7027431891,0.1903215892,0.0493484928,-0.1446644643,1.9915933381,-0.0520014954,-0.025428198,-0.1237241679,-50.37270717,34.6014810326,-1.1173662608,13.5323537755,-74.8904271119,28.034381217,-7.4864138705,0.3276026568,6.2947845382,-0.2390814341,-0.2516844302,5.4915453359,-0.3766385635,10.2214799484,0.3865908775,-0.3968922963,-1.291922595,11.3895284248,0.0195618584,-0.4701355592,-0.9997250584,4.4172057788,-0.2102266823,-0.2797982587,-0.8217137886,-0.6454893125,-0.1101878972,-0.0331516629,-0.5774379352,-13.2911898735,-23.4921260733,-1.9524792436,-24.0624227647,7.9333817688,35.7584808133,44.1673255478,-1.3501387158,0.0018702144,1.0040036387,-0.0813463436,1.0793603993,0.5472394166,-1.547802718,0.8672911377,0.5481381473,-0.4404005707,3.2639490067,-0.7257047179,0.0734718653,0.8825603753,0.2643932846,0.0696337549,0.0722739628,-0.3566925759,-0.0512796069,0.8215350965,0.2231717469,0.4027400743,1.1329077757,22.6542715427,-0.0862306496,1.1160845575,2.9408270622,5.6543378724,7.9114284736,0.7636057812,0.9861631335,0.4841552476,-0.032906645,0.947060025,0.3705941402,-4.7655413153,0.2801918346,0.0388084626,-0.3402869202,0.3294127876,-0.2780007598,-0.1795077095,0.7116968193,-0.7200701734,1.4681434086,0.0098450942,-0.8242600406,-0.6137598857,0.27869507,-0.5755771654,-0.5151101847,-0.1707491635,-2.0602044623,0.6165934093,6.2236497699,1.3587668607,-0.5230968982,-1.1942971857,-0.1385558214,-8.9061700742,0.2537768961,0.1069765417,-2.5732805283,0.0295938969,1.7787615,0.3057134255,-0.2426050231,0.0850378302,-6.5085915218,-0.0370609228,0.1762122143,-0.4157850772,-0.7384699339,-0.0686850353,0.0681555481,-0.0020469964,-0.7974416804,-0.1937258145,0.0839793405,0.1223233925,0.2862590149,-20.7714630828,2.0563784606,0.4130130242,-11.9847895722,1.2220813219,14.2373959788,-0.8233911527,1.1698472539,-0.4447908356,0.3815732821,-7.9506811924,-0.4520537329,-2.835631876,0.9624056919,-0.4911124463,0.9593914016,0.2207691898,0.2577410928,-0.2601278743,-0.04256197,2.1953784604,-0.4262305314,-0.0801534602,-0.2587186339,-1.393627649,0.4930634679,0.4419095122,0.11797357,-0.6600535054,-5.7390269466,5.5947639973,-6.1366496377,3.1552943061,-0.5340725002,2.1219246324,-0.8526400011,-0.8661512677,0.5517326346,0.0628751249,3.8468024494,0.4573104206,-1.1140033694,0.4078800872,0.3567951718,0.6937278675,-0.3097215007,0.9155729585,0.7046655031,0.978853869,-1.7985819284,0.3481410102,-0.1219083832,0.2443494532,-2.1708554095,0.1653238767,0.0896335285,-0.3244507923,32.6342727536,25.6859788222,0.7041235659,-7.5917155194,-19.6877503367,0.2069178688,2.6643536077,-0.2315968768,5.808055479,-0.1299206683,-0.1301772958,2.7459987018,-0.2889486647,30.6497630568,0.328869469,-0.2465038345,0.3135135448,-17.6157474651,0.0088770919,-0.2284029081,-0.2822766644,-4.748672751,-0.0012710106,-0.2635744445,-0.3491331318,-7.3695859525,-0.4564435081,-0.2988552926,-0.2290665154,11.1769732211,-3.0229766662,-4.1830564678,-0.5128223987,-3.3366176145,0.2800216988,7.9915084832,0.660422419,9.2077563467,-0.4522529898,-0.2706927721,-6.8366910336,-0.1028230751,-7.0111702612,0.4222035824,-0.1619121123,-1.6654054269,-3.1379342555,-0.9238027888,-0.0755295926,0.1355623971,-1.0687279752,-0.2037288632,0.0052163198,0.1576994876,1.8485517854,0.4441056464,0.1771550909,0.1307839921,1.0778344663,-10.6474106375,2.0339312758,1.2046811715,1.4353400524,-3.6525947488,8.4849757791,-0.0245744045
biasActivation=0,1,1
[BASIC:ACTIVATION]
"org.encog.engine.network.activation.ActivationElliottSymmetric",1
"org.encog.engine.network.activation.ActivationElliottSymmetric",1
"org.encog.engine.network.activation.ActivationLinear"
