encog,BasicNetwork,java,3.3.0,1,1469378876053
[BASIC]
[BASIC:PARAMS]
[BASIC:NETWORK]
beginTraining=0
connectionLimit=0
contextTargetOffset=0,0,0
contextTargetSize=0,0,0
endTraining=2
hasContext=f
inputCount=28
layerCounts=2,46,29
layerFeedCounts=2,45,28
layerContextCount=0,0,0
layerIndex=0,2,48
output=0,0,0,0,0,0,0,0,0,0,0,0,0,0,0,0,0,0,0,0,0,0,0,0,0,0,0,0,0,0,0,0,0,0,0,0,0,0,0,0,0,0,0,0,0,0,0,1,0,0,0,0,0,0,0,0,0,0,0,0,0,0,0,0,0,0,0,0,0,0,0,0,0,0,0,0,1
outputCount=2
weightIndex=0,92,1397
weights=-0.3440120288,-0.4369658643,0.2618236141,-0.2113893113,-0.5684714806,0.6864345212,-0.8648832872,1.2645955169,0.4921713846,0.536512789,0.0814221286,0.7450742889,-0.4481202196,0.0355934159,-0.1495192977,-1.028234844,-0.2359208259,0.2205357264,-0.8410281187,-0.5204513039,0.5665574816,-0.4604134239,-0.2784721709,0.3402652327,0.8892534988,-0.2931512828,-0.1664513237,0.2482215725,1.4480346001,1.0612441708,0.2692579948,-1.1626091882,-0.8864903366,-0.4386432367,-0.1803389689,0.0233180587,0.3479063587,0.8358324325,-0.1699917468,-0.0818161375,0.1433761341,-0.2142601375,-0.1623952852,-0.4181275629,-0.1553118864,-0.1214814061,-0.5399829614,0.3411996607,0.7006053312,0.7868717782,-0.0037315449,-0.1322446063,-0.6500112508,-1.3962163308,-0.2946987187,-0.1947508712,0.8832168718,0.8158570985,0.4685115729,-0.114280142,-0.2578078175,0.6078781081,-0.9433989155,-0.3736639285,-0.0675929187,0.4503021365,-0.4347918281,-0.4675189212,0.4390460329,-1.0034558387,-0.2539498355,0.144076285,0.4486824121,-0.2813206486,-0.235519072,-0.7485347522,-0.1198397643,0.3252931694,0.2014096325,-1.0423256616,-1.0812305056,-1.6182569146,-0.524895788,-0.4611761805,0.8127869125,0.1751518703,-0.8699733231,0.2945840892,0.6303518155,0.2672115347,0.2767227127,-0.6435326591,-4.4070092886,-0.1196815646,-0.254166081,-3.0739931332,-0.2592081502,7.1079439273,0.0154564938,-0.3093417665,-0.4624309271,4.3098913808,-0.1450367725,-0.1974474141,-0.6342268597,-0.066483824,-0.4648191797,-0.1797337871,-0.7012470522,-0.5120384832,-0.1872700428,-0.222411148,-0.6965616355,29.9741080833,56.5982030684,2.2429378615,24.4370799787,-27.0077684892,21.5073118004,-26.6659681675,0.9776359466,8.5731679986,1.1084874466,-0.5184964552,7.5442173193,0.0222704425,1.2187441147,-0.7030412968,-0.5589187024,0.7880757845,1.9023310393,-1.3761495074,0.1427999594,-0.4574575721,1.3124549959,-1.2703558514,-0.2658728368,-0.4541131192,-0.49637264,-0.3289513929,0.1370108345,-0.3573794504,14.0829769181,-2.7102712515,-1.2295307627,16.3392275708,-20.0148130539,3.8435271239,-11.9297160395,-1.8719732854,-5.3504730889,-0.1026305052,-0.1727522818,-4.3158623326,-0.2589620558,3.5576908445,0.0164690581,-0.4025013367,-0.0117051718,4.6005875915,-0.0018860492,-0.3027285468,-0.3372186202,-1.5331104658,-0.1272906978,-0.2686718366,-0.4233219579,-1.1339626143,-0.3467319232,-0.2186436617,-0.3370140789,5.4716041911,-4.414135198,0.9368134597,1.9926698827,6.0500517439,1.1413618149,18.3598275054,0.8248012893,-4.2671562947,-0.9942470862,-0.1757018743,0.3156197501,-0.1229337938,-1.856559686,-0.3183155892,-0.9242664358,0.0366546568,-2.9453658745,-1.1520300435,0.361191841,-0.2717644934,-1.9334805654,-0.7575090906,-0.3891379404,0.2439349077,-1.5808684062,-0.8541259602,-0.6385299748,-0.0249511135,-3.01449851,9.6180303697,-0.0588322047,0.2614980422,1.2922610985,-1.488834325,-3.8972708566,0.5964494186,-1.5883403889,0.0995771584,-0.0402074552,-1.644243622,-0.0299610182,4.9946678172,0.2796560188,0.1450764638,-0.1851366511,1.0658787694,0.0554488347,0.2020702876,-0.2485808019,0.4786942809,-0.0946653458,0.0313138702,-0.1653766386,1.1197679228,0.1126234475,0.1067735065,-0.1101151042,3.7523854347,-1.3889371082,-0.6716526629,9.0933516367,-3.8332651779,5.1843307551,-8.3373235002,-0.0564187878,-4.5979991295,0.00099724,0.1016032545,-4.0015321435,0.1221531672,2.4475967668,0.5866433249,0.0258639111,-0.0373991743,-1.559549552,-0.0439944667,0.0366175909,-0.0493700638,0.5908313178,-0.2250570671,0.0561101298,-0.0403209942,0.340766945,-0.0695262256,-0.0226798082,-0.0421111236,67.4256510686,-80.7926464536,3.7053040359,10.658411243,-2.6046670639,1.1030682114,-5.9817769153,0.5157921799,0.2404831678,-0.0781323462,0.0407398257,2.1811208142,0.0074037301,-3.8657343607,0.3648529347,-0.0042742769,-0.1196338772,-0.8751191791,0.1786132607,0.0709557758,0.0246719166,-1.4085071393,0.0909404297,0.0054265773,0.0761107701,-2.1451261326,0.0069387497,0.0034425369,0.1445487908,8.6967017651,-19.2557959244,0.0125816531,-6.1747903957,7.9209097995,-10.7782954441,26.2555112418,-0.2508283257,0.3479998607,-0.1017267024,-0.1189589654,-0.4960555588,-0.1164651526,0.1641987343,0.0033901837,-0.1807424592,-0.1841820058,-1.2346120684,-0.2350587619,-0.1940347314,-0.1512310976,-0.5141640259,0.0149859938,-0.1709666227,-0.1579039128,-0.3584435916,0.0420535014,-0.1455209372,-0.1811686466,-5.7779624602,20.994815214,-3.0951434625,21.0557726452,-1.0856475496,0.1743279614,-3.7366420656,-0.4969849996,1.9709407525,-0.1308137726,-0.0268125004,2.7116301092,-0.1397795936,-0.4263026807,-0.166099719,-0.0420122177,-0.2276691758,0.546821127,0.0568474801,-0.0554782923,-0.2417144206,-1.5461765987,0.1591645586,-0.1091391586,-0.1645323099,-4.114550155,0.0134441639,-0.0930819398,0.0941010289,6.3476840002,-1.6452735504,0.7160461795,-4.65259697,123.0725415151,-86.2933823053,9.1700375012,0.0609264716,9.0841797484,0.3171693598,0.0976596695,9.0487791997,0.3975271345,-24.0633425299,-0.3506769742,0.3656527939,1.3005101827,-32.4671293255,0.1667238318,0.3635518443,1.3253440697,-4.8025135858,-0.0931065751,0.2943060577,1.0833607163,-2.675337108,0.4795941497,0.3219083662,0.895313767,15.9476153989,-6.0754739813,-6.9141809835,0.8191713392,-0.7251307833,-29.1873347996,11.2320991565,-0.7774702872,5.2240021799,0.126691185,0.2115985359,6.2170817789,0.268051719,-11.7306808739,-0.1464172158,0.4296953885,1.0625737536,-4.4421186707,0.1618739519,0.344118573,1.2530692403,0.4414436748,0.2812461731,0.2280207189,1.1959947571,1.7045534061,0.4157820337,0.2128259506,1.0197575152,-26.3453595233,1.1142967625,-8.2868152772,5.049384518,-110.9699840077,-6.5714537803,14.6907553893,1.1893438083,-4.3211130017,0.0941955829,0.1399106708,-5.0920993464,0.033146378,10.9329598196,0.2179445751,0.1770494971,-0.7021951828,2.5616010783,0.2030928803,0.0513406207,-0.8688036483,-0.0522170147,-0.2037899447,0.1138483607,-0.7118515253,-1.6324957964,-0.0894716404,-0.1607418909,-0.8476308604,8.9394134167,10.8348183429,1.0911994544,12.4836304558,-6.0054158706,-2.3966856711,9.8615276137,0.6454982063,-1.9748693423,0.0910346261,0.0543841505,-1.2295091864,-0.243384442,-1.410058733,0.2029491568,-0.0325658049,-0.3335154146,-1.6129292458,0.7048677734,0.1067054146,-0.3332175031,-0.3871519039,-0.6466507233,0.0782740978,-0.2693565033,-0.4189495486,-0.041269549,-0.0233276799,-0.1743216551,-3.8021608565,5.7147410892,-4.0157392178,22.4453187379,1.1191369237,-1.8724031128,-3.2002247918,-0.92180768,-3.5992738852,-0.0838425579,-0.6621862932,-1.8461581993,-0.1302227228,1.1697118787,0.5577474678,-0.087277209,-0.4494357608,-2.6853961125,0.8260162343,0.8555569823,1.2954188048,1.1719482406,0.580923019,-0.5971862142,0.7752193276,-0.1311602081,0.5141291146,0.4417933008,0.3944383455,-2.8526671447,0.7182367314,-0.7937064659,-6.7069973429,-5.3163083926,-0.113116169,0.9865704612,0.6684062672,-2.0938717676,-0.1997810933,0.0605776769,-1.2568345135,0.0803423835,-0.5417702381,-1.0177382863,-0.0557309295,-0.544235185,4.4557365643,0.2846638205,0.0217112058,0.5570811725,1.1117649369,0.6293442215,0.019105151,0.2358944395,1.9333497735,0.3226612623,0.0655795353,0.1601372716,-13.2077935766,-1.5521247779,0.5766589876,1.6557386321,-10.3976855876,2.3556449408,-1.3082401668,0.2261203485,-1.2147954109,-0.164965935,-0.1443140826,-3.3421994513,-0.1750890475,-0.2057958905,-0.2819997329,-0.1672840546,-0.2831645716,-0.2968913478,0.0647998978,-0.1572019182,-0.2673044294,-0.6404541185,-0.2097276996,-0.1661911051,-0.2410974355,-1.3996159188,0.0012995915,-0.1606587485,-0.2379933621,-0.86355464,-1.2557439976,-3.1727669889,-0.0788652316,1.2203662674,-18.6953188583,48.4381863294,-0.3460497513,5.3516338367,-0.2680760267,0.2725128173,1.016511138,-0.0580069793,-14.7866010444,0.6104396995,-0.0679397511,-0.315245772,-0.1924065319,0.1118033719,-0.1679490239,0.6942695139,-2.2788900519,-1.1562359711,-0.0401332654,-0.07755378,0.242422707,-0.8301362027,-0.5391233958,0.2762475178,-23.2961713075,0.1430783386,-0.6391616396,-0.393022957,0.1765712705,-0.1044157837,-2.3482984933,-1.1048948591,8.6792306743,-0.356306524,-0.0477536823,2.191928293,0.3403094738,7.9804604887,-0.2568498384,0.5249506194,0.3063631421,6.9134660804,0.1883204049,0.3020257096,0.1744495396,2.9808398822,0.3997190332,0.2686187178,0.0665457083,6.9258487024,-0.0062438247,-0.1711399775,-0.2368257661,-0.7118160398,-2.7311073472,-1.0144493817,3.0729363266,-117.0768260559,-2.374884361,-9.3034400218,-0.1911416079,-7.8623023037,0.2993544903,0.0537512987,-10.4893375564,0.0997629149,-0.4042723293,-0.5584005552,0.0730503898,0.8191210982,-5.9084435899,0.2969437723,0.0100697844,0.7559257171,2.1448576502,0.0237010722,0.0514350677,0.4317741948,3.2252123843,0.0828663107,0.0009545132,0.1248331114,9.2951242712,18.215883969,1.6169556677,9.6127516619,-24.2923558046,-6.8963085091,-23.4024083627,0.8423064689,-18.3222688827,-0.0516475402,0.0003461772,2.7416733031,-0.067481111,-5.5278105277,0.3780062388,0.0909966318,0.184867625,-4.9935847291,-0.1254990901,0.1056532166,0.2047609306,-1.291946848,0.0383030748,0.206206685,0.0188417292,-1.5837067018,0.0161678179,0.2724619985,-0.0586538459,14.9573759631,19.4078153806,-0.2992158001,14.0866677573,-6.4537822398,0.1990776369,-26.0701801202,0.1361773683,-3.1289012346,0.0362643181,0.3291399496,0.2725288227,0.2587776723,1.0547236967,0.2599598152,0.30169527,0.2262918208,1.4051811141,0.0094273936,0.2113815636,0.3034896972,1.8352806869,0.1323630721,0.1551703846,0.2339751933,2.3470406922,0.1121910125,0.1792368771,0.1357180157,2.9587889093,0.4956983895,22.1285808942,-97.5231172193,-3.6098230563,11.7720613976,-18.8766005296,0.9546999203,4.3278455928,-1.1106734404,-0.179763609,1.586594929,0.305816267,-12.7662538862,-1.1364758767,0.0891457146,2.3623614379,0.8014487827,0.1105606608,-0.1764213452,-2.150540275,2.3017139004,-0.4297408158,-0.0765220323,-0.3861535496,2.731364654,0.1985797128,-0.4554896219,-0.2230937077,-11.0452441271,-3.2556965644,-2.5362475194,-5.7406994207,-0.4744258805,-2.4411339093,-5.7565027095,-0.9724473442,1.2917392183,0.0332541593,-0.1808091874,0.5885976465,0.1699401218,-0.5249480536,-0.3428266446,0.1363241516,-1.2971135506,3.144501892,-0.2576058403,0.089216715,0.3515880716,1.0953463656,0.5129531575,-0.0862561588,0.4296181355,2.2141386246,-0.1749652303,-0.0448448752,0.1921464141,-8.5092459319,-2.4012533786,-0.8113495779,1.8104530439,1.2235058147,15.8636580587,1.2485669321,-0.8377820264,-4.2813067788,0.339093327,-0.1033099992,-6.9234968215,-0.1153199977,13.5597851242,-0.3994385379,-0.1028850275,-0.5627281376,10.4793863663,0.002552671,-0.0962748836,-0.7501164854,2.6230416853,-0.1099382761,-0.1091660692,-0.6805650574,1.9868481075,-0.18596934,-0.110155031,-0.5983355606,28.0343697619,-9.459101323,-0.2359298046,-16.6839456535,-48.2517693848,109.09638092,-12.5598185022,-0.6977857893,-0.3436592508,-0.2517223105,-0.1505685026,-0.1576541117,-0.1776495801,0.1402587973,-0.2180852565,-0.0268001813,-0.5046309635,0.3454610356,0.3354313054,-0.0391190419,-0.5370094855,-0.2385282769,-0.3525284146,-0.0695866578,-0.5212923212,-1.0451802958,-0.1508094639,0.0067001027,-0.5660364283,2.3122309257,21.1919930957,0.0101681626,-0.9760505339,2.3802853845,-0.8216452372,3.7355375311,0.0811921726,3.157550022,3.021084362,-0.095631382,0.6325187489,0.0200247193,-0.8758479682,-1.5038874479,-0.1816030403,-0.2243749738,-0.7579732139,-0.9538510695,-0.0571550642,-0.2569804396,-0.2053996753,-1.33577876,-0.1275083733,-0.0982200673,-0.2109258206,-1.7371580988,-0.1509939952,-0.1834113823,5.9312940845,3.0803118343,0.1858141847,0.2283040642,6.163803455,-0.6638669325,-4.0792141013,0.2825892208,-11.5318648865,-0.5054290054,-0.0740330514,9.9626448603,0.5108202484,-3.4606940246,0.0813904109,-0.6378096347,-0.7268237213,-1.4981681672,0.1810972103,-0.4221351818,-0.1966167985,-0.3240559739,1.4444803791,-0.4426990386,-0.1045271051,-1.3906275775,0.5209379153,-0.3253815075,-0.1840984589,0.0273046441,5.1324605467,-9.3801294713,-2.9669351858,11.6079532408,-1.2398248257,1.3070329881,-0.5187277657,-10.4716994766,7.7977961237,0.3972190333,-2.0770938853,0.2769703263,-0.4044777545,-1.610468976,0.4333208281,-0.006664293,-2.9710577232,-3.1794969015,0.1646129498,0.8041808769,-1.0430845379,-1.9392155171,0.2949534392,0.3415304222,-1.0471628971,-1.4126120066,0.469551557,0.4030652069,-2.1659710766,-1.8972083362,0.6843494318,-2.9756063664,-2.8238079355,0.3549569847,3.3487767009,3.0817537384,0.3770997285,0.063915153,0.1318895222,-3.0883661673,0.1252677469,6.695155009,-0.0798685317,0.1869178746,0.7135222102,5.5134839705,0.1059818012,0.0970682004,0.4011192879,2.4079300743,-0.0193968865,0.0967875412,0.3407703716,2.1920568235,0.0965968328,0.1297043314,0.2339520735,-25.7821919055,24.9354164692,-1.423664227,12.4558866132,-139.3536084099,39.798597262,-19.3245527409,4.2715676001,6.8423297567,0.2728665602,0.1770780846,5.3481685432,0.0809504129,-11.8598058705,-0.1328601633,0.1212416385,0.2181957557,1.7070801964,-0.3246757851,0.1309951606,0.4396034755,0.5907174081,0.1327053593,0.0794221914,0.4745833138,1.571869475,-0.0552020685,0.2006915291,0.5005985862,63.3594027514,-110.837107616,-5.750358737,-0.9921980295,-2.628759567,8.9546696095,-13.5288050338,1.6036201845,-3.1653148864,0.4740931191,-0.4814881619,-4.2882463071,0.2900824047,1.0380347307,0.4532817858,-0.9354756713,0.6057603285,2.5929630612,-0.2299128264,0.5211613703,-0.0261587915,-1.3409687973,0.2600509303,-0.0121982792,-0.1866093907,-0.3878792181,-0.3021844174,-0.2406357864,-0.0489055071,-3.595283924,4.0708728878,0.6006945976,-2.686589576,3.2182301246,0.387802438,3.554246947,-0.0993882216,10.633294457,0.2964964049,0.1924739884,7.316826578,0.2981963373,-7.2289257373,0.02288665,0.2768682387,0.732160076,-0.198104319,0.2407318748,0.2085166312,0.6759310968,1.9667188942,-0.0044830511,0.2316479743,0.6080288417,1.1999567279,0.1785688629,0.2268101063,0.3673111302,-2.0163169262,3.9809968517,-14.9310224104,14.5080537836,-205.398020637,-0.7304956293,-2.1376512494,8.2281346974,13.8785480712,-0.3483720254,-0.0992827353,10.6641495873,-0.0294720693,-15.6046047926,0.5465762556,-0.1285632569,0.1343803073,3.3372764601,-0.5194286978,-0.0438374624,-0.3520498736,-4.3275014797,-0.1922786501,-0.1170685904,-0.2595355,-4.9198942323,-0.123038766,-0.0685311312,-0.1090636879,9.9717482133,-34.89367096,-4.5393974991,-14.2381647078,4.344156901,27.5489591345,12.0075953913,1.4407031332,-1.0462543977,-0.6046626868,-0.4724885917,-3.8869408935,0.5305246695,-7.1064044235,-0.1659512983,-0.3973823299,-0.8694037022,-1.4423170252,-0.681673675,-0.3683011429,-0.4340506181,1.5936509861,-0.5740800525,0.213060199,0.3175501832,-0.0111060588,-0.366313101,-0.0960925132,-0.8288341709,-15.2686015195,-20.2649997114,0.4251798138,-11.4925610969,25.6918419843,-1.3827935058,-21.8688230692,1.5798114482,-0.8722306837,0.4514110576,-0.4208294518,0.3941152486,-0.0306235893,-3.1651053515,-0.7643084563,-0.5999775632,0.0270024399,-0.8485854451,-0.5478935947,-1.0874611912,-0.159518654,-1.321066826,-1.1538868615,-0.8015213252,-0.682716003,-0.7563997623,-0.9543279631,0.1659532109,0.2552150314,-14.1386068752,-14.9638324843,-3.0527036538,-6.1307467574,-1.6691303489,-1.0031350531,-0.0592449854,-1.0976590704,-6.8662707007,-0.542456145,0.1474276552,-6.9353610181,0.0807700805,6.7741932798,0.5516621123,0.1454346591,0.1923306259,2.7535581724,0.5175919344,0.0903751766,0.0310784374,0.5731024654,0.2392695842,0.1110751372,-0.2947666782,0.0576062365,0.2699567979,0.0078863324,-0.4925254935,9.2086264086,37.7171144647,2.7838595952,7.7613321994,-31.9587285178,-0.9894748061,-17.8211035197,2.5985328979,4.4336903617,-0.0453492232,0.0477632296,1.4948578039,-0.0287535729,18.8689155128,0.2883782023,0.0004311855,-0.5732644236,4.690654938,0.4059534994,-0.0234134173,-0.1160640994,0.9880124951,0.1895522697,0.0469244411,-0.0730911383,0.0248514616,-0.0526841725,-0.0236212107,0.0189939528,-54.3498144146,34.5827075225,-1.1344470817,11.9468222225,-78.1050426467,33.9357366559,-7.2898246147,0.5911618278,2.848830563,-0.116450041,-0.0788414509,0.4376836153,-0.1752289491,-0.6558064906,0.263991675,-0.1600039342,-0.1368386458,-0.0336486546,0.0203583956,-0.0939712447,-0.0544821168,-1.126358584,-0.2090724985,-0.0891333704,-0.0990435478,-1.4986380418,-0.0884532729,-0.0172404376,-0.0389693153,6.33851882,-29.2564492571,-1.9535507407,-7.4933540654,-3.6606682184,35.6806285684,44.1821143636,-2.3035447178,-0.0261506394,1.0056506871,-0.0802157751,1.0862392175,0.5486336594,0.7059205294,0.870060088,0.5491772544,-0.438646634,3.2626411646,-0.7197692776,0.0760395705,0.8824280157,0.2641437133,0.1727444985,0.073757543,-0.2567810411,-0.0483545606,0.8226897805,0.8075633415,0.4047934183,1.2968451902,22.6562102793,1.6944168116,1.118052202,2.9408123143,5.6548564655,7.9097557758,0.7642219553,-0.152575994,0.4873780638,-0.0329471248,0.9663822613,0.3683144098,-7.3672860142,0.2809112952,0.0380842142,-0.9578922878,0.345512208,-0.272511511,-0.0506076244,-0.0041497388,-0.9773269518,1.4628922998,0.01671848,-0.3140995289,0.5883341993,0.2789892198,-0.045511542,-0.2313835266,0.8873864887,0.7163565947,0.617941756,6.2116931446,1.3600395654,-0.5235936591,-2.2412767265,-0.1374037118,-7.1351319262,0.2525826162,0.1064495216,-0.8637904824,0.0717060421,-0.0148163589,0.3039822974,-0.1498312735,0.0820604788,-7.7901160261,-0.0326637748,0.0493780707,-0.212502285,-0.7436740066,-0.0673817193,0.0668945267,0.0844247796,-0.9579082154,-0.1327495204,0.0798771029,0.1391849671,-0.1630156635,-22.3942374245,3.0290934118,-0.770216439,-12.0021388087,0.715864055,14.9169248475,-0.7972002301,-2.0033714802,-0.4438555705,0.1774619645,-7.9512622572,-0.2794545938,-2.8750069515,0.9656116656,-0.4701167525,0.9554924189,0.2188976457,0.259217326,-0.2595266306,-0.0413189939,2.192348989,-0.423869626,-0.0842113334,-0.2415670517,-1.395071096,0.4919711664,0.0895031255,0.0622711173,-0.6011723136,-2.0411156182,7.6794542056,-6.1370276731,3.1541121131,-0.5284700744,2.1166322793,-0.8525179893,-2.7877412296,0.5528956875,0.1621719108,3.8520676667,0.4574953247,-1.0557680386,0.4084837359,0.3607096748,0.8671182589,7.1739228169,0.8379839869,0.4319061345,1.3810726938,-1.7974811617,0.8476173767,0.0800693291,0.2960875325,-2.4121807658,0.1671813684,0.2026465444,-0.1560099858,26.3895766115,25.6091037913,0.7453556608,-7.5556730526,-27.7411194568,0.2054302527,3.0691835259,-0.231811337,6.3962662381,-0.1304490881,-0.1301261768,2.7333940548,-0.2472452615,30.6499229069,0.1820314865,-0.2475172149,0.445134563,-18.3790454471,0.0060156595,-0.1341890357,-0.2321190959,-5.3157660674,-0.0035023182,-0.2097691699,-0.3032233905,-6.7956622018,-0.4405726439,-0.2389697742,-0.2264856341,11.1707736641,-3.0333604126,-4.207090823,-0.5557940042,-4.9332863014,0.5332775162,7.9891368487,0.657972116,9.2119717023,-0.267260069,-0.1128552558,-7.590815401,0.1061431133,-7.0309783984,0.3793386817,-0.1281605512,-2.0723097325,-3.1453459287,-0.9007329714,-0.0843494342,0.1343425306,-0.193843382,0.044806321,0.0066668027,0.1693806697,1.8485040101,0.4140530421,0.0912521411,0.0392400161,2.2868723261,-10.6848594414,2.0430435419,1.2041607987,-2.1140192016,-3.7146412351,7.0969769003,-0.0331223499
biasActivation=0,1,1
[BASIC:ACTIVATION]
"org.encog.engine.network.activation.ActivationElliottSymmetric",1
"org.encog.engine.network.activation.ActivationElliottSymmetric",1
"org.encog.engine.network.activation.ActivationLinear"
