encog,BasicNetwork,java,3.3.0,1,1469380079944
[BASIC]
[BASIC:PARAMS]
[BASIC:NETWORK]
beginTraining=0
connectionLimit=0
contextTargetOffset=0,0,0
contextTargetSize=0,0,0
endTraining=2
hasContext=f
inputCount=28
layerCounts=2,46,29
layerFeedCounts=2,45,28
layerContextCount=0,0,0
layerIndex=0,2,48
output=0,0,0,0,0,0,0,0,0,0,0,0,0,0,0,0,0,0,0,0,0,0,0,0,0,0,0,0,0,0,0,0,0,0,0,0,0,0,0,0,0,0,0,0,0,0,0,1,0,0,0,0,0,0,0,0,0,0,0,0,0,0,0,0,0,0,0,0,0,0,0,0,0,0,0,0,1
outputCount=2
weightIndex=0,92,1397
weights=-0.332430543,-0.461311544,0.2653783732,-0.2140324608,-0.5400247946,0.9608468202,-0.9124212727,1.324144298,0.4630068255,0.5368435097,0.0614799403,0.7509599917,-0.5003821615,0.0760238697,-0.3268145749,-1.1102673583,-0.2371378673,0.2775905381,-0.9892205191,-0.6182576278,0.5987148189,-0.4616326139,-0.2427964,0.2835352912,0.9704076847,-0.4062604241,-0.1687331015,0.2489632463,1.4298279517,0.9695200613,0.28837315,-1.2103304026,-0.8844715959,-0.4390944248,-0.1820790583,-0.0376499101,0.5812906956,0.9211359804,-0.1687211257,-0.1199437534,0.2100195245,-0.2261836023,-0.2644768046,-0.4029232246,-0.1557767418,-0.120270402,-0.5585308387,0.5871493262,0.7537825601,0.7855244061,-0.0054194486,-0.2308255432,-0.7120384757,-1.596829084,-0.3060151922,-0.2481386327,0.9424800228,0.8175300677,0.4814652956,-0.1161557115,-0.4482918138,0.7345835751,-0.9448374763,-0.4166095619,-0.0398392342,0.4505198828,-0.4533339053,-0.4690510878,0.425960373,-1.0113000969,-0.4196772554,0.1819766508,0.4491914061,-0.2963893487,-0.151829931,-0.7422486743,-0.1249957637,0.340648045,0.2204486615,-1.0516793298,-1.0825282204,-1.6195692963,-0.5242328764,-0.589169462,0.8140758691,0.2591500591,-0.8712338768,0.3374942761,0.6340846317,0.251877637,0.2759233742,-0.6422742377,-4.4509818568,-0.0623962258,-0.2647483325,-4.0412583777,-0.290026316,7.3893756174,-0.0252341992,-0.307072631,-0.4886929004,4.1954034518,-0.1444222976,-0.2119586285,-0.6325686581,-0.0675632558,-0.4632693985,-0.1757282603,-0.6925764074,-0.7790267427,-0.2611763934,-0.1807966722,-0.7347505431,29.8955071724,48.3690708413,1.253060594,24.4605255185,-27.0133525856,26.4182096011,-26.6732327612,0.9776258048,11.2158773347,1.1082263532,-0.4991906744,10.1209641557,0.0187046499,1.7385612951,-0.7020734685,-0.4445617811,0.9156907622,0.8983109931,-0.8084279502,0.0839346992,-0.3973529186,0.8815223638,-0.9686840131,-0.1659978128,-0.3758942995,-1.1061421427,-0.2396218902,0.1332914001,-0.5438444916,15.2071535581,-0.0706163247,-4.4547025444,17.9032468551,-18.9579825525,3.8429688527,-11.9858962554,-3.2298398836,-4.979668567,-0.1044747401,-0.1913325511,-4.3155454134,-0.2639230038,3.5587486062,0.0148020768,-0.3825658443,-0.0945194124,4.5436634058,-0.0014622394,-0.2924809408,-0.4159091019,-1.5315010991,-0.1288999107,-0.2658138567,-0.4021261421,-1.131781997,-0.3426124613,-0.2173580771,-0.336658897,7.9814161485,-6.409732615,0.9389293525,1.9935126126,6.0493705434,1.1400021563,18.3621524055,0.8241561169,-4.2679439949,-0.3585507303,-0.1752017731,0.3164746832,-0.0822783226,-1.8556468052,-0.3190686538,-0.5066403689,0.1253684287,-2.9438364582,-1.151633551,0.3624477783,-0.1400511215,-1.9334939616,-0.7570157413,-0.3612187745,0.0847842433,0.8470170789,-0.8503089476,-0.3625706283,0.0445687972,-3.5704010362,11.1745850704,0.0147164597,0.26177004,1.2925600579,-1.4868941213,-3.8967877232,0.5981528422,-1.1420663193,0.0140475499,-0.0408748597,-1.0875253998,-0.0304494486,4.9963272896,0.248477679,0.1446043181,-0.2554864603,1.0676829181,0.0548679082,0.1671415483,-0.2053587432,0.7565398543,-0.096571101,0.0493753018,-0.151189579,2.178956689,0.0578133671,0.0923487344,-0.150608177,0.41389846,-1.2378868306,-0.669832129,9.0973757313,-3.871051733,5.1839948015,-8.339533514,-0.0561891731,-4.5850735664,-0.0078394138,0.1015274057,-3.491787169,0.1226416805,3.0159760047,0.3707883381,0.0659456379,-0.0156720818,-0.7511361565,0.0035505224,0.0385245189,-0.0178121339,0.5918245478,-0.091318798,0.0675252155,-0.0039486938,0.3403642336,0.0045747627,0.0093629363,-0.0081139148,69.1691451814,-82.1917386943,3.7052986174,9.6309477489,-0.3589193369,-7.7179468607,-5.9825871822,0.8267524223,0.236115717,-0.0889323277,0.029192433,1.2463969459,0.0027377204,-2.6614151772,0.3234849192,-0.0027358133,-0.1766619739,-0.7516638615,0.0258532308,0.0280636357,0.0004119895,-1.1468147735,0.0015318524,0.0017428241,0.0534155854,-1.0875708996,-0.0289329938,0.0021607847,0.0656398496,8.7095772901,-18.5892880471,-0.1111871536,-6.7513657194,8.1979870626,-11.9790471392,27.2858064725,-0.2508303531,0.3213375134,-0.069850926,-0.0981722381,-0.494444966,-0.1136198025,0.1649603959,0.0038533774,-0.146621393,-0.1593791992,-0.855910596,-0.1909593245,-0.1517862288,-0.1264894222,-0.3303311508,0.0148053088,-0.1302556562,-0.129127709,-0.0600840414,0.0413555144,-0.1245302633,-0.1530293819,-6.7567001524,18.1136098446,-3.1656481556,21.0570202151,-1.0865213968,-0.3784480092,-3.7719776517,-0.4987324644,2.7474513956,0.0168991178,-0.0249027076,2.727168695,-0.0552866993,-0.43745216,-0.1628255489,-0.0221110333,-0.1681338986,-0.5251403522,0.0563274012,0.0031328614,-0.1501905896,-1.5728914924,0.1222762883,-0.0321763839,-0.0816932584,-4.3195907365,0.0093693968,-0.0929142306,0.2241570452,12.4607254084,-1.6396009678,0.7207674987,-4.6521347048,123.0591423263,-91.9789935611,6.5611251843,0.0592868435,9.6708044117,0.2094093767,0.0971361526,10.5624302779,0.3408894149,-27.8063903124,-0.3513452927,0.3337235751,1.2941240504,-29.9288787639,0.1658335347,0.3348034473,1.3250904143,-4.5887119433,0.1070930666,0.2759855863,1.0276212593,-1.913651509,0.4072802682,0.2582327654,0.7935176371,15.9401645826,-1.5237756962,-8.1705657005,0.8211539815,-0.7258014423,-29.1907497691,11.4640088757,-0.7645736404,5.2867300882,0.1280068159,0.2110914021,6.2615697773,0.2004556274,-11.7028464835,-0.1504982665,0.4299007765,1.2356207712,-4.4454352049,0.1613344163,0.3438764244,1.2850059648,0.6306312887,0.2118760181,0.2276139746,1.1891270118,1.8478367029,0.3435357303,0.1354462385,0.9408220544,-26.3390871918,1.1131257025,-9.249164918,5.0501560591,-115.6118287862,-6.5711479742,16.2671862836,1.5713295655,-4.6686875684,0.0389387847,0.1359401838,-5.1185552813,0.0174456269,9.4632039455,0.2280548748,0.1616217763,-0.7014294282,1.6089760266,0.2029940186,0.114197665,-0.8488318751,-0.0255785731,-0.2022962173,0.1171411259,-0.7064798476,-1.733616752,-0.0101043655,-0.0419958356,-0.8574964979,8.9401826721,10.8341636486,1.0935247444,13.2868293282,-6.0059916677,-2.3852084256,11.1515941921,0.6474976716,-2.6286516336,0.089054415,0.0519963308,-1.7732557487,-0.2068705423,-1.4507176628,0.0255491345,-0.059161758,-0.3341782311,-1.1006911018,0.4774115394,0.1044625463,-0.2815729931,-0.2929232957,-0.5119896148,0.0562842085,-0.1976350842,0.0693296667,-0.0472825222,-0.026782098,-0.1428303505,-3.6986160273,5.7155354736,-4.0151247192,24.0846627913,1.1172192264,-1.8726667489,-3.2055801583,-0.9246069181,-3.6026241303,-0.0872446701,-0.4510702115,-2.887795697,0.0756285471,1.0838265129,0.5580930992,-0.0859204674,-0.3866484186,-4.4981752112,1.0207499914,0.8550238689,1.3532810927,0.1277190737,0.5812967874,-0.5971312145,0.8308663279,-0.1324140424,0.4959754174,0.441264194,0.3885396473,-2.8184708848,0.7173152918,-0.7966580244,-6.7060139403,-5.3168450387,-0.1084369711,0.992576995,0.6694942962,-0.6838182617,-0.0314088304,0.0600367641,0.7145071134,0.0829303292,-4.062389448,-0.5887284301,0.0275955387,0.1996030384,3.4375299072,0.3474540545,0.0961461062,0.4073494167,0.8063288928,0.5696885652,0.0750912338,0.3607520455,0.0305351034,0.3214180659,0.0792647905,0.3990281243,-12.2293005987,-1.5500425259,0.5770514369,0.6626847666,-21.8994905975,2.2740973177,1.129905546,0.2947073752,-1.2267810092,-0.1563229996,-0.1447827971,-3.1436849493,-0.1728755836,0.1450299733,-0.2593406811,-0.167726915,-0.2320592983,-0.2977347527,0.0636983147,-0.1573355284,-0.203752948,-0.5092993555,-0.1453998821,-0.1684770746,-0.1750136798,-1.3973433715,-0.0032659809,-0.1587594027,-0.1778181786,-0.8315861136,-1.0489399119,-3.1728426416,-0.0692219043,1.2186002471,-18.6956152087,48.4399798403,-0.5507872046,5.4513428221,-0.2677114905,0.2715205915,1.017742642,-0.063365818,-14.7880665788,0.6106532702,-0.0684383159,-1.0011607459,5.3618247523,0.1116370181,-0.1675018545,0.7124443597,-4.6678551018,-1.1554203804,-0.0411394248,-0.479015326,-0.8091209799,-0.8297859583,-0.5387262111,-0.5270879031,-23.2936727841,0.1435315234,-0.6489279063,-0.3935313156,0.1739306053,-1.1477466077,-2.3491795188,-1.1046120577,10.862095046,-0.3520053068,0.0747150348,3.2902103282,0.259927458,8.0825137904,-0.1504472166,0.4440370533,0.6527080978,6.9030458793,0.1778020045,0.2966501525,0.326176482,3.0373964821,0.3554177905,0.2634777282,0.2031659518,6.7617080565,-0.0741299597,-0.149714278,-0.1706918981,-2.0827500073,-2.7936557019,-3.4287977915,1.6362887693,-117.1596471962,-2.9441274881,-9.3313444412,-0.295968914,-6.6905094079,0.2906214507,0.0218519226,-8.0142205865,0.05225236,-1.9649983868,-0.5582574783,0.0686498435,0.7255883381,-2.6334590513,0.2062940505,0.0955876257,0.6411749591,1.2691993513,0.0246162062,0.0444848377,0.3721268862,2.2508646526,0.049876312,-0.00855776,0.1458279959,9.8697380151,18.2171568906,1.618970123,10.9363514792,-24.2925009093,-6.780431423,-23.4020302593,0.8415119949,-12.0085901209,-0.0497736032,0.047939688,1.0489182582,0.0704542587,-5.5306825336,0.377233419,0.0915486454,0.3265722891,-4.993684806,-0.1250923179,0.1070472743,0.2358128047,-1.296001046,0.0395572889,0.2062452839,0.0802114014,-1.5815492141,0.0135494622,0.2433211714,0.0325306482,25.3302081743,11.2936211898,-0.2979426198,14.0868881678,-6.4530528258,0.2000095105,-26.0707745967,0.1851684072,-3.1271511585,0.0366537793,0.2712106382,0.272012759,0.1920903908,1.8111345008,0.2305410215,0.2459007484,0.144147231,1.4089080775,0.0087886791,0.1580587519,0.2303686289,1.6869755549,0.1412354659,0.0834245671,0.1668180393,2.0010068639,0.0453904563,0.1550024986,0.0980223874,4.6832709808,2.6014534396,22.1298991524,-97.5239163269,-1.9019665373,9.9643494664,-18.8768623742,1.1715699062,7.7820410109,-0.8056618432,-0.2160252736,2.2063129753,0.2082218372,-12.7660208396,-0.9994316303,-0.1189854666,2.3643817853,-3.8692761213,-0.0536354191,-0.1737332927,-4.2604718633,1.9088138359,-0.4332650122,-0.1626721532,-0.4364536433,0.7588407675,-0.2863845106,-0.4545517467,-0.6081783653,-11.3494972392,-1.7342821036,-2.5390425034,-5.6987287392,-0.4750161693,-2.4559070126,-5.7557605134,-0.9738703626,1.2917998723,0.034306978,-0.080309053,0.590193287,0.1684602994,-0.5256302432,-0.3401555246,0.1362899058,-1.2962798442,3.6356674604,-0.061218897,0.0890892684,0.2958219372,1.3649287131,0.5117687885,-0.0269043241,0.402333014,1.6962392342,-0.1597337983,-0.0434514053,0.1896081986,-8.5113426119,-3.5906523756,-0.8065080735,1.8352561412,1.2227757587,15.864680397,0.2781341332,-0.8372477436,-4.2854981748,0.2566888573,-0.0852570054,-7.1341512766,-0.1140902099,15.5625230884,-0.186377785,-0.0990534039,-0.5603074848,11.6246190977,-0.0562798408,-0.1029730511,-0.734431,3.3105763482,-0.0968463025,-0.1077208967,-0.6635188457,2.4786256771,-0.1841586208,-0.0728952275,-0.5865864766,28.0336909491,-9.4581773187,1.3400661154,-16.6856584238,-52.7431756613,109.0955576575,-16.2622465168,-0.6995923303,-0.2485474382,-0.200350449,-0.1437044462,-0.1565418753,-0.1731491081,-0.5855976019,-0.2172105395,-0.0662546546,-0.4665669202,-0.091786746,0.3009740236,-0.073244391,-0.4885816231,-0.2387292466,-0.3238210164,-0.0845794088,-0.5215677922,-0.6512636663,-0.1491837858,-0.0434733887,-0.5697666797,1.888943599,25.5442458314,-0.5228357039,-0.9733516844,2.5875972073,-0.2365625374,3.7362167115,-0.0627357369,3.1937933848,3.0272537428,-0.2565606461,-0.5377656583,0.0180671678,-1.8596065748,-1.5215198765,-0.2202603231,-0.2441570902,-0.7409897853,-1.0545137351,-0.137448644,-0.258523262,0.395664499,-1.4501449216,-0.2248081836,-0.2325260005,0.3361219283,-1.4787630138,-0.1506074009,-0.1826043514,-10.4722513553,17.218999858,0.185683416,0.2281111621,4.3471777265,-0.663506903,-2.851850429,0.1579917739,-12.7573088509,-0.4012228465,-0.0715103158,10.0166097479,0.2146893528,-5.7376543066,0.0818705877,-0.2832885614,-0.6016952954,-2.0321149885,0.3965014833,-0.2687936573,-0.1420151429,-1.2206471664,1.1354763895,-0.1899981496,-0.0082457968,-1.3964118908,0.5203409673,-0.1354624536,-0.0883324118,-3.5375435778,7.758693452,-9.3809841286,-2.974783549,13.823002502,-1.2406952278,1.7761361904,-0.5182387035,-10.4700742169,7.7973343742,0.3921782454,-0.5526057146,0.1940193833,0.1422505251,-1.6158242923,0.432769339,0.059813042,-2.9740650764,-3.1812724271,0.1610766365,0.8268470624,-1.0476956538,-1.9820832203,0.2938441895,0.3910075391,-1.3069464405,-1.3791056302,0.4652002756,0.4028596685,0.6127893057,-6.4985248115,0.6719656708,-3.6523928101,-2.8218071377,0.383711337,3.3315895476,3.0928394169,0.2962387731,0.0626989452,0.1302888872,-3.0344116489,0.091929291,6.7753023099,-0.0800185445,0.1462649466,0.7120306512,6.1229699139,0.1056159547,0.0949951704,0.4005287414,2.9189608719,-0.025024105,0.0836696193,0.3244951973,3.0061278737,0.0789787063,0.1116245177,0.1926154932,-23.0884131502,24.935978124,-1.4634274804,12.4558601101,-139.3534500721,32.8392755857,-20.1299008532,4.6921023895,6.8045832366,0.1504285057,0.1379931763,5.3560706749,0.0537001675,-14.2222291315,-0.218664815,0.1129765029,0.2185563606,1.7071326128,-0.2618192423,0.1122644149,0.4341663026,0.5912795125,0.1321950182,0.059980197,0.4690594295,1.5719079913,0.023920172,0.1907260777,0.4549503616,54.7815348886,-102.0179466466,-7.563475223,-0.9921439616,-2.6174963376,8.9563752948,-10.0737428804,1.7674399557,-4.7142944658,0.4701015451,-0.4800153705,-5.4298659147,0.2645311641,0.3963344,0.4529054677,-0.6863745841,0.7171185451,2.1960715729,-0.2308554087,0.3698579255,-0.0186292828,-1.6452881032,0.1771543155,-0.0112938308,-0.0753218673,-0.3899850787,-0.3019456708,-0.1360163233,-0.0002352314,-3.5948796457,4.0711064929,0.5995925223,-0.1714922874,3.2181612135,0.4325441489,4.1570204529,-0.0996869438,9.7419455867,0.2461663544,0.1826104719,6.655624952,0.2387331644,-6.6574161316,0.0205652299,0.1914121153,0.6829411329,-0.1631299123,0.2226386742,0.2073564811,0.6235188858,1.9595818076,-0.0083361182,0.1808873817,0.5574640533,1.138856006,0.1774428213,0.1480919572,0.3467100322,0.7630296413,4.3672232872,-14.9319129107,14.4899928832,-195.370567703,-0.7187879355,-4.0929860587,8.2286666754,13.7411874384,-0.3058836228,-0.0992690981,9.9932621591,-0.0301651989,-12.0212274671,0.5465958248,-0.1285600541,0.1044108446,0.9581644719,-0.2710380536,-0.1414112106,-0.3522067259,-3.7351515298,-0.1802938299,-0.1172686177,-0.3090716923,-4.8571209338,-0.1219652818,-0.1109299597,-0.1904967102,9.9691477065,-34.9007437148,-5.7506546258,-14.2386390246,2.2375745845,27.6130980423,12.0070574089,1.4405175876,-3.6635834928,-0.2830985622,-0.1321966403,-3.8858686662,0.1055817569,-2.6944184529,0.0283086423,-0.2586167301,-0.5694529489,-4.109302543,-0.1495696479,-0.0910897929,-0.2083546453,1.5920845976,-0.2982355555,-0.1386504339,-0.0565522651,1.7340268482,-0.1206638009,-0.0981785877,-0.2114784529,6.2276248074,-17.6486399046,0.424829975,-11.4907834421,26.0906016331,-1.4651735873,-23.9060216973,1.57828519,-0.8711173306,0.450833317,-0.435543816,0.3939694284,-0.3379294204,-7.2266763675,-0.7646068731,-0.5994872824,0.0238795821,-0.8498028761,-0.5491920402,-1.0883454878,-0.1535541031,-6.2068012149,-1.1540633008,-0.8029839328,-0.6847916631,-0.7582003952,-0.9552515686,0.1630820652,0.2522015638,-14.1406377607,-14.9647355769,-3.2282995821,-6.1315679483,-1.669614358,-2.0705331577,-0.0601390564,-1.0983943345,-6.842651372,-0.5385276706,0.1102586352,-6.5611703608,0.0852849085,8.2894897237,0.5253970385,0.1435636701,0.0975696565,2.9579312811,0.4292511355,0.0900166617,0.0024848929,0.5925678156,0.2640163871,0.1100213238,-0.2947348012,0.3634287788,0.2370913691,0.0074902401,-0.5347028927,9.2095333809,37.7167166196,2.7827403051,7.7636282465,-32.9242888111,-0.9891947348,-17.8223195008,2.6118541391,3.5241403925,-0.0654469204,0.0493766989,0.4883667046,0.0155026266,11.4565806322,0.2746190882,0.0025062015,-0.1068691599,3.9072699228,0.3096257657,-0.0244687238,0.0251932375,0.5105121104,0.1885606748,0.0398932178,0.0717371644,-1.2704694316,-0.0529163765,-0.0290349498,0.1989803702,-54.3494712143,33.7476774829,-1.1451659917,9.125084071,-82.9990694032,45.6281515074,-7.2677785534,0.6057681456,2.2137929526,-0.0386275565,-0.0733427995,-0.4714304867,-0.1179018898,-0.6650099247,0.1228930733,-0.1261676329,-0.1117618227,-1.1056989778,0.0204755759,-0.0637936219,-0.0230039066,-1.4083420605,-0.207062197,-0.0662771951,-0.077231332,-2.1029860638,-0.0859818645,-0.017089499,-0.0360799945,7.0390152611,-23.350827154,-2.0211671252,-7.0479529834,-7.287286247,35.6827280791,44.182750529,-2.3033510455,-0.0275516625,1.0065957817,-0.0784856171,1.0870366274,0.5576234818,2.7536906612,0.8709494377,0.5497354512,-0.4381314854,3.2665108462,-0.7166020157,0.0790657174,0.8811224072,0.2653262324,0.1751962591,0.0787355495,-0.2559350843,1.5717118044,0.8242331646,1.1311089942,0.4066229391,1.3026457003,22.6566928918,7.7456150103,1.1190893918,2.9397774052,5.655090451,7.9094646475,0.7652555621,-0.1521536281,0.486381209,-0.0325604886,-0.2247319211,0.1918256539,-9.3734437688,0.2803980402,0.0391164695,-1.0512006991,2.0570471102,-0.1937158721,0.0521399807,-0.0122969178,-0.9773709377,1.3776760458,0.0509997227,-0.1767537793,1.5115464892,0.2794341794,-0.0332255712,-0.1417661412,0.8743986179,1.5317936179,0.6294524817,6.2107991353,1.3610010573,-0.5235445685,-2.2435782998,-0.1356660356,-7.1326933825,0.2520364346,0.106543812,-0.7185156783,0.0727869141,-0.3877788451,0.3043225087,-0.1471045119,0.0818292958,-9.40277847,-0.0441981739,0.0487122436,-0.0982596075,-0.8853067715,-0.0663244406,0.0695452527,0.1446912939,-0.9564841046,-0.0806157807,0.079648119,0.2076042177,-0.1629880521,-22.1625548695,3.0285698252,-1.4988714625,-12.0018742747,0.7140552832,14.9308766118,-0.7971257589,-2.1546449552,-0.4453021256,0.1580699356,-7.8050565541,-0.2721528331,-3.5919534187,0.9641538276,-0.3532759529,0.9567513338,0.2249061889,0.2573044951,-0.2590242971,-0.0276177878,2.1880672322,-0.4201342574,-0.1074008083,-0.2400289705,-1.3959348975,0.4904483242,0.0870702357,0.0608990824,-0.6061517017,-2.0063988933,7.8005185493,-6.1322773746,3.1540792353,-0.0650734769,2.1154042308,-0.852798295,-4.6958980186,0.5514517561,0.1655229967,3.85105468,0.4582605214,-1.0554191193,0.4085404604,0.3610948216,0.8901034894,7.5753541774,0.8285632928,0.4311128466,1.4199739987,-1.8023492093,0.8467914177,0.0857909297,0.3441983429,-3.5231821726,0.1853518972,0.2607350816,-0.1673102977,26.3922429318,25.6086727371,2.295330098,-7.56814903,-27.8703580059,0.2029407325,3.5557371502,-0.2312437975,6.5431479066,-0.1298082992,-0.1311873858,2.6275087196,-0.2438581735,30.6490646746,0.1192000813,-0.2470250871,0.6182589779,-18.7734541245,0.0051586862,-0.1308567267,-0.136755149,-5.3210233286,-0.0040659334,-0.2065509744,-0.2165225827,-6.7543231169,-0.3436545711,-0.2074764416,-0.1719255676,3.4960034385,-3.0339795838,-4.2113782793,-0.5603466437,-6.3207166328,1.2089104844,7.9885568733,0.6562922612,9.214739856,-0.2630138915,-0.0554097244,-7.5892930604,0.1437569354,-7.0304914636,0.378627115,-0.0875305617,-2.1428504048,-3.1453702304,-0.8829096865,-0.0827830818,0.0926188503,-0.1720551285,0.2714527881,0.0243697897,0.1383551489,2.4191938943,0.4130075302,0.0706857918,0.0400841045,2.2863301799,-10.686922558,2.3214578198,1.2039087887,-2.8556594259,-5.7855254629,6.0152882348,-0.0339888977
biasActivation=0,1,1
[BASIC:ACTIVATION]
"org.encog.engine.network.activation.ActivationElliottSymmetric",1
"org.encog.engine.network.activation.ActivationElliottSymmetric",1
"org.encog.engine.network.activation.ActivationLinear"
