encog,BasicNetwork,java,3.3.0,1,1469381375165
[BASIC]
[BASIC:PARAMS]
[BASIC:NETWORK]
beginTraining=0
connectionLimit=0
contextTargetOffset=0,0,0
contextTargetSize=0,0,0
endTraining=2
hasContext=f
inputCount=28
layerCounts=2,46,29
layerFeedCounts=2,45,28
layerContextCount=0,0,0
layerIndex=0,2,48
output=0,0,0,0,0,0,0,0,0,0,0,0,0,0,0,0,0,0,0,0,0,0,0,0,0,0,0,0,0,0,0,0,0,0,0,0,0,0,0,0,0,0,0,0,0,0,0,1,0,0,0,0,0,0,0,0,0,0,0,0,0,0,0,0,0,0,0,0,0,0,0,0,0,0,0,0,1
outputCount=2
weightIndex=0,92,1397
weights=-0.3396156323,-0.4767211804,0.298849434,-0.2343396047,-0.5517405663,1.0538532613,-0.9344329115,1.3659368363,0.548861055,0.5365386463,0.04975716,0.8514220848,-0.5338341172,0.1210358904,-0.5106829467,-1.1600957864,-0.238316017,0.2776669666,-0.992888679,-0.6554701897,0.6212998956,-0.463048708,-0.235900707,0.2692692637,0.9617124471,-0.4535771268,-0.1735900821,0.2665287644,1.4266356359,0.9573849736,0.2663348924,-1.2615811348,-0.8582134522,-0.3175276894,-0.1836000451,-0.0575513748,0.8312838046,0.9547005622,-0.1673678967,-0.1869780646,0.2723417301,-0.2538181492,-0.2904295554,-0.3619865836,-0.1504009999,-0.1189546841,-0.7759739255,0.6848718592,0.7643388425,0.7824522343,-0.0242220169,-0.3124323721,-0.7167758503,-1.6485744551,-0.3426684828,-0.2616171143,0.9439229322,0.8193544457,0.509630754,-0.1206672301,-0.770932965,0.7264811333,-0.9468588412,-0.4179395532,-0.0336643243,0.4792554259,-0.4689653325,-0.4714252086,0.4129589117,-1.0164676006,-0.4561305428,0.2374210486,0.4504226998,-0.2999315555,-0.045276664,-0.7362944561,-0.1523089235,0.36274133,0.2499614586,-1.1363443771,-1.0843192344,-1.6208797501,-0.559077915,-0.5905800281,0.8158400741,0.2785464704,-0.8715889138,0.3804661482,0.647020284,0.2454093991,0.2655445005,-0.6407437558,-5.0407107371,-0.0288540068,-0.2272320979,-5.4199764956,-0.2843219136,7.3825953336,-0.0401568585,-0.2938825947,-0.4312661702,4.0424116636,-0.1411636026,-0.2239890912,-0.6339954359,-0.0770309157,-0.318439096,-0.1613372395,-0.6962515559,-0.5209123846,-0.2554002411,-0.1651903012,-0.6946127934,29.893886721,41.8721076015,1.2445006549,25.6327434212,-31.0843091801,35.4910366572,-28.4951022749,0.9773299651,12.7852336145,1.0957162739,-0.4220355853,11.4935510957,0.013570843,1.647842987,-0.6843344836,-0.3184753222,1.1008619397,0.8865660156,-0.5644864147,0.0391427033,-0.304210527,0.4342265352,-0.8341488868,-0.148903505,-0.3034711336,-1.5401600592,-0.1845119429,0.0843459663,-0.5373477579,14.2465855762,1.2432640463,-6.2907163197,20.3374519572,-18.9583371181,3.8425172764,-13.706110103,-3.9918941278,-4.9849026342,-0.1046568633,-0.2256366931,-4.313816779,-0.2691319587,3.5581213174,0.0139771672,-0.3793356967,-0.0975470083,4.3525891196,-0.0009949569,-0.2857935356,-0.3825410158,-1.5317459284,-0.1294052135,-0.2653243452,-0.3699821633,-1.1318297432,-0.3417468271,-0.2151463297,-0.2802704638,8.3590547184,-6.4105072031,0.9396219633,1.9936949451,6.0495816359,1.1398505079,18.3647999697,0.8239689446,-4.2732082299,-0.2106792791,-0.1757841419,0.3182726718,-0.0588816739,-1.8564184048,-0.3198857731,-0.4581643573,0.2090865848,-2.9441202826,-1.1506004726,0.362351591,0.1078162729,-1.9337079128,-0.7552536253,-0.3122685317,0.0845599906,0.8457645448,-0.7966091881,-0.3008608569,-0.0673523496,-3.9369608982,11.1750282896,0.0372807185,0.261492947,1.2920750374,-1.4861428507,-3.8965128404,0.6001753289,-1.0614690319,0.000523637,-0.0410410645,-1.0883828508,-0.0307713525,4.995513114,0.2233075508,0.1237566837,-0.2556639503,1.068513318,0.0535980898,0.1256889167,-0.162423897,1.3529750304,-0.0966546764,0.0483947532,-0.1472609475,2.3812760495,-0.0208586217,0.0771620695,-0.1590126702,0.4129556113,1.3316931767,-0.6704917296,9.0978729274,-3.8746311918,5.1849335509,-9.807183894,-0.0560390487,-4.2717525325,-0.0421333374,0.0736712988,-3.2037402151,0.1189577716,3.7972353112,0.3071811881,0.0720467051,-0.0367182888,0.0826032889,0.0242389635,0.0774211755,-0.0163526367,0.5928540713,-0.0747959193,0.0741223433,0.0044779874,0.3409750656,0.0215611139,0.0378396991,-0.0049790103,71.626380128,-82.2006466965,3.7042836145,9.3686913931,0.7861824214,-11.6444783926,-5.9822469599,0.8331346967,0.3358161677,-0.0904554117,0.0284540869,1.2274569526,0.0029726808,-2.6196832105,0.2922148498,0.0148595644,-0.1799358447,-0.4689719974,-0.0029847141,0.0256101587,-0.0272278909,-0.9994805418,-0.0007205985,0.0014219979,0.030606672,-1.0526965754,-0.0349316247,0.0040685721,0.0310883895,10.4129615309,-18.134455083,-0.2534555594,-6.7515989065,9.7750735187,-13.3689060315,27.3380352367,-0.2497288326,0.3207790387,-0.0589675802,-0.0898057111,-0.4937777621,-0.1033278879,0.2024341458,0.0036994826,-0.134219712,-0.144559552,-0.5844268513,-0.1853882731,-0.1424106296,-0.1196178416,-0.1701342368,0.0136227019,-0.1247329754,-0.1185281003,0.0787973121,0.0392326872,-0.1175629554,-0.1350000139,-6.7576550118,17.6108793016,-3.2815807344,21.0579829253,-1.0866938869,-1.1876783491,-3.7839719391,-0.5005662234,2.4795090323,0.0166413728,0.0208673493,2.3308090112,-0.0099605929,-1.4899681694,-0.15920418,-0.0126327574,-0.0811536849,-0.5240062649,0.056939698,0.0576602881,-0.0738206989,-1.1006597302,0.0795104547,-0.0099279169,-0.0760051505,-3.147536205,0.009763404,-0.0920016902,0.1975116045,21.7570925384,-1.5748113287,1.1699266267,-4.652190731,123.0567249113,-94.5025974734,2.1106445888,0.0607215133,9.7965610653,0.1989265921,0.090240094,10.5685823307,0.3141305465,-30.0918946803,-0.3531061624,0.2802632703,1.2724444996,-28.0760562878,0.166825915,0.3335412637,1.3264765157,-4.5879148737,0.1089285887,0.2549166187,0.9731339562,-1.9768277066,0.2650422042,0.2490281445,0.7312546744,15.9336137197,-1.0401742855,-8.1721791166,0.8231558858,-0.7251619084,-29.194832564,12.1645938172,-0.5976557563,5.3054283161,0.1296366408,0.2104964343,5.7262127197,0.1736054712,-8.564911537,-0.1503255102,0.398955984,1.0881455621,-3.538594754,0.1530563367,0.2851873912,1.1307047736,1.7899074862,0.0686546002,0.2257442268,0.9267790226,2.6549328164,0.3162993472,0.1345907257,0.670690309,-21.8221863268,1.1132109029,-9.2766600373,5.0504759146,-117.0516763481,-6.5733803726,16.2454743235,1.8086120758,-4.6813163974,0.0363632012,0.1360083248,-5.1203687107,-0.0079028054,8.5245668491,0.22427387,0.1350989576,-0.6528686713,1.0978187214,0.1901977022,0.124316961,-0.836348556,0.001531265,-0.1866889761,0.1187657303,-0.7205172104,-1.5582232098,0.0163495134,-0.0256623159,-0.8709759973,8.9469853378,10.8341372525,1.0938481687,13.2875839908,-6.0059768738,-2.384697708,11.6912015506,0.648438384,-2.8336986896,0.0852675437,0.0364811797,-1.7746197082,-0.1661096626,-1.632456536,-0.0292008067,-0.0627811315,-0.3344486236,-1.0961322708,0.3791043146,0.1021823423,-0.2603867532,-0.240139476,-0.452484764,0.0464727661,-0.1882759397,0.0691298365,-0.0482440238,-0.0288186118,-0.1408287323,-3.0701999512,5.716917797,-4.0137789361,24.5568714852,1.1117653147,-1.7575254967,-3.2023163905,-0.9288931893,-4.7961119013,-0.0943702207,-0.1678699085,-6.4684356169,0.2964732334,1.0662387921,0.5575570067,0.1131717013,-0.1791245997,-4.7404541097,2.1003208632,0.7852156477,1.3532839882,0.1220666016,0.4433154531,-0.5815870626,0.8604877121,0.3172190215,0.4535982188,0.4336241572,0.3057148115,-2.8178211268,0.7166650245,-0.7983555285,-6.7056172967,-9.685474798,-0.1089028499,0.991827692,0.6702793698,-0.107716646,-0.0302369319,0.0614732163,0.9828783716,0.0831989507,-3.4178835246,-0.2875252592,0.0360394631,0.2728146316,1.0283514822,0.260675672,0.0957785484,0.3622180734,0.1763637319,0.1847895119,0.0739122474,0.3611468883,-0.2233138157,0.1568707227,0.0798423999,0.3982490997,-12.2254076655,-1.551241945,0.2622304196,-0.2502048755,-24.3904480788,2.273788724,3.9134554838,0.5589323506,-1.224290111,-0.1023923386,-0.1442168191,-3.0660028848,-0.1530844655,0.1451257867,-0.2564050605,-0.166755049,-0.2118156124,-0.2981913766,0.0634095508,-0.1559838222,-0.1764598604,-0.4613464544,-0.1388135028,-0.1684749709,-0.1487367605,-1.3939462293,-0.0093339606,-0.1492187532,-0.1420069211,-0.8309522921,-0.8540757884,-3.1717506695,-0.0626850983,1.2174605648,-18.6971166208,48.441488424,-0.6463866811,5.6342720273,-0.2680036935,0.2394528754,1.0164300239,-0.0690337572,-14.7877799062,0.6089627342,-0.0693872104,-1.1850569754,6.6188276885,0.1104183007,-0.1615968174,0.7161282413,-9.6966838177,-1.1558370733,-0.0550827924,-3.2656554034,-0.808212142,-0.8289359894,-0.5365518481,-1.0829810388,-23.290063844,0.1440107192,-3.0407808957,-0.395857762,0.1749389347,-1.1504770572,-2.3530791235,-1.1041652308,10.8518440561,-0.1731813826,0.0816036575,3.2235447196,0.2207784375,7.7376704541,-0.1365550628,0.4424097023,0.7834758964,4.2100282847,0.1764228686,0.2961753271,0.5210051491,4.233016064,0.2354635192,0.3141603696,0.2198449934,7.3342864963,-0.106323904,-0.1399949029,-0.1593980069,-2.0897465156,-2.7931851565,-5.1586697341,-0.0806693538,-119.6022520657,4.7139674243,-9.3302014552,-0.4524085503,-6.2803907775,0.284333745,0.0119132027,-7.2654592579,-0.0088710172,-1.4440316562,-0.5580413225,0.0613266112,0.6814387752,-1.9243205005,0.1745601153,0.0966333351,0.5972351939,1.2682070411,0.032180636,0.021392896,0.3007071606,2.2465361088,0.0203584386,-0.0080134885,0.1117790153,9.7566450502,18.2143525786,1.6203761917,10.9365916517,-24.2007537678,-6.7515828086,-23.4020163104,0.8404968782,-9.5057132468,-0.0372537748,0.0695596356,0.1533811264,0.0988327829,-5.9119069375,0.3462197966,0.0918303391,0.3653179356,-4.9944098037,-0.1266759361,0.1123198856,0.2371099506,-1.2968792603,0.0476869328,0.2055306002,0.162570348,-1.5805178155,-0.0106464502,0.1638915436,0.133269631,32.9297712792,4.9821136084,-0.2505857348,14.0842026795,-5.6826159267,0.1992789922,-26.0722470344,0.1896082766,-2.885023984,0.0365699541,0.2271331685,0.271629491,0.1566711518,1.8164960653,0.1712241692,0.201075388,0.0870937329,1.5384860806,0.0070685183,0.1126973928,0.2068380747,1.5775329634,0.1427323771,0.0673481075,0.1367094617,1.9994475274,0.0338589124,0.110274779,0.0772615759,4.686843786,4.0939134937,22.1338842304,-97.523808238,-1.7516069045,9.3340761692,-18.8761780673,1.3287122882,7.7030061626,-0.8048607094,-0.2603142109,2.2054017156,0.135426456,-12.8227617415,-0.6916138412,-0.2568878693,2.368131152,-5.0028085306,-0.1132602142,-0.1672987675,-8.2569049581,3.3885287375,-0.4958512329,-0.4448990428,-0.5670128658,0.6134330957,-0.2941605924,-0.452705606,-0.3873125459,-20.0737658302,-1.5907953538,-2.6317629004,-4.0766155703,-0.44298571,-2.4548162796,-5.7579436446,-0.9739957324,1.3206163098,0.0359370787,-0.0160387472,0.5908416067,0.1681596964,-0.5253364816,-0.3376241891,0.1366807666,-1.2856016912,3.7608830678,0.0338817674,0.0898932092,0.2956218221,1.4705261653,0.5097530319,-0.0059910393,0.3738068064,1.5418913706,-0.1539083432,-0.0405971885,0.1416298292,-8.5115108651,-3.804222743,-0.8002197426,1.8527770673,1.2231837731,15.8649244777,-0.4456380484,-0.8361280848,-3.929478136,0.245874005,-0.0834666131,-7.1400996744,-0.1126033239,17.4070516697,-0.1634925096,-0.0974790371,-0.6091297347,12.0626077577,-0.0599831121,-0.1178901411,-0.7343706557,3.6864925354,-0.0954343881,-0.1044542386,-0.6636230635,2.9413210405,-0.1797413823,-0.065219321,-0.5845899556,25.5003431519,-9.4570847813,1.7138856221,-17.1634982828,-53.9413732209,109.0929166947,-17.5946804353,-0.7069059102,-0.2415363967,-0.1506050408,-0.1399309443,-0.1544856229,-0.1634824492,-0.5868285776,-0.2074482024,-0.0739171537,-0.4211121119,-0.2673698758,0.217616844,-0.1093448725,-0.4521597091,-0.2842361653,-0.2648197228,-0.0884658491,-0.4830117515,-0.6424335279,-0.1458078714,-0.0520678386,-0.5042104235,-0.4037055964,31.6491125227,-0.5377846198,-0.9689268525,2.5880804383,0.1757806426,3.7363949274,-0.4293999396,3.2128706421,3.0275623633,-0.258775038,-0.8208694698,0.0161055926,-2.8345579252,-1.5662945949,-0.2198350857,-0.2317524803,-0.7099414747,-1.0641134163,-0.1392851063,-0.2648089282,0.4095101392,-1.450004302,-0.2311446724,-0.2324235971,0.5031485164,-1.3124126287,-0.1491005143,-0.184170715,-13.9194477525,18.694992286,0.1847267138,0.2340935045,3.7469677653,-0.168234028,-1.429742894,-0.0228552003,-18.8854267875,-0.3147375064,-0.006992206,10.0183372971,0.2087727829,-8.0317698609,0.0820792762,-0.108243446,-0.4211489407,-3.1041345869,0.4956502862,-0.1887159908,-0.0069909608,-1.6187760019,1.047386036,-0.1468555342,0.077123398,-1.4068524664,0.5190457298,0.0073540724,-0.023232607,-3.5380584706,8.8474564246,-9.3813513604,-3.0123433067,13.8259770553,-1.2401285839,2.110623719,-0.5167274909,-10.0045945031,7.7970455216,0.3887123446,-0.0483237344,0.1476875796,0.6794680982,-1.6224297717,0.4310486952,0.1146867667,-2.9704869967,-3.1838676157,0.1667098602,0.8273338766,-1.0482062213,-1.9845847404,0.2941543571,0.4951728728,-1.3090612741,-1.3785939394,0.4633718652,0.4416799783,6.2521648239,-11.3608345137,0.6700113601,-4.0587159645,-2.6366344008,0.3812798055,2.518201041,3.1021779421,-0.1709491039,0.0622070915,0.1246369597,-2.7783467669,0.0672489507,7.4472263002,-0.0809955105,0.1005792195,0.704197736,6.6203251407,0.1101809141,0.0951042352,0.3977320732,3.2324891936,-0.026179123,0.0825077843,0.3032639276,3.2660687224,0.0799721726,0.1109433758,0.1906199054,-22.2839828194,24.9368203998,-1.6512066474,12.4558198393,-139.353008302,28.8940687968,-20.153848153,4.8730671676,6.7066822421,0.1393097412,0.100668623,5.6531275978,0.0137937759,-14.4731841698,-0.2189208939,0.0751612229,0.1338314918,1.701637248,-0.2013967194,0.0351555595,0.3047365606,0.5908476703,0.130082578,0.0446285838,0.3522993236,1.333282845,0.0334279718,0.133336756,0.3946500998,47.6868748773,-90.2181325634,-7.569578517,-0.9586200126,-2.6708127327,8.9627891799,-9.1658555933,1.7689933577,-4.7165724542,0.4698241027,-0.4418026261,-6.0035836434,0.2572430633,0.395531429,0.4537080016,-0.5416948446,0.7173154222,2.1868541783,-0.2316389895,0.3454039974,-0.0137822672,-2.0995347543,0.0597593461,-0.0061402279,-0.0725275239,-0.3965351921,-0.3007822091,-0.0889478574,0.0450038488,-3.5868214052,4.0711934348,0.5998479486,1.8558460196,0.0695907318,0.4292647895,4.1597411794,-0.0992138267,8.8631781306,0.1986730653,0.155651192,6.209307311,0.1994536192,-4.7929720821,0.0150159351,0.1693188868,0.6526874727,0.7878064028,0.2214185706,0.1601203306,0.5784417492,2.2197711934,-0.0094454221,0.1637179979,0.4842448779,1.248653051,0.1703681875,0.1445612653,0.3042471379,-0.8715008372,7.3823031053,-14.931543819,14.4884661688,-193.5211032495,0.5719374704,-5.8698548536,8.2290933455,13.3893962574,-0.2774920496,-0.0994842421,9.4140097055,-0.0310872425,-10.6123361864,0.5458286629,-0.1277462867,0.1049805878,-0.1420152381,-0.2377090788,-0.1562996713,-0.3238889886,-3.7277672013,-0.1727152501,-0.1161027783,-0.302124238,-4.8017963747,-0.1212581584,-0.1110384243,-0.1975918609,8.2113140401,-34.9155833264,-5.8172162755,-14.238530644,0.7637029186,28.5466096736,12.0058306015,1.4402856905,-2.3716447341,-0.1242393893,-0.1027259122,-1.7938653319,0.0639444318,-0.7125346191,-0.0669685092,-0.2350982976,-0.3250153464,-1.599032586,-0.0749913922,-0.0917710595,-0.0427904172,0.9062820778,-0.1049026128,-0.1428382736,0.039414495,1.3087324829,-0.0380868366,-0.0977645918,-0.0634097446,8.5850172733,-11.5686132265,0.4232582305,-11.4843727933,27.0379496129,-3.6837156338,-23.9454338682,0.831594751,-0.870070411,0.4503928493,-0.4388281548,0.3917734268,-1.5554615751,-7.2275088736,-0.7651798269,-0.5989761514,-3.2485838789,-0.8498060664,-0.5531439888,-1.0895762835,-0.1526828115,-6.2069749471,-1.1546793366,-0.8108861131,-0.6917661374,-0.7529664327,-0.9557625659,0.161242508,0.245305013,-14.1399867735,-14.9650089571,-5.9800960069,-6.1323970256,-1.6684636474,-2.0716273987,-0.0634720633,-1.0987446031,-6.3784149279,-0.4410641144,0.0754384859,-6.1236771273,0.085169369,8.7357700704,0.4311088742,0.1388032766,0.0565896575,3.4714269883,0.3023639179,0.0903866582,-0.0111549851,0.5954862916,0.2637041545,0.1078807485,-0.2954077491,0.4169013191,0.1520625484,0.0086692324,-0.5356367335,6.7909016571,37.7165583568,2.7820308305,7.7629458963,-32.9295158346,-0.9902084042,-17.9330802427,2.6148077912,2.0445354521,-0.0652097073,0.0291302287,-0.6620996949,0.0351444534,3.2356307243,0.1229929948,0.0329481252,0.1371770037,1.2667984805,0.205528643,-0.0238847814,0.1248342534,-0.2147336413,0.1200315324,0.0400183379,0.1779051868,-1.2764928907,-0.031626441,-0.0279516224,0.2383954508,-45.9260696372,22.4078960456,-1.1462035426,7.8647295343,-83.0011805428,54.8616824956,-5.7170771169,1.0021738641,2.1878925567,-0.0094516079,-0.069325857,-0.7048510393,-0.1077370151,-0.7467383882,0.0938703421,-0.1147045806,-0.0993168255,-1.1127343025,0.0202052858,-0.0484320086,-0.0189519109,-1.4133626799,-0.1962324122,-0.0635731799,-0.0774164875,-2.1031714755,-0.0743567533,-0.0177284929,-0.0411894932,7.0456847972,-23.3264854344,-2.3761570784,-6.598264176,-7.3044989603,35.6873030682,44.1825833423,-2.3031364837,-10.6053154834,1.0068045279,0.0331440447,1.087615541,0.5590329863,2.7583224089,0.871328508,0.5497899616,-0.4353001974,3.0949232997,-0.6381748735,0.0812667558,-0.026760261,-5.0778873268,0.1766497727,0.0817179467,-0.2553725318,6.8635915578,0.8246628987,1.133029791,1466.2820602626,55.6116519272,22.6581703127,8.5518877663,1.118471864,2.938704745,5.655037118,7.7379885782,0.7657691439,-0.1539380888,0.4628087591,-0.0319803156,-1.1377179057,0.1835280855,-9.5516948188,0.2803930031,0.0410273794,-0.919267928,2.3261765736,-0.1469106091,0.0568750048,-0.0126854347,-0.9798772648,1.0265540831,0.0532900502,-0.0745096207,1.4909334195,0.2802789268,-0.0049810393,-0.0851175237,-5.0260137622,5.7319219765,1.0330512737,6.2101978811,1.3609188727,-0.522964411,-2.2449449939,-0.129778266,-7.1307065455,0.2529342893,0.1107610772,-0.7164168621,0.0738131927,-1.0441382657,0.3056035438,-0.0855217188,0.085024161,-10.1767549273,-0.0495899773,0.0486937239,-0.085972478,-0.88678029,-0.0661713946,0.0703629357,0.1454243208,-0.8380674504,0.0202365692,0.0826934142,0.2286782493,0.6764221948,-22.0788655368,3.0284807999,-2.0789520363,-12.0018578709,0.7139334245,14.9331811351,-0.7965631871,-2.6447368145,-0.4470435392,0.1030764601,-7.5414462505,-0.2091529069,-5.1274290241,0.9621478216,-0.2577224319,0.9576298947,0.2256688618,0.255331427,-0.2532658163,-0.0025528119,1.4645352563,-0.4170655611,-0.1130904423,-0.1601960689,-1.3955738544,0.4469658975,0.0851165819,0.0536783045,-1.6525164989,-2.0049068955,7.8038197466,-6.131646802,3.2646917322,1.8415982197,2.115304967,-0.8535040139,-5.3692086067,0.5434874249,0.1795255501,2.3890692276,0.4623762159,-1.0506997854,0.4094909078,0.3608491276,0.9643009364,6.5483671822,0.8256236503,0.3898847003,1.3491052717,-1.8501306405,0.8449081577,0.0933631691,0.4409076181,-3.4817864393,0.2283964086,0.3552902061,-0.2253825282,33.9361015992,25.6093342301,2.3269902282,-7.5964526394,-27.8631032646,0.1951137646,4.0172251177,-0.2265847628,7.0206845215,-0.1291526701,-0.1322979258,2.6297768516,-0.2437975272,30.2047631732,-0.0373459272,-0.2461965266,0.7372430753,-19.3853737533,0.0047261572,-0.1064862851,-0.0318993434,-5.8636749859,-0.0030209118,-0.1895402083,-0.108217385,-6.7531723372,-0.1584242241,-0.1825543152,-0.049127275,3.3407196265,-3.0367289322,-4.7912026268,-0.5597897691,-8.5523931021,2.120301624,7.986552933,0.6394767094,9.2096355225,-0.2625292751,-0.0510254809,-7.5882042628,0.1442117477,-7.2350583425,0.3322071346,-0.0832825713,-2.1432093675,-3.1457183046,-0.7573475893,-0.0850711163,0.1018787756,-0.1665626271,0.48779283,0.0260636192,0.1365391068,2.409509942,0.4038982584,-0.0028586726,0.0458301195,2.274470212,-10.7006043623,2.3249727903,1.3525576231,-2.8712409387,-5.7899630201,4.4270919026,-0.0374004164
biasActivation=0,1,1
[BASIC:ACTIVATION]
"org.encog.engine.network.activation.ActivationElliottSymmetric",1
"org.encog.engine.network.activation.ActivationElliottSymmetric",1
"org.encog.engine.network.activation.ActivationLinear"
