encog,BasicNetwork,java,3.3.0,1,1469382241375
[BASIC]
[BASIC:PARAMS]
[BASIC:NETWORK]
beginTraining=0
connectionLimit=0
contextTargetOffset=0,0,0
contextTargetSize=0,0,0
endTraining=2
hasContext=f
inputCount=28
layerCounts=2,46,29
layerFeedCounts=2,45,28
layerContextCount=0,0,0
layerIndex=0,2,48
output=0,0,0,0,0,0,0,0,0,0,0,0,0,0,0,0,0,0,0,0,0,0,0,0,0,0,0,0,0,0,0,0,0,0,0,0,0,0,0,0,0,0,0,0,0,0,0,1,0,0,0,0,0,0,0,0,0,0,0,0,0,0,0,0,0,0,0,0,0,0,0,0,0,0,0,0,1
outputCount=2
weightIndex=0,92,1397
weights=-0.3429336288,-0.4939335618,0.3052298548,-0.296891755,-0.5865067669,1.0781606242,-0.9353391799,1.4166110648,0.553464543,0.5359146172,0.0460988886,0.9075364363,-0.5787390784,0.1308353589,-0.5386093683,-1.193939888,-0.2388463523,0.2780965365,-1.0125500973,-0.6731835947,0.6267857103,-0.46392587,-0.2316081433,0.2699372457,1.0195468179,-0.454124538,-0.1789411466,0.2673913906,1.4407015978,0.9562970253,0.3001278507,-1.269802496,-0.8519196188,-0.1939998612,-0.1844888537,-0.0602688581,0.8522789227,0.9672212777,-0.166708675,-0.2001810916,0.2864618483,-0.2944306725,-0.3059609859,-0.3561279406,-0.1344268066,-0.1180653179,-0.7984830886,0.691222363,0.8328501442,0.7266013736,-0.0275665211,-0.3461512008,-0.7165654965,-1.6801904043,-0.3580722275,-0.2698507087,0.959914126,0.8226643742,0.5098051195,-0.1226314601,-0.9234503228,0.7085371173,-0.9509150251,-0.4193630253,-0.0336956481,0.4872494399,-0.4687358246,-0.4765599381,0.4129563832,-1.0168885073,-0.5014430952,0.2540638892,0.4509664709,-0.3024549803,-0.0022772869,-0.7357202508,-0.1731794815,0.381076938,0.2436275617,-1.1373379483,-1.0866786255,-1.6218663645,-0.6406164143,-0.6093821701,0.8179099716,0.3155487986,-0.8721805429,0.3835573766,0.6607013957,0.2462552947,0.2625753457,-0.6387026231,-5.484640464,-0.028147392,-0.173877194,-6.0419547466,-0.2724501789,7.3924379163,-0.0406127432,-0.2853354643,-0.3452272042,4.0430295602,-0.1351605211,-0.2100415238,-0.6094041124,-0.079980994,-0.2600643195,-0.1571309078,-0.6652802372,-0.5080570473,-0.2544567159,-0.139493687,-0.6395247203,29.0905081471,38.3202958641,1.243490107,25.6324820771,-35.6081452981,41.4307849545,-28.4957092982,0.9767302146,13.135139473,0.9146746038,-0.2936235664,11.8962675191,0.0134657058,0.5931958658,-0.6267774794,-0.239455234,1.1051099827,0.6700326435,-0.2693068879,0.03879257,-0.201809026,0.4339951318,-0.8327083307,-0.0623327099,-0.2541656902,-2.1977799442,-0.1836729923,0.0726128899,-0.4367810403,12.5151124804,3.4526266415,-6.5063206968,21.0902095828,-18.9593753573,4.0037337326,-13.7065094948,-4.3322754472,-4.9843762757,-0.1043618702,-0.2507977001,-4.2135558291,-0.2724750097,3.5588688314,0.0121336115,-0.3707455079,-0.1110662952,3.5736109868,-0.0010716494,-0.2776567469,-0.369487724,-1.5312567434,-0.1295458539,-0.2650774687,-0.3226714512,-1.1319169059,-0.3383799369,-0.1962062876,-0.2670973156,8.3601640711,-6.4100591275,0.9401991965,1.9941731402,6.0509592987,1.140537648,18.390440581,0.8238740541,-4.2746461937,-0.1499842742,-0.1759555625,0.3194401054,-0.0564496774,-1.8565018925,-0.3205488296,-0.345862528,0.2095184963,-2.9438101771,-1.1492799645,0.3619142924,0.1465574612,-1.9334150621,-0.7540520715,-0.310610911,0.0808195678,0.845975257,-0.7122924697,-0.2266527521,-0.0170708277,-4.3647853396,11.1757352686,0.0382105755,0.2602146149,1.2922450674,-1.4856805504,-3.8963820591,0.6009893345,-1.0583546777,-0.0031055471,-0.0407720166,-1.1697435057,-0.03125258,4.9954848315,0.221178875,0.1010261144,-0.2551008487,1.0689758504,0.0523434386,0.0842019535,-0.0987412675,1.4497033428,-0.095145837,0.0447189775,-0.1215227491,2.4394136052,-0.0465157199,0.0361670905,-0.1571224471,0.4111796452,3.7113180895,-0.6710170084,9.0980519225,-3.8753627854,5.1856701807,-10.5566497817,-0.0561608448,-3.6563858784,-0.0619863634,0.066136427,-2.6697086023,0.1002338282,3.835041925,0.235652292,0.0744320911,-0.0387796089,0.1521460693,0.0392763626,0.0787011954,-0.0196396997,0.7320032209,-0.0721308254,0.075102181,-0.0184417793,0.44476289,0.0222012674,0.0382091414,-0.0223351715,71.6269998134,-82.4930118825,3.6477323792,9.169924197,1.1604139928,-11.6868837799,-5.9108956798,0.8350749907,0.3387971118,-0.0917217598,0.027306557,1.2241094902,0.004039685,-2.619326426,0.2886809195,0.025718373,-0.1791490442,-0.4692161197,-0.0111729284,0.023355056,-0.0396775501,-1.0002479299,-0.0005863263,0.0015168941,0.0269754035,-1.0519479247,-0.0357409554,0.0083586162,0.0296247309,10.4187229856,-18.1310013351,-0.2578046175,-6.7510703951,9.7698500788,-15.1828435921,29.2648317617,-0.2489242295,0.3209854342,-0.047009221,-0.0854338321,-0.4927903061,-0.0922101909,0.2099612242,0.0032341142,-0.1308236234,-0.1318145186,-0.5046075666,-0.1797603741,-0.1323839271,-0.1170466043,-0.1667049394,0.0126654455,-0.1155509683,-0.1121242821,0.0860149913,0.0371650261,-0.1113143184,-0.1328677118,-6.7570144486,16.7658516684,-3.2831480056,21.0591176323,-1.0876417989,-1.3559580345,-3.7854680781,-0.5015815502,2.2987470459,0.0127873298,0.0182680797,2.1000309002,-0.0091041463,-1.4901122501,-0.1554054749,-0.0119173018,-0.1016313703,0.3182147652,0.057058575,0.0574971793,-0.0735821041,-0.6965799798,0.0267454499,-0.0088699053,-0.0759677448,-2.895721526,0.009399341,-0.0914748574,0.1888342029,23.7754185126,-1.5688758336,1.2784609759,-4.6558279516,122.0077021873,-94.5087128077,1.271084636,0.0623006676,9.848359104,0.1487297556,0.0877829357,10.5673378882,0.308216194,-30.6939133182,-0.3577110431,0.2779203348,1.2644410697,-27.8695542173,0.1666261324,0.3318567147,1.3253338997,-4.7797428393,0.1081909876,0.2320837271,0.947119529,-2.3799823014,0.1827083385,0.2305232231,0.7131163217,15.6176583428,0.6468949176,-8.1740172065,0.8232504747,-0.7248111977,-31.1563781756,12.1638790271,-0.4046599364,5.3064845448,0.1758193237,0.2103652715,5.4659015372,0.1597589097,-8.4733925045,-0.1477610166,0.384446569,1.0337025665,-3.1005401192,0.0929538174,0.2629938481,1.0706534368,2.0650999237,0.0204291288,0.2253493454,0.8487158848,2.8773642644,0.3145271822,0.1345585214,0.5676185903,-19.6179745077,1.1170588661,-9.4836431144,5.1795805087,-117.0524306465,-6.5735206743,16.2446021971,1.9334033956,-4.6737363504,0.0372001564,0.1348873192,-5.2033347011,-0.0426659587,8.5306739703,0.2211233733,0.1220906179,-0.6539463266,1.0974025312,0.1564922666,0.1434364285,-0.8247716259,0.4003382686,-0.1474625137,0.1183315595,-0.7927251141,-1.4203250372,0.0246732282,-0.0120955196,-0.8475338557,11.7214912156,10.835791637,1.0920025251,13.2881819167,-5.939627515,-2.3549758998,11.7394903496,0.6497966271,-3.0402833785,0.056453447,0.0354817004,-1.7749893392,-0.1597987814,-1.6680428716,-0.0318510808,-0.063723184,-0.3237324372,-1.0326752615,0.2849202489,0.0818457145,-0.2332366874,-0.1602174254,-0.3797643756,0.0411650781,-0.1642859039,0.068184126,-0.0487935228,-0.0293415751,-0.1246263054,-3.0696232366,5.7172471736,-4.0131080385,24.6185890412,1.0048094199,-1.581484793,-2.8481968873,-0.9384309275,-4.797013257,-0.7417120716,-0.068696423,-6.4682652584,0.2982084174,1.0640487998,0.5566871363,0.2240591797,-0.1698025598,-5.5692821374,3.7796495608,0.6497332644,1.3861591458,-0.4181168018,0.0052466528,-0.4348773019,0.6726939812,0.3318261543,0.2338828996,0.37861026,0.2336495645,-3.0298934198,0.7130884695,-0.7979893962,-6.7050106866,-10.3844161134,-0.1158155896,0.9465693654,0.6713254222,-0.1066883636,-0.0257139968,0.0615596412,0.8979611422,0.082700694,-3.1328675744,-0.2436742116,0.0380834218,0.2828392329,0.9507656505,0.1870668399,0.0867048299,0.3439385217,0.1180769926,0.1385444628,0.0603428546,0.350103,-0.2246671381,0.1163538499,0.0789186802,0.3718659801,-11.5324686067,-1.5539022021,0.1211317396,-0.7642217384,-24.3908280558,2.2731302871,3.9182580807,0.6887607223,-1.1124724114,-0.0965600908,-0.1426189389,-2.9512142776,-0.1466643035,0.145052684,-0.2523479061,-0.1658459502,-0.1733592431,-0.2986446862,0.0624954555,-0.1536881792,-0.1480045483,-0.3299531499,-0.130233753,-0.1682477115,-0.1167127041,-1.3779891764,-0.0133029946,-0.1463634833,-0.1093063673,-0.8315294846,0.752440182,-3.1712705021,-0.0621470625,1.2173590461,-18.6980089992,48.4423752653,-0.8245312321,8.2602120314,-0.3021671769,-0.026260956,1.0137336831,-0.1943709592,-14.8811888424,0.2041415123,-0.0760983222,-0.8679945519,6.6178104681,0.1054357874,-0.1567273239,0.7162984652,-14.6454271571,-1.1585418686,-0.0681751054,-19.6649868985,2.6546884063,-0.8285830778,-0.5361967676,-1.0828770293,5.6584395799,0.1873883743,-8.1876493428,-0.3961874373,-2.1050844125,-1.1528538419,-2.3540606121,-1.1049458466,10.782117885,-0.1406143843,0.0821874148,3.1743639401,0.2206869354,7.7301312215,-0.1330237437,0.4569278907,0.7175451824,4.1825785759,0.1764218542,0.2997763847,0.529077686,5.2207221769,0.2275356355,0.3588284459,0.2266656661,7.8154534314,-0.1233941186,-0.1303508789,-0.1222107065,-2.0898714232,-2.7931956256,-5.5693062367,-2.1365137956,-119.6119934144,5.9932484214,-9.3301421647,-0.4528683216,-6.2792641077,0.2738094665,0.0076382779,-6.7327452739,-0.0106362846,-1.4396310355,-0.5538970978,0.0432377902,0.6561531806,-1.78406645,0.1541393389,0.0973029351,0.5828234829,1.2678741818,0.0763038399,0.0191907995,0.2931318946,2.2281473745,0.0194617943,-0.0013599531,0.1076794292,8.8106670291,18.2141143485,1.6216986959,10.9362238602,-24.199155175,-6.4679586086,-23.4020761385,0.8399432464,-8.4994191123,-0.0201319534,0.0724414567,0.0914700741,0.1029265786,-6.1319385062,0.2772216927,0.0923474089,0.3663433627,-4.9943560943,-0.1290346849,0.1131234142,0.2404390853,-1.2985068672,0.0487023524,0.204615151,0.1755688214,-1.5797976264,-0.0163771261,0.1457204103,0.1645479207,32.9626892887,4.962239507,-0.2475833769,14.0660213666,-5.6809937741,0.1982984547,-26.0748844478,0.1903664024,-2.8299565449,0.0363547143,0.2192190882,0.2923514757,0.1482966593,1.8165080109,0.1527143641,0.1958070054,0.0783586521,1.5431839928,0.0067165436,0.1040726565,0.1831102746,1.542440835,0.1447942736,0.0511906115,0.1192842686,1.9954511341,0.0256468596,0.0869928808,0.0556482263,4.6871116244,5.0990688128,22.1705467891,-97.522933497,-1.7520531465,8.9001327068,-18.8750227493,1.3869644266,7.4347201646,-0.8039539997,-0.3425118968,-0.5034893128,-0.2228263403,-15.1127651447,-0.6868198453,-0.4773799592,2.3840203844,-7.3962347128,-0.2107960255,-0.1813948899,-20.6361709601,3.3473385278,-0.6126902377,-0.7066965688,-0.5057421733,0.7941107075,-0.3215428896,-0.454880564,-0.555406312,-20.0827369977,6.3682285886,-2.7083280467,-2.3898830781,-0.2587464748,-2.4354188495,-5.7587364587,-0.9749633875,1.3242044597,0.0363862367,-0.0102782038,0.5907019738,0.1681503661,-0.5251408187,-0.3368294059,0.1364738367,-1.2842955608,4.0652796834,0.0493671887,0.0906309308,0.2954085773,1.5685630028,0.5083202409,0.0089436597,0.3278382739,1.5413126661,-0.1527384808,-0.0392649925,0.1513531441,-8.5124089257,-3.8519888657,-0.7995649837,1.8533806334,1.2239567887,15.8648004775,-0.8142293464,-0.8357792567,-3.9113831888,0.2387837911,-0.0807933742,-7.1404045638,-0.1123470029,17.4089590601,-0.1397603159,-0.0968298116,-0.6082817494,12.0731893691,-0.0605330695,-0.118488494,-0.7340745258,3.8194233918,-0.097000409,-0.0991302404,-0.6645602541,3.0957159677,-0.1785498973,-0.052125731,-0.5984216334,25.5000523653,-9.4566373088,2.236604524,-17.260206887,-55.7312871409,109.0912737634,-17.595645722,-0.7089132739,-0.1986572885,-0.1187886182,-0.1253434137,-0.1537793987,-0.1479595256,-0.5888844393,-0.1566426047,-0.0755153065,-0.305693743,-0.3417371024,0.0837074168,-0.1104225103,-0.3331686745,-0.3510208504,-0.2122039129,-0.0894593416,-0.3744488516,-0.6334357088,-0.127142503,-0.0544550375,-0.3901825471,-3.1532611451,36.4841831793,-0.5384658859,-0.787100802,2.5874014423,0.1761780056,3.4960851931,-0.8245802674,3.2147204541,3.0295368831,-0.2592065924,-1.0253346985,0.0154545027,-2.836832792,-1.566786761,-0.2161900065,-0.2297280723,-0.6514774262,-1.0636057258,-0.1406077968,-0.2638342484,0.4115578023,-1.4494550142,-0.2314028967,-0.2307208605,0.5661729895,-1.3016215843,-0.144391582,-0.1848946945,-15.7809098174,18.7167350568,0.1839981824,0.2351549963,3.4323580619,0.0107849455,-0.8253736729,-0.0270037117,-20.6138313597,-0.3119087792,0.0071837092,10.0174609696,0.2076957762,-8.0361402789,0.0825161981,-0.1005691485,-0.3519027603,-3.1051591823,0.5156431975,-0.1865266604,0.0439142808,-1.9509215501,1.0288440812,-0.1422739947,0.0826342716,-1.7098208539,0.5175942148,0.0334628291,0.0022578027,-2.7603503413,8.8468763746,-9.3815980588,-3.7737440084,14.9688168763,-1.4596605411,2.1103466066,-0.5153279173,-9.9998360503,7.7966538738,0.3830328977,0.1034796835,0.1415147107,0.6821547798,-1.6247377013,0.428616739,0.1153192092,-2.8807570797,-3.184035947,0.1936148015,0.8249607967,-1.0457941179,-1.98671125,0.2938101176,0.4955370887,-1.3087680402,-1.3771074504,0.4633292981,0.4495375197,7.4254780016,-12.1166379915,0.6698744756,-4.1363710573,-2.2636395561,0.3797390907,1.8569689519,3.1463140239,-0.0604485821,0.0621151183,0.1218028201,-2.5427286852,0.0607299474,7.5664646223,-0.0809826613,0.0954656694,0.6995933896,6.6199795156,0.1259452395,0.095186611,0.3810651704,3.2338644778,-0.032511396,0.0810696435,0.2846117966,3.3152534644,0.0792818281,0.1107234322,0.1721537689,-22.2847347873,24.9369884172,-2.1962970038,12.4551922476,-139.3529781033,28.495525271,-20.1554372722,4.958355576,6.2652390938,0.108972775,0.0790599309,5.6532484196,-0.0054616578,-15.3763739647,-0.2192558537,0.0420551762,0.1207369021,1.7013655268,-0.1809733602,-0.0026531805,0.2682059343,0.5862746208,0.1268380562,0.0094732416,0.301619028,1.3300771054,0.034377474,0.1179214663,0.3371466017,41.7267497357,-79.5524787496,-8.1820958283,0.1607484959,-3.4319100194,9.000697544,-7.7984301581,1.7696909125,-5.3040911206,0.4701391299,-0.2881120776,-6.3008536112,0.2559734681,0.394381584,0.4539647064,-0.3929070812,0.6838264141,2.1860698823,-0.2318868088,0.2910704418,-0.010273112,-2.1160996581,0.0525601038,-0.0009595718,-0.0715503131,-0.3979013391,-0.2914236235,-0.0307792729,0.0315432845,-3.5827089124,4.070246648,0.6011019999,1.8578880733,-0.855337774,0.4184433077,4.1602288845,-0.0985498243,8.7672017949,0.174520527,0.153531701,6.1947917517,0.1661612032,-4.5661335289,0.0006588158,0.1409168018,0.6535847327,1.1555606753,0.219504247,0.1578490313,0.5594479072,2.2330262485,-0.0106427994,0.1341942652,0.4669130982,1.2535967398,0.1686188936,0.1414361262,0.2860809361,-1.9636511564,8.0679130732,-14.9306095043,14.4879743912,-191.3732771769,0.5726549322,-6.0898550698,8.229090176,13.1644993544,-0.2587282068,-0.0991286518,9.0170236773,-0.0316189969,-10.1239581609,0.5462862376,-0.1263542825,0.1118882378,-0.16218788,-0.2341435316,-0.1574520202,-0.3042105818,-3.5696996397,-0.1627059764,-0.1137691993,-0.2892242048,-4.6908013464,-0.1196979889,-0.1080548037,-0.1974889093,7.2846620152,-34.932995963,-5.8298330018,-14.2384982114,0.1308650698,28.6183146052,12.0049666502,1.4400753637,-1.2854318169,-0.0550121275,-0.0997450609,-0.3604603967,0.055476265,-0.7118567354,-0.0685802439,-0.1436176337,-0.2884843447,-1.3382351225,-0.071877299,-0.0468627544,-0.0430198329,0.5345316682,-0.0256389768,-0.1122145395,-0.0161972115,1.1680350984,0.0193122298,-0.0570122707,-0.0207715444,8.5854349365,-5.8981310649,0.422671876,-7.9880770085,29.178383451,-3.6843130634,-23.9143987015,0.3198706351,1.8780996951,0.4509040604,-0.438256706,-3.9667803509,-2.5717759538,-8.2720743161,0.5151895419,-0.4114430542,-11.8951345081,-0.850743691,-0.5532947321,-1.0918363554,-0.1227537197,-6.2080249437,-0.8888746517,-0.9487762551,1.5448267206,-3.9585657722,-0.6612857313,-0.2986727635,-1.3991117079,34.8830023573,-15.6367687355,-5.9802221246,-6.1322563958,-1.6631085689,-2.0689854512,-0.063840607,-1.098273166,-6.1371618751,-0.3973463091,0.0655596543,-5.7727191347,0.08389868,8.7357931309,0.3948984356,0.134330824,0.0577851843,3.4726533076,0.2717317789,0.0904810522,-0.0124666837,0.5958849938,0.2628143388,0.1012292614,-0.2956354994,0.4152317879,0.1448937335,0.0093464337,-0.5385720511,6.7849514389,37.7590162541,2.7791291443,7.8462191809,-33.5166192712,-0.9890601307,-17.9692403347,2.6157287249,1.6430563628,-0.0644937394,0.0110363888,-0.9529337178,0.0365044517,3.2066881253,0.1159112906,0.0336840104,0.1380002014,1.2187228128,0.1446087834,-0.0233546514,0.1254246778,-0.277054571,0.1069976883,0.0401234874,0.1822487404,-1.2737685175,-0.0306437146,-0.0260143627,0.2341281632,-45.6561340632,20.2782072925,-1.1482857531,6.9539350912,-83.0019150011,55.7627478532,-5.2279310278,1.1755377586,2.1860105008,-0.0070018248,-0.0684115079,-0.7062605126,-0.1059981051,-0.89536587,0.0634340688,-0.1025890892,-0.0884054678,-1.1250707838,0.0204090445,-0.0395624143,-0.0193670875,-1.4194983859,-0.1950942248,-0.0604065613,-0.0780933117,-2.1036744433,-0.0737843528,-0.0184134128,-0.0420906671,7.7765614702,-22.7748034104,-2.5241558736,-5.493023139,-8.8543224652,35.6881892448,44.1826058032,-2.3028675076,-12.3946696828,0.9898161302,0.8590371181,1.0879190958,0.5574752449,5.9175732881,0.8708977283,0.5495236253,-0.6030995506,-2.6820554503,-0.3908196265,0.2838792788,-0.0452714882,-8.5988458828,0.1773956203,0.1075495874,-0.8117141042,9.4633144913,0.8253681457,1.1335772904,1466.1342361814,55.6114576218,22.655492485,8.5530549162,1.1181663571,2.9388382145,5.6710214928,-3.8728747655,0.7660743481,-0.1586074143,0.3655714283,-0.0310657615,-1.1405463909,0.17942085,-9.5527200855,0.2802908135,0.0438042005,-0.8522738842,2.8417927282,-0.1263708262,0.0585817086,-0.0028023549,-0.9797360597,0.9023052256,0.0545773758,-0.0577936767,1.2142733955,0.2801047416,0.0044969059,-0.0381572605,-5.8997455798,5.7492076209,1.035875864,6.2093245382,1.3614760882,-0.5228029529,-2.2454229551,-0.126873768,-7.1315214227,0.2549313715,0.1115130753,-0.7170765344,0.0895752065,-1.0921209906,0.3058648996,-0.0827545322,0.0944141227,-10.1921558101,-0.049801675,0.0486453879,-0.0843588305,-0.8868370165,-0.0649462661,0.0714827691,0.1707955837,-0.7419537786,0.0377131795,0.0851523107,0.2284886103,0.9286219271,-22.0543796637,3.029360938,-2.6566735147,-12.001586538,0.7143966859,14.9329376204,-0.7948097928,-2.6459852277,-0.4482872199,0.1004772071,-7.4644628651,-0.1337837142,-5.1282581107,0.960297581,-0.2095741736,0.9579547386,0.2265603847,0.2534858975,-0.2288950985,0.0178734386,0.9544122319,-0.411880194,-0.1141050557,-0.1318223075,-1.3934379691,0.3596159158,0.083124528,0.0564147573,-2.4430838688,-2.004561693,7.8044207426,-6.1318568165,3.5891765284,1.8427775071,2.1146789337,-0.8541123874,-5.752114741,0.5368000194,0.1813530114,2.3821844326,0.4918258251,-0.2634006617,0.4114104213,0.3602603774,0.9616608107,6.5634277309,0.8245914378,0.3870279334,1.3800726671,-1.8529380549,0.8430069844,0.0949400792,0.4458470532,-3.4642979204,0.2494647488,0.3568591303,-0.2868257189,34.405583462,25.6108676791,2.3344862672,-7.8604058796,-26.3522002167,-1.3979052321,4.0188375467,-0.223397141,7.851842202,-0.1283556942,-0.132174029,3.5050127164,-0.2442197715,30.1976809414,-0.0378973206,-0.2194217747,0.8359432969,-19.3885006246,0.0043884028,-0.104461297,0.0040808664,-5.8722182262,-0.0020641292,-0.1862089116,-0.08013842,-6.6192910439,-0.0856792499,-0.1465891182,-0.0427101207,3.3386940339,-3.0374869218,-6.5736999885,-0.5573597563,-9.1369757208,2.121076308,7.9839152327,0.6380844198,9.1988640307,-0.2582206463,-0.04784035,-7.5822086486,0.1494381969,-8.3843681738,0.2487538151,-0.0308419574,-2.2512075657,-3.1462688804,-0.7565019463,-0.0856059748,0.1746176293,-0.1665525592,0.6011736287,0.0223930096,0.1908399811,2.3307833914,0.370525978,-0.0037589241,0.0772691718,2.1766555997,-10.7174445075,2.3274419989,1.4114881572,-2.8734265061,-5.7962981744,4.3800828078,-0.0466672106
biasActivation=0,1,1
[BASIC:ACTIVATION]
"org.encog.engine.network.activation.ActivationElliottSymmetric",1
"org.encog.engine.network.activation.ActivationElliottSymmetric",1
"org.encog.engine.network.activation.ActivationLinear"
