encog,BasicNetwork,java,3.3.0,1,1469382385526
[BASIC]
[BASIC:PARAMS]
[BASIC:NETWORK]
beginTraining=0
connectionLimit=0
contextTargetOffset=0,0,0
contextTargetSize=0,0,0
endTraining=2
hasContext=f
inputCount=28
layerCounts=2,46,29
layerFeedCounts=2,45,28
layerContextCount=0,0,0
layerIndex=0,2,48
output=0,0,0,0,0,0,0,0,0,0,0,0,0,0,0,0,0,0,0,0,0,0,0,0,0,0,0,0,0,0,0,0,0,0,0,0,0,0,0,0,0,0,0,0,0,0,0,1,0,0,0,0,0,0,0,0,0,0,0,0,0,0,0,0,0,0,0,0,0,0,0,0,0,0,0,0,1
outputCount=2
weightIndex=0,92,1397
weights=-0.3430227952,-0.4949895865,0.3062981639,-0.2983056556,-0.5964728438,1.0784519038,-0.9354687535,1.4296162651,0.5534852508,0.5358296013,0.039096464,0.9395549334,-0.5798339647,0.131628072,-0.5425319811,-1.1940923941,-0.2389108788,0.278249865,-1.0232878694,-0.6733145986,0.6272192901,-0.4640578603,-0.2315137616,0.2692278022,1.0194758207,-0.4542205384,-0.1805124752,0.2674746452,1.4476545977,0.9560125281,0.3052421947,-1.274935262,-0.8518960448,-0.1925746333,-0.184620844,-0.06067037,0.8518246399,0.9673891786,-0.1666477885,-0.2100639023,0.3065825904,-0.2946190448,-0.3137616811,-0.3561184097,-0.1300236377,-0.1179333275,-0.808612772,0.7264909855,0.8439120084,0.6850351461,-0.0401479944,-0.3489474317,-0.7164602941,-1.6861510877,-0.3580391463,-0.2702211807,0.9682754099,0.8256232107,0.5097417479,-0.1254480807,-0.9451926254,0.7137841978,-0.9540111316,-0.4196207977,-0.0337405713,0.4919986708,-0.4683504913,-0.4795806262,0.4125140437,-1.0168828529,-0.5144577293,0.2670811323,0.4510439834,-0.3144210479,0.0054835229,-0.7357657498,-0.1760834495,0.3811055576,0.2404153446,-1.1374987415,-1.0877062874,-1.6220970764,-0.6406948141,-0.6113419044,0.8189588217,0.3230279553,-0.8722831468,0.3858533459,0.6694009774,0.2464041301,0.2624844799,-0.6376749612,-5.4905854074,-0.0281242313,-0.1732401353,-6.0686646342,-0.272065869,7.3928239657,-0.0407511759,-0.2817365017,-0.3451287524,4.0433795463,-0.1340687825,-0.2098572547,-0.5930349395,-0.0799357803,-0.2599861245,-0.1569810007,-0.6641982719,-0.5079251645,-0.2544380187,-0.1393216617,-0.6341567709,29.0828518525,38.2844461828,1.2431154056,25.6322814138,-35.9713435111,41.9594465178,-28.4958834064,0.9765517236,13.1437841151,0.904292223,-0.2929973944,11.8982141849,0.0134426751,0.5928031852,-0.6196716708,-0.2381794361,1.1051061078,0.6361166493,-0.2189594122,0.0387377543,-0.2016197551,0.4339578537,-0.8325784756,-0.0609900523,-0.2534605777,-2.197689034,-0.1836145924,0.0721649517,-0.4116839498,12.5143284784,3.4549055144,-6.7158690309,21.1039086195,-18.9594319918,4.0072572515,-13.7064607446,-4.3437487824,-4.9844009493,-0.1043091711,-0.2509139623,-4.198559115,-0.2731756251,3.5589891806,0.0120303991,-0.3701660309,-0.1223515528,3.5297201688,-0.0011065515,-0.2772801529,-0.3690121651,-1.5311834461,-0.1294851068,-0.2650944963,-0.321023936,-1.1318969858,-0.3381082056,-0.1939928881,-0.2641856249,8.3602046368,-6.4099364713,0.9402680881,1.9941816351,6.0511351166,1.1406477473,18.4307527731,0.8238501872,-4.2747270971,-0.1495381413,-0.1758754735,0.3196025297,-0.0558356107,-1.8565035463,-0.3205891281,-0.2967809166,0.209675977,-2.9437773261,-1.148065527,0.3619698455,0.1668271176,-1.9334157834,-0.7534492648,-0.308283618,0.0808006423,0.8459900322,-0.6916577254,-0.2059448762,0.0031574022,-4.36479896,11.1761807877,0.0383729947,0.259985381,1.2922530731,-1.4855733693,-3.8963184501,0.6011290228,-1.0563735838,-0.0032700534,-0.0407262333,-1.1698364337,-0.0313282376,4.9954570727,0.2210050007,0.072743846,-0.2550099654,1.068985892,0.0522450321,0.0805842762,-0.0979933532,1.4513156967,-0.0950918792,0.0446392928,-0.120587198,2.4455846394,-0.0475717445,0.0359997508,-0.1523118951,0.4110338359,4.3130419963,-0.6711072439,9.0980503181,-3.8754164883,5.1856855972,-10.6762612686,-0.0562053821,-3.5154583516,-0.0621337537,0.0659141268,-2.6646274929,0.1000271219,3.8741705366,0.2350492378,0.0746395303,-0.0389467,0.1546825021,0.0418675778,0.0788798401,-0.0234427466,0.770165212,-0.0714370795,0.0751898703,-0.0196458816,0.4469567276,0.0225812265,0.0382342303,-0.02258564,71.6270157435,-82.7530237229,3.6319074363,8.9745822321,1.1619484877,-11.6869714033,-5.8490642451,0.8358557041,0.3387701829,-0.0917059038,0.027222878,1.2238677756,0.0040851654,-2.6194005865,0.2880735501,0.0258281169,-0.1789110681,-0.4692648101,-0.011295689,0.0231820922,-0.0397488346,-1.0003053903,-0.0006187965,0.0015358607,0.0268140544,-1.0520652121,-0.0358561496,0.0086625966,0.0295980531,10.4187337183,-18.1309898564,-0.2582354059,-6.750822114,9.7632062306,-15.4770549645,29.4934851054,-0.24888639,0.321054092,-0.0467767705,-0.085245386,-0.4927002042,-0.0917657552,0.2145159094,0.0031535199,-0.1305316662,-0.1314737836,-0.5039680901,-0.1793638206,-0.1312153788,-0.1169135623,-0.1642575537,0.0124594524,-0.1152718304,-0.1119603525,0.0863888162,0.0368175842,-0.1110504835,-0.1326677853,-6.7566779505,16.6759980648,-3.2833733965,21.0592266416,-1.0877062081,-1.3564525607,-3.7856731331,-0.5018027411,2.2852873765,0.0123422253,0.0146516143,2.099688214,-0.0090517394,-1.4901061478,-0.1553342009,-0.0119265092,-0.1056092829,0.3184508002,0.0570863039,0.0574273548,-0.0735962931,-0.6945191548,0.0264239653,-0.0088625247,-0.0764356016,-2.8953541364,0.0093103739,-0.0914530971,0.1881918964,24.0109926859,-1.5686704534,1.3397466143,-4.656217431,121.7595861764,-94.5090422859,1.2629377101,0.0623654857,9.848973934,0.1479120291,0.0869515509,10.5653015341,0.3059395696,-30.695143776,-0.3578150995,0.2703380877,1.2642352812,-27.8694705459,0.1668184212,0.3315491818,1.3231199641,-4.7815361365,0.1080516518,0.2318516802,0.9417341185,-2.3859023255,0.1823229301,0.2191195435,0.6942911034,15.6176939169,1.0951412171,-8.1742024038,0.8233272447,-0.7243696762,-31.2131495648,12.1639047141,-0.4040040754,5.3063430932,0.1767652372,0.2104102492,5.4626578159,0.1509812694,-8.2338903054,-0.1464783103,0.3759545444,1.0328013842,-3.0979673105,0.0849476919,0.2508385458,1.0701228453,2.0671614604,0.0154901286,0.2250957366,0.8452545521,2.9266664258,0.314054105,0.1344450316,0.5663831281,-19.5642128681,1.1328106839,-9.6557502688,5.1824196093,-117.0525137098,-6.5737721646,16.2438712631,1.9666761547,-4.6681679179,0.0372041863,0.1348440908,-5.203307409,-0.042750052,8.5311245891,0.221110552,0.1211892073,-0.6534867386,1.0973495368,0.1561909736,0.1435135015,-0.8247376456,0.4007478997,-0.14619379,0.1183133023,-0.7928490021,-1.4202351695,0.0397569341,-0.0120481026,-0.8505000496,11.721481467,10.8358395029,1.0919972428,13.2881914857,-5.7392680713,-2.3207309555,12.106798395,0.6498651116,-3.0403705827,0.0557604828,0.0354448827,-1.7750636854,-0.1554540494,-1.6934295115,-0.0319462134,-0.0639965307,-0.3094024624,-1.0323486487,0.2847512754,0.076608466,-0.232789366,-0.1580104071,-0.3789252633,0.0409340354,-0.1609684585,0.0687701549,-0.0488543445,-0.0293586227,-0.1236964315,-3.0698002129,5.7172726504,-4.0124930318,24.6203534629,1.0035575494,-1.5794287404,-2.8342123353,-0.9387657846,-4.7971185778,-0.7759643885,-0.0030374062,-6.4680857728,0.2984187328,1.064215666,0.5564762067,0.2246526148,-0.1700981988,-5.5686597694,4.0004693169,0.6483642016,1.4019262795,-0.4232497143,-0.1862147558,-0.3091111453,0.6724402654,0.3333629328,0.1609385234,0.3011198718,0.23375049,-3.0299006056,0.7128296357,-0.7978231564,-6.7048961873,-10.8678563779,-0.1164824484,0.9156850529,0.6715788432,-0.1065459587,-0.0255734764,0.0615026235,0.8897476666,0.0826472078,-3.1249784346,-0.2432340205,0.0382674997,0.2831204756,0.9506490219,0.1829466352,0.0787912236,0.3437883548,0.1178914321,0.1382948183,0.0598200816,0.3499053241,-0.2246775779,0.1159774543,0.0788372535,0.371621807,-11.3291020377,-1.5551576735,0.0958404471,-0.8078339146,-24.3908736048,2.2730719254,3.9187036809,0.6956329043,-1.079008883,-0.0924069275,-0.1424257692,-2.9484706833,-0.1455678638,0.1450718573,-0.2512273315,-0.16566563,-0.173250138,-0.2986473374,0.0624010173,-0.1519137869,-0.1431079141,-0.3285807819,-0.110684944,-0.1680401359,-0.110285123,-1.3759746617,-0.0134322926,-0.1395710369,-0.106779535,-0.8316130036,0.7790083944,-3.1712046361,-0.0621100703,1.2173228423,-18.6980630707,48.4424858536,-0.8447721843,8.274049119,-0.3021984947,-0.026461038,1.0138884965,-0.211415473,-14.8812269346,0.2041265645,-0.0762333856,-0.7028712681,6.6183582877,0.1054710287,-0.0429995662,0.717634695,-14.6452425875,-1.158492765,-0.0700379695,-19.6653748889,2.6544960944,-0.8282283734,-0.5341783578,-1.0820757084,5.6596395461,0.191010209,-8.1877653537,-0.3957295595,-2.9157509545,-1.1527461905,-2.3537059078,-1.1048539429,10.5518683382,-0.1404831764,0.0822158068,3.1579616404,0.2207025372,7.7298508916,-0.1329120371,0.457019223,0.701746467,4.1666313241,0.1764989837,0.3004557903,0.5294393414,5.3585156619,0.2272241277,0.3590815753,0.2271129533,7.8255529284,-0.1306952153,-0.0957756231,-0.1222995105,-2.089923677,-2.7931800239,-5.5693782845,-2.1962033949,-119.6149470764,6.2142214321,-9.3300894238,-0.4528626811,-6.2791767892,0.2737092682,0.0070502959,-6.7325436274,-0.0107961924,-1.4396505962,-0.5536573237,0.0430513935,0.6562068555,-1.7697073457,0.1344988746,0.0987285511,0.5815547226,1.2679032466,0.0766621282,0.0192127876,0.2923827474,2.2274539537,0.0192968418,0.0019088094,0.1076766266,7.6363817327,18.2140463643,1.6218977413,10.936142546,-24.198894753,-5.8278252826,-23.402157783,0.8398930444,-8.4953817975,0.0096878497,0.072713757,0.0907487848,0.1030974993,-6.2408738862,0.2769161529,0.0923752324,0.3665817124,-4.9943926659,-0.12935775,0.1133525615,0.2404430745,-1.2991095407,0.0489045197,0.2044169189,0.1756324362,-1.5797262582,-0.0166805164,0.1455567682,0.1646107741,32.9632276045,4.7618195472,-0.2469236915,14.0657593474,-5.6808455716,0.1980602237,-26.0751305179,0.190487391,-2.8232269841,0.0362870175,0.2188070305,0.2926733041,0.148003342,1.8167145995,0.1523023064,0.1953782179,0.0777957005,1.5488848632,0.0066937628,0.0941596488,0.1828360566,1.5424556887,0.1449819644,0.0508664854,0.1191612238,1.9955091706,0.0252368783,0.0867985537,0.0554778221,4.6871867819,5.1037535576,22.2087956235,-97.5227768199,-1.7520489564,8.7164313825,-18.8748440256,1.4007939708,7.4363500472,-0.7990601735,-0.3597034925,-0.5038952699,-0.2232141117,-15.1129192394,-0.6699462707,-0.4773154362,2.3986115454,-7.3963166608,-0.2109726722,-0.1820058484,-21.0315904699,3.3472411232,-0.6126475021,-0.706069331,-0.4007518099,0.7937521806,-0.321525041,-0.4544557888,-0.5551253682,-20.0826360007,6.4143108073,-2.7094371349,-1.7040579059,-0.258597593,-1.3320382897,-5.758683187,-0.9749873252,1.3245122761,0.0364979473,0.0042078739,0.5908130461,0.1681951009,-0.525091153,-0.3367271063,0.1362766637,-1.2839955886,4.0674379133,0.0503629728,0.0911154803,0.2953580976,1.5698600451,0.5077415948,0.0300824072,0.3248881559,1.5412933483,-0.1525179984,-0.0389845706,0.1515494939,-8.5126773519,-3.8531549707,-0.7994451753,1.8534938738,1.2241000799,15.8647843808,-0.9656151165,-0.8357244963,-3.9112093056,0.2385675154,-0.0803954608,-7.140363618,-0.1122519607,17.409409692,-0.1342290914,-0.0964454121,-0.6081315157,12.0753713222,-0.0604891148,-0.1186537627,-0.7339784175,3.8956736315,-0.0970059733,-0.0948679512,-0.6645417062,3.0961257944,-0.1783890021,-0.0395810516,-0.5996115831,25.5000952806,-9.4566284023,2.2422027635,-17.4363609932,-55.7316013516,109.0911691998,-17.5957282512,-0.7089804654,-0.1984505325,-0.10545322,-0.1231043859,-0.1536630229,-0.1474634767,-0.5889546245,-0.1555637111,-0.0757435665,-0.2879702005,-0.3417023138,0.0736029577,-0.110532868,-0.3125708506,-0.3510978629,-0.1825305256,-0.0895315119,-0.3492763329,-0.6228023444,-0.1262702585,-0.0546468397,-0.3675788783,-3.5845809221,36.5888520586,-0.5384692723,-0.7869167045,2.5873472645,0.1762646164,3.1204006767,-0.8360862711,3.2148280775,3.0299045061,-0.2592205695,-1.0266133005,0.0153370799,-2.8377465069,-1.5668757835,-0.2161002377,-0.2297370738,-0.6510099147,-1.0632988839,-0.141027041,-0.2636155763,0.4115722635,-1.4494033467,-0.231424414,-0.2307155679,0.5665710782,-1.3011706055,-0.1441177603,-0.1849440871,-16.1093908453,18.7173843902,0.1838903596,0.2352892185,3.4098257022,0.0146240296,-0.7187938403,-0.0275425723,-20.8360835437,-0.3106157188,0.0149676063,10.0173932146,0.2075903863,-8.1800946482,0.0826206472,-0.0960942999,-0.338221789,-3.1232864009,0.609919145,-0.1862824911,0.0438595939,-2.0999749986,0.9885444226,-0.1420608564,0.0836078622,-1.710911885,0.5174238882,0.0346943798,0.0041427013,-2.7597921847,8.8469252151,-9.3816080607,-3.7740639547,15.0024432931,-1.4807107325,2.110426094,-0.5150673609,-9.9999085215,7.7966549101,0.3691481556,0.103708844,0.1414813266,0.6822954045,-1.6249170156,0.4280770412,0.1154273294,-2.87416224,-3.1838284597,0.1937800382,0.8250656845,-1.0456353111,-1.9868892874,0.2938000494,0.4955601386,-1.3087442838,-1.3769112866,0.4633886672,0.4494059386,7.5743586152,-12.2719669586,0.669852407,-4.1368863607,-2.2636083118,0.3795772727,1.8249117023,3.207510356,-0.0601249233,0.0620260578,0.121591919,-2.5413728332,0.0598961754,7.5663982891,-0.0809652131,0.0773767028,0.6926381235,6.6197055925,0.1260406045,0.0951955396,0.3754038522,3.233892695,-0.0348945752,0.0794294867,0.2842042651,3.3153423012,0.0792432292,0.1106283281,0.1719768009,-22.2847268934,24.9370678418,-2.2478970153,12.4540665537,-139.3530103575,28.3049878239,-20.1557816656,4.9875932293,6.2526122922,0.1087528742,0.07837755,5.6531521121,-0.0055111433,-15.3765238293,-0.2192071417,0.041663856,0.1207193859,1.7015102024,-0.1641480575,-0.0032815633,0.2572751613,0.5854951212,0.1266433065,0.0090420568,0.2811824187,1.3012072681,0.03461264,0.1113092572,0.3287986487,40.2824387199,-77.4284903035,-8.1921741823,0.2437541547,-3.7808505412,9.0010415993,-7.7863966597,1.7698538238,-5.3053045919,0.4702365343,-0.279419894,-6.3025025792,0.25592988,0.394464543,0.4541556865,-0.3897988187,0.681329534,2.1862004566,-0.2317783121,0.2823984668,-0.0096669638,-2.116145629,0.0523450668,-0.0008130013,-0.0713699807,-0.3978538978,-0.2889170725,0.0067764756,0.0268379396,-3.5807419006,4.0702084807,0.6013400212,1.8582264618,-1.208539661,0.4183550306,4.1603150037,-0.0983118029,8.7667472225,0.1658877196,0.1529414106,6.1723841673,0.1628943179,-4.5184063099,-0.0010449613,0.1404175972,0.6535474745,1.1855214344,0.2190446596,0.1568472671,0.5512485489,2.2331943746,-0.0111007434,0.133570836,0.4598389384,1.2644426741,0.1680056472,0.140312965,0.2820637758,-1.9638890413,8.3408531617,-14.9305493258,14.4877764287,-191.2723949692,0.5727329087,-6.1135785207,8.2289824205,13.1520918289,-0.2562137256,-0.0992282571,9.0128780751,-0.0321657132,-10.01217842,0.5461736225,-0.1263489458,0.1118580164,-0.164721394,-0.233805461,-0.1580157758,-0.2997929867,-3.5695152329,-0.1625235474,-0.113310257,-0.2885183981,-4.6875152876,-0.1195890964,-0.1073130085,-0.1974243477,7.1838534436,-34.9546052448,-5.8363181473,-14.2386098958,0.1149960658,28.6229916101,12.0036325026,1.4399512617,-1.2853190793,-0.0536268663,-0.0973102909,-0.3494514983,0.052532272,-0.7118055047,-0.0688706072,-0.1306611897,-0.2880072502,-1.2907493816,-0.0682768505,-0.046239975,-0.0430012509,0.5343913311,-0.0251582053,-0.1102603794,-0.0165779802,1.1661457454,0.0195322873,-0.0511111596,-0.020640706,8.5854628407,-5.897866802,0.4226232486,-7.4633839103,29.1784197787,-3.6844755342,-23.9143450565,0.2718337172,3.8582009061,0.4509341667,-0.4380137828,-4.770399667,-2.5710310169,-8.2779875539,0.5169862654,-0.4066549926,-11.8952673843,-0.8510393934,-0.5531784703,-1.0920755711,-0.0649161473,-6.2079919136,-0.8473553988,-0.9487637599,1.5801930838,-4.2179902315,-0.61195477,-0.3461789956,-1.3994478958,34.8547760159,-16.1270219888,-5.9801991282,-6.1318564394,-1.6604024283,-2.0686050742,-0.0637278763,-1.0981657564,-6.1371110858,-0.3881866578,0.0615794469,-5.772604159,0.0837385404,8.735843804,0.3923331387,0.1341336281,0.057945396,3.4738484057,0.2704019419,0.0904675389,-0.0125333023,0.596375532,0.2626238739,0.1010930906,-0.2957691269,0.4150069404,0.1443566654,0.0098334093,-0.5385976401,6.7849448117,37.7920729093,2.7790272592,7.8544592004,-33.5168255068,-0.9888556637,-17.9691746082,2.6158886978,1.5574984196,-0.0643721308,0.0106852793,-0.9531597487,0.0366341723,3.2053120607,0.1154671975,0.0337008444,0.1381396618,1.2179002832,0.1351037056,-0.0233637054,0.1254403605,-0.2775358828,0.106542968,0.0400967195,0.1824625011,-1.2736353467,-0.0304586233,-0.0258814421,0.2338784285,-45.0914925606,19.8640394694,-1.1487166244,6.9537457065,-83.0019961973,55.7900438116,-5.2277523003,1.1864499965,2.1853563679,-0.0063600747,-0.0679713353,-0.7063230845,-0.1053755145,-0.8953866773,0.0548303846,-0.1020567256,-0.0879302925,-1.1250966189,0.0208492171,-0.0394593878,-0.0186059021,-1.4196221198,-0.194581167,-0.0598533876,-0.0780323935,-2.1038327306,-0.0732910925,-0.0189223911,-0.042930047,7.7767149407,-22.5831850939,-2.6123563857,-5.4923891465,-8.8557605077,35.6883236481,44.1826123643,-2.3028106245,-11.9509573716,0.9896302737,0.8593179626,1.0879690037,0.5573336494,5.9190179477,0.8708500199,0.5494730393,-0.8097062781,-2.6821122015,-0.386055458,0.2895253749,-0.0451719085,-8.7181433628,0.1777228601,0.1452519894,-0.8117310902,9.4638770327,0.8256671062,1.1338344668,1466.1341516342,55.6114321041,22.6553857437,8.5533939292,1.1181809507,2.9388046451,5.6989048598,-3.8729377966,0.7661420146,-0.1587669152,0.2790557558,-0.0309086668,-1.1425196015,0.1776114152,-9.5527978853,0.280234054,0.0439606749,-0.819584402,2.8541113611,-0.0862807649,0.0591388244,0.0006398085,-0.9797204791,0.8946209984,0.054711464,-0.0470098866,1.2133507921,0.2800420365,0.0051618454,-0.0372961026,-5.9000248582,5.921084967,1.0361255371,6.2090435207,1.3614523407,-0.5228387366,-2.2455695333,-0.1266331531,-7.1316669417,0.2549939344,0.1115367779,-0.7209216027,0.0934835329,-1.0922745433,0.3058125266,-0.0818083117,0.094368668,-10.1922762445,-0.0498937659,0.0484502022,-0.0841582185,-0.886832557,-0.06483706,0.0716449952,0.1702622958,-0.7416703342,0.0397952471,0.0855078115,0.228408066,0.9288239318,-22.0543298189,3.0294066181,-2.65733247,-12.0016146307,0.714398137,14.9328608608,-0.7946933086,-2.6461648083,-0.4485149821,0.100420413,-7.4614214556,-0.1335209056,-5.1283360795,0.9601800342,-0.20925169,0.9580290795,0.2265810627,0.253302375,-0.2262464898,0.0180908984,0.9540515689,-0.4112806544,-0.1141313815,-0.118139755,-1.3930611073,0.3482755271,0.0829630039,0.0566547938,-2.4911430479,-2.0044277473,7.8045840671,-6.1318759594,3.6381376432,1.8428768725,2.1146294541,-0.8541972896,-5.7513009047,0.5363131139,0.1818284327,2.3820580902,0.4919825784,-0.2629252404,0.4116150256,0.3602361549,0.9616164257,6.5633488579,0.8245617329,0.3864265993,1.3800679105,-1.8549486739,0.8428029451,0.0967904464,0.4457554827,-3.4639201069,0.250149881,0.3569216011,-0.2867393057,34.4400167055,25.6115212744,2.3349398429,-7.860232802,-26.3050666839,-1.4092075181,4.0190673716,-0.2231787988,8.1475266796,-0.1281549744,-0.1321157596,3.5051168908,-0.2443715446,30.1959933854,-0.0379203722,-0.2174923926,0.8395256151,-19.3888050284,0.004213762,-0.1037436548,0.0048784521,-5.8973108003,-0.0018134812,-0.1845467701,-0.0699815794,-6.6190750354,-0.0719714799,-0.1456461207,-0.0312689421,3.3347316793,-3.0375359069,-6.827814342,-0.556777555,-9.1399679618,2.1211309801,7.983264467,0.6379067461,9.1987243688,-0.2580574257,-0.0475611737,-7.5783945233,0.1480710086,-8.4689716826,0.2484370201,-0.0307265469,-2.2588767007,-3.1464181239,-0.7565744958,-0.0856218372,0.1748142314,-0.1666446704,0.6087599292,0.0221894237,0.1905968976,2.1857245866,0.3703116325,-0.0038784381,0.0773538983,2.1764577434,-10.7174784092,2.3274760413,1.4490421072,-2.8735222163,-5.7964444913,4.3797678438,-0.0469537162
biasActivation=0,1,1
[BASIC:ACTIVATION]
"org.encog.engine.network.activation.ActivationElliottSymmetric",1
"org.encog.engine.network.activation.ActivationElliottSymmetric",1
"org.encog.engine.network.activation.ActivationLinear"
