encog,BasicNetwork,java,3.3.0,1,1469382529487
[BASIC]
[BASIC:PARAMS]
[BASIC:NETWORK]
beginTraining=0
connectionLimit=0
contextTargetOffset=0,0,0
contextTargetSize=0,0,0
endTraining=2
hasContext=f
inputCount=28
layerCounts=2,46,29
layerFeedCounts=2,45,28
layerContextCount=0,0,0
layerIndex=0,2,48
output=0,0,0,0,0,0,0,0,0,0,0,0,0,0,0,0,0,0,0,0,0,0,0,0,0,0,0,0,0,0,0,0,0,0,0,0,0,0,0,0,0,0,0,0,0,0,0,1,0,0,0,0,0,0,0,0,0,0,0,0,0,0,0,0,0,0,0,0,0,0,0,0,0,0,0,0,1
outputCount=2
weightIndex=0,92,1397
weights=-0.3426359543,-0.4966462851,0.3064458843,-0.2984879929,-0.6011477708,1.078713997,-0.9415893375,1.4303038956,0.5534000364,0.5357425742,0.0380925828,0.94765752,-0.5828459076,0.1330990053,-0.5443244885,-1.194701065,-0.2389467926,0.278396353,-1.0255038249,-0.6733203179,0.6272413047,-0.4641201829,-0.2313952365,0.2688358368,1.0576420405,-0.4545287012,-0.1808826064,0.2675442256,1.4633928956,0.9558845224,0.3097015652,-1.2886525494,-0.8518587281,-0.1925185387,-0.1846663185,-0.0626521043,0.8542282665,0.9676618526,-0.1666153997,-0.2141659801,0.3196206666,-0.2959912706,-0.3182319679,-0.3570043826,-0.1227751889,-0.117864197,-0.8163539055,0.7674126853,0.8530131359,0.6201913884,-0.0527935243,-0.3497073874,-0.7164302695,-1.6903720189,-0.3580339565,-0.2705739781,0.9685930628,0.8259530892,0.5097127828,-0.1255728808,-0.9644106177,0.7135966634,-0.9593506411,-0.4197845854,-0.0337711886,0.4983498083,-0.4682916941,-0.4814346225,0.4124233368,-1.0169105882,-0.5529183405,0.2693126146,0.451138815,-0.3153837108,0.0063546915,-0.7357078152,-0.1740744063,0.3811952857,0.237060922,-1.1375952004,-1.0880612477,-1.6222869468,-0.6411614078,-0.6117370927,0.8192957079,0.3265858283,-0.8723615818,0.3858871904,0.6747404868,0.2465523518,0.2621947862,-0.6374218353,-5.4976632919,-0.0281580782,-0.1530003902,-6.3220387158,-0.2703723932,7.4462639542,-0.0408104893,-0.2772763388,-0.341131923,4.0434653131,-0.1229377223,-0.2088075744,-0.5904691267,-0.0799222834,-0.2586874259,-0.1568443185,-0.6543044827,-0.5028135456,-0.2533826426,-0.1392086768,-0.6288567318,29.0827768782,38.2843438001,1.2430285941,25.6321694519,-36.1970552538,42.1921648502,-28.4960185762,0.9764657047,13.1440425524,0.7665571797,-0.2922429892,11.9107288614,0.0134539196,0.5542198551,-0.6153749341,-0.2378685823,1.1052380927,0.4672196426,-0.2186184422,0.0384870496,-0.1867488712,0.4338085609,-0.832382378,-0.0566446786,-0.2421918839,-2.1977707175,-0.1835928037,0.049494473,-0.4099147465,12.5102883993,3.4603912461,-6.8500179822,21.6628635551,-18.9595356907,4.3062062412,-13.706492184,-4.3584797199,-4.9845721864,-0.1042563592,-0.2511161435,-4.1974264277,-0.2735545629,3.5589987224,0.0119123501,-0.3699806978,-0.1224425837,3.464382889,-0.001077003,-0.2771594989,-0.365645248,-1.5311681345,-0.1295019365,-0.2652098231,-0.3188762588,-1.1325656715,-0.3380248386,-0.1937120062,-0.2606038912,8.3602036824,-6.40986023,0.9402671364,1.994156823,6.0512336492,1.1406726051,18.542957643,0.8237604243,-4.2748566764,-0.1476506114,-0.1758692766,0.3200120815,-0.054320599,-1.8565238963,-0.3207415863,-0.2580332777,0.2098506868,-2.9435201317,-1.1365244004,0.3619294618,0.1866977362,-1.9334170752,-0.7503026232,-0.2746439007,0.0807977758,0.8459783325,-0.5554098097,-0.1567069665,0.0070573063,-4.3647810452,11.1802120325,0.0385234387,0.2598421525,1.2922250194,-1.4854686514,-3.8963182274,0.6012632458,-1.0500607205,-0.0042799895,-0.0407347496,-1.1699009637,-0.0317162352,4.9955767379,0.2206000419,0.0667065641,-0.2546025961,1.0689754923,0.0518931406,0.0714192101,-0.0955939047,1.451854418,-0.0948977922,0.0414896528,-0.1204945774,2.4494157382,-0.0648337628,0.0347419334,-0.1512763006,0.4010308522,5.1130574908,-0.671370219,9.0980758617,-3.8754568046,5.1857336862,-10.9028072909,-0.0562876966,-3.5152506075,-0.0624574744,0.0653743562,-2.6538755925,0.0985924585,3.8759946404,0.2344185659,0.0747622922,-0.0401465631,0.2006079551,0.0429555221,0.0793400352,-0.0237841075,0.7705497907,-0.0710639161,0.0753586296,-0.0205186782,0.4494280782,0.0226977794,0.0382171103,-0.0245724264,71.6269685457,-82.9473772846,3.6173814863,8.9279607132,1.4922362843,-11.6870798535,-5.7451909823,0.8363133182,0.3388972164,-0.091702606,0.0271708144,1.2237981417,0.0041294816,-2.6193819013,0.2879618766,0.0271428936,-0.1784657946,-0.4720978046,-0.0114444,0.0230103971,-0.0398932186,-1.0003742293,-0.0005992744,0.0015699069,0.0256352312,-1.0520758603,-0.0358340267,0.0106407697,0.0293346242,10.4186836321,-18.1309237702,-0.2583671717,-6.7504449857,9.7612737352,-15.62374974,29.7019763037,-0.2488256693,0.3210726234,-0.0466359261,-0.0850820267,-0.4926560704,-0.091535524,0.2155593414,0.0030830715,-0.1303767365,-0.1313234131,-0.5035131835,-0.1790010798,-0.1287251343,-0.1168490808,-0.1554125947,0.0122626724,-0.1148680832,-0.1117193666,0.0867095412,0.03655962,-0.1107769022,-0.132477061,-6.7565060785,16.567304552,-3.28370034,21.0593411048,-1.0879421735,-1.3579031143,-3.7859847692,-0.5020530449,2.281858531,0.0104812281,0.013787962,2.098137383,-0.0090441874,-1.490082249,-0.1552314445,-0.0120243022,-0.1078984886,0.3186061808,0.0570383035,0.0572640785,-0.0737491144,-0.6941336424,0.02586502,-0.0087365114,-0.0769988333,-2.8951060383,0.0092446495,-0.091446188,0.1856260371,24.0923532904,-1.5685646602,1.3487605486,-4.657768262,121.7374947228,-94.5097815068,1.2613868791,0.0624483771,9.8511221481,0.1476178063,0.0848535588,10.5516244788,0.3042152709,-30.7071946998,-0.3578901312,0.2598231236,1.263849824,-27.8692435346,0.1668988743,0.3313427801,1.3159281594,-4.8002528103,0.1079340662,0.2318888929,0.9416722919,-2.386043274,0.1821206793,0.2187702686,0.6948641205,15.6181625872,1.6157509796,-8.1742943392,0.8233908435,-0.7240090951,-31.2202401113,12.1638679935,-0.4020827247,5.3061595172,0.1786354172,0.2104266442,5.3659286311,0.1488403835,-8.2336874144,-0.1458693521,0.3650220639,1.0327353894,-3.0976543622,0.0695367375,0.2408765874,1.068810169,2.0948740536,0.0153209306,0.2246834858,0.8319228523,2.926871805,0.3066171232,0.1343758395,0.5491558549,-18.9360981441,1.6864748262,-9.7468812508,5.1824968156,-117.0526115092,-6.5739381295,16.0626857017,1.9991648367,-4.667666919,0.0373391825,0.1348483485,-5.2033948046,-0.0430227755,8.5311579027,0.2211391035,0.1168757677,-0.6530973396,1.0973746616,0.1551657355,0.1435965036,-0.824567033,0.4006351948,-0.1460592942,0.1183204191,-0.7929956338,-1.4218865455,0.0399109627,-0.0119097643,-0.8576732897,11.7215082091,10.8358559593,1.0919506938,13.2882023824,-5.7380720883,-2.3205639273,12.1110707206,0.6499950759,-3.0405618035,0.0552922817,0.035219095,-1.7751119918,-0.1551413029,-1.6936593166,-0.0322141701,-0.0642240095,-0.3093067742,-1.0308980951,0.2844902786,0.0755426887,-0.231307797,-0.1311938852,-0.3787773012,0.0405302882,-0.1584202299,0.0689156719,-0.0490261905,-0.0294776565,-0.1160030001,-3.0700031108,5.7172327312,-4.012370748,24.6204804749,1.0032881622,-1.5780530402,-2.8313549521,-0.9391695319,-4.7971370009,-1.0787327873,0.0334133245,-6.4677455599,0.2986785971,1.0646170087,0.5562928759,0.2395248085,-0.1706545936,-5.567466656,4.305884486,0.6480746723,1.4087506107,-0.4233228434,-0.193558063,-0.2414105134,0.6663352621,0.3591672613,0.1600653315,0.3011497465,0.2343890319,-3.0301034541,0.712794586,-0.7975122112,-6.7045885497,-11.3370987256,-0.116635385,0.9154197888,0.6724445908,-0.1063438618,-0.0252547418,0.0615342451,0.8896659661,0.0825938194,-3.0803388975,-0.2333048197,0.0403803667,0.2883019631,0.9491624911,0.1827560848,0.0786900221,0.3430115174,0.1174597979,0.1382173242,0.0597327482,0.3496910414,-0.2245122755,0.11588735,0.078803655,0.3714405529,-10.7580746178,-1.9740100619,0.0295356117,-0.8079084122,-24.3908746979,2.2730268494,3.9201297271,0.7040528044,-1.0787478911,-0.0910843276,-0.1420780023,-2.9472299761,-0.1417015443,0.1451062688,-0.2507170594,-0.1652936443,-0.172799802,-0.2985504914,0.0622573911,-0.151526098,-0.1423455309,-0.3182125572,-0.0912697873,-0.1680474123,-0.1080953572,-1.3730911442,-0.0136139616,-0.139312038,-0.1016489059,-0.831713095,0.7805835665,-3.1710889855,-0.0620284811,1.217323619,-18.6981453812,48.4426102482,-0.8665027435,8.298636247,-0.3023682521,-0.0265941817,1.0138734689,-0.2124724307,-14.8812612427,0.2040647621,-0.0763618641,-0.6986775863,6.6182093187,0.1053267324,-0.0017864362,0.7178068254,-14.6452833669,-1.1584850679,-0.0704402969,-19.7597989716,2.6543930113,-0.8279231333,-0.5093997793,-1.0818967437,5.6598099618,1.3745322698,-8.1879411511,-0.3951866687,-2.932325576,-1.152743433,-2.3441778563,-1.1048824772,10.5197031187,-0.1404643447,0.082301063,3.1570834913,0.2205416122,7.7296506177,-0.1328393548,0.4570038723,0.700195636,4.0219359935,0.1763536745,0.3010485489,0.5298742902,5.3589231636,0.2219266065,0.3596494653,0.2269980294,7.8495097805,-0.1309425949,-0.0927403973,-0.1259670918,-2.1425162301,-2.7933690152,-5.5696256642,-2.2004788551,-119.6212627419,6.2731055985,-9.3300389328,-0.4529758341,-6.2790688424,0.2731821504,0.0062775043,-6.7321149251,-0.0110372727,-1.439543705,-0.5534762003,0.0426767586,0.6530806651,-1.7671644443,0.1222611175,0.0993023336,0.5777287614,1.2679209198,0.0779780912,0.0188277982,0.2891790833,2.2246326524,0.0191778243,0.0033878913,0.0962865215,7.3982173949,18.2140375197,1.6219968892,10.9332457014,-24.1986181676,-5.7281766242,-23.4024109381,0.8397709705,-8.358641346,0.015750354,0.0727763869,0.0880936335,0.1034493108,-6.32083732,0.2752611702,0.0924630171,0.3666975647,-4.9943115397,-0.1296007168,0.1134987259,0.2404823382,-1.2993027511,0.0489869872,0.2039569241,0.1757559261,-1.5796917804,-0.0186998396,0.1450880272,0.1645608129,32.9634070004,4.4810567715,-0.2467326228,14.0624264982,-5.680705466,0.1978267914,-26.0753639501,0.1905387758,-2.8203086101,0.0362217078,0.2167906681,0.293637383,0.1466816908,1.8167951604,0.1509806553,0.1943573712,0.068244246,1.6434239093,0.0066395395,0.0939221561,0.1823206187,1.5424516962,0.1452817,0.0496761503,0.1190377122,1.995504776,0.0239152271,0.0866616417,0.0553485077,4.6872671917,5.1562922676,22.229181615,-97.5226151037,-1.7520818439,8.7025243976,-18.8745742871,1.4057095745,7.4379079548,-0.7961968046,-0.3604500529,-0.5091991003,-0.2902151919,-15.1129405901,-0.6651294059,-0.4774081224,2.3986832649,-7.4695830601,-0.2188175667,-0.1995856431,-21.055036754,3.1316764457,-0.6126041733,-0.7110952331,-0.3984458612,0.7731313386,-0.3195819174,-0.4543783508,-0.553834596,-20.0827018789,6.4165615507,-2.7554412011,-1.6685098683,-0.2585102622,-1.3000447758,-5.758661826,-0.9751359373,1.3249976133,0.0365981618,0.0148071058,0.5909815352,0.1683576649,-0.5250825285,-0.3366589599,0.1362558591,-1.2796872256,4.0686756704,0.0519138039,0.0914142725,0.2954258629,1.5750741692,0.5058697687,0.0380705165,0.3207151409,1.5412892949,-0.1524574281,-0.038805317,0.1516545411,-8.5127902258,-3.8558133262,-0.7993415382,1.8536034743,1.2245682604,15.8647549998,-1.0893495224,-0.8356485499,-3.9110854348,0.2366855162,-0.0799593812,-7.1404827465,-0.1123302092,17.4095494299,-0.1178807398,-0.0963746183,-0.6083634988,12.0755214601,-0.0606363207,-0.1188857459,-0.7340801466,3.8959428531,-0.0971325017,-0.0941710602,-0.6646455016,3.0963332937,-0.1780331037,-0.0326606355,-0.5996058465,25.5001103096,-9.4567366148,2.292861116,-17.5652315911,-55.7348921981,109.0907749615,-17.5959449036,-0.7092610551,-0.1411647376,-0.1005888204,-0.1113095177,-0.1535566706,-0.1405381723,-0.5889411206,-0.1547575998,-0.0761687833,-0.2683095081,-0.3416341394,0.0470414934,-0.110594326,-0.2867322242,-0.3511208668,-0.1620236106,-0.0895185774,-0.3276134039,-0.4864531582,-0.1193249011,-0.0547274022,-0.3400938454,-3.9663346154,36.703351406,-0.5384332226,-0.7711105434,2.5872481402,0.1763987723,2.8003689884,-0.860939566,3.2149802684,3.0301042865,-0.2591895855,-1.0269388337,0.0151897581,-2.8378792203,-1.5669650988,-0.2159538327,-0.2296536728,-0.6508345717,-1.0631235409,-0.1604864728,-0.2601120335,0.4116186991,-1.4493276183,-0.2314654895,-0.2306976721,0.5667199249,-1.3009952625,-0.1439807359,-0.1849692563,-16.7481747313,18.717692787,0.1836890352,0.2358179148,3.4082054778,0.0155562415,-0.5955592233,-0.0289432932,-20.8368688242,-0.3079421055,0.0197033068,10.0173273921,0.207517409,-8.2249591238,0.0826208523,-0.0957078266,-0.3122232063,-3.1317337602,0.6420426881,-0.1861290232,0.0438368077,-2.1004053604,0.9714324957,-0.1419920792,0.088841867,-1.7114216166,0.5170265877,0.0353840504,0.0045484965,-2.6651439643,8.8468024533,-9.3816927587,-3.7742319759,15.0425124425,-1.480994176,2.1104741641,-0.5147497062,-9.9998727639,7.7966700747,0.3376328588,0.1040682383,0.141332981,0.6826692655,-1.625240261,0.4255235773,0.1154155782,-2.7852973012,-3.1832365622,0.1942702643,0.8251257933,-1.0437035576,-1.9872478919,0.2938943336,0.4957040957,-1.308812271,-1.3761867377,0.4634032627,0.4489343424,8.5546847203,-12.4051189886,0.6698797384,-4.1395817624,-2.2636932724,0.3789196812,1.4494669503,3.2381407307,0.0093494151,0.0619547387,0.1204264699,-2.5409065636,0.0494046429,7.5661936259,-0.080807937,0.0768879535,0.6926257887,6.6196343243,0.1263787804,0.0950842152,0.3725591836,3.2339905724,-0.0417847117,0.0766279904,0.2792092933,3.3153931627,0.079054953,0.1105029703,0.1715252051,-22.2844291891,24.9373060166,-2.3129989834,12.4450359716,-139.353017818,28.1702920509,-20.1558881555,5.0151682075,6.2019360912,0.1084967139,0.0720546384,5.6522149887,-0.0058140274,-15.3768648573,-0.2192067042,0.0377843628,0.1181669191,1.7016185807,-0.15837752,-0.0038425643,0.2564805865,0.5378170513,0.1263283953,0.0031820389,0.2808821032,1.0877358221,0.0347433261,0.1110782109,0.3243729036,39.4554550183,-76.7716003131,-8.1925057377,0.7722814666,-3.7811724212,9.0372584634,-7.7699580413,1.7699948593,-5.3068554229,0.4702097588,-0.2704785324,-6.3037432864,0.2556224118,0.3943660556,0.4542258066,-0.3759268776,0.6794685368,2.1861297912,-0.2317769389,0.2820439472,-0.009675034,-2.1162059514,0.0519727647,-0.0007167067,-0.0713098239,-0.3982903945,-0.2848355234,0.0251598834,-0.0041648936,-3.5805917523,4.0699010126,0.6014564567,1.8583243526,-1.2159014323,0.4180475625,4.1603218473,-0.0982229039,8.7627922814,0.1658085964,0.1527120892,6.1480127212,0.1619884771,-4.4753995346,-0.0018549723,0.1400543696,0.6536180057,1.211049671,0.2189051497,0.1547411202,0.5498106198,2.2337782081,-0.0113973907,0.1292078705,0.4596782911,1.2898545855,0.1672207439,0.1361230909,0.2790612581,-1.9749968551,8.87036789,-14.9303580114,14.4877127214,-190.8390035097,0.5728849795,-6.3890085755,8.2289520303,13.1519506184,-0.2558842034,-0.0991595656,8.9411150697,-0.0323541385,-9.9491159256,0.5461875495,-0.1262066899,0.1118284074,-0.1786438096,-0.2333014093,-0.1585391267,-0.2993017036,-3.5687276505,-0.1622136393,-0.1132540626,-0.2868506199,-4.6847913537,-0.1193634156,-0.1070055404,-0.1975688855,7.1592441707,-34.9605330021,-5.8421319769,-14.23868935,0.1138794245,28.6255511543,12.0029689086,1.4399001571,-1.2852846546,-0.0513266288,-0.0942550824,-0.332926536,0.0449747621,-0.7118020981,-0.0690733879,-0.1265322969,-0.287719122,-1.2814229712,-0.0520400247,-0.0450109012,-0.0436516731,0.5294252501,-0.0224600096,-0.091887345,-0.0207459747,1.1525994375,0.0198314439,-0.0494164425,-0.0205203082,8.5851593984,-5.8977207288,0.4225199299,-7.4587495261,29.1783678105,-3.6941429303,-23.9143554197,0.2712716509,3.8610521231,0.4508949524,-0.437800232,-4.7705292114,-2.5607589325,-8.476431905,0.517663368,-0.4058759919,-11.8953891358,-0.8999178039,-0.5530162971,-1.0921638104,-0.0498809687,-6.2077455845,-0.8452142158,-0.9487915605,1.580200045,-6.4084621026,-0.1698690895,-0.3500680075,-1.4105553112,35.3105793174,-16.3104456246,-5.9801582447,-6.1317801768,-1.6603760572,-2.067306255,-0.0634903264,-1.0980612664,-6.1263005581,-0.3877303516,0.0505867265,-5.7726087127,0.0835885942,8.7358169806,0.3800604242,0.1338471024,0.0579571733,3.4739346735,0.2669407742,0.0903882384,-0.0142918278,0.5965260005,0.262538095,0.1009764947,-0.2958974826,0.4147991136,0.1441328665,0.0100104667,-0.5385904419,6.7848611621,38.0062257184,2.7789337123,8.021521619,-33.5236792746,-0.9888485844,-17.9691910517,2.6159465553,1.4895313747,-0.0642376462,0.0104768202,-0.9539642742,0.0367433205,3.1909062718,0.1147084304,0.0337260824,0.1384948158,1.2170926474,0.1207079479,-0.0233342498,0.1253590658,-0.2790790736,0.1061739352,0.0401731754,0.1826249125,-1.2735852522,-0.0302221214,-0.0256323061,0.2336584294,-44.9754515919,19.7916520829,-1.1491091408,6.9529433491,-83.0020811244,55.9064606835,-5.2275346172,1.1972084631,2.1814139355,-0.003350101,-0.0677320326,-0.7064472502,-0.1049844539,-0.895544012,0.0546168109,-0.1016965507,-0.0877504371,-1.1253302855,0.0209084784,-0.0393507315,-0.0186400439,-1.4202596089,-0.1941108871,-0.0579454378,-0.0781230865,-2.1041776515,-0.0730060785,-0.0190897235,-0.0429565443,7.7768590331,-22.4265227636,-2.6999687082,-5.4918708797,-8.8569003899,35.6884561709,44.1825705899,-2.3027555768,-11.8350420757,0.9890680104,0.8593890233,1.0880179024,0.557224196,5.9190496313,0.87077304,0.5493683866,-0.8103995975,-2.6821956571,-0.3854709594,0.2936666883,-0.044983667,-9.078694677,0.1778420809,0.1598351919,-0.8117599686,9.4639253332,0.8256987649,1.1339131276,1466.1340537266,55.6113828671,22.6542294501,8.5535493952,1.1181153896,2.9387722371,5.7140224236,-3.8762363289,0.7662216678,-0.1589170662,0.2326420013,-0.0308331903,-1.3757379624,0.1546899246,-9.5529186204,0.2801425386,0.0441285792,-0.815893434,2.8546549942,-0.0811835023,0.059295737,0.0035215489,-0.9797614536,0.8673666489,0.0547044576,-0.0444687512,1.2119476979,0.2798934203,0.0053224355,-0.0371046298,-5.900198558,7.1332952343,1.0363108986,6.2086368126,1.3614642283,-0.5229563419,-2.2458034809,-0.1264885902,-7.1317117765,0.2550740056,0.1118847593,-0.7211147446,0.0938349396,-1.0923086072,0.3059180066,-0.0675381536,0.0944362846,-10.1923937737,-0.0499010334,0.0484535919,-0.0839690304,-0.886786422,-0.0645403791,0.0731792616,0.1700706914,-0.7404459737,0.0680538154,0.0895487896,0.2283934378,0.9289091758,-22.0540713081,3.0295675401,-2.6574532068,-12.001586938,0.7144767732,14.9328464542,-0.7941042105,-2.6463697254,-0.4486779376,0.1001723726,-7.4472013473,-0.1331939621,-5.1284423465,0.9599893539,-0.2088816777,0.9581733854,0.2267131789,0.253116306,-0.2258564134,0.0187935422,0.9522268155,-0.4108685845,-0.1143947268,-0.1178278338,-1.3927542896,0.3462770147,0.0825594433,0.0567545281,-2.5200048333,-2.0043896641,7.804654961,-6.1319761991,3.676264946,1.8429310964,2.1145120553,-0.8543724936,-5.7513226086,0.5338027861,0.1841974396,2.3816885804,0.4920670848,-0.2624472998,0.4116428829,0.3600872575,0.9616302776,6.5632958423,0.8244899196,0.348343095,1.3801735078,-1.8638319599,0.8356450006,0.101019373,0.4435882768,-3.4637910946,0.250278369,0.3569050679,-0.286767091,34.7240385585,25.6124236173,2.3355206172,-7.8602206275,-26.1436193745,-1.41096283,4.0192584606,-0.2229113055,8.2739475801,-0.1279693188,-0.132186824,3.5052535304,-0.2447160357,30.1949116564,-0.0380600537,-0.2148652452,0.8409159651,-19.3891781918,0.0040687954,-0.1035259234,0.0082118506,-5.9492816101,-0.0016472808,-0.181545641,-0.0690113725,-6.6184466999,-0.0717849531,-0.145514953,-0.0307929046,3.3249514229,-3.0376761994,-6.908236654,-0.5523951562,-9.17911808,2.1211594608,7.9670631723,0.6367962791,9.1986370135,-0.2578037452,-0.0467528185,-7.5777582025,0.1477712772,-9.404061627,0.2480466779,-0.0301197435,-2.4599808992,-3.1465024649,-0.7566346548,-0.0856271007,0.1805618757,-0.1674452613,0.6750013032,0.0218074601,0.1906671227,2.046864205,0.370047037,-0.0039304411,0.0774108835,2.1763481581,-10.7175132013,2.3275092721,2.1031352279,-2.8735894317,-5.7966069673,4.3794981198,-0.0473440585
biasActivation=0,1,1
[BASIC:ACTIVATION]
"org.encog.engine.network.activation.ActivationElliottSymmetric",1
"org.encog.engine.network.activation.ActivationElliottSymmetric",1
"org.encog.engine.network.activation.ActivationLinear"
