encog,BasicNetwork,java,3.3.0,1,1469376405135
[BASIC]
[BASIC:PARAMS]
[BASIC:NETWORK]
beginTraining=0
connectionLimit=0
contextTargetOffset=0,0,0
contextTargetSize=0,0,0
endTraining=2
hasContext=f
inputCount=28
layerCounts=2,46,29
layerFeedCounts=2,45,28
layerContextCount=0,0,0
layerIndex=0,2,48
output=0,0,0,0,0,0,0,0,0,0,0,0,0,0,0,0,0,0,0,0,0,0,0,0,0,0,0,0,0,0,0,0,0,0,0,0,0,0,0,0,0,0,0,0,0,0,0,1,0,0,0,0,0,0,0,0,0,0,0,0,0,0,0,0,0,0,0,0,0,0,0,0,0,0,0,0,1
outputCount=2
weightIndex=0,92,1397
weights=-0.0608861972,-0.4170454563,0.2614648015,-0.2092122886,-0.4446194873,0.6619241057,-0.8614744684,0.2005659655,0.3300053747,0.6635912923,0.0490182533,0.7427977468,-0.1374700844,0.0005735934,-0.2097320191,-0.7621919992,-0.2345965217,-0.1300931527,-0.5810488812,-0.4841669273,0.3870194271,-0.4589328801,0.0296262034,0.490005147,0.4994995522,-0.0148087298,-0.1677672179,0.0558271999,1.3662639991,1.055152492,0.1506318451,-1.0900054264,-0.8873527822,-0.4369867192,-0.1787812437,0.2198143535,0.042397004,0.644565475,-0.1715700101,-0.0306407304,0.0070591524,-0.1303435371,-0.146844489,-0.2585688898,-0.0827357076,-0.1226701979,-0.1816623048,0.2834730988,0.2723748811,0.7889677527,-0.0521731993,0.2326340141,-0.4871406061,0.0264785746,-0.0635590887,-0.1241747599,0.8425374908,0.8129301909,0.0982826451,-0.13242557,-0.0855604011,0.4614020165,-0.9410284266,-0.3659766563,-0.0691454583,0.4496189659,-0.4317906603,-0.4649391231,0.1452332751,-0.8074257154,-0.0524597511,0.0108742394,0.4504294458,-0.0556799967,-0.3758835203,-0.7030250696,-0.0263063103,0.456544412,0.0822591829,-1.0401407638,-1.0792580807,-1.4951818049,-0.5238891286,-0.1956244668,0.8107559635,0.0543230056,-0.6865485764,0.2348916114,0.6208260997,0.1310206489,0.2989581428,-0.6452834289,-2.3653011757,-0.4606548577,0.3664791995,0.5692898094,-0.439782211,0.8585430234,0.030212121,0.1853649789,0.8513982161,4.1304037395,-0.6171850537,0.7715746317,-0.2217893553,0.9006230172,0.347679658,0.7489100655,-0.0598140358,2.1815192772,0.1311587825,0.3014388332,-0.2227657534,8.093462816,24.9942637621,-0.4348949508,9.2977511273,-13.6442334231,1.1074009914,-12.3627883079,0.0147556951,0.3506033751,0.7806866313,0.3984792396,-0.1813425748,-0.1602000348,-1.7162478091,-0.6874336169,-0.9083102342,1.8596507282,4.6082817379,-2.7613182805,0.5908952177,-0.4492887801,-0.0408785859,-0.8136095865,0.4886413498,-0.412350004,4.0409275452,-0.4808290547,-0.0480506041,0.6179095829,2.5406782708,-2.6944874419,-1.2310419838,-3.9912915982,-20.0164550356,5.1529768036,-9.0662079397,-0.3321735316,-4.02814658,0.1309098785,0.6005288863,-1.03894243,-0.012136045,0.0181115419,0.2123857814,-0.8345156312,-0.2286557932,-1.3532008607,0.1639626135,0.0947061999,-0.1722017512,-0.9104621609,0.2387701196,-0.0648218277,0.1451315643,-0.6756895355,-0.297779991,-0.5071473868,-0.4927583476,1.7176213398,2.5530054109,0.68942344,1.3126664776,6.0600140141,1.2272607654,8.6600142379,0.8334963218,-4.2491464612,-1.0112726043,-0.1796173318,0.3134552451,-0.1244057135,-1.8557899692,-0.3164305835,-0.9384457242,-0.6192983435,-1.6097715401,-1.1517446326,0.355431484,-0.5594136491,-1.9317477424,-0.7596584366,-0.5458831091,0.2483711547,-1.5835355182,-0.8623863522,-0.7626375657,-0.8055003259,-0.0809890541,-8.2173783496,-0.0592803667,0.2621486724,1.2916241408,-1.489254939,0.6721932055,0.5956238524,-1.3761081118,0.564954995,-0.0533077979,-1.4969229991,-0.0288717843,6.0271337152,0.3071208351,0.4623615007,-0.1809932362,1.2017541781,0.0737756524,0.5508974614,-0.2826792448,-0.1098690237,0.1858652464,-0.0346196674,-0.3049075714,0.7917541934,0.2196763062,0.2418637948,-0.1627501643,4.3758306552,1.2922170581,-0.6738188595,-0.3643516795,-3.8312436176,5.1719820242,-8.3207707721,-0.0585886309,-3.3663436831,0.0591891864,-0.6772100581,-3.7113087673,-0.6774994536,-1.6725235318,0.6161171572,-1.2947939946,-0.1036850896,0.1881054542,0.4857661074,-0.5857900579,-0.4727339561,-0.1700260162,-0.5864902127,-0.6163307181,-0.3147798226,-0.7091987077,-0.5853328294,-0.5777946636,-0.4929121062,0.6040957153,4.3484767247,-0.5378816104,3.7427615086,0.8367939117,0.323807109,-1.8332891556,0.4303489935,2.4984000311,0.1672869873,0.3118329003,4.4114404175,-0.2276935061,-6.9464043175,0.439909189,-0.0236563734,-0.1513552835,-5.3626048718,0.2039405592,0.2578327904,0.1412124755,-2.5075123696,0.2518051011,-0.0396974599,0.1399517165,-1.7900543721,-0.03340477,-0.1481719741,0.0673671107,-1.0686492958,-3.997200437,0.0174262193,-1.2570128816,8.4950699623,-1.1518256772,17.3855668663,-0.6829773637,1.0025085502,-0.257619847,0.7290629666,-2.0029320615,-0.0107851352,0.4130710176,0.0802384577,-0.6969043306,-0.7655818458,-6.639057283,-0.2896961935,-0.210344633,0.0050925305,-1.7498199937,0.5905874214,-0.2621618584,-0.2314932608,-1.3787151177,0.1691036423,0.0817755344,-0.5287573961,13.0621272825,20.9557095759,-0.2519286086,7.4180182143,-0.1781323324,0.5073156273,0.615783772,-0.3442811509,-3.1798455012,-0.323742759,-0.1490026395,-3.9937061598,0.0885561215,5.0475414548,-0.1815527443,-0.0330612125,0.1631971514,-5.3715209728,-0.2461451064,-0.0213052875,-0.0481089982,-1.5414803156,0.1789814162,-0.111342579,-0.1884091104,-1.0664487937,0.4155327251,0.0028229519,-0.3704990278,25.5728744037,20.9803189764,0.2552019317,-0.4449576433,91.7613633307,-74.0059900231,10.7957140945,0.0679450246,1.1580039701,0.6301131334,-0.0510188668,-0.1798358236,0.6354244111,-5.9304801076,-0.3487470503,0.5402876134,1.4580460276,-53.2057308065,0.5296424798,0.6197755848,1.1791115462,-17.1425138007,-0.470400668,0.4926646825,1.1524687417,-6.4891483981,0.480434871,0.3333632618,0.9706609285,15.9282932682,-13.7125383862,0.5650400655,0.8935579084,2.6115518176,-22.6416077156,5.9860261627,-0.7773835693,3.3632339352,0.0091244453,0.2218798279,5.5153588272,0.4407573089,-6.5488097837,-0.1977724523,0.2622226108,0.3870250093,-2.174845313,0.1640538529,0.2656161361,0.5276260278,-0.3521691686,0.6827093178,0.1445782764,0.5261524615,-1.2446421619,0.4465062545,0.0751513697,0.6309565273,-24.9410828974,4.9089941603,-1.3721693846,3.6655257887,-46.7930507306,-0.9540751534,4.5272332393,-1.0433636374,-3.05371341,0.2331659902,0.3764014891,0.2589089709,-0.147207656,7.5806020608,0.3968517642,0.5192356886,-0.4948807401,7.7354837595,0.4149444105,0.3402309203,-1.1334719375,-0.1414034401,-0.2146113796,0.2954076698,-1.0284213767,-0.1868265632,-0.3982860096,-0.2161962275,-1.0110930249,25.6687254659,11.1145267695,-0.5733085023,-4.9930260509,1.6291377682,0.3571146302,9.6987301376,0.6576516387,-1.1163968001,0.4259856768,0.8817504655,0.7545002043,-0.4901391512,-1.142646451,0.2206549346,-0.0231951643,-0.3826085029,-0.2229674419,0.868257774,0.1054522363,-0.8037567815,-0.1875253668,-0.7158388584,0.2581132082,0.9042214391,-0.7549850731,0.293434763,0.5363104909,-0.662323656,-0.0894201907,-0.8250853882,-4.0078012485,-1.0038026903,1.1180917776,-1.8725713699,-1.2632377525,-0.9193186299,-3.4137342516,0.6422270019,-0.9468739566,0.3668528429,-0.1378638803,1.3090487751,0.4222326669,-0.1242286016,-0.5958177168,-0.3538511125,0.8149433682,0.4175063551,0.5850803335,1.2055300392,0.573957861,-0.9820790342,-0.4099399882,0.2758698808,0.5167700073,0.4452713341,-0.5147985277,0.6388633938,0.7182956809,-0.6198887924,0.3668026791,-0.7064732515,0.04380837,-1.1914575436,0.6472977034,-0.8567277371,-0.3669465929,0.3010720862,-0.1572038182,0.1378857512,0.5778293091,-1.019168436,-0.3108808869,-0.6922215062,0.6623705625,0.282169159,-0.1551337099,0.6284347614,1.0948502853,0.8296816406,0.0000165115,0.0539441479,0.3920662937,0.0650834031,0.0614732931,0.1257732538,-0.4366341647,0.3911206376,0.3419271327,0.2161828975,-2.6964195326,0.4188225558,-1.2740339721,-0.0271920418,-1.403737917,-0.3306852164,-0.1396072733,-3.417087425,0.0571482375,-1.0700673648,-0.8134726591,-0.0162503732,-0.6151585781,-0.2774442919,0.4962105689,0.0142181311,-0.4167738742,-2.2753418533,-0.6277153924,-0.0165052022,-0.3532738624,-1.333897019,0.0221149587,-0.0108165824,-0.281393519,-1.4543639299,-0.8783554701,-3.0654642023,-0.4082552714,0.884143452,-18.7039182115,46.3887049902,0.2227234775,-1.2660038874,-0.2680542544,0.2739206629,-0.6885965371,0.4976288867,-9.1722635052,0.6096440985,-0.0089903198,0.070361307,-0.2195933034,0.1113276701,-0.1727017711,0.698056381,0.5832133125,-1.1678902082,-0.0372541777,0.3074127007,0.4608680543,-0.8340631913,-0.5409901142,0.4855579342,-22.4753124624,0.1502149191,0.2640716906,-0.3851169869,0.1749708689,-0.0403369214,-2.3401848237,-1.1067345471,0.1785924295,-1.0956297161,-0.9917715872,0.566000303,0.530926226,-0.3810161823,-0.2450039111,0.6317755588,-1.0805627676,0.6635293606,0.3461902599,-0.1138330974,0.2757888862,-0.8961634325,0.2516000443,-0.9535091729,-0.4583374385,-0.6988312589,-0.725675877,-1.1130226855,-1.2372062268,0.2869783069,-0.3502750191,-1.0192444396,0.507534453,-1.4913479987,-0.2258453218,-0.3419241976,-0.3315232775,-2.0917398672,0.5721097904,-0.6164610138,-27.8061560508,-0.2485737325,0.6863821333,-0.5942205632,0.0572029424,0.932231046,-0.8495331087,-0.0105878784,0.387521852,0.4837774108,3.3237691049,0.026150233,0.7092066943,0.6776431878,3.2953319794,0.1672258868,0.0453070336,0.018094705,-6.3838277532,-3.8283153585,0.5655974137,-1.7145805795,-13.6465248181,-14.1075897954,-1.8719802207,-0.3687688121,-26.4554690916,0.098468979,-0.1960799273,5.1379597937,-0.1626175854,-7.2161232823,0.5688406962,-0.1644875292,-0.0863518075,-8.8877866181,-0.13392293,-0.0987674347,0.1143912177,-1.2845560771,0.0375336766,0.0055803016,-0.1141223351,-1.0851741114,-0.3392415106,0.3213892397,-0.2903893778,23.9124786343,21.5135729637,0.4374555711,14.9794723301,-0.1500884479,0.0005475925,-26.0214169418,0.1064469097,4.2516708811,-0.4766023924,0.7776912598,0.7316544183,0.1822380803,1.689326928,-0.9308304064,-0.1972487405,1.1668949952,-5.1152620977,-0.3906584581,0.3739822997,-0.0197842291,-1.2147307535,0.0974086121,0.6581809852,0.1441400007,-0.0724857042,0.3708789367,-0.1055330776,0.7609326012,-1.5928952756,-2.2830770451,-0.473417411,0.1475432604,-8.0629894269,2.3363650137,-18.9298808036,-0.457062595,-0.3494826739,-1.1529471693,-0.1794771373,-0.7306237691,0.2893351543,0.4338797424,-1.1385394928,-0.4538636583,0.7894667051,-4.8013327423,0.1488705753,-0.0902284043,-1.2640708132,-0.9655493994,-0.4378581184,-0.8187231955,0.4532101041,-1.1359653496,0.2107457035,-0.687772273,0.1020776084,-1.867451436,-0.2143021919,0.4966108953,-1.1143012365,-0.4731207122,-0.4214178268,-5.7540892925,-0.9754806885,0.6704672045,0.0276627736,-0.3918250462,1.1837246349,0.3983502513,-0.5261513509,-0.374779386,0.2414429608,-0.3077039895,-0.2848411152,-0.3881682745,0.7794000077,0.6321695403,-0.6822690408,0.5196780653,-0.0933507024,0.5175519778,2.9433094753,-0.4151545644,-0.0546508909,0.6194554254,-0.8634149181,-0.9464674034,-0.8133678172,-0.2631901469,1.2190926416,5.2783560552,1.6398194797,-0.8370272431,-2.2313837598,0.5557631762,-0.2263244512,-5.4823246233,-0.095302997,10.2072417621,-0.5853231611,-0.0886945991,-1.1275480079,8.0902273632,0.4147469699,-0.0335400327,-1.222160347,1.0588184983,-0.6001733254,-0.1676740421,-1.1667767116,-0.4849318368,-0.1862956285,-0.2073665861,-1.0844761325,18.2585973371,-9.4583688112,-0.2479175987,-15.2166579981,-45.0939697877,109.098405244,0.167366959,-0.516017612,-0.7451541961,-0.3697322704,-0.2147111397,-0.1560114149,-0.3167978482,1.0265585123,-0.2163705523,0.5818427379,-0.509784576,0.3021358157,0.3916593904,0.0948971587,-0.5406404163,-0.4128539416,-0.3615076157,-0.0249011758,-0.5211262879,-1.8121408544,-0.1534451785,0.455322842,-0.3695940592,2.3137902985,5.6609037659,0.02673838,-0.1140586954,2.1352004389,-0.7929967513,3.7112458454,0.4303376672,0.6011621131,0.5765503864,0.4728222288,0.6140584487,0.5209978994,-0.2108738045,-1.0709348195,-0.1812875911,-0.1630739698,0.8071289633,-0.9473064293,-0.0464734636,0.5493426356,-0.4247879552,-0.0531254465,0.777401385,-1.0119403675,-0.1975691717,-0.9984313224,-1.0210268919,0.3519414436,-0.3854309087,0.0674625904,0.191380084,0.1885189953,6.1774997236,-1.7807868804,0.7890657344,0.2827823181,-11.5514272646,-1.0850215078,0.3426021321,-0.3219679988,-0.6897387212,-1.5684420649,0.0633725121,-1.1810252156,-0.0225917524,-1.4999899557,0.1959797305,-1.2031474124,0.5255239501,-0.2285188505,0.4781927971,-0.9827238557,-0.2325151436,-1.407837559,0.1047223699,-1.3986420295,-0.6704302773,1.5834708522,-5.3480909028,0.3724044638,-2.9666296836,1.3109257362,-3.8469593836,1.4619271764,-0.5163783349,-1.2253379184,0.8484399827,0.6313306672,-0.0317697187,-0.9316671649,-0.8546951013,-0.4059176347,0.6471293739,-0.6607026522,-0.9502735791,0.0428003225,-0.8172025445,0.6720445852,-0.3636936034,0.7618205081,-0.5223171429,-0.058388901,-0.7147826406,0.096984724,0.1546910955,-0.8958526649,0.1804132191,1.7446771763,0.6947173533,0.180375211,2.7689378059,-2.1768743412,-0.5149332339,0.5096744885,-0.4453351781,0.2899325955,0.207153658,-4.6121066235,0.179182868,9.0399515336,-0.3460565644,0.2982642652,0.9310021054,6.8216862675,0.1066540302,0.2224343121,0.5601672588,2.8915588678,0.0651167679,0.2099233574,0.4282458187,2.3797133603,0.141297061,0.2665352008,0.3156030836,-32.8536561563,22.5133675543,0.0857172779,12.4533508963,-139.3543039433,40.1710926359,-15.7189600584,3.5297954088,13.3050805363,0.8141112383,0.204170145,12.2105245603,0.3287713994,-44.3940604284,0.6274509371,0.2454929122,0.424200248,11.8212189406,-0.693535442,0.2335949053,0.513430476,0.5871629736,0.1520060478,0.2165717626,0.7076582931,0.4601958768,-0.2171310131,0.2537923695,0.5975441539,47.2435706445,-84.0855608413,-2.7666496331,1.0851019242,-3.5650344231,9.0854282518,-19.043949621,-0.708922823,-2.2901506253,0.5063286198,-0.4880589317,-0.3323562161,0.4042424234,0.6962138318,0.4539730701,-1.0775330731,-0.0001504379,0.2215073427,-0.2218166009,0.7688989313,0.2030447225,-1.2607740836,0.2896470244,-0.0332856967,-0.6728358115,0.419652383,-0.2615440346,-0.2476828415,0.1219716435,1.5428819526,4.0605156194,0.6036798805,-2.2521417808,3.2208893044,0.3835910855,1.2310459157,-0.0914753559,11.2709116308,0.6552802161,0.2921443014,6.5692931292,0.4748072998,-6.7090032197,0.0260610436,0.4778314068,1.0270718918,-2.5993436181,0.2595678447,0.5095647247,0.99206627,2.3122561706,-0.327861352,0.5212386371,0.8104138454,3.1492437211,-0.1157481778,0.3764414796,0.4682627197,-7.8204701009,3.9783974183,-10.1078544269,15.9083473099,-224.3741681438,-0.4210043725,2.9772896008,6.6388040202,17.6100093931,0.1076476167,-0.1142076154,17.6189230254,0.2638722477,-22.4760360599,0.5659503994,0.2297537015,0.5508399502,4.3129610867,-0.5839934548,0.1746917624,0.0495034912,-5.005134662,-0.2012550806,-0.0258629939,0.184268037,-8.6978184569,-0.2324011096,0.1646815345,0.5127429087,9.3155146356,-37.3697075794,-2.4536925726,-24.3361499192,9.345821818,26.8348853197,11.9875793442,1.1980078631,1.6518752658,-0.6070830605,-1.2533193183,-3.8879882382,0.5564454832,-0.3371865357,-0.2979873792,-0.9026646651,-0.8602217781,-0.5803653936,-1.214058464,-1.1269866992,-0.8004580812,-0.9894983742,-0.9740415572,0.4734980807,0.3316711884,-0.0962068889,-0.7876006652,0.5045006542,-0.5379531964,-19.3430849187,0.0718778212,0.4261717068,-1.0940653719,-0.4885602124,-1.1794080642,-5.4130722849,0.2004741661,-0.0157377258,0.6447973808,0.0811303236,1.0386233873,0.4351988762,0.3489573357,-0.7611587093,-0.5986406856,0.0434412454,-0.8533754984,-0.5457736878,-1.0858611989,-0.1635318275,-1.044104661,-1.154386052,-0.80022929,-0.6789462051,-0.7812128837,-0.953459774,0.3601396482,0.2604492174,-1.832796084,0.7962236587,-0.0357979359,0.3773733993,-1.6637971248,-0.1631975378,-0.0597824537,-1.0973462792,-7.5240091581,-0.611174216,0.4152530946,-7.4228111046,0.1649779803,5.0040396354,0.8344754387,0.4675665011,0.3037822612,1.7550388562,0.5953176387,0.4193738175,0.1258970606,0.0061142063,0.1996256334,0.2797952534,-0.0647194277,-0.523222624,0.8187024398,0.1013227887,-0.3021584099,17.428734032,34.785574166,2.7886342134,9.8377932132,-29.5074740714,-1.1123067079,-17.8243979212,1.1003443388,4.0665610912,-0.0140263103,0.3079613575,1.4563963369,-0.1005530048,30.8606572427,0.2995129207,0.0763219853,-0.9393234499,3.8956466606,0.4346360924,0.0979843645,0.0307622377,2.7276352563,0.1925773447,0.1918676608,-0.0301441342,7.1932201065,0.1251387297,0.2215673568,0.00722403,-13.7500400385,34.5989387931,1.3674197367,20.1957644871,-74.8866978436,0.6528499511,-6.538762853,-0.1106784742,6.167368153,-0.2543021092,-0.3613966977,7.3771617955,-0.4915715861,10.228739371,0.3861083674,-0.5030316539,-1.8657062378,15.8780259417,0.0195566589,-0.6270429476,-1.1564706162,5.4651050699,-0.403525452,-0.5002040851,-1.0605167128,-1.7023648831,-0.1556904366,-0.0254890266,-0.9344065859,2.8933619018,-18.1271564846,-1.9522566311,-17.3184930548,7.9309717286,35.7599255841,27.0065064417,-0.3822090955,0.0008763263,1.0042502892,-0.0888099984,1.0794156014,0.5460231635,-1.5476169028,0.8670769366,0.5488443309,-0.4409379088,3.2654305324,-0.7276676208,0.0715658093,0.8807155795,0.264619856,0.0683755834,0.0717499115,-0.3585935871,-0.0299064743,0.8207458657,0.2192562705,0.3501601056,1.1159001304,1.3485769617,-0.0869120536,0.5495460437,2.9400633919,5.6541984852,7.9121660283,0.7634127854,2.0096319008,0.4832449594,0.1996791553,0.1794626814,0.1086617811,-1.885428308,0.2818018676,0.0843186297,-0.3405952346,0.3245566683,-0.3862517805,-0.2387684458,0.740006933,-0.3440779284,1.4716440876,0.0523871231,-0.9541078797,-0.6132778816,0.2795209545,-1.3055886159,-0.5829407094,-0.2434925701,-2.1651832914,0.6207444091,0.2654176993,1.281397898,-0.5263341418,2.6748431207,-0.1387621517,-1.9255534809,0.2539886023,-0.7938551439,-0.8560043772,0.015424081,-0.3451994577,0.2972812866,-1.0719486379,0.194177018,-0.6246861734,-0.0462002606,0.2185198257,-0.6942187493,-0.7306714991,-0.4834197026,0.0622395312,-0.617615625,-3.0469464346,-0.5399578689,0.3497292203,-0.2468295818,0.287956133,1.6446119396,0.6000018129,0.4212549976,-0.8388609623,2.3477933334,-0.6688695506,-0.8451104778,1.1767603636,-0.4417811776,0.3888215318,-5.6924208685,-0.5067381963,-1.3058547139,0.9619742673,-0.658568884,0.9615361048,0.2540789391,0.2571367939,-0.2612952841,-0.0704707553,2.1939235039,-0.435742112,-0.079833703,-0.3485303294,-1.3939977946,0.4914153599,0.458031371,0.3072685749,-0.6599784653,-5.1984962364,4.2366247812,-6.1364191504,3.1551138201,-2.4340402266,2.1235404046,-0.8524115315,2.1390231829,0.7655647215,0.0584223653,3.8164585282,0.457083899,4.1338907014,0.4086906835,0.3555015383,0.7131684956,-0.3111057988,1.1035972658,0.9134766063,0.9640322296,-0.3830851606,0.3472407474,-0.1282664725,-0.2444090384,0.3503257072,0.1652061275,0.0855678104,-0.4200210435,16.0385355747,-0.8434773845,0.7049154213,-6.8028000162,-16.4504429544,0.2057432787,2.579866598,-0.2306299493,5.7724089752,-0.1230546819,0.0163450214,2.4241020658,-0.2763033108,2.0825815087,0.3791778408,0.4916751633,0.280397487,-5.6053716118,0.950211766,-0.617923271,-0.405260205,-2.2022019204,0.3211682883,-0.3146415686,-0.3530430796,-7.536075635,-0.4591701078,0.2787255936,-0.1035923754,1.1823792325,-2.7570592512,-0.711199195,-6.5973301436,1.6511248059,0.2130989106,7.9771091493,0.6615009429,9.2057348136,-0.4534378487,-0.2987388843,-6.8249145656,-0.1108764371,-6.9201672098,0.4602458069,-0.1818749736,-1.3630708988,-2.5715178615,-0.9255756104,-0.1867369827,-0.0278220777,-1.7186258004,-0.4437335501,0.0030223668,0.2112984532,-1.1758358919,0.4692635148,0.4445092226,0.1997649956,0.7084376466,-8.3351973293,1.4498340673,-0.964207183,-0.3959012551,0.6131453019,9.1081295705,-0.0238467139
biasActivation=0,1,1
[BASIC:ACTIVATION]
"org.encog.engine.network.activation.ActivationElliottSymmetric",1
"org.encog.engine.network.activation.ActivationElliottSymmetric",1
"org.encog.engine.network.activation.ActivationLinear"
