encog,BasicNetwork,java,3.3.0,1,1469376504759
[BASIC]
[BASIC:PARAMS]
[BASIC:NETWORK]
beginTraining=0
connectionLimit=0
contextTargetOffset=0,0,0
contextTargetSize=0,0,0
endTraining=2
hasContext=f
inputCount=28
layerCounts=2,46,29
layerFeedCounts=2,45,28
layerContextCount=0,0,0
layerIndex=0,2,48
output=0,0,0,0,0,0,0,0,0,0,0,0,0,0,0,0,0,0,0,0,0,0,0,0,0,0,0,0,0,0,0,0,0,0,0,0,0,0,0,0,0,0,0,0,0,0,0,1,0,0,0,0,0,0,0,0,0,0,0,0,0,0,0,0,0,0,0,0,0,0,0,0,0,0,0,0,1
outputCount=2
weightIndex=0,92,1397
weights=-0.0972210897,-0.4170456563,0.2614861455,-0.2092365446,-0.4487043625,0.6619047297,-0.8614641004,0.3412837255,0.4061763432,0.5799166211,0.0567295293,0.7427993468,-0.1374670425,0.0028519266,-0.1889655747,-0.7959799444,-0.2346022417,-0.1301125287,-0.5810912447,-0.480517287,0.3869622229,-0.4589522561,0.0296296655,0.4981351069,0.4987141353,-0.034540282,-0.1677914739,0.0559459626,1.4564536071,1.051201743,0.1792418569,-1.0922216638,-0.8872861232,-0.4370036952,-0.1788054997,0.2194565188,0.0540041416,0.6447767545,-0.1715506341,-0.0622123785,0.0070443444,-0.1407677331,-0.146823801,-0.2693958164,-0.1311829429,-0.1226532219,-0.1818215884,0.2835005929,0.2723847051,0.7889905172,-0.0520049257,0.2326323802,-0.4869955169,-0.0774963097,-0.1749340035,-0.1256096165,0.8426481535,0.8129471973,0.0982310563,-0.1325654163,-0.1069595509,0.4681344983,-0.9410239866,-0.3659597318,-0.0690792054,0.4497309163,-0.4316951303,-0.4649163586,0.1451685362,-0.9346795938,-0.0512805352,0.0111008827,0.4504485703,-0.0410314153,-0.392678592,-0.8026887267,-0.0539094908,0.358229976,0.0886024524,-1.0401155993,-1.0792353163,-1.4953368636,-0.5240441873,-0.1957545948,0.810730799,0.0757618009,-0.6865322903,0.2387673127,0.6208191832,0.1484574798,0.2989789622,-0.6453061933,-2.36507117,-0.4572400938,0.3665073166,0.1981908308,-0.4394369143,3.4932555861,0.0302940638,0.0722617835,0.8550571196,4.1438980057,-0.6168460943,0.7715139629,-0.1976664207,0.900629781,0.3477864118,0.7054618739,-0.0753576638,2.1814392967,0.1346987497,0.3015401985,-0.2197637656,8.1353902296,35.4210563515,-0.4322636793,16.4897816748,-19.4839333499,1.1433938952,-18.9158163298,0.211440698,0.3503990632,0.780255081,0.3976819322,-0.1814785302,-0.1393501361,-1.7182017361,-0.6895286817,-0.9082493436,1.8593358583,4.6036482918,-2.7613037544,0.5892614114,-0.4496160123,-0.0418525965,-0.8145356269,0.4855049272,-0.4130751144,4.0384702481,-0.480844035,-0.0459853507,0.645626687,2.5407196301,-2.7050364811,-1.2310084616,-3.9912699895,-20.0163799448,5.1529040279,-10.9462649686,-0.3321624975,-4.3726684269,0.1233256307,0.6002213993,-1.3360833568,-0.0117826145,0.0278341366,0.2120189009,-0.8337970652,-0.12842988,-1.3487411251,0.1636546394,0.0903656531,-0.1692121275,-0.9093786722,0.179544181,-0.0648217512,0.1401881602,-0.6753017767,-0.3079218962,-0.5063918676,-0.4915739928,1.7176443886,2.6152037598,0.6894533964,1.3126938249,6.0601703542,1.2272795886,8.7575890564,0.833300338,-4.2490273612,-1.0113563495,-0.1795712003,0.313672039,-0.1241977111,-1.8558661405,-0.3163961969,-0.9384722518,-0.7202658969,-1.6098521959,-1.1517005042,0.3554811158,-0.5592826619,-1.9318008417,-0.7595651774,-0.5457986782,0.2484422874,-1.583561418,-0.862436031,-0.7625286278,-0.775465659,-0.0782945887,-8.2173178539,-0.059273977,0.2621586125,1.2916827972,-1.4896057339,-3.8906861564,0.595628074,-1.3755595089,0.5422753803,-0.058663602,-1.4968842316,-0.0288225543,6.0271006326,0.3072726994,0.3916233888,-0.1809893712,1.2016909671,0.0742021244,0.5490609371,-0.2858919899,-0.1129861179,0.1857678652,-0.0366886444,-0.3065844177,0.7723225178,0.2193287058,0.2418771448,-0.1627906408,4.384215509,1.2893331,-0.6734522563,1.7712500106,-3.8309626052,5.1720599397,-8.3219870667,-0.0583321394,-3.5002650824,0.0593325474,-0.67713531,-3.7168593668,-0.6774904306,-2.205030213,0.6161415031,-1.2948533017,-0.1042784235,0.1877766682,0.4855996132,-0.5858554752,-0.4728065828,-0.1707472051,-0.5864776132,-0.6122355346,-0.3131930118,-0.7096140957,-0.5855159845,-0.5778714374,-0.493105187,0.6180551762,4.4219243015,-0.5378874811,3.7423856059,-1.6417252891,0.3239008423,-1.8332587503,0.4302712446,2.4980143902,0.1586565056,0.2275695608,4.2513553565,-0.2271577146,-6.610768767,0.4396272053,-0.0234391632,-0.1503735665,-5.3507926527,0.2037331513,0.2215617927,0.1133458077,-2.4454865159,0.2483341346,-0.0397923486,0.1046395069,-1.7889159257,-0.0313997619,-0.1480764717,0.0543992567,-1.0686502675,-3.9974382564,0.0171815599,-2.1221751966,8.4948265152,-1.2487968329,19.7523398745,-0.682960267,1.0024791838,-0.2578407638,0.1914933819,-2.0132557088,-0.0137527799,0.4150109597,0.0467832268,-0.696677514,-0.5163101744,-6.634491557,-0.3590905831,-0.2162805815,-0.1538301506,-1.705748132,0.5571486333,-0.2625037643,-0.36053705,-1.377990738,0.1676238305,0.0047697883,-0.5657852957,12.95396435,20.9802254287,-0.254667588,9.8140019396,-0.1778080788,0.5083313575,0.6169155576,-0.3470131799,-1.7937957486,-0.3236387487,-0.1489974833,0.271611942,-0.1839522146,5.0336694141,-0.181747644,-0.0388122612,-0.0954363076,-4.9983665771,-0.2462376235,-0.0559438985,-0.1466505898,-1.5413714831,0.1721261529,-0.1113984263,-0.1977890996,-2.0331412119,0.2662648536,-0.0894929063,-0.0274273305,25.56856766,-1.436080042,0.2552322843,-0.4586680293,123.0716481621,-85.8626605648,9.1694371688,0.0678168233,1.1562964004,0.6276768263,-0.0506862592,-0.1795356307,0.634690657,-6.360100856,-0.3487292893,0.504020263,1.4579543093,-53.2054158344,0.5272042822,0.3996177065,1.2879012814,-17.1119368764,-0.354375964,0.4923521846,1.1545407499,-6.4905692438,0.4803460491,0.3306083815,0.970555571,15.9283290518,-13.712305772,0.5649747245,0.8935076383,2.6098824967,-22.6399073513,7.8591906827,-0.777395557,4.1738403662,0.009008838,0.2218086605,5.5640177468,0.4404930835,-6.6528987936,-0.1970937683,0.2644024148,0.4855525906,-2.17511573,0.1641088322,0.2656530848,0.6663739448,-0.3860705033,0.6824779428,0.1448641482,0.606571998,-1.2463701516,0.446353235,0.1185370052,0.7132968285,-24.9382969243,4.9090297751,-1.3721937492,5.936064758,-57.2709935641,-0.9541799798,4.5274387543,-1.0423610115,-3.502987864,0.2159118404,0.3689614826,-1.7147430508,0.0854254216,7.5813406311,0.3943466051,0.5188750806,-0.4941768783,7.7353710439,0.4148049497,0.3402087704,-0.9598373704,-0.1418300457,-0.2146920026,0.4162374669,-1.028133666,-0.1872252458,-0.3983686664,-0.2153064596,-1.002737052,23.469518125,11.114772637,-0.5525622792,-4.9929953499,1.5776924216,0.3569270465,9.6988929808,0.6576551981,-1.1156166372,0.4252400737,0.8815783278,0.7547455316,-0.4901619756,-1.1428221944,0.2207429917,-0.022919298,-0.3826873566,-0.2230154569,0.8683396946,0.1054916647,-0.8029519757,-0.1882863393,-0.7157603833,0.2580027052,0.9037129172,-0.7570292921,0.2934264526,0.5361531389,-0.6624851704,-0.0891711539,-0.8309027917,-4.0078051684,-1.0036576365,1.1182101409,-1.8729184335,-2.2650242805,-0.9192774393,-4.1120831993,0.6425718327,-0.9467802049,0.3668490793,-0.1377298206,1.316359765,0.4223537454,-0.1241468561,-0.5957679162,-0.3537668906,0.8149626927,0.4180195494,0.6316022126,1.2056073084,0.5739839471,-0.9819270302,-0.2356311799,0.276351939,0.5168247924,0.445257667,-0.5142608756,0.6394146237,0.7184399534,-0.6198342953,0.366709209,-0.7066251496,0.0438715848,-1.190431767,0.6474521589,-0.8425013311,-0.3670845723,0.2998104073,-0.157178911,0.136350497,0.5957577151,-1.0191335615,-0.3107572096,-0.6929521992,0.6623417148,0.2822652381,-0.1537858434,0.6280344044,1.0947690091,0.8296475026,-0.0004931425,0.0538661,0.4219254573,0.0656261084,0.0614604403,0.1262320099,-0.4850610357,0.1768427607,0.3419929504,0.2170205913,-2.6964052222,0.4187652934,-1.2925355523,-0.0271204162,-1.4036853824,-0.3303243508,-0.1394298735,-3.4172345824,0.008253469,-0.9063557277,-0.8059827326,-0.0168365089,-0.615307752,-0.2775266629,0.460758679,0.003186862,-0.4168585386,-2.2749120746,-0.478814183,-0.048332994,-0.3533497328,-1.3341008762,0.0219329244,-0.011104585,-0.2814073321,-1.4542039641,-1.261752144,-3.0657897984,-0.4084793799,0.8797055862,-18.7040368658,46.388788009,0.2220755941,-1.2658944002,-0.2679732603,0.2739752627,-0.6876582466,0.4973038746,-9.17570488,0.609656311,-0.0089634147,0.0708272327,-0.2194078256,0.1114008565,-0.1726183801,0.6749001082,0.5833935871,-1.1677878774,-0.0373028669,0.3076146776,0.4614133266,-0.8336244249,-0.5409603391,0.4856335534,-22.4753771256,0.1503166214,0.2641049953,-0.3850833187,0.1767907441,-0.0401298156,-2.3400918491,-1.1066379005,0.6043024931,-1.0955012542,-0.9918349733,0.5616816885,0.2288329143,-0.380768762,-0.4912686639,0.6316848505,-1.0805472286,2.2653135164,0.3460701837,-0.1138591771,0.2758473307,-0.8961803826,0.2503265507,-0.9535582478,-0.4583202467,-0.7221583055,-0.7255567526,-1.1132444352,-1.3078428668,0.2803491332,-0.3501958226,-1.0192513696,0.5075278069,-1.4915073022,-0.2251184337,0.4620498571,-0.3314778312,-3.306337108,0.5722027686,-0.6156687962,-27.8061695377,0.0571820993,1.3445024214,-0.5930715837,0.0602311694,0.9325643612,-0.8496298976,-0.0098937458,0.3875385436,0.4838664061,3.3238907903,0.0262487967,0.7050661488,0.6396829158,3.2982017031,0.1684044497,0.0468000208,0.0891120138,0.8056041521,-3.8281546013,0.5803461347,-1.7144667729,-13.6461354571,-14.1074141579,-1.8719939498,-0.3636671977,-26.4551721868,0.0984517939,-0.1960267545,5.3536604345,-0.1622715051,-6.7673882222,0.5686130556,-0.1643988952,-0.0864477648,-8.884790814,-0.1338985303,-0.0983651293,0.1144681213,-1.284685261,0.0374554733,0.0061552239,-0.1245797611,-1.0896767468,-0.338605769,0.320770897,-0.2903699568,23.9123821028,21.5114849425,0.4370825296,15.4323391497,-0.1501607068,0.0005873577,-26.0214637298,0.1065199873,4.418976548,-0.4697749401,0.777629613,0.7376246573,0.1823302228,1.691293112,-0.9306735089,-0.1971057779,1.1450182008,-5.1151831966,-0.3906699982,0.3740703155,-0.0152173619,-1.2146678628,0.0974857003,0.5916708028,0.1450828676,-0.0724773791,0.3709750393,-0.1057233066,0.7608851989,-1.5929488287,-2.2836259996,-0.4772024954,0.1474697951,-8.0631494438,2.335830137,-18.9299029816,-0.4570386852,-0.3498197978,-1.152787837,-0.1796309149,-0.3677289365,0.2115270734,0.4338231751,-1.1376364145,-0.4505779576,0.7905103266,-4.8033039693,0.1489053078,-0.0903448418,-1.2643101038,-0.9634863816,-0.4378246103,-0.8189415435,0.4531050074,-1.1341605974,0.2108298816,-0.6877966531,0.0974001664,-1.8692448058,-3.6272511644,0.4964931089,-1.1142971228,-0.4731245471,-0.4214677244,-5.7540748631,-0.9753989514,0.6706334562,0.0275573572,-0.3913616102,1.182299253,0.3983954457,-0.5261243261,-0.3747322819,0.241409068,-0.3078540479,-0.2818865353,-0.3880255787,0.7793205591,0.5708456938,-0.6820570973,0.5197198894,-0.0932510686,0.5173143858,2.9437125161,-0.4151634409,-0.0545202381,0.6194637633,-0.851936678,-0.9463270684,-0.8133039521,-0.2631767386,1.2191605772,5.2784329927,1.6397786391,-0.8370559417,-2.3430723545,0.4461645987,-0.226259744,-5.4843059208,-0.0955523173,10.2072170276,-0.5853441133,-0.0889965036,-0.9778842193,8.0900513914,0.3844920638,-0.0874285555,-1.1095338706,1.0657818279,-0.6000593883,-0.167779107,-1.0260611405,-0.4828341716,-0.1862753919,-0.207283638,-0.9337150291,18.2581527138,-9.4583852183,-0.2479583427,-16.1053473239,-45.0949586417,109.0984711218,0.1667039268,-0.5163926902,-0.903392696,-0.3697058201,-0.1782681283,-0.1561924476,-0.316821199,1.0266012278,-0.2166514804,0.5813756481,-0.5095028429,0.3022742471,0.3914264271,0.0947873456,-0.5407563762,-0.4123967527,-0.3615843009,-0.0241951855,-0.5209856753,-1.8120711621,-0.1535250244,0.3728314497,-0.369952881,2.3127161697,5.6946517707,0.0265581097,-0.1141133916,2.1352735438,-0.7930063139,3.7113372398,0.4301901831,0.6010527893,0.5765284206,0.4727407638,0.6196750683,0.5207938029,-0.2110451603,-1.0709293283,-0.1815041839,-0.1662786911,0.8069171981,-0.9473806734,-0.0465564696,0.5243180636,-0.4248295058,-0.0532187701,0.7755813087,-1.0117333627,-0.198097623,-0.9994259697,-1.0210205414,0.3575007243,-0.3764432927,-0.6646077303,0.1913561656,0.1885240947,6.1774763135,-1.7814901573,-4.0784979274,0.2827199978,-11.5514413446,-1.0855640061,0.3424476614,-0.3218746517,-0.4853076527,-1.5684595506,0.0634438557,-1.1810557834,-0.0237929679,-1.5000660536,0.1960418661,-1.2030557932,0.5255270951,-0.228530808,0.4802425578,-0.9826673906,-0.2325660842,-1.4078191406,0.1047085063,-1.3985816195,-0.6702840433,1.5835154405,-5.3666510834,0.3723437266,-2.9667265806,1.3110022155,-3.8471081622,1.4371551055,-0.5163958126,-1.2481502697,0.9299816549,0.631358903,-0.0947128911,-0.9309430339,-0.8514978827,-0.4058616798,0.6469821134,-0.6510508107,-0.9501974412,0.0415076825,-0.750692928,0.6723078766,-0.3635421355,0.7617427313,-0.5222201118,0.1291742516,-0.7147139507,0.0970108627,0.1546375515,-0.8959453946,0.1796954837,5.4710133295,0.6947637,0.1790288735,2.7688637428,-2.1760388969,0.3663721613,0.5097506515,-0.4459670489,0.2836814685,0.2054142484,-4.6118949052,0.178962106,9.0389905098,-0.3459290947,0.2955696721,0.9109940856,6.5525240206,0.1059477478,0.2183989899,0.5611078776,2.8915873456,0.0637066856,0.1813734664,0.4301911579,2.3778659941,0.1388119766,0.2117258739,0.3145134493,-32.8559185726,22.5334635719,0.0856714065,12.453297014,-139.354251339,40.1730096377,-15.7188973698,3.5294647433,11.7369442901,0.8140419011,0.2888032632,10.7126785329,0.3288745434,-30.8324840792,0.6273977405,0.2485514771,0.4246643155,6.0353820961,-0.6305831658,0.2888383963,0.6129992775,0.587468406,0.2049063408,0.2174555328,0.6933639015,0.4653838936,-0.2084395804,0.2995925713,0.7292717607,51.3586605089,-91.4103078407,-2.7729825052,1.0856112619,-3.5652601374,9.0857225642,-19.0439838993,-0.6972201825,-2.2915951908,0.5067267792,-0.4874613066,-1.6395132969,0.4698596105,0.7347972762,0.4539846064,-1.0771521765,0.014914731,0.2287672212,-0.2218297289,0.7689458827,0.1988604533,-1.2600320867,0.2902893877,-0.0327345713,-0.6149825517,0.4198294383,-0.2614556484,-0.2476430102,0.1212038006,1.5423864921,4.0631007043,0.6037475435,-2.6712906604,3.2212662876,0.3847081331,1.2900500008,-0.0914068939,11.3052911842,0.6550567044,0.291812198,7.9702154375,0.4748122913,-6.7091232096,0.0262258063,0.4780478188,1.0166199841,-2.6004863184,0.2596712727,0.5095364034,0.9899810074,2.311063858,-0.3082197028,0.4213027638,0.8079413666,3.1478560558,-0.1023949321,0.376485068,0.4685272518,-7.8150691533,3.9783176764,-10.6043842822,15.9088813139,-224.3737572936,-0.421408809,0.0209590024,7.0513037886,17.6100423904,0.1073717032,-0.1126084361,16.4075389845,0.2699790442,-22.4713420703,0.5661628693,0.2315747938,0.565916527,3.3184432122,-0.5822951678,0.1752955143,0.1110455223,-5.0006663057,-0.1921457194,-0.0257805596,0.0460363395,-8.4353455113,-0.1261666881,0.1648315212,0.5125875746,9.761518958,-37.3696460963,-2.453707596,-24.123667246,9.3563625302,26.8352928556,12.0036087449,1.2067506877,1.6002828564,-0.6070027621,-1.2533163123,-3.8872525964,0.5556380263,-0.3372574416,-0.2980494168,-0.9026603502,-0.8602683644,-0.5803634736,-1.2140293412,-1.126993991,-0.8009220438,-0.9894337822,-0.9741125476,0.4601537598,0.331517385,-0.0961233673,-0.7875086031,0.5032493119,-0.7428504663,-19.3439120237,0.0717235863,0.4261111529,-1.094147466,-0.4885857852,-1.1794023203,-5.413026928,0.2004832505,-0.0163938496,0.6447694093,0.0711319019,1.0253631624,0.0628183429,0.3490450107,-0.7611700491,-0.5986587689,0.0434456271,-0.8532119617,-0.5457958721,-1.0858532267,-0.1635652341,-1.0441968068,-1.1543351854,-0.8007297582,-0.6788600698,-0.7809553163,-0.9533771608,0.348521461,0.2604224124,-13.7554803259,0.7961880513,-0.0358596801,0.3772835371,-1.6638647089,-0.163109893,-0.0595952166,-1.0973241227,-7.5236397764,-0.6109761855,0.4101881706,-7.42295153,0.1649075629,5.8217293224,0.8192651529,0.4672500631,0.3061210854,1.7550914387,0.5951697819,0.3355877063,0.1264265653,0.0354611617,0.1996608661,0.27943242,-0.1034695148,-0.5230112977,0.6939495954,0.1012374988,-0.3100267232,13.9933256871,34.8350386809,2.788594976,9.8379151785,-29.5784706853,-1.1112796482,-17.8243517622,1.1680719583,4.1002071631,-0.0118771013,0.3069610095,1.4565743198,-0.1004582488,30.8710481783,0.2995479747,0.0764071209,-0.9390578001,4.6878465924,0.4345982061,0.1104810416,0.0318477659,2.7261735881,0.1926234593,0.1919578901,-0.0322694551,6.5063834291,0.1250786243,0.2214668773,-0.0432198957,-15.9247589697,34.6008916507,1.3673532901,19.7183089611,-74.8869546202,0.8171936299,-7.4241280358,0.0663093046,6.1671941174,-0.2545499799,-0.3609946633,7.3756783956,-0.491485197,10.2216864353,0.3861375921,-0.502987618,-1.7339656908,15.8779852772,0.0195027371,-0.6268871845,-1.1560654712,5.4648997559,-0.402800685,-0.4989413853,-1.0571509436,-0.6142828743,-0.1557267972,-0.0331558645,-0.9330209127,-1.7510391405,-18.1271091045,-1.9524834475,-18.6718424507,7.9309827994,35.7600003731,27.0090959481,-0.3827734957,0.0011135723,1.0040616326,-0.0884088129,1.0794043745,0.5461574729,-1.5476407115,0.8671438227,0.5488243112,-0.4408886087,3.2650425936,-0.7272808174,0.0717401089,0.8807508345,0.264667748,0.0686798328,0.0722195795,-0.3586106665,-0.016785033,0.820730737,0.219805859,0.4018538396,1.128427423,1.3487320526,-0.0867262353,0.5496625517,2.9401845845,5.653854705,7.9121322472,0.7634631206,2.0135271555,0.4833248825,0.2001096758,0.2424058537,0.1592338885,-1.8854308371,0.2830168859,0.0844090079,-0.3405105999,0.3245828569,-0.3686594168,-0.235671133,0.7400596415,-0.3482047002,1.4728673139,0.052451609,-0.9541725125,-0.6131562993,0.2795615698,-1.3025629461,-0.5163594097,-0.2219687079,-2.1661855715,0.6208458763,0.2715718668,1.3218743356,-0.5263448834,-1.1837960426,-0.1386688925,-6.1016886662,0.2541237925,-0.793804987,-0.8561109691,0.0153982951,-0.3447785439,0.2973182191,-1.0718801047,0.1942341653,-0.6246186232,-0.0462766885,0.2185396382,-0.6941845674,-0.7306971036,-0.4833980242,0.0622178867,-0.6173165181,-3.0794627917,-0.539845824,0.3447693157,-0.2465910587,0.288643347,1.6446133878,0.600020634,0.4212868125,-0.839006757,2.3492517873,2.2143455593,-0.8450605929,1.1768211416,-0.4461436538,0.3886335002,-5.6929749436,-0.5043969824,-1.3063374088,0.9619151952,-0.6457873243,0.9613841245,0.2537605808,0.2573609185,-0.2613119164,-0.0707769382,2.193682837,-0.4288615992,-0.0798636402,-0.3494724688,-1.3940158101,0.4913043309,0.4579682338,0.2414215217,-0.6598589163,-5.7309691421,4.2376799771,-6.1369464327,3.1550801084,-2.4341273127,2.1229596179,-0.8524999214,2.1394159234,0.7053173601,0.0604770927,3.8168226591,0.4570332469,4.1346690216,0.4086302865,0.3553982537,0.7126535884,-0.3112083445,1.1034596875,0.9133199234,0.9636147685,-0.3882892317,0.3472483537,-0.1225437769,-0.1448138929,0.3473773283,0.1651008599,0.0855175976,-0.4183073974,23.4432868427,-0.8421272814,0.7048296618,-7.0886675743,-16.4507566699,0.205648398,2.5796122323,-0.2307254271,5.7727467478,-0.124905375,0.0155268053,2.7469181824,-0.2770178044,19.1817446411,0.379072439,-0.1988494505,0.2775216547,-17.1794876684,0.7818410261,-0.6176321343,-0.4053123353,-2.3945747256,0.3204657755,-0.3152347735,-0.3544690898,-7.5380905259,-0.4594818473,0.1620466302,-0.1044725417,1.1871329021,-2.8937755127,-0.7130694698,-6.5972643059,1.6509085574,0.2130142902,7.9770392243,0.6612512645,9.2063680539,-0.453472572,-0.2986144658,-6.824925298,-0.1103519002,-6.9201626368,0.460717805,-0.1742882331,-1.3384368942,-2.5737072281,-0.9253608979,-0.174470496,-0.0108140053,-1.7184942239,-0.4433602302,0.0049789526,0.2113922345,-1.1692882691,0.4692114609,0.4445062812,0.1995639705,0.8905755066,-10.6417007861,2.0011110282,-0.3665956739,-0.3944739434,0.5973132155,9.1078126442,-0.0237774981
biasActivation=0,1,1
[BASIC:ACTIVATION]
"org.encog.engine.network.activation.ActivationElliottSymmetric",1
"org.encog.engine.network.activation.ActivationElliottSymmetric",1
"org.encog.engine.network.activation.ActivationLinear"
