encog,BasicNetwork,java,3.3.0,1,1472634899213
[BASIC]
[BASIC:PARAMS]
[BASIC:NETWORK]
beginTraining=0
connectionLimit=0
contextTargetOffset=0,0,0
contextTargetSize=0,0,0
endTraining=2
hasContext=f
inputCount=28
layerCounts=2,46,29
layerFeedCounts=2,45,28
layerContextCount=0,0,0
layerIndex=0,2,48
output=0,0,0,0,0,0,0,0,0,0,0,0,0,0,0,0,0,0,0,0,0,0,0,0,0,0,0,0,0,0,0,0,0,0,0,0,0,0,0,0,0,0,0,0,0,0,0,1,0,0,0,0,0,0,0,0,0,0,0,0,0,0,0,0,0,0,0,0,0,0,0,0,0,0,0,0,1
outputCount=2
weightIndex=0,92,1397
weights=-0.7073276059,-0.2435423645,-0.5139455089,0.6305896892,0.1725898821,0.0878650071,-0.9739774601,0.0861836064,0.5514541581,-0.9572738609,-0.9098679497,-0.2941019833,-0.1007015874,0.5055956116,0.9401582294,0.8534353689,0.3711317807,0.2226538846,0.5068803278,0.297218389,0.5073243265,-0.0428428233,-0.2339882472,0.6155126446,-0.661423548,0.4102015886,-0.4311268995,-0.06322341,0.1788211998,-0.210682259,-0.4123397552,0.2521499402,-0.2930040734,-0.8085696513,-0.5996310553,0.3968406494,0.3992097162,0.3254200123,-0.1605098994,0.2122094096,-0.5517568794,0.2297404189,-0.4133471407,0.2615721662,-0.9034121248,0.4632362318,0.9200548212,0.0186039854,0.8881634726,-0.6759402966,0.4695091228,-0.5011703292,-0.0836029874,-0.083071289,-0.6337538044,0.9740031752,-0.3014665281,0.5926360758,0.7919190019,0.6575180134,-0.6967795924,-0.2582224258,-0.747404464,0.9923403732,-0.2952285345,-0.1034031254,-0.8113274042,-0.8382043126,0.1279880984,-0.4067924964,-0.329482937,0.607116377,-0.2480272886,-0.172738761,0.7504698295,0.7005727054,-0.7926162745,0.3225367906,0.1052797959,-0.676401487,-0.1264049153,-0.3275329049,-0.426116636,-0.4970924445,-0.3049082513,0.9726025411,0.0126314764,-0.9759656962,-0.8076391027,-0.951950061,-0.8632653448,-0.0647363691,0.8301330559,-0.6416327787,0.3916298965,-0.5293686457,-0.1373520152,0.4503124116,-0.5888172145,0.8860689388,-0.4726635226,0.971536756,-0.2277914088,-0.9872154831,-0.5835221745,0.743758044,0.1508626437,-0.5115929246,-0.4647759518,-0.2824749358,-0.0501580975,0.6773023512,0.7766266008,0.8349806359,-0.717263845,0.2068278967,0.4909787546,0.7139619307,-0.6221347533,0.1736412419,0.7308257425,-0.5139770569,-0.7537894789,-0.5359542897,0.7353253675,0.0587946018,0.8132892412,-0.2532880118,-0.7721445639,0.1488053038,-0.4676247146,0.0274376211,-0.2860230225,-0.1222747908,-0.3310248952,0.2809064735,0.2903153079,-0.4192888457,-0.4737564154,0.3991822894,-0.5308498288,0.4517430811,-0.4520360882,-0.6839185726,0.3522093111,0.7566078825,-0.2698309199,0.8191243619,-0.7270399688,-0.7583711747,0.4431796553,0.0281861082,-0.1481151196,-0.9319181007,-0.8106342175,-0.5022008929,-0.5459809451,0.0087690058,-0.7057526927,-0.9194218741,-0.1474758503,0.9132973712,0.2660230942,-0.88636092,0.4563824149,-0.5788392919,0.3566579726,0.2425809221,0.7135471705,-0.9963164837,-0.5448695472,0.5626219636,0.8394950789,-0.0908722013,-0.8793986373,0.4014770468,0.7257202925,0.7062286097,0.8093636778,-0.4696477217,-0.8658966627,0.6726423099,-0.9550413317,-0.1049418161,-0.5248738974,-0.628717792,0.4224766588,0.3833978149,0.2805869491,-0.3711350717,-0.4878573598,-0.7833645295,-0.4980855682,-0.5359209827,0.2923463116,0.0016805162,0.308171487,0.3322080668,0.0186349365,-0.1082673009,-0.3035863672,-0.2320840425,-0.3974361149,-0.8244923766,-0.2462297251,-0.3112959626,-0.6362647552,0.6988985508,-0.2063878744,-0.6275742606,0.6673327531,0.8712871486,-0.1067626761,0.9277974247,-0.7669865894,0.0385357978,0.8743163238,-0.2646443507,0.0174795665,0.2336242377,0.603281575,0.6425782386,-0.7339799867,0.7350745427,-0.2404370666,0.2734412453,0.9485529006,0.5948688652,-0.1162435029,0.0585860492,0.3931941805,-0.3276090689,-0.5521475886,-0.1636377266,0.7591489663,0.4279296475,0.3409650653,-0.832111209,-0.0498436886,0.6045588914,0.3612019336,0.5685525136,0.6783623494,0.9569333061,-0.4306284796,-0.3965920452,0.4063543747,-0.752589796,0.3555526692,0.2299048809,0.053992626,0.8803269722,-0.5637512994,-0.8625971663,0.6282642338,-0.8633397462,-0.6621143324,0.1597313626,0.5683378326,-0.4811065355,-0.0508285547,0.9255244261,-0.324996472,0.253452978,-0.1511530895,-0.7845607672,0.0473605719,0.5179528916,-0.4951969497,0.9290852537,-0.584446591,0.3398254587,0.7393856127,-0.2192341067,-0.1946311434,0.0408764592,0.4105861305,-0.918060272,-0.9221390252,-0.3680911438,-0.508316173,0.9856670306,0.7246299735,0.4091739403,-0.4394672156,-0.6722086159,0.5935521822,0.8162303071,0.6376808499,0.510160318,-0.3801641515,-0.6306647121,-0.7002717979,-0.4131320456,-0.0052664872,0.7025456371,0.2670290798,-0.4899981838,0.7658427925,-0.2551229306,0.9083734858,-0.2403265995,-0.4574371201,0.8815857806,-0.2182537051,-0.2749450884,-0.2807921603,0.9801510779,-0.330332466,-0.3396570385,0.7667745122,0.3656085688,0.2562086086,-0.3617701752,0.2581954937,-0.5119774916,-0.3801461049,-0.4375646412,-0.1061020512,0.1788706122,-0.0798939364,-0.8185215159,-0.9670771617,-0.3844038545,0.2983784592,0.3575642046,-0.5518659855,0.5854472468,-0.4260144315,0.8720318337,0.4163591453,0.4719545513,0.6113683442,0.4587875347,0.3513101902,0.6828593386,0.0817877601,-0.8498468801,-0.803571272,-0.4331263476,-0.6152871128,0.0613999172,-0.0330297883,0.4945859712,-0.8361427943,-0.6308171817,-0.240609405,0.2545166632,-0.7055256517,0.4444674913,0.4598128156,-0.6815110664,-0.032123472,-0.5211168893,0.3311301427,0.8076227981,0.8625225588,0.6415367647,-0.9693612834,-0.4478031143,0.3909139936,0.715904777,0.2905071325,0.3197711552,-0.4853403841,0.7398588504,0.6632841935,0.8827962635,0.7905463698,0.1346192355,-0.1076922396,-0.8848406887,-0.1487410672,0.4851510106,0.1663746323,0.3891064641,-0.1906683452,0.8933336109,-0.3676299395,-0.0166871597,0.2345375347,0.363382074,0.967912286,-0.8740868511,-0.8217275953,-0.2773333759,0.7585547774,0.2988861987,-0.8275337981,-0.1174157836,-0.0473531657,-0.3320979352,-0.8392114429,-0.2182886938,0.9680324823,0.8931906461,0.7372940109,-0.7421638171,0.0147348237,0.4836993642,-0.9058008216,-0.4391128203,-0.9433826473,-0.4914431212,-0.5349520044,-0.2642308258,0.8504029439,0.659448644,0.3400312626,-0.3978607942,0.0063207124,0.2099525836,-0.5013280146,0.9852685473,-0.3365040926,-0.9484522085,-0.310065912,0.8625717874,-0.6949037372,0.7095278625,0.3718207317,0.4534016691,-0.9504889221,0.3971178758,0.0824408988,0.7143941005,0.7031463279,0.7607119014,0.7392864636,0.2041621603,0.0792859249,0.1731023018,-0.9781064563,-0.8019308321,0.9299152776,-0.1403073525,-0.0673598385,-0.0317064124,-0.0926575876,-0.031806483,0.5201823851,0.5289164109,-0.570426137,-0.254921335,-0.7592661388,-0.7901952491,0.8634296933,0.7583577938,-0.1164624843,0.3416380288,-0.1464114814,0.7418743066,0.6580054389,-0.0961065089,0.2558195706,-0.7306629947,0.9251283639,-0.9663049835,0.6106920362,0.7297671975,-0.2029506379,-0.5063545177,-0.4099771414,-0.6694063452,-0.9838770958,0.8273394242,0.1028941994,-0.5756243212,-0.5328118846,0.375467945,0.196239061,-0.2653633364,0.6343341773,0.0487382087,0.6875958622,-0.9167101307,0.3636330173,-0.3604321033,-0.5415998609,0.9169528105,-0.7814149101,-0.2389741062,0.3200266793,0.3780196305,0.899510396,0.8786117847,-0.7549101964,-0.9506049739,-0.2074938804,0.2533034061,-0.4756362725,0.126465418,0.8336851989,-0.311764947,-0.9614822802,0.8025940406,0.0586309788,0.5720049565,0.6731444052,-0.2268064609,0.0320681033,0.4330538251,0.3463691946,0.7358359712,-0.6009812665,0.9232670959,0.3958495368,0.8626412851,0.7866531066,0.3342749793,0.4341630253,0.9346388811,0.3180243937,0.3921499738,0.0627612226,-0.1268539285,-0.7206013073,-0.7818213157,0.108361398,0.8037962635,0.8320322229,-0.4414569161,-0.5383414761,0.839047844,0.0410465347,-0.6563346584,0.4801162456,0.00477779,-0.5395522566,-0.0739575987,0.4492887984,-0.025613481,0.8317546271,0.6405014855,0.6621842453,-0.0312762064,-0.018610599,-0.6402806008,0.9042230634,0.2393248691,0.9942447462,-0.6733566211,-0.0171975363,-0.7062872877,-0.2507397976,0.4034135416,0.4755652121,0.6370156977,-0.8142447807,0.8911450784,0.47365283,0.7235055661,0.0437864364,0.0331243226,-0.481895222,0.8408309234,0.0128414587,0.6736807247,-0.3704085634,-0.1943482604,0.2645766852,0.5823233671,0.6286250852,0.2907507176,-0.3995747257,-0.8452795241,0.9075015404,-0.5848235634,0.6124161584,0.0053546501,0.3068115728,0.7157513232,-0.9676725915,-0.992437036,0.7658419039,0.4603592972,0.4421592035,0.1840131688,-0.5066842616,-0.5345806781,-0.0750515642,-0.395249024,0.4581527303,0.3909143515,-0.4930264522,0.3848377988,0.7082024866,0.6727639742,-0.5391141776,0.2279025307,0.413854491,-0.2872732415,0.5604992431,-0.8420256943,-0.9911584089,-0.0191507277,-0.7203045964,0.7115260417,0.7763808053,-0.5004210103,-0.2112214111,-0.9215079749,-0.2517014082,-0.5587456195,-0.1608014925,-0.0685785108,-0.5345496706,0.6166675711,-0.8187094383,-0.2548993382,-0.7307368461,0.8853786599,-0.8136930403,-0.2893180902,0.0901719141,0.1925295084,-0.8293744851,0.9030766457,-0.5379187715,-0.9366963244,-0.5294299641,-0.7358045987,0.8224733217,-0.3124137421,-0.7176061143,-0.75255287,0.0623356515,0.2161748959,0.7481442233,0.8528015965,0.3577759818,-0.123393672,0.1069287662,-0.0516712128,0.7947349104,0.1271868878,-0.2229060886,-0.763029513,-0.7262574177,-0.2315942723,-0.2054555063,-0.1463146884,-0.2525456578,-0.3575196421,-0.3186915821,-0.346239122,0.5928545272,0.2417034495,0.0042255021,-0.9595113759,0.2328249085,-0.9915055194,0.3356158588,0.791450672,0.1953449646,0.6819895757,0.0997932175,-0.3502053031,-0.0803032376,-0.9162026417,-0.0401361982,0.2820159061,0.4495164699,0.551874515,-0.640211486,0.9087386033,-0.7208866117,0.8554650841,-0.2755012833,0.1753996464,0.5413904623,0.4111332108,-0.9793019101,0.9944781136,-0.3153193542,-0.1656914825,0.1425952051,0.9157063472,0.307932398,0.0746054014,0.1376703387,-0.0864234658,-0.5053812521,0.2131818122,-0.0810103039,0.2023992157,0.5084686701,-0.2303586019,-0.2939112355,0.1478591942,-0.0086657303,0.6541263993,0.0054157147,0.2473155971,0.7140047023,0.271859868,-0.2088591115,-0.2992445416,0.3737351413,0.9510966571,0.6973836738,0.0553833515,-0.9183748125,0.2695555029,0.1818609129,-0.1639968929,0.0285007355,-0.0072039369,-0.2777070709,-0.9300026728,-0.865197243,0.2617449826,-0.0153225839,0.7007858178,0.8200491667,-0.9969066632,-0.7517931492,0.6968279929,-0.0752627206,0.1284874712,0.8629236551,0.8044083874,0.4591410037,-0.1202670764,0.8337303066,0.4034762167,0.01941513,0.9160961139,-0.0328950127,0.7409419076,0.2357380742,0.5159351817,-0.0982115997,0.8297671182,-0.2970782049,0.1196933487,-0.7850625264,-0.6091705019,-0.695290643,-0.491255979,-0.1625122874,-0.5567730004,-0.32072715,0.5640624047,0.3539574631,0.3335837702,-0.4497777368,-0.2935322788,0.1131005893,0.6846300378,-0.673135646,0.1568811289,-0.3573167502,-0.1476887644,-0.1279510936,0.8133575935,0.4587321211,0.7396824716,-0.0311001286,0.8994545124,-0.1267532711,-0.5873589057,0.078665792,-0.9509830813,0.8392931571,-0.0794576112,-0.7120137187,-0.4361004474,-0.8775967214,0.4328588803,0.7789760878,0.4255302043,-0.6880627072,0.4477574402,-0.1194850088,0.1799244138,-0.921267158,-0.8438678458,0.2756602477,-0.9576182976,0.901691332,-0.5588491224,-0.8816387461,-0.7830051887,-0.6663124332,-0.1838597293,-0.0253826899,0.7390182334,-0.8469298652,-0.4540050626,-0.941719916,-0.4734668665,0.8901418439,-0.2538034725,0.5878790807,-0.5968509251,-0.86895965,-0.2201971194,0.0328852004,0.9117279342,0.3244922467,-0.3758245228,0.9798207069,-0.0689600026,-0.7125548287,-0.8153721409,-0.7284468387,0.2753729502,-0.985253605,0.7975888808,0.3663907577,0.7023704983,0.0165967014,0.6512349247,0.7324297925,-0.4593918219,-0.1733047361,-0.6353048365,-0.1842084252,-0.7232925307,0.5765945344,0.3077474301,0.809712152,-0.5600690584,-0.7933220239,-0.3574271111,0.2302807308,-0.6797267215,-0.5288468654,-0.509640809,-0.8512679819,0.3170627593,-0.5941857058,-0.2757025035,0.4128945366,0.3810033946,0.0591278819,0.4045376503,0.6717765358,-0.481775782,-0.1130693293,0.3420593476,-0.736362468,0.456024771,-0.0315040743,0.6806438731,0.1066571327,-0.8516482171,0.7334752626,0.1879844236,0.2242858601,-0.7454519025,-0.5441731229,-0.4424736209,-0.2527619835,-0.6809119064,-0.1347231738,0.9037979201,0.9678842337,-0.5884121387,-0.4170821069,-0.1189861092,-0.5669677675,-0.8000532767,-0.0404757776,0.8017913368,0.7171850887,-0.2983274304,-0.6392040293,-0.9113396742,0.951728886,0.7082983033,-0.8069805294,0.1465182252,-0.1597455119,0.1093367057,-0.4369866658,0.0495214587,-0.1861599717,0.5481044542,0.7064207846,-0.3171685578,-0.4831502667,-0.7624040714,0.2962187435,0.7886750591,0.4846457038,-0.3975990023,-0.1156553129,0.8150436203,-0.0882889756,0.4067168224,-0.7115980848,-0.1820841721,-0.1876736803,-0.7668783418,0.8691676977,0.6159549864,-0.5647819736,-0.661449379,-0.3012688211,-0.7500169907,0.0257084226,0.1669929004,-0.2981448887,0.4708155372,0.4638537625,0.9098408423,-0.3244276507,0.0305349008,-0.8632670625,0.9492765209,0.2729922114,0.8946934486,-0.557861194,0.2964247451,-0.1990707366,0.6407150448,0.3183328519,0.4049106242,-0.5175839262,0.3461512183,-0.207741635,0.0568542163,-0.6147305636,0.705706466,-0.1404488865,-0.6658750996,-0.3869418107,0.5566472559,0.005779989,-0.09534894,-0.7821093828,0.2621220845,-0.2928405458,-0.1296180394,-0.718013926,0.7921524133,0.8845690627,-0.3561095648,-0.8821445265,0.5415875763,0.9574515654,-0.0968854753,0.9925806364,0.9390107511,-0.8571802892,0.7787473863,-0.4387615639,-0.6315624262,-0.8711987883,-0.904684518,-0.0755032572,-0.5311288543,0.8798741217,0.4640085426,0.1314757923,-0.2945600507,-0.7814031958,-0.4328790719,-0.0786025555,-0.9268423936,0.9074874768,0.9231012717,0.3930799445,-0.817781138,0.9300495184,-0.3839150676,0.4220684507,-0.9866776087,-0.2262281631,0.7267971088,-0.2054817976,0.9477108595,0.7538542249,-0.2413080765,0.1981602992,0.2109098328,0.618025894,-0.9321614786,0.2406070796,-0.1050675171,0.056544787,0.429802522,-0.8399103052,0.9185223726,0.1437632832,0.1430076298,-0.6839265316,0.0147555999,-0.0490183884,-0.9217520529,-0.9815080344,-0.4089603919,0.2521009149,0.696314738,-0.4597359163,0.0213848082,0.9013076907,0.0313305374,-0.2276433175,0.6045148484,0.7617225082,-0.942775178,0.3080083025,0.1721256129,0.4924560362,0.6315333224,0.7626686795,-0.3307409455,0.3872270894,-0.297396109,-0.6003064192,0.5972259482,0.6579467358,0.8446030733,0.7288512225,-0.6771938885,-0.8798466948,0.4811213672,0.8750236907,0.9614372565,0.8631615648,-0.436160131,0.5638304616,0.5448038874,0.3160078598,0.2918271699,-0.0369092078,0.9543247995,-0.1774374592,0.3678394438,0.6891845616,0.1887902796,0.5918782316,-0.8520969641,0.5278787978,0.3327187955,0.4390825813,0.8520534739,-0.8424163997,-0.0081486836,0.7752377758,-0.6693403309,-0.5660639918,0.5228494543,0.4046300747,-0.3020711165,0.0511824196,-0.7284321948,0.3028656248,-0.243899537,-0.65522413,-0.619410677,-0.6087540216,0.9742172637,0.2254758863,-0.5769209788,0.5270863104,-0.5876002541,0.8077113622,0.33273848,-0.1665724765,0.2318052859,0.9868392652,-0.3728706935,-0.0889052464,-0.6495740541,0.8370739494,-0.6738775663,-0.75233504,0.9882160689,0.3154668954,0.9711946083,-0.1686874682,-0.2015801501,-0.2831936733,0.5110843926,0.5149853877,0.3387652338,0.7946684681,0.3922436544,-0.9761111395,-0.5233279474,0.8480141907,-0.70440487,-0.6005263385,0.4510693497,0.3431769856,-0.9034903597,-0.6105320218,0.4804994688,-0.4275038577,-0.6331300446,0.5622879224,0.7553407306,-0.8612983236,-0.2205545381,0.1862551233,-0.6150219977,0.6038670115,-0.7230441921,0.0795383647,0.888246078,-0.8246583461,0.4254164457,-0.1995091561,0.5169926088,-0.3014962212,-0.6714902925,0.6081725854,-0.4454178374,-0.8187342862,-0.7785917366,0.2150496187,0.4358823881,0.9815414851,-0.476039376,-0.8366026025,0.9883004972,-0.0374170314,-0.5383356279,-0.2671769034,0.4371509599,-0.244161531,0.2751806021,-0.6653991771,0.1598822014,-0.8934799209,0.9060711139,-0.0939656873,-0.5794710578,-0.2032354183,0.5655898321,0.8646154559,0.5362295939,-0.8680405927,-0.4830286651,-0.4137195833,0.3154547755,0.4198157982,-0.6294380678,-0.4672850149,-0.5680812625,-0.5741400091,0.346589017,0.5484513177,-0.7802477132,-0.5985926749,-0.3367989149,0.3297872335,0.4766098607,-0.0808991927,-0.7324629578,-0.8577509553,-0.1252365293,-0.3134789702,-0.2065539051,0.7888916551,-0.113189738,-0.3513139198,0.8797304583,0.0740727062,0.0379427396,0.1055515764,0.6704341691,-0.3883742758,-0.1673636943,0.9517582193,-0.6897705176,-0.3874665221,-0.4015259119,-0.7991392048,-0.8220586868,0.387355263,0.1586067717,-0.342873725,0.2392100712,0.3871500906,0.9167548165,0.639865699,0.18421787,-0.7845328495,0.0018326641,-0.9990959841,0.3204732116,-0.2965211769,0.8558516974,-0.4734390112,-0.9164278339,-0.5060593129,-0.9395176976,-0.8973517341,0.8095123492,0.9356131134,0.1895694189,-0.7667592448,0.4620949766,-0.9536342868,0.2996979142,0.0556974843,0.8218284628,-0.0389791853,0.2591227229,0.3358906872,0.0094756248,0.295404665,0.1924421037,-0.5889022893,-0.6982233678,-0.4872280584,0.0726618875,0.9504168485,0.7102538513,-0.3028764089,-0.4357054791,-0.1913248042,0.2368864254,-0.4359231007,0.5933344818,-0.9527646911,0.7936238887,0.2905718477,0.005856854,0.4801256044,0.0802102713,-0.6867074539,0.9238953676,0.8765460054,-0.3262989935,0.2168975556,-0.9085386784,-0.7118569591,0.2047821864,-0.7132129764,0.7357013972,0.4303401622,-0.2316321935,0.4817388767,0.5415464727,0.9763701128,-0.2722949767,0.408081745,-0.1821134486,0.0714407628,0.9829483931,0.9196663585,0.8083677684,-0.251467064,0.7122496705,0.7431348669,-0.3234450472,0.5094665908,0.9008517039,0.1111547458,0.5912952529,-0.8525794554,0.9785827141,-0.6703754293,-0.0067174103,0.8550117825,-0.0930557067,-0.9688696084,-0.7576675256,-0.0669163952,-0.9549891836,0.7687661981,-0.0979737766,0.5204774696,0.7294221856,-0.8580380884,-0.7370747191,-0.7562397109,-0.9117957314,-0.8330896669,-0.0600095796,0.5828068791,0.9157749747,0.8964957402,-0.204432393,0.2465205466,0.6588883635,0.3405321078,-0.0113316016,-0.2582052584,-0.6550397393,0.4941538877,0.8705806608,0.8796148876,0.4155080012,0.9823909108,-0.3733645761,-0.0418487466,-0.659193062,-0.7795337427,0.9044141587,0.0127364027,0.0563090696,-0.3650199232,0.4296926512,-0.863106305,0.0276169291,-0.0168719655,-0.3450133185,0.619162803,-0.9944175234,-0.3486302561,-0.8864328887,0.5356366343,-0.5460260617,-0.5965845521,0.4605463259,0.777519404,0.8698663866,0.0586252741,0.9006647689,-0.0942680573,-0.5403861102,0.6052829646,-0.526244426,0.5203809368,0.8607737357,-0.0293860838,-0.0736588327,-0.1602230273,0.1134462636,0.8651609456,0.8547751548,0.6946094167,0.5750246437,-0.2958004972,0.9007213741,-0.1583775505,-0.291471584,-0.5672374446,-0.9567590474,0.2653745014,-0.1289110707,-0.2292471785,0.5043001763,-0.3566334186,0.0686765109,-0.3153348299,-0.3215084615,-0.0739654074,-0.6105164427,-0.658653549,-0.0095204695,-0.8056916565,0.6279341097,-0.3244385858,0.2020927382,0.5546774863,0.2377163478,-0.0657338436,-0.3463865022,-0.5185028355,-0.6604368521,-0.2305350041,-0.1449476966,0.5686231981,-0.5113098992,0.1197352245,-0.0027473169,0.7998411203,0.5292860979,0.9850839496,-0.6732153209,0.625735119,-0.5304253004,0.751382955,-0.1832725075,0.9638590716,-0.675916002,-0.9525875217,-0.9899836786,0.0128841848,0.9726573322,0.5957554673,-0.2471191356,-0.9876884867,0.1399918311,0.1962774065,-0.7032089786,0.2226163968,0.3983211242,-0.9518173015,-0.9686781582,-0.4987239333,-0.7277434291,0.559267471,-0.1751037904,-0.4201432369,-0.1113800291,0.5894453872,-0.1471281747,-0.7042270623
biasActivation=0,1,1
[BASIC:ACTIVATION]
"org.encog.engine.network.activation.ActivationSigmoid"
"org.encog.engine.network.activation.ActivationTANH"
"org.encog.engine.network.activation.ActivationLinear"
