encog,BasicNetwork,java,3.3.0,1,1472634962548
[BASIC]
[BASIC:PARAMS]
[BASIC:NETWORK]
beginTraining=0
connectionLimit=0
contextTargetOffset=0,0,0
contextTargetSize=0,0,0
endTraining=2
hasContext=f
inputCount=28
layerCounts=2,46,29
layerFeedCounts=2,45,28
layerContextCount=0,0,0
layerIndex=0,2,48
output=0,0,0,0,0,0,0,0,0,0,0,0,0,0,0,0,0,0,0,0,0,0,0,0,0,0,0,0,0,0,0,0,0,0,0,0,0,0,0,0,0,0,0,0,0,0,0,1,0,0,0,0,0,0,0,0,0,0,0,0,0,0,0,0,0,0,0,0,0,0,0,0,0,0,0,0,1
outputCount=2
weightIndex=0,92,1397
weights=-0.7073119546,-0.2435267131,-0.5139298576,0.6306053406,0.1725742307,0.0878806584,-0.9739618088,0.0861992578,0.5514385068,-0.9572895122,-0.9098522984,-0.2941176346,-0.1007172387,0.5055799603,0.940142578,0.8534197176,0.3711161294,0.222669536,0.5068959791,0.2972027377,0.5073086752,-0.0428584746,-0.2339725959,0.6155282959,-0.6614078966,0.4102172399,-0.4311425508,-0.0632077587,0.1788368511,-0.2106666077,-0.4123554065,0.2521342889,-0.2930197248,-0.8085853027,-0.5996154039,0.3968563007,0.3992253675,0.3254356636,-0.1605255507,0.2121937583,-0.551741228,0.2297247676,-0.413362792,0.2615878175,-0.9033964735,0.4632205804,0.9200391699,0.0186196367,0.8881791239,-0.6759246453,0.4694934715,-0.5011546779,-0.0835873361,-0.0830556377,-0.6337381531,0.9739875239,-0.3014508768,0.5926204244,0.7919033506,0.6575023621,-0.6967952437,-0.2582380772,-0.7474201153,0.9923560245,-0.2952128832,-0.1034187767,-0.8113430556,-0.8382199639,0.1280037497,-0.4067768451,-0.3294672857,0.6071320283,-0.2480116373,-0.1727544123,0.7504854808,0.7005883567,-0.7926319258,0.3225211393,0.1052641446,-0.6764171383,-0.126389264,-0.3275172536,-0.4261009846,-0.4970767932,-0.3049239027,0.9725868898,0.0126471278,-0.9759813475,-0.807654754,-0.9519344097,-0.8632496934,-0.0647520204,0.8301174046,-0.6416484301,0.3916142452,-0.529384297,-0.1373676665,0.4502967602,-0.5888328658,0.8860532875,-0.4726791739,0.9715211047,-0.2278070602,-0.9872311345,-0.5835378259,0.7437423926,0.1508469924,-0.5116085759,-0.4647916031,-0.2824905872,-0.0501737488,0.6772866999,0.7766109494,0.8349649846,-0.7172794964,0.2068122454,0.4909631033,0.7139462794,-0.6221504047,0.1736255905,0.7308100911,-0.5139927082,-0.7538051303,-0.535969941,0.7353097161,0.0587789505,0.8132735899,-0.2533036631,-0.7721602152,0.1487896525,-0.4676403659,0.0274219698,-0.2860386738,-0.1222904422,-0.3310405465,0.2808908222,0.2902996565,-0.4193044971,-0.4737720667,0.3991666381,-0.5308654802,0.4517274298,-0.4520517395,-0.6839342239,0.3521936597,0.7565922312,-0.2698465712,0.8191087106,-0.7270556202,-0.758386826,0.4431640039,0.0282017595,-0.1481307709,-0.931933752,-0.8106185662,-0.5021852415,-0.5459965964,0.0087846571,-0.705768344,-0.9194375254,-0.1474915017,0.9132817199,0.2660074428,-0.8863452687,0.4563980662,-0.5788549432,0.3566736239,0.2425652708,0.7135315192,-0.9963008323,-0.5448851986,0.5626063122,0.8394794276,-0.0908878526,-0.8794142886,0.4014613955,0.7257046412,0.7062129583,0.8093480264,-0.4696320704,-0.8658810114,0.6726579613,-0.9550256804,-0.1049261647,-0.5248582461,-0.6287021406,0.4224923102,0.3834134663,0.2806026004,-0.3711194204,-0.4878417085,-0.7833488781,-0.4980699169,-0.5359053313,0.292361963,0.0016961676,0.3081871383,0.3322237181,0.0186505878,-0.1082516496,-0.3035707159,-0.2320683912,-0.3974204636,-0.8244767253,-0.2462140737,-0.3112803113,-0.6362491039,0.6989142021,-0.2064035258,-0.6275899119,0.6673171018,0.8712714972,-0.1067783274,0.9277817734,-0.7670022407,0.0385201465,0.8743006725,-0.2646600021,0.0174639152,0.2336085864,0.6032659237,0.6425625873,-0.733995638,0.7350588914,-0.2404527179,0.273425594,0.9485372492,0.5948532139,-0.1162591542,0.0585703979,0.3931785292,-0.3276247202,-0.5521632399,-0.1636533779,0.759133315,0.4279139962,0.340949414,-0.8321268604,-0.04985934,0.60454324,0.3611862823,0.5685368622,0.6783466981,0.9569176547,-0.430644131,-0.3966076965,0.4063387234,-0.7526054474,0.3555370179,0.2298892296,0.0539769747,0.8803113209,-0.5637669507,-0.8626128176,0.6282485825,-0.8633553975,-0.6621299838,0.1597157113,0.5683221813,-0.4811221868,-0.0508442061,0.9255087747,-0.3250121233,0.2534373267,-0.1511687408,-0.7845764185,0.0473449206,0.5179372402,-0.495212601,0.9290696024,-0.5844622424,0.3398098074,0.7393699613,-0.219249758,-0.1946467947,0.0408608079,0.4105704792,-0.9180759233,-0.9221546766,-0.3681067952,-0.5083318243,0.9856513793,0.7246143222,0.4091582889,-0.4394828669,-0.6722242672,0.5935365308,0.8162146558,0.6376651986,0.5101446667,-0.3801798029,-0.6306803635,-0.7002874492,-0.4131476969,-0.0052821385,0.7025612884,0.2670447312,-0.4899825325,0.7658584438,-0.2551072793,0.9083578345,-0.2403109481,-0.4574214688,0.881601432,-0.2182693564,-0.2749294371,-0.2807765089,0.9801354266,-0.3303481173,-0.3396413871,0.7667901635,0.3655929175,0.2561929572,-0.3617545239,0.258211145,-0.5119618402,-0.3801617562,-0.4375489899,-0.1060863999,0.1788862636,-0.0798782851,-0.8185058646,-0.9670615104,-0.3843882031,0.2983628079,0.3575485533,-0.5518816368,0.5854315955,-0.4260300828,0.8720161823,0.4163434939,0.4719389,0.6113526928,0.4587718834,0.3512945388,0.6828436873,0.0817721087,-0.8498625314,-0.8035869233,-0.433141999,-0.6153027641,0.0613842658,-0.0330454396,0.4945703199,-0.8361584456,-0.630832833,-0.2406250563,0.2545010119,-0.705541303,0.44445184,0.4597971643,-0.6815267178,-0.0321391234,-0.521101238,0.331145794,0.8076384495,0.8625382101,0.641552416,-0.969345632,-0.4477874629,0.3909296449,0.7159204283,0.2905227838,0.3197868065,-0.4853247327,0.7398745017,0.6632998448,0.8828119148,0.7905620211,0.1346348869,-0.1076765883,-0.8848250374,-0.1487254158,0.4851666619,0.1663902836,0.3891221154,-0.1906526939,0.8933492622,-0.3676142882,-0.0166715083,0.2345531861,0.3633977253,0.9678966347,-0.8741025024,-0.8217432467,-0.2773490273,0.7585391261,0.2988705474,-0.8275494495,-0.117431435,-0.0473688171,-0.3321135866,-0.8392270942,-0.2183043452,0.9680168309,0.8931749948,0.7372783596,-0.7421794684,0.0147191724,0.4836837128,-0.9058164729,-0.4391284716,-0.9433982987,-0.4914587725,-0.5349676557,-0.2642464771,0.8503872926,0.6594329927,0.3400156113,-0.3978764456,0.0063050611,0.2099682349,-0.5013436659,0.9852528959,-0.3364884413,-0.9484678598,-0.3100815633,0.8625561361,-0.6949193885,0.7095435138,0.3718050804,0.4533860178,-0.9504732707,0.3971022244,0.0824252475,0.7143784492,0.7031306766,0.76069625,0.7392708122,0.204146509,0.0792702736,0.1730866505,-0.9781221076,-0.8019464835,0.9298996263,-0.1403230038,-0.0673441872,-0.0317220637,-0.0926419363,-0.0318221343,0.5201667338,0.5289007595,-0.5704417884,-0.2549369864,-0.7592817901,-0.7902109004,0.863414042,0.7583421425,-0.1164781356,0.3416223774,-0.1464271327,0.7418586552,0.6579897876,-0.0961221602,0.2558039193,-0.730678646,0.9251127126,-0.9663206348,0.6106763849,0.7297515462,-0.2029662893,-0.506370169,-0.4099927927,-0.6694219965,-0.9838927472,0.8273237729,0.1028785481,-0.5756399725,-0.5328275359,0.3754522936,0.1962234097,-0.2653789878,0.6343185259,0.0487225574,0.6875802109,-0.9167257821,0.363617366,-0.3604477547,-0.5416155123,0.9169371591,-0.7814305614,-0.2389897576,0.3200110279,0.3780039791,0.8994947447,0.8785961333,-0.7549258477,-0.9506206252,-0.2075095317,0.2532877547,-0.4756519238,0.1264497666,0.8336695476,-0.3117805983,-0.9614979315,0.8025783893,0.0586153275,0.5719893052,0.6731287538,-0.2268221122,0.0320524519,0.4330381738,0.3463535433,0.7358203198,-0.6009969178,0.9232514445,0.3958338855,0.8626256337,0.7866374553,0.334259328,0.4341473739,0.9346232298,0.3180087423,0.3921343225,0.0627455713,-0.1268695798,-0.7206169587,-0.7818369671,0.1083457467,0.8037806122,0.8320165715,-0.4414725675,-0.5383571274,0.8390321927,0.0410308834,-0.6563503098,0.4801005943,0.0047621386,-0.5395679079,-0.07397325,0.449273147,-0.0256291323,0.8317389757,0.6404858342,0.662168594,-0.0312918578,-0.0186262503,-0.6402962522,0.904207412,0.2393092178,0.9942290948,-0.6733722725,-0.0172131876,-0.706302939,-0.2507554489,0.4033978903,0.4755495608,0.6370000464,-0.814260432,0.891129427,0.4736371786,0.7234899147,0.0437707851,0.0331086713,-0.4819108733,0.840815272,0.0128258074,0.6736650734,-0.3704242147,-0.1943639118,0.2645610339,0.5823077157,0.6286094339,0.2907663689,-0.399590377,-0.8452951755,0.9074858891,-0.5848392148,0.6124005071,0.0053703014,0.3067959215,0.7157356719,-0.9676569402,-0.9924213847,0.7658262525,0.4603436458,0.4421435522,0.1839975175,-0.5066999129,-0.5345963294,-0.0750672156,-0.3952646753,0.458137079,0.3908987002,-0.4930421035,0.3848534501,0.708218138,0.6727796256,-0.5390985263,0.227918182,0.4138701423,-0.2872575902,0.5605148944,-0.842010043,-0.9911427576,-0.0191350764,-0.7202889451,0.711541693,0.7763964567,-0.5004053589,-0.2112057597,-0.9214923236,-0.2516857568,-0.5587299682,-0.1607858412,-0.0685628595,-0.5345340193,0.6166832224,-0.818693787,-0.2548836868,-0.7307211948,0.8853943113,-0.813677389,-0.2893024388,0.0901875655,0.1925451597,-0.8293588338,0.903092297,-0.5379031202,-0.9366806731,-0.5294143127,-0.7357889474,0.822488973,-0.3123980908,-0.717590463,-0.7525372187,0.0623513028,0.2161905472,0.7481598746,0.8528172478,0.3577916331,-0.1233780207,0.1069444175,-0.0516555614,0.7947505617,0.1272025392,-0.2228904372,-0.7630138616,-0.7262417664,-0.2315786209,-0.205439855,-0.146299037,-0.2525300064,-0.3575039907,-0.3186759307,-0.3462234707,0.5928701785,0.2417191008,0.0042411534,-0.9594957246,0.2328405598,-0.9914898681,0.3356315101,0.7914663233,0.195360616,0.6819739243,0.0998088689,-0.3501896518,-0.0802875863,-0.9161869904,-0.0401205468,0.2820315574,0.4495321212,0.5518588636,-0.6401958347,0.9087542546,-0.7208709603,0.8554807354,-0.275485632,0.1754152977,0.5414061137,0.4111488621,-0.9793175614,0.9944937649,-0.3153037029,-0.1657071339,0.1426108565,0.9157219985,0.3079167466,0.0746210528,0.1376546874,-0.0864078145,-0.5053969035,0.2131661609,-0.0810259552,0.2024148671,0.5084843215,-0.2303742532,-0.2938955841,0.1478748455,-0.0086813817,0.6541420506,0.005431366,0.2473312485,0.7140203536,0.2718755193,-0.2088747629,-0.2992601929,0.37371949,0.9510810058,0.6973993252,0.0553677002,-0.9183904639,0.2695398516,0.1818452616,-0.1640125443,0.0284850842,-0.0072195882,-0.2777227222,-0.9300183241,-0.8651815917,0.2617293313,-0.0153382352,0.7008014692,0.8200335154,-0.9969223145,-0.7518088005,0.6968436442,-0.0752783719,0.1284718199,0.8629080038,0.8044240388,0.4591253523,-0.1202827277,0.8337146553,0.4034605654,0.0193994787,0.9160804626,-0.0329106641,0.7409262562,0.2357224229,0.5159195304,-0.098227251,0.8297514668,-0.2970938562,0.1196776974,-0.7850781778,-0.6091861532,-0.6953062944,-0.4912716304,-0.1625279387,-0.5567886517,-0.3207428014,0.5640467533,0.3539418118,0.3335681189,-0.4497933882,-0.2935479301,0.113084938,0.6846143864,-0.6731512973,0.1568654776,-0.3573324016,-0.1477044158,-0.1279667449,0.8133419422,0.4587164697,0.7396668203,-0.0311157799,0.8994701638,-0.1267376198,-0.5873432543,0.0786814433,-0.95096743,0.8393088084,-0.0794419599,-0.7119980674,-0.436084796,-0.8775810701,0.4328745316,0.7789917391,0.4255458556,-0.6880470559,0.4477730916,-0.1194693575,0.1799400651,-0.9212515066,-0.8438521945,0.2756758991,-0.9576026463,0.9017069834,-0.558833471,-0.8816230948,-0.7829895374,-0.6662967818,-0.183844078,-0.0253670385,0.7390338847,-0.8469455165,-0.4540207139,-0.9417355673,-0.4734825179,0.8901261926,-0.2538191238,0.5878634294,-0.5968665764,-0.8689753014,-0.2202127707,0.0328695491,0.9117122829,0.3244765953,-0.3758401742,0.9798050555,-0.068975654,-0.7125704801,-0.8153877923,-0.72846249,0.2753572989,-0.9852692563,0.7975732295,0.3663751064,0.702354847,0.0165810501,0.6512192734,0.7324141412,-0.4594074732,-0.1733203874,-0.6352891851,-0.1841927739,-0.7232768794,0.5766101857,0.3077630814,0.8097278033,-0.5600534071,-0.7933063725,-0.3574114598,0.2302963822,-0.6797110701,-0.5288312141,-0.5096251576,-0.8512523306,0.3170784107,-0.5941700545,-0.2756868522,0.412910188,0.3810190459,0.0591435332,0.4045533017,0.6717921871,-0.4817601307,-0.113053678,0.342074999,-0.7363468166,0.4560404223,-0.031488423,0.6806595244,0.1066414813,-0.8516638684,0.7334596113,0.1879687722,0.2242702088,-0.7454675538,-0.5441887742,-0.4424892722,-0.2527776348,-0.6809275578,-0.1347388251,0.9037822687,0.9678685823,-0.5884277901,-0.4170977583,-0.1190017605,-0.5669834188,-0.800068928,-0.0404914289,0.8017756855,0.7171694374,-0.2983430817,-0.6392196806,-0.9113553255,0.9517132347,0.708282652,-0.8069961807,0.1465025739,-0.1597611633,0.1093210544,-0.4370023172,0.0495058074,-0.186175623,0.5480888029,0.7064051332,-0.3171842091,-0.4831659181,-0.7624197227,0.2962030922,0.7886594078,0.4846300525,-0.3976146536,-0.1156709642,0.815027969,-0.0883046269,0.4067324737,-0.7116137361,-0.1820998234,-0.1876893316,-0.7668939932,0.8691520463,0.6159393351,-0.5647976249,-0.6614650303,-0.3012844725,-0.750032642,0.0256927712,0.166977249,-0.2981292374,0.4708311886,0.4638694138,0.9098564936,-0.3244119993,0.0305505521,-0.8632514112,0.9492921722,0.2730078627,0.8947090999,-0.5578455427,0.2964403964,-0.1990550853,0.6407306962,0.3183485032,0.4049262755,-0.5175682749,0.3461668696,-0.2077259836,0.0568698677,-0.6147149122,0.7057221173,-0.1404332352,-0.6658594483,-0.3869261593,0.5566629073,0.0057956403,-0.0953332887,-0.7820937314,0.2621377358,-0.2928248944,-0.1296023881,-0.7179982747,0.7921680646,0.8845847141,-0.3560939134,-0.8821288751,0.5416032277,0.9574672168,-0.0968698239,0.9925962877,0.9390264024,-0.8571646379,0.7787630376,-0.4387459126,-0.6315467749,-0.8711831369,-0.9046688667,-0.0754876059,-0.531113203,0.879889773,0.4640241939,0.1314914436,-0.2945443994,-0.7813875444,-0.4328634206,-0.0785869042,-0.9268267423,0.9075031281,0.923116923,0.3930955958,-0.8177654867,0.9300651697,-0.3838994163,0.4220841021,-0.9866619574,-0.2262125118,0.7268127602,-0.2054661462,0.9477265108,0.7538698762,-0.2412924252,0.1981759505,0.2109254841,0.6180415454,-0.9321458273,0.2406227309,-0.1050518658,0.0565604383,0.4298181733,-0.8398946539,0.9185380239,0.1437789346,0.1430232811,-0.6839108803,0.0147712512,-0.0490027371,-0.9217677043,-0.9815236857,-0.4089760433,0.2520852636,0.6962990867,-0.4597515676,0.0213691569,0.9012920394,0.0313148861,-0.2276589688,0.6044991971,0.7617068568,-0.9427908293,0.3079926511,0.1721099616,0.4924403848,0.6315176711,0.7626530282,-0.3307565969,0.387211438,-0.2974117603,-0.6003220706,0.5972102969,0.6579310844,0.844587422,0.7288355712,-0.6772095398,-0.8798623461,0.4811057159,0.875039342,0.9614529078,0.8631772161,-0.4361444796,0.563846113,0.5448195387,0.3160235111,0.2918428212,-0.0368935565,0.9543404508,-0.1774218079,0.3678550951,0.689200213,0.1888059309,0.5918938829,-0.8520813128,0.5278944492,0.3327344469,0.4390982326,0.8520691252,-0.8424007483,-0.0081330323,0.7752534272,-0.6693246795,-0.5660483405,0.5228651056,0.404645726,-0.3020554652,0.0511980709,-0.7284165435,0.3028812762,-0.2438838856,-0.6552084786,-0.6193950256,-0.6087383703,0.9742329151,0.2254915376,-0.5769053274,0.5271019617,-0.5875846028,0.8077270135,0.3327541313,-0.1665568251,0.2318209372,0.9868549166,-0.3728550422,-0.088889595,-0.6495584028,0.8370896008,-0.6738619149,-0.7523193886,0.9882317203,0.3154825468,0.9712102597,-0.1686718169,-0.2015644988,-0.283178022,0.5111000439,0.5149697364,0.3387495825,0.7946528167,0.3922280031,-0.9761267908,-0.5233435987,0.8479985394,-0.7044205213,-0.6005419898,0.4510536983,0.3431613343,-0.9035060111,-0.6105476731,0.4804838174,-0.427519509,-0.6331456959,0.5622722711,0.7553250793,-0.8613139749,-0.2205701894,0.186239472,-0.615037649,0.6038513602,-0.7230598434,0.0795227134,0.8882304267,-0.8246739975,0.4254007944,-0.1995248075,0.5170082601,-0.3014805698,-0.6714746412,0.6081882367,-0.4454021861,-0.8187186349,-0.7785760853,0.21506527,0.4358980394,0.9815571364,-0.4760237247,-0.8365869512,0.9883161485,-0.0374013801,-0.5383199765,-0.2671612521,0.4371666113,-0.2441458797,0.2751962534,-0.6653835257,0.1598978528,-0.8934642696,0.9060867652,-0.093950036,-0.5794554065,-0.2032197669,0.5656054834,0.8646311072,0.5362452452,-0.8680249414,-0.4830130138,-0.413703932,0.3154704268,0.4198314495,-0.6294224164,-0.4672693636,-0.5680656111,-0.5741243577,0.3466046684,0.548466969,-0.7802320619,-0.5985770235,-0.3367832636,0.3298028848,0.476625512,-0.0808835414,-0.7324473064,-0.857735304,-0.1252208779,-0.3134633189,-0.2065382538,0.7889073064,-0.1131740867,-0.3512982684,0.8797461096,0.0740883575,0.0379583909,0.1055672278,0.6704498204,-0.3883586245,-0.1673480429,0.9517738706,-0.6897548663,-0.3874508708,-0.4015102606,-0.7991235535,-0.8220430354,0.3873709144,0.158622423,-0.3428580736,0.2392257225,0.3871657419,0.9167704678,0.6398813503,0.1842022187,-0.7845171981,0.0018483155,-0.9990803328,0.3204888629,-0.2965055255,0.8558673488,-0.4734233598,-0.9164121826,-0.5060436615,-0.9395020463,-0.8973360827,0.8095280005,0.9355974621,0.1895537676,-0.7667748961,0.4620793252,-0.9536499381,0.2996822629,0.0556818329,0.8218441141,-0.0389948366,0.2591070715,0.3358750359,0.0094599735,0.2954203164,0.1924264524,-0.5889179406,-0.6982390191,-0.4872437098,0.0726462362,0.9504011972,0.7102382,-0.3028920602,-0.4357211304,-0.1913404555,0.2368707741,-0.4359387521,0.5933188305,-0.9527803424,0.7936082374,0.2905561964,0.0058412027,0.4801099531,0.08019462,-0.6867231052,0.9238797163,0.876530354,-0.3263146448,0.2168819043,-0.9085543297,-0.7118726104,0.204766535,-0.7132286278,0.7356857459,0.4303245108,-0.2316478448,0.4817232254,0.5415308214,0.9763544614,-0.2723106281,0.4080660937,-0.1821290999,0.0714251114,0.9829327417,0.9196507072,0.808352117,-0.2514827153,0.7122340191,0.7431192155,-0.3234606986,0.5094509395,0.9008360526,0.1111390945,0.5912796016,-0.8525951067,0.9785670627,-0.6703910806,-0.0067330616,0.8549961312,-0.093071358,-0.9688852598,-0.7576831769,-0.0669320465,-0.9550048349,0.7687505468,-0.0979894279,0.5204618182,0.7294065343,-0.8580537398,-0.7370903704,-0.7562553623,-0.9118113827,-0.8331053182,-0.060025231,0.5827912277,0.9157593234,0.8964800888,-0.2044480443,0.2465048953,0.6588727122,0.3405164564,-0.0113472529,-0.2582209097,-0.6550553907,0.4941382364,0.8705650094,0.8795992363,0.4155236525,0.9823752595,-0.3733802274,-0.0418643979,-0.6592087133,-0.779549394,0.9043985073,0.0127207514,0.0562934182,-0.3650355745,0.4296769999,-0.8631219564,0.0276012777,-0.0168876168,-0.3450289698,0.6191471516,-0.9944331748,-0.3486459074,-0.88644854,0.5356209829,-0.546041713,-0.5965689008,0.4605619772,0.7775350553,0.8698820379,0.0586409254,0.9006804202,-0.094252406,-0.5403704589,0.6052986159,-0.5262287746,0.5203965881,0.8607893871,-0.0293704325,-0.0736431814,-0.160207376,0.113461915,0.865176597,0.8547908061,0.6946250681,0.575040295,-0.2957848458,0.9007370255,-0.1583618991,-0.2914559327,-0.5672217932,-0.9567433961,0.2653901528,-0.1288954194,-0.2292315271,0.504284525,-0.3566490699,0.0686608595,-0.3153504812,-0.3215241128,-0.0739810587,-0.610532094,-0.6586692003,-0.0095048182,-0.8057073078,0.6279184584,-0.3244542371,0.2020770869,0.5546618349,0.2377006965,-0.0657494949,-0.3464021536,-0.5185184868,-0.6604525035,-0.2305506554,-0.1449633479,0.5686075467,-0.5113255505,0.1197195732,-0.0027629682,0.799825469,0.5292704465,0.9850682983,-0.6732309722,0.6257194677,-0.5304409517,0.7513673037,-0.1832881589,0.9638434202,-0.6759316534,-0.952603173,-0.9899993299,0.0128685334,0.9726416808,0.595739816,-0.247134787,-0.9877041381,0.1399761798,0.1962617551,-0.70322463,0.2226007454,0.3983054729,-0.9518329529,-0.9686938095,-0.4987395847,-0.7277590804,0.5592518197,-0.1751194418,-0.4201588882,-0.1113956804,0.5894297359,-0.147143826,-0.7042427136
biasActivation=0,1,1
[BASIC:ACTIVATION]
"org.encog.engine.network.activation.ActivationSigmoid"
"org.encog.engine.network.activation.ActivationTANH"
"org.encog.engine.network.activation.ActivationLinear"
