encog,BasicNetwork,java,3.3.0,1,1472635216997
[BASIC]
[BASIC:PARAMS]
[BASIC:NETWORK]
beginTraining=0
connectionLimit=0
contextTargetOffset=0,0,0
contextTargetSize=0,0,0
endTraining=2
hasContext=f
inputCount=28
layerCounts=2,46,29
layerFeedCounts=2,45,28
layerContextCount=0,0,0
layerIndex=0,2,48
output=0,0,0,0,0,0,0,0,0,0,0,0,0,0,0,0,0,0,0,0,0,0,0,0,0,0,0,0,0,0,0,0,0,0,0,0,0,0,0,0,0,0,0,0,0,0,0,1,0,0,0,0,0,0,0,0,0,0,0,0,0,0,0,0,0,0,0,0,0,0,0,0,0,0,0,0,1
outputCount=2
weightIndex=0,92,1397
weights=-0.7070178681,-0.2432326267,-0.5136357711,0.630899427,0.1722801443,0.0881747449,-0.9736677223,0.0864933442,0.5511444203,-0.9575835986,-0.9095582119,-0.2944117211,-0.1010113252,0.5052858739,0.9398484916,0.8531256311,0.370822043,0.2229636224,0.5071900656,0.2969086512,0.5070145887,-0.0431525611,-0.2336785095,0.6158223823,-0.6611138102,0.4105113263,-0.4314366373,-0.0629136722,0.1791309376,-0.2103725212,-0.4126494929,0.2518402024,-0.2933138112,-0.8088793891,-0.5993213175,0.3971503871,0.3995194539,0.3257297501,-0.1608196371,0.2118996718,-0.5514471416,0.2294306811,-0.4136568784,0.2618819039,-0.903102387,0.462926494,0.9197450835,0.0189137232,0.8884732103,-0.6756305589,0.469199385,-0.5008605915,-0.0832932496,-0.0827615513,-0.6334440667,0.9736934374,-0.3011567903,0.592326338,0.7916092641,0.6572082757,-0.6970893301,-0.2585321636,-0.7477142018,0.9926501109,-0.2949187967,-0.1037128631,-0.811637142,-0.8385140504,0.1282978362,-0.4064827586,-0.3291731993,0.6074261148,-0.2477175509,-0.1730484987,0.7507795673,0.7008824432,-0.7929260122,0.3222270528,0.1049700581,-0.6767112247,-0.1260951775,-0.3272231671,-0.4258068982,-0.4967827067,-0.3052179891,0.9722928034,0.0129412142,-0.976275434,-0.8079488405,-0.9516403232,-0.862955607,-0.0650461069,0.8298233181,-0.6419425165,0.3913201588,-0.5296783834,-0.1376617529,0.4500026738,-0.5891269522,0.8857592011,-0.4729732604,0.9712270182,-0.2281011466,-0.9875252209,-0.5838319123,0.7434483062,0.1505529059,-0.5119026623,-0.4650856896,-0.2827846736,-0.0504678353,0.6769926134,0.776316863,0.8346708981,-0.7175735828,0.206518159,0.4906690169,0.7136521929,-0.6224444911,0.1733315041,0.7305160047,-0.5142867947,-0.7540992167,-0.5362640275,0.7350156297,0.0584848641,0.8129795034,-0.2535977496,-0.7724543017,0.1484955661,-0.4679344524,0.0271278833,-0.2863327603,-0.1225845286,-0.331334633,0.2805967357,0.2900055701,-0.4195985835,-0.4740661532,0.3988725517,-0.5311595666,0.4514333434,-0.452345826,-0.6842283104,0.3518995733,0.7562981448,-0.2701406577,0.8188146242,-0.7273497066,-0.7586809125,0.4428699175,0.0284958459,-0.1484248574,-0.9322278385,-0.8103244798,-0.5018911551,-0.5462906828,0.0090787435,-0.7060624304,-0.9197316118,-0.1477855881,0.9129876334,0.2657133564,-0.8860511823,0.4566921527,-0.5791490296,0.3569677104,0.2422711844,0.7132374328,-0.9960067459,-0.545179285,0.5623122258,0.8391853412,-0.091181939,-0.8797083751,0.401167309,0.7254105547,0.7059188719,0.80905394,-0.4693379839,-0.865586925,0.6729520477,-0.9547315939,-0.1046320783,-0.5245641596,-0.6284080542,0.4227863966,0.3837075527,0.2808966869,-0.3708253339,-0.487547622,-0.7830547917,-0.4977758305,-0.5356112449,0.2926560494,0.001990254,0.3084812248,0.3325178046,0.0189446743,-0.1079575631,-0.3032766294,-0.2317743048,-0.3971263772,-0.8241826388,-0.2459199873,-0.3109862249,-0.6359550175,0.6992082886,-0.2066976122,-0.6278839984,0.6670230153,0.8709774108,-0.1070724138,0.927487687,-0.7672963272,0.0382260601,0.8740065861,-0.2649540885,0.0171698287,0.2333144999,0.6029718373,0.6422685008,-0.7342897244,0.7347648049,-0.2407468044,0.2731315075,0.9482431628,0.5945591275,-0.1165532407,0.0582763115,0.3928844427,-0.3279188067,-0.5524573264,-0.1639474644,0.7588392285,0.4276199097,0.3406553275,-0.8324209468,-0.0501534264,0.6042491536,0.3608921958,0.5682427758,0.6780526117,0.9566235683,-0.4309382174,-0.396901783,0.4060446369,-0.7528995338,0.3552429314,0.2295951431,0.0536828882,0.8800172344,-0.5640610372,-0.862906904,0.627954496,-0.863649484,-0.6624240702,0.1594216249,0.5680280949,-0.4814162733,-0.0511382925,0.9252146883,-0.3253062098,0.2531432403,-0.1514628273,-0.7848705049,0.0470508342,0.5176431538,-0.4955066874,0.9287755159,-0.5847563288,0.3395157209,0.7390758749,-0.2195438444,-0.1949408811,0.0405667215,0.4102763928,-0.9183700098,-0.922448763,-0.3684008816,-0.5086259108,0.9853572928,0.7243202357,0.4088642025,-0.4397769534,-0.6725183536,0.5932424444,0.8159205693,0.6373711121,0.5098505803,-0.3804738893,-0.6309744499,-0.7005815357,-0.4134417834,-0.005576225,0.7028553749,0.2673388176,-0.489688446,0.7661525303,-0.2548131929,0.908063748,-0.2400168617,-0.4571273824,0.8818955184,-0.2185634428,-0.2746353506,-0.2804824225,0.9798413401,-0.3306422037,-0.3393473007,0.76708425,0.3652988311,0.2558988708,-0.3614604374,0.2585052314,-0.5116677538,-0.3800775347,-0.4372549034,-0.1057923134,0.17918035,-0.0795841986,-0.8182117781,-0.9667674239,-0.3840941167,0.2980687215,0.3572544669,-0.5521757233,0.585137509,-0.4263241693,0.8717220959,0.4160494075,0.4716448135,0.6110586064,0.4584777969,0.3510004524,0.6825496009,0.0814780223,-0.8501566179,-0.8038810098,-0.4334360854,-0.6155968505,0.0610901794,-0.0333395261,0.4942762335,-0.8364525321,-0.6311269195,-0.2409191427,0.2542069255,-0.7058353895,0.4441577535,0.4595030778,-0.6818208042,-0.0324332098,-0.5208071516,0.3314398804,0.8079325359,0.8628322965,0.6418465025,-0.9690515456,-0.4474933765,0.3912237313,0.7162145147,0.2908168703,0.320080893,-0.4850306463,0.7401685882,0.6635939312,0.8831060013,0.7908561076,0.1349289733,-0.1073825018,-0.8845309509,-0.1484313294,0.4854607484,0.1666843701,0.3894162019,-0.1903586074,0.8936433487,-0.3673202017,-0.0163774219,0.2348472725,0.3636918118,0.9676025482,-0.8743965889,-0.8220373331,-0.2776431137,0.7582450396,0.2985764609,-0.8278435359,-0.1177255214,-0.0476629035,-0.332407673,-0.8395211807,-0.2185984316,0.9677227445,0.8928809083,0.7369842732,-0.7424735549,0.014425086,0.4833896264,-0.9061105594,-0.439422558,-0.9436923851,-0.4917528589,-0.5352617421,-0.2645405635,0.8500932061,0.6591389062,0.3397215249,-0.398170532,0.0060109747,0.2102623214,-0.5016377524,0.9849588095,-0.3361943548,-0.9487619463,-0.3103756498,0.8622620496,-0.6952134749,0.7098376003,0.371510994,0.4530919313,-0.9501791843,0.396808138,0.082131161,0.7140843628,0.7028365902,0.7604021636,0.7389767258,0.2038524225,0.0789761871,0.1727925641,-0.978416194,-0.8022405699,0.9296055398,-0.1406170903,-0.0670501007,-0.0320161502,-0.0923478498,-0.0321162208,0.5198726474,0.5286066731,-0.5707358748,-0.2552310728,-0.7595758766,-0.7905049868,0.8631199555,0.758048056,-0.1167722221,0.341328291,-0.1467212192,0.7415645688,0.6576957011,-0.0964162467,0.2555098329,-0.7309727325,0.9248186261,-0.9666147213,0.6103822984,0.7294574597,-0.2032603757,-0.5066642555,-0.4102868792,-0.6697160829,-0.9841868336,0.8270296865,0.1025844616,-0.575934059,-0.5331216224,0.3751582072,0.1959293232,-0.2656730742,0.6340244395,0.0484284709,0.6872861245,-0.9170198685,0.3633232796,-0.3607418411,-0.5419095987,0.9166430727,-0.7817246478,-0.239283844,0.3197169415,0.3777098927,0.8992006582,0.8783020469,-0.7552199342,-0.9509147116,-0.2078036181,0.2529936683,-0.4759460103,0.1261556802,0.8333754611,-0.3120746847,-0.9617920179,0.8022843028,0.0583212411,0.5716952188,0.6728346674,-0.2271161987,0.0317583655,0.4327440873,0.3460594568,0.7355262334,-0.6012910043,0.9229573581,0.395539799,0.8623315473,0.7863433688,0.3339652415,0.4338532875,0.9343291434,0.3177146559,0.391840236,0.0624514849,-0.1271636662,-0.7209110451,-0.7821310535,0.1080516603,0.8034865257,0.8317224851,-0.4417666539,-0.5386512139,0.8387381062,0.040736797,-0.6566443962,0.4798065079,0.0044680522,-0.5398619944,-0.0742673365,0.4489790606,-0.0259232187,0.8314448893,0.6401917477,0.6618745075,-0.0315859442,-0.0189203368,-0.6405903386,0.9039133256,0.2390151313,0.9939350084,-0.6736663589,-0.0175072741,-0.7065970255,-0.2510495354,0.4031038038,0.4752554744,0.6367059599,-0.8145545184,0.8908353406,0.4733430922,0.7231958283,0.0434766986,0.0328145848,-0.4822049598,0.8405211856,0.0125317209,0.673370987,-0.3707183012,-0.1946579982,0.2642669475,0.5820136293,0.6283153474,0.2910604553,-0.3998844634,-0.8455892619,0.9071918026,-0.5851333012,0.6121064207,0.0056643878,0.306501835,0.7154415854,-0.9673628538,-0.9921272982,0.7655321661,0.4600495594,0.4418494657,0.183703431,-0.5069939993,-0.5348904159,-0.075361302,-0.3955587618,0.4578429925,0.3906046137,-0.4933361899,0.3851475366,0.7085122244,0.673073712,-0.5388044399,0.2282122685,0.4141642287,-0.2869635038,0.5608089809,-0.8417159565,-0.9908486711,-0.0188409899,-0.7199948587,0.7118357795,0.7766905431,-0.5001112725,-0.2109116733,-0.9211982371,-0.2513916704,-0.5584358818,-0.1604917547,-0.0682687731,-0.5342399329,0.6169773088,-0.8183997005,-0.2545896004,-0.7304271083,0.8856883977,-0.8133833026,-0.2890083524,0.0904816519,0.1928392461,-0.8290647473,0.9033863835,-0.5376090337,-0.9363865867,-0.5291202263,-0.735494861,0.8227830595,-0.3121040044,-0.7172963766,-0.7522431323,0.0626453893,0.2164846337,0.7484539611,0.8531113342,0.3580857195,-0.1230839342,0.107238504,-0.051361475,0.7950446481,0.1274966256,-0.2225963508,-0.7627197752,-0.7259476799,-0.2312845345,-0.2051457685,-0.1460049506,-0.25223592,-0.3572099043,-0.3183818443,-0.3459293842,0.593164265,0.2420131872,0.0045352399,-0.9592016382,0.2331346462,-0.9911957816,0.3359255966,0.7917604097,0.1956547024,0.6816798379,0.1001029553,-0.3498955653,-0.0799934999,-0.915892904,-0.0398264604,0.2823256439,0.4498262077,0.5515647772,-0.6399017482,0.9090483411,-0.7205768739,0.8557748219,-0.2751915455,0.1757093841,0.5417002001,0.4114429486,-0.9796116478,0.9947878514,-0.3150096164,-0.1660012203,0.1429049429,0.916016085,0.3076226602,0.0749151392,0.1373606009,-0.0861137281,-0.5056909899,0.2128720744,-0.0813200416,0.2027089535,0.5087784079,-0.2306683396,-0.2936014977,0.148168932,-0.0089754681,0.654436137,0.0057254525,0.2476253349,0.7143144401,0.2721696057,-0.2091688493,-0.2995542794,0.3734254036,0.9507869193,0.6976934116,0.0550736137,-0.9186845503,0.2692457651,0.1815511752,-0.1643066307,0.0281909978,-0.0075136747,-0.2780168087,-0.9303124106,-0.8648875052,0.2614352449,-0.0156323217,0.7010955556,0.8197394289,-0.997216401,-0.7521028869,0.6971377307,-0.0755724584,0.1281777335,0.8626139173,0.8047181252,0.4588312659,-0.1205768141,0.8334205688,0.4031664789,0.0191053922,0.9157863762,-0.0332047505,0.7406321698,0.2354283364,0.5156254439,-0.0985213375,0.8294573804,-0.2973879427,0.119383611,-0.7853722642,-0.6094802397,-0.6956003808,-0.4915657168,-0.1628220251,-0.5570827381,-0.3210368878,0.5637526669,0.3536477254,0.3332740324,-0.4500874746,-0.2938420165,0.1127908516,0.6843203,-0.6734453837,0.1565713911,-0.357626488,-0.1479985022,-0.1282608314,0.8130478558,0.4584223833,0.7393727338,-0.0314098664,0.8997642502,-0.1264435334,-0.5870491679,0.0789755298,-0.9506733435,0.8396028948,-0.0791478734,-0.7117039809,-0.4357907096,-0.8772869836,0.4331686181,0.7792858255,0.4258399421,-0.6877529695,0.448067178,-0.119175271,0.1802341516,-0.9209574202,-0.843558108,0.2759699855,-0.9573085599,0.9020010698,-0.5585393846,-0.8813290083,-0.782695451,-0.6660026954,-0.1835499916,-0.0250729521,0.7393279712,-0.847239603,-0.4543148004,-0.9420296537,-0.4737766043,0.8898321061,-0.2541132102,0.587569343,-0.5971606628,-0.8692693878,-0.2205068572,0.0325754626,0.9114181964,0.3241825089,-0.3761342606,0.9795109691,-0.0692697404,-0.7128645665,-0.8156818787,-0.7287565765,0.2750632124,-0.9855633428,0.797279143,0.3660810199,0.7020607606,0.0162869637,0.6509251869,0.7321200547,-0.4597015596,-0.1736144739,-0.6349950987,-0.1838986874,-0.7229827929,0.5769042722,0.3080571678,0.8100218898,-0.5597593206,-0.7930122861,-0.3571173734,0.2305904686,-0.6794169837,-0.5285371276,-0.5093310712,-0.8509582441,0.3173724971,-0.593875968,-0.2753927657,0.4132042744,0.3813131324,0.0594376197,0.4048473881,0.6720862736,-0.4814660442,-0.1127595915,0.3423690854,-0.7360527302,0.4563345088,-0.0311943365,0.6809536109,0.1063473949,-0.8519579549,0.7331655249,0.1876746858,0.2239761223,-0.7457616403,-0.5444828607,-0.4427833586,-0.2530717213,-0.6812216442,-0.1350329116,0.9034881823,0.9675744959,-0.5887218765,-0.4173918447,-0.119295847,-0.5672775052,-0.8003630144,-0.0407855154,0.8014815991,0.716875351,-0.2986371682,-0.6395137671,-0.911649412,0.9514191482,0.7079885655,-0.8072902672,0.1462084874,-0.1600552497,0.109026968,-0.4372964036,0.0492117209,-0.1864697095,0.5477947165,0.7061110468,-0.3174782955,-0.4834600045,-0.7627138092,0.2959090057,0.7883653214,0.484335966,-0.39790874,-0.1159650506,0.8147338825,-0.0885987133,0.4070265602,-0.7119078226,-0.1823939099,-0.187983418,-0.7671880796,0.8688579599,0.6156452487,-0.5650917114,-0.6617591168,-0.3015785589,-0.7503267284,0.0253986848,0.1666831626,-0.2978351509,0.471125275,0.4641635003,0.9101505801,-0.3241179129,0.0308446385,-0.8629573247,0.9495862587,0.2733019492,0.8950031863,-0.5575514562,0.2967344828,-0.1987609989,0.6410247826,0.3186425896,0.405220362,-0.5172741884,0.3464609561,-0.2074318972,0.0571639541,-0.6144208258,0.7060162038,-0.1401391487,-0.6655653618,-0.3866320729,0.5569569937,0.0060897268,-0.0950392022,-0.781799645,0.2624318222,-0.292530808,-0.1293083016,-0.7177041883,0.792462151,0.8848788005,-0.355799827,-0.8818347887,0.5418973141,0.9577613032,-0.0965757375,0.9928903741,0.9393204889,-0.8568705514,0.7790571241,-0.4384518262,-0.6312526884,-0.8708890505,-0.9043747802,-0.0751935195,-0.5308191166,0.8801838595,0.4643182804,0.1317855301,-0.294250313,-0.781093458,-0.4325693341,-0.0782928178,-0.9265326558,0.9077972146,0.9234110095,0.3933896823,-0.8174714003,0.9303592561,-0.3836053298,0.4223781885,-0.9863678709,-0.2259184254,0.7271068466,-0.2051720598,0.9480205973,0.7541639627,-0.2409983387,0.198470037,0.2112195706,0.6183356318,-0.9318517409,0.2409168174,-0.1047577793,0.0568545248,0.4301122598,-0.8396005674,0.9188321103,0.144073021,0.1433173676,-0.6836167938,0.0150653376,-0.0487086507,-0.9220617907,-0.9818177722,-0.4092701297,0.2517911771,0.6960050003,-0.4600456541,0.0210750704,0.900997953,0.0310207996,-0.2279530553,0.6042051106,0.7614127704,-0.9430849158,0.3076985647,0.1718158751,0.4921462984,0.6312235846,0.7623589418,-0.3310506833,0.3869173516,-0.2977058467,-0.600616157,0.5969162105,0.657636998,0.8442933355,0.7285414847,-0.6775036263,-0.8801564325,0.4808116294,0.8753334285,0.9617469943,0.8634713026,-0.4358503932,0.5641401994,0.5451136252,0.3163175975,0.2921369077,-0.0365994701,0.9546345372,-0.1771277214,0.3681491816,0.6894942994,0.1891000173,0.5921879694,-0.8517872263,0.5281885356,0.3330285333,0.4393923191,0.8523632117,-0.8421066619,-0.0078389459,0.7755475136,-0.6690305931,-0.5657542541,0.5231591921,0.4049398125,-0.3017613787,0.0514921574,-0.728122457,0.3031753626,-0.2435897992,-0.6549143922,-0.6191009392,-0.6084442838,0.9745270015,0.2257856241,-0.576611241,0.5273960481,-0.5872905164,0.8080211,0.3330482178,-0.1662627387,0.2321150236,0.987149003,-0.3725609557,-0.0885955086,-0.6492643163,0.8373836872,-0.6735678285,-0.7520253022,0.9885258067,0.3157766332,0.9715043461,-0.1683777304,-0.2012704123,-0.2828839355,0.5113941303,0.5146756499,0.3384554961,0.7943587303,0.3919339167,-0.9764208772,-0.5236376851,0.8477044529,-0.7047146078,-0.6008360762,0.4507596119,0.3428672479,-0.9038000975,-0.6108417596,0.480189731,-0.4278135955,-0.6334397824,0.5619781846,0.7550309928,-0.8616080613,-0.2208642759,0.1859453855,-0.6153317354,0.6035572737,-0.7233539299,0.079228627,0.8879363402,-0.8249680839,0.4251067079,-0.1998188939,0.5173023466,-0.3011864834,-0.6711805547,0.6084823232,-0.4451080997,-0.8184245484,-0.7782819988,0.2153593565,0.4361921259,0.9818512229,-0.4757296382,-0.8362928647,0.9886102349,-0.0371072936,-0.5380258901,-0.2668671657,0.4374606977,-0.2438517933,0.2754903399,-0.6650894393,0.1601919392,-0.8931701832,0.9063808516,-0.0936559495,-0.57916132,-0.2029256805,0.5658995698,0.8649251937,0.5365393317,-0.8677308549,-0.4827189273,-0.4134098455,0.3157645132,0.420125536,-0.62912833,-0.4669752771,-0.5677715247,-0.5738302713,0.3468987548,0.5487610555,-0.7799379754,-0.5982829371,-0.3364891771,0.3300969712,0.4769195985,-0.080589455,-0.73215322,-0.8574412175,-0.1249267915,-0.3131692324,-0.2062441674,0.7892013929,-0.1128800003,-0.351004182,0.8800401961,0.0743824439,0.0382524773,0.1058613142,0.6707439068,-0.388064538,-0.1670539565,0.9520679571,-0.6894607799,-0.3871567843,-0.4012161741,-0.7988294671,-0.821748949,0.3876650008,0.1589165095,-0.3425639872,0.239519809,0.3874598284,0.9170645543,0.6401754368,0.1839081323,-0.7842231117,0.0021424019,-0.9987862464,0.3207829494,-0.2962114391,0.8561614352,-0.4731292734,-0.9161180961,-0.5057495751,-0.9392079598,-0.8970419963,0.8098220869,0.9353033757,0.1892596812,-0.7670689826,0.4617852388,-0.9539440245,0.2993881764,0.0553877465,0.8221382005,-0.0392889231,0.2588129851,0.3355809495,0.009165887,0.2957144028,0.192132366,-0.5892120271,-0.6985331056,-0.4875377962,0.0723521497,0.9501071108,0.7099441136,-0.3031861467,-0.4360152169,-0.191634542,0.2365766877,-0.4362328385,0.593024744,-0.9530744289,0.7933141509,0.29026211,0.0055471163,0.4798158667,0.0799005335,-0.6870171917,0.9235856298,0.8762362676,-0.3266087313,0.2165878178,-0.9088484162,-0.7121666969,0.2044724486,-0.7135227142,0.7353916594,0.4300304244,-0.2319419312,0.481429139,0.5412367349,0.976060375,-0.2726047145,0.4077720073,-0.1824231864,0.071131025,0.9826386553,0.9193566207,0.8080580306,-0.2517768018,0.7119399327,0.7428251291,-0.323754785,0.5091568531,0.9005419662,0.1108450081,0.5909855152,-0.8528891932,0.9782729763,-0.670685167,-0.0070271481,0.8547020447,-0.0933654445,-0.9691793462,-0.7579772634,-0.0672261329,-0.9552989213,0.7684564604,-0.0982835144,0.5201677318,0.7291124479,-0.8583478262,-0.7373844568,-0.7565494487,-0.9121054692,-0.8333994047,-0.0603193174,0.5824971413,0.9154652369,0.8961860024,-0.2047421308,0.2462108088,0.6585786258,0.34022237,-0.0116413394,-0.2585149962,-0.6553494771,0.4938441499,0.870270923,0.8793051499,0.415817739,0.9820811731,-0.3736743139,-0.0421584844,-0.6595027997,-0.7798434805,0.9041044209,0.012426665,0.0559993318,-0.365329661,0.4293829135,-0.8634160428,0.0273071913,-0.0171817032,-0.3453230563,0.6188530652,-0.9947272612,-0.3489399939,-0.8867426265,0.5353268965,-0.5463357995,-0.5962748144,0.4608560637,0.7778291418,0.8701761243,0.0589350118,0.9009745067,-0.0939583195,-0.5400763725,0.6055927023,-0.5259346882,0.5206906746,0.8610834735,-0.029076346,-0.0733490949,-0.1599132896,0.1137560014,0.8654706834,0.8550848925,0.6949191545,0.5753343815,-0.2954907594,0.9010311119,-0.1580678127,-0.2911618462,-0.5669277068,-0.9564493096,0.2656842392,-0.1286013329,-0.2289374407,0.5039904385,-0.3569431564,0.0683667731,-0.3156445677,-0.3218181992,-0.0742751452,-0.6108261804,-0.6589632867,-0.0092107318,-0.8060013942,0.627624372,-0.3247483236,0.2017830005,0.5543677485,0.2374066101,-0.0660435814,-0.34669624,-0.5188125733,-0.6607465899,-0.2308447419,-0.1452574343,0.5683134603,-0.5116196369,0.1194254867,-0.0030570547,0.7995313826,0.5289763601,0.9847742118,-0.6735250586,0.6254253813,-0.5307350382,0.7510732172,-0.1835822453,0.9635493338,-0.6762257398,-0.9528972594,-0.9902934164,0.012574447,0.9723475944,0.5954457296,-0.2474288734,-0.9879982245,0.1396820934,0.1959676687,-0.7035187164,0.222306659,0.3980113864,-0.9521270393,-0.968987896,-0.4990336711,-0.7280531669,0.5589577332,-0.1754135282,-0.4204529747,-0.1116897668,0.5891356494,-0.1474379125,-0.7045368001
biasActivation=0,1,1
[BASIC:ACTIVATION]
"org.encog.engine.network.activation.ActivationSigmoid"
"org.encog.engine.network.activation.ActivationTANH"
"org.encog.engine.network.activation.ActivationLinear"
