encog,BasicNetwork,java,3.3.0,1,1472634919872
[BASIC]
[BASIC:PARAMS]
[BASIC:NETWORK]
beginTraining=0
connectionLimit=0
contextTargetOffset=0,0,0
contextTargetSize=0,0,0
endTraining=2
hasContext=f
inputCount=28
layerCounts=2,46,29
layerFeedCounts=2,45,28
layerContextCount=0,0,0
layerIndex=0,2,48
output=0,0,0,0,0,0,0,0,0,0,0,0,0,0,0,0,0,0,0,0,0,0,0,0,0,0,0,0,0,0,0,0,0,0,0,0,0,0,0,0,0,0,0,0,0,0,0,1,0,0,0,0,0,0,0,0,0,0,0,0,0,0,0,0,0,0,0,0,0,0,0,0,0,0,0,0,1
outputCount=2
weightIndex=0,92,1397
weights=-0.7073233061,-0.2435380646,-0.5139412091,0.630593989,0.1725855822,0.0878693069,-0.9739731603,0.0861879063,0.5514498583,-0.9572781607,-0.9098636499,-0.2941062831,-0.1007058872,0.5055913118,0.9401539296,0.8534310691,0.3711274809,0.2226581844,0.5068846276,0.2972140892,0.5073200267,-0.0428471231,-0.2339839474,0.6155169444,-0.6614192481,0.4102058884,-0.4311311993,-0.0632191102,0.1788254996,-0.2106779592,-0.412344055,0.2521456404,-0.2930083732,-0.8085739511,-0.5996267554,0.3968449492,0.399214016,0.3254243121,-0.1605141992,0.2122051098,-0.5517525796,0.2297361191,-0.4133514405,0.261576466,-0.903407825,0.463231932,0.9200505214,0.0186082852,0.8881677724,-0.6759359968,0.469504823,-0.5011660294,-0.0835986876,-0.0830669892,-0.6337495046,0.9739988754,-0.3014622283,0.5926317759,0.7919147021,0.6575137136,-0.6967838922,-0.2582267256,-0.7474087638,0.992344673,-0.2952242347,-0.1034074252,-0.811331704,-0.8382086124,0.1279923982,-0.4067881966,-0.3294786372,0.6071206768,-0.2480229888,-0.1727430608,0.7504741293,0.7005770052,-0.7926205743,0.3225324908,0.1052754961,-0.6764057868,-0.1264006155,-0.3275286051,-0.4261123362,-0.4970881447,-0.3049125512,0.9725982413,0.0126357762,-0.975969996,-0.8076434025,-0.9519457612,-0.863261045,-0.0647406689,0.8301287561,-0.6416370786,0.3916255967,-0.5293729455,-0.137356315,0.4503081118,-0.5888215143,0.886064639,-0.4726678224,0.9715324562,-0.2277957086,-0.9872197829,-0.5835264743,0.7437537441,0.1508583439,-0.5115972244,-0.4647802516,-0.2824792357,-0.0501623973,0.6772980514,0.7766223009,0.8349763361,-0.7172681449,0.2068235969,0.4909744548,0.7139576309,-0.6221390532,0.1736369421,0.7308214427,-0.5139813567,-0.7537937787,-0.5359585895,0.7353210676,0.058790302,0.8132849414,-0.2532923116,-0.7721488637,0.148801004,-0.4676290144,0.0274333213,-0.2860273223,-0.1222790907,-0.331029195,0.2809021737,0.290311008,-0.4192931456,-0.4737607152,0.3991779896,-0.5308541287,0.4517387813,-0.452040388,-0.6839228724,0.3522050112,0.7566035827,-0.2698352197,0.8191200621,-0.7270442686,-0.7583754745,0.4431753554,0.028190408,-0.1481194194,-0.9319224005,-0.8106299177,-0.5021965931,-0.5459852449,0.0087733056,-0.7057569925,-0.9194261739,-0.1474801502,0.9132930714,0.2660187943,-0.8863566202,0.4563867147,-0.5788435917,0.3566622724,0.2425766223,0.7135428707,-0.9963121839,-0.544873847,0.5626176637,0.8394907791,-0.0908765011,-0.8794029371,0.401472747,0.7257159927,0.7062243098,0.8093593779,-0.4696434219,-0.8658923629,0.6726466098,-0.9550370319,-0.1049375162,-0.5248695976,-0.6287134922,0.4224809586,0.3834021148,0.2805912489,-0.3711307719,-0.48785306,-0.7833602296,-0.4980812684,-0.5359166829,0.2923506114,0.001684816,0.3081757868,0.3322123666,0.0186392363,-0.1082630011,-0.3035820674,-0.2320797427,-0.3974318151,-0.8244880768,-0.2462254253,-0.3112916628,-0.6362604554,0.6989028506,-0.2063921743,-0.6275785604,0.6673284533,0.8712828487,-0.1067669759,0.9277931249,-0.7669908892,0.038531498,0.874312024,-0.2646486506,0.0174752667,0.2336199379,0.6032772752,0.6425739388,-0.7339842865,0.7350702429,-0.2404413664,0.2734369455,0.9485486007,0.5948645654,-0.1162478027,0.0585817494,0.3931898807,-0.3276133687,-0.5521518884,-0.1636420264,0.7591446665,0.4279253477,0.3409607655,-0.8321155089,-0.0498479885,0.6045545916,0.3611976338,0.5685482138,0.6783580496,0.9569290063,-0.4306327794,-0.396596345,0.4063500749,-0.7525940958,0.3555483694,0.2299005811,0.0539883262,0.8803226724,-0.5637555992,-0.8626014661,0.628259934,-0.863344046,-0.6621186323,0.1597270628,0.5683335328,-0.4811108353,-0.0508328546,0.9255201262,-0.3250007718,0.2534486782,-0.1511573893,-0.784565067,0.0473562721,0.5179485917,-0.4952012495,0.9290809539,-0.5844508908,0.3398211589,0.7393813129,-0.2192384065,-0.1946354432,0.0408721594,0.4105818307,-0.9180645718,-0.9221433251,-0.3680954436,-0.5083204728,0.9856627308,0.7246256737,0.4091696405,-0.4394715154,-0.6722129157,0.5935478824,0.8162260073,0.6376765501,0.5101560182,-0.3801684514,-0.630669012,-0.7002760977,-0.4131363454,-0.005270787,0.7025499369,0.2670333796,-0.489993884,0.7658470923,-0.2551186308,0.908369186,-0.2403222996,-0.4574328203,0.8815900804,-0.2182580049,-0.2749407886,-0.2807878604,0.9801467781,-0.3303367658,-0.3396527386,0.766778812,0.365604269,0.2562043087,-0.3617658754,0.2581997935,-0.5119731918,-0.3801504047,-0.4375603414,-0.1060977514,0.1788749121,-0.0798896366,-0.8185172161,-0.9670728619,-0.3843995546,0.2983741594,0.3575599048,-0.5518702853,0.585442947,-0.4260187313,0.8720275339,0.4163548454,0.4719502515,0.6113640443,0.4587832349,0.3513058904,0.6828550388,0.0817834602,-0.8498511799,-0.8035755718,-0.4331306475,-0.6152914126,0.0613956173,-0.0330340881,0.4945816714,-0.8361470941,-0.6308214815,-0.2406137048,0.2545123634,-0.7055299515,0.4444631915,0.4598085158,-0.6815153662,-0.0321277719,-0.5211125895,0.3311344425,0.807627098,0.8625268586,0.6415410645,-0.9693569836,-0.4477988144,0.3909182934,0.7159090768,0.2905114323,0.319775455,-0.4853360842,0.7398631502,0.6632884933,0.8828005633,0.7905506696,0.1346235354,-0.1076879398,-0.8848363889,-0.1487367673,0.4851553104,0.1663789321,0.3891107639,-0.1906640454,0.8933379107,-0.3676256397,-0.0166828598,0.2345418346,0.3633863738,0.9679079862,-0.8740911509,-0.8217318951,-0.2773376757,0.7585504776,0.2988818989,-0.827538098,-0.1174200835,-0.0473574655,-0.3321022351,-0.8392157427,-0.2182929937,0.9680281825,0.8931863463,0.7372897111,-0.7421681169,0.0147305239,0.4836950644,-0.9058051214,-0.4391171201,-0.9433869472,-0.491447421,-0.5349563042,-0.2642351256,0.8503986441,0.6594443442,0.3400269628,-0.3978650941,0.0063164126,0.2099568834,-0.5013323144,0.9852642475,-0.3364997928,-0.9484565083,-0.3100702118,0.8625674876,-0.694908037,0.7095321623,0.3718164319,0.4533973693,-0.9504846222,0.397113576,0.082436599,0.7143898007,0.7031420281,0.7607076015,0.7392821638,0.2041578605,0.0792816251,0.173098002,-0.9781107561,-0.8019351319,0.9299109778,-0.1403116523,-0.0673555387,-0.0317107122,-0.0926532878,-0.0318107828,0.5201780853,0.5289121111,-0.5704304369,-0.2549256349,-0.7592704386,-0.7901995489,0.8634253935,0.758353494,-0.1164667841,0.341633729,-0.1464157812,0.7418700067,0.6580011391,-0.0961108087,0.2558152708,-0.7306672945,0.9251240641,-0.9663092833,0.6106877364,0.7297628977,-0.2029549378,-0.5063588175,-0.4099814412,-0.669410645,-0.9838813956,0.8273351244,0.1028898996,-0.575628621,-0.5328161844,0.3754636451,0.1962347612,-0.2653676363,0.6343298774,0.0487339089,0.6875915624,-0.9167144306,0.3636287175,-0.3604364031,-0.5416041607,0.9169485107,-0.7814192099,-0.2389784061,0.3200223795,0.3780153307,0.8995060962,0.8786074848,-0.7549144962,-0.9506092737,-0.2074981802,0.2532991063,-0.4756405723,0.1264611181,0.8336808991,-0.3117692468,-0.96148658,0.8025897408,0.058626679,0.5720006567,0.6731401053,-0.2268107607,0.0320638034,0.4330495253,0.3463648948,0.7358316714,-0.6009855663,0.923262796,0.395845237,0.8626369853,0.7866488068,0.3342706795,0.4341587255,0.9346345813,0.3180200938,0.392145674,0.0627569228,-0.1268582283,-0.7206056071,-0.7818256156,0.1083570982,0.8037919637,0.8320279231,-0.441461216,-0.5383457759,0.8390435442,0.0410422349,-0.6563389583,0.4801119458,0.0047734902,-0.5395565564,-0.0739618985,0.4492844986,-0.0256177808,0.8317503273,0.6404971857,0.6621799455,-0.0312805062,-0.0186148988,-0.6402849007,0.9042187636,0.2393205693,0.9942404463,-0.6733609209,-0.0172018361,-0.7062915875,-0.2507440974,0.4034092418,0.4755609123,0.6370113979,-0.8142490805,0.8911407786,0.4736485301,0.7235012662,0.0437821366,0.0331200228,-0.4818995218,0.8408266236,0.0128371589,0.6736764249,-0.3704128632,-0.1943525602,0.2645723854,0.5823190672,0.6286207854,0.2907550174,-0.3995790255,-0.8452838239,0.9074972406,-0.5848278632,0.6124118586,0.0053589499,0.306807273,0.7157470234,-0.9676682917,-0.9924327362,0.7658376041,0.4603549973,0.4421549037,0.184008869,-0.5066885614,-0.5345849779,-0.075055864,-0.3952533238,0.4581484305,0.3909100517,-0.493030752,0.3848420986,0.7082067865,0.672768274,-0.5391098778,0.2279068305,0.4138587908,-0.2872689417,0.5605035429,-0.8420213945,-0.9911541091,-0.0191464279,-0.7203002966,0.7115303415,0.7763851052,-0.5004167104,-0.2112171113,-0.9215036751,-0.2516971083,-0.5587413197,-0.1607971927,-0.068574211,-0.5345453708,0.6166718709,-0.8187051385,-0.2548950383,-0.7307325463,0.8853829598,-0.8136887405,-0.2893137903,0.090176214,0.1925338082,-0.8293701853,0.9030809455,-0.5379144717,-0.9366920246,-0.5294256643,-0.7358002989,0.8224776215,-0.3124094423,-0.7176018145,-0.7525485702,0.0623399513,0.2161791957,0.7481485231,0.8528058963,0.3577802816,-0.1233893722,0.106933066,-0.051666913,0.7947392102,0.1271911876,-0.2229017888,-0.7630252132,-0.7262531179,-0.2315899725,-0.2054512065,-0.1463103885,-0.2525413579,-0.3575153422,-0.3186872823,-0.3462348222,0.592858827,0.2417077493,0.0042298019,-0.9595070761,0.2328292083,-0.9915012196,0.3356201586,0.7914549718,0.1953492645,0.6819852759,0.0997975174,-0.3502010033,-0.0802989378,-0.9161983419,-0.0401318983,0.2820202059,0.4495207697,0.5518702152,-0.6402071862,0.9087429031,-0.7208823119,0.8554693839,-0.2754969835,0.1754039462,0.5413947621,0.4111375106,-0.9793062099,0.9944824134,-0.3153150544,-0.1656957823,0.142599505,0.915710647,0.3079280982,0.0746097013,0.1376660389,-0.086419166,-0.505385552,0.2131775124,-0.0810146037,0.2024035155,0.5084729699,-0.2303629017,-0.2939069356,0.147863494,-0.0086700302,0.6541306991,0.0054200145,0.2473198969,0.7140090021,0.2718641678,-0.2088634114,-0.2992488414,0.3737308415,0.9510923573,0.6973879737,0.0553790517,-0.9183791124,0.2695512031,0.1818566131,-0.1640011927,0.0284964357,-0.0072082367,-0.2777113707,-0.9300069726,-0.8651929432,0.2617406828,-0.0153268837,0.7007901177,0.8200448669,-0.996910963,-0.751797449,0.6968322927,-0.0752670204,0.1284831714,0.8629193553,0.8044126873,0.4591367039,-0.1202713762,0.8337260068,0.4034719169,0.0194108302,0.9160918141,-0.0328993126,0.7409376077,0.2357337744,0.5159308819,-0.0982158995,0.8297628184,-0.2970825047,0.1196890489,-0.7850668262,-0.6091748017,-0.6952949428,-0.4912602788,-0.1625165872,-0.5567773002,-0.3207314499,0.5640581049,0.3539531633,0.3335794704,-0.4497820366,-0.2935365786,0.1130962895,0.6846257379,-0.6731399458,0.1568768291,-0.35732105,-0.1476930642,-0.1279553934,0.8133532937,0.4587278212,0.7396781718,-0.0311044284,0.8994588122,-0.1267489713,-0.5873546059,0.0786700918,-0.9509787815,0.8392974569,-0.0794533114,-0.7120094189,-0.4360961476,-0.8775924216,0.4328631801,0.7789803876,0.4255345041,-0.6880584074,0.4477617401,-0.119480709,0.1799287136,-0.9212628581,-0.843863546,0.2756645476,-0.9576139978,0.9016956318,-0.5588448225,-0.8816344463,-0.7830008889,-0.6663081334,-0.1838554295,-0.0253783901,0.7390225332,-0.846934165,-0.4540093624,-0.9417242158,-0.4734711664,0.8901375441,-0.2538077723,0.5878747809,-0.5968552249,-0.8689639499,-0.2202014192,0.0328809006,0.9117236344,0.3244879469,-0.3758288227,0.9798164071,-0.0689643024,-0.7125591286,-0.8153764408,-0.7284511385,0.2753686504,-0.9852579048,0.797584581,0.3663864579,0.7023661985,0.0165924016,0.6512306249,0.7324254927,-0.4593961217,-0.1733090359,-0.6353005367,-0.1842041254,-0.7232882309,0.5765988342,0.3077517299,0.8097164518,-0.5600647586,-0.793317724,-0.3574228113,0.2302850307,-0.6797224217,-0.5288425656,-0.5096365091,-0.8512636821,0.3170670592,-0.594181406,-0.2756982037,0.4128988364,0.3810076944,0.0591321817,0.4045419502,0.6717808356,-0.4817714822,-0.1130650295,0.3420636474,-0.7363581682,0.4560290708,-0.0314997745,0.6806481729,0.1066528329,-0.8516525169,0.7334709628,0.1879801238,0.2242815603,-0.7454562023,-0.5441774227,-0.4424779207,-0.2527662833,-0.6809162062,-0.1347274736,0.9037936202,0.9678799338,-0.5884164385,-0.4170864068,-0.118990409,-0.5669720673,-0.8000575765,-0.0404800774,0.801787037,0.7171807889,-0.2983317302,-0.6392083291,-0.911343974,0.9517245862,0.7082940035,-0.8069848292,0.1465139254,-0.1597498118,0.1093324059,-0.4369909657,0.0495171589,-0.1861642715,0.5481001544,0.7064164847,-0.3171728576,-0.4831545666,-0.7624083712,0.2962144437,0.7886707593,0.484641404,-0.3976033021,-0.1156596127,0.8150393205,-0.0882932754,0.4067211222,-0.7116023846,-0.1820884719,-0.1876779801,-0.7668826416,0.8691633979,0.6159506866,-0.5647862734,-0.6614536788,-0.3012731209,-0.7500212905,0.0257041228,0.1669886006,-0.2981405889,0.470819837,0.4638580623,0.9098451421,-0.3244233509,0.0305392006,-0.8632627627,0.9492808207,0.2729965112,0.8946977484,-0.5578568942,0.2964290449,-0.1990664368,0.6407193447,0.3183371517,0.404914924,-0.5175796264,0.3461555181,-0.2077373351,0.0568585161,-0.6147262638,0.7057107658,-0.1404445867,-0.6658707998,-0.3869375108,0.5566515557,0.0057842888,-0.0953446402,-0.7821050829,0.2621263843,-0.2928362459,-0.1296137396,-0.7180096262,0.7921567131,0.8845733625,-0.3561052649,-0.8821402266,0.5415918761,0.9574558652,-0.0968811754,0.9925849362,0.9390150509,-0.8571759894,0.7787516861,-0.4387572641,-0.6315581264,-0.8711944884,-0.9046802182,-0.0754989574,-0.5311245545,0.8798784215,0.4640128424,0.1314800921,-0.2945557509,-0.7813988959,-0.4328747721,-0.0785982557,-0.9268380938,0.9074917766,0.9231055715,0.3930842443,-0.8177768382,0.9300538182,-0.3839107678,0.4220727506,-0.9866733089,-0.2262238633,0.7268014087,-0.2054774977,0.9477151593,0.7538585247,-0.2413037767,0.198164599,0.2109141326,0.6180301938,-0.9321571788,0.2406113794,-0.1050632173,0.0565490868,0.4298068218,-0.8399060054,0.9185266724,0.143767583,0.1430119296,-0.6839222318,0.0147598997,-0.0490140886,-0.9217563527,-0.9815123342,-0.4089646918,0.2520966151,0.6963104382,-0.4597402161,0.0213805084,0.9013033909,0.0313262376,-0.2276476173,0.6045105486,0.7617182083,-0.9427794778,0.3080040027,0.1721213131,0.4924517363,0.6315290226,0.7626643797,-0.3307452453,0.3872227895,-0.2974004088,-0.6003107191,0.5972216484,0.657942436,0.8445987735,0.7288469227,-0.6771981883,-0.8798509946,0.4811170674,0.8750279905,0.9614415563,0.8631658646,-0.4361558312,0.5638347614,0.5448081872,0.3160121596,0.2918314697,-0.036904908,0.9543290993,-0.1774331594,0.3678437436,0.6891888614,0.1887945794,0.5918825314,-0.8520926643,0.5278830976,0.3327230954,0.4390868811,0.8520577737,-0.8424120998,-0.0081443838,0.7752420757,-0.669336031,-0.566059692,0.5228537541,0.4046343745,-0.3020668167,0.0511867194,-0.728427895,0.3028699247,-0.2438952372,-0.6552198302,-0.6194063772,-0.6087497218,0.9742215636,0.2254801861,-0.576916679,0.5270906102,-0.5875959543,0.807715662,0.3327427798,-0.1665681766,0.2318095857,0.986843565,-0.3728663937,-0.0889009466,-0.6495697543,0.8370782492,-0.6738732665,-0.7523307401,0.9882203687,0.3154711953,0.9711989081,-0.1686831684,-0.2015758503,-0.2831893735,0.5110886924,0.5149810879,0.338760934,0.7946641683,0.3922393546,-0.9761154393,-0.5233322472,0.8480098909,-0.7044091698,-0.6005306383,0.4510650498,0.3431726858,-0.9034946595,-0.6105363216,0.4804951689,-0.4275081575,-0.6331343444,0.5622836226,0.7553364308,-0.8613026234,-0.2205588379,0.1862508235,-0.6150262975,0.6038627117,-0.7230484919,0.0795340649,0.8882417782,-0.824662646,0.4254121459,-0.199513456,0.5169969086,-0.3014919213,-0.6714859927,0.6081768852,-0.4454135376,-0.8187299864,-0.7785874368,0.2150539185,0.4358866879,0.9815457849,-0.4760350762,-0.8365983027,0.988304797,-0.0374127316,-0.5383313281,-0.2671726036,0.4371552597,-0.2441572312,0.2751849019,-0.6653948772,0.1598865013,-0.8934756211,0.9060754137,-0.0939613875,-0.579466758,-0.2032311184,0.5655941319,0.8646197557,0.5362338937,-0.8680362929,-0.4830243653,-0.4137152835,0.3154590753,0.419820098,-0.6294337679,-0.4672807151,-0.5680769627,-0.5741357092,0.3465933168,0.5484556175,-0.7802434134,-0.5985883751,-0.3367946151,0.3297915333,0.4766141605,-0.0808948929,-0.732458658,-0.8577466555,-0.1252322294,-0.3134746704,-0.2065496053,0.7888959549,-0.1131854382,-0.35130962,0.8797347581,0.074077006,0.0379470394,0.1055558763,0.6704384689,-0.388369976,-0.1673593944,0.9517625191,-0.6897662178,-0.3874622223,-0.4015216121,-0.799134905,-0.8220543869,0.3873595629,0.1586110715,-0.3428694251,0.239214371,0.3871543904,0.9167591163,0.6398699988,0.1842135702,-0.7845285497,0.0018369639,-0.9990916843,0.3204775114,-0.2965168771,0.8558559973,-0.4734347114,-0.9164235341,-0.506055013,-0.9395133978,-0.8973474342,0.809516649,0.9356088136,0.1895651191,-0.7667635446,0.4620906768,-0.9536385866,0.2996936144,0.0556931844,0.8218327626,-0.0389834851,0.259118423,0.3358863874,0.009471325,0.2954089649,0.1924378039,-0.5889065891,-0.6982276676,-0.4872323582,0.0726575877,0.9504125487,0.7102495515,-0.3028807087,-0.4357097789,-0.191329104,0.2368821256,-0.4359274006,0.593330182,-0.9527689909,0.7936195889,0.2905675479,0.0058525542,0.4801213046,0.0802059715,-0.6867117537,0.9238910678,0.8765417056,-0.3263032933,0.2168932558,-0.9085429782,-0.7118612589,0.2047778865,-0.7132172762,0.7356970974,0.4303358623,-0.2316364933,0.4817345769,0.5415421729,0.976365813,-0.2722992765,0.4080774452,-0.1821177484,0.071436463,0.9829440933,0.9196620587,0.8083634685,-0.2514713638,0.7122453707,0.7431305671,-0.3234493471,0.509462291,0.9008474041,0.111150446,0.5912909531,-0.8525837552,0.9785784143,-0.6703797291,-0.0067217101,0.8550074827,-0.0930600065,-0.9688739083,-0.7576718254,-0.066920695,-0.9549934834,0.7687618983,-0.0979780764,0.5204731698,0.7294178858,-0.8580423882,-0.7370790189,-0.7562440107,-0.9118000312,-0.8330939667,-0.0600138794,0.5828025793,0.9157706749,0.8964914404,-0.2044366928,0.2465162468,0.6588840637,0.340527808,-0.0113359014,-0.2582095582,-0.6550440392,0.4941495879,0.8705763609,0.8796105878,0.415512301,0.982386611,-0.3733688759,-0.0418530464,-0.6591973618,-0.7795380425,0.9044098589,0.0127321029,0.0563047697,-0.365024223,0.4296883514,-0.8631106049,0.0276126292,-0.0168762653,-0.3450176183,0.6191585032,-0.9944218232,-0.3486345559,-0.8864371885,0.5356323344,-0.5460303615,-0.5965802523,0.4605506257,0.7775237038,0.8698706864,0.0586295739,0.9006690687,-0.0942637575,-0.5403818104,0.6052872644,-0.5262401262,0.5203852366,0.8607780356,-0.029381784,-0.0736545329,-0.1602187275,0.1134505634,0.8651652455,0.8547794546,0.6946137166,0.5750289435,-0.2957961974,0.9007256739,-0.1583732507,-0.2914672842,-0.5672331447,-0.9567547476,0.2653788013,-0.1289067709,-0.2292428786,0.5042958765,-0.3566377184,0.0686722111,-0.3153391297,-0.3215127613,-0.0739697072,-0.6105207425,-0.6586578488,-0.0095161697,-0.8056959563,0.6279298099,-0.3244428856,0.2020884384,0.5546731865,0.237712048,-0.0657381434,-0.3463908021,-0.5185071353,-0.6604411519,-0.2305393039,-0.1449519964,0.5686188982,-0.511314199,0.1197309247,-0.0027516167,0.7998368205,0.5292817981,0.9850796498,-0.6732196207,0.6257308192,-0.5304296002,0.7513786552,-0.1832768074,0.9638547717,-0.6759203018,-0.9525918215,-0.9899879784,0.012879885,0.9726530323,0.5957511675,-0.2471234355,-0.9876927866,0.1399875313,0.1962731066,-0.7032132784,0.222612097,0.3983168244,-0.9518216013,-0.968682458,-0.4987282332,-0.7277477289,0.5592631712,-0.1751080903,-0.4201475367,-0.1113843289,0.5894410874,-0.1471324745,-0.7042313621
biasActivation=0,1,1
[BASIC:ACTIVATION]
"org.encog.engine.network.activation.ActivationSigmoid"
"org.encog.engine.network.activation.ActivationTANH"
"org.encog.engine.network.activation.ActivationLinear"
