encog,BasicNetwork,java,3.3.0,1,1472759906746
[BASIC]
[BASIC:PARAMS]
[BASIC:NETWORK]
beginTraining=0
connectionLimit=0
contextTargetOffset=0,0,0
contextTargetSize=0,0,0
endTraining=2
hasContext=f
inputCount=28
layerCounts=2,46,29
layerFeedCounts=2,45,28
layerContextCount=0,0,0
layerIndex=0,2,48
output=0,0,0,0,0,0,0,0,0,0,0,0,0,0,0,0,0,0,0,0,0,0,0,0,0,0,0,0,0,0,0,0,0,0,0,0,0,0,0,0,0,0,0,0,0,0,0,1,0,0,0,0,0,0,0,0,0,0,0,0,0,0,0,0,0,0,0,0,0,0,0,0,0,0,0,0,1
outputCount=2
weightIndex=0,92,1397
weights=0.0629276987,-1.4269054826,-0.062892471,0.2267308337,-0.4179843503,0.0753209958,-0.0454219082,-1.1137682242,-0.3510317294,-0.2089566364,0.1125723623,0.000806082,-0.0091674006,0.3325358924,-0.023135753,-0.2254439717,0.0531409928,-0.0668479857,0.1519675144,-0.0488395355,-0.0898229491,-0.3175601245,-0.0106620996,0.0063851851,-0.4007341207,-0.0689566705,-0.3617732441,-0.0185433787,0.0115186726,-0.3347829506,-0.2234927979,-0.0650912407,0.4645289696,-0.3105834797,-0.0241535967,-0.0834517005,-0.0139577294,-0.4145087277,-0.0334670267,0.0545865485,-0.3704951546,-0.2796688191,-0.0360327076,-1.4757993822,-0.1086099069,0.2188818125,-0.0145433509,0.6250546362,0.0703657515,0.3359922389,-0.048958124,-0.0498841381,0.0192557773,0.0136423152,0.1426955156,-0.1021219903,-0.1424212376,0.0491071023,-0.1397689178,0.2124174443,-0.0653584912,-0.0473128862,0.0036217772,-0.0457667739,0.0581051277,0.0552493105,-0.0085469551,0.0173552323,-0.0039352579,-0.004559003,0.4998657447,0.2429279232,-0.5454045245,-0.0445874093,0.0070743733,-0.907609614,0.0416097374,-0.0448958454,-0.5919644976,0.0906922437,-0.0091906442,-0.0049246986,0.1061697191,0.0415122643,0.1153651661,-0.1702560787,-0.4548665289,0.0243869303,-0.0738207934,-0.0261812391,-0.0862000476,1.0316119624,1163.8426124585,44.0297435057,184.3668255488,2021.5094958036,5.823932897,-3400.3377665187,185.8495173501,95.8710821915,-909.669219411,-3281.6802298815,186.4728982699,220.1539239556,2407.7742732024,-4134.5868191059,369.9545185974,-4602.7664511357,831.8187013733,-917.558838729,186.5663314081,-225.3574243342,-2708.8909532478,191.5675056501,-105.5886007271,224.4369833614,-1659.6929192364,96.0958369451,68.3935453029,2045.9860115771,183.6855424111,-242.8718137295,37.696336402,42.9907204974,681.5251522067,42.1642721674,-8.9565133829,48.3692618449,-6.8995837522,165.8530743403,305.3397520673,107.2748185966,129.0875345053,743.0376241821,553.3390136223,47.9699292468,92.7041552284,623.4513678935,-42.3860005287,31.7818091251,-7.5472467405,9.1746841929,306.8662536349,573.2252765365,109.9066733181,215.0650871341,-648.4731521485,-955.7817837535,51.1879679154,109.4001491245,-5226.8674157352,-45.4041532365,-6.0086762547,5738.4032971105,-139.3775579895,2666.0673809669,-4.9682984813,-3.3062907707,-941.8005790447,-1928.5579941904,-4.2470324241,-19.3395471728,-3384.2139319849,-99.9981245023,-68.3294660491,-883.4271401629,-4036.4453629665,-2062.6337915776,-6.197749051,-4.5719246432,-1256.5269062751,-593.04538078,-1054.8379091493,-5.8400422938,-0.3211080407,798.4468995926,1148.4590936267,1683.377763726,-3.9829415962,-32109.8679888401,-3470.2697641874,-1334.6597067966,-38996.2866293315,-1422.953291261,17766.5574568468,-2201.613953446,-333.5037100197,-11220.7818373314,5603.5075596972,-2345.83052829,-4198.3439232983,-10297.3123578669,4169.9553312906,-1655.8665877446,-10446.8055526711,-12921.3587003551,10638.310496931,-2656.2702063299,-3239.0842138643,-7002.0177190322,2570.1306143202,4844.988341956,-1928.7774172974,-9972.4421243219,-50890.3313168351,-23339.4078392393,-43259.6010151441,-1941.2122502474,1.7654338967,4.6489928312,3.5325543859,2.1776483371,10.9072641006,4.2715257277,3.2127455652,3.2550107335,1.3895098496,4.2273887054,4.1334684771,1.9571839448,1.037345908,2.8357900328,4.4965372913,2.1173456336,-0.0567174341,2.971914169,3.3841471798,6.784521062,0.0475889433,4.3378164523,2.6049084396,4.0953414767,3.3310852461,15.244252163,0.2024302791,3.1347299015,5.5656121739,2105.7122033235,-1.4302450644,-1.0421017885,1393.5884447479,0.010611633,-15.4703006244,-0.4648632223,-3.5896234451,136.3675366251,-0.052692382,-0.6967488176,-0.0587027172,-143.9393938469,-1.1251686262,-0.8314358773,-0.2679197367,-866.7232345478,-1.611807022,-0.1765072792,-1.4914565176,-2663.3028062626,-0.6489979389,-2.3767063683,-0.2399360111,-0.1051082769,-247.826316147,1489.6133850298,-726.6298499615,0.2382592681,-1019.5419987561,-2.5801060057,0.5164564975,-1341.9406848207,0.6160243423,-0.4895625024,0.1790314363,-0.2508279802,1316.6055363868,3.2219170306,0.1660493449,-0.0138263824,173.3086476354,2.8571153399,0.769881071,65.1062629552,-219.4118409956,2.5718737882,-0.1568214361,-0.2504937116,-1151.9495403018,1.5458968231,0.758906662,1.5388013579,781.5098190464,-1111.1843850496,-1391.382920442,-202.7134677322,-0.3027164157,1699.4353941979,-25.6990303886,488.5498342493,1591.8098959313,343.7667744686,-226.6665673727,12.1389998851,322.9331989485,-26.541910089,443.7058029518,30.1505113307,311.0134072407,4265.0175803865,452.4409061926,335.8449666656,1681.5920243896,3907.3687174147,-288.1106030017,-15.8609327757,358.6947288496,-76.9460882544,1060.2805111355,1032.6848354878,264.6355090846,783.7944673303,-2907.6795586696,2766.6150442292,1050.7204115199,-470.628672885,-3702.0400368978,-0.413760837,-1.7718411125,-2373.3970393905,-0.8076671722,816.6080859807,-1.3083281608,-0.7830762476,48.3671483962,1171.6428159111,-0.885404062,-0.5750490667,-904.2156941918,-236.1363721085,-2.2594113016,-1.7185741358,-1347.5770900334,662.5921516489,-1.5033047044,-1.5761118042,-497.4875001931,-2.0764467437,-4.0907507449,-1.910722168,-128.7482081849,621.8966495876,-290.9829353267,-2686.0772992557,-0.8586180909,-12265.444940933,-0.6722314246,-0.1852951001,-7153.6035813861,9.4554943975,-1.7839836325,-0.7115147029,-1.1392452818,-2086.3798829972,12.6550704684,-1.0776101771,-4.5734658008,-6355.6252316353,-13.5875736154,-1.3919135301,0.9507560353,-523.4636991278,-1.3461675901,-0.5270359472,-4.4979604931,-212.6482903662,-2.8542950674,-1.5953887413,-0.252405461,-3369.3670464908,-11900.7925678523,-6236.2285475997,-10831.0699899603,-1.4877142871,6.6432717508,6.6454695186,1.1911021398,7.3859394289,2.0476151503,-1.0309690627,4.8031848904,-0.5564850883,11.5806815341,-1.9942150543,5.5419077759,-1.9036670346,17.3456823494,5.981451076,15.3884792066,5.9689846685,1.3469751165,3.4033484223,4.4658077656,2.0601119052,33.137194709,0.2101438838,0.4267384276,5.573755718,4.8796269276,112.6231773222,8.6791228378,34.5622099852,5.9515838024,-14147.540726535,-8.7933243184,-371.6188976795,-16080.466582479,-14.3578515113,9311.0768623184,-5.7416558089,-1345.1335017552,-9246.8279313251,7321.0551285858,-6.9108150508,-3.4494509139,-14353.3399414137,4497.8430114611,-44.363121041,-2624.4982772416,-12451.0357178762,10064.0212953871,-16.2841781963,-18.6176032612,-5734.7384548761,3756.5048819278,3605.9478923725,-43.9239760421,-1244.683381647,-14510.3385651593,-17521.9978536645,-15829.2100746174,-44.5582683986,-2017.535224865,-1243.4598927608,-27.5080705868,-1027.8407687734,102.262416669,5039.4122194185,-242.6122775599,4.7865358019,-156.9085431027,2366.4746077513,-411.3400879561,-348.3750452855,2189.1938696003,-258.0754815128,41.6492971029,-1288.4075871492,-977.1542846869,-1017.9414141004,-231.3659008926,-688.1013456791,-1211.6621101671,-519.8689678082,-25.4268274907,-10.4991135819,797.2375014618,464.8132773608,1156.9239740681,-2875.7280387125,55.461191575,-26402.7610147493,-2728.9166194434,-2230.6852018172,-26623.435243135,-2029.1752526606,17811.5557926618,-1731.1807931637,-679.5128020567,-6150.6254866866,6146.6231109861,-1910.7520514847,-4376.5388038114,-6291.8768269743,-497.251014302,-1399.5141978108,-10036.2233207298,-11410.4244694954,9175.1138587322,-2551.7020245868,-1908.297223214,-2131.965633731,86.6836389112,5652.5805381745,-2365.7026422185,-6027.0334086663,-37053.9569177254,-18144.0083108576,-29209.7260308733,-2356.960425379,-1685.6547566114,-1.6081759953,-1.3586937072,709.1809798461,-28.360234541,1301.0564593678,-0.7435347485,-1.314059805,-998.9964073043,-439.6039674766,-0.4570079368,-1.9301978279,703.7075690012,-470.4590905436,-1.6707515167,-4.5888515633,-1029.1853009418,1318.9309386813,-2.0039213458,-1.335138314,-156.1637753553,-1.4219675441,-1.4757201027,-1.7604340972,106.1546532322,-217.3932800526,1689.2476425937,1974.6602686862,-3.0996892384,-17443.6927130278,0.296250439,-0.2212284467,-11385.1191325939,-0.2095793589,-3.0490587331,-1.1312324348,-3.2676075098,-8303.0888312801,-2.7428165992,-1.0211241489,-0.3783116632,-11602.7404538652,-13.096809561,0.0142802599,-5.1080075347,-929.3115603662,0.1343641627,-0.1110682165,-0.9096938426,-3006.7891525182,-1.2174847425,-0.999182691,-0.2005469145,-6657.9660239149,-13940.4909449656,-10295.3490163251,-13697.4246452707,-1.4044711098,-378.2818777277,-3.4236255444,-2.2018490822,-257.2491895003,-3.7693373962,-24.2202610999,-2.12835234,-0.6564261332,-229.9651921693,-5.3168480863,-1.9925083978,-9.326385323,-38.9288925159,-0.0523917022,-1.6853649312,-15.3247409952,-1319.3156889615,-23.0234690956,-2.0134172135,-0.3319320195,-2312.0947232385,-0.7959818975,-0.1832341561,-4.0784843183,-28.6499956189,1804.2055954672,1271.014393615,-157.0110949698,-2.4797466171,-1466.8829522855,-0.4880502206,0.4024385081,1935.5731148245,-0.2271924895,-78.5710673363,-0.9411371788,-1.1478410986,-1732.1583974478,-0.2725128947,-0.4494255441,-1.0116192757,-1168.4492497908,-1.1655200129,-0.9253763157,12.9909156501,886.9985594538,-4.1924631619,-0.3209981873,-0.4496120523,-1042.2601457674,0.3730266096,-1.1021173972,-0.9721651395,-6.71836814,-1298.0053489942,549.6726757388,1556.8963902258,-1.0608414532,-462.4466805146,-66.2439561975,-352.9077036831,1508.0357129782,-276.5255105967,509.9756926429,-62.9558292915,-62.8059918833,-398.62369937,-1350.5312624202,-63.5410639464,-181.3171659875,-42.8562967133,-403.0227538675,-61.4651263905,-690.2790540991,-1224.3344738005,-111.6938188384,-7.5791620484,-165.4575978563,-1927.662276969,-306.6468059098,-84.4077990662,-13.9299352731,-12.703076018,1236.5951954329,224.2296732376,1435.0300172188,-8.2427926308,-886.2159529961,-2.9638975264,-0.9960819431,-223.4282202942,0.4515290949,608.2096032699,-2.541858141,0.6005647746,-646.105469895,16.1819814713,-0.460824028,-0.7940102132,634.5316564973,3.0278996164,-1.8522195057,-115.300749985,-37.9779635635,0.5934958596,-1.1077733299,-7.2804138939,-2744.2188526068,-11.5774194694,-4.3889385054,-0.2888274813,11.4912060791,-115.4968698713,1318.1433636264,-1477.9503542112,-1.5821534571,-13582.3945807938,0.3569074316,0.2256663996,-14490.9055569779,0.1427523481,0.5580032963,-1.1876277387,0.7004277993,-8170.6709723718,0.5070376648,-0.6213225272,-0.9076508225,-9392.5668844204,-0.1365843299,0.265626368,-0.8238409504,-668.4396044664,-0.2842122388,-0.9761913677,-0.940985839,-3.878945504,-0.6169028248,0.260464259,0.1191070001,-2718.6240529262,-15068.3670287958,-9477.4637312395,-13915.9691141066,-0.7884447482,-20.6333076167,1002.956085907,107.6371303386,-810.4726483834,431.5839455845,2438.6433566648,-465.5991572977,-264.672398823,1942.7199544081,3234.7238710152,-74.5138227333,846.9861661472,-67.7886659908,1813.2071909587,-376.1775504494,3977.5927841308,1950.1482040818,3040.2920134892,2.7052247768,152.0999835338,1944.1678764365,251.6837732803,583.6749534379,677.2244096731,-1615.2728518132,906.3880528372,-98.4676244498,-607.2763055615,273.3151685356,287.6564741885,0.6034839376,0.3853913208,-396.7505344612,0.2709631795,-756.0266332548,-1.1483939804,-0.2980242703,115.4270986544,-367.2207754497,-0.2582578493,-7.1508612145,-1348.0423803115,0.0311448618,0.5444647552,1.1529287983,-439.8589846072,134.6728948389,0.5304027437,0.8841125919,-688.0250509266,1.8952946869,-1.2039474888,-1.2450113487,104.2414615016,-2388.7799661652,1858.8956605912,-1652.1686906838,-1.9967872568,-324.6005098355,-0.3826271849,-0.1914100286,-128.5780910232,-1.1954934308,-103.5101089026,-0.3073905652,-0.8684077621,-773.682430525,-2.8000543072,0.4756358788,-0.2669744813,441.2846690942,-0.3816309917,-0.1697322417,1.2793719976,-2109.4079713761,-50.0916399588,-0.534794826,-0.435407157,-2396.1576583824,-0.3250214348,-0.7491213424,0.290413159,743.3020111789,-898.9452654065,995.4517623428,397.6924825755,-0.1860720854,-39927.7542732147,-4902.9987892628,-1761.8158734387,-49461.0574614345,-2057.0688459437,1976.7521263076,-1915.9515475232,-1926.6760931159,-17815.9277735118,-1550.6015036571,-1980.9530249584,-6296.5235915099,-23733.776625729,-1737.8347998001,-2164.8585273267,-10060.0019144827,-11894.4038432926,-80.5783554913,-1682.0587561523,-2203.8763704521,-1768.0223038634,-1203.0407292347,-1366.836455558,-1876.9778473402,-25088.026348339,-52262.0113796097,-37902.0618799372,-49480.2671744393,-1894.0649754883,-2226.2254012934,0.3268264968,-0.1910044708,-1409.3379974116,0.1556879447,1038.5580770026,-0.1222067058,-0.5244093382,-722.640661059,22.9676702013,-0.0346227471,0.2823466935,1340.9429177736,2.7546359898,0.5868273417,0.5657264031,-1062.7711765959,12.6875835139,-0.2552736232,-0.5411193027,-94.4911606021,0.5588678231,-0.6754505796,-0.692457191,-0.0023520747,-4171.9037658888,-665.4816846932,-1869.1772142346,-0.2742496265,155.0638331073,0.739209252,-0.5228264352,167.4995100651,0.2150319437,-1.2097035795,1.533449786,-1.0673035788,49.7687464401,147.3880682121,1.2475991081,0.4720014879,239.6899769013,146.0694994291,0.1465166458,14.585570028,38.70432303,15.4990490971,3.8415642332,1.5424442218,21.6429972149,145.5915273392,-2.7625799194,-0.9509885705,0.0677579905,710.6351364505,55.4302572072,166.9722537148,3.4640703021,-236.0241730808,-0.1459738809,-11.8781505042,1167.0602311091,-0.09151808,-13403.5840569729,-0.5574725795,-12.0786637238,-109.9115886095,-10651.0213757972,-0.3773758049,-2.4125040811,-971.2936015876,-6729.6641884899,-1.8447390482,-0.5287923879,1467.2897010728,-7497.5925089064,-1.6675345864,-34.7374146587,-1278.3506206996,-6395.2494852785,-8872.707802924,-608.7318388906,-0.235791873,9533.1524894693,-1.3996493423,3764.412885859,0.3080036908,356.7895672431,0.0228336909,-1.7164570188,417.6250131243,-9.3204999206,-4.1254014485,-0.4310788723,-0.7621542735,-2401.7435118936,-0.8355483788,-2.6732080748,-1.2364537382,-882.9328445482,-1.3313364008,-0.1038932788,-3.4794526603,-504.8956794067,-1.5293376595,-2.0690983665,-0.0118782087,-433.4282672199,-1.1884815201,-1.4170688846,-0.4376904143,1626.6117012804,-1211.7957447079,-1289.4633237395,69.6544811455,-2.7690618587,-2.4888713361,-11.1776397814,-10.4190248488,881.9273273157,-12.5298616256,-13649.3489860701,-17.6966834761,-55.6493368156,-785.2137181389,-6453.3403391633,-11.4240954166,-21.8105897742,-6889.7574889095,-5252.3800244527,-11.564187757,-186.595257547,-2797.3459354318,-4486.1553950178,-10.1906011358,-12.0501314522,-1.1472776539,-4728.6301312851,-5567.7702521709,-44.6473412476,-592.1548941082,2758.0405087912,-16.0086624585,279.5735460633,-12.4826270545,-14103.1472040746,-89.4044259216,-52.0794152758,-16326.0528092437,-47.7176737263,-40.8042778133,-25.5215034234,-934.0101470899,-10086.7736983188,-60.6017851409,-42.8873360719,-59.931109267,-12846.6101719387,-33.3968063538,-39.7725717274,-55.2755669873,-316.2165498265,-336.4951909997,-44.695566509,-32.1863258656,49.891510957,-10.6632379254,-77.4588110941,-38.0720804659,-10269.1199284044,-18041.9388942638,-13751.6105401952,-16032.1654336113,-147.1657172947,5931.2411956477,-749.5856324731,-446.6643733843,2054.160749978,-880.589364369,-12392.4573501849,-502.5633082855,-448.8758533081,9015.1995971079,-6641.8232608292,-885.5701362315,-1565.3162120954,-2316.1380474624,-4913.0096061698,-502.5734717971,-1433.2369166771,-5159.9182963162,-8829.7128384159,-446.8800160974,-2094.956852715,-367.9894723637,-3242.4840978862,-3277.0939540683,-447.0957261474,477.2271171235,10732.9701676573,7127.3060168158,5606.8825901502,-447.0256160021,3.0612408092,1.3360762103,3.4607118896,3.8528337111,3.7595821093,3.6871633027,2.3873294529,3.6087066963,2.2040978279,3.5982277031,3.0937240168,2.5876973054,2.146138715,5.2666573005,4.4984915306,3.1364190013,3.1917650004,2.1470473167,1.7622611202,3.3516009704,1.6938986568,3.8299051997,3.7403552666,4.2429134108,3.7265466902,1.7554034758,4.3680085075,3.0551259803,6.3314618895,-20828.6673733345,-0.0281355959,-1.0272420985,-20103.8021051039,-0.084955552,205.6276131805,-0.3646925017,-3.5465896369,-11064.9309995925,-1656.0213684056,-0.4249287051,-0.4083007686,-11381.7913580543,-1277.5112829877,-1.7505364439,-0.972282576,-702.084198856,-0.6675767254,0.2164347578,0.0053696054,-3.3926859024,0.3594969217,0.4651290444,-1.8309524658,-9084.9232640624,-21546.8998868941,-16652.6862681673,-19493.4714659481,0.0427734572,1623.6155441306,-0.8699299,-3.7138260644,6477.8452404473,-3.2439481724,-1800.7695415901,-1.3146670669,-3.123684373,-2915.3722231866,-2.0469339891,-0.8840416711,-53.6200765039,2057.0069906881,-1.2426816017,-1.6197628453,-0.4589900649,-2081.7066790832,-3.7323726028,-1.5649624226,-1.1773096685,-19.6845104372,-1.1434031264,-1.228177846,-2.4525113118,487.4789709803,3554.4704935876,2324.581659902,3991.1385039203,-2.5781365308,-13042.6514925573,-1.0841635585,-167.4090444083,-10636.0172999907,-14.0683463142,-99.7626661885,-0.3592132601,-0.5425644134,-6204.4343099459,-51.6978026071,-2.4029148902,-1.7878526932,-7659.2947979594,-87.599902444,-3.2578637805,-15.2835959948,-681.0934392921,-31.7101325405,-0.6732807994,-60.7717152947,-1230.0454378348,-166.5374807899,-10.3296570545,-11.6996139144,-5844.1954373434,-9819.1640141845,-8287.8481211329,-11882.8651229546,-5.0562845137,2424.9734831312,-1.2751112209,-0.8024945737,883.9120986183,0.235108958,373.2199262005,0.0880856353,0.3830332191,2749.3791518474,1198.6181807941,-0.0008682081,-0.8953671025,-1492.4516656767,1211.9618404179,-0.7030418293,-1.199280324,-1183.4101401898,-104.0896760547,-1.1180957257,-0.7566442824,994.7061213056,-1.9038230446,-0.4264998,0.5216829242,904.7478908772,-285.4882941069,1235.5618402866,1984.5471119815,-0.6335546967,-20892.0336431444,-3.4338308181,-1.7001062578,-30434.5386858415,0.4052637334,0.2694154853,-1.3126546245,-223.3268669234,-12246.6003982959,1.1076811939,-0.1101654705,-274.4378770153,-15598.8504830217,-0.5147937617,-0.4619065878,-49.7214428511,-2527.5770517917,1.9148797313,-3.0936006745,-6.1652561178,-1326.2142845641,0.1473424555,0.1851184393,-0.2304556169,-12812.6441605458,-32319.6648332253,-23546.214198098,-30700.2829947943,-2.2450760225,-368.3608456719,-51.4682078308,-88.1474013851,1458.2935226348,-44.7278198223,-851.8805718825,-36.7787689737,-64.1609585473,-2485.8699927204,-47.6803741469,-51.8320525728,-25.1803798951,-1164.5767632364,-690.2593172788,-23.673869719,-44.2238247559,-1565.4834816602,-640.5779024818,-51.1119305776,-115.4250762515,-625.4173162801,-227.3910476747,-61.4826790182,-33.629525781,905.2052243679,2356.1374276451,1584.7935018764,2944.8003090996,-38.289926681,-1446.5067173381,-0.0606451867,-0.0825927846,-1598.9857839147,-0.0963864659,-0.451629145,0.8186359809,0.1667923827,-138.3461332269,17.7352229506,0.5316435495,0.2808303164,144.9512552577,-0.2961834809,0.0545868076,0.2322657908,-308.9179360615,-5.0139741586,-0.2463477603,0.6700047658,-0.2258524607,0.6795592335,-0.2760592912,-0.4795116391,-0.3057107183,-1948.7637752016,-366.5870043492,-1272.4399902851,-0.3681200824,2.8589969416,1.7946712475,3.1276364358,3.2625839953,2.1037453498,4.8291066191,3.3077587835,4.653671475,7.4901678981,8.5503720335,8.4569417746,3.4887739005,6.5489313407,7.3323886724,3.4171929111,2.2173973888,1.3066455858,7.2118520087,3.1588297276,3.4798783691,1.8372820223,2.4127708576,2.2363576358,2.1133462161,3.8492830931,13.8295977946,3.3435675818,3.9963305632,4.4245907535,2.072152122,4.2797802096,5.13092844,5.7552237959,3.5577833356,3.7085605126,3.7438154978,4.3226513331,3.8798632678,4.7444056551,4.9635184719,4.4540437492,0.9347178411,3.242834588,3.7367435781,4.8671711254,-0.8050540255,4.4729760578,4.704893199,3.639270593,1.3225394695,3.7670365287,4.8713502521,4.9719947796,4.9499560499,2.669517921,0.7157174924,5.6520053535,4.3212474279,-1035.4742621064,-0.5045491613,0.2394371974,2552.5883693476,-0.278061521,-236.1977943143,-1.2886522541,-1.4027230372,-651.9055652176,0.4964096944,-1.1121201779,-1.4111415901,-1171.4785496599,139.7707604672,0.1397149107,-1.6719877193,-519.4005658052,-499.2206958889,-1.2995674675,-0.2051489904,989.7180823271,-1.2584440766,-0.8036737981,-1.4503228832,-0.7340620428,2082.5712993845,1.9135957998,1739.037130047,-1.1208611209,-17161.5971600815,-1.6506065811,-2.858764511,-18073.328114485,-17.9075291761,75.3502848734,-8.4768879729,-9.5945717083,-12355.6149009914,-427.5037349208,-8.0224988793,-10.0160535292,-12486.9875249145,-10.0586467178,-8.9140229083,-2.9991872386,-590.0315311518,-5.7617687097,-4.4068366853,-23.2412363435,-141.4721015651,-19.147030803,-49.7875804709,-9.5485533486,-7168.34331366,-19438.6254405532,-18597.2366704981,-17741.6769382492,-7.9510322026,-1707.0576979033,0.1623921883,-0.3015400989,-2497.1438080693,-0.1453143817,-1438.7005045995,-0.934618247,-0.5086648347,-2194.7440326349,-1664.9463341994,0.3910149616,-1.3189262049,-2506.2080075824,-80.6448038734,0.0508473326,16.8797123363,-446.013934686,-1029.5632815415,0.5249256062,0.0402250413,-292.2444783743,-1.2038568801,-23.7603801571,0.0972101379,-3.8894481157,-384.7987163776,443.3363772489,-1996.2274500489,-1.2763464059
biasActivation=0,1,1
[BASIC:ACTIVATION]
"org.encog.engine.network.activation.ActivationSigmoid"
"org.encog.engine.network.activation.ActivationTANH"
"org.encog.engine.network.activation.ActivationLinear"
