encog,BasicNetwork,java,3.3.0,1,1472750659908
[BASIC]
[BASIC:PARAMS]
[BASIC:NETWORK]
beginTraining=0
connectionLimit=0
contextTargetOffset=0,0,0
contextTargetSize=0,0,0
endTraining=2
hasContext=f
inputCount=28
layerCounts=2,46,29
layerFeedCounts=2,45,28
layerContextCount=0,0,0
layerIndex=0,2,48
output=0,0,0,0,0,0,0,0,0,0,0,0,0,0,0,0,0,0,0,0,0,0,0,0,0,0,0,0,0,0,0,0,0,0,0,0,0,0,0,0,0,0,0,0,0,0,0,1,0,0,0,0,0,0,0,0,0,0,0,0,0,0,0,0,0,0,0,0,0,0,0,0,0,0,0,0,1
outputCount=2
weightIndex=0,92,1397
weights=-0.4421570942,-0.2045555324,3.1144004893,-0.1877246267,-0.0035288898,2.0749357669,-0.6723973781,-0.0217724205,-0.0681624766,1.0635908352,0.5270278227,-0.0032909767,-0.0484937967,-0.0819195681,0.5016351816,0.356311707,0.7957529808,0.4115289047,0.3568078117,0.0177660744,-0.8034341146,0.3193176437,-0.9764647951,0.5087131548,-0.8151895811,0.2066346667,0.0526822164,2.1277202406,-0.1204803305,-0.7492384111,-3.3962567685,-0.183477337,0.87898443,1.247486645,0.0919132135,-1.8936920339,-4.757593283,-0.8289641881,0.3200668104,0.488280266,0.0439603059,0.1347866414,1.6346499911,0.2646431704,3.3787712521,0.6333372729,0.0847025443,0.4075569128,0.2204189689,0.3380854915,-0.0510513766,0.0605630262,0.0059039092,0.0306595423,-0.0006280535,0.3141428232,-0.1445144902,-0.1959169351,0.0376348325,0.2145106968,0.0710667204,-0.0691694311,-0.0522542868,0.214545914,0.0515093971,-0.2228107204,-0.0850491101,-0.0651811805,0.1747423683,-0.1677656738,0.5019589973,0.064826373,-0.5474977771,-0.1071365652,-0.022038054,-0.9054870646,0.1242768939,-0.12408742,-0.5940577501,-0.3522490563,0.054051872,0.0710595621,-0.132086802,0.0449072253,-0.0842771241,0.0696405124,-0.4569597815,0.0222936777,0.0625447902,-0.0295723798,-0.259956662,1.0295187099,1700.9518049179,-2.2344878303,-2.1234423495,1025.9462910307,-1.2946671055,-3073.8547118751,-2.302550385,0.0805104063,-721.5441206233,-2460.9457451539,-1.6791694653,-1.2098995232,3206.9035401494,-1899.563851621,-1.6422122629,-1813.4538689339,1760.7463169892,-641.6760556324,-1.6697430104,-1.0469049169,-2708.6603297543,-11.9045177059,-42.7226820145,-1.2460154758,-0.0894780603,-558.2798491302,-1.5279719851,1694.3048459778,-5.1717024285,-242.8718137295,37.696336402,42.9907204974,681.5251522067,42.1642721674,-8.9565133829,48.3692618449,-6.8995837522,165.8530743403,305.3397520673,107.2748185966,129.0875345053,743.0376241821,553.3390136223,47.9699292468,92.7041552284,623.4513678935,-42.3860005287,31.7818091251,-7.5472467405,9.1746841929,306.8662536349,573.2252765365,109.9066733181,215.0650871341,-648.4731521485,-955.7817837535,51.1879679154,109.4001491245,-1387.5212538598,-45.4005015453,-6.0053963577,5353.2477938416,-139.378392295,-1915.8052040648,-4.9658164785,-3.3046290325,1.5184454265,-1959.3143382505,-4.2445453413,-19.3396734913,-1642.9773864282,-100.0192928204,-68.3269885946,-883.5208461302,-546.8320383046,-2133.1574421365,-6.1952509636,-4.5723939528,-1256.5359921038,-593.0505837653,-1054.8392162709,-5.8375150871,-0.308006283,5071.63582677,1118.4360432182,3054.0013358071,-3.9804198111,-14517.3414659606,-2065.6835035541,-1333.384259653,-19726.5207739214,-1415.3580291016,1692.0900511581,-2126.6993366131,-333.3062986139,-1608.8529236864,-872.0906654667,-2130.0764318114,-2019.825102222,-7007.7880446482,-1210.3295716215,-1345.3664541725,-2587.8736474737,-8788.8571008885,2749.3382566857,-2580.2742113193,-1977.8502456815,2968.3225895062,-208.8285915678,623.1603590887,-1909.2987494535,-4080.7330199598,-22435.9741968351,-9509.4651801933,-19837.2364191034,-1830.859948511,1.7654338967,4.6489928312,3.5325543859,2.1776483371,10.9072641006,4.2715257277,3.2127455652,3.2550107335,1.3895098496,4.2273887054,4.1334684771,1.9571839448,1.037345908,2.8357900328,4.4965372913,2.1173456336,-0.0567174341,2.971914169,3.3841471798,6.784521062,0.0475889433,4.3378164523,2.6049084396,4.0953414767,3.3310852461,15.244252163,0.2024302791,3.1347299015,5.5656121739,-10.4204696318,-1.4261904373,-1.0339859594,2001.9695582641,0.0197131008,-3.5657172856,-0.4603795936,-3.565243268,-89.4057627498,-0.0137851408,-0.692259166,-0.0542414478,702.9722447104,-1.0949831215,-0.8269462256,-0.2680288604,-800.0625400457,-1.555898978,-0.1720196276,-1.4869068231,-294.6001037256,-0.6482426257,-2.3764099517,-0.2356677752,-0.5871395964,198.1228159295,-32.8861472065,1002.6271478423,0.2428730369,16.9040097433,-2.5803514227,0.5165899783,-1112.4090301668,0.6161782395,-2.7853545817,0.1792362385,-0.2508640262,-1.4825262646,3.1672984687,0.1661340926,-0.0159879171,-26.5598031682,2.8532230255,0.7699459615,62.855804117,-237.5824727323,2.5683834157,-0.1568115202,-0.250366834,-1151.9280440809,1.5469316696,0.758978731,1.5390087884,0.8873735915,-662.7510685135,5.0344634954,170.4219156953,-0.3026107479,-1505.0880450836,-158.5091846436,63.2824977636,-2854.0355695452,224.7985124315,-259.6397053038,-147.2331852209,163.4323934352,-36.5460055978,-1349.5068530054,-129.2216737752,264.7911790468,1393.362195816,-213.5058403505,198.1502189374,-199.7850777967,1589.1080703679,-290.1215433548,-181.1885757487,-126.3173269824,-215.2418618224,103.3540656176,75.8550646093,105.1759768961,-1140.8473939866,-7089.0990901054,-1392.8700002553,-3427.3750539566,-635.956315858,-722.0653173249,-0.4159095634,-1.782011065,1574.4042431188,-0.8031277039,-1.1986102129,-1.3151131525,-0.8775315479,-32.4994574023,-0.8795865784,-0.8873362284,-0.7027623665,197.5370714929,-1.9223705279,-2.2612309261,-1.631044556,-1336.9564179427,-1.6497489473,-1.505128528,-1.6085087673,-497.2732308129,-1.7583989621,-1.4557282281,-1.9038544414,-0.6794861167,972.216092546,-1.2309644143,850.8245720465,-0.8515705335,-806.9672172386,-0.6720903695,-0.1865568144,-572.6862427643,9.4563523681,-1.788359825,-0.7123546314,-1.1383190805,-206.7587328634,12.6527338539,-1.0784501056,-4.5752368521,-2219.7405234585,-13.5872951768,-1.3927534586,0.691927121,-537.8614708441,-1.3471419487,-0.5275698691,-4.4989234313,-212.6034096318,-2.8551517992,-1.5946196941,-0.2528607954,12.1741776984,-3571.7233878318,-146.5792564192,-1665.5923918255,-1.4843342053,6.6432717508,6.6454695186,1.1911021398,7.3859394289,2.0476151503,-1.0309690627,4.8031848904,-0.5564850883,11.5806815341,-1.9942150543,5.5419077759,-1.9036670346,17.3456823494,5.981451076,15.3884792066,5.9689846685,1.3469751165,3.4033484223,4.4658077656,2.0601119052,33.137194709,0.2101438838,0.4267384276,5.573755718,4.8796269276,112.6231773222,8.6791228378,34.5622099852,5.9515838024,2428.6049922444,-8.8843062541,-396.2743193532,2397.8301009115,-18.2654689029,-1731.4368854897,-5.0488494218,-1198.5533082996,-10.096741288,-839.4627873615,-6.1023506289,-3.565270501,-2496.3626079621,-1808.110140999,-43.5527511633,1972.1920740326,-4042.779791178,-22.3896321153,-16.3886052864,-12.9198030133,90.0638689466,-848.760615019,-1668.2118281954,-43.7224025665,-3.7330221132,2326.4428748407,-1864.4554570427,1308.146156162,-45.8888295312,1237.0127401484,-1243.3989559329,-27.5088525971,3811.9804115815,102.2617127161,70.3131739927,-242.6085125969,4.7803992785,19.6724874932,-108.9457824952,-411.3393429807,-348.2713214832,1738.9469926268,-258.0878127203,41.6491926202,-1047.0701317804,269.1243557004,-1018.4563747588,-231.3665827469,-688.1017199097,-1402.7266490656,-519.8983267037,-25.4663006879,-10.4999191482,797.2284600348,4769.6525843393,1156.4806303147,1416.3310311815,55.4606547515,-15024.5944181437,-2045.66045755,-2229.6142756598,-20303.4172999958,-2002.6142328218,3830.8379337292,-1672.7143637323,-671.4196960375,-2547.323639034,-1733.6004700015,-1744.1286572193,-2647.7605532644,-6643.4332706987,-1709.8912832662,-1316.5324431943,-4561.8775658096,-8302.8385480778,2719.0780513593,-2486.5132939035,-1325.4219905539,3083.4507816148,-784.5186075677,78.1090166582,-2343.4242140742,-2810.2335464526,-23833.5741449627,-10392.8259382299,-20953.712414999,-2292.5354359965,-403.9810928427,-1.6073089418,-1.3590965987,1100.1499793421,-28.3600985447,-1.352365891,-0.7431712639,-1.3142495323,-124.6517956681,-301.6695741493,-0.4569978533,-1.9303474916,-140.4705076459,-471.8720384589,-1.6707447426,-4.3786380576,-1042.6439751611,-5.9685122982,-2.0035505483,-1.3346571596,-5.827573122,-1.4251588988,-1.1506278657,-1.7604923337,-69.7521746272,-269.3853051595,176.7180809932,156.899216535,-3.0997877331,-3016.9776808327,0.2918014375,-0.3437029345,2166.5352554158,-0.2066284453,-3.0563148058,-1.1285372689,-2.9993207588,-1.6012581591,-2.7478743496,-1.018428983,-0.3839038459,1947.2731266326,-2.0798102554,0.0172371079,-1.6891458271,-557.0991677947,0.1262665821,-0.1083710505,-0.9070743174,-938.5334134918,0.0260403991,-1.0143863708,-0.1944564008,0.0599458196,245.6777793382,-6.8991634076,339.45889697,-1.4003452517,-72.9956933445,-3.4126540368,-2.1868866129,843.9225016131,-3.7520098496,-22.5910961141,-2.1118329926,-0.6221616491,-162.8000990153,-5.2603488528,-1.9760283256,-9.3101312274,869.6148627542,-0.0486144614,-1.6689638778,-14.9108668891,-1310.5999645666,-23.0098080302,-1.9970161601,-0.3177815475,-108.8722280138,-0.811424935,-0.1735758438,-4.0611198246,-0.5265378368,2114.0876104915,-5.3356680401,694.4815716565,-2.4651400793,-2046.7787130124,-0.4932293148,0.4005934538,-1507.893913608,-0.2285640001,-339.2051281446,-0.9458447041,-1.153091224,-1.9886031031,0.5403945028,-0.4541286123,-1.0180175163,-1168.6557601987,-1.0728056729,-0.930083841,-53.0399717975,-127.2535241599,-0.9299735418,-0.3256520622,-0.4553067047,-8.4288698218,0.3732540236,-1.0974186609,-0.9720079676,-9.7161967845,-1233.378575816,-99.6018320061,-1797.3948005453,-1.0623789203,145.3771062995,-66.2559263133,-352.9254280063,1950.0303762494,-276.5375345828,-12.2834142932,-62.9733721612,-62.945352614,2.6794345292,-1350.6200057391,-63.558693767,-181.3381179289,1974.1397165065,-403.0374329765,-61.4826759364,-690.274895951,-958.9142441155,-111.7294330416,-7.5967152965,-165.4752206938,-1926.3234723564,-306.7946730422,-84.4611910528,-13.947810665,-12.4401360745,2003.5161355579,2.8754611489,854.1628384692,-8.2603355005,253.8283532443,-2.9658847905,-0.9955367109,-2102.5121913865,0.4518432796,-724.7061849691,-2.5430933145,0.5895307952,-80.8299434304,-0.7509809326,-0.4609747209,-0.7933243491,-158.9652707917,1.6355997466,-1.8519401725,-106.4275140198,15.96189267,0.2040460345,-1.1075172871,-7.2816681879,-3142.7502843602,-0.8670328051,-0.7604368216,-0.2906181572,-2.1987936992,458.6296675409,1.2368251375,-1255.6247018436,-1.5834823286,-1.1779356897,0.3587755603,0.2281822652,-374.1708118559,0.1446050979,0.5349354273,-1.1894959731,0.6945935568,-11.5283152752,0.5066394453,-0.6189631345,-0.8504592787,-1872.8365971498,-0.135102259,0.2708689583,-0.3789659498,-654.4118601345,-0.2871772477,-0.9736331334,-0.9561539498,-0.395061351,-0.770763103,0.2600938435,0.1227477813,-1.1199307574,-1185.8664616431,0.4200514163,-46.1309836145,-0.7817746213,-2351.1912845004,913.4778504874,-488.9275374907,-3952.977219627,-296.5446064501,3044.1450750446,-961.6820725587,-435.2043208183,-851.7163569574,3484.2913337651,-578.6597968752,740.1020009491,-474.2780714706,2039.0860125132,-698.3205415835,1826.2625376167,1396.8661110504,3040.9325076158,-319.4377663573,63.7081369536,1508.6913127323,1306.7422311716,1678.5591688902,-200.9031289356,-2525.389698032,-4753.4785739049,-3610.4116615604,-5117.7730797136,-578.7377457687,0.6112610605,0.6164561249,0.3869913358,1.5202491097,0.2732729591,2.6426982705,-1.1118263286,-0.2650834336,-0.8171372099,0.7829288211,-0.2429839842,-7.1128094939,-95.8919432247,0.136617012,0.5577498171,1.3327319442,1129.7543407337,1.1039820531,0.5435643072,0.9200588745,-688.0020585108,2.0072548384,-1.1946119736,-1.2327273538,-0.6519540769,870.2342813238,1.0199283504,3.3583884872,-1.9845914618,-0.2122988726,-0.3778198764,-0.1838142494,181.3937050886,-1.1933918628,-14.6525112044,-0.3005973631,-0.8608030796,-2.2843042133,0.451220662,0.483303654,-0.2629542481,621.0612409394,-0.3774755415,-0.1649830208,1.2791371759,-361.3466890403,-50.0906647876,-0.5291068769,-0.4277472246,-1440.3969511206,-0.1361148307,-0.6984625092,0.2942756694,-0.9171967341,198.8850929707,-1.0530376225,137.7442510368,-0.1804864777,-13907.3315065908,-1566.0836500332,-1757.3500497705,-21301.9572820245,-2052.8440692464,-716.7897978412,-1866.8920625942,-1595.9793804041,-1779.4120732782,-1550.6002180063,-1861.1355501195,-996.2817566027,-13224.5721802596,-1737.3361801235,-2150.4079146534,-4065.4997912771,-9844.4430649355,-81.7873452509,-1540.6473812318,-1821.797938617,1890.7657673967,-1203.0379067448,-1366.8327330249,-1876.9236980641,-4078.9767555177,-23985.5603201997,-12717.8224143054,-20981.8883999158,-1876.9222112809,109.3713332997,0.3368106838,-0.1848866287,326.4878748741,0.1657845968,0.8160660463,-0.1122199756,-0.5207944412,-7.4680079665,-0.5887662623,-0.024638657,0.2919473346,238.046786203,-1.0586051078,0.596821524,0.5738308329,344.5123552606,8.6216031214,-0.245284693,-0.5315257736,-92.7823242944,0.3681418037,-0.8841857171,-0.6877689492,-0.2442156566,-8.106981037,-1.2394444461,345.0306877433,-0.2642634166,155.0638331073,0.739209252,-0.5228264352,167.4995100651,0.2150319437,-1.2097035795,1.533449786,-1.0673035788,49.7687464401,147.3880682121,1.2475991081,0.4720014879,239.6899769013,146.0694994291,0.1465166458,14.585570028,38.70432303,15.4990490971,3.8415642332,1.5424442218,21.6429972149,145.5915273392,-2.7625799194,-0.9509885705,0.0677579905,710.6351364505,55.4302572072,166.9722537148,3.4640703021,272.6946605859,0.549563764,-0.4153530908,228.7581113581,-0.0108014633,-0.5268279315,0.3484000665,0.2169770492,-28.3993133486,-1.8552320749,0.524885473,-0.9689348993,12.1676136514,1.2348577872,-1.14802676,-0.5223033409,1277.3137997331,-1.1766521929,-0.9691087915,-1.5486616479,-1277.3241698355,-0.4532134902,0.4938863055,0.3802089143,0.50758615,12.8984077351,-1.2990666451,776.5358817836,0.4273940404,-0.3182351456,0.015566903,-1.7178421824,-0.8408863277,-9.3217180984,-4.1125176548,-0.4330366907,-0.9757490034,-1176.114698073,-0.8898503456,-2.6752265894,-1.2933383011,-758.6432253378,-1.3288038332,-0.1098951118,-3.4720641357,2421.0048357997,-2.2479496432,-2.0710557448,-0.0214335993,-433.4289246829,-1.2108231594,-1.4225056905,-0.4453628786,-1.730230205,238.4820938352,-0.3793654075,0.6347600358,-2.771021877,-3.2877372449,-11.1406681641,-10.396775114,-2.6901544158,-12.5186440801,-12.0307930484,-16.4282229251,-10.4634703843,0.2042287508,-72.6960923034,-11.1084974372,-11.6478382109,-6886.8583311138,-31.4410471171,-11.537494072,-186.0787023638,-2855.1826405603,-4.0780548533,-10.1699440207,-11.9033499231,-1.1649379747,-18.2002378618,-12.1206317438,-11.3466476038,-1.7560094734,0.3900378391,-2.8232950719,-7.0623324565,-11.5912092418,-9.0299259055,-24.2729751687,-30.5090066593,-8.9231821209,-31.6960280914,-21.2235710363,-23.6752104493,-12.3167853414,-56.3558080779,-7.1342368996,-23.7828837359,-22.4026141728,604.0346951366,-17.2669430871,-23.8521947807,-25.4236692708,653.3208926193,-26.032708051,-24.3159798113,-9.3046659221,83.5562142579,-19.5982843708,-17.8048876189,-24.6754398299,-20.3783769716,-3.7885830256,-9.0042177168,-8.8015926398,-23.603349668,-4144.8385637886,-749.5627585749,-446.6439288679,-6159.5661170666,-880.5969493637,-3.1733893815,-502.1253503209,-448.6743652848,-1.7768524807,-3455.3734440953,-885.3651618341,-1562.5374017465,-9850.8952308519,-839.6611736729,-502.4256179285,-1417.8417735897,-5155.9188697549,-58.6206495417,-446.8740441837,-2094.3468849053,-368.8889497767,-870.7431536557,-881.108333606,-447.0745518636,-1745.1129808662,-5282.8276666668,-2365.4683648524,-5592.0227193893,-447.0196343315,3.0612408092,1.3360762103,3.4607118896,3.8528337111,3.7595821093,3.6871633027,2.3873294529,3.6087066963,2.2040978279,3.5982277031,3.0937240168,2.5876973054,2.146138715,5.2666573005,4.4984915306,3.1364190013,3.1917650004,2.1470473167,1.7622611202,3.3516009704,1.6938986568,3.8299051997,3.7403552666,4.2429134108,3.7265466902,1.7554034758,4.3680085075,3.0551259803,6.3314618895,-2152.6510585614,0.1332039631,-0.9233356361,-2469.0577296664,-0.0388647735,240.5108373026,-0.3095535092,-3.2096632933,0.6764922684,-1640.0139640278,-0.3717893789,-0.3327271782,207.6362989551,-1289.9468928902,-1.6876999709,-0.8635592155,-863.039042251,-0.6757831504,0.5625086265,0.0572790298,-3.2125362335,0.3739323143,0.4668179855,-1.7011917352,1.6392541621,-454.9494907749,559.2770712063,-892.0176759922,0.3816122489,0.1712944259,-0.8553338641,-3.7129236326,2121.6161353881,-3.2432953176,-16.6303998162,-1.3094331853,-3.1072092656,-1113.4229978582,-2.0071228274,-0.8788077896,-53.6101962997,-277.5396563388,-1.0791595682,-1.6145289637,-0.3351765386,-64.4367109232,-1.1975268668,-1.5590312406,-1.170930088,-19.7508500957,-1.1383370394,-1.1613513111,-2.4518390088,-0.9560916582,1902.2385351104,-2.0612402642,1077.0266625778,-2.5781399871,3.2314272082,-1.0490657487,-167.3707808071,3211.6540350006,-14.0498050863,2.8106804352,-0.3201497399,-0.5052133416,185.8930610692,-51.572321891,-2.3638545025,-1.6166748411,185.7892382262,-87.5810191199,-3.2188002603,-4.0294926905,-40.5378001656,-31.7158371604,-0.6422793023,-60.735318115,-1177.095962968,-166.5243719767,-10.3284790578,-11.6688699489,-0.2956750228,2396.4650055005,1.3728852984,1624.9106900639,-5.0207279315,0.6416370342,-1.2212069991,-0.7774213813,-98.6113914811,0.2506793632,-0.464311945,0.4450826094,0.2587802905,-126.818956773,-1.1525575546,0.134248117,-0.8434568544,-1306.4270899272,0.5618925564,-0.3370842297,-1.0496815273,-1142.9824682831,-1.3365912846,-1.0915357535,-0.4421121795,-619.3061104736,-1.1631502026,-0.4228905608,0.5386209328,-0.1148023346,-1574.2442901777,-0.2916991396,-2.7633700525,-0.577497387,-38.9957629299,-0.0411571996,-0.5371686532,-3246.1123517148,0.6195822878,0.2587281468,0.4831493052,-2.0137582107,-1.1709339743,1.1085813267,0.5328285356,-0.0876720323,-5505.0197036178,-0.5125884612,0.1810874183,-0.3911570226,-2486.9616425673,1.907646181,0.0148157452,-0.5558694421,-1326.1194148586,0.4185971,0.1898442738,0.0277007603,-0.5590824139,-5837.7378161892,-37.0198669819,-4019.2246296595,-0.9872553871,-13.3309250846,-51.5607941979,-88.171029325,206.3320771242,-44.7838502414,84.7128226585,-36.9331581202,-64.3195553364,-2475.050863697,-47.8815766457,-51.8895502322,-25.3464346299,1769.2996587783,-690.3228432376,-23.8282588655,-44.9487501833,478.7421034114,-640.717706315,-51.1867638236,-115.4876088314,-287.6326586231,-227.4805958316,-61.5105195941,-33.6534907807,-54.2698004737,1756.4948440858,-151.1120356412,1152.1799687069,-38.4443201745,-0.1175045165,-0.1309275813,-0.0832723434,-0.3374972951,-0.0970311784,-0.7861690609,0.693522591,0.153432645,-0.2366414087,-0.5700846412,0.5141707805,0.2562030038,-0.896978078,-0.0638529649,0.2735538662,0.2287548597,39.3914683188,0.3344370023,-0.2866480822,0.3765186335,0.0732520227,-0.1800589265,-0.2885899616,-0.4807487099,-0.3051843642,-0.335774818,0.1413313741,0.1438956105,-0.369364243,2.8589969416,1.7946712475,3.1276364358,3.2625839953,2.1037453498,4.8291066191,3.3077587835,4.653671475,7.4901678981,8.5503720335,8.4569417746,3.4887739005,6.5489313407,7.3323886724,3.4171929111,2.2173973888,1.3066455858,7.2118520087,3.1588297276,3.4798783691,1.8372820223,2.4127708576,2.2363576358,2.1133462161,3.8492830931,13.8295977946,3.3435675818,3.9963305632,4.4245907535,2.072152122,4.2797802096,5.13092844,5.7552237959,3.5577833356,3.7085605126,3.7438154978,4.3226513331,3.8798632678,4.7444056551,4.9635184719,4.4540437492,0.9347178411,3.242834588,3.7367435781,4.8671711254,-0.8050540255,4.4729760578,4.704893199,3.639270593,1.3225394695,3.7670365287,4.8713502521,4.9719947796,4.9499560499,2.669517921,0.7157174924,5.6520053535,4.3212474279,-0.0013971255,-0.5041323648,0.2387905849,1967.5519520754,-0.2773701857,-1.0177007031,-1.290012665,-1.4053549169,-450.3660196166,-0.9735876465,-1.1134698852,-1.4136793885,-1271.1384518918,-1.3045292044,0.1380520171,-1.38815864,-529.5595304714,-1.3833212237,-1.3008530552,-0.2061818581,-1.8868601593,-1.2601430918,-0.8188436528,-1.4534889632,-0.7369178786,1233.8769745979,0.0202555778,1996.213851925,-1.1238839773,172.6680057499,-1.6148573224,-2.8415258718,4123.5443500488,-17.892841199,519.3313634127,-8.4581795558,-9.2352195246,-401.4443001054,-426.2597305025,-8.0038835716,-9.9998546239,-3691.0164119186,-10.0381863851,-8.8953144912,-3.9965784771,1057.8310696215,-2.7589398481,-4.3881807258,-23.2242387142,-141.3014597938,-19.1435076634,-49.7110590694,-9.536434777,-1.9042332306,2351.5957714921,-189.5422874379,3546.304920467,-7.9240762178,-0.7769341618,0.1644468599,-0.2725455954,1.3318836402,-0.1407647672,-0.9419977496,-0.9298144435,-0.4508943812,-38.1321066552,0.4136805262,0.3957971226,-1.3282588145,-792.8355284804,-1.2887264408,0.0546582979,1.1232886403,1349.7566847232,-0.1125196353,0.529875498,0.0397642621,-270.0376370022,0.4041456387,0.04669256,0.1075254569,-0.3689818301,42.1504522246,-0.026317811,5.4805249293,-1.2697612282
biasActivation=0,1,1
[BASIC:ACTIVATION]
"org.encog.engine.network.activation.ActivationSigmoid"
"org.encog.engine.network.activation.ActivationTANH"
"org.encog.engine.network.activation.ActivationLinear"
