encog,BasicNetwork,java,3.3.0,1,1472752211166
[BASIC]
[BASIC:PARAMS]
[BASIC:NETWORK]
beginTraining=0
connectionLimit=0
contextTargetOffset=0,0,0
contextTargetSize=0,0,0
endTraining=2
hasContext=f
inputCount=28
layerCounts=2,46,29
layerFeedCounts=2,45,28
layerContextCount=0,0,0
layerIndex=0,2,48
output=0,0,0,0,0,0,0,0,0,0,0,0,0,0,0,0,0,0,0,0,0,0,0,0,0,0,0,0,0,0,0,0,0,0,0,0,0,0,0,0,0,0,0,0,0,0,0,1,0,0,0,0,0,0,0,0,0,0,0,0,0,0,0,0,0,0,0,0,0,0,0,0,0,0,0,0,1
outputCount=2
weightIndex=0,92,1397
weights=-0.20692055,-0.2156124053,3.1428086673,-0.1839756338,-0.0072778828,-0.2930699347,-0.2233862079,0.0861142689,-0.1250599125,1.155300962,0.5232788298,-0.0032562899,0.0581884982,-0.0781705751,0.5265064321,-0.0678925822,-0.1483299561,1.1722093807,0.1731811617,0.0213204972,-0.0427536386,-0.0005980877,-0.8127232806,0.0090602481,-0.8114405882,0.1343023895,0.0489332234,-0.4058996273,-0.0816479736,-0.7454894181,0.3457666512,-0.179728344,0.8752354371,0.8085929257,0.1662841996,0.5133134859,-4.4934681177,-0.8252151952,0.1765554294,0.4058396921,0.0402113129,0.1310376484,0.1864338354,-0.2211837909,3.7594844401,0.62958828,-0.0438077773,0.6490104639,0.1155986663,0.3360325178,-0.0489984029,0.0704192207,-0.1556931334,-0.0313867407,-0.0525854716,0.226008215,-0.1424615165,-0.0228316872,0.1079210919,0.2124577231,0.0560879606,0.0981750749,0.1170350192,0.204298111,0.0545601572,0.0591712059,-0.1688871487,-0.0373885968,-0.2446872292,-0.067070419,0.4999060236,0.1092381065,-0.5454448034,0.0437847312,0.1814103222,-0.9075400383,-0.0241541029,-0.1275970687,-0.5920047764,0.1118341792,0.0329257727,-0.0746671492,-0.2159248406,0.0413975766,-0.0767152184,0.0697640178,-0.4549068078,0.0243466514,0.062345906,-0.0910597381,-0.2958066967,1.0315716836,-1163.0251340901,-14.534175163,-17.0225372701,-3226.6867234928,-2.5412223317,-3392.8860479743,-14.6026631533,-10.2421156721,-1393.2208971202,-3320.498026392,-13.9792822335,-79.7615676652,1689.8102900738,-3837.8584099399,-44.1514019901,-4704.1452374061,837.0079134952,-1019.8293757483,-13.8887312618,-272.5214700157,-2709.0169429317,-66.2661652288,-143.9071655569,-16.0061507977,-1473.7290377715,-4268.6643485402,-2304.3892815623,-2558.3281685457,-17.4718151968,-242.8718137295,37.696336402,42.9907204974,681.5251522067,42.1642721674,-8.9565133829,48.3692618449,-6.8995837522,165.8530743403,305.3397520673,107.2748185966,129.0875345053,743.0376241821,553.3390136223,47.9699292468,92.7041552284,623.4513678935,-42.3860005287,31.7818091251,-7.5472467405,9.1746841929,306.8662536349,573.2252765365,109.9066733181,215.0650871341,-648.4731521485,-955.7817837535,51.1879679154,109.4001491245,-844.5830383843,-45.4003726407,-6.0053580214,7403.5283249257,-139.3782552533,-1963.7926362314,-4.9656855264,-3.3046009858,1.5123439944,-1959.33461104,-4.2444143892,-19.3393376358,-1630.8093506535,-100.0111870757,-68.3268504542,-883.3899614479,-533.6145515256,-2133.1528995992,-6.1951267793,-4.5722194145,-1256.5348136957,-593.0437176129,-1054.8363666188,-5.8374291925,-0.3060652956,6064.9085507377,1158.8653111017,4886.9296511975,-3.9803215197,-18427.6512594921,-2889.235529539,-1334.6222218004,-24394.9207739214,-1420.1601496556,2232.0527354326,-2156.9030610057,-333.6480297757,-1609.5892046121,-879.6054980111,-2217.0631580621,-3646.6986062002,-7023.9877383916,-1211.0148806544,-1468.8072599032,-6531.2403464817,-11236.9487718825,2746.906491618,-2610.4779357119,-2460.5956140254,2991.7359098941,-208.9826539363,612.5949400147,-1929.2678666306,-6529.3023891713,-27233.3927568351,-13174.6814582093,-24505.6364191034,-1917.8466747617,1.7654338967,4.6489928312,3.5325543859,2.1776483371,10.9072641006,4.2715257277,3.2127455652,3.2550107335,1.3895098496,4.2273887054,4.1334684771,1.9571839448,1.037345908,2.8357900328,4.4965372913,2.1173456336,-0.0567174341,2.971914169,3.3841471798,6.784521062,0.0475889433,4.3378164523,2.6049084396,4.0953414767,3.3310852461,15.244252163,0.2024302791,3.1347299015,5.5656121739,-13.3070291784,-1.4299426462,-1.0413109292,1953.3129352033,0.0113659354,-4.5940484136,-0.4641318025,-3.5897597253,-89.4986479884,-0.0550844068,-0.6960113749,-0.0579803692,-144.3320461027,-1.1254138858,-0.8306984345,-0.268153958,-866.1229279943,-1.612485797,-0.1757718364,-1.491135363,-326.0171284183,-0.6487757415,-2.3769826776,-0.2394281925,-0.5992192998,242.6042992384,-28.8346396533,962.2553370086,0.239120828,17.0926446486,-2.580306051,0.5165940269,370.3014259574,0.6161822881,-2.7855128629,0.17923382,-0.2508712519,-1.3550472885,3.1672209374,0.1661316741,-0.014686166,-100.5539419001,2.853189744,0.769943543,65.5022786699,-219.0500583236,2.5683662473,-0.1568074716,-0.2503616532,-1151.9285775257,1.5469429065,0.7589600107,1.539012837,0.8935831557,-508.3112311231,5.1351494238,1422.4819146337,-0.3026121363,310.1236535088,-158.4969726933,63.3165087665,-408.1901040687,224.8070151822,-259.8121037196,-147.2185308805,163.5756681829,-36.8694772244,-1283.1822812841,-129.2070194349,264.9030106071,3509.6175803865,-212.5582771845,198.1600600841,-252.6079756104,2757.3687174147,-290.1119223001,-181.0828206734,-126.2315290068,-213.987033362,106.1765165367,78.580840889,105.277978319,-1072.5055614055,-4907.6795586696,766.6150442292,-949.2795884801,-635.8505607827,-721.4808729475,-0.4160922283,-1.7827556915,-835.6790426603,-0.8034994326,-1.1928291419,-1.3153989165,-0.8779099899,-31.4546472918,-0.8347655073,-0.8876219923,-0.7031322141,-20.038607805,-1.9224372477,-2.261413591,-1.6513863157,-1347.4829385575,-1.6498036946,-1.5053069937,-1.6088074591,-497.2261210792,-1.758499937,-1.4558358166,-1.9040329072,-0.6800779409,943.7827193446,-1.2332685244,-804.2174032666,-0.8517489993,-790.8127054885,-0.6708960364,-0.1853905412,1898.3699154471,9.4565328957,-1.7883032242,-0.711012956,-1.1382051987,-206.5466209383,12.6527934185,-1.0771084302,-4.574042519,-2210.7631564498,-13.5862899657,-1.3914117832,0.9393111844,-523.4291810162,-1.3469266975,-0.526403596,-4.4976114704,-212.6017898115,-2.8538398383,-1.5942392347,-0.25151912,34.7331268936,-1547.361992225,1144.9441999963,481.3460162597,-1.4838178712,6.6432717508,6.6454695186,1.1911021398,7.3859394289,2.0476151503,-1.0309690627,4.8031848904,-0.5564850883,11.5806815341,-1.9942150543,5.5419077759,-1.9036670346,17.3456823494,5.981451076,15.3884792066,5.9689846685,1.3469751165,3.4033484223,4.4658077656,2.0601119052,33.137194709,0.2101438838,0.4267384276,5.573755718,4.8796269276,112.6231773222,8.6791228378,34.5622099852,5.9515838024,2635.261457657,-8.7735617124,-368.9395341124,2090.357417521,-14.1528222332,-2965.2458256588,-5.213781307,-1285.5116259161,-10.0964846109,-1919.4487652093,-6.3848008765,-3.4014976038,-1952.3614057444,-2022.9725561502,-43.8352014109,1744.568862642,-4767.392698814,-842.5932880042,-16.0970107137,-14.2878140421,90.1393425562,-1214.2763067986,-2721.108692835,-43.7972511012,-5.011496957,2623.8614348407,-2081.7491322502,1322.5361863746,-43.4702275068,1233.544559746,-1243.4609364878,-27.5088465414,2010.373620448,102.2617128714,638.0348798982,-242.612863987,4.7804084079,17.754456794,-47.5839923542,-411.3408543288,-348.3771628872,1744.0070388171,-258.0877190129,41.6486727232,-1295.9261152187,-991.9963985063,-1018.4556422752,-231.3665546759,-688.1022405347,-1402.6769096088,-519.8982607994,-25.4661521989,-10.4999100188,797.228277156,3025.9659697525,1156.4454491943,228.6919824427,55.460523226,-18934.9042116752,-2622.8110618752,-2230.721781793,-25137.6172999958,-2029.0701975716,4694.8147001586,-1730.5098473499,-679.8928408178,-2553.3562268708,-1770.9685324875,-1908.7594909634,-4361.2071818465,-6778.8932367236,-1711.8313639938,-1398.548646963,-8513.6977803331,-11403.6795966078,2711.5190744392,-2550.9229116486,-1902.5725948791,2845.2305401232,-787.2427836072,-2.1914946549,-2365.8123177634,-5063.847485813,-28667.7741449627,-14434.6422162459,-25787.912414999,-2356.5391763994,-403.202734916,-1.6073215792,-1.359120527,1769.7410893505,-28.3600983898,-1.3529741648,-0.7431872108,-1.3142845083,-124.6550403366,-301.6742014793,-0.4570211132,-1.9299725184,-163.3072414841,-471.6338189603,-1.670764693,-4.230230585,-1029.1074059147,-5.9683184581,-2.0035738081,-1.3346697971,-5.9213223497,-1.4251393263,-1.1507142692,-1.7605131966,-69.7163169888,687.9240247546,195.6033482505,992.9856894874,-3.0998031216,-2670.9787474996,0.2935621214,-0.3365277615,3089.8757205067,-0.2058170806,-3.0458772253,-1.1277259041,-2.9838372615,-8.5696040023,-2.740284767,-1.0176176183,-0.3800592062,916.2560388931,-2.2005448219,0.0180484726,-1.3756452833,-953.9470276469,0.1359313388,-0.1075596858,-0.9062629526,-2246.4471548164,0.0622143844,-0.9863418786,-0.193645036,0.0752975781,336.5898990092,-4.3684643311,1141.9758440985,-1.3985845678,-80.8451408294,-3.4223849784,-2.1959481476,-260.8985926897,-3.7629475871,-24.0446732027,-2.1227707302,-0.6511090674,-163.4357995199,-5.3087942782,-1.9869660631,-9.3219291331,-363.7997572458,-0.0551297228,-1.6806360035,-16.2710666202,-1351.4479428523,-23.0159780294,-2.0086882858,-0.3272125095,-139.6727490183,-0.8024203792,-0.1827154301,-4.0727919502,-0.537775554,1605.7555812028,-5.8209708873,-598.4529876539,-2.4745710413,-2042.3242735593,-0.4927684199,0.4010026149,535.3262118369,-0.2281950064,-333.9244403576,-0.9453381561,-1.1528871938,-1.9891264888,0.5404722326,-0.4536265214,-1.0167534126,-1131.4248237402,-1.0726733462,-0.929577293,-3.3424325036,-113.5098499439,-0.9298406491,-0.3251911673,-0.454221203,-8.437543104,0.373897623,-1.097020516,-0.9715719147,-7.6510114331,-215.1179895403,977.5610259866,-161.5046544734,-1.061876775,143.8045816373,-66.2552636232,-352.9245605886,1212.4352618325,-276.5367424819,-12.2833614832,-62.9725084457,-62.9428269025,2.6832646147,-1350.6201822543,-63.5578300515,-181.3373586356,1972.402452092,-403.0369776266,-61.4818122209,-690.2755877459,-1172.5025580262,-111.7293345073,-7.5958478787,-165.4743569782,-1926.3232809606,-306.7939078255,-84.4603633524,-13.9469469495,-12.4367960354,1970.458853648,2.87894721,647.2675080226,-8.2594717849,-175.7508354872,-2.9655722616,-0.9954778974,-1524.6736313865,0.4518558142,-1212.367377235,-2.543048255,0.5896408984,-80.8982066529,-0.4480669745,-0.4608507758,-0.7932020928,-579.1279228871,1.8690934638,-1.851872115,-129.3135534262,-9.259845381,0.2019030699,-1.1074192829,-7.2816231284,-2210.8821187962,-0.8520575848,-0.7443273885,-0.2905593437,-2.2000808646,715.0015285329,-17.489937332,-999.2528408516,-1.5833547064,-1.7210655781,0.3559875424,0.2260812153,-2513.0164584797,0.143544845,0.5346693379,-1.1937859916,0.6920974551,-11.5431113651,0.5059954778,-0.6230160859,-1.018527411,-1874.1743394421,-0.1375523274,0.2596133906,-0.8208305021,-668.2029175708,-0.2897851967,-0.9759564816,-0.9608068949,-0.4351856114,-0.780403233,0.2584536005,0.1162341426,-1.1430595131,-2175.6359048272,0.2462961917,-1198.2199355631,-0.7891168535,-798.1653703584,940.4172481283,-479.9507983235,-2110.6787346802,-287.5706936477,3065.158545434,-960.1959418428,-435.0034899082,628.5267386199,3752.4486197281,-566.3371153365,814.5352232972,-162.6541220374,2482.1373974272,-672.4756727127,4139.5865747273,1173.7193704797,3040.9523428313,-293.5928974864,89.5611457551,1509.285086554,1364.9546303877,1734.4458105453,-196.9730672912,-2498.4582516349,-2285.6600861708,-956.2876244498,-2649.9545919795,-574.457689307,0.609515976,0.616202473,0.3868854887,-98.2963512024,0.2731695422,2.6426735705,-1.1121253634,-0.2652160855,-0.8181858944,0.7828602718,-0.2434318403,-7.1133459105,-124.7798077498,0.1365096096,0.5574549788,1.2749029419,-426.4389181008,1.1022268023,0.5433929673,0.9198537635,-688.0039340712,2.007082301,-1.1947270205,-1.2328969332,-0.6527433436,-1224.6501226588,0.9747314135,-678.0222284433,-1.9848235089,-0.1894000051,-0.3784209739,-0.1851991142,863.9467622361,-1.1940284739,-18.8178224143,-0.3010811993,-0.8638906241,-9.8612884725,0.3830010805,0.4819419428,-0.2630613051,1187.1969552086,-0.3793260148,-0.1654589741,1.27986914,-97.8441489347,-50.0908704309,-0.5305284915,-0.4291192534,-1440.3948144142,-0.1362258488,-0.702652635,0.2924315421,-0.9181628522,245.7449679968,-1.0529096316,161.5014477664,-0.1819080923,-16431.7771532147,-1569.1225080763,-1757.3515524955,-25401.8803414345,-2052.8455719714,-631.2758681597,-1866.9125935585,-1595.9836935355,-1779.6746960285,-1550.6007152297,-1861.1560810838,-1105.4855631626,-13333.6843902811,-1737.7086134379,-2150.4150434605,-6482.1940115875,-11032.5927254839,-81.7874084847,-1540.8176732616,-1823.2104088289,1890.7391773306,-1203.0389248813,-1366.8333800991,-1876.9256716013,-6102.6370414579,-27821.5728196097,-15477.8066209292,-25205.6286144393,-1876.929340088,105.3625683096,0.3331271292,-0.1887036459,1023.0214793586,0.1619648646,0.7966870859,-0.1159093026,-0.5243112174,-100.698968746,-0.5902120453,-0.028327984,0.28826378,517.474925211,-1.0598158675,0.593132197,0.5842977494,-11.2175691068,8.5489341098,-0.24897622,-0.5352033266,-92.8421379147,0.3655482738,-0.8871506384,-0.6914503037,-0.2507707638,-252.8693968271,-1.2427165142,33.41330788,-0.2679447711,155.0638331073,0.739209252,-0.5228264352,167.4995100651,0.2150319437,-1.2097035795,1.533449786,-1.0673035788,49.7687464401,147.3880682121,1.2475991081,0.4720014879,239.6899769013,146.0694994291,0.1465166458,14.585570028,38.70432303,15.4990490971,3.8415642332,1.5424442218,21.6429972149,145.5915273392,-2.7625799194,-0.9509885705,0.0677579905,710.6351364505,55.4302572072,166.9722537148,3.4640703021,268.1494605034,0.5486091597,-0.4179681425,-5.0192948455,-0.0117094674,-0.5386479667,0.3457850148,0.2161309835,-28.4833653716,-2.1896534931,0.5222704213,-0.9718472627,-609.6442302543,1.2346109194,-1.1504642478,-0.527889445,1832.1563020096,-1.1789877538,-0.9717238431,-1.5512766996,-1277.32426744,-0.4539888251,0.4936122617,0.3726775654,0.5069845406,3.3453763402,-1.3025154063,748.0011456115,0.4247789887,-0.3185091679,0.0149263468,-1.7184631795,-2.787850701,-9.3223335319,-4.1144121377,-0.4336576877,-0.976364437,-1176.3330824861,-0.8910122296,-2.6758671456,-1.2951831029,-1390.2757904951,-1.3317586933,-0.1117399137,-3.4761937337,2783.9433957997,-2.4062404287,-2.0716767419,-0.0232784011,-433.4285902553,-1.2143774983,-1.4231909565,-0.4459838756,-1.7364993843,-517.5429578135,-0.4574709904,-21.6314511521,-2.7716428741,-3.2710643496,-11.1430453503,-10.3971239392,-2.6911530567,-12.5188625707,-12.0789540794,-16.4379745357,-10.4656488334,0.4593903632,-72.7965014251,-11.1153580718,-11.7093167372,-6886.9855461934,-31.6300545863,-11.5378474296,-186.5600664571,-2796.7930692805,-4.0844503926,-10.1706365448,-11.903923558,-1.164681519,-18.226679121,-12.1516422094,-11.349221233,-1.756356618,0.6114986455,-2.8236133582,-7.062782387,-11.5971675565,-16.5214905296,-43.4794054007,-47.3054297852,-144.4747323556,-48.4924512173,-41.1361656203,-37.9070541062,-23.4839493217,-56.4364288628,-60.8897322237,-38.0147273928,-40.9619391477,-937.8340212478,-34.1811491962,-35.7120644948,-160.938967469,449.1514739841,-343.0272896126,-44.5899628146,-26.3193402186,81.1875769074,-60.2037186779,-81.081467326,-41.4718629558,-48.725443516,-63.8818057526,373.5410093477,-212.9843943748,-41.3127532023,-4144.8411705194,-749.5741474505,-446.6477865791,-8144.4737003588,-880.5984735426,-3.1737603555,-502.1404186089,-448.6760645695,-1.6187560258,-3456.1101586194,-885.3853937647,-1562.6318656368,-9850.9672461991,-841.7186482227,-502.4397124748,-1441.31286721,-5160.0489722426,-58.620886435,-446.8769893847,-2094.3671168359,-368.8876633718,-870.7573419488,-881.1150575453,-447.0774970647,-1745.1183424298,-5281.6629228716,-2365.7248257827,-5630.7536785008,-447.0225795326,3.0612408092,1.3360762103,3.4607118896,3.8528337111,3.7595821093,3.6871633027,2.3873294529,3.6087066963,2.2040978279,3.5982277031,3.0937240168,2.5876973054,2.146138715,5.2666573005,4.4984915306,3.1364190013,3.1917650004,2.1470473167,1.7622611202,3.3516009704,1.6938986568,3.8299051997,3.7403552666,4.2429134108,3.7265466902,1.7554034758,4.3680085075,3.0551259803,6.3314618895,-1583.7661046097,0.1004835117,-0.9234933417,263.5145939041,-0.0394633012,205.5234663304,-0.3140274585,-3.2102104271,0.6766878566,-1656.7771881052,-0.3733913773,-0.3354756771,-131.432422265,-1277.5222582649,-1.6989991161,-0.8619164324,-700.9663894369,-0.6757891442,0.5580324772,0.0235492767,-3.2097174339,0.362295142,0.4668329692,-1.8081877253,2.6349785905,495.9176850258,727.4934988009,1155.1066730599,0.3771360996,0.1638306997,-0.8625575439,-3.7152437204,1815.3775753881,-3.2456154055,-16.6237942761,-1.3166568651,-3.1073965257,-1113.5346872017,-2.0112958079,-0.8860314693,-53.6196443227,-967.091351573,-1.0884801044,-1.6217526435,-0.4766063635,-21.3608589377,-1.1992311834,-1.5662549204,-1.1781537677,-19.7259149012,-1.1455459101,-1.1663422831,-2.4541590966,-1.0014138874,726.9520670091,3.2931233263,542.8266625778,-2.580460075,-330.471429579,-1.0847803042,-167.4082279278,921.1361615239,-14.0676746255,-99.6022469241,-0.3599540604,-0.5196464954,-386.6425824602,-51.6941600338,-2.403658823,-1.8172855027,174.9725445646,-87.5999842748,-3.2586045809,-15.5415762793,-266.60050298,-31.7160995723,-0.6732193382,-60.7751224355,-1241.4327583383,-166.5356565444,-10.3297887525,-11.6989915125,0.0708237298,1666.005976003,1.4343654975,-535.1731014401,-5.056442487,0.6323513343,-1.2247641222,-0.777969567,-3149.8199353152,0.2501311775,-0.4643085498,0.4413336164,0.2572015157,-126.82048268,-1.1525955052,0.1304991241,-0.8470712041,-1320.895649527,0.5613343167,-0.3473287443,-1.0848663773,-1181.4539893863,-1.3372540852,-1.0928374871,-0.4523566941,-619.3117749586,-1.1735595295,-0.4232420181,0.5373191992,-0.1184817183,-4326.6513768016,-1.8099961568,-1545.546361952,-0.5810545101,-133.6348896075,-0.0449061925,-0.5387474281,-6634.2219868335,0.6180035129,0.2588022673,0.4794003122,-2.0153369856,-1.2699151757,1.1085500145,0.5290795427,-0.1234134002,-5519.215200618,-0.5132571219,0.1773384253,-14.5775215749,-2525.4331636705,1.9069833804,0.0110667523,-0.5596184351,-1326.1250793436,0.4144380012,0.1895066852,0.0239517674,-0.5646859802,-8426.2877132253,-1789.8418635745,-7065.7662957864,-0.9910043801,30.2318877492,-51.5547301853,-88.1657040862,2671.0204161444,-44.7785250026,74.2514120694,-36.9270781284,-64.3148950289,-2475.1061853937,-47.8534582468,-51.8835281839,-25.332351499,2394.2171570978,-690.2870997724,-23.8221788737,-44.5228145969,302.7596300312,-640.691715087,-51.1807528482,-115.4854887325,-841.4724873107,-227.4565837532,-61.5010295247,-33.6474107889,-34.7767000352,4364.9520079328,1585.3638849978,3841.9716253224,-38.4382401826,-0.100877883,-0.0551042995,-0.0823746247,-0.3290879819,-0.0961334597,-0.711948937,0.8223292908,0.1659832302,-0.2348360427,-0.5235121446,0.5291309806,0.2777456919,-0.9040618004,-0.0839372315,0.0938127749,0.2330552374,43.8447493077,-2.3043470691,-0.246489073,0.7306364108,-0.0626915616,0.6293823193,-0.2770076125,-0.4792961994,-0.3045097823,-0.3354268204,0.1414344584,0.1442315581,-0.3679117326,2.8589969416,1.7946712475,3.1276364358,3.2625839953,2.1037453498,4.8291066191,3.3077587835,4.653671475,7.4901678981,8.5503720335,8.4569417746,3.4887739005,6.5489313407,7.3323886724,3.4171929111,2.2173973888,1.3066455858,7.2118520087,3.1588297276,3.4798783691,1.8372820223,2.4127708576,2.2363576358,2.1133462161,3.8492830931,13.8295977946,3.3435675818,3.9963305632,4.4245907535,2.072152122,4.2797802096,5.13092844,5.7552237959,3.5577833356,3.7085605126,3.7438154978,4.3226513331,3.8798632678,4.7444056551,4.9635184719,4.4540437492,0.9347178411,3.242834588,3.7367435781,4.8671711254,-0.8050540255,4.4729760578,4.704893199,3.639270593,1.3225394695,3.7670365287,4.8713502521,4.9719947796,4.9499560499,2.669517921,0.7157174924,5.6520053535,4.3212474279,-0.0014276905,-0.504093804,0.2370982708,2004.6163508325,-0.280950798,-1.0442003051,-1.2899741042,-1.4058205183,-450.9969225639,-0.9739625089,-1.1134313244,-1.4136122169,-1270.1492758035,-1.3046989017,0.1380905779,-1.3794085661,-515.0296459966,-1.3854963837,-1.3008177088,-0.2061229232,-1.8909863,-1.2602013216,-0.8176229862,-1.4533952597,-0.7371202771,1244.5249495467,0.0191360431,2010.2933021978,-1.1238282568,178.3539103507,-1.6149038163,-2.8415830145,4788.755283531,-17.8928983417,97.5256974023,-8.4582260498,-9.2355287581,-395.4343323126,-427.4267362675,-8.0039300655,-9.9999011178,-3657.1414338005,-10.0453927641,-8.8953609852,-2.990531253,365.6925096215,-4.1851329161,-4.3882272198,-23.2242852081,-141.3314938319,-19.1438763977,-49.7813797757,-9.5364804714,-1.903016116,4130.0912584548,-57.0706221706,4725.0663752823,-7.9241227117,-0.7720690868,0.1656926368,-0.2722955147,112.1889211895,-0.1405146865,-0.94251751,-0.9295005929,-0.4506443005,-37.341001706,0.4134280214,0.3961326157,-1.3060569363,-330.334616098,-1.2886466411,0.0559257174,22.725794864,-77.657030276,-0.1139777871,0.530055317,0.043768182,-270.0479973564,0.4108748404,0.0470477195,0.1082423958,-0.3654373373,924.579930701,0.5114454159,552.6080758283,-1.2687050453
biasActivation=0,1,1
[BASIC:ACTIVATION]
"org.encog.engine.network.activation.ActivationSigmoid"
"org.encog.engine.network.activation.ActivationTANH"
"org.encog.engine.network.activation.ActivationLinear"
