encog,BasicNetwork,java,3.3.0,1,1472753759796
[BASIC]
[BASIC:PARAMS]
[BASIC:NETWORK]
beginTraining=0
connectionLimit=0
contextTargetOffset=0,0,0
contextTargetSize=0,0,0
endTraining=2
hasContext=f
inputCount=28
layerCounts=2,46,29
layerFeedCounts=2,45,28
layerContextCount=0,0,0
layerIndex=0,2,48
output=0,0,0,0,0,0,0,0,0,0,0,0,0,0,0,0,0,0,0,0,0,0,0,0,0,0,0,0,0,0,0,0,0,0,0,0,0,0,0,0,0,0,0,0,0,0,0,1,0,0,0,0,0,0,0,0,0,0,0,0,0,0,0,0,0,0,0,0,0,0,0,0,0,0,0,0,1
outputCount=2
weightIndex=0,92,1397
weights=0.7024927774,-0.5611875718,3.1344600644,-0.0668033668,-0.1244501498,0.3071061315,0.1321699627,-0.2480503134,0.220515254,1.1521558152,0.4061065628,-0.0031691778,-0.4792250133,0.0390016919,0.1061253511,0.1826257242,-2.1797697353,-0.5498062014,-0.4503125118,-0.0345693066,-0.1716714192,-0.0169636277,0.1825331988,-0.1080434927,-0.6942683212,0.0197983347,-0.0682390436,-0.0411049261,0.166069579,-0.6283171511,-0.2712807515,-0.0625560771,0.7580631701,-0.4149572634,0.1561026259,-0.4828225096,3.7615872243,-0.7080429282,0.3583660173,-0.0800906079,-0.0769609541,0.0138653814,0.1703549433,-1.5120402793,-1.1917210826,0.512416013,-0.0393833282,0.6233045059,0.2004462525,0.3362504922,-0.0492163773,0.0706048363,0.0941986687,-0.0006459846,-0.0515095214,-0.1357994187,-0.1426794909,-0.0524200084,0.0923661025,0.2126756976,0.0557030617,-0.1198800733,0.0785495575,-0.0579401892,0.0740752953,-0.0957382172,-0.1361261321,0.0170952726,-0.0474316767,0.032302417,0.500123998,0.0533204962,-0.5456627778,-0.0855905595,0.0897734739,-0.9073220639,0.0394081472,-0.1272241277,-0.5922227508,0.0909522034,0.0687799415,0.0871523568,-0.2069991607,0.0417705176,-0.0060015035,0.0628501862,-0.4551247822,0.024128677,0.0663247369,0.0149119216,0.010624247,1.0313537091,126.4749459099,34.7094176503,157.2014886097,-1083.7096034928,4.7640579827,-3086.7301275074,159.9049379215,66.3084081912,1087.5935225362,-3178.6916177076,160.5283188412,187.3995729597,1647.9442968635,-4042.6248495112,337.2173781238,-4594.9196761394,837.5644383199,-892.04588114,160.6188698129,-260.1209079882,-2708.9900930574,174.8380811948,-36.036840171,193.402970492,-1321.7379769555,-1641.5257885402,-1437.6102225543,-711.3564058761,157.035785878,-242.8718137295,37.696336402,42.9907204974,681.5251522067,42.1642721674,-8.9565133829,48.3692618449,-6.8995837522,165.8530743403,305.3397520673,107.2748185966,129.0875345053,743.0376241821,553.3390136223,47.9699292468,92.7041552284,623.4513678935,-42.3860005287,31.7818091251,-7.5472467405,9.1746841929,306.8662536349,573.2252765365,109.9066733181,215.0650871341,-648.4731521485,-955.7817837535,51.1879679154,109.4001491245,-836.3787323184,-45.4003896379,-6.0053880031,8997.7183768358,-139.3782777525,-1963.9314099518,-4.9656980469,-3.3046098946,1.5138660898,-1959.3386071227,-4.2444293497,-19.3393441047,-1629.9123291546,-100.0112849953,-68.3268629747,-883.3865051835,-617.0499082837,-2133.1529985587,-6.1951459766,-4.5722319349,-1256.5329287284,-593.0437242615,-1054.8363974497,-5.8374516917,-0.3060461731,7754.1082112864,1177.1724358637,6483.4634531077,-3.9803364802,-23427.6512594921,-3090.9089165858,-1334.6309525177,-29394.9207739214,-1420.6512747076,3812.5542349061,-2164.3680544835,-333.6531856117,-4960.6561427919,-879.5973496564,-2238.5623392781,-3848.371993247,-7024.227254907,-1211.0147523088,-1499.316239448,-7998.2511795681,-11171.427867745,2746.9102651001,-2617.9429291897,-2638.9184227034,-140.6174873702,-208.9826752317,612.6043972035,-1929.5069572427,-8643.1856157112,-32233.3927568351,-18008.8814582093,-29505.6364191034,-1926.1139765192,1.7654338967,4.6489928312,3.5325543859,2.1776483371,10.9072641006,4.2715257277,3.2127455652,3.2550107335,1.3895098496,4.2273887054,4.1334684771,1.9571839448,1.037345908,2.8357900328,4.4965372913,2.1173456336,-0.0567174341,2.971914169,3.3841471798,6.784521062,0.0475889433,4.3378164523,2.6049084396,4.0953414767,3.3310852461,15.244252163,0.2024302791,3.1347299015,5.5656121739,-12.4740401709,-1.429984295,-1.041352578,1454.226572738,0.0113130965,-4.9067310999,-0.4641754513,-3.5890122827,433.3740854829,-0.0551933367,-0.6960610466,-0.058024018,-145.6112281664,-1.1255209181,-0.8307481062,-0.2682607733,-866.7225026274,-1.6124353399,-0.1758195082,-1.4911927392,-794.9101143635,-0.6489007807,-2.3770660586,-0.2394810314,-0.5933003685,-436.637985355,392.9168206823,494.8130524152,0.2390711563,17.2533298966,-2.5804355185,0.5165235497,299.8524859574,0.6161205528,-2.7867321676,0.1791043525,-0.2509271065,562.2982332586,3.1668100163,0.1660022066,-0.0155654227,-165.7690433414,2.8527177118,0.7698339328,65.1277265425,-219.5180535416,2.5680557514,-0.1568743436,-0.2504662648,-1151.9300583304,1.5455068717,0.7586585637,1.5388833696,0.8941516475,-170.8467625843,11.1195111381,1336.6866698337,-0.3026790083,1699.4353941979,-25.6990303886,488.5498342493,1591.8098959313,343.7667744686,-226.6665673727,12.1389998851,322.9331989485,-26.541910089,443.7058029518,30.1505113307,311.0134072407,4265.0175803865,452.4409061926,335.8449666656,1681.5920243896,3907.3687174147,-288.1106030017,-15.8609327757,358.6947288496,-76.9460882544,1060.2805111355,1032.6848354878,264.6355090846,783.7944673303,-2907.6795586696,2766.6150442292,1050.7204115199,-470.628672885,-721.4179116568,-0.4105881127,-1.7629322074,-1540.5686216683,-0.797995317,-1.3972452189,-1.2994207432,-0.7127905498,179.3177943304,-0.9338576131,-0.8821178767,-0.4764828532,-97.9261626583,-2.1268533247,-2.2559094754,-1.7120131174,-1347.5477755759,-1.6713661391,-1.4998028781,-1.5515895046,-497.1583589767,-1.9461488059,-1.6239300546,-1.9016435369,-0.0315169159,1204.5860001612,122.6554819695,-1509.1069822746,-0.8319255152,-788.7818235854,-0.6708498995,-0.185353188,3641.1568036887,9.4565327366,-1.788386431,-0.7108347312,-1.1381782469,-206.5093510653,12.6527551218,-1.0769302054,-4.5739932717,-2207.5671364169,-13.5863241833,-1.3912335584,0.9535040321,-523.464249243,-1.3469977765,-0.5263559755,-4.4970743814,-212.6018276236,-2.8533475799,-1.5942481546,-0.2513475065,57.3246749357,1190.3702567481,2588.6018279871,2067.624782091,-1.4837702507,6.6432717508,6.6454695186,1.1911021398,7.3859394289,2.0476151503,-1.0309690627,4.8031848904,-0.5564850883,11.5806815341,-1.9942150543,5.5419077759,-1.9036670346,17.3456823494,5.981451076,15.3884792066,5.9689846685,1.3469751165,3.4033484223,4.4658077656,2.0601119052,33.137194709,0.2101438838,0.4267384276,5.573755718,4.8796269276,112.6231773222,8.6791228378,34.5622099852,5.9515838024,886.659273465,-8.7893556969,-371.6159568782,-946.266582479,-14.3340505627,-1470.1939922051,-5.735718896,-1341.7974608981,-2.4058775031,-713.8930838585,-6.9067384654,-3.4466279875,-1951.913854528,-2047.2133253473,-44.3571389998,2205.5040752426,-5138.5166168194,258.6971054495,-16.2782390432,-18.6169731795,-406.0746913702,-2049.8059135268,-2850.4824989794,-43.9180674533,-5.7308322952,523.8614348407,-3120.8255081232,-795.0100746174,-44.5521688111,1175.5363558087,-1243.4598876172,-27.5081562603,3001.0357902111,102.2624073842,3395.2223638745,-242.6121694741,4.7863718317,730.4969150566,1762.9114198418,-411.3401620477,-348.3751213564,1743.7131484748,-258.0751861674,41.649367236,-1288.4015771706,-987.7767763097,-1017.9212450542,-231.3658601631,-688.1014117975,-1402.1811901277,-519.8686184593,-25.4265725084,-10.4990768434,797.2341216007,2730.8066044162,1156.6071049688,400.9481375016,55.4612177388,-23775.9042116752,-2728.9581404447,-2230.709194244,-30137.6172999958,-2029.2072888508,7263.0195647048,-1731.2128410859,-679.8246289954,-5968.2858619786,-1756.23070836,-1910.784112923,-4376.5760447074,-6784.4697764215,-1711.8217426087,-1399.5462487459,-10016.3938913172,-11362.4750065568,2732.8737407776,-2551.7390120847,-1908.4035061228,-1040.3073881441,-787.1998203501,-0.3571956304,-2365.766557319,-6051.1429851283,-33667.7741449627,-18127.9703552539,-30787.912414999,-2356.9926035434,-403.1643559876,-1.6071234226,-1.3589198774,1895.8789506851,-28.3599022332,-1.3466049554,-0.7429910542,-1.3141597976,-123.2594402648,-301.6562967536,-0.4568249566,-1.9299069353,-196.4872511678,-471.6150290125,-1.6705685364,-4.4026442211,-1028.7433141593,-5.970043475,-2.0033776515,-1.3346042139,-10.2131634033,-1.4251522883,-1.149678363,-1.76031704,-69.713053885,824.0257180101,195.5948135127,994.411578694,-3.099606965,-4211.5478750118,0.2963653538,-0.2546196654,1810.0257054221,-0.208839193,-3.0477961355,-1.1307480165,-3.2977761392,542.0195946901,-2.7407218234,-1.0206397306,-0.3785634151,844.9491958351,-13.1043205397,0.0150263602,-5.1020443282,-929.6988006306,0.1285987527,-0.1105817982,-0.909285065,-2913.9113955223,-1.2181225361,-0.9990513858,-0.1996928658,199.6765741767,-1390.1534464674,-447.8748147226,-465.2798072547,-1.4035933457,-651.4239420993,-3.4210928459,-2.1957947015,12.5369651998,-3.7625061367,-24.044615116,-2.1223292797,-0.6479559074,-854.4129134443,-5.3087528894,-1.9865246127,-9.3203724175,-363.8338975317,-0.051901765,-1.679343871,-14.9580828289,-1319.3105127364,-23.0159226522,-2.0073961533,-0.3260903977,-229.3349056347,-0.7947952153,-0.1823106975,-4.0714998177,-0.5305091123,1661.7768804042,3.6808867516,-425.0174297645,-2.4741295908,-2041.8419543814,-0.4927199439,0.4010335858,1469.0995445387,-0.228164261,-333.9146147521,-0.9452843227,-1.1528671971,-2.0623048076,0.5405034479,-0.4535726881,-1.0166298081,-1118.2070091734,-1.0726421309,-0.9295234597,13.8816414206,-115.802408319,-0.9297928574,-0.3251426912,-0.4540975984,-8.4378462159,0.3739673503,-1.0969926664,-0.9715160813,-6.6259145001,-13.1107203705,1504.225322,745.6158543428,-1.0618209417,145.2260102368,-66.242564749,-352.9064658435,3662.166916356,-276.5240436077,-12.2733024157,-62.9544137006,-62.8050820125,-23.9420118845,-1350.6200132479,-63.5397353064,-181.3158009891,1954.8071957361,-403.0225173652,-61.4637174758,-690.2744723385,-1174.7744881129,-111.6985363723,-7.5777531337,-165.4563922728,-1926.3124512483,-306.6453484334,-84.4076413782,-13.9288522044,-12.0342744351,3267.8745288479,6.4388048129,2880.0860522177,-8.2413770399,277.4839620287,-2.9628009242,-0.9946205215,1618.6106466295,0.4527131901,680.2773444485,-2.5406466279,0.6022172353,643.4529390375,32.2061567248,-0.4596192613,-0.7923447169,-437.615878008,5.9331683261,-1.8510147391,-114.9927337598,-4.0856501145,0.7678002468,-1.106561907,-7.2792310995,-1180.7045674115,-0.0649624442,0.3890896139,-0.288215441,-0.8968289465,1414.0911075409,1134.2676772933,1052.4196081264,-1.5809530793,10.3527958737,0.3576423275,0.2265025131,817.8966615203,0.1436996699,0.5353074503,-1.1869219299,0.702686693,801.4022079775,0.5055773983,-0.6206327311,-0.9057811905,-1874.2802214938,-0.1365426804,0.2663299768,-0.8170599492,-668.2200895788,-0.2903289534,-0.9754906874,-0.9402745353,-0.9981825879,-0.6145450293,0.260379339,0.1200027764,-1.0453622283,902.6873247357,1.2457251972,1309.9950034996,-0.7875003758,-20.6333076167,1002.956085907,107.6371303386,-810.4726483834,431.5839455845,2438.6433566648,-465.5991572977,-264.672398823,1942.7199544081,3234.7238710152,-74.5138227333,846.9861661472,-67.7886659908,1813.2071909587,-376.1775504494,3977.5927841308,1950.1482040818,3040.2920134892,2.7052247768,152.0999835338,1944.1678764365,251.6837732803,583.6749534379,677.2244096731,-1615.2728518132,906.3880528372,-98.4676244498,-607.2763055615,273.3151685356,0.5720668617,0.6033398048,0.3849158388,-3661.0893126226,0.271414322,2.642189666,-1.1481285403,-0.2982537832,5.7959267454,0.7821557834,-0.2578722681,-7.1503716973,-133.4897476369,0.1351219355,0.544856108,1.1743840043,-438.4566592454,1.1006804754,0.5307940965,0.8838505866,-688.0081006613,1.8955423749,-1.1992623224,-1.245495804,-4.0035627903,-4752.6115626588,-795.7412330683,-4343.4836684433,-1.9963645797,-0.3465296157,-0.3803443271,-0.188064431,-830.3358772541,-1.1948437874,-91.6031558401,-0.3039564999,-0.8648216722,859.76781199,-0.8554596006,0.4790666422,-0.2647252522,1506.8428373447,-0.3807745301,-0.1674557106,1.2791957914,-159.6316835724,-50.0922852341,-0.5325182949,-0.431994554,-1440.7458251991,-0.3196344449,-0.722337804,0.2914065197,-1.0000403601,-1045.0294815985,-0.9945299764,-727.1944236555,-0.1838978957,-21034.3771532147,-1703.7693623692,-1757.3601299121,-30236.0803414345,-2052.8531275452,-631.2738356338,-1867.5921628924,-1596.4803876613,-4830.9053973463,-1550.6007856245,-1861.8356504177,-3355.202275897,-13336.443725287,-1737.8340382971,-2150.4973469471,-7849.3840801003,-11185.2745907358,-81.7874369959,-1542.7837284157,-1850.4127350909,1890.7066825345,-1203.0392006639,-1366.833483579,-1876.9304247506,-9809.7996014579,-32821.5728196097,-20096.5451809292,-30039.8286144393,-1877.0116435746,-443.6800845697,0.3266182662,-0.1914981415,-190.2385206414,0.1554560016,0.7967925612,-0.1224181656,-0.5271030729,-376.2625328776,-0.5903278534,-0.034834207,0.281754917,-1143.792134199,-1.0603668453,0.586623334,0.5652658661,-85.8552113934,8.5461497234,-0.2554850831,-0.5417095496,-95.088450733,0.3650104551,-0.8874336088,-0.6942447993,-0.2574136113,-1610.6323519354,-1.2492290929,-683.5105225114,-0.2744536342,155.0638331073,0.739209252,-0.5228264352,167.4995100651,0.2150319437,-1.2097035795,1.533449786,-1.0673035788,49.7687464401,147.3880682121,1.2475991081,0.4720014879,239.6899769013,146.0694994291,0.1465166458,14.585570028,38.70432303,15.4990490971,3.8415642332,1.5424442218,21.6429972149,145.5915273392,-2.7625799194,-0.9509885705,0.0677579905,710.6351364505,55.4302572072,166.9722537148,3.4640703021,267.8656952671,0.5478839243,-0.4189625963,-1090.4049962865,-0.0120284861,-1.0168148296,0.3398972477,0.2134461968,-28.6219503942,-2.7165070775,0.5199226938,-0.9888040321,-956.9374197357,1.2292240542,-1.151258734,-0.5279743878,179.0584150634,-1.1800290335,-0.9740119634,-1.5571644668,-1277.3240510319,-0.4669814683,0.4852273806,0.3655401434,0.4977991818,109.4267017907,-1.3229172584,864.6766507143,0.4224908684,-0.3142930244,0.0165694823,-1.7180409647,1165.8371353186,-9.3206319701,-4.0405362458,-0.4319561259,-0.9339342607,725.1788245863,-0.8449621749,-2.6741144056,-1.2519534421,-2098.041742522,-1.3268461143,-0.1066920223,-3.4785264657,2284.6453559136,-0.7775144096,-2.06997518,-0.0182305097,-433.4285134081,-1.1868421425,-1.4179029978,-0.4442823138,0.4593425729,916.7968323402,144.9206404833,1464.6609980926,-2.7699413122,-3.271154914,-11.160106144,-10.4023553788,-52.5498488682,-12.5240940103,-1138.750164432,-17.233604556,-10.5389077934,-610.0612103529,-79.844725958,-11.311085453,-16.352160529,-6889.8004203393,-102.6589079906,-11.548276332,-186.5953571977,-2799.1467797932,-4.9863612469,-10.17638746,-11.9640328515,-1.1647203696,-109.1568624016,-63.2367781557,-11.8266199443,-2.7014812562,0.6014630288,-3.7687379963,-7.4548127325,-12.1569239935,-15.4434517469,-37.4222277147,-44.4463793952,1263.2835365635,-44.8299278857,-40.7923051777,-16.9734480234,29.1901977218,-56.1701797683,-60.6015030753,-17.0811213099,-38.8587524512,-793.4856887046,-33.3954265561,-18.2673927591,-53.5586210825,457.2328134627,-336.5237478092,-37.3213495914,-11.0779782269,81.2339693753,-10.5949601977,-77.4506871041,-37.8093396242,38.4054032368,1232.6996657362,1495.5210920234,1266.724527241,-20.3791471195,-4144.841272442,-749.5985857276,-446.6760914303,-11496.8058393668,-880.6042426472,-8.9855166332,-502.5717497842,-448.8208788016,-266.4491718699,-3494.5587730003,-885.5840889565,-1565.2058618156,-9851.2099160812,-1351.7188367337,-502.5876961964,-1441.9625571795,-5160.067969541,-58.658095873,-446.8948307864,-2094.9462577694,-368.8882371997,-884.1342151325,-885.7419753915,-447.105442237,-1746.8573062545,-5372.0783575176,-2951.7271543526,-8138.5970215816,-447.0404209342,3.0612408092,1.3360762103,3.4607118896,3.8528337111,3.7595821093,3.6871633027,2.3873294529,3.6087066963,2.2040978279,3.5982277031,3.0937240168,2.5876973054,2.146138715,5.2666573005,4.4984915306,3.1364190013,3.1917650004,2.1470473167,1.7622611202,3.3516009704,1.6938986568,3.8299051997,3.7403552666,4.2429134108,3.7265466902,1.7554034758,4.3680085075,3.0551259803,6.3314618895,-2605.7975543265,0.1004102435,-0.9235712908,-1137.6854060959,-0.0395377968,205.6062208596,-0.3141019541,-3.2102849227,-12.2635325265,-1655.968088034,-0.3734658728,-0.3355501727,-138.5851687159,-1277.5100969518,-1.6990736117,-0.8618235983,-700.7781677838,-0.6757461133,0.5579579816,0.0234747811,-3.2097662438,0.3623205447,0.4668652617,-1.8082622209,2.6350042556,-2106.4613268941,685.0881292998,-693.1547669401,0.377061604,0.1640268968,-0.8623395303,-3.7149670711,4379.0391978025,-3.2454037082,-16.623710474,-1.3164384205,-3.1063763145,-707.0937938537,-2.0112356896,-0.8858130247,-53.6191153276,-903.1309068022,-1.0881529418,-1.6215341989,-0.4411461385,54.0518198386,-1.1991850191,-1.5660364758,-1.1777844825,-19.7259252042,-1.1451667398,-1.1661299721,-2.4539469684,-0.7338430304,3464.9903069973,1605.8546259467,3065.7443537439,-2.5802479467,-334.8296315653,-1.0836820982,-167.4080586522,2093.2678609338,-14.0676443108,-99.7935260371,-0.358730096,-0.5196037997,-637.307583734,-51.6985320568,-2.4024348586,-1.7890932688,173.3169875114,-87.5999727914,-3.2573806165,-15.4740074612,-681.1576911035,-31.7161104571,-0.6728005669,-60.7713661162,-1228.0351077193,-166.5371832725,-10.3298204785,-11.6989481603,9.387486393,2750.3550028936,20.5028848416,819.4200379699,-5.0553370205,1.341942401,-1.2700673919,-0.7807793178,-5349.8199353152,0.244669267,-0.4644874522,0.0734269688,0.2704486816,103.868253663,-1.1530274469,0.0008918225,-1.0325170323,-1329.4951835771,0.5607949164,-0.720597773,-1.1647889831,-1183.3203184726,-1.3376786657,-1.1085677891,-0.9864406794,-619.3171525357,-1.9019834555,-0.4276716164,0.5215888972,20.5295314886,-6526.6513768016,-1006.5460307292,-3745.546361952,-0.6263577799,-2834.9638241364,-0.1620784595,-0.5605074804,-11468.4219868335,0.577318698,0.2585138092,0.1443715019,-3.3061480097,-1193.6520019925,1.108357585,0.4119072757,-5.240734385,-5528.4197383125,-0.514302358,0.0601661583,-46.5398331727,-2527.5618272845,1.9068070717,-0.1061055147,-2.0491224534,-1326.1293462941,0.1494894893,0.1859262284,-0.0932204996,-137.4771908926,-13260.4877132253,-6076.9804235745,-11899.9662957864,-1.1081766471,535.7918774714,-51.5016841079,-88.1515588396,2526.0922771364,-44.7377353004,89.7408655266,-36.809603786,-64.197568696,-2429.7692912929,-47.6186525672,-51.8427384816,-25.2148771566,2281.4268651212,-690.260444968,-23.7047045313,-44.9104039998,-764.092896401,-640.5975860298,-51.1399631459,-115.4324426551,-635.995906213,-227.4234244761,-61.4875538363,-33.6339351005,585.7866677078,3999.1520079328,1675.8253249978,3576.1716253224,-38.3207658403,-0.148711937,-0.0604007382,-0.0824148382,-0.7585026375,-0.0962311981,-0.5800225583,0.8187430752,0.1671934578,0.1423208871,-0.7920258026,0.5318446904,0.2811057037,-0.9503080146,-0.3043289292,0.0534571116,0.2321090735,66.7791464007,-5.0544844661,-0.2461425162,0.6705170537,-0.1951706181,0.6765053454,-0.2763229138,-0.4793365119,-0.3047003183,-3.3344807233,0.130740749,0.0536707698,-0.3679460752,2.8589969416,1.7946712475,3.1276364358,3.2625839953,2.1037453498,4.8291066191,3.3077587835,4.653671475,7.4901678981,8.5503720335,8.4569417746,3.4887739005,6.5489313407,7.3323886724,3.4171929111,2.2173973888,1.3066455858,7.2118520087,3.1588297276,3.4798783691,1.8372820223,2.4127708576,2.2363576358,2.1133462161,3.8492830931,13.8295977946,3.3435675818,3.9963305632,4.4245907535,2.072152122,4.2797802096,5.13092844,5.7552237959,3.5577833356,3.7085605126,3.7438154978,4.3226513331,3.8798632678,4.7444056551,4.9635184719,4.4540437492,0.9347178411,3.242834588,3.7367435781,4.8671711254,-0.8050540255,4.4729760578,4.704893199,3.639270593,1.3225394695,3.7670365287,4.8713502521,4.9719947796,4.9499560499,2.669517921,0.7157174924,5.6520053535,4.3212474279,-0.0014111631,-0.5040865015,0.2370922003,3565.3518553757,-0.2809330231,-1.0442088714,-1.2899486484,-1.4057899153,-425.2638502632,-0.9739855434,-1.1134108039,-1.413584761,-1269.8198344027,-1.3047111543,0.1381137895,-1.3796998527,-514.9034980599,-1.3855583333,-1.3007971883,-0.2061106854,-1.8912439477,-1.2601989718,-0.817610813,-1.453372495,-0.7370370328,2363.9706016172,0.0215203751,2902.7840986092,-1.1238077364,149.4419863376,-1.6152945478,-2.8418395328,561.188584523,-17.8931008587,83.1655907868,-8.4586721189,-9.2360338353,-1744.2578878748,-427.4908051509,-8.0042833102,-10.0003844923,-3665.8629067427,-10.0584173936,-8.8958070543,-2.9878795773,-589.5220347933,-5.2547024645,-4.3886208313,-23.2247312772,-141.3427570185,-19.1456506293,-49.7869942961,-9.5366987743,-1.9034748229,-638.3087415452,-1687.5643359746,727.0397607588,-7.9245163232,-0.7721304659,0.1657468155,-0.2723332823,920.8595268969,-0.1405041668,-0.9427538382,-0.9294856835,-0.4506382249,-648.6815835755,0.412790205,0.3961475251,-1.3051520183,-318.441792465,-1.2888290249,0.0559798961,19.5468087602,-173.4637145138,-0.1149776291,0.5300586977,0.0439487851,-270.0204712834,0.4107463229,0.047034458,0.1082864381,-0.3653265907,1244.6372121295,0.5038722204,1215.8632390584,-1.2686610031
biasActivation=0,1,1
[BASIC:ACTIVATION]
"org.encog.engine.network.activation.ActivationSigmoid"
"org.encog.engine.network.activation.ActivationTANH"
"org.encog.engine.network.activation.ActivationLinear"
